-8.941540867090225220e-02
-8.874593675136566162e-02
2.737792674452066422e-03
1.215751394629478455e-01
-3.179271519184112549e-02
-6.015879660844802856e-02
-5.634181946516036987e-02
6.300512701272964478e-02
1.201035231351852417e-01
3.856577351689338684e-02
-9.033745527267456055e-02
-6.308375298976898193e-02
-3.334623575210571289e-02
-5.827041808515787125e-03
-6.845222413539886475e-02
5.822502076625823975e-03
-3.858968848362565041e-03
1.187030375003814697e-01
5.713964253664016724e-02
-1.210170686244964600e-01
-6.208588927984237671e-02
-2.579881250858306885e-02
2.545648813247680664e-01
-8.166461437940597534e-02
-1.711327135562896729e-01
1.587611734867095947e-01
-1.280741766095161438e-02
-1.830056309700012207e-01
2.383548468351364136e-01
-1.537140905857086182e-01
-6.204988434910774231e-02
-1.399623006582260132e-01
-1.245240494608879089e-01
2.071877866983413696e-01
-1.799762696027755737e-01
-1.158550009131431580e-02
7.025933358818292618e-03
-5.755246430635452271e-02
1.593636572360992432e-01
-7.870090007781982422e-02
-1.516032032668590546e-02
1.363278776407241821e-01
-1.386554911732673645e-02
1.389369219541549683e-01
2.285502254962921143e-01
-1.393153816461563110e-01
-1.045282259583473206e-01
-1.558577418327331543e-01
5.142842233180999756e-02
3.804232776165008545e-01
-7.213436067104339600e-02
-5.837902799248695374e-02
-1.069930568337440491e-02
-5.200864002108573914e-02
-5.274756625294685364e-02
1.675045043230056763e-01
1.384804099798202515e-01
-9.383362531661987305e-02
6.630238890647888184e-02
-2.148390859365463257e-01
3.499618172645568848e-02
8.848813921213150024e-02
-3.812876939773559570e-01
8.750937879085540771e-02
3.379522636532783508e-02
9.304034709930419922e-02
1.401207000017166138e-01
-8.605699986219406128e-02
3.056470490992069244e-02
1.621054261922836304e-01
6.260874867439270020e-02
1.518660187721252441e-01
1.041164398193359375e-01
2.119214385747909546e-01
-1.091537028551101685e-01
1.522961258888244629e-01
-9.597361087799072266e-02
-1.076811403036117554e-01
8.701342344284057617e-02
-8.662248402833938599e-02
2.366370707750320435e-02
-2.275921404361724854e-01
-2.462376952171325684e-01
-1.462627053260803223e-01
-1.940388418734073639e-02
-1.137536540627479553e-01
-1.100814417004585266e-01
-3.340873494744300842e-02
-3.626812994480133057e-01
-3.999488055706024170e-02
3.241338953375816345e-02
4.952150583267211914e-02
1.611923426389694214e-01
-3.746786713600158691e-01
-2.197295129299163818e-01
8.478367328643798828e-02
-5.690798163414001465e-02
5.629590749740600586e-01
-3.584834039211273193e-01
-1.263102740049362183e-01
1.132580935955047607e-01
-8.928324095904827118e-03
9.774798154830932617e-02
1.054518669843673706e-01
9.046134352684020996e-02
3.673104941844940186e-02
-7.872475683689117432e-02
1.333571039140224457e-02
2.180263027548789978e-02
-7.088282704353332520e-02
9.624682366847991943e-03
-9.319075196981430054e-02
-2.148136496543884277e-02
3.410125896334648132e-02
-1.312336027622222900e-01
7.062686979770660400e-02
-1.278865933418273926e-01
-1.097534038126468658e-02
1.143696531653404236e-01
-1.216158494353294373e-01
-6.931378971785306931e-03
-1.935835629701614380e-01
-7.957920432090759277e-02
4.603035449981689453e-01
3.384075313806533813e-02
-2.435571551322937012e-01
9.359199553728103638e-02
-2.229215204715728760e-02
-1.126896515488624573e-01
-2.225942760705947876e-01
-8.301106840372085571e-02
-6.290467921644449234e-03
7.274235039949417114e-02
-2.049139440059661865e-01
-8.058940619230270386e-02
-1.381727606058120728e-01
-6.700115650892257690e-02
1.692099310457706451e-02
-1.775681823492050171e-01
-1.260346323251724243e-01
1.032148115336894989e-02
-8.996882289648056030e-02
1.034593060612678528e-01
-3.337064385414123535e-02
1.045256946235895157e-02
5.197393521666526794e-02
-7.301298528909683228e-02
1.850764900445938110e-01
7.516941428184509277e-02
-1.350803300738334656e-02
3.373295813798904419e-02
-6.577949970960617065e-03
-2.162459641695022583e-01
-1.050807759165763855e-01
-1.740025356411933899e-02
-3.796856105327606201e-02
-7.670472562313079834e-02
-1.582280844449996948e-01
-4.586925506591796875e-01
-1.849053055047988892e-01
-3.094258718192577362e-03
7.977724820375442505e-02
3.260594606399536133e-02
-1.933171302080154419e-01
-1.807794719934463501e-01
1.038372330367565155e-02
1.557487249374389648e-01
1.682582646608352661e-01
-1.450414806604385376e-01
-1.190417781472206116e-01
8.053981699049472809e-03
1.185077652335166931e-01
1.003708094358444214e-01
-9.796258807182312012e-02
6.865949928760528564e-02
9.234624356031417847e-02
2.383601106703281403e-02
7.855755090713500977e-02
3.172807991504669189e-01
2.086183801293373108e-02
1.829416304826736450e-02
2.038761414587497711e-02
3.574229776859283447e-02
4.429088160395622253e-02
-2.729259133338928223e-01
-1.174613833427429199e-01
2.053008601069450378e-02
-1.346042454242706299e-01
1.246728654950857162e-02
-2.859990596771240234e-01
6.934905052185058594e-02
-8.055547624826431274e-02
-3.192954957485198975e-01
2.466474659740924835e-02
-1.301191933453083038e-02
-2.798211202025413513e-02
-7.741261273622512817e-02
-4.084049165248870850e-01
1.731118112802505493e-01
3.092367947101593018e-01
3.209457919001579285e-02
8.104810118675231934e-02
1.502400934696197510e-01
4.780611023306846619e-02
-1.892069578170776367e-01
-1.043813303112983704e-01
-1.103190854191780090e-01
-1.015779301524162292e-01
-1.281916499137878418e-01
-1.742950826883316040e-01
-4.700775444507598877e-02
-3.465033695101737976e-02
-3.470130264759063721e-03
-3.790873661637306213e-02
-8.347809314727783203e-02
-7.247303426265716553e-02
8.284326642751693726e-03
-2.824244275689125061e-02
-9.948223084211349487e-02
-7.132521271705627441e-02
1.841291040182113647e-02
9.739710390567779541e-02
-3.244710620492696762e-03
4.884389229118824005e-03
-1.008824110031127930e-01
1.086105182766914368e-01
-1.146033406257629395e-02
7.493730634450912476e-03
-6.089856624603271484e-01
-4.210428297519683838e-01
9.485022164881229401e-03
4.780205711722373962e-02
8.126267045736312866e-02
-3.888679444789886475e-01
-1.324018239974975586e-01
-5.928244814276695251e-02
-4.190334584563970566e-03
-3.680912256240844727e-01
5.925220251083374023e-02
6.856903433799743652e-02
-7.959271967411041260e-02
-1.428344100713729858e-01
-1.137750968337059021e-01
4.742500185966491699e-01
2.066266238689422607e-01
8.325152099132537842e-02
-1.736702620983123779e-01
2.403333485126495361e-01
4.520248770713806152e-01
7.048738747835159302e-02
-4.067526161670684814e-01
-3.572881519794464111e-01
-2.963666617870330811e-01
-2.198990583419799805e-01
-2.126036286354064941e-01
-2.146073132753372192e-01
1.384131982922554016e-02
2.579033672809600830e-01
1.107308864593505859e-01
1.027209833264350891e-01
-2.192661017179489136e-01
4.277702420949935913e-03
3.637377172708511353e-02
-5.778162926435470581e-02
3.199918195605278015e-02
-8.377127349376678467e-02
5.163263995200395584e-03
7.355555146932601929e-02
-1.368785202503204346e-01
-8.792597055435180664e-02
-1.756078302860260010e-01
-1.446238160133361816e-01
-1.133995577692985535e-01
-9.787698835134506226e-02
4.944624751806259155e-02
-1.470137685537338257e-01
4.060560837388038635e-02
-6.343332584947347641e-03
8.695638179779052734e-02
1.148465424776077271e-01
1.663760542869567871e-01
5.014932155609130859e-02
7.363595068454742432e-02
-1.427250215783715248e-03
3.306599557399749756e-01
-3.755961731076240540e-02
7.462085038423538208e-02
4.257061704993247986e-02
-1.291311830282211304e-01
-1.134174689650535583e-01
4.251318424940109253e-02
1.385530978441238403e-01
6.864923983812332153e-02
-5.664998665452003479e-02
-1.042498424649238586e-01
4.953530803322792053e-02
1.394881308078765869e-01
3.908179327845573425e-02
-1.043683066964149475e-01
-1.423666477203369141e-01
2.362986281514167786e-02
2.003465145826339722e-01
8.317998796701431274e-02
-5.474804714322090149e-02
-9.484739601612091064e-02
2.254866249859333038e-02
1.713846693746745586e-03
-9.592664241790771484e-02
-9.880393743515014648e-02
-1.181581616401672363e-02
1.585384272038936615e-02
-3.531232103705406189e-02
-6.294409930706024170e-02
-5.294474214315414429e-02
4.662636667490005493e-03
-4.897867515683174133e-02
-1.233918126672506332e-02
3.581631928682327271e-02
-1.303769461810588837e-02
-3.632809966802597046e-02
3.133448958396911621e-02
1.453917771577835083e-01
1.337234079837799072e-01
-3.962255269289016724e-02
-8.223441243171691895e-02
2.804799675941467285e-01
-4.912244081497192383e-01
-3.799195587635040283e-02
2.142439633607864380e-01
1.963383406400680542e-01
-1.634811311960220337e-01
-1.836040318012237549e-01
2.455653846263885498e-01
6.231291592121124268e-02
8.554397523403167725e-02
-1.547495126724243164e-01
-4.134839773178100586e-02
1.219720095396041870e-01
3.879822324961423874e-03
1.138021722435951233e-01
-1.990479677915573120e-01
1.052485182881355286e-01
-1.058059558272361755e-01
-4.251109063625335693e-02
3.162097558379173279e-02
-3.625148092396557331e-04
1.686633527278900146e-01
-2.680552303791046143e-01
-2.279583364725112915e-01
-1.502371877431869507e-01
9.020686149597167969e-02
2.479394525289535522e-02
-2.104468643665313721e-02
-1.051642373204231262e-01
1.393539756536483765e-01
1.230754926800727844e-01
4.566967114806175232e-02
1.532333344221115112e-02
1.433383766561746597e-02
1.038155406713485718e-01
2.571653127670288086e-01
-3.803977370262145996e-02
-1.822474449872970581e-01
-2.293978631496429443e-02
8.074560761451721191e-02
1.394382119178771973e-01
3.749887272715568542e-02
-1.888073049485683441e-02
5.388366058468818665e-02
1.677108854055404663e-01
9.773083776235580444e-02
1.283048000186681747e-02
2.887234836816787720e-02
3.975942358374595642e-02
1.067650094628334045e-01
1.596717163920402527e-02
1.737843453884124756e-01
1.502986699342727661e-01
1.039518415927886963e-01
-1.523516606539487839e-02
6.198127521201968193e-04
-4.862293601036071777e-02
-8.699569851160049438e-02
2.213502116501331329e-02
2.415459789335727692e-02
-5.874599516391754150e-02
-4.287062957882881165e-02
6.978476885706186295e-03
2.001039236783981323e-01
1.057754233479499817e-01
1.258034911006689072e-02
-3.198467195034027100e-02
3.779164701700210571e-02
7.152368873357772827e-02
-3.921442851424217224e-02
6.542263925075531006e-02
5.442653782665729523e-03
2.095551639795303345e-01
1.841364353895187378e-01
-6.288007833063602448e-03
1.935651451349258423e-01
1.142256706953048706e-01
9.375510364770889282e-02
1.321654915809631348e-01
1.830820292234420776e-01
-1.054871752858161926e-01
-3.652913495898246765e-03
4.004276171326637268e-02
-1.059496849775314331e-01
-1.870996654033660889e-01
-6.918460130691528320e-02
4.381384700536727905e-02
5.463348329067230225e-02
2.781872870400547981e-03
-4.330541566014289856e-02
-2.278407067060470581e-01
-8.648214489221572876e-02
9.192228317260742188e-02
2.465733885765075684e-02
-2.659582532942295074e-02
-3.047676086425781250e-01
-9.184148907661437988e-02
1.575289666652679443e-02
-2.466405928134918213e-02
-7.578665018081665039e-02
-5.972370505332946777e-02
-5.670516565442085266e-02
-7.342640310525894165e-02
-3.229887187480926514e-01
-4.372631311416625977e-01
5.302329361438751221e-02
1.189367324113845825e-01
8.601170778274536133e-02
-5.985279753804206848e-02
-2.645049393177032471e-01
4.177235811948776245e-02
9.202493727207183838e-02
8.434319496154785156e-02
-1.022199913859367371e-01
-2.910355627536773682e-01
3.494458645582199097e-02
1.419712007045745850e-01
8.602822571992874146e-02
-9.987016767263412476e-02
-3.490625619888305664e-01
1.863976716995239258e-01
2.409552782773971558e-01
6.555739790201187134e-02
-1.514509916305541992e-01
-2.722451984882354736e-01
-2.998259067535400391e-01
-1.144691854715347290e-01
-1.048685684800148010e-01
1.511497348546981812e-01
3.070631623268127441e-01
-2.766620516777038574e-01
3.794490918517112732e-02
3.464537262916564941e-01
3.988548219203948975e-01
3.389091193675994873e-01
-3.968088626861572266e-01
-1.192070916295051575e-01
-3.742090240120887756e-02
1.782744079828262329e-01
1.400485634803771973e-01
-3.508901000022888184e-01
-2.364685833454132080e-01
4.067631065845489502e-02
9.133926779031753540e-02
1.056985706090927124e-01
-2.760010957717895508e-01
5.919921398162841797e-02
7.218873500823974609e-02
7.475213706493377686e-02
1.717814505100250244e-01
1.672088205814361572e-01
1.667275428771972656e-01
-4.991312325000762939e-02
9.664595127105712891e-02
-2.337194792926311493e-02
9.800827503204345703e-02
1.317914128303527832e-01
-1.385491341352462769e-01
3.213730826973915100e-02
2.438669204711914062e-01
1.450857222080230713e-01
4.074299335479736328e-02
7.794962264597415924e-03
1.012985035777091980e-01
-3.191268071532249451e-02
5.796505138278007507e-02
1.841958845034241676e-03
5.778292939066886902e-02
2.750755287706851959e-02
3.089057747274637222e-03
-7.475390285253524780e-02
-1.976542174816131592e-01
-7.502496987581253052e-02
-1.202991753816604614e-01
-1.523471921682357788e-01
-1.177669391036033630e-01
8.045747876167297363e-02
-1.475372463464736938e-01
-3.461650609970092773e-01
-2.450808584690093994e-01
3.755745664238929749e-02
4.379577562212944031e-02
-6.513662636280059814e-02
-1.205182373523712158e-01
-1.532204151153564453e-01
9.570645168423652649e-03
-6.734240800142288208e-02
-6.440497189760208130e-02
-1.285202950239181519e-01
-9.218615293502807617e-02
2.582385018467903137e-02
1.562848920002579689e-03
1.899934932589530945e-02
-1.911824010312557220e-02
3.084359504282474518e-02
1.859447211027145386e-01
1.596362590789794922e-01
1.285292208194732666e-01
1.071120724081993103e-01
4.257668927311897278e-02
1.289078295230865479e-01
7.709129154682159424e-02
6.110960245132446289e-02
1.078834235668182373e-01
5.426925420761108398e-02
7.381523400545120239e-02
-5.786500126123428345e-02
-2.621652185916900635e-02
-1.997056007385253906e-01
-1.077935025095939636e-01
8.587734401226043701e-02
6.938689202070236206e-02
-6.216969341039657593e-02
-1.028150692582130432e-01
-4.504621773958206177e-02
-8.345094323158264160e-02
-3.251260519027709961e-02
3.510644659399986267e-02
-1.752153187990188599e-01
-1.371895074844360352e-01
-1.449321210384368896e-01
-2.528678253293037415e-02
-2.848443575203418732e-03
-4.376436397433280945e-02
-7.106631249189376831e-02
-3.390379250049591064e-01
-2.934715449810028076e-01
-1.680960357189178467e-01
-2.002164274454116821e-01
-2.682773768901824951e-01
-1.919737905263900757e-01
-6.193976104259490967e-02
1.003092601895332336e-01
2.064079642295837402e-01
1.930065304040908813e-01
-2.221640497446060181e-01
-4.444932937622070312e-02
4.746881499886512756e-02
9.520160406827926636e-02
4.983698949217796326e-02
-1.872364878654479980e-01
-1.715585589408874512e-01
1.709828078746795654e-01
1.969766914844512939e-01
2.401115894317626953e-01
-4.722289741039276123e-01
-2.059523910284042358e-01
9.496890008449554443e-02
1.154489815235137939e-01
1.378895342350006104e-01
-2.188024520874023438e-01
6.654794514179229736e-02
-1.520064100623130798e-02
-3.086405694484710693e-01
-3.380704522132873535e-01
-6.251534819602966309e-02
3.882170468568801880e-02
2.990275435149669647e-02
-1.087445616722106934e-01
-8.769379556179046631e-02
-2.790924906730651855e-02
1.510583143681287766e-02
-3.724126890301704407e-02
-1.118140667676925659e-01
-7.588452100753784180e-02
-1.300982385873794556e-02
5.679404735565185547e-02
6.655973265878856182e-04
-5.557960271835327148e-02
-5.466158688068389893e-02
1.728531718254089355e-01
1.860487163066864014e-01
1.744345426559448242e-01
-2.608418278396129608e-02
-3.659694269299507141e-02
-1.586271822452545166e-01
-1.316326856613159180e-01
-1.231693895533680916e-03
-5.912076681852340698e-02
-1.364735327661037445e-02
1.296982448548078537e-02
1.282612327486276627e-02
4.218025505542755127e-02
-3.741819411516189575e-02
-4.949255380779504776e-03
-6.378547102212905884e-02
3.262894228100776672e-02
6.391826272010803223e-02
7.420865446329116821e-02
1.412656158208847046e-02
1.622329838573932648e-02
4.659175127744674683e-02
-1.974110119044780731e-02
5.419664084911346436e-02
3.787393495440483093e-02
1.445060875266790390e-02
-2.822434157133102417e-02
-3.650579228997230530e-02
1.054519340395927429e-01
7.984682917594909668e-02
1.151625588536262512e-01
1.057343110442161560e-01
9.647458046674728394e-02
8.847644180059432983e-02
3.293657675385475159e-02
1.231832429766654968e-01
1.121729463338851929e-01
-8.761877194046974182e-03
2.282992005348205566e-02
-2.720013447105884552e-02
8.196067810058593750e-02
1.797989159822463989e-01
1.292949765920639038e-01
-4.794046655297279358e-02
-4.738312214612960815e-03
3.353967890143394470e-02
8.438002318143844604e-02
6.420538574457168579e-02
-6.337716430425643921e-02
-1.267366856336593628e-01
-6.722513586282730103e-02
-1.085780560970306396e-01
-2.710060589015483856e-02
-1.522448807954788208e-01
-1.542932242155075073e-01
1.903738528490066528e-01
7.920557260513305664e-02
-1.946489959955215454e-01
-5.792115330696105957e-01
-2.269881814718246460e-01
-1.595155298709869385e-01
-2.072763293981552124e-01
-5.009965300559997559e-01
-5.296824574470520020e-01
-2.492893785238265991e-01
-3.473426699638366699e-01
-4.825834631919860840e-01
-2.513834238052368164e-01
-1.930060610175132751e-02
1.392748355865478516e-01
-4.424989819526672363e-01
-5.253121852874755859e-01
-3.773716688156127930e-01
-2.081555686891078949e-02
-1.464447677135467529e-01
-1.914581358432769775e-01
-2.000021487474441528e-01
-2.220347523689270020e-01
-2.457653284072875977e-01
-7.464542239904403687e-02
-2.948050200939178467e-01
1.204728558659553528e-01
1.253980100154876709e-01
-1.951667666435241699e-01
1.553494185209274292e-01
-3.382374048233032227e-01
-1.309608072042465210e-01
-3.352680206298828125e-01
-1.097386777400970459e-01
-1.687394082546234131e-02
-1.523640304803848267e-01
1.109657511115074158e-01
3.422855585813522339e-02
-7.294099777936935425e-02
-4.381604865193367004e-02
-4.132150486111640930e-02
1.396162956953048706e-01
8.149565011262893677e-02
7.645970582962036133e-02
-2.820139750838279724e-02
-7.553602755069732666e-02
3.233592212200164795e-02
1.489010546356439590e-02
1.081076264381408691e-01
-5.040200054645538330e-02
1.420446634292602539e-01
3.483422398567199707e-01
-1.305175572633743286e-02
-9.948070161044597626e-03
1.355586051940917969e-01
2.866790629923343658e-02
9.449353069067001343e-02
-4.038795828819274902e-02
1.068771183490753174e-01
1.263641268014907837e-01
-6.675963755697011948e-03
7.371230423450469971e-02
3.109162859618663788e-02
5.277182906866073608e-02
-3.128156531602144241e-03
-4.031568393111228943e-02
3.859994187951087952e-02
-5.389506742358207703e-02
1.189056783914566040e-02
1.566848717629909515e-02
-5.433698743581771851e-02
-7.883740961551666260e-02
-2.267628461122512817e-01
-1.095692533999681473e-02
1.908339411020278931e-01
1.406342238187789917e-01
1.408340483903884888e-01
1.298918724060058594e-01
-1.633080244064331055e-01
-9.921602159738540649e-02
1.809234917163848877e-01
2.263768166303634644e-01
-2.776501234620809555e-03
-2.068569809198379517e-01
-8.386332541704177856e-02
1.083353459835052490e-01
-1.699188724160194397e-03
-1.144029945135116577e-01
-1.821372658014297485e-01
-1.220149546861648560e-01
-1.054212003946304321e-01
-2.751594036817550659e-02
-4.437498003244400024e-02
-1.225536614656448364e-01
7.958659902215003967e-03
-7.558758556842803955e-02
1.281072571873664856e-02
4.213614389300346375e-02
9.205552935600280762e-02
-1.084220558404922485e-01
-2.667066827416419983e-02
2.216511033475399017e-02
-4.097247496247291565e-02
-6.011746358126401901e-03
1.665663421154022217e-01
-1.424789428710937500e-01
-2.401174232363700867e-02
-7.838730514049530029e-02
-1.819917857646942139e-01
-4.675366356968879700e-02
-8.788373321294784546e-02
-5.608656629920005798e-02
-9.796378761529922485e-02
-1.178635507822036743e-01
4.265154898166656494e-02
5.394923966377973557e-03
-1.483827978372573853e-01
-2.426135689020156860e-01
-2.613279819488525391e-01
-4.560419172048568726e-02
6.979826092720031738e-02
-1.072857528924942017e-01
3.151864185929298401e-02
-1.870107352733612061e-01
-1.713011860847473145e-01
2.460025809705257416e-02
2.815454900264739990e-01
1.599506139755249023e-01
-1.197582632303237915e-01
-6.977266818284988403e-02
-1.511710286140441895e-01
-5.773213692009449005e-03
-1.903649717569351196e-01
8.592849224805831909e-02
5.189054831862449646e-02
-1.296438872814178467e-01
-1.068426817655563354e-01
-1.108250096440315247e-01
1.774326860904693604e-01
8.843387663364410400e-02
-2.058268338441848755e-01
-1.577340513467788696e-01
-3.080637194216251373e-03
2.061670869588851929e-01
-1.215903554111719131e-03
-2.238399684429168701e-01
-1.664753258228302002e-01
-7.838281989097595215e-02
1.377915032207965851e-02
1.543814539909362793e-01
-1.225334331393241882e-01
1.749424263834953308e-02
-4.550683125853538513e-02
-2.078968286514282227e-02
7.824051380157470703e-02
-2.065126784145832062e-02
4.932852461934089661e-02
-3.132312372326850891e-02
1.001669839024543762e-01
-1.426973752677440643e-02
-2.468709833920001984e-02
-7.611588388681411743e-02
-4.310720134526491165e-03
4.970480874180793762e-02
-8.526532351970672607e-02
-2.130475081503391266e-02
8.362622000277042389e-03
1.689451783895492554e-01
8.413933217525482178e-02
-5.369270220398902893e-02
1.464242953807115555e-02
5.444433540105819702e-02
9.747177362442016602e-02
-8.873933926224708557e-03
-1.340532749891281128e-01
8.153676986694335938e-02
4.214159399271011353e-02
-2.143611311912536621e-01
1.942366808652877808e-01
1.076502874493598938e-01
4.212656989693641663e-02
-2.145556174218654633e-02
-9.530164301395416260e-02
4.053472355008125305e-02
1.325500011444091797e-01
-1.863963156938552856e-02
-1.257097572088241577e-01
-9.354124963283538818e-02
7.395345717668533325e-02
2.128414064645767212e-01
-1.123023778200149536e-01
-1.770695596933364868e-01
-1.475079804658889771e-01
4.985685646533966064e-02
1.351379156112670898e-01
-2.823368012905120850e-01
-3.525465130805969238e-01
-7.151885032653808594e-01
-1.015081882476806641e+00
-4.279358386993408203e-01
-2.573434412479400635e-01
-1.194487437605857849e-01
-2.487035840749740601e-02
-1.095240265130996704e-01
-4.139565862715244293e-03
-1.373228430747985840e-01
-6.243511289358139038e-02
-1.019084975123405457e-01
-1.513620764017105103e-01
6.078974902629852295e-02
1.508414000272750854e-01
2.451329678297042847e-02
9.578893333673477173e-02
-8.998882025480270386e-02
1.287154257297515869e-01
1.007700562477111816e-01
-1.956250369548797607e-01
-2.374955564737319946e-01
-1.034587472677230835e-01
9.177415631711483002e-03
9.768585860729217529e-02
-3.168820440769195557e-01
-1.753412783145904541e-01
-9.956890344619750977e-02
-1.094733178615570068e-01
-2.796593606472015381e-01
-4.488685354590415955e-02
-3.826806545257568359e-01
-2.590392827987670898e-01
-1.360260099172592163e-01
1.129633281379938126e-02
3.423632308840751648e-02
-2.880169153213500977e-01
5.646000802516937256e-02
-4.993040114641189575e-02
6.761091202497482300e-02
9.496171027421951294e-03
-2.227247953414916992e-01
1.242255866527557373e-01
-2.618676051497459412e-02
-6.669701077044010162e-03
-1.118508726358413696e-01
-2.342666685581207275e-02
2.597543969750404358e-02
-7.543914020061492920e-02
-1.004040315747261047e-01
-2.148183137178421021e-01
1.141261532902717590e-01
5.283654853701591492e-02
-1.890698969364166260e-01
9.520527720451354980e-02
-1.590729355812072754e-01
-2.685850560665130615e-01
-4.399503394961357117e-02
6.041431054472923279e-02
1.706545054912567139e-01
6.321572512388229370e-02
-3.516586497426033020e-02
1.419426500797271729e-01
2.468862533569335938e-01
-2.542837709188461304e-02
9.299027174711227417e-02
7.074410468339920044e-02
7.739958912134170532e-02
1.593634486198425293e-01
-3.387612476944923401e-02
2.677564136683940887e-02
4.994115233421325684e-02
2.984362840652465820e-02
1.400930583477020264e-01
-7.971665263175964355e-02
-1.106585785746574402e-01
1.191094797104597092e-02
5.896927788853645325e-03
2.638201713562011719e-01
-2.131220549345016479e-01
-1.345291286706924438e-01
9.938406944274902344e-02
8.618499338626861572e-02
-2.598705291748046875e-01
-1.224995702505111694e-01
-7.670552283525466919e-02
2.364332079887390137e-01
2.647127807140350342e-01
-5.688921213150024414e-01
-1.942380517721176147e-02
1.018869951367378235e-01
3.292828798294067383e-01
6.236685439944267273e-02
-5.814419388771057129e-01
-8.912641555070877075e-02
1.168523877859115601e-01
1.061462983489036560e-01
5.743495002388954163e-02
-3.294955790042877197e-01
-1.148871984332799911e-02
5.444218218326568604e-02
1.036289855837821960e-01
9.283202886581420898e-02
-1.361977607011795044e-01
6.154277175664901733e-02
-6.924697011709213257e-02
-1.567230373620986938e-01
-2.593043744564056396e-01
-7.379380613565444946e-02
3.620166182518005371e-01
9.043523669242858887e-02
-1.136082708835601807e-01
-1.455963402986526489e-01
-1.570710390806198120e-01
2.081721425056457520e-01
1.900776661932468414e-02
1.804617606103420258e-02
2.530736289918422699e-02
-4.238473996520042419e-02
9.138222038745880127e-02
-3.325912356376647949e-02
5.218375008553266525e-03
8.858359418809413910e-03
8.735754340887069702e-02
2.595666944980621338e-01
-4.109359532594680786e-02
8.487410843372344971e-02
5.469629168510437012e-02
-6.655315402895212173e-03
1.107378453016281128e-01
-4.912090487778186798e-03
-1.785666346549987793e-01
8.005113154649734497e-02
2.136422097682952881e-01
1.589888930320739746e-01
9.201252460479736328e-02
1.068635061383247375e-01
9.148264676332473755e-02
1.535211950540542603e-01
2.024775892496109009e-01
1.030126214027404785e-01
6.610129028558731079e-02
1.495214179158210754e-02
9.568812698125839233e-02
2.498781979084014893e-01
1.278899703174829483e-02
1.286507956683635712e-02
-2.016691416501998901e-01
-8.252118527889251709e-02
6.294226646423339844e-02
-9.296298027038574219e-02
-1.265370994806289673e-01
-1.191835701465606689e-01
1.741812527179718018e-01
-9.882215410470962524e-02
8.214075118303298950e-02
1.052685007452964783e-01
1.585870236158370972e-01
2.280440777540206909e-01
-3.284411877393722534e-02
2.255566045641899109e-02
-8.588241413235664368e-03
2.777581289410591125e-02
2.080237567424774170e-01
-1.062519177794456482e-01
-1.905058510601520538e-02
-3.572230041027069092e-02
1.431525498628616333e-01
1.317753046751022339e-01
-8.712518960237503052e-02
-4.444737359881401062e-02
-7.819721847772598267e-02
-1.305168271064758301e-01
-3.535870462656021118e-02
-4.460425302386283875e-02
-1.919156610965728760e-01
-1.667032092809677124e-01
-1.159443110227584839e-01
-7.702658884227275848e-03
1.434104442596435547e-01
9.943549335002899170e-02
2.208741195499897003e-02
-9.286180138587951660e-02
-6.006646752357482910e-01
3.722560033202171326e-02
-1.341973058879375458e-02
-1.549567580223083496e-01
-6.254953145980834961e-02
-2.361926287412643433e-01
-6.042535975575447083e-02
1.864725537598133087e-02
2.348260395228862762e-02
-1.707197539508342743e-02
-2.370063811540603638e-01
2.051700139418244362e-03
1.703221350908279419e-01
1.167019531130790710e-01
-5.014823749661445618e-02
3.018436953425407410e-02
-7.310595363378524780e-02
-4.494283348321914673e-02
-1.585307121276855469e-01
1.093266680836677551e-01
5.477962493896484375e-01
-6.036066263914108276e-02
-9.877499192953109741e-02
-2.369314432144165039e-01
-3.002104163169860840e-01
2.534886300563812256e-01
-7.719209790229797363e-02
6.004746630787849426e-02
2.768090739846229553e-02
3.646554052829742432e-01
3.328604102134704590e-01
1.632269173860549927e-01
6.610821187496185303e-02
1.350592225790023804e-01
-1.146204844117164612e-01
-2.804686315357685089e-02
1.447733677923679352e-02
1.043025869876146317e-02
2.262915112078189850e-02
-1.665910482406616211e-01
4.265158250927925110e-02
-1.296776235103607178e-01
1.015022918581962585e-01
1.998838782310485840e-01
-2.958013117313385010e-01
-4.056571424007415771e-02
1.160961166024208069e-01
1.288674473762512207e-01
1.210296750068664551e-01
1.598973274230957031e-01
9.833995997905731201e-02
1.397964507341384888e-01
5.788325332105159760e-03
-7.016418874263763428e-02
-1.508601754903793335e-02
2.180038578808307648e-02
1.799357868731021881e-02
-4.606959596276283264e-02
-2.313603460788726807e-02
3.784675896167755127e-02
3.220763802528381348e-02
-1.240971684455871582e-01
1.858997792005538940e-01
-5.593402683734893799e-02
1.740649044513702393e-01
6.915048509836196899e-02
1.270706951618194580e-02
-1.963861845433712006e-02
8.349717408418655396e-02
3.587266504764556885e-01
7.054298371076583862e-02
5.543816834688186646e-03
-8.169097453355789185e-02
-4.363754019141197205e-02
1.241999119520187378e-01
8.674781024456024170e-02
-3.390620648860931396e-02
-6.101411208510398865e-02
-8.168637752532958984e-02
-6.004052236676216125e-02
6.964834034442901611e-02
6.234367191791534424e-02
4.539817105978727341e-03
5.554267205297946930e-03
3.849345445632934570e-02
-3.817674145102500916e-02
4.064860939979553223e-02
-2.391790039837360382e-02
5.461275950074195862e-02
7.374011725187301636e-02
-1.302539557218551636e-01
1.033926978707313538e-01
1.280663758516311646e-01
-3.633126616477966309e-03
-2.601917684078216553e-01
-3.931161165237426758e-01
7.916016131639480591e-02
1.483811885118484497e-01
-2.380971983075141907e-02
-2.698993384838104248e-01
-3.892955183982849121e-01
3.900959715247154236e-02
8.092607557773590088e-02
-9.530791640281677246e-02
-1.041153222322463989e-01
-1.562311202287673950e-01
3.250022977590560913e-02
6.067658215761184692e-02
-2.452171780169010162e-02
9.820348024368286133e-02
-1.315747201442718506e-02
-1.483195424079895020e-01
-1.787127405405044556e-01
-5.185914412140846252e-02
2.504022717475891113e-01
4.053970277309417725e-01
-2.356824576854705811e-01
-1.283815950155258179e-01
-3.606576938182115555e-03
3.332176506519317627e-01
4.473755359649658203e-01
1.569418311119079590e-01
5.293645709753036499e-02
-1.637602970004081726e-02
-1.744407862424850464e-01
-2.755443798378109932e-03
7.878045737743377686e-02
3.702455013990402222e-02
-3.007935173809528351e-02
1.254605967551469803e-02
1.647147834300994873e-01
-4.901476949453353882e-02
3.451798111200332642e-02
-2.338533997535705566e-01
-1.091044619679450989e-01
2.157994061708450317e-01
1.279011815786361694e-01
4.228870198130607605e-02
-3.102958798408508301e-01
-3.105553388595581055e-01
1.986138969659805298e-01
4.843814671039581299e-02
-1.176595166325569153e-01
-3.525343239307403564e-01
-1.403118669986724854e-01
2.027783393859863281e-01
-7.578629255294799805e-02
-9.646034985780715942e-02
-7.468343526124954224e-02
6.018752604722976685e-02
8.595131337642669678e-03
-1.701176166534423828e-01
-1.373572349548339844e-01
-4.280675575137138367e-02
-4.458618909120559692e-02
9.912370145320892334e-02
-3.886153921484947205e-02
2.299687638878822327e-02
-8.080650120973587036e-03
-1.484542619436979294e-02
-1.980670988559722900e-01
3.977194894105195999e-03
-4.296118021011352539e-02
-6.658940762281417847e-02
4.253997653722763062e-02
-2.242648154497146606e-01
-9.053464233875274658e-02
-3.070285916328430176e-01
-1.413128972053527832e-01
-2.317258119583129883e-01
-6.039569377899169922e-01
5.253526195883750916e-02
9.381899982690811157e-02
-2.452547475695610046e-02
-1.803082227706909180e-01
-2.649470567703247070e-01
-5.451198294758796692e-02
7.356276363134384155e-02
4.701892286539077759e-02
-3.811033815145492554e-02
-7.891635596752166748e-02
-1.429044902324676514e-01
3.763752058148384094e-02
1.711568236351013184e-02
-1.354055255651473999e-01
-4.576068371534347534e-02
-1.208379715681076050e-01
8.894271403551101685e-02
1.206611171364784241e-01
2.039906755089759827e-02
-1.140014529228210449e-01
-4.109080135822296143e-02
5.528573691844940186e-02
8.792728930711746216e-02
2.734027802944183350e-02
-4.935844615101814270e-02
7.147519383579492569e-03
2.120838128030300140e-02
-3.443654254078865051e-02
-1.328227072954177856e-01
6.949156522750854492e-02
1.257693618535995483e-01
6.729450821876525879e-02
-7.226980477571487427e-02
-2.636365592479705811e-01
-7.495324593037366867e-03
6.287415325641632080e-02
1.647720634937286377e-01
4.973923321813344955e-03
-1.434581130743026733e-01
2.674946747720241547e-02
1.108332499861717224e-01
1.043064594268798828e-01
-7.860757410526275635e-02
-2.228427492082118988e-02
1.175521016120910645e-01
-2.815348096191883087e-02
8.492110669612884521e-02
-1.580650806427001953e-01
1.018015295267105103e-02
1.709962338209152222e-01
1.230845153331756592e-01
-1.057897359132766724e-01
-3.253445625305175781e-01
-3.857190310955047607e-01
-2.491570543497800827e-03
-2.600814402103424072e-01
-1.774346977472305298e-01
-3.570946156978607178e-01
-3.571951389312744141e-01
-1.262063235044479370e-01
-2.981828525662422180e-02
1.152216345071792603e-01
-1.653275638818740845e-01
-2.270118594169616699e-01
6.689732521772384644e-02
1.470124535262584686e-02
1.876040361821651459e-02
-2.499254792928695679e-01
-3.839202821254730225e-01
-1.143566071987152100e-01
1.767731606960296631e-01
-1.951151341199874878e-01
-2.054289132356643677e-01
-2.934368550777435303e-01
-1.204716116189956665e-01
-8.913837373256683350e-02
3.980776667594909668e-02
1.381796300411224365e-01
3.024316132068634033e-01
1.932740211486816406e-02
-2.204770445823669434e-01
-9.674984961748123169e-02
3.808506578207015991e-02
2.233712524175643921e-01
-2.056632339954376221e-01
1.107395887374877930e-01
7.270268979482352734e-04
-1.677363924682140350e-02
1.709515601396560669e-01
1.103269755840301514e-01
1.604518592357635498e-01
1.744317263364791870e-01
1.317880600690841675e-01
4.276187345385551453e-02
-6.416957476176321507e-04
-4.337181523442268372e-02
4.087110981345176697e-02
1.261801570653915405e-01
1.179331764578819275e-01
-2.795460224151611328e-01
-8.296867460012435913e-02
-1.700673401355743408e-01
-1.263608634471893311e-01
8.261568844318389893e-02
2.075050324201583862e-01
5.654607340693473816e-02
-1.230913959443569183e-02
-9.623874723911285400e-02
-4.615540057420730591e-02
1.859311312437057495e-01
6.601224839687347412e-02
1.083422303199768066e-01
-2.559798397123813629e-02
1.341151632368564606e-02
1.083382293581962585e-01
3.671189025044441223e-02
6.994813680648803711e-02
-8.600395172834396362e-02
6.537080556154251099e-02
8.458107709884643555e-02
1.206667255610227585e-02
-1.105566509068012238e-02
-6.424602866172790527e-02
-1.162716224789619446e-01
9.722473099827766418e-03
-3.108355402946472168e-02
-1.804547011852264404e-01
-6.844874005764722824e-03
-8.699250221252441406e-02
3.340611234307289124e-02
1.541400104761123657e-01
-4.499346390366554260e-02
2.623265236616134644e-02
7.262011617422103882e-02
4.602152481675148010e-02
6.412282586097717285e-02
-1.828846484422683716e-01
-6.201682239770889282e-02
9.256076812744140625e-02
3.881850279867649078e-03
1.632445901632308960e-01
-2.819309830665588379e-01
-7.757245749235153198e-02
1.373590528964996338e-01
8.523202501237392426e-03
-1.437956988811492920e-01
-3.089541792869567871e-01
-1.037161424756050110e-01
2.160750329494476318e-01
9.459424763917922974e-02
3.767346218228340149e-02
1.255633533000946045e-01
5.843498557806015015e-02
7.110442221164703369e-02
-1.329208631068468094e-02
-7.073358446359634399e-02
1.670537702739238739e-02
-1.734913587570190430e-01
-2.289003729820251465e-01
-1.470135599374771118e-01
5.284937098622322083e-02
1.304290890693664551e-01
-4.140833858400583267e-03
-2.266580313444137573e-01
-1.805151700973510742e-01
1.711104065179824829e-01
1.695516854524612427e-01
-5.508097633719444275e-02
-2.145386636257171631e-01
3.966007754206657410e-02
1.420835405588150024e-01
6.297046691179275513e-02
-6.733847409486770630e-02
-1.075292080640792847e-01
-5.682656168937683105e-02
4.223072528839111328e-02
5.431324988603591919e-02
-4.093184173107147217e-01
-2.469140589237213135e-01
2.749857902526855469e-01
9.752498939633369446e-03
5.323613807559013367e-02
-5.067035928368568420e-02
-2.449481189250946045e-01
1.856762915849685669e-03
-2.369288541376590729e-02
4.027213156223297119e-02
-1.300436817109584808e-02
-7.055588811635971069e-02
9.530123323202133179e-02
3.517623990774154663e-02
8.328306674957275391e-02
8.624554425477981567e-02
-2.326372563838958740e-01
3.373068990185856819e-03
3.489314019680023193e-02
7.524982839822769165e-02
-4.898297134786844254e-03
-3.658263981342315674e-01
1.219867169857025146e-02
-5.860904231667518616e-02
-4.829844832420349121e-02
3.959194570779800415e-02
-9.424389339983463287e-03
-9.816009551286697388e-02
-1.176759041845798492e-02
-4.037394002079963684e-02
3.185988217592239380e-02
-2.320625819265842438e-02
-5.467444658279418945e-02
4.135276004672050476e-02
6.845612078905105591e-02
-8.527537807822227478e-03
2.594771236181259155e-02
-3.391962125897407532e-02
1.239055842161178589e-01
4.706380888819694519e-02
-5.484380945563316345e-02
3.732347115874290466e-02
-5.466774478554725647e-02
6.858370453119277954e-02
-5.880601704120635986e-02
-8.422777056694030762e-02
4.635817895177751780e-04
-1.413414371199905872e-03
1.167638599872589111e-01
-8.045919984579086304e-02
-6.059131771326065063e-02
-1.713573187589645386e-01
-1.411377936601638794e-01
8.310507982969284058e-02
-1.381436139345169067e-01
-4.377457126975059509e-02
-1.302263289690017700e-01
-9.114526957273483276e-02
-3.417243808507919312e-02
-1.188871450722217560e-02
6.910254806280136108e-02
6.791905313730239868e-02
7.120908796787261963e-02
-2.834898605942726135e-02
-1.116157975047826767e-02
1.918348670005798340e-01
1.209903135895729065e-01
-5.787542834877967834e-02
7.748107612133026123e-02
1.654979288578033447e-01
2.829822599887847900e-01
7.693743705749511719e-02
2.308174222707748413e-02
-2.636633217334747314e-01
6.787446141242980957e-02
1.347596198320388794e-01
-7.618848979473114014e-02
-5.056104063987731934e-02
-3.470500111579895020e-01
9.817187488079071045e-02
1.412305980920791626e-01
-5.729090422391891479e-02
-1.324460059404373169e-01
-2.617931365966796875e-01
1.273289918899536133e-01
1.145044490694999695e-01
-3.091687709093093872e-02
-2.037221789360046387e-01
-5.044804140925407410e-02
4.353757575154304504e-02
-1.687436848878860474e-01
-3.255946636199951172e-01
-3.458462953567504883e-01
-1.643952280282974243e-01
1.944545954465866089e-01
-2.657399177551269531e-01
-4.471091628074645996e-01
-4.695719182491302490e-01
-2.641791012138128281e-03
-3.895464912056922913e-02
5.082790553569793701e-02
5.369455739855766296e-02
9.438820928335189819e-02
1.357126235961914062e-01
-2.600946230813860893e-03
-2.536401525139808655e-02
3.321054577827453613e-02
-8.002530038356781006e-02
2.356402277946472168e-01
2.438182979822158813e-01
5.685032159090042114e-02
-5.155462771654129028e-02
-7.815078645944595337e-02
3.518716096878051758e-01
1.888574808835983276e-01
1.003541722893714905e-01
2.091277576982975006e-02
-2.242943793535232544e-01
5.218147635459899902e-01
3.568493127822875977e-01
7.135404646396636963e-02
1.240861043334007263e-02
-2.891244590282440186e-01
-9.554145485162734985e-02
-1.862723380327224731e-01
-1.081760004162788391e-01
-2.523528635501861572e-01
-1.767602413892745972e-01
-1.398814492858946323e-03
-1.020269468426704407e-01
-1.912977918982505798e-02
-6.901777535676956177e-02
-1.903884410858154297e-01
-2.875089086592197418e-02
-1.095996871590614319e-01
8.471174538135528564e-02
1.000741720199584961e-01
2.780691348016262054e-02
1.799847558140754700e-02
1.059280708432197571e-01
1.201179549098014832e-01
1.713057905435562134e-01
-1.982052251696586609e-02
-1.959974132478237152e-02
3.496346771717071533e-01
2.668954432010650635e-02
5.709948390722274780e-02
-1.913954168558120728e-01
-1.417684108018875122e-01
-2.661194279789924622e-02
-3.593999147415161133e-01
-3.081523180007934570e-01
-1.419314146041870117e-01
-1.975405961275100708e-02
7.470983266830444336e-02
-2.148472070693969727e-01
-1.893722862005233765e-01
1.396353915333747864e-02
-8.181579411029815674e-03
-2.816007286310195923e-02
-2.141299545764923096e-01
-6.878921389579772949e-02
1.134783104062080383e-01
-9.003156423568725586e-02
1.725111971609294415e-03
-2.754183709621429443e-01
-2.170231565833091736e-02
9.981561452150344849e-02
7.347868382930755615e-02
5.559380352497100830e-02
-2.703344225883483887e-01
-5.730661749839782715e-02
1.792751252651214600e-01
-1.028813607990741730e-02
-1.705520972609519958e-02
5.258148163557052612e-02
-4.494163766503334045e-02
1.510965405032038689e-03
8.309127390384674072e-02
5.756834149360656738e-02
-3.291111439466476440e-02
1.921137608587741852e-02
-1.571624428033828735e-01
2.652067132294178009e-02
-2.463257163763046265e-01
-2.159564942121505737e-01
-2.080861926078796387e-01
-2.391000092029571533e-01
-1.793086677789688110e-01
-4.990524351596832275e-01
-4.084113240242004395e-01
-1.565619409084320068e-01
-2.743203043937683105e-01
-5.091713666915893555e-01
-5.631311535835266113e-01
-2.526181340217590332e-01
-1.212715432047843933e-01
-3.398992419242858887e-01
2.925386093556880951e-02
-6.170941889286041260e-02
-6.306968629360198975e-02
4.129314795136451721e-02
-4.208845496177673340e-01
-5.821117386221885681e-02
-7.455115765333175659e-02
-1.581299304962158203e-02
1.986291632056236267e-02
-8.729510009288787842e-03
-1.611029505729675293e-01
-1.132437437772750854e-01
2.725203707814216614e-02
9.059548377990722656e-02
9.367450326681137085e-02
-8.986644446849822998e-02
-6.086805835366249084e-02
2.865089476108551025e-02
6.380922347307205200e-02
-4.297877661883831024e-03
-1.051061749458312988e-01
2.829801142215728760e-01
3.003896772861480713e-01
-1.796744577586650848e-02
-9.278898686170578003e-02
-2.110515087842941284e-01
-2.652593553066253662e-01
-5.131976008415222168e-01
-2.233864367008209229e-01
2.869828045368194580e-02
-7.901471108198165894e-02
-1.040514782071113586e-01
-1.305937021970748901e-01
2.097371518611907959e-01
1.156854107975959778e-01
-1.177020929753780365e-02
-5.775908008217811584e-02
-9.546282142400741577e-02
4.654823616147041321e-02
1.221580058336257935e-02
-1.001488640904426575e-01
-1.086548436433076859e-02
-2.043374441564083099e-02
1.190787702798843384e-01
1.657114326953887939e-01
-1.638829112052917480e-01
-1.304405461996793747e-02
-3.924796183127909899e-04
-1.990335434675216675e-02
-6.085477024316787720e-02
-2.015341259539127350e-02
4.067421704530715942e-02
2.389670908451080322e-01
3.126076757907867432e-01
2.094393670558929443e-01
-2.941530197858810425e-02
-9.771414101123809814e-02
-1.425063014030456543e-01
-2.686214400455355644e-03
9.188369661569595337e-02
-4.127534851431846619e-02
-1.024535819888114929e-01
-1.306976377964019775e-01
-7.572985440492630005e-02
1.232353672385215759e-01
5.292162299156188965e-03
-1.217102110385894775e-01
-1.359721273183822632e-01
-1.460099071264266968e-01
-1.728235483169555664e-01
2.320630997419357300e-01
7.617819309234619141e-02
9.196332842111587524e-02
-1.920853406190872192e-01
-1.426948755979537964e-01
2.623609900474548340e-01
3.304145634174346924e-01
1.019874513149261475e-01
5.963155254721641541e-02
2.669315226376056671e-02
-9.758939594030380249e-02
-1.119673177599906921e-01
-7.376206666231155396e-02
-2.215553307905793190e-03
1.501247286796569824e-01
-2.658478617668151855e-01
1.387129127979278564e-01
-1.616535894572734833e-02
1.980863511562347412e-01
3.237998187541961670e-01
-3.068198561668395996e-01
4.173622280359268188e-02
3.727126494050025940e-02
3.447248339653015137e-01
3.841840922832489014e-01
-2.101093232631683350e-01
6.309146434068679810e-02
7.478044182062149048e-02
1.838030666112899780e-01
-1.989136449992656708e-03
6.087559834122657776e-02
-1.536221951246261597e-01
-2.890350222587585449e-01
-4.947477579116821289e-02
-1.222588494420051575e-01
3.040476329624652863e-02
1.407666206359863281e-01
1.785447299480438232e-01
-3.613122552633285522e-02
-1.618457883596420288e-01
2.206616662442684174e-02
-1.144676133990287781e-01
9.504182636737823486e-02
1.936938613653182983e-01
7.170364726334810257e-03
4.351888969540596008e-02
-6.433743983507156372e-02
1.958972774446010590e-02
4.643652588129043579e-02
1.043935269117355347e-01
1.070095002651214600e-01
-2.670188248157501221e-02
-1.942433565855026245e-01
-2.894312329590320587e-02
4.316445440053939819e-02
7.450634986162185669e-02
-2.531264126300811768e-01
-2.102200835943222046e-01
-7.534432690590620041e-03
7.237711548805236816e-02
-1.054165586829185486e-01
-1.009568274021148682e-01
-1.822428405284881592e-01
-2.875961661338806152e-01
7.446123659610748291e-02
-7.389570027589797974e-02
-4.385669715702533722e-03
1.316292304545640945e-02
-2.128280401229858398e-01
-9.327255189418792725e-02
9.744238853454589844e-02
7.662047445774078369e-02
1.116403006017208099e-02
9.937600791454315186e-02
-1.762159615755081177e-01
1.571726351976394653e-01
1.143077835440635681e-01
8.465705811977386475e-02
2.718097269535064697e-01
-3.265928030014038086e-01
-1.334791183471679688e-01
5.221593007445335388e-02
1.553187370300292969e-01
1.429636329412460327e-01
5.497110635042190552e-02
-1.494088023900985718e-01
4.560190811753273010e-02
6.677866727113723755e-02
2.791437208652496338e-01
2.262427955865859985e-01
-2.577480077743530273e-01
-1.124114245176315308e-01
-2.000114470720291138e-01
-1.000839471817016602e-02
5.039074271917343140e-02
-1.903489381074905396e-01
-1.149838417768478394e-02
-1.938636749982833862e-01
-1.956681013107299805e-01
-6.576251983642578125e-02
-3.195905685424804688e-01
-8.496843278408050537e-02
-2.763617932796478271e-01
-3.915070295333862305e-01
-2.496351599693298340e-01
1.428733300417661667e-02
5.730645731091499329e-02
2.828393578529357910e-01
2.996837496757507324e-01
2.290082424879074097e-01
3.830773755908012390e-02
4.799278825521469116e-02
-2.291514165699481964e-02
-1.074992567300796509e-01
-7.053422927856445312e-02
-4.076885059475898743e-02
-2.413260191679000854e-02
8.182393759489059448e-02
2.653587050735950470e-02
6.226005405187606812e-02
-1.693650037050247192e-01
8.547836542129516602e-02
3.825263818725943565e-03
-2.738174796104431152e-02
-7.960224896669387817e-02
-8.021005988121032715e-02
-5.562995001673698425e-02
-4.308668151497840881e-02
9.291325695812702179e-03
1.429852284491062164e-02
2.680255174636840820e-01
-8.522364310920238495e-03
-5.000767111778259277e-01
-5.117746815085411072e-02
2.096907198429107666e-01
8.341722190380096436e-02
-8.649823814630508423e-02
-1.296774893999099731e-01
-2.406795471906661987e-01
2.036135643720626831e-02
5.671270191669464111e-02
-5.732307955622673035e-02
-1.501078754663467407e-01
-1.029698252677917480e-01
-2.325276285409927368e-01
1.511775553226470947e-01
2.176431193947792053e-02
-7.865794748067855835e-02
-2.890885807573795319e-02
-1.158782392740249634e-01
2.014742642641067505e-01
-6.158949062228202820e-02
7.799433916807174683e-02
4.952614381909370422e-02
-2.934327721595764160e-02
2.661873400211334229e-02
9.801847860217094421e-03
-2.875965647399425507e-02
-1.386240273714065552e-01
1.082781776785850525e-01
-1.033268272876739502e-01
-8.518951386213302612e-02
-5.461233481764793396e-02
-1.746011152863502502e-02
1.081838831305503845e-01
-1.555608958005905151e-01
-6.665021926164627075e-02
5.204274132847785950e-02
-5.510450340807437897e-03
1.155761629343032837e-01
-7.387212663888931274e-02
6.039499491453170776e-02
3.770308569073677063e-02
5.001230910420417786e-02
8.338479697704315186e-02
-3.880724683403968811e-02
5.722705274820327759e-02
1.266571283340454102e-01
-2.892041206359863281e-02
7.546725869178771973e-02
5.439758673310279846e-02
-4.330978542566299438e-02
3.186803162097930908e-01
1.280678063631057739e-01
-1.601296663284301758e-01
7.621477358043193817e-03
4.376806691288948059e-02
1.286486238241195679e-01
2.000244855880737305e-01
1.043344289064407349e-02
2.858747728168964386e-02
-4.567457735538482666e-02
-8.050580322742462158e-02
-1.978369504213333130e-01
-5.283945202827453613e-01
1.239423826336860657e-01
-2.106603607535362244e-02
-3.052230477333068848e-01
-3.948766887187957764e-01
-1.292172819375991821e-01
-7.872563437558710575e-04
3.479143977165222168e-02
-2.115802764892578125e-01
-1.071616783738136292e-01
1.960201412439346313e-01
6.026719510555267334e-02
-2.713860869407653809e-01
-4.147438406944274902e-01
-3.599559143185615540e-02
-8.215283602476119995e-02
-1.304861009120941162e-01
-4.194943308830261230e-01
-3.038157522678375244e-01
-2.690269351005554199e-01
-2.404219657182693481e-01
-2.315440624952316284e-01
-4.376412928104400635e-01
-2.425194382667541504e-01
-1.986588537693023682e-01
-1.880198121070861816e-01
-2.925055287778377533e-02
2.281980514526367188e-01
2.071314454078674316e-01
-3.297077119350433350e-02
-6.213792413473129272e-02
7.244934886693954468e-02
1.674421280622482300e-01
6.352921575307846069e-02
7.130107283592224121e-02
1.905352324247360229e-01
-1.979867666959762573e-01
-1.147858202457427979e-01
3.325076997280120850e-01
3.419916927814483643e-01
-5.498551577329635620e-02
-1.642365008592605591e-01
-3.084519803524017334e-01
-6.944785360246896744e-03
-1.544549316167831421e-01
-4.371570795774459839e-02
-3.619852960109710693e-01
-1.594761162996292114e-01
1.224702689796686172e-02
-1.421450376510620117e-01
-7.026999443769454956e-02
-9.471545368432998657e-02
1.695556379854679108e-02
-3.385481610894203186e-02
-4.070653021335601807e-02
-4.641217738389968872e-02
-1.323849111795425415e-01
-8.799618482589721680e-02
3.421302139759063721e-01
8.692286163568496704e-02
-1.004382595419883728e-01
-1.077136620879173279e-01
-5.272150039672851562e-01
-2.398443222045898438e-01
1.556711494922637939e-01
8.150592446327209473e-02
3.982883319258689880e-02
-1.835990250110626221e-01
-2.272693365812301636e-01
2.560608834028244019e-02
4.280337691307067871e-02
-1.687559671700000763e-02
4.355337470769882202e-02
2.636519260704517365e-02
2.557137981057167053e-02
4.878003895282745361e-02
5.098136514425277710e-02
-4.240811988711357117e-02
5.199008062481880188e-02
7.334557175636291504e-02
-3.558592870831489563e-02
1.885010600090026855e-01
5.168161541223526001e-02
-5.637591704726219177e-02
1.236170306801795959e-01
-1.253096573054790497e-02
-3.525392711162567139e-02
3.607549667358398438e-01
3.570156097412109375e-01
-1.218635439872741699e-01
-4.204940497875213623e-01
-3.607092201709747314e-01
-1.120799258351325989e-01
-1.232690960168838501e-01
-3.075790107250213623e-01
-1.114552244544029236e-01
-4.160993993282318115e-01
4.343347251415252686e-02
4.515613615512847900e-02
5.738995969295501709e-02
2.812866866588592529e-01
-1.446390897035598755e-01
4.885919764637947083e-02
9.928840398788452148e-02
2.673580683767795563e-02
2.144402638077735901e-02
-8.880060911178588867e-02
-1.987569034099578857e-01
-8.104748278856277466e-02
2.818389236927032471e-01
8.504835516214370728e-02
1.393809020519256592e-01
3.344948887825012207e-01
3.311915993690490723e-01
1.336837112903594971e-01
1.162470206618309021e-01
2.768904156982898712e-02
-1.442308654077351093e-03
4.541575163602828979e-02
-1.670120060443878174e-01
1.873043947853147984e-03
-7.854737341403961182e-02
-3.885993361473083496e-02
1.655662208795547485e-01
-6.353388726711273193e-02
-2.642939984798431396e-01
-1.809173673391342163e-01
-1.095818579196929932e-01
1.337341032922267914e-02
-8.115839213132858276e-02
-3.476414084434509277e-01
2.747933752834796906e-02
-1.150410473346710205e-01
6.925773806869983673e-03
-8.908975869417190552e-03
2.180007100105285645e-01
2.094276249408721924e-02
-2.942846715450286865e-01
-6.264846324920654297e-01
-2.482223212718963623e-01
-5.602008104324340820e-02
8.222402632236480713e-02
1.791568065527826548e-04
-4.060625731945037842e-01
-2.493528276681900024e-01
4.067320376634597778e-02
7.290845364332199097e-02
-1.193948090076446533e-02
5.914228409528732300e-02
1.836598105728626251e-02
1.265691220760345459e-01
2.625971660017967224e-02
-3.013794310390949249e-02
1.584207080304622650e-02
9.410911798477172852e-02
-2.172675170004367828e-02
-3.746338933706283569e-02
1.707875169813632965e-02
-5.619149282574653625e-02
1.514303404837846756e-02
1.622222661972045898e-01
-1.451535522937774658e-01
-2.836413122713565826e-02
7.623501867055892944e-02
7.619901001453399658e-02
-8.254742622375488281e-02
-2.923146262764930725e-02
1.244294568896293640e-01
5.028763040900230408e-02
-7.304252684116363525e-02
-1.340281963348388672e-01
-1.175492629408836365e-01
6.648738682270050049e-02
1.370683908462524414e-01
-1.510998904705047607e-01
-9.074486047029495239e-02
-8.612404763698577881e-02
2.388034481555223465e-03
-4.377929866313934326e-02
-1.809293180704116821e-01
-9.146252274513244629e-02
-1.069440767168998718e-01
-1.165403169579803944e-03
-7.200919091701507568e-02
-1.649646461009979248e-01
-9.702061861753463745e-02
1.500291377305984497e-01
1.317359209060668945e-01
2.960869669914245605e-01
2.860573232173919678e-01
1.629404351115226746e-02
1.041672192513942719e-02
6.404814124107360840e-02
-1.298735290765762329e-02
3.453693538904190063e-02
-6.501866970211267471e-03
-2.969309501349925995e-02
1.203910261392593384e-02
-1.329949591308832169e-02
1.222953349351882935e-01
1.171775534749031067e-01
-3.147525712847709656e-02
-1.409419067203998566e-02
-1.074011027812957764e-01
3.889932855963706970e-02
1.562769412994384766e-01
-6.715283542871475220e-02
-3.696473315358161926e-02
1.204612851142883301e-02
7.103314995765686035e-02
1.849903464317321777e-01
2.372416853904724121e-01
7.929794490337371826e-02
-1.596034020185470581e-01
-3.679583221673965454e-02
-1.087924018502235413e-01
9.867245703935623169e-02
-5.540185421705245972e-02
1.273033022880554199e-01
8.433121442794799805e-02
-9.010738134384155273e-02
1.699189245700836182e-01
9.659431129693984985e-02
-1.476779114454984665e-02
-1.804359816014766693e-02
-1.522902697324752808e-01
1.054261475801467896e-01
7.598161697387695312e-02
1.133704409003257751e-01
1.850757189095020294e-02
-2.869135141372680664e-01
3.790828585624694824e-02
2.690910128876566887e-03
1.761077530682086945e-02
-1.939709335565567017e-01
-2.672727406024932861e-01
-2.530877590179443359e-01
-1.001083701848983765e-01
8.843345940113067627e-02
2.216119915246963501e-01
3.514054417610168457e-01
-5.311384052038192749e-02
-2.343796938657760620e-02
1.810128837823867798e-01
1.008169129490852356e-01
2.601504623889923096e-01
-1.299045681953430176e-01
7.781086117029190063e-02
3.227940201759338379e-01
2.360051721334457397e-01
2.499212026596069336e-01
-7.313668727874755859e-02
8.983249962329864502e-02
1.883759945631027222e-01
1.589650101959705353e-02
1.187470033764839172e-01
5.217409227043390274e-03
-6.419684737920761108e-02
2.024874687194824219e-01
-8.227134123444557190e-03
6.894607096910476685e-02
-4.499072954058647156e-02
-1.027241572737693787e-01
-2.470744214951992035e-02
2.818875014781951904e-01
-1.174466870725154877e-02
-3.357795998454093933e-02
-2.683360315859317780e-02
4.785168543457984924e-02
1.997140236198902130e-02
2.797942422330379486e-02
-1.338416635990142822e-01
-7.307489216327667236e-02
4.478861764073371887e-02
3.187627717852592468e-02
1.061215344816446304e-02
-1.473127156496047974e-01
-8.240377157926559448e-02
-7.367669790983200073e-02
3.034153953194618225e-02
-3.149382025003433228e-02
-2.649542391300201416e-01
-2.108460366725921631e-01
-1.268942356109619141e-01
1.716127544641494751e-01
1.218963190913200378e-01
-3.923376649618148804e-02
-7.522987667471170425e-03
1.106434613466262817e-01
-4.793905094265937805e-02
7.616822421550750732e-02
-1.318987011909484863e-01
1.074275374412536621e-01
7.345238327980041504e-02
6.283050030469894409e-02
5.858997465111315250e-04
-1.089309677481651306e-01
3.074224572628736496e-03
4.054917767643928528e-02
-1.793026328086853027e-01
-2.374955862760543823e-01
-1.328311115503311157e-01
2.644712850451469421e-02
1.049410086125135422e-02
-1.515921205282211304e-01
-3.066875040531158447e-01
9.308151900768280029e-02
1.186448037624359131e-01
9.651038795709609985e-02
-1.765185445547103882e-01
-3.690774738788604736e-01
2.532110214233398438e-01
8.277927339076995850e-02
6.785795092582702637e-02
1.119545027613639832e-01
9.203027933835983276e-02
1.083410903811454773e-01
-4.924413561820983887e-02
9.678506467025727034e-05
4.957429319620132446e-02
2.604691684246063232e-01
4.829156398773193359e-02
-7.849337905645370483e-02
-2.477133646607398987e-02
-2.448308095335960388e-02
5.299790203571319580e-02
8.313708007335662842e-03
-2.013084888458251953e-01
-5.267683416604995728e-02
-9.098180569708347321e-03
-2.729711867868900299e-02
1.172607913613319397e-01
-1.750524938106536865e-01
-2.415128797292709351e-02
-1.112791076302528381e-01
-3.063150048255920410e-01
8.147609233856201172e-02
-1.854115165770053864e-02
-2.550063431262969971e-01
-6.078492105007171631e-02
1.752735227346420288e-01
4.899552091956138611e-02
1.599876768887042999e-02
-6.920875608921051025e-02
-7.479666918516159058e-02
-2.332404628396034241e-02
3.118494898080825806e-02
2.776534482836723328e-02
-4.380475729703903198e-02
-6.379593908786773682e-02
-3.182950988411903381e-02
6.622227281332015991e-02
9.865728765726089478e-02
-1.678126864135265350e-02
3.012389503419399261e-02
-4.994103312492370605e-02
-1.114498823881149292e-01
-1.193073242902755737e-01
2.130130678415298462e-02
1.305041313171386719e-01
2.414949685335159302e-01
6.559926271438598633e-02
1.874337904155254364e-02
3.176682442426681519e-02
-1.165697798132896423e-01
-5.262712016701698303e-02
-1.686204522848129272e-01
-1.619672924280166626e-01
9.473887830972671509e-02
-2.926055155694484711e-02
-3.066238714382052422e-03
-1.976055353879928589e-01
-1.683962531387805939e-03
3.114782273769378662e-03
9.471811354160308838e-02
-7.937558693811297417e-04
-1.183824837207794189e-01
-4.926644265651702881e-02
6.983458250761032104e-02
1.304699182510375977e-01
-1.680888421833515167e-02
-2.940624207258224487e-02
1.380388624966144562e-02
8.129671216011047363e-02
5.746864154934883118e-02
-9.343171119689941406e-02
-1.262053102254867554e-01
2.854886837303638458e-02
-3.180620968341827393e-01
-4.022589698433876038e-02
-2.654223516583442688e-02
-8.441086858510971069e-02
-1.246360130608081818e-02
-5.311685204505920410e-01
1.343386247754096985e-02
-1.904725581407546997e-01
-8.788129687309265137e-02
-2.477963827550411224e-02
-2.612045407295227051e-01
4.799269139766693115e-03
-4.204407334327697754e-01
-9.717409312725067139e-02
-1.577642261981964111e-01
2.180114984512329102e-01
1.501188129186630249e-01
-6.311862170696258545e-02
2.423056773841381073e-02
7.385383546352386475e-02
1.503759175539016724e-01
-1.275888383388519287e-01
-3.987946808338165283e-01
-2.812663018703460693e-01
-9.884104877710342407e-02
6.330134719610214233e-02
1.481465995311737061e-01
1.553801745176315308e-01
-1.002582386136054993e-01
2.727254107594490051e-02
4.113339632749557495e-02
1.253160983324050903e-01
2.017131000757217407e-01
7.642947882413864136e-02
2.628809586167335510e-02
-1.145162731409072876e-01
5.283444747328758240e-02
4.578481893986463547e-03
9.851475059986114502e-02
1.197850927710533142e-01
6.617278605699539185e-02
2.790767326951026917e-02
-1.075931265950202942e-01
3.297841548919677734e-01
4.851170778274536133e-01
1.518786847591400146e-01
1.208224222064018250e-01
-1.652500182390213013e-01
-2.060025185346603394e-01
-1.288367658853530884e-01
-1.572694480419158936e-01
-1.856231540441513062e-01
-1.006203293800354004e-01
6.857974082231521606e-02
7.581508904695510864e-02
9.032118250615894794e-04
2.234769985079765320e-03
4.735595081001520157e-03
5.875341594219207764e-03
2.943139523267745972e-02
-1.181076392531394958e-01
1.748925447463989258e-02
5.189310386776924133e-02
-4.712714999914169312e-02
-9.186252951622009277e-02
-1.917072385549545288e-01
4.955723881721496582e-02
3.467331454157829285e-02
-1.226991787552833557e-01
-3.693359196186065674e-01
-2.051904201507568359e-01
-1.172483712434768677e-01
1.408317834138870239e-01
-1.234639212489128113e-01
-6.270615011453628540e-02
-1.090809181332588196e-01
-1.059465333819389343e-01
-1.022273674607276917e-01
7.672812044620513916e-02
7.113985717296600342e-02
-2.389361336827278137e-02
-1.243493799120187759e-02
-2.419817633926868439e-02
1.195042058825492859e-01
5.779502168297767639e-02
-2.991631999611854553e-02
4.208090156316757202e-02
7.541105151176452637e-02
1.563167083077132702e-03
-4.627193510532379150e-02
1.186318397521972656e-01
-1.269504129886627197e-01
-1.995216496288776398e-02
2.990994416177272797e-02
1.387002766132354736e-01
2.067344784736633301e-01
1.997701972723007202e-01
1.499014943838119507e-01
-4.185593724250793457e-01
-3.726248443126678467e-01
6.550685316324234009e-02
1.035217419266700745e-01
3.290541097521781921e-02
-2.512868046760559082e-01
9.198524057865142822e-02
1.512602120637893677e-01
-5.138754099607467651e-02
-1.989246308803558350e-01
-5.471267923712730408e-02
1.764180660247802734e-01
-3.876474872231483459e-02
-1.864734590053558350e-01
-1.854903846979141235e-01
2.571348547935485840e-01
2.545219361782073975e-01
-7.211581617593765259e-02
-9.655658155679702759e-02
-2.866873741149902344e-01
8.302103281021118164e-01
6.331532597541809082e-01
1.029381528496742249e-01
-3.523641526699066162e-01
-5.361983180046081543e-01
7.787346839904785156e-02
1.234044600278139114e-02
7.877288758754730225e-02
1.137916445732116699e-01
8.946498483419418335e-02
6.238201633095741272e-02
-1.428707595914602280e-02
5.369511991739273071e-02
-8.088580518960952759e-02
3.519581630825996399e-02
9.152626991271972656e-02
8.412880450487136841e-02
-7.502138148993253708e-03
-7.756608724594116211e-02
-4.502335190773010254e-02
1.938563436269760132e-01
7.593262940645217896e-02
-5.502735823392868042e-02
-1.800063550472259521e-01
-1.888333857059478760e-01
1.610757559537887573e-01
6.273733079433441162e-02
-9.413414634764194489e-03
-1.770982146263122559e-01
-1.973310261964797974e-01
-1.276229321956634521e-01
-1.514283195137977600e-02
-4.840796068310737610e-02
4.047052562236785889e-02
-1.090014427900314331e-01
7.240603119134902954e-02
-3.416448086500167847e-02
-2.367229759693145752e-02
-9.787330776453018188e-02
-1.337610781192779541e-01
1.571516394615173340e-01
2.954387851059436798e-02
-7.770671974867582321e-03
-1.028479635715484619e-01
2.747420221567153931e-02
5.695768818259239197e-02
-2.503069303929805756e-02
-1.138536725193262100e-02
-5.769027769565582275e-02
3.169708326458930969e-02
-5.651797354221343994e-02
1.019165143370628357e-01
1.712741404771804810e-01
-4.311262816190719604e-02
-4.140795394778251648e-02
-2.741696536540985107e-01
-1.756921857595443726e-01
-1.994079500436782837e-01
-3.765273094177246094e-02
-5.958501249551773071e-02
-1.335609257221221924e-01
-8.505447208881378174e-02
-3.311970084905624390e-02
1.709568314254283905e-02
6.671772338449954987e-03
7.279489934444427490e-02
6.733112782239913940e-02
2.195145934820175171e-02
7.084022462368011475e-02
1.285307109355926514e-01
2.105278372764587402e-01
7.972607016563415527e-02
5.708553269505500793e-02
4.151679575443267822e-02
9.565043449401855469e-02
1.994127333164215088e-01
1.179087907075881958e-01
7.420331239700317383e-03
-5.285190790891647339e-02
4.157485440373420715e-03
5.125188082456588745e-02
1.347026675939559937e-01
1.842150390148162842e-01
3.152205348014831543e-01
1.423907727003097534e-01
4.609981551766395569e-02
2.023205310106277466e-01
8.512489497661590576e-02
-2.443624287843704224e-02
-3.273866325616836548e-02
-8.723221719264984131e-03
1.460958570241928101e-01
4.951733723282814026e-02
-2.670176699757575989e-02
-6.590104661881923676e-03
-7.581356167793273926e-02
9.576267004013061523e-02
1.672689430415630341e-02
-3.502941108308732510e-04
-7.308744639158248901e-02
-1.520036607980728149e-01
-1.672861725091934204e-01
-2.459326982498168945e-01
-1.700481623411178589e-01
-2.647539377212524414e-01
-3.443245589733123779e-01
-7.212339341640472412e-02
9.601412340998649597e-03
-1.189009025692939758e-01
-1.078768000006675720e-01
3.119657048955559731e-03
2.177828457206487656e-03
1.865993626415729523e-02
-2.028149738907814026e-02
5.338505282998085022e-02
-2.406742274761199951e-01
-1.117224171757698059e-01
6.547991186380386353e-02
-4.226804710924625397e-03
1.076035127043724060e-01
-4.869132861495018005e-02
6.610133498907089233e-02
6.829844415187835693e-02
2.277113683521747589e-02
-9.694749489426612854e-03
-2.234253287315368652e-01
-1.740911751985549927e-01
-9.296412020921707153e-02
-2.081301063299179077e-01
-1.064139828085899353e-01
-3.569819331169128418e-01
-1.688906997442245483e-01
1.891151964664459229e-01
2.949778139591217041e-01
9.739941358566284180e-02
-2.557086348533630371e-01
1.811633072793483734e-02
2.938988991081714630e-02
-2.179614603519439697e-01
-1.530873179435729980e-01
-1.409842371940612793e-01
1.076143011450767517e-01
4.622101411223411560e-02
-3.541378304362297058e-02
1.309609264135360718e-01
2.164468765258789062e-01
1.542462259531021118e-01
8.407887071371078491e-02
-1.793844066560268402e-02
1.248437762260437012e-01
3.077864646911621094e-01
-1.280554290860891342e-02
6.246160250157117844e-03
-4.724392667412757874e-03
1.453365683555603027e-01
-3.442511558532714844e-01
-3.323168456554412842e-01
-6.982002407312393188e-02
-9.252834320068359375e-02
-8.037398010492324829e-02
-5.879049003124237061e-02
2.230432443320751190e-02
1.545967608690261841e-01
-6.283756345510482788e-02
6.147922948002815247e-02
-1.076626852154731750e-01
-4.979201033711433411e-02
-7.319644093513488770e-02
-1.384354475885629654e-02
4.160451889038085938e-02
-5.015829205513000488e-02
-3.160608559846878052e-02
-2.782741002738475800e-02
-3.099332377314567566e-02
2.204524353146553040e-02
8.242140710353851318e-02
-2.231102883815765381e-01
-8.662024885416030884e-02
-4.475671797990798950e-02
4.373041912913322449e-02
1.333157718181610107e-01
-9.854304790496826172e-02
-2.020507305860519409e-01
-5.115932598710060120e-02
-1.196055188775062561e-01
2.234612703323364258e-01
2.527653574943542480e-01
2.275621891021728516e-01
1.132494509220123291e-01
-4.811542108654975891e-02
1.125251501798629761e-01
3.478284180164337158e-02
1.870352891273796558e-03
-5.702891945838928223e-02
-5.677015706896781921e-02
-1.108772978186607361e-01
-5.164562910795211792e-02
1.508180610835552216e-02
-1.678062379360198975e-01
-1.474025249481201172e-01
-2.361119985580444336e-01
-3.552974015474319458e-02
2.221564389765262604e-02
-2.207585796713829041e-02
1.352505832910537720e-01
-3.575004041194915771e-01
-4.371306300163269043e-01
-2.157126218080520630e-01
-1.019661575555801392e-01
-8.788874000310897827e-02
-1.816132366657257080e-01
-4.451470077037811279e-02
1.969774961471557617e-01
1.221877988427877426e-03
1.723888143897056580e-02
3.972088918089866638e-02
2.289588898420333862e-01
1.824553459882736206e-01
1.239466518163681030e-01
1.361816823482513428e-01
1.998289525508880615e-01
1.625469774007797241e-01
8.357100933790206909e-02
3.172580152750015259e-02
4.369596019387245178e-02
4.152083992958068848e-01
4.108710289001464844e-01
2.284415960311889648e-01
1.080279722809791565e-01
-8.604829013347625732e-02
-4.775504171848297119e-01
-6.147537752985954285e-02
-6.753908097743988037e-02
1.278562992811203003e-01
-2.267364561557769775e-01
-2.322338754311203957e-03
1.400671750307083130e-01
9.029667824506759644e-02
3.135548904538154602e-02
-1.524941176176071167e-01
3.984915837645530701e-02
4.209906980395317078e-02
-1.478340774774551392e-01
-1.859129667282104492e-01
6.546597182750701904e-02
9.422611445188522339e-02
6.793680042028427124e-02
-2.732245996594429016e-02
-7.543534040451049805e-02
-6.348069012165069580e-02
6.358180195093154907e-02
-7.801863551139831543e-02
-3.702375665307044983e-02
-1.225086376070976257e-01
-1.668487936258316040e-01
-2.810742938891053200e-03
-5.797883495688438416e-02
1.627290248870849609e-02
6.540144979953765869e-02
1.718290001153945923e-01
3.063133545219898224e-02
-6.356319040060043335e-02
-9.694048017263412476e-02
4.450529813766479492e-02
5.469596758484840393e-02
8.180952072143554688e-02
-5.386465787887573242e-02
-3.632057458162307739e-02
-2.469787746667861938e-02
3.967647626996040344e-02
1.872609928250312805e-02
-6.885103881359100342e-02
-5.821351706981658936e-02
1.867182552814483643e-02
-2.832812489941716194e-03
-9.888246655464172363e-02
-1.080115661025047302e-01
-1.177192181348800659e-01
-8.204169571399688721e-03
-3.604459017515182495e-02
-1.477685873396694660e-03
-7.588084042072296143e-02
-1.874845176935195923e-01
-1.748907417058944702e-01
-1.630956083536148071e-01
-4.938419535756111145e-02
9.885696321725845337e-02
1.086488440632820129e-01
8.589540608227252960e-03
-2.182912677526473999e-01
-3.758601471781730652e-02
-6.586501747369766235e-02
6.278994679450988770e-02
4.271383583545684814e-02
-9.132018685340881348e-02
-8.447856456041336060e-02
-1.563317491672933102e-03
-3.992158919572830200e-03
-1.421063095331192017e-01
-2.267446815967559814e-01
1.166492467746138573e-03
1.607755720615386963e-01
4.452146217226982117e-02
-2.187107503414154053e-01
-3.247089087963104248e-01
6.498639285564422607e-02
-8.450957015156745911e-03
-1.386175155639648438e-01
-3.995227515697479248e-01
3.311761841177940369e-02
1.327134221792221069e-01
-1.285091489553451538e-01
-2.857982218265533447e-01
-5.562182068824768066e-01
-1.523921918123960495e-02
-3.856729343533515930e-02
-2.286240756511688232e-01
-6.250574588775634766e-01
-8.320991992950439453e-01
-4.718408882617950439e-01
-6.916454434394836426e-02
-2.813707888126373291e-01
-4.780560433864593506e-01
-2.362646162509918213e-01
-1.265152841806411743e-01
-2.436287468299269676e-03
-2.816767394542694092e-01
-4.414193332195281982e-01
-2.474161982536315918e-01
-9.926340728998184204e-02
-1.311692781746387482e-02
-7.247716188430786133e-02
-3.599781692028045654e-01
1.332501769065856934e-01
2.774530947208404541e-01
1.491205543279647827e-01
6.186140701174736023e-02
9.621575474739074707e-02
4.865971505641937256e-01
5.163509845733642578e-01
3.282092884182929993e-02
-1.451001316308975220e-01
-3.411192446947097778e-02
2.423562854528427124e-01
1.210982501506805420e-01
8.419619500637054443e-02
2.143443003296852112e-02
4.882783629000186920e-03
4.857421666383743286e-02
1.675885319709777832e-01
1.229906082153320312e-01
9.840121865272521973e-02
-2.070959843695163727e-02
-7.197125256061553955e-02
2.485490776598453522e-02
3.755824640393257141e-02
8.076408505439758301e-02
-2.457226514816284180e-01
-3.247207403182983398e-01
-1.197954714298248291e-01
2.095678821206092834e-02
9.848378831520676613e-04
-3.205154836177825928e-01
-1.993365287780761719e-01
-8.309037238359451294e-02
-3.454902768135070801e-02
-8.089765161275863647e-02
-7.199175953865051270e-01
-8.240793347358703613e-01
-3.709206283092498779e-01
1.258774287998676300e-02
-7.025303319096565247e-03
-8.951637744903564453e-01
-5.840019583702087402e-01
-1.724920719861984253e-01
7.289490848779678345e-02
1.484812144190073013e-02
-9.548361897468566895e-01
-6.002451181411743164e-01
-2.670885026454925537e-01
2.639026008546352386e-02
1.196264568716287613e-02
1.549254357814788818e-01
2.366794645786285400e-01
8.515517413616180420e-02
8.366521447896957397e-02
-2.386100217700004578e-02
2.231087833642959595e-01
1.121163442730903625e-01
4.087589681148529053e-02
5.237015336751937866e-02
-1.689186319708824158e-02
3.754407912492752075e-02
-1.110719293355941772e-01
-6.157896667718887329e-02
4.632438719272613525e-02
-4.987371712923049927e-02
4.752166569232940674e-02
-2.234866023063659668e-01
-2.068465650081634521e-01
-4.599500913172960281e-03
-8.666093647480010986e-02
3.865769132971763611e-02
1.052382681518793106e-02
1.013770997524261475e-01
7.198955863714218140e-02
-6.138620153069496155e-02
1.457888334989547729e-01
2.319066822528839111e-01
1.492747068405151367e-01
1.439234763383865356e-01
-2.921582572162151337e-02
4.539218172430992126e-02
1.202195957303047180e-01
2.873910404741764069e-02
1.240010634064674377e-01
-2.915645763278007507e-02
-2.057428704574704170e-03
2.472883788868784904e-03
9.188124909996986389e-03
1.858842968940734863e-01
3.706086426973342896e-02
3.753321245312690735e-03
6.051409617066383362e-02
1.390599757432937622e-01
1.208055019378662109e-01
4.881836846470832825e-02
4.833940882235765457e-03
9.041964262723922729e-02
9.139162302017211914e-02
8.284515142440795898e-02
5.486033856868743896e-02
-1.995511353015899658e-02
-3.650197088718414307e-01
-5.275658965110778809e-01
-4.407668113708496094e-02
-9.168906137347221375e-03
-8.221467584371566772e-02
-7.060176879167556763e-02
-3.900370374321937561e-02
-1.865063235163688660e-02
3.384819254279136658e-02
-8.400958776473999023e-02
-4.377945661544799805e-01
-4.000551700592041016e-01
2.610464394092559814e-02
1.079117357730865479e-01
-7.726897299289703369e-02
7.486822456121444702e-02
-4.700854793190956116e-02
5.023940280079841614e-02
1.603438556194305420e-01
-8.494736254215240479e-02
1.141052544116973877e-01
1.246892884373664856e-01
-8.286000043153762817e-02
8.605599403381347656e-02
1.181239485740661621e-01
1.088706254959106445e-01
1.761019378900527954e-01
-1.327000856399536133e-01
-6.294760107994079590e-02
-3.159756958484649658e-02
-1.780555769801139832e-02
-4.610994074027985334e-04
-1.550371795892715454e-01
-4.178135469555854797e-02
2.124270424246788025e-02
2.582389302551746368e-02
-1.893846318125724792e-02
-9.242614358663558960e-02
-2.397427335381507874e-03
6.835825741291046143e-02
6.689255684614181519e-02
6.026241555809974670e-02
-8.082824200391769409e-02
-3.469175426289439201e-03
9.339235723018646240e-03
-8.892204612493515015e-03
-8.858152665197849274e-03
-1.774434186518192291e-02
6.686514243483543396e-04
2.449600100517272949e-01
2.729435265064239502e-01
1.131851151585578918e-01
9.815091267228126526e-03
5.937361717224121094e-02
2.043660879135131836e-01
5.683642253279685974e-02
8.944719411374535412e-06
-5.740584805607795715e-02
-3.221750259399414062e-02
-3.773844568058848381e-03
-5.009804852306842804e-03
-8.632032573223114014e-02
4.237130656838417053e-02
1.576447859406471252e-02
4.217537492513656616e-02
7.035724073648452759e-02
-6.451706588268280029e-02
1.687474101781845093e-01
-8.506803214550018311e-02
-1.018492504954338074e-01
-1.588360518217086792e-01
-1.537589579820632935e-01
1.669105328619480133e-02
-2.631180360913276672e-02
-1.648711115121841431e-01
-9.412448108196258545e-02
3.662837669253349304e-02
2.283090502023696899e-01
2.448634952306747437e-01
6.229383870959281921e-02
4.114049300551414490e-02
2.150514423847198486e-01
-2.372001111507415771e-02
-3.597998991608619690e-02
-2.413901239633560181e-01
-9.056326001882553101e-02
-4.536791518330574036e-02
4.905019327998161316e-02
-1.239607632160186768e-01
-4.375812411308288574e-01
-1.396882385015487671e-01
-3.445107117295265198e-02
-1.515904963016510010e-01
2.102448232471942902e-02
-2.400242686271667480e-01
-1.057423725724220276e-01
-2.934062108397483826e-02
-1.465552449226379395e-01
-1.404610723257064819e-01
-1.916951686143875122e-01
1.360086500644683838e-01
1.026839613914489746e-01
4.522052034735679626e-02
-1.151111498475074768e-01
-7.369811832904815674e-02
8.184280246496200562e-02
1.139748767018318176e-01
-3.083880841732025146e-01
-6.100846529006958008e-01
-2.337618470191955566e-01
-2.385656815022230148e-03
9.043905884027481079e-02
1.684587821364402771e-02
-1.733837872743606567e-01
-4.792047664523124695e-03
3.397024795413017273e-02
9.293968230485916138e-02
5.106997117400169373e-02
-1.288052350282669067e-01
-5.756390094757080078e-02
-7.612493634223937988e-02
-9.572821855545043945e-02
1.210555061697959900e-02
-4.966053366661071777e-02
-2.130752801895141602e-01
-6.893993169069290161e-02
3.345036506652832031e-02
-3.700223863124847412e-01
-4.702819883823394775e-01
-4.424238801002502441e-01
-2.270556539297103882e-01
-3.583656623959541321e-02
-6.701248884201049805e-01
-9.271144866943359375e-01
-4.813993275165557861e-01
-1.892462074756622314e-01
-2.679180912673473358e-02
-3.472588658332824707e-01
-7.564546465873718262e-01
-3.569836318492889404e-01
-7.507955282926559448e-02
-1.232228940352797508e-03
-2.196303755044937134e-01
-3.041354119777679443e-01
-1.893566921353340149e-02
2.144988998770713806e-02
7.138589769601821899e-02
2.118252404034137726e-02
1.110929623246192932e-01
1.472614258527755737e-01
2.280840277671813965e-02
-5.102603510022163391e-02
-1.582994312047958374e-02
7.622197270393371582e-02
-7.729376200586557388e-03
-8.793799579143524170e-02
-6.170324236154556274e-02
-4.376182798296213150e-03
-2.996792830526828766e-02
1.515015494078397751e-02
-7.676019519567489624e-02
-5.482812970876693726e-02
-6.279039382934570312e-02
2.179980464279651642e-02
-5.821407958865165710e-02
-2.014454454183578491e-01
-1.093329861760139465e-01
-1.165919154882431030e-01
-5.977970361709594727e-02
-1.324137449264526367e-01
-1.391006857156753540e-01
-1.481809467077255249e-01
4.171645641326904297e-02
2.000711709260940552e-01
2.742118239402770996e-01
1.409165412187576294e-01
-7.240399718284606934e-02
6.298761069774627686e-02
9.895073622465133667e-02
2.671479992568492889e-02
-5.022607278078794479e-03
1.417634077370166779e-02
-6.956214457750320435e-02
-1.066877972334623337e-03
2.852393127977848053e-02
-5.612005945295095444e-03
-5.179114639759063721e-02
5.780617147684097290e-02
5.629681050777435303e-02
4.243978112936019897e-02
-1.269779819995164871e-02
3.655623272061347961e-02
2.143968082964420319e-02
-9.429696947336196899e-03
-9.832936525344848633e-02
-7.035381346940994263e-02
-9.124146401882171631e-02
3.906737267971038818e-02
7.527767866849899292e-02
4.633416235446929932e-02
-2.501338720321655273e-01
7.318216562271118164e-02
-2.141040861606597900e-01
-1.344308108091354370e-01
9.958562999963760376e-02
-2.121113687753677368e-01
-6.932408083230257034e-03
-4.677432775497436523e-02
-2.910207808017730713e-01
-3.128181099891662598e-01
-1.555942744016647339e-01
-5.098415911197662354e-02
1.795571297407150269e-02
-6.612017750740051270e-02
-2.559604644775390625e-01
-5.987245962023735046e-02
-1.585255376994609833e-03
-3.214943781495094299e-02
-6.614142656326293945e-02
-7.932126522064208984e-02
-1.800161413848400116e-02
4.007779806852340698e-02
-7.598152756690979004e-02
-4.274254664778709412e-02
-1.441654562950134277e-01
-1.744627207517623901e-01
-8.652833104133605957e-02
-1.048383638262748718e-01
5.127381533384323120e-02
-2.575803734362125397e-02
-1.138397976756095886e-01
-1.911207474768161774e-02
-1.537560112774372101e-02
-2.581580076366662979e-03
-8.799826353788375854e-02
-1.974116265773773193e-01
-8.888091146945953369e-02
1.377476900815963745e-01
1.657941043376922607e-01
-2.292972756549715996e-03
-1.498286519199609756e-02
-7.022915035486221313e-02
1.688784062862396240e-01
2.329404652118682861e-01
1.036999970674514771e-01
1.564659029245376587e-01
1.507977098226547241e-01
-1.373394019901752472e-02
1.262266784906387329e-01
3.224933147430419922e-02
2.370901852846145630e-01
1.075485795736312866e-01
-2.920855395495891571e-02
1.499554067850112915e-01
-8.112070709466934204e-02
-2.440857887268066406e-02
-8.898717164993286133e-02
1.123328693211078644e-02
1.292866021394729614e-01
-1.555355917662382126e-02
7.434685528278350830e-02
-1.380953043699264526e-01
-5.354081094264984131e-02
2.894203551113605499e-02
6.630118936300277710e-02
7.122216373682022095e-02
2.572021819651126862e-02
-1.533165574073791504e-01
-1.655780225992202759e-01
-2.525693774223327637e-01
-2.526862323284149170e-01
-9.140040725469589233e-02
3.891577124595642090e-01
2.883273661136627197e-01
-6.531927734613418579e-02
-1.083969920873641968e-01
-3.590722382068634033e-01
-3.092837147414684296e-02
-7.833289355039596558e-02
-1.826407462358474731e-01
-1.426743865013122559e-01
-2.694170176982879639e-01
-4.381211400032043457e-01
9.014500677585601807e-02
-3.158604353666305542e-02
1.043837368488311768e-01
1.897178441286087036e-01
-2.398739159107208252e-01
-1.430920213460922241e-01
-9.305382519960403442e-02
1.432812809944152832e-01
2.767212092876434326e-01
-6.726467609405517578e-02
-2.742692828178405762e-02
5.436403304338455200e-02
5.467603355646133423e-02
1.947168707847595215e-01
-2.371540963649749756e-01
-3.386365715414285660e-03
6.224684789776802063e-02
1.161935403943061829e-01
2.470959275960922241e-01
-4.424203336238861084e-01
-6.972704082727432251e-02
-1.181818097829818726e-01
-3.660122454166412354e-01
-2.309758365154266357e-01
2.744219638407230377e-02
-9.585797041654586792e-02
-2.018457502126693726e-01
-1.766501367092132568e-01
-2.613745331764221191e-01
1.199138350784778595e-02
2.268256992101669312e-02
4.495727270841598511e-02
-6.899156421422958374e-02
-2.101137787103652954e-01
4.267789795994758606e-02
1.057004258036613464e-01
-3.996549546718597412e-02
-1.621404439210891724e-01
8.564545959234237671e-02
1.915461383759975433e-02
1.129969209432601929e-02
-9.093444049358367920e-02
2.235218882560729980e-01
3.080835342407226562e-01
-4.115489497780799866e-02
1.378572434186935425e-01
1.395652145147323608e-01
1.470735296607017517e-02
-7.519054412841796875e-02
-9.153246879577636719e-02
6.629098206758499146e-02
6.748390942811965942e-02
8.745799958705902100e-02
-1.159313246607780457e-01
-5.439449474215507507e-02
5.698771565221250057e-04
1.444909349083900452e-02
-8.466478437185287476e-02
-7.206834107637405396e-02
-1.115309745073318481e-01
-1.718496829271316528e-01
-7.123050093650817871e-02
-2.051100432872772217e-01
-1.485324800014495850e-01
2.870415337383747101e-02
-2.080648094415664673e-01
-1.758815199136734009e-01
1.945361681282520294e-02
2.240729331970214844e-01
6.788817048072814941e-02
-1.301413178443908691e-01
-2.548350691795349121e-01
-9.260529279708862305e-02
3.429481992498040199e-03
-1.276721525937318802e-02
6.350225210189819336e-02
-2.378261983394622803e-01
-2.584969997406005859e-01
-1.323828101158142090e-01
-1.987129822373390198e-02
6.304508447647094727e-02
-1.164429113268852234e-01
-2.206480950117111206e-01
-1.949988901615142822e-01
-9.298528730869293213e-02
-2.346527017652988434e-02
-4.906384646892547607e-02
-5.509059876203536987e-02
-2.179595381021499634e-01
-3.426463305950164795e-01
1.031203940510749817e-02
1.322504729032516479e-01
1.687674373388290405e-01
-1.286538541316986084e-01
-2.556023001670837402e-01
-1.591624766588211060e-01
-1.587095707654953003e-01
-2.212652415037155151e-01
-2.519702613353729248e-01
6.546175479888916016e-02
-1.407999694347381592e-01
3.292690264061093330e-03
-2.326653338968753815e-02
-4.602756723761558533e-02
2.215188145637512207e-01
2.404201403260231018e-02
-1.142106354236602783e-01
1.058064401149749756e-01
1.785970479249954224e-01
1.995643973350524902e-01
2.157932519912719727e-01
-1.264169905334711075e-02
1.856497675180435181e-01
5.502380132675170898e-01
5.729294195771217346e-02
7.479347288608551025e-02
-5.509869381785392761e-02
-1.371518522500991821e-01
2.392237633466720581e-01
-8.670094609260559082e-02
8.984969556331634521e-02
1.417039483785629272e-01
1.596862524747848511e-01
-1.059954091906547546e-01
8.904595859348773956e-03
-7.548386603593826294e-02
1.323004812002182007e-01
1.154222786426544189e-01
-3.667853027582168579e-02
1.887138932943344116e-02
-5.494747683405876160e-02
2.869015187025070190e-02
-2.492506615817546844e-02
-9.634383022785186768e-02
-5.532782524824142456e-02
-5.019951984286308289e-02
-5.674710497260093689e-02
-2.089860588312149048e-01
-2.402137517929077148e-01
-6.196497008204460144e-02
1.276681572198867798e-01
3.985878452658653259e-02
-7.046440988779067993e-02
-8.255458623170852661e-02
1.252264976501464844e-01
2.159224152565002441e-01
1.300895065069198608e-01
1.358046829700469971e-01
9.034129232168197632e-02
9.698254056274890900e-03
1.479593664407730103e-01
8.175396174192428589e-02
1.148414053022861481e-02
-3.508671745657920837e-02
-1.053624525666236877e-01
-1.026187613606452942e-01
-1.828475669026374817e-02
-4.848166555166244507e-02
-9.795413911342620850e-02
-1.486436724662780762e-01
-1.194894164800643921e-01
-9.209133684635162354e-02
-1.168096289038658142e-01
-1.463356763124465942e-01
3.795307502150535583e-02
1.573114693164825439e-01
-1.682107709348201752e-02
4.545784741640090942e-02
4.701068624854087830e-02
-1.076942235231399536e-01
-1.453118771314620972e-01
-3.984851762652397156e-02
-1.541896164417266846e-01
-5.857269838452339172e-02
-4.032774642109870911e-02
5.298123136162757874e-02
-1.436033397912979126e-01
-1.506695449352264404e-01
2.837584353983402252e-02
2.083184011280536652e-02
4.658794403076171875e-02
-5.962852016091346741e-02
-7.496672123670578003e-02
9.717512130737304688e-02
-8.744562417268753052e-02
-2.520662173628807068e-02
3.462149947881698608e-02
1.946666836738586426e-02
1.665945798158645630e-01
1.912216693162918091e-01
7.253558374941349030e-03
1.583105176687240601e-01
-8.031671494245529175e-02
-7.140217721462249756e-02
-6.106745079159736633e-02
-8.439497649669647217e-02
7.110107690095901489e-02
-3.587299287319183350e-01
-2.315005213022232056e-01
-1.276408582925796509e-01
-2.301861345767974854e-01
-1.501249521970748901e-01
-3.802973031997680664e-01
-2.733911871910095215e-01
-3.047763183712959290e-02
-1.323715597391128540e-01
-5.344353318214416504e-01
-6.974071860313415527e-01
-4.982358515262603760e-01
1.978760212659835815e-01
-1.100617051124572754e-01
-3.882742524147033691e-01
-5.929655432701110840e-01
-5.724797844886779785e-01
2.591726779937744141e-01
1.266957521438598633e-01
1.839645951986312866e-01
1.405034810304641724e-01
6.193858012557029724e-02
-1.874402165412902832e-02
8.971749804913997650e-03
1.025096774101257324e-01
1.226593554019927979e-01
1.833860874176025391e-01
-6.406155973672866821e-02
-1.037857905030250549e-01
-3.249268606305122375e-02
-9.939229115843772888e-03
2.639649808406829834e-01
-2.694128453731536865e-01
-1.752435117959976196e-01
4.219512268900871277e-02
7.559122145175933838e-02
3.243790566921234131e-01
-1.391965895891189575e-01
-6.792839616537094116e-03
7.681005448102951050e-02
1.014428958296775818e-01
2.587667405605316162e-01
6.524965912103652954e-02
9.805263578891754150e-02
1.690479665994644165e-01
1.341742277145385742e-02
5.076164752244949341e-02
-2.133010700345039368e-02
-2.600187063217163086e-02
7.738262414932250977e-02
9.023860841989517212e-02
8.453886210918426514e-02
-1.499127000570297241e-01
-1.538044959306716919e-01
-8.177366107702255249e-02
-5.114202573895454407e-02
-4.874464124441146851e-02
-9.291104227304458618e-02
-8.432782441377639771e-02
1.551281847059726715e-02
1.764761470258235931e-02
8.261764049530029297e-02
-6.594967842102050781e-02
1.433529704809188843e-01
1.759117841720581055e-01
1.740905940532684326e-01
1.461785733699798584e-01
-9.863837063312530518e-02
1.112767234444618225e-01
3.511390183120965958e-03
-7.262426614761352539e-02
-4.567063227295875549e-02
7.374148070812225342e-02
4.796230699867010117e-03
-2.606469988822937012e-01
-4.937862232327461243e-02
-6.257566856220364571e-04
8.883359842002391815e-03
1.765350997447967529e-02
-1.601782292127609253e-01
1.371005326509475708e-01
1.161438152194023132e-01
-1.126839369535446167e-01
-1.421394646167755127e-01
-2.215113043785095215e-01
1.514499187469482422e-01
2.418141998350620270e-02
-7.777334749698638916e-02
-2.671411819756031036e-02
-1.901315599679946899e-01
-2.331481780856847763e-03
-6.878290325403213501e-02
2.245195657014846802e-01
2.496587485074996948e-02
-3.802222758531570435e-02
-2.385999560356140137e-01
-2.831198275089263916e-01
6.507717072963714600e-02
1.023714467883110046e-01
2.675753086805343628e-02
-1.799031533300876617e-02
-2.787175178527832031e-01
1.798857450485229492e-01
1.075251251459121704e-01
-1.912055760622024536e-01
-3.372424244880676270e-01
-9.190719574689865112e-02
1.646091192960739136e-01
-3.546774759888648987e-02
4.438299220055341721e-03
-2.861044406890869141e-01
-2.439158856868743896e-01
2.279581874608993530e-02
1.015020161867141724e-02
1.531555899418890476e-03
-2.518253922462463379e-01
-1.916050165891647339e-01
1.314699798822402954e-01
2.182326167821884155e-01
3.249611556529998779e-01
2.022717446088790894e-01
3.951977938413619995e-02
-2.764108404517173767e-02
1.044429652392864227e-02
-2.367055602371692657e-02
-5.995112657546997070e-02
-6.227540969848632812e-02
-5.415491387248039246e-02
-8.167310059070587158e-02
-1.019704118371009827e-01
-9.190876781940460205e-02
-5.911485105752944946e-02
2.782485634088516235e-02
-7.534401118755340576e-02
1.944435015320777893e-02
6.543505191802978516e-02
1.065712305717170238e-03
4.517035186290740967e-02
-1.525619253516197205e-02
1.481483578681945801e-01
1.285545229911804199e-01
1.559197604656219482e-01
4.293147649150341749e-04
8.372473530471324921e-03
-4.300761502236127853e-03
-6.631197873502969742e-03
2.592245042324066162e-01
-1.110806316137313843e-01
-6.434098631143569946e-02
-1.429508030414581299e-01
-8.781596273183822632e-02
1.307185441255569458e-01
-2.023706138134002686e-01
-1.361906528472900391e-01
-1.336669921875000000e-01
2.066785842180252075e-02
1.286659389734268188e-01
-1.855979859828948975e-01
1.783822849392890930e-02
-4.369788244366645813e-02
5.065874010324478149e-02
-1.082454994320869446e-01
-2.143492549657821655e-01
1.976170018315315247e-02
6.203849241137504578e-02
3.176034241914749146e-02
3.291635960340499878e-02
4.486276954412460327e-02
-3.811097890138626099e-02
2.682371251285076141e-02
1.643291860818862915e-01
8.892474323511123657e-02
-1.109581068158149719e-02
-1.419896632432937622e-02
-4.852992296218872070e-02
-1.095454953610897064e-02
-1.600566133856773376e-02
-1.031718030571937561e-01
-7.842545211315155029e-02
-8.889279514551162720e-02
1.023876946419477463e-02
-2.486705966293811798e-02
4.440778493881225586e-02
-2.321939170360565186e-02
-1.070490572601556778e-02
4.343331232666969299e-02
-4.446562752127647400e-02
-6.051262840628623962e-02
-1.855171471834182739e-01
-7.323109358549118042e-02
1.965280808508396149e-02
-9.736740030348300934e-03
-3.016295433044433594e-01
-1.494806557893753052e-01
-1.526092588901519775e-01
3.567347303032875061e-02
1.412712037563323975e-01
-6.205222606658935547e-01
3.605765104293823242e-02
3.624369576573371887e-02
1.147096529603004456e-01
2.390588521957397461e-01
-3.739081323146820068e-01
-5.739742424339056015e-03
2.359242141246795654e-01
1.575742214918136597e-01
2.675811946392059326e-01
-7.142094522714614868e-02
7.118103653192520142e-02
2.790880016982555389e-02
2.202269621193408966e-02
1.152700744569301605e-02
-3.632168099284172058e-02
1.571386456489562988e-01
3.883774206042289734e-02
-6.091115996241569519e-02
-1.432154774665832520e-01
1.351178903132677078e-02
1.873579025268554688e-01
-3.083715736865997314e-01
2.650149166584014893e-03
1.560604125261306763e-01
1.651521027088165283e-01
2.378338277339935303e-01
-9.617633372545242310e-02
-1.322043091058731079e-01
-6.147517636418342590e-02
-4.877369478344917297e-02
6.128945946693420410e-02
-9.073380380868911743e-02
-1.106734126806259155e-01
8.162450976669788361e-03
-4.109077453613281250e-01
-3.132414072751998901e-02
-1.911652460694313049e-02
-6.977374851703643799e-02
-3.401873633265495300e-02
-3.664871156215667725e-01
-4.834587126970291138e-02
-1.068986430764198303e-01
-1.102365031838417053e-01
3.254210948944091797e-02
-2.257675528526306152e-01
-1.394075751304626465e-01
-6.335915625095367432e-02
7.369716465473175049e-02
4.959853738546371460e-02
-3.604376614093780518e-01
-1.119484975934028625e-01
-1.302487030625343323e-02
6.145705282688140869e-02
1.500979438424110413e-02
-6.396461129188537598e-01
-2.656493186950683594e-01
3.688720241189002991e-02
8.062960207462310791e-02
8.616755157709121704e-02
-8.453282117843627930e-01
-2.531384527683258057e-01
4.981586709618568420e-02
-1.520103425718843937e-03
6.090177223086357117e-02
-1.036024808883666992e+00
-5.412718057632446289e-01
-2.921012938022613525e-01
-1.608605980873107910e-01
-6.468237191438674927e-02
-1.208425164222717285e-01
-5.195969343185424805e-02
7.584792375564575195e-02
-5.169254541397094727e-02
6.072675064206123352e-02
-5.127499997615814209e-02
2.744586020708084106e-02
3.820738196372985840e-02
1.030355598777532578e-02
-1.195227056741714478e-01
4.631930589675903320e-02
9.288082271814346313e-02
9.990593045949935913e-02
8.329173177480697632e-02
-9.208849072456359863e-02
-1.792385615408420563e-02
4.995561018586158752e-02
7.200494408607482910e-02
1.250215768814086914e-01
-3.304602205753326416e-02
-6.454537808895111084e-02
4.451912268996238708e-02
1.312496513128280640e-01
3.545830398797988892e-02
1.391827762126922607e-01
-1.627242863178253174e-01
9.268206357955932617e-02
1.914162375032901764e-02
9.776289761066436768e-02
-3.703664522618055344e-03
-4.985602498054504395e-01
7.212650962173938751e-03
1.190531626343727112e-01
1.056390330195426941e-01
1.304450035095214844e-01
-1.835956871509552002e-01
-1.169841364026069641e-01
1.841391623020172119e-02
1.139493286609649658e-01
3.137585939839482307e-03
1.286439299583435059e-01
6.711509078741073608e-02
9.919424355030059814e-02
1.151883006095886230e-01
-1.232819072902202606e-02
2.453926205635070801e-01
7.155460119247436523e-02
9.303757548332214355e-02
4.305389896035194397e-02
-1.121049150824546814e-01
-4.747643768787384033e-01
-1.672573536634445190e-01
-1.076018437743186951e-01
1.331899315118789673e-01
1.903051286935806274e-01
-3.665944039821624756e-01
-5.449911579489707947e-02
3.939991816878318787e-02
4.924997687339782715e-02
1.909535676240921021e-01
-4.126719534397125244e-01
-1.619175970554351807e-01
1.666397154331207275e-01
1.332682669162750244e-01
1.311957389116287231e-01
-2.871486246585845947e-01
-1.958556175231933594e-01
-5.017858743667602539e-02
9.502756409347057343e-03
6.329506635665893555e-02
-1.203209720551967621e-02
-5.406875610351562500e-01
-2.821836769580841064e-01
-5.466805770993232727e-02
-9.959989227354526520e-03
1.274441927671432495e-01
-1.260954141616821289e-02
-3.591194376349449158e-02
1.491777133196592331e-02
-6.902161240577697754e-02
6.343015935271978378e-03
-1.676899939775466919e-02
9.479355998337268829e-03
1.260834783315658569e-01
-6.407199054956436157e-02
-2.495259791612625122e-02
-2.824567817151546478e-02
-3.086754679679870605e-02
-8.824758231639862061e-02
2.280219271779060364e-02
2.259289100766181946e-02
8.061440661549568176e-03
-5.535057280212640762e-03
-7.304137945175170898e-02
-8.136399835348129272e-02
1.357536464929580688e-01
4.280347202438861132e-04
3.657472785562276840e-03
-5.865618586540222168e-02
1.091707590967416763e-02
7.675248384475708008e-02
1.890463829040527344e-01
1.715069264173507690e-01
8.543555438518524170e-02
-2.180665135383605957e-01
5.494592245668172836e-03
-9.056024998426437378e-02
-8.987672626972198486e-02
-1.721733659505844116e-01
-1.817062497138977051e-01
5.574169754981994629e-02
-4.575596004724502563e-02
-1.492824703454971313e-01
-3.030207455158233643e-01
-2.524827122688293457e-01
-4.371378198266029358e-02
-2.793610095977783203e-01
-2.586618363857269287e-01
-3.691542446613311768e-01
-3.940216004848480225e-01
1.300092339515686035e-01
-1.553185433149337769e-01
-1.121043264865875244e-01
-9.550644457340240479e-02
-1.768251359462738037e-01
-1.743481159210205078e-01
-3.874145150184631348e-01
-1.210826113820075989e-01
1.535999216139316559e-02
2.365938620641827583e-03
4.992905631661415100e-02
-2.024088501930236816e-01
-1.487877070903778076e-01
-3.501131013035774231e-02
1.804185509681701660e-01
-3.827597200870513916e-02
-2.081746608018875122e-02
-8.896514773368835449e-02
-3.464242443442344666e-02
1.772370189428329468e-01
2.755249142646789551e-01
2.690589800477027893e-02
-9.249379485845565796e-02
-2.191066741943359375e-01
-6.780323386192321777e-02
9.801367670297622681e-02
1.604749709367752075e-01
-1.499047316610813141e-02
4.556559026241302490e-03
-9.190426208078861237e-03
2.880617789924144745e-02
1.189789250493049622e-01
1.876060664653778076e-01
1.069225519895553589e-01
-9.756916761398315430e-02
-7.396624237298965454e-02
-8.056630939245223999e-02
1.629785299301147461e-01
7.146259397268295288e-02
2.001201175153255463e-02
7.372596766799688339e-03
8.966854214668273926e-02
1.132294386625289917e-01
7.902400940656661987e-02
7.377035915851593018e-02
-1.206758394837379456e-01
-3.770245611667633057e-02
-1.125651299953460693e-01
-9.566687047481536865e-03
3.699726611375808716e-02
1.986349970102310181e-01
7.618307322263717651e-02
-1.539289951324462891e-01
-1.885535866022109985e-01
6.430993229150772095e-02
2.009798288345336914e-01
4.647841155529022217e-01
3.910406827926635742e-01
2.692098915576934814e-01
-7.861787825822830200e-02
6.369961053133010864e-02
1.276043206453323364e-01
1.024465858936309814e-01
-2.178853005170822144e-02
7.106090337038040161e-02
-1.006161049008369446e-01
-8.778328448534011841e-02
-1.054757609963417053e-01
-1.624249964952468872e-01
-1.094680503010749817e-01
-1.078154966235160828e-01
-5.138325095176696777e-01
-4.793192446231842041e-01
-2.868622243404388428e-01
-1.006423756480216980e-01
-1.958559006452560425e-01
-5.656034946441650391e-01
-5.736659169197082520e-01
-2.771552801132202148e-01
-6.268369406461715698e-02
-7.568122446537017822e-02
-3.438432887196540833e-02
-3.347355425357818604e-01
-2.071873992681503296e-01
-4.628150761127471924e-01
-3.010196983814239502e-02
1.124321818351745605e-01
-9.530334919691085815e-02
-9.344916790723800659e-02
-2.634483575820922852e-01
2.138201089110225439e-04
2.044681906700134277e-01
1.575068384408950806e-01
-6.824426352977752686e-02
-2.983419410884380341e-02
6.203036010265350342e-02
-4.464890807867050171e-02
3.476331755518913269e-02
9.457257390022277832e-02
-2.664703875780105591e-02
8.617998659610748291e-02
2.001483440399169922e-01
2.027447372674942017e-01
1.372956782579421997e-01
-1.384164555929601192e-03
9.889873862266540527e-02
1.378648281097412109e-01
-4.126117751002311707e-02
-2.060546129941940308e-01
-1.718368977308273315e-01
-3.899706527590751648e-02
8.933050185441970825e-02
4.792798683047294617e-02
1.003215610980987549e-01
-1.583506613969802856e-01
7.145662605762481689e-02
2.177769094705581665e-01
6.891746073961257935e-02
-4.329271987080574036e-02
-3.073172867298126221e-01
1.305439323186874390e-01
2.997258901596069336e-01
2.639596164226531982e-01
-1.398011445999145508e-01
-5.543617010116577148e-01
-6.518181413412094116e-02
1.907668858766555786e-01
1.595147103071212769e-01
-6.630942225456237793e-02
-4.824145510792732239e-02
-2.366648912429809570e-01
1.628352552652359009e-01
3.252278864383697510e-01
3.595633804798126221e-01
2.119472324848175049e-01
-4.112868104130029678e-03
1.163950264453887939e-01
7.560152560472488403e-02
9.175255894660949707e-02
5.801052902825176716e-04
-6.213495135307312012e-02
-2.854871153831481934e-01
-1.265478581190109253e-01
-2.508682608604431152e-01
-1.699651628732681274e-01
-2.778613194823265076e-02
-2.671627998352050781e-01
-5.895556807518005371e-01
-5.783712863922119141e-01
-2.539917528629302979e-01
-5.467885732650756836e-02
-2.094617933034896851e-01
-1.919427961111068726e-01
-3.055769801139831543e-01
-4.399849101901054382e-02
-1.610293239355087280e-01
-1.717734709382057190e-02
-1.299400776624679565e-01
1.556332036852836609e-02
-1.195473894476890564e-01
-5.646907165646553040e-02
2.003602832555770874e-01
2.043684199452400208e-02
7.425303105264902115e-03
-1.039768196642398834e-02
5.592341069132089615e-03
-5.153221264481544495e-02
7.495647761970758438e-03
-4.429025202989578247e-02
-2.581641972064971924e-01
-7.601306308060884476e-03
-5.293809622526168823e-02
1.273324936628341675e-01
-1.274912208318710327e-01
-1.808090955018997192e-01
-3.445807471871376038e-02
-1.394507735967636108e-01
-1.049867942929267883e-01
2.183954045176506042e-02
-9.884051978588104248e-02
-1.122812032699584961e-01
-5.535249039530754089e-02
-3.230511546134948730e-01
-8.372122794389724731e-02
2.803388535976409912e-01
3.452333807945251465e-02
8.209946006536483765e-02
-1.866464316844940186e-01
-3.809913098812103271e-01
3.726973757147789001e-02
-1.937997527420520782e-02
2.565430104732513428e-01
1.309923082590103149e-01
-9.089255332946777344e-02
-8.035894483327865601e-02
-4.643679130822420120e-03
1.748120635747909546e-01
3.962794542312622070e-01
3.004115819931030273e-01
1.897269040346145630e-01
-1.875441372394561768e-01
-1.053826604038476944e-02
1.958947628736495972e-01
2.310002297163009644e-01
2.526414394378662109e-02
-2.826957702636718750e-01
2.043110877275466919e-01
3.278101980686187744e-01
-5.034471303224563599e-02
-7.986654341220855713e-02
5.962502956390380859e-02
1.224020719528198242e-01
2.788410484790802002e-01
3.650198876857757568e-02
-1.153437346220016479e-01
-2.053811699151992798e-01
1.654580608010292053e-02
1.740538030862808228e-01
5.852071195840835571e-02
-2.286863178014755249e-01
9.969619661569595337e-02
-1.228183954954147339e-01
-8.703772723674774170e-02
1.459799706935882568e-01
-2.634416520595550537e-01
-1.277700811624526978e-01
2.646197974681854248e-01
-3.647863268852233887e-01
-1.328106522560119629e-01
6.542655825614929199e-02
-5.556864663958549500e-02
-3.229727447032928467e-01
-1.709214299917221069e-01
-9.661466628313064575e-02
5.349893588572740555e-03
-9.915366536006331444e-04
4.537140205502510071e-02
-3.057234883308410645e-01
-1.119794398546218872e-01
-1.254789680242538452e-01
-9.919167496263980865e-04
2.440854609012603760e-01
3.696617437526583672e-03
-1.403682827949523926e-01
-6.069982796907424927e-02
-1.411644071340560913e-01
2.144269943237304688e-01
1.100288257002830505e-01
1.136087030172348022e-01
3.716650186106562614e-03
-1.275105960667133331e-02
-1.121283974498510361e-02
9.162684530019760132e-02
1.531927883625030518e-01
1.211732402443885803e-01
4.613408073782920837e-02
1.874816268682479858e-01
-9.866838902235031128e-02
-1.828152388334274292e-01
-1.444803327322006226e-01
1.897710263729095459e-01
1.771459728479385376e-01
1.830836408771574497e-04
-5.405725166201591492e-02
-1.501443088054656982e-01
-1.157594174146652222e-01
1.187543966807425022e-03
2.948455046862363815e-03
-8.616230636835098267e-02
-8.550638705492019653e-02
-3.256505727767944336e-01
