-3.131650760769844055e-02
1.684571653604507446e-01
2.637613117694854736e-01
9.769016504287719727e-02
2.698096632957458496e-01
-1.759832054376602173e-01
-3.068659603595733643e-01
-1.357460170984268188e-01
1.695495247840881348e-01
2.107120156288146973e-01
4.040803313255310059e-01
4.416122436523437500e-01
1.725236177444458008e-01
-1.305590271949768066e-01
-7.227615267038345337e-02
-1.683601140975952148e-01
8.429937064647674561e-03
6.070134416222572327e-02
9.489083290100097656e-02
-3.153628855943679810e-02
-1.106847077608108521e-03
-5.083110928535461426e-02
3.558334708213806152e-02
-7.943890988826751709e-02
-1.300487071275711060e-01
-3.371250033378601074e-01
-2.814421355724334717e-01
-1.164229735732078552e-01
1.103839371353387833e-02
-2.611087262630462646e-02
-5.922333598136901855e-01
-7.863865792751312256e-02
-1.832293905317783356e-02
9.014622867107391357e-02
-3.376460447907447815e-02
-3.631201982498168945e-01
-3.856180701404809952e-03
4.829486459493637085e-02
5.567684024572372437e-02
-2.134110964834690094e-02
-1.608128547668457031e-01
-4.594221245497465134e-03
6.804844737052917480e-02
2.625475637614727020e-02
3.340538218617439270e-02
-1.092803031206130981e-01
-3.666608035564422607e-02
6.419792026281356812e-02
-1.656914874911308289e-02
7.055758032947778702e-03
9.054691344499588013e-02
3.223747313022613525e-01
4.382605552673339844e-01
-4.628058075904846191e-01
-5.213515162467956543e-01
1.527464482933282852e-02
6.166192516684532166e-02
3.542806804180145264e-01
3.690645098686218262e-02
-5.402994155883789062e-01
-8.716493099927902222e-02
-6.718251854181289673e-02
3.750031068921089172e-02
4.740483462810516357e-01
1.078796461224555969e-01
-7.897201925516128540e-02
-2.361952066421508789e-01
-2.748151719570159912e-01
2.333687841892242432e-01
2.823815047740936279e-01
3.987364470958709717e-02
-1.127742081880569458e-01
-4.545276165008544922e-01
-4.798757284879684448e-02
2.793033123016357422e-01
-3.916595578193664551e-01
-3.645780384540557861e-01
-7.218751311302185059e-02
2.656072080135345459e-01
4.648955166339874268e-01
-1.219248846173286438e-01
1.725983247160911560e-02
1.700601279735565186e-01
4.264436960220336914e-01
-1.759948953986167908e-02
-1.704495027661323547e-02
1.691961586475372314e-01
3.102394938468933105e-01
1.859423331916332245e-02
-3.258137702941894531e-01
1.629970967769622803e-01
1.627518683671951294e-01
1.597497165203094482e-01
-9.395664930343627930e-02
-3.314650952816009521e-01
9.528825432062149048e-02
1.415359675884246826e-01
1.306781768798828125e-01
-4.064331352710723877e-01
-3.740862607955932617e-01
6.375799328088760376e-02
-2.222189307212829590e-01
-4.703195691108703613e-01
5.578196644783020020e-01
1.487972140312194824e-01
7.642888277769088745e-02
-1.602593064308166504e-01
-4.966607689857482910e-01
7.429500818252563477e-01
-1.128157377243041992e-01
7.498586177825927734e-02
-1.959578096866607666e-01
-4.825671315193176270e-01
6.199446320533752441e-01
-8.051931858062744141e-02
-3.235922008752822876e-02
2.032083459198474884e-02
-5.347174406051635742e-01
3.594898879528045654e-01
2.217385023832321167e-01
1.138226389884948730e-01
-1.643262803554534912e-01
-5.574280619621276855e-01
4.643920958042144775e-01
9.524979442358016968e-02
9.869410842657089233e-02
1.139459758996963501e-01
2.420883178710937500e-01
2.289165407419204712e-01
1.219693869352340698e-01
7.185004651546478271e-03
-3.726635128259658813e-02
1.258705109357833862e-01
7.033658027648925781e-02
-8.246827870607376099e-02
5.178035050630569458e-02
1.632491499185562134e-01
2.134886197745800018e-02
-6.951084733009338379e-02
-1.754270344972610474e-01
-1.666038483381271362e-02
-1.625722646713256836e-01
-8.960452675819396973e-02
-4.337613582611083984e-01
-2.808819413185119629e-01
-9.083937108516693115e-02
-2.853426039218902588e-01
-5.135646462440490723e-01
-3.355871140956878662e-01
-3.312661871314048767e-02
-1.084847003221511841e-01
-2.920745611190795898e-01
-5.106099843978881836e-01
-4.359954297542572021e-01
-1.243327036499977112e-01
1.011801790446043015e-02
-1.037115007638931274e-01
-2.007240802049636841e-01
8.272709697484970093e-02
-8.788447082042694092e-02
-6.417035311460494995e-02
6.014921143651008606e-02
1.709720492362976074e-01
-1.987451501190662384e-02
-6.530144810676574707e-02
9.074679762125015259e-02
3.072554767131805420e-01
2.069603651762008667e-01
1.952089220285415649e-01
1.592923104763031006e-01
1.238903999328613281e-01
1.062872186303138733e-01
2.806324362754821777e-01
1.433844417333602905e-01
1.241404637694358826e-01
-1.137688159942626953e-01
-2.389101535081863403e-01
3.143832385540008545e-01
1.816698461771011353e-01
-2.267168089747428894e-02
-8.076640777289867401e-03
-3.706228733062744141e-01
4.179771542549133301e-01
1.323441267013549805e-01
6.511493027210235596e-02
-8.691982179880142212e-02
-3.467021286487579346e-01
2.764216065406799316e-01
1.658830344676971436e-01
-3.309074416756629944e-02
-1.972970068454742432e-01
-2.588445246219635010e-01
3.780888020992279053e-01
1.312408447265625000e-01
-1.190191414207220078e-02
-3.030885457992553711e-01
-1.845612376928329468e-01
3.120815157890319824e-01
1.398039609193801880e-02
-6.203592754900455475e-03
