-1.721685007214546204e-02
-1.001791581511497498e-01
5.971509218215942383e-02
1.047701537609100342e-01
3.123734891414642334e-02
7.350197434425354004e-02
7.999463379383087158e-02
1.368854045867919922e-01
9.404944628477096558e-02
-8.665831759572029114e-03
-2.170681953430175781e-02
1.164432093501091003e-01
5.961883068084716797e-02
1.294682770967483521e-01
7.826582342386245728e-02
8.844204992055892944e-02
1.418018061667680740e-02
8.658413775265216827e-03
1.500550098717212677e-02
3.411167860031127930e-02
7.594826072454452515e-02
5.648083239793777466e-02
1.197555735707283020e-01
8.442486077547073364e-02
-2.087557688355445862e-02
6.294700503349304199e-02
-4.908380284905433655e-02
-8.059151470661163330e-03
-1.034792140126228333e-01
-3.628217801451683044e-02
4.766631871461868286e-02
9.282011538743972778e-02
3.984817117452621460e-02
-2.045989036560058594e-02
6.207772530615329742e-04
-2.931660600006580353e-02
-5.866055190563201904e-02
7.390256971120834351e-02
9.819427877664566040e-02
5.227963626384735107e-02
-1.360688917338848114e-02
-5.346636474132537842e-02
2.499284036457538605e-02
5.272381007671356201e-02
-1.787756010890007019e-02
-7.770422380417585373e-03
5.472277477383613586e-02
1.021269708871841431e-01
8.649447560310363770e-02
8.824793994426727295e-02
7.282451540231704712e-02
-8.374714106321334839e-02
-3.427394106984138489e-02
6.453757733106613159e-02
1.984835416078567505e-02
1.156056765466928482e-02
-4.114610608667135239e-03
1.217615529894828796e-01
1.276711374521255493e-02
5.458071082830429077e-02
5.597871914505958557e-02
9.179863333702087402e-02
1.279401630163192749e-01
3.544687107205390930e-02
-1.363420020788908005e-02
4.372280836105346680e-02
-3.692071884870529175e-02
1.441998183727264404e-01
9.376385807991027832e-02
6.774482876062393188e-02
2.247053384780883789e-02
1.362437307834625244e-01
7.573413848876953125e-02
-3.955864533782005310e-02
2.297598682343959808e-02
1.734594814479351044e-03
1.170368716120719910e-01
1.852333545684814453e-03
9.798526763916015625e-02
-5.466056987643241882e-02
-1.841112412512302399e-02
1.250344216823577881e-01
4.185654222965240479e-02
3.933421894907951355e-02
7.961834222078323364e-02
7.518994808197021484e-02
5.632130801677703857e-02
4.059054329991340637e-02
9.023341536521911621e-02
-1.328981015831232071e-02
4.219175130128860474e-02
1.154804229736328125e-01
-8.219082653522491455e-02
-1.496139448136091232e-02
-5.653258040547370911e-02
5.748388916254043579e-02
7.105258107185363770e-02
-9.925781190395355225e-02
-1.269395500421524048e-01
-8.491180837154388428e-02
1.247912943363189697e-01
-3.720222413539886475e-02
-3.525109961628913879e-02
4.377820994704961777e-03
8.539479225873947144e-02
1.653546243906021118e-01
1.256949547678232193e-02
2.798100374639034271e-02
9.052079170942306519e-03
2.455453574657440186e-02
5.071821808815002441e-02
-4.832996800541877747e-02
4.940905049443244934e-02
9.780747443437576294e-02
4.942458588629961014e-03
-7.368814200162887573e-03
-5.460042133927345276e-02
-5.935897678136825562e-02
8.157513290643692017e-02
-3.152048215270042419e-02
5.561855435371398926e-02
7.987527549266815186e-02
6.761543452739715576e-02
-3.982199728488922119e-02
6.335505843162536621e-02
1.072576940059661865e-01
3.466176241636276245e-02
8.849408477544784546e-02
