-1.863358467817306519e-01
5.349226668477058411e-02
9.975443035364151001e-02
-4.992100894451141357e-01
-2.875999175012111664e-02
-1.960301548242568970e-01
-2.727976441383361816e-01
6.890959292650222778e-02
-3.257088661193847656e-01
1.742002964019775391e-01
9.728575497865676880e-02
1.999020762741565704e-02
-1.179423741996288300e-02
-1.528898030519485474e-01
1.458828151226043701e-01
1.003056839108467102e-01
-1.558775752782821655e-01
-2.602674961090087891e-01
1.585289984941482544e-01
-2.566314302384853363e-02
-1.597933769226074219e-01
2.149005085229873657e-01
1.020480841398239136e-01
-1.190310064703226089e-02
1.565124541521072388e-01
-2.905898094177246094e-01
-2.840290367603302002e-01
2.056206017732620239e-01
3.794656097888946533e-01
-1.708371788263320923e-01
-1.182155683636665344e-01
-1.943966895341873169e-01
-2.689880132675170898e-01
3.018010854721069336e-01
-5.119814872741699219e-01
-2.125303745269775391e-01
-8.007982373237609863e-02
-1.849699881859123707e-03
2.089774981141090393e-02
-3.832301124930381775e-02
-1.868926882743835449e-01
2.677192389965057373e-01
1.640029251575469971e-01
-1.898824572563171387e-01
1.516591906547546387e-01
-2.311857789754867554e-01
1.995161473751068115e-01
2.141849100589752197e-01
2.607488036155700684e-01
1.074976995587348938e-01
9.004884958267211914e-02
-5.544439330697059631e-02
2.521475851535797119e-01
-2.856217510998249054e-02
8.625642955303192139e-02
7.603862881660461426e-02
1.322875171899795532e-01
-3.100181818008422852e-01
6.080483272671699524e-02
2.914893329143524170e-01
8.746573328971862793e-02
1.655339896678924561e-01
-7.387124467641115189e-03
2.569053471088409424e-01
-4.110934734344482422e-01
-2.740170657634735107e-01
-3.349133133888244629e-01
-1.759410649538040161e-02
3.735032677650451660e-02
2.004728764295578003e-01
-7.039143890142440796e-02
1.255959644913673401e-02
1.603952646255493164e-01
9.181306511163711548e-02
1.794308573007583618e-01
-5.075537562370300293e-01
1.273989975452423096e-01
1.365069597959518433e-01
1.547429412603378296e-01
1.352820992469787598e-01
-2.017605900764465332e-01
-2.325676232576370239e-01
3.021380007266998291e-01
1.642599999904632568e-01
-7.182486057281494141e-01
1.014175545424222946e-02
5.198451131582260132e-02
6.229829788208007812e-02
3.864542767405509949e-02
1.547942459583282471e-01
-2.855792045593261719e-01
-5.504244565963745117e-02
-2.983171045780181885e-01
2.120724618434906006e-01
-4.798033088445663452e-02
-4.799969494342803955e-01
-2.234070450067520142e-01
-1.925394684076309204e-02
-3.800024390220642090e-01
2.802244126796722412e-01
-1.296365559101104736e-01
8.123632520437240601e-02
-1.455513834953308105e-01
-1.230515614151954651e-01
-2.859971523284912109e-01
-7.875550538301467896e-03
1.553779393434524536e-01
-8.975479751825332642e-02
-1.043729335069656372e-01
-4.060125350952148438e-02
1.155047565698623657e-01
8.647324144840240479e-02
-2.226533442735671997e-01
1.998679935932159424e-01
-1.769107766449451447e-02
-6.163861751556396484e-01
-1.139959245920181274e-01
1.556442230939865112e-01
9.954876452684402466e-02
-1.641345471143722534e-01
-2.418709844350814819e-01
-3.224401175975799561e-01
-4.894836544990539551e-01
-2.038065046072006226e-01
1.576640307903289795e-01
-1.241749897599220276e-01
-3.976171612739562988e-01
6.284882128238677979e-02
-2.608168125152587891e-02
2.038218528032302856e-01
8.157140761613845825e-02
2.320458889007568359e-01
2.821086645126342773e-01
2.913919985294342041e-01
-7.105890661478042603e-02
-1.145857125520706177e-01
-3.392304480075836182e-01
1.239419654011726379e-01
-1.424709558486938477e-01
-2.201030850410461426e-01
-2.636880874633789062e-01
1.525854319334030151e-01
2.379684448242187500e-01
2.090677171945571899e-01
2.866977155208587646e-01
-9.265933185815811157e-02
6.119077652692794800e-02
-3.406842648983001709e-01
3.143344074487686157e-02
-3.108286559581756592e-01
1.564018130302429199e-01
1.678257137537002563e-01
-2.612932622432708740e-01
3.387685120105743408e-01
-3.704565018415451050e-02
-8.785508275032043457e-01
2.342296205461025238e-02
4.910399615764617920e-01
-2.273059040307998657e-01
2.016489356756210327e-01
-2.579591274261474609e-01
2.972745597362518311e-01
-2.491456568241119385e-01
-4.704837501049041748e-01
3.504285812377929688e-01
2.187349498271942139e-01
2.798187732696533203e-01
-3.452521860599517822e-01
-7.269033789634704590e-02
-3.413795530796051025e-01
-5.294454097747802734e-01
6.004091724753379822e-02
-5.201296210289001465e-01
3.977132588624954224e-02
1.309927701950073242e-01
-4.272464513778686523e-01
-1.630927175283432007e-01
-6.646124720573425293e-01
2.847103178501129150e-01
-3.384916484355926514e-01
-4.079418256878852844e-02
1.741170585155487061e-01
3.581277728080749512e-01
-5.957534909248352051e-01
-2.903795540332794189e-01
-5.083919167518615723e-01
-4.584372043609619141e-01
1.272514015436172485e-01
1.709018200635910034e-01
-8.777904510498046875e-02
2.239395081996917725e-01
-2.234867513179779053e-01
-3.686676323413848877e-01
1.854995489120483398e-01
1.009624525904655457e-01
2.092822343111038208e-01
-1.209689155220985413e-01
-4.079377353191375732e-01
-2.902561724185943604e-01
-1.616539955139160156e-01
1.227270588278770447e-01
-5.022361874580383301e-01
-2.223004996776580811e-01
-2.580783069133758545e-01
-3.608774840831756592e-01
-3.218163251876831055e-01
-9.320263564586639404e-02
1.331654842942953110e-03
1.418508291244506836e-01
1.563994586467742920e-01
-7.011424005031585693e-02
2.767961025238037109e-01
4.715241491794586182e-01
-3.943969309329986572e-02
1.865110844373703003e-01
-1.106489673256874084e-01
4.675431549549102783e-01
-2.347473502159118652e-01
-2.164182513952255249e-01
1.064391955733299255e-01
3.175041638314723969e-04
-2.156611979007720947e-01
2.086706310510635376e-01
1.411852836608886719e-01
-1.629853248596191406e-01
2.022525966167449951e-01
-2.245551943778991699e-01
-2.914469838142395020e-01
-2.293469756841659546e-01
-3.328236639499664307e-01
1.292183995246887207e-01
2.227417081594467163e-01
-5.499263405799865723e-01
4.095737263560295105e-02
-3.044916391372680664e-01
1.422830671072006226e-01
1.426883041858673096e-01
6.264121830463409424e-02
-4.038664698600769043e-01
-1.930432468652725220e-01
-3.994965255260467529e-01
-2.376852035522460938e-01
1.144108474254608154e-01
-3.298548758029937744e-01
3.532294034957885742e-01
-2.783356308937072754e-01
1.441390961408615112e-01
1.183936297893524170e-01
1.029005646705627441e-01
1.143202409148216248e-01
-1.847133040428161621e-01
-2.902692258358001709e-01
1.946618556976318359e-01
-5.749934911727905273e-01
2.115507125854492188e-01
-5.284538269042968750e-01
-2.024155408143997192e-01
6.870915647596120834e-03
1.603683680295944214e-01
5.855186842381954193e-03
9.577737748622894287e-02
-1.507591158151626587e-01
2.587148845195770264e-01
-5.845101177692413330e-02
-3.732139170169830322e-01
-4.450258314609527588e-01
1.735868901014328003e-01
9.728065133094787598e-02
8.944126963615417480e-02
2.018115073442459106e-01
3.501777648925781250e-01
1.820591986179351807e-01
-1.745245605707168579e-01
1.060088127851486206e-01
-3.507123887538909912e-01
2.884894609451293945e-01
-2.602787613868713379e-01
9.445946663618087769e-02
4.322505742311477661e-02
2.618836164474487305e-01
-3.612842857837677002e-01
-1.354084629565477371e-02
-2.121970206499099731e-01
1.412278264760971069e-01
-6.662029027938842773e-02
3.037566086277365685e-03
-2.065201103687286377e-01
-2.640268206596374512e-01
3.255945816636085510e-02
-1.269686818122863770e-01
6.394952535629272461e-02
-3.959842920303344727e-01
-5.773761868476867676e-01
-1.972708404064178467e-01
1.110095977783203125e-01
1.053638756275177002e-01
-2.644655704498291016e-01
-4.796112775802612305e-01
-4.326028823852539062e-01
1.681603305041790009e-02
1.455236226320266724e-01
-2.789227962493896484e-01
3.335959017276763916e-01
2.907153069972991943e-01
-3.366196453571319580e-01
7.649371773004531860e-02
2.838081717491149902e-01
1.742286793887615204e-02
-2.823471426963806152e-01
1.119693815708160400e-01
-2.965657711029052734e-01
-4.011609554290771484e-01
8.606861345469951630e-03
3.864834904670715332e-01
-3.462531790137290955e-02
-1.505345702171325684e-01
2.084141075611114502e-01
-1.044326499104499817e-01
-2.522683516144752502e-02
6.332973837852478027e-01
1.086566001176834106e-01
-5.029321089386940002e-02
-4.150940179824829102e-01
5.214174836874008179e-02
-3.294125571846961975e-02
1.257595121860504150e-01
6.359763443470001221e-02
2.966066002845764160e-01
5.695552006363868713e-02
3.834461420774459839e-02
8.324085175991058350e-02
-1.535793393850326538e-01
2.780615091323852539e-01
7.220406085252761841e-02
1.488152593374252319e-01
-2.242596149444580078e-01
-1.197561994194984436e-01
4.117251187562942505e-02
6.197018548846244812e-02
1.520199030637741089e-01
2.045917212963104248e-01
8.500982075929641724e-02
4.673919454216957092e-02
-9.545379877090454102e-02
-3.475792109966278076e-01
-3.221699893474578857e-01
9.415572881698608398e-02
-1.097652595490217209e-02
-8.719994127750396729e-02
-1.042374670505523682e-01
3.293292224407196045e-02
7.555735856294631958e-02
2.013709396123886108e-01
-4.324395358562469482e-01
-2.961856424808502197e-01
-2.793262898921966553e-01
-1.406157165765762329e-01
-1.454015821218490601e-01
-2.990451268851757050e-02
-5.853067152202129364e-03
-5.634486302733421326e-02
-4.855836927890777588e-02
-2.799914479255676270e-01
-1.947549879550933838e-01
-1.374494284391403198e-02
-7.233913987874984741e-02
3.409096002578735352e-01
-4.181518852710723877e-01
-2.308760583400726318e-01
1.159877255558967590e-01
-3.846287354826927185e-02
5.724917724728584290e-02
-2.208716571331024170e-01
-3.304090797901153564e-01
-7.725062966346740723e-01
-1.055443957448005676e-01
-4.418408870697021484e-02
1.495575010776519775e-01
-2.992492914199829102e-01
2.721807062625885010e-01
-3.599559664726257324e-01
1.950953155755996704e-01
2.496871724724769592e-02
3.063792549073696136e-02
3.114095032215118408e-01
6.631789356470108032e-02
-2.289497256278991699e-01
-5.585903674364089966e-02
7.996640354394912720e-02
2.238220125436782837e-01
-1.007876098155975342e-01
-3.774898350238800049e-01
-2.697262167930603027e-01
5.293118767440319061e-03
6.458617746829986572e-02
1.708400696516036987e-01
1.328465193510055542e-01
-1.242359802126884460e-01
8.690817654132843018e-02
-4.276639819145202637e-01
-3.232117742300033569e-02
-4.016028046607971191e-01
9.862104058265686035e-02
1.185492575168609619e-01
1.489054113626480103e-01
-1.925996094942092896e-01
1.139072328805923462e-01
-3.738940060138702393e-01
1.734499633312225342e-01
-6.552435457706451416e-02
-3.036382496356964111e-01
-6.804835051298141479e-02
-2.291730046272277832e-02
-9.241119772195816040e-02
-5.881146192550659180e-01
1.350837945938110352e-01
-1.804816722869873047e-01
-1.791813969612121582e-01
-5.415267348289489746e-01
-2.799719572067260742e-01
2.615571618080139160e-01
-3.059061169624328613e-01
-3.832498490810394287e-01
2.428914904594421387e-01
-1.550964862108230591e-01
1.409169584512710571e-01
-9.669712930917739868e-02
2.914379835128784180e-01
4.468740895390510559e-02
8.596240729093551636e-02
6.077613309025764465e-02
1.218718141317367554e-01
2.422494068741798401e-02
4.027524590492248535e-02
-3.269479870796203613e-01
2.528190612792968750e-01
-2.002010047435760498e-01
-3.434368968009948730e-01
-7.144368439912796021e-02
-5.363050103187561035e-01
6.182397156953811646e-02
-1.924020797014236450e-01
-1.330527961254119873e-01
1.992908865213394165e-01
8.414215594530105591e-02
-1.271702796220779419e-01
7.451505213975906372e-02
-5.321398377418518066e-01
2.443858236074447632e-01
8.263792842626571655e-02
-4.715605080127716064e-01
1.433498226106166840e-02
-5.686756968498229980e-01
-1.517225950956344604e-01
-1.696749627590179443e-01
-5.495564639568328857e-02
3.021971695125102997e-02
6.325490027666091919e-02
-3.012792170047760010e-01
2.686508893966674805e-01
1.190999597311019897e-01
1.502766758203506470e-01
-7.222412526607513428e-02
1.609922200441360474e-01
1.354968249797821045e-01
6.193155050277709961e-02
-6.372269988059997559e-02
-2.113145403563976288e-02
-4.036981463432312012e-01
-4.999921917915344238e-01
5.990991741418838501e-02
-2.098924666643142700e-02
4.912453517317771912e-02
1.477318108081817627e-01
2.771788835525512695e-01
7.641135156154632568e-02
1.904817670583724976e-01
-2.454942651093006134e-02
-2.742737233638763428e-01
1.394915878772735596e-01
1.661597192287445068e-01
2.035361528396606445e-01
1.539940237998962402e-01
-3.837231695652008057e-01
-2.699306933209300041e-03
5.724646523594856262e-02
1.560414433479309082e-01
-1.690298318862915039e-01
-9.162873029708862305e-02
1.177635788917541504e-01
2.808718383312225342e-01
2.187984883785247803e-01
-2.574492804706096649e-02
-8.292470127344131470e-02
-1.775137931108474731e-01
-2.824096679687500000e-01
-1.262160688638687134e-01
-2.901515066623687744e-01
-2.519050538539886475e-01
-1.796297878026962280e-01
-3.944906592369079590e-01
-2.154449075460433960e-01
3.407687181606888771e-03
7.696401327848434448e-02
1.510363221168518066e-01
1.499824225902557373e-01
-2.182321995496749878e-01
1.538574695587158203e-01
-7.831320911645889282e-02
-7.173601072281599045e-03
-1.474886834621429443e-01
1.370539218187332153e-01
-6.448726635426282883e-03
-2.948480248451232910e-01
9.311744570732116699e-02
2.507015764713287354e-01
2.131274342536926270e-01
1.265812963247299194e-01
-5.105670914053916931e-02
1.557960361242294312e-01
-3.064917959272861481e-02
-4.277308583259582520e-01
-1.399511098861694336e-01
9.364163875579833984e-02
8.342117816209793091e-02
2.311584800481796265e-01
-1.263126879930496216e-01
1.113540604710578918e-01
1.204947233200073242e-01
1.735047101974487305e-01
-6.306433118879795074e-03
-1.232621222734451294e-01
1.957854926586151123e-01
-2.085018455982208252e-01
6.822679191827774048e-02
-2.333325296640396118e-01
-1.284358948469161987e-01
-2.829755842685699463e-01
1.082274392247200012e-01
2.211585789918899536e-01
9.388707578182220459e-02
-3.747238814830780029e-01
-2.531376779079437256e-01
1.331342160701751709e-01
1.775979548692703247e-01
-5.383928418159484863e-01
6.902740895748138428e-02
-3.542864918708801270e-01
-2.447408437728881836e-01
1.310763508081436157e-01
8.177667111158370972e-02
1.571447104215621948e-01
-2.132446318864822388e-02
-2.520466744899749756e-01
-4.821307659149169922e-01
-2.535004913806915283e-01
-8.654062449932098389e-02
1.994835436344146729e-01
-2.506224513053894043e-01
-1.827410906553268433e-01
-2.368252426385879517e-01
1.573003083467483521e-01
7.736930996179580688e-02
-4.457368329167366028e-02
-6.035202741622924805e-01
-2.477452158927917480e-01
-3.225173354148864746e-01
-2.422001063823699951e-01
1.484629064798355103e-01
-1.890094429254531860e-01
9.629566222429275513e-02
2.143889293074607849e-02
1.116931438446044922e-01
-1.173677816987037659e-01
-2.548789083957672119e-01
-1.925178021192550659e-01
-7.796982675790786743e-02
-3.239682614803314209e-01
-5.872953534126281738e-01
-1.802900061011314392e-02
1.110640242695808411e-01
2.206593602895736694e-01
2.017642855644226074e-01
-2.301959991455078125e-01
-2.174373716115951538e-01
1.513616740703582764e-01
-1.177864968776702881e-01
3.853595815598964691e-03
1.894649118185043335e-02
8.983492851257324219e-02
-2.352537363767623901e-01
4.372060671448707581e-02
-7.971826195716857910e-02
-1.869277209043502808e-01
-3.576996624469757080e-01
2.331204414367675781e-01
-2.521328926086425781e-01
3.038682416081428528e-02
9.189128875732421875e-02
4.389888644218444824e-01
-3.811341226100921631e-01
-1.391068696975708008e-01
9.997394867241382599e-03
-1.050587594509124756e-01
6.688879430294036865e-02
-3.501653969287872314e-01
1.458497941493988037e-01
-5.498400926589965820e-01
-3.484788835048675537e-01
-1.114817336201667786e-01
-5.941434949636459351e-02
-3.889900073409080505e-02
1.628897041082382202e-01
1.729297786951065063e-01
9.937308728694915771e-02
1.098854169249534607e-01
2.055336683988571167e-01
2.437342852354049683e-01
-2.079064026474952698e-02
1.284036086872220039e-03
2.262307256460189819e-01
2.107691466808319092e-01
-1.413334012031555176e-01
-4.939834177494049072e-01
1.943593621253967285e-01
3.143375040963292122e-03
2.176659852266311646e-01
1.343439072370529175e-01
1.840280741453170776e-01
-1.843600422143936157e-01
4.741803184151649475e-02
7.864793390035629272e-02
2.130100727081298828e-01
-7.605045288801193237e-02
-3.973110616207122803e-01
1.228053197264671326e-01
-1.990387588739395142e-01
2.305345535278320312e-01
1.702799201011657715e-01
1.158943772315979004e-01
9.835332632064819336e-02
1.847259551286697388e-01
-3.871783614158630371e-01
5.087048560380935669e-02
-3.416317403316497803e-01
3.000070527195930481e-02
2.150255590677261353e-01
-5.947333574295043945e-02
1.705351620912551880e-01
-4.332664608955383301e-02
3.926704823970794678e-02
-5.600463747978210449e-01
-1.766816526651382446e-01
-3.254896700382232666e-01
-4.822065532207489014e-01
-7.784307748079299927e-02
-9.225580096244812012e-02
-1.821448206901550293e-01
-2.504327297210693359e-01
-1.100365072488784790e-01
-2.547405958175659180e-01
3.103385120630264282e-02
-7.060846686363220215e-01
6.214590370655059814e-02
2.403630018234252930e-01
2.327719479799270630e-01
2.488538026809692383e-01
-6.270719170570373535e-01
2.442759722471237183e-01
-6.448244452476501465e-01
1.573182940483093262e-01
8.906003832817077637e-02
-6.939579546451568604e-02
-1.554220169782638550e-01
-1.848208457231521606e-01
3.074008524417877197e-01
1.972034275531768799e-01
3.421422466635704041e-02
2.206897884607315063e-01
-2.634183466434478760e-01
8.610402792692184448e-02
1.174878105521202087e-01
-1.229684501886367798e-01
-3.906870782375335693e-01
2.267622649669647217e-01
-1.983650624752044678e-01
2.115178108215332031e-01
-5.448909401893615723e-01
-1.715364009141921997e-01
-2.487265765666961670e-01
1.234386861324310303e-01
1.245941817760467529e-01
-1.188988611102104187e-01
-1.297219097614288330e-01
1.688367426395416260e-01
1.393062621355056763e-01
-4.935982525348663330e-01
6.185559183359146118e-02
3.269900083541870117e-01
-4.745013713836669922e-01
-1.890558600425720215e-01
-5.501829385757446289e-01
-3.275341391563415527e-01
-3.929630517959594727e-01
-5.824258551001548767e-02
-1.288067698478698730e-01
7.923747599124908447e-02
-5.617491602897644043e-01
1.210561692714691162e-01
-1.132803335785865784e-01
-3.443784117698669434e-01
9.707710146903991699e-02
2.114723771810531616e-01
3.827474713325500488e-01
1.687803566455841064e-01
-7.422430068254470825e-02
-2.874651253223419189e-01
3.167031332850456238e-02
7.600574195384979248e-02
1.011516004800796509e-01
1.423497796058654785e-01
5.843743681907653809e-02
-4.427717626094818115e-01
-1.827510148286819458e-01
-8.559204638004302979e-02
-5.044052004814147949e-01
-8.035132288932800293e-01
2.328941822052001953e-01
-2.277946621179580688e-01
-4.373035728931427002e-01
3.407077863812446594e-02
-3.458876609802246094e-01
-1.947789192199707031e-01
1.497533023357391357e-01
1.268507689237594604e-01
1.579482406377792358e-01
1.788878738880157471e-01
1.443503648042678833e-01
2.965358197689056396e-01
2.542533576488494873e-01
2.435337565839290619e-02
1.494204103946685791e-01
1.406648308038711548e-01
1.235989555716514587e-01
6.424721330404281616e-02
-3.361274600028991699e-01
6.526417285203933716e-02
-4.103974103927612305e-01
-1.259099990129470825e-01
-4.659990370273590088e-01
-2.192297875881195068e-01
1.907312311232089996e-02
1.416815519332885742e-01
-4.510731697082519531e-01
-1.297333687543869019e-01
3.618524968624114990e-01
2.788717746734619141e-01
2.467300742864608765e-01
-1.004282385110855103e-01
9.792336262762546539e-03
1.752306222915649414e-01
1.179179027676582336e-01
-2.978247404098510742e-01
1.347225755453109741e-01
-1.402390599250793457e-01
-2.261924892663955688e-01
6.947346031665802002e-02
9.389320015907287598e-02
-4.649359881877899170e-01
7.685764878988265991e-02
1.484877914190292358e-01
-2.484981529414653778e-02
-2.667746543884277344e-01
-2.743175625801086426e-01
-1.435199193656444550e-02
3.477556630969047546e-02
2.430275082588195801e-01
2.927405536174774170e-01
-2.460826039314270020e-01
9.940391778945922852e-02
1.543474048376083374e-01
1.781802624464035034e-01
-2.027301490306854248e-02
1.184872463345527649e-01
-1.223889291286468506e-01
8.878841996192932129e-02
-1.078545600175857544e-01
8.161879330873489380e-02
1.072276905179023743e-01
1.104540452361106873e-01
-6.963082589209079742e-03
-1.376394480466842651e-01
1.510074436664581299e-01
-1.524136513471603394e-01
2.745746672153472900e-01
1.525116562843322754e-01
-3.312734961509704590e-01
-1.504896581172943115e-01
-2.964981794357299805e-01
3.838346106931567192e-03
1.482942402362823486e-01
-1.168143004179000854e-01
2.086540311574935913e-01
-6.742421388626098633e-01
-6.372248530387878418e-01
3.577259182929992676e-02
-2.185354828834533691e-01
2.179938405752182007e-01
1.343271434307098389e-01
-6.896426528692245483e-02
2.092460393905639648e-01
-5.529437586665153503e-02
1.018636897206306458e-01
8.245562016963958740e-02
-4.942330345511436462e-02
1.234300285577774048e-01
-4.050091505050659180e-01
5.129996687173843384e-02
-7.170554250478744507e-02
-3.004254400730133057e-01
-3.803429380059242249e-02
-3.163376152515411377e-01
1.927686929702758789e-01
-7.457891106605529785e-02
2.194003909826278687e-01
-1.541297584772109985e-01
1.356233209371566772e-01
-2.233763039112091064e-01
-5.976675078272819519e-02
3.047508001327514648e-01
2.899931073188781738e-01
4.431013762950897217e-01
-3.089726567268371582e-01
-1.386005431413650513e-01
1.321596801280975342e-01
2.158450335264205933e-01
1.544433385133743286e-01
2.934201806783676147e-02
1.937052309513092041e-01
-3.604543805122375488e-01
-1.970492899417877197e-01
6.979670375585556030e-02
-2.838186621665954590e-01
-1.399771422147750854e-01
-3.703309921547770500e-03
-4.943895339965820312e-02
1.974609792232513428e-01
-1.977752596139907837e-01
7.048510760068893433e-02
1.081844642758369446e-01
-1.875041425228118896e-01
-6.414999812841415405e-02
-1.915365904569625854e-01
2.160123586654663086e-01
4.460280295461416245e-03
3.456584513187408447e-01
-2.649174630641937256e-01
6.596243381500244141e-02
1.490390747785568237e-01
3.164779245853424072e-01
-2.330825775861740112e-01
8.103599399328231812e-02
-2.480437904596328735e-01
-6.930495798587799072e-02
-3.141340240836143494e-02
-1.265110671520233154e-01
-2.463954687118530273e-01
-2.606406062841415405e-02
2.046463936567306519e-01
8.108833432197570801e-02
-2.992143929004669189e-01
2.051838934421539307e-01
-1.543145477771759033e-01
2.004012465476989746e-01
-1.912782341241836548e-01
3.005719780921936035e-01
2.039222270250320435e-01
1.546858847141265869e-01
-8.398991823196411133e-02
-2.526161260902881622e-02
6.959003210067749023e-02
5.829781293869018555e-02
-1.880331933498382568e-01
8.974137157201766968e-02
-3.076197803020477295e-01
5.409474670886993408e-02
9.144555777311325073e-03
-2.592078745365142822e-01
3.112953528761863708e-02
1.032105926424264908e-02
-4.797194618731737137e-03
-2.011151015758514404e-01
2.525360286235809326e-01
-1.386683136224746704e-01
-1.166577935218811035e-01
1.283622086048126221e-01
-5.125508829951286316e-02
-2.137157768011093140e-01
-2.622043788433074951e-01
-2.029071897268295288e-01
1.035618595778942108e-02
2.031773924827575684e-01
-1.381638050079345703e-01
2.426774799823760986e-01
3.133617937564849854e-01
-5.012006033211946487e-03
5.241942405700683594e-02
-3.179479762911796570e-02
-5.301143974065780640e-02
-5.207923650741577148e-01
-6.905254125595092773e-01
4.172417223453521729e-01
-1.826501488685607910e-01
-2.974076271057128906e-01
1.459094285964965820e-01
-2.043869644403457642e-01
-6.725264340639114380e-02
8.592981845140457153e-02
-1.491323709487915039e-01
1.646485328674316406e-01
2.143507599830627441e-01
1.014324873685836792e-01
-3.127545118331909180e-02
-6.479276418685913086e-01
-6.346138566732406616e-02
-2.282386124134063721e-01
2.267103940248489380e-01
-6.885554641485214233e-02
-1.336411982774734497e-01
-3.536627888679504395e-01
-2.311494573950767517e-02
-4.250139743089675903e-02
1.533306837081909180e-01
2.005664259195327759e-01
-2.731590270996093750e-01
-5.382568836212158203e-01
1.504982262849807739e-01
1.023086756467819214e-01
2.788528800010681152e-01
1.185170337557792664e-01
-3.993626832962036133e-01
9.785450249910354614e-02
-2.888189069926738739e-02
-3.312512338161468506e-01
1.733263581991195679e-01
-6.326677203178405762e-01
6.267092376947402954e-02
-2.052900940179824829e-02
-1.127194017171859741e-01
2.491509318351745605e-01
-1.397006511688232422e-01
-1.876121200621128082e-02
-1.593377739191055298e-01
5.806600302457809448e-02
-1.894909739494323730e-01
-6.804640889167785645e-01
-3.528770804405212402e-01
-3.147205412387847900e-01
4.327775537967681885e-02
3.073258399963378906e-01
3.631635308265686035e-01
-5.111668258905410767e-02
9.699188172817230225e-02
-4.528325796127319336e-01
1.767837405204772949e-01
-3.066699504852294922e-01
-1.540910303592681885e-01
1.286184415221214294e-02
-5.673809647560119629e-01
-1.747863888740539551e-01
1.539500355720520020e-01
1.719994992017745972e-01
6.972965598106384277e-02
-6.933485865592956543e-01
-2.399711608886718750e-01
1.626464426517486572e-01
-2.677753567695617676e-01
6.988762319087982178e-02
4.406561329960823059e-02
-5.545920133590698242e-01
2.875031828880310059e-01
-3.820488229393959045e-02
-2.932526171207427979e-01
1.768456697463989258e-01
1.174635663628578186e-01
-9.523239135742187500e-01
-2.985546598210930824e-03
-3.275471329689025879e-01
-7.310650497674942017e-02
1.484467685222625732e-01
8.311338722705841064e-02
1.457987129688262939e-01
-8.588672615587711334e-03
-3.710578382015228271e-01
-1.079447790980339050e-01
5.563907325267791748e-02
1.434605121612548828e-01
1.597460592165589333e-03
6.785390526056289673e-02
-2.884348034858703613e-01
1.190334334969520569e-01
-4.153729677200317383e-01
8.170747011899948120e-02
-3.649916946887969971e-01
-2.580713033676147461e-01
-5.569283664226531982e-02
-4.735671356320381165e-02
8.225797861814498901e-02
2.954276464879512787e-02
-1.807841956615447998e-01
1.527763605117797852e-01
-9.352098405361175537e-02
4.729102179408073425e-02
-6.700418889522552490e-02
3.139570653438568115e-01
2.409469634294509888e-01
-2.792604863643646240e-01
2.310072770342230797e-03
1.529361754655838013e-01
4.214426875114440918e-02
1.593880653381347656e-01
9.204320609569549561e-02
9.795138984918594360e-02
1.313421726226806641e-01
7.033794652670621872e-03
-2.454320341348648071e-01
-5.078566074371337891e-01
2.239239364862442017e-01
-1.172192543745040894e-01
-3.946663737297058105e-01
1.224500611424446106e-01
1.083344370126724243e-01
-4.897889196872711182e-01
-7.049185037612915039e-01
-2.254197746515274048e-01
-3.398353978991508484e-02
-5.314809679985046387e-01
-3.541582822799682617e-01
-9.279416501522064209e-02
-3.945582807064056396e-01
1.382585316896438599e-01
1.727718710899353027e-01
1.039974540472030640e-01
-2.709179222583770752e-01
-7.699451595544815063e-02
-3.068049252033233643e-01
2.607704997062683105e-01
-3.735258281230926514e-01
-5.018945932388305664e-01
-1.151491925120353699e-01
8.337830752134323120e-02
6.050132215023040771e-02
-2.325238287448883057e-01
-8.089405298233032227e-02
4.366018176078796387e-01
-1.429395526647567749e-01
1.152967512607574463e-01
2.446971684694290161e-01
-1.284800171852111816e-01
-5.146384835243225098e-01
1.743230596184730530e-02
-3.302598595619201660e-01
3.849974870681762695e-01
-5.796227455139160156e-01
2.454181164503097534e-01
2.370470911264419556e-01
1.366931349039077759e-01
1.804772317409515381e-01
1.563724577426910400e-01
-2.624599337577819824e-01
-1.458333581686019897e-01
-2.030672281980514526e-01
4.433199763298034668e-01
3.027675747871398926e-01
-7.089279592037200928e-02
1.769909411668777466e-01
3.189326822757720947e-01
1.251673549413681030e-01
-1.784180104732513428e-01
4.793995320796966553e-01
-3.408727049827575684e-01
1.760684698820114136e-01
6.603108346462249756e-02
5.627765785902738571e-03
-4.254034757614135742e-01
-5.587484315037727356e-02
-4.194286465644836426e-01
-4.147348403930664062e-01
-6.116066575050354004e-01
-2.947447597980499268e-01
4.836135506629943848e-01
3.104692324995994568e-02
-2.954827249050140381e-01
-3.002830147743225098e-01
-6.967486441135406494e-02
1.637870222330093384e-01
1.530497223138809204e-01
-3.027614951133728027e-01
-1.699611991643905640e-01
1.992277354001998901e-01
-6.579108536243438721e-02
1.980954706668853760e-01
8.454447239637374878e-02
-1.442701220512390137e-01
7.709383964538574219e-03
-1.888442337512969971e-01
1.030983552336692810e-01
-1.215485483407974243e-01
-1.603225022554397583e-01
2.203844636678695679e-01
1.790221035480499268e-01
-6.367928385734558105e-01
4.686905741691589355e-01
-7.252725958824157715e-02
-4.704962968826293945e-01
8.540084213018417358e-02
8.672852069139480591e-02
-6.156650781631469727e-01
-4.670881479978561401e-02
1.927715241909027100e-01
4.644456505775451660e-02
2.068532705307006836e-01
-7.526182532310485840e-01
-9.809947609901428223e-01
1.966254971921443939e-02
-2.740530371665954590e-01
-3.133956789970397949e-01
-1.574954986572265625e-01
2.176416814327239990e-01
-4.313641786575317383e-01
-2.406604886054992676e-01
1.477542519569396973e-01
-5.083393454551696777e-01
-2.262405604124069214e-01
-5.187152326107025146e-02
2.486892789602279663e-01
1.965569406747817993e-01
2.235661596059799194e-01
1.318419575691223145e-01
-6.658490747213363647e-02
5.648213997483253479e-02
-5.057779327034950256e-02
-7.081755250692367554e-02
8.866223692893981934e-02
2.970232963562011719e-01
1.796202510595321655e-01
4.374864101409912109e-01
-6.520278453826904297e-01
-5.343894958496093750e-01
-6.081733107566833496e-02
-5.525761842727661133e-01
3.261948004364967346e-02
-1.077348249964416027e-03
6.736582517623901367e-02
-2.451340556144714355e-01
1.157752647995948792e-01
6.581937521696090698e-02
-1.477549225091934204e-01
-4.575268924236297607e-01
6.600620597600936890e-02
-1.458699256181716919e-01
2.408800274133682251e-01
2.486527413129806519e-01
1.133394986391067505e-01
2.544280290603637695e-01
-2.878473997116088867e-01
-3.879820108413696289e-01
-1.147595196962356567e-01
-3.622535616159439087e-02
7.286339253187179565e-02
-2.249203473329544067e-01
4.697683081030845642e-02
1.850079745054244995e-01
-1.654790788888931274e-01
-6.369761824607849121e-01
1.630855202674865723e-01
3.687852621078491211e-01
2.005852758884429932e-01
-2.632704377174377441e-01
-6.619200110435485840e-01
2.223932594060897827e-01
-5.276924371719360352e-01
-2.593116462230682373e-01
1.904721111059188843e-01
2.442724257707595825e-01
-3.281593024730682373e-01
3.028951287269592285e-01
3.510450720787048340e-01
1.886213868856430054e-01
-1.452354341745376587e-01
-1.963680684566497803e-01
-7.945009469985961914e-01
4.665688425302505493e-02
7.506098598241806030e-02
5.082300305366516113e-02
-7.653313130140304565e-02
4.882895853370428085e-03
7.729916274547576904e-02
-4.613963663578033447e-01
-3.071592450141906738e-01
1.063494831323623657e-01
-1.691594719886779785e-01
-2.945365607738494873e-01
4.833450168371200562e-02
2.000433504581451416e-01
-1.567514687776565552e-01
1.990964859724044800e-01
1.614086627960205078e-01
-3.595294058322906494e-02
-1.313994359225034714e-02
-2.062827944755554199e-01
-1.797564327716827393e-01
-3.326253294944763184e-01
-3.299664556980133057e-01
-1.138400062918663025e-01
8.679564297199249268e-02
3.964157775044441223e-03
2.619769275188446045e-01
6.833405047655105591e-02
-3.055801987648010254e-01
8.843742311000823975e-02
-2.815788425505161285e-02
5.154136940836906433e-02
5.977922677993774414e-02
-2.272229641675949097e-01
-3.415242135524749756e-01
-6.895898282527923584e-02
1.619602441787719727e-01
-2.261651009321212769e-01
-4.128148555755615234e-01
-5.764631554484367371e-02
-1.726887002587318420e-02
-1.423504054546356201e-01
-3.339444696903228760e-01
3.082752041518688202e-02
-7.111335992813110352e-01
7.369111478328704834e-02
1.054186299443244934e-01
2.569020725786685944e-03
-2.387989014387130737e-01
9.068373590707778931e-02
-3.844576776027679443e-01
-2.405492365360260010e-01
-4.623946845531463623e-01
2.452738434076309204e-01
1.132571324706077576e-01
1.925129443407058716e-02
-1.975947916507720947e-01
9.343363344669342041e-02
1.370701100677251816e-02
3.235872983932495117e-01
2.622274458408355713e-01
-2.436598539352416992e-01
-3.068803846836090088e-01
2.837427193298935890e-03
8.120234310626983643e-02
1.249789297580718994e-01
-5.730552077293395996e-01
1.272355914115905762e-01
-5.667569041252136230e-01
-1.365470886230468750e-01
2.397988289594650269e-01
2.111168652772903442e-01
1.175957620143890381e-01
3.197308257222175598e-02
-3.690527379512786865e-01
4.390034358948469162e-03
-1.263525635004043579e-01
-3.092188239097595215e-01
2.253685593605041504e-01
-5.491691455245018005e-02
-2.470191270112991333e-01
-1.655703037977218628e-02
-4.090447127819061279e-01
2.020515203475952148e-01
1.196559071540832520e-01
5.251079052686691284e-02
4.860325157642364502e-02
5.021806433796882629e-02
-3.211345970630645752e-01
