-2.279422730207443237e-01
-2.500910162925720215e-01
5.443910136818885803e-02
1.750946342945098877e-01
2.121859788894653320e-01
-1.701166927814483643e-01
-3.548232614994049072e-01
-1.318476945161819458e-01
6.462503969669342041e-02
1.700159013271331787e-01
2.083394229412078857e-01
-3.694988414645195007e-02
-3.963930904865264893e-01
-2.939604222774505615e-01
-9.272190928459167480e-02
2.171331644058227539e-01
1.028366163372993469e-01
-3.252641856670379639e-01
9.970998018980026245e-02
1.694392710924148560e-01
2.189101278781890869e-01
2.422620654106140137e-01
-4.023668356239795685e-03
-1.372062861919403076e-01
1.040880233049392700e-01
1.647701263427734375e-01
-1.939787268638610840e-01
6.444930285215377808e-02
1.576861888170242310e-01
5.197070073336362839e-03
8.767872303724288940e-02
1.943783275783061981e-02
-2.417380362749099731e-01
-2.348296195268630981e-01
-7.136560976505279541e-02
1.367883533239364624e-01
1.169907227158546448e-01
-5.911754444241523743e-02
-2.230408340692520142e-01
-1.058210656046867371e-01
3.552783727645874023e-01
3.603463992476463318e-02
4.698452539741992950e-03
5.363355390727519989e-03
1.160006150603294373e-01
4.035384654998779297e-01
-1.062108427286148071e-01
-1.450308114290237427e-01
5.965685844421386719e-02
1.557095795869827271e-01
4.462000727653503418e-02
3.756318986415863037e-02
7.441408932209014893e-02
6.837890297174453735e-02
-6.722676008939743042e-02
9.693519771099090576e-02
-1.275902241468429565e-01
-1.650176942348480225e-02
1.183832343667745590e-02
-1.249209642410278320e-01
-5.950127728283405304e-03
-4.509411752223968506e-03
1.417358666658401489e-01
-7.400909066200256348e-02
-1.367377489805221558e-01
3.488169312477111816e-01
5.477549508213996887e-02
8.728031069040298462e-03
-9.537587314844131470e-02
7.097978889942169189e-02
1.479167193174362183e-01
3.105434961616992950e-02
-7.723926752805709839e-02
-5.779779329895973206e-02
9.719903767108917236e-02
3.299210965633392334e-01
5.480624362826347351e-02
-1.212796494364738464e-01
-2.251923382282257080e-01
-3.060289919376373291e-01
-8.019535988569259644e-02
-2.480142116546630859e-01
-1.186921820044517517e-01
-1.559849232435226440e-01
1.293977499008178711e-01
-3.378638923168182373e-01
-1.901718229055404663e-01
1.069748774170875549e-01
-5.397444590926170349e-03
-9.229019284248352051e-03
-2.001592218875885010e-01
-3.686531633138656616e-02
-8.863930404186248779e-02
-7.227980531752109528e-03
8.881607651710510254e-02
-1.087574213743209839e-01
2.887203097343444824e-01
3.522832319140434265e-02
-9.915291517972946167e-02
-1.709198355674743652e-01
-1.673165112733840942e-01
-4.880679845809936523e-01
-4.097816646099090576e-01
5.097279325127601624e-02
1.505792737007141113e-01
-3.805785998702049255e-02
-7.009634282439947128e-03
-1.656475216150283813e-01
-3.609916940331459045e-02
-1.033600196242332458e-01
-4.984496533870697021e-02
-1.220624893903732300e-03
-9.405443072319030762e-02
-7.107365131378173828e-02
-1.035339906811714172e-01
-2.776921391487121582e-01
-8.668217808008193970e-02
-5.362803116440773010e-02
-1.759050935506820679e-01
-2.269307971000671387e-01
-2.412832677364349365e-01
-2.253005653619766235e-01
-9.338397532701492310e-03
-1.266362611204385757e-02
1.111532524228096008e-01
2.082551270723342896e-01
-3.802036046981811523e-01
-7.596862316131591797e-01
-1.039914846420288086e+00
-6.649473309516906738e-01
1.087363511323928833e-01
-1.597410067915916443e-02
-1.999749243259429932e-02
-3.524499014019966125e-02
1.354842633008956909e-01
-1.237659901380538940e-01
8.262342959642410278e-02
1.751896291971206665e-01
9.755887836217880249e-02
8.257572352886199951e-02
1.402919366955757141e-02
1.439225077629089355e-01
1.138982623815536499e-01
8.300440758466720581e-02
4.989639669656753540e-02
8.451160043478012085e-02
2.002258598804473877e-01
2.617762386798858643e-01
1.861776113510131836e-01
1.021362468600273132e-02
3.137473165988922119e-01
-4.763733223080635071e-02
-4.412240386009216309e-01
-4.671632498502731323e-02
2.619081735610961914e-01
2.280031293630599976e-01
1.596162617206573486e-01
-9.350622296333312988e-01
-4.547581449151039124e-02
5.075577646493911743e-02
-8.687947690486907959e-02
1.008274555206298828e-01
-5.015549659729003906e-01
-9.701495058834552765e-03
-1.178709138184785843e-02
-1.064046248793601990e-01
9.306767582893371582e-02
2.947608232498168945e-01
3.015291094779968262e-01
-1.755996197462081909e-01
-2.340830564498901367e-01
1.031875237822532654e-01
2.425111234188079834e-01
4.448025822639465332e-01
4.661752283573150635e-02
-2.053324729204177856e-01
-1.917513906955718994e-01
5.608964711427688599e-02
-1.077358499169349670e-01
8.754887431859970093e-02
-1.718462109565734863e-01
2.378542162477970123e-02
-7.334432005882263184e-02
-1.333334147930145264e-01
4.200837388634681702e-02
-1.541692614555358887e-01
-3.128927573561668396e-02
1.338149011135101318e-01
1.294151879847049713e-03
-1.151062697172164917e-01
-1.781224012374877930e-01
4.400505218654870987e-03
9.117759764194488525e-02
3.841936588287353516e-02
6.447731517255306244e-03
1.940017193555831909e-01
1.533186901360750198e-02
-6.554105877876281738e-02
6.074822321534156799e-02
1.989104002714157104e-01
-1.076232790946960449e-01
-3.243033885955810547e-01
-1.749539673328399658e-01
-6.971755623817443848e-02
-8.851505070924758911e-02
3.107065148651599884e-02
-1.639046072959899902e-01
-1.557807624340057373e-01
-5.123400688171386719e-02
-9.057183749973773956e-03
1.283157765865325928e-01
3.005940280854701996e-02
-9.522143006324768066e-02
-9.497974067926406860e-02
1.512004584074020386e-01
8.031003922224044800e-02
1.117184087634086609e-01
-1.583651602268218994e-01
-1.758218407630920410e-01
1.764799118973314762e-03
1.848651915788650513e-01
1.361217051744461060e-01
-8.076192438602447510e-02
-6.348507106304168701e-02
1.364332586526870728e-01
-2.329280413687229156e-02
1.741505786776542664e-02
1.425300836563110352e-01
5.686037242412567139e-02
-1.298739761114120483e-01
2.546047866344451904e-01
4.405239969491958618e-02
3.402737155556678772e-02
-4.915373399853706360e-02
1.613768041133880615e-01
-8.894043415784835815e-02
-9.306655079126358032e-02
-1.248612254858016968e-01
-1.268649846315383911e-01
-1.421940326690673828e-01
-2.622189819812774658e-01
-2.760686278343200684e-01
-7.142625749111175537e-02
-9.692450612783432007e-02
-1.337575912475585938e-01
1.192724183201789856e-01
-2.173098362982273102e-02
-3.578907996416091919e-02
1.589171960949897766e-02
9.673523157835006714e-02
1.099580079317092896e-01
-4.592625424265861511e-02
-8.329556137323379517e-02
-3.567857444286346436e-01
-1.234795525670051575e-01
1.348950862884521484e-01
4.777790233492851257e-02
-4.728081822395324707e-02
-2.362570017576217651e-01
-8.036398142576217651e-02
1.946423500776290894e-01
-5.919547751545906067e-02
7.760701328516006470e-02
6.832693703472614288e-03
2.725070528686046600e-02
1.036591976881027222e-01
-8.972019888460636139e-03
4.903956502676010132e-02
5.466159805655479431e-02
1.092977598309516907e-01
9.886519610881805420e-02
1.244672108441591263e-02
-1.137870028614997864e-01
-2.261241823434829712e-01
-2.514921594411134720e-03
1.256559342145919800e-01
3.845173418521881104e-01
3.743678033351898193e-01
-2.170777618885040283e-01
1.492703408002853394e-01
-1.094949543476104736e-01
6.281100213527679443e-02
1.787519752979278564e-01
-8.707775175571441650e-02
-5.343343317508697510e-02
-9.817700833082199097e-02
3.202955052256584167e-02
1.455247551202774048e-01
-2.596993697807192802e-03
-4.347151890397071838e-02
-2.272950261831283569e-01
-9.545913338661193848e-02
6.462322175502777100e-02
-1.046352088451385498e-01
3.035754337906837463e-02
1.190927624702453613e-01
3.084112107753753662e-01
3.459285497665405273e-01
1.466904133558273315e-01
1.791351735591888428e-01
-2.628458850085735321e-02
8.751026540994644165e-02
4.232455417513847351e-02
-5.268425494432449341e-02
1.911972314119338989e-01
-1.421905010938644409e-01
-9.312918037176132202e-02
-5.679938197135925293e-02
-5.277334898710250854e-02
-3.740915283560752869e-02
-1.802512817084789276e-02
-1.054196432232856750e-01
-1.103699579834938049e-01
-1.044017300009727478e-01
-2.073708474636077881e-01
-1.708091944456100464e-01
-2.305496186017990112e-01
-1.311470866203308105e-01
-2.133079022169113159e-01
-2.151041775941848755e-01
3.465136587619781494e-01
1.194048225879669189e-01
3.690515160560607910e-01
2.320049107074737549e-01
1.955419033765792847e-02
7.286588847637176514e-02
-1.486707627773284912e-01
2.353961020708084106e-02
1.193971410393714905e-01
2.866855263710021973e-01
1.386861205101013184e-01
-2.019959241151809692e-01
2.304778993129730225e-02
1.150918379426002502e-01
1.870823651552200317e-01
1.061220243573188782e-01
-1.488644536584615707e-02
1.011331379413604736e-01
8.692513406276702881e-02
2.947947084903717041e-01
-1.440843790769577026e-01
3.722094744443893433e-02
1.141745746135711670e-01
3.212713927496224642e-04
1.131758019328117371e-01
-6.056445464491844177e-02
9.679964184761047363e-02
5.512274801731109619e-02
-5.233929678797721863e-02
1.369527280330657959e-01
4.921586066484451294e-02
5.513956397771835327e-02
1.065409183502197266e-01
-9.729687008075416088e-04
1.000833213329315186e-01
-6.893648952245712280e-02
-4.742109775543212891e-02
2.725880360230803490e-03
-3.038274683058261871e-02
1.719070971012115479e-01
1.023655310273170471e-01
1.078402400016784668e-01
5.872686579823493958e-02
-4.620298370718955994e-02
1.566937118768692017e-01
1.937487125396728516e-01
-1.054921094328165054e-02
-7.130630314350128174e-02
-4.945042356848716736e-02
1.124729141592979431e-01
1.022498533129692078e-01
-5.820145457983016968e-02
-1.272003054618835449e-01
-1.435381919145584106e-01
7.646878063678741455e-02
-1.268043816089630127e-01
-4.241616725921630859e-01
-7.379794716835021973e-01
-2.155420333147048950e-01
5.557997897267341614e-02
-3.151150643825531006e-01
-1.962460577487945557e-01
-2.248052954673767090e-01
9.959588944911956787e-02
1.065803021192550659e-01
-1.401654630899429321e-01
1.423013955354690552e-01
-1.929219216108322144e-01
4.525161907076835632e-02
-1.044075265526771545e-01
2.705798149108886719e-01
-3.095391765236854553e-02
3.642343683168292046e-03
1.538482457399368286e-01
-6.292767077684402466e-02
4.391745477914810181e-02
-2.016177475452423096e-01
-2.188653051853179932e-01
-7.313403487205505371e-02
-1.792484670877456665e-01
-1.225837692618370056e-01
2.176886349916458130e-01
4.977736771106719971e-01
2.506919801235198975e-01
6.171914190053939819e-02
-1.760100424289703369e-01
-3.233097493648529053e-02
1.841367334127426147e-01
-1.683874428272247314e-01
-4.848879203200340271e-02
-1.062976419925689697e-01
-1.299725621938705444e-01
8.187348395586013794e-02
3.125941008329391479e-02
1.781400409527122974e-03
4.423909261822700500e-02
1.034337207674980164e-01
2.468764036893844604e-01
1.064717471599578857e-01
-2.525936998426914215e-02
-2.382957488298416138e-01
-6.924050394445657730e-03
1.560379564762115479e-01
-1.485169678926467896e-01
-1.744432300329208374e-01
-2.940971851348876953e-01
-1.225854754447937012e+00
-1.410788774490356445e+00
-9.961820840835571289e-01
-2.942029833793640137e-01
-1.192888841032981873e-01
-1.857115745544433594e+00
-2.310147523880004883e+00
-5.528051853179931641e-01
-7.657683454453945160e-03
-2.502155490219593048e-02
-3.304255306720733643e-01
-8.194841742515563965e-01
-1.338419318199157715e-01
-3.770459070801734924e-02
1.119468063116073608e-01
1.901833862066268921e-01
-2.928290329873561859e-02
6.013831589370965958e-03
-8.469540625810623169e-02
-7.237995415925979614e-02
-4.757808346766978502e-04
2.232348322868347168e-01
-2.856536209583282471e-02
2.659512683749198914e-02
1.658274531364440918e-01
2.051923125982284546e-01
-8.335540890693664551e-01
-7.308516502380371094e-01
-3.092184960842132568e-01
1.574380546808242798e-01
-5.960481241345405579e-02
4.389757290482521057e-03
5.842945352196693420e-02
-7.590892910957336426e-02
-2.710783779621124268e-01
1.736112087965011597e-01
5.351918339729309082e-01
7.163217067718505859e-01
2.062736004590988159e-01
-4.263551533222198486e-01
-8.666756004095077515e-02
2.445698976516723633e-01
2.992798388004302979e-01
3.202055022120475769e-02
-6.057892739772796631e-02
2.077692300081253052e-01
9.649187326431274414e-02
-8.145559579133987427e-02
2.659662365913391113e-01
3.913806006312370300e-02
-8.852845989167690277e-03
2.029243297874927521e-02
6.742857396602630615e-02
1.080149412155151367e-01
-1.651867665350437164e-02
2.400373816490173340e-01
1.117295250296592712e-01
1.220292970538139343e-01
6.047452241182327271e-02
-9.850657731294631958e-02
-7.579107582569122314e-02
2.602526545524597168e-01
2.417305558919906616e-01
1.387258768081665039e-01
-1.382223665714263916e-01
-2.873474657535552979e-01
-9.134874492883682251e-02
2.171209007501602173e-01
3.224420547485351562e-01
8.755409717559814453e-02
-2.274529039859771729e-01
-2.706167101860046387e-01
5.775633454322814941e-02
1.130052730441093445e-01
-3.618000820279121399e-02
2.098180800676345825e-01
1.433146297931671143e-01
-1.233976706862449646e-01
-2.194003164768218994e-01
1.630054712295532227e-01
3.744643181562423706e-02
1.817817986011505127e-01
1.511871535331010818e-02
-4.762354306876659393e-03
2.553358860313892365e-02
1.035631224513053894e-01
-2.754210121929645538e-02
2.500523068010807037e-02
2.885828912258148193e-02
2.019544877111911774e-02
-1.374345123767852783e-01
-3.543141782283782959e-01
1.141847297549247742e-01
1.697656661272048950e-01
-3.809148445725440979e-02
-2.095873095095157623e-02
-2.689579129219055176e-01
-1.156275626271963120e-02
-1.155875623226165771e-01
-2.793096601963043213e-01
-4.934583604335784912e-01
-4.382302165031433105e-01
-2.655025422573089600e-01
1.764914840459823608e-01
-5.642659962177276611e-02
-8.508367836475372314e-02
7.810928672552108765e-02
1.106458306312561035e-01
1.282915174961090088e-01
1.088800579309463501e-01
6.915602833032608032e-02
-2.526043355464935303e-02
-1.950003504753112793e-01
1.033081393688917160e-02
-1.214623004198074341e-01
2.020537406206130981e-01
1.114353761076927185e-01
-1.482682675123214722e-02
-4.729484021663665771e-02
-1.738802939653396606e-01
-1.448045521974563599e-01
7.679375261068344116e-02
3.952307999134063721e-01
-2.512037754058837891e-01
-3.898381814360618591e-02
5.990903452038764954e-02
1.472820248454809189e-02
8.874377608299255371e-02
-3.245341777801513672e-02
-8.526219986379146576e-03
2.951430156826972961e-02
9.859385341405868530e-02
2.119448967278003693e-03
1.300176978111267090e-01
5.904832109808921814e-02
-7.428552955389022827e-02
1.522751897573471069e-01
1.090858057141304016e-01
-1.373311597853899002e-02
1.575812399387359619e-01
6.143435835838317871e-02
3.133619902655482292e-03
-2.157679498195648193e-01
-4.296495392918586731e-02
3.868305683135986328e-02
-1.052718907594680786e-01
-2.997230291366577148e-01
-2.859671115875244141e-01
-1.845654100179672241e-01
1.290193647146224976e-01
4.246391355991363525e-01
3.964135944843292236e-01
1.498392969369888306e-01
-7.779862731695175171e-02
6.854268908500671387e-02
7.507643103599548340e-02
1.617240011692047119e-01
-2.290535951033234596e-03
8.482415974140167236e-02
-1.037145033478736877e-01
-1.249884441494941711e-01
-1.368681341409683228e-01
-6.050993874669075012e-02
-7.689480483531951904e-02
3.915016725659370422e-02
-4.096289575099945068e-01
-4.044036269187927246e-01
-2.546798884868621826e-01
-1.963374670594930649e-03
-2.184869050979614258e-01
-2.660715281963348389e-01
-7.088103294372558594e-01
-3.333156406879425049e-01
-1.712556183338165283e-01
-6.255407929420471191e-01
-3.921343684196472168e-01
-2.398007810115814209e-01
1.875017136335372925e-01
-1.447961777448654175e-01
-3.295530974864959717e-01
5.843008682131767273e-02
2.218292206525802612e-01
3.655046522617340088e-01
2.200378924608230591e-01
-2.502588927745819092e-01
-2.175509743392467499e-02
2.137898653745651245e-01
4.267633855342864990e-01
2.955094575881958008e-01
-3.536898195743560791e-01
-1.487107276916503906e-01
2.492993324995040894e-01
3.361522555351257324e-01
1.002304553985595703e-01
-4.272880852222442627e-01
-9.360428899526596069e-03
3.160887360572814941e-01
2.704412937164306641e-01
-1.178498566150665283e-02
-6.211335211992263794e-02
7.666784524917602539e-02
2.754994854331016541e-02
-1.982572972774505615e-01
-1.815266758203506470e-01
-3.486796841025352478e-02
1.227226108312606812e-02
2.138979434967041016e-01
-3.013962507247924805e-02
7.881609350442886353e-02
-7.710925489664077759e-02
1.641247123479843140e-01
3.396751880645751953e-01
-1.190898790955543518e-01
-5.907766986638307571e-03
-8.440738171339035034e-02
1.953004002571105957e-01
3.088456764817237854e-02
-5.801441073417663574e-01
-3.071474730968475342e-01
-2.678037583827972412e-01
-6.693505495786666870e-02
-6.961125135421752930e-02
-1.911457180976867676e-01
1.029350683093070984e-01
-1.124811097979545593e-01
-8.538290113210678101e-02
-1.005921289324760437e-01
-1.014759168028831482e-01
2.214913219213485718e-01
2.559206448495388031e-02
-2.057857364416122437e-01
-7.329044491052627563e-02
2.096562236547470093e-01
2.150233834981918335e-01
-2.982031740248203278e-02
8.659301325678825378e-03
3.042798861861228943e-02
1.276780068874359131e-01
1.373684108257293701e-01
-8.222765475511550903e-02
-5.403195694088935852e-02
1.791480928659439087e-01
-8.096563816070556641e-02
-7.971357554197311401e-02
-1.466116402298212051e-02
-2.022138833999633789e-01
3.372097015380859375e-02
1.883647590875625610e-01
6.964519619941711426e-02
-2.291174232959747314e-01
-1.862912476062774658e-01
1.165225133299827576e-01
1.221299096941947937e-01
2.218266017735004425e-02
-2.093909978866577148e-01
-2.710902877151966095e-02
5.952710285782814026e-02
-1.458032522350549698e-02
-2.347784638404846191e-01
-3.339339494705200195e-01
1.954440325498580933e-01
-6.218525581061840057e-03
-6.871848553419113159e-02
-1.602543331682682037e-02
-3.138846457004547119e-01
1.986949741840362549e-01
3.770889639854431152e-01
1.727741025388240814e-02
2.207342535257339478e-01
1.360222995281219482e-01
2.585345208644866943e-01
3.778795301914215088e-01
9.430374950170516968e-02
2.379862070083618164e-01
1.761422455310821533e-01
-1.534253805875778198e-01
-4.365723952651023865e-02
1.647762656211853027e-01
-5.170424655079841614e-02
-5.991528928279876709e-02
-1.885938346385955811e-01
2.037498056888580322e-01
1.869131475687026978e-01
-5.473832786083221436e-02
2.630620822310447693e-02
-4.905828461050987244e-02
2.031041234731674194e-01
7.487472891807556152e-02
-2.115557938814163208e-01
1.603847742080688477e-01
2.042283862829208374e-02
1.837729364633560181e-01
-2.088241837918758392e-02
-3.826946318149566650e-01
1.446401178836822510e-01
-9.381584078073501587e-02
-3.304629586637020111e-03
2.670506760478019714e-02
-1.667049080133438110e-01
-1.098691001534461975e-01
-5.216173082590103149e-02
2.120970487594604492e-01
1.831207871437072754e-01
-1.369843184947967529e-01
-1.582869440317153931e-01
4.827451333403587341e-02
-7.155435532331466675e-02
-2.243457734584808350e-01
-2.196547091007232666e-01
-1.533230841159820557e-01
-1.923132687807083130e-02
-3.959858044981956482e-02
-1.052129045128822327e-01
-4.448354616761207581e-02
-5.102801695466041565e-02
1.091436147689819336e-01
5.351683497428894043e-02
1.155840903520584106e-01
4.464404657483100891e-02
-3.068913146853446960e-02
-1.097567975521087646e-01
9.152209386229515076e-03
1.107549965381622314e-01
-7.818413898348808289e-03
-3.061608597636222839e-02
3.456440195441246033e-02
1.234541237354278564e-01
1.352284103631973267e-01
-5.242903158068656921e-02
-2.895582020282745361e-01
-1.332371979951858521e-01
-3.110229969024658203e-02
-2.601160407066345215e-01
-7.606419920921325684e-01
-1.356242895126342773e-01
-9.459684789180755615e-02
-3.126495480537414551e-01
-2.523869276046752930e-01
3.471795320510864258e-01
2.294119149446487427e-01
2.521570026874542236e-01
-7.436596602201461792e-02
1.301265805959701538e-01
4.622571766376495361e-01
-1.042550578713417053e-01
-3.479127073660492897e-03
-7.598202675580978394e-02
-1.114625409245491028e-01
-1.265967190265655518e-01
3.690419197082519531e-01
5.503047704696655273e-01
5.173320770263671875e-01
1.081532910466194153e-01
-1.155713126063346863e-01
2.052699923515319824e-01
8.956383168697357178e-02
-5.145195871591567993e-03
-1.731870770454406738e-01
2.645985484123229980e-01
3.104127943515777588e-01
4.533520340919494629e-02
-6.110566109418869019e-02
-2.356323599815368652e-01
3.486137986183166504e-01
-2.461896464228630066e-02
-1.634069085121154785e-01
-1.628053784370422363e-01
6.844597309827804565e-02
8.471279591321945190e-02
5.571157112717628479e-02
-1.809390485286712646e-01
-2.098330296576023102e-03
9.191067516803741455e-02
-2.097251713275909424e-01
1.095663532614707947e-01
-5.249479413032531738e-02
-3.601188585162162781e-02
-2.728544175624847412e-03
3.317613899707794189e-02
4.353175759315490723e-01
8.495439589023590088e-02
5.909430235624313354e-02
9.720329940319061279e-02
2.105850875377655029e-01
6.800399720668792725e-02
1.990702934563159943e-02
5.628961324691772461e-02
2.711551077663898468e-02
-7.786577194929122925e-02
9.714970737695693970e-02
2.846235409379005432e-02
-1.656791716814041138e-01
-1.123104318976402283e-01
-8.287270553410053253e-03
1.621612757444381714e-01
-1.053340584039688110e-01
-1.468290090560913086e-01
-1.009445562958717346e-01
2.689363360404968262e-01
-1.187557727098464966e-01
-4.164685606956481934e-01
-3.958311378955841064e-01
-8.508465886116027832e-01
-4.428401589393615723e-01
1.506460011005401611e-01
5.036837607622146606e-02
2.634108066558837891e-01
-7.035270333290100098e-02
-2.371388971805572510e-01
-1.231074705719947815e-01
-3.873651474714279175e-02
-5.411483719944953918e-02
-4.928123056888580322e-01
-2.638492882251739502e-01
-1.274387389421463013e-01
-1.653748452663421631e-01
-2.083768546581268311e-01
-2.016731798648834229e-01
9.833512455224990845e-02
1.678617894649505615e-01
-9.951220452785491943e-02
1.259876191616058350e-01
2.094410955905914307e-01
1.767016053199768066e-01
1.037346050143241882e-01
1.543486267328262329e-01
1.844763457775115967e-01
1.690147519111633301e-01
2.978841587901115417e-02
2.768530510365962982e-02
1.159733161330223083e-01
1.103182509541511536e-01
6.194314360618591309e-02
-4.487700760364532471e-02
1.895261183381080627e-02
-1.672621667385101318e-01
-8.521675318479537964e-02
2.899521589279174805e-01
6.279956549406051636e-02
5.667167529463768005e-02
-3.606494516134262085e-02
-1.940600425004959106e-01
-1.114392131567001343e-01
7.409323751926422119e-02
1.898985207080841064e-01
-1.175861954689025879e-01
-1.547389179468154907e-01
-8.124842494726181030e-02
2.842862159013748169e-02
4.950196295976638794e-02
-1.043019592761993408e-01
-2.541396617889404297e-01
-4.330789148807525635e-01
-3.109359443187713623e-01
-2.887159027159214020e-02
-8.381634205579757690e-02
1.174020543694496155e-01
-1.076539978384971619e-02
3.418435528874397278e-02
-6.821841746568679810e-02
-2.171571366488933563e-02
1.656833887100219727e-01
1.391263026744127274e-02
-1.003268733620643616e-02
-4.616237431764602661e-02
1.190971061587333679e-01
9.355725347995758057e-02
7.568174600601196289e-02
2.069832235574722290e-01
-5.008083581924438477e-02
1.204326823353767395e-01
1.338269412517547607e-01
1.641319990158081055e-01
8.875031024217605591e-02
-4.116196632385253906e-01
-3.583794832229614258e-01
-2.238473296165466309e-01
-5.886223316192626953e-01
-5.251993536949157715e-01
-5.006129145622253418e-01
-3.644280135631561279e-01
-1.821066290140151978e-01
-4.744308590888977051e-01
-3.528375029563903809e-01
1.329266279935836792e-01
3.431814014911651611e-01
2.445135414600372314e-01
2.763406038284301758e-01
1.557414680719375610e-01
-3.748950958251953125e-01
-2.425317615270614624e-01
2.327876389026641846e-01
4.383105337619781494e-01
2.648497819900512695e-01
-3.703186810016632080e-01
-5.372745990753173828e-01
1.187971085309982300e-01
6.893686652183532715e-01
6.039393544197082520e-01
1.718562990427017212e-01
1.864357739686965942e-01
1.582047194242477417e-01
6.180499121546745300e-02
-1.642570495605468750e-01
-1.056611612439155579e-01
-8.131349086761474609e-02
-7.688761502504348755e-02
-1.756411790847778320e-01
-1.171726807951927185e-01
-1.243935897946357727e-01
-4.008802771568298340e-02
-1.593015044927597046e-01
-2.708711922168731689e-01
-1.321193277835845947e-01
-5.244651809334754944e-02
-7.288748770952224731e-02
-8.475383371114730835e-02
7.830978184938430786e-02
8.168483152985572815e-03
-4.702935814857482910e-01
-1.190963480621576309e-02
3.161032795906066895e-01
3.825666010379791260e-01
3.123435378074645996e-01
-6.453760862350463867e-01
4.329146817326545715e-02
-5.150247830897569656e-03
-7.545337080955505371e-02
1.414579004049301147e-01
-3.675961792469024658e-01
8.201896212995052338e-03
-7.657863944768905640e-02
1.094441581517457962e-02
8.473614603281021118e-02
4.768944159150123596e-02
-1.038414239883422852e-01
-1.656556874513626099e-01
-1.891901344060897827e-02
9.722004644572734833e-03
-6.516467779874801636e-03
-3.587736934423446655e-02
-5.684575811028480530e-02
1.781376004219055176e-01
3.067789375782012939e-01
-5.244294181466102600e-02
2.545210123062133789e-01
1.622858643531799316e-01
2.050976008176803589e-01
3.515537381172180176e-01
9.825180470943450928e-02
-2.703351154923439026e-02
-1.266553103923797607e-01
-6.603364646434783936e-02
1.097733676433563232e-01
-4.526763409376144409e-02
-1.450783312320709229e-01
-1.078997626900672913e-01
-3.654035553336143494e-02
6.805476546287536621e-02
-5.751587450504302979e-02
-1.716080904006958008e-01
-9.402345865964889526e-02
2.477759262546896935e-03
-5.061039328575134277e-02
4.423663765192031860e-02
-9.227999299764633179e-02
-8.304508030414581299e-02
-1.068112105131149292e-01
-2.719097025692462921e-02
2.207284271717071533e-01
1.460935622453689575e-01
3.464648127555847168e-02
-1.458799093961715698e-01
-2.356661111116409302e-01
6.582273542881011963e-02
-1.097454279661178589e-01
7.058987021446228027e-02
4.656513035297393799e-02
7.544196397066116333e-02
9.162791073322296143e-02
-1.277833580970764160e-01
3.359145717695355415e-03
3.419221937656402588e-02
-8.338294178247451782e-02
7.292321324348449707e-02
-3.112033475190401077e-03
-7.242101710289716721e-04
2.012354582548141479e-01
2.170856148004531860e-01
-1.211428828537464142e-02
-3.354971855878829956e-02
-7.503145933151245117e-02
1.862110197544097900e-01
1.253191679716110229e-01
2.818860709667205811e-01
-2.385738790035247803e-01
-3.913908600807189941e-01
2.431443892419338226e-02
1.235716491937637329e-01
1.408516988158226013e-02
1.864122599363327026e-02
1.435691118240356445e-01
5.626252968795597553e-04
2.810628339648246765e-02
-1.832501776516437531e-02
-4.581758694257587194e-04
4.396133497357368469e-02
7.693827152252197266e-02
2.854674309492111206e-02
-6.532718986272811890e-02
3.870061133056879044e-03
7.501881569623947144e-02
1.419921517372131348e-01
6.059153471142053604e-03
-1.553687751293182373e-01
-3.464898793026804924e-03
1.558964103460311890e-01
6.633193790912628174e-02
9.024508297443389893e-03
1.505081206560134888e-01
-5.904408544301986694e-02
-2.530711591243743896e-01
-5.470606684684753418e-01
-5.517107844352722168e-01
-1.999277435243129730e-02
-1.806258410215377808e-02
4.249581694602966309e-02
1.570116356015205383e-02
-2.406516373157501221e-01
6.056340038776397705e-02
8.606880903244018555e-02
1.585715115070343018e-01
-3.548937290906906128e-02
-7.120008766651153564e-02
-4.031759500503540039e-02
6.556560099124908447e-02
1.809252053499221802e-01
1.134370714426040649e-01
1.051283255219459534e-02
-1.848226487636566162e-01
5.860113725066184998e-02
8.488424867391586304e-02
-7.817733287811279297e-01
-5.614886283874511719e-01
-5.174783468246459961e-01
-2.323165833950042725e-01
-3.710066080093383789e-01
-1.609288454055786133e-01
-1.589014567434787750e-02
-6.733110547065734863e-01
-2.509605288505554199e-01
3.456765785813331604e-02
-4.777394980192184448e-02
-6.176355294883251190e-03
-2.376409769058227539e-01
1.686366051435470581e-01
-5.446220189332962036e-02
-6.783220916986465454e-02
-1.117192208766937256e-01
-3.188206627964973450e-02
8.040663599967956543e-02
-2.812353670597076416e-01
-1.729035377502441406e-01
-2.276644706726074219e-01
6.320945918560028076e-02
1.081143617630004883e-01
-5.404228344559669495e-02
-5.287897586822509766e-02
-5.729794874787330627e-02
2.043167054653167725e-01
6.622907519340515137e-02
-1.152210459113121033e-01
-4.868990555405616760e-02
-2.178297750651836395e-02
-5.832222476601600647e-02
2.459053695201873779e-02
1.463063061237335205e-01
1.096670404076576233e-01
-1.243578940629959106e-01
-1.574984379112720490e-02
-5.931551009416580200e-02
-1.672432944178581238e-02
-1.273992508649826050e-01
-2.456446290016174316e-01
5.246527958661317825e-03
1.227745413780212402e-02
-2.369762212038040161e-02
-2.600345946848392487e-02
-4.123698547482490540e-02
2.346666306257247925e-01
-3.057742677628993988e-02
1.104903966188430786e-01
-2.725672675296664238e-04
-2.389781922101974487e-02
3.693335950374603271e-01
1.105851456522941589e-01
6.379632651805877686e-02
4.668294638395309448e-02
1.384960114955902100e-01
5.685589313507080078e-01
5.723777413368225098e-01
2.637259066104888916e-01
-7.022575139999389648e-01
-5.428909659385681152e-01
2.117101661860942841e-02
1.198713108897209167e-01
-3.202606737613677979e-01
-8.862332105636596680e-01
-9.451658278703689575e-02
-1.208691298961639404e-02
3.196726739406585693e-02
-9.104355573654174805e-01
-1.136222124099731445e+00
-4.508918523788452148e-01
-1.805157065391540527e-01
-6.603860855102539062e-01
-1.470167517662048340e+00
-1.529526710510253906e+00
-4.566130340099334717e-01
-5.155783891677856445e-01
-5.844187736511230469e-01
-7.556521892547607422e-01
-1.124145150184631348e+00
-4.878446161746978760e-01
1.060695648193359375e-01
8.994673192501068115e-02
4.441322013735771179e-02
2.372447550296783447e-01
2.331397980451583862e-01
-2.302318811416625977e-01
-5.450612306594848633e-02
1.301879286766052246e-01
1.574534028768539429e-01
1.498409267514944077e-02
-2.766039073467254639e-01
-2.957407943904399872e-02
1.324109919369220734e-02
2.874918654561042786e-02
-9.985902160406112671e-02
-1.092205271124839783e-01
2.161529101431369781e-02
1.062260475009679794e-02
-9.350207634270191193e-03
-8.241759985685348511e-02
-2.083108425140380859e-01
-7.470221072435379028e-02
3.918860480189323425e-02
3.062379173934459686e-02
-2.072684653103351593e-02
-9.029497951269149780e-02
2.702265977859497070e-01
3.261502981185913086e-01
1.247299313545227051e-01
-1.463733911514282227e-01
2.448636339977383614e-03
6.128222867846488953e-02
6.849372386932373047e-02
2.483745664358139038e-02
9.782389737665653229e-03
-2.509217523038387299e-02
-1.337005663663148880e-02
-4.277355968952178955e-03
8.016257733106613159e-02
8.502364158630371094e-02
-7.483073323965072632e-02
-8.397357910871505737e-02
-8.737921714782714844e-03
1.093700826168060303e-01
1.128797233104705811e-01
-4.449632167816162109e-01
-3.091461360454559326e-01
1.797523000277578831e-03
5.089548230171203613e-02
1.034177653491497040e-02
-2.208242565393447876e-01
-3.232620656490325928e-01
-1.531433761119842529e-01
-2.355338186025619507e-01
-1.295347362756729126e-01
2.780951187014579773e-02
-3.458335101604461670e-01
-2.180653214454650879e-01
-3.405343592166900635e-01
-3.934748098254203796e-02
1.526107490062713623e-01
3.045180067420005798e-02
1.735413819551467896e-02
-9.768412262201309204e-02
1.006152406334877014e-01
2.525823414325714111e-01
1.465723961591720581e-01
1.956726610660552979e-01
3.987952694296836853e-02
1.740039736032485962e-01
1.781708002090454102e-02
1.338006854057312012e-01
2.738178670406341553e-01
7.443173974752426147e-02
2.188657373189926147e-01
6.544732954353094101e-03
1.661981828510761261e-02
8.201308548450469971e-02
1.920261234045028687e-01
8.554268628358840942e-02
6.470608059316873550e-04
-4.557161033153533936e-02
-2.002946846187114716e-02
3.535380121320486069e-03
-1.224617660045623779e-01
2.466255240142345428e-02
-1.641631312668323517e-02
8.872114121913909912e-02
1.542942523956298828e-01
-3.222024440765380859e-02
1.111758649349212646e-01
-4.760462790727615356e-02
1.216115523129701614e-02
7.751167565584182739e-02
2.039105445146560669e-02
1.573493629693984985e-01
-8.101277798414230347e-02
4.233323037624359131e-02
1.579729765653610229e-01
9.406559914350509644e-02
2.747631669044494629e-01
1.525108814239501953e-01
-2.942653000354766846e-01
-6.419200301170349121e-01
1.067502647638320923e-01
1.441439054906368256e-02
-3.075330853462219238e-01
-2.608747482299804688e-01
-1.241456642746925354e-01
-1.605504304170608521e-01
9.013351052999496460e-02
2.003184854984283447e-01
-3.314680755138397217e-01
-4.407430291175842285e-01
6.344407796859741211e-02
-1.661829352378845215e-01
2.413892298936843872e-01
-5.186671018600463867e-01
-8.301128149032592773e-01
1.224909275770187378e-01
-1.029781624674797058e-01
-4.223716259002685547e-02
-1.266039490699768066e+00
-1.413413286209106445e+00
-1.968030780553817749e-01
-4.036833643913269043e-01
-2.883183956146240234e-01
7.248300313949584961e-02
7.239522784948348999e-02
1.551731973886489868e-01
2.440129220485687256e-02
-9.095056448131799698e-04
-1.875514537096023560e-02
-2.261378318071365356e-01
-5.249503254890441895e-01
7.463890314102172852e-02
1.642705313861370087e-02
-6.489235907793045044e-02
5.282448139041662216e-03
-2.122347205877304077e-01
-1.272782403975725174e-02
1.879715360701084137e-03
2.470536381006240845e-01
2.484363466501235962e-01
-6.887123454362154007e-03
1.564087718725204468e-02
2.315657287836074829e-01
5.263085961341857910e-01
5.016956925392150879e-01
7.780798245221376419e-03
-1.188545748591423035e-01
-3.698897361755371094e-01
-2.363085895776748657e-01
-2.143302708864212036e-01
-3.182629346847534180e-01
1.503851264715194702e-01
-7.111351937055587769e-02
-1.902851760387420654e-01
-8.420867472887039185e-02
-2.087928354740142822e-01
4.098211228847503662e-02
-3.177196532487869263e-02
7.498895376920700073e-02
1.542945951223373413e-01
1.702956706285476685e-01
5.478653311729431152e-02
1.554772170493379235e-04
1.718375980854034424e-01
2.507286369800567627e-01
2.552880048751831055e-01
1.600654125213623047e-01
9.891170263290405273e-02
2.701520621776580811e-01
3.691797256469726562e-01
2.948044538497924805e-01
-2.951587736606597900e-01
-1.684621572494506836e-01
2.131517231464385986e-01
1.807975322008132935e-01
-1.730986088514328003e-01
-6.283548474311828613e-02
-2.600639499723911285e-02
-6.980314850807189941e-02
-4.978353530168533325e-02
-8.393048495054244995e-02
-2.236484736204147339e-02
-6.581359356641769409e-02
-1.699626073241233826e-02
1.430656015872955322e-02
3.232624148949980736e-03
2.115640416741371155e-02
-1.142475754022598267e-01
9.907022863626480103e-02
6.812170147895812988e-02
3.629783540964126587e-02
3.135026991367340088e-02
-1.286373585462570190e-01
1.080605834722518921e-01
2.057714760303497314e-01
2.168405242264270782e-02
4.785889983177185059e-01
3.629949986934661865e-01
6.068033725023269653e-02
-1.277102530002593994e-01
-1.676793098449707031e-01
1.797745004296302795e-02
1.539407223463058472e-01
9.360980987548828125e-02
-6.057718768715858459e-02
-1.633954346179962158e-01
-2.982531860470771790e-02
6.697751581668853760e-02
1.614142805337905884e-01
-5.704121198505163193e-03
4.023274406790733337e-02
9.537655115127563477e-02
-2.963647013530135155e-03
-1.695604249835014343e-02
-5.153296142816543579e-02
-2.558156549930572510e-01
2.294427454471588135e-01
-8.599358052015304565e-02
-2.459027618169784546e-01
-3.020160198211669922e-01
-3.352758288383483887e-01
1.089276149868965149e-01
-7.465171162039041519e-03
-7.685247063636779785e-02
-9.341629594564437866e-02
8.349798619747161865e-02
1.342481374740600586e-01
1.401600539684295654e-01
-9.865027852356433868e-03
-1.653465330600738525e-01
1.035456452518701553e-02
5.615140497684478760e-02
1.146963834762573242e-01
5.637973546981811523e-02
-1.737846732139587402e-01
-1.201282292604446411e-01
1.422054171562194824e-01
1.537513080984354019e-02
-1.013467013835906982e-01
-1.768092215061187744e-01
-2.799645252525806427e-02
5.323773622512817383e-02
-1.554893106222152710e-01
-1.922030746936798096e-01
-1.335914582014083862e-01
1.833258382976055145e-02
2.985610999166965485e-02
-1.663547307252883911e-01
5.010622739791870117e-02
2.709571421146392822e-01
4.476647675037384033e-01
3.277442604303359985e-02
1.104267910122871399e-01
1.395967323333024979e-02
-2.881967462599277496e-02
1.116372793912887573e-01
-1.676313951611518860e-02
4.422662779688835144e-02
1.644006185233592987e-02
1.177451014518737793e-01
8.522678166627883911e-02
4.965125769376754761e-02
-1.359730144031345844e-03
6.567466259002685547e-02
1.199362277984619141e-01
1.874490976333618164e-01
-1.774405241012573242e-01
-9.331829845905303955e-02
2.185818403959274292e-01
1.161620616912841797e-01
8.461696654558181763e-02
1.131755039095878601e-01
4.699985086917877197e-01
4.566777944564819336e-01
1.528845578432083130e-01
-1.150639131665229797e-01
1.927825659513473511e-01
-1.071944981813430786e-01
-2.526791691780090332e-01
-2.358624637126922607e-01
-2.026383429765701294e-01
4.786302335560321808e-03
-2.068237215280532837e-02
5.669532343745231628e-02
6.272548437118530273e-02
-2.310704588890075684e-01
-9.090002626180648804e-02
2.080828137695789337e-02
1.350101083517074585e-01
8.283895254135131836e-02
-9.495299309492111206e-02
-1.272269934415817261e-01
-2.631623744964599609e-01
-3.003080785274505615e-01
-7.619269937276840210e-02
-2.187299728393554688e-01
-2.816148288547992706e-02
9.440556168556213379e-02
5.713276565074920654e-02
-3.090621829032897949e-01
-1.697698086500167847e-01
-1.325544416904449463e-01
-9.901193529367446899e-02
1.920359954237937927e-02
1.042994558811187744e-01
-2.982009649276733398e-01
-2.457845956087112427e-02
-2.356130257248878479e-02
1.350668631494045258e-02
2.287417650222778320e-01
4.167592152953147888e-02
6.579346954822540283e-02
3.839823976159095764e-02
-5.352611467242240906e-02
1.132588461041450500e-01
-2.127777785062789917e-02
1.373948454856872559e-01
3.069366328418254852e-02
-7.933380454778671265e-02
5.925614759325981140e-02
-8.207873255014419556e-02
2.381552755832672119e-01
3.396457433700561523e-01
2.542712688446044922e-01
-5.802726149559020996e-01
-6.589334011077880859e-01
-7.689374685287475586e-02
-1.315405219793319702e-01
-5.593644827604293823e-02
-1.056642979383468628e-01
-1.264738440513610840e-01
6.662838906049728394e-02
-6.834045797586441040e-02
3.337555099278688431e-03
1.176055893301963806e-01
4.616374149918556213e-02
-5.801139026880264282e-02
4.869977757334709167e-02
7.747345417737960815e-02
2.104108594357967377e-02
-8.770874701440334320e-03
8.872702717781066895e-02
1.607901155948638916e-01
-3.866067156195640564e-02
-2.987281084060668945e-01
-3.911937475204467773e-01
1.636607944965362549e-01
9.896629303693771362e-02
3.185718134045600891e-02
-2.565389275550842285e-01
-3.878045380115509033e-01
2.816413994878530502e-03
-4.904843494296073914e-02
-1.101310029625892639e-01
7.253191620111465454e-02
-2.848414517939090729e-02
1.476425081491470337e-01
1.379564553499221802e-01
5.316809937357902527e-02
7.933659851551055908e-02
-2.137040495872497559e-01
3.656526505947113037e-01
3.133478388190269470e-02
1.316012069582939148e-02
-4.311769008636474609e-01
-3.396157920360565186e-01
1.723914593458175659e-01
-5.752039700746536255e-02
8.996711112558841705e-03
-1.034175157546997070e-01
-2.014898955821990967e-01
-1.728135496377944946e-01
1.015365347266197205e-01
1.147901266813278198e-01
1.586891114711761475e-01
1.469681859016418457e-01
4.044904932379722595e-02
-2.584984339773654938e-02
3.101529367268085480e-02
9.839027374982833862e-02
1.085921823978424072e-01
-6.870618462562561035e-02
1.805527210235595703e-01
1.057762205600738525e-01
1.114654615521430969e-01
8.420181274414062500e-02
-1.126763373613357544e-01
2.387232035398483276e-01
1.255349069833755493e-01
1.068606451153755188e-01
1.377910226583480835e-01
-1.152722463011741638e-01
1.513278484344482422e-01
1.548918038606643677e-01
5.912321433424949646e-02
9.484402835369110107e-02
1.734814196825027466e-01
-3.137025237083435059e-01
-3.853154182434082031e-01
1.813528537750244141e-01
1.645097434520721436e-01
-3.747480735182762146e-02
-2.592235803604125977e-01
-2.858982086181640625e-01
-1.442425604909658432e-02
3.044166788458824158e-02
-2.720333039760589600e-01
-6.216883659362792969e-01
9.058212861418724060e-03
2.705993056297302246e-01
2.817007601261138916e-01
1.278829276561737061e-01
-1.146480515599250793e-01
4.321980848908424377e-02
3.523317724466323853e-02
-1.840811339206993580e-03
1.444666832685470581e-01
-1.327041685581207275e-01
-4.127682745456695557e-02
3.216182440519332886e-02
2.592872083187103271e-01
3.459588587284088135e-01
2.871914803981781006e-01
4.157484471797943115e-01
3.264847677201032639e-03
1.962806880474090576e-01
-6.224810611456632614e-03
-1.172341555356979370e-01
-1.458170562982559204e-01
-3.281891644001007080e-01
-1.049201563000679016e-01
-7.153539657592773438e-01
-1.395820379257202148e-01
4.592666868120431900e-03
-2.796708941459655762e-01
-2.279213666915893555e-01
-8.410283923149108887e-01
-5.808666348457336426e-01
-5.994049906730651855e-01
-7.364577651023864746e-01
-2.827739119529724121e-01
-7.948154807090759277e-01
-5.577020645141601562e-01
-5.521499514579772949e-01
-4.720747768878936768e-01
-5.938262864947319031e-02
-3.501847013831138611e-02
-1.029564142227172852e-01
-2.556016445159912109e-01
-1.316406279802322388e-01
4.992789030075073242e-02
-4.915354773402214050e-02
-7.693341374397277832e-02
-1.274823993444442749e-01
2.272849977016448975e-01
8.054957538843154907e-02
2.818627469241619110e-02
-1.238766685128211975e-01
4.167164117097854614e-02
1.442144066095352173e-01
7.946455478668212891e-02
-2.244307845830917358e-02
-3.673028573393821716e-02
-1.274523138999938965e-01
9.895706921815872192e-02
-5.566446855664253235e-02
1.106638014316558838e-01
-1.991833001375198364e-01
-1.086853295564651489e-01
9.997060149908065796e-02
9.459662437438964844e-02
1.505005955696105957e-01
5.605971217155456543e-01
2.427137792110443115e-01
-9.641026705503463745e-02
-2.013413980603218079e-02
-4.157775044441223145e-01
-1.832257509231567383e-01
-2.342301458120346069e-01
-1.196616739034652710e-01
-7.227376848459243774e-02
-1.072391644120216370e-01
-2.746873907744884491e-02
-1.601680517196655273e-01
-1.458108723163604736e-01
-8.658328652381896973e-02
-4.632088914513587952e-02
1.530945301055908203e-01
8.732865750789642334e-02
-1.432191133499145508e-01
-6.992015987634658813e-02
-1.178474202752113342e-01
2.234916538000106812e-01
-1.237002834677696228e-01
-2.387410253286361694e-01
-1.365014165639877319e-02
-1.493449211120605469e-01
-1.815993525087833405e-02
5.419783666729927063e-02
-3.894580006599426270e-01
2.762415111064910889e-01
-1.743474043905735016e-02
-5.025317892432212830e-02
5.011264234781265259e-02
-6.023537516593933105e-01
-1.206381022930145264e-01
-1.806773617863655090e-02
1.171708926558494568e-01
1.023429259657859802e-01
-3.961910009384155273e-01
1.703665107488632202e-01
1.563207954168319702e-01
1.893310546875000000e-01
1.607585400342941284e-01
-4.955639243125915527e-01
-1.750973314046859741e-01
4.176958501338958740e-01
3.947572112083435059e-01
5.776941776275634766e-01
-5.294781327247619629e-01
-6.003400683403015137e-01
1.225132495164871216e-02
1.329007148742675781e-01
1.519314348697662354e-01
1.216409355401992798e-02
-2.454261481761932373e-01
-3.048003278672695160e-02
7.276826351881027222e-02
-3.405307885259389877e-03
-9.217678755521774292e-02
-1.151430085301399231e-01
4.434539377689361572e-02
6.235067546367645264e-02
2.675620838999748230e-02
-1.096426248550415039e-01
-2.762005627155303955e-01
-3.289255872368812561e-02
-8.924321085214614868e-02
-4.107139632105827332e-02
-7.992579042911529541e-02
-3.041986823081970215e-01
2.027164846658706665e-01
-1.308629289269447327e-02
1.022627353668212891e-01
-1.610963344573974609e-01
-4.843711256980895996e-01
1.805506944656372070e-01
-3.628673255443572998e-01
-1.721724718809127808e-01
1.344735920429229736e-01
2.854840457439422607e-01
4.376729205250740051e-02
-2.148586362600326538e-01
1.062771528959274292e-01
-1.207803189754486084e-02
-1.449610888957977295e-01
9.221749380230903625e-03
-1.098057329654693604e-01
6.677182763814926147e-02
9.326064586639404297e-02
-5.416543409228324890e-02
9.319488704204559326e-02
-2.526658587157726288e-02
-7.714114338159561157e-02
9.208501130342483521e-02
-3.102224767208099365e-01
-1.755932271480560303e-01
-2.179251983761787415e-02
-3.225026726722717285e-01
-3.456752002239227295e-01
-3.651460409164428711e-01
-6.935126185417175293e-01
-5.850961059331893921e-02
1.976218372583389282e-01
1.701199114322662354e-01
3.976490497589111328e-01
-1.486682444810867310e-01
2.480365335941314697e-02
-1.407153159379959106e-01
-2.190056592226028442e-01
5.425629206001758575e-03
1.816235296428203583e-02
6.781433522701263428e-02
-1.262640953063964844e-01
-7.984109222888946533e-02
8.489235304296016693e-03
6.517931818962097168e-02
2.713214047253131866e-02
-9.855639189481735229e-02
-2.507904311642050743e-03
-5.265976116061210632e-02
-1.070821210741996765e-01
-1.341760158538818359e-03
1.719411760568618774e-01
-6.577648688107728958e-03
3.203540295362472534e-02
-3.751610964536666870e-02
3.035602346062660217e-02
-4.056013002991676331e-02
9.461501985788345337e-02
-1.844633817672729492e-01
-1.723477058112621307e-02
-3.984658047556877136e-02
-1.434301142580807209e-03
1.695736050605773926e-01
-7.545907795429229736e-02
-3.779932484030723572e-02
1.143579557538032532e-01
4.376661032438278198e-02
-3.094543516635894775e-02
-2.306436933577060699e-02
-7.950548082590103149e-03
3.006128221750259399e-02
-4.996797814965248108e-02
7.248047739267349243e-02
1.320899277925491333e-01
3.185260668396949768e-02
3.179259970784187317e-02
4.206822812557220459e-02
2.567976415157318115e-01
7.025442272424697876e-02
2.502799928188323975e-01
7.109925150871276855e-02
5.936794914305210114e-03
-1.636547148227691650e-01
-3.308648467063903809e-01
-1.279765367507934570e-01
-7.490336149930953979e-02
4.613057151436805725e-02
4.817760418518446386e-05
-6.749044358730316162e-02
-2.643924672156572342e-03
2.156584151089191437e-02
1.074262410402297974e-01
-7.056587189435958862e-02
-8.937996625900268555e-02
2.434367872774600983e-02
1.040977239608764648e-01
-2.763951942324638367e-02
5.941530107520520687e-04
-1.091261357069015503e-01
-1.081806421279907227e-01
-1.526180207729339600e-01
-5.623474344611167908e-02
4.202332794666290283e-01
4.443677961826324463e-01
7.157383114099502563e-02
4.139381349086761475e-01
4.010570645332336426e-01
3.161166310310363770e-01
6.708806753158569336e-01
-5.912942290306091309e-01
-1.401703953742980957e-01
-2.048882246017456055e-01
-2.685945332050323486e-01
-3.336453735828399658e-01
-1.017686165869235992e-02
7.219700515270233154e-02
6.555747240781784058e-02
3.797486796975135803e-02
2.336307056248188019e-02
-1.490155607461929321e-01
-1.044390443712472916e-02
2.809711173176765442e-02
8.000434190034866333e-02
-1.511621773242950439e-01
-4.518621563911437988e-01
-1.453573442995548248e-02
7.265673018991947174e-03
-1.568319834768772125e-02
-3.455445170402526855e-01
-8.204220235347747803e-02
1.559119969606399536e-01
1.549053937196731567e-01
9.634360671043395996e-02
-1.010764092206954956e-01
-1.711820513010025024e-01
1.134035065770149231e-01
4.333851858973503113e-03
7.104540616273880005e-02
-4.099486023187637329e-02
-8.296429365873336792e-02
1.844243258237838745e-01
6.535933911800384521e-02
1.076931357383728027e-01
2.021553181111812592e-02
-2.538743019104003906e-01
2.291352152824401855e-01
-2.786998078227043152e-02
7.513035088777542114e-04
-1.323080807924270630e-01
-6.607286334037780762e-01
1.385708898305892944e-01
-1.437350958585739136e-01
-1.356614232063293457e-01
-1.629478782415390015e-01
-1.438552699983119965e-02
-2.761960029602050781e-02
-1.050499752163887024e-01
2.640331909060478210e-02
3.132683634757995605e-01
-4.310215637087821960e-02
6.002572551369667053e-02
-3.796317055821418762e-02
8.671167492866516113e-02
2.112653702497482300e-01
-3.449899852275848389e-01
1.052159368991851807e-01
-9.409435838460922241e-02
1.364707350730895996e-01
1.327780485153198242e-01
-4.427615404129028320e-01
8.911879360675811768e-02
-9.473942965269088745e-02
3.147815763950347900e-01
2.421022206544876099e-02
-3.791961073875427246e-01
-2.907633781433105469e-01
-2.602771818637847900e-01
1.787474378943443298e-02
-1.114915236830711365e-01
-1.997444778680801392e-01
-9.427207708358764648e-02
-2.046908289194107056e-01
3.867198526859283447e-01
3.852149844169616699e-01
1.174223124980926514e-01
1.482110321521759033e-01
-5.636813491582870483e-02
1.184105351567268372e-01
-2.800269052386283875e-02
-1.027934476733207703e-01
-1.157997250556945801e-01
-3.078960180282592773e-01
-1.900611221790313721e-01
-2.296051830053329468e-01
-9.554998576641082764e-02
-1.696059294044971466e-02
-1.093739494681358337e-01
-1.719590276479721069e-01
3.435024619102478027e-02
4.053246080875396729e-01
3.630072772502899170e-01
1.312840878963470459e-01
-8.821456134319305420e-02
-5.195906162261962891e-01
-4.772584512829780579e-02
4.978607594966888428e-02
1.303254216909408569e-01
2.391271591186523438e-01
1.096686068922281265e-02
4.335366934537887573e-02
-3.432054072618484497e-02
2.681399229913949966e-03
1.209208145737648010e-01
1.837112903594970703e-01
3.120910562574863434e-02
1.925411447882652283e-02
8.511485159397125244e-02
-2.129183895885944366e-02
7.913406193256378174e-02
1.729727810015901923e-04
-1.121120676398277283e-01
-1.052604094147682190e-01
-1.700323075056076050e-01
-3.635382279753684998e-02
-1.038417443633079529e-01
-3.433902859687805176e-01
-7.758091390132904053e-02
-2.947130799293518066e-01
-1.013088375329971313e-01
3.609748929738998413e-02
5.548407882452011108e-02
1.393464356660842896e-01
2.695798277854919434e-01
7.037454843521118164e-02
1.364350877702236176e-02
2.412065491080284119e-02
-4.030363634228706360e-03
4.060733597725629807e-03
-5.415392294526100159e-02
6.470923125743865967e-02
6.893496960401535034e-02
-6.659822911024093628e-02
-1.849394887685775757e-01
-1.792237162590026855e-01
1.094760894775390625e-01
-7.469803094863891602e-04
1.872429437935352325e-02
-1.390847265720367432e-01
-2.030654102563858032e-01
2.833387255668640137e-01
1.804973036050796509e-01
2.949694395065307617e-01
-3.066117167472839355e-01
-1.896148324012756348e-01
6.853444874286651611e-02
2.069533318281173706e-01
6.311925649642944336e-01
3.036044239997863770e-01
1.609629690647125244e-01
-3.854119405150413513e-02
7.957108318805694580e-02
4.917981922626495361e-01
1.787150353193283081e-01
-6.591142714023590088e-02
-7.333759963512420654e-02
8.776418119668960571e-02
1.938618868589401245e-01
-4.459391161799430847e-02
-1.445135027170181274e-01
-4.340406507253646851e-02
-3.423164784908294678e-02
3.903604298830032349e-02
-8.679947257041931152e-02
-1.029159799218177795e-01
-8.505718410015106201e-02
-8.305089175701141357e-02
-1.229947507381439209e-01
-8.582100272178649902e-02
-2.162267686799168587e-03
-3.784334361553192139e-01
-7.714180946350097656e-01
-6.429356932640075684e-01
1.517551243305206299e-01
-1.233416870236396790e-01
-2.191778123378753662e-01
-2.269683629274368286e-01
-3.486264348030090332e-01
1.138211414217948914e-01
2.712829783558845520e-02
-1.512017995119094849e-01
-4.462479799985885620e-02
-1.462137252092361450e-01
2.177052572369575500e-02
4.358536750078201294e-02
1.144635211676359177e-02
1.971906423568725586e-02
1.014440599828958511e-02
4.185986146330833435e-02
1.851876825094223022e-01
-7.547160983085632324e-02
-4.599827155470848083e-02
-7.105872780084609985e-02
-1.371532212942838669e-02
4.551845602691173553e-03
-1.723814606666564941e-01
2.306500822305679321e-01
3.120516836643218994e-01
4.520822688937187195e-02
-1.031557843089103699e-01
1.978365033864974976e-01
7.580622285604476929e-02
8.020833134651184082e-02
-3.362481668591499329e-02
6.230313330888748169e-02
3.947794437408447266e-01
5.824017524719238281e-02
2.289549633860588074e-02
5.278035253286361694e-02
9.180232137441635132e-02
2.959818243980407715e-01
6.358640640974044800e-02
1.032767072319984436e-01
1.460894793272018433e-01
7.099584490060806274e-02
3.470681607723236084e-01
1.811378002166748047e-01
1.128263622522354126e-01
2.926561236381530762e-02
1.078043282032012939e-01
-8.502547442913055420e-02
5.771653652191162109e-01
8.682768791913986206e-02
-1.593949347734451294e-01
7.504785060882568359e-02
-1.495150029659271240e-01
1.559371352195739746e-01
1.748749762773513794e-01
-4.269354045391082764e-02
-2.921214327216148376e-02
-1.567148864269256592e-01
-3.413487598299980164e-02
3.361155837774276733e-02
-5.024792253971099854e-02
-9.439510293304920197e-03
-1.600021570920944214e-01
2.069838158786296844e-02
6.478964537382125854e-02
-8.599080890417098999e-02
-6.170696392655372620e-02
-2.621127665042877197e-01
-7.004795968532562256e-02
4.827482998371124268e-02
-7.461485266685485840e-02
-1.925536543130874634e-01
-7.406620383262634277e-01
-1.726311743259429932e-01
-3.371633887290954590e-01
-1.869245320558547974e-01
-3.076996207237243652e-01
-1.893087774515151978e-01
-2.217562645673751831e-01
-8.018111437559127808e-02
-3.686320502310991287e-03
-1.008670870214700699e-02
-1.015969514846801758e-01
3.598797321319580078e-02
1.060204356908798218e-01
8.990442729555070400e-04
7.319749146699905396e-02
-2.727723866701126099e-02
-5.651211738586425781e-02
-1.159359663724899292e-01
1.017020866274833679e-01
-7.291448861360549927e-02
-1.734550148248672485e-01
-1.498108804225921631e-01
-1.659207046031951904e-01
-1.711044088006019592e-02
-1.721120476722717285e-01
-4.495002031326293945e-01
-1.641627550125122070e-01
-4.059650376439094543e-02
2.741686999797821045e-01
-1.116278469562530518e-01
-8.566275984048843384e-02
-7.515144534409046173e-03
1.007034778594970703e-01
-4.608526453375816345e-02
-9.395094215869903564e-02
-9.842251986265182495e-02
-4.159925505518913269e-02
2.167602814733982086e-02
-1.165562570095062256e-01
-1.403767336159944534e-02
-1.012624353170394897e-01
1.029189210385084152e-03
4.614220559597015381e-02
-7.476922869682312012e-02
-1.199496760964393616e-01
-1.027056500315666199e-01
7.807952165603637695e-02
1.620057672262191772e-01
-7.235228549689054489e-03
-1.249921247363090515e-01
-3.940483033657073975e-01
-1.580623239278793335e-01
-1.525792926549911499e-01
-5.731594190001487732e-02
-9.050007164478302002e-02
-4.056193530559539795e-01
-4.457695782184600830e-02
2.655845507979393005e-02
-3.080086037516593933e-02
-1.414394825696945190e-01
-1.039153456687927246e+00
-2.346327751874923706e-01
-6.532378494739532471e-02
-5.779536366462707520e-01
-8.010166883468627930e-01
-1.781411886215209961e+00
-1.071827530860900879e+00
-1.067700505256652832e+00
-9.964688420295715332e-01
-9.481838941574096680e-01
-1.098700761795043945e+00
3.540230393409729004e-01
3.465338051319122314e-01
1.196296438574790955e-01
-5.552841424942016602e-01
-4.402271658182144165e-02
8.116355538368225098e-02
-2.091541327536106110e-02
3.829436749219894409e-02
-1.843187063932418823e-01
-3.624630346894264221e-02
-5.582477152347564697e-02
-1.695688217878341675e-01
-7.254949957132339478e-02
-1.110905185341835022e-01
6.518182903528213501e-02
-7.226564735174179077e-02
-1.495793908834457397e-01
-1.272908747196197510e-01
-2.780005335807800293e-01
-8.486583828926086426e-02
1.483986154198646545e-02
6.769014149904251099e-02
9.363707154989242554e-02
-1.957949399948120117e-01
-1.397520601749420166e-01
1.342525333166122437e-01
2.175849229097366333e-01
4.959237203001976013e-02
-2.979589998722076416e-01
-3.177202492952346802e-02
-7.042472809553146362e-02
8.915913850069046021e-02
7.944502681493759155e-02
1.870329529047012329e-01
1.634490792639553547e-03
-1.166903786361217499e-02
-1.200705394148826599e-01
-1.078259292989969254e-02
-1.352173392660915852e-03
-6.790315359830856323e-02
4.858859255909919739e-02
2.887160144746303558e-02
1.353179365396499634e-01
-4.339578375220298767e-02
-6.953869014978408813e-02
2.258769795298576355e-02
1.354391425848007202e-01
7.434631139039993286e-02
-6.073045544326305389e-03
-1.485618297010660172e-02
1.683175414800643921e-01
2.477252483367919922e-01
2.097219228744506836e-01
1.204067617654800415e-01
-1.075696721673011780e-01
1.047611460089683533e-01
-1.399523764848709106e-02
3.316049650311470032e-02
-6.698083132505416870e-02
-8.520082384347915649e-02
-2.167170792818069458e-01
-2.784846723079681396e-01
-1.729754954576492310e-01
-3.170527145266532898e-02
2.571139037609100342e-01
1.356267631053924561e-01
1.613282598555088043e-02
9.176425635814666748e-02
5.486478656530380249e-02
1.968915164470672607e-01
-4.404573515057563782e-02
4.588104784488677979e-03
1.143640056252479553e-01
3.036369569599628448e-02
2.524380385875701904e-01
2.089012227952480316e-02
1.224960386753082275e-01
2.277604639530181885e-01
-8.604462444782257080e-02
3.021029233932495117e-01
3.666489422321319580e-01
7.212274521589279175e-02
1.168800741434097290e-01
1.765786297619342804e-02
-1.981474459171295166e-02
3.225689381361007690e-02
1.330413222312927246e-01
-2.295610727742314339e-03
-1.932907849550247192e-01
-1.078283488750457764e-01
-2.723081409931182861e-02
8.733481168746948242e-02
1.310667674988508224e-02
-1.009106934070587158e-01
-9.395174682140350342e-02
-8.746909908950328827e-03
9.345518052577972412e-02
4.915856942534446716e-02
4.841793794184923172e-03
-1.191528961062431335e-01
-1.027986779808998108e-01
1.329706013202667236e-01
3.268852084875106812e-02
-6.949368119239807129e-02
4.916658252477645874e-02
-7.396129518747329712e-02
-2.902649939060211182e-01
-3.513822555541992188e-01
-1.194671541452407837e-01
-3.855434432625770569e-02
-2.097983146086335182e-03
-1.184083744883537292e-01
7.926229387521743774e-03
1.831338256597518921e-01
6.842636317014694214e-02
1.184315606951713562e-02
-7.495858520269393921e-02
3.461955487728118896e-02
7.122242450714111328e-02
-1.521245285402983427e-04
8.696303516626358032e-02
-5.919346958398818970e-02
6.156951189041137695e-03
-7.863742858171463013e-02
2.200621217489242554e-01
1.887716911733150482e-02
4.325522109866142273e-02
-4.714075848460197449e-02
-5.947491526603698730e-02
7.646168023347854614e-02
-1.563971787691116333e-01
-1.296494007110595703e-01
-1.849367655813694000e-02
-1.928574591875076294e-01
2.453578077256679535e-02
-4.203094840049743652e-01
-1.448281705379486084e-01
3.890406340360641479e-02
2.284130826592445374e-02
2.397150360047817230e-02
-5.185636505484580994e-02
3.118900358676910400e-01
2.419903278350830078e-01
-2.088802903890609741e-01
8.999349176883697510e-02
1.132781878113746643e-01
4.156992733478546143e-01
7.999103516340255737e-02
-4.477312862873077393e-01
4.325368627905845642e-02
2.008906602859497070e-01
3.543242216110229492e-01
-2.909093350172042847e-02
-4.305474460124969482e-01
-6.432047486305236816e-01
-1.536268740892410278e-01
3.678243607282638550e-02
1.702766269445419312e-01
8.392424136400222778e-02
-2.170048058032989502e-01
-1.256950199604034424e-01
1.444899141788482666e-01
1.730573624372482300e-01
-1.619899868965148926e-01
-2.496378123760223389e-01
-1.300951391458511353e-01
7.969398796558380127e-02
4.984221607446670532e-02
4.644585773348808289e-02
-1.388213783502578735e-01
6.119403615593910217e-02
1.484564244747161865e-01
8.729712106287479401e-03
6.798292696475982666e-02
-2.479591034352779388e-02
-1.576475799083709717e-02
-3.670586273074150085e-02
3.871120139956474304e-02
5.655004084110260010e-02
1.728703267872333527e-02
1.867479458451271057e-02
9.400861710309982300e-02
7.380572706460952759e-02
1.340840477496385574e-02
9.483257308602333069e-04
6.227612867951393127e-02
4.589639231562614441e-02
-1.209109574556350708e-01
-8.463158272206783295e-03
-3.909606114029884338e-02
9.744042158126831055e-02
-1.454562097787857056e-01
-1.867776513099670410e-01
8.157049119472503662e-02
6.672208011150360107e-02
-2.080319263041019440e-02
-2.880994975566864014e-01
2.842789888381958008e-02
2.875862121582031250e-01
9.134379029273986816e-02
-1.471720486879348755e-01
-2.541579902172088623e-01
1.629655510187149048e-01
1.748122423887252808e-01
1.792865432798862457e-02
-1.784775555133819580e-01
-3.121199309825897217e-01
-2.702724337577819824e-01
-2.650669217109680176e-01
-6.260261405259370804e-03
-1.062497869133949280e-01
-7.641852367669343948e-03
1.094416975975036621e-01
1.999119818210601807e-01
-6.759486347436904907e-02
-2.541472017765045166e-01
1.649009436368942261e-02
3.277271753177046776e-03
-2.575247921049594879e-02
-9.541808813810348511e-02
4.480023309588432312e-02
2.565604746341705322e-01
1.675664484500885010e-01
-8.474686741828918457e-02
-6.791135668754577637e-02
4.965687692165374756e-01
4.321385025978088379e-01
9.209104627370834351e-02
7.221488747745752335e-03
9.391789138317108154e-02
1.653890013694763184e-01
-4.482245817780494690e-02
2.518556267023086548e-02
2.331380993127822876e-01
-1.080070436000823975e-01
1.323724910616874695e-02
-1.034237220883369446e-01
-5.855540931224822998e-02
2.166787236928939819e-01
-1.439495384693145752e-01
5.434996634721755981e-02
-9.459429234266281128e-02
-1.223665773868560791e-01
2.942156195640563965e-01
-8.132137358188629150e-02
9.419073909521102905e-02
-1.728777959942817688e-02
-6.857317686080932617e-02
2.949711382389068604e-01
-7.683940231800079346e-02
4.326267540454864502e-02
-2.572494791820645332e-03
-5.995219200849533081e-02
8.421817421913146973e-02
4.036680981516838074e-02
-2.103332988917827606e-02
-7.237946242094039917e-02
-8.276306837797164917e-02
-7.319574058055877686e-02
5.599549785256385803e-02
-6.582938134670257568e-02
4.629282280802726746e-02
7.823641598224639893e-02
-2.965685538947582245e-02
-1.531924903392791748e-01
-1.595898717641830444e-01
-1.803899556398391724e-01
6.743697822093963623e-02
4.503813385963439941e-02
-1.520913541316986084e-01
-2.612486779689788818e-01
4.920865222811698914e-02
1.996921598911285400e-01
1.151142045855522156e-01
-3.762678802013397217e-01
-3.041687607765197754e-01
3.593866527080535889e-02
4.346599280834197998e-01
3.850053250789642334e-01
