-5.597165971994400024e-02
1.810001283884048462e-01
1.316480040550231934e-01
-9.904215484857559204e-02
5.242489278316497803e-02
4.713390022516250610e-02
1.419422328472137451e-01
-2.482507824897766113e-01
-1.152454167604446411e-01
-2.332505211234092712e-02
2.979573011398315430e-01
-2.062278389930725098e-01
-3.081412799656391144e-02
-9.829152375459671021e-02
-1.803565174341201782e-01
-1.446186900138854980e-01
8.907344192266464233e-02
3.930085301399230957e-01
8.724443614482879639e-02
1.143948659300804138e-01
-6.066606193780899048e-02
-1.620976775884628296e-01
-7.075203210115432739e-02
1.044128015637397766e-01
-6.874727457761764526e-02
-2.088796794414520264e-01
-3.292968273162841797e-01
-2.074911445379257202e-01
1.197423413395881653e-01
-3.862879797816276550e-02
1.271982342004776001e-01
-1.082034856081008911e-01
3.470138832926750183e-02
9.242340177297592163e-02
8.971025794744491577e-02
-7.549422234296798706e-02
1.201777085661888123e-01
1.650397479534149170e-02
4.198414087295532227e-02
8.020745962858200073e-02
1.418170630931854248e-01
-7.977005839347839355e-02
1.680261790752410889e-01
-3.115838021039962769e-02
1.396568268537521362e-01
2.384605407714843750e-01
1.624331064522266388e-02
-7.186884433031082153e-02
-1.005971282720565796e-01
1.474842578172683716e-01
2.268537133932113647e-01
1.728153079748153687e-01
-4.030017182230949402e-03
1.478837430477142334e-01
-1.687761992216110229e-01
-3.479693457484245300e-02
-3.035518825054168701e-01
-1.943862438201904297e-01
5.076872557401657104e-02
1.668684333562850952e-01
2.740794718265533447e-01
1.802738308906555176e-01
7.858727872371673584e-02
-7.612470537424087524e-02
-1.400885134935379028e-01
-5.410077422857284546e-02
-2.901784330606460571e-02
2.605875134468078613e-01
3.185155615210533142e-02
1.738835498690605164e-02
-2.056889384984970093e-01
1.812861114740371704e-01
7.171601057052612305e-02
-2.697577476501464844e-01
-1.684249937534332275e-01
-5.751243978738784790e-02
3.207913367077708244e-03
2.412203513085842133e-02
-1.090091243386268616e-01
2.342078834772109985e-01
-6.894048303365707397e-02
3.483512997627258301e-02
3.826569393277168274e-02
-1.957414895296096802e-01
-1.232333630323410034e-01
-1.106225922703742981e-01
2.651339769363403320e-01
-4.431496781762689352e-04
1.991614848375320435e-01
-2.809389829635620117e-01
-8.405759185552597046e-02
-5.476959049701690674e-02
-2.836925387382507324e-01
6.827461719512939453e-02
-1.241789683699607849e-01
3.840784728527069092e-02
1.192537620663642883e-01
1.070801317691802979e-01
7.313719391822814941e-02
-7.880129665136337280e-02
-4.382499307394027710e-02
-5.620214343070983887e-02
-1.060589104890823364e-01
1.094813272356987000e-01
-1.728029698133468628e-01
6.194552406668663025e-02
-1.522675454616546631e-01
-1.427419930696487427e-01
4.094107747077941895e-01
-1.259143799543380737e-01
2.167459428310394287e-01
-5.823080614209175110e-02
-2.755998969078063965e-01
2.701542973518371582e-01
1.907985359430313110e-01
-8.231980353593826294e-02
-1.463359743356704712e-01
1.792629063129425049e-01
-2.441849410533905029e-01
-5.821648519486188889e-04
