9.382605552673339844e-02
9.347731247544288635e-03
3.793858289718627930e-01
3.740243911743164062e-01
8.175065368413925171e-02
7.811836153268814087e-02
1.604995727539062500e-01
3.388598859310150146e-01
-5.196519196033477783e-02
1.262229532003402710e-01
1.450476795434951782e-01
9.251311421394348145e-02
2.796280980110168457e-01
-7.733087986707687378e-02
-3.100630361586809158e-03
-5.404672026634216309e-02
6.359316408634185791e-02
9.839789569377899170e-02
-4.442749172449111938e-02
-4.276362806558609009e-02
9.588709473609924316e-02
2.035706043243408203e-01
1.744281798601150513e-01
-1.493324432522058487e-02
4.992882534861564636e-02
1.007140725851058960e-01
-1.354122757911682129e-01
4.726957902312278748e-02
1.829968392848968506e-01
3.547009229660034180e-01
-7.864713668823242188e-02
8.070358633995056152e-02
1.821480132639408112e-02
5.922722816467285156e-02
-2.994270995259284973e-02
-1.963339895009994507e-01
9.757985919713973999e-02
8.705552667379379272e-02
1.201798617839813232e-01
1.689324155449867249e-02
-1.029010340571403503e-01
1.162033081054687500e-01
1.446111053228378296e-01
1.134671494364738464e-01
4.936319217085838318e-02
4.531320184469223022e-03
1.906486749649047852e-01
2.178573012351989746e-01
1.965926736593246460e-01
-9.578923881053924561e-02
-7.782536745071411133e-02
-1.391511503607034683e-02
8.339178562164306641e-02
9.319640696048736572e-02
1.393134295940399170e-01
-2.166056260466575623e-02
-6.615168601274490356e-02
3.184202015399932861e-01
2.470879070460796356e-02
5.086182430386543274e-02
2.338407784700393677e-01
3.108904659748077393e-01
3.765899746213108301e-04
-7.317877560853958130e-02
8.213070780038833618e-02
1.404483765363693237e-01
1.630140095949172974e-02
-9.623473882675170898e-02
-2.159892022609710693e-02
1.150867864489555359e-01
-1.926584355533123016e-02
1.566777378320693970e-01
-1.206229180097579956e-01
3.173615084961056709e-03
1.244988739490509033e-01
-9.492497891187667847e-03
6.476981937885284424e-02
2.486402094364166260e-01
-7.296375464648008347e-03
-3.189965337514877319e-02
1.316963136196136475e-02
-2.673993110656738281e-01
-8.099345862865447998e-02
3.707785606384277344e-01
