1.840472072362899780e-01
-3.649609386920928955e-01
3.099048733711242676e-01
1.491494029760360718e-01
-6.212901473045349121e-01
-1.341548264026641846e-01
-1.203559786081314087e-01
4.946206510066986084e-02
2.333825528621673584e-01
3.077437579631805420e-01
2.758309058845043182e-02
3.883265703916549683e-02
6.385645270347595215e-02
3.876585364341735840e-01
-2.128105796873569489e-02
4.027435779571533203e-01
6.631331145763397217e-02
5.316079407930374146e-02
3.081682920455932617e-01
-9.569390863180160522e-02
2.217489480972290039e-01
-2.199360430240631104e-01
-1.196427047252655029e-01
-7.047766447067260742e-01
4.081749916076660156e-01
6.470979005098342896e-02
2.388867586851119995e-01
-4.870095252990722656e-01
-6.991056799888610840e-01
-2.137884050607681274e-01
4.135520756244659424e-01
4.851258397102355957e-01
-4.505867958068847656e-01
3.656022250652313232e-02
-1.827876716852188110e-01
1.257894635200500488e-01
-2.546292543411254883e-01
4.544366300106048584e-01
-4.207462370395660400e-01
3.372815251350402832e-01
1.794332116842269897e-01
4.507927596569061279e-02
-2.057033628225326538e-01
2.012417912483215332e-01
9.858770295977592468e-03
3.087613880634307861e-01
-1.305625140666961670e-01
2.932741045951843262e-01
2.824831604957580566e-01
-3.804694116115570068e-01
1.424742937088012695e-01
-5.119109749794006348e-01
-8.104714751243591309e-02
-8.398922681808471680e-01
-4.101503193378448486e-01
4.113203883171081543e-01
1.044212579727172852e-01
-4.919536113739013672e-01
-6.341622471809387207e-01
-4.673610031604766846e-01
4.237347841262817383e-01
6.732781231403350830e-02
7.851713895797729492e-02
1.038227230310440063e-03
1.287623494863510132e-01
8.069975972175598145e-01
2.631253898143768311e-01
3.536240458488464355e-01
-9.311358928680419922e-01
3.435403108596801758e-01
3.672949075698852539e-01
-6.304649710655212402e-01
-1.411420851945877075e-01
-1.761546172201633453e-02
-3.890610337257385254e-01
1.893860101699829102e-01
-4.638708233833312988e-01
-1.476182509213685989e-02
1.378964483737945557e-01
1.821478307247161865e-01
2.269479334354400635e-01
-1.746982783079147339e-01
-7.862278819084167480e-02
4.188663363456726074e-01
2.700362801551818848e-01
2.106178998947143555e-01
-3.149080276489257812e-02
5.451264977455139160e-02
-1.061570569872856140e-01
-3.557973504066467285e-01
-4.850506186485290527e-01
3.273382484912872314e-01
-3.051756620407104492e-01
2.114775180816650391e-01
-5.815868452191352844e-02
1.194303259253501892e-01
9.484142661094665527e-01
5.263441801071166992e-02
6.905078887939453125e-01
3.451066315174102783e-01
-1.132885552942752838e-02
-8.764690719544887543e-03
5.415812730789184570e-01
-2.673124335706233978e-02
2.959936559200286865e-01
-4.630804359912872314e-01
-2.726748585700988770e-01
-3.263628184795379639e-01
2.827581204473972321e-02
1.605400741100311279e-01
-1.044273972511291504e+00
2.502714395523071289e-01
1.525526791810989380e-01
5.090326070785522461e-02
-1.058397814631462097e-01
1.207584701478481293e-02
2.589592933654785156e-01
1.755542606115341187e-01
5.529993176460266113e-01
1.501915305852890015e-01
2.319260984659194946e-01
2.986922860145568848e-01
-7.532564550638198853e-02
-2.498059123754501343e-01
-4.369238615036010742e-01
5.270999670028686523e-01
1.084142830222845078e-03
2.056288905441761017e-02
4.845221936702728271e-01
-5.399733781814575195e-01
2.835098206996917725e-01
-5.031371712684631348e-01
9.358695745468139648e-01
1.476466804742813110e-01
2.011837959289550781e-01
-1.415581107139587402e-01
2.199428901076316833e-02
-4.253589510917663574e-01
-1.353602111339569092e-01
-6.802233457565307617e-01
-8.841988444328308105e-01
5.929452776908874512e-01
-2.437451928853988647e-01
-6.827671080827713013e-02
3.892562091350555420e-01
6.000419855117797852e-01
5.612548068165779114e-02
-4.106348752975463867e-02
-3.235891759395599365e-01
6.601258516311645508e-01
-9.135609865188598633e-01
-9.113923907279968262e-01
4.341274499893188477e-02
6.849896162748336792e-03
2.042771875858306885e-01
4.938910249620676041e-03
1.929211057722568512e-02
8.811119794845581055e-01
-3.361789286136627197e-01
-2.204826176166534424e-01
1.485690176486968994e-01
4.420588314533233643e-01
8.977250754833221436e-02
2.794259786605834961e-01
-1.061616063117980957e+00
-1.328721046447753906e-01
4.537043869495391846e-01
-3.977209925651550293e-01
-1.447358280420303345e-01
-1.725780069828033447e-01
5.997135639190673828e-01
-2.619540989398956299e-01
3.970052003860473633e-01
-2.271961718797683716e-01
-3.280163407325744629e-01
1.591713577508926392e-01
3.865639567375183105e-01
3.607305586338043213e-01
2.340637445449829102e-01
1.514703184366226196e-01
-5.791066288948059082e-01
-3.728738725185394287e-01
-4.942037463188171387e-01
-1.737932711839675903e-01
3.851229846477508545e-01
4.820831492543220520e-02
-3.303332626819610596e-01
2.593020796775817871e-01
-8.574674129486083984e-01
-3.114479221403598785e-02
-6.799468398094177246e-01
-3.316076993942260742e-01
1.297358870506286621e-01
-6.673669815063476562e-01
2.642187178134918213e-01
1.512497067451477051e-01
3.213749229907989502e-01
-7.293708324432373047e-01
-7.105315923690795898e-01
-1.088129431009292603e-01
-6.536831259727478027e-01
-2.572108805179595947e-01
1.127193793654441833e-01
2.067905068397521973e-01
-6.557090282440185547e-01
-1.121809612959623337e-02
5.626227259635925293e-01
-2.463062554597854614e-01
3.624837100505828857e-02
6.944160908460617065e-02
-5.394288524985313416e-02
5.393726825714111328e-01
2.996714413166046143e-01
2.367866188287734985e-01
-4.990881681442260742e-01
4.925961196422576904e-01
6.475091576576232910e-01
7.229487597942352295e-02
3.591995537281036377e-01
-6.979683041572570801e-01
-6.823897957801818848e-01
-2.265521138906478882e-01
3.017028272151947021e-01
-1.536963284015655518e-01
1.424781978130340576e-01
3.012498915195465088e-01
-1.040698885917663574e+00
-4.114129021763801575e-02
1.424934625625610352e+00
-1.940562948584556580e-02
-6.679594516754150391e-01
2.280927300453186035e-01
6.991810351610183716e-02
-2.092448621988296509e-01
3.212549984455108643e-01
9.258349984884262085e-02
4.846389219164848328e-02
-5.783369541168212891e-01
-8.104363083839416504e-01
2.106887660920619965e-02
1.810902059078216553e-01
-4.370693862438201904e-01
-3.380060791969299316e-01
3.604577779769897461e-01
-7.409653067588806152e-01
-8.027827739715576172e-02
1.126053705811500549e-01
-6.753791589289903641e-03
-2.759977877140045166e-01
2.733208537101745605e-01
-7.206757366657257080e-02
-2.195119261741638184e-01
-6.210394501686096191e-01
-3.830735385417938232e-02
-1.267902106046676636e-01
8.541882038116455078e-02
-6.016198173165321350e-02
-4.381034672260284424e-01
-5.262326002120971680e-01
2.582519650459289551e-01
7.862574607133865356e-02
-5.391154885292053223e-01
-4.062174260616302490e-01
1.536826193332672119e-01
-4.297097921371459961e-01
-1.899098306894302368e-01
-8.683712780475616455e-02
6.434547901153564453e-01
3.422417640686035156e-01
1.756510734558105469e-01
-4.368027746677398682e-01
3.592823445796966553e-01
3.164120614528656006e-01
-3.710665702819824219e-01
4.427625238895416260e-02
6.797478199005126953e-01
1.886862665414810181e-01
4.562323987483978271e-01
-1.348884031176567078e-02
1.080564558506011963e-01
1.984179019927978516e-02
3.247190713882446289e-01
-2.224399521946907043e-02
2.159150242805480957e-01
1.703271642327308655e-02
-5.955962464213371277e-02
3.003844618797302246e-01
2.386772930622100830e-01
5.305968225002288818e-02
-9.566874057054519653e-02
8.534400165081024170e-02
3.374303579330444336e-01
1.084689944982528687e-01
-8.779452443122863770e-01
1.977296471595764160e-01
-2.386180460453033447e-01
-7.312960177659988403e-02
-6.286662817001342773e-01
3.720138594508171082e-02
2.950837016105651855e-01
-1.682767570018768311e-01
2.068604677915573120e-01
1.062869802117347717e-01
-5.818058252334594727e-01
-2.875222861766815186e-01
-4.375874698162078857e-01
-5.027697682380676270e-01
3.737078309059143066e-01
3.110366761684417725e-01
-2.448474317789077759e-01
-7.765209078788757324e-01
1.757533848285675049e-02
3.987842798233032227e-01
2.693925499916076660e-01
1.102702841162681580e-01
1.824539601802825928e-01
-6.750623583793640137e-01
-6.559856235980987549e-02
-4.955398440361022949e-01
-6.597876083105802536e-03
-1.278626620769500732e-01
-2.559152198955416679e-03
-6.780950427055358887e-01
6.577469706535339355e-01
-1.891833394765853882e-01
1.160708144307136536e-01
2.511082887649536133e-01
-6.260263323783874512e-01
9.493725746870040894e-02
4.474336653947830200e-02
1.535365283489227295e-01
2.592392861843109131e-01
-3.043001592159271240e-01
3.959397375583648682e-01
-4.650404304265975952e-02
-1.337721943855285645e-01
2.609295845031738281e-01
2.967372834682464600e-01
8.656061440706253052e-02
-7.131937742233276367e-01
2.338957488536834717e-01
1.554922312498092651e-01
-9.845025539398193359e-01
2.717064321041107178e-02
-7.337010651826858521e-02
1.208549588918685913e-01
2.520703896880149841e-02
-7.960665225982666016e-01
-1.763951331377029419e-01
6.504001021385192871e-01
-8.759244084358215332e-01
5.464127659797668457e-01
-2.572485804557800293e-01
-4.310088753700256348e-01
-2.199204266071319580e-01
4.856381714344024658e-01
5.718151479959487915e-02
2.855221033096313477e-01
2.346539646387100220e-01
1.087031736969947815e-01
1.050573587417602539e-01
3.284150958061218262e-01
2.986466586589813232e-01
2.463730722665786743e-01
1.503334641456604004e-01
4.559854269027709961e-01
-6.560352444648742676e-01
-8.516020774841308594e-01
3.439793288707733154e-01
1.854345500469207764e-01
8.480148762464523315e-02
8.334784652106463909e-04
-2.246045693755149841e-02
-4.234110713005065918e-01
-3.598681688308715820e-01
2.595191299915313721e-01
1.645345985889434814e-01
1.842341572046279907e-01
-2.704875171184539795e-02
-4.489859342575073242e-01
-4.522335529327392578e-01
2.324507981538772583e-01
-8.137423396110534668e-01
-6.454119086265563965e-01
-5.994027853012084961e-02
1.493099518120288849e-02
3.620969504117965698e-02
5.365768074989318848e-02
2.648315131664276123e-01
-4.874870479106903076e-01
7.138920016586780548e-03
-8.281783461570739746e-01
2.184645533561706543e-01
-2.550152540206909180e-01
-5.281507372856140137e-01
2.728078663349151611e-01
3.055388331413269043e-01
1.893895864486694336e-01
1.456472277641296387e-01
2.707382738590240479e-01
7.245440036058425903e-02
1.038453459739685059e+00
2.415404617786407471e-01
2.762760221958160400e-01
3.010778427124023438e-01
-8.020665049552917480e-01
-5.368003845214843750e-01
3.593121767044067383e-01
1.461866497993469238e-01
-4.895352199673652649e-02
2.512039542198181152e-01
1.896971464157104492e-01
-2.348690479993820190e-01
2.069492191076278687e-01
9.029025584459304810e-02
4.379348456859588623e-01
7.653395831584930420e-02
1.974367648363113403e-01
6.828019618988037109e-01
-9.290131926536560059e-02
1.674978435039520264e-01
6.894398480653762817e-02
3.140214979648590088e-01
2.395866625010967255e-02
2.513406276702880859e-01
6.550334393978118896e-02
-2.909533865749835968e-02
-7.148024439811706543e-01
1.556755509227514267e-02
-3.352539837360382080e-01
-1.184195373207330704e-02
4.169287383556365967e-01
-2.707646787166595459e-01
-3.913191258907318115e-01
2.249311357736587524e-01
-6.020735502243041992e-01
-1.128152847290039062e+00
3.979129344224929810e-02
-3.679803013801574707e-02
-2.239051461219787598e-01
2.142244279384613037e-01
1.676541566848754883e-01
-1.203505322337150574e-01
1.214499771595001221e-01
-3.257224857807159424e-01
2.987864315509796143e-01
-4.651716649532318115e-01
-1.744610369205474854e-01
1.198755651712417603e-01
2.482735365629196167e-01
8.679544180631637573e-02
-5.721719861030578613e-01
4.916540384292602539e-01
-2.350096702575683594e-01
8.979506790637969971e-03
-2.177160382270812988e-01
-6.988193988800048828e-01
4.538028240203857422e-01
-5.653545260429382324e-01
-3.943294584751129150e-01
6.273230910301208496e-01
3.629754781723022461e-01
1.344630271196365356e-01
2.214919924736022949e-01
2.695773914456367493e-02
-7.287287712097167969e-02
2.832734398543834686e-02
1.243642121553421021e-01
-1.004663467407226562e+00
9.949680417776107788e-02
1.943385601043701172e-01
7.977014780044555664e-02
2.208156883716583252e-01
3.022783100605010986e-01
1.434204727411270142e-01
2.145502269268035889e-01
-4.516429007053375244e-01
1.002803817391395569e-01
2.265483438968658447e-01
-3.430800139904022217e-01
-7.911690473556518555e-01
-1.212380886077880859e+00
2.126805484294891357e-01
-1.934048533439636230e-01
4.426797926425933838e-01
3.251191079616546631e-01
3.346998393535614014e-01
-5.300120115280151367e-01
7.832798957824707031e-01
-3.658033907413482666e-02
7.408441603183746338e-02
1.307866126298904419e-01
5.867158770561218262e-01
4.434679448604583740e-01
-3.476520180702209473e-01
-2.150481045246124268e-01
-2.015703767538070679e-01
1.847184300422668457e-01
-1.330917030572891235e-01
-5.148722529411315918e-01
2.609639056026935577e-02
2.179809212684631348e-01
3.900258243083953857e-01
4.551925957202911377e-01
-3.189319074153900146e-01
-3.597249686717987061e-01
2.303851097822189331e-01
4.069541096687316895e-01
-2.142550647258758545e-01
6.666692495346069336e-01
-4.746111854910850525e-02
1.764171384274959564e-02
2.636096999049186707e-02
1.295454949140548706e-01
1.949262022972106934e-01
1.246895790100097656e-01
2.982333861291408539e-02
4.022787511348724365e-02
4.589233100414276123e-01
-6.425088644027709961e-01
6.548045277595520020e-01
1.775926053524017334e-01
-7.291088700294494629e-01
-5.760574340820312500e-01
1.560587584972381592e-01
3.166094422340393066e-01
-1.266203671693801880e-01
-2.694767713546752930e-01
2.148317843675613403e-01
-2.815297544002532959e-01
2.447217106819152832e-01
-4.071210324764251709e-02
-5.070592761039733887e-01
6.420961767435073853e-02
7.432775497436523438e-01
3.107379376888275146e-02
-2.225030660629272461e-01
3.969363272190093994e-01
1.230082586407661438e-01
1.463578045368194580e-01
3.900917172431945801e-01
3.750675618648529053e-01
8.927220851182937622e-02
1.538527198135852814e-02
2.089816033840179443e-01
7.974769175052642822e-02
4.094454646110534668e-01
-4.388998448848724365e-01
-3.877339959144592285e-01
1.352224349975585938e-01
-7.079127430915832520e-01
-2.813011109828948975e-01
1.816227845847606659e-02
-5.528938174247741699e-01
-7.841433286666870117e-01
-1.505985762923955917e-02
-9.391808509826660156e-02
-1.192606329917907715e+00
2.665148675441741943e-01
-2.191385477781295776e-01
1.584344208240509033e-01
3.695288300514221191e-01
-2.788748443126678467e-01
1.555865556001663208e-01
4.993927180767059326e-01
1.172433644533157349e-01
-3.080721497535705566e-01
1.793927140533924103e-02
8.740207552909851074e-02
-5.581026673316955566e-01
2.415766716003417969e-01
4.786201938986778259e-02
1.412969231605529785e-01
6.296138167381286621e-01
4.357612431049346924e-01
-2.296144366264343262e-01
1.301609426736831665e-01
-6.119052767753601074e-01
3.992116749286651611e-01
-6.227216217666864395e-03
8.139370679855346680e-01
4.506840705871582031e-01
1.870133578777313232e-01
-3.280330896377563477e-01
5.613642334938049316e-01
-9.227035641670227051e-01
-6.274619102478027344e-01
4.007235169410705566e-01
1.330512017011642456e-01
9.194959700107574463e-02
2.947481870651245117e-01
1.329494565725326538e-01
-3.294304758310317993e-02
1.912666857242584229e-01
3.404749333858489990e-01
-5.131171941757202148e-01
-7.077387571334838867e-01
-3.700904846191406250e-01
-4.506992697715759277e-01
8.281522989273071289e-01
4.209999740123748779e-01
-1.682396382093429565e-01
7.586922962218523026e-03
-1.798822171986103058e-02
5.571141839027404785e-02
-4.328891336917877197e-01
6.351983547210693359e-01
-1.179419681429862976e-01
-1.674791276454925537e-01
-6.657247897237539291e-03
3.169465959072113037e-01
-2.533274516463279724e-02
-7.375444769859313965e-01
-1.063116937875747681e-01
1.475221961736679077e-01
-3.753608763217926025e-01
2.067084908485412598e-01
7.132147252559661865e-02
-6.089448556303977966e-02
6.519593298435211182e-02
-2.602320723235607147e-02
-2.887331843376159668e-01
-1.350143551826477051e+00
-1.637418717145919800e-01
3.231480717658996582e-01
-3.282337486743927002e-01
1.606440097093582153e-01
-4.851872920989990234e-01
-8.316344022750854492e-01
7.203369736671447754e-01
-4.139235317707061768e-01
7.780013233423233032e-02
7.108312845230102539e-02
-2.972527444362640381e-01
7.395957410335540771e-02
1.408664137125015259e-01
7.265972346067428589e-02
6.365501135587692261e-02
7.133843004703521729e-02
3.776437416672706604e-02
3.234931826591491699e-02
2.434042096138000488e-01
2.130335867404937744e-01
1.524594873189926147e-01
-3.528876602649688721e-01
-1.359105203300714493e-02
2.286567836999893188e-01
-1.773532778024673462e-01
8.532717227935791016e-01
-5.691494941711425781e-01
6.002044305205345154e-02
4.693270027637481689e-01
1.410025358200073242e-01
3.354158401489257812e-01
3.708493411540985107e-01
-4.614543616771697998e-01
8.013474345207214355e-01
-1.902922987937927246e-01
4.675222039222717285e-01
1.878531277179718018e-01
7.420314550399780273e-01
-1.093357205390930176e+00
8.104889839887619019e-02
4.184836521744728088e-03
-4.049510657787322998e-01
1.194517537951469421e-01
8.747769892215728760e-02
-1.601826548576354980e-01
1.525723487138748169e-01
-1.376093775033950806e-01
-3.539154231548309326e-01
4.153402149677276611e-01
-2.857292890548706055e-01
-2.915023267269134521e-01
7.309383898973464966e-02
-5.314229801297187805e-02
3.552604019641876221e-01
-1.252440661191940308e-01
3.132688999176025391e-01
-1.709384843707084656e-02
1.607805341482162476e-01
2.172059118747711182e-01
2.117750942707061768e-01
8.483874052762985229e-02
2.819513380527496338e-01
2.971202135086059570e-01
1.702504605054855347e-01
-1.368833333253860474e-01
1.143660619854927063e-01
8.109734207391738892e-02
7.088227868080139160e-01
4.862962961196899414e-01
-2.382375597953796387e-01
-1.927109956741333008e-01
2.554588317871093750e-01
-3.459007479250431061e-03
-2.091279476881027222e-01
-3.944675251841545105e-02
-6.612558960914611816e-01
2.611178755760192871e-01
-9.346727281808853149e-02
7.029920220375061035e-01
-6.451213359832763672e-01
-3.011596389114856720e-02
5.192063450813293457e-01
-7.956239581108093262e-02
2.129860371351242065e-01
-9.078489989042282104e-02
5.029582381248474121e-01
-4.760829508304595947e-01
-3.803642988204956055e-01
2.527607381343841553e-01
3.267025351524353027e-01
-1.169679407030344009e-02
-9.463013708591461182e-02
-1.229357626289129257e-02
-1.135048717260360718e-01
3.147892355918884277e-01
-1.447150707244873047e-01
-7.734613865613937378e-02
2.119232267141342163e-01
6.150364875793457031e-02
-1.474986672401428223e-01
1.232330501079559326e-01
-5.871750414371490479e-02
4.093719422817230225e-01
2.190182805061340332e-01
2.684326171875000000e-01
2.845689952373504639e-01
-2.006208151578903198e-01
6.957536935806274414e-01
3.197099566459655762e-01
-2.892577052116394043e-01
3.877749145030975342e-01
9.715596586465835571e-02
-8.754595518112182617e-01
2.917709350585937500e-01
-3.843253552913665771e-01
-1.363949418067932129e+00
2.122008949518203735e-01
-4.309187531471252441e-01
-4.202219545841217041e-01
-1.718005985021591187e-01
-1.857047155499458313e-02
-6.469431519508361816e-01
-1.908832937479019165e-01
1.228722780942916870e-01
-1.406696289777755737e-01
5.554153919219970703e-01
-5.636704564094543457e-01
-1.014455676078796387e+00
-4.035413563251495361e-01
-6.086941957473754883e-01
-4.661132767796516418e-02
2.066537886857986450e-01
-1.102546453475952148e+00
1.783770769834518433e-01
1.564167588949203491e-01
-8.839004039764404297e-01
-1.058231517672538757e-01
3.878257051110267639e-02
1.071526389569044113e-02
2.666315734386444092e-01
-1.064213871955871582e+00
-1.244985088706016541e-01
-1.785798966884613037e-01
6.528897881507873535e-01
1.989944130182266235e-01
-1.213086098432540894e-01
9.039107710123062134e-02
1.502129063010215759e-02
1.693702936172485352e-01
2.984170988202095032e-02
6.002731621265411377e-02
7.434017062187194824e-01
-1.739533096551895142e-01
-1.094500869512557983e-01
1.247879490256309509e-02
3.242890834808349609e-01
1.913855224847793579e-01
2.943476475775241852e-02
-1.430530101060867310e-01
-2.181379683315753937e-02
6.422845274209976196e-02
2.315931767225265503e-01
-1.313195586204528809e+00
2.564981281757354736e-01
1.879113763570785522e-01
4.091849178075790405e-02
2.727713584899902344e-01
2.537762224674224854e-01
6.497167795896530151e-02
2.667166292667388916e-01
1.202683080919086933e-03
1.659027300775051117e-02
-6.270573288202285767e-02
-3.167501091957092285e-01
1.111787185072898865e-01
1.573929339647293091e-01
8.164706826210021973e-02
2.184969484806060791e-01
-1.431822478771209717e-01
4.717843234539031982e-01
3.214761242270469666e-02
4.147407785058021545e-02
1.531985402107238770e-01
-5.331155657768249512e-02
5.912752747535705566e-01
3.193403780460357666e-01
3.464175462722778320e-01
6.073911860585212708e-02
5.930355191230773926e-02
-3.677135407924652100e-01
-3.498091995716094971e-01
9.620139002799987793e-02
9.607411921024322510e-02
-6.722847819328308105e-01
-1.477227210998535156e+00
1.861392557621002197e-01
-2.012735009193420410e-01
-3.239050135016441345e-02
-6.645920276641845703e-01
1.896295100450515747e-01
-3.077733516693115234e-01
5.040382742881774902e-01
-3.216822817921638489e-02
2.086505740880966187e-01
-4.136222004890441895e-01
8.839880824089050293e-01
-3.670252263545989990e-01
4.647504910826683044e-02
2.241415083408355713e-01
1.442728042602539062e-01
-5.907054543495178223e-01
2.110773921012878418e-01
9.394649416208267212e-02
1.939260363578796387e-01
1.986087560653686523e-01
2.053462230833247304e-04
-7.109605669975280762e-01
