-5.157098770141601562e-01
-5.683116316795349121e-01
-4.826062172651290894e-02
-8.767479099333286285e-03
1.294603645801544189e-01
-1.719972491264343262e-01
-4.656131565570831299e-01
-2.447270788252353668e-02
-2.894013822078704834e-01
-8.965712785720825195e-02
2.809464633464813232e-01
-2.437409162521362305e-01
-4.903712868690490723e-01
-5.380047559738159180e-01
-2.730147838592529297e-01
-2.039396017789840698e-02
3.351260423660278320e-01
-4.693510942161083221e-03
-6.574940681457519531e-02
-3.805654048919677734e-01
2.974558472633361816e-01
6.283918023109436035e-02
1.511509418487548828e-01
-2.415357530117034912e-01
-2.765409648418426514e-02
-9.830992668867111206e-02
-2.340091913938522339e-01
-2.061315327882766724e-01
1.006292328238487244e-01
1.507195979356765747e-01
2.912796661257743835e-02
-3.457615077495574951e-01
-1.016653254628181458e-01
2.874690108001232147e-02
-3.738654544577002525e-03
8.269338868558406830e-03
8.518889546394348145e-02
2.821221575140953064e-02
-8.185561746358871460e-03
-3.933073207736015320e-02
1.811240762472152710e-01
-8.818148076534271240e-02
1.840684413909912109e-01
3.052172018215060234e-03
-6.351293623447418213e-02
4.875124394893646240e-01
-3.073483332991600037e-02
5.444233864545822144e-02
-6.544206291437149048e-02
3.570726513862609863e-02
1.328135579824447632e-01
5.096172168850898743e-02
-8.191154152154922485e-02
-9.850990772247314453e-02
-1.105188280344009399e-01
6.557140499353408813e-02
-3.290951624512672424e-02
-1.063151061534881592e-01
2.448369376361370087e-02
-5.615489929914474487e-02
5.384044349193572998e-02
6.486367434263229370e-02
1.906749792397022247e-02
-5.925188958644866943e-02
-2.027021795511245728e-01
3.690970242023468018e-01
-1.498566567897796631e-01
3.146176412701606750e-02
8.481578901410102844e-03
1.773755997419357300e-02
4.905574023723602295e-01
-8.355731517076492310e-02
4.079690203070640564e-02
-1.913234442472457886e-01
-2.630138695240020752e-01
-5.362347140908241272e-02
-6.342769265174865723e-01
-3.039490878582000732e-01
-5.197430253028869629e-01
-3.051287829875946045e-01
4.123660326004028320e-01
1.724685728549957275e-02
-1.786186397075653076e-01
-2.850784957408905029e-01
3.062797524034976959e-02
-1.218887940049171448e-01
2.018986083567142487e-02
-1.008050069212913513e-01
-1.996935904026031494e-01
8.013822138309478760e-02
-5.789207220077514648e-01
-2.381564676761627197e-01
6.800158321857452393e-02
2.717416882514953613e-01
4.951722547411918640e-02
1.091212332248687744e-01
2.987941205501556396e-01
3.192560970783233643e-01
1.777745485305786133e-01
-1.839321106672286987e-01
-3.746830821037292480e-01
-5.676390528678894043e-01
-9.066987633705139160e-01
-1.396573632955551147e-01
1.355178654193878174e-01
9.830508381128311157e-02
8.124712109565734863e-02
-6.087794899940490723e-02
-1.041489392518997192e-01
4.418986209202557802e-04
4.394733905792236328e-02
3.732775151729583740e-02
-9.062759578227996826e-03
3.037148388102650642e-03
-2.287838421761989594e-02
-1.024897862225770950e-02
-5.822138488292694092e-02
-1.602129340171813965e-01
1.837985403835773468e-02
6.447402387857437134e-02
-7.763719558715820312e-02
-2.463511079549789429e-01
-8.014582097530364990e-03
3.355152532458305359e-02
1.375752687454223633e-01
7.575104385614395142e-02
-2.551095187664031982e-01
-2.097038924694061279e-01
-6.579412519931793213e-02
-9.961665421724319458e-02
2.850201427936553955e-01
2.306982576847076416e-01
1.625018715858459473e-01
7.937266677618026733e-02
1.166558563709259033e-01
7.203051447868347168e-02
1.131557002663612366e-01
7.006224244832992554e-02
5.189365521073341370e-02
7.402857393026351929e-02
1.978921331465244293e-02
9.241807460784912109e-02
1.678437553346157074e-02
3.635558858513832092e-02
-5.883393436670303345e-02
5.101688951253890991e-02
1.197394505143165588e-01
2.233673632144927979e-01
3.342128396034240723e-01
2.723643183708190918e-01
5.380071401596069336e-01
3.862355351448059082e-01
-8.506544828414916992e-01
2.958060204982757568e-01
4.833044409751892090e-01
1.001330688595771790e-01
2.851676642894744873e-01
-6.256477832794189453e-01
-2.081414759159088135e-01
2.773181498050689697e-01
1.312084496021270752e-02
-3.027877584099769592e-02
-3.479478955268859863e-01
-3.900769650936126709e-01
5.945799946784973145e-01
3.110427260398864746e-01
-3.861967027187347412e-01
-1.923354715108871460e-01
-3.709200322628021240e-01
-8.714889176189899445e-03
2.752933204174041748e-01
-8.817265033721923828e-01
-3.740422129631042480e-01
-6.244207024574279785e-01
-7.868485450744628906e-01
-1.475315093994140625e-01
5.156015232205390930e-02
-5.930397510528564453e-01
-8.063598871231079102e-01
5.871339514851570129e-02
-4.785652160644531250e-01
1.605241298675537109e-01
-7.233780622482299805e-02
-6.284334063529968262e-01
-2.877253293991088867e-01
-1.172944307327270508e-01
2.470199391245841980e-02
8.436919003725051880e-02
-1.184545010328292847e-01
-1.832130849361419678e-01
-1.723444014787673950e-01
-1.489298343658447266e-01
-8.408817648887634277e-02
-2.406170405447483063e-02
-9.027037024497985840e-02
-3.240735828876495361e-01
-2.843061089515686035e-01
-1.078546494245529175e-01
1.766568236052989960e-02
-5.395767837762832642e-02
-1.010223776102066040e-01
-3.697273731231689453e-01
-4.636988639831542969e-01
2.222790420055389404e-01
1.843007653951644897e-01
8.927603252232074738e-03
-9.364618360996246338e-02
-4.327612221240997314e-01
-1.572689563035964966e-01
1.056941226124763489e-01
2.322052121162414551e-01
-1.366647798568010330e-02
-1.317229866981506348e-01
-8.033437281847000122e-02
1.465598791837692261e-01
9.974004328250885010e-02
1.618413329124450684e-01
-1.270956099033355713e-01
-2.293794006109237671e-01
6.682996172457933426e-03
1.269988622516393661e-02
2.004690319299697876e-01
-2.079357653856277466e-01
-1.158898249268531799e-01
-1.192317008972167969e-01
2.474990040063858032e-01
-1.708881705999374390e-01
5.433769822120666504e-01
4.336727559566497803e-01
-2.826933264732360840e-01
2.465491592884063721e-01
-9.491918981075286865e-02
-4.360748827457427979e-02
1.055358573794364929e-01
-6.882964819669723511e-02
-3.847923278808593750e-01
9.339517354965209961e-02
-3.417991697788238525e-01
1.804075390100479126e-02
6.179158017039299011e-02
-4.617274105548858643e-01
-1.341060698032379150e-01
-3.668930530548095703e-01
-2.984673678874969482e-01
1.461573392152786255e-01
-1.842061430215835571e-01
-8.717456459999084473e-02
-4.075947701930999756e-01
-3.186962008476257324e-01
4.281487688422203064e-02
-1.617866158485412598e-01
1.501059532165527344e-01
-1.648568212985992432e-01
-9.613544940948486328e-01
-8.314187824726104736e-02
3.595247864723205566e-02
-4.540861118584871292e-03
-7.302732765674591064e-02
-7.407949566841125488e-01
-1.612657010555267334e-01
2.261000499129295349e-02
7.070597261190414429e-02
1.563081145286560059e-01
-2.572344839572906494e-01
-3.098175227642059326e-01
-2.311693504452705383e-02
-3.357337042689323425e-02
-7.130153942853212357e-03
-1.086336839944124222e-02
1.354266107082366943e-01
-3.756773471832275391e-02
-4.104688391089439392e-02
-3.321956694126129150e-01
-1.998608559370040894e-01
6.574152410030364990e-02
8.797350525856018066e-02
3.959950804710388184e-01
-1.545941084623336792e-01
-4.584412574768066406e-01
-8.374363183975219727e-03
-6.241058185696601868e-02
-5.000393465161323547e-02
7.386794686317443848e-02
1.295931637287139893e-01
-1.318818777799606323e-01
5.530964955687522888e-02
6.803760305047035217e-03
2.105185762047767639e-02
4.495277628302574158e-02
-2.234563603997230530e-02
3.217819321434944868e-04
9.443629533052444458e-02
1.496580988168716431e-01
1.610573232173919678e-01
5.089603364467620850e-03
2.284020632505416870e-01
2.403689175844192505e-01
1.437538117170333862e-01
2.659326493740081787e-01
4.925237596035003662e-02
-1.275472063571214676e-02
7.132688909769058228e-02
8.455702103674411774e-03
-9.162705391645431519e-03
7.969541102647781372e-02
-4.645885527133941650e-01
-2.628899216651916504e-01
-2.782166749238967896e-02
-1.963724195957183838e-01
-9.273524582386016846e-02
-3.793979585170745850e-01
-5.426349043846130371e-01
-3.180231750011444092e-01
-2.266151905059814453e-01
-3.147079050540924072e-02
1.315776407718658447e-01
-3.435166925191879272e-02
1.458172351121902466e-01
1.413128376007080078e-01
3.784620761871337891e-01
1.812183558940887451e-01
2.535106847062706947e-03
-4.541067779064178467e-02
-2.011273987591266632e-02
6.301488727331161499e-02
2.448694556951522827e-01
-4.875126853585243225e-02
1.406869385391473770e-02
2.821643650531768799e-02
5.739644169807434082e-01
1.022076159715652466e-01
-1.061741858720779419e-01
-6.176958559080958366e-04
-7.369327545166015625e-02
2.894079983234405518e-01
-1.116823256015777588e-01
-6.736611574888229370e-02
2.384113706648349762e-02
3.127581253647804260e-02
2.323315292596817017e-01
-1.224746480584144592e-01
-2.638597786426544189e-02
-2.389392815530300140e-02
-7.991761900484561920e-03
2.269306182861328125e-01
-6.163195893168449402e-02
-9.178599715232849121e-02
-5.918784439563751221e-02
9.970509260892868042e-02
4.159233346581459045e-02
-1.362284179776906967e-03
-2.655144408345222473e-02
2.544414401054382324e-01
1.384864300489425659e-01
2.862774431705474854e-01
3.528910502791404724e-02
1.704154163599014282e-02
1.298727393150329590e-01
7.533430308103561401e-02
3.334525227546691895e-01
1.309919655323028564e-01
8.717305213212966919e-02
-8.041550964117050171e-02
-6.407061219215393066e-02
-7.800473272800445557e-02
1.005738158710300922e-03
-9.878570586442947388e-02
-4.976780712604522705e-02
-7.449959218502044678e-02
-2.909046038985252380e-02
-2.380867861211299896e-02
-9.013868868350982666e-02
-1.881317421793937683e-02
-5.258019641041755676e-02
1.101482957601547241e-01
-2.142460793256759644e-01
1.503555923700332642e-01
-6.059357523918151855e-02
-5.783442258834838867e-01
-1.305000633001327515e-01
-5.777373909950256348e-02
-1.459577679634094238e-01
-1.445735394954681396e-01
-1.130446940660476685e-01
6.856945902109146118e-02
-1.456013123970478773e-04
1.609273999929428101e-01
-1.021532118320465088e-01
-3.762656748294830322e-01
-2.234408259391784668e-01
-2.152954339981079102e-01
-2.070952951908111572e-01
-1.424301266670227051e-01
-1.805139482021331787e-01
-1.454138103872537613e-02
4.178467765450477600e-02
-1.765216141939163208e-01
-1.560672838240861893e-02
-9.527505189180374146e-02
1.062078960239887238e-02
7.653301954269409180e-02
3.545539677143096924e-01
8.409337997436523438e-01
4.678242504596710205e-01
-3.541987622156739235e-03
1.156661212444305420e-01
4.246005043387413025e-02
4.122901856899261475e-01
6.722054630517959595e-02
-1.819462031126022339e-01
1.977145075798034668e-01
1.001289561390876770e-01
8.426605165004730225e-02
-3.445057570934295654e-01
-4.219362735748291016e-01
4.705546051263809204e-02
1.083661243319511414e-01
2.873999439179897308e-02
-6.896000355482101440e-03
6.847612559795379639e-02
-9.108178317546844482e-02
-1.989746652543544769e-02
-1.012649387121200562e-01
-3.370617702603340149e-02
6.721822172403335571e-02
-2.969728708267211914e-01
-1.773037195205688477e+00
-2.563294649124145508e+00
-1.964906692504882812e+00
-5.806720256805419922e-01
-1.895488053560256958e-01
-9.420220851898193359e-01
-8.465422987937927246e-01
-3.929695785045623779e-01
-4.508410114794969559e-03
-8.304604142904281616e-02
5.826797336339950562e-02
7.169663906097412109e-02
8.635081350803375244e-02
-9.559652954339981079e-02
4.179741069674491882e-02
1.285344362258911133e-01
2.099158614873886108e-01
1.521664112806320190e-01
-3.516967222094535828e-02
-1.987904682755470276e-02
2.013318240642547607e-01
3.064306378364562988e-01
1.951094120740890503e-01
6.164659932255744934e-02
6.205376982688903809e-02
-2.725302577018737793e-01
-7.177078723907470703e-01
-2.279560267925262451e-01
-5.329588651657104492e-01
3.543604537844657898e-02
1.746728420257568359e-01
2.136154025793075562e-01
4.593369960784912109e-01
-1.207718774676322937e-01
-8.004811406135559082e-02
3.690342605113983154e-01
7.428586483001708984e-01
5.790175795555114746e-01
-7.155171036720275879e-02
-2.785952687263488770e-01
8.346671611070632935e-02
5.907844007015228271e-02
3.119758963584899902e-01
3.948462009429931641e-01
-1.266903430223464966e-01
-7.056754827499389648e-02
-3.370649516582489014e-01
-2.209976613521575928e-01
5.552886128425598145e-01
1.108024716377258301e-01
-3.637308999896049500e-02
1.138560846447944641e-01
8.194939047098159790e-02
1.791721209883689880e-02
3.808111883699893951e-03
6.001776829361915588e-02
2.115817070007324219e-01
1.692603230476379395e-01
1.048113033175468445e-01
-1.958952695131301880e-01
4.711828380823135376e-02
3.209946751594543457e-01
3.281439542770385742e-01
4.032021388411521912e-02
-2.289278209209442139e-01
-2.235158830881118774e-01
-1.333565115928649902e-01
2.613635361194610596e-01
2.320609986782073975e-01
-4.011585935950279236e-02
-1.151812300086021423e-01
-2.971186041831970215e-01
4.427276924252510071e-02
4.603809863328933716e-02
3.971320390701293945e-01
3.139701783657073975e-01
1.704843640327453613e-01
-2.725685834884643555e-01
-2.416786253452301025e-01
1.699083000421524048e-01
-8.334384113550186157e-02
1.781397461891174316e-01
1.668376624584197998e-01
-1.768243014812469482e-01
1.935746818780899048e-01
9.262120723724365234e-02
2.817904390394687653e-02
-9.152050316333770752e-02
-7.723342627286911011e-02
2.567194588482379913e-02
-1.122989691793918610e-02
-2.861357629299163818e-01
-8.018868416547775269e-02
-1.900361329317092896e-01
-4.857361316680908203e-03
-6.874560564756393433e-02
-2.565570473670959473e-01
-2.132239043712615967e-01
-2.295745760202407837e-01
-6.241340041160583496e-01
-5.466365218162536621e-01
-4.927650988101959229e-01
2.942921966314315796e-02
7.277808785438537598e-01
9.338071942329406738e-02
1.405598372220993042e-01
7.510618865489959717e-02
-7.682916522026062012e-02
-2.616238035261631012e-02
-6.591674685478210449e-02
-8.518541604280471802e-02
-8.793897181749343872e-02
-2.975699007511138916e-01
1.006687879562377930e-01
-1.471960451453924179e-03
1.247227340936660767e-01
4.544959589838981628e-02
-3.766221702098846436e-01
-4.637774825096130371e-02
-2.272177636623382568e-01
-1.861698776483535767e-01
1.013159975409507751e-01
3.989108502864837646e-01
-3.442333638668060303e-01
-1.778945624828338623e-01
-4.164563491940498352e-02
-6.988609582185745239e-02
1.520117670297622681e-01
-4.987835288047790527e-01
2.429302334785461426e-01
9.055953472852706909e-02
-2.527561783790588379e-01
-1.270687580108642578e-01
-7.627450674772262573e-02
9.929981827735900879e-02
-7.073564827442169189e-02
2.477269172668457031e-01
2.358005382120609283e-02
-3.090350031852722168e-01
1.146302651613950729e-02
-1.454419363290071487e-02
3.229516148567199707e-01
1.584124378859996796e-02
-1.318771839141845703e-01
-4.209370538592338562e-02
-9.376143105328083038e-03
-1.410675644874572754e-01
-1.646124124526977539e-01
-3.601631894707679749e-02
1.957954019308090210e-01
3.508156239986419678e-01
4.015135169029235840e-01
2.832348048686981201e-01
-2.530795931816101074e-01
6.677087396383285522e-02
-1.413254439830780029e-01
-7.266781479120254517e-02
-1.556998193264007568e-01
-1.967479288578033447e-02
-2.189090251922607422e-01
-5.147794634103775024e-02
-1.555598378181457520e-01
-7.713421434164047241e-02
6.227337196469306946e-02
-1.877814345061779022e-02
-1.581034064292907715e-01
-2.098234444856643677e-01
-1.314105987548828125e-01
-1.197789832949638367e-01
-2.304237186908721924e-01
-6.110356375575065613e-02
-2.752771787345409393e-02
4.138699918985366821e-02
-2.340669333934783936e-01
-4.540849030017852783e-01
-2.945118546485900879e-01
-1.369212716817855835e-01
2.341044098138809204e-01
2.411635406315326691e-02
-1.685648411512374878e-01
-1.064635813236236572e-01
-1.376209557056427002e-01
2.221135497093200684e-01
-2.300850674510002136e-02
-1.437098681926727295e-01
4.031544923782348633e-02
1.240141317248344421e-01
4.516282677650451660e-01
-4.965118691325187683e-02
-2.975786030292510986e-01
-1.001517102122306824e-01
5.485882759094238281e-01
7.653212547302246094e-01
-9.208516031503677368e-02
-6.444203257560729980e-01
-3.659504055976867676e-01
4.869167506694793701e-01
4.928124547004699707e-01
1.182734742760658264e-01
-1.418074220418930054e-01
1.169980689883232117e-02
1.694348156452178955e-01
4.791336506605148315e-02
-1.030589491128921509e-01
-2.043714523315429688e-01
-4.964359104633331299e-02
3.151800036430358887e-01
6.049336493015289307e-02
4.282393958419561386e-03
-1.929128915071487427e-01
6.882175803184509277e-02
2.462296187877655029e-01
-9.009815007448196411e-02
-1.621899604797363281e-01
-1.679064482450485229e-01
7.679145038127899170e-02
3.329868316650390625e-01
-2.170451432466506958e-01
-9.156117588281631470e-02
-3.385984599590301514e-01
1.369445472955703735e-01
3.883556127548217773e-01
-5.838223546743392944e-02
1.796362698078155518e-01
-3.753219246864318848e-01
-1.810211837291717529e-01
-1.220556572079658508e-01
6.429578643292188644e-03
1.055592373013496399e-01
-2.385381013154983521e-01
-3.630146756768226624e-02
1.216458380222320557e-01
1.656658016145229340e-02
2.069764137268066406e-01
-2.391835898160934448e-01
8.367558941245079041e-03
5.181545391678810120e-02
-1.564384102821350098e-01
8.111127465963363647e-02
-9.915411472320556641e-02
1.721953451633453369e-01
-8.184319734573364258e-02
-8.478026092052459717e-02
-2.893763594329357147e-02
1.910238862037658691e-01
2.870122194290161133e-01
6.406006868928670883e-04
7.903704047203063965e-02
-6.798052694648504257e-03
-8.714610934257507324e-01
-3.338589072227478027e-01
-7.700240612030029297e-02
-4.147996753454208374e-02
2.606693096458911896e-02
-2.236351817846298218e-01
1.479859799146652222e-01
-9.604717046022415161e-02
1.792148500680923462e-01
-1.540368981659412384e-02
-3.977087736129760742e-01
-6.537588685750961304e-02
-1.531380563974380493e-01
-4.382820799946784973e-02
8.754840493202209473e-02
-4.136314690113067627e-01
-2.558869719505310059e-01
1.117083579301834106e-01
-1.046139001846313477e-01
-2.328560501337051392e-02
3.874611556529998779e-01
3.606286644935607910e-01
4.956170320510864258e-01
-2.375994995236396790e-02
2.247828096151351929e-01
2.479015141725540161e-01
-1.921322047710418701e-01
-1.410273760557174683e-01
5.415825545787811279e-02
-6.973290443420410156e-02
7.237200438976287842e-02
-3.169693052768707275e-01
-3.278334438800811768e-01
-1.315369755029678345e-01
-1.849604845046997070e-01
8.436371386051177979e-02
-6.829002499580383301e-02
-2.611333429813385010e-01
-1.151675134897232056e-01
-1.637318283319473267e-01
3.522862866520881653e-02
-1.387748569250106812e-01
-2.912992835044860840e-01
8.643642067909240723e-02
-1.008113007992506027e-02
1.498401761054992676e-01
-2.330357879400253296e-01
-4.553544819355010986e-01
5.479694008827209473e-01
1.562619954347610474e-01
-2.322546392679214478e-02
3.282499313354492188e-02
1.424937397241592407e-01
-1.023782715201377869e-01
-1.044990345835685730e-01
-9.306891262531280518e-02
8.419004827737808228e-02
9.045033156871795654e-02
-9.376510232686996460e-02
-8.751432597637176514e-02
-2.673681676387786865e-01
-5.890871956944465637e-02
-3.709696233272552490e-02
-1.340772658586502075e-01
-1.651307940483093262e-01
-1.239607259631156921e-01
-5.901220068335533142e-02
5.462082102894783020e-02
-5.490779504179954529e-02
-6.832377612590789795e-02
3.440112769603729248e-01
8.059826493263244629e-02
2.126566469669342041e-01
3.114936053752899170e-01
-3.985880408436059952e-03
2.946079671382904053e-01
-6.537665128707885742e-01
-4.759562611579895020e-01
-2.122957706451416016e-01
1.071762964129447937e-01
1.698748022317886353e-01
-8.368250727653503418e-02
6.995277106761932373e-02
3.882244974374771118e-02
-5.601033940911293030e-02
-1.200449243187904358e-01
-2.267765551805496216e-01
-4.607269763946533203e-01
-2.633418440818786621e-01
2.181248217821121216e-01
-9.716097712516784668e-01
-4.517607390880584717e-01
-7.917486876249313354e-02
4.604454338550567627e-01
4.985745847225189209e-01
-7.849084734916687012e-01
-7.035575509071350098e-01
9.364974498748779297e-02
7.158256173133850098e-01
8.403595685958862305e-01
-1.038821488618850708e-01
-1.070033013820648193e-02
2.146295160055160522e-01
1.828949302434921265e-01
1.918800771236419678e-01
-4.045959562063217163e-02
-1.543676666915416718e-02
1.585560142993927002e-01
7.866641879081726074e-02
2.151481211185455322e-01
-8.533958345651626587e-02
1.468117237091064453e-01
8.273075520992279053e-02
5.139350518584251404e-02
2.421454340219497681e-01
-6.560248136520385742e-02
1.911110803484916687e-02
-1.036116927862167358e-01
1.157788485288619995e-01
1.637537032365798950e-01
-1.195316165685653687e-01
-1.364222019910812378e-01
3.543525934219360352e-02
3.661621809005737305e-01
-1.289045996963977814e-02
1.019934844225645065e-02
-7.223941385746002197e-02
-2.493956983089447021e-01
9.228461980819702148e-02
3.493540734052658081e-02
2.995572984218597412e-01
8.015212416648864746e-02
-1.890153288841247559e-01
9.880672395229339600e-02
-9.126802533864974976e-02
-2.724686264991760254e-02
-1.377922594547271729e-01
8.261442929506301880e-02
1.885637491941452026e-01
1.618268042802810669e-01
6.512070447206497192e-02
4.293693602085113525e-02
-7.911668717861175537e-02
-1.819670498371124268e-01
1.353493332862854004e-01
3.375174477696418762e-02
1.755704581737518311e-01
-8.048284053802490234e-02
-1.777846515178680420e-01
2.160396426916122437e-01
-5.979678034782409668e-01
-4.124185144901275635e-01
-8.835638165473937988e-01
-1.833207488059997559e+00
-7.026512622833251953e-01
-1.137000471353530884e-01
-3.211180269718170166e-01
-2.035663574934005737e-01
-6.834128499031066895e-01
-5.730295181274414062e-01
-3.353472054004669189e-02
-5.905812606215476990e-03
-4.950246959924697876e-02
-1.041673943400382996e-01
-3.893830478191375732e-01
-2.199564725160598755e-01
1.828788667917251587e-01
4.870123811997473240e-04
-1.201496124267578125e-01
-4.351968690752983093e-02
-3.578496873378753662e-01
-2.770005539059638977e-02
1.152598932385444641e-01
1.375795453786849976e-01
3.001791052520275116e-02
3.317733108997344971e-01
2.306563705205917358e-01
1.541765779256820679e-01
-2.139141708612442017e-01
1.341395527124404907e-01
-2.147909849882125854e-01
-2.421912401914596558e-01
-1.677113585174083710e-02
1.437132358551025391e-01
2.662955522537231445e-01
1.003587841987609863e-01
-9.074637293815612793e-02
-6.431456655263900757e-03
1.935082077980041504e-01
1.797515600919723511e-01
4.115138202905654907e-02
-2.008829265832901001e-01
-2.142872363328933716e-01
-5.890451371669769287e-02
2.196884453296661377e-01
-1.114389151334762573e-01
-1.170955225825309753e-01
-1.685502678155899048e-01
-8.687151968479156494e-02
2.074736729264259338e-02
5.040075257420539856e-02
1.653906106948852539e-01
-8.277679979801177979e-02
-5.502941608428955078e-01
-5.428043007850646973e-01
-7.424112409353256226e-02
-1.285134907811880112e-02
7.033946365118026733e-02
1.686833649873733521e-01
8.509355783462524414e-02
-3.756061941385269165e-02
1.587436906993389130e-02
1.459509432315826416e-01
5.656644329428672791e-02
2.634361945092678070e-02
-1.010085344314575195e-01
-4.483818262815475464e-02
1.882847696542739868e-01
1.872231066226959229e-01
5.721812322735786438e-02
-3.704869747161865234e-02
1.262083649635314941e-01
-1.627119779586791992e-01
-7.185085117816925049e-02
-1.382935196161270142e-01
-1.299435049295425415e-01
-2.365296036005020142e-01
-1.045699194073677063e-01
1.308889389038085938e-01
-3.526050746440887451e-01
-1.344776600599288940e-01
1.366372853517532349e-01
8.191437274217605591e-02
5.925491824746131897e-02
-4.273847341537475586e-01
-5.200465917587280273e-01
-2.949528396129608154e-01
-1.575594581663608551e-02
-6.728821247816085815e-02
-4.338190257549285889e-01
-1.119709685444831848e-01
1.419067531824111938e-01
4.519200325012207031e-01
1.144742444157600403e-01
1.645756140351295471e-02
-3.276257216930389404e-01
-1.274483054876327515e-01
2.861630022525787354e-01
7.736101746559143066e-02
-6.362959742546081543e-02
1.069159805774688721e-01
1.452726423740386963e-01
-1.196796968579292297e-01
-1.220563426613807678e-01
-6.959190219640731812e-02
-6.365513056516647339e-02
2.087354958057403564e-01
-2.973789721727371216e-02
2.506531961262226105e-02
-4.777904227375984192e-02
2.883177436888217926e-02
3.037084639072418213e-01
-1.440799534320831299e-01
-1.725438088178634644e-01
-3.518022298812866211e-01
1.359672285616397858e-02
3.099134266376495361e-01
3.621405735611915588e-02
2.459206134080886841e-01
-2.677015066146850586e-01
-1.086686998605728149e-01
9.608771651983261108e-02
-3.223102912306785583e-02
2.807376384735107422e-01
-2.848632633686065674e-01
-1.442861855030059814e-01
-1.278112735599279404e-02
-1.840426400303840637e-02
1.893501728773117065e-01
1.529000550508499146e-01
-2.247175201773643494e-02
-1.569540798664093018e-01
-1.487803831696510315e-02
1.292005330324172974e-01
-2.732658758759498596e-02
-1.189770996570587158e-01
-5.961233749985694885e-02
4.072224721312522888e-02
2.669882476329803467e-01
-5.367999896407127380e-02
4.114317893981933594e-02
2.536474466323852539e-01
7.728349417448043823e-02
1.120674759149551392e-01
8.961506932973861694e-02
-1.871368438005447388e-01
3.909197449684143066e-01
1.799222230911254883e-01
-5.729158595204353333e-02
-9.260033816099166870e-02
-2.463615089654922485e-01
-9.960679709911346436e-02
-1.647251546382904053e-01
-7.096580266952514648e-01
-6.130850911140441895e-01
2.727643847465515137e-01
-6.097866967320442200e-02
-5.866872519254684448e-02
-3.450730443000793457e-01
-1.080932691693305969e-01
2.829529941082000732e-01
2.898319996893405914e-02
-1.026173755526542664e-01
1.818981766700744629e-01
-2.522924840450286865e-01
1.931287907063961029e-02
-9.643574804067611694e-02
-2.738799750804901123e-01
1.258019451051950455e-02
-1.108586192131042480e-01
2.851831614971160889e-01
3.014824390411376953e-01
-1.865770965814590454e-01
-2.859137058258056641e-01
2.518073022365570068e-01
2.083774358034133911e-01
1.378124356269836426e-01
1.158838346600532532e-01
2.662427127361297607e-01
2.439648061990737915e-01
-1.286409348249435425e-01
-1.942169070243835449e-01
1.635047346353530884e-01
3.940925896167755127e-01
5.231348052620887756e-02
2.454976178705692291e-02
-7.334659993648529053e-02
4.820786416530609131e-02
1.942700892686843872e-01
-8.896222710609436035e-02
-8.613344281911849976e-03
4.475621506571769714e-02
1.214633658528327942e-01
1.088726073503494263e-01
-1.817218214273452759e-01
-9.765945374965667725e-02
-9.376594424247741699e-02
7.771808654069900513e-02
9.325163811445236206e-02
-1.187443267554044724e-03
1.783302426338195801e-01
2.471678256988525391e-01
-8.758885413408279419e-02
-7.908348925411701202e-03
-2.118164002895355225e-01
-2.952093258500099182e-02
7.933731377124786377e-02
1.121939271688461304e-01
2.026033103466033936e-01
2.517332136631011963e-01
-1.277168467640876770e-02
7.689353078603744507e-02
-7.142040878534317017e-02
-2.061005085706710815e-01
-1.924029737710952759e-01
1.436260621994733810e-02
7.826782763004302979e-02
-2.703519761562347412e-01
-1.206863760948181152e+00
-1.999647378921508789e+00
1.844187974929809570e-01
8.965388685464859009e-02
-5.973569750785827637e-01
-3.796938419342041016e+00
-2.978148698806762695e+00
-5.435596778988838196e-02
-3.573567839339375496e-03
-3.675751388072967529e-02
4.936469718813896179e-02
-6.670676171779632568e-02
5.895893648266792297e-02
-7.033523172140121460e-02
1.379669457674026489e-01
9.038055688142776489e-02
1.020747497677803040e-01
-5.058879405260086060e-02
-1.417262107133865356e-01
1.003501415252685547e-01
1.385720074176788330e-01
-2.563832700252532959e-01
-3.241479694843292236e-01
-1.154052391648292542e-01
-2.465329915285110474e-01
-6.707917451858520508e-01
-2.119399011135101318e-01
-4.236297011375427246e-01
2.308775633573532104e-01
9.877312928438186646e-02
-1.224740892648696899e-01
-1.984330415725708008e-01
-3.965887725353240967e-01
-2.050949782133102417e-01
3.375543951988220215e-01
4.661534354090690613e-02
-1.678517758846282959e-01
-2.455467283725738525e-01
1.461820900440216064e-01
2.056406140327453613e-01
-2.659650444984436035e-01
-3.650730252265930176e-01
-4.091327190399169922e-01
-5.772812664508819580e-02
1.311010215431451797e-02
-3.302606940269470215e-01
-8.243573457002639771e-02
-8.415741031058132648e-04
-1.362988501787185669e-01
5.102682486176490784e-02
-5.128940567374229431e-03
-6.015385314822196960e-02
1.017762199044227600e-01
-5.902850069105625153e-03
1.348023395985364914e-02
9.456237405538558960e-02
-5.554131232202053070e-03
2.315185032784938812e-02
2.816407382488250732e-01
1.007341295480728149e-01
1.298695504665374756e-01
2.596651948988437653e-02
3.304725745692849159e-03
5.872406437993049622e-02
-7.179126143455505371e-02
-2.060405444353818893e-03
-1.075739264488220215e-01
1.214458495378494263e-01
-3.275644266977906227e-03
-1.231386736035346985e-01
-2.209117263555526733e-02
1.063094139099121094e-01
2.408901304006576538e-01
8.665122091770172119e-02
-3.239209763705730438e-03
5.561320111155509949e-02
1.519879326224327087e-02
5.293118953704833984e-01
2.209257930517196655e-01
1.276298463344573975e-01
9.703809022903442383e-02
1.105489432811737061e-01
2.803001105785369873e-01
1.289603263139724731e-01
1.349338889122009277e-01
-6.112169027328491211e-01
-2.309162616729736328e+00
-5.741950497031211853e-02
-1.306821778416633606e-02
-1.999707706272602081e-02
-1.468672752380371094e+00
-1.341474533081054688e+00
2.990454137325286865e-01
2.643037140369415283e-01
-2.388042807579040527e-01
-1.482728242874145508e+00
-7.046697735786437988e-01
1.416126340627670288e-01
-3.336013853549957275e-02
-1.533246487379074097e-01
-8.730995655059814453e-01
-2.846930027008056641e-01
-6.467939615249633789e-01
-6.917841434478759766e-01
-8.434529900550842285e-01
-1.418017625808715820e+00
-3.390851914882659912e-01
1.756532490253448486e-02
3.065131977200508118e-02
8.534291386604309082e-02
1.117376461625099182e-01
2.850053012371063232e-01
3.454307839274406433e-02
-3.500745445489883423e-02
1.631702855229377747e-02
1.397951841354370117e-01
2.737537398934364319e-02
1.127543672919273376e-02
-1.012129932641983032e-01
-2.930749580264091492e-02
8.489252626895904541e-02
-1.684257201850414276e-02
8.473264425992965698e-02
2.828180603682994843e-02
-1.566888391971588135e-01
-3.115864098072052002e-02
-1.450532767921686172e-02
2.426952421665191650e-01
-2.178338170051574707e-01
-2.478246092796325684e-01
4.760005511343479156e-03
5.550731718540191650e-02
-7.748898351565003395e-04
2.717141807079315186e-01
4.491554200649261475e-01
-5.580831319093704224e-02
-2.846342921257019043e-01
-5.312436819076538086e-02
7.267060130834579468e-02
6.656707823276519775e-02
4.694722220301628113e-02
4.482409730553627014e-02
-1.927595436573028564e-01
-5.202570557594299316e-02
1.916150748729705811e-02
4.270695149898529053e-02
-6.139519810676574707e-02
-2.042693048715591431e-01
-1.884551048278808594e-01
-2.584308944642543793e-02
-4.119545221328735352e-03
1.061510574072599411e-02
-3.321145176887512207e-01
-3.746373057365417480e-01
-1.578965783119201660e-01
-1.281874775886535645e-01
-8.205728977918624878e-02
-6.922626495361328125e-02
3.793807700276374817e-02
-1.376014500856399536e-01
-1.674277186393737793e-01
-5.550836399197578430e-02
-2.999744117259979248e-01
6.493817083537578583e-03
8.721865713596343994e-02
4.368311166763305664e-02
-7.022566627711057663e-03
-1.069264262914657593e-01
5.055217072367668152e-02
-5.484047532081604004e-02
-1.043267920613288879e-02
-3.277149051427841187e-03
2.857644557952880859e-01
-1.016039326786994934e-01
-5.328466370701789856e-02
-1.152885034680366516e-01
-1.182917356491088867e-01
2.136987596750259399e-01
1.418810039758682251e-01
1.982323452830314636e-02
5.001119337975978851e-03
1.529160290956497192e-01
7.728855311870574951e-02
1.004376336932182312e-01
8.653475344181060791e-02
-1.058465391397476196e-01
3.580471277236938477e-01
3.283494114875793457e-01
-1.431616991758346558e-01
-2.683176994323730469e-01
-2.490985542535781860e-01
8.770861476659774780e-02
3.642938137054443359e-01
-8.780466020107269287e-02
-3.351861834526062012e-01
1.032455544918775558e-02
1.534439474344253540e-01
4.249191880226135254e-01
-9.213154762983322144e-02
-1.983081400394439697e-01
2.726083695888519287e-01
1.791960746049880981e-01
4.274334013462066650e-01
-2.990776440128684044e-03
-1.274444460868835449e-01
3.047062158584594727e-01
1.580440998077392578e-01
3.479093611240386963e-01
3.860635682940483093e-02
1.743444986641407013e-02
-4.649288654327392578e-01
-1.942680329084396362e-01
9.704332798719406128e-02
-9.787353128194808960e-02
-3.060037493705749512e-01
-2.426791936159133911e-01
2.236031442880630493e-01
2.195991389453411102e-02
2.477346174418926239e-02
-1.855657435953617096e-02
-2.097546905279159546e-01
1.307405233383178711e-01
-3.906134068965911865e-01
1.075298041105270386e-01
2.142951786518096924e-01
3.052000403404235840e-01
2.897940576076507568e-01
-1.953270137310028076e-01
-1.988788396120071411e-01
3.184888511896133423e-02
7.824667543172836304e-02
1.950940489768981934e-01
-6.481201946735382080e-02
-4.239134490489959717e-01
1.077918112277984619e-01
2.914179265499114990e-01
4.013957977294921875e-01
-1.952802538871765137e-01
-1.920066177845001221e-01
2.886502072215080261e-02
1.384293437004089355e-01
1.681181043386459351e-01
-1.347917225211858749e-02
3.870718181133270264e-02
-2.388848215341567993e-01
1.705438941717147827e-01
1.706135869026184082e-01
-2.426803261041641235e-01
-2.440006658434867859e-02
-7.508404552936553955e-02
6.103100627660751343e-02
2.898703515529632568e-01
1.685915738344192505e-01
-5.183310508728027344e-01
-1.993827670812606812e-01
5.030218511819839478e-02
-9.777439758181571960e-03
-8.783399313688278198e-02
-5.713286399841308594e-01
-2.037131488323211670e-01
1.347444951534271240e-01
4.925005137920379639e-02
-1.258550025522708893e-02
-2.445448637008666992e-01
-1.998528838157653809e-01
-1.042550727725028992e-01
-1.967720687389373779e-01
-1.041996553540229797e-01
2.727242000401020050e-02
-1.797105818986892700e-01
-1.640680283308029175e-01
-1.324089914560317993e-01
1.050927489995956421e-01
2.575463950634002686e-01
-3.885355889797210693e-01
-8.717280626296997070e-02
5.164312943816184998e-02
-1.305503398180007935e-01
3.416518270969390869e-01
-3.576089814305305481e-02
6.118666380643844604e-02
2.235948294401168823e-01
-2.261989116668701172e-01
-3.403412997722625732e-01
1.652745008468627930e-01
2.718942761421203613e-01
9.343067556619644165e-02
-3.912793993949890137e-01
-2.931958734989166260e-01
-2.387661188840866089e-01
-1.209854930639266968e-01
4.407164826989173889e-02
-2.565805613994598389e-01
-4.624189138412475586e-01
-6.424215435981750488e-01
-9.743802994489669800e-02
-1.380923688411712646e-01
1.011578440666198730e-01
-5.643494799733161926e-02
-2.611915767192840576e-01
-3.501637279987335205e-01
-2.624097168445587158e-01
4.022708237171173096e-01
4.075035750865936279e-01
-3.936125934123992920e-01
-6.670700907707214355e-01
-4.997826516628265381e-01
3.165875971317291260e-01
2.145965695381164551e-01
-3.470134735107421875e-02
1.904343217611312866e-01
1.502572745084762573e-01
-1.558204879984259605e-03
3.088763952255249023e-01
1.422187238931655884e-01
-6.672984361648559570e-02
1.153700277209281921e-01
2.071434445679187775e-02
2.497424632310867310e-01
1.830390542745590210e-01
2.859344147145748138e-02
5.911549925804138184e-02
1.049711406230926514e-01
3.979532048106193542e-02
-3.656651377677917480e-01
-4.942468702793121338e-01
-4.784930050373077393e-01
4.940646290779113770e-01
5.819844081997871399e-02
-3.100927174091339111e-01
-2.876549065113067627e-01
-1.008701249957084656e-01
3.155450820922851562e-01
3.352150693535804749e-02
-5.416683852672576904e-02
1.176114901900291443e-01
1.548665463924407959e-01
1.763770133256912231e-01
7.646179199218750000e-02
-4.821283742785453796e-02
-4.388340190052986145e-02
1.494255512952804565e-01
3.266753256320953369e-01
2.493094652891159058e-02
7.360985130071640015e-02
-6.380607187747955322e-02
1.423124223947525024e-01
3.097008764743804932e-01
1.314990781247615814e-02
-3.276467695832252502e-02
-1.366131752729415894e-01
2.128045819699764252e-02
3.116734027862548828e-01
-1.165813952684402466e-01
-1.661935746669769287e-01
-8.888511359691619873e-02
7.946513593196868896e-02
1.124622672796249390e-01
-1.021794676780700684e-01
4.589880257844924927e-02
1.574857085943222046e-01
3.217754364013671875e-01
2.344189882278442383e-01
-8.355339057743549347e-03
-2.674660831689834595e-02
9.273318201303482056e-02
1.017646491527557373e-01
2.233081730082631111e-03
-1.161129325628280640e-01
4.281709715723991394e-02
5.809187889099121094e-02
1.442616879940032959e-01
1.610123515129089355e-01
3.464676439762115479e-02
1.018410399556159973e-01
1.451646834611892700e-01
3.655706048011779785e-01
-8.913749456405639648e-02
1.112528983503580093e-02
1.978698521852493286e-01
1.285558342933654785e-01
1.869241446256637573e-01
6.851055473089218140e-02
4.306968301534652710e-02
9.320203959941864014e-02
1.725055091083049774e-02
2.697101235389709473e-01
1.671781837940216064e-01
1.194116249680519104e-01
-6.084160879254341125e-02
-2.354610860347747803e-01
9.969032555818557739e-02
-2.602138519287109375e-01
-2.951500415802001953e-01
-1.929504722356796265e-01
-1.100230589509010315e-01
3.851264342665672302e-02
-8.733372390270233154e-02
-1.795155229046940804e-03
1.632740944623947144e-01
8.871813863515853882e-02
6.166188418865203857e-02
-3.968118727207183838e-01
-2.748186141252517700e-02
-1.270898878574371338e-01
2.773027680814266205e-02
-3.416839540004730225e-01
2.147973328828811646e-01
3.063507564365863800e-02
-3.257180005311965942e-02
-1.581022292375564575e-01
-2.057067304849624634e-01
-1.036166623234748840e-01
-6.410079076886177063e-03
5.617248266935348511e-02
1.451209485530853271e-01
-4.170314967632293701e-01
-8.070548623800277710e-02
-4.770598188042640686e-02
5.225304514169692993e-02
1.356498617678880692e-02
-2.220479995012283325e-01
-1.481687128543853760e-01
-9.899058938026428223e-02
-1.080351881682872772e-02
9.087230265140533447e-02
-4.461211338639259338e-02
-2.567844986915588379e-01
6.121171265840530396e-02
2.770931087434291840e-02
-7.817094773054122925e-02
-4.645664095878601074e-01
1.925903856754302979e-01
2.457062005996704102e-01
-2.389087155461311340e-02
-4.663513898849487305e-01
-4.548215866088867188e-01
-9.739013016223907471e-02
-3.516669571399688721e-02
3.584485873579978943e-02
-1.750040799379348755e-01
-1.531830728054046631e-01
4.228165373206138611e-02
-6.424699444323778152e-03
-8.852729201316833496e-02
-6.647766381502151489e-02
7.362479716539382935e-02
-7.532437890768051147e-02
5.295082461088895798e-03
-2.518605068325996399e-02
4.194011911749839783e-03
1.198294311761856079e-01
-6.187207531183958054e-03
4.653731361031532288e-02
-8.803423494100570679e-02
-1.299790889024734497e-01
-1.700046360492706299e-01
-2.296059951186180115e-02
2.407387830317020416e-02
6.956385076045989990e-02
7.957247644662857056e-02
-2.194516509771347046e-01
-1.729286909103393555e-01
-3.788964450359344482e-02
-1.204088926315307617e-01
-6.538221240043640137e-02
-1.956688910722732544e-01
2.547346949577331543e-01
4.938185214996337891e-02
-6.648650765419006348e-02
-2.304099053144454956e-01
-1.364195048809051514e-01
3.014537096023559570e-01
8.344497531652450562e-02
1.256478130817413330e-01
-1.756689995527267456e-01
-8.270054124295711517e-03
1.245106458663940430e-01
8.244567364454269409e-02
6.868905574083328247e-02
7.492852956056594849e-02
8.561138808727264404e-02
-4.387144371867179871e-02
2.041908353567123413e-01
1.680945903062820435e-01
-1.745070447213947773e-03
-1.259194612503051758e-01
-2.138034850358963013e-01
-5.100647360086441040e-02
1.626922786235809326e-01
-1.437744796276092529e-01
-4.979276284575462341e-02
-2.269830256700515747e-01
-3.752532973885536194e-02
1.316992193460464478e-01
3.237074241042137146e-02
1.540262848138809204e-01
-2.559269545599818230e-03
3.938533365726470947e-02
1.042768582701683044e-01
-6.231869012117385864e-02
2.322942018508911133e-02
2.423550374805927277e-02
4.155529290437698364e-02
1.406329572200775146e-01
1.195656321942806244e-02
8.003029972314834595e-02
-7.374881953001022339e-02
-3.459442555904388428e-01
-3.607632517814636230e-01
1.065481454133987427e-01
1.845949888229370117e-01
-7.993358373641967773e-01
-4.555265307426452637e-01
-1.197018846869468689e-02
2.790253795683383942e-02
7.455529272556304932e-02
-3.303788006305694580e-01
-3.705492019653320312e-01
-1.206948608160018921e-01
1.972920745611190796e-01
4.239039123058319092e-01
7.172954734414815903e-03
-1.472455859184265137e-01
-1.139445751905441284e-01
-1.398429553955793381e-02
2.098507434129714966e-01
7.652725279331207275e-02
-1.029959022998809814e-01
-2.270085737109184265e-02
6.487521529197692871e-02
9.547122567892074585e-02
-4.857004582881927490e-01
5.691589117050170898e-01
7.012826204299926758e-01
2.654859423637390137e-01
8.855799585580825806e-02
-1.784851551055908203e-01
-2.838193774223327637e-01
-9.223138093948364258e-01
-8.216205239295959473e-01
-1.598829478025436401e-01
-5.822007656097412109e-01
-1.141092404723167419e-01
-5.457896590232849121e-01
-5.973846912384033203e-01
-3.343127071857452393e-01
-6.845284104347229004e-01
-7.880022525787353516e-01
-1.107832431793212891e+00
-7.669905424118041992e-01
-4.473543763160705566e-01
-2.017771154642105103e-01
-7.161642313003540039e-01
-1.092130422592163086e+00
-7.143516540527343750e-01
-2.362480312585830688e-01
-5.287965536117553711e-01
-1.441004425287246704e-01
-3.416778445243835449e-01
9.818420559167861938e-02
3.045965917408466339e-02
-4.186476022005081177e-02
-2.565879821777343750e-01
-2.801171541213989258e-01
1.633097231388092041e-01
3.485131859779357910e-01
3.966417312622070312e-01
1.657347194850444794e-02
-1.775120198726654053e-02
1.900963187217712402e-01
-1.030284091830253601e-01
3.271411955356597900e-01
-1.785267516970634460e-02
5.483070388436317444e-02
5.203122645616531372e-02
9.488939493894577026e-02
1.368697434663772583e-01
-7.228446751832962036e-02
-1.653886213898658752e-02
-8.629538863897323608e-02
-2.405180968344211578e-02
1.093476414680480957e-01
5.502136349678039551e-01
4.641724228858947754e-01
-1.749179698526859283e-02
-2.175535559654235840e-01
-1.897646039724349976e-01
-1.431004703044891357e-01
-1.920483112335205078e-01
-1.444656699895858765e-01
2.098157070577144623e-02
-6.627388298511505127e-02
1.074872985482215881e-01
-1.160667091608047485e-02
-5.718144588172435760e-03
8.905142545700073242e-03
-1.083858385682106018e-01
1.494176834821701050e-01
9.840911626815795898e-02
-4.522857069969177246e-02
3.198829665780067444e-02
-2.767087221145629883e-01
1.424565017223358154e-01
-8.830110728740692139e-02
-2.053350508213043213e-01
-7.164346426725387573e-02
-1.421332359313964844e-01
-3.253780901432037354e-01
-2.757548689842224121e-01
-6.231154799461364746e-01
7.245460897684097290e-02
-6.419151276350021362e-02
-1.995024532079696655e-01
1.296352893114089966e-01
-3.793809115886688232e-01
-2.732689380645751953e-01
-4.509970173239707947e-02
2.145305722951889038e-01
2.147362232208251953e-01
-6.308073401451110840e-01
-3.641105592250823975e-01
1.586647629737854004e-01
3.698763549327850342e-01
5.246200561523437500e-01
-6.737713813781738281e-01
-9.931622743606567383e-01
2.212993800640106201e-01
7.349602580070495605e-01
9.087871313095092773e-01
-6.170437335968017578e-01
-9.159277081489562988e-01
8.722757920622825623e-03
1.449430435895919800e-01
2.344862073659896851e-01
1.667260676622390747e-01
-3.790483996272087097e-02
-4.431632533669471741e-02
1.296285688877105713e-01
1.079640761017799377e-01
-4.743490368127822876e-02
-1.152803897857666016e-01
-1.399416774511337280e-01
4.723324626684188843e-02
9.504697471857070923e-02
-6.091142818331718445e-02
-1.274743676185607910e-01
-3.293410874903202057e-03
-4.541998729109764099e-02
1.228605136275291443e-01
-1.963764280080795288e-01
-1.549017727375030518e-01
1.874812245368957520e-01
7.606485486030578613e-02
4.571886658668518066e-01
-2.387612909078598022e-01
-5.605590939521789551e-01
1.806259453296661377e-01
-2.180499881505966187e-01
-1.418913006782531738e-01
1.646692007780075073e-01
1.782778501510620117e-01
5.602796003222465515e-02
-5.289039388298988342e-02
1.243796013295650482e-02
3.570185601711273193e-02
-3.700282573699951172e-01
2.228046022355556488e-02
-1.314080804586410522e-01
2.122483775019645691e-02
1.077124923467636108e-01
-1.682091802358627319e-01
2.332266420125961304e-02
-2.626164071261882782e-02
-1.763316057622432709e-02
-1.261469069868326187e-02
-2.819278538227081299e-01
-8.924911916255950928e-02
-9.966179728507995605e-02
-3.154212534427642822e-01
-3.881317973136901855e-01
-5.784934759140014648e-01
-3.272877335548400879e-01
9.626001864671707153e-02
2.228258252143859863e-01
1.067644208669662476e-01
2.729163169860839844e-01
2.996074855327606201e-01
-5.963486153632402420e-03
-1.101019680500030518e-01
-1.482905149459838867e-01
-4.035687819123268127e-02
6.498934328556060791e-02
-8.362562954425811768e-02
-7.284162938594818115e-02
-4.108799621462821960e-02
3.132156655192375183e-02
-5.827372521162033081e-02
-2.918550558388233185e-02
-1.540118604898452759e-01
6.252966076135635376e-02
-3.081039711833000183e-02
-2.948727011680603027e-01
1.995362788438796997e-01
6.874345242977142334e-02
2.034024745225906372e-01
2.377367019653320312e-01
2.043311148881912231e-01
2.045076638460159302e-01
-1.994282305240631104e-01
-3.055700659751892090e-01
2.024970203638076782e-01
9.215024858713150024e-02
-2.357311248779296875e-01
-1.839675158262252808e-01
-1.409476250410079956e-01
1.392263323068618774e-01
-8.062030375003814697e-02
-9.732629358768463135e-02
-3.118208795785903931e-02
-1.442457735538482666e-01
-2.404592186212539673e-02
3.714787960052490234e-02
-5.868825316429138184e-02
-7.633188366889953613e-02
5.576680600643157959e-02
8.304351568222045898e-02
-8.910226076841354370e-02
-7.258111983537673950e-02
1.336548030376434326e-01
2.323918044567108154e-01
-2.632130980491638184e-01
1.352765262126922607e-01
5.137144774198532104e-02
3.267155215144157410e-02
-9.580148011445999146e-02
-2.179777808487415314e-02
-1.498413681983947754e-01
-5.308869853615760803e-02
-2.059741131961345673e-02
9.823506698012351990e-03
-4.394839331507682800e-02
-7.429967820644378662e-02
-2.460905350744724274e-02
-7.141757756471633911e-02
-1.325880289077758789e-01
-6.228950247168540955e-02
-1.330999378114938736e-02
2.818689495325088501e-02
-7.734807580709457397e-02
-1.136967390775680542e-01
-8.213607966899871826e-02
-3.723827376961708069e-02
1.520240399986505508e-02
2.079896926879882812e-01
4.001852869987487793e-01
1.972505003213882446e-01
4.080541804432868958e-02
5.575883388519287109e-01
2.365573048591613770e-01
4.778326153755187988e-01
7.599543333053588867e-01
-5.714018344879150391e-01
-2.175246328115463257e-01
-5.325092077255249023e-01
-3.249307870864868164e-01
-2.873713672161102295e-01
7.546184211969375610e-02
2.845551818609237671e-02
-1.456067562103271484e-01
6.206189095973968506e-02
1.616580486297607422e-01
4.146495088934898376e-02
-1.997295767068862915e-02
-2.461133301258087158e-01
-1.197962410515174270e-04
-1.646886020898818970e-01
-1.167046055197715759e-01
7.408487051725387573e-02
-2.421642541885375977e-01
1.147672981023788452e-01
-2.907716631889343262e-01
-1.175998151302337646e-01
3.363231196999549866e-02
6.725589185953140259e-02
2.200665026903152466e-01
-1.303147673606872559e-01
-1.158527582883834839e-01
1.732793301343917847e-01
3.564998134970664978e-02
4.806041345000267029e-02
-3.898780792951583862e-02
-3.981344401836395264e-02
2.865046858787536621e-01
3.364713117480278015e-02
1.105940714478492737e-01
2.803413942456245422e-02
-2.496015131473541260e-01
2.523747980594635010e-01
-2.335754483938217163e-01
6.269170343875885010e-02
-1.748473644256591797e-01
-5.525657534599304199e-01
3.060901761054992676e-01
-4.616487622261047363e-01
-8.202062547206878662e-02
-2.193571627140045166e-01
-3.355016559362411499e-02
-2.272922098636627197e-01
-9.400025010108947754e-02
8.126093447208404541e-02
3.379147648811340332e-01
-3.217853978276252747e-02
1.038931012153625488e-01
-6.524237245321273804e-02
1.760712713003158569e-01
2.043838948011398315e-01
-2.912626266479492188e-01
1.831220537424087524e-01
-1.319267749786376953e-01
2.179402858018875122e-01
1.679915785789489746e-01
-5.571531057357788086e-01
-9.803912043571472168e-02
-2.986225187778472900e-01
3.039955496788024902e-01
-1.539694704115390778e-02
-4.835687279701232910e-01
-4.980599880218505859e-01
-3.598218858242034912e-01
5.587359517812728882e-02
6.452501751482486725e-03
-2.988728582859039307e-01
-1.783219128847122192e-01
-1.638371348381042480e-01
3.801288902759552002e-01
4.354961514472961426e-01
2.419029027223587036e-01
6.471820920705795288e-02
-4.196840524673461914e-02
1.849647164344787598e-01
-1.259378790855407715e-01
-1.060341522097587585e-01
-6.116725131869316101e-02
-4.423382282257080078e-01
-3.225747644901275635e-01
-3.511531651020050049e-01
-3.587801754474639893e-02
-4.026243835687637329e-02
-2.545336484909057617e-01
-2.403003275394439697e-01
-2.547710761427879333e-02
4.716660678386688232e-01
3.758406341075897217e-01
2.471451163291931152e-01
-8.503810316324234009e-02
-2.769607305526733398e-01
6.917283684015274048e-02
-1.491084545850753784e-01
9.742136113345623016e-03
-2.417847886681556702e-02
-7.998710870742797852e-02
-1.497546210885047913e-03
-1.094097271561622620e-01
-4.039296135306358337e-02
-8.491489291191101074e-02
-3.517030924558639526e-02
9.398970752954483032e-03
1.525601595640182495e-01
1.291952878236770630e-01
2.496526762843132019e-02
1.450352072715759277e-01
7.809969782829284668e-02
-4.751931503415107727e-02
-1.328245829790830612e-02
-5.991366878151893616e-02
8.210380375385284424e-02
-5.788838118314743042e-02
-2.310273945331573486e-01
1.032113879919052124e-01
-1.220582276582717896e-01
-1.352611780166625977e-01
1.960174590349197388e-01
-7.355162501335144043e-02
1.039172522723674774e-02
3.542480170726776123e-01
2.324223369359970093e-01
4.499180242419242859e-02
4.222711082547903061e-03
1.377746909856796265e-01
-6.342471390962600708e-02
-9.565621614456176758e-02
-7.905955426394939423e-03
7.714389264583587646e-02
-5.168505758047103882e-02
-1.371948122978210449e-01
-1.280870735645294189e-01
3.138051927089691162e-02
4.862589761614799500e-02
-3.141375631093978882e-02
-2.596076764166355133e-02
-1.077852696180343628e-01
3.424729704856872559e-01
2.175854444503784180e-01
2.876675426959991455e-01
-1.281181722879409790e-01
-9.096179902553558350e-02
8.466289937496185303e-02
4.153508543968200684e-01
7.715230584144592285e-01
3.579300343990325928e-01
1.415190100669860840e-01
-4.195969924330711365e-02
1.018685325980186462e-01
3.347238004207611084e-01
-1.064347773790359497e-01
-2.497615292668342590e-02
-5.134785920381546021e-02
9.335213899612426758e-02
8.330025523900985718e-02
-1.953455805778503418e-01
-1.400439441204071045e-01
4.251211509108543396e-02
-9.332483634352684021e-03
-6.789944320917129517e-02
-1.095066890120506287e-01
8.481752127408981323e-02
4.510549362748861313e-03
-4.959196597337722778e-02
-4.849330335855484009e-02
-7.823438942432403564e-02
-1.380082592368125916e-02
-6.823118329048156738e-01
-1.740630626678466797e+00
-1.052011013031005859e+00
1.355574280023574829e-01
1.754362508654594421e-02
-3.503606617450714111e-01
-4.712239205837249756e-01
-4.161251187324523926e-01
3.698254749178886414e-02
6.152318418025970459e-02
-7.658611983060836792e-02
-1.408301293849945068e-03
3.805584460496902466e-02
2.381191775202751160e-02
-1.642395742237567902e-02
-1.179863978177309036e-02
-5.546038225293159485e-02
-5.720511078834533691e-02
-2.107700332999229431e-03
1.978980302810668945e-01
-1.557669192552566528e-01
-7.621532678604125977e-02
6.832848303020000458e-03
-5.211033299565315247e-02
-1.221125107258558273e-02
-3.828065395355224609e-01
2.335097342729568481e-01
4.207150638103485107e-01
5.031952261924743652e-02
-1.310271793045103550e-03
5.671459808945655823e-02
9.995852410793304443e-02
2.016353309154510498e-01
1.275792121887207031e-01
1.052979752421379089e-01
3.157058060169219971e-01
2.104046493768692017e-01
4.466516838874667883e-04
1.223883628845214844e-01
-6.073176115751266479e-02
1.616839468479156494e-01
7.129760831594467163e-02
-4.916927777230739594e-03
2.504385113716125488e-01
1.189552843570709229e-01
2.545688450336456299e-01
7.847367227077484131e-02
1.028784066438674927e-01
1.979291290044784546e-01
7.857165485620498657e-02
1.246254369616508484e-01
6.684350967407226562e-01
-2.929955124855041504e-01
1.732044108211994171e-02
-1.112597882747650146e-01
1.447139382362365723e-01
2.583755254745483398e-01
-1.502314805984497070e-01
-4.816698655486106873e-02
-6.272879242897033691e-02
-1.617848873138427734e-01
5.532782897353172302e-02
3.330617328174412251e-04
-2.702124416828155518e-02
2.416956424713134766e-02
-8.105774968862533569e-02
-1.389046479016542435e-02
6.629147380590438843e-02
-4.998699575662612915e-02
1.232974324375391006e-02
-3.279181718826293945e-01
3.718872740864753723e-02
2.441336065530776978e-01
-1.940572857856750488e-01
-3.283618986606597900e-01
-6.183817982673645020e-01
-1.693828254938125610e-01
-1.721513569355010986e-01
1.875133067369461060e-02
-4.590815901756286621e-01
-3.333162367343902588e-01
-2.675572335720062256e-01
7.753070443868637085e-02
4.898649081587791443e-02
-9.556814283132553101e-02
2.338803932070732117e-02
-1.814992167055606842e-02
6.697310507297515869e-02
1.342957019805908203e-01
1.771924644708633423e-01
6.854787468910217285e-02
-2.214445173740386963e-01
-1.366835534572601318e-01
3.472905606031417847e-02
-3.183490782976150513e-02
-1.456757336854934692e-01
-2.312956750392913818e-01
-7.267974317073822021e-02
6.581159681081771851e-02
-3.082743287086486816e-01
-4.278688132762908936e-01
-2.324029803276062012e-01
1.288566458970308304e-02
2.355712503194808960e-01
-1.387074589729309082e-01
-9.832106530666351318e-02
-4.392654076218605042e-02
5.369628220796585083e-02
-7.657922804355621338e-02
2.630094438791275024e-02
-1.081702262163162231e-01
3.874611854553222656e-02
-3.926183562725782394e-03
-7.188405841588973999e-02
5.192961078137159348e-03
-8.699029684066772461e-03
8.998075127601623535e-02
-5.400715768337249756e-02
-5.014424771070480347e-02
1.383830700069665909e-02
-1.948471218347549438e-01
9.776341170072555542e-02
1.157871335744857788e-01
-1.980275847017765045e-02
-1.486611813306808472e-01
-1.044436931610107422e+00
-5.490691065788269043e-01
-4.853357374668121338e-01
-3.644989132881164551e-01
-2.353669703006744385e-01
-8.256237506866455078e-01
-9.914161264896392822e-02
-5.134068131446838379e-01
-8.479164838790893555e-01
-4.055547714233398438e-01
-1.311034917831420898e+00
-2.614682018756866455e-01
-5.688562393188476562e-01
-9.901852011680603027e-01
-7.373144626617431641e-01
-1.438651680946350098e+00
-3.963892757892608643e-01
-3.267562091350555420e-01
-1.608057618141174316e-01
2.277460321784019470e-02
-1.158533453941345215e+00
3.716427683830261230e-01
8.348923921585083008e-01
-5.867224186658859253e-02
-7.661215066909790039e-01
-1.357132941484451294e-01
4.444627463817596436e-02
3.210093826055526733e-02
2.866236567497253418e-01
-2.131591551005840302e-02
-5.114957690238952637e-02
3.569135069847106934e-02
-1.067557930946350098e-02
7.676950842142105103e-02
5.098422616720199585e-02
-1.366657018661499023e-01
-5.573872011154890060e-03
-9.003710001707077026e-03
-1.077612712979316711e-01
-9.846371412277221680e-02
-3.120825588703155518e-01
-6.341485679149627686e-02
4.827153403311967850e-03
-1.693978905677795410e-01
-7.874440401792526245e-02
-2.139576524496078491e-01
1.206331774592399597e-01
2.858487069606781006e-01
2.134378105401992798e-01
-3.640786111354827881e-01
2.032373249530792236e-01
3.300465643405914307e-02
2.199037075042724609e-01
3.022397458553314209e-01
2.344827800989151001e-01
-8.439763635396957397e-02
-1.101920828223228455e-01
1.327778492122888565e-02
1.145407259464263916e-01
-9.251864254474639893e-02
-3.460823595523834229e-01
-1.172823458909988403e-02
1.141891553997993469e-01
6.103552877902984619e-02
-6.558951735496520996e-02
-2.623648047447204590e-01
1.153106894344091415e-02
9.325774013996124268e-02
-9.781666100025177002e-02
-1.971246302127838135e-02
-6.096918880939483643e-02
1.682704240083694458e-01
3.699451386928558350e-01
1.356778740882873535e-01
4.366780221462249756e-01
5.319413915276527405e-02
4.017870426177978516e-01
5.462756380438804626e-02
-6.378787755966186523e-02
7.372342795133590698e-02
-1.927971243858337402e-01
-4.749757051467895508e-01
-3.894273638725280762e-01
-2.163164615631103516e-01
-7.234111428260803223e-02
2.262532562017440796e-01
2.428508698940277100e-01
6.202327609062194824e-01
3.351454436779022217e-01
1.051798984408378601e-01
-6.876143743284046650e-04
1.356051024049520493e-02
4.636788740754127502e-02
1.405687928199768066e-01
3.918488696217536926e-02
-1.108936890959739685e-01
-3.905471265316009521e-01
-4.262356460094451904e-01
-3.807248175144195557e-02
-2.146303504705429077e-01
1.796948015689849854e-01
4.552581906318664551e-02
-5.763091892004013062e-02
-2.493548765778541565e-02
-1.148122847080230713e-01
8.641690760850906372e-02
2.049720883369445801e-01
1.181467100977897644e-01
-2.136077433824539185e-01
-2.776701748371124268e-02
-6.621656473726034164e-03
2.409824728965759277e-02
1.037848088890314102e-02
-2.010066807270050049e-01
-5.012163519859313965e-02
1.263752020895481110e-02
1.482632607221603394e-01
-2.801182866096496582e-02
-2.668922245502471924e-01
1.160512678325176239e-02
1.923358738422393799e-01
1.995452195405960083e-01
6.066289544105529785e-02
-2.607292532920837402e-01
1.210471689701080322e-01
2.429520934820175171e-01
-1.417927294969558716e-01
-2.238809466361999512e-01
-1.024992465972900391e-01
1.085925195366144180e-02
-1.512832790613174438e-01
-3.502869606018066406e-02
-7.817830890417098999e-02
1.195720061659812927e-01
-2.091134339570999146e-02
8.320294320583343506e-02
2.693916112184524536e-02
-3.811788186430931091e-02
1.056471541523933411e-01
4.989836364984512329e-02
1.008822470903396606e-01
-6.002089008688926697e-02
-1.064708009362220764e-01
-1.449639257043600082e-02
-4.099419713020324707e-02
3.042603433132171631e-01
-1.615388691425323486e-01
-2.851255536079406738e-01
2.117086388170719147e-02
5.015877634286880493e-02
6.335875391960144043e-02
-1.153937131166458130e-01
-1.315778046846389771e-01
-6.887969374656677246e-02
1.150590479373931885e-01
4.608886316418647766e-03
-1.520250439643859863e-01
8.558673411607742310e-02
7.018079608678817749e-02
-2.137491405010223389e-01
1.656875312328338623e-01
1.134658008813858032e-01
4.796878099441528320e-01
3.662712872028350830e-01
-6.708789616823196411e-02
1.001002267003059387e-01
1.837892085313796997e-02
1.638406962156295776e-01
1.989491283893585205e-01
-1.560791879892349243e-01
2.522304840385913849e-02
6.624462455511093140e-02
1.904163509607315063e-02
7.090654224157333374e-02
-3.736840784549713135e-01
-2.773773074150085449e-01
-1.566886305809020996e-01
7.182873785495758057e-02
7.441437989473342896e-02
-1.358307003974914551e-01
-2.834312617778778076e-01
-4.330727458000183105e-02
2.208995521068572998e-01
1.096389740705490112e-01
-3.907913267612457275e-01
9.219475835561752319e-02
9.684460610151290894e-02
1.881940811872482300e-01
1.372197270393371582e-01
8.222355693578720093e-02
6.128239631652832031e-02
-1.302643418312072754e-01
-1.231945902109146118e-01
-1.072685644030570984e-01
5.092851445078849792e-02
-4.345267415046691895e-01
-4.714434742927551270e-01
-5.219682455062866211e-01
-3.963481634855270386e-02
-3.090139329433441162e-01
-3.195701539516448975e-02
5.692306160926818848e-02
2.397096157073974609e-02
4.957391694188117981e-02
-2.179153077304363251e-02
-8.186982944607734680e-03
-7.612372934818267822e-02
-3.700636327266693115e-02
1.448347046971321106e-02
2.210662662982940674e-01
-6.366809364408254623e-03
3.083004243671894073e-02
7.648533582687377930e-02
-1.590812504291534424e-01
7.855473458766937256e-02
-2.238467521965503693e-02
7.130561023950576782e-02
8.793540298938751221e-02
1.017077043652534485e-01
2.400482594966888428e-01
-2.401031553745269775e-01
-4.132131338119506836e-01
-2.858118414878845215e-01
-1.136484444141387939e-01
-1.211167648434638977e-01
9.568029642105102539e-02
-8.550441265106201172e-02
-1.229084879159927368e-01
-7.286170125007629395e-02
-1.756231188774108887e-01
-2.095651924610137939e-01
-7.564586400985717773e-02
-1.703974157571792603e-01
1.726305335760116577e-01
3.209412097930908203e-01
-5.907645821571350098e-01
-3.310838937759399414e-01
-2.251982241868972778e-01
-1.892216205596923828e-01
-2.197543978691101074e-01
1.369677037000656128e-01
2.764125466346740723e-01
4.357648789882659912e-01
1.814828366041183472e-01
-1.767773181200027466e-01
-1.796810179948806763e-01
3.135818541049957275e-01
5.005064010620117188e-01
-6.193731725215911865e-02
-1.919329613447189331e-01
3.741157054901123047e-01
2.210040837526321411e-01
6.649067997932434082e-02
1.657892912626266479e-01
2.913909852504730225e-01
-1.157753616571426392e-01
3.463724255561828613e-01
1.201971769332885742e-01
3.498670458793640137e-02
1.511172205209732056e-01
-3.509795069694519043e-01
1.708196252584457397e-01
-1.188236922025680542e-01
-1.107817590236663818e-01
1.912641078233718872e-01
-1.020540744066238403e-01
2.116335630416870117e-01
8.599502593278884888e-02
-1.237913295626640320e-01
3.578922525048255920e-02
1.183947250247001648e-01
2.569346129894256592e-01
-6.278508901596069336e-02
-8.259880542755126953e-02
3.426072895526885986e-01
-7.497355341911315918e-02
2.282693423330783844e-02
3.902160748839378357e-02
1.230049878358840942e-01
-1.717572510242462158e-01
3.378717228770256042e-02
1.229074150323867798e-01
1.194161474704742432e-01
7.965005189180374146e-02
1.287276595830917358e-01
-2.744655609130859375e-01
-2.062680274248123169e-01
-5.657571181654930115e-02
3.218435868620872498e-02
4.397976398468017578e-02
-6.838686298578977585e-03
-8.664955198764801025e-02
1.086715459823608398e-01
2.290339767932891846e-01
1.045924350619316101e-01
-1.068462133407592773e-01
-2.276958376169204712e-01
4.568589385598897934e-03
3.821446597576141357e-01
4.960237443447113037e-01
