-1.522895246744155884e-01
-5.971789825707674026e-03
2.034910470247268677e-01
1.280103530734777451e-02
-1.147304102778434753e-01
-1.048195734620094299e-01
7.620064914226531982e-02
8.139106445014476776e-03
9.637727588415145874e-02
4.055383615195751190e-03
1.464416272938251495e-02
-5.041456222534179688e-02
6.313013285398483276e-02
7.317468989640474319e-03
-4.702211916446685791e-02
3.345816433429718018e-01
-2.670737802982330322e-01
-7.470048069953918457e-01
-1.310546547174453735e-01
2.184554487466812134e-01
-1.382787227630615234e-01
-4.953858852386474609e-01
-9.135760664939880371e-01
-2.401654273271560669e-01
-1.106178909540176392e-01
-1.893615000881254673e-03
1.404328346252441406e-01
-2.211478352546691895e-02
7.613489776849746704e-02
8.782128989696502686e-02
1.609137207269668579e-01
8.688279986381530762e-02
1.703014671802520752e-01
1.342713087797164917e-01
4.235182702541351318e-01
5.354623124003410339e-02
1.859981864690780640e-01
2.588874697685241699e-01
3.577882945537567139e-01
-6.383777409791946411e-02
-2.388648390769958496e-01
-1.034469678997993469e-01
-1.691867783665657043e-02
-1.654678881168365479e-01
-2.039763927459716797e-01
1.012433171272277832e-01
-1.803024560213088989e-01
-6.323882341384887695e-01
-5.485507845878601074e-01
-2.637536264955997467e-02
1.177258938550949097e-01
-3.193571865558624268e-01
-5.860460400581359863e-01
6.368477642536163330e-02
6.272063404321670532e-02
1.360208448022603989e-02
-4.220091998577117920e-01
-7.061900943517684937e-02
-2.359932810068130493e-01
-2.383740991353988647e-01
-1.139884591102600098e-01
8.226808160543441772e-03
-2.954371459782123566e-02
6.402795016765594482e-02
1.796051487326622009e-02
-1.078670993447303772e-01
2.372364997863769531e-01
2.919081747531890869e-01
1.152641791850328445e-02
2.298293262720108032e-01
1.767044663429260254e-01
3.032253384590148926e-01
4.687381088733673096e-01
8.491893857717514038e-02
2.940498478710651398e-02
2.587528824806213379e-01
1.179572790861129761e-01
-1.728574633598327637e-01
-4.922833740711212158e-01
-2.164052426815032959e-01
1.823245286941528320e-01
5.399942398071289062e-02
1.026752069592475891e-01
-5.734699964523315430e-01
-1.954017579555511475e-01
1.481601893901824951e-01
5.314376577734947205e-02
1.762121468782424927e-01
-2.097911983728408813e-01
-2.279382944107055664e-01
-1.913501471281051636e-01
1.949723064899444580e-01
5.691099911928176880e-02
-2.105394005775451660e-01
3.293726220726966858e-02
-7.671202067285776138e-03
1.789910197257995605e-01
1.687361486256122589e-02
-8.168971538543701172e-02
5.909684579819440842e-03
-4.730014503002166748e-02
1.636545360088348389e-01
4.223142862319946289e-01
2.689794898033142090e-01
3.174215555191040039e-01
-4.939225614070892334e-01
-3.523681759834289551e-01
-1.618801355361938477e-01
-2.123585492372512817e-01
-4.138718545436859131e-02
-7.012400776147842407e-02
1.502741724252700806e-01
8.983146399259567261e-02
5.783971026539802551e-02
-7.361573725938796997e-02
2.707946486771106720e-02
-2.544658184051513672e-01
4.089120402932167053e-02
-1.453952193260192871e-01
9.543172270059585571e-02
-3.641841933131217957e-02
-8.927982300519943237e-02
2.837771773338317871e-01
1.305355131626129150e-01
1.695781052112579346e-01
-2.516956010367721319e-04
-2.662637829780578613e-01
4.250813424587249756e-01
-4.902500659227371216e-02
4.519519396126270294e-03
-7.677019387483596802e-02
-4.916712045669555664e-01
7.584856152534484863e-01
-2.645050287246704102e-01
5.682860314846038818e-02
-1.958005875349044800e-01
-4.319861829280853271e-01
9.421231746673583984e-01
-3.909658491611480713e-01
7.895572483539581299e-02
-2.358442246913909912e-01
-2.987399995326995850e-01
7.036727666854858398e-01
-1.798764765262603760e-01
-6.919847428798675537e-02
1.130827981978654861e-02
-3.783266246318817139e-01
5.027620196342468262e-01
-1.779617741703987122e-02
-5.169334262609481812e-02
