-7.072161883115768433e-02
2.453522980213165283e-01
2.981644272804260254e-01
-7.596889138221740723e-02
-7.231267541646957397e-02
1.835258156061172485e-01
-1.233005523681640625e-01
6.709402799606323242e-02
3.466919064521789551e-02
9.682937711477279663e-02
4.491798579692840576e-02
7.204384356737136841e-02
5.902939289808273315e-02
2.699940204620361328e-01
3.252732455730438232e-01
3.368252813816070557e-01
-5.461081117391586304e-02
8.486282080411911011e-02
1.298414766788482666e-01
3.075417876243591309e-01
-7.078860653564333916e-04
-4.512530565261840820e-02
-1.749247163534164429e-01
1.846703737974166870e-01
3.799677127972245216e-03
1.260555386543273926e-01
-1.604505926370620728e-01
-6.795091181993484497e-02
-1.903672702610492706e-02
-7.920025289058685303e-02
-3.046396672725677490e-01
-8.921733126044273376e-03
-2.830805182456970215e-01
-1.277925819158554077e-01
1.442224830389022827e-01
-2.064917087554931641e-01
-8.294761925935745239e-02
-6.953906267881393433e-02
-1.422665175050497055e-02
-1.822745427489280701e-03
-1.882481575012207031e-01
1.325383782386779785e-01
7.409396022558212280e-02
1.267409976571798325e-02
1.741721034049987793e-01
2.883617281913757324e-01
2.263291627168655396e-01
4.091669023036956787e-01
4.018725156784057617e-01
5.302724242210388184e-02
9.530013054609298706e-02
-3.245321214199066162e-01
3.428658843040466309e-01
2.508670091629028320e-01
-2.794405445456504822e-02
-2.206938713788986206e-01
7.907785475254058838e-03
3.137603700160980225e-01
2.854228019714355469e-01
1.326553076505661011e-01
1.206142678856849670e-01
4.399852752685546875e-01
-1.290427744388580322e-01
-1.514917463064193726e-01
-4.327775537967681885e-02
-2.417356222867965698e-01
-1.730284392833709717e-01
7.803108543157577515e-02
-4.123633503913879395e-01
-1.997014135122299194e-01
-5.961474776268005371e-01
-4.808856919407844543e-02
-1.721127331256866455e-01
-4.299889877438545227e-02
-6.598169207572937012e-01
-1.517889350652694702e-01
5.983797311782836914e-01
4.734979271888732910e-01
-2.067860215902328491e-01
-3.391508758068084717e-01
-2.917508222162723541e-02
4.861084520816802979e-01
2.936139404773712158e-01
-1.334229409694671631e-01
-1.128114759922027588e-01
8.771004527807235718e-02
3.728396072983741760e-02
-6.029700040817260742e-01
-3.018478751182556152e-01
1.819679141044616699e-01
9.987392276525497437e-02
-2.884609699249267578e-01
2.099332362413406372e-01
1.190495714545249939e-01
-9.690598398447036743e-02
-2.445249557495117188e-01
-1.540770828723907471e-01
-1.724211871623992920e-02
-2.287184298038482666e-01
-1.811901777982711792e-01
-1.696283696219325066e-03
-8.749458007514476776e-03
-1.371581107378005981e-01
-8.339299261569976807e-02
3.484381735324859619e-02
-1.698214560747146606e-02
1.212693825364112854e-01
5.538862943649291992e-02
5.024901032447814941e-01
3.559966981410980225e-01
3.348534405231475830e-01
-2.638941705226898193e-01
6.012676283717155457e-02
-1.135910302400588989e-01
-3.160903155803680420e-01
8.982978016138076782e-02
-2.895366027951240540e-02
4.823100939393043518e-02
-4.297288134694099426e-02
1.599341481924057007e-01
-1.933807972818613052e-03
1.592426896095275879e-01
-6.783571839332580566e-02
1.919025480747222900e-01
-2.182635106146335602e-02
-1.186853721737861633e-01
4.394793510437011719e-02
3.143762648105621338e-01
1.669323444366455078e-01
-2.982977032661437988e-01
6.972513347864151001e-02
-7.201176881790161133e-02
-1.136501505970954895e-01
-1.779887974262237549e-01
6.355864554643630981e-02
1.541365683078765869e-01
1.223914399743080139e-01
3.422554349526762962e-03
1.439374536275863647e-01
3.183138966560363770e-01
2.029753923416137695e-01
4.095886647701263428e-01
2.799031734466552734e-01
3.850099146366119385e-01
-2.548556923866271973e-01
-1.006221994757652283e-01
-1.607528924942016602e-01
-6.598435807973146439e-03
-2.004707045853137970e-02
-5.397317185997962952e-02
2.760913036763668060e-02
1.896060258150100708e-01
3.073010444641113281e-01
-7.136385887861251831e-02
-9.812667965888977051e-02
3.239312469959259033e-01
5.840099230408668518e-02
-3.571350574493408203e-01
1.094023808836936951e-01
3.448233306407928467e-01
4.471347853541374207e-02
2.248884290456771851e-01
1.121105067431926727e-02
2.916773557662963867e-01
4.461402073502540588e-02
7.114006578922271729e-02
2.778074443340301514e-01
2.541798353195190430e-01
3.574818256311118603e-04
-9.982128627598285675e-03
1.245833486318588257e-01
1.587238460779190063e-01
-2.063099741935729980e-01
3.959977999329566956e-02
2.015901654958724976e-01
4.695373475551605225e-01
-3.158109188079833984e-01
4.232157766819000244e-02
8.787916041910648346e-03
8.002683520317077637e-02
-2.170699536800384521e-01
-1.738393455743789673e-01
2.454893290996551514e-02
1.483742296695709229e-01
-1.638709157705307007e-01
-4.179908633232116699e-01
5.226423032581806183e-03
1.189378425478935242e-01
-6.332875490188598633e-01
-9.149551987648010254e-01
1.541004478931427002e-01
2.519284486770629883e-01
-1.049163192510604858e-02
-9.805084019899368286e-02
1.620479673147201538e-01
-9.163893014192581177e-02
-2.596757188439369202e-02
-1.842809170484542847e-01
3.228096067905426025e-01
-8.783560246229171753e-02
-6.652066111564636230e-02
-1.253923773765563965e-01
2.641756534576416016e-01
-2.447505593299865723e-01
7.476160768419504166e-03
-1.535223871469497681e-01
1.796856969594955444e-01
-3.628815412521362305e-01
1.988508850336074829e-01
-1.248369663953781128e-01
3.434468433260917664e-02
-7.500606030225753784e-02
-1.194503977894783020e-01
-7.964779436588287354e-02
-3.088211826980113983e-02
-7.859930396080017090e-02
-3.561252057552337646e-01
-3.435326516628265381e-01
-6.256626546382904053e-02
-5.305173397064208984e-01
-3.273025155067443848e-01
-4.218968451023101807e-01
-7.758732140064239502e-02
-4.746183156967163086e-01
-2.767702564597129822e-02
1.293097138404846191e-01
-1.259599030017852783e-01
-1.579055786132812500e-01
8.730313926935195923e-02
-5.149548500776290894e-02
-2.116182744503021240e-01
-3.484523296356201172e-02
-5.195127427577972412e-02
-9.769366681575775146e-02
5.267827212810516357e-02
3.000313043594360352e-01
-1.606225967407226562e-02
-9.843488782644271851e-02
1.837640702724456787e-01
5.268985629081726074e-01
-4.138031974434852600e-02
-2.473575174808502197e-01
-3.315965533256530762e-01
-1.129767820239067078e-01
-2.500521838665008545e-01
-1.590015292167663574e-01
-3.059030771255493164e-01
-1.611007750034332275e-01
-3.205356299877166748e-01
-1.866465657949447632e-01
-2.822536230087280273e-01
-6.296413391828536987e-02
-2.198103219270706177e-01
-3.377684652805328369e-01
-1.553507405333220959e-03
2.369619160890579224e-01
3.637043535709381104e-01
6.738260388374328613e-02
-7.496811449527740479e-02
-3.674718439579010010e-01
7.558834552764892578e-02
-6.761260330677032471e-02
-7.473633438348770142e-02
-6.027457118034362793e-02
-4.949164390563964844e-02
-1.297544836997985840e-01
1.651343517005443573e-02
-7.288964465260505676e-03
3.820992633700370789e-02
2.795186452567577362e-02
-2.491559684276580811e-01
-8.467804640531539917e-02
2.636957764625549316e-01
-1.435530185699462891e-01
-2.479032576084136963e-01
2.054399698972702026e-01
2.044471539556980133e-02
-1.375873237848281860e-01
-7.055416703224182129e-02
1.356989443302154541e-01
-1.179469898343086243e-01
-1.478025764226913452e-01
9.678044915199279785e-02
1.825627237558364868e-01
-4.593334197998046875e-01
-2.990775704383850098e-01
-2.549789100885391235e-02
-1.441986411809921265e-01
-3.013580441474914551e-01
-5.395077466964721680e-01
4.868494868278503418e-01
7.426521927118301392e-02
-9.420317411422729492e-02
6.765544414520263672e-03
8.454461395740509033e-02
1.247935816645622253e-01
1.245451569557189941e-01
-9.706177562475204468e-02
1.107130572199821472e-02
4.163073301315307617e-01
1.972529143095016479e-01
5.499668791890144348e-02
-6.575132161378860474e-02
-3.201806545257568359e-01
3.282137215137481689e-01
3.566656708717346191e-01
-2.129877656698226929e-01
-3.190064132213592529e-01
1.629586964845657349e-01
-7.778645753860473633e-01
-1.279272139072418213e-01
-4.826573655009269714e-02
-2.986389994621276855e-01
-7.719568014144897461e-01
-1.597883403301239014e-01
-2.275060117244720459e-01
-5.904799699783325195e-01
-5.896479487419128418e-01
-3.036671876907348633e-01
-4.300693273544311523e-01
3.330703377723693848e-01
-4.289501532912254333e-02
-1.471523493528366089e-01
1.386455744504928589e-01
-2.408718764781951904e-01
1.186175942420959473e-01
8.484733849763870239e-02
6.148416548967361450e-02
-2.433351278305053711e-01
-5.703821778297424316e-01
1.066911220550537109e-01
-1.328202523291110992e-02
4.054521396756172180e-02
-9.569969028234481812e-03
2.601066529750823975e-01
2.180255800485610962e-01
-4.793861210346221924e-01
-2.075172513723373413e-01
2.222643196582794189e-01
-1.791148781776428223e-01
2.302379906177520752e-02
2.456986904144287109e-01
9.276715666055679321e-02
1.618658900260925293e-01
6.991978734731674194e-02
1.288004815578460693e-01
1.719741523265838623e-01
2.220672667026519775e-01
-4.198001623153686523e-01
2.618264555931091309e-01
4.480395019054412842e-01
-1.285022944211959839e-01
-1.724032014608383179e-01
-2.541800737380981445e-01
-5.825631618499755859e-01
3.544471263885498047e-01
9.094423055648803711e-02
1.117641329765319824e-01
-1.814167499542236328e-01
3.466107547283172607e-01
-6.699784100055694580e-02
-7.984188944101333618e-02
2.959173321723937988e-01
1.742512285709381104e-01
-3.491503596305847168e-01
-2.302412092685699463e-01
7.360944896936416626e-02
-1.005145814269781113e-02
-4.689539596438407898e-02
7.448852807283401489e-02
-1.456216573715209961e-01
-9.085142016410827637e-01
3.372222781181335449e-01
-2.991071343421936035e-01
-3.833083808422088623e-01
-1.196247115731239319e-01
-4.864233732223510742e-02
-1.520038843154907227e-01
-1.729762852191925049e-01
4.604878276586532593e-02
-1.455490440130233765e-01
-4.453233480453491211e-01
-5.344602465629577637e-01
-8.822180330753326416e-02
-1.974431984126567841e-02
1.187640950083732605e-01
1.984456628561019897e-01
5.448864307254552841e-03
1.635370254516601562e-01
4.343525506556034088e-03
1.847220063209533691e-01
-1.125968024134635925e-01
2.439284026622772217e-01
-1.061245948076248169e-01
-9.413986653089523315e-02
-4.515272006392478943e-02
-5.386431142687797546e-02
-3.494063019752502441e-02
4.616350531578063965e-01
-1.463657021522521973e-01
1.233815476298332214e-01
-1.615535318851470947e-01
1.539880037307739258e-01
-2.931917011737823486e-01
-1.723318397998809814e-01
-2.043104916810989380e-01
4.861172288656234741e-03
1.835050582885742188e-01
-2.317726761102676392e-01
-2.173339277505874634e-01
3.314704895019531250e-01
-1.342988014221191406e-01
-4.113918542861938477e-01
3.295608162879943848e-01
2.080912888050079346e-01
-3.220641314983367920e-01
1.216089650988578796e-01
4.341361522674560547e-01
4.208001792430877686e-01
-4.194033145904541016e-02
2.191874235868453979e-01
-4.652941972017288208e-02
-2.759646475315093994e-01
-1.548545360565185547e-01
-1.704355818219482899e-03
1.955682635307312012e-01
1.510491818189620972e-01
-3.433967232704162598e-01
-3.791851550340652466e-02
-1.397734880447387695e-01
-2.030840814113616943e-01
-4.476368129253387451e-01
-1.801410913467407227e-01
4.815183207392692566e-02
8.565323054790496826e-02
-2.118149846792221069e-01
-3.733007609844207764e-02
-1.949471682310104370e-01
-6.234921142458915710e-02
-1.864295154809951782e-01
-9.936206787824630737e-02
-2.151422798633575439e-01
8.284287154674530029e-02
-1.614765375852584839e-01
5.332019925117492676e-01
9.374655783176422119e-02
-6.335245966911315918e-01
-3.451463207602500916e-02
2.248398028314113617e-02
-2.461283206939697266e-01
-1.571030914783477783e-01
2.106079012155532837e-01
-6.998723000288009644e-02
1.084329634904861450e-01
1.909004449844360352e-01
2.439771965146064758e-02
7.341944426298141479e-02
1.618898510932922363e-01
2.140794396400451660e-01
-1.221251673996448517e-02
1.301324516534805298e-01
1.409523189067840576e-01
-2.176521569490432739e-01
-2.174869328737258911e-01
-6.221761181950569153e-02
-5.230528116226196289e-01
-3.779875636100769043e-01
-6.586084514856338501e-02
-9.490791559219360352e-01
-1.456343531608581543e-01
-4.965455085039138794e-02
1.954752057790756226e-01
-5.076480507850646973e-01
-4.330035448074340820e-01
-4.341911152005195618e-02
1.407101452350616455e-01
-3.418860435485839844e-01
-4.719252586364746094e-01
-1.424143314361572266e-01
-3.725697100162506104e-02
2.475616782903671265e-01
-6.967562949284911156e-04
2.065449804067611694e-01
-2.028807699680328369e-01
1.337398886680603027e-01
1.911125332117080688e-01
4.405422508716583252e-02
-2.254885286092758179e-01
1.640630513429641724e-01
1.056361943483352661e-01
-1.027555093169212341e-01
-1.344772875308990479e-01
2.864717245101928711e-01
-2.619211077690124512e-01
4.636097699403762817e-02
-8.343876898288726807e-02
-8.544140309095382690e-02
-9.100262075662612915e-02
-4.160539507865905762e-01
-4.577200487256050110e-02
5.346839874982833862e-02
4.495640844106674194e-02
-9.457340091466903687e-02
7.523277401924133301e-02
7.235091179609298706e-02
4.851400852203369141e-02
1.201602593064308167e-01
1.180089637637138367e-01
1.599387526512145996e-01
-4.319402854889631271e-03
6.334929913282394409e-02
-3.721374571323394775e-01
4.822946712374687195e-02
-3.539989888668060303e-01
1.706368289887905121e-02
-2.055670320987701416e-01
-1.070889830589294434e-01
6.746800988912582397e-02
1.900146603584289551e-01
-5.346203595399856567e-02
-2.866591811180114746e-01
-4.852382000535726547e-03
1.756474971771240234e-01
-9.395332634449005127e-02
1.404794901609420776e-01
-7.160397619009017944e-02
-2.136461585760116577e-01
-2.784929983317852020e-02
-2.460283488035202026e-01
5.240853875875473022e-02
-6.957191973924636841e-02
-9.714093059301376343e-02
-1.113775819540023804e-01
-1.144518852233886719e-01
-2.738695740699768066e-01
2.692061960697174072e-01
5.558097735047340393e-02
1.047692224383354187e-01
1.706851869821548462e-01
-6.781560182571411133e-02
1.750920563936233521e-01
3.181587159633636475e-01
3.423197269439697266e-01
2.121186554431915283e-01
4.893120825290679932e-01
-6.088915467262268066e-01
-1.337421834468841553e-01
-5.471517443656921387e-01
2.342774122953414917e-01
-1.555160433053970337e-01
-2.364585846662521362e-01
7.857100106775760651e-03
-2.836254537105560303e-01
-6.472549438476562500e-01
-6.843875646591186523e-01
-5.703305602073669434e-01
5.787639692425727844e-02
-4.943139553070068359e-01
-2.406841367483139038e-01
2.210470139980316162e-01
-6.335390806198120117e-01
6.793623417615890503e-02
-2.871298789978027344e-01
5.693481490015983582e-02
-4.028069376945495605e-01
-1.225034445524215698e-01
3.435460925102233887e-01
2.285378128290176392e-01
-5.014752149581909180e-01
-1.177143380045890808e-01
-1.480318307876586914e-01
1.883976608514785767e-01
-6.699694395065307617e-01
-2.751598656177520752e-01
-4.788386225700378418e-01
-1.626034229993820190e-01
-2.295794785022735596e-01
1.998985409736633301e-01
-9.669324755668640137e-02
5.152019858360290527e-01
-1.804823875427246094e-01
2.266436368227005005e-01
1.133117359131574631e-02
3.722488284111022949e-01
9.169938415288925171e-02
-4.164537489414215088e-01
-1.865544319152832031e-01
1.117825880646705627e-01
1.487004905939102173e-01
9.567444771528244019e-02
-2.801608145236968994e-01
9.453054517507553101e-02
2.026416733860969543e-02
5.919213220477104187e-02
2.307326719164848328e-02
-8.281620591878890991e-02
2.803199738264083862e-02
2.281069159507751465e-01
-3.768487274646759033e-02
-3.115478456020355225e-01
1.484865248203277588e-01
7.172308862209320068e-02
2.089474201202392578e-01
1.650429368019104004e-01
3.158167600631713867e-01
1.287656128406524658e-01
3.780412673950195312e-01
2.054350078105926514e-01
-2.802867889404296875e-01
-3.977523371577262878e-02
-2.708408832550048828e-01
1.126001924276351929e-01
-3.483361899852752686e-01
-3.632430434226989746e-01
-2.159158885478973389e-01
2.265259623527526855e-01
9.613238275051116943e-03
-3.084665350615978241e-02
9.696708619594573975e-02
4.872057437896728516e-01
1.318413913249969482e-01
1.304150968790054321e-01
-2.686571180820465088e-01
1.745833456516265869e-01
5.831530690193176270e-01
4.672647714614868164e-01
9.286856651306152344e-02
3.950417041778564453e-02
-3.790454193949699402e-02
-9.431920945644378662e-03
-4.584378302097320557e-01
-2.795724570751190186e-01
-2.330200225114822388e-01
1.117999926209449768e-01
-3.626852333545684814e-01
1.440013945102691650e-01
1.406444013118743896e-01
4.728481769561767578e-01
5.900860577821731567e-02
2.931732833385467529e-01
-2.901884168386459351e-02
-5.216786265373229980e-01
1.306151002645492554e-01
3.589836955070495605e-01
-2.341764234006404877e-02
-1.999339908361434937e-01
-4.232017695903778076e-02
-2.534758448600769043e-01
1.327641904354095459e-01
5.250272899866104126e-02
9.322091937065124512e-02
-1.480955928564071655e-01
1.139958426356315613e-01
-1.822699606418609619e-02
1.334508955478668213e-01
-1.594918817281723022e-01
-3.456450104713439941e-01
-1.222359314560890198e-01
6.231528893113136292e-02
-5.173249915242195129e-02
-3.499207794666290283e-01
1.063327584415674210e-02
-3.001618981361389160e-01
-1.793859452009201050e-01
-1.320409774780273438e-01
1.899068504571914673e-01
-2.330114096403121948e-01
2.893800660967826843e-02
2.555372416973114014e-01
5.391635298728942871e-01
-2.452274225652217865e-02
-7.874228060245513916e-02
-7.201558351516723633e-02
-2.326276302337646484e-01
-7.448583841323852539e-02
-2.721877098083496094e-01
3.613220527768135071e-02
-4.236823618412017822e-01
-2.133045941591262817e-01
-1.340203434228897095e-01
1.719102859497070312e-01
5.723085254430770874e-02
-1.996239125728607178e-01
-9.598403424024581909e-02
9.747999161481857300e-02
-1.972109545022249222e-03
5.330888554453849792e-03
3.201303184032440186e-01
-3.986445963382720947e-01
-1.083316877484321594e-01
1.512834131717681885e-01
-5.240628719329833984e-01
-5.479820966720581055e-01
-3.511900603771209717e-01
-1.045026555657386780e-01
-3.103877305984497070e-01
-8.045857548713684082e-01
-2.081897258758544922e-01
2.644247412681579590e-01
-1.335883587598800659e-01
2.347978949546813965e-01
-1.645496487617492676e-01
1.025785803794860840e-01
4.840999245643615723e-01
-9.943994134664535522e-02
3.721387088298797607e-01
-5.085917115211486816e-01
1.286934763193130493e-01
1.582335494458675385e-02
7.046169787645339966e-02
5.454171914607286453e-03
2.121688872575759888e-01
-8.889599889516830444e-02
-2.034491300582885742e-02
6.267265230417251587e-02
9.802082180976867676e-02
3.638288676738739014e-01
-4.122776165604591370e-02
-3.337467610836029053e-01
3.506741672754287720e-02
-4.141504317522048950e-02
-7.737173885107040405e-02
1.877632737159729004e-01
6.437002122402191162e-02
-1.794791817665100098e-01
1.683073192834854126e-01
2.391348630189895630e-01
-1.278645843267440796e-01
-4.251890182495117188e-01
-2.321762777864933014e-02
1.760092228651046753e-01
8.093503862619400024e-02
-3.492729663848876953e-01
2.532355785369873047e-01
3.564884364604949951e-01
5.526328682899475098e-01
2.292121648788452148e-01
-7.668966054916381836e-02
-1.173784434795379639e-01
-3.153654932975769043e-01
2.382439672946929932e-01
-1.227406188845634460e-01
-5.036231279373168945e-01
-8.707216382026672363e-02
1.691870242357254028e-01
3.046541661024093628e-02
-1.282897740602493286e-01
3.433187007904052734e-01
5.367020890116691589e-02
1.797099411487579346e-02
-4.731710627675056458e-02
2.131677120923995972e-01
-1.334537938237190247e-02
1.735808104276657104e-01
-3.491378724575042725e-01
1.627397239208221436e-01
-9.839536994695663452e-02
3.068626392632722855e-03
-2.796443700790405273e-01
2.092121839523315430e-01
-2.814449071884155273e-01
-2.345956563949584961e-01
-6.968111395835876465e-01
3.573253750801086426e-02
-2.192384153604507446e-01
-6.816807389259338379e-01
-7.215062975883483887e-01
8.135346323251724243e-02
-3.271273970603942871e-01
-2.690186202526092529e-01
-1.507906019687652588e-01
-2.493384033441543579e-01
9.781320393085479736e-02
-1.223182827234268188e-01
-4.354431331157684326e-01
-1.857618987560272217e-01
8.981873840093612671e-02
1.555370092391967773e-01
6.727772951126098633e-02
2.126030623912811279e-02
4.046361148357391357e-01
2.935443818569183350e-01
1.111081615090370178e-01
1.125359013676643372e-01
-8.493102192878723145e-01
-5.571249723434448242e-01
-2.935747504234313965e-01
2.380269765853881836e-02
-3.450204730033874512e-01
-1.927253901958465576e-01
-3.359066322445869446e-02
4.611618444323539734e-02
1.975071877241134644e-01
2.226181179285049438e-01
1.102028489112854004e-01
1.983234882354736328e-01
-1.281339973211288452e-01
-2.829306721687316895e-01
-2.814769148826599121e-01
1.511745387688279152e-03
-9.190409630537033081e-02
-3.621229901909828186e-03
-8.570398204028606415e-04
-1.356550008058547974e-01
1.101694777607917786e-01
-3.160697221755981445e-01
-2.868888676166534424e-01
-1.965510845184326172e-01
1.348634809255599976e-01
-1.055863797664642334e-01
-1.357358247041702271e-01
1.158068701624870300e-01
-2.883274257183074951e-01
-1.235482171177864075e-01
-2.010678648948669434e-01
-9.504520148038864136e-02
4.702533185482025146e-01
2.610487639904022217e-01
9.296774119138717651e-02
4.821486771106719971e-01
3.037330508232116699e-01
2.575624287128448486e-01
-2.313158363103866577e-01
-2.673565149307250977e-01
-1.695717573165893555e-01
-1.962917745113372803e-01
-7.799227833747863770e-01
-5.092518925666809082e-01
-5.538204908370971680e-01
-2.437162250280380249e-01
8.269947022199630737e-02
-1.495622545480728149e-01
-9.704058617353439331e-02
9.446498751640319824e-02
-8.580881357192993164e-02
-2.208157777786254883e-01
-3.315388411283493042e-02
3.606055080890655518e-01
7.940722256898880005e-02
-6.830695271492004395e-02
4.014142155647277832e-01
9.735637903213500977e-02
1.002610996365547180e-01
-3.158467262983322144e-02
3.073146045207977295e-01
-5.514569208025932312e-02
6.742438673973083496e-02
1.297018527984619141e-01
1.761339902877807617e-01
1.603078991174697876e-01
1.213942319154739380e-01
-1.919564418494701385e-02
3.594377264380455017e-02
2.163513191044330597e-02
-1.833285205066204071e-02
-5.298677459359169006e-02
-1.097432598471641541e-01
2.257848717272281647e-02
1.128384172916412354e-01
2.243838161230087280e-01
-2.625952363014221191e-01
-1.914475709199905396e-01
3.908459097146987915e-03
1.208553463220596313e-01
3.352138102054595947e-01
4.534238576889038086e-01
1.713925153017044067e-01
-3.430289328098297119e-01
-1.110974401235580444e-01
-2.336234599351882935e-02
1.572574861347675323e-02
-1.172520518302917480e-01
-2.562006115913391113e-01
-2.205015867948532104e-01
-2.393593788146972656e-01
-2.045504152774810791e-01
-4.103995487093925476e-02
-1.035252138972282410e-01
-1.336213946342468262e-01
6.053581833839416504e-02
3.025852441787719727e-01
4.785236716270446777e-02
-1.000658944249153137e-01
-2.282849848270416260e-01
-6.370894610881805420e-02
-1.411087438464164734e-02
3.260257421061396599e-03
-9.154853224754333496e-02
-2.177212834358215332e-01
5.060794577002525330e-02
3.671626001596450806e-02
-1.997349038720130920e-02
-1.935222744941711426e-01
1.260594278573989868e-01
1.424426883459091187e-01
1.643636375665664673e-01
-1.077414676547050476e-01
-1.593545675277709961e-01
-6.800637394189834595e-02
1.664752066135406494e-01
6.552579998970031738e-02
9.716097265481948853e-03
-2.201147377490997314e-01
-3.628625273704528809e-01
2.293328493833541870e-01
-2.436297386884689331e-01
-6.286352872848510742e-01
-7.368339896202087402e-01
2.846785187721252441e-01
1.516204923391342163e-01
1.279800981283187866e-01
1.965795755386352539e-01
3.329509124159812927e-02
4.784480854868888855e-02
2.053327709436416626e-01
1.519747376441955566e-01
-1.282131224870681763e-01
1.394318491220474243e-01
4.345837533473968506e-01
4.622776210308074951e-01
-1.076098755002021790e-01
-1.984301954507827759e-01
2.690033614635467529e-01
3.310120403766632080e-01
-1.980105191469192505e-01
-4.838717728853225708e-02
1.273339837789535522e-01
1.888048350811004639e-01
-1.893521994352340698e-01
7.172215729951858521e-02
-5.347938276827335358e-03
3.092380464076995850e-01
-3.506723046302795410e-01
-3.094134926795959473e-01
7.381435483694076538e-02
2.476714253425598145e-01
-2.693631350994110107e-01
-3.730879426002502441e-01
-2.065264582633972168e-01
-9.573905169963836670e-02
2.308126538991928101e-02
3.767742076888680458e-03
-1.529944241046905518e-01
-7.143927365541458130e-02
7.798144966363906860e-02
-1.840379275381565094e-02
-2.677417099475860596e-01
-5.013725161552429199e-02
1.385601162910461426e-01
3.533382713794708252e-01
2.309400886297225952e-01
1.522452533245086670e-01
-2.509399056434631348e-01
-3.954586088657379150e-01
1.529573202133178711e-01
1.285910606384277344e-01
9.281640499830245972e-02
2.359761111438274384e-02
-1.549230962991714478e-01
4.505648463964462280e-02
-1.830306649208068848e-01
-1.255350466817617416e-02
2.862598896026611328e-01
4.009531736373901367e-01
4.269021097570657730e-03
-4.157008603215217590e-02
-7.060147821903228760e-02
1.145071536302566528e-01
1.361563056707382202e-01
1.044240891933441162e-01
3.123966455459594727e-01
1.753124147653579712e-01
-1.986761391162872314e-01
-2.864764034748077393e-01
-1.061231121420860291e-01
-4.307669401168823242e-01
7.318577170372009277e-02
4.247194826602935791e-01
2.841247022151947021e-01
1.649363189935684204e-01
-5.795322358608245850e-02
2.022986561059951782e-01
1.502112895250320435e-01
1.221880763769149780e-01
3.292868435382843018e-01
1.839587539434432983e-01
1.370967775583267212e-01
2.924550473690032959e-01
2.492725700139999390e-01
2.178919017314910889e-01
2.083399295806884766e-01
1.545214354991912842e-01
-7.433678209781646729e-02
-1.214308068156242371e-01
5.573694407939910889e-02
-6.284202635288238525e-02
-1.912489831447601318e-01
-1.874038428068161011e-01
-1.530158240348100662e-02
4.696619510650634766e-02
3.206198513507843018e-01
2.853489220142364502e-01
4.044470191001892090e-01
3.811994567513465881e-02
2.625708878040313721e-01
2.355645745992660522e-01
-7.853004336357116699e-02
1.538296192884445190e-01
-1.273272186517715454e-01
-1.624951958656311035e-01
-1.187351271510124207e-01
2.716943323612213135e-01
-1.161266639828681946e-01
-1.421322077512741089e-01
-3.086016476154327393e-01
-2.476180046796798706e-01
2.425995320081710815e-01
2.363710105419158936e-02
7.461900264024734497e-02
3.666898310184478760e-01
-2.418349981307983398e-01
-3.755409717559814453e-01
-3.248701989650726318e-01
-1.847033947706222534e-01
-9.797762334346771240e-02
-2.103195525705814362e-02
3.900123536586761475e-01
5.370126664638519287e-02
3.244549930095672607e-01
1.352575719356536865e-01
2.525310404598712921e-02
1.577465683221817017e-01
3.273220956325531006e-01
1.665452718734741211e-01
2.005237191915512085e-01
9.957902878522872925e-02
1.737242490053176880e-01
6.595443189144134521e-02
1.403151154518127441e-01
4.812651127576828003e-02
2.351238876581192017e-01
-7.092511281371116638e-03
-4.089820683002471924e-01
-2.497870028018951416e-01
1.313060373067855835e-01
1.764083839952945709e-02
-1.205263659358024597e-01
-9.284221380949020386e-02
1.611739993095397949e-01
3.452737256884574890e-02
4.782418720424175262e-03
2.891200780868530273e-02
1.315633803606033325e-01
1.033192723989486694e-01
1.277670562267303467e-01
1.347628533840179443e-01
1.031393781304359436e-01
6.831737160682678223e-01
3.381465673446655273e-01
-3.954324126243591309e-01
3.101079463958740234e-01
5.893394947052001953e-01
4.984286427497863770e-01
2.246091663837432861e-01
4.969518780708312988e-01
2.451595962047576904e-01
1.651941537857055664e-01
3.121464252471923828e-01
4.351170659065246582e-01
1.135090440511703491e-01
6.672494858503341675e-02
5.925055965781211853e-02
-1.576453149318695068e-01
-3.470347523689270020e-01
2.935756444931030273e-01
2.790900766849517822e-01
9.697598218917846680e-02
2.044104933738708496e-01
1.341974437236785889e-01
-4.059462621808052063e-02
2.061896175146102905e-01
1.873495802283287048e-02
2.378336638212203979e-01
9.258680045604705811e-02
4.047744274139404297e-01
8.781424909830093384e-02
3.304914832115173340e-01
5.396980047225952148e-01
4.503019154071807861e-01
-2.554811239242553711e-01
-1.676032245159149170e-01
4.826429486274719238e-02
6.314938515424728394e-02
-2.456306666135787964e-01
-1.230311393737792969e-01
9.001938253641128540e-02
-1.829470694065093994e-02
9.672662615776062012e-02
-5.107466131448745728e-02
1.503188908100128174e-02
-3.149076551198959351e-02
-7.893819361925125122e-02
-7.971763610839843750e-02
-1.970958262681961060e-01
1.464932411909103394e-01
-1.570736318826675415e-01
-2.763125896453857422e-01
-3.508949279785156250e-02
5.929273366928100586e-02
-4.550078883767127991e-02
-1.256148666143417358e-01
9.524394571781158447e-02
2.909324169158935547e-01
-2.983127161860466003e-02
7.423653453588485718e-02
2.948296666145324707e-01
2.965523302555084229e-01
7.208183407783508301e-02
3.453004732728004456e-02
2.086101025342941284e-01
3.943215012550354004e-01
6.194292306900024414e-01
4.171328246593475342e-01
-4.495860636234283447e-01
1.029374450445175171e-01
4.165154993534088135e-01
1.725586503744125366e-01
-2.695900499820709229e-01
-9.138286113739013672e-02
-5.750326812267303467e-02
-2.378016263246536255e-01
-1.257900595664978027e-01
-4.245047643780708313e-02
-2.166511863470077515e-01
-6.899127364158630371e-02
1.298365145921707153e-01
-7.330733537673950195e-02
1.352828741073608398e-01
1.613360941410064697e-01
5.683646798133850098e-01
1.180205941200256348e-01
1.187087148427963257e-01
4.806670919060707092e-02
2.696235477924346924e-01
1.410137116909027100e-01
1.788842841051518917e-03
-9.023779071867465973e-03
-8.411739021539688110e-02
2.953897714614868164e-01
9.497251361608505249e-02
1.498197168111801147e-01
-3.408658504486083984e-02
-2.374882102012634277e-01
-5.829938054084777832e-01
-3.583412170410156250e-01
-8.329328894615173340e-02
1.004225984215736389e-01
-1.749579161405563354e-01
-7.494857907295227051e-02
1.006169319152832031e-01
1.362034231424331665e-01
-1.014723479747772217e-01
1.109814420342445374e-01
1.097803637385368347e-01
1.995228379964828491e-01
-3.109196126461029053e-01
-2.069824039936065674e-01
2.434505969285964966e-01
7.131903618574142456e-02
8.494808524847030640e-02
-2.071384340524673462e-01
1.716269999742507935e-01
2.801420986652374268e-01
-4.790423810482025146e-02
-9.560171514749526978e-02
5.401146411895751953e-02
2.086828798055648804e-01
1.620752215385437012e-01
1.116334870457649231e-01
8.706454932689666748e-02
7.727096974849700928e-02
4.339070618152618408e-01
4.094533622264862061e-01
1.744996309280395508e-01
-9.232457727193832397e-02
-5.298491120338439941e-01
-6.864147782325744629e-01
-2.078003883361816406e-01
-1.790780723094940186e-01
-1.033918708562850952e-01
-9.836323559284210205e-02
1.001828610897064209e-01
-1.101847365498542786e-01
-1.503880321979522705e-01
2.639432996511459351e-02
8.089435845613479614e-02
-1.010062359273433685e-02
1.795296072959899902e-01
4.636589065194129944e-02
2.125679999589920044e-01
-2.412421554327011108e-01
-2.955342270433902740e-02
-1.729789823293685913e-01
-2.224553674459457397e-01
4.952256754040718079e-02
3.440742790699005127e-01
-2.421734929084777832e-01
-9.026142209768295288e-02
-9.911353141069412231e-02
1.651344746351242065e-01
-2.187167704105377197e-01
-5.370741337537765503e-02
-4.428472220897674561e-01
3.429205119609832764e-01
-1.569639593362808228e-01
-2.305694371461868286e-01
2.548789978027343750e-01
-2.641940116882324219e-01
-3.066433370113372803e-01
-1.080503091216087341e-01
8.414293080568313599e-02
-2.369820624589920044e-01
-3.123126029968261719e-01
5.992732569575309753e-02
-1.022674888372421265e-01
-5.179947614669799805e-01
-7.513593416661024094e-03
8.376840502023696899e-03
-1.448805928230285645e-01
-5.521652698516845703e-01
1.449429690837860107e-01
3.467226624488830566e-01
-4.497787952423095703e-01
4.830924421548843384e-02
3.821399211883544922e-01
-1.500787287950515747e-01
-1.546269357204437256e-01
2.142046988010406494e-01
7.814791053533554077e-02
-2.666246704757213593e-02
-4.681764543056488037e-02
1.744067072868347168e-01
-7.721512019634246826e-02
-1.839724481105804443e-01
-6.640389561653137207e-02
1.643595397472381592e-01
7.457117084413766861e-03
-8.299092203378677368e-02
1.390995830297470093e-01
4.889022558927536011e-02
-1.585282832384109497e-01
-3.383257985115051270e-01
-5.098460614681243896e-02
-2.453334331512451172e-01
-1.474975198507308960e-01
-1.973607987165451050e-01
1.019876264035701752e-02
-2.230673134326934814e-01
-2.989588677883148193e-01
-1.893570087850093842e-02
2.375578880310058594e-01
-2.972144186496734619e-01
-2.118788808584213257e-01
-1.155572235584259033e-01
-8.945771306753158569e-02
1.023383289575576782e-01
4.401175379753112793e-01
3.862595260143280029e-01
-1.704981327056884766e-01
-3.929658234119415283e-01
8.960697054862976074e-02
1.862790584564208984e-01
-2.012232393026351929e-01
-4.904957115650177002e-01
-6.065952777862548828e-02
1.486318558454513550e-01
-2.458685189485549927e-01
-8.031362295150756836e-02
2.458544261753559113e-02
3.872468322515487671e-02
4.101662933826446533e-01
6.533194333314895630e-02
-1.695393472909927368e-01
-1.883211433887481689e-01
2.925303578376770020e-01
6.501835584640502930e-02
-6.299392133951187134e-02
6.833314895629882812e-02
-5.298447329550981522e-03
1.822366118431091309e-01
2.157914191484451294e-01
-1.252804398536682129e-01
-2.761826515197753906e-01
7.271212339401245117e-02
1.181877180933952332e-01
3.000106289982795715e-02
-6.206482276320457458e-02
1.015833765268325806e-01
3.956058919429779053e-01
3.185895383358001709e-01
1.300018727779388428e-01
-1.910126507282257080e-01
-2.818892896175384521e-02
2.675004899501800537e-01
-3.924098312854766846e-01
-2.635798752307891846e-01
-3.371324241161346436e-01
-2.016072124242782593e-01
-9.025254249572753906e-01
-6.769859194755554199e-01
-2.082241177558898926e-01
-4.451813697814941406e-01
-6.302124261856079102e-01
-4.037563800811767578e-01
-5.950688719749450684e-01
-7.452237606048583984e-01
-3.334859311580657959e-01
-2.144294381141662598e-01
-2.634486854076385498e-01
-1.995583176612854004e-01
-1.314714252948760986e-01
2.604449689388275146e-01
7.079913467168807983e-02
1.493115276098251343e-01
-7.119051367044448853e-02
2.267803996801376343e-01
1.619635373353958130e-01
3.031758069992065430e-01
-1.374582499265670776e-01
-5.016047954559326172e-01
-1.918043047189712524e-01
-1.897973269224166870e-01
-2.091686576604843140e-01
-1.258168220520019531e-01
-1.782495714724063873e-02
5.493352934718132019e-02
1.382359564304351807e-01
2.112506479024887085e-01
4.802875816822052002e-01
4.453766345977783203e-01
4.017921388149261475e-01
8.626949042081832886e-02
2.609673738479614258e-01
6.175115704536437988e-01
-4.243459105491638184e-01
-4.782116711139678955e-01
1.213505268096923828e-01
-2.081678248941898346e-02
2.013446241617202759e-01
-3.172409832477569580e-01
-1.148294433951377869e-01
-1.450265496969223022e-01
-3.821800649166107178e-02
1.402642112225294113e-02
1.045835465192794800e-01
4.074732959270477295e-02
-1.835103183984756470e-01
7.752549648284912109e-02
-7.262903451919555664e-02
-6.777349859476089478e-02
-9.987964481115341187e-02
8.166537433862686157e-02
6.476637721061706543e-02
9.300555288791656494e-02
2.708538770675659180e-01
1.773577332496643066e-01
1.541520003229379654e-02
-6.307836621999740601e-02
-1.708171516656875610e-01
2.327894978225231171e-02
1.438157167285680771e-03
-2.935000881552696228e-02
9.700349718332290649e-02
1.944734901189804077e-01
-6.608674675226211548e-02
-7.524683326482772827e-02
-3.892012834548950195e-01
-2.389934360980987549e-01
2.671770937740802765e-02
2.381521463394165039e-01
2.142490893602371216e-01
-1.610110700130462646e-01
-5.080156773328781128e-02
3.276310488581657410e-02
-1.064281091094017029e-01
-2.063065320253372192e-01
-2.399693876504898071e-01
1.567473858594894409e-01
2.393617928028106689e-01
7.976086437702178955e-02
-2.984018027782440186e-01
1.694437116384506226e-01
1.717227995395660400e-01
2.283291965723037720e-01
-9.907241910696029663e-02
-2.948375940322875977e-01
-2.522239983081817627e-01
-2.229698300361633301e-01
-4.322475492954254150e-01
-2.838520407676696777e-01
1.250183433294296265e-01
1.889844611287117004e-02
-1.000731959939002991e-01
-4.876687377691268921e-02
2.650023996829986572e-01
8.934211730957031250e-02
-3.340120315551757812e-01
-8.029707521200180054e-02
3.310181945562362671e-02
1.584450602531433105e-01
-6.743289530277252197e-03
-1.922379136085510254e-01
-9.351696819067001343e-02
-4.850022029131650925e-03
2.340764403343200684e-01
-5.931627750396728516e-02
-1.330538839101791382e-01
1.422329898923635483e-02
3.596761524677276611e-01
3.819766938686370850e-01
1.349144428968429565e-01
4.318095743656158447e-01
-8.844953299558255821e-06
8.556369692087173462e-02
-3.490333259105682373e-01
-3.001731336116790771e-01
-2.437691539525985718e-01
1.276213303208351135e-02
-3.122524619102478027e-01
-3.417981863021850586e-01
-3.510304093360900879e-01
-2.012348920106887817e-01
2.487496584653854370e-01
2.319684773683547974e-01
3.200776576995849609e-01
5.997626483440399170e-02
2.113344222307205200e-01
3.070113658905029297e-01
7.145107537508010864e-02
3.813831210136413574e-01
2.571451105177402496e-02
-4.755163192749023438e-02
3.378965705633163452e-02
1.435602903366088867e-01
-2.404324477538466454e-03
2.542778290808200836e-02
-4.099687635898590088e-01
-1.202828362584114075e-01
8.962897211313247681e-02
2.673826217651367188e-01
1.212233230471611023e-01
-1.027802303433418274e-01
-4.113683849573135376e-02
2.370548099279403687e-01
2.900420427322387695e-01
-2.325149811804294586e-02
-7.147971075028181076e-03
-3.847708553075790405e-02
1.598990336060523987e-02
2.372650206089019775e-01
-5.656420812010765076e-02
-3.080451786518096924e-01
-2.951586842536926270e-01
-2.397968918085098267e-01
4.825351014733314514e-02
3.514532446861267090e-01
-2.880653738975524902e-01
-9.661104530096054077e-02
-3.097568452358245850e-01
2.547459490597248077e-02
1.248584464192390442e-01
-2.502322196960449219e-01
-4.148102700710296631e-01
-4.177474081516265869e-01
-3.178275823593139648e-01
7.752195745706558228e-02
-3.579748272895812988e-01
-3.921467363834381104e-01
-3.129225671291351318e-01
-2.086070775985717773e-01
-4.982906579971313477e-01
-4.102909266948699951e-01
-2.998106777667999268e-01
-8.316144347190856934e-02
-1.005222722887992859e-01
-2.593415081501007080e-01
-4.430688023567199707e-01
1.780919916927814484e-02
1.055464223027229309e-01
1.719674211926758289e-03
8.702040649950504303e-03
5.436065420508384705e-02
3.313586413860321045e-01
1.892281472682952881e-01
1.425954252481460571e-01
1.852189153432846069e-01
1.322665959596633911e-01
4.114370048046112061e-01
5.702548623085021973e-01
5.930061638355255127e-02
-4.435273632407188416e-02
3.354139626026153564e-01
4.719038307666778564e-01
2.128443308174610138e-02
-2.252112841233611107e-03
2.471613585948944092e-01
2.229897379875183105e-01
4.315659105777740479e-01
1.002734676003456116e-01
3.792203590273857117e-02
1.387097290717065334e-04
1.685785651206970215e-01
-4.705905739683657885e-04
-1.367141753435134888e-01
-5.310503020882606506e-02
9.113833308219909668e-02
-6.754320263862609863e-01
-3.610146641731262207e-01
2.271161228418350220e-02
-1.275549083948135376e-01
-1.276745647192001343e-01
-2.577762901782989502e-01
-2.964077293872833252e-01
-2.339257895946502686e-01
1.576724946498870850e-01
1.383973360061645508e-01
2.750931978225708008e-01
1.806036233901977539e-01
-7.847297005355358124e-03
4.793726280331611633e-02
-5.337986350059509277e-02
3.700341656804084778e-02
2.668213546276092529e-01
-1.346492581069469452e-02
1.907651424407958984e-01
3.881705701351165771e-01
2.071879208087921143e-01
3.135412633419036865e-01
2.644544839859008789e-01
1.014256477355957031e-01
2.639468610286712646e-01
4.410729557275772095e-02
6.128032132983207703e-02
-1.532862987369298935e-02
3.193825781345367432e-01
-9.074283391237258911e-02
-2.948218397796154022e-02
2.332443557679653168e-02
2.629915773868560791e-01
-6.353013962507247925e-02
-7.794167101383209229e-02
-4.831565544009208679e-02
8.395102620124816895e-02
1.633543372154235840e-01
-1.304247230291366577e-01
6.394925713539123535e-02
-2.411448359489440918e-01
-8.207948505878448486e-02
-9.157475084066390991e-02
1.542130559682846069e-01
-1.855846941471099854e-01
-1.593349128961563110e-01
-1.593708395957946777e-01
3.276488482952117920e-01
-5.102743394672870636e-03
4.283975809812545776e-02
1.180995628237724304e-01
1.087725535035133362e-01
3.734283149242401123e-01
-1.145971044898033142e-01
1.563641875982284546e-01
-2.478320151567459106e-01
7.459416985511779785e-02
-1.585047543048858643e-01
4.077439010143280029e-02
-8.725091814994812012e-02
-1.736342348158359528e-02
-1.127897351980209351e-01
-3.868086636066436768e-02
1.102827638387680054e-01
-1.725554019212722778e-01
-2.450511418282985687e-02
-1.029194667935371399e-01
1.554506868124008179e-01
1.133670657873153687e-01
1.219784691929817200e-01
-1.360754519701004028e-01
-6.505026817321777344e-01
3.666136041283607483e-02
-9.127512574195861816e-02
3.466560840606689453e-01
1.741437911987304688e-01
9.015209227800369263e-02
-6.269944310188293457e-01
9.460821002721786499e-02
4.293158948421478271e-01
-5.034760236740112305e-01
-1.289239883422851562e+00
-5.105770230293273926e-01
1.435137242078781128e-01
-9.540493786334991455e-02
-1.287236809730529785e-01
-6.212196946144104004e-01
-3.741700351238250732e-01
2.138020545244216919e-01
-9.795556962490081787e-02
-8.645192533731460571e-02
-1.184843108057975769e-01
-5.209333449602127075e-02
-9.529394656419754028e-02
-1.016862764954566956e-01
-1.249896809458732605e-01
-6.946749687194824219e-01
-5.791593194007873535e-01
1.429588347673416138e-01
-2.249880880117416382e-01
2.196581289172172546e-02
-4.658567905426025391e-01
-4.278655052185058594e-01
-7.959724217653274536e-02
1.350318193435668945e-01
-5.253507941961288452e-02
-6.576341576874256134e-03
1.536998450756072998e-01
2.919984757900238037e-01
1.074553877115249634e-01
1.849701702594757080e-01
3.331566751003265381e-01
-1.950437277555465698e-01
3.901313617825508118e-02
3.233044147491455078e-01
6.726940870285034180e-01
-2.455518022179603577e-02
-1.130297333002090454e-01
-3.350573182106018066e-01
-4.363552629947662354e-01
6.439829617738723755e-02
3.523608902469277382e-03
9.426014870405197144e-02
-5.425403118133544922e-01
2.151499837636947632e-01
1.981898099184036255e-01
1.468417793512344360e-01
-9.725514054298400879e-02
-2.304661273956298828e-01
-3.981367647647857666e-01
-2.278569936752319336e-01
2.582261711359024048e-02
-5.996988713741302490e-02
-1.079373732209205627e-01
-1.407263427972793579e-01
-6.835862398147583008e-01
1.333076655864715576e-01
3.216016048099845648e-04
-2.672425508499145508e-01
-3.830368220806121826e-01
9.710683673620223999e-02
-2.374328374862670898e-01
-1.306257396936416626e-01
-8.697213977575302124e-02
2.019605487585067749e-01
-2.982167601585388184e-01
-2.122947871685028076e-01
2.630539238452911377e-01
7.032380998134613037e-02
4.681345820426940918e-02
-2.085409015417098999e-01
-3.894498050212860107e-01
3.872395455837249756e-01
-1.534922868013381958e-01
-5.899994447827339172e-02
-5.185598507523536682e-02
4.925034344196319580e-01
1.136456504464149475e-01
-2.635923624038696289e-01
-2.948136925697326660e-01
-1.579216569662094116e-01
-2.628226876258850098e-01
1.210463568568229675e-01
-1.300782263278961182e-01
-8.328646421432495117e-02
1.600813120603561401e-01
2.444722801446914673e-01
2.433053702116012573e-01
-2.006495296955108643e-01
-2.441461235284805298e-01
-8.184409886598587036e-02
2.671879827976226807e-01
5.138051137328147888e-02
-1.336931018158793449e-03
1.035941950976848602e-02
3.264750540256500244e-02
8.805097639560699463e-02
2.501127421855926514e-01
5.690380558371543884e-02
-1.659314036369323730e-01
-2.513568997383117676e-01
4.162377491593360901e-02
1.193711087107658386e-01
1.656375378370285034e-01
-2.771043181419372559e-01
-1.981073915958404541e-01
-1.097976043820381165e-01
-2.204649522900581360e-02
-3.093293607234954834e-01
-9.944237023591995239e-02
-1.500241458415985107e-02
-2.139913663268089294e-02
-1.242012605071067810e-01
-1.664993464946746826e-01
4.851617291569709778e-02
1.502196043729782104e-01
-1.348789930343627930e-01
-2.026946051046252251e-03
1.111734360456466675e-01
2.183813899755477905e-01
1.262935698032379150e-01
9.609597176313400269e-02
-1.430850382894277573e-02
2.395457625389099121e-01
1.223160028457641602e-01
-1.710877120494842529e-01
-3.275392353534698486e-01
-1.058177724480628967e-01
2.461161017417907715e-01
4.421710669994354248e-01
-5.350769162178039551e-01
9.773390367627143860e-03
1.840808838605880737e-01
4.421778023242950439e-02
-1.926734745502471924e-01
1.124896109104156494e-02
1.212408095598220825e-01
-2.000684477388858795e-02
1.309937983751296997e-01
3.362011909484863281e-01
6.867572665214538574e-02
1.951447222381830215e-03
-6.628654152154922485e-02
7.425793260335922241e-02
-6.569790095090866089e-02
1.310647130012512207e-01
7.147633284330368042e-02
1.671303808689117432e-01
1.742616444826126099e-01
-4.397977888584136963e-02
-1.725761219859123230e-02
1.147102490067481995e-01
4.550856724381446838e-02
1.329069882631301880e-01
1.565005630254745483e-01
1.389591023325920105e-02
-2.223784476518630981e-01
-2.182735949754714966e-01
-9.815502166748046875e-02
9.871248155832290649e-02
-2.639659047126770020e-01
-4.504114091396331787e-01
-3.065925538539886475e-01
-3.803349733352661133e-01
2.563383281230926514e-01
-4.052969813346862793e-02
2.003027647733688354e-01
3.827800452709197998e-01
4.576076194643974304e-02
-6.026265397667884827e-02
2.163275182247161865e-01
2.480573803186416626e-01
-1.323093473911285400e-01
-1.057092659175395966e-02
2.732895314693450928e-01
8.496552705764770508e-02
9.043826162815093994e-02
9.631257504224777222e-02
-2.004715949296951294e-01
3.402483165264129639e-01
-2.810441255569458008e-01
6.342566013336181641e-02
5.031950026750564575e-02
4.926608130335807800e-02
-2.882124185562133789e-01
-1.099842265248298645e-01
8.452361822128295898e-02
5.243649482727050781e-01
-1.148570701479911804e-01
-1.227755025029182434e-01
9.623420238494873047e-02
3.698710203170776367e-01
1.981319300830364227e-02
5.847192555665969849e-02
-5.400124937295913696e-02
2.693488001823425293e-01
-1.166768595576286316e-01
2.483228445053100586e-01
-1.198319718241691589e-01
-3.393110632896423340e-01
-1.643926948308944702e-01
1.338879466056823730e-01
2.089050710201263428e-01
-2.293893694877624512e-01
4.583663120865821838e-02
1.096066981554031372e-01
-1.898108422756195068e-01
-3.442254662513732910e-01
4.292592406272888184e-01
4.996494203805923462e-02
-1.823681890964508057e-01
-4.198521971702575684e-01
1.772139221429824829e-01
-1.809481531381607056e-01
-1.862312257289886475e-01
3.644645959138870239e-02
1.259579807519912720e-01
2.013258934020996094e-01
-2.613999247550964355e-01
1.770408302545547485e-01
-5.868493020534515381e-02
2.155028842389583588e-02
-4.761449620127677917e-02
1.064816266298294067e-01
-7.087549194693565369e-03
4.853243827819824219e-01
3.039004206657409668e-01
-2.899185381829738617e-02
-1.605073362588882446e-01
4.591749608516693115e-02
-6.121747195720672607e-02
1.120768859982490540e-01
-3.121818602085113525e-01
3.763285651803016663e-02
-1.770858317613601685e-01
-3.471771180629730225e-01
-1.510548889636993408e-01
3.006329201161861420e-02
2.260612696409225464e-02
1.827996522188186646e-01
-7.254398614168167114e-02
1.191627904772758484e-01
2.663766741752624512e-01
4.395632147789001465e-01
3.758848905563354492e-01
-1.159884408116340637e-01
2.712647914886474609e-01
1.220317482948303223e-01
-1.079276427626609802e-01
-9.810415655374526978e-02
2.272888273000717163e-01
-1.613401770591735840e-01
-5.042083263397216797e-01
-1.961086839437484741e-01
2.086459100246429443e-01
-2.603494524955749512e-01
-4.444485008716583252e-01
-1.664604991674423218e-01
3.954925835132598877e-01
4.324954450130462646e-01
1.395675688982009888e-01
2.640186548233032227e-01
3.151259124279022217e-01
3.529296442866325378e-02
-3.098567426204681396e-01
3.056223988533020020e-01
2.732763290405273438e-01
-1.190610304474830627e-01
-1.850015670061111450e-01
-1.101826056838035583e-01
-9.371738880872726440e-03
8.269859105348587036e-02
1.689774990081787109e-01
-3.345201611518859863e-01
3.199129179120063782e-02
1.628376841545104980e-01
1.799393892288208008e-01
-1.731892526149749756e-01
5.202853679656982422e-02
1.433231979608535767e-01
2.951498329639434814e-01
-2.392584457993507385e-02
2.213968485593795776e-01
-3.328812122344970703e-02
2.984037995338439941e-01
1.108795478940010071e-01
1.508133411407470703e-01
-2.368434965610504150e-01
-3.917933255434036255e-02
1.153825744986534119e-01
1.733173727989196777e-01
1.695800274610519409e-01
1.451383978128433228e-01
5.213569104671478271e-02
2.168138474225997925e-01
-1.948562860488891602e-01
1.217044517397880554e-01
1.502520292997360229e-01
4.889581725001335144e-02
4.377501830458641052e-02
6.440600007772445679e-02
-1.347600370645523071e-01
4.594405740499496460e-02
8.619668334722518921e-02
-7.534662634134292603e-02
-3.324700891971588135e-01
-9.982493519783020020e-02
3.581359088420867920e-01
-1.138180121779441833e-01
-2.094271481037139893e-01
-1.265812069177627563e-01
-3.915157020092010498e-01
2.763632237911224365e-01
-3.965227901935577393e-01
-4.252788424491882324e-01
-6.272376775741577148e-01
-7.004572451114654541e-02
-3.601026535034179688e-01
-4.050823450088500977e-01
-1.940905302762985229e-01
4.809836298227310181e-02
-1.431141495704650879e-01
-4.511351883411407471e-01
-2.976759672164916992e-01
-2.924713790416717529e-01
3.619395494461059570e-01
-1.447299867868423462e-01
-6.021493673324584961e-01
-3.494753837585449219e-01
-5.648363754153251648e-02
-2.700334191322326660e-01
-1.179728284478187561e-01
2.741407416760921478e-02
-1.573875993490219116e-01
-8.935093879699707031e-02
3.611351847648620605e-01
2.832826077938079834e-01
-6.171173229813575745e-02
-3.066734373569488525e-01
-1.853696405887603760e-01
2.858954966068267822e-01
-1.820995658636093140e-02
-4.683629050850868225e-02
-1.477044373750686646e-01
6.386823952198028564e-02
-6.472861766815185547e-02
-4.425151646137237549e-02
5.943060293793678284e-02
-6.365521997213363647e-02
1.501245647668838501e-01
1.395548433065414429e-01
2.944367527961730957e-01
1.892509013414382935e-01
6.546211987733840942e-02
-1.768922358751296997e-01
3.774015009403228760e-01
-3.596213087439537048e-02
-5.019092932343482971e-04
-5.818336829543113708e-02
-3.605403006076812744e-01
-1.586630940437316895e-02
-6.027275696396827698e-02
1.099955067038536072e-01
-4.050323367118835449e-01
-1.414094716310501099e-01
-7.267329841852188110e-02
1.333770602941513062e-01
1.056023165583610535e-01
-1.036052405834197998e-01
6.217866390943527222e-02
1.107191815972328186e-01
1.560556441545486450e-01
-6.504527479410171509e-02
-7.354282736778259277e-01
3.665829598903656006e-01
1.295236647129058838e-01
2.564363740384578705e-02
-5.638273954391479492e-01
-1.610407829284667969e-01
3.972582519054412842e-01
-2.292140573263168335e-02
-1.991281211376190186e-01
-3.644256293773651123e-01
1.560369506478309631e-02
2.595199048519134521e-01
-2.291614860296249390e-01
-3.401460498571395874e-02
1.300273239612579346e-01
-1.075474619865417480e-01
-3.114620968699455261e-02
2.595070302486419678e-01
-1.068275794386863708e-01
-1.368880718946456909e-01
-1.234009712934494019e-01
2.536346316337585449e-01
-5.529278889298439026e-02
6.212126463651657104e-03
3.316944837570190430e-02
1.499802321195602417e-01
-9.084761142730712891e-03
-1.635549403727054596e-02
2.327157557010650635e-02
4.433473348617553711e-01
2.123145461082458496e-01
-1.583785265684127808e-01
-1.974679678678512573e-01
-4.167573899030685425e-02
8.736027777194976807e-02
4.112773761153221130e-02
-1.934491991996765137e-01
1.080070883035659790e-01
3.423865884542465210e-02
3.043559193611145020e-01
-1.786044985055923462e-01
9.908121079206466675e-02
1.353753060102462769e-01
3.510972857475280762e-02
-3.043176531791687012e-01
3.792207837104797363e-01
2.441174834966659546e-01
1.661354005336761475e-01
-2.858847845345735550e-03
2.047900557518005371e-01
-3.777545988559722900e-01
3.609341084957122803e-01
2.264283150434494019e-01
2.167999595403671265e-01
-1.322250813245773315e-01
2.863218188285827637e-01
2.010806947946548462e-01
-3.280903398990631104e-02
-3.208216428756713867e-01
-8.952902257442474365e-02
8.294606208801269531e-02
3.441659361124038696e-02
-3.774152994155883789e-01
5.862890183925628662e-02
-1.554593741893768311e-01
3.659030795097351074e-01
-1.802006363868713379e-01
-1.297723315656185150e-02
-3.748288154602050781e-01
4.532775580883026123e-01
-3.406972885131835938e-01
-2.932454645633697510e-01
-2.220524847507476807e-01
1.112302616238594055e-01
-7.210089266300201416e-02
-1.852744966745376587e-01
-5.238000154495239258e-01
4.921159893274307251e-02
2.153010815382003784e-01
-3.096259236335754395e-01
-2.622337639331817627e-01
-1.167135760188102722e-01
5.422698259353637695e-01
2.548633813858032227e-01
1.639771908521652222e-01
-1.507807970046997070e-01
7.048330456018447876e-02
4.872258007526397705e-02
1.048424392938613892e-01
-1.592366844415664673e-01
1.099386066198348999e-01
-1.896154433488845825e-01
-7.931913435459136963e-02
6.372686475515365601e-02
1.573068797588348389e-01
4.366366937756538391e-02
2.987425327301025391e-01
3.210197761654853821e-02
3.660548329353332520e-01
-3.979053795337677002e-01
-3.205082416534423828e-01
-7.714504376053810120e-03
-1.098565608263015747e-01
-3.683913052082061768e-01
-9.944242984056472778e-02
1.631551086902618408e-01
-4.965328276157379150e-01
-5.477808043360710144e-02
2.423289418220520020e-02
7.069249451160430908e-02
-3.640688359737396240e-01
-5.595367774367332458e-02
-5.716809630393981934e-01
-3.650424778461456299e-01
-2.668262720108032227e-01
-2.601175010204315186e-01
-1.966340392827987671e-01
-1.668282598257064819e-01
-1.272978335618972778e-01
-2.521479129791259766e-01
9.214789420366287231e-02
1.166412979364395142e-01
-2.653630077838897705e-02
-1.768677532672882080e-01
-5.100429430603981018e-02
-6.652442365884780884e-02
-5.023830756545066833e-02
-2.070944309234619141e-01
-2.982699275016784668e-01
-5.176027864217758179e-02
-1.209774911403656006e-01
2.689237296581268311e-01
3.766455054283142090e-01
5.481601506471633911e-02
1.518979966640472412e-01
9.748659282922744751e-02
1.667648851871490479e-01
2.884199023246765137e-01
4.132746458053588867e-01
-1.691355258226394653e-01
9.461800754070281982e-02
1.831335574388504028e-01
1.633864641189575195e-01
-2.213385850191116333e-01
-2.212132215499877930e-01
-8.706342428922653198e-02
2.613011375069618225e-02
-1.780218333005905151e-01
-3.197309374809265137e-01
-3.633474707603454590e-01
3.410669043660163879e-02
6.055705621838569641e-02
-3.062490001320838928e-02
1.137994006276130676e-01
1.943626999855041504e-01
-1.321540623903274536e-01
-4.754386097192764282e-02
-1.205469947308301926e-02
2.049984037876129150e-01
3.279289007186889648e-01
2.327184081077575684e-01
-1.179973632097244263e-01
-2.861660122871398926e-01
3.430717065930366516e-02
2.170609533786773682e-01
3.196248412132263184e-01
4.023204743862152100e-01
1.181897297501564026e-01
5.265828594565391541e-02
4.682603105902671814e-02
5.475887060165405273e-01
3.195399045944213867e-01
-1.053335070610046387e-01
6.356121599674224854e-02
2.952155172824859619e-01
1.798655241727828979e-01
3.870657384395599365e-01
-1.940727978944778442e-02
1.859984477050602436e-03
-2.282943874597549438e-01
1.126830950379371643e-01
-1.562054851092398167e-03
1.339734345674514771e-01
-6.992480903863906860e-02
1.571311801671981812e-01
-2.486563324928283691e-01
1.914928406476974487e-01
-1.728220731019973755e-01
1.826964020729064941e-01
-2.146299183368682861e-01
-9.172822535037994385e-02
2.266232520341873169e-01
3.743571937084197998e-01
-3.898897469043731689e-01
-1.540255248546600342e-01
-2.782646333798766136e-03
6.070693209767341614e-02
4.321548342704772949e-02
-2.415065020322799683e-01
3.205532729625701904e-01
2.096500014886260033e-03
1.715448498725891113e-01
3.653776645660400391e-01
6.839224696159362793e-02
9.452123194932937622e-02
2.744250297546386719e-01
4.981212317943572998e-01
-1.541763991117477417e-01
-2.596143186092376709e-01
-2.417717427015304565e-01
-1.171205714344978333e-01
3.970761224627494812e-02
-7.184703648090362549e-02
-1.207252517342567444e-01
-2.097675055265426636e-01
8.194594830274581909e-02
1.727097481489181519e-01
1.062034144997596741e-01
-2.814768627285957336e-02
-3.866343293339014053e-03
-1.120066549628973007e-02
2.029651701450347900e-01
4.984627291560173035e-02
1.584774442017078400e-02
1.640750169754028320e-01
2.162714153528213501e-01
1.038991883397102356e-01
-1.897018700838088989e-01
-9.912452846765518188e-02
5.042130127549171448e-03
-1.232070252299308777e-01
-5.752074718475341797e-02
4.748564213514328003e-02
-1.205519437789916992e-01
-2.280449867248535156e-01
-7.110041379928588867e-02
2.490424215793609619e-01
5.428798496723175049e-03
4.964275658130645752e-02
-1.182093173265457153e-01
-6.824282556772232056e-02
-1.195592731237411499e-01
4.794558882713317871e-02
2.091508507728576660e-01
3.482823669910430908e-01
3.253075480461120605e-01
1.323745399713516235e-01
5.096349120140075684e-01
8.407694697380065918e-01
3.051702082157135010e-01
2.469086349010467529e-01
2.683141529560089111e-01
3.365687131881713867e-01
1.266354620456695557e-01
8.578465133905410767e-02
2.432931773364543915e-02
-2.537471354007720947e-01
-4.618444740772247314e-01
-5.114418268203735352e-02
2.606874406337738037e-01
-1.467158645391464233e-01
-8.821537345647811890e-02
-1.444981247186660767e-02
2.928403615951538086e-01
-5.521991103887557983e-02
1.285102218389511108e-01
3.588905557990074158e-02
2.843385636806488037e-01
-4.744911566376686096e-02
-1.201111972332000732e-01
-3.058847188949584961e-01
1.862366050481796265e-01
1.322039663791656494e-01
1.551133245229721069e-01
-5.037532374262809753e-02
2.250006943941116333e-01
3.733584582805633545e-01
-2.669860124588012695e-01
-1.975027769804000854e-01
-3.950535058975219727e-01
-2.761005163192749023e-01
-6.741020083427429199e-01
-3.877156376838684082e-01
-2.111418843269348145e-01
6.527439504861831665e-02
-6.682889163494110107e-02
-1.561651676893234253e-01
1.735941693186759949e-02
1.217210590839385986e-01
1.558827608823776245e-01
1.457967311143875122e-01
-6.664153188467025757e-02
4.977954179048538208e-02
-8.906268328428268433e-02
4.297238588333129883e-02
-4.518895447254180908e-01
-1.799512803554534912e-01
-3.948391601443290710e-02
-2.500729560852050781e-01
-4.942009747028350830e-01
-6.844406016170978546e-03
-9.720644354820251465e-02
4.970513749867677689e-03
2.299976646900177002e-01
1.349816620349884033e-01
3.075365722179412842e-01
1.809886693954467773e-01
5.074836015701293945e-01
2.524440586566925049e-01
1.244000196456909180e-01
1.242247447371482849e-01
1.773716807365417480e-01
3.376944959163665771e-01
1.696923561394214630e-02
1.701239645481109619e-01
-9.617936797440052032e-03
4.179607629776000977e-01
1.076151505112648010e-01
-2.550752460956573486e-01
9.938766062259674072e-02
2.653116881847381592e-01
3.197605311870574951e-01
-1.027836799621582031e-01
1.299724429845809937e-01
-1.133892163634300232e-01
-1.392942219972610474e-01
-1.702286601066589355e-01
9.576711803674697876e-02
-2.016082108020782471e-01
-6.759503483772277832e-02
-3.439846038818359375e-01
2.290093898773193359e-01
1.907069608569145203e-02
3.536600619554519653e-02
-8.716069906949996948e-02
4.185863211750984192e-02
-2.025370672345161438e-02
-4.027724638581275940e-02
-1.397161744534969330e-02
2.805369794368743896e-01
2.571726441383361816e-01
3.808754980564117432e-01
1.306481212377548218e-01
2.686559259891510010e-01
2.876864075660705566e-01
3.116185069084167480e-01
1.098124906420707703e-01
2.288191616535186768e-01
4.094492793083190918e-01
2.970814108848571777e-01
2.268666177988052368e-01
3.317637741565704346e-01
1.296119391918182373e-01
-1.214878335595130920e-01
4.260804876685142517e-02
5.093369260430335999e-02
-2.499467320740222931e-02
-2.526155859231948853e-02
2.269674837589263916e-01
1.004659384489059448e-01
2.726341485977172852e-01
1.979712247848510742e-01
1.318964511156082153e-01
2.604815959930419922e-01
3.736978471279144287e-01
1.282322853803634644e-01
3.424206376075744629e-02
-1.318839490413665771e-01
1.523057091981172562e-02
-2.454007863998413086e-01
-1.740739941596984863e-01
-6.305620819330215454e-02
-6.869651377201080322e-02
-1.784472842700779438e-03
-1.727422922849655151e-01
-4.846423491835594177e-02
-2.529878541827201843e-02
8.952420204877853394e-03
-1.608292311429977417e-01
-3.722834885120391846e-01
3.511550650000572205e-02
1.462148874998092651e-01
-3.723561465740203857e-01
-9.022504091262817383e-02
-2.775843441486358643e-02
-2.060625106096267700e-01
-5.274259299039840698e-02
-7.788939028978347778e-02
2.222814410924911499e-01
4.049950093030929565e-02
6.843628734350204468e-02
6.808663159608840942e-02
-6.531593389809131622e-03
2.789326710626482964e-03
2.154172956943511963e-01
-1.400267146527767181e-02
-3.091792389750480652e-02
-1.392765492200851440e-01
-2.680104691535234451e-03
1.306480616331100464e-01
-1.644601114094257355e-02
7.814352214336395264e-02
-2.238093018531799316e-01
1.873861998319625854e-01
-6.385738495737314224e-03
6.638029962778091431e-02
-1.405781954526901245e-01
2.923069596290588379e-01
3.610872924327850342e-01
3.993092104792594910e-02
1.397742480039596558e-01
1.351738870143890381e-01
3.846775889396667480e-01
2.702681720256805420e-01
8.736316859722137451e-02
3.173740208148956299e-01
-2.512724101543426514e-01
-8.143609762191772461e-02
1.077717915177345276e-02
5.811535939574241638e-02
-1.462383717298507690e-01
-2.491353899240493774e-01
3.153129816055297852e-01
-5.786123219877481461e-03
-3.207626044750213623e-01
-1.682859063148498535e-01
1.186549216508865356e-01
-2.814581245183944702e-02
-2.783364057540893555e-01
-1.629475504159927368e-01
-5.699492990970611572e-02
-3.524344041943550110e-02
-5.974980443716049194e-02
5.577518790960311890e-02
5.897701531648635864e-02
3.228379786014556885e-02
-2.167232334613800049e-01
-1.311715692281723022e-01
-1.669702529907226562e-01
-6.531549245119094849e-02
3.290493413805961609e-02
-2.595409564673900604e-02
-1.498317420482635498e-01
4.618917033076286316e-02
-2.621791958808898926e-01
-1.423718035221099854e-01
-8.347541838884353638e-02
-8.305747807025909424e-02
1.723240017890930176e-01
4.024043083190917969e-01
1.037702262401580811e-01
-4.894516617059707642e-02
2.074173837900161743e-01
-8.212473988533020020e-02
-1.003678068518638611e-01
-4.511151835322380066e-02
9.312358684837818146e-03
-1.336330920457839966e-01
-4.796208441257476807e-01
-1.608077436685562134e-01
-1.598663777112960815e-01
-2.136941403150558472e-01
-8.203176856040954590e-01
-1.152849122881889343e-01
-2.553353905677795410e-01
-4.721695184707641602e-01
-5.822820961475372314e-02
2.717776894569396973e-01
-2.354818582534790039e-02
-2.714975476264953613e-01
6.962614599615335464e-03
1.073942333459854126e-01
3.118038410320878029e-03
6.578840315341949463e-02
-5.046272650361061096e-02
-1.587205529212951660e-01
-2.304258793592453003e-01
-1.917933374643325806e-01
-1.045459583401679993e-01
-1.609275639057159424e-01
-1.540174931287765503e-01
-1.647513955831527710e-01
-2.201635241508483887e-01
-2.623690366744995117e-01
-2.619537115097045898e-01
-1.642415374517440796e-01
-4.729059636592864990e-01
-1.732037663459777832e-01
-2.258975952863693237e-01
-2.823880314826965332e-01
-5.477358102798461914e-01
-2.297151982784271240e-01
-3.177674114704132080e-01
-6.156317591667175293e-01
-7.769205570220947266e-01
-4.406788572669029236e-02
-3.188041597604751587e-02
2.786131203174591064e-01
1.576236188411712646e-01
-2.953729331493377686e-01
-1.038923263549804688e-01
2.343026995658874512e-01
1.934041231870651245e-01
-1.010128408670425415e-01
-1.399019509553909302e-01
2.025312371551990509e-02
3.384851515293121338e-01
3.600839525461196899e-03
-1.356821209192276001e-01
1.930926181375980377e-02
2.201012670993804932e-01
2.453642338514328003e-01
4.929981231689453125e-01
4.137990176677703857e-01
4.280740916728973389e-01
1.727547943592071533e-01
2.068986445665359497e-01
3.573050200939178467e-01
1.109431535005569458e-01
1.897789239883422852e-01
5.375519394874572754e-03
1.057324111461639404e-01
-3.588488325476646423e-02
-3.303398191928863525e-02
2.642611265182495117e-01
4.554181396961212158e-01
3.396006226539611816e-01
1.043109670281410217e-01
3.158258497714996338e-01
2.406635433435440063e-01
2.588038742542266846e-01
2.393037676811218262e-01
2.923060059547424316e-01
1.924780905246734619e-01
2.824356853961944580e-01
-1.680095493793487549e-01
4.209475591778755188e-02
1.762545257806777954e-01
3.357470929622650146e-01
-2.672829031944274902e-01
8.607798069715499878e-02
4.440616369247436523e-01
5.119659900665283203e-01
5.483467876911163330e-02
1.524912416934967041e-01
2.223401218652725220e-01
2.422537058591842651e-01
3.568003475666046143e-01
7.361832261085510254e-02
2.038026750087738037e-01
2.643501758575439453e-01
-4.336188361048698425e-02
-1.132700070738792419e-01
-5.894562602043151855e-02
-8.769339881837368011e-03
-2.928428053855895996e-01
-5.812448263168334961e-01
-3.493581116199493408e-01
-4.816450551152229309e-02
7.559322565793991089e-02
8.220565319061279297e-02
-1.084527894854545593e-01
-2.208446264266967773e-01
1.108535677194595337e-01
3.798345848917961121e-02
-1.369262188673019409e-01
-1.555619090795516968e-01
8.746984414756298065e-03
-8.543499559164047241e-02
-1.600712537765502930e-01
-3.264219462871551514e-01
1.277550756931304932e-01
-3.851996362209320068e-02
-1.135627105832099915e-01
-1.914196908473968506e-01
9.389773756265640259e-02
7.953703403472900391e-03
2.940080361440777779e-03
8.683007210493087769e-02
4.231734573841094971e-02
7.567105349153280258e-03
1.070182472467422485e-01
1.467569172382354736e-01
3.602959960699081421e-02
-1.030829697847366333e-01
8.835954964160919189e-02
8.944410085678100586e-02
5.938532575964927673e-02
1.720899529755115509e-02
-2.956294827163219452e-02
1.037546172738075256e-01
1.666253656148910522e-01
1.619521230459213257e-01
5.929069966077804565e-02
1.233315933495759964e-02
1.163604408502578735e-01
-5.327028781175613403e-02
8.989309519529342651e-02
-1.248012483119964600e-02
1.747352927923202515e-01
1.886485069990158081e-01
6.229079142212867737e-02
-1.125625446438789368e-01
1.419845074415206909e-01
2.927858233451843262e-01
1.053821593523025513e-01
-2.666300162672996521e-02
2.141620814800262451e-01
1.514556556940078735e-01
-7.097085565328598022e-02
-2.312160432338714600e-01
-1.472806334495544434e-01
1.348425149917602539e-01
2.106695324182510376e-01
-9.550376981496810913e-02
1.006557419896125793e-01
1.633587181568145752e-01
2.760671675205230713e-01
-5.243485793471336365e-02
1.498743146657943726e-01
3.852156400680541992e-01
2.257560342550277710e-01
2.925122082233428955e-01
1.031133756041526794e-01
-5.909880623221397400e-02
4.400490596890449524e-02
1.074039414525032043e-01
-2.709269821643829346e-01
-3.872018158435821533e-01
-9.697259217500686646e-02
-1.727657169103622437e-01
-1.887162588536739349e-02
-6.702508926391601562e-01
-1.748305112123489380e-01
-5.020892024040222168e-01
-3.126071393489837646e-01
-4.019937813282012939e-01
-2.598381340503692627e-01
-4.294484257698059082e-01
7.806409150362014771e-02
3.730120509862899780e-02
2.729807496070861816e-01
3.721471428871154785e-01
1.333798021078109741e-01
4.867991432547569275e-02
2.217876315116882324e-01
2.788201272487640381e-01
-6.917632650583982468e-03
-2.377882152795791626e-01
1.259492989629507065e-02
-8.841754496097564697e-02
-7.348889112472534180e-02
-4.541269242763519287e-01
-2.678646147251129150e-01
-2.321482002735137939e-01
2.393532395362854004e-01
2.108244746923446655e-01
2.622373104095458984e-01
2.186357975006103516e-01
-1.194113567471504211e-01
1.393294036388397217e-01
2.108542919158935547e-01
7.441619038581848145e-02
-8.717924356460571289e-02
7.611629366874694824e-02
2.651909738779067993e-02
-1.130147129297256470e-01
4.807461053133010864e-02
1.450913101434707642e-01
-1.585183292627334595e-01
-2.777734100818634033e-01
5.016180872917175293e-02
-3.533537732437252998e-03
8.900289237499237061e-02
2.654801011085510254e-01
-2.132306247949600220e-01
-3.609886765480041504e-01
-8.453267067670822144e-02
2.108298093080520630e-01
-2.266012877225875854e-01
1.969783008098602295e-01
1.934281587600708008e-01
-3.374151885509490967e-02
2.121083289384841919e-01
1.511241197586059570e-01
-2.681835182011127472e-02
-5.042691528797149658e-02
-2.332658171653747559e-01
-3.302646428346633911e-02
7.487666606903076172e-02
-1.631902158260345459e-01
6.000131368637084961e-02
3.871608674526214600e-01
-4.421208426356315613e-02
-1.476309895515441895e-01
2.478434517979621887e-02
4.864994902163743973e-03
-1.163059026002883911e-01
-1.151257678866386414e-01
-7.094193994998931885e-02
-2.536098361015319824e-01
-5.305994153022766113e-01
-2.568947672843933105e-01
-2.202568054199218750e-01
-2.381651997566223145e-01
-3.302071616053581238e-02
-4.178465604782104492e-01
-5.715949009754694998e-05
-4.800635389983654022e-03
1.232986971735954285e-01
-1.787351518869400024e-01
-5.494081228971481323e-02
7.847978174686431885e-02
2.041429132223129272e-01
-7.844713330268859863e-02
8.208970725536346436e-02
7.240622490644454956e-02
-2.650233916938304901e-02
-2.004405111074447632e-02
-8.538434654474258423e-02
-5.746145844459533691e-01
-2.702981233596801758e-01
6.661459803581237793e-02
-2.537510991096496582e-01
-4.696868956089019775e-01
-6.619299203157424927e-02
-8.732902258634567261e-02
-1.872286796569824219e-01
-1.607129275798797607e-01
-4.240324199199676514e-01
-7.100460529327392578e-01
-3.951687514781951904e-01
-6.407315135002136230e-01
-6.212696433067321777e-01
-6.778780817985534668e-01
3.896144032478332520e-01
1.922927796840667725e-01
2.845171391963958740e-01
3.089418709278106689e-01
3.132876455783843994e-01
1.265479326248168945e-01
1.559780687093734741e-01
1.560005992650985718e-01
1.880388110876083374e-01
9.964551031589508057e-02
7.394428551197052002e-02
7.903567701578140259e-02
-1.625007018446922302e-02
-1.820950210094451904e-01
-9.836477041244506836e-02
-1.862167268991470337e-01
-2.052561640739440918e-01
-1.353944838047027588e-01
7.938915491104125977e-02
5.041790008544921875e-02
-3.383169323205947876e-02
-1.149196401238441467e-01
2.202596068382263184e-01
4.968446120619773865e-02
2.767750062048435211e-02
-1.272107660770416260e-01
-1.057379916310310364e-01
7.086595892906188965e-02
2.818725705146789551e-01
1.555766612291336060e-01
2.355804741382598877e-01
2.827203273773193359e-01
9.229314327239990234e-02
-1.269205473363399506e-02
-6.295180320739746094e-01
-6.459414362907409668e-01
1.554859131574630737e-01
-1.320902258157730103e-02
-2.958351671695709229e-01
-3.336511850357055664e-01
-4.588860273361206055e-02
6.122932769358158112e-03
-3.339741826057434082e-01
-4.558756649494171143e-01
2.344200760126113892e-02
-1.247326359152793884e-01
-2.191486954689025879e-01
-1.133081316947937012e-02
-1.481665074825286865e-01
2.348475456237792969e-01
2.661650180816650391e-01
3.064015209674835205e-01
-1.781720072031021118e-01
-8.939317613840103149e-02
3.581392765045166016e-01
1.006414741277694702e-01
-1.718208044767379761e-01
3.173131495714187622e-02
2.960734963417053223e-01
2.526319622993469238e-01
3.918770328164100647e-02
1.401658356189727783e-01
1.095855683088302612e-01
7.670076936483383179e-02
3.372232243418693542e-02
1.168044377118349075e-02
-3.787370771169662476e-02
-1.082057580351829529e-01
2.041527070105075836e-02
4.811766557395458221e-03
6.497594714164733887e-02
-2.075051963329315186e-01
1.173660829663276672e-01
-1.373563259840011597e-01
-2.260453552007675171e-01
-9.622250683605670929e-03
1.570421755313873291e-01
-7.277828454971313477e-02
-2.837286293506622314e-01
2.731469273567199707e-01
1.359035540372133255e-02
-2.796556353569030762e-01
-2.554263472557067871e-01
-2.272842973470687866e-01
2.812433987855911255e-03
-3.041865825653076172e-01
-9.586627036333084106e-02
1.895610541105270386e-01
1.392316818237304688e-01
1.003052741289138794e-01
2.277237921953201294e-01
2.960014343261718750e-01
3.876383900642395020e-01
4.201784729957580566e-02
7.452470064163208008e-02
4.224962294101715088e-01
-1.289473772048950195e-01
-3.276272863149642944e-02
1.790369749069213867e-01
1.290048658847808838e-01
-4.015126228332519531e-01
-8.263342827558517456e-02
9.575282037258148193e-02
3.416732326149940491e-02
3.080727346241474152e-02
6.959805637598037720e-02
4.091622307896614075e-02
-3.206212222576141357e-01
-2.363192588090896606e-01
-8.517035096883773804e-02
-1.014076620340347290e-01
-3.263225257396697998e-01
1.683050543069839478e-01
2.307838946580886841e-01
2.985234856605529785e-01
2.126362621784210205e-01
-8.335880190134048462e-02
-1.752950251102447510e-01
1.435749977827072144e-01
-6.759758293628692627e-02
-6.860230863094329834e-02
-2.642852813005447388e-02
1.973826624453067780e-02
-8.043375611305236816e-02
8.560527116060256958e-02
3.460718095302581787e-01
5.037444233894348145e-01
-2.476925551891326904e-01
-6.930874288082122803e-02
4.945813864469528198e-02
-3.109448552131652832e-01
-2.863426506519317627e-01
-2.791762351989746094e-01
-1.078968346118927002e-01
-1.735460013151168823e-01
-3.320711255073547363e-01
-2.457026541233062744e-01
-2.274351865053176880e-01
-2.492957711219787598e-01
-3.125542998313903809e-01
-4.540309906005859375e-01
-6.343482136726379395e-01
-6.634522676467895508e-01
-5.842962861061096191e-01
9.289413690567016602e-02
3.460481166839599609e-01
3.342231512069702148e-01
4.112076479941606522e-03
1.112940534949302673e-01
1.051798239350318909e-01
2.183896899223327637e-01
1.836681365966796875e-01
2.404798120260238647e-01
1.055705323815345764e-01
8.012138307094573975e-02
2.180287539958953857e-01
2.464414983987808228e-01
3.170634508132934570e-01
1.089730113744735718e-01
2.504401095211505890e-02
-2.053793072700500488e-01
-1.992243230342864990e-01
-1.144964918494224548e-01
-1.168650761246681213e-01
-1.170303001999855042e-01
-6.514847278594970703e-02
-1.903763860464096069e-01
1.283175684511661530e-02
1.856782138347625732e-01
-1.555416882038116455e-01
-1.945980489253997803e-01
-2.195031493902206421e-01
1.684510707855224609e-01
-3.050550073385238647e-02
-3.546279966831207275e-01
-1.350999325513839722e-01
2.127639800310134888e-01
1.191444993019104004e-01
-1.452707797288894653e-01
-3.283756375312805176e-01
2.768519222736358643e-01
2.275799959897994995e-02
2.259108871221542358e-01
7.767048478126525879e-02
2.789866328239440918e-01
1.862454712390899658e-01
2.976703941822052002e-01
1.621872633695602417e-01
6.878743171691894531e-01
5.943760871887207031e-01
3.627662956714630127e-01
-8.321274816989898682e-02
-1.272578090429306030e-01
3.849858418107032776e-02
-2.134673148393630981e-01
-2.055084332823753357e-02
-2.624866086989641190e-03
2.956283986568450928e-01
2.419843524694442749e-01
-1.709530502557754517e-01
1.343116164207458496e-01
3.425481319427490234e-01
3.192075490951538086e-01
-1.781044453382492065e-01
1.422245353460311890e-01
2.857688367366790771e-01
2.231445908546447754e-01
4.103728383779525757e-02
1.606247574090957642e-02
-3.394886106252670288e-02
-3.066373765468597412e-01
9.311494976282119751e-02
-8.798325434327125549e-03
8.073277771472930908e-02
-1.466562002897262573e-01
-2.314853370189666748e-01
-5.150146409869194031e-02
8.218011260032653809e-02
-7.511747628450393677e-02
-2.061311602592468262e-01
-3.262386471033096313e-02
-2.579819560050964355e-01
-1.927604973316192627e-01
6.447177380323410034e-02
1.633059382438659668e-01
1.468701660633087158e-01
4.437690600752830505e-02
2.836435437202453613e-01
2.555330395698547363e-01
2.504049241542816162e-01
1.158552169799804688e-01
2.395603656768798828e-01
-7.017655670642852783e-02
2.164691984653472900e-01
1.525815874338150024e-01
-2.276573516428470612e-02
-1.483239978551864624e-01
-2.278817743062973022e-01
-1.216069236397743225e-01
6.685064639896154404e-03
4.395770281553268433e-02
-9.446338564157485962e-02
9.687826782464981079e-02
-1.031145304441452026e-01
2.415130883455276489e-01
1.544271260499954224e-01
8.817880600690841675e-02
1.461658179759979248e-01
-3.742015659809112549e-01
1.311878412961959839e-01
-1.207797303795814514e-01
7.018192112445831299e-02
-4.229469224810600281e-02
-8.118790388107299805e-02
6.071292608976364136e-02
5.049236863851547241e-02
1.203024573624134064e-02
1.120036393404006958e-01
-5.501833185553550720e-02
-3.395774364471435547e-01
7.684653252363204956e-02
3.395136892795562744e-01
-1.046028435230255127e-01
-1.000806167721748352e-01
-1.995412819087505341e-02
1.959299445152282715e-01
-1.392346173524856567e-01
1.891275942325592041e-01
-4.433352649211883545e-01
-2.816724777221679688e-01
-1.560692936182022095e-01
1.886925399303436279e-01
-5.940197408199310303e-02
-1.096999496221542358e-01
1.801545023918151855e-01
-1.274508237838745117e-01
-1.707449853420257568e-01
-2.009043842554092407e-01
2.243279479444026947e-02
-1.625981479883193970e-01
-1.744735836982727051e-01
-2.461463660001754761e-01
-9.277598559856414795e-02
8.021580055356025696e-03
-3.154928684234619141e-01
-3.264267444610595703e-01
-1.990967094898223877e-01
-1.007529646158218384e-01
-1.752362549304962158e-01
-1.156142279505729675e-01
-8.020336390472948551e-04
1.488578915596008301e-01
3.397310525178909302e-02
5.998270213603973389e-02
-1.143847703933715820e-01
-6.754715740680694580e-02
4.914848133921623230e-02
1.568353176116943359e-01
1.703106462955474854e-01
1.837422549724578857e-01
-3.708564937114715576e-01
3.556433320045471191e-01
6.415445208549499512e-01
2.080396376550197601e-02
3.716679215431213379e-01
2.431069165468215942e-01
-2.537458240985870361e-01
1.371639221906661987e-01
1.190497502684593201e-01
9.929481148719787598e-02
-2.419968247413635254e-01
-1.141648143529891968e-01
2.270155698060989380e-01
3.693497553467750549e-02
-8.993470668792724609e-02
6.953082233667373657e-02
6.377466022968292236e-02
2.793677896261215210e-02
9.624250978231430054e-02
2.662736475467681885e-01
-1.621839590370655060e-02
-9.727684408426284790e-02
2.156657576560974121e-01
2.186811901628971100e-02
1.032492611557245255e-02
1.874235868453979492e-01
3.204129040241241455e-01
2.089203894138336182e-02
-8.351790159940719604e-02
1.764297634363174438e-01
-1.114458516240119934e-01
9.718135744333267212e-02
-2.518598437309265137e-01
-1.707709431648254395e-01
1.859277188777923584e-01
-1.841541752219200134e-02
2.260616421699523926e-01
-9.142424166202545166e-02
6.075096130371093750e-02
2.850900217890739441e-02
1.319095194339752197e-01
8.983328193426132202e-02
4.802764952182769775e-02
1.799260675907135010e-01
1.536526978015899658e-01
-1.320679206401109695e-02
-8.193682879209518433e-03
-1.935608685016632080e-01
1.901429593563079834e-01
-3.103818297386169434e-01
-2.772850990295410156e-01
-6.569489836692810059e-02
2.444335818290710449e-02
-2.646635472774505615e-01
-2.114739455282688141e-02
-1.123268380761146545e-01
1.150911375880241394e-01
1.146045420318841934e-02
3.052235841751098633e-01
-6.444296240806579590e-02
2.716273628175258636e-02
2.313735932111740112e-01
4.252159893512725830e-01
3.658829033374786377e-01
1.200730726122856140e-01
5.843940973281860352e-01
3.881086707115173340e-01
9.815022349357604980e-02
-1.436021924018859863e-01
-4.381251931190490723e-01
-2.684460580348968506e-01
-3.492240607738494873e-01
-1.371895670890808105e-01
-2.191274911165237427e-01
-6.606260687112808228e-02
-6.863589584827423096e-02
1.338611245155334473e-01
-1.876553893089294434e-02
1.125087141990661621e-01
-1.004132479429244995e-01
1.078218743205070496e-01
-1.737007498741149902e-01
1.292541325092315674e-01
5.041693523526191711e-02
-1.107838898897171021e-01
1.336193829774856567e-02
2.166370488703250885e-02
1.725299060344696045e-01
1.855368018150329590e-01
2.346719801425933838e-01
6.415633112192153931e-02
-1.501747667789459229e-01
-1.352985948324203491e-01
-2.804040312767028809e-01
4.924800992012023926e-02
-3.665883243083953857e-01
-5.612908005714416504e-01
-5.228044390678405762e-01
-5.605925917625427246e-01
-6.639145016670227051e-01
-1.710009574890136719e-01
-3.624470233917236328e-01
-4.355447292327880859e-01
-1.735573112964630127e-01
1.970182508230209351e-01
1.256016641855239868e-01
7.441001385450363159e-02
1.590559445321559906e-02
-1.306289434432983398e-01
-7.711044698953628540e-02
5.940245464444160461e-02
1.137285083532333374e-01
-4.184933006763458252e-01
9.484559297561645508e-03
-5.617256090044975281e-02
1.883415877819061279e-02
2.586138248443603516e-01
1.950986534357070923e-01
5.141102895140647888e-02
-1.730085909366607666e-02
-2.866879105567932129e-01
-2.960025966167449951e-01
-4.301114380359649658e-01
-5.338237285614013672e-01
-4.632392227649688721e-01
-3.532949462532997131e-02
-9.745491296052932739e-02
1.539058536291122437e-01
1.955571770668029785e-02
1.504328250885009766e-01
1.953651756048202515e-01
2.933915555477142334e-01
2.433161735534667969e-01
-2.793195545673370361e-01
-4.247784614562988281e-01
8.644860237836837769e-02
-4.148910939693450928e-01
-7.431737333536148071e-02
-3.008345365524291992e-01
-2.555317878723144531e-01
-7.733052968978881836e-02
-1.958897151052951813e-02
-1.502194106578826904e-01
-8.190434426069259644e-02
1.624723374843597412e-01
-5.999900400638580322e-02
3.557438775897026062e-02
1.210510134696960449e-01
-9.722675383090972900e-02
-5.296543240547180176e-01
-8.543715626001358032e-02
3.420448005199432373e-01
-2.939209640026092529e-01
4.741407558321952820e-02
-3.592072725296020508e-01
7.722906768321990967e-02
-2.921280562877655029e-01
-4.162918776273727417e-02
-1.597803980112075806e-01
3.244723975658416748e-01
2.788974344730377197e-01
1.157232671976089478e-01
-9.254629723727703094e-03
-3.738203644752502441e-02
-1.162622869014739990e-01
-1.222132593393325806e-01
-2.520557940006256104e-01
-3.985543735325336456e-03
4.428201541304588318e-02
-1.103221401572227478e-01
-1.987356692552566528e-01
2.114007435739040375e-02
-7.803934626281261444e-03
5.603273212909698486e-02
9.506512433290481567e-02
2.795314490795135498e-01
2.349675446748733521e-02
2.365065068006515503e-01
-5.126279219985008240e-02
4.760559499263763428e-01
-2.026541829109191895e-01
-4.921316355466842651e-02
1.002552658319473267e-01
4.712340235710144043e-02
-1.742740422487258911e-01
2.358595728874206543e-01
1.506759077310562134e-01
-8.099693222902715206e-04
-2.322523146867752075e-01
1.760016381740570068e-02
-8.466824144124984741e-02
1.422786526381969452e-02
1.387073248624801636e-01
9.151277691125869751e-02
-2.458024397492408752e-02
3.717314898967742920e-01
-1.544008553028106689e-01
1.941053718328475952e-01
-2.076833248138427734e-01
-7.252666354179382324e-01
-3.439093530178070068e-01
-2.965462505817413330e-01
1.823991164565086365e-02
-1.786707192659378052e-01
-1.327510178089141846e-01
7.644257694482803345e-02
1.409306973218917847e-01
1.213305070996284485e-01
-2.462470978498458862e-01
-3.261249884963035583e-02
-2.397988177835941315e-02
-5.902109667658805847e-02
1.314100176095962524e-01
7.353531569242477417e-02
4.152618646621704102e-01
5.574797987937927246e-01
-1.048482060432434082e-01
-2.296262532472610474e-01
-9.128689020872116089e-02
2.932805418968200684e-01
-1.263330876827239990e-01
-1.541863232851028442e-01
-6.821865588426589966e-02
-2.066158503293991089e-01
3.724738657474517822e-01
1.169589310884475708e-01
-1.943292319774627686e-01
-3.370780050754547119e-01
4.735499620437622070e-02
2.278965860605239868e-01
4.137823283672332764e-01
3.346239924430847168e-01
1.398935616016387939e-01
-4.413934797048568726e-02
2.428360469639301300e-02
1.943806707859039307e-01
3.589539229869842529e-01
1.280128061771392822e-01
-7.668145745992660522e-02
1.667671464383602142e-02
1.155466064810752869e-01
1.185952872037887573e-01
-3.285929560661315918e-02
7.457684725522994995e-02
1.580557823181152344e-01
1.121006999164819717e-02
3.668926060199737549e-01
5.771040916442871094e-01
-2.009075284004211426e-01
-3.371734321117401123e-01
2.678392231464385986e-01
5.126910284161567688e-02
1.363034695386886597e-01
-1.033105552196502686e-01
-5.872371792793273926e-02
-2.445535957813262939e-01
1.050649285316467285e-01
-1.661868095397949219e-01
-1.236624568700790405e-01
-1.314909905195236206e-01
2.590993642807006836e-01
2.207262665033340454e-01
-7.917234301567077637e-02
6.158683449029922485e-02
1.687837243080139160e-01
1.006632074713706970e-01
-8.570748567581176758e-02
3.284352645277976990e-02
1.509789228439331055e-01
1.203009858727455139e-02
-3.869479298591613770e-01
-2.846756577491760254e-01
-2.155236750841140747e-01
-9.466915391385555267e-03
-3.094192445278167725e-01
-1.480319947004318237e-01
-4.214193299412727356e-02
1.492607444524765015e-01
-1.985870450735092163e-01
-3.501711487770080566e-01
-3.843495249748229980e-02
1.300511881709098816e-02
2.407918870449066162e-02
1.137138381600379944e-01
-8.627490699291229248e-02
-3.293423950672149658e-01
-4.096321463584899902e-01
-1.644364744424819946e-01
-3.387366235256195068e-01
-7.121312618255615234e-01
-5.978647470474243164e-01
-8.371720910072326660e-01
1.061885058879852295e-01
4.339764639735221863e-02
1.123093068599700928e-01
3.325520753860473633e-01
1.877348721027374268e-01
2.056940495967864990e-01
1.336098164319992065e-01
-1.941125653684139252e-02
1.699618548154830933e-01
2.284201681613922119e-01
1.147437393665313721e-01
-8.016041666269302368e-02
-3.987538814544677734e-01
-5.940036848187446594e-02
4.697645455598831177e-02
-4.592566490173339844e-01
-1.686371415853500366e-01
-8.690263330936431885e-02
-4.244913458824157715e-01
-1.204511895775794983e-02
-1.467805504798889160e-01
-1.713478937745094299e-02
-4.315968453884124756e-01
-2.324824333190917969e-01
-1.217976734042167664e-01
7.823949307203292847e-02
-5.168075561523437500e-01
-7.075722217559814453e-01
1.566314548254013062e-01
-1.239411765709519386e-03
-2.061196118593215942e-01
-1.735325902700424194e-01
-4.510162770748138428e-01
-6.064103841781616211e-01
-1.368196010589599609e-01
-2.365588694810867310e-01
1.047526076436042786e-01
-1.757556945085525513e-01
-1.392182260751724243e-01
7.912647724151611328e-02
3.428101912140846252e-02
-6.577195972204208374e-02
-2.067991048097610474e-01
-4.147258028388023376e-02
8.657777309417724609e-02
-2.997217513620853424e-02
-7.843970321118831635e-03
1.373971402645111084e-01
-7.001435160636901855e-01
3.465953469276428223e-01
6.202358007431030273e-01
4.984097778797149658e-01
-1.005534678697586060e-01
-1.187294870615005493e-01
1.650110334157943726e-01
2.610133886337280273e-01
3.291841596364974976e-02
5.310403183102607727e-02
-6.206504628062248230e-02
1.680202335119247437e-01
-2.266985028982162476e-01
-5.822204798460006714e-02
-2.737668454647064209e-01
-2.087721228599548340e-01
2.329647541046142578e-01
-8.838112950325012207e-01
-9.483605027198791504e-01
-1.368406563997268677e-01
-1.906179008074104786e-03
-5.720409750938415527e-01
-7.190741300582885742e-01
1.321689784526824951e-01
5.424018204212188721e-02
1.418429240584373474e-02
-3.023562133312225342e-01
-6.630074232816696167e-02
3.818670520558953285e-03
5.416877940297126770e-02
-2.505948841571807861e-01
-4.405106306076049805e-01
1.186907663941383362e-01
1.683941632509231567e-01
7.791545987129211426e-02
4.985117912292480469e-01
1.211306750774383545e-01
-1.188438385725021362e-01
-2.564239203929901123e-01
-3.651836812496185303e-01
1.037334650754928589e-01
-1.254202574491500854e-01
-2.946988344192504883e-01
-3.346669301390647888e-02
-6.510961055755615234e-02
2.761444449424743652e-01
-6.244457140564918518e-02
-2.488492131233215332e-01
7.624974101781845093e-02
-7.326316088438034058e-02
-1.619824767112731934e-01
-1.055761519819498062e-02
-8.427875488996505737e-02
8.461086452007293701e-02
-8.054143935441970825e-02
1.343800276517868042e-01
2.450250834226608276e-01
1.433840095996856689e-01
1.146237105131149292e-01
3.067173063755035400e-01
4.484438896179199219e-01
3.471957743167877197e-01
2.085558921098709106e-01
2.234002798795700073e-01
4.812832474708557129e-01
4.955508708953857422e-01
1.891852021217346191e-01
-1.063086912035942078e-01
7.542493753135204315e-03
1.830249279737472534e-01
3.446456789970397949e-01
4.548002481460571289e-01
-1.691788285970687866e-01
-2.957953810691833496e-01
-2.113724797964096069e-01
-1.568571776151657104e-01
-2.162794210016727448e-02
-2.887992858886718750e-01
-2.876186966896057129e-01
-4.090195298194885254e-01
-1.616473644971847534e-01
-8.509891033172607422e-01
-5.511041283607482910e-01
2.899967506527900696e-02
-1.820995472371578217e-02
-3.145280182361602783e-01
-1.162540689110755920e-01
-7.313763722777366638e-03
-1.772962361574172974e-01
-6.699319463223218918e-03
-7.705666124820709229e-02
-1.672705709934234619e-01
7.631779462099075317e-02
4.922310635447502136e-02
-1.076285168528556824e-02
-3.205004930496215820e-01
8.370285481214523315e-02
-5.808496475219726562e-02
2.295133620500564575e-01
1.830164343118667603e-02
9.207769483327865601e-02
2.736344635486602783e-01
8.713623136281967163e-02
6.361722946166992188e-02
1.709329336881637573e-01
1.827938854694366455e-02
9.270150214433670044e-02
-1.528410315513610840e-01
-1.239818986505270004e-02
2.161258012056350708e-01
1.161548942327499390e-01
-1.882090717554092407e-01
3.043152391910552979e-01
-1.198338493704795837e-01
4.023947715759277344e-01
4.988773912191390991e-02
4.145761132240295410e-01
-2.654171362519264221e-02
-2.228627800941467285e-01
-2.215576469898223877e-01
9.671477973461151123e-02
8.308476209640502930e-02
-1.948610693216323853e-01
-5.440191030502319336e-01
-5.583427846431732178e-03
-5.783134838566184044e-04
6.477998197078704834e-02
-3.918980956077575684e-01
1.033005714416503906e-01
1.100284606218338013e-02
-2.968684956431388855e-02
6.191946566104888916e-02
-7.387762516736984253e-02
1.403294596821069717e-02
1.417855173349380493e-01
1.303697079420089722e-01
5.364277958869934082e-02
-8.033806085586547852e-02
4.855076968669891357e-02
-1.615420728921890259e-01
-1.288898289203643799e-01
1.170446723699569702e-01
3.460968434810638428e-01
4.547304809093475342e-01
-1.006688550114631653e-01
9.457841515541076660e-02
6.233175396919250488e-01
6.085333228111267090e-02
-5.135369300842285156e-02
-1.012494936585426331e-01
-3.585182875394821167e-02
-2.829024568200111389e-02
-3.290769876912236214e-03
-5.730589106678962708e-02
-1.007810458540916443e-01
-3.032023310661315918e-01
-1.847659200429916382e-01
8.188383281230926514e-02
-2.190435528755187988e-01
-3.711092174053192139e-01
-1.334726214408874512e-01
1.317780464887619019e-01
7.748676836490631104e-02
4.063398577272891998e-03
7.107328623533248901e-02
-1.054804474115371704e-01
-6.805959157645702362e-03
1.072286739945411682e-01
4.400410130620002747e-02
1.744494140148162842e-01
-3.791586682200431824e-02
-4.370228201150894165e-02
-1.911439001560211182e-01
3.049920499324798584e-01
1.457559913396835327e-01
3.214890137314796448e-02
-1.399367302656173706e-01
8.327097445726394653e-02
3.657056689262390137e-01
3.499145209789276123e-01
1.083618775010108948e-01
-3.238321468234062195e-02
1.406740397214889526e-01
2.521028816699981689e-01
9.356823563575744629e-02
1.304756402969360352e-01
6.910688430070877075e-02
5.801244825124740601e-02
-5.633183568716049194e-02
-1.353184729814529419e-01
8.855790644884109497e-02
-1.029984876513481140e-01
2.141346484422683716e-01
5.597550868988037109e-01
3.700155913829803467e-01
2.644884884357452393e-01
2.936890348792076111e-02
1.994218975305557251e-01
1.530631352216005325e-02
2.988674342632293701e-01
1.102925091981887817e-01
5.759964697062969208e-04
-3.869147971272468567e-02
1.649710983037948608e-01
2.679020166397094727e-01
9.234377741813659668e-02
8.305428549647331238e-03
1.170648932456970215e-01
-4.114416241645812988e-01
-2.195248305797576904e-01
-1.282201409339904785e-01
-4.819659143686294556e-02
-3.270134627819061279e-01
-2.413647323846817017e-01
-1.276342123746871948e-01
1.745755225419998169e-01
-2.060767710208892822e-01
-1.743927150964736938e-01
1.249993890523910522e-01
-1.002147868275642395e-01
6.198051571846008301e-02
3.042951598763465881e-02
2.901234626770019531e-01
9.535624831914901733e-02
-2.275245636701583862e-02
-8.012534119188785553e-03
-4.350295960903167725e-01
2.629103362560272217e-01
-1.924944855272769928e-02
-1.110592633485794067e-01
-1.806046813726425171e-01
3.510288149118423462e-02
2.707493305206298828e-02
1.225870251655578613e-01
8.946647495031356812e-02
3.941504359245300293e-01
-1.030815392732620239e-01
5.869493260979652405e-02
1.966657936573028564e-01
-3.054652363061904907e-02
4.852653741836547852e-01
-1.012583300471305847e-01
-1.472972035408020020e-01
8.773129433393478394e-02
-5.013869702816009521e-02
-3.873372673988342285e-01
-5.831900238990783691e-02
9.534528851509094238e-02
2.679890990257263184e-01
-2.093207538127899170e-01
-3.195903003215789795e-01
2.660104334354400635e-01
5.864441990852355957e-01
-5.341875553131103516e-02
-6.579935550689697266e-01
3.021477758884429932e-01
-2.549268901348114014e-01
-2.754681706428527832e-01
-7.460196316242218018e-02
-4.085119813680648804e-02
3.057430982589721680e-01
-2.208328247070312500e-01
3.865064680576324463e-01
1.129013746976852417e-01
3.844723999500274658e-01
2.725453674793243408e-02
2.575459182262420654e-01
1.040621846914291382e-01
3.481674194335937500e-01
3.166195452213287354e-01
1.092280671000480652e-01
-2.228249907493591309e-01
1.829363852739334106e-01
-2.087295055389404297e-01
-5.062788128852844238e-01
1.359668821096420288e-01
3.441922366619110107e-01
-2.750268578529357910e-01
-1.029336452484130859e+00
-4.328833818435668945e-01
4.109200835227966309e-01
1.137514319270849228e-02
-1.057786419987678528e-01
8.134292066097259521e-02
1.250371709465980530e-02
1.366678029298782349e-01
2.381801418960094452e-02
2.984331548213958740e-01
-2.779731750488281250e-01
-5.666204094886779785e-01
7.814685814082622528e-04
2.221059203147888184e-01
-4.390128850936889648e-01
-1.962432712316513062e-01
-1.367112807929515839e-02
-1.295854151248931885e-01
-8.833543956279754639e-02
1.168410778045654297e-01
2.331386059522628784e-01
6.336040049791336060e-02
-1.559769362211227417e-01
1.170989219099283218e-02
1.675388216972351074e-01
2.132454216480255127e-01
2.617273628711700439e-01
-7.673584669828414917e-02
-1.021000668406486511e-01
2.753861546516418457e-01
1.266978085041046143e-01
-9.283147007226943970e-02
-2.312455326318740845e-01
2.480506449937820435e-01
2.002228498458862305e-01
-2.507005333900451660e-01
-5.850242078304290771e-02
1.820846349000930786e-01
2.590203285217285156e-01
-2.122600972652435303e-01
-4.576048851013183594e-01
4.744904488325119019e-02
8.025621622800827026e-02
-5.978355929255485535e-02
2.354416698217391968e-01
3.577101230621337891e-01
4.310492873191833496e-01
-1.325960904359817505e-01
1.521701961755752563e-01
5.874336138367652893e-02
2.763675153255462646e-01
1.890523359179496765e-02
2.126071751117706299e-01
2.194772958755493164e-01
3.045144677162170410e-01
-2.055756449699401855e-01
-6.169915199279785156e-02
3.437765836715698242e-01
3.429780714213848114e-03
1.363470405340194702e-01
3.327847421169281006e-01
4.433010518550872803e-02
9.874582290649414062e-02
-9.790990501642227173e-02
-1.290943175554275513e-01
-1.226911470293998718e-01
-1.209434419870376587e-01
-1.241578310728073120e-01
-2.375831641256809235e-02
-1.863925755023956299e-01
-2.219308018684387207e-01
-1.333886831998825073e-01
4.355607032775878906e-01
8.072667568922042847e-02
3.221234977245330811e-01
-6.401289720088243484e-03
-1.968650072813034058e-01
-1.071653608232736588e-02
-4.394128918647766113e-02
9.019022434949874878e-02
-7.853490300476551056e-03
6.691598892211914062e-01
-2.003769278526306152e-01
9.863767027854919434e-02
2.052858099341392517e-02
3.322985172271728516e-01
-4.234360456466674805e-01
-1.745455265045166016e-01
2.708002626895904541e-01
3.473748862743377686e-01
2.919759154319763184e-01
-1.285446137189865112e-01
-3.213397860527038574e-01
-2.470315396785736084e-01
3.700567185878753662e-01
-2.256867662072181702e-02
2.257369644939899445e-02
5.904811248183250427e-02
1.757023930549621582e-01
8.548162877559661865e-02
-2.975167147815227509e-02
-1.800027340650558472e-01
-3.805522918701171875e-01
1.389056146144866943e-01
2.590062618255615234e-01
-1.849169433116912842e-01
-5.355150997638702393e-02
-8.997247368097305298e-02
-2.713961303234100342e-01
-2.081391811370849609e-01
-3.353966027498245239e-02
-1.336072087287902832e-01
-9.528674185276031494e-03
3.516873717308044434e-02
-7.652299851179122925e-02
1.132235974073410034e-01
1.050658747553825378e-01
-1.096722260117530823e-01
-9.987904876470565796e-02
1.518500447273254395e-01
1.146524995565414429e-01
-8.753836154937744141e-02
1.199087202548980713e-01
1.110470965504646301e-01
-2.371038049459457397e-01
-1.126194894313812256e-01
-1.788384765386581421e-01
1.601833254098892212e-01
2.113128006458282471e-01
-3.203321946784853935e-03
-1.375666558742523193e-01
2.003385126590728760e-01
2.421058714389801025e-01
8.193751424551010132e-02
-1.418226063251495361e-01
-3.261371701955795288e-02
-1.505350321531295776e-01
-3.373867869377136230e-01
1.954918354749679565e-01
1.632727384567260742e-01
-2.799643762409687042e-02
5.811217054724693298e-02
-1.284525394439697266e-01
4.399040937423706055e-01
2.036861628293991089e-01
-1.779184192419052124e-01
-1.089835092425346375e-01
5.682925581932067871e-01
3.226490318775177002e-01
3.243069648742675781e-01
3.167497813701629639e-01
1.933545768260955811e-01
-4.885381758213043213e-01
-1.236013025045394897e-01
1.332640741020441055e-02
7.398018985986709595e-02
-4.057704210281372070e-01
1.713934689760208130e-01
-8.251452445983886719e-02
1.723690479993820190e-01
-3.757655620574951172e-01
-1.581581383943557739e-01
-2.486301809549331665e-01
-1.250205282121896744e-02
-6.384062767028808594e-02
-1.688807606697082520e-01
-3.667736053466796875e-01
3.048391267657279968e-02
-1.096489131450653076e-01
-4.916844367980957031e-01
-1.040801107883453369e-01
4.203528538346290588e-02
-1.361385285854339600e-01
-2.325679361820220947e-01
-1.234569475054740906e-01
8.507764339447021484e-02
-1.686659902334213257e-01
-6.827615201473236084e-02
-3.905083537101745605e-01
7.121510058641433716e-02
1.620254665613174438e-01
4.636163637042045593e-02
-7.984303832054138184e-01
-1.232331171631813049e-01
2.988517582416534424e-01
4.650606215000152588e-02
5.740315318107604980e-01
1.063273027539253235e-01
6.145831197500228882e-02
2.491993308067321777e-01
1.214391961693763733e-01
-1.329123508185148239e-02
4.382809996604919434e-02
8.939263969659805298e-02
1.103722006082534790e-01
1.839816570281982422e-01
-2.499935962259769440e-02
1.616092175245285034e-01
-1.192986592650413513e-01
1.547548770904541016e-01
-5.528311431407928467e-02
-5.715025588870048523e-02
5.304995551705360413e-02
1.882901042699813843e-01
3.018130660057067871e-01
1.009756475687026978e-01
-1.452604681253433228e-01
1.260848790407180786e-01
1.675796210765838623e-01
-1.487070135772228241e-02
-1.057912707328796387e-01
2.453875094652175903e-01
4.985287785530090332e-01
4.314423203468322754e-01
8.734821528196334839e-02
-1.624063551425933838e-01
-1.588654667139053345e-01
4.395994544029235840e-01
2.546443231403827667e-02
-5.221705883741378784e-02
-1.621603071689605713e-01
3.077905476093292236e-01
6.642681360244750977e-01
3.319793045520782471e-01
2.420492470264434814e-02
-2.928298525512218475e-02
5.136010050773620605e-01
3.007112145423889160e-01
2.588464021682739258e-01
1.836448758840560913e-01
-2.412391453981399536e-02
1.028678417205810547e-01
3.948803618550300598e-02
8.017937839031219482e-02
6.753309071063995361e-02
-4.297472238540649414e-01
2.369513362646102905e-01
3.498830199241638184e-01
-2.125119790434837341e-02
-3.127859234809875488e-01
3.855356015264987946e-03
-1.728255674242973328e-02
-3.341194093227386475e-01
-1.011920794844627380e-01
-1.997970789670944214e-02
-4.002594947814941406e-02
-5.543099045753479004e-01
-2.017071396112442017e-01
1.558701694011688232e-01
-2.346202135086059570e-01
4.686756730079650879e-01
-1.199663132429122925e-01
-1.096226200461387634e-01
5.508214235305786133e-01
1.660298705101013184e-01
-8.534178137779235840e-02
1.621399968862533569e-01
4.166572391986846924e-01
-1.147411391139030457e-01
5.666828528046607971e-02
2.723255753517150879e-01
4.879525601863861084e-01
1.305974572896957397e-01
-5.718544870615005493e-02
-1.198387518525123596e-01
8.594826608896255493e-02
-2.762504220008850098e-01
1.413647979497909546e-01
-2.231743037700653076e-01
-5.531062483787536621e-01
-1.842791028320789337e-02
3.838270157575607300e-02
5.321386456489562988e-01
2.369283139705657959e-01
3.010857403278350830e-01
-2.218102365732192993e-01
4.668718576431274414e-01
8.558689355850219727e-01
-1.136745586991310120e-01
-1.811074316501617432e-01
2.589481472969055176e-01
3.361238837242126465e-01
1.913429349660873413e-01
-1.482346802949905396e-01
-4.063455462455749512e-01
-9.814178198575973511e-02
1.837172806262969971e-01
-4.091775044798851013e-02
-1.668829843401908875e-02
9.397736191749572754e-02
-2.609440824016928673e-03
-1.489411145448684692e-01
-3.860138356685638428e-02
1.233023777604103088e-01
-2.766554653644561768e-01
-4.526049494743347168e-01
-3.792498260736465454e-02
1.676703840494155884e-01
1.981697082519531250e-01
