-6.827644258737564087e-02
9.507277607917785645e-02
1.778218746185302734e-01
-1.749155819416046143e-01
1.144385263323783875e-01
3.228732198476791382e-02
1.993720382452011108e-01
-2.893185913562774658e-01
-1.601996719837188721e-01
8.969835937023162842e-02
3.078820109367370605e-01
-2.438683360815048218e-01
3.476179540157318115e-01
-1.978542208671569824e-01
-3.878255188465118408e-01
-8.835559338331222534e-02
-5.606461316347122192e-02
3.615559041500091553e-01
6.793303042650222778e-02
3.106615245342254639e-01
1.269006282091140747e-01
-2.833506166934967041e-01
-7.850139588117599487e-02
-3.258152008056640625e-01
-5.190049484372138977e-02
-1.461661309003829956e-01
-4.817986488342285156e-01
4.423248022794723511e-02
-7.688397914171218872e-02
6.970871984958648682e-02
1.601899266242980957e-01
8.243580907583236694e-02
2.746311128139495850e-01
1.569847464561462402e-01
3.952178638428449631e-03
-1.469030678272247314e-01
-7.853706367313861847e-03
4.197802841663360596e-01
-2.406422346830368042e-01
2.821035981178283691e-01
3.522438928484916687e-02
-3.026891350746154785e-01
2.865419089794158936e-01
-3.600619733333587646e-02
2.925478816032409668e-01
2.430789321660995483e-01
-5.179787799715995789e-02
-2.092746496200561523e-01
-1.566893160343170166e-01
1.119278594851493835e-01
2.957439124584197998e-01
-1.041135862469673157e-01
-6.774315237998962402e-02
1.285584568977355957e-01
-2.073169350624084473e-01
3.505418822169303894e-02
-3.741804361343383789e-01
-2.758994698524475098e-01
1.257422566413879395e-01
2.935420274734497070e-01
1.410791873931884766e-01
3.411696553230285645e-01
4.197456240653991699e-01
-3.960798680782318115e-02
-3.480956256389617920e-01
-2.043158859014511108e-01
-3.043187409639358521e-02
2.636689543724060059e-01
3.569191098213195801e-01
2.852947115898132324e-01
1.321846246719360352e-01
5.245501399040222168e-01
2.612019479274749756e-01
-1.841023564338684082e-01
-2.313735485076904297e-01
4.702210426330566406e-03
2.146851271390914917e-02
2.623385787010192871e-01
-3.584528565406799316e-01
4.104723930358886719e-01
-2.445944845676422119e-01
2.068379670381546021e-01
2.445975989103317261e-01
-3.011597990989685059e-01
2.547616660594940186e-01
-8.293147385120391846e-02
4.785278439521789551e-01
-1.557101607322692871e-01
1.545614749193191528e-01
-2.684344947338104248e-01
-2.555178403854370117e-01
7.363790273666381836e-02
-3.525403439998626709e-01
1.478771269321441650e-01
-3.607414364814758301e-01
1.079089194536209106e-01
3.650808632373809814e-01
1.033189371228218079e-01
3.389075696468353271e-01
-3.684637323021888733e-02
1.556217819452285767e-01
-5.871617421507835388e-02
-8.908268995583057404e-03
-4.696393013000488281e-02
-5.980519577860832214e-02
5.749277397990226746e-02
-3.133091628551483154e-01
-3.394634425640106201e-01
6.689181923866271973e-02
2.154448628425598145e-02
2.273971289396286011e-01
1.167037189006805420e-01
-1.521538197994232178e-01
3.473471701145172119e-01
1.172875091433525085e-01
-3.178662806749343872e-02
2.246944010257720947e-01
1.297437250614166260e-01
-4.629008173942565918e-01
-4.258384555578231812e-02
