-5.787067115306854248e-02
-3.003931837156414986e-03
9.851195663213729858e-02
4.375811517238616943e-01
1.653220653533935547e-01
3.239192664623260498e-01
3.928605914115905762e-01
5.356047749519348145e-01
8.702863752841949463e-02
1.059764027595520020e-01
1.144927591085433960e-01
1.139551494270563126e-02
3.543613851070404053e-01
-1.053043678402900696e-01
4.920943081378936768e-02
-9.632916003465652466e-02
1.139412596821784973e-01
1.539160013198852539e-01
-1.728989779949188232e-01
1.299117133021354675e-02
2.282297164201736450e-01
2.206016778945922852e-01
1.196576952934265137e-01
8.291245996952056885e-02
6.964911520481109619e-02
1.572506129741668701e-01
-3.240267559885978699e-02
1.386277675628662109e-01
2.900955639779567719e-02
5.640939474105834961e-01
-5.208860710263252258e-02
7.713176310062408447e-02
5.359425395727157593e-02
8.844849467277526855e-02
-1.655489951372146606e-02
5.136663839221000671e-02
5.108940601348876953e-02
2.178467810153961182e-01
6.754940748214721680e-02
9.713986515998840332e-02
-1.976162195205688477e-02
1.766991466283798218e-01
2.794499397277832031e-01
2.759298980236053467e-01
4.193288087844848633e-02
1.484937965869903564e-01
-4.841446876525878906e-02
4.447026252746582031e-01
1.531230509281158447e-01
-1.415348649024963379e-01
-1.046590805053710938e-01
-2.794681675732135773e-02
1.309479326009750366e-01
2.102694958448410034e-01
2.667066752910614014e-01
4.644358903169631958e-02
1.116083264350891113e-01
2.638873457908630371e-01
7.267829030752182007e-02
-1.159136649221181870e-02
5.050813555717468262e-01
5.241215229034423828e-01
-5.719821900129318237e-02
-6.933674449101090431e-04
1.385042220354080200e-01
3.853642046451568604e-01
1.593633890151977539e-01
1.109074801206588745e-01
1.111521273851394653e-01
3.086293041706085205e-01
4.925680905580520630e-02
2.778815925121307373e-01
2.634538114070892334e-01
6.175734847784042358e-02
1.959111988544464111e-01
-2.283217199146747589e-02
-1.738020684570074081e-03
-7.504111528396606445e-02
1.471896469593048096e-02
-1.531365364789962769e-01
4.567177500575780869e-03
-2.190740220248699188e-02
1.628397256135940552e-01
4.158507585525512695e-01
