2.937939763069152832e-01
-1.094754114747047424e-01
3.316076397895812988e-01
4.574218392372131348e-02
-1.082336902618408203e+00
-4.604948759078979492e-01
-1.071215234696865082e-02
-5.477581545710563660e-02
7.928733527660369873e-02
2.879670560359954834e-01
3.356847167015075684e-02
9.403374791145324707e-02
2.487443983554840088e-01
1.675428599119186401e-01
-8.433963172137737274e-03
1.039349436759948730e+00
-7.661518454551696777e-02
1.710448563098907471e-01
3.674593567848205566e-01
-4.082047939300537109e-02
1.514023840427398682e-01
-3.203507661819458008e-01
5.922308191657066345e-03
-8.623624444007873535e-01
3.679564893245697021e-01
8.659151941537857056e-02
1.992684155702590942e-01
-4.339910149574279785e-01
-1.067608475685119629e+00
-7.267578691244125366e-02
2.711871564388275146e-01
2.574460506439208984e-01
-3.784008026123046875e-01
1.742331534624099731e-01
2.546267770230770111e-02
6.416406482458114624e-02
-1.273601949214935303e-01
-1.969955712556838989e-01
-3.324638307094573975e-01
1.832995414733886719e-01
2.068635523319244385e-01
1.562185771763324738e-02
-1.044466495513916016e-01
1.922761499881744385e-01
2.012542337179183960e-01
2.278900295495986938e-01
-3.463225662708282471e-01
-2.197780162096023560e-01
8.132925629615783691e-02
-3.837512731552124023e-01
1.966155767440795898e-01
-5.287151336669921875e-01
-3.154172897338867188e-01
-6.134269237518310547e-01
-3.238595724105834961e-01
4.094635248184204102e-01
1.237166672945022583e-01
-3.655113279819488525e-01
-3.754116594791412354e-01
2.714896798133850098e-01
-4.225489497184753418e-01
1.257706135511398315e-01
-1.971257030963897705e-01
1.138196885585784912e-01
1.443041265010833740e-01
5.037666559219360352e-01
9.862206578254699707e-01
3.536079227924346924e-01
-6.469218134880065918e-01
4.877135455608367920e-01
3.063749372959136963e-01
-1.725160479545593262e-01
-3.259769380092620850e-01
1.715975701808929443e-01
-1.789110451936721802e-01
2.246740609407424927e-01
-4.080733954906463623e-01
5.194532498717308044e-02
2.319797724485397339e-01
5.352760478854179382e-02
-1.749615520238876343e-01
-1.255913227796554565e-01
-1.592231243848800659e-01
8.807051777839660645e-01
1.172389090061187744e-01
-1.394313126802444458e-01
-5.634987354278564453e-01
1.579572111368179321e-01
-1.971230506896972656e-01
-3.351268172264099121e-01
-1.810626983642578125e-01
1.756663620471954346e-01
-3.288168311119079590e-01
-4.224085249006748199e-03
-1.215285658836364746e-01
4.057473242282867432e-01
2.397456169128417969e-01
-2.783643081784248352e-02
3.701649904251098633e-01
9.739221632480621338e-02
4.322178363800048828e-01
1.769027113914489746e-01
1.568889915943145752e-01
4.081209748983383179e-02
3.520217239856719971e-01
-1.017216593027114868e-01
6.235170364379882812e-02
-1.560860276222229004e-01
9.874244779348373413e-02
1.627385914325714111e-01
-7.078638076782226562e-01
4.507513344287872314e-01
-1.452685743570327759e-01
8.037362992763519287e-02
-2.628034353256225586e-02
2.601858377456665039e-01
1.832927018404006958e-01
-1.023084297776222229e-01
1.033934712409973145e+00
-1.194887384772300720e-01
-2.784486301243305206e-02
6.052287220954895020e-01
2.032076716423034668e-01
-3.553535342216491699e-01
-4.122998714447021484e-01
5.003251433372497559e-01
-5.645357817411422729e-02
-1.865975260734558105e-01
2.888003289699554443e-01
-5.848011970520019531e-01
-8.384025096893310547e-02
-4.581279456615447998e-01
9.666721224784851074e-01
7.097343355417251587e-02
2.826741635799407959e-01
-5.799322724342346191e-01
4.626885056495666504e-01
-1.914355158805847168e-01
-9.714836627244949341e-02
-4.606069922447204590e-01
-9.716725945472717285e-01
1.775621324777603149e-01
-1.055336356163024902e+00
4.262270629405975342e-01
-9.547009319067001343e-02
7.481520771980285645e-01
5.745775252580642700e-02
-1.001864075660705566e+00
-2.650046646595001221e-01
-3.215230256319046021e-02
-7.838633060455322266e-01
-7.416021227836608887e-01
2.070645987987518311e-01
5.652379617094993591e-02
4.796173572540283203e-01
3.780708611011505127e-01
7.782785594463348389e-02
5.266229510307312012e-01
-4.810437560081481934e-01
-1.193195283412933350e-01
6.621576100587844849e-02
3.553766608238220215e-01
1.347406357526779175e-01
1.422163248062133789e-01
-7.208632677793502808e-02
-4.620143771171569824e-01
3.034435808658599854e-01
2.360089421272277832e-01
1.164162810891866684e-02
-7.826621830463409424e-02
3.542200624942779541e-01
-5.832809209823608398e-02
-1.366524584591388702e-02
1.560194343328475952e-01
-1.847141385078430176e-01
3.117030858993530273e-01
5.901415348052978516e-01
3.360941112041473389e-01
2.249324917793273926e-01
-7.604671269655227661e-02
-4.761890172958374023e-01
3.421519696712493896e-02
-7.624053359031677246e-01
-4.395221769809722900e-01
1.796600073575973511e-01
2.179173380136489868e-01
-1.288445442914962769e-01
9.836035966873168945e-02
-5.989184379577636719e-01
-3.323704302310943604e-01
-8.200250267982482910e-01
-4.257560372352600098e-01
1.437939107418060303e-01
-7.293090224266052246e-01
2.488073706626892090e-01
1.217942386865615845e-01
3.623689115047454834e-01
-1.772485077381134033e-01
-4.918191134929656982e-01
-4.191296398639678955e-01
-1.565178930759429932e-01
2.452793158590793610e-02
3.735636547207832336e-02
4.256428778171539307e-01
-3.746760487556457520e-01
2.446583211421966553e-01
5.277714133262634277e-01
-2.298291772603988647e-01
2.267788723111152649e-02
1.319527998566627502e-02
-1.342280805110931396e-01
8.827176094055175781e-01
6.412529349327087402e-01
1.989481747150421143e-01
-7.425990700721740723e-02
-4.716676175594329834e-01
3.740092515945434570e-01
1.222386956214904785e-01
1.629466265439987183e-01
-1.805504709482192993e-01
-7.975016832351684570e-01
-6.532210707664489746e-01
2.925719022750854492e-01
-3.831057250499725342e-02
9.049093723297119141e-02
1.314723938703536987e-01
-7.153366208076477051e-01
-6.222801804542541504e-01
4.286052882671356201e-01
-3.267996245995163918e-03
-5.427147150039672852e-01
1.744220852851867676e-01
3.422310948371887207e-02
-7.175359874963760376e-02
1.901461393572390079e-03
3.923213854432106018e-02
6.266147643327713013e-02
-5.138858556747436523e-01
-7.836936116218566895e-01
-1.680930554866790771e-01
-1.907045021653175354e-02
-2.610559463500976562e-01
-2.750549018383026123e-01
4.272606968879699707e-01
-2.686702907085418701e-01
9.944788366556167603e-02
7.247543334960937500e-02
-3.208030164241790771e-01
-2.142683118581771851e-01
-6.231469511985778809e-01
-5.530986785888671875e-01
6.119600534439086914e-01
-2.696271240711212158e-02
5.767353624105453491e-02
3.854218423366546631e-01
1.463299691677093506e-01
-2.456952184438705444e-01
-1.620499938726425171e-01
-6.494367122650146484e-01
3.313809633255004883e-01
1.958229988813400269e-01
-4.254721701145172119e-01
-7.025409936904907227e-01
1.112337112426757812e-01
-4.133940935134887695e-01
-2.216423749923706055e-01
-4.808026254177093506e-01
9.371253252029418945e-01
1.987889111042022705e-01
1.174296960234642029e-01
-2.146312892436981201e-01
3.526954948902130127e-01
5.381075143814086914e-01
-2.846408188343048096e-01
1.069777905941009521e-01
7.013725042343139648e-01
2.841891348361968994e-01
3.753639459609985352e-01
3.945778682827949524e-02
2.991411685943603516e-01
3.950080648064613342e-02
6.465499848127365112e-02
4.557946696877479553e-02
5.477168038487434387e-02
6.886436603963375092e-03
-9.929274767637252808e-02
1.219295337796211243e-01
2.414824664592742920e-01
1.355987042188644409e-01
2.001320868730545044e-01
2.202479727566242218e-02
2.708481848239898682e-01
1.233831569552421570e-01
-9.462581872940063477e-01
2.550191581249237061e-01
-2.528616189956665039e-01
-9.278862178325653076e-02
-7.098387479782104492e-01
-2.192870229482650757e-01
4.983087070286273956e-03
-4.060052633285522461e-01
2.917470335960388184e-01
6.441232562065124512e-02
-4.295369088649749756e-01
1.393864005804061890e-01
3.208217918872833252e-01
-5.672274231910705566e-01
2.918821573257446289e-01
3.595075607299804688e-01
-3.796612024307250977e-01
-7.755115032196044922e-01
-3.794453144073486328e-01
-3.311403691768646240e-01
2.110140621662139893e-01
-1.893144845962524414e-01
2.761163115501403809e-01
-6.749898791313171387e-01
-1.547930091619491577e-01
-1.376358568668365479e-01
-5.958102643489837646e-02
1.953298449516296387e-01
-7.935152947902679443e-02
-3.872747421264648438e-01
7.366350293159484863e-02
-2.274676710367202759e-01
-3.480441868305206299e-01
1.861477456986904144e-02
-5.082309842109680176e-01
2.922290191054344177e-02
2.024133205413818359e-01
9.220124036073684692e-02
2.330414392054080963e-02
-4.872279465198516846e-01
-1.451436523348093033e-02
4.655873477458953857e-01
-2.262363135814666748e-01
2.791524827480316162e-01
2.473747581243515015e-01
6.229208707809448242e-01
-4.374737143516540527e-01
3.320580720901489258e-01
1.837587505578994751e-01
-6.915808916091918945e-01
-8.664088696241378784e-02
-2.662266194820404053e-01
4.455974698066711426e-02
8.711729943752288818e-02
-5.977098345756530762e-01
-2.467051893472671509e-01
6.212514638900756836e-01
-1.215729713439941406e+00
1.501315832138061523e-01
-9.044153243303298950e-02
-4.175318181514739990e-01
6.220798939466476440e-02
4.522838592529296875e-01
3.766799271106719971e-01
2.453072965145111084e-01
2.253320068120956421e-01
-3.018218092620372772e-02
8.043687790632247925e-03
-2.480926066637039185e-01
2.349110245704650879e-01
2.596896886825561523e-01
8.078886568546295166e-02
-3.524389266967773438e-01
-6.498988270759582520e-01
-3.381771743297576904e-01
4.151211977005004883e-01
-3.738676384091377258e-02
3.072435557842254639e-01
-9.124860912561416626e-02
1.063365489244461060e-01
-1.178021132946014404e-01
-2.676149904727935791e-01
1.127469316124916077e-01
2.218881249427795410e-01
3.041432797908782959e-01
-9.360880404710769653e-02
-6.696746945381164551e-01
-6.444529294967651367e-01
2.510953545570373535e-01
-1.007954105734825134e-01
-2.327821254730224609e-01
3.689839243888854980e-01
7.417690008878707886e-03
7.398669421672821045e-02
1.979768276214599609e-01
-9.514932334423065186e-02
-6.340758800506591797e-01
-5.471443384885787964e-02
-8.417561650276184082e-01
2.432263940572738647e-01
-3.227440714836120605e-01
-3.047868311405181885e-01
4.741833806037902832e-01
9.980250895023345947e-02
2.569680511951446533e-01
4.157846271991729736e-01
3.226136863231658936e-01
1.095714867115020752e-01
-5.692575573921203613e-01
1.721543818712234497e-01
3.248497247695922852e-01
2.657231390476226807e-01
-6.878777146339416504e-01
-9.069213271141052246e-01
8.173976540565490723e-01
1.256242692470550537e-01
-5.204513296484947205e-02
2.988272011280059814e-01
1.184085682034492493e-01
-3.605161011219024658e-01
2.643507122993469238e-01
1.695734709501266479e-01
3.440054357051849365e-01
-6.825456023216247559e-01
3.823666572570800781e-01
3.691612184047698975e-01
1.141709312796592712e-01
4.755059257149696350e-02
3.296286612749099731e-02
2.860986627638339996e-02
1.508062630891799927e-01
2.152327895164489746e-01
9.241053462028503418e-02
-2.436934858560562134e-01
-6.148516535758972168e-01
-1.972167938947677612e-01
-5.774658918380737305e-01
3.944739699363708496e-01
3.431255221366882324e-01
-3.273455798625946045e-01
-6.104138493537902832e-01
3.390778899192810059e-01
-6.921985745429992676e-01
-1.215897917747497559e+00
1.457680016756057739e-01
-1.034078598022460938e-01
2.756061963737010956e-02
3.060565590858459473e-01
5.476642772555351257e-02
7.317409664392471313e-02
1.523392200469970703e-01
-5.091911554336547852e-01
1.525852531194686890e-01
-1.761648952960968018e-01
-7.915911078453063965e-02
1.039869114756584167e-01
2.247639447450637817e-01
2.855681777000427246e-01
-1.821857541799545288e-01
9.977441281080245972e-02
-5.097290873527526855e-01
-1.698898524045944214e-01
-2.051269263029098511e-01
-3.903361558914184570e-01
1.729417294263839722e-01
-5.346907973289489746e-01
-2.619019448757171631e-01
6.218524575233459473e-01
5.133634805679321289e-01
-6.057503167539834976e-03
2.634281516075134277e-01
4.020046442747116089e-02
-1.083693057298660278e-01
4.623116552829742432e-02
7.406618595123291016e-01
-7.207893133163452148e-01
2.601504027843475342e-01
2.615370750427246094e-01
2.954320013523101807e-01
1.772153675556182861e-01
3.375607430934906006e-01
1.250545978546142578e-01
1.855209022760391235e-01
-4.087883532047271729e-01
2.226565182209014893e-01
1.802621632814407349e-01
5.787622928619384766e-01
-6.085971593856811523e-01
-1.666213989257812500e+00
3.166388273239135742e-01
9.391533583402633667e-02
3.381550610065460205e-01
2.140062600374221802e-01
7.118932902812957764e-02
-6.885828375816345215e-01
-1.640425175428390503e-01
-3.320491313934326172e-01
-3.442012146115303040e-02
5.096834301948547363e-01
3.733880221843719482e-01
8.284630179405212402e-01
-3.926867246627807617e-01
-6.568434834480285645e-02
-4.052504003047943115e-01
4.075353145599365234e-01
-2.043913602828979492e-01
-8.062224090099334717e-02
-2.719400823116302490e-01
2.609631717205047607e-01
1.282496005296707153e-01
4.407118260860443115e-01
-7.022750973701477051e-01
-1.065724790096282959e-01
8.846116662025451660e-01
9.868010878562927246e-02
2.166828215122222900e-01
3.158757984638214111e-01
-5.718995928764343262e-01
6.580697000026702881e-02
5.405475944280624390e-02
1.947361081838607788e-01
1.739353686571121216e-01
1.402666606009006500e-02
1.684366911649703979e-01
-6.623148173093795776e-02
8.830137550830841064e-02
-1.033343076705932617e-01
9.301553964614868164e-01
-1.709231585264205933e-01
-5.989259481430053711e-01
-4.591351747512817383e-01
-1.901381015777587891e-01
5.227619409561157227e-01
-3.066697120666503906e-01
-2.826887369155883789e-01
2.335590720176696777e-01
2.040382474660873413e-01
2.606051266193389893e-01
-1.479279994964599609e-01
-3.024370670318603516e-01
9.051165729761123657e-02
6.681538820266723633e-01
1.090054214000701904e-01
-4.288078844547271729e-01
4.335528314113616943e-01
-4.038609862327575684e-01
1.385048925876617432e-01
1.223565712571144104e-01
2.655930221080780029e-01
-3.551971912384033203e-01
6.548207998275756836e-02
7.046490907669067383e-02
8.912757784128189087e-02
6.035391688346862793e-01
-5.478009581565856934e-01
-6.349418163299560547e-01
1.660804003477096558e-01
-6.574776172637939453e-01
-2.137388736009597778e-01
-1.000437438488006592e-01
-6.607713699340820312e-01
-7.563268542289733887e-01
-7.357110977172851562e-01
3.012501299381256104e-01
-1.158984899520874023e+00
2.885343134403228760e-01
-2.882253527641296387e-01
1.476217806339263916e-01
4.161584377288818359e-01
-3.008544072508811951e-02
6.001400575041770935e-02
3.441115021705627441e-01
7.238498330116271973e-02
-2.936860918998718262e-01
1.034423708915710449e-01
1.016493886709213257e-01
4.464417099952697754e-01
2.968038618564605713e-01
6.536963582038879395e-02
2.621008753776550293e-01
4.394316673278808594e-01
3.317437171936035156e-01
7.984432578086853027e-02
4.129920005798339844e-01
-2.155052870512008667e-01
3.619435727596282959e-01
-6.716252863407135010e-02
5.547770857810974121e-01
6.417257338762283325e-02
1.590326428413391113e-01
-2.497707307338714600e-01
4.935046136379241943e-01
3.377781212329864502e-01
1.959108561277389526e-02
-1.026627495884895325e-01
1.753398180007934570e-01
1.262381393462419510e-02
2.010137736797332764e-01
8.642012625932693481e-02
6.917806267738342285e-01
1.121438294649124146e-01
6.140738129615783691e-01
-5.851939916610717773e-01
-5.507959723472595215e-01
-3.346478641033172607e-01
-1.257756948471069336e-01
8.215858340263366699e-01
3.861207365989685059e-01
-1.402797996997833252e-01
8.534877002239227295e-02
-1.721644960343837738e-02
8.617398142814636230e-02
-1.922031044960021973e-01
5.083633661270141602e-01
5.279696360230445862e-02
-4.753112494945526123e-01
2.783231623470783234e-02
2.496005594730377197e-01
-1.793518103659152985e-02
-7.849159240722656250e-01
2.614568471908569336e-01
3.209858238697052002e-01
-4.194196760654449463e-01
2.377273440361022949e-01
1.365454494953155518e-01
8.486628532409667969e-02
-2.429487258195877075e-01
-2.435114234685897827e-03
-8.295532315969467163e-02
-1.038116335868835449e+00
-3.373948112130165100e-02
1.482558399438858032e-01
-4.167213439941406250e-01
2.919291257858276367e-01
-4.999800324440002441e-01
-7.034101486206054688e-01
5.197205543518066406e-01
-5.471453666687011719e-01
1.415738016366958618e-01
1.311547905206680298e-01
-2.443033307790756226e-01
2.259581238031387329e-01
2.716951668262481689e-01
-3.860920965671539307e-01
1.846717149019241333e-01
7.804753631353378296e-02
5.970350652933120728e-02
8.424336090683937073e-03
2.327317148447036743e-01
1.966667920351028442e-01
2.052350044250488281e-01
-6.981406211853027344e-01
3.269024789333343506e-01
2.297014743089675903e-01
6.170743703842163086e-01
9.504570960998535156e-01
-1.045106172561645508e+00
4.566795378923416138e-02
-2.824714779853820801e-01
5.863724276423454285e-02
1.971583068370819092e-01
2.524021863937377930e-01
-3.947992622852325439e-01
-2.090914249420166016e-01
9.583817422389984131e-02
1.929541081190109253e-01
1.128318309783935547e-01
3.118268251419067383e-01
-9.408460259437561035e-01
1.316535919904708862e-01
-2.488184422254562378e-01
-1.049947515130043030e-01
9.396385550498962402e-01
7.917897403240203857e-02
1.003883872181177139e-02
6.351118534803390503e-02
-8.947431296110153198e-02
-5.298255085945129395e-01
-3.679236397147178650e-02
5.598596855998039246e-02
-2.364880293607711792e-01
1.171195060014724731e-01
-2.198042124509811401e-01
2.698628604412078857e-01
-2.378378957509994507e-01
2.786916494369506836e-01
-8.889711648225784302e-02
1.179808378219604492e-01
1.422408372163772583e-01
7.116010785102844238e-02
1.052672713994979858e-01
2.348044961690902710e-01
-1.362537443637847900e-01
2.976840436458587646e-01
-3.722554445266723633e-02
-2.234399435110390186e-04
5.639925599098205566e-02
4.342728555202484131e-01
1.792340278625488281e-01
-6.625727415084838867e-01
1.828320026397705078e-01
5.257773213088512421e-03
-4.611770063638687134e-02
-2.372451424598693848e-01
1.147153079509735107e-01
-8.848983049392700195e-01
7.624754309654235840e-02
3.293312788009643555e-01
3.114180564880371094e-01
-5.778385400772094727e-01
5.314531922340393066e-02
-4.438202828168869019e-02
-3.396662175655364990e-01
1.092927530407905579e-02
-7.258202135562896729e-02
2.273962944746017456e-01
-4.926624000072479248e-01
1.298878043889999390e-01
7.446756362915039062e-01
3.835929334163665771e-01
-1.316048204898834229e-01
-8.180391043424606323e-02
4.165499703958630562e-04
-2.661995962262153625e-02
4.988518953323364258e-01
3.540938720107078552e-02
-1.047252297401428223e+00
4.942113459110260010e-01
1.592893749475479126e-01
-1.490547209978103638e-01
8.497288078069686890e-02
-2.006737142801284790e-02
1.562808752059936523e-01
1.952365487813949585e-01
2.196851223707199097e-01
4.989521503448486328e-01
-2.533377110958099365e-01
5.935809016227722168e-01
2.569797933101654053e-01
-6.364406943321228027e-01
3.958313167095184326e-01
1.512742415070533752e-02
-8.872365951538085938e-01
2.438065409660339355e-01
-5.203195214271545410e-01
-1.039719700813293457e+00
2.396030575037002563e-01
1.725649274885654449e-02
-3.860446512699127197e-01
-2.399769797921180725e-02
-3.681851550936698914e-02
-1.786460280418395996e-01
-1.649301052093505859e-01
5.127532780170440674e-02
-3.870101645588874817e-02
2.567157149314880371e-01
-9.526155591011047363e-01
-1.124047994613647461e+00
-1.789468675851821899e-01
-3.505293726921081543e-01
-5.705865621566772461e-01
3.993150591850280762e-01
-3.665532469749450684e-01
1.839357465505599976e-01
1.018985509872436523e-01
-4.392535686492919922e-01
1.717636883258819580e-01
4.918649196624755859e-01
-3.707885369658470154e-02
4.857734218239784241e-02
-1.050882339477539062e+00
5.486558377742767334e-02
2.036653310060501099e-01
3.744323551654815674e-02
5.695795416831970215e-01
-2.920147776603698730e-01
-1.446532756090164185e-01
2.855366840958595276e-02
1.026921197772026062e-01
8.526060730218887329e-02
-8.235290646553039551e-02
5.433302521705627441e-01
-1.431113481521606445e-01
-3.929780423641204834e-01
-9.958154708147048950e-02
2.100376933813095093e-01
3.200017809867858887e-01
3.745495676994323730e-01
1.193512901663780212e-01
-5.085128545761108398e-02
1.420222073793411255e-01
2.666338086128234863e-01
-5.622983574867248535e-01
1.468515843152999878e-01
5.560805797576904297e-01
-2.294431924819946289e-01
5.427122116088867188e-02
2.331317365169525146e-01
-3.903663903474807739e-02
2.459572553634643555e-01
-4.421238005161285400e-01
1.042683869600296021e-01
4.322124272584915161e-02
-2.087762802839279175e-01
3.025735542178153992e-02
5.920118838548660278e-02
6.481748074293136597e-02
2.394874393939971924e-02
-2.468515634536743164e-01
3.966377675533294678e-01
-5.217575430870056152e-01
2.735788524150848389e-01
3.307915627956390381e-01
9.192319959402084351e-02
3.919142484664916992e-01
2.402971684932708740e-01
3.686879575252532959e-01
7.886603474617004395e-02
6.298851966857910156e-02
-7.096840739250183105e-01
2.047239243984222412e-01
9.883060306310653687e-02
6.362967491149902344e-01
-4.680326879024505615e-01
-1.664493680000305176e+00
2.923089452087879181e-02
6.551564484834671021e-02
1.214054971933364868e-01
-2.283040583133697510e-01
2.342334985733032227e-01
-5.482777953147888184e-01
-1.766462475061416626e-01
-2.908889651298522949e-01
9.068218059837818146e-03
-1.145206212997436523e+00
-7.083583623170852661e-02
-3.484413027763366699e-01
-7.224646955728530884e-02
1.227891370654106140e-01
1.197791546583175659e-01
7.054017782211303711e-01
2.024405300617218018e-01
4.037728011608123779e-01
5.034303665161132812e-01
4.016302824020385742e-01
-4.266978800296783447e-01
-1.024583935737609863e+00
