-2.997404709458351135e-02
-7.251796871423721313e-02
5.494211614131927490e-02
-1.969022676348686218e-02
-5.242040008306503296e-02
-5.688766390085220337e-02
-5.803700163960456848e-02
2.494015544652938843e-02
2.723033726215362549e-02
1.481037586927413940e-02
-5.108544975519180298e-02
-7.416660338640213013e-02
-4.676021635532379150e-02
-5.373493582010269165e-02
1.701712608337402344e-02
3.005129098892211914e-02
-3.062434494495391846e-02
-7.459503412246704102e-02
5.288390815258026123e-02
3.474429994821548462e-02
-3.244414925575256348e-02
-3.020139038562774658e-02
-2.112679183483123779e-03
-3.533711284399032593e-02
4.351247847080230713e-02
1.441870629787445068e-02
-4.866709932684898376e-02
-6.787522137165069580e-02
-3.171483799815177917e-02
-6.518071889877319336e-02
-1.549101620912551880e-02
-1.690626889467239380e-02
-3.486164286732673645e-02
1.080779731273651123e-02
-3.630955517292022705e-02
4.639795422554016113e-02
4.740098118782043457e-02
-2.153711020946502686e-02
-3.399098291993141174e-02
-7.590291649103164673e-02
-1.951575279235839844e-03
-6.516546010971069336e-02
7.117652893066406250e-02
4.100468754768371582e-02
-6.818734109401702881e-03
-8.285216987133026123e-03
-5.213491618633270264e-03
7.546783983707427979e-02
-9.091258049011230469e-03
1.470484584569931030e-02
4.517364501953125000e-02
3.990548849105834961e-02
3.618769347667694092e-03
6.358860433101654053e-02
-5.425353348255157471e-02
2.405405044555664062e-02
-7.546267658472061157e-02
5.158138275146484375e-02
6.290531158447265625e-02
-1.229028403759002686e-02
-6.556458771228790283e-02
-3.382132947444915771e-02
2.818901091814041138e-02
-5.902278050780296326e-02
-1.965745538473129272e-02
-2.637013047933578491e-02
-3.366261720657348633e-02
5.171033740043640137e-02
-5.596151947975158691e-02
2.826010435819625854e-02
-4.668935015797615051e-02
8.423611521720886230e-03
6.771820783615112305e-02
-6.767196953296661377e-02
-5.941452085971832275e-02
4.953233897686004639e-02
4.420655965805053711e-02
-5.856709182262420654e-02
3.293209522962570190e-02
-5.522549897432327271e-02
-6.862808018922805786e-02
-3.511617332696914673e-02
5.464780330657958984e-02
7.216528058052062988e-03
7.492959499359130859e-02
3.410784900188446045e-02
-1.554747670888900757e-02
6.972321867942810059e-02
3.413347899913787842e-02
2.690239995718002319e-02
-7.544356584548950195e-02
-5.686146020889282227e-02
6.062150001525878906e-02
7.456158101558685303e-02
2.109545469284057617e-02
3.836204111576080322e-02
-6.051744148135185242e-02
-1.974226161837577820e-02
-8.201330900192260742e-03
-3.972049802541732788e-02
6.589074432849884033e-02
-7.126097381114959717e-02
6.736992299556732178e-02
-3.419796377420425415e-02
-7.664240896701812744e-03
6.279650330543518066e-02
6.698331236839294434e-02
-4.774780571460723877e-02
4.824709892272949219e-02
-7.201088964939117432e-02
-6.488937139511108398e-02
-4.006574302911758423e-02
6.540805101394653320e-03
-1.877535134553909302e-02
3.696724772453308105e-03
-7.659296691417694092e-02
4.940973222255706787e-02
-6.601537764072418213e-02
5.489975214004516602e-02
-1.336802542209625244e-02
1.666998863220214844e-02
-4.204630479216575623e-02
2.607996016740798950e-02
2.557741105556488037e-02
6.698003411293029785e-02
-2.198501303791999817e-02
5.793830752372741699e-02
-4.842867702245712280e-02
2.416504174470901489e-02
-6.568127125501632690e-02
5.840255320072174072e-02
-7.273361831903457642e-02
-4.425734281539916992e-03
6.842501461505889893e-02
7.426834106445312500e-02
-2.416378259658813477e-02
-5.705046281218528748e-02
1.597872376441955566e-02
7.414503395557403564e-02
4.403030872344970703e-02
6.718844175338745117e-02
2.061662822961807251e-02
-4.373712092638015747e-02
7.111434638500213623e-02
1.668073236942291260e-03
2.472327649593353271e-02
6.675548851490020752e-02
-5.153549090027809143e-02
2.563443034887313843e-02
-6.040387228131294250e-02
2.389712631702423096e-02
-4.095432534813880920e-02
1.197498291730880737e-02
-7.443767786026000977e-02
2.464918047189712524e-02
6.475225090980529785e-02
4.394680261611938477e-03
-6.245238333940505981e-02
2.817437052726745605e-02
-6.187406182289123535e-02
4.136119782924652100e-02
5.610643327236175537e-02
3.906118869781494141e-02
-5.988148972392082214e-02
4.645228385925292969e-02
4.017659276723861694e-02
2.280503511428833008e-03
3.547987341880798340e-02
6.048224866390228271e-03
-5.782917514443397522e-02
-4.125663265585899353e-02
7.919038832187652588e-02
6.534089148044586182e-02
4.283715039491653442e-02
-4.665440693497657776e-02
-6.254041194915771484e-02
-5.774399638175964355e-02
5.598261952400207520e-02
4.371461272239685059e-02
5.385120213031768799e-02
-9.727433323860168457e-03
4.740186035633087158e-02
-2.818791940808296204e-02
-1.863376051187515259e-02
-1.306826621294021606e-02
-2.680137753486633301e-03
-4.071899130940437317e-02
-1.113239675760269165e-02
-4.892726987600326538e-02
-3.262734413146972656e-02
2.807848900556564331e-02
5.637399852275848389e-02
7.749435305595397949e-02
8.179478347301483154e-03
-7.365196943283081055e-03
-4.016771912574768066e-03
-8.549094200134277344e-03
6.128005683422088623e-02
4.976530373096466064e-02
1.202420145273208618e-02
-3.686296939849853516e-02
-6.945806741714477539e-02
3.042932599782943726e-02
-7.872729748487472534e-02
5.082336068153381348e-02
-3.964743018150329590e-02
-5.774773657321929932e-03
7.799586653709411621e-02
-1.449247449636459351e-02
3.428742289543151855e-02
7.693678140640258789e-02
-3.279879689216613770e-02
-5.474834144115447998e-02
4.204728454351425171e-02
6.427936255931854248e-03
-2.343925833702087402e-02
2.912139892578125000e-02
-6.625536084175109863e-02
2.020647376775741577e-02
-2.313368767499923706e-02
-6.433643400669097900e-02
3.717055916786193848e-02
7.131017744541168213e-02
-4.110850021243095398e-02
6.061941385269165039e-02
6.830407679080963135e-02
7.656440138816833496e-02
5.205485224723815918e-02
1.699484139680862427e-02
6.111063063144683838e-02
-5.362472683191299438e-02
1.803778856992721558e-02
7.421641051769256592e-02
2.740353345870971680e-02
2.644042670726776123e-02
-7.612588256597518921e-02
-6.839493662118911743e-02
-5.404871329665184021e-02
5.698388814926147461e-02
-6.564318388700485229e-02
2.019970864057540894e-02
-9.954027831554412842e-03
2.502004057168960571e-02
-3.272838890552520752e-03
-3.891730681061744690e-02
1.531376689672470093e-02
-3.531611710786819458e-02
-3.795767202973365784e-02
3.663403540849685669e-02
7.518914341926574707e-02
-1.872353255748748779e-02
-7.183484733104705811e-03
7.607102394104003906e-02
-5.283191055059432983e-02
-6.663958728313446045e-02
2.876669913530349731e-02
-2.172459289431571960e-02
2.534617483615875244e-02
-6.912522017955780029e-02
4.960869252681732178e-02
-3.644011914730072021e-03
-6.317199021577835083e-02
7.572653889656066895e-02
-5.429250746965408325e-02
-3.273218125104904175e-02
-7.972843945026397705e-03
5.096913874149322510e-02
3.965865075588226318e-02
-1.524879038333892822e-02
7.407046854496002197e-02
5.209621787071228027e-02
5.310837924480438232e-02
2.582814544439315796e-02
-8.043791353702545166e-02
-6.803491711616516113e-02
6.366932392120361328e-02
3.643630445003509521e-02
3.584761172533035278e-02
3.239841014146804810e-02
-6.150133907794952393e-03
-8.145272731781005859e-02
-1.003965735435485840e-04
6.369934976100921631e-02
1.019895821809768677e-02
-6.918612122535705566e-02
5.406107008457183838e-02
7.395701110363006592e-02
-5.628473684191703796e-02
4.115644842386245728e-02
-8.019416034221649170e-02
6.751865148544311523e-03
7.666590809822082520e-02
5.563996732234954834e-03
-2.265641093254089355e-02
3.283227980136871338e-02
-1.355201005935668945e-03
7.795724272727966309e-02
5.226649343967437744e-02
6.837858259677886963e-02
2.342719584703445435e-02
2.746439725160598755e-02
-3.204198554158210754e-02
-7.769127190113067627e-02
-5.152527987957000732e-02
4.291720688343048096e-03
4.247001558542251587e-02
-2.907921746373176575e-02
-2.477003633975982666e-02
-4.845777899026870728e-02
4.402445256710052490e-02
6.633283197879791260e-02
-6.657457351684570312e-02
-8.005464822053909302e-02
4.315552860498428345e-02
4.859501123428344727e-02
-6.259644031524658203e-02
-7.388415932655334473e-02
-3.068630024790763855e-02
-6.363238394260406494e-02
7.949002087116241455e-02
4.811920225620269775e-02
-4.781628027558326721e-02
-3.609754145145416260e-03
6.438539922237396240e-02
-1.789525896310806274e-02
3.895350545644760132e-02
5.004033446311950684e-04
2.889311313629150391e-02
4.480589926242828369e-02
7.132856547832489014e-02
8.496567606925964355e-04
-6.421277672052383423e-02
2.090504020452499390e-02
3.014855086803436279e-02
-3.798452764749526978e-02
-5.156772583723068237e-02
1.406710594892501831e-02
-1.909136027097702026e-02
3.377412259578704834e-02
5.421252548694610596e-02
-7.476487010717391968e-02
3.690325468778610229e-02
1.625166833400726318e-02
5.538772046566009521e-02
7.687456905841827393e-02
4.991017282009124756e-02
7.796339690685272217e-02
2.934407442808151245e-02
-5.156479775905609131e-02
-1.990807056427001953e-02
5.188064277172088623e-02
-4.679768159985542297e-02
5.444453656673431396e-02
4.399892687797546387e-02
4.432000219821929932e-02
5.004447698593139648e-02
-6.511972099542617798e-02
-1.094721257686614990e-02
6.955689191818237305e-02
7.684908807277679443e-02
-1.235086470842361450e-02
5.952870845794677734e-02
-3.238150849938392639e-02
3.540009260177612305e-03
5.089750885963439941e-02
-5.017068237066268921e-02
2.167575806379318237e-02
-4.625699296593666077e-02
-7.876036316156387329e-02
-2.671666815876960754e-02
-2.579358220100402832e-02
1.404938846826553345e-02
-6.682343780994415283e-02
-7.682754844427108765e-02
-1.417278498411178589e-02
3.762637823820114136e-02
-2.695448696613311768e-03
6.982584297657012939e-02
4.625965654850006104e-02
-5.378453806042671204e-02
-6.670168042182922363e-02
3.295194357633590698e-02
6.084102392196655273e-02
-2.274300903081893921e-02
-9.190477430820465088e-03
-6.432205438613891602e-02
1.652108877897262573e-02
-2.554056420922279358e-02
7.815033197402954102e-02
2.711743116378784180e-02
2.045499533414840698e-02
9.245596826076507568e-03
6.466326117515563965e-02
5.688786506652832031e-02
-7.764816284179687500e-02
-1.617903262376785278e-02
-6.719586253166198730e-02
-5.517644435167312622e-02
7.561412453651428223e-02
5.923753976821899414e-02
2.434090524911880493e-02
-4.180155694484710693e-02
3.740871697664260864e-02
3.440648317337036133e-02
1.486043632030487061e-02
2.658274024724960327e-02
-5.135469138622283936e-03
7.095864415168762207e-02
-3.761217743158340454e-02
3.973194211721420288e-02
-7.063093781471252441e-02
-7.509236782789230347e-02
-3.065445274114608765e-02
-4.348170757293701172e-02
9.560331702232360840e-03
-7.100556045770645142e-02
-3.820280730724334717e-02
3.485489636659622192e-02
1.246726512908935547e-02
-6.689679622650146484e-02
-4.934472590684890747e-02
-3.272878378629684448e-02
-5.777837336063385010e-02
-7.460826635360717773e-02
-2.819615602493286133e-02
3.242460638284683228e-02
1.750455051660537720e-02
-6.800954788923263550e-02
-1.218855381011962891e-02
2.271009236574172974e-02
-3.186676651239395142e-02
-7.987223565578460693e-02
-3.970724344253540039e-02
9.065248072147369385e-03
6.451374292373657227e-02
2.595131099224090576e-02
-2.222246676683425903e-02
-4.691277071833610535e-02
9.809181094169616699e-03
4.115698486566543579e-02
-3.928668797016143799e-03
-7.692742347717285156e-02
-2.991038188338279724e-02
2.772163599729537964e-02
3.574721515178680420e-02
1.978896558284759521e-03
5.392910540103912354e-02
-1.137512922286987305e-02
-3.230658918619155884e-02
7.066695392131805420e-02
-7.012467831373214722e-02
5.077707767486572266e-02
1.827507466077804565e-02
2.617016434669494629e-04
-7.358831167221069336e-02
7.855078577995300293e-02
4.820883274078369141e-02
3.417333960533142090e-02
-7.272143661975860596e-02
1.465058326721191406e-02
5.945749580860137939e-03
-2.552339434623718262e-02
6.234084069728851318e-02
2.307641506195068359e-02
-1.557283103466033936e-02
-3.118417412042617798e-02
-5.308891087770462036e-02
-4.496294632554054260e-02
5.595865845680236816e-02
-1.143185794353485107e-02
-6.263260543346405029e-02
4.245301336050033569e-02
5.082048475742340088e-02
1.638340204954147339e-02
-5.416650697588920593e-02
3.306768834590911865e-02
7.033675909042358398e-02
6.751391291618347168e-02
3.576695919036865234e-02
-4.144042730331420898e-03
4.341812431812286377e-02
4.840143024921417236e-02
-2.961998432874679565e-02
4.549434781074523926e-02
-1.547425985336303711e-02
-6.534555554389953613e-02
-2.916037663817405701e-02
5.806887149810791016e-02
2.517351508140563965e-02
-2.230862900614738464e-02
-8.067741245031356812e-02
-6.019289046525955200e-02
6.658078730106353760e-02
5.020715296268463135e-02
1.319952309131622314e-02
6.401656568050384521e-02
-1.876624673604965210e-02
-7.359503209590911865e-02
6.132271885871887207e-02
-7.017867267131805420e-02
7.551631331443786621e-02
3.103277832269668579e-02
-6.125622615218162537e-02
-4.973028600215911865e-02
-4.323628172278404236e-02
-1.957039907574653625e-02
-7.852709293365478516e-02
3.261255472898483276e-02
4.184189438819885254e-02
-1.688046753406524658e-02
5.085159838199615479e-02
-7.466679811477661133e-02
5.120125412940979004e-02
2.837896347045898438e-03
-1.379080116748809814e-03
-5.555665865540504456e-02
-3.287489339709281921e-02
1.613910496234893799e-02
-7.289178669452667236e-02
-4.973927140235900879e-02
3.371577709913253784e-02
1.008547097444534302e-02
-6.213701143860816956e-02
7.326474785804748535e-02
-7.132820785045623779e-03
-6.412826478481292725e-03
-4.039116203784942627e-03
-6.098894774913787842e-02
5.166102945804595947e-02
5.742298066616058350e-02
7.470166683197021484e-02
-4.154381901025772095e-02
-4.407127946615219116e-02
7.276698946952819824e-02
1.028667390346527100e-02
4.776386916637420654e-02
4.486669600009918213e-02
2.956415712833404541e-02
-7.289753854274749756e-02
-7.952332496643066406e-03
-3.338840603828430176e-02
2.579627186059951782e-02
2.878740429878234863e-03
1.122524589300155640e-02
2.986329048871994019e-02
5.804762244224548340e-02
3.750645369291305542e-02
2.565716952085494995e-02
2.928509563207626343e-02
-1.615464687347412109e-03
3.225275129079818726e-02
3.764194250106811523e-02
1.072893291711807251e-02
7.896910607814788818e-02
1.971311122179031372e-02
-1.232478767633438110e-02
1.371001452207565308e-02
6.255349516868591309e-02
-4.166780039668083191e-02
5.090211331844329834e-02
-5.369219928979873657e-02
-7.214187085628509521e-02
5.044656991958618164e-02
3.884891420602798462e-02
-1.331380754709243774e-02
-3.840038552880287170e-02
6.791497766971588135e-02
5.871850252151489258e-02
-6.520171463489532471e-02
6.120394170284271240e-02
-6.654543429613113403e-02
6.970012187957763672e-02
2.591156959533691406e-02
-7.267234474420547485e-02
-6.029635667800903320e-02
-3.435982018709182739e-02
1.335464417934417725e-02
4.833373427391052246e-02
-2.374364063143730164e-02
3.218308091163635254e-03
1.189075410366058350e-02
-3.851088136434555054e-02
-2.561790496110916138e-02
-5.498468875885009766e-02
9.185969829559326172e-04
-6.126292049884796143e-02
8.353136479854583740e-03
-6.486499309539794922e-02
2.031378448009490967e-03
-3.096534684300422668e-02
-6.095837429165840149e-02
-5.728028714656829834e-02
-2.533298730850219727e-02
-3.443933278322219849e-02
-6.268335878849029541e-02
-8.126037567853927612e-02
4.326086491346359253e-02
-7.882371544837951660e-03
-5.931819230318069458e-02
-4.463709890842437744e-03
-2.364367991685867310e-02
6.022299826145172119e-02
-6.934810429811477661e-02
2.824260294437408447e-02
-6.772580742835998535e-02
-6.304359436035156250e-02
8.055621385574340820e-02
-4.149970412254333496e-02
3.504759073257446289e-02
4.117920249700546265e-02
-3.808013722300529480e-02
5.948971211910247803e-02
-8.634708821773529053e-03
3.163200616836547852e-02
1.308941841125488281e-02
6.018705666065216064e-02
-8.323349058628082275e-03
-2.349092438817024231e-02
-5.737323313951492310e-02
-5.945288017392158508e-02
-6.750080734491348267e-02
7.161380350589752197e-02
7.489486038684844971e-02
8.133390545845031738e-02
-1.888652145862579346e-02
1.544211059808731079e-02
-1.990978419780731201e-02
-7.194481790065765381e-02
3.138965368270874023e-02
5.651123821735382080e-02
6.987471878528594971e-02
-2.327717840671539307e-02
4.735201597213745117e-02
-1.168229430913925171e-02
-1.713276654481887817e-02
-1.525011658668518066e-02
6.942631304264068604e-02
-3.530708327889442444e-02
-5.884067714214324951e-02
3.785514086484909058e-02
3.190686553716659546e-02
2.486133575439453125e-02
-3.711959719657897949e-02
-2.490416169166564941e-03
8.035767078399658203e-02
-2.589414641261100769e-02
3.658948093652725220e-02
-8.050383627414703369e-02
-4.987483844161033630e-02
6.805181503295898438e-03
-6.910771131515502930e-02
3.349793702363967896e-02
3.017318248748779297e-02
-7.373637706041336060e-02
-1.033575087785720825e-02
2.894976735115051270e-02
-5.224309861660003662e-02
5.781598389148712158e-03
-6.461018323898315430e-02
-7.688964158296585083e-02
-5.505333840847015381e-02
-2.128276601433753967e-02
-5.436459183692932129e-02
-4.363414272665977478e-02
-6.532112509012222290e-02
2.357426285743713379e-02
4.463225603103637695e-02
-4.582897573709487915e-02
-6.769660115242004395e-02
3.444714844226837158e-02
1.046944409608840942e-02
-7.493498921394348145e-02
-4.334820434451103210e-02
3.814268857240676880e-02
6.057621538639068604e-02
3.790471702814102173e-02
-6.209314242005348206e-02
7.128661870956420898e-02
-2.467650175094604492e-02
4.628175497055053711e-02
-7.660672813653945923e-02
-1.018809527158737183e-02
2.675055712461471558e-02
4.002808034420013428e-02
-3.574980795383453369e-02
8.760839700698852539e-03
2.112153172492980957e-02
1.869671791791915894e-02
1.354210823774337769e-02
4.136990010738372803e-02
3.884936124086380005e-02
-4.779495298862457275e-03
5.555954575538635254e-02
-6.490802019834518433e-02
-3.148717433214187622e-02
-2.873405069112777710e-02
1.565700769424438477e-02
5.817711353302001953e-03
5.589461326599121094e-02
4.157374054193496704e-02
1.004426181316375732e-02
4.798817634582519531e-02
-2.096600085496902466e-02
-2.382723242044448853e-02
-8.546166121959686279e-03
-5.270068347454071045e-02
1.136847585439682007e-02
6.993746757507324219e-02
3.678046911954879761e-02
7.657855749130249023e-03
-2.179606631398200989e-02
3.748588263988494873e-03
-7.348328828811645508e-03
-5.392247065901756287e-02
5.952757596969604492e-02
-1.519703865051269531e-02
7.156217098236083984e-02
-6.920330971479415894e-02
-3.972378745675086975e-02
4.269364476203918457e-02
3.302713483572006226e-02
-1.415719836950302124e-02
-6.835643947124481201e-02
4.002229124307632446e-02
8.466809988021850586e-03
-6.568442285060882568e-02
2.780468016862869263e-02
1.653754711151123047e-02
4.806926846504211426e-02
-5.957621335983276367e-02
-4.935453832149505615e-02
3.914153575897216797e-02
4.561746120452880859e-02
5.911855399608612061e-02
8.260905742645263672e-04
-1.242712140083312988e-03
1.531445235013961792e-02
-5.157291889190673828e-03
-6.552693992853164673e-02
-3.033571317791938782e-02
2.972718328237533569e-02
2.126023918390274048e-02
1.428873836994171143e-02
-7.937468588352203369e-02
2.075597643852233887e-02
4.531042277812957764e-02
-3.861082345247268677e-02
-5.262177437543869019e-02
6.224894523620605469e-02
-5.243875086307525635e-03
-8.311599493026733398e-03
1.629129052162170410e-03
1.555467396974563599e-02
7.511071860790252686e-03
3.006996959447860718e-02
-4.419674351811408997e-02
4.829657077789306641e-02
-2.387449145317077637e-03
-6.074629724025726318e-03
6.742751598358154297e-02
2.355448901653289795e-02
-5.124244838953018188e-02
-1.060200482606887817e-02
-3.165143355727195740e-02
6.431397795677185059e-02
-6.592197716236114502e-02
5.922484397888183594e-02
1.839711517095565796e-02
2.707067131996154785e-02
4.134013503789901733e-02
5.280996859073638916e-02
-5.834661424160003662e-02
6.088110804557800293e-02
-5.156219005584716797e-03
7.349358499050140381e-02
3.964655101299285889e-02
-5.311425775289535522e-02
5.127270519733428955e-02
5.260109901428222656e-02
-2.697894349694252014e-02
4.936303198337554932e-02
2.354712784290313721e-02
-4.408352077007293701e-03
-5.310989916324615479e-02
2.238289266824722290e-02
-5.863405764102935791e-02
6.575238704681396484e-02
5.138598382472991943e-02
-6.191646307706832886e-02
1.498883217573165894e-02
6.767746806144714355e-02
4.803670942783355713e-02
-5.003415420651435852e-02
-4.818994551897048950e-02
-3.904728963971138000e-02
-2.396688610315322876e-02
-7.770023494958877563e-02
7.754626870155334473e-02
-3.396615386009216309e-03
-5.902517586946487427e-02
-3.789234161376953125e-02
5.765101313591003418e-02
1.630554348230361938e-02
3.754907846450805664e-02
-3.316314890980720520e-02
5.736781656742095947e-02
1.791774481534957886e-02
4.236571490764617920e-03
-6.475764513015747070e-02
1.152593642473220825e-02
5.216130614280700684e-02
-3.693003952503204346e-02
1.643082499504089355e-02
7.428273558616638184e-03
-2.333474159240722656e-02
-1.711398363113403320e-04
7.569310069084167480e-02
8.120277523994445801e-02
4.340694844722747803e-02
3.343166410923004150e-02
7.086889445781707764e-02
-6.396286189556121826e-03
-8.087366819381713867e-02
-7.927281409502029419e-02
-2.356369048357009888e-02
2.112429589033126831e-02
6.983493268489837646e-02
-1.600953191518783569e-02
-2.319322898983955383e-02
-6.432267278432846069e-02
4.568830132484436035e-03
6.215423345565795898e-02
-3.254751861095428467e-02
-5.192056298255920410e-02
-7.337790727615356445e-02
4.364345967769622803e-02
5.091960728168487549e-02
-3.761068731546401978e-02
3.934596478939056396e-02
4.907162487506866455e-02
-2.651331946253776550e-02
-1.274504512548446655e-02
-3.656249865889549255e-02
-5.621792748570442200e-02
5.758504569530487061e-02
7.786153256893157959e-02
5.344642698764801025e-02
-4.615907371044158936e-02
-6.842857599258422852e-02
3.914430737495422363e-03
7.681922614574432373e-02
2.415022253990173340e-02
7.040770351886749268e-02
-2.420026436448097229e-02
-7.279102504253387451e-02
-6.629403680562973022e-02
8.128549158573150635e-02
6.953760981559753418e-02
3.249798715114593506e-02
3.004153817892074585e-02
4.676273465156555176e-02
2.921637147665023804e-02
4.226637631654739380e-02
1.507862657308578491e-02
-9.670615196228027344e-03
-6.218648701906204224e-02
4.300826787948608398e-02
-7.099606841802597046e-02
-1.296999305486679077e-02
1.004548370838165283e-02
-2.172506228089332581e-02
2.903018146753311157e-02
-5.102360248565673828e-02
-1.144371181726455688e-02
-5.284696817398071289e-02
-6.770163774490356445e-03
-2.375124394893646240e-02
-4.504780098795890808e-02
4.392091929912567139e-02
4.213540256023406982e-02
-8.024229109287261963e-02
-1.678615808486938477e-04
3.380049020051956177e-02
3.046441823244094849e-02
3.699547052383422852e-02
-1.614458113908767700e-02
6.533586978912353516e-02
1.190656423568725586e-02
1.318453997373580933e-02
-7.235006988048553467e-02
1.865548640489578247e-02
3.968176245689392090e-02
-2.941687777638435364e-02
-1.118439435958862305e-02
5.568850040435791016e-02
-1.450031250715255737e-02
8.007937669754028320e-02
4.428566992282867432e-02
6.012386083602905273e-02
6.599590182304382324e-02
-4.219152778387069702e-02
-5.302667617797851562e-03
2.268671989440917969e-03
3.784880787134170532e-02
-5.995359644293785095e-02
7.481770217418670654e-02
-6.278095394372940063e-02
-8.039594441652297974e-02
-6.289519369602203369e-03
6.680569052696228027e-02
-7.433047890663146973e-02
7.580685615539550781e-02
-5.530283227562904358e-02
1.374413073062896729e-02
-2.729761600494384766e-02
-4.259677603840827942e-02
-3.002068027853965759e-02
6.571461260318756104e-02
3.090918064117431641e-03
-8.948087692260742188e-03
4.481747746467590332e-02
-6.649839133024215698e-02
-8.115840703248977661e-02
-3.759808093309402466e-02
-1.361997425556182861e-02
-2.507525682449340820e-02
-3.210873901844024658e-02
-6.402714550495147705e-02
-4.997956752777099609e-02
6.602948904037475586e-02
-3.951207920908927917e-02
1.098140329122543335e-02
2.232283353805541992e-03
-3.377280756831169128e-02
-8.353427052497863770e-03
-3.566756844520568848e-02
2.117048949003219604e-02
7.718393206596374512e-02
1.215384900569915771e-02
2.884785830974578857e-02
2.692820131778717041e-02
-1.614131033420562744e-02
-3.283172473311424255e-02
8.047917485237121582e-02
-6.768344342708587646e-02
-6.479398906230926514e-02
-3.068551048636436462e-02
-1.663102209568023682e-02
3.355212509632110596e-02
-6.311860680580139160e-02
-9.890586137771606445e-03
2.354651689529418945e-03
-6.757602095603942871e-02
6.010910868644714355e-02
5.036666989326477051e-02
-5.214041471481323242e-02
-4.793402552604675293e-02
5.413873493671417236e-02
-8.692733943462371826e-03
6.149582564830780029e-03
4.928338527679443359e-02
-3.208420053124427795e-02
-1.250430941581726074e-04
5.141988396644592285e-02
-8.099421858787536621e-03
3.393911570310592651e-02
-1.515413075685501099e-02
-4.811455309391021729e-02
7.277397811412811279e-02
-4.896207898855209351e-02
6.397251784801483154e-02
3.105417639017105103e-02
5.920641124248504639e-02
-2.440811321139335632e-02
7.425968348979949951e-02
-6.963042914867401123e-02
-1.621890068054199219e-02
7.165239751338958740e-02
-3.420670330524444580e-02
-4.271867871284484863e-02
3.724020719528198242e-02
-5.236228555440902710e-02
6.885696947574615479e-02
-6.803596764802932739e-02
9.853392839431762695e-04
-1.729502528905868530e-02
9.605377912521362305e-03
-3.525639325380325317e-02
-6.861465424299240112e-02
-8.659891784191131592e-03
-3.404811024665832520e-03
4.593074321746826172e-02
5.549702048301696777e-02
-3.940273076295852661e-02
-3.677054867148399353e-02
-8.105126023292541504e-02
2.515150606632232666e-02
-3.406725823879241943e-03
-4.048024863004684448e-02
-7.634938508272171021e-02
5.029781162738800049e-02
-7.060393691062927246e-04
5.035236477851867676e-02
7.273107767105102539e-04
7.090112566947937012e-02
-1.031568646430969238e-02
-5.257294327020645142e-02
2.507007122039794922e-02
-6.165995821356773376e-02
-2.386752888560295105e-02
6.749495863914489746e-02
-3.774546459317207336e-02
-4.435531795024871826e-03
-2.014744281768798828e-02
4.413589835166931152e-02
-5.341748148202896118e-02
-7.901298254728317261e-02
-6.608042865991592407e-02
3.786592930555343628e-02
8.982166647911071777e-03
4.802517592906951904e-02
-3.776491433382034302e-02
6.597445905208587646e-02
-5.984432995319366455e-03
3.135657310485839844e-02
7.957817614078521729e-02
5.428327620029449463e-02
5.102251470088958740e-02
4.581259191036224365e-02
-2.218110859394073486e-02
5.601550638675689697e-02
4.797765612602233887e-02
2.259372174739837646e-02
2.091593295335769653e-02
1.518617570400238037e-02
1.230833679437637329e-02
2.597726881504058838e-02
-8.093155175447463989e-02
7.150700688362121582e-02
3.212574124336242676e-02
1.217764616012573242e-02
6.237094104290008545e-02
8.981436491012573242e-03
-5.548623949289321899e-02
1.929708570241928101e-02
-2.865142375230789185e-02
-6.745478510856628418e-02
2.572639286518096924e-02
-5.596555769443511963e-02
-7.167677581310272217e-02
-6.445845961570739746e-02
-4.641632735729217529e-02
-1.504531502723693848e-02
-3.495709970593452454e-02
3.308203071355819702e-02
6.863293051719665527e-02
-2.544308453798294067e-02
-2.577367797493934631e-02
-2.833367884159088135e-02
2.563818544149398804e-02
7.209873199462890625e-02
4.666765034198760986e-02
2.912141382694244385e-03
-4.383799061179161072e-02
-4.087895900011062622e-02
-4.544325917959213257e-02
2.804789692163467407e-02
1.353414356708526611e-02
-1.214980334043502808e-02
-8.139365166425704956e-02
-7.343570888042449951e-02
2.581762522459030151e-02
1.133833825588226318e-02
-6.382295489311218262e-02
2.121362090110778809e-02
1.964306086301803589e-02
-5.450574308633804321e-02
4.523290693759918213e-02
2.480825781822204590e-02
-8.034042268991470337e-02
3.566279262304306030e-02
8.044399321079254150e-02
-5.472076684236526489e-02
7.186982035636901855e-02
3.376558423042297363e-02
-4.143203794956207275e-02
-3.097561374306678772e-02
-5.332403257489204407e-02
7.775925099849700928e-02
-5.387131124734878540e-02
2.246940135955810547e-02
7.157303392887115479e-02
-6.687042117118835449e-02
-2.769265696406364441e-02
-7.459882646799087524e-02
7.680240273475646973e-02
4.281192272901535034e-02
-4.740750789642333984e-02
3.416487574577331543e-02
-3.396652638912200928e-03
3.023182600736618042e-02
4.894430935382843018e-02
9.918048977851867676e-03
1.933701336383819580e-03
1.433929055929183960e-02
3.549704700708389282e-02
5.057904124259948730e-02
-5.306974798440933228e-02
-5.279727280139923096e-02
-1.601053774356842041e-02
2.070674300193786621e-02
2.714926004409790039e-02
-5.554180592298507690e-02
-3.896115720272064209e-02
4.067301750183105469e-02
-3.969373181462287903e-02
6.382617354393005371e-02
3.185439109802246094e-02
7.802847027778625488e-02
2.072948962450027466e-02
-8.099941164255142212e-02
4.577392339706420898e-02
1.902194321155548096e-02
6.001150608062744141e-02
-3.879187256097793579e-02
-4.022874683141708374e-02
1.630062609910964966e-02
3.371176868677139282e-02
-1.489594578742980957e-04
-3.806377574801445007e-02
-5.520746484398841858e-02
7.673990726470947266e-02
6.037408113479614258e-02
-7.057759910821914673e-02
-4.062973335385322571e-02
2.728544920682907104e-02
-2.206630632281303406e-02
-6.186088174581527710e-02
5.289120972156524658e-02
5.173362791538238525e-02
3.266686946153640747e-02
-7.248482108116149902e-02
-1.349205523729324341e-02
-2.978641912341117859e-02
-2.137376368045806885e-02
1.648075878620147705e-02
6.323389708995819092e-02
-2.556086704134941101e-02
3.721963614225387573e-02
-3.481914848089218140e-02
2.283967286348342896e-02
1.577921211719512939e-02
-5.973064154386520386e-02
-4.309305176138877869e-02
7.616648077964782715e-02
-5.063591152429580688e-02
-3.989115357398986816e-03
-1.334602385759353638e-02
4.291868954896926880e-02
2.583103626966476440e-02
7.793873548507690430e-02
3.782123327255249023e-03
4.398332536220550537e-02
1.995461434125900269e-02
-3.578831255435943604e-02
3.584037721157073975e-02
2.658557891845703125e-02
-2.922957018017768860e-02
-1.029881089925765991e-02
5.422900617122650146e-02
-1.939059421420097351e-02
-3.012159839272499084e-02
4.644143581390380859e-02
1.782818883657455444e-02
-3.280929103493690491e-02
-3.034874424338340759e-02
4.179040342569351196e-02
2.692058682441711426e-02
-4.827466607093811035e-02
-5.769815295934677124e-02
5.494402348995208740e-02
4.685308039188385010e-02
-3.951134905219078064e-02
1.946974545717239380e-02
3.782533854246139526e-02
6.098541617393493652e-02
3.432354331016540527e-02
3.229118883609771729e-02
8.131279051303863525e-02
6.810405850410461426e-02
-6.517029553651809692e-02
-2.156521007418632507e-02
7.648770511150360107e-02
2.457907795906066895e-02
3.653284162282943726e-02
-4.562760889530181885e-02
-2.574435248970985413e-02
3.920967876911163330e-02
6.772594153881072998e-02
5.461026728153228760e-02
-3.204893693327903748e-02
-5.092748254537582397e-02
-7.199163734912872314e-02
-8.134642988443374634e-02
4.295033216476440430e-02
-2.135274931788444519e-02
-7.324387133121490479e-02
5.657950043678283691e-02
3.210745751857757568e-03
-1.961007341742515564e-02
-2.085097134113311768e-02
-5.450830608606338501e-02
-1.220715045928955078e-02
-8.524663746356964111e-03
-4.420306906104087830e-02
6.689251959323883057e-02
-5.393213778734207153e-02
1.755734533071517944e-02
3.979417681694030762e-02
1.805365085601806641e-02
-1.759307086467742920e-02
2.918086200952529907e-02
2.389755845069885254e-02
8.808270096778869629e-03
-3.078307956457138062e-02
-6.633713096380233765e-02
4.456922411918640137e-02
2.845440804958343506e-02
1.186726242303848267e-02
6.133107841014862061e-02
5.286602675914764404e-02
-7.174647599458694458e-02
-4.587023332715034485e-02
-6.153337657451629639e-03
2.192457765340805054e-02
-4.902563989162445068e-03
5.453237891197204590e-02
-4.009876772761344910e-02
5.397917330265045166e-02
1.977526396512985229e-02
-6.524678319692611694e-02
-2.927824482321739197e-02
-7.653565704822540283e-02
3.825905174016952515e-02
7.509279251098632812e-02
-6.723799556493759155e-02
-2.053938806056976318e-02
4.868242144584655762e-02
7.832129299640655518e-02
-4.516072571277618408e-03
-2.993650734424591064e-02
2.942296117544174194e-02
3.663450479507446289e-04
-6.724098324775695801e-02
-5.862400308251380920e-02
-3.059774637222290039e-02
-4.756721481680870056e-02
6.232884526252746582e-02
6.946085393428802490e-02
-6.802472472190856934e-02
6.797677278518676758e-02
-7.988119125366210938e-02
-6.361587345600128174e-02
-3.761588409543037415e-02
-6.954520940780639648e-02
-2.474080771207809448e-02
6.928665935993194580e-02
-3.731266036629676819e-02
5.334013700485229492e-02
-4.989043995738029480e-02
2.071081846952438354e-02
-2.044742554426193237e-02
-4.396354034543037415e-02
-5.985070392489433289e-02
-7.561283558607101440e-02
2.381841093301773071e-02
-6.524588912725448608e-02
2.110981196165084839e-02
6.699952483177185059e-02
6.198255717754364014e-02
-2.971656247973442078e-02
-3.095163032412528992e-02
7.904067635536193848e-02
-7.849542051553726196e-02
3.919124603271484375e-02
6.855821609497070312e-02
3.038340806961059570e-02
-2.748722210526466370e-02
2.193959802389144897e-02
-7.128231972455978394e-02
1.448891311883926392e-02
-4.295225813984870911e-02
-5.687342211604118347e-02
6.734232604503631592e-02
8.776508271694183350e-03
-1.059067994356155396e-02
-1.128093153238296509e-02
4.832631349563598633e-02
7.417437434196472168e-02
2.928918600082397461e-02
-3.656192496418952942e-02
6.432464718818664551e-02
5.495896935462951660e-02
-2.382615208625793457e-02
-3.747567534446716309e-04
7.589451968669891357e-02
-1.972191035747528076e-02
5.375751852989196777e-02
5.298122763633728027e-02
-7.791969925165176392e-02
3.015048801898956299e-03
2.282918989658355713e-02
-2.135887742042541504e-03
-7.900366932153701782e-02
1.157335191965103149e-02
4.190377146005630493e-02
-3.252707049250602722e-02
7.309712469577789307e-03
-5.072001740336418152e-02
5.971144139766693115e-02
-7.303622364997863770e-02
2.896621078252792358e-02
7.163557410240173340e-02
-7.846060395240783691e-02
-4.813987016677856445e-02
8.150896430015563965e-02
-7.029880583286285400e-02
-7.655143737792968750e-03
-8.724704384803771973e-04
-6.262860447168350220e-02
7.174864411354064941e-03
4.403774440288543701e-02
-7.913754135370254517e-02
-7.265458256006240845e-02
-7.333412766456604004e-02
-5.355925858020782471e-02
-4.264402389526367188e-02
-2.071931958198547363e-03
-6.231049820780754089e-02
7.585917413234710693e-02
4.015306383371353149e-02
-5.008253827691078186e-02
-5.324290692806243896e-02
-8.125749230384826660e-02
7.372997701168060303e-03
6.602488458156585693e-02
8.556142449378967285e-03
-8.038292825222015381e-02
2.500272542238235474e-02
5.488085746765136719e-02
7.601848244667053223e-02
5.316272377967834473e-03
-1.102513819932937622e-02
4.211094975471496582e-02
-4.468116536736488342e-02
-3.059379756450653076e-03
2.523929625749588013e-02
6.889760494232177734e-02
-6.328821927309036255e-02
-2.577078714966773987e-02
2.407431602478027344e-04
1.931177079677581787e-02
6.604084372520446777e-02
-4.761312529444694519e-02
7.627891004085540771e-02
5.449244379997253418e-02
6.809790432453155518e-02
7.574015855789184570e-02
5.144508183002471924e-02
-1.703366637229919434e-03
3.957217186689376831e-02
-7.268291711807250977e-02
-4.431968554854393005e-02
-5.536015331745147705e-02
-2.071492746472358704e-02
4.005457460880279541e-02
-2.863686531782150269e-02
-5.469577014446258545e-02
-2.814829349517822266e-04
5.688889324665069580e-02
-2.581227943301200867e-02
1.585225760936737061e-02
-1.840160042047500610e-02
-3.777315840125083923e-02
-4.305294156074523926e-02
1.991677284240722656e-02
7.236666977405548096e-03
2.883106470108032227e-02
-8.060580492019653320e-02
6.649821996688842773e-02
4.935123026371002197e-02
3.200038522481918335e-02
3.757005929946899414e-02
6.424398720264434814e-02
-1.184462010860443115e-02
5.970202386379241943e-03
-7.082048058509826660e-02
-4.198195785284042358e-02
7.957920432090759277e-02
-7.775614410638809204e-02
7.428206503391265869e-02
6.319265067577362061e-02
-2.439393103122711182e-02
-7.264569401741027832e-02
-4.056528955698013306e-02
3.176128119230270386e-02
6.334017217159271240e-02
-4.905817657709121704e-02
6.063754856586456299e-02
3.717176616191864014e-03
9.926587343215942383e-03
6.889767944812774658e-03
6.443761289119720459e-02
4.861502349376678467e-02
-3.565832972526550293e-03
-7.334166020154953003e-02
2.016342431306838989e-02
5.228695273399353027e-02
2.644114196300506592e-03
-2.257206290960311890e-02
-2.573387697339057922e-02
-6.980041414499282837e-02
-4.067607223987579346e-03
5.350989103317260742e-02
7.477124035358428955e-02
5.515067279338836670e-02
-1.462703943252563477e-02
5.893352627754211426e-02
7.138253748416900635e-02
-5.776885896921157837e-02
7.020512223243713379e-02
5.489563941955566406e-02
2.912391722202301025e-02
1.616530865430831909e-02
2.317245304584503174e-02
-2.707846090197563171e-02
-7.796129584312438965e-02
-1.145543158054351807e-02
5.729980766773223877e-02
-8.158975094556808472e-02
1.745203882455825806e-02
4.457271099090576172e-02
3.194119781255722046e-02
-3.535131365060806274e-02
4.019492119550704956e-02
-7.497440278530120850e-02
-3.624893724918365479e-03
-5.959040299057960510e-02
2.847659587860107422e-02
-2.366083115339279175e-02
1.592241227626800537e-03
-2.704674750566482544e-02
1.654887199401855469e-02
-6.704130768775939941e-02
-5.993735790252685547e-02
-5.777119100093841553e-02
-1.698552072048187256e-02
-4.154709726572036743e-02
7.156510651111602783e-02
7.483729720115661621e-02
-4.923347383737564087e-02
-1.866968721151351929e-02
7.348592579364776611e-02
2.565411478281021118e-02
5.426071584224700928e-02
-1.964949071407318115e-02
-6.335125863552093506e-02
2.284670621156692505e-02
2.781657129526138306e-02
-4.268598183989524841e-02
-7.379754632711410522e-02
2.507529407739639282e-02
6.292562186717987061e-02
-2.191834896802902222e-02
-3.227309510111808777e-02
-2.481338009238243103e-02
1.461982727050781250e-02
3.187572211027145386e-02
-8.063165843486785889e-02
-6.741413474082946777e-02
-2.793857082724571228e-02
-3.492202237248420715e-02
2.109906822443008423e-02
5.394105613231658936e-02
2.193997800350189209e-02
5.933175981044769287e-02
-4.173181951045989990e-03
4.002302885055541992e-03
8.142915368080139160e-02
-1.872515678405761719e-02
-2.100772783160209656e-02
1.988189667463302612e-02
2.429036796092987061e-02
-7.795798778533935547e-02
-1.536799222230911255e-02
6.143204867839813232e-02
-2.042900025844573975e-02
7.334356009960174561e-02
-2.140972763299942017e-02
-2.398643270134925842e-02
6.862899661064147949e-02
5.441531538963317871e-02
1.350876688957214355e-02
-6.336531043052673340e-02
-4.705560579895973206e-02
4.642324149608612061e-02
5.492629110813140869e-02
-6.773615628480911255e-02
7.504889369010925293e-02
-6.707445532083511353e-02
6.781128048896789551e-02
6.735689938068389893e-03
-3.242283314466476440e-02
5.027925968170166016e-02
3.521794825792312622e-02
-1.522847265005111694e-02
-4.599753767251968384e-02
1.616938412189483643e-02
-2.074081078171730042e-02
-1.757891476154327393e-02
-7.263286411762237549e-02
-6.843076646327972412e-02
-7.028302550315856934e-02
-1.628704369068145752e-02
-9.785786271095275879e-03
1.416435837745666504e-02
8.023416996002197266e-02
-1.377161592245101929e-02
4.681512713432312012e-02
-4.725285246968269348e-02
-4.663593322038650513e-02
5.845887959003448486e-02
6.928475201129913330e-02
5.493113398551940918e-02
-5.024363473057746887e-02
6.616860628128051758e-03
-5.973570421338081360e-02
-4.721856489777565002e-02
7.387199997901916504e-02
7.135283946990966797e-02
-6.067745387554168701e-03
3.387585282325744629e-03
2.672223746776580811e-02
-4.850944504141807556e-02
-3.603217378258705139e-02
-7.059819996356964111e-03
5.778107047080993652e-02
4.120305180549621582e-02
5.619665980339050293e-02
5.320835113525390625e-02
-3.830210864543914795e-02
-7.049649953842163086e-03
-1.476355642080307007e-02
4.470977187156677246e-02
7.258148491382598877e-02
-2.578673884272575378e-02
8.558258414268493652e-03
-6.059344857931137085e-02
-5.482690781354904175e-02
-2.144976332783699036e-02
-9.610079228878021240e-03
-6.140204146504402161e-02
8.231304585933685303e-03
-2.657392993569374084e-02
-2.049070969223976135e-02
-3.183238208293914795e-03
2.477711439132690430e-02
-7.000431418418884277e-02
-2.340783923864364624e-02
-2.728107944130897522e-02
3.709507733583450317e-02
-3.917693719267845154e-02
5.578920245170593262e-02
4.233360290527343750e-02
2.604059875011444092e-03
-4.886415973305702209e-02
5.201393365859985352e-02
2.762808650732040405e-02
5.436526238918304443e-02
6.987655162811279297e-02
-1.617328822612762451e-02
-7.338626682758331299e-02
1.249989867210388184e-02
4.041285812854766846e-02
1.794897019863128662e-02
-3.720465674996376038e-02
-1.795089989900588989e-02
2.111836522817611694e-02
-7.538475096225738525e-03
-3.651181608438491821e-02
1.460830867290496826e-02
6.587274372577667236e-03
1.761411875486373901e-02
4.767729341983795166e-02
-7.744309306144714355e-02
-7.513947039842605591e-02
5.108889937400817871e-02
6.077094376087188721e-02
2.471344918012619019e-02
-1.697809249162673950e-02
2.173785120248794556e-02
1.289606094360351562e-03
4.344056546688079834e-02
-4.207121953368186951e-02
-3.970915079116821289e-02
3.717668354511260986e-03
4.028307646512985229e-02
-7.748421281576156616e-02
5.510531365871429443e-02
1.258830726146697998e-02
3.881213068962097168e-02
3.885928541421890259e-02
7.109940052032470703e-02
6.687441468238830566e-02
2.614901959896087646e-02
1.648136228322982788e-02
-9.287595748901367188e-04
-1.484499126672744751e-02
8.091303706169128418e-02
2.750094980001449585e-02
3.760039806365966797e-03
-7.852958887815475464e-02
-6.844341754913330078e-03
1.093514263629913330e-02
-7.483404129743576050e-02
2.191060036420822144e-02
2.983803302049636841e-02
4.201379418373107910e-02
-6.943432241678237915e-02
5.530042946338653564e-02
-6.372456252574920654e-02
4.549576342105865479e-02
4.486827552318572998e-02
2.917520701885223389e-03
-1.826897263526916504e-02
4.815557599067687988e-02
5.027414858341217041e-02
-1.470872014760971069e-02
-4.176327586174011230e-02
-4.266030713915824890e-02
-6.288591027259826660e-02
-2.049326151609420776e-02
4.726153612136840820e-02
3.619232028722763062e-02
4.890318214893341064e-02
4.997567832469940186e-02
5.883124470710754395e-02
2.143193036317825317e-02
1.769310981035232544e-02
-5.814642459154129028e-02
-1.480777561664581299e-02
5.643568933010101318e-02
-9.365990757942199707e-03
1.840411126613616943e-02
-5.733963102102279663e-02
3.896668553352355957e-03
-7.741478830575942993e-02
3.451758623123168945e-02
4.171743988990783691e-02
-7.627996057271957397e-02
-3.628298640251159668e-03
3.365511447191238403e-02
-7.892954349517822266e-02
-8.129842579364776611e-03
7.238197326660156250e-02
5.963982641696929932e-02
-2.920096367597579956e-02
-7.429648935794830322e-02
4.188726842403411865e-02
4.366040229797363281e-05
5.532099306583404541e-02
-3.491883724927902222e-02
-1.983332633972167969e-02
1.761554181575775146e-02
5.262707173824310303e-02
-5.935242027044296265e-02
1.852712780237197876e-02
6.820975244045257568e-02
4.948335886001586914e-02
3.495113551616668701e-02
-7.209373265504837036e-02
1.095531135797500610e-02
-3.536672145128250122e-02
-1.237982511520385742e-02
-5.297529324889183044e-02
6.957742571830749512e-02
-2.882078289985656738e-03
-4.916093125939369202e-02
7.283896207809448242e-02
-5.232683569192886353e-02
5.403445661067962646e-02
-4.621164500713348389e-02
3.319793194532394409e-02
9.996026754379272461e-03
-1.348058879375457764e-02
-4.986388608813285828e-02
1.248707622289657593e-02
-4.507815092802047729e-02
1.240514218807220459e-03
3.155501186847686768e-02
-5.931638181209564209e-02
-6.354786455631256104e-02
-5.913732200860977173e-02
-1.160620152950286865e-02
-1.637933403253555298e-02
-1.191736012697219849e-02
-1.764256507158279419e-02
-4.737113416194915771e-02
-4.366011172533035278e-02
-7.572921365499496460e-02
2.951925247907638550e-02
5.937950313091278076e-02
-4.432165250182151794e-02
1.292835921049118042e-02
6.841282546520233154e-02
-3.169991448521614075e-02
-4.944577068090438843e-02
4.080533981323242188e-03
5.053840577602386475e-02
-1.396704465150833130e-02
-7.069960236549377441e-03
-1.884575933218002319e-02
-9.855426847934722900e-03
-1.825518161058425903e-02
-2.836024016141891479e-02
-5.586276575922966003e-02
7.883043587207794189e-02
-7.236652821302413940e-02
2.227608859539031982e-02
4.637898504734039307e-02
-7.624775171279907227e-04
-6.062142550945281982e-02
-3.207691013813018799e-03
-1.619205623865127563e-02
3.004445135593414307e-02
1.401660591363906860e-02
3.563010692596435547e-02
-5.162263661623001099e-02
-4.104311019182205200e-02
3.996521234512329102e-02
-2.972125262022018433e-02
-3.873194381594657898e-02
-6.486561149358749390e-02
5.983339250087738037e-02
-1.059368252754211426e-02
-1.848632842302322388e-02
-2.349073067307472229e-02
1.770750433206558228e-02
-6.317451596260070801e-02
5.182619392871856689e-02
7.869850099086761475e-02
1.300895959138870239e-02
-5.569772422313690186e-02
-4.939027130603790283e-03
-2.516127377748489380e-02
2.614915370941162109e-03
-6.856211274862289429e-02
3.817158192396163940e-02
-6.781250238418579102e-03
3.026808798313140869e-02
-6.944270431995391846e-02
7.467257976531982422e-02
3.236702084541320801e-02
1.199061423540115356e-02
2.485495060682296753e-02
5.210904777050018311e-02
-1.081895083189010620e-02
-6.615480780601501465e-02
2.711659669876098633e-02
3.626243025064468384e-02
-5.221974849700927734e-02
-6.185222044587135315e-02
6.988550722599029541e-02
6.359918415546417236e-02
-4.033813253045082092e-02
-5.296878516674041748e-02
1.110948622226715088e-02
-3.207317367196083069e-02
3.976717591285705566e-03
4.411217570304870605e-02
7.508899271488189697e-02
1.045896112918853760e-02
-2.303964272141456604e-02
6.136646866798400879e-02
-3.271985054016113281e-02
6.551627814769744873e-02
-4.845687374472618103e-02
2.816706895828247070e-02
-2.400492504239082336e-02
6.140694022178649902e-03
-6.060596555471420288e-02
5.903884768486022949e-02
-7.135964930057525635e-02
1.360467076301574707e-02
5.807332694530487061e-03
-2.648343890905380249e-02
-5.737621337175369263e-02
-5.933940410614013672e-04
3.258787095546722412e-02
-3.801626712083816528e-02
4.033108800649642944e-02
6.033074855804443359e-02
-1.395180076360702515e-02
3.046631813049316406e-02
-6.232417374849319458e-02
-6.775415688753128052e-02
-7.494974136352539062e-02
-4.328675568103790283e-02
5.141226947307586670e-02
-3.711806237697601318e-02
2.921808511018753052e-02
-3.566823154687881470e-02
-1.870866864919662476e-02
-2.926038578152656555e-02
2.231609076261520386e-02
-3.745090216398239136e-02
-1.957853510975837708e-02
1.904337108135223389e-02
1.790481060743331909e-02
5.142159759998321533e-02
-2.439660578966140747e-02
6.901575624942779541e-02
3.890263289213180542e-02
-1.326628029346466064e-02
3.246483206748962402e-02
-2.975367009639739990e-03
-6.204853206872940063e-02
6.557106971740722656e-02
-6.079924106597900391e-02
6.214636564254760742e-02
-7.407888770103454590e-04
-6.151343882083892822e-02
-4.160641133785247803e-02
-6.167548149824142456e-02
4.274053126573562622e-02
-6.115572899580001831e-02
3.293521702289581299e-02
2.203613519668579102e-03
-4.262366145849227905e-02
-6.836417317390441895e-02
-2.393465116620063782e-02
3.367161005735397339e-02
-2.674806863069534302e-02
-3.357554972171783447e-02
-6.332465261220932007e-02
-7.616759836673736572e-02
1.626906543970108032e-02
4.840204119682312012e-02
-7.242796570062637329e-02
-9.547531604766845703e-03
8.070921897888183594e-02
3.421908617019653320e-02
-1.422242820262908936e-02
-2.934307977557182312e-02
-6.072695553302764893e-02
5.846634507179260254e-02
-1.921069249510765076e-02
1.050177961587905884e-02
-4.074575752019882202e-02
-5.161219835281372070e-02
4.231978952884674072e-02
-5.487516522407531738e-02
-9.504936635494232178e-03
-7.061593979597091675e-02
5.483308434486389160e-02
-2.728058397769927979e-02
-2.964458242058753967e-02
-6.198651343584060669e-02
5.093705654144287109e-02
-3.614920750260353088e-02
1.116146147251129150e-02
-4.698166251182556152e-02
8.034355938434600830e-02
6.519137322902679443e-02
-3.217887505888938904e-02
3.751132637262344360e-02
5.454584956169128418e-02
3.409862518310546875e-02
6.458476185798645020e-02
2.413741499185562134e-02
-4.267781600356101990e-02
-1.236538589000701904e-02
3.765020519495010376e-02
-5.938115715980529785e-02
6.321358680725097656e-02
-3.762718662619590759e-02
-6.374534964561462402e-02
7.915271818637847900e-02
6.808611750602722168e-02
-5.667168647050857544e-02
6.323604285717010498e-02
6.747660040855407715e-02
6.715616583824157715e-02
-6.458267569541931152e-03
6.948173046112060547e-03
-7.134503871202468872e-02
9.778663516044616699e-04
-2.313562482595443726e-02
2.309207618236541748e-02
-8.149234950542449951e-02
1.970186829566955566e-03
3.045082837343215942e-02
-2.127073705196380615e-02
2.834628522396087646e-02
-4.631966352462768555e-03
6.102803349494934082e-02
3.652130812406539917e-02
5.482873320579528809e-02
6.258186697959899902e-02
2.129288762807846069e-02
4.516226053237915039e-02
-3.767053782939910889e-02
2.435836195945739746e-02
-6.555715948343276978e-02
-6.443148851394653320e-02
1.022199541330337524e-02
6.610766053199768066e-02
2.658543735742568970e-02
4.156003147363662720e-02
4.289932548999786377e-02
4.558296501636505127e-02
-4.116007685661315918e-02
-3.577668219804763794e-02
6.499119102954864502e-02
6.249977648258209229e-02
-3.047738969326019287e-02
-1.287325471639633179e-02
-7.641413807868957520e-02
2.669538557529449463e-02
-2.515891566872596741e-02
4.875689744949340820e-03
-8.104070276021957397e-02
7.222054898738861084e-02
5.330951511859893799e-02
-2.326736599206924438e-02
4.166067391633987427e-02
5.598346889019012451e-02
1.764672249555587769e-02
-6.874223053455352783e-02
5.217055976390838623e-02
2.394386380910873413e-02
-8.063458651304244995e-02
7.117755711078643799e-02
6.718052923679351807e-02
3.095135092735290527e-03
5.503992736339569092e-02
-2.589724957942962646e-03
-2.749320119619369507e-02
-5.334690213203430176e-04
-1.106186211109161377e-02
-5.833723768591880798e-02
5.249792337417602539e-02
-3.613016009330749512e-02
3.948710858821868896e-02
7.734514772891998291e-02
-6.275565922260284424e-02
6.359279155731201172e-02
-2.792295813560485840e-02
7.892952859401702881e-02
-3.752497583627700806e-02
1.837238669395446777e-03
2.908241003751754761e-02
-7.027767598628997803e-02
5.144877731800079346e-02
-4.889708757400512695e-02
4.051595181226730347e-02
-5.764909088611602783e-03
2.271343767642974854e-02
-5.232558026909828186e-02
-4.225112497806549072e-03
1.377202570438385010e-02
7.884211838245391846e-03
4.202309250831604004e-02
4.323972761631011963e-02
-4.901770502328872681e-02
-3.683000057935714722e-02
-1.196295768022537231e-02
-6.023589521646499634e-02
4.039567708969116211e-02
-6.633065640926361084e-03
5.044147372245788574e-03
-4.398395121097564697e-02
-7.632948458194732666e-03
-5.210340768098831177e-02
-7.495991885662078857e-02
-4.824426770210266113e-02
-4.776276648044586182e-02
-6.598959863185882568e-02
4.490198194980621338e-02
2.527624368667602539e-02
-4.490761086344718933e-02
8.931778371334075928e-03
4.377554357051849365e-02
-6.635791063308715820e-02
-6.054313853383064270e-02
-5.101871490478515625e-02
1.842357963323593140e-02
4.248820245265960693e-02
3.143714368343353271e-02
7.922089099884033203e-02
1.744811236858367920e-02
-4.096423089504241943e-02
4.989704489707946777e-02
6.546704471111297607e-02
1.419267803430557251e-02
-8.078613132238388062e-02
-6.898748129606246948e-02
4.873126745223999023e-02
-1.145210117101669312e-02
4.986043274402618408e-02
-3.673673421144485474e-02
-5.469374358654022217e-03
5.736307799816131592e-02
4.544594883918762207e-02
-1.135054230690002441e-02
-6.111279129981994629e-03
-7.737848162651062012e-02
-7.325336337089538574e-02
6.072039902210235596e-02
-7.007078826427459717e-02
3.798961639404296875e-02
3.607322275638580322e-02
5.524221062660217285e-02
-2.430498600006103516e-03
5.073025822639465332e-04
-7.283630222082138062e-02
5.539946258068084717e-02
2.625058591365814209e-02
-5.117032304406166077e-02
3.744320571422576904e-02
5.166037380695343018e-02
-7.242841273546218872e-02
-4.422283917665481567e-02
4.050353914499282837e-02
-8.079123497009277344e-02
-3.797715902328491211e-02
-2.116505056619644165e-02
-7.927577197551727295e-02
-5.893244594335556030e-02
2.525578439235687256e-02
-3.888769075274467468e-02
-4.853624105453491211e-02
2.364329993724822998e-03
-4.407785832881927490e-02
4.438467323780059814e-03
7.600769400596618652e-03
-3.213482350111007690e-02
6.949305534362792969e-03
5.176211893558502197e-02
-2.057119458913803101e-02
8.481465280055999756e-03
5.260157585144042969e-02
-6.093659996986389160e-02
-2.766149118542671204e-02
-7.674437016248703003e-02
-1.780950278043746948e-02
-2.857375144958496094e-02
-6.783683598041534424e-02
3.943851590156555176e-02
6.623996794223785400e-02
-1.403994858264923096e-02
2.303215116262435913e-02
7.283484935760498047e-02
6.516708433628082275e-02
-4.431137442588806152e-02
-9.716600179672241211e-03
-3.368556872010231018e-02
-7.472157478332519531e-03
6.651759147644042969e-03
-3.878054395318031311e-02
3.441907465457916260e-02
-7.041335105895996094e-03
8.133828639984130859e-02
-3.617489337921142578e-02
-6.147358193993568420e-02
-3.378637507557868958e-02
-8.353486657142639160e-03
-3.650873154401779175e-02
-2.506946772336959839e-02
-1.757594943046569824e-02
-2.545146271586418152e-02
-4.838152974843978882e-02
-6.249632686376571655e-02
7.043600082397460938e-02
4.488036036491394043e-02
6.592792272567749023e-02
7.244420051574707031e-02
-3.144902735948562622e-02
4.309771209955215454e-02
1.900345832109451294e-02
-2.264185994863510132e-02
4.325738549232482910e-02
5.322133004665374756e-02
6.968568265438079834e-02
4.751835763454437256e-02
-1.544272899627685547e-02
-4.014829173684120178e-02
-3.635921701788902283e-02
-3.090412169694900513e-02
-3.601126745343208313e-02
-5.131229385733604431e-02
-6.232209503650665283e-03
3.994614630937576294e-02
-5.182894319295883179e-02
-3.807868808507919312e-02
-3.829659149050712585e-02
-3.210494294762611389e-02
-3.605758771300315857e-02
-9.701855480670928955e-03
2.627559006214141846e-02
-3.580878302454948425e-02
-2.806790173053741455e-03
-5.639695376157760620e-02
-5.372620373964309692e-02
-7.785646617412567139e-02
-7.682726532220840454e-02
-1.107130944728851318e-02
3.510192036628723145e-02
-3.641379252076148987e-02
-6.257794797420501709e-02
6.678040325641632080e-02
-1.569055020809173584e-02
-2.571867406368255615e-02
-4.131822660565376282e-02
3.756001591682434082e-03
1.731124520301818848e-02
6.280957162380218506e-02
1.185601949691772461e-02
6.562273204326629639e-02
-2.896704897284507751e-02
3.749806433916091919e-02
3.201682865619659424e-02
-5.252789705991744995e-02
-9.025007486343383789e-03
-4.815014824271202087e-02
1.937000453472137451e-02
-1.152624189853668213e-02
-1.171112060546875000e-02
4.653744399547576904e-03
3.028688579797744751e-02
-3.865162655711174011e-02
-3.425970673561096191e-03
5.777980387210845947e-02
2.603995800018310547e-02
-7.735104858875274658e-02
7.789693772792816162e-02
6.833845376968383789e-02
3.802140802145004272e-02
7.475332915782928467e-02
-5.660817772150039673e-02
2.279014885425567627e-02
-1.041713356971740723e-02
-5.658702552318572998e-02
-2.993953227996826172e-02
4.499337077140808105e-02
-5.352680757641792297e-02
1.128870993852615356e-02
1.655475795269012451e-02
7.129222154617309570e-02
-8.061992377042770386e-02
-5.973668396472930908e-02
5.277769267559051514e-02
3.233420848846435547e-02
3.139597922563552856e-02
-2.706625312566757202e-02
-4.636397957801818848e-02
-6.077693402767181396e-02
2.575625479221343994e-02
-7.618603110313415527e-02
7.485438883304595947e-02
-2.729559317231178284e-02
4.247225075960159302e-02
-2.275364845991134644e-02
-5.785058811306953430e-02
1.758426427841186523e-03
-3.682019934058189392e-02
5.833879113197326660e-02
-1.075120270252227783e-02
2.026689052581787109e-02
2.601847052574157715e-03
-2.699565887451171875e-02
7.378682494163513184e-03
-2.804987132549285889e-03
-6.014190614223480225e-02
-5.981649085879325867e-02
-3.376108780503273010e-02
-7.797934114933013916e-03
4.929715394973754883e-02
7.137697935104370117e-02
7.843375205993652344e-02
-1.841114461421966553e-02
7.744441926479339600e-02
-4.201222583651542664e-02
-9.597547352313995361e-03
4.702909290790557861e-02
-2.724958211183547974e-02
4.489488899707794189e-02
-7.267691940069198608e-02
-2.319231256842613220e-02
1.092772185802459717e-02
2.179763466119766235e-02
2.084366977214813232e-02
3.506496548652648926e-02
5.189560353755950928e-02
-1.225526630878448486e-02
7.226899266242980957e-02
1.735756546258926392e-02
3.600715100765228271e-02
-4.413748532533645630e-02
2.759997546672821045e-02
-2.384227886795997620e-02
1.985326409339904785e-02
-2.846915647387504578e-02
-2.784687280654907227e-02
-3.719011694192886353e-02
2.477130293846130371e-02
3.918563574552536011e-02
-2.118459343910217285e-02
2.509745210409164429e-02
3.033251315355300903e-02
2.699544280767440796e-02
-1.347272843122482300e-02
7.135696709156036377e-02
1.603128015995025635e-02
4.050040990114212036e-02
9.700462222099304199e-03
5.103367567062377930e-02
-7.631016522645950317e-02
-6.487917155027389526e-02
5.455839633941650391e-02
-4.333340004086494446e-02
-4.368276149034500122e-02
8.249558508396148682e-03
2.107948064804077148e-02
-8.028762042522430420e-02
6.710249185562133789e-02
-4.910526424646377563e-02
-1.642979681491851807e-03
-4.960818961262702942e-02
-4.265991598367691040e-02
8.011676371097564697e-03
7.412591576576232910e-02
-1.210094243288040161e-02
1.987315714359283447e-03
-7.106254994869232178e-02
1.096051931381225586e-02
-4.841574281454086304e-02
-5.753843858838081360e-02
1.413981616497039795e-02
3.941635042428970337e-02
-4.556405916810035706e-02
3.475335985422134399e-02
-3.976621478796005249e-02
4.430741071701049805e-02
1.375741511583328247e-02
-5.832691118121147156e-02
-4.451066255569458008e-02
-4.237948730587959290e-02
-3.583483025431632996e-02
4.517282545566558838e-02
-1.730926334857940674e-03
-3.252163901925086975e-02
-6.892813742160797119e-02
7.178668677806854248e-02
-4.972455278038978577e-02
2.929387986660003662e-02
3.082627803087234497e-02
1.624035090208053589e-02
-6.484879553318023682e-02
-5.961953476071357727e-02
-1.009492576122283936e-02
1.956909149885177612e-02
-5.138438194990158081e-02
7.079283893108367920e-02
1.477819681167602539e-02
-7.699868083000183105e-02
6.219805777072906494e-02
1.741212606430053711e-02
1.259811967611312866e-02
4.212138801813125610e-02
-4.893451184034347534e-02
-6.465228646993637085e-02
-3.606953099370002747e-02
1.966003328561782837e-02
-6.388669461011886597e-02
-2.329474687576293945e-02
-8.719317615032196045e-03
-4.025419056415557861e-02
6.660954654216766357e-02
5.598670244216918945e-02
6.902503967285156250e-02
1.766599714756011963e-02
-1.782970875501632690e-02
-3.498695790767669678e-03
3.111566603183746338e-02
-9.798079729080200195e-03
5.407747626304626465e-02
-5.551858991384506226e-02
-1.443509757518768311e-02
6.460376083850860596e-03
7.460209727287292480e-02
-5.799672752618789673e-02
4.368253052234649658e-02
6.321075558662414551e-02
7.471176981925964355e-02
2.238402515649795532e-02
1.722037792205810547e-02
-6.765764951705932617e-02
-2.360381186008453369e-03
-5.802329629659652710e-02
7.319259643554687500e-02
-4.670325666666030884e-02
5.181750655174255371e-02
-4.130344092845916748e-02
-1.053386181592941284e-02
3.165630251169204712e-02
-2.841595560312271118e-02
-4.103160649538040161e-02
5.115507543087005615e-02
5.685101449489593506e-02
-2.378656715154647827e-02
2.160355448722839355e-03
-7.596232742071151733e-02
-3.297894448041915894e-02
1.278678327798843384e-02
-3.670493513345718384e-02
-2.804566547274589539e-02
-3.658481687307357788e-02
-4.997849464416503906e-05
-4.102324694395065308e-02
-2.290053293108940125e-02
6.469407677650451660e-02
-4.713398963212966919e-02
5.208650231361389160e-02
3.633106499910354614e-02
-4.091314226388931274e-02
-4.648383706808090210e-02
7.219158113002777100e-02
2.313963323831558228e-02
1.498194038867950439e-02
-8.164155483245849609e-02
-3.328873589634895325e-02
-5.118700861930847168e-02
3.521700948476791382e-02
-7.690790295600891113e-02
2.388558536767959595e-02
3.054787218570709229e-02
5.118258297443389893e-02
-4.505981132388114929e-02
-1.032727211713790894e-02
-1.753719896078109741e-02
6.175167858600616455e-02
-5.743530392646789551e-02
-7.518553733825683594e-02
-6.381238996982574463e-02
1.022314280271530151e-02
-1.871320605278015137e-02
4.661631584167480469e-02
8.081547915935516357e-02
3.663596510887145996e-02
-5.814911052584648132e-02
8.093506097793579102e-03
-8.083149045705795288e-02
-6.771998852491378784e-02
4.662901163101196289e-02
-2.518637478351593018e-02
5.469620227813720703e-04
6.605054438114166260e-02
5.471667647361755371e-02
6.062194705009460449e-03
2.238388359546661377e-02
-4.554502293467521667e-02
-7.993912696838378906e-02
-2.317818999290466309e-02
8.078190684318542480e-02
2.555995434522628784e-02
-2.020264044404029846e-02
-5.141218006610870361e-02
4.902444779872894287e-02
4.571895301342010498e-02
-1.759858429431915283e-02
-1.891622692346572876e-02
-2.014263346791267395e-02
-1.474677026271820068e-02
1.579726487398147583e-02
-5.925796926021575928e-02
6.912568211555480957e-02
-7.663547247648239136e-02
-7.689066976308822632e-02
1.266374439001083374e-02
4.444397985935211182e-03
5.878099799156188965e-02
4.919327795505523682e-02
7.040652632713317871e-02
6.887651979923248291e-03
-2.050040662288665771e-02
-7.322230190038681030e-02
1.343531906604766846e-02
7.883030176162719727e-02
-3.704300522804260254e-02
