2.689074724912643433e-02
-1.126159727573394775e-02
-1.393145322799682617e-02
3.433526307344436646e-02
2.782094478607177734e-02
2.349311858415603638e-02
-5.878112465143203735e-02
-2.566397190093994141e-02
-9.296849370002746582e-03
2.197904884815216064e-02
4.794774949550628662e-02
2.564398944377899170e-02
3.009261935949325562e-02
4.816721379756927490e-02
-4.795630276203155518e-02
2.432920038700103760e-03
3.875886648893356323e-02
2.715766429901123047e-03
-3.666792064905166626e-02
4.637157917022705078e-02
1.084919273853302002e-02
2.586838603019714355e-02
-4.567687958478927612e-02
1.134120672941207886e-02
7.169000804424285889e-03
2.199463546276092529e-03
2.691140770912170410e-02
-5.559016019105911255e-02
-5.612122267484664917e-02
-2.247132360935211182e-02
-4.712995886802673340e-02
4.926890134811401367e-03
5.098680406808853149e-02
3.454149514436721802e-02
-5.755433440208435059e-02
1.212518662214279175e-02
4.116120934486389160e-02
-4.679945856332778931e-02
-5.238428711891174316e-03
4.920552670955657959e-02
-3.275886178016662598e-03
1.995272189378738403e-02
6.050184369087219238e-03
4.487135261297225952e-02
4.218944162130355835e-02
5.911690741777420044e-02
2.128870785236358643e-02
-2.795012295246124268e-02
-3.702221065759658813e-02
-7.218845188617706299e-03
4.409037530422210693e-02
-8.218593895435333252e-03
1.763748377561569214e-02
6.025256216526031494e-02
-5.903076380491256714e-02
-6.195890158414840698e-02
-4.987188428640365601e-02
3.006733208894729614e-02
5.289604514837265015e-02
-3.841116279363632202e-02
-3.622599691152572632e-02
5.845783650875091553e-02
8.353099226951599121e-03
-6.034652888774871826e-02
2.054854482412338257e-02
-1.674161851406097412e-02
-1.148165762424468994e-02
-1.014031469821929932e-03
2.791876345872879028e-02
-3.820953518152236938e-02
-3.070011734962463379e-03
3.312937915325164795e-03
3.357884287834167480e-02
-2.436304837465286255e-02
-2.280209958553314209e-02
-2.345442771911621094e-04
4.087951034307479858e-02
-4.633088409900665283e-02
-1.253052055835723877e-02
6.153392046689987183e-02
1.826615631580352783e-02
4.043667763471603394e-02
2.709162235260009766e-02
-4.875013232231140137e-02
5.244898051023483276e-02
4.581689834594726562e-03
2.854623645544052124e-02
4.254176467657089233e-02
3.657927364110946655e-02
-3.150748461484909058e-02
5.179217457771301270e-02
-5.616530776023864746e-03
-5.678848177194595337e-02
5.605064332485198975e-03
5.256414413452148438e-02
4.677525907754898071e-02
-4.910435527563095093e-02
5.663521587848663330e-03
4.522198438644409180e-02
-2.737105637788772583e-02
1.355349272489547729e-02
3.385306894779205322e-02
5.427543073892593384e-02
5.069456249475479126e-02
-2.952188253402709961e-02
-1.745240390300750732e-02
-5.200429260730743408e-02
-6.009416282176971436e-02
5.196812748908996582e-02
-5.109341442584991455e-02
-5.108285695314407349e-02
-4.966837167739868164e-02
-5.093440413475036621e-04
-1.364912837743759155e-02
1.767116785049438477e-02
4.188637435436248779e-02
-5.048617720603942871e-02
1.711457222700119019e-02
-5.402703583240509033e-02
-2.245083451271057129e-02
