3.460624814033508301e-02
4.187611490488052368e-02
5.767673999071121216e-02
-2.554050832986831665e-02
-1.856490969657897949e-02
5.482330173254013062e-02
-2.227152138948440552e-02
5.415102094411849976e-02
4.673555493354797363e-02
-3.343618661165237427e-02
1.500241458415985107e-02
-6.154481321573257446e-02
3.657709807157516479e-02
1.222995668649673462e-02
-4.571128636598587036e-02
-1.493092626333236694e-02
2.307979762554168701e-02
5.631748586893081665e-02
-2.937497198581695557e-02
3.116178512573242188e-02
1.019867509603500366e-02
-1.898931711912155151e-02
3.691578656435012817e-02
-1.560188084840774536e-02
2.634785324335098267e-02
-3.477586805820465088e-02
-6.085025519132614136e-02
-2.063000202178955078e-02
-2.552061527967453003e-02
3.331850469112396240e-02
-5.292306095361709595e-02
1.540459692478179932e-03
5.978452414274215698e-02
8.855313062667846680e-04
5.050133913755416870e-02
-3.648389130830764771e-02
-3.504540771245956421e-02
9.145759046077728271e-03
3.463979810476303101e-02
4.622957855463027954e-02
2.397201955318450928e-03
3.922344744205474854e-02
4.075222462415695190e-02
6.187696009874343872e-02
5.972450226545333862e-02
2.774021774530410767e-02
4.008546471595764160e-03
5.329197645187377930e-02
2.007436007261276245e-02
-3.634041547775268555e-02
5.904502421617507935e-02
-3.870744258165359497e-02
-2.688952535390853882e-02
3.608004003763198853e-02
8.612185716629028320e-03
-3.062641620635986328e-02
2.524785697460174561e-03
-5.238198488950729370e-02
5.618158727884292603e-02
4.726111143827438354e-02
-5.581828206777572632e-02
5.895943194627761841e-02
-6.109365075826644897e-02
-1.322761178016662598e-03
3.665014356374740601e-02
-6.028817594051361084e-02
3.885418921709060669e-02
1.583585143089294434e-02
-5.405429750680923462e-02
5.668763816356658936e-02
-4.625818878412246704e-02
-3.228597342967987061e-03
3.600880503654479980e-03
-4.388852417469024658e-02
-4.669136554002761841e-02
1.761843264102935791e-02
-5.266422778367996216e-02
-3.454971313476562500e-02
2.427611500024795532e-02
2.407394349575042725e-03
6.194856017827987671e-02
1.279205828905105591e-02
-4.084646701812744141e-03
-1.663066446781158447e-02
2.406090497970581055e-04
5.573092401027679443e-02
2.793318033218383789e-02
3.507819026708602905e-02
4.158648103475570679e-02
-3.359355032444000244e-03
-3.018664568662643433e-02
4.852859675884246826e-02
5.762958526611328125e-02
1.760631799697875977e-02
-2.710131555795669556e-02
-1.961786299943923950e-02
-1.733697950839996338e-02
-3.007514774799346924e-02
-6.138695031404495239e-02
-9.035050868988037109e-03
-6.260387599468231201e-03
-2.383677661418914795e-02
-1.950448751449584961e-02
1.997657120227813721e-02
1.596350222826004028e-02
-5.112651735544204712e-02
2.372033894062042236e-02
-2.431156486272811890e-02
2.209074050188064575e-02
-5.300395935773849487e-02
5.493366718292236328e-02
-5.031399428844451904e-02
-3.512417525053024292e-02
-1.213912665843963623e-02
1.642274856567382812e-02
2.748474478721618652e-03
1.285003870725631714e-02
-4.424107074737548828e-02
-3.770943731069564819e-02
4.842381924390792847e-02
-9.459622204303741455e-03
-2.861985564231872559e-02
2.297650277614593506e-02
5.159303545951843262e-02
-2.553733438253402710e-02
-2.638138830661773682e-03
-1.142511516809463501e-02
4.405337572097778320e-02
5.675228685140609741e-02
1.642469316720962524e-02
-4.920232295989990234e-02
-5.278356373310089111e-03
3.254727274179458618e-02
1.557568460702896118e-02
-3.680256754159927368e-02
-1.980725675821304321e-02
7.577568292617797852e-03
3.454238176345825195e-03
5.188476294279098511e-02
-2.876986563205718994e-02
3.359536826610565186e-02
1.380533725023269653e-02
-3.020371496677398682e-02
4.654447734355926514e-02
-5.255377292633056641e-02
-4.184642434120178223e-02
-4.097849130630493164e-02
-6.144721806049346924e-02
3.728991746902465820e-02
5.590370297431945801e-02
5.015903711318969727e-02
2.284836769104003906e-02
3.860776126384735107e-02
1.740828156471252441e-03
-2.492064237594604492e-02
-3.856532275676727295e-03
5.124010145664215088e-03
2.152986824512481689e-02
5.479616671800613403e-02
5.171025544404983521e-02
-1.120246946811676025e-02
-5.445653200149536133e-02
-3.761652857065200806e-02
-5.125705152750015259e-02
-1.282521337270736694e-02
3.090490400791168213e-02
3.094445168972015381e-02
1.501925289630889893e-02
-3.324181586503982544e-02
-4.522942751646041870e-02
-5.442713201045989990e-02
2.154117822647094727e-02
4.007859528064727783e-02
4.382175207138061523e-02
-2.311676740646362305e-03
1.088114827871322632e-02
-6.031288206577301025e-02
3.396020829677581787e-02
-2.925764024257659912e-02
-3.885114192962646484e-02
-9.635709226131439209e-03
-3.994465619325637817e-02
-4.376466572284698486e-02
-2.268511801958084106e-02
-5.258131772279739380e-02
3.289003670215606689e-02
1.136448234319686890e-02
-2.967779338359832764e-02
-4.883202165365219116e-02
2.503125369548797607e-02
5.125068128108978271e-02
5.308563262224197388e-02
2.445188164710998535e-02
-3.324314951896667480e-02
1.725930720567703247e-02
-4.191797971725463867e-02
6.017519533634185791e-02
-1.098304986953735352e-03
-2.219355106353759766e-02
-5.329653620719909668e-03
-4.510504007339477539e-02
7.799163460731506348e-03
-3.960045427083969116e-02
-2.308535575866699219e-02
2.320978045463562012e-02
3.026045858860015869e-03
1.960748434066772461e-02
4.582942277193069458e-02
3.419645130634307861e-03
2.259385585784912109e-02
5.293918401002883911e-02
5.510001629590988159e-02
-5.892229825258255005e-02
-1.795075833797454834e-02
-2.628063410520553589e-02
9.298473596572875977e-04
5.626411736011505127e-02
2.175239473581314087e-02
1.997888833284378052e-02
4.004848003387451172e-02
-3.482379764318466187e-02
3.190204501152038574e-03
5.190816521644592285e-02
-2.964612841606140137e-02
-3.129433840513229370e-02
6.775863468647003174e-03
3.580226749181747437e-02
-2.756322920322418213e-02
4.919521510601043701e-02
9.290903806686401367e-03
-5.069909244775772095e-02
1.558668166399002075e-02
-3.415290266275405884e-02
8.451640605926513672e-04
3.515654057264328003e-02
-2.129210531711578369e-02
4.323302954435348511e-02
5.346935987472534180e-02
2.258887141942977905e-02
-4.190374165773391724e-02
5.913260579109191895e-02
5.032996833324432373e-02
7.829859852790832520e-03
6.626769900321960449e-04
1.729310303926467896e-02
4.603684693574905396e-02
1.258889585733413696e-02
-5.193713307380676270e-02
5.058303475379943848e-02
-4.955790936946868896e-02
3.898268193006515503e-02
-6.687231361865997314e-03
2.081300318241119385e-02
-6.070094555616378784e-02
-8.557677268981933594e-03
4.942842572927474976e-02
-1.681149005889892578e-02
5.689688771963119507e-02
3.425484895706176758e-02
-2.063371986150741577e-02
-5.057906359434127808e-02
4.502002894878387451e-02
-5.391874164342880249e-02
-4.071207344532012939e-02
2.805434167385101318e-03
-3.282301127910614014e-02
3.309550881385803223e-02
-2.081063389778137207e-02
3.645040094852447510e-03
-1.351565867662429810e-02
6.541267037391662598e-03
1.607451587915420532e-02
4.541751742362976074e-02
-6.870262324810028076e-03
-3.879410773515701294e-02
4.985019564628601074e-02
2.584814280271530151e-02
-2.036262303590774536e-02
-3.364598751068115234e-02
-5.084585398435592651e-02
2.261153608560562134e-02
-4.116616398096084595e-02
1.457229256629943848e-02
4.366978257894515991e-02
9.611576795578002930e-03
-2.450185269117355347e-02
3.488527983427047729e-02
-1.350969821214675903e-02
-1.006916165351867676e-03
-3.777859359979629517e-02
-3.674313426017761230e-03
1.898571103811264038e-02
2.774433046579360962e-02
7.873654365539550781e-03
-2.940981090068817139e-02
-3.836495429277420044e-02
-1.595532894134521484e-02
-2.176554501056671143e-02
4.002311825752258301e-02
-2.477761358022689819e-02
4.341781139373779297e-03
4.690323024988174438e-02
-4.070289433002471924e-02
-2.368699759244918823e-02
2.887073904275894165e-02
3.368763625621795654e-02
2.834494411945343018e-02
-5.521509796380996704e-02
1.730435341596603394e-02
-1.003111153841018677e-02
-4.039089381694793701e-02
-5.583661794662475586e-02
5.808583647012710571e-02
4.890822619199752808e-02
2.201886475086212158e-02
-2.871558070182800293e-03
-4.017524421215057373e-03
-8.561588823795318604e-03
-5.840228497982025146e-02
-4.531268030405044556e-02
3.666198998689651489e-02
-8.649609982967376709e-03
5.855412781238555908e-02
-4.926876723766326904e-02
-9.103752672672271729e-03
-4.160203039646148682e-03
5.234499275684356689e-02
2.778704464435577393e-02
5.891760438680648804e-02
4.270353913307189941e-02
3.191418200731277466e-02
3.528692573308944702e-02
-3.388985246419906616e-02
-4.195290803909301758e-02
1.239982247352600098e-02
4.006917774677276611e-02
-4.744719713926315308e-02
1.323632150888442993e-02
4.388041794300079346e-03
-6.237351894378662109e-02
-3.951279819011688232e-02
4.809573292732238770e-03
2.533784508705139160e-02
-8.949629962444305420e-03
1.967968046665191650e-02
4.068154841661453247e-02
4.836611449718475342e-03
4.521648585796356201e-02
6.019613891839981079e-02
-1.508403569459915161e-02
-8.672975003719329834e-03
7.340639829635620117e-03
5.929461866617202759e-02
-2.739979326725006104e-02
-5.534315854310989380e-02
2.682625502347946167e-02
-9.025141596794128418e-03
-3.800803422927856445e-02
5.992338061332702637e-02
1.753842085599899292e-02
1.188881695270538330e-02
-6.784178316593170166e-03
5.409830808639526367e-02
1.981843262910842896e-02
-5.055890232324600220e-02
2.081207185983657837e-02
-3.906182199716567993e-02
-4.833526909351348877e-02
-4.861079156398773193e-03
5.588761717081069946e-02
-5.611061304807662964e-02
4.327197372913360596e-02
1.999051868915557861e-02
-5.018580704927444458e-02
-5.009714514017105103e-02
-5.669205635786056519e-02
8.359380066394805908e-03
-1.949235796928405762e-03
3.487884998321533203e-03
1.468036323785781860e-02
-1.553537696599960327e-02
4.384377598762512207e-02
-2.591270208358764648e-02
2.371338009834289551e-02
3.892096132040023804e-02
-1.993723213672637939e-02
-1.922349631786346436e-02
-2.004399895668029785e-03
3.389079868793487549e-02
1.954811066389083862e-02
3.774925321340560913e-02
4.120141267776489258e-03
-5.431010574102401733e-02
2.170190960168838501e-02
6.114858388900756836e-02
-2.255809307098388672e-02
-3.362697362899780273e-02
-4.255511611700057983e-02
4.638821631669998169e-02
2.623856812715530396e-02
6.228420883417129517e-02
-1.296659559011459351e-02
-4.925023764371871948e-02
-3.191229701042175293e-02
5.694197118282318115e-02
2.433545887470245361e-02
-2.243617922067642212e-02
-3.698294609785079956e-02
-3.793355077505111694e-02
-2.856458723545074463e-02
-5.584634095430374146e-02
1.355514675378799438e-02
-2.454209327697753906e-02
-4.261162132024765015e-02
4.034368693828582764e-02
3.273376077413558960e-02
5.524801462888717651e-02
5.498255789279937744e-02
3.600351512432098389e-02
-2.291609346866607666e-02
-2.934742718935012817e-02
-1.866944134235382080e-02
5.945213884115219116e-02
8.806861937046051025e-03
-5.755655467510223389e-03
-3.641318529844284058e-02
5.544775724411010742e-02
3.135069459676742554e-02
6.109584867954254150e-02
-2.389105409383773804e-02
2.800107002258300781e-03
2.620531618595123291e-02
-5.280645936727523804e-02
-6.165166199207305908e-02
3.684391826391220093e-02
6.084681302309036255e-02
-1.237256824970245361e-02
-4.627736657857894897e-02
5.285383760929107666e-02
-4.142280668020248413e-02
4.744012653827667236e-02
2.531380206346511841e-02
-4.096655547618865967e-02
4.518813639879226685e-02
1.293607056140899658e-03
4.605698585510253906e-02
-4.185578227043151855e-02
-6.014925986528396606e-02
-2.638316899538040161e-02
-3.833214938640594482e-02
-2.925208956003189087e-02
-1.094108074903488159e-02
4.025477170944213867e-02
-3.452107310295104980e-03
-1.871787011623382568e-02
-7.923446595668792725e-03
-2.257201075553894043e-02
-9.198091924190521240e-03
2.084920555353164673e-02
-5.985539406538009644e-02
-2.172438055276870728e-02
2.633370459079742432e-02
3.746338933706283569e-02
-4.067312926054000854e-02
-5.029701441526412964e-02
-4.740910977125167847e-02
-2.763681113719940186e-03
4.692088812589645386e-02
5.403052270412445068e-02
-5.073850601911544800e-02
-3.349757194519042969e-02
5.328617244958877563e-02
-2.194021642208099365e-02
1.067026704549789429e-02
-8.390821516513824463e-03
2.236110717058181763e-02
-6.742656230926513672e-03
-1.042994856834411621e-02
1.602171361446380615e-02
1.409693062305450439e-02
1.096744835376739502e-02
-2.091044187545776367e-02
3.786771744489669800e-02
-3.390395641326904297e-02
-2.730641514062881470e-02
3.492293506860733032e-02
5.469618737697601318e-02
4.649816453456878662e-02
6.118373572826385498e-02
3.689610213041305542e-02
-5.277708172798156738e-02
-3.687728196382522583e-02
3.436016291379928589e-02
-3.314577788114547729e-02
6.285265088081359863e-03
-4.160220921039581299e-02
-3.399460762739181519e-02
4.764766991138458252e-02
8.246637880802154541e-03
-1.506257802248001099e-02
3.302683681249618530e-02
-5.199035257101058960e-02
-4.529114067554473877e-02
5.228988081216812134e-02
3.006682544946670532e-02
4.567033052444458008e-02
7.879987359046936035e-03
-1.967133581638336182e-02
-4.145175963640213013e-02
-3.197161108255386353e-02
1.059894263744354248e-02
2.866281569004058838e-02
2.946369349956512451e-03
-2.946032583713531494e-02
-5.820473283529281616e-02
1.220294833183288574e-02
-1.420318335294723511e-02
6.229055672883987427e-02
1.984347403049468994e-02
-4.302293062210083008e-03
4.185402393341064453e-02
-5.967593938112258911e-02
-4.136902838945388794e-02
3.293688595294952393e-02
-5.636712908744812012e-02
-5.407307296991348267e-02
1.294523477554321289e-03
1.062413305044174194e-02
2.052403986454010010e-03
1.566152274608612061e-02
4.191547632217407227e-02
-4.525934159755706787e-02
-4.122400283813476562e-02
3.901313990354537964e-02
-5.501553416252136230e-03
4.196307808160781860e-02
5.208640545606613159e-02
4.131707549095153809e-02
-4.975612461566925049e-02
-4.249911755323410034e-02
-5.303839594125747681e-02
-2.737454324960708618e-02
5.968131870031356812e-02
5.681112408638000488e-03
6.024442613124847412e-02
-2.847185730934143066e-02
1.010354608297348022e-02
-1.018600910902023315e-02
3.146436065435409546e-02
-3.899435698986053467e-02
1.837678253650665283e-02
5.672635138034820557e-02
-1.043338328599929810e-02
-5.828194320201873779e-02
2.036497741937637329e-02
-2.160957455635070801e-02
3.367406129837036133e-02
4.111959040164947510e-02
1.729964464902877808e-02
-3.687600791454315186e-02
2.731332182884216309e-02
-1.971554756164550781e-02
-4.670022428035736084e-02
-5.344562232494354248e-03
-2.527021616697311401e-02
2.291574329137802124e-02
1.679767668247222900e-02
-4.925335198640823364e-02
-4.200562834739685059e-03
-3.087559342384338379e-02
-1.160149276256561279e-02
-4.959630966186523438e-02
9.809128940105438232e-03
1.487822830677032471e-02
4.941675812005996704e-02
-1.725316792726516724e-02
-2.334285527467727661e-02
4.770316928625106812e-02
-2.292990684509277344e-03
-3.296761959791183472e-02
4.889152944087982178e-02
-3.186145424842834473e-02
7.696852087974548340e-03
-1.082584261894226074e-03
1.442327350378036499e-02
-8.001610636711120605e-03
3.209011256694793701e-02
4.513470828533172607e-02
5.476657301187515259e-02
-1.939095556735992432e-03
-5.104235559701919556e-02
-5.881974101066589355e-02
5.682304501533508301e-03
-1.778155565261840820e-03
8.255816996097564697e-03
-6.017844378948211670e-02
-5.003405362367630005e-02
4.819191247224807739e-02
-5.319925397634506226e-02
-1.922156661748886108e-02
3.419905900955200195e-02
6.205239892005920410e-02
-2.295919507741928101e-02
1.653761416673660278e-02
1.506654918193817139e-02
-3.073516488075256348e-02
-5.474913865327835083e-02
-1.534856855869293213e-02
7.131554186344146729e-03
-2.813942730426788330e-03
-5.992029607295989990e-02
-4.278272390365600586e-04
-5.936341732740402222e-02
1.633448898792266846e-02
-1.891797780990600586e-02
-2.567700296640396118e-02
2.010124176740646362e-02
5.801469087600708008e-02
-6.074310094118118286e-02
5.108818411827087402e-02
-6.451748311519622803e-03
-5.467848479747772217e-02
-4.055474698543548584e-02
5.730093270540237427e-02
6.077337265014648438e-02
1.427885144948959351e-02
5.789600312709808350e-03
2.198660373687744141e-02
-1.756134629249572754e-02
-2.269882708787918091e-02
3.604883700609207153e-02
-2.097702771425247192e-02
-6.077731400728225708e-02
-5.008780211210250854e-02
-1.618964970111846924e-02
-2.067212015390396118e-02
6.057280302047729492e-02
-2.831364423036575317e-02
-5.255520343780517578e-02
4.238769412040710449e-03
-2.883819490671157837e-02
-4.986451566219329834e-02
6.229724735021591187e-02
-7.804811000823974609e-03
-3.347352892160415649e-02
-2.340310066938400269e-02
2.222188562154769897e-02
-6.104709208011627197e-02
-1.549386233091354370e-02
-9.943023324012756348e-03
9.938351809978485107e-03
-4.609739035367965698e-02
2.034574747085571289e-02
-5.504098534584045410e-02
-5.325748771429061890e-02
-3.594142198562622070e-02
3.737406432628631592e-02
-3.478797525167465210e-02
3.930928558111190796e-02
4.388652741909027100e-02
4.817418754100799561e-03
3.493520617485046387e-02
-1.651939004659652710e-02
5.828930437564849854e-02
-6.064391881227493286e-02
3.215718269348144531e-02
-5.426513403654098511e-02
-3.723642975091934204e-02
4.792794585227966309e-03
4.688245803117752075e-02
-6.764151155948638916e-03
3.179528564214706421e-02
-1.073868572711944580e-02
6.464704871177673340e-03
-1.719579100608825684e-02
-6.219799816608428955e-02
-4.620704054832458496e-02
1.792588084936141968e-02
3.838665038347244263e-02
-2.841114997863769531e-03
3.825590014457702637e-02
1.151487231254577637e-02
3.540318459272384644e-02
2.655135095119476318e-02
-1.163852959871292114e-02
-3.189335763454437256e-02
9.874016046524047852e-03
7.428079843521118164e-04
-2.461244910955429077e-02
-1.042766869068145752e-02
-3.018628805875778198e-02
4.252777248620986938e-02
-3.864289075136184692e-02
-4.948875308036804199e-02
-5.647309124469757080e-02
6.042123585939407349e-02
-1.099258661270141602e-04
-2.229382842779159546e-02
-2.589958906173706055e-02
2.431146800518035889e-03
-8.008040487766265869e-03
-4.494296759366989136e-02
-6.130875647068023682e-02
1.070897281169891357e-02
-2.593264728784561157e-02
-4.572597146034240723e-02
-4.977453500032424927e-02
7.425539195537567139e-03
-4.045128822326660156e-03
-3.962732851505279541e-03
1.237184554338455200e-02
-7.589735090732574463e-03
-1.932531595230102539e-02
5.207402259111404419e-02
3.513991087675094604e-02
2.581813186407089233e-02
-3.820752352476119995e-02
-5.466853827238082886e-02
3.237386047840118408e-02
3.295906633138656616e-02
3.419134020805358887e-02
-5.545236170291900635e-03
-1.933882385492324829e-02
1.110228896141052246e-02
4.406768083572387695e-02
4.994039237499237061e-02
1.005985587835311890e-02
2.361689507961273193e-02
-2.973581105470657349e-02
1.966875046491622925e-02
9.177125990390777588e-03
1.242784410715103149e-02
4.644368588924407959e-02
-9.287819266319274902e-03
-1.722155511379241943e-02
3.891664743423461914e-02
5.437491834163665771e-02
-1.297749578952789307e-02
-4.267489910125732422e-02
5.211771279573440552e-02
4.662267118692398071e-02
1.373443752527236938e-02
-4.606196284294128418e-02
3.222372382879257202e-02
-8.704133331775665283e-03
5.955479294061660767e-02
4.420378804206848145e-02
2.271369099617004395e-02
-4.390051960945129395e-02
-3.760448098182678223e-02
4.745779186487197876e-02
2.421605587005615234e-02
-3.088759630918502808e-02
-7.732130587100982666e-03
-3.480136394500732422e-03
-2.341757714748382568e-02
-4.009339213371276855e-02
-3.561244904994964600e-02
-3.765806555747985840e-03
1.319473236799240112e-02
-5.110553652048110962e-02
-5.401790142059326172e-02
-5.467412620782852173e-02
5.350504070520401001e-02
3.504543751478195190e-02
-1.476825773715972900e-02
6.120499968528747559e-02
2.826286852359771729e-02
2.815549820661544800e-02
2.443951368331909180e-02
-1.842418313026428223e-02
-2.274530380964279175e-02
3.088920563459396362e-02
3.420411050319671631e-02
-9.711287915706634521e-03
-4.524970054626464844e-02
-5.176095664501190186e-02
4.179593175649642944e-02
-3.197850286960601807e-02
3.482638299465179443e-02
5.032384395599365234e-02
4.159171134233474731e-02
-1.808379590511322021e-02
3.774964809417724609e-02
6.008820980787277222e-02
3.557949513196945190e-02
-6.662681698799133301e-04
2.074662595987319946e-02
-3.247162699699401855e-02
-2.738109976053237915e-02
-3.564627468585968018e-02
-2.844453603029251099e-02
2.000116556882858276e-02
4.922277480363845825e-02
-4.035864025354385376e-02
-6.412051618099212646e-03
5.110865831375122070e-02
5.726449191570281982e-03
8.697897195816040039e-03
3.153923153877258301e-02
4.771828651428222656e-03
-3.865218162536621094e-02
3.985489904880523682e-02
-4.659526795148849487e-02
4.118738323450088501e-02
2.488723397254943848e-02
-1.631295680999755859e-02
-3.794153034687042236e-02
2.694603055715560913e-02
4.329957067966461182e-03
-3.625276684761047363e-02
3.337380290031433105e-02
5.838924646377563477e-02
3.409780561923980713e-03
-9.768523275852203369e-03
1.133763790130615234e-02
-5.378790944814682007e-02
3.551164269447326660e-02
3.467258810997009277e-02
3.666749596595764160e-02
-3.738952428102493286e-02
7.356055080890655518e-03
-3.092669695615768433e-02
-6.068319082260131836e-02
-3.251965343952178955e-02
5.303511023521423340e-02
4.977422952651977539e-02
5.012532323598861694e-02
-3.263957798480987549e-02
-2.098271250724792480e-02
2.037263661623001099e-02
5.598214268684387207e-02
4.313188046216964722e-02
1.440624892711639404e-02
6.080976128578186035e-02
-2.463582903146743774e-02
5.208647996187210083e-02
-2.157563716173171997e-02
-2.366364747285842896e-02
2.977994084358215332e-02
2.829600870609283447e-02
-1.004784554243087769e-02
-4.246663302183151245e-02
-1.372076570987701416e-03
4.253186285495758057e-02
-5.085363239049911499e-02
-1.361807435750961304e-02
2.537407726049423218e-02
2.901083230972290039e-02
3.144974261522293091e-02
3.051296621561050415e-02
-2.503283321857452393e-03
-2.472977340221405029e-02
3.086570650339126587e-02
-4.612478613853454590e-02
3.507757931947708130e-02
-4.601541161537170410e-02
1.530038565397262573e-02
-5.788704007863998413e-02
-1.746140420436859131e-03
1.122586429119110107e-03
1.945796608924865723e-02
-1.274850219488143921e-02
3.450544923543930054e-02
-2.770071476697921753e-02
-4.525683820247650146e-02
2.803800255060195923e-02
-4.241922497749328613e-02
-5.079255998134613037e-02
5.986846983432769775e-02
5.234833806753158569e-02
-1.363763958215713501e-02
-1.081612706184387207e-02
-2.779702097177505493e-02
-1.739200204610824585e-02
1.031142473220825195e-02
-3.048586100339889526e-02
-4.516638815402984619e-03
3.064177930355072021e-02
-1.376962661743164062e-02
2.433294802904129028e-02
-3.837093710899353027e-03
8.305639028549194336e-03
1.771204173564910889e-02
-1.109164953231811523e-02
-2.329177409410476685e-02
-1.115586608648300171e-02
1.036081463098526001e-02
5.987728387117385864e-02
3.068541735410690308e-02
5.077542364597320557e-02
4.346322268247604370e-02
-5.151216685771942139e-02
-6.015658378601074219e-03
-3.079655021429061890e-02
-4.560977220535278320e-02
-1.546801626682281494e-02
-6.166831403970718384e-02
3.067689388990402222e-02
-1.869241893291473389e-02
-1.779408007860183716e-02
-3.203652054071426392e-02
2.846749126911163330e-02
-5.618839710950851440e-02
3.555707633495330811e-03
-3.036956489086151123e-02
-5.551891028881072998e-02
-5.002471059560775757e-02
3.678177297115325928e-02
6.063262373208999634e-02
-1.099474728107452393e-02
3.748799860477447510e-02
-2.663146704435348511e-02
2.277649194002151489e-02
1.022861897945404053e-02
-3.035656362771987915e-02
-3.919424861669540405e-02
1.444133371114730835e-02
2.537734061479568481e-02
-2.935498207807540894e-02
-2.800277620553970337e-02
-2.208750694990158081e-02
-3.494493663311004639e-02
-1.163519173860549927e-02
-4.164969921112060547e-02
-4.728436470031738281e-03
-2.961350232362747192e-02
5.277495086193084717e-02
-5.151242762804031372e-02
4.215402156114578247e-02
2.096421271562576294e-02
4.492873698472976685e-02
1.299744844436645508e-02
2.976708114147186279e-02
5.393394082784652710e-02
2.114327251911163330e-02
4.451300203800201416e-02
-1.382065564393997192e-02
4.772177338600158691e-02
5.409394949674606323e-02
-2.945984154939651489e-02
-2.441033720970153809e-02
-2.397350966930389404e-03
1.255538314580917358e-02
-1.766269654035568237e-02
5.211701244115829468e-02
4.233116656541824341e-02
5.027741193771362305e-02
-4.374954104423522949e-02
-5.846299231052398682e-02
-2.657752484083175659e-02
-5.303096771240234375e-02
1.673911511898040771e-02
3.424753993749618530e-02
-2.322281897068023682e-02
-4.663591086864471436e-02
-1.614086329936981201e-02
-6.130903959274291992e-02
-4.547455161809921265e-02
-3.277006745338439941e-02
3.192263841629028320e-02
5.807188898324966431e-02
-2.825919538736343384e-02
-3.077760338783264160e-04
-6.241868436336517334e-02
6.220550090074539185e-02
-4.124798625707626343e-02
1.526946574449539185e-02
-2.789726108312606812e-02
-5.842424929141998291e-03
-5.101449787616729736e-02
4.482265561819076538e-02
3.114347159862518311e-02
2.900116145610809326e-02
2.146401256322860718e-02
-5.898863077163696289e-02
4.674000293016433716e-02
5.532162636518478394e-02
-4.654916375875473022e-02
6.068013608455657959e-02
-1.351562142372131348e-02
3.137777745723724365e-02
-2.469111233949661255e-02
4.662745445966720581e-02
3.463047742843627930e-02
5.601352453231811523e-02
1.101422309875488281e-02
-5.258809775114059448e-02
-4.560469090938568115e-02
3.264538198709487915e-02
3.681030869483947754e-02
-2.623170614242553711e-03
-3.560455143451690674e-02
9.836778044700622559e-03
5.246014147996902466e-02
5.461539328098297119e-02
-5.148454755544662476e-02
-3.124841302633285522e-02
1.233189553022384644e-02
5.729843676090240479e-02
-3.635630011558532715e-03
1.277527958154678345e-02
7.781378924846649170e-03
1.326085627079010010e-02
-1.518960297107696533e-02
3.225509077310562134e-02
2.637580037117004395e-03
1.901385188102722168e-02
1.211526244878768921e-02
-2.711408585309982300e-02
5.504440516233444214e-02
5.570209771394729614e-02
-6.067601591348648071e-02
-5.754788219928741455e-02
-5.441891402006149292e-02
-4.243101924657821655e-02
5.982487648725509644e-02
-5.627714097499847412e-02
4.906813055276870728e-02
-1.763170212507247925e-02
-3.497698903083801270e-02
1.184231042861938477e-02
-4.543663561344146729e-02
5.714701116085052490e-02
-5.765718221664428711e-02
-2.025515586137771606e-02
-4.692895710468292236e-02
-6.073722988367080688e-02
-5.399350076913833618e-02
-3.295976668596267700e-02
2.657967060804367065e-02
4.434242099523544312e-02
-6.379470229148864746e-03
-3.175862133502960205e-03
1.056797802448272705e-02
4.681271314620971680e-02
5.271844565868377686e-02
-5.397250503301620483e-02
-2.540121972560882568e-02
-2.599454671144485474e-02
-4.795369505882263184e-02
-4.764959216117858887e-02
-1.854813843965530396e-02
4.853044450283050537e-02
3.299211710691452026e-02
-4.053893685340881348e-02
4.843629896640777588e-03
-4.597273468971252441e-02
2.684969455003738403e-02
2.956465631723403931e-02
1.671472191810607910e-02
-1.536423712968826294e-02
-6.228157877922058105e-02
1.227246969938278198e-02
-2.197891473770141602e-02
3.578014671802520752e-03
-4.629168659448623657e-02
6.155183911323547363e-02
4.002275317907333374e-02
7.683366537094116211e-03
-3.618327528238296509e-02
-5.702796578407287598e-02
-4.069247096776962280e-02
5.660682171583175659e-02
-3.485871851444244385e-02
3.886788338422775269e-02
2.172563970088958740e-02
-1.788402348756790161e-02
-1.714988052845001221e-02
4.659696668386459351e-02
1.163276284933090210e-02
-1.134399324655532837e-02
-3.134638071060180664e-03
8.764177560806274414e-03
-2.568885684013366699e-04
3.191208839416503906e-02
-5.322054028511047363e-03
-3.831598162651062012e-02
-5.379871279001235962e-02
3.426451236009597778e-02
-5.545407533645629883e-03
-3.820542246103286743e-02
-2.562738955020904541e-03
4.441812634468078613e-02
-5.439827591180801392e-02
-1.905217766761779785e-02
3.100082278251647949e-03
-7.431440055370330811e-03
4.198329895734786987e-02
-3.804580867290496826e-02
-2.265771478414535522e-02
-3.160860389471054077e-02
-2.825966477394104004e-02
3.903501480817794800e-02
-3.161946684122085571e-02
4.229450225830078125e-02
3.582269698381423950e-02
-2.319600433111190796e-02
-1.997310668230056763e-02
-8.820720016956329346e-03
6.116084754467010498e-03
3.291554003953933716e-02
-1.480029523372650146e-02
4.317415505647659302e-02
-2.295449376106262207e-03
4.522559791803359985e-02
-5.942941457033157349e-02
7.880866527557373047e-03
1.617016643285751343e-02
4.424452781677246094e-04
-1.566812396049499512e-02
-3.703384101390838623e-02
-3.777968138456344604e-02
5.017079412937164307e-02
-9.116634726524353027e-03
5.502894520759582520e-02
5.472905933856964111e-02
-5.674769729375839233e-02
5.538352578878402710e-02
5.988062918186187744e-02
-2.193253487348556519e-02
-5.801038444042205811e-02
-2.573894709348678589e-02
-9.739242494106292725e-03
2.302795648574829102e-02
-2.002894878387451172e-03
4.424360394477844238e-02
-2.601210027933120728e-02
2.222591638565063477e-02
1.010211557149887085e-02
-2.797020226716995239e-02
2.875275909900665283e-03
-2.462211996316909790e-02
2.399392426013946533e-03
3.442076593637466431e-02
4.820670187473297119e-02
2.309279888868331909e-02
2.740807086229324341e-02
5.702913552522659302e-02
5.857088416814804077e-02
1.949260383844375610e-02
-2.978266775608062744e-02
-1.073478907346725464e-02
-2.149718254804611206e-02
6.234280019998550415e-02
-4.622898250818252563e-02
3.809314221143722534e-02
2.925794571638107300e-02
3.057891130447387695e-02
-3.035814315080642700e-02
4.678795486688613892e-02
-2.813729643821716309e-02
5.035915225744247437e-02
-5.026818811893463135e-02
1.636165380477905273e-02
3.978910297155380249e-02
1.817579567432403564e-02
-1.764710247516632080e-02
2.289853990077972412e-03
-2.374021708965301514e-02
-3.444924950599670410e-04
-2.691350132226943970e-02
-1.009771972894668579e-02
-4.307685792446136475e-02
2.840694785118103027e-02
-3.539080172777175903e-02
-5.698417127132415771e-02
1.975414901971817017e-02
-2.926384657621383667e-02
-1.050595939159393311e-02
4.767552763223648071e-02
3.912576287984848022e-02
1.669635623693466187e-02
-2.715403586626052856e-02
-2.840144187211990356e-02
9.986326098442077637e-03
2.624955773353576660e-02
3.914526104927062988e-02
2.700975537300109863e-02
5.546104162931442261e-02
-1.634664088487625122e-02
6.100569665431976318e-02
-1.134674251079559326e-02
1.436360180377960205e-02
2.881351858377456665e-02
-2.467183768749237061e-02
-5.224736779928207397e-02
2.582839876413345337e-02
-5.840707570314407349e-02
-2.010873705148696899e-02
3.867270052433013916e-02
5.594260245561599731e-02
4.008290171623229980e-02
1.935409009456634521e-02
-1.632950454950332642e-02
3.962245583534240723e-02
-4.589878767728805542e-02
-1.260286569595336914e-02
-3.882423043251037598e-03
-1.839385181665420532e-02
-4.869828373193740845e-02
-1.437485963106155396e-02
-2.263308316469192505e-02
-2.788546681404113770e-02
2.921555191278457642e-02
4.573819786310195923e-02
5.959662795066833496e-02
7.707327604293823242e-03
5.090115219354629517e-02
3.452752530574798584e-02
2.801798284053802490e-02
-3.347818553447723389e-02
-2.738840132951736450e-02
-2.732926607131958008e-02
-3.445111960172653198e-02
-5.299188196659088135e-03
-5.912097543478012085e-02
7.119476795196533203e-03
9.274922311305999756e-03
-4.574771225452423096e-02
-8.154720067977905273e-03
-1.990628987550735474e-02
9.783506393432617188e-03
-2.826628088951110840e-02
-8.017458021640777588e-03
-6.204044818878173828e-02
1.767390221357345581e-02
1.736328005790710449e-02
-5.869707465171813965e-02
5.498111248016357422e-03
5.780006945133209229e-02
-7.378958165645599365e-03
-1.012939959764480591e-02
4.299906641244888306e-02
-4.318545013666152954e-02
3.019659221172332764e-02
5.805932730436325073e-02
-5.704344809055328369e-02
4.287001490592956543e-02
4.178959876298904419e-02
-2.128354460000991821e-02
3.610850125551223755e-02
-4.303756356239318848e-02
5.459339916706085205e-02
4.981707036495208740e-02
5.192233622074127197e-02
-4.803115874528884888e-02
1.115966588258743286e-02
-2.163538336753845215e-02
-2.879283577203750610e-02
-4.980541765689849854e-03
3.221886605024337769e-02
-5.090779811143875122e-02
1.624891161918640137e-02
5.248758196830749512e-02
-1.872922480106353760e-02
5.185103416442871094e-02
-4.448203742504119873e-02
2.578143775463104248e-02
3.518514335155487061e-02
1.242470741271972656e-02
8.228428661823272705e-03
-4.140408337116241455e-02
2.260669320821762085e-02
1.491698622703552246e-02
1.829826086759567261e-02
4.703275859355926514e-02
-5.901664495468139648e-02
1.240094751119613647e-02
-5.699430406093597412e-02
1.809978485107421875e-02
-1.070106029510498047e-02
4.079274833202362061e-03
-4.590336978435516357e-02
-4.259876161813735962e-02
1.538618654012680054e-02
-8.865006268024444580e-03
-3.553261607885360718e-02
-1.505598425865173340e-02
3.844693303108215332e-02
-1.884685456752777100e-02
-2.243427932262420654e-02
-2.834178507328033447e-03
4.932285100221633911e-02
1.510961353778839111e-02
-4.234810918569564819e-02
2.397641539573669434e-02
-2.790199965238571167e-02
-3.101278096437454224e-02
2.417004108428955078e-02
-5.024425685405731201e-02
-2.870208770036697388e-02
-3.203599154949188232e-02
5.075545608997344971e-02
-6.648860871791839600e-03
-2.304074913263320923e-02
1.336333900690078735e-02
3.996141999959945679e-02
-5.456752330064773560e-02
-5.689017474651336670e-03
1.460941135883331299e-02
-2.264286577701568604e-02
8.143976330757141113e-03
5.134682357311248779e-02
5.265741795301437378e-02
-2.493943274021148682e-02
4.645405709743499756e-02
5.581139028072357178e-02
-6.049632281064987183e-02
-4.845140874385833740e-02
5.263501405715942383e-02
-2.087207883596420288e-02
5.904431641101837158e-02
6.406098604202270508e-03
-4.822863638401031494e-02
1.250169426202774048e-02
5.339273810386657715e-02
-1.928427070379257202e-02
-5.588985979557037354e-02
3.321150690317153931e-02
5.418773740530014038e-02
5.555877089500427246e-02
5.171740055084228516e-02
6.016561388969421387e-02
-1.672314107418060303e-02
3.002007305622100830e-02
-2.675635367631912231e-02
1.370091736316680908e-02
-2.971903234720230103e-02
-4.626490175724029541e-03
-5.903779715299606323e-02
-1.646506786346435547e-02
6.607763469219207764e-03
-3.333479911088943481e-02
-1.983235776424407959e-02
-3.159798681735992432e-03
8.542612195014953613e-04
-2.971139550209045410e-02
-6.120257824659347534e-02
-6.184772402048110962e-02
3.690006583929061890e-02
3.698974102735519409e-02
3.247997164726257324e-02
2.360519766807556152e-02
3.479182720184326172e-02
4.801479727029800415e-02
-5.675034224987030029e-02
5.691914260387420654e-02
-5.427484214305877686e-02
-5.069345235824584961e-03
-2.043144404888153076e-02
-8.992440998554229736e-03
9.107440710067749023e-03
-3.229912370443344116e-02
-9.790934622287750244e-03
3.885922580957412720e-02
-5.304849892854690552e-02
-1.386603713035583496e-02
1.488353312015533447e-02
1.007585227489471436e-02
3.194739669561386108e-02
3.037588298320770264e-02
5.066268146038055420e-02
-4.254073649644851685e-02
2.652513235807418823e-02
-1.028113812208175659e-02
5.413667112588882446e-02
-4.710748046636581421e-02
-3.847897052764892578e-03
5.698005855083465576e-02
-1.051216572523117065e-02
3.591443598270416260e-02
1.069837063550949097e-02
5.959779024124145508e-03
6.058508157730102539e-02
-5.611988157033920288e-02
-5.698785930871963501e-02
6.868243217468261719e-04
1.826309412717819214e-02
-3.640740364789962769e-02
-2.714434266090393066e-02
-6.122793257236480713e-02
2.781666070222854614e-02
-3.028896450996398926e-02
5.685441941022872925e-02
-3.020823001861572266e-02
-2.578645199537277222e-02
6.174660474061965942e-02
7.440276443958282471e-03
4.880756139755249023e-02
-2.636636048555374146e-02
3.942282497882843018e-02
-8.551627397537231445e-04
-1.585004478693008423e-02
-3.149338066577911377e-02
-5.875565856695175171e-02
-8.738487958908081055e-03
-4.844551533460617065e-02
-2.520858496427536011e-02
5.754239112138748169e-02
5.640874803066253662e-02
6.104409694671630859e-02
-3.379867970943450928e-02
-9.597018361091613770e-03
-3.222917765378952026e-02
1.129572093486785889e-02
3.267272561788558960e-02
8.140809834003448486e-03
-4.277878999710083008e-02
-9.749695658683776855e-03
9.227626025676727295e-03
-2.909831702709197998e-03
-3.169356286525726318e-02
3.813081234693527222e-02
3.477762639522552490e-02
3.579274564981460571e-02
2.999711036682128906e-02
-1.053811609745025635e-02
5.775321274995803833e-02
5.073464661836624146e-02
4.368560761213302612e-02
2.056352794170379639e-02
-4.763974994421005249e-02
-5.618374049663543701e-02
-1.536221802234649658e-02
-2.650200575590133667e-02
-1.273032277822494507e-02
-1.839901506900787354e-02
3.007081151008605957e-02
1.960524171590805054e-02
2.148474752902984619e-02
-3.868343681097030640e-02
5.033940821886062622e-02
-2.195901423692703247e-02
-1.623071730136871338e-02
-5.796153843402862549e-02
2.214580029249191284e-02
1.102045923471450806e-02
5.056517571210861206e-02
3.642974048852920532e-02
5.110366642475128174e-02
3.886486589908599854e-02
-1.488753408193588257e-02
3.750234097242355347e-02
-5.428851395845413208e-02
2.967828512191772461e-02
1.775510609149932861e-02
4.300472140312194824e-02
-3.043228387832641602e-02
-7.474653422832489014e-03
5.891992896795272827e-02
-6.462864577770233154e-03
-6.041198223829269409e-02
2.211589366197586060e-02
3.454656153917312622e-02
-2.711255848407745361e-02
3.416272252798080444e-02
4.295675456523895264e-02
-2.150017023086547852e-02
-1.979835331439971924e-03
-5.182922631502151489e-02
-5.823446065187454224e-02
9.775400161743164062e-03
3.236860036849975586e-03
-1.215156167745590210e-02
2.670794725418090820e-02
5.936709791421890259e-02
-8.357003331184387207e-03
-3.111714869737625122e-02
-5.712777376174926758e-02
-4.423901438713073730e-03
-2.865377068519592285e-02
-3.492866456508636475e-02
5.582854151725769043e-03
3.024198859930038452e-02
-1.530738919973373413e-02
-1.808988302946090698e-02
-2.725766599178314209e-02
-3.733758628368377686e-02
5.990408360958099365e-03
-4.555962979793548584e-03
2.184067666530609131e-02
1.779130846261978149e-02
-1.846770197153091431e-02
3.397146612405776978e-02
-4.640430212020874023e-02
6.210319697856903076e-02
9.198948740959167480e-03
5.244846642017364502e-02
2.152173966169357300e-02
3.404183685779571533e-02
5.061829090118408203e-02
-2.254381775856018066e-03
2.745859324932098389e-03
4.338457435369491577e-02
-2.961487323045730591e-02
-1.439990848302841187e-02
5.239595472812652588e-02
2.530384063720703125e-02
-3.965969383716583252e-02
5.948769301176071167e-02
3.338659554719924927e-02
6.638839840888977051e-03
3.004258871078491211e-02
3.049708157777786255e-02
1.360915601253509521e-02
-1.874580979347229004e-03
-4.371967166662216187e-02
3.042048215866088867e-02
-4.691260308027267456e-02
-3.915996104478836060e-02
9.184941649436950684e-03
-3.024775534868240356e-02
2.077781409025192261e-02
-6.240174174308776855e-02
-3.894802927970886230e-02
-5.627763271331787109e-02
2.745524048805236816e-03
3.631421923637390137e-02
-1.011118292808532715e-02
-5.833425372838973999e-02
-5.827362835407257080e-02
3.845550864934921265e-02
-5.121780186891555786e-02
-1.278698444366455078e-02
-2.655129134654998779e-02
-5.948495864868164062e-02
1.791767776012420654e-02
-4.075589030981063843e-02
-3.219887614250183105e-02
-4.023070633411407471e-02
-6.221543252468109131e-02
-2.982920408248901367e-02
3.656635433435440063e-02
-4.701980948448181152e-02
5.104240030050277710e-02
-3.913304954767227173e-02
5.079612135887145996e-02
3.034075349569320679e-02
-3.307157754898071289e-02
-2.869611233472824097e-02
5.467295646667480469e-02
1.869748532772064209e-02
1.470974832773208618e-02
5.406568944454193115e-02
-3.941514343023300171e-02
-1.297802478075027466e-02
1.555974781513214111e-02
4.593557119369506836e-02
-3.355250507593154907e-02
-5.467134714126586914e-02
2.672273665666580200e-02
6.219467520713806152e-02
-2.518147975206375122e-02
2.402143180370330811e-02
3.557305783033370972e-02
2.210479974746704102e-02
-2.120383083820343018e-03
-4.884504526853561401e-02
-1.693128794431686401e-02
-1.235131919384002686e-02
-4.137097299098968506e-02
-3.822789341211318970e-02
3.560010343790054321e-02
2.994322776794433594e-02
5.001785606145858765e-02
3.355485200881958008e-02
1.690253615379333496e-03
2.012278139591217041e-02
-5.104012787342071533e-02
5.803969502449035645e-02
4.252244532108306885e-02
-3.307759761810302734e-04
5.901689827442169189e-02
3.687192499637603760e-02
4.621133208274841309e-03
-3.075527399778366089e-02
1.286616921424865723e-02
1.640776544809341431e-02
1.695071160793304443e-02
1.116164773702621460e-02
-7.827281951904296875e-03
2.516212314367294312e-02
-1.563489437103271484e-02
-4.355638474225997925e-02
4.136052727699279785e-02
-4.200412333011627197e-02
-5.797886848449707031e-02
-5.895160138607025146e-02
2.282451093196868896e-02
3.920197486877441406e-03
-5.055801570415496826e-02
-5.101089924573898315e-02
3.405086696147918701e-03
-2.415294945240020752e-02
-3.145804256200790405e-02
7.430344820022583008e-03
3.040833026170730591e-02
-2.171076834201812744e-03
1.224210113286972046e-02
-5.914638191461563110e-02
-5.426786839962005615e-03
-2.121727168560028076e-02
-3.316399455070495605e-02
1.057066768407821655e-02
-5.440995097160339355e-02
3.550569713115692139e-02
2.792838215827941895e-02
3.385677933692932129e-02
-2.085613459348678589e-02
-9.508989751338958740e-03
2.690817415714263916e-02
-4.403315484523773193e-02
4.028026014566421509e-02
-5.299437791109085083e-02
-2.000192552804946899e-02
5.654341727495193481e-02
-1.061595231294631958e-02
-4.954393953084945679e-02
4.150852560997009277e-02
3.566036373376846313e-02
4.712665081024169922e-02
-4.694297164678573608e-02
-1.124607026576995850e-02
-4.101186245679855347e-02
-3.391163051128387451e-02
1.120622456073760986e-02
3.365725278854370117e-03
-3.173659741878509521e-02
8.552283048629760742e-03
-3.522167354822158813e-02
-2.215892076492309570e-02
-2.304182201623916626e-02
3.266091644763946533e-02
3.655374795198440552e-02
-1.093664020299911499e-02
5.944630503654479980e-02
-4.711575806140899658e-02
-4.668017476797103882e-02
-3.102558106184005737e-02
5.263649672269821167e-02
4.853621125221252441e-03
2.515545487403869629e-02
4.732113331556320190e-02
3.381730616092681885e-02
3.719918429851531982e-03
-1.418524980545043945e-02
2.222930639982223511e-02
-2.278237789869308472e-02
7.951490581035614014e-03
-2.669928967952728271e-02
-4.818017780780792236e-02
-1.645528525114059448e-02
-8.336767554283142090e-03
1.480469852685928345e-02
4.313411563634872437e-02
3.082393854856491089e-02
-6.237251311540603638e-02
1.248938590288162231e-02
-4.407186061143875122e-02
5.460312962532043457e-02
4.127136617898941040e-02
-5.990324169397354126e-02
-2.832481265068054199e-02
-1.777190715074539185e-02
4.629067331552505493e-02
-2.555502206087112427e-02
-1.577096432447433472e-02
2.870711684226989746e-02
-1.283188164234161377e-02
3.267370909452438354e-02
4.364083707332611084e-02
-3.483751416206359863e-02
4.686143249273300171e-02
-5.009440332651138306e-02
-2.877651154994964600e-02
9.849637746810913086e-03
-2.476393431425094604e-02
-5.315872281789779663e-02
4.662259668111801147e-02
-3.314054012298583984e-02
-1.820167899131774902e-02
3.851675987243652344e-02
4.647985100746154785e-03
-5.918386578559875488e-02
1.115341484546661377e-02
-2.644629031419754028e-02
-5.753212422132492065e-02
4.869543015956878662e-02
6.210243701934814453e-02
-4.137156158685684204e-02
5.507362633943557739e-02
5.468773096799850464e-02
-2.003467082977294922e-02
-8.080728352069854736e-03
3.477260470390319824e-03
-1.951875537633895874e-02
1.970584690570831299e-02
-5.263405293226242065e-02
5.728862434625625610e-02
-3.980098664760589600e-02
4.407528787851333618e-02
2.914445847272872925e-02
5.824961513280868530e-02
1.186171174049377441e-02
2.655968070030212402e-02
-5.735097825527191162e-02
2.719949185848236084e-02
-6.384328007698059082e-04
1.976225525140762329e-02
3.880634903907775879e-02
4.550053179264068604e-02
-2.588712424039840698e-02
-7.922515273094177246e-03
-2.901027351617813110e-02
-6.401099264621734619e-03
4.257120192050933838e-02
-5.496762692928314209e-03
-6.075439602136611938e-02
6.055506318807601929e-02
2.230990678071975708e-02
-4.055364429950714111e-02
-2.602819353342056274e-02
-4.388201981782913208e-02
-4.442444443702697754e-02
-3.430321812629699707e-03
1.761302351951599121e-03
5.089097470045089722e-02
5.466478317975997925e-02
-1.793742179870605469e-03
3.249854594469070435e-02
5.249388515949249268e-03
5.065760761499404907e-02
2.910442650318145752e-03
-4.589118063449859619e-03
-5.062342435121536255e-02
2.273845672607421875e-02
1.427178829908370972e-02
-5.449578166007995605e-04
-2.767267078161239624e-02
-2.759307622909545898e-03
-4.959535598754882812e-02
4.493660479784011841e-02
5.027286708354949951e-03
-4.173615574836730957e-02
-6.038904935121536255e-02
-4.090951383113861084e-02
2.095077186822891235e-02
3.619740158319473267e-02
-2.330371737480163574e-02
-4.222913831472396851e-02
4.520873725414276123e-02
-2.878720313310623169e-02
-1.570641994476318359e-02
5.083651095628738403e-02
-5.667411535978317261e-02
-6.626643240451812744e-03
3.979887813329696655e-02
2.553453296422958374e-02
1.750003546476364136e-02
-2.136391401290893555e-02
-1.336804032325744629e-02
-3.073267638683319092e-03
-2.669298648834228516e-02
1.342384517192840576e-02
-2.983927726745605469e-02
-3.468329459428787231e-02
-2.868386358022689819e-02
2.196362614631652832e-02
-1.075746119022369385e-02
-3.698043525218963623e-03
4.645389318466186523e-02
-3.071227669715881348e-02
4.661170393228530884e-02
1.967379450798034668e-02
5.068745464086532593e-02
-3.343117982149124146e-02
-1.621887832880020142e-02
-3.865025937557220459e-02
-2.187579870223999023e-03
6.078960001468658447e-02
2.007619291543960571e-02
-5.198791623115539551e-04
3.117622435092926025e-02
-1.934970915317535400e-02
2.069748193025588989e-02
7.504113018512725830e-03
6.047222018241882324e-02
5.214457958936691284e-02
5.769997835159301758e-03
-1.094527542591094971e-02
1.029451191425323486e-02
5.414611101150512695e-02
2.081748843193054199e-02
-5.390873551368713379e-02
4.663333296775817871e-03
-6.233226507902145386e-02
4.171855747699737549e-03
-1.120993494987487793e-02
1.864843070507049561e-03
2.790697664022445679e-02
-3.635656833648681641e-02
2.054445445537567139e-02
-2.711275964975357056e-02
4.177276790142059326e-02
1.751647144556045532e-02
-1.216822117567062378e-02
-4.821905493736267090e-02
5.400667339563369751e-02
-4.193934798240661621e-02
7.710099220275878906e-03
-4.399055987596511841e-02
-5.026417225599288940e-02
-2.366085350513458252e-02
5.831769853830337524e-02
-9.536296129226684570e-03
-4.014673829078674316e-02
3.937080502510070801e-03
5.420432984828948975e-02
2.572646737098693848e-02
-3.498070687055587769e-02
-2.597744017839431763e-02
1.644879579544067383e-02
-5.252283811569213867e-02
-7.948167622089385986e-03
-5.623035132884979248e-02
-5.316073447465896606e-02
2.601306140422821045e-02
4.290205985307693481e-02
-7.851384580135345459e-03
-3.738652914762496948e-02
-4.035086184740066528e-02
2.760715037584304810e-02
-5.178904533386230469e-02
-3.637167066335678101e-02
-3.784821182489395142e-02
-4.838395863771438599e-02
8.226186037063598633e-03
-1.802820712327957153e-02
-5.542472749948501587e-02
-8.152730762958526611e-03
1.592186838388442993e-02
-4.041193425655364990e-02
2.473257482051849365e-03
-4.781652987003326416e-02
-1.640618592500686646e-02
-3.083990514278411865e-02
-1.926779001951217651e-02
-2.664057165384292603e-02
-5.205827206373214722e-02
2.522414177656173706e-02
-5.828957259654998779e-02
-5.633292347192764282e-02
-4.258672893047332764e-02
-4.648449271917343140e-02
-5.873225629329681396e-02
-3.302127867937088013e-02
6.153765320777893066e-02
2.729442715644836426e-02
3.519348055124282837e-02
5.682457238435745239e-02
5.040690302848815918e-04
-3.815832734107971191e-02
-5.020593106746673584e-02
-4.435455054044723511e-02
-5.600436776876449585e-02
2.944033592939376831e-02
-2.660533785820007324e-02
-4.230320453643798828e-03
2.680960297584533691e-02
-5.500633269548416138e-02
3.451444208621978760e-02
4.852961748838424683e-02
-5.828091502189636230e-02
5.715936422348022461e-03
2.304171025753021240e-02
-1.177006959915161133e-02
3.534263372421264648e-02
-5.295180529356002808e-02
4.643484950065612793e-02
7.552340626716613770e-03
-5.263368785381317139e-02
-3.347515314817428589e-02
-3.542096167802810669e-02
-2.709825336933135986e-02
1.022706180810928345e-02
-2.485260367393493652e-02
6.108567118644714355e-02
-1.318304240703582764e-02
-6.158664822578430176e-02
-2.101376652717590332e-03
-6.157423555850982666e-02
-1.322709023952484131e-03
-5.135794728994369507e-02
1.592256873846054077e-02
3.688402473926544189e-02
-6.002558022737503052e-02
-2.995330840349197388e-02
7.899187505245208740e-03
1.785117387771606445e-02
-1.858810335397720337e-02
2.649925649166107178e-03
5.330278724431991577e-02
-4.511139541864395142e-02
-5.823470652103424072e-02
3.085070848464965820e-02
-4.108838737010955811e-02
-4.097007215023040771e-03
2.482324838638305664e-03
-5.665963888168334961e-02
-5.437776446342468262e-02
-1.679529994726181030e-02
-6.504729390144348145e-04
4.002796113491058350e-02
4.861521720886230469e-02
3.403035551309585571e-02
-2.956587821245193481e-02
-5.476493388414382935e-02
-3.616396337747573853e-02
-1.256014406681060791e-02
-2.191318571567535400e-02
-3.259615600109100342e-02
-5.249080061912536621e-02
3.865331411361694336e-03
-2.317415922880172729e-02
1.593120396137237549e-02
3.417961299419403076e-03
3.739717602729797363e-02
4.854182153940200806e-02
-1.672176271677017212e-02
4.980890452861785889e-02
7.796943187713623047e-03
1.335219293832778931e-02
2.896087616682052612e-02
1.509753614664077759e-02
1.079456508159637451e-02
-5.365853756666183472e-02
-1.093607395887374878e-02
4.573404043912887573e-02
-7.247537374496459961e-03
-3.332434594631195068e-02
-2.370966225862503052e-02
-3.892773389816284180e-02
-4.674137383699417114e-02
-6.233984231948852539e-02
6.527461111545562744e-03
3.319589048624038696e-02
8.546784520149230957e-04
5.908752232789993286e-02
-2.304859459400177002e-02
3.376192599534988403e-02
3.772927820682525635e-02
2.412582933902740479e-02
1.253838092088699341e-02
2.039454132318496704e-02
-6.035385280847549438e-02
-1.279394328594207764e-02
-6.057957559823989868e-02
3.001712262630462646e-02
-3.943229466676712036e-02
2.123567461967468262e-02
-8.734881877899169922e-03
-1.631055027246475220e-02
4.326853156089782715e-02
3.528953343629837036e-02
2.015235275030136108e-02
-5.507279187440872192e-02
-5.392350256443023682e-02
-2.465574443340301514e-02
-1.970929652452468872e-02
-3.203547745943069458e-02
-3.017735481262207031e-02
-4.620639234781265259e-02
4.395258426666259766e-02
-3.166846930980682373e-02
-5.406845360994338989e-02
2.314936369657516479e-02
1.648496091365814209e-02
-8.721552789211273193e-03
-5.538582801818847656e-02
6.214939057826995850e-02
-6.066828966140747070e-02
2.526567876338958740e-02
-2.583869546651840210e-02
-3.548897057771682739e-02
2.290894091129302979e-02
1.013460755348205566e-02
-1.599077135324478149e-02
1.774102449417114258e-03
4.024646431207656860e-02
-5.032866448163986206e-02
-2.932541072368621826e-02
5.031184107065200806e-02
-1.070085912942886353e-02
8.986003696918487549e-03
1.077767461538314819e-02
-1.498730480670928955e-02
-1.791910827159881592e-02
-5.038373172283172607e-02
5.322425067424774170e-02
-6.056071817874908447e-02
-5.177658796310424805e-02
4.898465424776077271e-02
-8.181840181350708008e-03
-6.008170545101165771e-02
1.773048192262649536e-02
-1.170642673969268799e-02
-8.786536753177642822e-03
1.838337630033493042e-02
-4.751340299844741821e-02
-6.131736189126968384e-02
-2.423787862062454224e-02
-2.829668670892715454e-02
2.655126154422760010e-03
-2.399827539920806885e-02
-2.133872359991073608e-02
-5.697812139987945557e-02
3.997460752725601196e-02
-4.388760775327682495e-02
2.681792527437210083e-02
6.154143065214157104e-02
3.628636896610260010e-02
-2.908415347337722778e-02
-5.081417411565780640e-02
2.303659170866012573e-02
4.345016926527023315e-02
1.825029402971267700e-02
-2.578800171613693237e-02
-4.975496232509613037e-02
-3.942398726940155029e-02
-6.188622862100601196e-02
1.316294074058532715e-04
-4.580041766166687012e-02
-2.254587411880493164e-02
-5.275569856166839600e-03
-2.140548080205917358e-02
-1.271685957908630371e-02
-4.651697725057601929e-02
2.838709205389022827e-02
-5.015618354082107544e-02
6.058753281831741333e-02
-5.714770406484603882e-02
-3.896768391132354736e-02
5.634101480245590210e-02
5.192109942436218262e-02
2.235735952854156494e-02
-3.552585095167160034e-02
-6.572984158992767334e-03
-3.819226473569869995e-02
1.926593482494354248e-03
-3.572621196508407593e-02
4.927874356508255005e-02
-1.590091735124588013e-02
-1.508645713329315186e-03
-5.148471146821975708e-02
-3.993982821702957153e-02
-5.875427275896072388e-02
1.123674213886260986e-03
-4.918032139539718628e-02
5.215705931186676025e-02
-1.004679501056671143e-02
-5.725762248039245605e-02
-3.539583086967468262e-02
3.848185390233993530e-02
4.234185814857482910e-02
-7.231280207633972168e-03
3.655976802110671997e-02
3.088305890560150146e-02
2.144679427146911621e-02
9.081520140171051025e-03
-4.533613473176956177e-02
2.285055816173553467e-02
-1.103165745735168457e-02
-5.781354010105133057e-02
-1.705519109964370728e-02
-2.595163881778717041e-02
1.158803701400756836e-03
3.775898367166519165e-02
6.709881126880645752e-03
-5.251789093017578125e-02
-5.636445432901382446e-02
-4.804577678442001343e-02
3.010670095682144165e-02
-1.677021384239196777e-03
-1.430901885032653809e-02
5.027188360691070557e-02
1.082189381122589111e-03
-4.533119499683380127e-03
3.835701197385787964e-02
1.303155720233917236e-02
-4.466454684734344482e-02
-2.727138251066207886e-02
-1.881310343742370605e-02
-1.266144216060638428e-02
4.512452334165573120e-02
5.771915614604949951e-02
5.176604539155960083e-02
3.484721481800079346e-02
5.551338940858840942e-02
1.927635818719863892e-02
-5.051404237747192383e-02
-1.030166447162628174e-02
-1.517906785011291504e-02
5.806753039360046387e-02
5.297563970088958740e-03
-4.394479095935821533e-03
-4.450850188732147217e-03
4.740639030933380127e-02
-5.551829934120178223e-02
-2.112866938114166260e-02
6.918847560882568359e-03
-3.390894085168838501e-02
4.017551988363265991e-02
5.490487068891525269e-02
3.070801496505737305e-02
-2.803294360637664795e-02
2.914074063301086426e-02
2.877911925315856934e-02
-1.597164571285247803e-02
-2.958869934082031250e-02
5.918653309345245361e-02
5.957867950201034546e-02
6.234265118837356567e-02
-2.723696082830429077e-02
1.429874449968338013e-02
4.626348614692687988e-02
3.094438463449478149e-02
5.883608013391494751e-02
5.134985595941543579e-02
-1.144323498010635376e-02
1.655746251344680786e-02
1.691734045743942261e-02
4.496119916439056396e-02
2.079562097787857056e-02
5.690866708755493164e-02
5.729528516530990601e-02
5.481300503015518188e-02
-3.209063410758972168e-02
-2.855075150728225708e-02
-4.915775358676910400e-02
5.499343574047088623e-02
-2.726945281028747559e-02
3.069929033517837524e-02
-5.565855652093887329e-02
-4.854529350996017456e-02
-9.519778192043304443e-03
-4.906812310218811035e-02
-2.137623727321624756e-02
-5.259528011083602905e-02
-5.597840249538421631e-02
2.891872078180313110e-02
1.934694498777389526e-02
-1.572477817535400391e-02
2.119864523410797119e-02
7.458716630935668945e-03
-1.717105507850646973e-03
5.069191753864288330e-02
-5.084464699029922485e-02
4.694463312625885010e-02
-3.278583288192749023e-02
2.341175079345703125e-02
-1.693417131900787354e-02
6.110971421003341675e-02
4.238210618495941162e-03
3.521606326103210449e-02
5.385530740022659302e-02
-2.530269324779510498e-02
3.893361240625381470e-02
3.112214803695678711e-02
-2.055431902408599854e-02
6.193743646144866943e-02
-4.984891414642333984e-02
-3.505004197359085083e-02
-2.795927226543426514e-02
-8.656673133373260498e-03
3.650596737861633301e-02
-1.473486423492431641e-02
3.136554360389709473e-02
-6.047718226909637451e-02
1.543396711349487305e-02
2.730860561132431030e-02
5.117767304182052612e-02
-1.849491894245147705e-02
-4.346779733896255493e-02
-3.894010931253433228e-02
3.872039914131164551e-02
-5.450759083032608032e-02
2.118171751499176025e-02
-9.287625551223754883e-03
1.435713469982147217e-02
-2.727640420198440552e-02
1.899908483028411865e-02
3.483974933624267578e-02
-2.340731024742126465e-02
-4.816062748432159424e-02
3.994449973106384277e-03
-5.595652759075164795e-02
-4.990540444850921631e-03
5.029536783695220947e-03
2.323949337005615234e-02
-2.015969902276992798e-02
5.015023052692413330e-02
2.958224713802337646e-02
-6.205551326274871826e-02
-3.102151304483413696e-02
-1.201462000608444214e-02
-2.070882916450500488e-02
-6.063789129257202148e-03
-2.518258988857269287e-02
1.270233094692230225e-02
-4.022791236639022827e-02
5.248713493347167969e-02
3.453494608402252197e-02
4.570744931697845459e-03
5.475275218486785889e-02
-4.728593677282333374e-02
-2.974145114421844482e-03
2.378625422716140747e-02
-3.319832682609558105e-02
-2.660074084997177124e-02
3.508068621158599854e-02
-3.464782238006591797e-02
4.983004927635192871e-02
8.803449571132659912e-03
5.515993386507034302e-02
-1.156836748123168945e-03
-4.636573791503906250e-02
-5.671681463718414307e-02
-4.675903916358947754e-02
-6.011746823787689209e-02
3.590679168701171875e-02
-6.525844335556030273e-03
-3.204211592674255371e-02
-6.092280894517898560e-02
-6.217762827873229980e-03
-2.505897730588912964e-02
3.412602096796035767e-02
3.606066107749938965e-02
-4.361401498317718506e-02
-5.891680717468261719e-02
-3.651622682809829712e-02
7.779769599437713623e-03
-5.424046516418457031e-02
1.418373733758926392e-02
1.780251413583755493e-02
5.579984188079833984e-02
-3.470380604267120361e-02
-4.477167129516601562e-02
-1.862611621618270874e-02
-1.657326519489288330e-02
-3.045351803302764893e-02
-3.201636672019958496e-02
-4.889367520809173584e-02
3.306113928556442261e-02
-2.101706713438034058e-02
4.064454883337020874e-02
-4.223305732011795044e-02
2.007327973842620850e-03
-5.876392126083374023e-03
-4.628863930702209473e-02
5.296605080366134644e-02
-2.146426588296890259e-02
3.624491393566131592e-02
3.002554178237915039e-02
-1.937601715326309204e-02
-1.853062212467193604e-02
2.197019755840301514e-03
-1.532257348299026489e-02
-3.223784267902374268e-02
2.887669205665588379e-02
2.276211977005004883e-03
-2.544282376766204834e-02
-3.220151364803314209e-02
-4.187119752168655396e-02
-2.819485962390899658e-03
4.801141470670700073e-02
8.215777575969696045e-03
9.564645588397979736e-03
1.863141357898712158e-02
-3.175694495439529419e-02
-5.785227566957473755e-02
2.022641152143478394e-02
5.076123774051666260e-02
-3.938291966915130615e-02
3.242803364992141724e-02
-2.840096503496170044e-02
-9.243898093700408936e-03
-3.080841898918151855e-02
3.171496093273162842e-03
2.858829498291015625e-02
2.360173314809799194e-02
3.218317031860351562e-02
3.074423968791961670e-02
3.841464966535568237e-02
6.050487607717514038e-02
-2.830130606889724731e-02
4.277353733777999878e-02
-5.897831171751022339e-02
3.604619950056076050e-02
-6.098853051662445068e-02
-2.781084179878234863e-02
-5.434028804302215576e-03
-3.792585432529449463e-02
-2.978334575891494751e-02
2.351888269186019897e-02
-3.671564161777496338e-02
-1.311715692281723022e-02
3.636941313743591309e-03
-6.071647256612777710e-02
2.048816531896591187e-02
2.339740842580795288e-02
3.440944850444793701e-02
-3.107109665870666504e-02
-5.848671495914459229e-02
-3.793185204267501831e-02
-1.718799769878387451e-02
2.705486118793487549e-02
2.327158302068710327e-02
-2.119817584753036499e-02
2.577682584524154663e-02
1.192817836999893188e-02
-1.107552647590637207e-02
1.490607857704162598e-03
5.630513280630111694e-02
-3.050521761178970337e-02
1.567203551530838013e-02
-5.474019050598144531e-02
-3.387790173292160034e-02
1.373197138309478760e-02
-3.050008416175842285e-02
-1.804675161838531494e-02
2.030270546674728394e-02
-6.898492574691772461e-03
-2.852392941713333130e-02
2.979813516139984131e-02
-1.624703407287597656e-02
-1.618372648954391479e-02
-3.790766000747680664e-03
-2.858813107013702393e-02
5.106727778911590576e-02
5.080116540193557739e-02
5.621947348117828369e-02
2.797603607177734375e-03
-4.848485440015792847e-02
-4.778347909450531006e-02
5.484578758478164673e-02
-3.194614499807357788e-02
5.890733003616333008e-02
-1.286887377500534058e-02
3.252291679382324219e-02
-4.927165061235427856e-02
-2.258148789405822754e-02
2.033613622188568115e-02
3.595117479562759399e-02
-2.177681028842926025e-02
-3.615355491638183594e-02
-5.491704493761062622e-02
4.609635472297668457e-02
2.985618263483047485e-02
3.293356299400329590e-02
-1.346702873706817627e-02
2.019355446100234985e-02
-1.737745106220245361e-02
2.773036807775497437e-02
6.244705617427825928e-02
4.420363157987594604e-02
-5.465745925903320312e-04
1.907659322023391724e-02
-4.729415476322174072e-02
2.483381330966949463e-02
2.040082216262817383e-02
1.310514658689498901e-02
4.723356664180755615e-02
-1.762495934963226318e-02
-5.279420316219329834e-02
-4.970744252204895020e-03
3.700375556945800781e-02
-4.051809757947921753e-02
4.871700704097747803e-02
3.922455012798309326e-03
-4.324571043252944946e-02
-4.318469762802124023e-02
4.738118499517440796e-02
-1.926235109567642212e-02
2.696138620376586914e-02
2.356085181236267090e-02
-3.864705562591552734e-03
5.256164073944091797e-02
-8.849598467350006104e-03
4.430779069662094116e-02
-4.934909939765930176e-02
3.861077129840850830e-02
4.771995544433593750e-02
-4.645452648401260376e-02
-9.411491453647613525e-03
-3.537382930517196655e-02
4.411336779594421387e-02
-2.359971404075622559e-04
1.663693040609359741e-02
4.918292164802551270e-03
3.673954308032989502e-02
2.588635683059692383e-02
-5.831104516983032227e-02
-5.889512598514556885e-02
3.690547496080398560e-02
-4.174530506134033203e-02
-3.080326318740844727e-02
6.630904972553253174e-03
-2.637611329555511475e-02
4.494314640760421753e-02
2.576523274183273315e-02
-1.850093156099319458e-02
6.053169071674346924e-02
-3.441745787858963013e-02
-5.823292583227157593e-02
4.801391810178756714e-02
-3.475191444158554077e-02
3.484297543764114380e-02
-9.396292269229888916e-03
5.619553476572036743e-02
6.041292846202850342e-02
-8.376084268093109131e-03
-3.754054009914398193e-02
-1.995057612657546997e-02
-1.058748364448547363e-02
-2.238162606954574585e-02
-4.084422439336776733e-02
4.863266646862030029e-02
-4.003696143627166748e-02
-5.442097783088684082e-02
-2.332789450883865356e-02
-4.050105810165405273e-03
2.458617091178894043e-03
4.491841048002243042e-02
3.119475394487380981e-02
-3.897062689065933228e-02
4.252314567565917969e-03
-1.683697104454040527e-02
9.766429662704467773e-03
2.504894137382507324e-02
6.212039291858673096e-02
2.993516623973846436e-02
4.140456020832061768e-02
1.014501601457595825e-02
-4.243239760398864746e-02
-2.281506359577178955e-02
-2.097161859273910522e-02
-1.489370316267013550e-02
-4.138404130935668945e-02
2.165304124355316162e-02
1.338026672601699829e-02
-3.421410918235778809e-02
5.528941750526428223e-03
3.104443103075027466e-02
1.999460160732269287e-03
5.394674837589263916e-03
1.522247493267059326e-02
3.588131070137023926e-02
3.567390143871307373e-03
2.141132950782775879e-02
5.400601774454116821e-02
-2.610781788825988770e-02
-1.574140042066574097e-02
-2.175812423229217529e-02
-3.554323315620422363e-02
-5.067878216505050659e-02
4.674270749092102051e-03
-6.070504337549209595e-02
-5.408021062612533569e-02
-1.615628600120544434e-03
-2.531133592128753662e-02
8.384443819522857666e-03
4.289584606885910034e-02
1.822158694267272949e-02
-3.594690561294555664e-02
-2.645849436521530151e-02
5.055106431245803833e-02
-1.001275330781936646e-02
-2.240402251482009888e-02
-4.983128607273101807e-02
-2.971241623163223267e-02
-5.116661638021469116e-02
6.245096027851104736e-02
4.167824238538742065e-02
1.147720217704772949e-02
-2.174547314643859863e-02
2.181384712457656860e-02
5.992470681667327881e-02
-3.234224021434783936e-02
2.452674508094787598e-02
4.848847538232803345e-02
3.777728229761123657e-02
-6.216397136449813843e-02
1.544930040836334229e-03
3.917708247900009155e-02
-5.030544847249984741e-02
3.707887232303619385e-02
-4.956111311912536621e-02
1.499131321907043457e-03
-3.511588275432586670e-02
-4.002205282449722290e-02
3.550416976213455200e-02
-7.879428565502166748e-03
5.227337032556533813e-02
-1.989842951297760010e-02
-2.987632155418395996e-02
-9.494371712207794189e-03
9.511962532997131348e-03
3.459382802248001099e-02
-5.063129961490631104e-02
-3.335972130298614502e-02
1.116249710321426392e-02
4.975074529647827148e-02
4.837547987699508667e-02
-5.323584377765655518e-02
-6.339088082313537598e-03
1.381218433380126953e-02
1.283410191535949707e-02
3.159560263156890869e-03
-1.312486827373504639e-03
1.105453073978424072e-02
-3.385595977306365967e-03
-3.340815752744674683e-02
5.748355388641357422e-02
-5.383279174566268921e-02
-4.449944943189620972e-02
4.433072358369827271e-02
-8.559644222259521484e-03
-1.585435122251510620e-02
-5.940340459346771240e-02
-2.770797163248062134e-02
-8.886650204658508301e-03
-2.120260894298553467e-02
6.216170638799667358e-02
-1.168297976255416870e-02
1.534759998321533203e-03
-5.442457646131515503e-02
3.233179450035095215e-02
1.953177154064178467e-02
1.988176256418228149e-02
-6.016338616609573364e-02
4.388666152954101562e-02
2.285162359476089478e-02
3.945671021938323975e-02
-5.264455825090408325e-02
5.825224518775939941e-02
-1.734525710344314575e-02
-5.226203054189682007e-02
-1.899074763059616089e-02
-3.646516799926757812e-02
-1.551255583763122559e-02
-4.659172892570495605e-02
-5.368523299694061279e-02
-4.406633228063583374e-02
7.153987884521484375e-03
3.172248601913452148e-03
-4.283063113689422607e-02
-1.552002876996994019e-02
7.264070212841033936e-03
3.529939800500869751e-02
2.897930890321731567e-02
-2.748265862464904785e-02
-6.875351071357727051e-03
-4.708729684352874756e-03
5.424438416957855225e-02
3.715281188488006592e-02
2.537896484136581421e-02
-1.090452075004577637e-02
4.924443364143371582e-02
5.208170413970947266e-02
4.566833376884460449e-02
-5.570202320814132690e-02
1.372551172971725464e-02
5.287734419107437134e-02
-4.288169741630554199e-02
-1.656836271286010742e-02
-2.005670219659805298e-02
1.610781252384185791e-02
-3.616943955421447754e-02
-2.879133820533752441e-02
-4.001270979642868042e-02
-3.425708413124084473e-02
-5.834928154945373535e-02
7.557600736618041992e-03
-5.324525386095046997e-02
-3.465773165225982666e-02
6.024347990751266479e-02
4.861956089735031128e-02
-1.050567626953125000e-02
4.910401999950408936e-02
3.906473517417907715e-02
4.955926537513732910e-02
5.363784730434417725e-03
-2.041552215814590454e-02
-6.249821186065673828e-02
3.800662606954574585e-02
2.499276399612426758e-02
1.616334915161132812e-02
-1.589506864547729492e-04
1.871285587549209595e-02
-9.950309991836547852e-03
5.263020843267440796e-02
2.473191916942596436e-02
1.165477931499481201e-02
2.093949913978576660e-02
4.592460393905639648e-02
-1.112522929906845093e-02
-9.498655796051025391e-03
6.117429584264755249e-02
8.092388510704040527e-03
-9.529113769531250000e-03
5.362030863761901855e-02
-2.508927881717681885e-02
2.379098534584045410e-02
2.545507252216339111e-02
2.101156115531921387e-02
3.610318154096603394e-02
5.822703242301940918e-02
-2.099899947643280029e-02
5.045391619205474854e-03
2.167706191539764404e-02
-1.858747005462646484e-02
-2.456393837928771973e-02
1.410473883152008057e-02
-1.351054757833480835e-02
4.957323521375656128e-02
5.303096771240234375e-02
-4.149971157312393188e-02
4.809796810150146484e-02
8.036382496356964111e-03
-3.927784413099288940e-02
3.230780363082885742e-02
6.248466670513153076e-03
-3.424260765314102173e-02
-3.429739177227020264e-02
-3.454591333866119385e-02
-5.368796736001968384e-02
-3.777801990509033203e-02
-1.937523484230041504e-04
-3.076926618814468384e-02
5.313047021627426147e-02
1.659848541021347046e-02
2.133078873157501221e-02
5.383879691362380981e-02
2.546099573373794556e-02
-3.607542067766189575e-02
-1.018388569355010986e-02
1.537237316370010376e-02
1.002158969640731812e-02
4.606604576110839844e-02
4.453927278518676758e-03
-4.367530345916748047e-05
-9.559310972690582275e-03
5.396729707717895508e-02
-1.802973449230194092e-03
2.160117030143737793e-03
1.663312315940856934e-03
-2.198324352502822876e-02
5.369608104228973389e-02
1.789253950119018555e-02
6.088203191757202148e-02
-1.644982397556304932e-02
-4.327226430177688599e-02
-4.959408938884735107e-02
4.699602723121643066e-03
-2.786323428153991699e-03
-4.963311553001403809e-02
3.960086405277252197e-02
3.908509016036987305e-02
-1.292618364095687866e-02
2.339392155408859253e-02
2.999542653560638428e-02
-1.950068771839141846e-02
4.003486782312393188e-02
-6.121274828910827637e-02
5.421586334705352783e-03
4.936497658491134644e-02
4.292167723178863525e-02
1.138821244239807129e-04
5.356371402740478516e-02
-2.399965375661849976e-02
5.143539607524871826e-02
3.341074287891387939e-02
-5.679448693990707397e-02
-3.481398522853851318e-02
4.491157829761505127e-03
6.200660020112991333e-02
-5.863571912050247192e-02
-3.843604773283004761e-02
4.052101820707321167e-02
-5.509188771247863770e-02
-4.597322642803192139e-02
-2.705028653144836426e-02
-3.269754350185394287e-03
3.917306661605834961e-02
-4.465706646442413330e-03
5.241478234529495239e-02
-7.653400301933288574e-03
-4.261401295661926270e-02
-3.630607575178146362e-02
8.276954293251037598e-03
-3.157909214496612549e-02
-1.693809777498245239e-02
4.499734938144683838e-02
3.103195875883102417e-02
-1.130768656730651855e-02
-3.645657002925872803e-02
4.847667366266250610e-02
2.127663791179656982e-02
1.501530408859252930e-03
-4.496033489704132080e-02
3.831879049539566040e-02
2.706208080053329468e-02
-2.882559597492218018e-02
1.617908477783203125e-02
-1.514305919408798218e-02
3.557334840297698975e-02
-4.048351943492889404e-02
5.650959908962249756e-02
2.233257144689559937e-02
-4.261790215969085693e-02
-5.181959271430969238e-02
-1.638843119144439697e-02
2.095285803079605103e-02
-3.983462601900100708e-02
-6.042420119047164917e-02
-2.493776381015777588e-02
-1.421623677015304565e-02
1.300329715013504028e-02
-1.678330451250076294e-02
-1.858270168304443359e-02
-5.298048257827758789e-02
1.199405640363693237e-02
-2.363406121730804443e-02
-6.088763475418090820e-02
4.323501139879226685e-02
1.972954720258712769e-02
-3.437473624944686890e-02
-8.661098778247833252e-03
-2.329003810882568359e-02
-2.153209596872329712e-02
1.840728521347045898e-02
6.194845587015151978e-02
-2.067762613296508789e-02
-2.713753283023834229e-02
2.182185649871826172e-02
2.928078174591064453e-06
-5.228963494300842285e-02
3.909726440906524658e-02
-4.884203523397445679e-02
-1.060909777879714966e-02
1.343945413827896118e-02
7.411345839500427246e-03
2.634053677320480347e-02
-9.904243052005767822e-03
1.642186939716339111e-02
-5.868259072303771973e-02
-5.847309529781341553e-02
3.329443186521530151e-02
-3.268491476774215698e-02
-5.576071888208389282e-02
-6.151499599218368530e-02
1.664079725742340088e-03
-4.623686522245407104e-02
-6.114311516284942627e-02
-5.341443419456481934e-02
3.958135843276977539e-03
3.712143748998641968e-02
4.614070057868957520e-04
-2.583556622266769409e-02
-4.115317016839981079e-02
-5.933112651109695435e-02
-2.455161511898040771e-02
4.684542119503021240e-02
3.121922165155410767e-02
1.149941235780715942e-02
3.854836523532867432e-02
-7.224246859550476074e-03
-3.449205309152603149e-02
1.662866771221160889e-02
5.895316600799560547e-02
1.144589483737945557e-02
-1.713478565216064453e-02
-3.402148187160491943e-02
-1.117821037769317627e-02
5.964039266109466553e-02
8.576676249504089355e-03
-3.986082226037979126e-02
-1.416873931884765625e-02
4.697894304990768433e-02
4.858140647411346436e-02
-5.060411989688873291e-03
-3.274322301149368286e-02
-1.818083971738815308e-02
-5.589915066957473755e-02
-4.332117736339569092e-03
-4.291126132011413574e-02
-5.916485935449600220e-02
-3.509838879108428955e-02
2.415878325700759888e-02
-3.652059286832809448e-02
-3.022245317697525024e-02
4.533284157514572144e-02
-3.761358559131622314e-03
-2.740754932165145874e-02
7.489524781703948975e-03
-5.578376352787017822e-02
-5.230277776718139648e-03
1.330482214689254761e-02
-1.835970580577850342e-02
3.460897505283355713e-02
4.301618784666061401e-02
3.502834588289260864e-02
4.668021947145462036e-02
-3.782726824283599854e-03
1.383975148200988770e-02
-2.413263916969299316e-02
3.767247498035430908e-02
1.775577664375305176e-03
1.648733019828796387e-02
3.475333750247955322e-02
9.615615010261535645e-03
4.204273223876953125e-02
-2.876116335391998291e-02
-5.777446925640106201e-02
1.849058270454406738e-02
5.942694842815399170e-02
7.600486278533935547e-03
3.828041255474090576e-02
3.020006418228149414e-02
6.088644266128540039e-03
1.730775088071823120e-02
2.574621886014938354e-02
-3.255479037761688232e-02
3.472995012998580933e-02
3.398523479700088501e-02
4.201232641935348511e-02
5.565818399190902710e-02
-4.577724635601043701e-02
-4.524622857570648193e-02
4.976364225149154663e-02
-3.003631532192230225e-02
5.433734506368637085e-02
-2.824213355779647827e-02
2.886874228715896606e-02
1.031226664781570435e-02
-3.135026991367340088e-02
3.869932889938354492e-02
2.378763258457183838e-02
-2.547651529312133789e-03
-3.234823793172836304e-02
4.728864878416061401e-02
-3.145003318786621094e-02
3.601545840501785278e-02
-4.016686230897903442e-02
-5.780202895402908325e-02
-9.109944105148315430e-03
5.201913416385650635e-02
1.560663431882858276e-02
-6.491191685199737549e-03
2.710847556591033936e-02
3.580190241336822510e-02
-6.114673614501953125e-02
5.184894055128097534e-02
-2.065019309520721436e-02
-1.784615963697433472e-02
3.632393479347229004e-02
2.324674278497695923e-02
-1.366665214300155640e-02
-6.074300408363342285e-02
-2.913255244493484497e-02
5.131165683269500732e-02
-5.245979130268096924e-02
-5.894512683153152466e-02
-5.808040499687194824e-03
-5.369186401367187500e-02
3.271216154098510742e-02
-6.157966703176498413e-02
-2.213767915964126587e-02
4.688429087400436401e-02
-2.965129166841506958e-02
6.246874481439590454e-02
-5.198919773101806641e-02
-2.659497410058975220e-02
1.174931973218917847e-02
-4.667408764362335205e-02
2.182888984680175781e-02
-1.672117412090301514e-02
3.288588672876358032e-02
-4.416268318891525269e-02
4.652678966522216797e-02
2.191804349422454834e-02
5.771861225366592407e-02
5.241306126117706299e-02
4.650366306304931641e-02
5.380845814943313599e-02
-8.329749107360839844e-04
2.010156959295272827e-02
-3.361722826957702637e-02
5.077604204416275024e-02
-5.419541150331497192e-02
1.586517691612243652e-02
1.970062404870986938e-02
-2.575818449258804321e-02
-4.989142715930938721e-02
1.017816364765167236e-03
4.281344264745712280e-02
-3.199607133865356445e-02
-3.861103206872940063e-02
2.021337300539016724e-02
4.630014300346374512e-03
-4.151173681020736694e-02
-4.952440410852432251e-02
4.761848598718643188e-02
3.972543776035308838e-02
-1.190315932035446167e-02
-3.449477255344390869e-02
4.775074869394302368e-02
-8.670069277286529541e-03
-1.418907940387725830e-02
-6.578631699085235596e-03
-3.394203633069992065e-02
-5.795495957136154175e-02
3.724902123212814331e-02
-1.825279742479324341e-02
3.433393687009811401e-02
-9.876683354377746582e-03
-4.612054675817489624e-02
3.485412150621414185e-02
4.624254256486892700e-02
6.026867777109146118e-02
2.514509856700897217e-02
2.617160975933074951e-02
4.925082623958587646e-02
-1.733189821243286133e-02
1.402751356363296509e-02
-6.139479577541351318e-02
-3.824031352996826172e-02
3.374118357896804810e-02
-5.181473493576049805e-02
4.531748592853546143e-03
2.388072758913040161e-02
5.097327381372451782e-02
4.753106832504272461e-02
4.935230314731597900e-02
4.181455820798873901e-02
2.478538453578948975e-02
3.237269073724746704e-02
-7.692009210586547852e-03
-6.162029504776000977e-02
-8.169963955879211426e-03
-2.101080119609832764e-02
-5.676785111427307129e-02
-6.447285413742065430e-03
2.511908859014511108e-02
-5.958984047174453735e-02
8.504241704940795898e-04
-3.769288212060928345e-02
-2.677687257528305054e-02
-4.638321697711944580e-03
-5.347820371389389038e-02
-1.829376071691513062e-02
1.965816318988800049e-02
8.570589125156402588e-03
-4.744200408458709717e-02
2.192776650190353394e-02
-5.791001766920089722e-02
-6.935052573680877686e-03
5.979423224925994873e-02
1.374674588441848755e-02
5.135051161050796509e-02
5.620232969522476196e-02
-9.631738066673278809e-04
-5.551675707101821899e-02
2.739342302083969116e-02
2.550578117370605469e-02
-4.691763222217559814e-02
-3.923717886209487915e-02
1.185121387243270874e-02
-5.279473215341567993e-02
2.189749479293823242e-02
4.930245876312255859e-02
-3.472603857517242432e-03
4.954649507999420166e-02
1.346359401941299438e-02
-2.835626900196075439e-02
-2.832006663084030151e-02
-1.543968915939331055e-02
-2.180965989828109741e-02
-1.196388155221939087e-02
5.613208562135696411e-02
7.219195365905761719e-03
1.709876954555511475e-02
-6.097175180912017822e-02
-4.811934381723403931e-02
6.946325302124023438e-03
-3.100919723510742188e-02
-1.119184494018554688e-02
6.214175373315811157e-02
4.904557019472122192e-02
-3.559865802526473999e-02
-4.657208919525146484e-02
6.192628294229507446e-02
6.563924252986907959e-03
-1.438011229038238525e-02
-3.804590553045272827e-02
2.084048837423324585e-02
2.745880186557769775e-02
5.886030197143554688e-02
1.456745713949203491e-02
1.544521749019622803e-02
-1.762051880359649658e-02
3.108829259872436523e-02
-2.217010408639907837e-02
5.452024191617965698e-02
-4.217881709337234497e-02
-4.783513396978378296e-02
6.007665395736694336e-02
-2.154574543237686157e-02
1.798905432224273682e-03
-3.449997305870056152e-02
-3.672122955322265625e-02
3.042142838239669800e-02
4.006510227918624878e-02
-1.808727532625198364e-02
-3.974072635173797607e-03
-1.139841973781585693e-03
-3.253138810396194458e-02
-6.192930042743682861e-02
3.848343342542648315e-02
5.311324447393417358e-02
-2.497239410877227783e-02
5.609814077615737915e-02
-3.790619224309921265e-02
-1.864664256572723389e-02
3.717953711748123169e-02
-7.396966218948364258e-03
-4.086406528949737549e-02
3.887891769409179688e-02
3.020684421062469482e-02
-5.969472229480743408e-02
4.667710512876510620e-02
-2.045331150293350220e-02
2.487783133983612061e-02
1.704960316419601440e-02
3.253707289695739746e-02
-9.834542870521545410e-03
-5.318841338157653809e-02
-5.038887262344360352e-02
2.862615138292312622e-02
3.818805515766143799e-02
-6.214642524719238281e-02
-5.255343765020370483e-02
2.246638387441635132e-02
8.590355515480041504e-03
3.630266338586807251e-02
-5.857065320014953613e-03
-4.550591111183166504e-02
4.705855250358581543e-02
-6.178401410579681396e-02
-4.641413688659667969e-03
-4.726447910070419312e-02
7.584691047668457031e-05
1.322925090789794922e-03
1.391127705574035645e-03
5.265757441520690918e-03
-2.465315163135528564e-02
-5.949404835700988770e-02
2.372299879789352417e-02
5.755481868982315063e-02
3.553633391857147217e-02
3.369562327861785889e-02
-3.110326826572418213e-02
-3.315339237451553345e-02
-6.237245351076126099e-02
5.336538702249526978e-02
5.580881983041763306e-02
7.936254143714904785e-03
5.959133803844451904e-02
4.108418524265289307e-02
3.135573863983154297e-02
6.712600588798522949e-04
1.320931315422058105e-02
-2.566020190715789795e-02
-3.837792575359344482e-02
-1.323939114809036255e-02
-3.785234689712524414e-02
-6.236932426691055298e-02
-4.958241432905197144e-02
-2.656079083681106567e-02
2.419725060462951660e-04
-2.375331521034240723e-02
-1.246261596679687500e-02
-5.723036825656890869e-03
-3.247588872909545898e-03
4.598619788885116577e-02
3.317724913358688354e-02
-2.464611828327178955e-02
9.716160595417022705e-03
4.323309659957885742e-02
3.116717189550399780e-02
1.695077866315841675e-02
-5.236431211233139038e-02
1.698076725006103516e-02
1.345099508762359619e-02
-3.919584304094314575e-02
-2.286724746227264404e-03
-3.576149046421051025e-02
4.869525879621505737e-02
2.501793950796127319e-02
-5.503044277429580688e-02
9.747855365276336670e-03
-2.782068401575088501e-02
-4.051528871059417725e-03
-2.561967819929122925e-02
-2.625041455030441284e-02
-8.456736803054809570e-03
4.116130620241165161e-02
3.843211382627487183e-02
-4.410695284605026245e-02
-5.180927366018295288e-02
6.127402186393737793e-02
4.537360370159149170e-02
3.852031379938125610e-02
2.174763381481170654e-02
-8.075706660747528076e-03
-1.345932483673095703e-03
-2.304272353649139404e-02
8.361041545867919922e-05
3.597855567932128906e-03
-1.082956790924072266e-02
-1.892072707414627075e-02
-4.292888194322586060e-02
-2.833954989910125732e-02
5.020567029714584351e-02
6.242043524980545044e-02
7.961608469486236572e-03
-2.822294831275939941e-02
-6.231665611267089844e-04
3.060862421989440918e-03
5.135481804609298706e-02
1.786485314369201660e-02
-5.938728153705596924e-02
2.494358271360397339e-02
-5.000471323728561401e-02
1.906155794858932495e-02
-5.302682518959045410e-02
-2.146027982234954834e-02
-4.871672391891479492e-02
2.677150070667266846e-03
-4.167164862155914307e-02
-4.976251721382141113e-02
2.978634834289550781e-02
1.086464524269104004e-02
3.031477332115173340e-02
4.683881998062133789e-03
2.183087170124053955e-03
2.014657855033874512e-02
-2.709344029426574707e-02
-3.877525776624679565e-02
1.828534156084060669e-02
2.520696073770523071e-02
1.865080744028091431e-02
-7.320575416088104248e-03
-3.130673617124557495e-02
-2.081011235713958740e-02
-6.061673164367675781e-02
6.111411005258560181e-02
3.295321017503738403e-02
-2.651587128639221191e-02
-1.640275120735168457e-03
-4.837758094072341919e-02
-2.910377830266952515e-02
-4.870323836803436279e-02
-1.230291277170181274e-02
-4.893207550048828125e-02
2.061498165130615234e-02
4.408176243305206299e-02
-5.233576893806457520e-02
-4.684329777956008911e-02
4.622559994459152222e-02
5.639023333787918091e-02
1.509685814380645752e-02
2.774630486965179443e-02
2.829889953136444092e-02
1.469072699546813965e-02
3.819325566291809082e-02
5.324048548936843872e-02
-3.705688565969467163e-02
-4.643667489290237427e-02
-8.913069963455200195e-03
3.199353069067001343e-02
1.371245831251144409e-02
-3.496473282575607300e-02
-4.448229074478149414e-02
-3.903883695602416992e-02
5.609773099422454834e-03
-5.947261303663253784e-02
-6.188495457172393799e-02
3.120010346174240112e-02
9.796559810638427734e-03
4.141703248023986816e-04
5.799539387226104736e-03
-1.887450367212295532e-02
4.923558980226516724e-02
3.479661792516708374e-02
-4.229633510112762451e-02
6.129644066095352173e-02
4.077717661857604980e-02
-3.751467913389205933e-02
-2.157783508300781250e-02
3.649464249610900879e-02
3.661377727985382080e-02
7.777854800224304199e-03
1.361894607543945312e-02
-3.688329458236694336e-02
-4.444389790296554565e-02
5.238477885723114014e-02
-1.635926961898803711e-02
-3.047475218772888184e-02
-2.440273761749267578e-02
1.544070988893508911e-02
5.764815211296081543e-02
9.249083697795867920e-03
2.772206068038940430e-02
-2.171485126018524170e-02
4.107556492090225220e-02
1.815049350261688232e-02
2.397842705249786377e-02
2.376952767372131348e-02
-2.585885673761367798e-02
1.309537142515182495e-02
2.421016246080398560e-02
5.206958949565887451e-02
-3.918656706809997559e-02
4.184959083795547485e-02
-5.682438611984252930e-03
1.785232871770858765e-02
3.276725858449935913e-02
4.186756163835525513e-02
1.474969089031219482e-03
1.783306896686553955e-02
-4.509393870830535889e-02
3.272554278373718262e-02
2.410483360290527344e-02
2.341146767139434814e-02
-4.353083670139312744e-03
3.109355270862579346e-02
1.633365452289581299e-02
9.582340717315673828e-03
3.725234419107437134e-02
2.260946482419967651e-02
-5.536165088415145874e-02
-5.288459360599517822e-02
-2.027749270200729370e-02
-2.051994204521179199e-02
3.678774833679199219e-02
-1.724216341972351074e-02
5.640858411788940430e-02
3.494307398796081543e-03
-5.291698873043060303e-02
5.631275475025177002e-02
2.458783239126205444e-02
-5.118104815483093262e-02
-4.461037367582321167e-02
2.651660144329071045e-02
1.902563124895095825e-02
-3.024940192699432373e-02
-5.814928561449050903e-02
-2.214214205741882324e-02
-3.488928079605102539e-02
-4.183430224657058716e-02
-1.135721057653427124e-02
3.591009974479675293e-02
1.188085228204727173e-02
-5.108492076396942139e-02
-5.666139721870422363e-02
2.392068505287170410e-03
2.256119996309280396e-02
-5.397795140743255615e-02
-1.247005164623260498e-02
-1.713164150714874268e-03
-6.176604330539703369e-02
-1.236945390701293945e-02
1.878935098648071289e-02
2.292564511299133301e-02
1.914212852716445923e-02
1.566499471664428711e-03
1.979651302099227905e-02
-2.500314265489578247e-02
-4.429261386394500732e-02
5.159322917461395264e-02
1.611466705799102783e-02
8.464507758617401123e-03
3.682433068752288818e-02
7.487781345844268799e-03
2.805544435977935791e-02
4.731582105159759521e-02
-2.959952503442764282e-02
-2.042409032583236694e-02
-5.006527900695800781e-02
5.332718789577484131e-02
-1.871838420629501343e-02
-3.148874640464782715e-02
5.179347842931747437e-02
-2.336364239454269409e-02
1.014167815446853638e-02
3.681907057762145996e-02
1.543507725000381470e-02
-6.121632456779479980e-02
7.590562105178833008e-03
-3.736355155706405640e-02
3.820741921663284302e-02
3.768313676118850708e-02
5.715815722942352295e-02
-2.690825611352920532e-02
3.511376678943634033e-03
4.840018600225448608e-02
1.166279613971710205e-02
6.062681972980499268e-02
-5.526692420244216919e-02
5.186349153518676758e-05
5.878914147615432739e-02
-3.097346425056457520e-02
4.990196228027343750e-02
-3.575374931097030640e-02
2.849670499563217163e-02
-2.823099493980407715e-03
5.154569447040557861e-02
-4.530549049377441406e-04
-2.745102345943450928e-02
-2.513659000396728516e-02
-2.508538961410522461e-02
-6.131147593259811401e-02
2.208508551120758057e-02
4.955632239580154419e-02
-2.628751099109649658e-02
-1.578388363122940063e-02
-3.682997822761535645e-02
-6.155963987112045288e-02
-4.157207906246185303e-03
-3.030375391244888306e-02
1.822715252637863159e-02
-7.249012589454650879e-03
-2.998942136764526367e-02
-5.751758813858032227e-03
1.064762473106384277e-03
9.729310870170593262e-03
3.964542597532272339e-02
3.226856887340545654e-02
4.275723546743392944e-02
-5.711477249860763550e-02
6.171414256095886230e-02
-5.042289197444915771e-02
-1.387786120176315308e-02
-6.597623229026794434e-03
-5.602136999368667603e-02
5.686374753713607788e-02
-2.526231855154037476e-02
6.020805984735488892e-02
-4.824753850698471069e-02
3.656451404094696045e-02
3.967959433794021606e-02
-2.312199771404266357e-02
2.533890306949615479e-03
4.981507360935211182e-02
-3.795322775840759277e-02
3.705418109893798828e-02
-5.019546300172805786e-02
3.201170265674591064e-02
-5.531849712133407593e-02
-3.942488133907318115e-02
3.355287015438079834e-02
-4.519189894199371338e-02
-2.249954640865325928e-02
-8.176840841770172119e-03
-3.409259021282196045e-02
2.311333268880844116e-02
-4.550764709711074829e-02
-5.847536027431488037e-02
1.276987046003341675e-02
5.262844264507293701e-03
6.139110773801803589e-02
-5.637983232736587524e-02
1.893973350524902344e-02
-4.223198443651199341e-02
7.475614547729492188e-04
4.546406865119934082e-02
5.613401532173156738e-03
1.047827303409576416e-02
1.424838602542877197e-02
-3.122267872095108032e-02
2.590326964855194092e-02
-3.811394423246383667e-02
-3.377808630466461182e-02
-1.386492699384689331e-02
-4.604104906320571899e-02
4.661958664655685425e-02
5.271995812654495239e-02
5.501136183738708496e-03
5.766429007053375244e-02
5.733422189950942993e-02
3.664791584014892578e-03
2.997507154941558838e-02
-9.427458047866821289e-03
-5.675807595252990723e-03
1.973631232976913452e-02
3.650537878274917603e-02
8.547127246856689453e-03
2.646601945161819458e-02
2.252052724361419678e-02
3.054078668355941772e-02
-3.160900622606277466e-02
-2.388428151607513428e-02
-4.441668838262557983e-02
2.819376438856124878e-02
-1.517829298973083496e-02
4.085353016853332520e-02
5.300047248601913452e-02
-3.062052279710769653e-02
-1.244418323040008545e-03
-5.922916531562805176e-02
-2.516058087348937988e-02
1.001067459583282471e-02
-3.503412008285522461e-04
-1.209057122468948364e-02
-5.172252655029296875e-02
-5.204535275697708130e-02
5.896417796611785889e-02
1.661912351846694946e-02
5.253406614065170288e-02
-5.798949301242828369e-02
5.317954719066619873e-02
7.933534681797027588e-03
-4.378230869770050049e-02
-3.236426413059234619e-02
1.372462511062622070e-02
3.393460810184478760e-02
-2.804966270923614502e-02
-5.596973747014999390e-02
-1.319479197263717651e-02
2.833042293787002563e-02
-9.900532662868499756e-03
-4.616927355527877808e-02
-1.843872666358947754e-02
1.284720748662948608e-02
-5.181659013032913208e-02
-2.484776824712753296e-02
6.032746285200119019e-02
-4.937157779932022095e-02
6.136149168014526367e-03
-2.010153979063034058e-02
4.500289261341094971e-02
-1.196400821208953857e-02
1.876464486122131348e-02
5.533136427402496338e-03
-5.720566958189010620e-02
-1.860904693603515625e-02
-2.998377382755279541e-02
-3.352583199739456177e-02
3.945584595203399658e-02
-1.392901688814163208e-02
2.835489809513092041e-03
4.738194495439529419e-02
5.475901067256927490e-02
2.090913802385330200e-02
-4.883356392383575439e-03
-4.192090779542922974e-02
5.228977650403976440e-02
1.718960702419281006e-03
4.629693925380706787e-02
-6.036005914211273193e-02
-2.024974673986434937e-02
4.056096076965332031e-03
2.287922054529190063e-02
-1.952545344829559326e-02
-3.470768034458160400e-02
5.847883969545364380e-02
4.114069044589996338e-03
3.477180004119873047e-02
3.541293740272521973e-02
2.348790317773818970e-02
1.408105343580245972e-02
-2.860463410615921021e-02
1.373848319053649902e-02
3.265801072120666504e-02
4.564391076564788818e-02
3.520145267248153687e-02
-6.140571832656860352e-02
8.718200027942657471e-03
2.238155156373977661e-02
-3.797448426485061646e-02
-4.060478508472442627e-02
-1.476166397333145142e-02
-5.875232070684432983e-02
-2.193211764097213745e-02
2.842424064874649048e-02
-1.957780122756958008e-02
-4.584331065416336060e-02
2.515207976102828979e-02
6.249399483203887939e-02
5.463145673274993896e-02
3.042020648717880249e-02
5.599990487098693848e-02
-4.845431447029113770e-02
-5.566279590129852295e-02
1.182395964860916138e-02
-5.083657056093215942e-02
-3.466474264860153198e-02
1.539286971092224121e-02
4.642385244369506836e-02
-7.511712610721588135e-03
-4.393930733203887939e-02
2.523943036794662476e-02
-1.664489507675170898e-02
5.975012481212615967e-02
-4.827252775430679321e-02
9.756952524185180664e-03
-2.880387753248214722e-02
5.703411251306533813e-02
5.866897106170654297e-02
1.100835204124450684e-02
-2.947130799293518066e-02
-2.787306904792785645e-03
9.755373001098632812e-03
4.117325693368911743e-02
3.134349733591079712e-02
2.240405231714248657e-02
-4.510769248008728027e-02
-1.893354952335357666e-02
-1.669020205736160278e-02
-5.816724151372909546e-02
3.442711383104324341e-02
-1.905208081007003784e-02
1.311139762401580811e-02
1.548188179731369019e-02
4.422379285097122192e-02
-3.317693620920181274e-02
-5.614448338747024536e-02
-9.179711341857910156e-03
-3.555172681808471680e-02
4.877738654613494873e-02
1.128895580768585205e-02
4.281634837388992310e-02
1.116797327995300293e-02
-1.391647756099700928e-02
-5.232933908700942993e-02
-4.403074830770492554e-02
-4.698318243026733398e-02
3.164566308259963989e-02
3.976912796497344971e-02
-4.407235980033874512e-02
-5.018126964569091797e-02
2.152200043201446533e-02
4.102293401956558228e-02
6.202055513858795166e-02
5.547905713319778442e-02
-3.540718555450439453e-02
3.191222995519638062e-02
-4.997155070304870605e-02
7.830634713172912598e-03
-1.462295651435852051e-02
-1.024397462606430054e-02
-1.700780540704727173e-02
5.569763481616973877e-03
2.898178994655609131e-03
-6.435886025428771973e-04
3.125759959220886230e-02
4.145242273807525635e-02
3.037428855895996094e-02
-6.024995446205139160e-02
-2.395830303430557251e-02
3.158137947320938110e-02
7.097922265529632568e-03
5.402331054210662842e-02
-5.880155414342880249e-02
5.221588164567947388e-02
6.209366023540496826e-02
-2.930049598217010498e-02
4.778483510017395020e-02
-2.294093370437622070e-03
5.730397999286651611e-03
2.484025061130523682e-02
2.947192639112472534e-02
2.388201653957366943e-02
-3.798906505107879639e-02
2.062994241714477539e-02
-3.643595427274703979e-02
1.363119482994079590e-02
-5.552046000957489014e-02
3.377941995859146118e-02
3.601368516683578491e-02
-1.589432358741760254e-03
1.002475619316101074e-03
1.182341575622558594e-02
-9.856075048446655273e-04
3.861102461814880371e-02
3.605781495571136475e-02
-6.089016795158386230e-03
-2.416702359914779663e-02
-5.799271911382675171e-02
2.979393303394317627e-02
2.929378300905227661e-02
-3.888236731290817261e-02
-2.218823879957199097e-02
1.665812730789184570e-02
2.103565633296966553e-02
-6.147303432226181030e-02
-2.470549196004867554e-02
-1.928676664829254150e-02
3.100542724132537842e-02
-4.946215450763702393e-02
5.569458007812500000e-02
5.458859354257583618e-02
3.419216722249984741e-02
-4.610798507928848267e-02
3.337264060974121094e-02
7.119238376617431641e-03
4.160278290510177612e-02
2.172899991273880005e-02
-1.618804037570953369e-02
2.578792721033096313e-02
7.655248045921325684e-03
1.613125205039978027e-04
5.795687437057495117e-02
-3.074938803911209106e-02
5.465429276227951050e-02
-5.878832936286926270e-02
3.529967367649078369e-02
-5.179665982723236084e-03
-9.749472141265869141e-03
3.915468603372573853e-02
-5.151491612195968628e-02
6.165137141942977905e-02
-1.391965895891189575e-02
1.803856343030929565e-02
-1.248107850551605225e-02
-2.495101094245910645e-02
-3.564627468585968018e-02
5.162350833415985107e-02
-2.040971815586090088e-02
3.233562409877777100e-02
-3.408752381801605225e-03
3.008418530225753784e-02
-4.332765936851501465e-03
9.546428918838500977e-05
3.829083591699600220e-02
-1.925013959407806396e-03
-4.201620817184448242e-02
2.270836383104324341e-02
-5.484195798635482788e-02
1.909248530864715576e-02
-4.560806602239608765e-02
-1.647163927555084229e-02
1.080624014139175415e-02
2.039019763469696045e-02
-4.943768680095672607e-02
4.277601093053817749e-02
3.406710922718048096e-03
4.143434762954711914e-02
-5.807247012853622437e-02
-5.472203344106674194e-02
-2.317643165588378906e-02
5.471367388963699341e-02
3.136917948722839355e-04
-3.358516842126846313e-02
5.659461021423339844e-03
3.664019703865051270e-02
5.169044435024261475e-02
3.648404777050018311e-02
1.798981428146362305e-02
-5.007074028253555298e-02
-5.078636109828948975e-02
-1.237476617097854614e-02
-2.604719251394271851e-02
5.370162427425384521e-02
6.030526012182235718e-02
-5.917158722877502441e-02
-4.501894116401672363e-03
6.030045449733734131e-03
-1.134918630123138428e-02
5.203565955162048340e-02
3.429029881954193115e-02
-3.467956930398941040e-02
1.782055199146270752e-02
1.830548048019409180e-03
5.956752598285675049e-02
5.490259826183319092e-02
-6.107845902442932129e-02
-3.421854227781295776e-02
5.716909468173980713e-02
5.746810883283615112e-02
4.989959299564361572e-02
-4.857046157121658325e-02
-3.204882144927978516e-02
-3.724402934312820435e-02
-5.441819876432418823e-02
-5.652716755867004395e-02
6.978377699851989746e-03
1.986473798751831055e-03
-5.402954667806625366e-02
3.136875480413436890e-02
5.786951631307601929e-02
-5.150407552719116211e-03
5.174785852432250977e-02
7.729083299636840820e-04
-2.179169654846191406e-02
5.349293351173400879e-04
-1.629772782325744629e-02
-5.032327771186828613e-02
3.565296530723571777e-03
3.890506923198699951e-02
4.932840913534164429e-02
3.002978116273880005e-02
6.579548120498657227e-03
-4.955915361642837524e-02
-1.296354830265045166e-02
4.908131808042526245e-02
3.492046147584915161e-02
3.883436322212219238e-03
-2.905315160751342773e-02
5.146786570549011230e-02
-5.932874977588653564e-03
-1.428063958883285522e-02
-9.734630584716796875e-03
2.918295562267303467e-03
4.614812135696411133e-02
-5.124489963054656982e-02
-8.134961128234863281e-03
-3.579609096050262451e-03
-3.829678148031234741e-02
-6.156774610280990601e-02
-3.389433026313781738e-02
-4.469830542802810669e-02
9.710684418678283691e-03
5.812282860279083252e-02
7.008165121078491211e-03
7.251150906085968018e-03
-4.177289456129074097e-02
-1.168818771839141846e-02
4.466749727725982666e-02
-5.374314635992050171e-02
4.559756815433502197e-02
-5.840987712144851685e-02
5.252078175544738770e-03
-5.691699683666229248e-02
4.714380949735641479e-02
-4.827786237001419067e-02
6.211753934621810913e-02
-4.093131422996520996e-02
2.961618453264236450e-02
-4.451163113117218018e-02
3.048907220363616943e-02
-3.681125491857528687e-02
4.615575075149536133e-03
-3.845680505037307739e-02
2.353584766387939453e-02
-6.293743848800659180e-03
-5.843921005725860596e-02
-6.007017940282821655e-02
-2.662901580333709717e-02
-2.315092831850051880e-02
1.166419684886932373e-02
3.093503415584564209e-02
-2.280975878238677979e-02
5.630370229482650757e-02
6.219080090522766113e-02
-3.089495003223419189e-02
4.728391766548156738e-02
-3.281340003013610840e-02
-5.889464169740676880e-02
-2.965331077575683594e-03
-5.361095815896987915e-02
-5.907425284385681152e-02
4.229930043220520020e-02
2.633842825889587402e-02
1.192788779735565186e-02
-1.754599809646606445e-02
-3.610245138406753540e-02
-2.780700474977493286e-02
1.841809600591659546e-02
7.150627672672271729e-03
-1.932834833860397339e-02
1.414348930120468140e-02
4.816062003374099731e-02
-5.317377299070358276e-02
3.111787140369415283e-03
-2.904736995697021484e-02
-5.067324638366699219e-02
-1.519698649644851685e-02
5.862198770046234131e-02
-2.879125624895095825e-02
3.432634472846984863e-02
-2.402863651514053345e-02
5.960972607135772705e-02
4.666535556316375732e-02
-3.154303133487701416e-02
3.914809972047805786e-02
-3.921674937009811401e-02
3.986421227455139160e-02
4.069586843252182007e-02
4.943240433931350708e-02
-1.706510037183761597e-02
-4.497478157281875610e-02
-5.869047343730926514e-02
3.047193586826324463e-02
2.839185297489166260e-03
1.155485957860946655e-02
1.799213141202926636e-02
2.467281371355056763e-02
-3.377015143632888794e-02
6.507247686386108398e-03
-8.466072380542755127e-03
-1.290339231491088867e-02
2.230767905712127686e-02
5.078031867742538452e-02
5.235981941223144531e-02
3.663752973079681396e-02
-2.469336241483688354e-02
2.901481837034225464e-02
2.080876380205154419e-02
-2.221912145614624023e-04
1.464943587779998779e-02
2.631036192178726196e-02
1.691381633281707764e-02
6.041920185089111328e-02
4.358316957950592041e-02
-2.296508848667144775e-02
-4.130370169878005981e-02
-3.164076805114746094e-02
2.181642502546310425e-02
-4.522918909788131714e-02
9.089961647987365723e-03
1.574134081602096558e-02
8.671544492244720459e-03
-6.056664139032363892e-02
-3.497567772865295410e-02
1.481714844703674316e-02
-4.490099847316741943e-02
6.044175475835800171e-02
-4.841239750385284424e-02
2.429068088531494141e-02
2.902396023273468018e-03
-5.799220502376556396e-02
3.006635606288909912e-02
-3.206457942724227905e-02
1.953753829002380371e-02
5.193007737398147583e-02
4.187776893377304077e-02
-9.692385792732238770e-04
-3.523110598325729370e-02
6.186562776565551758e-02
-3.253230452537536621e-02
3.709816187620162964e-02
-2.571170032024383545e-02
-3.406026214361190796e-02
2.207145094871520996e-03
2.198673784732818604e-03
6.359450519084930420e-03
1.961894333362579346e-02
4.389242827892303467e-02
-5.186095833778381348e-03
-1.494508981704711914e-02
5.691624432802200317e-02
-1.632075756788253784e-02
3.879887610673904419e-02
-6.096367537975311279e-02
2.243916690349578857e-02
2.246144413948059082e-02
2.535524964332580566e-02
4.174678772687911987e-02
-4.005052149295806885e-03
-2.214933186769485474e-02
-3.075733035802841187e-02
-4.116133600473403931e-02
4.413838684558868408e-02
-2.013311535120010376e-02
2.260957658290863037e-02
-5.551662296056747437e-02
1.729336380958557129e-02
-4.122171550989151001e-02
-2.270794659852981567e-02
1.115944236516952515e-02
-6.601430475711822510e-03
-1.139135658740997314e-02
-5.600636452436447144e-02
-2.875068783760070801e-02
-5.422963201999664307e-02
2.992079406976699829e-02
-6.160792708396911621e-02
-3.665038943290710449e-02
-4.304507374763488770e-02
2.041034400463104248e-02
5.437942594289779663e-02
-2.592273056507110596e-03
-5.901271849870681763e-02
-1.922217011451721191e-02
-6.177600473165512085e-02
3.721994161605834961e-02
5.441214889287948608e-02
6.079202890396118164e-02
-1.370821893215179443e-02
-4.605359584093093872e-02
1.044034957885742188e-02
7.286965847015380859e-04
2.207141369581222534e-02
7.401905953884124756e-03
2.826337516307830811e-02
-2.971571683883666992e-02
-4.174388200044631958e-02
-2.619003504514694214e-02
-1.761448383331298828e-02
-4.253783822059631348e-02
9.329564869403839111e-03
1.038685441017150879e-04
5.626067519187927246e-03
-5.611404031515121460e-02
1.291821897029876709e-02
-2.462362498044967651e-02
8.699126541614532471e-03
-6.148163974285125732e-02
