-2.549040615558624268e-01
-2.307238243520259857e-02
3.326527476310729980e-01
-1.162730604410171509e-01
-7.023283094167709351e-02
2.130610309541225433e-02
2.756910622119903564e-01
3.696923255920410156e-01
1.514452546834945679e-01
1.204388067126274109e-01
1.283887773752212524e-01
3.322956264019012451e-01
1.441162973642349243e-01
2.114025503396987915e-01
5.485656112432479858e-02
4.420797526836395264e-01
1.299251019954681396e-01
-7.961306720972061157e-02
2.481238692998886108e-01
7.663836330175399780e-02
2.337113767862319946e-01
-1.343986392021179199e-01
-1.651969552040100098e-01
1.590974926948547363e-01
2.507309317588806152e-01
3.619113564491271973e-01
2.409766018390655518e-01
4.734164774417877197e-01
-2.673414647579193115e-01
-1.152153372764587402e+00
-7.684182375669479370e-02
-2.211236953735351562e-01
-2.874563038349151611e-01
-4.957103729248046875e-01
-3.638168424367904663e-02
-4.929049313068389893e-02
8.123312145471572876e-02
-1.452459692955017090e-01
5.369267612695693970e-02
2.856008112430572510e-01
-8.391381800174713135e-02
-2.418120503425598145e-01
-3.269854784011840820e-01
2.089397460222244263e-01
3.330169022083282471e-01
-2.312696427106857300e-01
-4.168741703033447266e-01
9.248347580432891846e-02
1.542968153953552246e-01
1.158930733799934387e-01
1.097233369946479797e-01
4.093311429023742676e-01
3.737626671791076660e-01
9.521762281656265259e-02
-1.724669635295867920e-01
-1.614022254943847656e-01
-1.599559560418128967e-02
2.800355553627014160e-01
4.066559374332427979e-01
7.284221798181533813e-02
-2.288634181022644043e-01
2.382339537143707275e-02
8.633346110582351685e-02
1.533308327198028564e-01
1.488621234893798828e-01
-1.410756260156631470e-01
-5.256558768451213837e-03
-3.713934123516082764e-02
-9.384906291961669922e-02
1.591273099184036255e-01
2.912360802292823792e-02
-1.584718972444534302e-01
-4.572944715619087219e-02
-2.636812031269073486e-01
-2.921664621680974960e-03
4.978885948657989502e-01
-7.982999086380004883e-02
-6.414120793342590332e-01
-4.801449477672576904e-01
7.594384253025054932e-02
-2.841415407601743937e-04
-2.490013986825942993e-01
-3.829166293144226074e-01
-2.032402157783508301e-02
7.925136387348175049e-02
-1.783906072378158569e-01
-8.292499184608459473e-02
-4.915555939078330994e-02
1.881367117166519165e-01
-2.154455631971359253e-01
-2.518686652183532715e-01
5.062522366642951965e-02
1.701907217502593994e-01
8.343335241079330444e-02
-5.139283835887908936e-02
-1.243570540100336075e-02
1.672273278236389160e-01
-5.073682405054569244e-03
-1.981643587350845337e-02
8.639640361070632935e-02
7.847828418016433716e-02
-2.349568605422973633e-01
-5.574402585625648499e-02
-2.086378633975982666e-01
-2.044652253389358521e-01
1.085282303392887115e-02
-1.510281860828399658e-01
-2.719704210758209229e-01
1.487757917493581772e-02
4.123053327202796936e-02
-4.110787436366081238e-02
-3.764259442687034607e-02
-1.115599945187568665e-01
-9.548904374241828918e-03
-1.312495470046997070e-01
-1.009548008441925049e-01
2.888073585927486420e-02
-3.805923089385032654e-02
-9.412568807601928711e-02
-5.390083417296409607e-02
2.098743915557861328e-01
8.953068405389785767e-03
-1.867071688175201416e-01
-1.349000483751296997e-01
5.610131472349166870e-02
-5.650765821337699890e-02
1.621378362178802490e-01
4.051564037799835205e-01
3.240014016628265381e-01
1.839657276868820190e-01
-2.228182973340153694e-03
-6.274358928203582764e-02
-2.103616744279861450e-01
-4.159353300929069519e-02
-5.432653054594993591e-02
4.886817187070846558e-02
-8.001589030027389526e-02
-6.153141707181930542e-02
4.784798994660377502e-02
-4.497024044394493103e-02
1.035693436861038208e-01
-7.818412780761718750e-02
-1.267229318618774414e-01
1.341671682894229889e-02
1.276199612766504288e-02
-3.912180662155151367e-02
-4.779628664255142212e-02
-3.001002408564090729e-02
-1.132103130221366882e-01
-1.262015104293823242e-01
-4.648397266864776611e-01
-1.036013513803482056e-01
1.534500271081924438e-01
-2.487630397081375122e-01
-3.074352145195007324e-01
-1.126385807991027832e+00
-7.369972467422485352e-01
-2.304980903863906860e-01
-5.212914943695068359e-01
-4.963503777980804443e-01
1.746717691421508789e-01
-2.528328597545623779e-01
-3.819493949413299561e-01
1.406174153089523315e-01
-3.257235884666442871e-01
-3.330349922180175781e-03
2.266830354928970337e-01
1.870699524879455566e-01
-2.066615670919418335e-01
-4.428883492946624756e-01
-2.816438376903533936e-01
2.272516191005706787e-01
2.485326528549194336e-01
-1.874426901340484619e-01
-6.615428924560546875e-01
3.617069870233535767e-02
2.920787036418914795e-01
3.515477776527404785e-01
-7.876496016979217529e-02
1.468154694885015488e-02
-7.514445576816797256e-03
-7.462288253009319305e-03
1.177543848752975464e-01
-4.995982348918914795e-02
-2.263055443763732910e-01
1.124823614954948425e-01
9.856415539979934692e-02
3.111023397650569677e-04
-7.495416402816772461e-01
-1.266959756612777710e-01
8.202065527439117432e-02
-9.194142371416091919e-02
-3.061265945434570312e-01
-7.958220839500427246e-01
2.738256454467773438e-01
-4.220039024949073792e-02
-1.810959428548812866e-01
-8.258620500564575195e-01
-9.699145555496215820e-01
3.755243718624114990e-01
-6.895327568054199219e-02
2.853886485099792480e-01
1.660545617341995239e-01
-5.910780280828475952e-02
-2.118547409772872925e-01
-1.544357687234878540e-01
1.195285990834236145e-01
6.330083310604095459e-02
-1.128180846571922302e-01
-1.337943375110626221e-01
-2.132922224700450897e-02
1.347225252538919449e-02
-3.386488556861877441e-02
-1.515666097402572632e-01
7.130234688520431519e-02
2.842508838512003422e-04
-1.406419724225997925e-01
1.263559423387050629e-02
4.872339963912963867e-02
1.453854590654373169e-01
2.122047096490859985e-01
5.247403681278228760e-02
1.905831843614578247e-01
7.222933322191238403e-02
2.914390563964843750e-01
-2.701170369982719421e-02
2.117929793894290924e-02
-1.183444540947675705e-02
5.749774724245071411e-02
3.339173272252082825e-02
-5.469897985458374023e-01
-1.018172264099121094e+00
-1.303828835487365723e+00
-5.171353816986083984e-01
-7.951944470405578613e-01
-2.361670881509780884e-01
-8.694340586662292480e-01
-7.099885344505310059e-01
-5.419239401817321777e-01
-4.713734090328216553e-01
-2.352249473333358765e-01
-2.481950968503952026e-01
-1.263147145509719849e-01
-3.710316121578216553e-01
-5.804618000984191895e-01
-4.538500308990478516e-01
8.835282921791076660e-02
-1.392230093479156494e-01
-1.295740604400634766e-01
-4.523977935314178467e-01
3.914076834917068481e-02
-1.505209952592849731e-01
1.516294628381729126e-01
3.759844601154327393e-02
-3.032882139086723328e-02
8.239392191171646118e-02
-3.363040387630462646e-01
-2.293236106634140015e-01
-5.644580721855163574e-02
-4.870359785854816437e-03
2.181333675980567932e-02
-5.486777424812316895e-01
-4.806658923625946045e-01
-4.385342299938201904e-01
-2.272096872329711914e-01
1.084532439708709717e-01
-3.250040411949157715e-01
-1.654371060431003571e-02
-2.022149860858917236e-01
1.188254132866859436e-01
-1.190373450517654419e-01
-3.331097662448883057e-01
2.485440485179424286e-02
9.878402948379516602e-02
-9.093514084815979004e-02
-1.511200815439224243e-01
-1.179241109639406204e-02
4.515656828880310059e-01
4.607077240943908691e-01
-2.791471779346466064e-01
-2.852290496230125427e-02
-3.606912866234779358e-02
2.134448736906051636e-01
6.242861226201057434e-02
-2.337790280580520630e-01
1.615707576274871826e-02
2.475602738559246063e-02
1.764474511146545410e-01
4.739234223961830139e-02
-7.609520852565765381e-02
5.101071298122406006e-02
3.397709503769874573e-02
1.487149298191070557e-01
4.058814421296119690e-02
-9.288848191499710083e-02
-8.396042138338088989e-02
-3.337226808071136475e-01
-7.054213434457778931e-02
3.532569855451583862e-02
-6.719823181629180908e-02
8.753079921007156372e-02
-2.984292618930339813e-02
-1.326840952970087528e-03
-1.755862534046173096e-01
1.446678023785352707e-02
2.283834218978881836e-01
2.249015122652053833e-02
-2.157090753316879272e-01
-2.558858096599578857e-01
2.943973429501056671e-02
-2.033045049756765366e-03
-1.504832059144973755e-01
-1.280272603034973145e-01
-8.884267508983612061e-02
-3.912788257002830505e-02
2.701646685600280762e-01
-1.109579652547836304e-01
-2.523270249366760254e-01
-5.004918947815895081e-02
-2.237916179001331329e-02
2.516857981681823730e-01
1.438926756381988525e-01
-9.772602468729019165e-02
-1.804007738828659058e-01
4.105037823319435120e-02
-2.437486201524734497e-01
-1.467575579881668091e-01
5.611066892743110657e-02
4.746509715914726257e-02
1.896751075983047485e-01
1.867471039295196533e-01
1.643101572990417480e-01
1.014111489057540894e-01
8.912481367588043213e-02
2.593630850315093994e-01
1.687368303537368774e-01
1.437266077846288681e-02
4.053420424461364746e-01
1.420462280511856079e-01
-1.404125690460205078e-01
-9.361407905817031860e-02
-3.486019670963287354e-01
-9.005832672119140625e-01
-5.289419293403625488e-01
-3.084085583686828613e-01
-2.659273743629455566e-01
-9.240830689668655396e-02
1.121222004294395447e-01
-1.615591160953044891e-02
-9.542524814605712891e-03
-7.202783972024917603e-02
-1.102026477456092834e-01
-3.264489769935607910e-02
9.867267310619354248e-02
9.653020650148391724e-02
-5.849577486515045166e-02
-6.597530841827392578e-02
1.404702104628086090e-02
4.160372912883758545e-02
1.216777786612510681e-01
5.789316818118095398e-02
1.796880736947059631e-02
7.197858212748542428e-05
-3.436265885829925537e-02
-2.077893912792205811e-02
3.124136291444301605e-02
1.492832154035568237e-01
1.634302735328674316e-01
-2.660628873854875565e-03
-1.090234965085983276e-01
9.545556455850601196e-02
7.698019593954086304e-02
1.668273508548736572e-01
5.809197947382926941e-02
-3.427279368042945862e-02
1.548688858747482300e-01
2.408080548048019409e-02
-6.731449067592620850e-02
-6.791286915540695190e-02
-1.498105749487876892e-02
1.991382986307144165e-01
-1.433160435408353806e-02
8.551622927188873291e-02
1.501522660255432129e-01
8.233103901147842407e-02
1.662565320730209351e-01
-1.073509827256202698e-02
1.189522817730903625e-01
-1.301060765981674194e-01
-2.141479551792144775e-01
2.037019431591033936e-01
-2.517265379428863525e-01
-3.073216080665588379e-01
-4.437301158905029297e-01
-2.060426175594329834e-01
-1.998506486415863037e-02
-8.077468723058700562e-03
2.029923023656010628e-03
2.508506551384925842e-02
1.737772226333618164e-01
1.962785124778747559e-01
1.350833624601364136e-01
1.589939147233963013e-01
3.016097657382488251e-02
2.294619195163249969e-02
6.268197298049926758e-02
1.672450304031372070e-01
1.666732281446456909e-01
-1.665880084037780762e-01
-1.014950647950172424e-01
-9.203604608774185181e-02
-1.982780098915100098e-01
1.910663247108459473e-01
-1.417970061302185059e-01
-8.795187622308731079e-02
1.378570646047592163e-01
-1.129571720957756042e-02
-3.219691663980484009e-02
-9.350977092981338501e-02
5.062403902411460876e-02
-4.330586642026901245e-02
-6.507886573672294617e-03
2.528997138142585754e-02
-2.101778611540794373e-02
2.461023926734924316e-01
4.182019084692001343e-02
1.155957430601119995e-01
2.178654372692108154e-01
7.316345721483230591e-02
-1.053702551871538162e-02
-4.939224943518638611e-02
1.317583173513412476e-01
2.352496981620788574e-01
4.563255608081817627e-02
-8.434128016233444214e-02
3.546526283025741577e-02
1.777558773756027222e-02
-3.090582974255084991e-02
3.764713183045387268e-02
-7.809532433748245239e-02
5.621433258056640625e-02
-4.195710122585296631e-01
-8.809613585472106934e-01
-9.968830943107604980e-01
-7.144508510828018188e-02
-5.034294724464416504e-02
-1.525362491607666016e+00
-2.372630596160888672e+00
-1.295617103576660156e+00
-1.335587352514266968e-01
5.442461371421813965e-01
2.013970911502838135e-01
4.388602077960968018e-01
2.657311558723449707e-01
3.395986258983612061e-01
3.423823043704032898e-02
-3.514605015516281128e-02
-5.074443295598030090e-03
-5.093159899115562439e-02
1.848508268594741821e-01
-8.183178305625915527e-02
-8.795130252838134766e-02
-1.895369738340377808e-01
-3.583760857582092285e-01
-1.503820568323135376e-01
-3.030570968985557556e-02
-1.587713360786437988e-01
-2.107557654380798340e-01
-6.647208333015441895e-01
-5.649636983871459961e-01
-1.746454089879989624e-01
-6.797938942909240723e-01
-5.944181680679321289e-01
-4.697816371917724609e-01
-9.324079751968383789e-01
-2.764358818531036377e-01
-2.121690809726715088e-01
7.348028570413589478e-02
2.347486168146133423e-01
4.617763683199882507e-02
-1.260478049516677856e-01
1.581512242555618286e-01
1.657928228378295898e-01
9.477236121892929077e-02
-1.041677668690681458e-01
-7.176201790571212769e-02
7.427398115396499634e-02
-1.349369138479232788e-01
-1.874225139617919922e-01
3.293561041355133057e-01
1.609462052583694458e-01
3.434616327285766602e-02
-1.891102790832519531e-01
-5.980359017848968506e-02
-3.426605090498924255e-02
4.278813004493713379e-01
2.215790301561355591e-01
7.701289653778076172e-02
-3.342850506305694580e-02
-3.112222552299499512e-01
1.482500284910202026e-01
-2.797288894653320312e-01
-3.069308400154113770e-01
-3.782332241535186768e-01
-1.352452933788299561e-01
1.554295271635055542e-01
-1.237338408827781677e-01
-2.476767748594284058e-01
-1.153281256556510925e-01
-5.918776988983154297e-02
1.578064262866973877e-01
-5.429321527481079102e-02
-1.899630129337310791e-01
-5.170185863971710205e-02
9.097282588481903076e-02
2.600181102752685547e-02
-1.385579407215118408e-01
-1.813786178827285767e-01
4.243808239698410034e-02
4.054641723632812500e-01
-3.163771703839302063e-03
-8.445654064416885376e-02
-1.260781735181808472e-01
1.860727667808532715e-01
3.037726581096649170e-01
-2.810306549072265625e-01
1.475576013326644897e-01
2.630648016929626465e-01
5.209807306528091431e-02
3.769547045230865479e-01
1.919289492070674896e-02
7.647077739238739014e-02
3.291382268071174622e-02
-9.796136617660522461e-02
1.420517265796661377e-01
2.003359049558639526e-01
1.940874941647052765e-02
3.531274199485778809e-02
5.872271955013275146e-03
2.264473289251327515e-01
2.029145509004592896e-01
6.840957701206207275e-02
1.393827609717845917e-02
-1.628157347440719604e-01
2.400459349155426025e-01
-2.202321216464042664e-02
-1.887026615440845490e-02
-1.511403638869524002e-02
-1.128089725971221924e-01
-2.364772558212280273e-01
-3.708975613117218018e-01
-4.310733079910278320e-02
9.814094752073287964e-03
2.081943303346633911e-02
1.809665933251380920e-02
-1.727986335754394531e-01
2.140636742115020752e-02
9.124921634793281555e-03
1.145968586206436157e-02
1.055826842784881592e-01
4.841165989637374878e-02
-1.423563156276941299e-02
1.423737108707427979e-01
-2.250753343105316162e-02
1.112689152359962463e-01
1.424968987703323364e-02
3.502918779850006104e-02
6.237766891717910767e-02
-3.863854333758354187e-02
9.893571026623249054e-03
-4.794328287243843079e-02
6.332498788833618164e-02
-1.275449059903621674e-02
-1.083195209503173828e-01
-1.657806038856506348e-01
-7.902929186820983887e-02
9.059418225660920143e-04
1.393583714962005615e-01
1.115166209638118744e-02
-2.482522279024124146e-01
-1.513921916484832764e-01
-6.648965179920196533e-02
-4.781064391136169434e-02
-7.591420318931341171e-03
2.283991500735282898e-02
-2.840038202702999115e-02
3.216525167226791382e-02
-9.668821096420288086e-02
-4.387491941452026367e-02
2.250130474567413330e-01
-2.329916134476661682e-02
-7.243833504617214203e-03
2.967126294970512390e-02
1.192643344402313232e-01
1.518675982952117920e-01
2.109624743461608887e-01
1.346864998340606689e-01
1.637471020221710205e-01
9.107458591461181641e-02
-1.739322096109390259e-01
-1.157696396112442017e-01
2.017478048801422119e-01
-2.600741386413574219e-01
-3.195038139820098877e-01
-2.994437813758850098e-01
3.789476156234741211e-01
3.301610648632049561e-01
2.774184048175811768e-01
1.414896249771118164e-01
-6.929235905408859253e-02
2.761067450046539307e-01
6.970999389886856079e-02
2.440825700759887695e-01
4.688532352447509766e-01
2.590325176715850830e-01
3.033633343875408173e-02
-4.041069447994232178e-01
1.767988055944442749e-01
2.272924780845642090e-01
4.007644206285476685e-02
-6.161081194877624512e-01
-2.069049179553985596e-01
3.036684915423393250e-02
-2.282309345901012421e-02
-2.258512228727340698e-01
-1.012889444828033447e-01
-4.659165069460868835e-02
1.519346386194229126e-01
2.367828190326690674e-01
-2.037463337182998657e-02
-1.127148047089576721e-01
-3.524527326226234436e-02
1.668137907981872559e-01
1.660911887884140015e-01
-1.441293805837631226e-01
-2.124804407358169556e-01
-6.830827146768569946e-02
7.408118806779384613e-03
2.414491958916187286e-02
-1.345017850399017334e-01
1.496394127607345581e-01
1.398148834705352783e-01
-2.976268343627452850e-02
-1.616993248462677002e-01
5.570271611213684082e-02
1.588115543127059937e-01
1.731989532709121704e-01
-3.041493892669677734e-01
-3.770492374897003174e-01
4.609821736812591553e-02
-9.862021356821060181e-02
1.400739997625350952e-01
1.928266137838363647e-01
-1.536908745765686035e-01
-2.333529442548751831e-01
2.530387341976165771e-01
1.138658151030540466e-01
2.390889227390289307e-01
-8.715918660163879395e-02
-1.526956260204315186e-01
5.433357879519462585e-02
2.781668864190578461e-02
-4.186888411641120911e-02
-3.371749538928270340e-03
1.352995913475751877e-02
5.760677903890609741e-02
2.270784229040145874e-02
-2.920605838298797607e-01
-1.128521263599395752e-01
2.236170172691345215e-01
6.993281841278076172e-02
1.044876575469970703e-01
-3.684597015380859375e-01
-1.784136593341827393e-01
1.066272556781768799e-01
-2.795360982418060303e-01
2.196059823036193848e-01
3.212292790412902832e-01
-2.832069098949432373e-01
-1.240733861923217773e-01
-1.377990543842315674e-01
3.394260406494140625e-01
3.690136075019836426e-01
-5.061478540301322937e-02
-4.523299634456634521e-02
-1.974005401134490967e-01
1.751245111227035522e-01
1.286826878786087036e-01
1.064862087368965149e-01
-2.934429608285427094e-02
2.339908927679061890e-01
-9.570531547069549561e-02
2.312009967863559723e-02
6.986208260059356689e-02
5.810851603746414185e-02
1.848229020833969116e-01
-3.872871100902557373e-01
-3.153708577156066895e-01
1.733818799257278442e-01
1.467711627483367920e-01
1.902461349964141846e-01
-1.430220007896423340e-01
-2.004937529563903809e-01
-3.465283811092376709e-01
-7.194819301366806030e-02
3.774273023009300232e-02
1.348050087690353394e-01
2.033807039260864258e-01
-3.351496905088424683e-02
-1.318458765745162964e-01
-7.005526870489120483e-02
-1.018453110009431839e-02
9.207817167043685913e-02
4.837160557508468628e-02
3.974016010761260986e-02
-3.970240950584411621e-01
-2.527283728122711182e-01
4.893985763192176819e-02
1.321980543434619904e-02
-8.764273673295974731e-02
-1.791396588087081909e-01
-1.222818270325660706e-01
-1.162345707416534424e-02
-1.194525286555290222e-01
1.721545867621898651e-02
-2.766914367675781250e-01
-7.170431017875671387e-01
8.069498091936111450e-02
2.014050036668777466e-01
3.047498175874352455e-03
-1.970169693231582642e-01
-4.113103821873664856e-02
8.775590360164642334e-02
-1.231883838772773743e-02
-4.724633414298295975e-03
-8.657613396644592285e-02
1.098980903625488281e-01
3.793450072407722473e-02
-2.450281828641891479e-01
-4.493175074458122253e-02
6.032708287239074707e-02
3.351368308067321777e-01
1.744399368762969971e-01
-7.088436931371688843e-02
1.205313019454479218e-02
2.232101708650588989e-01
2.515236139297485352e-01
-6.831923872232437134e-02
3.961402922868728638e-02
-3.547623381018638611e-02
1.470778137445449829e-01
-8.524854779243469238e-01
-7.180051505565643311e-02
2.939703464508056641e-01
5.372350811958312988e-01
-1.987149417400360107e-01
-4.523931443691253662e-01
3.464791178703308105e-01
2.292946279048919678e-01
7.827546447515487671e-02
-3.928725719451904297e-01
1.033654808998107910e-01
3.083875477313995361e-01
3.700723499059677124e-02
-2.747053802013397217e-01
-2.796179950237274170e-01
3.768873214721679688e-01
1.664135754108428955e-01
-8.101346343755722046e-02
-1.091216653585433960e-01
1.080797612667083740e-01
4.574165642261505127e-01
-3.036776483058929443e-01
-4.593415558338165283e-01
-3.978752493858337402e-01
-1.741965673863887787e-02
3.023230656981468201e-02
3.229444324970245361e-01
1.184786483645439148e-01
4.437648877501487732e-02
5.873162671923637390e-02
5.280192941427230835e-02
-2.889574132859706879e-02
-1.112615987658500671e-01
-7.472076267004013062e-02
1.160320937633514404e-01
1.351908147335052490e-01
-1.828037202358245850e-02
-1.981256306171417236e-01
4.263296350836753845e-02
-1.701432466506958008e-02
9.285534173250198364e-02
-6.573343276977539062e-02
8.122761547565460205e-02
1.922037303447723389e-01
-7.904124259948730469e-02
4.473146796226501465e-02
-1.940232217311859131e-01
7.845757901668548584e-02
1.769673544913530350e-03
2.148221731185913086e-01
2.378721535205841064e-01
1.519407331943511963e-01
2.745545208454132080e-01
-2.182900458574295044e-01
1.780662387609481812e-01
-2.633757889270782471e-02
-1.142597664147615433e-02
1.492684632539749146e-01
-3.699417458847165108e-03
2.308012098073959351e-01
1.809724234044551849e-02
6.408510729670524597e-03
-6.751935184001922607e-02
-1.855431795120239258e-01
9.838525950908660889e-02
8.280797302722930908e-02
-9.638033062219619751e-02
-1.043833643198013306e-01
-2.403774261474609375e-01
1.566962301731109619e-01
6.393066793680191040e-02
1.587090343236923218e-01
1.998473256826400757e-01
-2.798839807510375977e-01
2.497591078281402588e-01
3.672007024288177490e-01
6.568943709135055542e-02
-4.228035807609558105e-01
-2.472917735576629639e-01
1.407794654369354248e-01
2.978700399398803711e-02
-1.922891288995742798e-01
-2.134926170110702515e-01
-1.066942811012268066e-01
1.591496020555496216e-01
-4.898211359977722168e-02
-2.007951438426971436e-01
-4.088345542550086975e-02
2.053342759609222412e-01
1.362041085958480835e-01
-3.198251426219940186e-01
-1.061059311032295227e-01
6.924399174749851227e-03
1.990883946418762207e-01
-1.826030910015106201e-01
-2.238907963037490845e-01
1.845763027667999268e-01
6.797265261411666870e-02
6.158842518925666809e-02
-7.589023113250732422e-01
-7.851899266242980957e-01
-5.306993722915649414e-01
-5.934518203139305115e-02
2.146159484982490540e-02
-8.655523657798767090e-01
-8.014144897460937500e-01
-9.360767900943756104e-02
-1.690574362874031067e-02
-7.082542032003402710e-02
-7.659072279930114746e-01
-2.744732499122619629e-01
1.445751637220382690e-01
5.767427012324333191e-02
-4.659534618258476257e-02
-1.757310330867767334e-01
9.149221330881118774e-02
-7.757673412561416626e-02
-3.980995714664459229e-02
3.093329444527626038e-02
-1.049583330750465393e-01
-7.031463086605072021e-02
-1.564301699399948120e-01
6.528352946043014526e-02
1.029839813709259033e-01
-1.781683564186096191e-01
-2.068225145339965820e-01
1.915873400866985321e-02
1.524227410554885864e-01
2.406618446111679077e-01
6.414183229207992554e-02
9.359320998191833496e-02
2.001673914492130280e-02
-7.985205203294754028e-02
-3.596212714910507202e-02
5.567174404859542847e-02
2.662418782711029053e-01
7.520031183958053589e-02
1.020919065922498703e-02
-3.939486667513847351e-02
-4.054618999361991882e-03
1.124396994709968567e-01
-2.971765771508216858e-02
-6.403250247240066528e-02
8.358847349882125854e-02
5.346939340233802795e-02
-1.592844165861606598e-02
-5.759920924901962280e-02
-1.458374559879302979e-01
9.146136045455932617e-02
-3.515122234821319580e-01
7.185665518045425415e-02
1.262827664613723755e-01
-7.204723358154296875e-02
-3.102231323719024658e-01
2.621397972106933594e-01
2.615032792091369629e-01
9.416753798723220825e-02
2.870702743530273438e-01
-2.844020538032054901e-02
1.795701533555984497e-01
5.490931123495101929e-02
-7.937341183423995972e-02
2.142600566148757935e-01
3.186612129211425781e-01
-3.139230608940124512e-02
-8.659346401691436768e-02
-2.479636967182159424e-01
-2.923397347331047058e-03
3.704610466957092285e-01
-1.395749300718307495e-01
1.966609247028827667e-02
-2.858307659626007080e-01
-7.451114803552627563e-02
6.578786969184875488e-01
1.929372400045394897e-01
1.700135469436645508e-01
-3.700172305107116699e-01
-1.967845857143402100e-02
-3.607526123523712158e-01
-6.688829511404037476e-02
-2.926864922046661377e-01
7.326093316078186035e-02
-7.398092150688171387e-01
-1.548189222812652588e-01
-1.888951659202575684e-01
-3.109453618526458740e-01
6.200999766588211060e-02
-1.762558072805404663e-01
4.660056158900260925e-02
6.106264516711235046e-02
1.772384494543075562e-01
1.287183910608291626e-01
-2.275168597698211670e-01
7.102315779775381088e-03
-4.874692484736442566e-02
-7.259687781333923340e-01
-1.686981916427612305e+00
-1.757665753364562988e+00
-5.485941767692565918e-01
1.510985344648361206e-01
5.203169584274291992e-02
-4.911563172936439514e-02
2.249831259250640869e-01
2.482032924890518188e-01
2.146858572959899902e-01
3.115831613540649414e-01
1.300266236066818237e-01
5.181416496634483337e-02
7.061773911118507385e-03
1.126570999622344971e-01
6.494583189487457275e-02
3.237535953521728516e-01
6.667755544185638428e-02
1.230152249336242676e-01
-4.199352264404296875e-01
-2.385317161679267883e-02
-2.473605982959270477e-02
-3.401840925216674805e-01
-3.420373499393463135e-01
-2.489801496267318726e-01
2.441930212080478668e-02
-2.697254121303558350e-01
-5.166106224060058594e-01
-5.303295850753784180e-01
-1.341290771961212158e-01
-2.778673470020294189e-01
1.102447509765625000e-01
1.808437407016754150e-01
-4.242714047431945801e-01
-8.195876330137252808e-02
2.085142731666564941e-01
-4.362639505416154861e-03
1.479082852602005005e-01
-1.896716207265853882e-01
-9.858813881874084473e-02
-1.120276935398578644e-02
-2.299777567386627197e-01
3.697425425052642822e-01
-5.328084528446197510e-02
-2.798950374126434326e-01
-3.248321115970611572e-01
-3.992045819759368896e-01
2.615327239036560059e-01
1.040707807987928391e-02
-4.854153692722320557e-01
-7.052844166755676270e-01
-8.134477138519287109e-01
2.150381654500961304e-01
3.713487461209297180e-02
-1.246369108557701111e-01
-5.869975313544273376e-02
5.712217465043067932e-02
5.990375950932502747e-02
1.177243515849113464e-01
1.918370723724365234e-01
-1.644949316978454590e-01
1.603043377399444580e-01
1.061152890324592590e-01
-1.195639222860336304e-01
1.282508224248886108e-01
-1.222806498408317566e-01
-5.211290344595909119e-02
5.606022104620933533e-02
3.933682665228843689e-02
2.865710109472274780e-02
-7.400246802717447281e-03
-5.751601420342922211e-03
5.029287934303283691e-02
1.608354151248931885e-01
-2.512119524180889130e-02
-2.416460514068603516e-01
-6.267738342285156250e-02
1.947113275527954102e-01
2.470341920852661133e-01
1.167655363678932190e-01
1.047434061765670776e-01
-2.303358167409896851e-01
-1.285801976919174194e-01
7.194823026657104492e-02
-8.396525681018829346e-02
-3.135451674461364746e-01
-3.617053106427192688e-02
7.532929629087448120e-02
1.204777583479881287e-01
-1.504348218441009521e-01
-5.382617190480232239e-02
9.017002582550048828e-02
-5.913178995251655579e-02
9.071540087461471558e-02
-2.621838077902793884e-02
6.740670651197433472e-02
4.320862889289855957e-02
-2.129914984107017517e-02
-6.578040122985839844e-02
1.517703086137771606e-01
-1.994846165180206299e-01
-1.861560195684432983e-01
1.093598976731300354e-01
-1.316543817520141602e-01
8.970980346202850342e-02
-1.153810173273086548e-01
-3.916560113430023193e-01
-8.341529220342636108e-02
-5.328868627548217773e-01
3.960538804531097412e-01
1.234749332070350647e-02
8.319392055273056030e-02
9.683044627308845520e-03
4.582001268863677979e-02
1.820152997970581055e-01
1.201335042715072632e-01
-1.845266222953796387e-01
-3.735464811325073242e-01
-1.742996722459793091e-01
2.236016690731048584e-01
3.638293594121932983e-02
2.099542468786239624e-01
-8.311318606138229370e-02
5.816609412431716919e-02
-2.656154036521911621e-01
-3.127483725547790527e-01
1.060492321848869324e-01
1.495526432991027832e-01
2.332854717969894409e-01
-6.040501222014427185e-02
1.369859650731086731e-02
1.396605372428894043e-01
3.535484895110130310e-02
-8.005470037460327148e-02
-1.492400616407394409e-01
-2.346915006637573242e-01
-1.098175719380378723e-01
-1.068740710616111755e-01
-2.331625074148178101e-01
4.420400783419609070e-02
-1.131515577435493469e-01
-2.877371013164520264e-02
5.145844444632530212e-02
6.735051050782203674e-03
-1.319671571254730225e-01
-4.202390015125274658e-01
-9.804698079824447632e-02
8.352968096733093262e-02
-6.777793169021606445e-02
-1.890695840120315552e-01
-7.037661075592041016e-01
-8.483072519302368164e-01
-6.471400856971740723e-01
-3.964684307575225830e-01
-2.705544233322143555e-01
1.277749091386795044e-01
1.685409396886825562e-01
1.875791549682617188e-01
-2.088523060083389282e-01
3.777532279491424561e-02
4.418666288256645203e-02
2.702294290065765381e-01
1.031528264284133911e-01
-5.344339646399021149e-03
2.618151009082794189e-01
3.436245769262313843e-02
-1.227419078350067139e-01
-1.754803024232387543e-02
3.698894008994102478e-02
4.665828347206115723e-01
-2.192667499184608459e-02
1.125112101435661316e-01
-1.249841749668121338e-01
-4.550553113222122192e-02
1.478699296712875366e-01
2.513272166252136230e-01
-1.170630902051925659e-01
-1.013170257210731506e-01
5.183135718107223511e-02
1.364764571189880371e-01
2.292068153619766235e-01
4.167595505714416504e-02
-2.292381525039672852e-01
-2.262709476053714752e-02
1.017406955361366272e-01
2.229778915643692017e-01
-7.238248735666275024e-02
-1.351422667503356934e-01
-2.358809113502502441e-02
1.461211685091257095e-02
2.130710780620574951e-01
9.739880263805389404e-02
-7.335288822650909424e-02
-7.818672806024551392e-02
9.652078151702880859e-02
3.866190314292907715e-01
3.027545511722564697e-01
1.659208834171295166e-01
6.782100349664688110e-02
-3.154293596744537354e-01
-4.708068445324897766e-02
-4.034727066755294800e-02
-4.018863439559936523e-01
-6.872951984405517578e-01
2.913423478603363037e-01
1.532022655010223389e-01
-2.293602377176284790e-02
2.717205286026000977e-01
8.717430382966995239e-02
2.733185291290283203e-01
4.686230048537254333e-02
8.428018540143966675e-02
-6.207581236958503723e-02
1.726792901754379272e-01
1.110986173152923584e-01
5.390428006649017334e-02
8.197851479053497314e-02
-2.736104093492031097e-02
-1.584779322147369385e-01
-6.113786366768181324e-04
1.812949925661087036e-01
1.385264992713928223e-01
1.737018348649144173e-03
-5.414206907153129578e-02
-2.247809171676635742e-01
-8.140776306390762329e-02
2.960800379514694214e-02
-4.477444570511579514e-03
4.294778034090995789e-02
-3.032365441322326660e-02
-3.275109827518463135e-01
-3.966047167778015137e-01
1.018365845084190369e-01
3.977479040622711182e-01
-1.471250876784324646e-02
-2.267874628305435181e-01
-2.031669467687606812e-01
-8.879991620779037476e-02
6.034571211785078049e-03
-2.173387631773948669e-02
-1.577830016613006592e-01
-1.321473717689514160e-01
-1.403621584177017212e-01
-2.539029344916343689e-02
5.236864089965820312e-02
1.540942490100860596e-01
7.745736837387084961e-02
-1.502179056406021118e-01
-1.309519261121749878e-01
1.990903168916702271e-01
4.889883995056152344e-01
2.840625643730163574e-01
2.121589481830596924e-01
2.359848320484161377e-01
2.467823475599288940e-01
-1.550900936126708984e-02
-5.392901897430419922e-01
-2.051061689853668213e-01
-4.152186512947082520e-01
-3.530554473400115967e-01
8.979040384292602539e-02
1.078434735536575317e-01
2.040037661790847778e-01
-1.626457870006561279e-01
-1.575920730829238892e-01
2.091451436281204224e-01
2.625183165073394775e-01
-1.049947589635848999e-01
-2.320598214864730835e-01
5.445272475481033325e-02
4.527960419654846191e-01
1.141162067651748657e-01
-4.114561676979064941e-01
1.099214628338813782e-01
5.066092610359191895e-01
4.560289978981018066e-01
2.576359920203685760e-02
-9.592842459678649902e-01
-5.170371532440185547e-01
2.905847132205963135e-01
3.143526315689086914e-01
-9.202814660966396332e-03
-6.766144931316375732e-02
-9.092573821544647217e-02
1.308614313602447510e-01
8.218882977962493896e-02
-5.407488206401467323e-04
-6.824828684329986572e-02
-3.741197884082794189e-01
2.149717323482036591e-02
3.981945291161537170e-02
-1.282251030206680298e-01
-2.025695294141769409e-01
-4.585731029510498047e-01
-9.396281093358993530e-02
-5.949322134256362915e-02
-4.867552965879440308e-02
2.037023454904556274e-01
-6.206494942307472229e-02
-9.531525522470474243e-02
-3.109989501535892487e-02
9.833330661058425903e-02
5.351736545562744141e-01
1.827846318483352661e-01
2.168684899806976318e-01
2.983203530311584473e-01
1.261891573667526245e-01
1.987259238958358765e-01
2.172091752290725708e-01
-1.759992092847824097e-01
-2.404714748263359070e-02
3.538625687360763550e-02
3.694311529397964478e-02
1.279458403587341309e-01
-1.689014285802841187e-01
-7.375177741050720215e-02
-1.606535762548446655e-01
-1.409413516521453857e-01
-1.374594569206237793e-01
-4.572070669382810593e-03
-3.093384392559528351e-02
-2.377373725175857544e-01
-1.839839071035385132e-01
-2.928295731544494629e-01
1.406201869249343872e-01
1.525941640138626099e-01
4.259236156940460205e-02
1.761655062437057495e-01
-3.087957948446273804e-02
3.439746098592877388e-03
9.977190941572189331e-02
-1.044287160038948059e-01
-2.082086056470870972e-01
-1.442172825336456299e-01
1.144354790449142456e-01
9.055051207542419434e-02
-9.201004356145858765e-02
-2.649394050240516663e-02
-3.892315924167633057e-01
3.085212111473083496e-01
5.178393721580505371e-01
-4.342138767242431641e-01
-4.237771630287170410e-01
-3.430365920066833496e-01
-1.283557713031768799e-01
1.878088414669036865e-01
5.838014557957649231e-02
-1.245783641934394836e-01
-2.122192978858947754e-01
-2.056913375854492188e-01
2.602049708366394043e-01
1.086022555828094482e-01
-2.104319483041763306e-01
-1.303769797086715698e-01
-1.671222448348999023e-01
-4.136819541454315186e-01
-3.026532530784606934e-01
-7.243943866342306137e-03
3.145527094602584839e-02
-3.764302730560302734e-01
-2.580006420612335205e-01
-1.162906512618064880e-01
-1.524135321378707886e-01
1.078866538591682911e-03
-2.510522603988647461e-01
3.831236809492111206e-02
-1.542931329458951950e-02
5.660776421427726746e-02
4.946476966142654419e-02
-6.151247024536132812e-02
1.684663444757461548e-01
2.444442063570022583e-01
-1.152433604001998901e-01
-3.710984438657760620e-02
-7.420045137405395508e-02
2.651974260807037354e-01
5.108121037483215332e-01
5.927162617444992065e-02
3.678077459335327148e-02
1.685470342636108398e-01
4.091713950037956238e-02
-1.598513871431350708e-02
8.006621897220611572e-02
1.509859710931777954e-01
-6.318260729312896729e-02
-1.781431399285793304e-02
1.767330395523458719e-04
2.628691866993904114e-02
-2.940609306097030640e-02
-1.150494292378425598e-01
-1.050737425684928894e-01
2.198047190904617310e-02
-1.051590777933597565e-02
-2.009335532784461975e-02
-2.466321177780628204e-02
-8.987927436828613281e-02
-3.478720784187316895e-02
-1.382885724306106567e-01
-7.681660354137420654e-02
-2.232541590929031372e-01
-1.123524382710456848e-01
4.620876908302307129e-02
2.222762852907180786e-01
1.306804865598678589e-01
1.918028891086578369e-01
7.896852493286132812e-02
-3.714026510715484619e-01
1.147056594491004944e-01
3.580425679683685303e-01
3.889520093798637390e-02
4.286850243806838989e-02
-2.296811342239379883e-01
1.171614378690719604e-01
6.062519922852516174e-02
-5.961734801530838013e-02
-3.942334949970245361e-01
-6.213492155075073242e-01
6.433946639299392700e-02
5.011484399437904358e-02
-8.125197291374206543e-01
-3.659660816192626953e-01
-7.524719834327697754e-01
-3.532363772392272949e-01
-1.754048764705657959e-01
-4.095054045319557190e-02
3.399595618247985840e-02
-2.775748372077941895e-01
-3.975432515144348145e-01
3.975387290120124817e-02
1.428222954273223877e-01
-6.198076531291007996e-03
1.616560071706771851e-01
1.445016711950302124e-01
-2.206690162420272827e-01
2.369633018970489502e-01
6.001976504921913147e-02
1.250944882631301880e-01
8.341164141893386841e-02
-1.757213026285171509e-01
1.381740421056747437e-01
1.099788025021553040e-02
1.637086831033229828e-02
6.677451729774475098e-02
-1.452711373567581177e-01
1.868980973958969116e-01
4.603356122970581055e-02
1.126518622040748596e-01
-3.906114771962165833e-02
-2.035983800888061523e-01
1.184059232473373413e-01
-1.250304877758026123e-01
4.420097544789314270e-02
6.014442071318626404e-03
-2.936316430568695068e-01
-2.106110379099845886e-02
-9.073803573846817017e-02
4.540684819221496582e-02
6.947702262550592422e-03
-5.411917567253112793e-01
-2.795365452766418457e-01
-3.691430091857910156e-01
-2.497013360261917114e-01
-2.014592587947845459e-01
-4.519119858741760254e-01
-2.929711639881134033e-01
-7.924941368401050568e-03
1.679701209068298340e-01
-5.866576731204986572e-02
-6.421318054199218750e-01
6.453244388103485107e-02
1.345013976097106934e-01
1.560082882642745972e-01
-3.465301916003227234e-02
-4.702912569046020508e-01
4.354293271899223328e-02
1.483280118554830551e-02
3.938727080821990967e-02
-6.292815506458282471e-02
-1.156535521149635315e-01
7.854645699262619019e-02
7.548921555280685425e-02
4.367885738611221313e-02
3.920565918087959290e-02
3.531707078218460083e-02
-7.070605177432298660e-03
1.616050861775875092e-02
3.076893277466297150e-02
-1.337547320872545242e-02
5.159961059689521790e-02
-5.719931051135063171e-02
-6.888148933649063110e-02
-4.306458309292793274e-02
7.872859388589859009e-02
1.352771818637847900e-01
4.227678850293159485e-02
2.895576879382133484e-02
-1.246694624423980713e-01
-3.098853677511215210e-02
1.484144032001495361e-01
-1.660209149122238159e-01
-3.057731688022613525e-01
-4.689268767833709717e-01
3.533192677423357964e-03
2.081837654113769531e-01
3.124500513076782227e-01
-2.563098818063735962e-02
-5.370394587516784668e-01
-3.370898962020874023e-01
-1.672062575817108154e-01
1.725008487701416016e-01
-8.621900528669357300e-02
-3.993630409240722656e-01
1.729075908660888672e-01
1.450588647276163101e-02
-2.191563844680786133e-01
-5.709606409072875977e-01
-5.740053653717041016e-01
1.928497105836868286e-01
-2.624385617673397064e-02
-3.110436499118804932e-01
-1.332205682992935181e-01
-1.061747446656227112e-01
1.164048723876476288e-02
-1.561023443937301636e-01
-2.317977547645568848e-01
-5.059706792235374451e-02
-1.339467763900756836e-01
-7.945697754621505737e-02
1.252061724662780762e-01
1.416740864515304565e-01
-1.872938722372055054e-01
-3.362944126129150391e-01
9.158033132553100586e-02
2.318098843097686768e-01
4.057251848280429840e-03
-2.919057905673980713e-01
-5.424467846751213074e-03
1.628500521183013916e-01
1.378786116838455200e-01
-7.731979712843894958e-03
-2.115590125322341919e-01
-1.074898149818181992e-02
1.211889237165451050e-01
8.690343797206878662e-02
-2.689311504364013672e-01
-2.459951043128967285e-01
-3.511120751500129700e-02
1.302742632105946541e-03
-4.447353631258010864e-02
-3.200455605983734131e-01
-2.100509554147720337e-01
-1.466230899095535278e-01
-1.328690648078918457e-01
9.441389888525009155e-02
8.795631118118762970e-03
2.107975333929061890e-01
4.780735820531845093e-02
4.360797107219696045e-01
1.536170244216918945e-01
-6.699069589376449585e-02
2.753123342990875244e-01
-1.218209266662597656e-01
-2.601522952318191528e-02
-1.197948828339576721e-01
-3.483886122703552246e-01
1.750090718269348145e-01
2.269283309578895569e-02
6.009522452950477600e-02
9.986980259418487549e-02
-4.916112422943115234e-01
2.332926094532012939e-01
3.308945894241333008e-02
8.461326360702514648e-03
8.624187856912612915e-02
-4.918976724147796631e-01
2.741747498512268066e-01
3.500825911760330200e-02
-7.609492540359497070e-02
-4.499862715601921082e-02
1.153410375118255615e-01
-8.764345943927764893e-02
7.949674502015113831e-03
1.317283958196640015e-01
3.979412913322448730e-01
3.528610989451408386e-02
-5.949558317661285400e-02
6.275956332683563232e-02
-1.559184938669204712e-01
-1.214967519044876099e-01
1.092305779457092285e-01
-6.897293496876955032e-03
1.040845066308975220e-01
-1.288930475711822510e-01
-5.031309276819229126e-02
-8.581482805311679840e-03
-1.552585065364837646e-01
6.501660495996475220e-02
1.832855939865112305e-01
-5.866957828402519226e-02
3.687020018696784973e-02
-4.907505959272384644e-02
-1.430634502321481705e-02
3.231974542140960693e-01
5.372257903218269348e-02
6.902594119310379028e-02
1.266168355941772461e-01
-7.558260113000869751e-02
-1.648989468812942505e-01
2.623127028346061707e-02
-3.411174938082695007e-02
4.159367084503173828e-02
-1.075574755668640137e-01
2.681784518063068390e-02
5.242324247956275940e-02
-5.845773592591285706e-02
1.297651324421167374e-02
-5.238249897956848145e-02
-1.900385320186614990e-01
-7.203282415866851807e-02
-1.183242127299308777e-01
-2.288650125265121460e-01
-8.395546674728393555e-02
-1.689208149909973145e-01
-1.405580192804336548e-01
-1.037784591317176819e-01
-3.431136310100555420e-01
-3.010261431336402893e-02
1.266390550881624222e-02
-1.706061810255050659e-01
-3.935650363564491272e-02
8.130826056003570557e-02
1.532477699220180511e-02
2.531131207942962646e-01
-9.846021980047225952e-02
-4.321244359016418457e-02
1.192852184176445007e-01
-2.073924094438552856e-01
9.490098059177398682e-02
7.434765249490737915e-02
1.317088603973388672e-01
1.001940444111824036e-01
-3.169054090976715088e-01
-1.861811429262161255e-02
2.228772491216659546e-01
3.492864221334457397e-02
7.713496685028076172e-02
4.957699403166770935e-02
-8.831442147493362427e-02
-5.615546926856040955e-02
-2.893956005573272705e-01
2.366477623581886292e-02
1.146713718771934509e-01
-1.241391822695732117e-01
-2.529908120632171631e-01
-4.157586768269538879e-02
1.439564228057861328e-01
-6.281315535306930542e-02
-3.392007648944854736e-01
-1.674590408802032471e-01
3.253008052706718445e-02
-1.414122711867094040e-02
3.726244717836380005e-02
-1.681844890117645264e-01
-1.041848510503768921e-01
1.466139853000640869e-01
4.235600680112838745e-02
2.712799608707427979e-02
-2.834713831543922424e-02
1.113563543185591698e-03
5.018028616905212402e-01
1.265158504247665405e-01
9.358826279640197754e-02
-1.013075653463602066e-02
1.959578841924667358e-01
3.504239022731781006e-01
2.739471197128295898e-01
2.322786599397659302e-01
-1.774737238883972168e-01
-4.124001786112785339e-02
-2.293037541676312685e-04
1.100249737501144409e-01
3.110911548137664795e-01
7.035510241985321045e-02
1.845687031745910645e-01
1.296280175447463989e-01
4.190018773078918457e-02
6.304223835468292236e-02
1.496072299778461456e-02
-1.742441207170486450e-01
1.036412268877029419e-01
8.099667727947235107e-03
-1.829115115106105804e-02
-9.268879145383834839e-02
5.849524168297648430e-04
1.041678637266159058e-01
-3.777477145195007324e-02
-5.870598182082176208e-02
-1.261830795556306839e-02
6.959996372461318970e-02
1.512885391712188721e-01
9.468523412942886353e-02
8.875953406095504761e-02
1.443134397268295288e-01
-5.045248940587043762e-02
4.413958489894866943e-01
-4.919928312301635742e-01
-5.640443414449691772e-02
-2.449728162901010364e-05
-3.276316523551940918e-01
2.744220793247222900e-01
-3.693726658821105957e-01
-5.020560026168823242e-01
2.590233087539672852e-01
2.201412916183471680e-01
2.349536269903182983e-01
2.190854400396347046e-01
-4.256601631641387939e-01
-1.711110174655914307e-01
1.050155237317085266e-01
1.624135226011276245e-01
4.675358235836029053e-01
1.146731376647949219e-01
-3.198427259922027588e-01
-1.254828087985515594e-02
2.096549123525619507e-01
2.954597175121307373e-01
2.620972990989685059e-01
-4.542525708675384521e-01
-1.414961516857147217e-01
8.185168355703353882e-02
1.122071668505668640e-01
-1.120896190404891968e-01
3.145077824592590332e-02
1.872822195291519165e-01
1.320723295211791992e-01
3.113065659999847412e-01
-2.853463403880596161e-03
-6.987852603197097778e-02
1.889103800058364868e-01
1.982817947864532471e-01
1.600860953330993652e-01
-4.617561772465705872e-02
-5.182894468307495117e-01
1.390242297202348709e-02
-4.172898363322019577e-03
5.728271603584289551e-02
7.055062055587768555e-02
-4.103227853775024414e-01
-3.712114989757537842e-01
7.073719799518585205e-02
2.256315499544143677e-01
-2.040982991456985474e-01
9.798105061054229736e-02
-4.674773514270782471e-01
-3.735243901610374451e-02
-9.210994094610214233e-02
-2.403518408536911011e-01
-1.591478288173675537e-01
-1.927226632833480835e-01
7.029846310615539551e-02
6.970999296754598618e-03
-1.301291584968566895e-01
-2.304966375231742859e-02
3.440555185079574585e-02
-1.329127233475446701e-02
1.092060655355453491e-01
-1.000039279460906982e-01
4.396657459437847137e-03
6.052883714437484741e-02
6.045598536729812622e-02
-1.669851131737232208e-02
8.678396046161651611e-02
3.041225112974643707e-02
9.970740973949432373e-02
-1.595706641674041748e-01
3.121376596391201019e-02
1.761227101087570190e-01
1.217054799199104309e-01
1.128587871789932251e-03
-1.913727372884750366e-01
-3.179211914539337158e-01
1.025698035955429077e-01
1.407050192356109619e-01
2.440403960645198822e-02
5.347958207130432129e-02
-3.388790190219879150e-01
-7.931190729141235352e-02
2.255154103040695190e-01
-1.921517588198184967e-02
1.425297409296035767e-01
-4.913728684186935425e-02
-4.906327724456787109e-01
1.560222953557968140e-01
5.021350458264350891e-02
1.687635332345962524e-01
-8.636607229709625244e-02
-5.053827762603759766e-01
4.591276403516530991e-03
3.630664646625518799e-01
7.257664203643798828e-02
5.514422059059143066e-02
7.666867226362228394e-02
-9.762740880250930786e-02
3.371064960956573486e-01
-2.169508188962936401e-01
1.144891306757926941e-01
2.281018719077110291e-02
4.238925874233245850e-02
-3.268973529338836670e-02
5.021909251809120178e-02
9.262671321630477905e-02
-1.321258395910263062e-01
1.393087953329086304e-01
1.411543190479278564e-01
1.188390851020812988e-01
5.208990722894668579e-02
-3.731413930654525757e-02
-7.333600521087646484e-02
6.022531166672706604e-02
-2.654686570167541504e-02
1.990819722414016724e-02
9.852815419435501099e-02
-9.880625456571578979e-02
1.012519970536231995e-01
6.446138769388198853e-02
-8.697123825550079346e-02
2.353601157665252686e-02
-1.191841512918472290e-01
2.161626070737838745e-01
3.298494592308998108e-02
6.360548734664916992e-02
-3.250142037868499756e-01
-1.215060710906982422e+00
-3.764823377132415771e-01
9.516264498233795166e-02
1.319572180509567261e-01
1.317524760961532593e-01
-2.515344619750976562e-01
-1.086016371846199036e-01
-4.264063015580177307e-02
8.266168646514415741e-03
4.669930785894393921e-02
-4.898619279265403748e-02
-2.016941457986831665e-01
2.932020463049411774e-02
3.016927093267440796e-02
4.816750809550285339e-02
4.731168597936630249e-02
6.118606775999069214e-03
2.837663888931274414e-01
1.709520369768142700e-01
-2.000737935304641724e-01
-3.388666212558746338e-01
-2.114419341087341309e-01
-6.352411583065986633e-03
-2.811025679111480713e-01
-2.653444111347198486e-01
-2.207771539688110352e-01
-6.176500320434570312e-01
-3.092834353446960449e-01
-3.443352878093719482e-01
-9.333975613117218018e-02
-2.260479778051376343e-01
-3.845712840557098389e-01
-2.627106904983520508e-01
-1.210330724716186523e-01
-6.969545781612396240e-02
-4.061910882592201233e-02
-3.491595685482025146e-01
1.601638458669185638e-02
5.742773413658142090e-02
6.773214787244796753e-02
2.956541255116462708e-02
-2.070723026990890503e-01
1.796436607837677002e-01
1.911352276802062988e-01
2.525536417961120605e-01
-1.489423066377639771e-01
-4.623412787914276123e-01
8.425950258970260620e-02
-4.554546251893043518e-02
3.687345609068870544e-02
1.273542195558547974e-01
2.017400860786437988e-01
9.275156259536743164e-02
-1.804797165095806122e-02
1.120029315352439880e-01
-2.298504486680030823e-02
9.464090317487716675e-02
-3.286319598555564880e-02
-1.750895082950592041e-01
-4.249567165970802307e-02
-2.025748491287231445e-01
9.131371229887008667e-02
4.201497882604598999e-02
-5.356839299201965332e-02
4.636628925800323486e-02
2.571440674364566803e-02
1.033160760998725891e-01
-1.034134402871131897e-01
-3.129535168409347534e-02
2.023745924234390259e-01
2.963920533657073975e-01
4.094544053077697754e-01
-2.739772573113441467e-02
2.349505573511123657e-01
1.671589314937591553e-01
6.821674108505249023e-02
9.924578666687011719e-02
-2.084582597017288208e-01
-8.105891197919845581e-02
8.749863505363464355e-02
-1.317925155162811279e-01
1.835746765136718750e-01
-2.239621728658676147e-01
-1.266815811395645142e-01
-1.184907648712396622e-02
-2.019753120839595795e-02
1.091504171490669250e-01
6.763924658298492432e-02
2.539368532598018646e-02
3.949683904647827148e-02
-4.876974225044250488e-02
-1.427111327648162842e-01
2.319583855569362640e-02
8.386612869799137115e-03
6.828369200229644775e-02
6.623073015362024307e-03
-2.794019877910614014e-01
1.994352340698242188e-01
-8.474601805210113525e-02
-1.829099804162979126e-01
-7.152572274208068848e-02
-1.462798416614532471e-01
2.202012538909912109e-01
2.646819055080413818e-01
1.945034712553024292e-01
2.388399839401245117e-01
3.040677905082702637e-01
-1.856013834476470947e-01
-1.642478443682193756e-02
-1.681723445653915405e-02
-1.014005914330482483e-01
-2.184138894081115723e-01
-2.122565060853958130e-01
-2.554337680339813232e-01
-1.706669330596923828e-01
-6.362421438097953796e-03
-6.736796498298645020e-01
-2.763742394745349884e-02
-1.686476320028305054e-01
4.208051413297653198e-02
1.916777491569519043e-01
-3.462810814380645752e-01
1.327938884496688843e-01
1.771357357501983643e-01
7.927742786705493927e-03
-9.063156694173812866e-02
-6.247762590646743774e-02
6.976294517517089844e-02
9.766671806573867798e-02
3.294871374964714050e-02
-3.814784809947013855e-02
3.315481916069984436e-02
1.566895544528961182e-01
5.200661346316337585e-02
-1.972392201423645020e-02
4.975122585892677307e-02
6.062319129705429077e-02
2.976145595312118530e-02
-9.196851402521133423e-02
-1.136011853814125061e-01
1.217205151915550232e-01
5.480248108506202698e-02
-3.637463971972465515e-02
-2.393434196710586548e-01
-2.858226597309112549e-01
2.808065116405487061e-01
1.643108278512954712e-01
-1.458618938922882080e-01
-1.492435038089752197e-01
-3.067759796977043152e-02
-3.178280219435691833e-02
-1.921273022890090942e-01
-5.735494568943977356e-02
-1.898960769176483154e-01
-3.259962499141693115e-01
-1.966043412685394287e-01
-4.105579480528831482e-02
8.121848106384277344e-02
-4.737319890409708023e-03
-1.499140411615371704e-01
-3.663169965147972107e-02
1.529666632413864136e-01
7.729388028383255005e-02
7.520574331283569336e-02
2.102286182343959808e-02
-1.660788059234619141e-02
1.269737631082534790e-01
3.650274872779846191e-02
-4.823020473122596741e-02
-5.841350182890892029e-02
3.296428620815277100e-01
5.879163146018981934e-01
-8.700293302536010742e-01
-7.552033662796020508e-02
2.895133495330810547e-01
5.339743942022323608e-02
2.417646348476409912e-01
-8.140043616294860840e-01
-9.704271703958511353e-02
2.956998646259307861e-01
2.709926664829254150e-01
2.207245677709579468e-01
-5.386558175086975098e-01
1.359293758869171143e-01
1.043190062046051025e-01
-3.231301903724670410e-01
-2.488923817873001099e-01
-3.561534285545349121e-01
3.254894316196441650e-01
2.659630775451660156e-01
-1.573724672198295593e-02
-6.058285757899284363e-02
-6.444191336631774902e-01
3.332853913307189941e-01
5.578248500823974609e-01
2.727817296981811523e-01
-7.863537222146987915e-02
2.225825190544128418e-01
7.256021350622177124e-02
-3.728609085083007812e-01
-5.553801655769348145e-01
-1.191507652401924133e-01
1.945288777351379395e-01
2.064902186393737793e-01
-3.474461734294891357e-01
3.729869797825813293e-02
-4.852082431316375732e-01
5.274155363440513611e-02
-4.160793498158454895e-02
-3.142250776290893555e-01
3.043886423110961914e-01
1.262201666831970215e-01
-2.841224335134029388e-02
-7.281034439802169800e-02
3.025422245264053345e-02
2.846124470233917236e-01
2.058603763580322266e-01
-2.350916154682636261e-03
-3.551554679870605469e-02
1.988534182310104370e-01
3.663030266761779785e-01
1.217962950468063354e-01
-1.495107114315032959e-01
-4.004087299108505249e-02
-8.909919112920761108e-02
-2.349406778812408447e-01
4.755413234233856201e-01
-2.188109606504440308e-02
1.403461843729019165e-01
-3.149044513702392578e-01
-7.714936882257461548e-02
2.070465981960296631e-01
-8.139187097549438477e-02
-2.723082527518272400e-02
-3.175807595252990723e-01
3.543781116604804993e-02
1.312652677297592163e-01
-4.320401325821876526e-02
-8.951921761035919189e-02
-2.886173501610755920e-02
1.036536246538162231e-01
3.543840348720550537e-02
6.153475493192672729e-02
-1.413933038711547852e-01
-7.490469515323638916e-02
9.503053873777389526e-02
1.666082739830017090e-01
2.622741460800170898e-01
-1.115284413099288940e-01
-1.389993131160736084e-01
2.750830166041851044e-02
-1.134982928633689880e-01
4.672977924346923828e-01
-4.530762434005737305e-01
-4.255155026912689209e-01
-2.679438591003417969e-01
-3.506637513637542725e-01
-1.083655655384063721e-01
-6.717863678932189941e-01
-3.971270322799682617e-01
-1.708748750388622284e-02
2.242086678743362427e-01
-4.189805984497070312e-01
-4.046165347099304199e-01
1.279739886522293091e-01
2.907489836215972900e-01
2.525150775909423828e-01
-5.319070816040039062e-01
-1.537927687168121338e-01
2.215595394372940063e-01
1.440988183021545410e-01
-9.276446700096130371e-02
-2.749066948890686035e-01
-9.865399450063705444e-02
2.833692543208599091e-02
9.824217110872268677e-02
3.894881904125213623e-01
-3.026251196861267090e-01
-2.347430959343910217e-02
6.957661360502243042e-02
1.232182681560516357e-01
2.333863079547882080e-02
-5.136974900960922241e-02
1.322828680276870728e-01
1.569447368383407593e-01
-1.067523285746574402e-01
-1.924115568399429321e-01
-1.526172459125518799e-01
1.505575478076934814e-01
2.553656697273254395e-01
4.392863437533378601e-02
2.987798675894737244e-02
6.904510408639907837e-02
-4.515793174505233765e-02
1.793175786733627319e-01
-6.422689557075500488e-02
2.760645700618624687e-03
1.036524102091789246e-01
9.310264885425567627e-02
7.602137327194213867e-02
-3.316763341426849365e-01
-3.767150640487670898e-01
-1.599184237420558929e-02
-2.114272564649581909e-01
-6.841003149747848511e-02
-4.957133531570434570e-02
-6.712897121906280518e-02
-7.699368894100189209e-02
-9.544519335031509399e-02
6.562587618827819824e-02
5.266667902469635010e-02
-1.733110696077346802e-01
-1.680339425802230835e-01
-1.991218887269496918e-02
9.517769515514373779e-02
1.091234106570482254e-02
-2.308280766010284424e-02
1.881982013583183289e-02
6.544567644596099854e-02
1.271942257881164551e-01
-1.104502454400062561e-01
-4.620208963751792908e-02
3.527704477310180664e-01
3.519335389137268066e-01
-2.811616361141204834e-01
1.098337769508361816e-01
7.299076318740844727e-01
1.993762403726577759e-01
-1.272917985916137695e-01
-9.873422980308532715e-02
-3.323909342288970947e-01
6.813652068376541138e-02
2.361562550067901611e-01
-2.805781178176403046e-02
5.559760704636573792e-02
-7.236099243164062500e-01
-2.285138815641403198e-01
1.841246783733367920e-01
1.076861321926116943e-01
1.963536590337753296e-01
-3.213900923728942871e-01
-2.061778753995895386e-01
4.795299097895622253e-02
3.375427722930908203e-01
1.218382567167282104e-01
-6.809658557176589966e-02
-9.998865425586700439e-02
2.096931487321853638e-01
9.549840353429317474e-03
-5.840629339218139648e-01
-1.527862399816513062e-01
-5.863255262374877930e-01
1.875932961702346802e-01
-3.645049929618835449e-01
1.975351870059967041e-01
1.911425888538360596e-01
-3.296642303466796875e-01
-6.373332440853118896e-02
-2.120154500007629395e-01
2.434621378779411316e-02
3.790276870131492615e-02
-1.988001763820648193e-01
-2.298953235149383545e-01
-5.000402778387069702e-02
-5.603720620274543762e-02
-2.008437365293502808e-01
-2.936102151870727539e-01
-3.693979680538177490e-01
3.945741355419158936e-01
-1.444035861641168594e-02
-7.525812834501266479e-02
-5.021455287933349609e-01
3.657958284020423889e-02
-3.708036616444587708e-02
3.437934909015893936e-03
8.369202911853790283e-02
-9.711878001689910889e-02
5.700879916548728943e-02
-1.867679804563522339e-01
-3.785422444343566895e-02
-2.381350845098495483e-03
-2.008827477693557739e-01
1.121329888701438904e-01
-7.600744813680648804e-02
8.213923871517181396e-02
3.320942400023341179e-03
-1.077134683728218079e-01
2.148825228214263916e-01
-1.864372566342353821e-02
-3.701710700988769531e-02
-1.139529272913932800e-01
2.464272826910018921e-02
2.639241516590118408e-01
7.340507209300994873e-02
-5.964973941445350647e-03
-1.943902671337127686e-01
-1.068969368934631348e-01
-6.317118406295776367e-01
-6.897905468940734863e-01
-8.086685538291931152e-01
-2.359950691461563110e-01
1.099086701869964600e-01
-2.900016605854034424e-01
3.174044787883758545e-01
6.805534660816192627e-02
-6.420774459838867188e-01
5.172143876552581787e-02
-5.480600148439407349e-02
2.835704982280731201e-01
1.628941744565963745e-01
-6.886990666389465332e-01
3.960601091384887695e-01
1.289799362421035767e-01
-2.262692898511886597e-02
4.014100506901741028e-02
-5.665326118469238281e-01
2.849148213863372803e-01
4.082448482513427734e-01
-6.658681482076644897e-02
2.497215867042541504e-01
-3.175037801265716553e-01
-3.824721649289131165e-02
-1.958414614200592041e-01
-9.071262925863265991e-02
-1.082109138369560242e-01
-1.164539009332656860e-01
-1.842861250042915344e-02
-9.708128124475479126e-02
-3.405705466866493225e-02
-1.260322891175746918e-02
-1.670084148645401001e-01
-7.696806639432907104e-02
1.627671415917575359e-03
7.943134009838104248e-02
3.380009159445762634e-02
2.631462551653385162e-02
1.639002934098243713e-02
-4.897833615541458130e-02
1.632418110966682434e-02
3.967289626598358154e-02
1.672190278768539429e-01
-2.099712491035461426e-01
4.164948314428329468e-02
-8.800608664751052856e-02
-8.857963979244232178e-02
6.934937089681625366e-02
-2.634546458721160889e-01
2.225657701492309570e-01
1.585112214088439941e-01
7.592166960239410400e-02
1.110320240259170532e-01
3.013379499316215515e-02
5.329449847340583801e-02
-3.804248943924903870e-02
7.416129857301712036e-02
7.353101670742034912e-02
2.834188344422727823e-04
-3.791197389364242554e-02
-2.909398451447486877e-02
6.531240884214639664e-03
5.935290828347206116e-03
-1.265048533678054810e-01
-1.444658190011978149e-01
-6.989197432994842529e-02
-4.710688069462776184e-02
-3.961231559514999390e-02
-7.149751484394073486e-02
-5.793342832475900650e-03
3.999940305948257446e-02
-6.544773280620574951e-02
3.107686936855316162e-01
2.940813899040222168e-01
1.462243944406509399e-01
-5.954224616289138794e-03
-6.135514974594116211e-01
-5.144910216331481934e-01
-6.038264557719230652e-02
3.155113458633422852e-01
1.842689514160156250e-01
-4.156831204891204834e-01
-2.138989269733428955e-01
-2.586487494409084320e-02
2.353376001119613647e-01
5.183251947164535522e-02
6.147032603621482849e-02
4.494876042008399963e-02
-9.545327164232730865e-03
3.509176671504974365e-01
3.257569968700408936e-01
4.984062016010284424e-01
3.610717058181762695e-01
3.520519286394119263e-02
-4.165174961090087891e-01
3.891260027885437012e-01
1.360597908496856689e-01
4.235017299652099609e-01
3.098630309104919434e-01
1.555210053920745850e-01
-5.025091171264648438e-01
-7.430168986320495605e-01
-9.515585899353027344e-01
-9.376955032348632812e-01
1.065694391727447510e-01
-1.537538617849349976e-01
-1.963016837835311890e-01
-2.486731298267841339e-02
-1.391781270503997803e-01
-3.630020422860980034e-03
-3.039278984069824219e-01
-2.918013744056224823e-02
5.672871600836515427e-03
9.060247801244258881e-03
-2.267821133136749268e-02
-2.492561936378479004e-01
5.382634699344635010e-02
-3.653598576784133911e-02
-1.389625966548919678e-01
4.694267362356185913e-02
-2.185777872800827026e-01
2.661376297473907471e-01
3.879195749759674072e-01
3.196159005165100098e-02
1.965789590030908585e-03
-1.824432797729969025e-02
1.793079376220703125e-01
-8.235666155815124512e-02
-1.130466684699058533e-01
-2.217084914445877075e-02
-9.350441396236419678e-02
-2.906787768006324768e-02
-2.422352582216262817e-01
1.219902187585830688e-01
-2.052314206957817078e-02
9.030152857303619385e-02
-7.757399231195449829e-02
-2.410587389022111893e-03
2.790555357933044434e-01
3.691486269235610962e-02
3.461585938930511475e-02
-1.576536297798156738e-01
-8.048375020734965801e-04
1.299519389867782593e-01
2.028056979179382324e-01
-1.116948351263999939e-01
-8.404920250177383423e-02
1.926819328218698502e-03
1.390575766563415527e-01
-1.298623085021972656e+00
-6.255667209625244141e-01
-3.091447055339813232e-01
1.061029657721519470e-01
-9.395939856767654419e-02
-2.094701230525970459e-01
3.757922947406768799e-01
1.111154109239578247e-01
-1.784781664609909058e-01
-3.416051864624023438e-01
-3.086212873458862305e-01
1.723787337541580200e-01
2.573075592517852783e-01
7.874719798564910889e-02
-2.283010035753250122e-01
-2.904071509838104248e-01
-1.073613241314888000e-01
-3.385292887687683105e-01
-3.399238586425781250e-01
-2.645890712738037109e-01
1.078939437866210938e-02
1.605896502733230591e-01
-4.850861430168151855e-01
-3.027691245079040527e-01
-1.465293765068054199e-01
-2.635902538895606995e-02
4.910369217395782471e-02
5.797818675637245178e-02
-2.033496946096420288e-01
-2.516787052154541016e-01
-9.071595966815948486e-02
-3.982245922088623047e-02
-2.755060605704784393e-02
-2.867806255817413330e-01
1.022042408585548401e-01
1.159273311495780945e-01
4.488608241081237793e-02
7.844699919223785400e-02
-5.063719674944877625e-02
-6.719236262142658234e-03
-6.701862066984176636e-02
2.838875912129878998e-02
1.099252328276634216e-01
-1.108070686459541321e-01
-1.268078237771987915e-01
-1.778181344270706177e-01
3.943406939506530762e-01
2.012192606925964355e-01
-2.897094488143920898e-01
-6.121148169040679932e-02
-2.160734236240386963e-01
-3.317413032054901123e-01
-5.085666179656982422e-01
-4.307505190372467041e-01
-3.171801269054412842e-01
-6.110245827585458755e-03
1.044201776385307312e-01
8.766383677721023560e-02
5.760674178600311279e-02
8.169919997453689575e-02
6.917000561952590942e-02
1.598302125930786133e-01
2.197508700191974640e-02
2.600714750587940216e-02
6.385729461908340454e-02
-1.132011488080024719e-01
-1.019038259983062744e-01
9.459566324949264526e-02
5.115315690636634827e-02
2.450378797948360443e-02
-6.258450448513031006e-02
-1.080633401870727539e-01
3.403390049934387207e-01
-1.532898517325520515e-03
-1.810438781976699829e-01
