5.921791121363639832e-02
1.376257985830307007e-01
1.365407109260559082e-01
1.969745457172393799e-01
2.701390683650970459e-01
1.653413176536560059e-01
2.527815997600555420e-01
1.969359815120697021e-01
6.504296325147151947e-03
6.726134568452835083e-02
-8.049293607473373413e-02
1.618466675281524658e-01
1.802220940589904785e-01
3.596830368041992188e-01
-9.818134456872940063e-02
9.572297334671020508e-02
5.377092212438583374e-02
-1.328569203615188599e-01
-9.123764932155609131e-02
1.614986173808574677e-02
2.356334775686264038e-02
3.470410779118537903e-02
1.725313812494277954e-01
2.557332217693328857e-01
-6.726430356502532959e-02
1.896037161350250244e-01
2.788871526718139648e-01
7.813488692045211792e-02
4.567865729331970215e-01
7.500885426998138428e-02
2.459422312676906586e-02
-1.523629948496818542e-02
-5.586660280823707581e-02
2.190636694431304932e-01
2.135907113552093506e-01
1.929740011692047119e-01
1.421659290790557861e-01
8.345966041088104248e-02
4.131242632865905762e-02
3.337183892726898193e-01
1.085492819547653198e-01
2.270191460847854614e-01
-2.891038311645388603e-03
2.045390307903289795e-01
5.767256766557693481e-02
8.059559762477874756e-02
-5.670352280139923096e-02
1.152974665164947510e-01
1.011948660016059875e-01
-2.239116095006465912e-02
1.448088586330413818e-01
1.284025162458419800e-01
4.976027086377143860e-02
1.138424053788185120e-01
4.189581051468849182e-02
2.914126515388488770e-01
2.135029882192611694e-01
-6.023125350475311279e-02
1.382798254489898682e-01
1.985168270766735077e-02
7.348819077014923096e-02
2.754394337534904480e-02
3.134551942348480225e-01
2.486853003501892090e-01
1.981780230998992920e-01
-1.306171864271163940e-01
5.549373030662536621e-01
3.857544660568237305e-01
2.926771938800811768e-01
1.190912649035453796e-01
-1.307210605591535568e-02
2.028401345014572144e-01
-2.651534602046012878e-02
-4.275913350284099579e-03
-7.167976349592208862e-02
1.092642843723297119e-01
-7.702748756855726242e-03
-4.773195832967758179e-02
8.343018591403961182e-02
-1.536566298454999924e-02
4.071381688117980957e-01
1.706562638282775879e-01
3.296187818050384521e-01
1.448267549276351929e-01
