1.138035431504249573e-01
-8.370642364025115967e-02
-1.553073972463607788e-01
-3.529127836227416992e-01
-2.273209840059280396e-01
3.366132080554962158e-01
2.666348814964294434e-01
1.132211536169052124e-01
5.139039084315299988e-02
-3.615691065788269043e-01
1.118776649236679077e-01
7.950795888900756836e-01
1.308796852827072144e-01
-1.050483703613281250e+00
-4.978162348270416260e-01
-3.109224140644073486e-01
3.484055101871490479e-01
-4.189425706863403320e-02
4.283112883567810059e-01
3.573549985885620117e-01
-7.184011489152908325e-02
-1.543133705854415894e-01
4.399146735668182373e-01
-5.635593459010124207e-02
9.582648426294326782e-02
-2.512698173522949219e-01
4.486148431897163391e-02
1.278481364250183105e+00
-9.395927190780639648e-01
3.368971645832061768e-01
-2.601406872272491455e-01
-2.860512733459472656e-01
-4.858004301786422729e-02
5.099012255668640137e-01
2.615813910961151123e-01
8.583278208971023560e-02
1.911868751049041748e-01
1.267244815826416016e-01
1.885350346565246582e-01
5.019864439964294434e-02
-2.660623192787170410e-01
-5.625720601528882980e-03
1.974540799856185913e-01
2.174781411886215210e-01
-4.448611661791801453e-02
2.247119396924972534e-01
2.683594226837158203e-01
4.746824130415916443e-02
-3.180288374423980713e-01
5.621007084846496582e-01
4.888842999935150146e-02
-4.959698617458343506e-01
3.505874872207641602e-01
-3.474379777908325195e-01
4.311676919460296631e-01
2.639698088169097900e-01
-6.774113178253173828e-01
6.629537791013717651e-02
2.555122971534729004e-01
1.244948282837867737e-01
9.364222176373004913e-03
3.319696784019470215e-01
1.790374070405960083e-01
-1.163799092173576355e-01
1.101372241973876953e-01
1.900747269392013550e-01
-1.390168070793151855e-01
-1.678300052881240845e-01
6.983165442943572998e-02
-3.685441911220550537e-01
-6.526492238044738770e-01
-4.209568798542022705e-01
-5.722277564927935600e-04
4.858230650424957275e-01
-5.690888762474060059e-01
3.358106911182403564e-01
-6.103269457817077637e-01
-8.006388694047927856e-02
-6.766781806945800781e-01
-9.750492572784423828e-01
5.379617214202880859e-01
9.309592097997665405e-02
-2.100687474012374878e-01
2.997838556766510010e-01
1.916237473487854004e-01
2.760253548622131348e-01
6.955317258834838867e-01
-4.723253846168518066e-01
9.397199377417564392e-03
-3.309853971004486084e-01
1.161177605390548706e-01
1.727313250303268433e-01
-8.255562782287597656e-01
1.839270442724227905e-01
4.299584310501813889e-03
3.009153306484222412e-01
1.776487827301025391e-01
-2.409927099943161011e-01
-7.205643057823181152e-01
8.669052273035049438e-02
3.125666975975036621e-01
5.053740739822387695e-01
-6.195264682173728943e-02
9.381859302520751953e-01
1.742634773254394531e-01
1.437291055917739868e-01
-5.342886447906494141e-01
-3.551835119724273682e-01
4.321137964725494385e-01
-2.672792375087738037e-01
3.059113025665283203e-01
1.672224700450897217e-01
-2.177419066429138184e-01
1.118852645158767700e-01
1.470975428819656372e-01
5.989337339997291565e-02
-1.493278294801712036e-01
3.387464582920074463e-01
-1.891032308340072632e-01
-1.284182816743850708e-01
-3.593143820762634277e-01
5.464809536933898926e-01
-5.318726897239685059e-01
-1.976660639047622681e-01
2.880209982395172119e-01
-2.308476418256759644e-01
1.767470836639404297e-01
-1.082669720053672791e-01
2.170626819133758545e-01
-3.455990254878997803e-01
-1.206856727600097656e+00
-7.553089261054992676e-01
4.315094351768493652e-01
4.038881957530975342e-01
-3.957149684429168701e-01
-3.891401588916778564e-01
2.591524124145507812e-01
5.299817323684692383e-01
-1.117801591753959656e-01
-9.015551805496215820e-01
7.527997493743896484e-01
-4.189510047435760498e-01
-5.082057118415832520e-01
6.334978938102722168e-01
-2.175062596797943115e-01
-3.061297237873077393e-01
2.876934409141540527e-01
2.937274277210235596e-01
-1.612760871648788452e-01
3.860298395156860352e-01
-8.104051351547241211e-01
-4.405421018600463867e-01
-9.611194580793380737e-02
2.045436501502990723e-01
8.494746685028076172e-02
1.953626126050949097e-01
4.554807245731353760e-01
5.180959701538085938e-01
4.717385396361351013e-02
1.833842322230339050e-02
3.290023505687713623e-01
1.286727190017700195e-01
3.912258744239807129e-01
4.025955498218536377e-02
-2.636522352695465088e-01
5.991265773773193359e-01
-4.426317214965820312e-01
2.920975685119628906e-01
3.024217784404754639e-01
-5.843014717102050781e-01
7.544710040092468262e-01
-2.720636427402496338e-01
-5.270610451698303223e-01
1.800637841224670410e-01
-2.626916766166687012e-01
-7.858879864215850830e-02
2.106177806854248047e-01
-4.192913323640823364e-02
-2.241568565368652344e-01
5.435057282447814941e-01
-5.732496380805969238e-01
4.218854904174804688e-01
2.269834876060485840e-01
1.784101575613021851e-01
1.956573873758316040e-01
-6.418386101722717285e-01
5.923973023891448975e-02
3.011781275272369385e-01
-4.944496750831604004e-01
6.275068521499633789e-01
1.045660749077796936e-01
-2.456171810626983643e-01
8.131397515535354614e-02
1.323197782039642334e-01
-8.111057281494140625e-01
6.484437584877014160e-01
-3.632154464721679688e-01
3.583994507789611816e-01
8.456987142562866211e-02
3.192547559738159180e-01
8.875565603375434875e-03
3.793677389621734619e-01
-7.306616171263158321e-04
-3.030302822589874268e-01
2.061787843704223633e-01
-9.997677057981491089e-02
-6.424524188041687012e-01
-8.121262192726135254e-01
4.293359816074371338e-01
-6.353545188903808594e-01
1.881296038627624512e-01
-6.537270545959472656e-02
-4.324121475219726562e-01
3.077820688486099243e-02
2.883450388908386230e-01
1.066287159919738770e-01
1.460495889186859131e-01
5.764385461807250977e-01
2.721331417560577393e-01
-4.018172249197959900e-02
-2.265688478946685791e-01
1.598275005817413330e-01
2.897797822952270508e-01
5.055418014526367188e-01
1.560251116752624512e-01
-2.844296097755432129e-01
-4.511369168758392334e-01
1.738916933536529541e-01
3.587943911552429199e-01
1.448621302843093872e-01
-1.040938347578048706e-01
1.331268548965454102e-01
1.838742196559906006e-01
-9.983909130096435547e-02
2.993500675074756145e-04
-2.629280090332031250e-01
-5.266082882881164551e-01
4.252297580242156982e-01
-1.019983217120170593e-01
-6.193241477012634277e-01
1.669957190752029419e-01
-3.010408878326416016e-01
1.065267696976661682e-01
9.543095529079437256e-02
1.503899842500686646e-01
-2.618929147720336914e-01
8.909878134727478027e-01
-5.530538037419319153e-02
-5.332977175712585449e-01
-4.151964187622070312e-01
4.917648434638977051e-02
-8.657776713371276855e-01
-2.661006152629852295e-01
5.061175674200057983e-02
2.957462966442108154e-01
4.104187488555908203e-01
-3.079732358455657959e-01
-4.539586901664733887e-01
-2.215364947915077209e-02
2.028243392705917358e-01
1.342972368001937866e-01
-2.661526203155517578e-01
-6.560165882110595703e-01
-3.815078139305114746e-01
2.064569592475891113e-01
-3.944547772407531738e-01
1.756998896598815918e-01
2.497376203536987305e-01
6.325194835662841797e-01
1.551001239567995071e-02
1.846497654914855957e-01
-3.049919903278350830e-01
-8.403354138135910034e-02
2.697057723999023438e-01
-4.065476730465888977e-02
-1.484209299087524414e-01
2.202623486518859863e-01
-3.881455659866333008e-01
3.494912758469581604e-02
5.968232750892639160e-01
-1.244348101317882538e-02
2.448316961526870728e-01
-2.465529143810272217e-01
2.532307207584381104e-01
1.901465803384780884e-01
4.401951730251312256e-01
-5.123477578163146973e-01
5.497561395168304443e-02
2.276694476604461670e-01
3.492431342601776123e-01
7.649748027324676514e-02
-3.080551922321319580e-01
-3.829182684421539307e-01
-2.425737231969833374e-01
-1.008247256278991699e+00
-3.955331742763519287e-01
-4.977228939533233643e-01
-4.984813034534454346e-01
2.744240872561931610e-02
4.126591980457305908e-01
1.630534976720809937e-01
-1.402107253670692444e-02
2.131196409463882446e-01
-2.906799316406250000e-01
-1.757924109697341919e-01
5.191279947757720947e-02
4.977972209453582764e-01
1.337358802556991577e-01
2.808929979801177979e-01
2.125034928321838379e-01
2.395966947078704834e-01
1.045314446091651917e-01
9.956770390272140503e-02
-1.041213870048522949e+00
6.003086566925048828e-01
3.278332650661468506e-01
3.724438548088073730e-01
-2.843637168407440186e-01
-6.357118487358093262e-01
-3.997524380683898926e-01
-7.205651402473449707e-01
-2.085136622190475464e-01
1.045128181576728821e-01
2.937696874141693115e-01
3.020275831222534180e-01
-2.941546738147735596e-01
-3.557681143283843994e-01
-6.713674664497375488e-01
7.432499527931213379e-02
-1.349682658910751343e-01
2.086979448795318604e-01
5.676221847534179688e-01
-6.244142726063728333e-02
1.346537023782730103e-01
-3.631491959095001221e-01
1.213868856430053711e-01
1.201565042138099670e-01
2.430419027805328369e-01
5.504052042961120605e-01
2.970744371414184570e-01
-1.467348188161849976e-01
-1.348307281732559204e-01
-4.569268524646759033e-01
2.397363483905792236e-01
2.227583825588226318e-01
2.205858230590820312e-01
-4.229484498500823975e-01
2.856748700141906738e-01
-5.344149470329284668e-01
-3.875592648983001709e-01
1.852986663579940796e-01
3.697438240051269531e-01
1.069962501525878906e+00
2.850038409233093262e-01
3.953110799193382263e-02
-8.308063745498657227e-01
2.818222343921661377e-01
-3.803882002830505371e-01
-3.407301604747772217e-01
3.897233605384826660e-01
-1.345869898796081543e-02
-4.515200257301330566e-01
-5.602532625198364258e-01
5.206855535507202148e-01
-1.645049452781677246e-01
-6.819447278976440430e-01
2.208830714225769043e-01
-9.575281292200088501e-02
2.860553860664367676e-01
3.260558098554611206e-02
5.176839977502822876e-02
5.367363095283508301e-01
3.235533460974693298e-02
-5.904667377471923828e-01
-6.061969995498657227e-01
-8.324583172798156738e-01
2.523879408836364746e-01
1.139807328581809998e-01
1.230921819806098938e-01
2.812197506427764893e-01
-2.868376970291137695e-01
-1.833334378898143768e-02
3.543895781040191650e-01
3.059175014495849609e-01
-2.165173441171646118e-01
1.613551229238510132e-01
9.152819961309432983e-02
2.599225342273712158e-01
4.939505159854888916e-01
1.592165604233741760e-02
-2.410388551652431488e-02
1.679789647459983826e-02
-3.065688014030456543e-01
1.709165126085281372e-01
-4.861932098865509033e-01
1.437798589468002319e-01
5.552404373884201050e-02
1.806290894746780396e-01
-3.032626584172248840e-03
-2.801280319690704346e-01
1.390051096677780151e-01
3.629096448421478271e-01
-7.224177122116088867e-01
-7.078437134623527527e-03
5.372255444526672363e-01
-3.469668924808502197e-01
3.407621979713439941e-01
1.309470385313034058e-01
2.534233927726745605e-01
-3.345625400543212891e-01
2.235756441950798035e-02
-1.775562316179275513e-01
2.556740939617156982e-01
-4.045640826225280762e-01
3.474142849445343018e-01
1.001984402537345886e-01
-2.583417594432830811e-01
-3.844955861568450928e-01
-3.004923462867736816e-02
-2.871579229831695557e-01
-7.044740319252014160e-01
-6.849415898323059082e-01
-4.053017869591712952e-02
4.218081757426261902e-02
3.919312953948974609e-01
-4.402055740356445312e-01
3.065109550952911377e-01
4.166764765977859497e-02
-5.351447463035583496e-01
3.643949627876281738e-01
1.145346090197563171e-01
4.018561914563179016e-02
-3.277427330613136292e-02
2.718852460384368896e-01
1.527346521615982056e-01
-3.174098134040832520e-01
6.145778298377990723e-01
3.909615874290466309e-01
-5.302258729934692383e-01
-2.438035011291503906e-01
-1.016459539532661438e-01
-4.088566899299621582e-01
8.366692811250686646e-02
-5.758739113807678223e-01
-5.957968831062316895e-01
-5.079937633126974106e-03
7.158880829811096191e-01
-6.789568066596984863e-01
2.901128530502319336e-01
9.291754662990570068e-02
3.080154061317443848e-01
-1.730215102434158325e-01
7.422031462192535400e-02
2.845035493373870850e-01
4.323061704635620117e-01
1.891382411122322083e-02
-5.611335635185241699e-01
1.161911264061927795e-01
1.960687339305877686e-01
3.690169155597686768e-01
4.457031190395355225e-02
4.881446808576583862e-02
5.070471167564392090e-01
-5.207559466361999512e-01
1.076263487339019775e-01
-4.007131159305572510e-01
-1.415874809026718140e-01
1.032084226608276367e+00
-1.957610398530960083e-01
-1.413338422775268555e+00
-1.502814292907714844e-01
-1.253211796283721924e-01
-2.717918455600738525e-01
-4.065884351730346680e-01
6.273444741964340210e-02
-5.741932988166809082e-01
1.377730220556259155e-01
2.095685452222824097e-01
1.231944337487220764e-01
-9.604539275169372559e-01
2.341996729373931885e-01
-3.378997743129730225e-02
-1.630941629409790039e-01
1.154441293329000473e-02
-2.361070662736892700e-01
2.331144809722900391e-01
2.251160144805908203e-01
1.871602833271026611e-01
3.159816563129425049e-02
1.491981297731399536e-01
2.075456827878952026e-01
3.837609589099884033e-01
3.314846158027648926e-01
-3.069985806941986084e-01
2.156051099300384521e-01
5.846337601542472839e-02
3.944019228219985962e-02
-2.963312156498432159e-02
-1.080858588218688965e+00
2.028211504220962524e-01
1.017285957932472229e-01
-5.001069232821464539e-02
4.723617732524871826e-01
-7.618495076894760132e-02
1.190549060702323914e-01
6.000656485557556152e-01
8.229011893272399902e-01
3.113295435905456543e-01
-4.780894815921783447e-01
3.721759915351867676e-01
2.050321251153945923e-01
7.410490512847900391e-02
-7.216585800051689148e-04
-1.039779931306838989e-01
2.929413616657257080e-01
-5.348360165953636169e-03
4.292044341564178467e-01
1.468423753976821899e-01
-3.571095690131187439e-02
-1.344706118106842041e-01
1.345956474542617798e-01
-2.771054506301879883e-01
-3.035888671875000000e-01
-5.415801405906677246e-01
2.124471962451934814e-01
-6.187649369239807129e-01
2.877013087272644043e-01
3.599009215831756592e-01
-8.248702622950077057e-03
1.481802761554718018e-01
7.025665044784545898e-01
6.069977879524230957e-01
-2.694019675254821777e-01
-3.184814751148223877e-01
-5.502582713961601257e-02
2.929958403110504150e-01
-6.648985147476196289e-01
1.253241151571273804e-01
2.181314527988433838e-01
5.628340244293212891e-01
3.509753644466400146e-01
1.465194821357727051e-01
2.852525711059570312e-01
-5.764434933662414551e-01
-2.835324108600616455e-01
-5.340757966041564941e-01
2.414545565843582153e-01
3.565519154071807861e-01
3.151411414146423340e-01
2.050098627805709839e-01
2.139918208122253418e-01
1.383332312107086182e-01
-4.370222985744476318e-02
4.476740062236785889e-01
1.264488995075225830e-01
4.098830223083496094e-01
-3.199455142021179199e-01
4.707082808017730713e-01
-7.387194633483886719e-01
6.230393797159194946e-02
-6.267587542533874512e-01
-4.563892185688018799e-01
-2.089949995279312134e-01
-5.977112799882888794e-03
-5.233805179595947266e-01
1.146926805377006531e-01
-8.572299033403396606e-02
3.834731578826904297e-01
1.114201918244361877e-01
-1.437329947948455811e-01
-2.105022817850112915e-01
5.982545763254165649e-02
-6.659066081047058105e-01
3.174739778041839600e-01
-3.287642896175384521e-01
5.047419667243957520e-01
8.426018990576267242e-03
-3.586028814315795898e-01
6.537512689828872681e-02
6.391902267932891846e-02
-1.446328461170196533e-01
5.703063011169433594e-01
-1.841438114643096924e-01
-3.706560432910919189e-01
1.050767898559570312e-01
1.348286420106887817e-01
-4.078461825847625732e-01
-2.170847952365875244e-01
-6.969306468963623047e-01
6.485721468925476074e-02
2.411825209856033325e-01
-1.820639520883560181e-01
-4.230557475239038467e-03
-6.368887145072221756e-03
-2.893891036510467529e-01
3.525783494114875793e-02
-2.195620089769363403e-01
1.036509424448013306e-01
1.492221504449844360e-01
1.071812808513641357e-01
2.105843424797058105e-01
7.810714840888977051e-01
6.267369538545608521e-02
1.714480668306350708e-01
-1.149888873100280762e+00
6.015431880950927734e-01
-2.713085114955902100e-01
1.671683043241500854e-01
1.385652832686901093e-02
1.784464120864868164e-01
-4.261321723461151123e-01
-1.189440861344337463e-01
-5.991144776344299316e-01
5.447418689727783203e-01
-3.730247616767883301e-01
4.733777344226837158e-01
3.578720092773437500e-01
-3.011040985584259033e-01
-4.327420592308044434e-01
-6.302897334098815918e-01
-1.555563658475875854e-01
1.592557579278945923e-01
-1.873682439327239990e-01
2.158272117376327515e-01
2.589697390794754028e-02
7.077450156211853027e-01
2.239203155040740967e-01
3.390802443027496338e-01
-5.782525539398193359e-01
8.602545410394668579e-02
3.285208046436309814e-01
-3.041557371616363525e-01
3.491964936256408691e-02
5.871738493442535400e-02
1.988616399466991425e-02
6.175090670585632324e-01
4.919466748833656311e-02
-4.107927961740642786e-04
-3.789481520652770996e-01
2.949830293655395508e-01
-2.819400839507579803e-02
1.177213042974472046e-01
7.518881559371948242e-02
-5.348966717720031738e-01
1.456591933965682983e-01
6.948775053024291992e-02
1.954284906387329102e-01
-5.743808150291442871e-01
6.332323700189590454e-02
2.314649969339370728e-01
-6.809952855110168457e-01
-2.245897948741912842e-01
-4.166165590286254883e-01
-6.448624134063720703e-01
1.930965930223464966e-01
1.860616058111190796e-01
4.272157251834869385e-01
-2.686113864183425903e-02
1.990543752908706665e-01
-5.096535757184028625e-02
4.315789043903350830e-01
2.492177933454513550e-01
2.571152150630950928e-01
2.446846663951873779e-01
-2.797723114490509033e-01
-2.791020274162292480e-02
1.749878376722335815e-01
-3.698059916496276855e-02
2.667079865932464600e-01
-5.377528667449951172e-01
2.202683314681053162e-02
1.072194725275039673e-01
3.253231346607208252e-01
3.123670816421508789e-01
-7.067161798477172852e-01
2.515464425086975098e-01
7.113198637962341309e-01
5.537283048033714294e-02
2.682722508907318115e-01
-4.090939164161682129e-01
1.612572818994522095e-01
-1.728202402591705322e-02
1.036290675401687622e-01
-3.253612816333770752e-01
-6.241439655423164368e-02
-5.606003403663635254e-01
1.911564469337463379e-01
-1.491743177175521851e-01
-5.280783772468566895e-01
4.840240180492401123e-01
-2.305724099278450012e-02
1.037895828485488892e-01
3.551083430647850037e-02
-3.079842589795589447e-02
4.582612216472625732e-02
-1.491663008928298950e-01
4.300924837589263916e-01
-6.534923911094665527e-01
-2.030818760395050049e-01
-1.296260803937911987e-01
-8.462664484977722168e-01
1.879174113273620605e-01
8.411041647195816040e-02
8.874640613794326782e-02
1.473629325628280640e-01
-3.678997755050659180e-01
7.689786143600940704e-03
-7.121959924697875977e-01
4.071835055947303772e-02
-2.540475130081176758e-01
1.008221358060836792e-01
6.224071979522705078e-01
-3.069234192371368408e-01
5.091580748558044434e-01
-5.416440963745117188e-01
1.265701800584793091e-01
2.640759348869323730e-01
1.773623824119567871e-01
-7.993271350860595703e-01
-6.890605688095092773e-01
5.624808743596076965e-02
2.612307369709014893e-01
-3.256824985146522522e-02
-9.470852464437484741e-02
-3.874230086803436279e-01
-1.395200192928314209e-01
1.539284586906433105e-01
3.504420220851898193e-01
-5.986860990524291992e-01
6.428749859333038330e-02
3.188838958740234375e-01
-2.666334211826324463e-01
-5.086588487029075623e-02
-1.345321089029312134e-01
-8.019822239875793457e-01
-6.120396256446838379e-01
-2.378982603549957275e-01
-5.309611186385154724e-02
4.224420785903930664e-01
-7.540274858474731445e-01
2.491316795349121094e-01
1.960083693265914917e-01
4.489268735051155090e-02
3.131261467933654785e-01
-9.735396504402160645e-01
1.704947799444198608e-01
5.613549798727035522e-02
6.035217642784118652e-01
3.368491530418395996e-01
1.770378053188323975e-01
7.004376500844955444e-02
-7.506742328405380249e-02
-7.349782586097717285e-01
-9.608093649148941040e-03
-1.074154973030090332e+00
4.154756963253021240e-01
-7.759877443313598633e-01
-7.365044951438903809e-02
-2.318341583013534546e-01
-3.908597230911254883e-01
-3.529801368713378906e-01
2.491603046655654907e-01
1.368649005889892578e-01
-3.456998467445373535e-01
3.837199509143829346e-01
3.055191934108734131e-01
1.725632101297378540e-01
-5.202865600585937500e-01
-4.043567925691604614e-02
1.006520092487335205e-01
1.241213232278823853e-01
-2.262021154165267944e-01
-8.161410689353942871e-01
5.027307271957397461e-01
1.494521647691726685e-01
3.563020229339599609e-01
1.705365031957626343e-01
2.050484269857406616e-01
1.577816456556320190e-01
-1.786835193634033203e-01
-1.015238761901855469e+00
-4.889716506004333496e-01
5.006333589553833008e-01
-3.464321792125701904e-01
-8.759597688913345337e-02
1.604932397603988647e-01
-3.188884258270263672e-02
-3.478204011917114258e-01
-1.020798226818442345e-03
-7.087962627410888672e-01
-2.266528904438018799e-01
-8.478544652462005615e-03
-1.310254484415054321e-01
2.251119762659072876e-01
1.397645026445388794e-01
-2.216750532388687134e-01
1.121927276253700256e-01
2.559254169464111328e-01
2.448159456253051758e-01
-6.071791648864746094e-01
-1.130482740700244904e-02
4.433095157146453857e-01
-3.163322508335113525e-01
5.029939413070678711e-01
1.345716714859008789e-01
2.952947914600372314e-01
2.816521748900413513e-02
3.797682821750640869e-01
2.508529722690582275e-01
2.336672991514205933e-01
-1.293413192033767700e-01
-1.672491878271102905e-01
2.462895214557647705e-01
2.271997332572937012e-01
8.720055222511291504e-02
-8.765716552734375000e-01
1.578306704759597778e-01
-2.014031857252120972e-01
-6.107797622680664062e-01
-2.450562268495559692e-01
-6.860859990119934082e-01
8.884483575820922852e-02
1.841214299201965332e-01
4.047304987907409668e-01
-1.170546934008598328e-01
-7.254219055175781250e-01
-1.170921549201011658e-01
4.467523694038391113e-01
1.067612692713737488e-01
-2.800144553184509277e-01
1.819908916950225830e-01
-7.017051577568054199e-01
1.579303145408630371e-01
-8.984956145286560059e-02
1.475630402565002441e-01
1.564121395349502563e-01
-5.440842360258102417e-02
1.848793774843215942e-01
4.859080612659454346e-01
1.805341104045510292e-03
