1.352512240409851074e-01
1.217222958803176880e-01
-2.471371889114379883e-01
-2.458688765764236450e-01
2.629872970283031464e-02
-1.103621423244476318e-01
-1.611749529838562012e-01
-1.688349246978759766e-01
-1.192444120533764362e-03
-8.542475849390029907e-02
1.488034874200820923e-01
-1.994587853550910950e-02
-3.244048953056335449e-01
-1.638091355562210083e-01
1.575367152690887451e-01
1.143835037946701050e-01
1.056274026632308960e-01
-1.727396845817565918e-01
-8.520539104938507080e-02
1.446245163679122925e-01
-1.237516179680824280e-01
-2.232230305671691895e-01
-5.944494903087615967e-02
1.929979026317596436e-02
2.652673125267028809e-01
4.148458689451217651e-02
3.468303084373474121e-01
2.994973361492156982e-01
9.357538819313049316e-02
-1.777066439390182495e-01
-9.639655053615570068e-02
-1.835251003503799438e-01
-7.507766038179397583e-02
-2.220696210861206055e-01
8.492843061685562134e-02
-4.665197804570198059e-03
-5.800053477287292480e-02
-1.126558333635330200e-01
-1.227876991033554077e-01
8.452949672937393188e-02
-2.178406529128551483e-02
1.033995151519775391e-01
1.721828430891036987e-02
-3.250084444880485535e-02
-1.252398341894149780e-01
-1.601009368896484375e-01
9.384485334157943726e-02
1.259587556123733521e-01
-1.633322536945343018e-01
3.100626729428768158e-02
2.007425427436828613e-01
5.289257764816284180e-01
4.722944498062133789e-01
2.333433628082275391e-01
-2.811581492424011230e-01
-9.055784344673156738e-02
-2.660516500473022461e-01
-1.623575985431671143e-01
1.260389089584350586e-01
-2.853462994098663330e-01
6.433580070734024048e-02
1.453894823789596558e-01
9.189184755086898804e-02
8.776341564953327179e-03
-1.090171486139297485e-01
1.373262256383895874e-01
1.882734149694442749e-01
-7.577101141214370728e-02
-1.126473583281040192e-02
1.382558345794677734e-01
8.974952250719070435e-02
2.038581073284149170e-01
3.284254297614097595e-02
1.796249598264694214e-01
1.734174415469169617e-02
-3.290028497576713562e-02
3.565963208675384521e-01
8.436676114797592163e-02
-1.469960957765579224e-01
3.280617669224739075e-02
-2.774566411972045898e-01
-1.518832612782716751e-02
5.907117575407028198e-02
9.197894483804702759e-02
3.430603072047233582e-02
-2.463148534297943115e-01
2.324763685464859009e-02
6.861191987991333008e-02
1.449930295348167419e-02
-2.407092787325382233e-02
-1.115393117070198059e-01
-4.441493377089500427e-02
-2.297519892454147339e-02
-5.924759898334741592e-03
7.917543500661849976e-02
6.293736398220062256e-02
1.501104794442653656e-02
1.579775065183639526e-01
3.434921056032180786e-02
2.198044806718826294e-01
-3.257143869996070862e-02
-1.615859419107437134e-01
-3.730476796627044678e-01
-3.893981277942657471e-01
-8.039675951004028320e-01
-1.387052386999130249e-01
-2.023372352123260498e-01
-3.233016431331634521e-01
-5.002209544181823730e-01
-1.493068188428878784e-01
-8.904514834284782410e-03
2.119148848578333855e-03
-3.136563599109649658e-01
-7.162259221076965332e-01
-3.874273300170898438e-01
3.906087577342987061e-01
3.857153356075286865e-01
3.983401879668235779e-02
-6.056276559829711914e-01
-3.027219474315643311e-01
1.735973916947841644e-02
3.501501381397247314e-01
1.262941509485244751e-01
-3.636178672313690186e-01
-4.486315250396728516e-01
-5.102966353297233582e-02
2.894344031810760498e-01
4.251741766929626465e-01
1.009210646152496338e-01
6.487528234720230103e-02
-1.282397806644439697e-01
-3.830330669879913330e-01
-7.820826768875122070e-02
1.447643339633941650e-01
9.606929123401641846e-02
-5.641967430710792542e-02
-3.202491998672485352e-02
3.696638345718383789e-02
-3.306240215897560120e-02
-2.552600800991058350e-01
2.479952760040760040e-02
-1.081642881035804749e-01
1.277679800987243652e-01
-6.276186555624008179e-02
-1.527548730373382568e-01
-3.515564277768135071e-02
-2.698740959167480469e-01
2.558317184448242188e-01
-4.778772220015525818e-02
-2.575301229953765869e-01
-5.060746669769287109e-01
4.838688671588897705e-02
2.071873098611831665e-01
-8.367171138525009155e-02
-1.038726791739463806e-01
-1.172968894243240356e-01
5.586034804582595825e-02
1.188804134726524353e-01
1.042279005050659180e-01
4.683491215109825134e-02
-8.456144481897354126e-02
7.295362651348114014e-02
1.829401105642318726e-01
1.720196157693862915e-01
1.686494201421737671e-01
-1.008724868297576904e-01
7.320003956556320190e-02
1.822930872440338135e-01
1.172642931342124939e-01
7.543099671602249146e-02
-2.317706868052482605e-02
1.279036849737167358e-01
1.100453436374664307e-01
7.711286842823028564e-02
7.064388692378997803e-02
-6.474198400974273682e-02
1.054471582174301147e-01
-7.965886592864990234e-02
-3.055439889430999756e-02
8.182724937796592712e-03
-4.447706788778305054e-02
-2.668555453419685364e-02
-2.199467867612838745e-01
-2.022216916084289551e-01
2.086832188069820404e-02
-3.126220032572746277e-02
5.289030820131301880e-02
-1.320237070322036743e-01
-4.938228428363800049e-02
-2.731977775692939758e-02
1.026741936802864075e-01
8.821906894445419312e-02
-2.671175752766430378e-04
-2.156256511807441711e-02
-9.565980732440948486e-02
1.202250942587852478e-01
-2.441670559346675873e-02
-1.118569821119308472e-01
-2.996427193284034729e-02
9.488780051469802856e-02
9.372215718030929565e-02
9.188719093799591064e-02
3.769603967666625977e-01
4.635574221611022949e-01
2.973348796367645264e-01
2.459128350019454956e-01
9.380046278238296509e-02
1.559468656778335571e-01
2.162716984748840332e-01
-9.370107203722000122e-02
1.854204013943672180e-02
-2.482386678457260132e-02
-2.556105889379978180e-02
2.956529147922992706e-02
-3.163295984268188477e-01
7.781954109668731689e-02
3.659113869071006775e-02
7.028841972351074219e-02
-9.763413667678833008e-02
-2.413228452205657959e-01
1.569984108209609985e-01
2.650491297245025635e-01
1.895606145262718201e-02
-1.057392656803131104e-01
-1.345268934965133667e-01
1.303023099899291992e-01
-7.409430295228958130e-02
-8.927866071462631226e-02
-1.339290291070938110e-01
5.477107316255569458e-02
-8.561960607767105103e-02
-1.351351290941238403e-01
-1.172913536429405212e-01
-4.943395406007766724e-02
1.657641232013702393e-01
1.181825026869773865e-01
7.326523959636688232e-02
-3.096243366599082947e-02
-7.306855637580156326e-03
1.864715516567230225e-01
4.388438165187835693e-02
-1.215485781431198120e-01
-2.180896550416946411e-01
-8.365491032600402832e-02
8.899614214897155762e-02
-6.457669660449028015e-03
-3.369763493537902832e-01
-2.790082991123199463e-01
-1.756218373775482178e-01
6.517166644334793091e-02
4.607991874217987061e-01
2.881534993648529053e-01
2.723266780376434326e-01
2.833867259323596954e-02
2.032920420169830322e-01
-7.880820892751216888e-03
-1.761833876371383667e-01
9.347331523895263672e-02
-1.296655684709548950e-01
-1.258923858404159546e-01
-3.783583641052246094e-02
-9.898251295089721680e-02
-3.833985328674316406e-02
-3.453434631228446960e-02
-6.813835818320512772e-03
1.512726992368698120e-01
-1.655827313661575317e-01
1.602250337600708008e-02
6.027184054255485535e-02
1.051475927233695984e-01
-2.206929028034210205e-01
-6.623942852020263672e-01
-1.191417500376701355e-01
-1.589281558990478516e-01
-1.462523937225341797e-01
7.552080601453781128e-02
2.438935041427612305e-01
3.172499239444732666e-01
2.986650168895721436e-02
8.175583183765411377e-02
-2.930232323706150055e-02
1.994690485298633575e-02
-4.973271489143371582e-02
-1.263240724802017212e-01
-8.968991041183471680e-02
6.668654084205627441e-02
3.743464872241020203e-02
-2.825631573796272278e-02
-6.408392637968063354e-02
-1.156319826841354370e-01
1.841041445732116699e-02
-2.530932798981666565e-02
6.229447666555643082e-03
2.197359502315521240e-02
1.757568307220935822e-02
-3.622780144214630127e-01
-1.867530047893524170e-01
-1.183013916015625000e-01
-3.085769712924957275e-01
-3.114046156406402588e-01
5.623357743024826050e-02
1.540877819061279297e-01
5.202500149607658386e-02
1.183599233627319336e-01
3.157571554183959961e-01
1.635645627975463867e-01
4.217298328876495361e-02
-2.114335820078849792e-02
3.730377554893493652e-02
1.558544486761093140e-01
2.494633644819259644e-01
-1.365586519241333008e-01
2.654485404491424561e-02
8.226061612367630005e-02
1.435124576091766357e-01
-1.336117833852767944e-02
-2.373804450035095215e-01
-4.403668269515037537e-02
-2.820875868201255798e-02
5.278942734003067017e-02
-3.291552364826202393e-01
-1.035756617784500122e-01
9.308194369077682495e-02
2.466051429510116577e-01
1.286654621362686157e-01
2.813518047332763672e-01
5.003245919942855835e-02
2.486232854425907135e-02
4.335084930062294006e-02
-8.797755837440490723e-02
1.195319071412086487e-01
6.103400886058807373e-02
1.435091793537139893e-01
8.470089733600616455e-02
1.177606657147407532e-01
6.496034562587738037e-02
1.255585104227066040e-01
-1.215120591223239899e-02
5.499390885233879089e-02
1.753534227609634399e-01
1.740405261516571045e-01
9.738811291754245758e-03
-1.704182326793670654e-01
-6.561181042343378067e-03
9.655844420194625854e-02
7.797239720821380615e-02
8.456710726022720337e-02
-2.096452265977859497e-01
-1.456053107976913452e-01
-1.173107549548149109e-01
1.609303355216979980e-01
1.917725801467895508e-01
-1.512667089700698853e-01
-2.172591537237167358e-01
6.638852506875991821e-02
1.321321278810501099e-01
1.230119019746780396e-01
2.128884568810462952e-02
1.762429177761077881e-01
1.439158171415328979e-01
9.910930879414081573e-03
-1.062277406454086304e-01
-7.288844883441925049e-02
4.360301792621612549e-02
6.147117167711257935e-02
1.613368745893239975e-03
-9.898361563682556152e-02
3.540559858083724976e-02
3.349935263395309448e-02
7.364464551210403442e-02
5.994266644120216370e-02
-1.300521045923233032e-01
4.560260847210884094e-02
-8.746362477540969849e-02
-1.497592031955718994e-01
-1.209336891770362854e-01
-3.513881564140319824e-01
-5.497040152549743652e-01
-6.600105762481689453e-01
-4.697575867176055908e-01
-1.573522388935089111e-01
-1.342151612043380737e-01
-3.417347967624664307e-01
-4.236439168453216553e-01
-2.801268398761749268e-01
-9.223727136850357056e-02
-7.786668837070465088e-02
-6.221166849136352539e-01
-3.907057940959930420e-01
-4.458829164505004883e-01
1.557279285043478012e-02
-2.990360856056213379e-01
-1.360809355974197388e-01
1.025457214564085007e-02
-9.285976737737655640e-02
-3.074914515018463135e-01
-2.748710215091705322e-01
-5.321731045842170715e-02
8.863922953605651855e-02
5.215559620410203934e-03
-1.198330745100975037e-01
3.220702409744262695e-01
1.750279217958450317e-01
8.592639863491058350e-02
3.728602826595306396e-02
-6.250101327896118164e-02
3.790094703435897827e-02
-2.155432244762778282e-03
-6.383638083934783936e-02
3.775211051106452942e-02
-1.952869743108749390e-01
-6.847577542066574097e-02
-3.995364904403686523e-02
5.666581913828849792e-02
-1.278223097324371338e-01
-4.310359954833984375e-01
-3.344829678535461426e-01
-2.117125242948532104e-01
-3.751160204410552979e-02
-2.676949501037597656e-01
-3.618212640285491943e-01
-1.185907050967216492e-01
-1.153684407472610474e-01
-9.352520108222961426e-02
-1.366498470306396484e-01
1.193580180406570435e-01
3.482278063893318176e-02
-4.896034486591815948e-03
-2.936478257179260254e-01
-9.738045185804367065e-02
2.989491447806358337e-02
1.416782289743423462e-01
8.665405213832855225e-03
-2.148047983646392822e-01
1.223737373948097229e-03
1.493059657514095306e-02
2.544903568923473358e-02
-5.516168475151062012e-02
-6.813208758831024170e-02
1.270791590213775635e-01
1.349295675754547119e-01
-3.313471749424934387e-02
1.071018129587173462e-01
7.125738263130187988e-02
3.631802275776863098e-02
7.317820191383361816e-02
2.501668175682425499e-03
4.906142130494117737e-02
-7.881642319262027740e-03
2.179151028394699097e-02
-3.953678905963897705e-02
1.986040547490119934e-02
4.601355642080307007e-03
9.476234018802642822e-02
1.514916568994522095e-01
-1.234283074736595154e-01
1.379069834947586060e-01
-1.141309179365634918e-02
-1.672257632017135620e-01
1.081354394555091858e-01
-1.781295537948608398e-01
5.315541103482246399e-02
2.240817695856094360e-01
-1.303761452436447144e-02
1.305418312549591064e-01
-4.313736781477928162e-02
4.331615939736366272e-02
1.167700961232185364e-01
1.712256111204624176e-02
1.062582060694694519e-01
4.716049134731292725e-02
-1.272684633731842041e-01
-1.040159910917282104e-01
-5.266067758202552795e-02
2.328498661518096924e-01
-3.674120903015136719e-01
-4.846327006816864014e-02
1.396459639072418213e-01
-1.654934883117675781e-01
-2.933163940906524658e-01
3.758067497983574867e-03
-9.747812896966934204e-02
-9.259606897830963135e-02
-4.080427885055541992e-01
-1.419173181056976318e-01
-1.103114411234855652e-01
-1.201199293136596680e-01
-1.377723366022109985e-01
-1.485246419906616211e-01
5.527586117386817932e-02
7.274835556745529175e-02
1.686310172080993652e-01
-2.015518099069595337e-01
2.050755918025970459e-02
1.968591362237930298e-01
-2.606637775897979736e-03
-1.692422926425933838e-01
-4.862732067704200745e-02
1.020148470997810364e-01
-4.906159639358520508e-02
-1.489743143320083618e-01
-4.947934448719024658e-01
-3.046328574419021606e-02
2.613695263862609863e-01
2.047572284936904907e-01
-1.760375052690505981e-01
-2.871878445148468018e-01
-5.901233479380607605e-02
1.154733225703239441e-01
1.653445065021514893e-01
-5.418068915605545044e-02
2.489214017987251282e-02
-8.474645763635635376e-02
4.265009425580501556e-03
3.161876797676086426e-01
1.565627567470073700e-02
8.588239550590515137e-02
-2.933191135525703430e-02
-1.610656082630157471e-02
1.327570676803588867e-01
-6.455375999212265015e-02
7.402579486370086670e-02
4.818420112133026123e-02
9.891003370285034180e-02
1.748335063457489014e-01
6.293199211359024048e-02
-4.821712896227836609e-02
-7.653890550136566162e-02
-2.889234721660614014e-01
-1.920340508222579956e-01
6.018114089965820312e-02
6.468058377504348755e-02
9.183041006326675415e-02
-6.832063943147659302e-02
1.622198335826396942e-02
1.546345800161361694e-01
1.237984523177146912e-01
6.942033767700195312e-02
-1.771031618118286133e-01
-5.377625674009323120e-02
-4.274576529860496521e-02
1.898482292890548706e-01
-9.495158493518829346e-02
-8.622477650642395020e-01
-1.830861330032348633e+00
1.852088868618011475e-01
1.500746756792068481e-01
-4.796777665615081787e-02
-3.206104040145874023e-01
-6.969593763351440430e-01
-2.438654154539108276e-01
-3.068901300430297852e-01
-2.436184436082839966e-01
1.829733848571777344e-01
-2.676232159137725830e-01
1.163987349718809128e-02
-1.516719534993171692e-02
4.874489083886146545e-02
2.121057510375976562e-01
2.658066451549530029e-01
9.020881727337837219e-03
-7.580614835023880005e-02
2.651332691311836243e-02
3.076739311218261719e-01
4.328912794589996338e-01
2.017255499958992004e-02
-1.091690137982368469e-01
-1.359746512025594711e-02
2.674239873886108398e-01
4.573228359222412109e-01
2.329480089247226715e-02
8.761495351791381836e-02
-2.216701954603195190e-01
3.574559837579727173e-02
4.867433756589889526e-02
9.755717217922210693e-02
1.487425416707992554e-01
7.578005641698837280e-02
1.340529229491949081e-02
-3.751340508460998535e-01
3.738632425665855408e-02
-8.127566426992416382e-02
-1.065279766917228699e-01
-8.550794422626495361e-02
-1.717516779899597168e-01
4.236113280057907104e-02
-6.597708165645599365e-02
-9.137532114982604980e-02
-5.568433925509452820e-02
-2.701484560966491699e-01
1.391561627388000488e-01
-1.135185640305280685e-02
-2.099577486515045166e-01
-1.133663505315780640e-01
1.210919022560119629e-01
6.804347038269042969e-02
-3.867082670331001282e-02
-6.573444604873657227e-02
-3.341106176376342773e-01
-1.934230774641036987e-01
2.313247174024581909e-01
1.775034368038177490e-01
1.240773946046829224e-01
-1.008130237460136414e-01
-2.826979160308837891e-01
-7.152550667524337769e-02
5.326035618782043457e-02
-3.197207674384117126e-02
-3.089862465858459473e-01
-1.473310589790344238e-01
1.230463013052940369e-01
2.002410143613815308e-01
-4.108081758022308350e-02
-2.729106247425079346e-01
-2.956639528274536133e-01
2.780569493770599365e-01
2.993828058242797852e-01
1.175643689930438995e-02
-8.544075489044189453e-02
-5.647385958582162857e-03
2.415668815374374390e-01
1.095713824033737183e-01
1.518539637327194214e-01
1.001849770545959473e-01
9.909982979297637939e-02
8.599035441875457764e-02
4.399385768920183182e-03
1.455637216567993164e-01
3.300181329250335693e-01
3.276331424713134766e-01
-4.422265291213989258e-02
-6.551181524991989136e-02
8.067958056926727295e-02
2.099049389362335205e-01
9.322334080934524536e-02
-2.193144112825393677e-01
-9.928175806999206543e-02
7.908795773983001709e-02
5.667148903012275696e-02
2.648177556693553925e-02
-3.055936396121978760e-01
-2.817734181880950928e-01
-1.145784854888916016e-01
-4.381286352872848511e-02
-6.827563792467117310e-02
-6.732298731803894043e-01
-1.008376717567443848e+00
-5.850622057914733887e-01
-4.685868043452501297e-03
-8.621317148208618164e-02
4.188618622720241547e-03
-9.292013943195343018e-02
1.147975698113441467e-01
-1.623907238245010376e-01
-1.906406432390213013e-01
-2.945916913449764252e-02
1.706470549106597900e-02
-7.473100721836090088e-02
-8.283686637878417969e-02
9.185707569122314453e-02
-1.038911938667297363e-01
-1.166181340813636780e-01
-1.662952303886413574e-01
9.895208477973937988e-02
1.448642313480377197e-01
-9.344201534986495972e-03
-3.626032769680023193e-01
-4.301824569702148438e-01
1.248763427138328552e-01
-1.868220232427120209e-02
6.920604407787322998e-02
-2.452857792377471924e-01
-9.027466177940368652e-01
-6.381174921989440918e-01
-9.073463082313537598e-01
-6.911351531744003296e-02
-3.907163441181182861e-02
-4.611073061823844910e-02
-2.259818650782108307e-02
-6.215111166238784790e-02
2.159182876348495483e-01
-1.548321265727281570e-02
-2.014817446470260620e-01
-1.514605134725570679e-01
7.208661735057830811e-02
3.113137744367122650e-02
-2.195913530886173248e-02
-3.054851479828357697e-02
4.436143208295106888e-03
1.128489673137664795e-01
-1.097137853503227234e-01
-2.243451774120330811e-03
-1.835586130619049072e-02
4.490103572607040405e-02
-1.016580387949943542e-01
-8.567439019680023193e-02
-2.181945927441120148e-02
-4.528181999921798706e-02
1.956630684435367584e-02
2.724166773259639740e-02
3.140588849782943726e-02
-3.997935950756072998e-01
-4.955898597836494446e-02
9.166239947080612183e-02
2.438635975122451782e-01
-8.027800172567367554e-02
-1.954488158226013184e-01
-4.747828934341669083e-03
3.628188744187355042e-02
1.492000967264175415e-01
-1.076806560158729553e-01
-3.601725697517395020e-01
-4.436282441020011902e-02
9.260052442550659180e-02
1.132117435336112976e-01
2.620581686496734619e-01
-1.181189641356468201e-01
-2.114752493798732758e-02
-7.281355559825897217e-02
1.332583427429199219e-01
5.743326246738433838e-02
-3.793737590312957764e-01
-1.157212108373641968e-01
2.230177633464336395e-02
2.398871630430221558e-02
2.695356868207454681e-02
-3.537340834736824036e-02
2.235982567071914673e-01
3.124440014362335205e-01
2.542762756347656250e-01
1.578367799520492554e-01
8.375358447665348649e-06
2.060397900640964508e-02
7.223041355609893799e-02
1.992080360651016235e-01
-1.484785079956054688e-01
-1.667210757732391357e-01
-9.102556854486465454e-02
5.498881265521049500e-02
1.273021847009658813e-01
5.467676091939210892e-03
6.065589189529418945e-02
-1.143423616886138916e-01
1.227009072899818420e-01
1.127384603023529053e-01
-4.237457737326622009e-02
-3.117522923275828362e-03
-3.038932979106903076e-01
1.466544158756732941e-02
8.660888671875000000e-02
2.040267735719680786e-01
1.419966965913772583e-01
-1.151715777814388275e-02
-2.107825428247451782e-01
-2.256548106670379639e-01
1.023495271801948547e-01
2.305076085031032562e-02
-2.348551340401172638e-02
-2.788497507572174072e-01
-6.156445145606994629e-01
9.884640574455261230e-02
1.552595049142837524e-01
-2.627990841865539551e-01
-1.358344554901123047e+00
-1.470817446708679199e+00
8.034739643335342407e-03
1.088718473911285400e-01
-9.310943633317947388e-02
-1.548817038536071777e+00
-1.273514866828918457e+00
-8.331650868058204651e-03
-2.074864134192466736e-02
-1.163119971752166748e-01
-6.693019866943359375e-01
-1.013111948966979980e+00
-7.362765073776245117e-02
1.844588965177536011e-01
4.946559965610504150e-01
1.814265996217727661e-01
-5.425685271620750427e-02
-1.090288907289505005e-01
-8.581366389989852905e-02
1.375887449830770493e-02
1.292632371187210083e-01
-2.461074665188789368e-02
7.849486172199249268e-02
2.521432936191558838e-02
1.270544528961181641e-01
1.428407132625579834e-01
7.410741597414016724e-02
3.559299558401107788e-02
6.587109994143247604e-03
1.819539964199066162e-01
8.810148388147354126e-02
8.623547852039337158e-03
8.454843610525131226e-02
1.137480959296226501e-01
1.718170940876007080e-01
8.262667804956436157e-02
1.610941067337989807e-02
-1.944993250072002411e-02
2.399005740880966187e-01
4.758526682853698730e-01
4.101161658763885498e-01
2.857150696218013763e-02
-3.117416054010391235e-02
-1.104931756854057312e-01
-2.183468490839004517e-01
-3.264450132846832275e-01
-1.958273202180862427e-01
4.223364591598510742e-02
-6.294568628072738647e-02
-4.109124839305877686e-02
7.597114145755767822e-02
3.261561095714569092e-01
-3.791194409132003784e-02
-5.885725468397140503e-02
-7.124076038599014282e-02
4.683273658156394958e-02
1.745670437812805176e-01
1.677200756967067719e-02
3.301165252923965454e-02
-7.805489003658294678e-02
4.520450532436370850e-02
1.462987959384918213e-01
2.389137446880340576e-02
2.719069123268127441e-01
7.906391471624374390e-02
-4.868572950363159180e-02
-3.290061354637145996e-01
-1.768053881824016571e-02
-1.153356805443763733e-01
-2.951620332896709442e-02
-8.831641823053359985e-02
1.290652304887771606e-01
1.024493053555488586e-01
-9.453780949115753174e-02
3.603589162230491638e-02
-8.005001582205295563e-03
3.122641332447528839e-02
-4.267510771751403809e-02
-1.338213533163070679e-01
1.626406423747539520e-02
-2.834716141223907471e-01
-2.838217318058013916e-01
2.020336091518402100e-01
-1.149621382355690002e-01
-1.789466291666030884e-01
-5.786432623863220215e-01
-5.480363965034484863e-01
-2.873273491859436035e-01
-6.838386654853820801e-01
-1.539038866758346558e-01
1.233947202563285828e-01
-5.971181392669677734e-02
1.669598221778869629e-01
-2.217079252004623413e-01
-2.971040271222591400e-02
1.646192073822021484e-01
-3.988073021173477173e-02
-1.070320513099431992e-02
-2.159633487462997437e-01
-6.993953138589859009e-02
1.343266218900680542e-01
-2.107936330139636993e-02
-7.201655954122543335e-02
-2.183330655097961426e-01
-5.090349912643432617e-02
8.824703842401504517e-02
-2.151543647050857544e-02
1.090429425239562988e-01
-1.006985753774642944e-01
1.308714300394058228e-01
2.062988877296447754e-01
1.372531354427337646e-01
-9.762451052665710449e-02
-4.320420324802398682e-03
8.928152918815612793e-02
3.698908686637878418e-01
-3.657621741294860840e-01
8.724151179194450378e-03
-4.559135809540748596e-02
-1.016301736235618591e-01
3.880601823329925537e-01
-1.675924211740493774e-01
7.547423243522644043e-02
3.962862771004438400e-03
-7.687137112952768803e-04
1.139091476798057556e-01
-8.796776831150054932e-02
3.333556652069091797e-02
-1.779951853677630424e-03
1.901525408029556274e-01
2.855334281921386719e-01
-2.868046984076499939e-02
1.939684338867664337e-02
1.331317573785781860e-01
2.006254792213439941e-01
4.336997270584106445e-01
-1.460195928812026978e-01
-5.718280747532844543e-02
-7.559427618980407715e-02
2.672106325626373291e-01
1.769174337387084961e-01
9.759994596242904663e-02
-1.892099715769290924e-02
7.307932525873184204e-02
2.455958351492881775e-02
2.507128939032554626e-02
-7.000488787889480591e-02
8.336931467056274414e-02
-1.238822843879461288e-02
-1.372078210115432739e-01
-1.163043752312660217e-01
-1.536253094673156738e-01
1.840986311435699463e-01
1.639523059129714966e-01
-9.812095761299133301e-02
-4.911508783698081970e-02
8.290423452854156494e-02
1.698695421218872070e-01
2.612857520580291748e-01
-6.797411292791366577e-02
-5.677296593785285950e-02
-3.508937731385231018e-02
1.055079624056816101e-01
-4.223983883857727051e-01
-4.752543270587921143e-01
-1.285668015480041504e-01
6.220782641321420670e-03
1.093862876296043396e-01
1.176773682236671448e-01
1.337641030550003052e-01
2.067160792648792267e-02
-5.306822061538696289e-02
8.020015805959701538e-02
1.372334063053131104e-01
2.068213820457458496e-01
2.295641601085662842e-01
5.627407506108283997e-02
1.144886240363121033e-01
1.126378625631332397e-01
6.754528731107711792e-02
1.451853066682815552e-01
5.161835625767707825e-02
-1.335185170173645020e-01
-1.780555844306945801e-01
-3.691713511943817139e-02
2.822097763419151306e-02
1.838905364274978638e-02
1.641600728034973145e-01
-2.262270152568817139e-01
-3.753850162029266357e-01
2.487966977059841156e-02
4.081227779388427734e-01
9.413599967956542969e-02
6.636917591094970703e-02
-8.849517256021499634e-02
-3.522440791130065918e-01
-3.551552817225456238e-02
1.456890851259231567e-01
8.240690082311630249e-02
-2.734784409403800964e-02
-9.544886350631713867e-01
-7.377965003252029419e-02
1.770315170288085938e-01
1.356168240308761597e-01
1.975591927766799927e-01
-2.687856256961822510e-01
-8.463810384273529053e-02
7.623659819364547729e-02
-1.036440730094909668e-01
2.401403617113828659e-03
-1.789163500070571899e-01
-6.651260256767272949e-01
6.037338376045227051e-01
-3.010793328285217285e-01
-4.171822369098663330e-01
-7.280924171209335327e-02
2.048921585083007812e-01
3.008337914943695068e-01
-4.845794290304183960e-02
-1.374451220035552979e-01
-2.964577972888946533e-01
2.009890526533126831e-01
-1.980302296578884125e-02
-1.688384115695953369e-01
-2.577964961528778076e-01
-2.150225937366485596e-01
-2.628393704071640968e-04
1.113168820738792419e-01
2.039629220962524414e-02
-7.223779708147048950e-02
-4.759176447987556458e-02
-3.920058533549308777e-02
2.118524312973022461e-01
-4.732843488454818726e-02
-4.170292988419532776e-02
1.280730823054909706e-03
-2.192523144185543060e-02
2.340005189180374146e-01
-2.705307304859161377e-01
9.691588580608367920e-02
-1.159810274839401245e-01
-4.739664494991302490e-02
4.233728647232055664e-01
-2.389776259660720825e-01
1.845042556524276733e-01
1.159685999155044556e-01
3.287145793437957764e-01
1.209986731410026550e-01
-2.050639390945434570e-01
1.356302853673696518e-02
6.864453107118606567e-02
2.050203979015350342e-01
7.409140467643737793e-02
-1.109534949064254761e-01
-1.001923978328704834e-01
-2.707877159118652344e-01
-1.230913922190666199e-01
1.496899276971817017e-01
5.967212095856666565e-02
7.365503162145614624e-02
1.326263844966888428e-01
8.723650872707366943e-02
-2.397685348987579346e-01
-2.660478949546813965e-01
-2.314668893814086914e-01
-1.937331557273864746e-01
3.639838099479675293e-02
3.304978087544441223e-02
6.612470000982284546e-02
4.272576794028282166e-02
-1.346289217472076416e-01
4.373208433389663696e-02
-3.849385678768157959e-02
2.290852740406990051e-02
7.462698966264724731e-02
1.007607057690620422e-01
1.192492693662643433e-01
-2.346925437450408936e-01
-1.277766227722167969e-01
-4.401121288537979126e-02
-1.449112892150878906e-01
-2.043084949254989624e-01
-2.124921232461929321e-01
-1.125671043992042542e-01
-5.553164333105087280e-02
-1.924132406711578369e-01
-6.030796095728874207e-02
-2.433804608881473541e-02
-7.555373013019561768e-04
7.643083482980728149e-02
1.111666560173034668e-01
-1.695615351200103760e-01
8.242757618427276611e-02
-7.994294911623001099e-02
-1.866322755813598633e-02
4.564798437058925629e-03
1.446906626224517822e-01
7.985234260559082031e-02
-2.427827194333076477e-02
4.801147058606147766e-02
9.776439517736434937e-02
3.018994331359863281e-01
2.231885939836502075e-01
1.773564368486404419e-01
1.516649425029754639e-01
1.116847842931747437e-01
1.268884092569351196e-01
3.857555389404296875e-01
4.042346477508544922e-01
1.968380808830261230e-01
-7.235278189182281494e-02
-1.984139159321784973e-02
-1.151404604315757751e-01
1.121243536472320557e-01
1.662637293338775635e-01
4.283232614398002625e-02
-1.323033124208450317e-01
-3.120931098237633705e-03
-1.331995129585266113e-01
-3.989870846271514893e-02
-1.760185509920120239e-02
1.116882711648941040e-01
-4.583241418004035950e-02
2.244729362428188324e-02
2.896884828805923462e-02
1.886568963527679443e-02
-2.053388655185699463e-01
-1.958765238523483276e-01
-1.732913851737976074e-01
-6.040284410119056702e-02
-2.400457262992858887e-01
-1.856060326099395752e-02
-5.163915157318115234e-01
-2.880463600158691406e-01
-2.398247122764587402e-01
-1.701762080192565918e-01
-9.293062984943389893e-02
2.524559795856475830e-01
5.264791250228881836e-01
4.971092939376831055e-01
2.982614934444427490e-01
1.371360421180725098e-01
1.152832135558128357e-01
-1.182157844305038452e-01
1.512925955466926098e-03
1.110989600419998169e-01
1.147070899605751038e-01
-1.211073696613311768e-01
-4.973929002881050110e-02
-1.379430741071701050e-01
-5.612857639789581299e-02
7.790244370698928833e-02
-2.833951115608215332e-01
-1.544135622680187225e-02
-1.868867315351963043e-02
-1.067719608545303345e-02
2.345090918242931366e-02
-2.927486598491668701e-01
-3.575525879859924316e-01
-2.960129380226135254e-01
-2.906767129898071289e-01
-2.523650228977203369e-01
-1.400117427110671997e-01
-3.679881989955902100e-02
-1.991374045610427856e-01
-2.628470063209533691e-01
-3.773361444473266602e-01
6.914952397346496582e-02
5.567971989512443542e-02
-6.798394769430160522e-02
6.282481551170349121e-02
-2.185966521501541138e-01
9.675965458154678345e-02
4.433758929371833801e-02
1.189427748322486877e-01
1.323226839303970337e-02
7.674539834260940552e-02
1.897640675306320190e-01
1.245069056749343872e-01
1.919961883686482906e-03
3.957498073577880859e-02
1.475757807493209839e-01
-4.550103470683097839e-02
-1.174818724393844604e-03
1.025578007102012634e-01
1.667197979986667633e-02
1.380099356174468994e-01
7.394248247146606445e-02
5.445053800940513611e-02
1.611472070217132568e-01
1.930984854698181152e-01
9.873717278242111206e-02
2.212787270545959473e-01
-3.070477396249771118e-02
-7.715305779129266739e-03
1.461637616157531738e-01
-9.214112907648086548e-02
2.941572666168212891e-01
-4.922109097242355347e-02
7.764736562967300415e-02
9.070236980915069580e-02
1.411408931016921997e-02
1.897016763687133789e-01
-6.417693942785263062e-02
-9.118181467056274414e-02
4.194803908467292786e-02
1.141043826937675476e-01
-3.343721926212310791e-01
-1.000968590378761292e-01
-1.935501694679260254e-01
-9.559451788663864136e-02
-3.071127645671367645e-02
5.168117955327033997e-02
3.815395012497901917e-02
1.208540052175521851e-01
3.957689926028251648e-02
-2.249238342046737671e-01
6.078686937689781189e-02
-4.922832548618316650e-02
-6.662908941507339478e-02
-5.220455676317214966e-02
-1.432763785123825073e-01
5.243664234876632690e-02
2.884495258331298828e-02
6.416967511177062988e-02
9.809717535972595215e-02
-5.003267154097557068e-02
-1.255590170621871948e-01
-1.087866574525833130e-01
5.261256918311119080e-02
3.921413421630859375e-02
1.096691638231277466e-01
-3.513530790805816650e-01
-5.698645859956741333e-02
9.261433780193328857e-02
8.920608460903167725e-02
-4.173524081707000732e-01
7.711808383464813232e-02
1.099013835191726685e-01
7.041709125041961670e-02
-3.789759427309036255e-02
-5.716655775904655457e-02
-1.708962917327880859e-01
-7.498657703399658203e-02
-1.057139113545417786e-01
-3.084215223789215088e-01
-3.077134490013122559e-01
6.239370629191398621e-02
-4.157952591776847839e-02
-9.858252480626106262e-03
-1.568545997142791748e-01
4.790780693292617798e-02
1.916206330060958862e-01
-9.523715078830718994e-02
1.976600661873817444e-02
6.937889847904443741e-03
2.015674561262130737e-01
3.542181551456451416e-01
-8.178801089525222778e-02
6.676872819662094116e-02
-7.512030005455017090e-02
1.087288334965705872e-01
-7.196940481662750244e-02
8.474006503820419312e-02
2.640582323074340820e-01
2.324534803628921509e-01
-1.560970693826675415e-01
8.907832950353622437e-02
-8.122620172798633575e-03
3.100239299237728119e-02
-7.501600682735443115e-02
-6.237295642495155334e-02
1.134362593293190002e-01
-2.898904122412204742e-02
-6.604985799640417099e-03
-3.470980748534202576e-02
-9.284086525440216064e-02
-8.698882907629013062e-02
-1.329573392868041992e-01
2.232227846980094910e-02
5.187337473034858704e-02
-1.297929733991622925e-01
-1.956690400838851929e-01
-9.194927662611007690e-02
2.073824107646942139e-01
3.846614062786102295e-01
2.634517252445220947e-01
-7.514440268278121948e-02
-2.383848726749420166e-01
-6.279519200325012207e-02
7.847670465707778931e-02
-2.403699457645416260e-01
9.783203899860382080e-02
-2.709740996360778809e-01
-8.738028258085250854e-02
2.062174379825592041e-01
-1.387206912040710449e-01
1.192688569426536560e-01
-5.476064682006835938e-01
8.331074565649032593e-02
2.709592282772064209e-01
-8.427350223064422607e-02
-4.240566864609718323e-02
-7.937098741531372070e-01
-2.954083681106567383e-01
-2.193804532289505005e-01
-2.805053591728210449e-01
-1.886794865131378174e-01
-8.879576921463012695e-01
-6.768895387649536133e-01
4.932771250605583191e-02
-6.870595365762710571e-02
3.869120776653289795e-02
-1.765296421945095062e-02
-1.173500716686248779e-02
8.818007260560989380e-02
-6.685325503349304199e-02
-1.166018471121788025e-01
-7.686097174882888794e-02
5.450862925499677658e-03
4.342990461736917496e-03
-1.424889266490936279e-01
-2.360631227493286133e-01
-3.529081493616104126e-02
1.274312436580657959e-01
7.194393128156661987e-02
-1.375837624073028564e-01
-1.100291758775711060e-01
-7.919345982372760773e-03
4.076159372925758362e-02
4.944927245378494263e-02
-2.230926901102066040e-01
-4.045809060335159302e-02
9.800376743078231812e-02
1.753897070884704590e-01
4.881642013788223267e-02
-1.456941962242126465e-01
1.067911982536315918e-01
9.258534759283065796e-03
8.792217820882797241e-02
-6.178321838378906250e-01
7.026584446430206299e-02
2.348435670137405396e-01
1.658626496791839600e-01
1.975495368242263794e-01
-4.021290540695190430e-01
1.006236970424652100e-01
-4.208360314369201660e-01
-6.586984992027282715e-01
-2.330411821603775024e-01
-8.833103179931640625e-01
-9.240335971117019653e-02
-8.350569009780883789e-02
6.239276751875877380e-02
7.102779299020767212e-02
-5.558316707611083984e-01
-2.838825583457946777e-01
2.123264521360397339e-01
4.081751704216003418e-01
1.809770613908767700e-01
-3.205481171607971191e-01
-3.511509001255035400e-01
3.005384467542171478e-02
2.508482150733470917e-02
1.253548711538314819e-01
-1.075202878564596176e-02
-5.227058753371238708e-02
4.326671734452247620e-02
3.959771618247032166e-02
-6.462480127811431885e-02
-1.915416419506072998e-01
-2.818094566464424133e-02
2.635304033756256104e-01
2.974521555006504059e-02
-8.512178808450698853e-02
-1.185363605618476868e-01
-1.933172941207885742e-01
9.195484966039657593e-02
1.233567148447036743e-01
-1.538396626710891724e-02
1.011651381850242615e-01
-1.351956874132156372e-01
5.428665876388549805e-02
9.487009793519973755e-02
3.478939458727836609e-02
2.708175182342529297e-01
4.419147074222564697e-01
3.726928532123565674e-01
1.495894342660903931e-01
5.730909481644630432e-02
-4.499461036175489426e-03
-7.274848967790603638e-02
3.919918835163116455e-01
8.040149509906768799e-02
1.769767403602600098e-01
1.402778029441833496e-01
2.643430531024932861e-01
1.040492504835128784e-01
1.541076228022575378e-02
1.063598543405532837e-01
7.204282283782958984e-02
-1.036688461899757385e-01
-5.942387506365776062e-02
2.536149024963378906e-01
1.406072378158569336e-01
-2.132469089701771736e-03
-1.319274306297302246e-01
-2.676972374320030212e-02
1.018809601664543152e-01
1.740819811820983887e-01
-5.004828050732612610e-02
-2.974202632904052734e-01
-4.265499487519264221e-02
7.967860996723175049e-02
4.639662429690361023e-02
-1.011952683329582214e-01
-2.002127170562744141e-01
9.216444194316864014e-02
8.090745657682418823e-02
-2.616580203175544739e-02
-3.059155680239200592e-02
-5.279933288693428040e-02
8.387988805770874023e-02
3.711570054292678833e-02
6.071620061993598938e-02
8.497947454452514648e-02
1.786257140338420868e-02
-5.381211265921592712e-02
-6.336985388770699501e-04
8.319471776485443115e-02
1.328713744878768921e-01
9.536207467317581177e-02
2.576328068971633911e-02
1.492150276899337769e-01
8.274086564779281616e-02
8.818152546882629395e-02
9.102423489093780518e-02
-1.133828237652778625e-01
-1.121855154633522034e-01
-1.138010397553443909e-01
3.657980561256408691e-01
4.537841677665710449e-02
-9.395926445722579956e-02
-1.308960914611816406e-01
-1.880942732095718384e-01
-7.289424538612365723e-02
2.149442285299301147e-01
-1.385647356510162354e-01
-1.803795248270034790e-01
-1.309337317943572998e-01
-2.337461858987808228e-01
8.863038569688796997e-02
-4.314996674656867981e-02
-3.375257179141044617e-02
2.528030052781105042e-02
-1.797684729099273682e-01
-3.034001216292381287e-03
1.705627590417861938e-01
2.780290842056274414e-01
1.756100729107856750e-02
-9.468696266412734985e-02
-6.634868681430816650e-02
8.875175565481185913e-02
1.326705701649188995e-02
5.298877507448196411e-02
2.420442402362823486e-01
1.113129183650016785e-01
2.029513418674468994e-01
5.672418698668479919e-02
3.799301013350486755e-02
2.148316800594329834e-02
1.056956872344017029e-01
1.850372999906539917e-01
2.448907867074012756e-02
2.924048528075218201e-02
-2.368883043527603149e-02
-1.041696523316204548e-03
1.598263382911682129e-01
1.834331080317497253e-03
-1.254151463508605957e-01
-1.452697068452835083e-01
3.900579735636711121e-02
1.128973141312599182e-01
-5.460190400481224060e-02
-1.523464471101760864e-01
-1.118201538920402527e-01
-6.223138421773910522e-02
1.452155560255050659e-01
1.670036911964416504e-01
8.946866542100906372e-02
-2.570284008979797363e-01
-9.815523028373718262e-02
2.306819260120391846e-01
-1.935321092605590820e-02
-3.463297486305236816e-01
-4.977640807628631592e-01
-2.432072907686233521e-01
1.824510991573333740e-01
-1.545021981000900269e-01
-2.899829149246215820e-01
-1.858409494161605835e-01
-5.105334520339965820e-02
1.299015730619430542e-01
-1.304620802402496338e-01
-3.489216268062591553e-01
-2.837353944778442383e-01
-7.695320248603820801e-02
1.090462729334831238e-01
-1.869491487741470337e-01
-1.925783008337020874e-01
-3.174783885478973389e-01
-3.382424265146255493e-02
8.117880672216415405e-03
2.600264549255371094e-01
2.508398294448852539e-01
2.077097892761230469e-01
1.335207521915435791e-01
1.697973161935806274e-02
3.798224031925201416e-02
6.374432891607284546e-02
-7.384731620550155640e-02
-3.243247792124748230e-02
-5.009721964597702026e-03
1.037421822547912598e-02
2.510974407196044922e-01
-1.518664136528968811e-02
1.206927932798862457e-02
3.409438580274581909e-02
3.577948361635208130e-02
5.496424064040184021e-02
-1.901715546846389771e-01
-1.684486269950866699e-01
-8.025628328323364258e-02
-1.204947941005229950e-02
-2.184751071035861969e-02
8.245982229709625244e-02
5.500330403447151184e-02
-3.454384207725524902e-01
-5.266829207539558411e-02
1.053821295499801636e-01
-1.367075890302658081e-01
-1.460431516170501709e-01
-1.928092539310455322e-01
-2.801321074366569519e-02
1.939764916896820068e-01
-9.492710977792739868e-02
5.902640987187623978e-03
2.082571238279342651e-01
1.257688105106353760e-01
1.007225513458251953e-01
-9.460949152708053589e-02
-8.464208990335464478e-02
1.564840078353881836e-01
-4.381687939167022705e-02
-7.129081338644027710e-02
-3.736769407987594604e-02
-9.821438044309616089e-02
-1.081355754286050797e-02
-1.645643264055252075e-01
-2.160964608192443848e-01
-2.295431680977344513e-02
2.599297165870666504e-01
-9.620416164398193359e-02
-2.267031669616699219e-01
-2.204595208168029785e-01
-2.945359349250793457e-01
-6.422861665487289429e-02
2.720771543681621552e-02
8.862167596817016602e-03
-1.020544543862342834e-01
-8.585633337497711182e-02
-1.268774569034576416e-01
1.130639761686325073e-01
-7.254672795534133911e-02
5.640557408332824707e-02
-3.098247647285461426e-01
-2.239472866058349609e-01
3.801559330895543098e-03
9.823141247034072876e-02
-3.602344170212745667e-02
-2.902665734291076660e-01
-1.815660893917083740e-01
1.686676442623138428e-01
2.842759490013122559e-01
-3.533179461956024170e-01
-4.488535523414611816e-01
-3.086043894290924072e-01
-2.306382060050964355e-01
-2.755420804023742676e-01
-2.605543434619903564e-01
-9.432823956012725830e-02
-2.202052026987075806e-01
9.376212954521179199e-02
-6.872158497571945190e-02
-1.287766546010971069e-01
9.745228290557861328e-02
3.357568010687828064e-02
1.536569148302078247e-01
-1.914890259504318237e-01
-1.874259263277053833e-01
-3.421918302774429321e-02
1.680524088442325592e-02
7.951702922582626343e-02
5.172523856163024902e-02
-8.024282008409500122e-02
3.280750289559364319e-02
-3.591298162937164307e-01
1.873608678579330444e-01
3.132575154304504395e-01
3.476253449916839600e-01
2.252798378467559814e-01
6.429795920848846436e-02
2.992046773433685303e-01
5.352122709155082703e-02
6.018099561333656311e-02
-2.228218615055084229e-01
-3.642574846744537354e-01
3.279942870140075684e-01
1.255152374505996704e-01
-2.731318958103656769e-02
-1.711883544921875000e-01
-5.088311061263084412e-02
1.715826690196990967e-01
7.744228094816207886e-02
6.631035357713699341e-02
-2.016272097826004028e-01
1.414469033479690552e-01
1.147711053490638733e-01
2.207210659980773926e-02
-2.254310101270675659e-01
-4.993659257888793945e-02
3.724271655082702637e-01
-1.320523619651794434e-01
-1.797376424074172974e-01
7.672549039125442505e-02
1.908789426088333130e-01
3.625042438507080078e-01
-1.131124645471572876e-01
5.149426404386758804e-03
-1.845785975456237793e-01
-4.767566323280334473e-01
1.028852760791778564e-01
7.076400518417358398e-02
3.294299542903900146e-02
-4.943690448999404907e-02
-3.772554099559783936e-01
-2.149067819118499756e-02
1.928426921367645264e-01
6.809946894645690918e-02
-9.598390758037567139e-02
-1.748932898044586182e-01
1.418890208005905151e-01
3.073465824127197266e-01
9.355262666940689087e-02
1.706450730562210083e-01
1.875588893890380859e-01
2.142133861780166626e-01
1.937454044818878174e-01
-1.124321222305297852e-01
2.594823241233825684e-01
2.800261378288269043e-01
1.576954573392868042e-01
2.277720533311367035e-02
-2.702828645706176758e-01
-1.056920140981674194e-01
-3.458625972270965576e-01
-2.206119745969772339e-01
-1.853999868035316467e-02
7.235620170831680298e-02
1.019333526492118835e-01
-2.355435937643051147e-01
-1.611796915531158447e-01
-6.876880070194602013e-04
1.389182209968566895e-01
1.350145637989044189e-01
-1.437543779611587524e-01
1.013993918895721436e-01
-1.291431486606597900e-01
2.707754075527191162e-01
3.788210153579711914e-01
1.847693324089050293e-02
1.533801555633544922e-01
2.411628328263759613e-02
1.612370163202285767e-01
4.587431252002716064e-02
2.104187756776809692e-02
1.429424881935119629e-01
-5.754672735929489136e-02
1.672776937484741211e-01
1.407278925180435181e-01
-9.613519161939620972e-02
-1.935196965932846069e-01
-8.237342536449432373e-02
-8.242513239383697510e-02
1.427900344133377075e-01
1.538770622573792934e-03
-8.396624773740768433e-02
8.053265511989593506e-03
1.045245490968227386e-02
1.156792342662811279e-01
-5.633092671632766724e-02
2.560230204835534096e-03
9.508458524942398071e-02
8.803995698690414429e-02
2.065631151199340820e-01
-2.258235961198806763e-01
-2.898469567298889160e-01
2.488896399736404419e-01
1.240494195371866226e-02
4.575768485665321350e-02
-2.752794623374938965e-01
-5.361150503158569336e-01
-1.582836955785751343e-01
-2.948836386203765869e-01
-1.686133816838264465e-02
1.980744749307632446e-01
1.360052376985549927e-01
-1.918772794306278229e-02
-9.070463478565216064e-02
8.028357289731502533e-03
-1.286809593439102173e-01
-1.809712797403335571e-01
-1.537394989281892776e-02
-1.204920858144760132e-01
-4.401354119181632996e-02
-9.123584628105163574e-02
-8.629926294088363647e-02
-1.542483456432819366e-02
-1.101703569293022156e-01
-7.562763988971710205e-02
8.429728448390960693e-02
5.222871154546737671e-02
-9.846062399446964264e-03
-1.809580475091934204e-01
1.497394312173128128e-02
3.409570753574371338e-01
2.140775620937347412e-01
1.146375201642513275e-02
-5.398345366120338440e-02
1.163473650813102722e-01
5.589158535003662109e-01
8.670331239700317383e-01
1.651057004928588867e-01
6.784302741289138794e-02
-8.775115013122558594e-02
-5.597429722547531128e-02
2.201212048530578613e-01
1.038444265723228455e-01
6.362333148717880249e-02
1.122304201126098633e-01
1.095508560538291931e-01
-3.936904966831207275e-01
4.451459646224975586e-02
8.780784159898757935e-02
-1.387586593627929688e-01
-6.060026884078979492e-01
-1.690142899751663208e-01
-2.711619436740875244e-01
-2.327226847410202026e-01
-6.577941179275512695e-01
1.631913483142852783e-01
7.956574559211730957e-01
1.946745812892913818e-02
9.708482027053833008e-02
3.007241897284984589e-02
-2.486344240605831146e-02
2.564620459452271461e-03
-1.100876778364181519e-01
-4.285946860909461975e-02
7.350847870111465454e-02
9.355395287275314331e-02
3.516874089837074280e-02
-1.632643043994903564e-01
-5.064275115728378296e-02
7.632926851511001587e-02
2.152641862630844116e-01
4.436489567160606384e-02
2.503306232392787933e-02
-1.152251735329627991e-01
8.988520130515098572e-03
7.410155981779098511e-02
-1.315213833004236221e-02
-1.687064953148365021e-02
-1.269001215696334839e-01
-9.083408117294311523e-02
2.266253978013992310e-01
1.451050341129302979e-01
-7.830049097537994385e-02
2.656181529164314270e-02
-1.880136132240295410e-01
-9.802715778350830078e-01
-1.372560977935791016e+00
1.093544140458106995e-01
-2.788643538951873779e-01
-6.954123377799987793e-01
-1.832574605941772461e-01
-1.174835860729217529e-01
-7.031554579734802246e-01
-4.626322686672210693e-01
-2.098039239645004272e-01
2.833156585693359375e-01
-1.066228523850440979e-01
-4.377852380275726318e-01
5.606973543763160706e-02
2.630933523178100586e-01
2.801487147808074951e-01
9.494554996490478516e-02
-3.285736143589019775e-01
-3.509449064731597900e-01
4.690565913915634155e-02
5.336022973060607910e-01
9.311591088771820068e-02
-2.188722640275955200e-01
-8.915499597787857056e-02
1.031727343797683716e-01
2.234835475683212280e-01
2.226214706897735596e-01
-9.533037990331649780e-02
-4.152229800820350647e-02
-7.450447231531143188e-02
-4.422191530466079712e-03
2.701983787119388580e-02
-1.583986729383468628e-01
-3.058562614023685455e-02
-7.075364142656326294e-02
1.304297447204589844e-01
-2.986440621316432953e-02
-2.675856277346611023e-02
-6.769867986440658569e-02
-1.635254472494125366e-01
-4.743775352835655212e-02
1.222374010831117630e-02
-1.049542576074600220e-01
-1.173904091119766235e-01
-2.073833346366882324e-01
3.980656564235687256e-01
3.690188527107238770e-01
9.051071107387542725e-02
-1.318204998970031738e-01
-2.688021957874298096e-01
4.277163743972778320e-02
-7.335565239191055298e-02
2.093346714973449707e-01
-1.199981495738029480e-01
-5.677392706274986267e-02
-5.437658354640007019e-02
9.728297591209411621e-03
1.350676119327545166e-01
-2.073583602905273438e-01
-2.484217286109924316e-02
4.585099872201681137e-03
8.245530724525451660e-02
-4.986095428466796875e-02
2.520778775215148926e-01
-1.627596765756607056e-01
-1.540627237409353256e-02
1.571997404098510742e-01
-1.370236426591873169e-01
2.183892577886581421e-01
-1.365305334329605103e-01
-9.336218237876892090e-02
6.124412640929222107e-02
1.149561107158660889e-01
-1.056489273905754089e-01
-9.337101131677627563e-02
3.320607170462608337e-02
1.433147937059402466e-01
-1.372050046920776367e-01
1.212064176797866821e-01
7.016180455684661865e-02
-2.207786031067371368e-02
-2.420915514230728149e-01
3.426483646035194397e-02
9.949436411261558533e-03
1.058226898312568665e-01
-1.252808421850204468e-02
-2.428291738033294678e-02
2.373870834708213806e-02
1.180367171764373779e-01
1.325369626283645630e-01
4.159573093056678772e-02
-6.996862590312957764e-02
5.150435864925384521e-02
-8.435322344303131104e-02
-2.824485898017883301e-01
-3.987910449504852295e-01
-1.383149772882461548e-01
3.718542754650115967e-01
3.201557695865631104e-01
-7.199616432189941406e-01
-1.200554296374320984e-01
-5.734623670578002930e-01
1.243173480033874512e-01
-2.535740733146667480e-01
-1.734518855810165405e-01
-1.555289030075073242e-01
-2.915856838226318359e-01
-5.037629976868629456e-02
-2.978891730308532715e-01
4.370444267988204956e-02
-1.323778629302978516e-01
1.065998300909996033e-01
-1.130528375506401062e-01
-2.063621282577514648e-01
4.434056580066680908e-02
-3.328462690114974976e-02
3.664701804518699646e-02
-2.986551821231842041e-01
-8.315606713294982910e-01
-8.462867885828018188e-02
-3.074385821819305420e-01
2.694309875369071960e-02
1.360751241445541382e-01
-2.155365198850631714e-01
1.132901608943939209e-01
1.518875826150178909e-02
2.875551879405975342e-01
-7.500940561294555664e-02
-3.325087577104568481e-02
-7.926099002361297607e-02
1.971533298492431641e-01
2.848685383796691895e-01
-1.981768012046813965e-02
-1.905123703181743622e-02
1.928103528916835785e-02
1.749706454575061798e-02
2.577306926250457764e-01
-2.419044673442840576e-01
7.364172488451004028e-02
3.987640514969825745e-02
5.616365373134613037e-02
1.849286109209060669e-01
-4.328498840332031250e-01
1.629404127597808838e-01
1.354351490736007690e-01
1.698918640613555908e-01
4.667524099349975586e-01
-7.391222119331359863e-01
3.158184513449668884e-02
-1.641220599412918091e-01
-3.939588069915771484e-01
4.824769496917724609e-01
2.820108085870742798e-02
4.744000732898712158e-02
1.911747455596923828e-01
1.709390729665756226e-01
1.673785001039505005e-01
1.406169980764389038e-01
3.004917502403259277e-01
1.480343043804168701e-01
5.454242974519729614e-02
-6.587385386228561401e-02
-7.408821582794189453e-02
-9.665531665086746216e-02
-1.448617875576019287e-01
-1.701332628726959229e-01
-2.924222648143768311e-01
-1.951528042554855347e-01
3.312394320964813232e-01
4.709015786647796631e-01
5.484918951988220215e-01
5.199512466788291931e-02
2.613888084888458252e-01
1.486024409532546997e-01
6.876117736101150513e-02
2.756689190864562988e-01
1.311991065740585327e-01
4.890778288245201111e-02
4.185468330979347229e-02
1.297946721315383911e-01
8.156973868608474731e-02
2.114733606576919556e-01
-5.599397048354148865e-02
-2.231435179710388184e-01
4.386913031339645386e-02
-5.725821107625961304e-02
-1.814604848623275757e-01
-3.224590420722961426e-01
-1.382037252187728882e-01
1.072551682591438293e-02
-3.659243136644363403e-02
-6.799815595149993896e-02
-1.184127330780029297e-01
1.189045161008834839e-01
-2.929597496986389160e-01
-4.926880821585655212e-02
-1.094853132963180542e-01
8.610643446445465088e-02
6.110614538192749023e-02
1.623408943414688110e-01
4.700321704149246216e-02
8.309955708682537079e-03
8.892818540334701538e-02
1.124884784221649170e-01
6.317048519849777222e-02
-1.160414516925811768e-02
-9.976393729448318481e-02
2.604521438479423523e-02
-5.225105956196784973e-02
1.437051594257354736e-01
8.231835067272186279e-02
-4.385419189929962158e-02
1.469982862472534180e-01
-3.632740303874015808e-02
1.063846498727798462e-01
-8.738608658313751221e-02
-2.569502778351306915e-02
1.140900179743766785e-01
-7.987415790557861328e-02
-1.908596721477806568e-03
-2.853919193148612976e-02
4.295378178358078003e-02
-1.131661534309387207e+00
-2.307835102081298828e+00
-1.447386622428894043e+00
-5.784814357757568359e-01
-9.972953051328659058e-02
-4.296326637268066406e-01
-3.081468045711517334e-01
-2.049225717782974243e-01
-2.206160873174667358e-02
-5.594558082520961761e-03
1.656481809914112091e-02
1.737509965896606445e-01
1.258351951837539673e-01
8.255559951066970825e-02
2.744751051068305969e-02
1.783646345138549805e-01
1.773416697978973389e-01
1.398585885763168335e-01
4.438199847936630249e-02
5.847923085093498230e-02
5.042123049497604370e-02
2.375941872596740723e-01
1.068061664700508118e-01
2.317343838512897491e-02
9.824715554714202881e-02
-3.249541297554969788e-02
-8.758936822414398193e-02
-1.658725179731845856e-02
2.178458720445632935e-01
1.991068571805953979e-01
2.332686446607112885e-03
2.770146131515502930e-01
1.530270576477050781e-01
-9.266514331102371216e-02
-3.443306386470794678e-01
6.151813431642949581e-05
-4.062895476818084717e-01
-3.097489476203918457e-01
-6.116880103945732117e-02
-2.791838347911834717e-01
-5.911080166697502136e-02
-3.352185785770416260e-01
5.315817892551422119e-02
-1.477171033620834351e-01
-5.120543241500854492e-01
-1.038149744272232056e-01
-5.124231055378913879e-02
2.692062854766845703e-01
-7.541569322347640991e-02
-2.264146953821182251e-01
-1.005469635128974915e-01
1.260519772768020630e-02
1.622733175754547119e-01
2.156152874231338501e-01
3.554211556911468506e-01
8.072485029697418213e-02
-1.004880294203758240e-02
-1.034928709268569946e-01
-1.009545251727104187e-01
2.497632801532745361e-02
-1.847876235842704773e-02
1.481867581605911255e-02
-8.556821942329406738e-02
-8.856631815433502197e-02
2.281395941972732544e-01
-1.404395252466201782e-01
5.526800826191902161e-02
-8.230083435773849487e-02
-5.769670382142066956e-02
1.153289750218391418e-01
-1.044211834669113159e-01
5.583252385258674622e-02
-5.099967867136001587e-02
-7.669916003942489624e-02
7.804042845964431763e-02
4.142814874649047852e-01
-2.585349231958389282e-02
-3.661290407180786133e-01
-3.441931605339050293e-01
-4.922625422477722168e-02
-4.954089522361755371e-01
-6.521106958389282227e-01
-3.174848556518554688e-01
-8.310706168413162231e-02
-4.038664326071739197e-02
-2.483771294355392456e-01
-1.998262293636798859e-02
9.817388653755187988e-02
2.822289429605007172e-02
3.768867254257202148e-02
-6.224063690751791000e-03
1.551218926906585693e-01
1.496496349573135376e-01
9.460483491420745850e-02
6.245020776987075806e-02
3.165657818317413330e-02
6.484952569007873535e-02
1.384833157062530518e-01
-7.722662761807441711e-03
2.558571286499500275e-02
-1.872422844171524048e-01
-2.978180646896362305e-01
-1.821812428534030914e-02
9.521455317735671997e-02
1.323574781417846680e-01
-3.925831615924835205e-02
-1.295848190784454346e-01
-8.591567724943161011e-02
9.755871444940567017e-02
1.084879264235496521e-01
-8.671893924474716187e-02
-8.790734410285949707e-02
1.133657023310661316e-01
1.307220757007598877e-01
6.004617363214492798e-02
-2.998487278819084167e-02
-4.236767813563346863e-02
4.536795243620872498e-02
3.285009413957595825e-02
-5.841428041458129883e-02
2.691919915378093719e-02
8.419524133205413818e-02
1.246399134397506714e-01
8.049090392887592316e-03
2.432850189507007599e-02
1.893042027950286865e-02
-8.186218142509460449e-02
-3.418557345867156982e-02
-2.786128083243966103e-03
-2.428098581731319427e-02
6.278857588768005371e-02
-5.909320339560508728e-02
1.295778751373291016e-01
2.279272675514221191e-02
-8.061721175909042358e-02
1.232953593134880066e-01
3.494910523295402527e-02
6.742536276578903198e-02
-1.000632182694971561e-03
-1.556626856327056885e-01
-1.238649562001228333e-01
7.518348842859268188e-02
-1.785764694213867188e-01
4.042204841971397400e-02
-6.863193586468696594e-03
-2.846193909645080566e-01
-3.586987257003784180e-01
9.213785082101821899e-02
-2.720665186643600464e-02
1.925446540117263794e-01
3.212737739086151123e-01
3.285809755325317383e-01
6.719230115413665771e-02
-5.824632942676544189e-03
1.030940413475036621e-01
1.795142889022827148e-01
-4.735185578465461731e-02
-5.785825848579406738e-02
4.143217951059341431e-02
1.701524108648300171e-02
-2.585550025105476379e-02
-3.041333556175231934e-01
-6.893415004014968872e-02
-5.021423473954200745e-02
1.006949925795197487e-03
-6.522535085678100586e-01
-5.162278413772583008e-01
-2.039050012826919556e-01
-9.025573730468750000e-02
3.391954116523265839e-03
-1.855773448944091797e+00
-6.207842826843261719e-01
-4.273578524589538574e-01
3.217494487762451172e-02
3.615339100360870361e-02
-4.050761833786964417e-02
-6.932380492798984051e-04
2.163889408111572266e-01
-3.226674795150756836e-01
-2.643278837203979492e-01
4.558470472693443298e-02
1.306764930486679077e-01
1.739988774061203003e-01
-1.637333035469055176e-01
-1.485457271337509155e-01
7.557443529367446899e-02
4.500379413366317749e-02
-3.631208837032318115e-01
-2.894734740257263184e-01
-7.136308122426271439e-03
5.490961018949747086e-03
-1.198418736457824707e-01
-1.937992572784423828e-01
2.599601745605468750e-01
3.026050627231597900e-01
-2.035779654979705811e-01
9.771895408630371094e-02
4.278063476085662842e-01
3.819602131843566895e-01
9.816823154687881470e-02
6.700016558170318604e-02
-2.300855964422225952e-01
7.823214866220951080e-03
6.367696821689605713e-02
2.205410003662109375e-01
1.695062965154647827e-01
1.099810600280761719e-01
6.427848339080810547e-02
-8.022966980934143066e-02
1.348057836294174194e-01
1.981607079505920410e-01
2.025987803936004639e-01
4.066199436783790588e-02
-2.523333430290222168e-01
3.444518521428108215e-02
2.404318004846572876e-02
1.169175803661346436e-01
-1.133251413702964783e-01
-1.411588340997695923e-01
1.206309199333190918e-01
-2.957069501280784607e-02
3.472901880741119385e-02
5.969262123107910156e-02
-8.691721409559249878e-02
1.355918794870376587e-01
-4.835937172174453735e-02
-3.233428001403808594e-01
-2.620934844017028809e-01
-3.631431376561522484e-03
5.412768200039863586e-02
-2.860207259654998779e-01
-1.260362267494201660e-01
2.486714534461498260e-02
1.578842252492904663e-01
1.086688563227653503e-01
4.834841936826705933e-02
1.643406748771667480e-01
2.622233927249908447e-01
2.262031435966491699e-01
4.482737742364406586e-03
2.561692595481872559e-01
1.035493090748786926e-01
-8.936711400747299194e-02
-3.166027665138244629e-01
-1.392068713903427124e-01
4.701751768589019775e-01
3.715941309928894043e-02
-9.998428076505661011e-02
-4.407554268836975098e-01
-1.309114843606948853e-01
1.177015006542205811e-01
1.715933829545974731e-01
5.802115052938461304e-02
3.901647776365280151e-02
2.616696991026401520e-02
3.415616601705551147e-02
-2.402425277978181839e-03
1.835889220237731934e-01
1.570848226547241211e-01
2.608251012861728668e-02
-1.823778748512268066e-01
3.233520686626434326e-02
1.711858659982681274e-01
4.933180753141641617e-03
4.662789404392242432e-02
-8.237080276012420654e-02
-1.706041581928730011e-02
-1.496029198169708252e-01
-4.579239711165428162e-02
8.303593099117279053e-02
-3.118655830621719360e-02
-2.404177784919738770e-01
-4.051078259944915771e-01
-1.194851174950599670e-01
-3.165476256981492043e-03
-1.017653793096542358e-01
-8.444150537252426147e-02
-5.172275006771087646e-02
7.875513285398483276e-02
9.764755517244338989e-02
-1.874305307865142822e-02
-1.670712977647781372e-02
-3.213538601994514465e-02
5.097374692559242249e-02
-6.466794013977050781e-02
-4.897632077336311340e-02
-1.008011773228645325e-01
4.721571505069732666e-02
1.644163392484188080e-02
-5.419452674686908722e-03
4.545341804623603821e-02
-8.452695608139038086e-02
1.380896121263504028e-01
-2.377708442509174347e-02
-3.150111064314842224e-02
1.332847476005554199e-01
7.136058807373046875e-02
5.033971741795539856e-02
8.244682103395462036e-02
8.843781799077987671e-02
-1.232939064502716064e-01
4.401203617453575134e-02
-1.659243851900100708e-01
-1.648696064949035645e-01
6.482527125626802444e-03
4.430050775408744812e-02
8.103857189416885376e-02
1.030171960592269897e-01
-7.587370276451110840e-02
-1.267700493335723877e-01
4.848000407218933105e-02
1.914734952151775360e-02
1.212275549769401550e-01
-1.778366565704345703e-01
-1.165905967354774475e-02
5.542974174022674561e-02
5.699974671006202698e-02
2.720352634787559509e-02
-1.081060692667961121e-01
6.946051865816116333e-02
1.465377062559127808e-01
1.546849310398101807e-01
1.430745869874954224e-01
-1.232416927814483643e-01
-9.906547516584396362e-02
-4.546612128615379333e-02
-7.624993473291397095e-02
-2.891561090946197510e-01
-1.762693971395492554e-01
-4.156493768095970154e-02
8.677850663661956787e-02
7.098872959613800049e-02
-1.798528619110584259e-02
1.712969988584518433e-01
2.291373908519744873e-01
9.360963106155395508e-02
5.280532315373420715e-02
-1.228358671069145203e-01
9.444536268711090088e-02
1.292673200368881226e-01
2.043551951646804810e-01
6.161739677190780640e-02
-1.538565754890441895e-01
1.412461698055267334e-01
1.759123951196670532e-01
2.009949237108230591e-01
-1.664261668920516968e-01
-3.538561761379241943e-01
2.128337472677230835e-01
4.948548674583435059e-01
-2.631200551986694336e-01
-9.358666837215423584e-02
1.092339530587196350e-01
7.094839215278625488e-02
8.097315579652786255e-02
-2.498290389776229858e-01
-2.218041568994522095e-02
2.324347943067550659e-01
8.826123923063278198e-02
-8.744617551565170288e-02
-2.213641107082366943e-01
-7.417391519993543625e-03
2.403253912925720215e-01
4.979035817086696625e-03
-2.536536157131195068e-01
-1.683306545019149780e-01
4.075841978192329407e-02
2.161035537719726562e-01
-2.371798641979694366e-02
-8.464494347572326660e-02
-3.193320631980895996e-01
-4.663584381341934204e-02
2.038817293941974640e-02
2.432480454444885254e-01
1.128812953829765320e-01
-6.366816908121109009e-02
-2.544115483760833740e-01
-1.025298461318016052e-01
-2.009169012308120728e-02
1.415410041809082031e-01
-4.396725073456764221e-02
-2.995283007621765137e-01
-3.340677544474601746e-02
8.721092343330383301e-02
2.915119528770446777e-01
-3.993543088436126709e-01
-2.249440103769302368e-01
-1.616651308722794056e-03
1.904088072478771210e-02
2.359094023704528809e-01
-5.467851758003234863e-01
1.979306153953075409e-02
1.968790888786315918e-01
4.905195161700248718e-02
-3.190625831484794617e-02
-2.951746881008148193e-01
3.210619091987609863e-01
2.651675939559936523e-01
9.975323826074600220e-02
-8.264337480068206787e-02
-4.081037938594818115e-01
-7.099945843219757080e-02
8.614941686391830444e-02
-7.779616862535476685e-02
-5.947894454002380371e-01
-9.086315333843231201e-02
1.413272768259048462e-01
2.365381717681884766e-01
1.366186589002609253e-01
-3.200107514858245850e-01
-2.002021223306655884e-01
6.209431588649749756e-02
5.416896939277648926e-02
1.354571878910064697e-01
-4.126367568969726562e-01
-1.726731657981872559e-01
1.346372067928314209e-01
1.397174149751663208e-01
5.950406566262245178e-02
-4.493931829929351807e-01
-9.082896262407302856e-02
2.040220648050308228e-01
3.507707417011260986e-01
7.003012113273143768e-03
-3.647786974906921387e-01
