-6.550313532352447510e-02
-5.627076327800750732e-02
9.651560336351394653e-02
-2.902038767933845520e-02
-2.206726372241973877e-01
-1.852302104234695435e-01
-1.369910389184951782e-01
-2.808841168880462646e-01
-1.565322875976562500e-01
-2.448838651180267334e-01
-1.201225891709327698e-01
-5.427355691790580750e-02
-1.491406559944152832e-01
-4.025199636816978455e-02
-4.729187488555908203e-02
1.213534474372863770e-01
-1.213722378015518188e-01
-1.112789195030927658e-02
1.508526504039764404e-01
1.244956851005554199e-01
-2.444889396429061890e-02
-1.341892965137958527e-02
2.659829258918762207e-01
4.080616831779479980e-01
2.421345002949237823e-02
1.244066469371318817e-02
1.449495106935501099e-01
2.924804687500000000e-01
-1.243149582296609879e-02
-1.813539713621139526e-01
-3.632534742355346680e-01
-2.914125099778175354e-02
-2.110813278704881668e-03
-2.059296369552612305e-01
-1.905407011508941650e-01
5.053674336522817612e-03
6.253755092620849609e-02
-1.090079098939895630e-01
-5.768942087888717651e-02
-2.093967236578464508e-02
5.411194264888763428e-02
-1.558498740196228027e-01
5.889983847737312317e-02
1.099674180150032043e-01
1.728945784270763397e-02
-1.869640052318572998e-01
-5.072132125496864319e-02
2.245093882083892822e-01
-2.562688589096069336e-01
-6.642659902572631836e-01
-3.312332332134246826e-01
-4.855279624462127686e-02
-2.077235281467437744e-01
-6.276803016662597656e-01
-5.496440529823303223e-01
-9.533742070198059082e-02
-2.195862680673599243e-02
-3.150071203708648682e-01
-3.243074417114257812e-01
1.010910421609878540e-01
2.219894975423812866e-01
-9.262096881866455078e-02
-3.886139094829559326e-01
-4.288600757718086243e-02
1.667239516973495483e-01
6.419827044010162354e-02
-1.218960955739021301e-01
-2.491295151412487030e-02
2.615420818328857422e-01
1.403216570615768433e-01
-5.995001271367073059e-02
2.148150056600570679e-01
2.529812753200531006e-01
2.113941125571727753e-02
-5.428631231188774109e-02
1.196959838271141052e-01
-1.218124572187662125e-02
1.803118288516998291e-01
4.293019324541091919e-02
2.420800775289535522e-01
1.685512065887451172e-01
2.055479288101196289e-01
1.371754799038171768e-02
1.332287341356277466e-01
-7.392788771539926529e-03
-8.385342359542846680e-02
-1.140741035342216492e-01
3.292092308402061462e-02
6.434228271245956421e-02
3.115257713943719864e-03
7.807079702615737915e-02
3.982945904135704041e-02
-5.531348753720521927e-03
-8.605640614405274391e-04
2.950077503919601440e-02
1.020183637738227844e-01
2.590817399322986603e-03
1.100856214761734009e-01
1.533636897802352905e-01
3.327048122882843018e-01
-1.315714269876480103e-01
8.613865822553634644e-02
6.589522212743759155e-02
1.013237982988357544e-01
-1.948560774326324463e-01
-2.682627737522125244e-02
-1.786180138587951660e-01
9.662754833698272705e-02
-6.459651887416839600e-02
-1.974640637636184692e-01
-2.545193135738372803e-01
6.041244417428970337e-02
2.823868095874786377e-01
2.384024113416671753e-01
9.691970795392990112e-02
2.735157683491706848e-02
1.552408486604690552e-01
1.433152109384536743e-01
4.160079360008239746e-02
2.299244254827499390e-01
-2.519619464874267578e-01
-5.719567462801933289e-02
-1.305959969758987427e-01
-7.678356766700744629e-02
-3.150574266910552979e-01
-1.562626659870147705e-01
-4.237686470150947571e-02
-1.089168712496757507e-01
4.421742558479309082e-01
1.636049300432205200e-01
7.606022804975509644e-02
2.066833823919296265e-01
2.043254077434539795e-01
2.031890004873275757e-01
9.618405252695083618e-02
1.343658715486526489e-01
1.714232116937637329e-01
1.924140602350234985e-01
1.607606261968612671e-01
2.004346996545791626e-01
1.847329139709472656e-01
1.086268946528434753e-01
8.552072942256927490e-02
1.762769818305969238e-01
1.006037592887878418e-01
-2.526852674782276154e-02
-2.462147548794746399e-02
1.100556030869483948e-01
1.704289019107818604e-02
-9.475679695606231689e-02
-3.064604848623275757e-02
1.272376924753189087e-01
2.018398493528366089e-01
-7.069383561611175537e-02
7.809936255216598511e-02
2.690815031528472900e-01
2.369664162397384644e-01
1.582935266196727753e-02
-3.340772911906242371e-02
7.875888049602508545e-02
2.647395245730876923e-02
3.162032067775726318e-01
-2.514631152153015137e-01
3.718993067741394043e-02
-4.044324904680252075e-02
-5.541432276368141174e-02
-7.334689795970916748e-02
2.901438251137733459e-02
2.809819579124450684e-01
1.228049676865339279e-02
-1.316472440958023071e-01
-1.333193480968475342e-01
-3.331576287746429443e-02
-4.485207051038742065e-02
-1.333608478307723999e-01
-4.863706231117248535e-02
1.158711612224578857e-01
9.038399904966354370e-02
1.066141128540039062e-01
4.303942322731018066e-01
-2.569057643413543701e-01
1.962466984987258911e-01
2.055006623268127441e-01
3.788104653358459473e-01
-3.622393608093261719e-01
2.157433331012725830e-01
2.294598370790481567e-01
2.511319518089294434e-01
-2.657693922519683838e-01
-1.163795706816017628e-03
3.951625823974609375e-01
1.775144189596176147e-01
3.918945416808128357e-02
-3.411317169666290283e-01
-3.234331607818603516e-01
-2.399931252002716064e-01
-5.127591267228126526e-02
-1.628232449293136597e-01
-3.757831454277038574e-01
-2.620705664157867432e-01
2.780420780181884766e-01
2.994169481098651886e-02
-1.233292743563652039e-01
-7.624556869268417358e-02
-7.538551837205886841e-02
-1.808734387159347534e-01
-1.404275093227624893e-02
1.142168603837490082e-02
2.699734568595886230e-01
3.540669786161743104e-05
-4.839342460036277771e-02
9.546909481287002563e-02
1.272810548543930054e-01
-2.983107790350914001e-02
-4.473783075809478760e-02
-3.497063647955656052e-03
1.667499542236328125e-01
1.442265063524246216e-01
3.295517712831497192e-02
2.667300403118133545e-01
2.164116948843002319e-01
1.062194257974624634e-02
-1.238076537847518921e-01
8.739097043871879578e-03
-2.635430097579956055e-01
-2.187486551702022552e-02
6.524783372879028320e-02
-2.206837981939315796e-01
-3.297768533229827881e-01
-1.953030079603195190e-01
-3.108729980885982513e-02
-2.411004528403282166e-02
-1.623085737228393555e-01
-2.585415542125701904e-01
-2.091569900512695312e-01
5.288511887192726135e-02
-2.680773735046386719e-01
-5.163245201110839844e-01
-2.683136761188507080e-01
4.486159887164831161e-03
1.502679288387298584e-01
8.236792683601379395e-02
-1.042899116873741150e-01
-2.383254095911979675e-02
6.375244259834289551e-02
1.056723669171333313e-01
-1.904451996088027954e-01
-2.217891961336135864e-01
3.588141873478889465e-02
8.026724308729171753e-02
-9.003645926713943481e-02
-1.014816015958786011e-01
6.672208756208419800e-02
-1.140389665961265564e-01
-6.263956427574157715e-02
-1.057689338922500610e-01
-3.400434255599975586e-01
-1.597435474395751953e-01
-3.392353355884552002e-01
-4.241590797901153564e-01
-1.932119578123092651e-01
3.838348016142845154e-02
-2.631883323192596436e-01
-7.488360255956649780e-02
3.778902441263198853e-02
-5.735655128955841064e-02
-1.742179989814758301e-01
-1.551816463470458984e-01
1.026323996484279633e-02
-1.120415888726711273e-02
-1.931711584329605103e-01
-6.233181059360504150e-02
-6.088737249374389648e-01
-7.808182388544082642e-02
-7.888090610504150391e-02
-1.658587306737899780e-01
-1.457527279853820801e-01
-7.905014604330062866e-02
-5.815415084362030029e-02
1.963970959186553955e-01
1.603189110755920410e-01
-7.954739034175872803e-02
-2.236188352108001709e-01
2.398200929164886475e-01
1.963171362876892090e-01
-3.023974895477294922e-01
-1.965470016002655029e-01
1.398326754570007324e-01
-5.725134611129760742e-01
7.407512515783309937e-02
2.590042948722839355e-01
-5.439325049519538879e-02
-2.339715361595153809e-01
1.126031130552291870e-01
-1.574475169181823730e-01
-7.601011544466018677e-02
-9.251499176025390625e-02
5.687134712934494019e-02
-1.574300974607467651e-01
1.249496042728424072e-01
1.156079769134521484e-01
1.160388626158237457e-02
-3.268113732337951660e-01
-8.388593047857284546e-02
-1.398643255233764648e-01
4.982322081923484802e-02
3.669372946023941040e-02
4.287011027336120605e-01
8.694078028202056885e-02
-1.984827816486358643e-01
-9.934881702065467834e-03
2.131392210721969604e-01
-1.575281620025634766e-01
9.596654027700424194e-02
7.038001203909516335e-04
7.883956655859947205e-03
-3.180339336395263672e-01
-6.343831866979598999e-02
-1.689302623271942139e-01
-2.942396402359008789e-01
1.905365735292434692e-01
-6.732006371021270752e-02
-2.602005898952484131e-01
3.468743264675140381e-01
-1.512787491083145142e-01
3.288779407739639282e-03
-1.942956298589706421e-01
-1.822056323289871216e-01
-6.188920736312866211e-01
-9.817915409803390503e-02
-2.009831666946411133e-01
-2.245228290557861328e-01
1.724100485444068909e-02
5.126951634883880615e-02
-3.426723554730415344e-02
-8.603873103857040405e-02
4.317785054445266724e-02
1.530836103484034538e-03
1.009276360273361206e-01
2.549350857734680176e-01
-4.225502535700798035e-02
-3.052454441785812378e-03
-1.613879017531871796e-02
-9.298852086067199707e-02
-2.397826164960861206e-01
-2.542836032807826996e-02
1.272042095661163330e-01
-3.757439851760864258e-01
-2.858057022094726562e-01
4.515547305345535278e-03
-1.603470891714096069e-01
-3.347646892070770264e-01
-3.783710598945617676e-01
8.967319130897521973e-02
1.122226193547248840e-01
2.666196525096893311e-01
-1.593581736087799072e-01
-1.115568280220031738e-01
9.138113260269165039e-02
-1.205065771937370300e-01
-7.558374106884002686e-02
-1.459670364856719971e-01
-5.214940756559371948e-02
-7.007751613855361938e-02
1.305507421493530273e-01
2.416724339127540588e-02
-2.168033868074417114e-01
-1.577603816986083984e-01
1.078725419938564301e-02
4.664117842912673950e-02
-1.030155122280120850e-01
3.861761838197708130e-02
-4.169397950172424316e-01
5.616239830851554871e-02
-1.290949527174234390e-02
-3.564811870455741882e-02
-3.307667076587677002e-01
-1.282207071781158447e-01
2.075690310448408127e-03
4.941571131348609924e-02
1.224683150649070740e-01
1.292557418346405029e-01
1.429761499166488647e-01
1.007143110036849976e-01
3.693536296486854553e-02
-3.116404637694358826e-02
-2.208969891071319580e-01
-6.596917659044265747e-02
1.040630787611007690e-01
4.328303784132003784e-02
-1.295364275574684143e-02
3.497281298041343689e-02
-2.546821236610412598e-01
-1.476427819579839706e-02
-4.086553677916526794e-02
-2.208004705607891083e-02
-2.738763988018035889e-01
2.094544172286987305e-01
-5.557535886764526367e-01
-1.624424457550048828e-01
1.768958419561386108e-01
-2.484246194362640381e-01
1.236486285924911499e-01
-1.983297020196914673e-01
7.479609549045562744e-02
-2.091402560472488403e-01
-3.531035035848617554e-02
2.466814406216144562e-02
1.727773994207382202e-01
-1.208749562501907349e-01
3.290527034550905228e-03
3.371259272098541260e-01
-1.351841390132904053e-01
-9.003309905529022217e-02
-5.455502867698669434e-02
3.152638673782348633e-01
3.811841309070587158e-01
2.298673987388610840e-01
3.147166967391967773e-01
3.182573914527893066e-01
-4.658896848559379578e-02
-1.443484127521514893e-01
9.197328239679336548e-02
-8.767020702362060547e-02
-5.972453951835632324e-02
-5.616997927427291870e-02
3.017666339874267578e-01
2.747980356216430664e-01
-3.077214360237121582e-01
-1.163427382707595825e-01
5.737122297286987305e-01
1.808809787034988403e-01
2.323130890727043152e-02
-5.220551043748855591e-02
4.682840704917907715e-01
4.400829970836639404e-01
-1.472926437854766846e-01
8.529634773731231689e-02
3.492058515548706055e-01
-4.258215129375457764e-01
-5.430832132697105408e-02
-1.388139463961124420e-02
6.693091988563537598e-02
-3.416332304477691650e-01
5.805081129074096680e-02
9.307662397623062134e-02
2.241757512092590332e-01
3.185500204563140869e-01
3.927662968635559082e-03
1.613734848797321320e-02
-9.581250138580799103e-03
3.323012590408325195e-01
-3.332259356975555420e-01
8.720079064369201660e-02
1.398933529853820801e-01
8.377894014120101929e-02
-3.208763301372528076e-01
9.931977838277816772e-02
1.313819922506809235e-02
1.187708526849746704e-01
5.878540687263011932e-03
6.995308399200439453e-02
1.951569020748138428e-01
4.143178164958953857e-01
2.439111024141311646e-01
-1.495637744665145874e-01
2.560979723930358887e-01
3.503997623920440674e-01
7.833582162857055664e-02
-6.716681271791458130e-02
-1.121948212385177612e-01
-9.320422395830973983e-05
8.529799431562423706e-02
-7.026753574609756470e-02
-1.014690399169921875e-01
-3.063736259937286377e-01
-2.478768974542617798e-01
1.957853557541966438e-03
4.410830512642860413e-02
-3.728204369544982910e-01
4.186457023024559021e-02
1.198199689388275146e-01
3.027188964188098907e-02
3.908489942550659180e-01
-2.698970437049865723e-01
-7.093961536884307861e-02
1.008463557809591293e-03
5.617223680019378662e-02
-1.675440967082977295e-01
-4.883084073662757874e-02
-3.811348974704742432e-02
-5.188640952110290527e-02
-2.261910885572433472e-01
2.900396287441253662e-01
3.295502392575144768e-03
3.133634924888610840e-01
-1.730886697769165039e-01
7.669264823198318481e-02
-5.085341632366180420e-02
5.733606219291687012e-01
-2.635586075484752655e-02
-1.494029164314270020e-01
-1.020145136862993240e-03
4.108773469924926758e-01
-1.645921617746353149e-01
-8.839532732963562012e-02
-4.095498472452163696e-02
1.465767920017242432e-01
-6.642872095108032227e-02
-9.759388118982315063e-02
1.068577840924263000e-01
3.262031078338623047e-01
6.353431344032287598e-01
4.274901449680328369e-01
3.789503872394561768e-01
-6.550855189561843872e-02
1.115782707929611206e-01
2.508512139320373535e-01
3.183960914611816406e-01
8.696042001247406006e-02
-1.617743819952011108e-01
3.742424026131629944e-02
-2.232598699629306793e-02
4.887425899505615234e-02
-1.173774078488349915e-01
9.138283133506774902e-02
-1.904713176190853119e-02
1.647537797689437866e-01
-7.865669578313827515e-02
-1.299124956130981445e-01
-1.522506773471832275e-01
-1.212222948670387268e-01
-1.992767304182052612e-01
-1.001532152295112610e-01
2.642513718456029892e-03
-1.985933482646942139e-01
-3.374747931957244873e-02
1.064699888229370117e-02
4.291282035410404205e-03
-1.504737734794616699e-01
-7.392906397581100464e-02
3.148849904537200928e-01
1.875942349433898926e-01
-1.371725648641586304e-01
2.857779897749423981e-02
-1.590289026498794556e-01
-1.273611336946487427e-01
-2.076787501573562622e-01
-8.621108531951904297e-02
-1.279239803552627563e-01
-6.160876527428627014e-02
-2.425473630428314209e-01
9.334082156419754028e-02
1.373786032199859619e-01
1.380450129508972168e-01
-1.881814375519752502e-02
9.189319610595703125e-02
1.363345682621002197e-01
2.455529272556304932e-01
-1.995564997196197510e-01
-8.996249735355377197e-02
-5.733247473835945129e-02
-1.996887028217315674e-01
-3.325560688972473145e-01
1.644463688135147095e-01
3.507822751998901367e-02
-2.119007408618927002e-01
-8.029640465974807739e-02
4.623547494411468506e-01
4.725827276706695557e-01
8.823297917842864990e-02
6.365679204463958740e-02
5.183195471763610840e-01
6.268877387046813965e-01
2.443438172340393066e-01
4.408523067831993103e-02
2.277219109237194061e-02
-4.521426185965538025e-02
-2.428463697433471680e-01
-1.005611121654510498e-01
2.027672678232192993e-01
4.203161224722862244e-02
-4.735548421740531921e-02
9.881523251533508301e-02
-3.601505607366561890e-02
1.676672101020812988e-01
1.541360616683959961e-01
7.572042942047119141e-02
-1.629017442464828491e-01
2.407172471284866333e-01
1.331596523523330688e-01
-9.560398757457733154e-02
1.825634986162185669e-01
2.863607406616210938e-01
4.591644704341888428e-01
4.351001381874084473e-01
7.028521597385406494e-02
3.043979704380035400e-01
2.790808975696563721e-01
-9.180279821157455444e-02
-8.652218431234359741e-02
-4.872482270002365112e-02
-2.240173965692520142e-01
-2.533060908317565918e-01
-2.648511230945587158e-01
-1.678280234336853027e-01
-1.757994443178176880e-01
-2.296943068504333496e-01
4.611276672221720219e-04
1.120084449648857117e-01
-1.617669910192489624e-01
-2.659265398979187012e-01
-7.939030975103378296e-02
2.494895458221435547e-01
6.132971867918968201e-02
-3.106567542999982834e-03
8.449309319257736206e-02
8.810802549123764038e-02
-6.911364849656820297e-03
-1.296424567699432373e-01
1.081711519509553909e-02
1.257404386997222900e-01
3.379629552364349365e-01
-4.580248892307281494e-02
-6.373718380928039551e-02
-2.857375144958496094e-01
-3.151483237743377686e-01
-1.680328845977783203e-01
-1.581416130065917969e-01
-1.676633059978485107e-01
-2.826130688190460205e-01
-2.319237142801284790e-01
-1.522444188594818115e-01
-1.204055547714233398e-01
-1.481948941946029663e-01
-1.460478007793426514e-01
-2.628403529524803162e-02
3.025686368346214294e-02
8.217772841453552246e-02
1.052531078457832336e-01
1.360402852296829224e-01
2.729656696319580078e-01
7.175677269697189331e-02
-2.035092562437057495e-01
8.626097440719604492e-02
1.913246214389801025e-01
2.614189982414245605e-01
2.218607366085052490e-01
-6.378156831488013268e-04
3.669171035289764404e-02
1.467531621456146240e-01
1.076736301183700562e-01
-1.114977821707725525e-01
5.046681687235832214e-02
2.574773132801055908e-01
1.610712260007858276e-01
5.750094056129455566e-01
1.229831874370574951e-01
2.295172065496444702e-01
4.185819923877716064e-01
-6.972508877515792847e-02
-3.271219879388809204e-02
1.523040086030960083e-01
1.183407530188560486e-01
5.037974193692207336e-02
1.255901157855987549e-01
2.799910902976989746e-01
3.036867380142211914e-01
1.405139714479446411e-01
3.060219436883926392e-02
-1.292750332504510880e-02
-7.708591222763061523e-02
-1.908073425292968750e-01
4.865913186222314835e-03
-5.310255289077758789e-02
-2.747189998626708984e-01
3.736961260437965393e-02
2.765443921089172363e-01
5.746606588363647461e-01
1.896422803401947021e-01
3.079635500907897949e-01
1.032803952693939209e-01
2.858729660511016846e-01
2.561287283897399902e-01
1.895145922899246216e-01
1.571445763111114502e-01
9.611355513334274292e-02
1.345181763172149658e-01
8.371296525001525879e-02
2.348389178514480591e-01
1.626648455858230591e-01
2.172233164310455322e-01
-5.972620099782943726e-02
1.664464175701141357e-01
-4.223853815346956253e-03
-9.550260379910469055e-03
-1.115798205137252808e-01
-4.218485578894615173e-02
1.021923199295997620e-01
8.637763559818267822e-02
-1.463235020637512207e-01
3.721659630537033081e-02
1.967737078666687012e-01
-9.466690570116043091e-02
5.075346827507019043e-01
4.971404373645782471e-01
2.854914963245391846e-01
-2.645822465419769287e-01
3.439222574234008789e-01
1.308500915765762329e-01
4.143778085708618164e-01
3.154189884662628174e-01
2.638257443904876709e-01
3.230765461921691895e-02
1.123195067048072815e-01
1.385862529277801514e-01
1.289440244436264038e-01
-1.374328695237636566e-02
8.601459860801696777e-02
4.260419309139251709e-02
3.456666767597198486e-01
3.381396234035491943e-01
3.489919602870941162e-01
1.904691457748413086e-01
2.740078866481781006e-01
2.495335638523101807e-01
2.061104029417037964e-01
1.425113528966903687e-01
-4.397138208150863647e-02
-9.742419421672821045e-02
-1.378369331359863281e-01
3.573900833725929260e-02
1.561132967472076416e-01
-1.248302310705184937e-01
-1.905068606138229370e-01
-3.808027505874633789e-02
-1.359379291534423828e-02
6.295309960842132568e-02
-2.088386565446853638e-01
-2.218249887228012085e-01
6.488780677318572998e-02
-1.236484665423631668e-02
3.985614329576492310e-02
2.708200514316558838e-01
1.222506612539291382e-01
1.070412322878837585e-01
8.228939026594161987e-02
3.057847917079925537e-01
2.070418149232864380e-01
7.904113084077835083e-02
1.531694829463958740e-01
2.866546213626861572e-01
-4.912301152944564819e-02
-7.983362674713134766e-02
1.405951529741287231e-01
1.170434951782226562e-01
1.215181872248649597e-01
2.091182023286819458e-01
2.114890068769454956e-01
-5.698275566101074219e-02
2.303834855556488037e-01
2.663886249065399170e-01
-5.750885233283042908e-02
-6.208510696887969971e-02
1.416111737489700317e-01
-4.338407889008522034e-03
-1.759581267833709717e-01
1.442678570747375488e-01
-1.174295842647552490e-01
-9.449646808207035065e-03
-9.472513943910598755e-02
7.226616144180297852e-02
-1.708652377128601074e-01
1.284472048282623291e-01
1.490552276372909546e-01
2.530398666858673096e-01
-8.214427530765533447e-02
1.146755591034889221e-01
1.891163289546966553e-01
1.777731180191040039e-01
2.365500293672084808e-02
1.431505680084228516e-01
7.517458498477935791e-02
1.073100976645946503e-02
-1.076611578464508057e-01
1.720364391803741455e-01
1.482950896024703979e-01
-6.596515327692031860e-02
1.936868280172348022e-01
1.640890687704086304e-01
8.024165034294128418e-02
2.125341743230819702e-01
1.513488888740539551e-01
1.486854702234268188e-01
1.368112955242395401e-02
6.113024055957794189e-02
1.480090618133544922e-01
1.467753201723098755e-01
9.127549082040786743e-02
6.400101631879806519e-02
-3.358731269836425781e-01
7.989256829023361206e-02
-1.655137240886688232e-01
-2.023278921842575073e-01
-1.198410317301750183e-01
-3.730477392673492432e-02
1.119319349527359009e-01
3.441117703914642334e-01
-1.020799502730369568e-01
4.536892846226692200e-02
7.788600027561187744e-02
1.439560651779174805e-01
1.604330539703369141e-01
2.552839182317256927e-02
-6.868954002857208252e-02
1.646077781915664673e-01
7.281421869993209839e-02
1.353109627962112427e-01
-9.026845544576644897e-02
-6.086961925029754639e-02
-3.929319977760314941e-02
2.167105525732040405e-01
2.295012772083282471e-01
1.416081637144088745e-01
-3.493546694517135620e-02
4.092745110392570496e-02
1.095540001988410950e-01
7.314013689756393433e-02
2.236206829547882080e-01
2.314965575933456421e-01
1.953917890787124634e-01
1.416280865669250488e-01
-2.123527675867080688e-01
1.912330687046051025e-01
-1.520316023379564285e-02
-4.791797101497650146e-01
-3.028711676597595215e-01
3.224056959152221680e-02
-4.595727846026420593e-02
-4.534146487712860107e-01
-2.642025947570800781e-01
-5.515431985259056091e-02
-1.126766130328178406e-01
-4.140958786010742188e-01
-4.457148909568786621e-01
2.804499864578247070e-02
-2.146466867998242378e-03
-2.526929676532745361e-01
-7.244212925434112549e-02
1.954622417688369751e-01
-8.970485068857669830e-03
-3.930516541004180908e-01
3.816819190979003906e-02
2.817514240741729736e-01
-4.641529917716979980e-02
-3.211758434772491455e-01
1.290492620319128036e-02
3.484695777297019958e-02
-1.156677957624197006e-02
-1.483794450759887695e-01
3.639881033450365067e-03
-1.180279478430747986e-01
9.920915216207504272e-02
1.137655079364776611e-01
2.545031532645225525e-02
4.978839159011840820e-01
3.564983606338500977e-02
-2.200242877006530762e-01
-2.329989075660705566e-01
1.649823486804962158e-01
1.276991516351699829e-01
1.662811730057001114e-03
-2.759848237037658691e-01
-1.804956644773483276e-01
1.553696244955062866e-01
2.507873177528381348e-01
-1.796745508909225464e-01
-2.318381518125534058e-01
5.816687270998954773e-02
9.473252110183238983e-03
-3.153982162475585938e-01
-8.918549865484237671e-02
-1.092840284109115601e-01
1.488320827484130859e-01
2.670606598258018494e-03
2.268032878637313843e-01
1.404042392969131470e-01
1.256507188081741333e-01
-6.753189954906702042e-03
3.610088229179382324e-01
3.399700224399566650e-01
1.714871674776077271e-01
-2.194681316614151001e-01
1.440387871116399765e-02
8.656774461269378662e-02
1.110201794654130936e-02
-1.964720711112022400e-02
-1.182020083069801331e-02
-1.769720315933227539e-01
-2.411628216505050659e-01
-1.854401975870132446e-01
-1.544421352446079254e-02
-5.515237152576446533e-02
-3.860615491867065430e-01
-9.994490444660186768e-02
-1.054786145687103271e-01
-1.644941866397857666e-01
-2.287153899669647217e-01
4.883456975221633911e-02
9.937608242034912109e-02
7.011105306446552277e-03
1.294118165969848633e-01
-1.448413133621215820e-01
-1.358991861343383789e-01
-2.611122131347656250e-01
-6.209525465965270996e-01
1.285483837127685547e-01
-6.733118742704391479e-02
-2.429214268922805786e-01
-6.131901741027832031e-01
2.884832620620727539e-01
2.035421878099441528e-01
-5.452544242143630981e-02
-4.110851883888244629e-01
-5.322841554880142212e-02
-1.290696579962968826e-02
-2.291196212172508240e-02
-1.941860616207122803e-01
-1.138427779078483582e-01
7.859911024570465088e-02
-8.826817385852336884e-03
1.396036148071289062e-01
-1.708944588899612427e-01
-1.952133774757385254e-01
1.205154061317443848e-01
3.159921765327453613e-01
-2.450288385152816772e-01
-4.518858492374420166e-01
-1.809204369783401489e-01
-1.402424462139606476e-02
-3.521047532558441162e-01
-2.543314695358276367e-01
-3.896824121475219727e-01
-1.716390550136566162e-01
2.291379421949386597e-01
1.080628708004951477e-01
1.146220862865447998e-01
-4.684728980064392090e-01
1.138036474585533142e-01
-3.130326792597770691e-02
-3.264020010828971863e-02
-8.811006695032119751e-02
6.718695908784866333e-02
-1.292490959167480469e-01
1.520107239484786987e-01
1.385441124439239502e-01
-9.261886775493621826e-02
2.117672376334667206e-02
-2.193521857261657715e-01
-3.136507049202919006e-02
-7.756948471069335938e-01
-3.288218677043914795e-01
2.243180721998214722e-01
2.165439426898956299e-01
-3.160772025585174561e-01
-1.018022373318672180e-01
3.865279257297515869e-02
-9.106220304965972900e-02
-1.336024515330791473e-02
7.011973857879638672e-02
-5.935735628008842468e-02
-3.469444513320922852e-01
-1.335358526557683945e-02
-2.872445620596408844e-02
-1.515237838029861450e-01
-2.086422592401504517e-01
-6.679112911224365234e-01
-5.043604224920272827e-02
-9.482610970735549927e-02
-8.619420975446701050e-02
-6.087921857833862305e-01
-1.992944777011871338e-01
-2.433756738901138306e-01
-2.111824601888656616e-01
-4.258249402046203613e-01
-9.284009784460067749e-02
-4.691788554191589355e-02
-3.672208189964294434e-01
-2.188028991222381592e-01
2.106610089540481567e-01
3.949366509914398193e-01
-1.576792895793914795e-01
7.625342011451721191e-01
-4.932148009538650513e-02
3.310717269778251648e-02
2.657203376293182373e-01
5.577040314674377441e-01
-2.110321260988712311e-02
-1.625869572162628174e-01
7.776226103305816650e-02
8.503089100122451782e-02
-2.492892146110534668e-01
-3.711282908916473389e-01
-3.309964835643768311e-01
-2.593444883823394775e-01
-3.825579583644866943e-01
-1.047360673546791077e-01
-9.382435679435729980e-02
-3.887355923652648926e-01
3.519721701741218567e-02
2.609646022319793701e-01
1.883033514022827148e-01
-4.762808978557586670e-01
-6.158694997429847717e-02
6.753607094287872314e-02
-6.756696850061416626e-02
-1.335150450468063354e-01
-2.082973346114158630e-02
1.459455639123916626e-01
-3.395094722509384155e-02
1.400864869356155396e-01
1.662567406892776489e-01
-8.285056054592132568e-02
-1.819127500057220459e-01
4.669656231999397278e-02
7.572782039642333984e-02
-1.453180052340030670e-02
-1.440675854682922363e-01
5.033719167113304138e-02
3.200922161340713501e-02
-3.666728734970092773e-02
-1.545785367488861084e-01
1.408629771322011948e-02
-1.059861034154891968e-01
-1.371197868138551712e-02
-1.682188659906387329e-01
1.280054748058319092e-01
-1.050266176462173462e-01
1.166091635823249817e-01
2.047724463045597076e-02
-8.340714871883392334e-02
3.867354011163115501e-03
9.253036975860595703e-02
-1.038325056433677673e-01
-1.683765463531017303e-02
8.634825050830841064e-02
-1.092474833130836487e-01
-1.722580045461654663e-01
-6.631434708833694458e-02
-1.137166656553745270e-02
3.494417667388916016e-01
4.503556191921234131e-01
-1.276525110006332397e-01
3.736106753349304199e-01
4.082194566726684570e-01
1.563720256090164185e-01
-2.926253154873847961e-02
-2.137173265218734741e-01
-4.044276848435401917e-02
4.158282652497291565e-03
-6.914781779050827026e-02
-6.802187860012054443e-02
-6.702619791030883789e-02
-1.554606705904006958e-01
-1.531889885663986206e-01
-9.483579546213150024e-02
-2.964517660439014435e-02
-1.137279272079467773e-01
-1.026999484747648239e-02
2.299629151821136475e-01
1.407539844512939453e-01
4.790496453642845154e-02
-9.580634534358978271e-02
1.514648646116256714e-01
3.466729074716567993e-02
-5.802334751933813095e-03
2.669119238853454590e-01
3.494890630245208740e-01
1.031430736184120178e-01
6.421947479248046875e-02
4.083757475018501282e-02
-8.204168826341629028e-02
-3.632001951336860657e-02
-2.888782694935798645e-02
2.435970157384872437e-01
1.364521831274032593e-01
8.897239714860916138e-02
-8.347651362419128418e-02
-1.364848911762237549e-01
2.544852793216705322e-01
1.636318117380142212e-01
-8.735141158103942871e-02
-1.097944527864456177e-01
1.414721906185150146e-01
2.574102580547332764e-02
-5.526892468333244324e-02
-7.699385285377502441e-02
2.348248213529586792e-01
6.951882690191268921e-02
-3.204502537846565247e-02
-1.358349174261093140e-01
1.983721405267715454e-01
6.947802752256393433e-02
-1.729910224676132202e-01
-8.994916826486587524e-02
-1.351438015699386597e-01
-1.053134351968765259e-01
1.360883265733718872e-01
-3.538343682885169983e-02
-1.673749685287475586e-01
-5.927394703030586243e-02
3.005543053150177002e-01
-5.531711876392364502e-02
-2.041448801755905151e-01
4.669530689716339111e-02
3.264248073101043701e-01
2.301383018493652344e-01
-5.211110040545463562e-02
3.951582014560699463e-01
4.079804420471191406e-01
6.664379686117172241e-02
-1.184540912508964539e-01
-1.303991675376892090e-01
2.042288631200790405e-01
-1.325217336416244507e-01
-9.793246537446975708e-02
1.136784553527832031e-01
1.857545226812362671e-02
-1.925899386405944824e-01
-1.861462891101837158e-01
-1.049935594201087952e-01
-9.040533751249313354e-02
-1.837392747402191162e-01
-1.080611441284418106e-02
8.211609721183776855e-02
6.998471915721893311e-02
-2.130536288022994995e-01
-1.560494750738143921e-01
-7.420250773429870605e-02
2.855797298252582550e-03
1.944029182195663452e-01
3.189735114574432373e-02
1.456647366285324097e-02
1.002979949116706848e-01
4.074689447879791260e-01
3.142160773277282715e-01
4.421438872814178467e-01
3.851075470447540283e-01
2.393839806318283081e-01
4.204179346561431885e-02
1.019946560263633728e-01
2.302367985248565674e-01
-2.143968129530549049e-03
-1.434897035360336304e-01
-2.036030739545822144e-01
-1.818474084138870239e-01
-7.567971944808959961e-02
-6.931413710117340088e-02
-9.476349502801895142e-02
-3.559877723455429077e-02
-3.039092421531677246e-01
-1.561269164085388184e-01
-1.725831627845764160e-01
-9.403013437986373901e-02
-2.814658880233764648e-01
-1.862628310918807983e-01
-2.269076555967330933e-02
-1.592581719160079956e-01
5.845389515161514282e-02
1.279763430356979370e-01
1.503614187240600586e-01
-1.900069117546081543e-01
-9.962362051010131836e-02
1.018359735608100891e-01
-3.414029954001307487e-03
-1.217839941382408142e-01
-1.624579727649688721e-01
-6.181702017784118652e-02
3.534535318613052368e-02
1.316217333078384399e-01
-1.551037430763244629e-01
1.003735959529876709e-01
2.203927934169769287e-01
-7.833873480558395386e-02
-1.600415557622909546e-01
-6.705804914236068726e-02
2.874052822589874268e-01
6.759405881166458130e-02
1.059112846851348877e-01
1.743809133768081665e-01
-3.077747486531734467e-02
1.088149026036262512e-01
1.394094973802566528e-01
1.680636852979660034e-01
-5.149504914879798889e-02
3.211857378482818604e-02
1.491521298885345459e-01
1.632868349552154541e-01
6.577081233263015747e-02
1.259642392396926880e-01
2.609753310680389404e-01
-2.141717821359634399e-01
-3.486511409282684326e-01
3.403997048735618591e-02
1.073788255453109741e-01
-1.207846105098724365e-01
-2.723736921325325966e-03
-7.179751992225646973e-02
1.108064427971839905e-01
2.117836922407150269e-01
2.561439573764801025e-01
2.125803679227828979e-01
6.805183738470077515e-02
2.285060882568359375e-01
4.101341068744659424e-01
2.502048015594482422e-01
-3.093173354864120483e-02
4.223351478576660156e-01
1.469855010509490967e-01
2.408090420067310333e-02
5.797158926725387573e-02
-2.358518354594707489e-02
-1.328788399696350098e-01
-1.542078852653503418e-01
3.995047137141227722e-02
6.214616820216178894e-02
-1.933327168226242065e-01
-3.130868077278137207e-01
-1.469609737396240234e-01
-1.453754901885986328e-01
-1.775617450475692749e-01
-3.444973528385162354e-01
-1.181005835533142090e-01
-8.190056681632995605e-02
-1.665045320987701416e-01
-2.785988908726722002e-04
-1.985083669424057007e-01
-2.285048812627792358e-01
-6.482671480625867844e-03
2.006781846284866333e-02
-4.974308982491493225e-02
-4.581157118082046509e-02
1.769627630710601807e-01
6.781680136919021606e-02
1.302553899586200714e-02
9.558130055665969849e-02
2.303655743598937988e-01
2.059274762868881226e-01
1.768762804567813873e-02
1.986624449491500854e-01
1.526730805635452271e-01
-6.932044029235839844e-02
3.935177251696586609e-02
2.018819004297256470e-01
4.834048449993133545e-01
1.576221138238906860e-01
2.397551834583282471e-01
4.821209609508514404e-01
3.472005724906921387e-01
1.604964286088943481e-01
-1.192210093140602112e-01
1.927196383476257324e-01
1.477527171373367310e-01
-1.016143113374710083e-01
-6.481309235095977783e-02
1.467020660638809204e-01
-1.571047492325305939e-02
-1.242790296673774719e-01
6.503976881504058838e-02
2.229491770267486572e-01
4.339726641774177551e-02
-1.933125220239162445e-02
1.417274028062820435e-01
3.078429698944091797e-01
5.124541372060775757e-02
-3.886501118540763855e-02
3.158022463321685791e-01
4.382795095443725586e-01
1.401159465312957764e-01
1.004527285695075989e-01
8.805970847606658936e-02
2.399467490613460541e-02
-5.483899265527725220e-02
1.509467959403991699e-01
1.101432889699935913e-01
-2.235340885818004608e-02
-2.853752300143241882e-02
-2.226866083219647408e-03
1.325032711029052734e-01
-1.277545094490051270e-02
3.021001815795898438e-02
-7.541233301162719727e-02
2.536717057228088379e-01
9.394071251153945923e-02
-7.852644659578800201e-03
-3.504911363124847412e-01
1.642373055219650269e-01
2.485210541635751724e-03
3.490958735346794128e-02
1.211130712181329727e-02
4.843469709157943726e-02
1.396867353469133377e-02
1.067833229899406433e-02
-1.438417136669158936e-01
1.765708439052104950e-02
5.149585008621215820e-02
1.196533907204866409e-03
-2.210918962955474854e-01
8.785739541053771973e-02
1.648138910531997681e-01
3.165642917156219482e-02
-1.224730238318443298e-01
2.182564139366149902e-02
2.019352652132511139e-02
1.231041178107261658e-01
1.511115431785583496e-01
5.260857194662094116e-02
-4.737460613250732422e-02
-3.365081548690795898e-02
1.119774207472801208e-01
-1.220753788948059082e-01
-1.308329254388809204e-01
-1.508495360612869263e-01
-1.012412160634994507e-01
-1.309159845113754272e-01
1.176005154848098755e-01
-7.491344958543777466e-02
-1.356528550386428833e-01
1.332689225673675537e-01
-3.703364357352256775e-02
1.406424194574356079e-01
-9.620375931262969971e-02
2.850120961666107178e-01
5.026899278163909912e-02
-4.926879331469535828e-02
-6.396987009793519974e-03
-6.280898302793502808e-02
-5.074550509452819824e-01
-2.360154315829277039e-02
6.515394151210784912e-02
-3.091845512390136719e-01
-8.430215716361999512e-02
-2.080159634351730347e-01
2.223076075315475464e-01
2.210390120744705200e-01
-2.809761166572570801e-01
-1.308470219373703003e-01
7.522583752870559692e-02
1.120453476905822754e-01
-7.862629741430282593e-02
3.216343000531196594e-02
1.135153248906135559e-01
1.015292666852474213e-02
-1.562764793634414673e-01
1.894445866346359253e-01
2.266377061605453491e-01
-4.439987540245056152e-01
9.368628263473510742e-02
4.070062041282653809e-01
2.670966088771820068e-01
1.206212937831878662e-01
4.537164419889450073e-02
-2.773804068565368652e-01
3.011367022991180420e-01
-1.309325918555259705e-03
-4.415661469101905823e-02
-1.157042831182479858e-01
1.110506430268287659e-01
1.259617060422897339e-01
-2.193372249603271484e-01
-2.905643582344055176e-01
-2.257128059864044189e-02
2.007062733173370361e-01
-2.319981157779693604e-01
-2.564875483512878418e-01
-8.183255046606063843e-02
-2.470788359642028809e-02
-2.051843553781509399e-01
-6.976918876171112061e-02
-3.508902713656425476e-02
2.101304568350315094e-02
-1.235701665282249451e-01
-1.832952648401260376e-01
5.600865930318832397e-02
1.840774416923522949e-01
5.772392451763153076e-02
8.710791915655136108e-02
-7.005255902186036110e-04
-1.153043806552886963e-01
2.208542637526988983e-02
7.130164653062820435e-02
1.283082664012908936e-01
1.297814399003982544e-01
-1.458164155483245850e-01
-1.674521416425704956e-01
2.775716036558151245e-02
1.886298060417175293e-01
-5.488362908363342285e-02
-3.113614022731781006e-02
1.639470458030700684e-02
3.414337933063507080e-01
-6.599724292755126953e-02
-1.473925262689590454e-01
1.181588880717754364e-02
-9.269661456346511841e-02
-1.845844089984893799e-01
-4.241865500807762146e-02
1.494423300027847290e-01
-4.789741709828376770e-02
-1.690021604299545288e-01
-2.331863157451152802e-02
-6.707160919904708862e-02
7.079119328409433365e-03
-1.567870825529098511e-01
-3.592929616570472717e-02
8.401802182197570801e-02
-7.368776202201843262e-02
-3.234212100505828857e-01
-1.700433902442455292e-02
2.106075547635555267e-02
-2.252477705478668213e-01
-5.756283998489379883e-01
9.435184299945831299e-02
2.126635760068893433e-01
1.691834256052970886e-02
-5.645758658647537231e-02
-6.812415271997451782e-02
9.149532765150070190e-02
-8.342986553907394409e-02
-8.202677220106124878e-02
1.739395856857299805e-01
8.965381234884262085e-02
-8.314888179302215576e-02
-8.980032801628112793e-02
3.622007966041564941e-01
8.225465565919876099e-02
1.132360007613897324e-02
-7.594984024763107300e-02
5.161107778549194336e-01
1.690692454576492310e-01
-1.419823020696640015e-01
-6.476979702711105347e-02
-1.273672729730606079e-01
3.605406582355499268e-01
6.466016173362731934e-02
1.095776334404945374e-01
1.192402318120002747e-01
1.305197924375534058e-01
1.592725366353988647e-01
1.615649759769439697e-01
2.127877622842788696e-02
-3.726970851421356201e-01
2.093991488218307495e-01
-2.741737104952335358e-02
-1.052530556917190552e-01
-2.772714197635650635e-01
5.958693847060203552e-02
-3.766458928585052490e-01
-2.974956035614013672e-01
8.631341904401779175e-02
1.616328954696655273e-01
-6.145985424518585205e-02
-2.162637710571289062e-01
-9.998389333486557007e-02
-8.000832982361316681e-03
-1.774831414222717285e-01
-7.268523424863815308e-02
-5.747981369495391846e-02
-2.983552813529968262e-01
-5.584376454353332520e-01
-7.615248858928680420e-02
-2.304415591061115265e-02
-1.335011571645736694e-01
2.744922339916229248e-01
1.636044085025787354e-01
-9.218446165323257446e-02
-5.743597447872161865e-02
2.184377796947956085e-02
-4.552222788333892822e-02
-4.385367967188358307e-03
2.162013202905654907e-02
5.937730520963668823e-02
-1.267642676830291748e-01
-2.955911755561828613e-01
3.272030875086784363e-02
1.334483623504638672e-01
2.162629552185535431e-02
-4.734196662902832031e-01
1.165772750973701477e-01
-2.663525640964508057e-01
4.144622012972831726e-02
1.772308200597763062e-01
-8.708867430686950684e-02
-3.152044415473937988e-01
-1.066797003149986267e-01
2.050651609897613525e-01
-6.961946934461593628e-02
-2.044688314199447632e-01
1.434212625026702881e-01
2.119700461626052856e-01
-6.185658741742372513e-03
-1.753575652837753296e-01
8.346742391586303711e-02
1.245383322238922119e-01
6.581050157546997070e-02
1.682716049253940582e-02
-1.651934161782264709e-02
5.973519384860992432e-02
-6.165124103426933289e-02
-2.340890616178512573e-01
1.376480311155319214e-01
1.674014031887054443e-01
-1.491513401269912720e-01
-3.944158554077148438e-01
3.601438701152801514e-01
8.058620244264602661e-02
-6.630186438560485840e-01
-3.765582740306854248e-01
4.459536373615264893e-01
1.000277996063232422e-01
4.087163880467414856e-02
2.782854996621608734e-02
1.910783350467681885e-02
-2.237043380737304688e-01
-1.660607382655143738e-02
-5.647620186209678650e-02
-1.828713864088058472e-01
-1.288371533155441284e-01
9.187165647745132446e-03
3.128854557871818542e-02
-3.511866629123687744e-01
-1.220367327332496643e-01
1.857353933155536652e-02
5.931201577186584473e-02
-6.661166548728942871e-01
-9.952875226736068726e-02
2.830125987529754639e-01
3.631833195686340332e-02
1.578279882669448853e-01
1.926788091659545898e-01
2.149150967597961426e-01
2.674860954284667969e-01
3.360137641429901123e-01
1.380329430103302002e-01
2.755019664764404297e-01
1.874846965074539185e-01
1.035296469926834106e-01
1.225489079952239990e-01
2.862316966056823730e-01
2.288760542869567871e-01
2.003144323825836182e-01
3.315240144729614258e-01
-1.452556997537612915e-02
2.853974513709545135e-02
-1.286297589540481567e-01
-1.927463859319686890e-01
1.319082379341125488e-01
2.514095008373260498e-01
-3.697088360786437988e-01
-1.520200073719024658e-01
1.877189576625823975e-01
3.291351497173309326e-01
-3.584851920604705811e-01
-2.770664393901824951e-01
1.207915768027305603e-01
1.487659811973571777e-01
-3.322205245494842529e-01
-1.622266769409179688e-01
6.761804223060607910e-02
2.643187344074249268e-02
-1.865204125642776489e-01
-5.423285365104675293e-01
9.113733470439910889e-02
2.439063228666782379e-02
-1.327126622200012207e-01
-2.230158597230911255e-01
1.133545208722352982e-02
1.307737827301025391e-01
-1.139691192656755447e-02
1.575249731540679932e-01
-1.893151700496673584e-01
1.402415931224822998e-01
-9.390030056238174438e-02
-1.615462899208068848e-01
-1.682851463556289673e-02
-5.397192388772964478e-02
-7.609846442937850952e-02
-2.909925580024719238e-01
1.277726739645004272e-01
3.443938493728637695e-01
1.396670341491699219e-01
-1.155280172824859619e-01
1.836704909801483154e-01
1.824452430009841919e-01
2.329082638025283813e-01
9.952924400568008423e-02
3.114213943481445312e-01
1.695981174707412720e-01
2.032302133738994598e-02
-4.926516115665435791e-02
-1.621630936861038208e-01
2.486845292150974274e-02
5.468102097511291504e-01
3.002353012561798096e-01
-8.000177145004272461e-02
2.314210832118988037e-01
4.043123424053192139e-01
1.034724861383438110e-01
-4.444301128387451172e-02
1.575331240892410278e-01
2.230645567178726196e-01
4.650059714913368225e-02
1.785611510276794434e-01
5.869890376925468445e-02
5.517661571502685547e-02
1.958262734115123749e-02
-2.089289762079715729e-02
-5.279190465807914734e-02
4.778485000133514404e-01
7.952501177787780762e-01
3.626341000199317932e-02
-8.165887743234634399e-02
-5.020563676953315735e-02
6.239966675639152527e-02
-1.428446769714355469e-01
-3.170558810234069824e-01
-1.923768669366836548e-01
-3.051558136940002441e-01
9.826299548149108887e-02
6.350693106651306152e-02
-5.098473280668258667e-02
-4.099325537681579590e-01
2.936911582946777344e-01
3.254741728305816650e-01
-3.600921481847763062e-02
-5.581348538398742676e-01
3.038924932479858398e-01
2.515892088413238525e-01
2.577101886272430420e-01
-5.538898985832929611e-03
1.502510011196136475e-01
-2.285278402268886566e-02
7.236622273921966553e-02
7.518439739942550659e-02
1.858183890581130981e-01
2.436983585357666016e-02
7.308463566005229950e-03
-5.231511965394020081e-02
-1.759098768234252930e-01
-1.893023401498794556e-01
1.178725510835647583e-01
-2.600450515747070312e-01
-2.350530177354812622e-01
-4.488304257392883301e-01
-1.186903715133666992e-01
-2.345187589526176453e-02
-9.899939596652984619e-02
-2.241686731576919556e-01
-1.099641546607017517e-01
4.487449303269386292e-02
-2.406002581119537354e-02
-2.962501905858516693e-02
-3.242923319339752197e-02
9.130021929740905762e-02
4.654870554804801941e-02
6.948299705982208252e-02
-6.318303197622299194e-02
-2.713991999626159668e-01
-8.487238548696041107e-03
9.615764021873474121e-02
1.049774289131164551e-01
-2.555773258209228516e-01
4.078213870525360107e-02
7.306460291147232056e-02
4.139053821563720703e-02
-3.815207779407501221e-01
-6.264816969633102417e-02
3.604814410209655762e-02
-3.188692629337310791e-01
-5.401837229728698730e-01
-2.958322465419769287e-01
4.925760254263877869e-02
2.302910536527633667e-01
-8.752755075693130493e-02
-1.644192039966583252e-01
-1.522928923368453979e-01
6.577998399734497070e-02
-1.633534729480743408e-01
-1.180452406406402588e-01
1.038632262498140335e-02
1.368187516927719116e-01
-1.964670605957508087e-02
4.635487124323844910e-02
2.540023624897003174e-01
4.256399273872375488e-01
-1.064423546195030212e-01
1.544480174779891968e-01
1.825468093156814575e-01
1.766798198223114014e-01
1.864492297172546387e-01
-8.506969362497329712e-02
1.948960870504379272e-02
-9.245671331882476807e-02
7.624082267284393311e-02
-2.015439420938491821e-01
-1.391656398773193359e-01
-3.964375704526901245e-02
2.224996127188205719e-02
-3.624362051486968994e-01
-5.322284996509552002e-02
4.340623021125793457e-01
-1.371143851429224014e-02
-1.004145666956901550e-01
-4.353228211402893066e-02
-1.593910753726959229e-01
-4.956733286380767822e-01
1.209467872977256775e-01
-6.787399761378765106e-03
-2.889278531074523926e-01
-6.406976580619812012e-01
2.545543015003204346e-01
2.681967914104461670e-01
-5.245235934853553772e-02
-4.416188001632690430e-01
2.244677692651748657e-01
1.319396197795867920e-01
-1.090839225798845291e-02
-6.328794360160827637e-01
1.552648991346359253e-01
5.293643102049827576e-02
-1.717838197946548462e-01
1.561762094497680664e-01
1.432314217090606689e-01
8.258499205112457275e-02
1.978054493665695190e-01
7.217507343739271164e-03
-1.141618862748146057e-01
-5.884022638201713562e-02
1.426111310720443726e-01
-5.532676354050636292e-02
-4.470732808113098145e-01
-2.736352086067199707e-01
2.608646750450134277e-01
1.081213280558586121e-01
-2.874266505241394043e-01
-8.319490589201450348e-04
-7.265710830688476562e-02
-2.794585824012756348e-01
-1.976585984230041504e-01
1.074974313378334045e-01
1.641144789755344391e-02
-2.349156886339187622e-02
-1.320091634988784790e-01
9.434742853045463562e-03
-9.541411697864532471e-02
-3.252116143703460693e-01
-1.642992347478866577e-01
2.274558134377002716e-02
1.116841565817594528e-02
-3.911292552947998047e-01
-2.809850573539733887e-01
-1.200669631361961365e-01
-3.749322146177291870e-02
-2.342572957277297974e-01
-3.031288087368011475e-01
-1.555432677268981934e-01
-1.891322284936904907e-01
-4.041380882263183594e-01
-2.921546697616577148e-01
3.117503598332405090e-02
-9.012420475482940674e-02
-3.112962543964385986e-01
-7.494617719203233719e-03
-2.017901688814163208e-01
-5.403001308441162109e-01
-2.022699266672134399e-01
-5.246422439813613892e-02
-6.748928874731063843e-02
-7.428833842277526855e-02
-1.279557645320892334e-01
-4.030793905258178711e-02
1.333931982517242432e-01
1.366369426250457764e-01
-6.000120565295219421e-02
7.177516072988510132e-02
1.351553350687026978e-01
-7.018018048256635666e-03
-8.536329865455627441e-02
-3.129725158214569092e-01
-1.008129194378852844e-01
2.176562845706939697e-01
1.468741446733474731e-01
7.476661354303359985e-02
6.976851820945739746e-02
9.638491272926330566e-02
-3.841123878955841064e-01
1.204955279827117920e-01
1.790841668844223022e-01
-8.276250958442687988e-02
-2.225213050842285156e-01
-2.963809296488761902e-02
1.123445108532905579e-01
-2.444906979799270630e-01
-2.786871790885925293e-01
6.420453637838363647e-02
1.924417167901992798e-01
-1.039078235626220703e-01
-2.565340399742126465e-01
-1.113710552453994751e-02
2.657501958310604095e-02
-1.337854415178298950e-01
-1.538809686899185181e-01
4.170349240303039551e-02
-1.283809393644332886e-01
-2.071768641471862793e-01
-1.814281195402145386e-01
-2.513446211814880371e-01
-1.672064065933227539e-01
-5.875556543469429016e-02
-3.165295124053955078e-01
-4.272852838039398193e-01
-2.943863219115883112e-04
7.969169318675994873e-02
-5.396981239318847656e-01
-3.108097910881042480e-01
-3.366685509681701660e-01
-1.980769187211990356e-01
-5.071453377604484558e-02
-4.018776416778564453e-01
3.928397595882415771e-02
-6.091704592108726501e-02
-2.735327482223510742e-01
-1.011442020535469055e-01
7.915291003882884979e-03
-1.266924105584621429e-02
-4.527043923735618591e-02
-4.557489603757858276e-02
2.289063856005668640e-02
9.452517330646514893e-02
-1.587964743375778198e-01
-2.589277029037475586e-01
-6.425014883279800415e-02
2.289228737354278564e-01
2.875966429710388184e-01
4.633975028991699219e-02
1.663881540298461914e-01
1.699609011411666870e-01
5.269218608736991882e-02
-2.344445586204528809e-01
6.746982224285602570e-03
-2.825392596423625946e-02
-1.423993259668350220e-01
-3.940663337707519531e-01
-1.400514841079711914e-01
-6.991586834192276001e-02
-2.949243485927581787e-01
-4.214251935482025146e-01
-2.655965685844421387e-01
-4.935409128665924072e-02
-3.399217128753662109e-01
3.926453739404678345e-02
1.841309964656829834e-01
-2.547274157404899597e-02
-1.246797442436218262e-01
7.850101590156555176e-02
2.550027072429656982e-01
5.258230492472648621e-02
-3.066406957805156708e-02
-1.984816491603851318e-01
2.127714157104492188e-01
3.131344020366668701e-01
-7.176045328378677368e-03
-1.467051059007644653e-01
2.776607125997543335e-02
1.212266907095909119e-01
3.830977380275726318e-01
1.050131991505622864e-01
-6.193419545888900757e-02
2.660633027553558350e-01
4.310410320758819580e-01
6.351225078105926514e-02
2.279469370841979980e-02
1.010787636041641235e-01
3.072601258754730225e-01
1.553059518337249756e-01
1.126690953969955444e-01
1.262640506029129028e-01
2.707630693912506104e-01
-1.169609799981117249e-01
-2.179051786661148071e-01
1.690616607666015625e-01
3.241418898105621338e-01
-3.813858926296234131e-01
-2.482084333896636963e-01
1.093626022338867188e-01
1.424663066864013672e-01
-1.937952190637588501e-01
-3.361540660262107849e-02
-2.116616524290293455e-04
6.703368574380874634e-02
-1.433210074901580811e-01
9.992102533578872681e-02
8.265364915132522583e-02
7.664377242326736450e-02
5.089211463928222656e-02
8.539457619190216064e-02
1.053407490253448486e-01
-4.187639430165290833e-02
1.623914390802383423e-02
-1.931188106536865234e-01
-2.352333366870880127e-01
-1.656728982925415039e-02
9.668888151645660400e-02
-1.878013461828231812e-01
-2.216294705867767334e-01
-1.547939777374267578e-01
-4.554681777954101562e-01
-5.650951862335205078e-01
-1.935309618711471558e-01
-3.792443871498107910e-02
-1.347211152315139771e-01
-7.379788905382156372e-02
-1.216075047850608826e-01
7.556194812059402466e-02
-3.347969949245452881e-01
-2.109810262918472290e-01
-4.591540992259979248e-02
-4.867414536420255899e-04
-4.670657515525817871e-01
-2.519660294055938721e-01
-4.372918978333473206e-02
-3.429542109370231628e-02
-2.734933197498321533e-01
-2.630493938922882080e-01
-8.151671290397644043e-02
-1.358708888292312622e-01
-1.238121837377548218e-01
9.077517688274383545e-02
-1.419734209775924683e-01
-5.881856381893157959e-02
-1.731804199516773224e-02
1.742754280567169189e-01
3.091152608394622803e-01
1.687213592231273651e-02
9.964996576309204102e-02
1.914743892848491669e-02
1.592130661010742188e-01
5.068935081362724304e-02
2.776230275630950928e-01
2.519672811031341553e-01
8.107132464647293091e-02
-1.793839037418365479e-01
-1.181850433349609375e-01
6.744856387376785278e-02
3.033879026770591736e-02
-2.307063527405261993e-02
1.340975761413574219e-01
9.316436201333999634e-02
2.810910344123840332e-03
1.067327409982681274e-01
1.280603408813476562e-01
5.518532358109951019e-03
-1.835622042417526245e-01
2.379260808229446411e-01
7.702980935573577881e-02
1.939600706100463867e-01
9.167574346065521240e-02
1.303983032703399658e-01
1.631570756435394287e-01
-9.710410237312316895e-02
-1.768239438533782959e-01
1.414765119552612305e-01
1.118449568748474121e-01
1.568207889795303345e-02
1.228471919894218445e-01
2.303368002176284790e-01
-1.068452298641204834e-01
1.487424969673156738e-01
-9.509765356779098511e-02
1.217581331729888916e-01
-3.321100771427154541e-02
4.266598820686340332e-02
-7.012582849711179733e-03
6.631299853324890137e-02
-1.937876641750335693e-01
-3.564156293869018555e-01
-7.031108438968658447e-02
-6.296503543853759766e-02
-1.521953046321868896e-01
9.930162876844406128e-02
4.904831293970346451e-03
-6.056848168373107910e-02
-1.182060018181800842e-01
-4.524777457118034363e-02
-5.825239047408103943e-02
5.648158863186836243e-02
-4.292842447757720947e-01
-8.729664236307144165e-02
1.573555320501327515e-01
1.854444742202758789e-01
3.336701095104217529e-01
2.649976611137390137e-01
2.179713994264602661e-01
1.609025448560714722e-01
2.225683778524398804e-01
1.046690717339515686e-01
1.283655762672424316e-01
5.900036916136741638e-02
1.360231190919876099e-01
5.149688571691513062e-02
1.532323211431503296e-01
1.290053725242614746e-01
-2.029086202383041382e-01
-4.347608238458633423e-02
-4.540755227208137512e-02
-4.542729631066322327e-02
3.713859617710113525e-01
5.860354006290435791e-02
-1.562017947435379028e-01
-2.126866430044174194e-01
1.295017749071121216e-01
1.961654424667358398e-01
6.834971904754638672e-02
1.634418731555342674e-03
-2.792204031720757484e-03
-1.539582461118698120e-01
-2.283278666436672211e-02
2.372447028756141663e-02
7.677391916513442993e-02
-2.125652283430099487e-01
3.373245242983102798e-03
-9.218043088912963867e-02
-1.124934181571006775e-01
1.033096015453338623e-01
5.207921862602233887e-01
2.205072194337844849e-01
-1.051559299230575562e-01
-8.681726455688476562e-02
3.208933770656585693e-01
7.099577039480209351e-02
-3.435517847537994385e-02
1.044457592070102692e-02
7.126429677009582520e-02
2.421325258910655975e-02
-1.354587376117706299e-01
-1.299720257520675659e-01
2.112457007169723511e-01
1.632570475339889526e-01
-2.629902660846710205e-01
4.764267802238464355e-02
7.409001886844635010e-02
-2.830822765827178955e-01
-1.436945945024490356e-01
7.577960379421710968e-03
1.337228119373321533e-01
-3.784635961055755615e-01
-4.495009407401084900e-02
-2.241472303867340088e-01
-1.478575766086578369e-01
-2.572603821754455566e-01
6.358847767114639282e-02
-3.414696156978607178e-01
-5.656886696815490723e-01
-1.002814341336488724e-02
-9.127690643072128296e-02
1.125210896134376526e-01
8.016294240951538086e-02
1.239816006273031235e-02
-4.679970070719718933e-02
-5.444729700684547424e-02
9.800086915493011475e-02
2.031683772802352905e-01
1.204475387930870056e-02
-1.414331942796707153e-01
-1.240868270397186279e-01
-2.130791358649730682e-02
2.248052060604095459e-01
-4.740953743457794189e-01
-1.226439774036407471e-01
-4.517250657081604004e-01
-7.123525720089673996e-03
-4.142405465245246887e-02
5.629079788923263550e-02
4.737703129649162292e-04
1.851825416088104248e-01
-1.204585134983062744e-01
1.042282059788703918e-01
2.625006996095180511e-02
-1.623528264462947845e-02
-1.488442718982696533e-01
-2.656889259815216064e-01
-1.759071797132492065e-01
1.943053305149078369e-01
-7.732387632131576538e-02
-4.840417802333831787e-01
-1.330251693725585938e-01
-1.325031928718090057e-02
1.562474220991134644e-01
-7.239449769258499146e-02
-6.913738697767257690e-02
-1.709182262420654297e-01
-5.608843266963958740e-02
-1.418583467602729797e-02
-2.327396720647811890e-01
-3.928630352020263672e-01
3.259357530623674393e-03
1.910499036312103271e-01
-1.679337024688720703e-01
-3.964314162731170654e-01
-2.463750541210174561e-02
1.938621550798416138e-01
5.879955366253852844e-02
-3.644642978906631470e-02
-6.088871136307716370e-02
1.453574448823928833e-01
1.303194016218185425e-01
2.082113176584243774e-01
-1.288694292306900024e-01
-1.017519459128379822e-02
1.685432195663452148e-01
2.541143894195556641e-01
1.180965378880500793e-01
1.651962995529174805e-01
1.423695962876081467e-02
5.811122655868530273e-01
4.620074927806854248e-01
2.167649865150451660e-01
-5.514199286699295044e-02
-3.274819254875183105e-01
-6.752275396138429642e-03
1.693640202283859253e-01
-1.337428241968154907e-01
-2.610151171684265137e-01
-3.647448867559432983e-02
1.530035883188247681e-01
1.879762709140777588e-01
-1.974058300256729126e-01
-2.736510336399078369e-01
1.472642272710800171e-01
1.150215417146682739e-01
6.567288190126419067e-02
-2.387965619564056396e-01
-4.922876879572868347e-02
2.004054188728332520e-01
-2.230420857667922974e-01
-1.280371695756912231e-01
8.290217816829681396e-02
4.214842244982719421e-02
-4.499796405434608459e-02
-4.015386700630187988e-01
6.333863735198974609e-02
-4.789423942565917969e-02
1.065879762172698975e-01
-1.286944597959518433e-01
-4.708759952336549759e-03
-2.783709438517689705e-03
1.540845036506652832e-01
-2.632815949618816376e-02
1.789253801107406616e-01
-3.676582127809524536e-02
-5.107776448130607605e-02
-1.477134227752685547e-01
-1.330660879611968994e-01
-1.454551368951797485e-01
1.978811919689178467e-01
1.152004823088645935e-01
-7.507281005382537842e-02
-9.700841456651687622e-02
5.517097935080528259e-02
1.179013326764106750e-01
1.330246776342391968e-01
-1.392093449831008911e-01
9.589931368827819824e-02
2.216690778732299805e-01
1.167868077754974365e-01
2.884162217378616333e-02
2.237935215234756470e-01
1.954612284898757935e-01
-3.410018980503082275e-03
3.758469969034194946e-02
-2.739307098090648651e-02
2.095809578895568848e-02
-4.699181765317916870e-02
-1.101222410798072815e-01
-8.250090479850769043e-02
1.032689064741134644e-01
4.003820940852165222e-02
-4.889794811606407166e-02
-3.030366003513336182e-01
1.644459515810012817e-01
2.164190709590911865e-01
-3.733218908309936523e-01
5.819372087717056274e-02
2.119197249412536621e-01
1.181873977184295654e-01
-7.388608902692794800e-02
-1.237808987498283386e-01
2.045284807682037354e-01
-8.418360352516174316e-02
-1.337437778711318970e-01
-1.434372216463088989e-01
2.795993387699127197e-01
2.241740375757217407e-01
-2.084593176841735840e-01
-2.616415917873382568e-02
7.722834497690200806e-02
-1.521233469247817993e-02
-1.147048771381378174e-01
-2.515458464622497559e-01
-2.307272255420684814e-01
2.966235578060150146e-01
7.911679148674011230e-02
-8.218951523303985596e-02
-3.000306785106658936e-01
6.139390170574188232e-02
1.541536152362823486e-01
-7.601346354931592941e-03
-1.452868133783340454e-01
-2.173758000135421753e-01
1.283181905746459961e-01
-1.828291863203048706e-01
-2.652345299720764160e-01
-5.762091279029846191e-01
-2.112191319465637207e-01
4.477663338184356689e-02
4.556071385741233826e-02
1.270168572664260864e-01
-2.605244517326354980e-01
-1.012978628277778625e-01
1.470839139074087143e-02
9.170115925371646881e-03
1.641769558191299438e-01
-1.717107594013214111e-01
1.594104766845703125e-01
2.849072813987731934e-01
1.267535388469696045e-01
-4.478112757205963135e-01
5.833289772272109985e-02
1.166844367980957031e-01
4.135450720787048340e-01
-6.846196018159389496e-03
5.587887763977050781e-02
-1.029403731226921082e-01
2.801666259765625000e-01
-2.171241119503974915e-02
9.242771565914154053e-02
3.401778871193528175e-03
1.745836287736892700e-01
8.325143903493881226e-02
5.161866545677185059e-02
7.129747886210680008e-03
2.057681530714035034e-01
-1.527123302221298218e-01
1.228387057781219482e-01
-3.069082796573638916e-01
-1.900679320096969604e-01
3.097772039473056793e-02
2.029579132795333862e-02
-6.929427385330200195e-02
-2.660725265741348267e-02
1.747224330902099609e-01
-9.787523746490478516e-02
-1.797182112932205200e-01
-1.091597303748130798e-01
3.813745453953742981e-02
5.111847072839736938e-03
4.310699552297592163e-02
-2.813391983509063721e-01
1.707757860422134399e-01
7.360224425792694092e-02
1.266380101442337036e-01
-2.281133830547332764e-01
-2.919719219207763672e-01
2.198352962732315063e-01
-3.803191706538200378e-02
-1.539977546781301498e-02
-2.044073343276977539e-01
1.268508583307266235e-01
8.621203154325485229e-02
-3.706815093755722046e-02
-1.533552110195159912e-01
2.153554260730743408e-01
1.558757424354553223e-01
-2.602104656398296356e-02
-3.599337041378021240e-01
1.849693357944488525e-01
9.381398558616638184e-02
-3.306544721126556396e-01
-7.555942516773939133e-03
3.951292112469673157e-02
-4.110801219940185547e-02
1.305429935455322266e-01
-1.659918576478958130e-01
-4.900230094790458679e-02
6.198410876095294952e-03
1.184974685311317444e-01
3.582579642534255981e-02
3.088174946606159210e-02
-8.076787739992141724e-02
2.886911034584045410e-01
1.296990066766738892e-01
-1.408906728029251099e-01
-2.635137438774108887e-01
2.700437307357788086e-01
-1.119988877326250076e-02
-3.197043538093566895e-01
-1.705003827810287476e-01
-1.004215888679027557e-02
1.722645014524459839e-01
6.102563440799713135e-02
-9.015365689992904663e-02
7.299235463142395020e-02
5.572440102696418762e-02
1.736609041690826416e-01
1.218871995806694031e-01
1.364229321479797363e-01
-4.497362673282623291e-02
3.252290785312652588e-01
1.554030627012252808e-01
-1.232105270028114319e-01
7.467348873615264893e-02
7.080475986003875732e-02
-1.116165146231651306e-01
2.688830494880676270e-01
2.663623690605163574e-01
9.494049847126007080e-02
1.719553321599960327e-01
1.975771784782409668e-01
2.912569344043731689e-01
2.630742490291595459e-01
1.123285740613937378e-01
2.953319810330867767e-02
1.349168270826339722e-01
2.566359043121337891e-01
1.253777146339416504e-01
-9.884345345199108124e-03
-2.524949312210083008e-01
-1.592043489217758179e-01
-1.938034594058990479e-01
-1.213519275188446045e-01
-3.219613730907440186e-01
3.854828653857111931e-03
-1.331603974103927612e-01
-1.401490867137908936e-01
-3.229808807373046875e-01
2.091074436902999878e-01
1.775487065315246582e-01
-4.252965003252029419e-02
-1.463930606842041016e-01
4.073078930377960205e-01
2.951273322105407715e-01
1.641431450843811035e-01
8.648404479026794434e-02
-1.445674430578947067e-02
-1.762085780501365662e-02
-1.407428681850433350e-01
1.045938953757286072e-01
4.103961586952209473e-02
1.070801820605993271e-02
1.998515613377094269e-02
6.963244825601577759e-02
3.864510357379913330e-02
-2.865091152489185333e-02
8.085798472166061401e-02
7.811311632394790649e-02
1.408849493600428104e-03
-1.050638705492019653e-01
2.125859755324199796e-04
-1.728006303310394287e-01
-1.952888071537017822e-01
-2.437549531459808350e-01
-2.746449112892150879e-01
1.184111684560775757e-01
-6.659468263387680054e-02
1.111354604363441467e-01
1.017614006996154785e-01
1.777012348175048828e-01
2.031353265047073364e-01
2.481308430433273315e-01
7.763751596212387085e-02
2.572802826762199402e-02
3.879980742931365967e-01
4.968124628067016602e-01
4.904406517744064331e-02
-3.518632352352142334e-01
-3.102232515811920166e-01
-1.880307644605636597e-01
-6.948154419660568237e-02
-3.250086307525634766e-01
-1.261754631996154785e-01
-1.652326881885528564e-01
4.396850243210792542e-02
-2.080561369657516479e-01
1.114948168396949768e-01
-1.078414991497993469e-01
-9.402853436768054962e-03
-3.409154415130615234e-01
-1.618475466966629028e-01
-1.761191636323928833e-01
2.762083709239959717e-01
-4.560849070549011230e-02
7.498160749673843384e-02
2.749523222446441650e-01
5.124859809875488281e-01
1.954127699136734009e-01
3.072083592414855957e-01
2.822191715240478516e-01
2.512159645557403564e-01
3.129334449768066406e-01
3.009993135929107666e-01
2.267724424600601196e-01
1.650452315807342529e-01
3.782431781291961670e-01
4.447875320911407471e-01
4.912427067756652832e-01
8.661186695098876953e-02
-1.101797074079513550e-02
-1.899421066045761108e-01
-6.841122359037399292e-02
-2.631132490932941437e-02
-2.413071691989898682e-01
-1.059005111455917358e-01
8.927674591541290283e-02
2.012346684932708740e-01
-2.614722847938537598e-01
-5.234441161155700684e-02
2.088385671377182007e-01
4.668641686439514160e-01
-3.954671323299407959e-02
1.345993578433990479e-01
3.424048125743865967e-01
2.113414704799652100e-01
1.334790792316198349e-02
3.714998438954353333e-02
1.203410550951957703e-01
-2.503493726253509521e-01
1.405425518751144409e-01
1.273142099380493164e-01
1.040862724184989929e-01
-2.571122050285339355e-01
6.080517545342445374e-02
1.940886676311492920e-01
-1.440712716430425644e-02
-2.896041572093963623e-01
-1.000098697841167450e-02
2.472872585058212280e-01
1.851921528577804565e-01
-2.418381869792938232e-01
1.587205976247787476e-01
1.590994894504547119e-01
4.960376769304275513e-02
-2.615015720948576927e-03
1.057224199175834656e-01
5.921347811818122864e-02
2.443882077932357788e-02
-3.800663724541664124e-02
1.753877252340316772e-01
1.552036553621292114e-01
6.448611617088317871e-02
-1.907890476286411285e-02
1.567861884832382202e-01
2.842477560043334961e-01
2.496721148490905762e-01
2.409674674272537231e-01
-9.218964725732803345e-02
-3.988907635211944580e-01
-2.839110493659973145e-01
1.238863319158554077e-01
-1.319215744733810425e-01
-8.680778741836547852e-02
-1.932952851057052612e-01
1.243292074650526047e-02
2.739420831203460693e-01
9.911210089921951294e-02
-7.996138930320739746e-02
1.430856287479400635e-01
2.560669183731079102e-01
1.516627818346023560e-01
5.387219041585922241e-02
2.247283011674880981e-01
-2.836849987506866455e-01
-1.156753003597259521e-01
-2.978496626019477844e-02
6.845294032245874405e-03
-1.164665073156356812e-01
-8.492300659418106079e-02
-2.919983863830566406e-02
-1.553734242916107178e-01
-2.481937557458877563e-01
-1.245647072792053223e-01
-8.812061697244644165e-02
-2.641304433345794678e-01
-2.426459640264511108e-01
2.246912419795989990e-01
-6.774099171161651611e-02
-2.285054028034210205e-01
1.262869536876678467e-01
1.916036307811737061e-01
-2.052103355526924133e-02
-2.723908126354217529e-01
7.767604291439056396e-02
2.234803438186645508e-01
1.975863873958587646e-01
-1.378536969423294067e-02
3.038708120584487915e-02
1.746488809585571289e-01
3.858987390995025635e-01
3.185741305351257324e-01
1.167231947183609009e-01
3.103368878364562988e-01
3.382747471332550049e-01
1.098554059863090515e-01
1.052170917391777039e-01
9.304097294807434082e-02
2.908032238483428955e-01
7.286556065082550049e-02
3.532169163227081299e-01
4.547243714332580566e-01
4.369358420372009277e-01
-2.530526369810104370e-02
2.614200115203857422e-01
4.404748380184173584e-01
6.251733899116516113e-01
6.449252367019653320e-02
1.188720539212226868e-01
1.252581924200057983e-01
3.317443728446960449e-01
8.787878789007663727e-03
-7.712310552597045898e-02
1.435772627592086792e-01
2.614342570304870605e-01
3.491742908954620361e-02
-1.113150641322135925e-01
2.001684755086898804e-01
2.439671754837036133e-01
6.945695728063583374e-02
3.449193760752677917e-02
3.839704096317291260e-01
5.184974074363708496e-01
1.725745797157287598e-01
2.413699589669704437e-02
6.325168609619140625e-01
5.347963571548461914e-01
1.100898236036300659e-01
5.057656019926071167e-02
-6.370248738676309586e-03
1.799624646082520485e-03
1.424380093812942505e-01
-1.736737613100558519e-04
-2.197464704513549805e-01
-7.875546813011169434e-02
6.352373212575912476e-02
-1.598499715328216553e-01
-1.646513938903808594e-01
-1.369222104549407959e-01
1.656659096479415894e-01
-2.510895393788814545e-02
-5.737709626555442810e-02
-1.937634646892547607e-01
2.712109386920928955e-01
2.197976596653461456e-02
9.658896923065185547e-02
4.003276824951171875e-01
5.447452068328857422e-01
9.038355946540832520e-02
1.275499463081359863e-01
2.046940177679061890e-01
1.111990064382553101e-01
-1.107020005583763123e-01
1.584375649690628052e-02
-3.033239580690860748e-02
-2.528647184371948242e-01
-1.408948004245758057e-01
-3.271766006946563721e-01
-5.139174461364746094e-01
-4.734535217285156250e-01
-1.369883567094802856e-01
1.258224695920944214e-01
1.009499281644821167e-02
-1.845414787530899048e-01
-7.252550125122070312e-02
-1.301178592257201672e-03
4.587474092841148376e-02
-3.393847346305847168e-01
-2.271030843257904053e-01
6.567717343568801880e-02
-1.069916635751724243e-01
-3.339888453483581543e-01
-2.107826620340347290e-01
-1.570095866918563843e-01
-8.124872297048568726e-02
6.168370693922042847e-02
3.047758340835571289e-01
7.750196754932403564e-02
1.444021612405776978e-01
2.346546351909637451e-01
1.059046238660812378e-01
-2.023075148463249207e-02
-2.074111402034759521e-01
-4.408647119998931885e-02
2.947701811790466309e-01
-3.861042857170104980e-02
-1.598782837390899658e-01
-3.807600140571594238e-01
1.087737157940864563e-01
-7.295596599578857422e-02
-1.290478510782122612e-03
-8.689966797828674316e-02
-2.278781123459339142e-02
-1.029614508152008057e-01
1.242587864398956299e-01
1.829785704612731934e-01
-2.355122268199920654e-01
7.954987883567810059e-02
5.345166474580764771e-02
-4.002946019172668457e-01
-2.295720726251602173e-01
9.847503388300538063e-04
-1.444998830556869507e-01
-7.362301945686340332e-01
-6.421685963869094849e-02
-2.094826698303222656e-01
-2.204738557338714600e-01
-3.368035256862640381e-01
3.439661115407943726e-02
2.160359360277652740e-02
-1.034708172082901001e-01
1.707743108272552490e-01
1.854627281427383423e-01
7.764878869056701660e-02
8.463949710130691528e-02
1.870825290679931641e-01
8.276830613613128662e-02
4.618475958704948425e-02
8.645295351743698120e-02
1.374218314886093140e-01
1.949414908885955811e-01
1.254524290561676025e-02
-9.644735604524612427e-02
1.392864882946014404e-01
-2.630803585052490234e-01
-2.326935082674026489e-01
-1.711173653602600098e-01
2.902802824974060059e-01
-3.753435611724853516e-01
-1.828235536813735962e-01
1.934423460625112057e-03
3.052340745925903320e-01
-3.202260136604309082e-01
-2.696994245052337646e-01
-3.011527657508850098e-01
-1.037927251309156418e-02
-4.533417820930480957e-01
-3.959759175777435303e-01
-1.207113340497016907e-01
2.304957360029220581e-01
3.729607760906219482e-01
1.497829053550958633e-02
7.485374808311462402e-02
1.914185732603073120e-01
-1.223133057355880737e-01
-5.306180566549301147e-02
-3.785436972975730896e-02
-3.747526109218597412e-01
-1.640630662441253662e-01
1.663748770952224731e-01
2.666291780769824982e-02
-2.882309257984161377e-01
1.567627042531967163e-01
2.539395689964294434e-01
4.744232166558504105e-03
-2.841237783432006836e-01
6.960492581129074097e-02
1.232674792408943176e-01
1.116041541099548340e-01
-7.775724679231643677e-02
1.298909187316894531e-01
-4.311499372124671936e-02
-1.506020408123731613e-02
-5.943262577056884766e-02
1.826337873935699463e-01
4.975020885467529297e-02
7.077455520629882812e-02
1.272611469030380249e-01
2.864984869956970215e-01
2.726584970951080322e-01
1.314241290092468262e-01
2.966552786529064178e-02
2.753360867500305176e-01
4.716864600777626038e-02
-2.546386048197746277e-02
9.812338650226593018e-02
6.953976303339004517e-02
-9.578936733305454254e-03
-3.290981054306030273e-02
-1.981441825628280640e-01
1.955398172140121460e-01
4.711250215768814087e-02
-1.248344704508781433e-01
-3.728987574577331543e-01
4.469876587390899658e-01
7.624880224466323853e-02
-2.658951282501220703e-01
-3.320615291595458984e-01
-1.849258504807949066e-02
-9.996565058827400208e-03
4.422662034630775452e-02
1.094848066568374634e-01
1.012741699814796448e-01
-1.232796162366867065e-02
-4.229407384991645813e-02
-3.707156065502204001e-05
1.281199306249618530e-01
8.292998187243938446e-03
-8.344008028507232666e-02
-1.944137960672378540e-01
1.338834017515182495e-01
5.417395010590553284e-02
-1.244662981480360031e-02
1.425939500331878662e-01
1.277334541082382202e-01
3.531506657600402832e-02
1.419630646705627441e-01
-4.475270509719848633e-01
6.435963511466979980e-02
-1.069642230868339539e-01
1.559284776449203491e-01
1.561412811279296875e-01
-1.037766784429550171e-01
-1.752595975995063782e-02
4.364058375358581543e-02
3.421208560466766357e-01
-1.125420629978179932e-01
3.817742317914962769e-02
1.616880148649215698e-01
2.042674422264099121e-01
1.622138470411300659e-01
-1.516448799520730972e-02
-5.862734094262123108e-02
-3.136222437024116516e-02
-4.535277560353279114e-02
1.551945507526397705e-02
-3.658134490251541138e-02
1.278435587882995605e-01
-7.150069624185562134e-02
-1.158688887953758240e-01
-2.809985578060150146e-01
6.778580695390701294e-02
-2.740550637245178223e-01
-3.484148681163787842e-01
-5.294445753097534180e-01
-4.361607134342193604e-01
-7.021268457174301147e-02
8.160353451967239380e-02
1.175392270088195801e-01
-2.093401849269866943e-01
-7.048498839139938354e-02
-5.195483192801475525e-02
7.176493760198354721e-03
-8.859872817993164062e-02
4.914898797869682312e-02
8.795918524265289307e-02
8.546163141727447510e-02
3.466464951634407043e-02
5.623510852456092834e-02
2.394267171621322632e-01
1.821587681770324707e-01
-1.726718037389218807e-03
8.388884365558624268e-02
1.564743071794509888e-01
2.737759053707122803e-01
2.272230833768844604e-01
9.298077970743179321e-02
2.080378532409667969e-01
1.106886565685272217e-02
3.422041237354278564e-02
1.945146918296813965e-01
1.062142476439476013e-01
2.010434865951538086e-02
1.558717042207717896e-01
1.671139299869537354e-01
5.129529908299446106e-02
-7.626844942569732666e-02
9.332634508609771729e-02
9.982579946517944336e-02
-3.762983530759811401e-02
-1.679291874170303345e-01
4.014846682548522949e-02
1.478200107812881470e-01
2.379772439599037170e-02
-7.061017304658889771e-02
1.061323191970586777e-02
1.604809612035751343e-01
4.884636774659156799e-02
1.762355491518974304e-02
1.955600455403327942e-02
-4.025787860155105591e-02
5.563144758343696594e-02
6.492654234170913696e-02
1.036594361066818237e-01
5.348221212625503540e-02
2.001057937741279602e-02
-3.501269593834877014e-02
8.020552992820739746e-02
-4.831520617008209229e-01
-2.929159700870513916e-01
-3.655951917171478271e-01
-3.438846170902252197e-01
-4.927919805049896240e-01
-3.123747706413269043e-01
-3.154417872428894043e-01
-1.161308288574218750e-01
-4.146786630153656006e-01
-1.143068596720695496e-01
1.092151086777448654e-02
-2.317056506872177124e-01
3.936611115932464600e-02
-6.420634454116225243e-04
-1.267884522676467896e-01
1.592813283205032349e-01
1.735100448131561279e-01
2.554227113723754883e-01
-1.794078759849071503e-02
-2.406532615423202515e-01
1.824957579374313354e-01
2.060485333204269409e-01
8.177971839904785156e-02
-4.736723303794860840e-01
1.685372591018676758e-01
1.887430399656295776e-01
4.147126972675323486e-01
-4.551586210727691650e-01
3.632123395800590515e-02
-2.151426486670970917e-02
9.121870994567871094e-02
-2.031535655260086060e-01
1.060671210289001465e-01
-3.797527030110359192e-02
-6.571843475103378296e-02
-3.785610198974609375e-01
-2.491053752601146698e-02
1.741513796150684357e-02
-1.349513232707977295e-01
-5.937176197767257690e-02
2.186161130666732788e-01
2.543335258960723877e-01
-1.765576750040054321e-01
-2.003683596849441528e-01
-7.672569155693054199e-02
2.315423935651779175e-01
7.305723428726196289e-02
-1.965033449232578278e-02
2.040298655629158020e-02
-5.235146731138229370e-02
9.431696683168411255e-02
7.724231481552124023e-02
-6.277175992727279663e-02
1.154770422726869583e-02
2.198385447263717651e-01
2.522568777203559875e-02
-4.085034728050231934e-01
-1.781353205442428589e-01
-7.213478535413742065e-02
-8.068666607141494751e-02
1.501692458987236023e-02
-1.483606696128845215e-01
1.074534431099891663e-01
-1.729159802198410034e-02
1.984209418296813965e-01
2.370472252368927002e-01
8.011905103921890259e-02
5.679117166437208652e-04
-3.318418189883232117e-02
1.339095532894134521e-01
1.123413220047950745e-01
-9.303523227572441101e-03
-6.138658896088600159e-02
-7.505135238170623779e-02
7.612853497266769409e-02
2.005188018083572388e-01
-7.536856085062026978e-02
-2.190996110439300537e-01
1.194959208369255066e-01
4.815045371651649475e-02
-1.159605160355567932e-01
4.507076740264892578e-02
2.429863214492797852e-01
4.932422190904617310e-02
-7.542101293802261353e-02
-6.086930632591247559e-02
1.641446948051452637e-01
9.300780296325683594e-02
4.089570790529251099e-02
-2.635574340820312500e-02
1.052672788500785828e-01
1.818484812974929810e-01
8.773779869079589844e-02
-3.673677742481231689e-01
2.006877362728118896e-01
3.940733969211578369e-01
-2.326001599431037903e-02
-1.198898181319236755e-01
-2.157919853925704956e-01
-2.178905531764030457e-02
-4.721169546246528625e-02
-1.998417973518371582e-01
-4.833346605300903320e-02
-1.019875258207321167e-01
9.312545508146286011e-02
1.347242295742034912e-02
-3.318812814541161060e-04
-2.348592579364776611e-01
1.307274699211120605e-01
6.053457409143447876e-02
1.026774123311042786e-01
-1.277979314327239990e-01
3.111424855887889862e-02
-3.568869531154632568e-01
1.754729263484477997e-02
-1.349524557590484619e-01
2.189786136150360107e-01
-3.048089146614074707e-01
-2.116810977458953857e-01
-4.772363975644111633e-02
3.336506783962249756e-01
-4.901812598109245300e-02
-8.273152261972427368e-02
-1.702362149953842163e-01
1.518455892801284790e-01
-2.006823569536209106e-01
-4.702709615230560303e-02
4.399306327104568481e-02
1.317454129457473755e-02
-2.886165976524353027e-01
7.626706361770629883e-02
-9.668007493019104004e-03
-1.900904327630996704e-01
-7.614908367395401001e-02
-1.005049422383308411e-01
-1.179677620530128479e-02
-1.791359782218933105e-01
-8.488805592060089111e-02
-1.697052717208862305e-01
2.357062995433807373e-01
-4.024281352758407593e-02
-2.951742708683013916e-01
-3.268504738807678223e-01
-3.416560888290405273e-01
1.010598242282867432e-01
-7.937269657850265503e-02
-7.054136693477630615e-02
-2.674327790737152100e-01
1.126063317060470581e-01
-1.795102804899215698e-01
-1.544031351804733276e-01
-3.223787248134613037e-01
1.233050879091024399e-02
-1.412665545940399170e-01
-3.385316431522369385e-01
-5.975413322448730469e-01
1.900311857461929321e-01
1.802236884832382202e-01
4.446277618408203125e-01
1.335150003433227539e-01
7.072692364454269409e-02
-4.260556027293205261e-02
3.547383472323417664e-02
-1.260607540607452393e-01
1.028586775064468384e-01
-1.722839288413524628e-02
5.140009149909019470e-02
-2.844022810459136963e-01
2.518272697925567627e-01
1.562459468841552734e-01
1.788358092308044434e-01
-4.747132062911987305e-01
2.103400826454162598e-01
5.815725401043891907e-02
-2.332221344113349915e-02
3.836408555507659912e-01
2.311829626560211182e-01
-1.085969507694244385e-01
-5.681286007165908813e-02
1.485284715890884399e-01
2.314623743295669556e-01
-1.651568859815597534e-01
-2.521399259567260742e-01
-9.672507643699645996e-02
2.971795499324798584e-01
-7.394623011350631714e-02
3.673200309276580811e-02
7.916943728923797607e-02
-7.165097445249557495e-02
-2.720143795013427734e-01
-2.866268157958984375e-01
-1.919621527194976807e-01
6.958778202533721924e-02
5.049384012818336487e-02
-2.511931359767913818e-01
-2.570527195930480957e-01
-9.986115247011184692e-02
2.154902182519435883e-02
-6.474756449460983276e-02
1.563388039357960224e-03
-9.382490813732147217e-02
5.829306691884994507e-02
-4.447492063045501709e-01
-2.061391770839691162e-01
-3.778612613677978516e-02
8.394248783588409424e-02
-8.451424539089202881e-02
9.587931632995605469e-02
-2.525453865528106689e-01
-6.878989934921264648e-02
-3.978871926665306091e-02
1.740045249462127686e-01
-6.588812470436096191e-01
-2.689284086227416992e-01
-1.328970789909362793e-01
1.221516430377960205e-01
-3.391516506671905518e-01
-9.728063642978668213e-02
1.801950782537460327e-01
3.088413178920745850e-02
-7.799725234508514404e-02
-9.174830466508865356e-02
3.707359731197357178e-01
1.742028892040252686e-01
9.705772995948791504e-02
2.801822301989886910e-05
5.466983094811439514e-02
4.329803958535194397e-02
-1.178326830267906189e-01
6.666344404220581055e-02
-6.382200866937637329e-02
-1.432694047689437866e-01
-1.933622807264328003e-01
-1.288519650697708130e-01
5.298451706767082214e-02
-2.176331169903278351e-02
1.738735586404800415e-01
8.128847926855087280e-02
-8.659577369689941406e-02
-3.835876658558845520e-02
1.210346445441246033e-01
1.657535582780838013e-01
1.630672998726367950e-02
-1.685228794813156128e-01
1.172988638281822205e-01
-1.923318952322006226e-01
-1.325047463178634644e-01
-1.424826383590698242e-01
-1.561541948467493057e-02
-1.662036031484603882e-01
-1.512392014265060425e-01
-1.133223474025726318e-01
-1.754097193479537964e-01
-1.903088241815567017e-01
1.111274659633636475e-01
8.009079843759536743e-02
-2.659342288970947266e-01
-1.344671398401260376e-01
6.808587163686752319e-02
3.373684361577033997e-02
-2.058686017990112305e-01
3.434474766254425049e-02
1.122385412454605103e-01
2.569979131221771240e-01
-6.782416701316833496e-01
-2.518460750579833984e-01
7.114601135253906250e-02
-9.427569061517715454e-02
-2.216283604502677917e-02
1.908525973558425903e-01
9.826772147789597511e-04
2.920376695692539215e-02
8.723749220371246338e-02
-9.206039831042289734e-03
-2.640753686428070068e-01
7.795469369739294052e-03
1.662881523370742798e-01
2.691058441996574402e-02
-7.630510628223419189e-02
-3.815257847309112549e-01
1.991407573223114014e-01
-2.106302529573440552e-01
-2.312461584806442261e-01
-3.107379376888275146e-01
-1.600525379180908203e-01
3.959162533283233643e-02
1.357858348637819290e-02
-3.584827184677124023e-01
-2.050432711839675903e-01
1.538976579904556274e-01
9.418865293264389038e-02
-1.476383805274963379e-01
-2.673297524452209473e-01
1.166114881634712219e-01
-3.984095454216003418e-01
-5.483497381210327148e-01
-6.129245460033416748e-02
4.969633817672729492e-01
-3.205891549587249756e-01
-5.587397813796997070e-01
-3.030951879918575287e-02
-9.533525258302688599e-02
-9.428570047020912170e-03
-1.232372447848320007e-01
-6.107262894511222839e-02
9.519128501415252686e-02
-1.448324471712112427e-01
1.470948606729507446e-01
2.837037434801459312e-03
-7.114648073911666870e-02
-1.269817948341369629e-01
2.659258246421813965e-01
3.074265830218791962e-02
-1.175602748990058899e-01
2.068991959095001221e-01
2.822414636611938477e-01
-3.711354732513427734e-02
-1.937733292579650879e-01
-2.340093106031417847e-01
-4.085442796349525452e-02
-3.581927856430411339e-03
1.379359215497970581e-01
-7.393549382686614990e-02
7.296767830848693848e-02
6.785061210393905640e-03
-1.910433322191238403e-01
-9.998509287834167480e-02
1.716877222061157227e-01
-1.728434264659881592e-01
-4.692996740341186523e-01
1.224500909447669983e-01
7.032881677150726318e-02
-5.349292885512113571e-03
7.041241228580474854e-02
2.522852122783660889e-01
1.846088021993637085e-01
5.641125515103340149e-02
1.232995092868804932e-01
5.176920071244239807e-02
-3.477754816412925720e-02
-1.586528718471527100e-01
1.370253264904022217e-01
1.088168472051620483e-01
4.466109443455934525e-03
-3.675873279571533203e-01
5.133369006216526031e-03
3.190599977970123291e-01
-6.550163030624389648e-02
-1.543699055910110474e-01
2.030317336320877075e-01
5.356731265783309937e-02
1.308103054761886597e-01
6.694295257329940796e-02
4.002083558589220047e-03
4.062179103493690491e-02
-1.634759157896041870e-01
1.797070354223251343e-01
-5.502020195126533508e-02
-5.296317860484123230e-02
-2.933183610439300537e-01
1.430201679468154907e-01
7.965980470180511475e-02
-2.669104039669036865e-01
-3.257350325584411621e-01
5.083116888999938965e-01
-1.716094315052032471e-01
2.789803445339202881e-01
-3.420091047883033752e-02
5.544932186603546143e-02
1.417520195245742798e-01
1.029416620731353760e-01
-4.220794141292572021e-02
-5.683007650077342987e-03
7.830227911472320557e-02
-1.197939738631248474e-01
1.432114690542221069e-01
-3.480353858321905136e-03
1.727601327002048492e-02
-3.142376989126205444e-02
8.044505119323730469e-02
-3.773029148578643799e-01
-4.008478671312332153e-02
-4.193850979208946228e-02
-2.589711844921112061e-01
-4.674618244171142578e-01
-1.801275163888931274e-01
1.506832391023635864e-01
1.104729324579238892e-01
-4.586659073829650879e-01
-2.284390181303024292e-01
1.140609458088874817e-01
4.958427324891090393e-02
-1.808846294879913330e-01
-1.934038698673248291e-01
1.060412153601646423e-01
2.395550161600112915e-01
7.117277383804321289e-02
1.005688756704330444e-01
-5.862611811608076096e-03
-2.513490617275238037e-01
4.184637218713760376e-02
3.450772957876324654e-03
5.210416018962860107e-02
-1.588344573974609375e-01
-2.790735103189945221e-03
5.169709771871566772e-02
3.246100619435310364e-02
-2.053067386150360107e-01
2.547056078910827637e-01
1.535219140350818634e-02
6.853491812944412231e-02
-4.000265523791313171e-02
-2.746070027351379395e-01
8.837912976741790771e-02
1.122417896986007690e-01
7.701113075017929077e-02
-2.771830558776855469e-01
-1.843545287847518921e-01
5.825118348002433777e-02
4.466979950666427612e-02
-4.939781501889228821e-02
-3.240870684385299683e-02
2.731374800205230713e-01
-2.015047520399093628e-01
5.031031966209411621e-01
2.393596470355987549e-01
2.687705457210540771e-01
-1.271205395460128784e-01
1.560529172420501709e-01
1.871198415756225586e-01
6.778382509946823120e-02
1.140708029270172119e-01
-4.672997817397117615e-02
8.802212774753570557e-02
-1.067208722233772278e-01
-7.131173461675643921e-02
-1.025121286511421204e-01
7.037441432476043701e-02
2.142588049173355103e-02
6.174847856163978577e-02
-1.989911049604415894e-01
1.668756604194641113e-01
-1.415561288595199585e-01
-1.321889311075210571e-01
-5.987607687711715698e-02
9.085626155138015747e-02
1.102756112813949585e-01
-7.681055925786495209e-03
-1.187966018915176392e-01
-4.434739053249359131e-02
1.885947287082672119e-01
-1.163041964173316956e-01
-1.268157362937927246e-01
-8.208909630775451660e-02
-6.598716974258422852e-02
-5.015941709280014038e-02
-1.364932358264923096e-01
-7.290782779455184937e-02
1.672267764806747437e-01
-1.977243572473526001e-01
-1.649756580591201782e-01
-2.686314284801483154e-01
-1.070426627993583679e-01
2.290147840976715088e-01
-1.986044049263000488e-01
-3.202504515647888184e-01
-1.094926670193672180e-01
1.044203266501426697e-01
-2.495540678501129150e-01
-5.224938392639160156e-01
-1.115657389163970947e-01
2.348412722349166870e-01
-3.526397347450256348e-01
-1.368100047111511230e-01
1.378767043352127075e-01
3.836328089237213135e-01
-2.987066842615604401e-02
-2.959579601883888245e-02
1.070072725415229797e-01
-9.310302324593067169e-03
-3.537530452013015747e-02
-1.254908740520477295e-01
-6.881041079759597778e-02
-1.162213832139968872e-01
4.707340523600578308e-02
-1.324153393507003784e-01
-4.084479808807373047e-02
1.511002182960510254e-01
-9.875151515007019043e-02
-6.401299685239791870e-02
-1.206540316343307495e-01
9.123464673757553101e-02
-1.640454530715942383e-01
5.491974949836730957e-02
5.866996943950653076e-02
-4.297059774398803711e-02
3.153651058673858643e-01
6.664053350687026978e-02
-1.937141716480255127e-01
-1.137568652629852295e-01
5.936881303787231445e-01
-3.903492540121078491e-02
5.129747465252876282e-02
4.739954695105552673e-02
2.984347939491271973e-01
-5.794297456741333008e-01
-1.399513930082321167e-01
4.128246903419494629e-01
6.096006184816360474e-02
-1.893507540225982666e-01
-7.675580680370330811e-02
5.429245531558990479e-02
3.945744410157203674e-02
-2.889331281185150146e-01
-1.451122201979160309e-02
-8.924784511327743530e-02
-1.030639708042144775e-01
-2.669263184070587158e-01
-6.325062364339828491e-02
-8.093087002635002136e-03
-2.477176487445831299e-01
-7.721772193908691406e-01
-1.146318167448043823e-01
2.366987019777297974e-01
8.660966157913208008e-02
1.997472047805786133e-01
1.402585059404373169e-01
-1.524430066347122192e-01
1.823469251394271851e-02
2.726735770702362061e-01
1.840085238218307495e-01
1.383975446224212646e-01
-2.212441526353359222e-03
9.830490499734878540e-02
3.099781572818756104e-01
2.230305783450603485e-02
-1.897435076534748077e-02
-1.719385981559753418e-01
-7.222095038741827011e-03
3.736316785216331482e-02
1.278471648693084717e-01
5.318709090352058411e-02
-2.655384540557861328e-01
-3.141551613807678223e-01
1.094035338610410690e-02
1.444433927536010742e-01
-1.928846985101699829e-01
-2.309383004903793335e-01
7.626488804817199707e-02
-1.068236231803894043e-01
-7.059616595506668091e-02
-1.389397084712982178e-01
3.232606872916221619e-02
-2.149903774261474609e-01
3.193680197000503540e-02
1.896436512470245361e-01
-6.007859855890274048e-02
-4.340102151036262512e-02
-8.986319601535797119e-02
-4.919088482856750488e-01
1.005431115627288818e-01
-3.955259546637535095e-02
4.879283905029296875e-02
-1.276696771383285522e-01
1.305288076400756836e-01
-7.416774332523345947e-02
1.463840156793594360e-01
-6.041530892252922058e-02
1.237089559435844421e-01
-2.653659582138061523e-01
2.688858471810817719e-02
1.800154745578765869e-01
1.886364817619323730e-02
-4.874818325042724609e-01
-1.542369872331619263e-01
3.857715725898742676e-01
-2.319925874471664429e-01
-4.978912472724914551e-01
-1.672615259885787964e-01
1.186036393046379089e-01
-3.273243606090545654e-01
-2.974078953266143799e-01
-1.459002792835235596e-01
6.583230197429656982e-02
-2.004329711198806763e-01
-5.625972896814346313e-02
-1.063414886593818665e-01
1.874553263187408447e-01
6.775218248367309570e-02
2.070089429616928101e-01
2.081979662179946899e-01
-3.496595472097396851e-02
-3.392148613929748535e-01
-2.370077073574066162e-01
1.413892954587936401e-01
1.748281419277191162e-01
-9.314174205064773560e-02
-2.249692976474761963e-01
-8.414799720048904419e-02
1.548646688461303711e-01
-2.131188809871673584e-01
-1.048251241445541382e-01
-1.588849872350692749e-01
-1.321091502904891968e-02
-3.483061492443084717e-01
3.735464811325073242e-01
2.514284662902355194e-02
-2.732066214084625244e-01
-2.278945595026016235e-01
1.728009581565856934e-01
1.066588684916496277e-01
-1.977462321519851685e-01
-8.847315609455108643e-02
1.898586601018905640e-01
4.446977004408836365e-02
-1.718863286077976227e-02
-1.128674298524856567e-01
6.506228446960449219e-02
-2.270445674657821655e-01
-1.000432148575782776e-01
9.196509607136249542e-03
-9.913983196020126343e-02
-1.391203403472900391e-01
1.589599996805191040e-02
8.214734494686126709e-02
-7.093162834644317627e-02
1.363718807697296143e-01
-1.861901581287384033e-01
-2.284552603960037231e-01
-1.686007529497146606e-01
3.400843217968940735e-02
3.802912775427103043e-03
-3.061227500438690186e-01
-2.730252444744110107e-01
-2.041775435209274292e-01
-1.321094334125518799e-01
-5.480151250958442688e-02
2.194231897592544556e-01
-9.783190488815307617e-02
8.788532763719558716e-02
6.271776556968688965e-02
1.262293606996536255e-01
-1.153113842010498047e-01
2.324677258729934692e-02
-1.254943907260894775e-01
2.081951200962066650e-01
-1.285077724605798721e-02
1.600699871778488159e-01
2.119860798120498657e-01
1.608992516994476318e-01
7.468588650226593018e-02
6.159017235040664673e-02
-3.068765811622142792e-02
-7.370627671480178833e-02
-2.587436512112617493e-02
6.003535538911819458e-02
-2.473309040069580078e-01
5.971933156251907349e-02
8.244845271110534668e-02
1.011095568537712097e-01
-2.270355373620986938e-01
1.335402280092239380e-01
2.638752199709415436e-02
-5.168025195598602295e-02
-8.808720111846923828e-02
6.112529337406158447e-02
1.681490428745746613e-02
9.219530969858169556e-02
-1.128549873828887939e-01
2.349417954683303833e-01
-1.645079068839550018e-02
3.217998519539833069e-02
-1.842876970767974854e-01
1.092442944645881653e-01
1.306755989789962769e-01
1.120736822485923767e-01
-1.066419333219528198e-01
1.495253592729568481e-01
1.359909027814865112e-01
3.205550089478492737e-02
-1.809446215629577637e-01
1.996280699968338013e-01
2.691154479980468750e-01
1.897115111351013184e-01
1.384387314319610596e-01
1.558157354593276978e-01
-2.060270011425018311e-01
-3.263120949268341064e-01
6.955473683774471283e-03
3.216140568256378174e-01
1.022551581263542175e-02
-5.689454078674316406e-02
-2.891531884670257568e-01
9.097922593355178833e-02
-9.915962815284729004e-02
-7.498191297054290771e-02
-3.604581356048583984e-01
8.237765729427337646e-02
-9.209116548299789429e-02
-1.892355084419250488e-01
-1.734665781259536743e-02
-4.885205999016761780e-02
-3.080920875072479248e-01
-5.136100649833679199e-01
-5.229624360799789429e-02
-6.896249833516776562e-04
7.060934603214263916e-02
-4.386799335479736328e-01
2.529804967343807220e-02
-1.438423246145248413e-01
2.088395655155181885e-01
-1.460503935813903809e-01
-7.820006459951400757e-02
-1.104989126324653625e-01
2.229068428277969360e-01
2.143881097435951233e-02
-4.660216271877288818e-01
1.107334122061729431e-01
-1.719354465603828430e-02
5.429385695606470108e-03
-5.171044468879699707e-01
-2.101911902427673340e-01
-3.754171356558799744e-02
-6.366264075040817261e-02
-2.044008225202560425e-01
1.413759887218475342e-01
4.844763129949569702e-02
-4.126476123929023743e-02
-3.042408525943756104e-01
-1.769791729748249054e-02
3.080586902797222137e-02
-2.642420493066310883e-02
-4.953218996524810791e-02
-1.130058243870735168e-01
-1.032733917236328125e-01
-2.440509386360645294e-02
-3.565421095117926598e-03
5.711323022842407227e-02
-6.581909209489822388e-02
2.561212517321109772e-02
3.611429408192634583e-02
1.381337642669677734e-01
6.831504404544830322e-02
-4.024486988782882690e-02
1.806284189224243164e-01
8.166734129190444946e-02
-6.482611596584320068e-02
-9.628024697303771973e-02
8.775991946458816528e-02
7.848516106605529785e-02
-2.234200537204742432e-01
-1.455316096544265747e-01
1.533874031156301498e-02
-3.047992847859859467e-02
-1.463934034109115601e-01
-3.062415421009063721e-01
-2.058052271604537964e-01
8.294558152556419373e-03
-2.457839697599411011e-01
-2.945587635040283203e-01
5.877930205315351486e-03
1.028879508376121521e-01
-1.437875032424926758e-01
-1.414537280797958374e-01
-3.685320541262626648e-02
-2.070729136466979980e-01
2.316695172339677811e-03
3.442709147930145264e-01
1.019161492586135864e-01
6.216866895556449890e-02
-1.791948974132537842e-01
2.094390094280242920e-01
1.290810555219650269e-01
-1.381788551807403564e-01
-1.878588497638702393e-01
1.669671535491943359e-01
3.565756380558013916e-01
-4.505835939198732376e-03
-2.255107760429382324e-01
1.889871358871459961e-01
1.109789013862609863e-01
-4.407086372375488281e-01
-2.958188354969024658e-01
-6.357755511999130249e-02
1.572139710187911987e-01
-1.869883984327316284e-01
1.362995207309722900e-01
-4.046533629298210144e-02
1.050821244716644287e-01
2.333416417241096497e-02
3.987508714199066162e-01
5.492619052529335022e-02
8.238654583692550659e-02
-1.221373677253723145e-01
3.089080750942230225e-01
3.049487769603729248e-01
-3.421740233898162842e-02
1.247693598270416260e-01
2.378673702478408813e-01
2.239055633544921875e-01
1.572473943233489990e-01
1.988665610551834106e-01
1.188532188534736633e-01
5.323037877678871155e-02
1.767285615205764771e-01
8.084881305694580078e-02
-3.131484240293502808e-02
-3.596459925174713135e-01
3.274849355220794678e-01
-1.788790524005889893e-01
-3.600291609764099121e-01
-2.569312155246734619e-01
1.312373876571655273e-01
-8.903631567955017090e-02
6.121948361396789551e-02
1.990327797830104828e-02
1.093646660447120667e-01
5.725181475281715393e-02
7.285688072443008423e-02
-9.360922127962112427e-02
9.339511394500732422e-02
8.392034098505973816e-03
-3.563844412565231323e-02
-5.336409807205200195e-02
1.480581015348434448e-01
-5.990605428814888000e-02
-2.131499722599983215e-02
1.912747696042060852e-02
-2.364758215844631195e-02
-3.431771695613861084e-01
-5.299949645996093750e-01
-2.718956470489501953e-01
-2.725252807140350342e-01
-2.636935748159885406e-02
-3.511712551116943359e-01
-5.077644437551498413e-02
-1.882736086845397949e-01
-8.461530506610870361e-02
-1.337142474949359894e-02
-1.222027465701103210e-01
1.524212863296270370e-02
6.868284195661544800e-02
-5.683231726288795471e-02
-5.470598340034484863e-01
8.574553579092025757e-02
1.221098974347114563e-01
-1.128601804375648499e-01
4.548523575067520142e-02
-2.424444770440459251e-03
1.001405492424964905e-01
-9.033019095659255981e-02
2.143401280045509338e-02
2.398808449506759644e-01
1.486933976411819458e-01
-4.548431187868118286e-02
7.797496765851974487e-02
3.147664070129394531e-01
2.801272571086883545e-01
-1.225694268941879272e-01
1.111842319369316101e-01
3.551312536001205444e-02
-1.575803011655807495e-01
-1.031103357672691345e-01
-2.541172206401824951e-01
7.698625326156616211e-03
-2.347420603036880493e-01
-1.591840833425521851e-01
-4.360830411314964294e-02
-8.786737918853759766e-03
-1.157291010022163391e-01
6.576510518789291382e-02
-1.714240163564682007e-01
-3.125353455543518066e-01
-3.407077491283416748e-01
1.809876561164855957e-01
-3.384443521499633789e-01
2.142480760812759399e-01
-1.348434016108512878e-02
7.451075315475463867e-02
2.534312307834625244e-01
2.038146257400512695e-01
1.081885620951652527e-01
-6.716736406087875366e-02
2.679796516895294189e-01
1.278878003358840942e-01
1.941686682403087616e-02
-1.968880891799926758e-01
-2.393815517425537109e-01
1.417963504791259766e-01
1.072153449058532715e-02
7.533682882785797119e-02
-3.733904659748077393e-01
3.161451965570449829e-02
4.514444991946220398e-02
1.610180884599685669e-01
-4.942172393202781677e-02
2.463997900485992432e-01
1.792334765195846558e-01
-2.240432659164071083e-03
-7.379406690597534180e-02
3.249322772026062012e-01
3.105996251106262207e-01
-1.498477607965469360e-01
-2.160048186779022217e-01
4.887895286083221436e-01
3.958863615989685059e-01
-9.921336174011230469e-02
-1.794229447841644287e-01
-8.952314406633377075e-02
2.735296785831451416e-01
-6.374974735081195831e-03
1.302162837237119675e-02
2.053783647716045380e-02
-6.153998523950576782e-02
-2.131386287510395050e-02
8.117314428091049194e-02
-7.806146144866943359e-02
9.238730370998382568e-02
1.772899031639099121e-01
-1.214535981416702271e-01
-2.577298879623413086e-01
1.089697107672691345e-01
8.919679559767246246e-03
-3.098658025264739990e-01
1.088868007063865662e-01
-8.254564553499221802e-02
-1.588358879089355469e-01
8.352510631084442139e-02
2.133370935916900635e-01
2.792974188923835754e-02
-2.148880809545516968e-02
8.497492223978042603e-02
2.525941729545593262e-01
-2.006546109914779663e-01
-4.174828901886940002e-02
-6.597054004669189453e-02
4.338843524456024170e-01
-3.452899754047393799e-01
-2.970052659511566162e-01
-2.157911211252212524e-01
5.357842519879341125e-02
-9.756711870431900024e-02
6.386701762676239014e-02
-6.848185509443283081e-02
1.634352356195449829e-01
-2.495408058166503906e-02
1.634594611823558807e-02
-6.892575323581695557e-02
2.041540741920471191e-01
1.079717054963111877e-01
1.437942385673522949e-01
2.392264902591705322e-01
1.946223825216293335e-01
-3.046398162841796875e-01
2.722313702106475830e-01
3.898947536945343018e-01
-1.205286234617233276e-01
-6.940370798110961914e-02
-3.760956525802612305e-01
-2.543482556939125061e-02
-1.028253734111785889e-01
-2.390058040618896484e-01
-9.783072164282202721e-04
-4.731878340244293213e-01
-5.340928956866264343e-02
2.238722592592239380e-01
-1.683605760335922241e-01
-6.681889891624450684e-01
-3.021513819694519043e-01
6.632181406021118164e-01
-2.526774108409881592e-01
-1.164574623107910156e+00
-1.293756216764450073e-01
-1.217024698853492737e-01
3.568011894822120667e-02
-1.664553582668304443e-01
2.151091117411851883e-03
-9.259782731533050537e-02
9.285116940736770630e-02
-1.796826571226119995e-01
-8.871106058359146118e-02
4.345653951168060303e-02
2.317170612514019012e-02
-1.965891122817993164e-01
-1.267547607421875000e-01
1.172701120376586914e-01
1.609744578599929810e-01
1.963335461914539337e-02
-1.622758805751800537e-01
-1.131836473941802979e-01
-3.710614442825317383e-01
3.183649182319641113e-01
-2.282527089118957520e-01
-1.167574431747198105e-02
-1.163401827216148376e-01
9.000366926193237305e-02
-5.048575401306152344e-01
7.111357152462005615e-02
1.188232451677322388e-01
4.478992894291877747e-02
-2.822987437248229980e-01
6.729476898908615112e-02
8.108440786600112915e-02
2.237731814384460449e-01
1.024821624159812927e-01
-1.687047928571701050e-01
-9.626550227403640747e-02
-3.045172989368438721e-02
-1.102508790791034698e-02
-9.659745730459690094e-03
-1.528108268976211548e-01
3.034536242485046387e-01
-3.184982836246490479e-01
6.782562285661697388e-02
-8.194907754659652710e-02
3.320436477661132812e-01
-3.244850933551788330e-01
6.392507255077362061e-02
-1.037995815277099609e-01
1.138828024268150330e-01
3.302358984947204590e-01
2.511199116706848145e-01
-1.468608379364013672e-01
-6.539009213447570801e-01
5.972424149513244629e-02
-5.994956567883491516e-02
-7.549957185983657837e-02
-3.411989212036132812e-01
-7.370227575302124023e-02
2.096577733755111694e-01
-7.135555893182754517e-02
-4.302683770656585693e-01
-6.542043089866638184e-01
-1.343363970518112183e-01
7.529868185520172119e-02
-6.230430006980895996e-01
-3.008692264556884766e-01
-1.464560329914093018e-01
5.064566060900688171e-02
6.536760926246643066e-02
-1.773410290479660034e-01
4.540963564068078995e-03
1.306278109550476074e-01
6.740385293960571289e-02
-2.820570468902587891e-01
-1.509566307067871094e-01
-3.551070764660835266e-02
5.746195465326309204e-02
-3.164125382900238037e-01
-3.246593475341796875e-01
-4.421247541904449463e-02
2.931724488735198975e-01
-2.505379915237426758e-01
-1.322379410266876221e-01
8.881319314241409302e-02
-3.942868858575820923e-02
2.305695414543151855e-02
-6.068656593561172485e-02
-1.550540141761302948e-02
1.534186154603958130e-01
-1.059957966208457947e-02
-5.141101405024528503e-02
-6.658203154802322388e-02
9.265713393688201904e-02
1.339979171752929688e-01
5.157799925655126572e-03
-1.590558886528015137e-01
-5.938870832324028015e-02
-2.919890284538269043e-01
-1.387759204953908920e-02
6.849279254674911499e-02
-4.254025593400001526e-02
-3.371037840843200684e-01
-1.507956534624099731e-01
3.358570486307144165e-02
9.001193940639495850e-02
-2.183409631252288818e-01
-1.252837479114532471e-01
-7.260801643133163452e-02
5.990643426775932312e-02
4.150127619504928589e-02
-1.049497500061988831e-01
-3.678464889526367188e-01
-7.067970037460327148e-01
9.504263848066329956e-02
4.832884967327117920e-01
1.765367835760116577e-01
-1.706276088953018188e-01
2.606544494628906250e-01
3.654085993766784668e-01
-3.999590128660202026e-02
-1.222718060016632080e-01
2.539477348327636719e-01
2.923082560300827026e-03
-2.595346271991729736e-01
-6.242864727973937988e-01
6.271346807479858398e-01
6.419451534748077393e-02
-1.655196398496627808e-01
-3.294955193996429443e-01
-6.310343742370605469e-01
-4.566183686256408691e-01
-9.249472618103027344e-02
-8.845239877700805664e-02
-1.977566927671432495e-01
-1.543765049427747726e-02
-8.759320527315139771e-02
-6.362558901309967041e-02
1.367194503545761108e-01
4.653907194733619690e-02
4.228028655052185059e-02
-1.195488348603248596e-01
-1.162286773324012756e-01
1.051105186343193054e-02
-2.098299097269773483e-03
-2.193889021873474121e-01
