2.448622137308120728e-01
-1.065491465851664543e-03
2.228049784898757935e-01
9.125947952270507812e-02
-2.537353932857513428e-01
4.259159788489341736e-02
-8.062341366894543171e-04
-1.830792278051376343e-01
1.734609454870223999e-01
9.324609637260437012e-01
1.364832520484924316e-01
6.364122033119201660e-02
1.121058464050292969e-01
-1.332250088453292847e-01
-1.151108741760253906e-02
-5.860331654548645020e-02
-3.459609346464276314e-03
-7.497058808803558350e-02
6.696857511997222900e-02
1.805144995450973511e-01
-1.937156915664672852e-01
-8.129380643367767334e-02
2.218264937400817871e-01
-1.021192371845245361e-01
-1.751372367143630981e-01
5.949028953909873962e-02
-5.316637754440307617e-01
-7.078842073678970337e-02
1.594062000513076782e-01
4.577152431011199951e-02
-2.465973049402236938e-01
5.329532176256179810e-02
-2.711824476718902588e-01
-1.624575704336166382e-01
4.614268839359283447e-01
1.139516979455947876e-01
1.664876937866210938e-01
-3.682826757431030273e-01
-4.298627376556396484e-02
1.311311125755310059e-01
-4.501489177346229553e-02
-2.322721034288406372e-01
-3.269193470478057861e-01
2.677201628684997559e-01
-3.163085505366325378e-02
-7.846075296401977539e-02
-1.804321557283401489e-01
7.448214292526245117e-02
-1.573083698749542236e-01
1.725845187902450562e-01
-2.132546454668045044e-01
-3.853257298469543457e-01
-6.281425058841705322e-02
-2.555447630584239960e-02
-5.992418900132179260e-02
3.269692417234182358e-03
-7.450269907712936401e-02
8.249042630195617676e-01
-1.711692661046981812e-02
-5.122986063361167908e-02
1.790246218442916870e-01
-3.569107037037611008e-03
-2.614446543157100677e-02
2.487758249044418335e-01
8.730509877204895020e-02
1.281441841274499893e-02
-6.364662945270538330e-02
-1.596214324235916138e-01
2.605176866054534912e-01
5.181707739830017090e-01
-1.735828071832656860e-01
5.523472279310226440e-02
7.020416855812072754e-02
2.159349471330642700e-01
4.868064820766448975e-02
2.277507483959197998e-01
-6.588109582662582397e-02
-4.466034770011901855e-01
-5.303297564387321472e-02
-3.005926012992858887e-01
1.733194589614868164e-01
4.142489135265350342e-01
-1.721821576356887817e-01
-3.117117099463939667e-02
-6.585314869880676270e-02
-9.497732669115066528e-02
9.867342710494995117e-01
3.214322030544281006e-01
-2.099578268826007843e-02
-1.349185593426227570e-02
2.369890660047531128e-01
2.036459445953369141e-01
-4.319418966770172119e-01
1.911749094724655151e-01
-1.183821782469749451e-01
-3.251056373119354248e-01
-1.009952202439308167e-01
2.013787329196929932e-01
3.559869229793548584e-01
-3.426021933555603027e-01
1.091298833489418030e-01
-1.865622699260711670e-01
1.902604103088378906e-01
2.562738358974456787e-01
-1.282344162464141846e-01
1.710583716630935669e-01
-2.613577246665954590e-02
-2.720399796962738037e-01
-1.662895679473876953e-01
2.270555794239044189e-01
2.243547439575195312e-01
-1.317593902349472046e-01
-2.731580436229705811e-01
-2.598357573151588440e-02
-1.995805837213993073e-02
-3.743318915367126465e-01
-9.328543394804000854e-02
-3.646705448627471924e-01
-1.122348010540008545e-02
1.411119848489761353e-02
