-4.899207055568695068e-01
-7.211906313896179199e-01
1.513602435588836670e-01
3.644208312034606934e-01
1.434798836708068848e-01
-2.797585427761077881e-01
2.015895396471023560e-01
2.378840371966362000e-02
-2.635708749294281006e-01
1.018157377839088440e-01
1.927374005317687988e-01
-1.354078054428100586e-01
6.473042815923690796e-02
5.067968741059303284e-02
3.506292104721069336e-01
-3.556615114212036133e-01
-1.246870262548327446e-03
1.338234990835189819e-01
1.563751138746738434e-02
2.639615535736083984e-01
2.577881813049316406e-01
-5.150713920593261719e-01
2.808148264884948730e-01
-2.587778270244598389e-01
3.769409656524658203e-02
2.184825688600540161e-01
-1.214420795440673828e-02
1.804555058479309082e-01
4.559425264596939087e-02
4.302911460399627686e-02
1.332709938287734985e-01
1.208714619278907776e-01
-7.030214183032512665e-03
-1.547596454620361328e-01
6.398064643144607544e-02
2.130582695826888084e-03
3.218773901462554932e-01
-8.513965457677841187e-02
-3.625178635120391846e-01
1.495356708765029907e-01
5.127491801977157593e-02
3.158859610557556152e-01
1.043908856809139252e-02
1.376392841339111328e-01
-4.399422183632850647e-02
-3.826664388179779053e-01
-5.463746190071105957e-01
8.571846038103103638e-02
-7.685381770133972168e-01
9.179249405860900879e-02
1.880628913640975952e-01
-1.526429504156112671e-01
5.303601920604705811e-02
2.301608771085739136e-01
-1.432522316463291645e-03
-3.325837478041648865e-02
-6.928526610136032104e-02
1.615974009037017822e-01
1.147416904568672180e-01
-6.177580356597900391e-01
-2.259638756513595581e-01
-9.210012853145599365e-02
-1.601640135049819946e-02
-1.650601923465728760e-01
-5.538884997367858887e-01
-6.919346004724502563e-02
-1.013523116707801819e-01
-2.741594314575195312e-01
2.243269234895706177e-01
-2.420882433652877808e-01
-5.712875351309776306e-02
1.896582692861557007e-01
3.004989922046661377e-01
7.277569919824600220e-02
3.874649479985237122e-02
-2.120824456214904785e-01
1.965702697634696960e-02
6.421632599085569382e-03
1.447702646255493164e-01
1.358285993337631226e-01
1.632317155599594116e-01
-1.255466789007186890e-01
2.799422442913055420e-01
3.826314955949783325e-02
-4.770648181438446045e-01
1.204226687550544739e-01
1.288776844739913940e-01
-1.173116490244865417e-01
8.376702666282653809e-02
9.390261769294738770e-02
-6.179393827915191650e-02
-2.167484909296035767e-01
-5.741448998451232910e-01
-9.784596413373947144e-02
-1.811341010034084320e-02
3.691808786243200302e-03
-5.673004984855651855e-01
3.928268700838088989e-02
-3.365339934825897217e-01
4.555117487907409668e-01
-1.895168609917163849e-02
-1.518502682447433472e-01
-1.730883121490478516e-02
7.432855665683746338e-02
-1.520358920097351074e-01
1.314248740673065186e-01
-9.180105477571487427e-02
-1.498174294829368591e-02
-5.857949852943420410e-01
-3.878849744796752930e-01
1.120781600475311279e-01
3.367903118487447500e-04
2.545081079006195068e-01
1.275373250246047974e-01
5.222693830728530884e-02
-1.066043600440025330e-01
-1.700309365987777710e-01
3.545527160167694092e-01
2.771752774715423584e-01
1.930068582296371460e-01
-2.802544236183166504e-01
6.242308020591735840e-01
1.352124214172363281e-01
-4.020852446556091309e-01
-8.972740173339843750e-02
6.913756579160690308e-02
-1.752504855394363403e-01
1.331190019845962524e-01
1.966530531644821167e-01
3.728710860013961792e-02
-1.723352372646331787e-01
1.785788685083389282e-01
1.030897572636604309e-01
-1.050814688205718994e-01
-4.979830384254455566e-01
2.444111406803131104e-01
-2.140142917633056641e-01
-3.191123157739639282e-02
4.148421585559844971e-01
-3.919868469238281250e-01
-2.291179001331329346e-01
2.196785211563110352e-01
-3.898577094078063965e-01
3.094345331192016602e-01
4.906901344656944275e-02
-3.338420093059539795e-01
3.814763426780700684e-01
-2.481510303914546967e-02
3.896170556545257568e-01
3.400327637791633606e-02
-6.650877743959426880e-02
4.719272255897521973e-02
-6.125384196639060974e-02
6.262817978858947754e-02
1.246751621365547180e-01
1.283421516418457031e-01
-3.702840507030487061e-01
-2.464793026447296143e-01
-2.110026404261589050e-02
-1.712651401758193970e-01
6.769297271966934204e-02
-2.569728158414363861e-02
-1.116217151284217834e-01
2.541660070419311523e-01
-2.216129191219806671e-02
2.822315990924835205e-01
3.406458720564842224e-02
1.624633520841598511e-01
1.708701252937316895e-01
-5.823163688182830811e-02
1.432294696569442749e-01
2.411255985498428345e-01
1.472821533679962158e-01
4.995749518275260925e-02
-1.502418424934148788e-02
-3.199483156204223633e-01
-1.190678104758262634e-01
-2.919691428542137146e-02
7.631245255470275879e-02
-1.260980814695358276e-01
-3.839472308754920959e-02
1.299131065607070923e-01
-4.611705541610717773e-01
-1.231480985879898071e-01
2.500588595867156982e-01
-1.681405603885650635e-01
-1.478841155767440796e-01
-3.178910315036773682e-01
6.039171814918518066e-01
2.405246645212173462e-01
4.593854844570159912e-01
1.630105823278427124e-02
-7.894792407751083374e-02
2.431154847145080566e-01
-2.620785683393478394e-02
-1.055059731006622314e-01
4.814449325203895569e-02
3.221874237060546875e-01
-1.490466147661209106e-01
3.632275760173797607e-02
2.600937895476818085e-02
-2.267096489667892456e-01
4.143055155873298645e-02
6.070215255022048950e-02
3.121737539768218994e-01
-7.414090633392333984e-02
1.427191048860549927e-01
4.601510986685752869e-02
-2.751725614070892334e-01
-1.543656587600708008e-01
-7.490747421979904175e-02
4.568002000451087952e-02
2.775723934173583984e-01
2.959443926811218262e-01
2.397436499595642090e-01
-2.931561768054962158e-01
5.004509091377258301e-01
3.653487190604209900e-02
-2.187405973672866821e-01
6.462273597717285156e-01
-1.161933541297912598e-01
1.738455891609191895e-02
5.788751691579818726e-02
2.591675817966461182e-01
-9.484033286571502686e-02
1.721296012401580811e-01
3.624960780143737793e-02
-2.035406045615673065e-02
9.329045563936233521e-02
4.318586587905883789e-01
-1.395371854305267334e-01
2.748074755072593689e-02
-4.236077517271041870e-02
-9.011463820934295654e-02
-1.671999990940093994e-01
-2.920438349246978760e-02
3.957621753215789795e-01
6.428983211517333984e-01
1.193231418728828430e-01
-8.484043926000595093e-02
-9.648735076189041138e-02
-6.069418191909790039e-01
1.561447139829397202e-02
1.708817854523658752e-02
6.205837801098823547e-02
-7.864909130148589611e-04
-1.806713789701461792e-01
3.194823861122131348e-02
-7.206054031848907471e-02
3.132066130638122559e-01
1.008356064558029175e-01
-3.886361718177795410e-01
-3.902069628238677979e-01
9.365323185920715332e-02
-1.345019880682229996e-02
6.894474476575851440e-02
-1.121583953499794006e-01
-1.462272107601165771e-01
-2.127515822649002075e-01
1.821385324001312256e-02
-1.130229011178016663e-01
-3.284814059734344482e-01
-3.275081515312194824e-01
-1.742264479398727417e-01
8.916849642992019653e-02
6.485907733440399170e-02
2.339620739221572876e-01
1.105837002396583557e-01
-3.001414537429809570e-01
-2.465431541204452515e-01
-4.555100575089454651e-02
-4.421992897987365723e-01
-3.717162609100341797e-01
-3.424052894115447998e-01
1.661877483129501343e-01
-2.226815000176429749e-02
-1.047347104758955538e-04
4.035348817706108093e-02
-7.108991593122482300e-02
-1.066411137580871582e-01
1.615027487277984619e-01
-7.003133296966552734e-01
-1.031115055084228516e-01
1.924956887960433960e-01
-8.268564939498901367e-02
1.288838088512420654e-01
2.841056883335113525e-01
2.938942750915884972e-03
-2.197411954402923584e-01
-1.604838669300079346e-01
-1.557687371969223022e-01
-2.938677966594696045e-01
5.396918952465057373e-02
1.532700937241315842e-02
-1.212083399295806885e-01
-3.610043525695800781e-01
3.480723202228546143e-01
1.740473061800003052e-01
-1.084898784756660461e-01
4.291861504316329956e-02
-3.597499057650566101e-02
-1.998635753989219666e-02
2.255293875932693481e-01
-1.306861191987991333e-01
3.624304383993148804e-02
3.590402752161026001e-02
1.190256476402282715e-01
2.931414842605590820e-01
-1.200371086597442627e-01
1.531352847814559937e-01
-5.070833563804626465e-01
3.276516124606132507e-02
2.179296612739562988e-01
-5.836930498480796814e-02
-1.680631190538406372e-01
1.747552305459976196e-01
-1.535190939903259277e-01
1.345991529524326324e-02
1.842637956142425537e-01
-3.294124901294708252e-01
7.309009879827499390e-02
3.702055290341377258e-02
-1.698307842016220093e-01
-9.835249185562133789e-02
1.598498076200485229e-01
1.532570719718933105e-01
3.730459511280059814e-01
1.329924166202545166e-02
-1.215432025492191315e-02
-7.855788618326187134e-02
3.552572727203369141e-01
-2.211390295997262001e-03
-1.084557995200157166e-01
-3.005230128765106201e-01
-1.827749460935592651e-01
-4.703505039215087891e-01
-2.111476808786392212e-01
2.274910956621170044e-01
3.062086105346679688e-01
-3.730270564556121826e-01
8.413223177194595337e-02
-2.259092777967453003e-02
-6.576612591743469238e-02
-5.227362513542175293e-01
-3.585521876811981201e-01
5.481768846511840820e-01
-1.728483103215694427e-02
-3.645370006561279297e-01
4.226348996162414551e-01
-3.839431703090667725e-01
1.176637783646583557e-01
-2.257170528173446655e-01
-5.435078740119934082e-01
2.645480036735534668e-01
2.586989402770996094e-01
2.854914404451847076e-02
-1.235256865620613098e-01
-4.881478548049926758e-01
1.678286790847778320e-01
-3.625034093856811523e-01
-5.132525041699409485e-02
-6.784924864768981934e-01
1.265613827854394913e-02
2.755742669105529785e-01
-1.032674163579940796e-01
-5.698304176330566406e-01
1.504867672920227051e-01
-1.221236288547515869e-01
-4.607490897178649902e-01
1.940380036830902100e-01
1.500317007303237915e-01
8.049555122852325439e-02
-5.675661563873291016e-02
2.076971530914306641e-01
2.722858190536499023e-01
-4.419966787099838257e-02
-1.229161918163299561e-01
1.963509470224380493e-01
-3.927110135555267334e-01
1.643425822257995605e-01
-3.066942840814590454e-02
-2.638944387435913086e-01
-3.295389562845230103e-02
2.406468987464904785e-02
2.287586778402328491e-01
2.398574501276016235e-01
-1.751460283994674683e-01
3.360646078363060951e-03
1.201102733612060547e-01
6.523196399211883545e-02
-1.445679217576980591e-01
-1.238204687833786011e-01
1.088196709752082825e-01
-4.871386289596557617e-02
4.648658912628889084e-03
9.651257842779159546e-02
6.752574443817138672e-01
5.183633416891098022e-02
7.808320224285125732e-02
4.586838185787200928e-01
-2.351114749908447266e-01
-5.671822931617498398e-03
7.968646287918090820e-02
-3.419007062911987305e-01
1.216377466917037964e-01
-5.415638163685798645e-02
-1.223781183362007141e-01
4.241258278489112854e-02
7.657318562269210815e-02
-9.967339038848876953e-02
1.234997180290520191e-04
-3.183186054229736328e-01
1.499462313950061798e-02
2.206708341836929321e-01
3.302263841032981873e-02
3.674921989440917969e-01
-1.894243061542510986e-01
-1.639684475958347321e-02
-1.144092977046966553e-01
-1.159667000174522400e-01
-5.844051763415336609e-02
2.119850367307662964e-02
3.841123878955841064e-01
1.527434494346380234e-02
2.264856845140457153e-01
9.895106405019760132e-02
9.775924496352672577e-03
3.208681941032409668e-01
-2.546072006225585938e-01
-1.982584148645401001e-01
-4.977261126041412354e-01
1.193637624382972717e-01
-6.654952303506433964e-04
-3.717828914523124695e-02
2.475633472204208374e-01
2.581207267940044403e-02
-9.611987322568893433e-02
-1.570305526256561279e-01
3.862058222293853760e-01
-2.639564871788024902e-01
1.072323992848396301e-01
9.668444097042083740e-02
-2.117974013090133667e-01
5.445282161235809326e-02
-3.739559352397918701e-01
-8.746226876974105835e-02
6.597523391246795654e-02
1.144722923636436462e-01
3.427446484565734863e-01
1.694913357496261597e-01
-1.802602782845497131e-02
-1.045472025871276855e-01
-2.581005915999412537e-02
-4.658831954002380371e-01
-2.249454110860824585e-01
1.912516951560974121e-01
-4.070716202259063721e-01
1.743040233850479126e-01
-1.856734901666641235e-01
-5.662894845008850098e-01
7.018948346376419067e-02
-1.749495975673198700e-02
1.907065957784652710e-01
-2.179325073957443237e-01
-2.892054617404937744e-01
-2.428006082773208618e-01
1.911285370588302612e-01
-1.270833164453506470e-01
9.750205278396606445e-02
-1.058521419763565063e-01
3.487079441547393799e-01
-6.546922773122787476e-02
8.868616074323654175e-03
1.051059365272521973e-02
-5.630179774016141891e-03
-2.458704262971878052e-01
-4.562075138092041016e-01
-8.152164816856384277e-01
-2.624099515378475189e-02
1.264993995428085327e-01
4.963579177856445312e-01
3.185124099254608154e-01
-1.207789257168769836e-01
-2.795489728450775146e-01
-9.448900818824768066e-02
1.895825564861297607e-01
-3.502651154994964600e-01
2.627727575600147247e-03
4.017561078071594238e-01
2.608119845390319824e-01
-1.352451294660568237e-01
-1.678866893053054810e-01
-1.306521743535995483e-01
-3.502079844474792480e-01
-3.549065887928009033e-01
-1.105650186538696289e+00
1.368914693593978882e-01
-4.130758941173553467e-01
6.242802832275629044e-03
-4.119056090712547302e-02
-1.172240972518920898e-01
6.153375841677188873e-03
-8.659635484218597412e-02
-2.747490108013153076e-01
-1.660833507776260376e-01
-1.504240781068801880e-01
3.169209957122802734e-01
9.470018744468688965e-02
2.740496993064880371e-01
3.299269825220108032e-02
8.100697398185729980e-02
-1.421799510717391968e-01
-1.471840739250183105e-01
3.703253716230392456e-02
-4.576371982693672180e-02
2.090816497802734375e-01
-4.348547756671905518e-01
4.602544754743576050e-02
8.844334632158279419e-02
-3.482256829738616943e-02
-1.210993081331253052e-01
-6.576330065727233887e-01
-2.483581304550170898e-01
-1.781612448394298553e-02
1.638518720865249634e-01
9.069167971611022949e-01
1.236581951379776001e-01
6.040455400943756104e-02
-2.254775017499923706e-01
-6.076522171497344971e-02
-1.128319874405860901e-01
-3.361098170280456543e-01
5.478810891509056091e-02
-1.550499051809310913e-01
1.123923249542713165e-02
-2.801653444766998291e-01
-1.547611206769943237e-01
2.799810767173767090e-01
-4.303158819675445557e-02
1.549925357103347778e-01
9.211097657680511475e-02
1.446159929037094116e-01
2.493044734001159668e-02
-2.360261278226971626e-03
3.682650923728942871e-01
2.244225889444351196e-01
-2.341949008405208588e-02
7.822881937026977539e-01
-1.389336436986923218e-01
3.901669979095458984e-01
-1.246919870376586914e+00
-1.543098688125610352e-01
-1.115891262888908386e-01
-5.398622751235961914e-01
-6.602661609649658203e-01
8.105047792196273804e-02
-2.804961204528808594e-01
2.448021173477172852e-01
-1.025269925594329834e-01
-3.075601756572723389e-01
-4.995844513177871704e-02
2.049606889486312866e-01
-1.723717451095581055e-01
-2.686860389076173306e-04
6.589397042989730835e-02
4.550599306821823120e-02
2.027383297681808472e-01
1.597790978848934174e-02
-9.092122316360473633e-02
-3.068838454782962799e-02
1.598363965749740601e-01
1.920177191495895386e-01
2.511653900146484375e-01
-7.794976830482482910e-01
-1.297329664230346680e-01
-4.279015585780143738e-02
7.604819722473621368e-03
5.940046533942222595e-02
-2.901704609394073486e-01
-2.114743143320083618e-01
1.953252106904983521e-01
3.105758503079414368e-02
-5.822688713669776917e-02
1.082914173603057861e-01
-2.152473628520965576e-01
5.139912962913513184e-01
9.912484884262084961e-02
-1.635109186172485352e-01
5.096335411071777344e-01
5.761299729347229004e-01
5.978827178478240967e-02
-7.121423631906509399e-02
-3.218870162963867188e-01
1.195486262440681458e-01
-1.638485491275787354e-01
-1.605701297521591187e-01
-9.398555010557174683e-02
1.654107719659805298e-01
-1.256679743528366089e-01
-6.502082943916320801e-01
-2.221788316965103149e-01
-3.712078183889389038e-02
1.172993630170822144e-01
1.866899579763412476e-01
1.649268120527267456e-01
5.271734669804573059e-02
3.229903876781463623e-01
-1.728395670652389526e-01
7.150095701217651367e-02
2.649555802345275879e-01
3.076663613319396973e-01
5.437398329377174377e-02
-3.768059238791465759e-02
-2.058926410973072052e-02
1.996324658393859863e-01
6.910660266876220703e-01
-2.993347821757197380e-03
1.848375499248504639e-01
5.019837245345115662e-02
4.196397960186004639e-01
2.486592531204223633e-01
-2.026957422494888306e-01
6.473605036735534668e-01
-4.785042405128479004e-01
-1.849346677772700787e-03
-1.884121634066104889e-02
-8.150415495038032532e-03
2.773226611316204071e-02
1.028074696660041809e-02
1.427007466554641724e-01
-1.914186179637908936e-01
2.016923576593399048e-01
-7.690073922276496887e-03
-3.555300179868936539e-03
-6.478801369667053223e-02
-1.230756938457489014e-01
6.718997955322265625e-01
6.963501125574111938e-02
3.149383366107940674e-01
1.266284435987472534e-01
-6.432668566703796387e-01
6.570232510566711426e-01
-5.250758025795221329e-03
5.441771149635314941e-01
2.123689204454421997e-01
-3.490304350852966309e-01
-8.279226422309875488e-01
-1.007150411605834961e-01
2.366032302379608154e-01
4.139593616127967834e-02
9.699982404708862305e-02
3.410014137625694275e-02
1.009927913546562195e-01
2.494726032018661499e-01
-2.126057073473930359e-02
-1.671572774648666382e-01
-2.724286317825317383e-01
1.633640378713607788e-01
3.612239062786102295e-01
-1.009324312210083008e+00
-1.497384309768676758e-01
-1.240417584776878357e-01
3.537830114364624023e-01
-1.218756511807441711e-01
-4.356845617294311523e-01
3.816537931561470032e-02
9.625065140426158905e-03
2.605143785476684570e-01
4.326470196247100830e-02
-2.479163259267807007e-01
2.718004584312438965e-01
3.364038094878196716e-02
-1.940944492816925049e-01
7.153818011283874512e-02
6.341553926467895508e-01
-1.845328360795974731e-01
5.990119278430938721e-02
-1.383762806653976440e-02
-2.795231640338897705e-01
-2.701286971569061279e-01
5.154877156019210815e-02
-8.382480591535568237e-02
1.358230710029602051e-01
-1.173174306750297546e-01
-1.827156543731689453e-01
2.974022030830383301e-01
9.457746893167495728e-02
6.455955654382705688e-02
2.353540360927581787e-01
4.682924598455429077e-02
2.780920863151550293e-01
-1.874331235885620117e-01
-3.803599774837493896e-01
4.072795808315277100e-01
-2.568300813436508179e-02
-7.765419781208038330e-02
7.282678037881851196e-02
4.874466061592102051e-01
-1.887326687574386597e-02
-6.556677073240280151e-02
4.580585956573486328e-01
-4.986247420310974121e-02
-1.284097414463758469e-02
4.385254681110382080e-01
1.152381449937820435e-01
-3.999435603618621826e-01
-7.434365153312683105e-02
1.786883324384689331e-01
-2.101265192031860352e-01
-4.677348434925079346e-01
-7.182800327427685261e-04
-1.310669779777526855e-01
8.016905188560485840e-02
5.578496456146240234e-01
2.552590146660804749e-02
4.084987193346023560e-02
-1.834729500114917755e-02
1.807519495487213135e-01
4.952879622578620911e-02
3.888009488582611084e-02
-1.062923446297645569e-01
-6.373865604400634766e-01
-5.167302116751670837e-02
7.149912118911743164e-01
-9.642546623945236206e-02
-5.714690685272216797e-01
3.156315386295318604e-01
8.096410334110260010e-02
-5.568522214889526367e-01
1.534473598003387451e-01
1.793280243873596191e-01
9.137764573097229004e-03
1.108537688851356506e-01
2.787961624562740326e-02
8.484159111976623535e-01
6.715422272682189941e-01
-5.275288224220275879e-02
3.894585072994232178e-01
-1.905266940593719482e-01
-2.821687161922454834e-01
3.284258767962455750e-02
-3.938860893249511719e-01
-2.805861532688140869e-01
4.688189923763275146e-01
2.577569186687469482e-01
1.556839048862457275e-01
-1.791017949581146240e-01
-8.250800520181655884e-02
3.036443516612052917e-02
-8.841790258884429932e-02
-9.508331306278705597e-03
-3.906443119049072266e-01
1.209824695251882076e-03
-1.238349378108978271e-01
2.531293034553527832e-01
2.282367460429668427e-02
4.039467275142669678e-01
-1.096672490239143372e-01
2.901192307472229004e-01
4.960895776748657227e-01
-5.362368226051330566e-01
3.359611630439758301e-01
6.770829111337661743e-02
-9.932693839073181152e-02
-2.026962488889694214e-01
-1.558645367622375488e-01
-5.609273910522460938e-01
-1.507007982581853867e-02
6.250053644180297852e-02
1.557015329599380493e-01
1.394321173429489136e-01
1.997718960046768188e-02
2.551783621311187744e-01
6.629632711410522461e-01
1.079154759645462036e-02
6.746050119400024414e-01
-3.071983717381954193e-02
2.011136263608932495e-01
-2.845015190541744232e-02
-2.926206588745117188e-01
-1.433948725461959839e-01
-1.108452305197715759e-02
1.840632259845733643e-01
-3.165695071220397949e-01
-4.288228154182434082e-01
-1.842919290065765381e-01
2.178236655890941620e-02
-3.290526568889617920e-01
-1.405659411102533340e-02
-1.143704652786254883e-01
9.287743568420410156e-01
6.241194605827331543e-01
3.138206303119659424e-01
3.618888258934020996e-01
7.899326086044311523e-01
1.617807596921920776e-01
-1.082665622234344482e-01
6.674815900623798370e-03
7.059124112129211426e-01
8.709105849266052246e-02
-3.261869549751281738e-01
1.112530939280986786e-03
1.051637995988130569e-02
-8.128074929118156433e-03
5.794064998626708984e-01
6.112701296806335449e-01
1.639722734689712524e-01
5.532234162092208862e-02
-1.837538480758666992e-01
1.860469728708267212e-01
-1.549362093210220337e-01
-3.159080147743225098e-01
-1.778625994920730591e-01
6.969529986381530762e-01
-2.861541323363780975e-02
-1.217361986637115479e-01
-7.818885147571563721e-02
4.325340986251831055e-01
1.316914409399032593e-01
4.283115640282630920e-02
-1.232869625091552734e-01
7.617580890655517578e-02
-1.415009945631027222e-01
-4.648030698299407959e-01
2.207599347457289696e-03
-1.850545555353164673e-01
-1.301317960023880005e-01
-9.698227792978286743e-02
-3.857004344463348389e-01
-7.821896076202392578e-01
1.099164038896560669e-01
-2.534153461456298828e-01
1.451038569211959839e-02
7.354190945625305176e-01
4.146952182054519653e-02
1.527199638076126575e-03
-1.770746856927871704e-01
-3.493843376636505127e-01
2.097969949245452881e-01
2.914530634880065918e-01
-1.818531006574630737e-01
-3.067136975005269051e-03
1.369543671607971191e-01
-9.534083306789398193e-03
-3.235599026083946228e-02
-2.422562986612319946e-01
5.417976900935173035e-02
-1.309495270252227783e-01
-2.341933548450469971e-01
2.187197059392929077e-01
-2.793671786785125732e-01
-1.351494435220956802e-02
1.264128237962722778e-01
-2.268598228693008423e-02
1.090964823961257935e-01
1.258697360754013062e-01
-5.103352665901184082e-02
5.986150354146957397e-02
3.944678604602813721e-01
-1.870173662900924683e-01
-4.918901920318603516e-01
1.846144050359725952e-01
2.585356235504150391e-01
-2.571598291397094727e-01
4.838655516505241394e-02
1.137080695480108261e-02
-3.346352875232696533e-01
-8.156400918960571289e-01
-7.075911015272140503e-02
2.191871553659439087e-01
-1.147112995386123657e-01
-3.078669011592864990e-01
-3.550632297992706299e-01
1.751095950603485107e-01
-8.646682836115360260e-03
-3.096288740634918213e-01
6.636287271976470947e-02
-2.133303694427013397e-02
3.967440128326416016e-02
-3.185674175620079041e-02
1.232761889696121216e-01
1.055605188012123108e-01
-1.057521998882293701e-01
-6.219230890274047852e-01
-1.198910698294639587e-01
1.776367872953414917e-01
2.612165212631225586e-01
-2.587290108203887939e-01
3.823945224285125732e-01
-5.603188276290893555e-02
-9.309700876474380493e-02
2.285085469484329224e-01
1.722802072763442993e-01
1.952916085720062256e-01
1.048231571912765503e-01
4.384561255574226379e-02
-4.211979210376739502e-01
2.013760507106781006e-01
-5.231797695159912109e-02
-1.319610625505447388e-01
1.084830686450004578e-01
-8.174653351306915283e-02
-1.423854976892471313e-01
-2.480323053896427155e-02
1.037503927946090698e-01
4.006886854767799377e-02
-3.912646770477294922e-01
-1.745343953371047974e-01
-6.097422242164611816e-01
3.965026438236236572e-01
4.943646490573883057e-01
-9.213484823703765869e-02
-1.014949977397918701e-01
-6.011269092559814453e-01
-3.162880241870880127e-02
2.594693899154663086e-01
-2.226425260305404663e-01
-5.585974454879760742e-01
-1.475213468074798584e-01
-1.019951030611991882e-01
-5.380422472953796387e-01
2.465770393610000610e-01
-6.551723182201385498e-02
-1.600089482963085175e-02
1.226902306079864502e-01
2.136836200952529907e-02
1.065659373998641968e-01
4.060299098491668701e-01
3.248107135295867920e-01
-3.307602554559707642e-02
-2.801268696784973145e-01
2.247429192066192627e-01
9.680840373039245605e-02
-9.008859843015670776e-02
1.488613546825945377e-03
-6.275966018438339233e-02
-2.874870970845222473e-02
2.555873058736324310e-02
2.906848192214965820e-01
-3.934772014617919922e-01
-1.412810385227203369e-01
2.486816793680191040e-01
-5.803393945097923279e-02
3.571835532784461975e-02
1.392071694135665894e-01
-6.471591591835021973e-01
-6.508602946996688843e-02
-1.951989531517028809e-02
-2.867291271686553955e-01
1.279622167348861694e-01
-1.761616468429565430e-01
-1.044512959197163582e-03
-9.269913285970687866e-02
3.142144158482551575e-02
3.599125891923904419e-02
4.515681415796279907e-02
-2.290651649236679077e-01
-3.800274133682250977e-01
-4.605719745159149170e-01
-9.039384126663208008e-02
-4.658786579966545105e-02
-4.256049990653991699e-01
-2.001849003136157990e-02
2.694898247718811035e-01
-2.358312308788299561e-01
-1.791294068098068237e-01
1.474305093288421631e-01
-1.806852817535400391e-01
-2.187038660049438477e-01
6.834784150123596191e-02
4.512131214141845703e-02
2.516190111637115479e-01
3.188845142722129822e-02
2.458714395761489868e-01
-8.552218973636627197e-02
-3.160468041896820068e-01
-1.176601126790046692e-01
7.360984385013580322e-02
-2.045849859714508057e-01
-2.284275442361831665e-01
1.201160848140716553e-01
1.733320392668247223e-02
-3.971040248870849609e-01
1.053602099418640137e-01
3.006240725517272949e-01
1.073217764496803284e-01
2.768470048904418945e-01
-1.261487156152725220e-01
2.964996695518493652e-01
1.077764332294464111e-01
2.658815123140811920e-03
-1.117831096053123474e-01
1.248995289206504822e-01
-1.970378756523132324e-01
3.911413252353668213e-01
2.502199709415435791e-01
1.370037253946065903e-02
-1.562905758619308472e-01
-2.888405323028564453e-01
3.411768972873687744e-01
-1.284364014863967896e-01
6.985083222389221191e-02
-6.694763898849487305e-02
-5.336562991142272949e-01
5.005085095763206482e-02
1.588410735130310059e-01
-1.627964973449707031e-01
-6.842071656137704849e-03
-1.862195134162902832e-01
-3.692703694105148315e-02
2.007493823766708374e-01
5.330383777618408203e-01
3.569670915603637695e-01
3.314413726329803467e-01
8.807330578565597534e-02
4.251644611358642578e-01
-2.899543344974517822e-01
9.572083503007888794e-02
-2.739935815334320068e-01
-1.280757635831832886e-01
-1.685112565755844116e-01
3.004616796970367432e-01
1.252787653356790543e-03
-6.749751418828964233e-02
-4.526555072516202927e-03
1.295509189367294312e-01
-8.523038774728775024e-02
1.486215591430664062e-01
-3.686905503273010254e-01
-1.186178103089332581e-01
-3.065289258956909180e-01
6.269898265600204468e-03
1.297491192817687988e-01
2.809028327465057373e-01
4.215305089019238949e-04
-3.779518976807594299e-02
-2.337101697921752930e-01
6.333760172128677368e-02
1.582487672567367554e-01
-2.422126829624176025e-01
1.340095400810241699e-01
3.053227663040161133e-01
-3.231998980045318604e-01
-5.879240855574607849e-02
9.408633410930633545e-02
-5.705851130187511444e-03
7.094743102788925171e-02
1.494109332561492920e-01
-2.470510751008987427e-01
6.036208197474479675e-02
-2.975292205810546875e-01
-1.300332993268966675e-01
-9.087353944778442383e-02
-3.741501867771148682e-01
-1.537474542856216431e-01
-8.527997881174087524e-02
-1.036857962608337402e-01
-1.030409857630729675e-01
-4.992942214012145996e-01
2.209456115961074829e-01
3.492303565144538879e-02
1.151953190565109253e-01
-4.125467687845230103e-02
2.048383094370365143e-02
-3.819635808467864990e-01
8.991714566946029663e-02
2.480390667915344238e-01
-7.187896221876144409e-02
-1.324809640645980835e-01
-2.505755424499511719e-01
2.230061963200569153e-02
-1.849467307329177856e-01
4.103440344333648682e-01
1.319530904293060303e-01
1.440558880567550659e-01
-1.356017440557479858e-01
1.202877089381217957e-01
1.586354672908782959e-01
7.944318465888500214e-03
2.371864169836044312e-01
-1.287184059619903564e-01
7.904912531375885010e-02
4.141457751393318176e-02
-5.817487239837646484e-01
-1.060835421085357666e-01
7.001417875289916992e-02
-6.906601786613464355e-02
-1.210529208183288574e-01
3.213161528110504150e-01
8.894601464271545410e-02
1.176543459296226501e-01
-1.454810202121734619e-01
-2.233540713787078857e-01
-3.453416526317596436e-01
-2.148431986570358276e-01
-2.011050581932067871e-01
-2.539673447608947754e-01
-6.425202488899230957e-01
1.263064797967672348e-02
2.102745026350021362e-01
-2.461627870798110962e-01
1.033592149615287781e-01
-1.001869514584541321e-01
1.540558598935604095e-02
-3.401022255420684814e-01
-4.555589258670806885e-01
-3.393574059009552002e-02
-8.148191124200820923e-02
-7.689748704433441162e-02
5.193961411714553833e-02
-7.237915694713592529e-02
-1.447093188762664795e-01
-1.145265772938728333e-01
1.220100671052932739e-01
-6.523518264293670654e-02
-2.490087151527404785e-01
-4.697163701057434082e-01
1.599704176187515259e-01
-1.123961210250854492e-01
-4.791282415390014648e-01
-1.066477969288825989e-01
-5.644299387931823730e-01
1.180637851357460022e-01
-1.682001650333404541e-01
1.434637513011693954e-02
1.985128968954086304e-01
7.398233562707901001e-02
4.587274044752120972e-02
-1.715231388807296753e-01
6.197875365614891052e-02
-2.854645997285842896e-02
4.004233479499816895e-01
1.556612253189086914e-01
-1.545867770910263062e-01
-5.933506414294242859e-02
-4.211991727352142334e-01
-1.706203073263168335e-01
7.264209538698196411e-02
-1.147415563464164734e-01
-1.333247288130223751e-03
-6.114518269896507263e-03
1.199047043919563293e-01
-4.053659364581108093e-02
8.410140872001647949e-02
-1.347980797290802002e-01
1.363841742277145386e-01
9.806758910417556763e-02
9.267960488796234131e-02
-3.937240540981292725e-01
-2.572424411773681641e-01
-3.800232410430908203e-01
-1.485758088529109955e-02
-3.381081521511077881e-01
-7.815999984741210938e-01
-4.629852175712585449e-01
-1.205889135599136353e-02
-6.773732602596282959e-02
8.191176503896713257e-02
-5.223585367202758789e-01
9.235175698995590210e-02
-1.260754615068435669e-01
1.240922138094902039e-01
1.722305715084075928e-01
-4.695616289973258972e-02
-2.338044792413711548e-01
1.196999996900558472e-01
2.509672641754150391e-01
9.574113041162490845e-02
-1.181377246975898743e-01
-9.990621358156204224e-02
4.404417797923088074e-02
1.108516603708267212e-01
1.863047480583190918e-01
-5.181751251220703125e-01
-1.567056518979370594e-03
2.299119159579277039e-02
1.219808533787727356e-01
-1.261965483427047729e-01
7.736719679087400436e-03
4.491992890834808350e-01
3.821049928665161133e-01
1.002192273736000061e-01
3.482730314135551453e-02
-9.322997182607650757e-02
1.319337189197540283e-01
3.185213804244995117e-01
-2.874186933040618896e-01
-5.946103855967521667e-02
2.504922747611999512e-01
-8.376748859882354736e-02
-5.019925832748413086e-01
5.702970921993255615e-02
-2.985374629497528076e-01
-5.821996331214904785e-01
-5.680366605520248413e-02
1.388924568891525269e-02
2.478815764188766479e-01
1.829439520835876465e+00
5.721461400389671326e-02
1.231323182582855225e-02
2.279192358255386353e-01
-2.929330170154571533e-01
-1.371485739946365356e-01
2.580349147319793701e-01
-5.999200791120529175e-02
-9.916386753320693970e-02
1.622438579797744751e-01
-1.636949330568313599e-01
-1.159868687391281128e-01
2.405416220426559448e-01
3.027324005961418152e-02
-1.464568544179201126e-02
-9.281213581562042236e-02
-1.925113648176193237e-01
9.583612531423568726e-02
-1.242292046546936035e+00
1.537575423717498779e-01
-1.690787971019744873e-01
5.995047977194190025e-04
-1.211567297577857971e-01
1.793357171118259430e-02
-1.008681952953338623e-02
-1.291216015815734863e-01
-1.643121391534805298e-01
6.936457753181457520e-02
-5.771029368042945862e-02
-1.558785885572433472e-01
-7.465634495019912720e-02
1.466087102890014648e-01
8.627432584762573242e-02
-1.059561073780059814e-01
-1.929933391511440277e-02
-1.324317604303359985e-01
-3.295541107654571533e-01
1.858363486826419830e-02
2.357391417026519775e-01
-8.405142277479171753e-02
-4.168309271335601807e-02
1.075280606746673584e-01
8.886358886957168579e-02
-2.498523294925689697e-01
-3.730695247650146484e-01
-2.718665599822998047e-01
1.828701347112655640e-01
-3.738710284233093262e-02
2.195752859115600586e-01
-1.503825634717941284e-01
-4.358860850334167480e-02
-3.222702443599700928e-01
3.309828042984008789e-01
-1.548576056957244873e-01
-1.069949641823768616e-01
3.403035700321197510e-01
2.523927390575408936e-01
-1.143596023321151733e-01
1.622032560408115387e-02
-2.105629295110702515e-01
3.575742542743682861e-01
7.112463563680648804e-02
-4.388981163501739502e-01
-6.560965627431869507e-02
8.077016472816467285e-02
5.183047056198120117e-01
-9.104543924331665039e-02
-5.846679210662841797e-02
2.430759668350219727e-01
9.507161565124988556e-03
4.986978322267532349e-02
-4.523632824420928955e-01
1.575441856402903795e-04
-1.218302845954895020e+00
8.028007298707962036e-02
8.238092809915542603e-02
-4.731879383325576782e-02
-5.126212835311889648e-01
1.219888404011726379e-01
-2.054625749588012695e-01
-1.595563441514968872e-01
-3.703392297029495239e-02
-1.198211982846260071e-01
2.218462340533733368e-02
-1.143928151577711105e-02
1.266175210475921631e-01
-3.546108305454254150e-01
2.888823151588439941e-01
-2.743191830813884735e-02
4.008153975009918213e-01
1.713008880615234375e-01
1.692061871290206909e-01
9.581259451806545258e-03
-1.856879889965057373e-01
-1.282713003456592560e-02
-3.768382966518402100e-01
-1.308698534965515137e+00
-6.063693389296531677e-02
5.384479649364948273e-03
-6.046272441744804382e-02
-2.313017696142196655e-01
3.521552681922912598e-02
-3.008310496807098389e-01
2.380402237176895142e-01
3.564542159438133240e-02
-3.838198259472846985e-02
1.318761240690946579e-02
3.967357799410820007e-02
-2.235441096127033234e-02
-2.081716507673263550e-01
-1.890924721956253052e-01
1.148300915956497192e-01
-2.721259891986846924e-01
-3.924981132149696350e-02
-3.042366802692413330e-01
-9.045524895191192627e-02
-2.780417911708354950e-02
-1.342402994632720947e-01
-5.073903501033782959e-02
1.478977054357528687e-01
-1.821822226047515869e-01
-1.617134548723697662e-02
1.433382034301757812e-01
5.037305951118469238e-01
2.361135780811309814e-01
-1.549735218286514282e-01
-6.414841413497924805e-01
-2.564157247543334961e-01
2.795314490795135498e-01
-3.345748782157897949e-01
-4.958381876349449158e-02
5.614501237869262695e-01
3.279392123222351074e-01
1.403968930244445801e-01
-7.269053906202316284e-02
-6.222060322761535645e-02
-2.193034738302230835e-01
-4.284693896770477295e-01
-8.251528739929199219e-01
-1.458602398633956909e-01
-3.249709606170654297e-01
-1.516296714544296265e-01
8.290732651948928833e-02
-1.683723032474517822e-01
2.346263974905014038e-01
-9.785380214452743530e-02
-6.260428428649902344e-01
-1.346391737461090088e-01
-2.056180834770202637e-01
1.893185079097747803e-01
6.969145685434341431e-02
-5.170951038599014282e-02
1.963791251182556152e-02
4.165410622954368591e-02
-1.117133572697639465e-01
-3.216924145817756653e-02
1.180675402283668518e-01
5.429214239120483398e-02
3.881725072860717773e-01
-5.315343141555786133e-01
1.130766421556472778e-01
1.836365759372711182e-01
8.438272774219512939e-02
-3.011881113052368164e-01
-8.178370594978332520e-01
-1.360168606042861938e-01
3.667472004890441895e-01
2.764367163181304932e-01
7.065176367759704590e-01
3.343339264392852783e-01
-1.169170588254928589e-01
-1.807198077440261841e-01
-8.603119850158691406e-02
-3.198512494564056396e-01
-4.150571823120117188e-01
8.091866225004196167e-02
-2.134271562099456787e-01
-5.791632831096649170e-02
-2.098663151264190674e-01
-9.823060780763626099e-02
2.149729430675506592e-01
-9.238875657320022583e-02
-6.400652928277850151e-04
9.543427079916000366e-02
6.538748741149902344e-02
-9.007868915796279907e-02
8.338502049446105957e-02
3.166886866092681885e-01
2.687470912933349609e-01
6.238572299480438232e-02
9.187936186790466309e-01
-5.141416564583778381e-02
3.890487551689147949e-01
-1.127964735031127930e+00
-1.290339231491088867e-01
-2.969345450401306152e-01
-1.341468840837478638e-01
-5.679503083229064941e-01
1.707092486321926117e-02
-1.240866482257843018e-01
1.467660814523696899e-01
-1.308711618185043335e-01
-1.448755562305450439e-01
1.181096583604812622e-01
1.733290851116180420e-01
-1.254864186048507690e-01
-5.958565697073936462e-02
-1.334099769592285156e-01
-6.143212318420410156e-03
3.080078959465026855e-01
8.660259097814559937e-02
-6.690903007984161377e-02
2.167446538805961609e-02
9.917551279067993164e-02
8.958435058593750000e-02
4.953754246234893799e-01
-6.672765612602233887e-01
-4.585558548569679260e-02
-6.633388809859752655e-03
-2.108142524957656860e-01
-4.817236587405204773e-02
-2.330199927091598511e-01
-2.843951582908630371e-01
2.097508311271667480e-01
1.048159971833229065e-02
1.623936556279659271e-02
-1.337119787931442261e-01
-2.495132200419902802e-02
5.380706787109375000e-01
1.362393889576196671e-02
-4.152497351169586182e-01
5.542053580284118652e-01
5.591105818748474121e-01
3.017903566360473633e-01
-3.707865998148918152e-02
-3.042378723621368408e-01
1.482780575752258301e-01
-7.747896760702133179e-02
-1.338520646095275879e-01
-2.018822133541107178e-01
3.628768771886825562e-02
-6.059172004461288452e-02
-3.995414674282073975e-01
1.687119454145431519e-01
-1.151067093014717102e-01
5.064100027084350586e-02
5.015606060624122620e-02
-4.004086554050445557e-02
-3.399388790130615234e-01
1.942689269781112671e-01
-1.780787110328674316e-02
1.948320679366588593e-02
2.441757470369338989e-01
9.618185460567474365e-03
9.852756559848785400e-02
4.842418804764747620e-02
-3.993846476078033447e-02
3.363520801067352295e-01
-1.986388266086578369e-01
-1.273234784603118896e-01
-2.504550665616989136e-02
3.810378611087799072e-01
-2.121146917343139648e-01
-2.048422023653984070e-02
-3.765568509697914124e-02
-1.879980564117431641e-01
-4.338990431278944016e-03
-3.151324391365051270e-01
2.384628728032112122e-02
-6.557168364524841309e-01
-4.228606820106506348e-02
2.883249223232269287e-01
1.649029999971389771e-01
-1.595257520675659180e-01
2.656004130840301514e-01
-7.369124144315719604e-02
-2.267583608627319336e-01
4.298737645149230957e-01
8.478461951017379761e-02
1.851809471845626831e-01
-2.749966979026794434e-01
-3.898707926273345947e-01
2.887586355209350586e-01
-3.903541266918182373e-01
2.953031659126281738e-01
-4.649403989315032959e-01
-1.228314489126205444e-01
-3.628377318382263184e-01
-1.591188162565231323e-01
-1.581441015005111694e-01
1.049054786562919617e-01
8.116197586059570312e-02
2.039664238691329956e-01
7.041586190462112427e-02
-1.486045122146606445e-01
1.787017583847045898e-01
2.811546325683593750e-01
8.604425936937332153e-02
3.905803263187408447e-01
-6.444428116083145142e-03
2.541949152946472168e-01
1.937623322010040283e-01
-8.646474033594131470e-02
1.028232946991920471e-01
1.439178586006164551e-01
-2.797830998897552490e-01
3.058789670467376709e-01
2.793086469173431396e-01
-1.327162981033325195e-01
-1.982242763042449951e-01
-2.258124053478240967e-01
-9.937730431556701660e-02
2.763539254665374756e-01
-1.022365689277648926e-01
8.485541492700576782e-02
3.249841392971575260e-04
4.864820241928100586e-01
1.179153621196746826e-01
2.070450596511363983e-02
-4.967511072754859924e-02
-6.978736072778701782e-02
3.005373775959014893e-01
1.656006574630737305e-01
3.216919302940368652e-01
1.163654252886772156e-01
-3.091201782226562500e-01
-4.728311300277709961e-02
1.939088404178619385e-01
-5.415095090866088867e-01
1.276455670595169067e-01
1.494690924882888794e-01
2.197145223617553711e-01
-6.431896984577178955e-02
-2.931682467460632324e-01
5.083909258246421814e-02
-2.794220745563507080e-01
-2.428759783506393433e-01
2.324989065527915955e-02
-5.596324205398559570e-01
1.728617101907730103e-01
-3.844134807586669922e-01
6.567840576171875000e-01
1.876689940690994263e-01
-7.255713641643524170e-02
1.522514522075653076e-01
-1.049858406186103821e-01
2.729159295558929443e-01
-3.140908479690551758e-01
-3.037043511867523193e-01
-1.720292866230010986e-02
2.090920694172382355e-02
-4.174199998378753662e-01
6.546769291162490845e-02
5.378001928329467773e-02
-9.718383848667144775e-02
1.160985454916954041e-01
-8.157718181610107422e-02
-2.057407610118389130e-02
-2.599601447582244873e-01
1.933442614972591400e-02
-3.683449625968933105e-01
1.078428551554679871e-01
-2.889602072536945343e-02
2.572756260633468628e-02
-3.759652972221374512e-01
1.060848534107208252e-01
-5.094130635261535645e-01
2.902735173702239990e-01
5.930046737194061279e-02
-1.930089443922042847e-01
4.856329783797264099e-02
-1.923545897006988525e-01
2.404978424310684204e-01
3.873046934604644775e-01
2.318184124305844307e-03
1.995445936918258667e-01
7.184689398854970932e-03
1.757747121155261993e-02
-1.418196111917495728e-01
-2.278815805912017822e-01
-9.106726944446563721e-02
4.364581033587455750e-02
-6.279698014259338379e-02
-9.471366554498672485e-02
-4.264580607414245605e-01
-2.795024216175079346e-01
-3.285801112651824951e-01
-9.585977345705032349e-02
1.701641976833343506e-01
-7.896741032600402832e-01
-1.018585115671157837e-01
4.155721366405487061e-01
1.827032715082168579e-01
-2.035840600728988647e-01
3.626160621643066406e-01
-1.842866837978363037e-01
6.709031760692596436e-02
2.054940462112426758e-01
-1.464165598154067993e-01
-1.887996792793273926e-01
-2.704991996288299561e-01
-4.050474986433982849e-02
3.815072029829025269e-02
-1.353385206311941147e-02
3.341488540172576904e-01
-3.317441046237945557e-01
3.152141273021697998e-01
-2.146147489547729492e-01
-2.696821391582489014e-01
-2.212354838848114014e-01
2.956432402133941650e-01
-7.149247527122497559e-01
-8.262563496828079224e-02
9.440248832106590271e-03
8.025661855936050415e-02
6.877981871366500854e-02
-6.032825633883476257e-02
4.219543654471635818e-03
3.194471895694732666e-01
2.765126712620258331e-02
6.861381232738494873e-02
1.005578115582466125e-01
-1.363548785448074341e-01
-1.224766075611114502e-01
2.484404481947422028e-02
-1.323792785406112671e-01
1.042325198650360107e-01
3.329173624515533447e-01
-1.127230525016784668e-01
-2.437692284584045410e-01
-2.286178022623062134e-01
9.137153625488281250e-01
1.248021870851516724e-01
-2.220545709133148193e-01
-4.329876974225044250e-02
9.995884448289871216e-02
2.471300512552261353e-01
-1.861793994903564453e-01
-2.048234939575195312e-01
-1.231832336634397507e-02
9.589709341526031494e-03
-1.474631130695343018e-01
-8.414761722087860107e-02
9.044411033391952515e-02
7.116892933845520020e-02
-2.013408541679382324e-01
1.918905377388000488e-01
-5.546828508377075195e-01
-2.603856027126312256e-01
3.131512403488159180e-01
2.333415150642395020e-01
1.436811089515686035e-01
-6.388080865144729614e-02
-6.983847171068191528e-02
1.492649968713521957e-02
-4.465210810303688049e-02
4.467242062091827393e-01
6.186264008283615112e-02
-2.964915335178375244e-01
2.740812860429286957e-02
-8.482769131660461426e-02
3.107741102576255798e-02
7.441189885139465332e-01
-1.948568224906921387e-01
2.912823297083377838e-02
-7.754070684313774109e-03
1.135341376066207886e-01
-4.119862616062164307e-01
-8.283472061157226562e-02
1.200644448399543762e-01
1.213712394237518311e-01
-3.933488130569458008e-01
-2.212909236550331116e-02
-5.428441986441612244e-02
3.381180390715599060e-02
-3.367051854729652405e-02
-1.254865974187850952e-01
-1.378064900636672974e-01
-6.133317202329635620e-02
1.430543065071105957e-01
1.529049396514892578e+00
1.236822232604026794e-01
1.321959495544433594e-01
2.417304068803787231e-01
1.691080480813980103e-01
-1.571751981973648071e-01
-1.230639666318893433e-01
4.683492332696914673e-02
-1.032330766320228577e-01
4.030355811119079590e-02
-3.083623014390468597e-02
2.366593629121780396e-01
1.159289255738258362e-01
-9.218896180391311646e-02
1.044153347611427307e-01
-2.669467218220233917e-02
-7.625808566808700562e-02
9.863912314176559448e-02
1.887019127607345581e-01
2.778870463371276855e-01
-2.471312414854764938e-03
-1.825859248638153076e-01
-2.974750846624374390e-02
7.844291627407073975e-03
-1.082823351025581360e-01
-2.054149955511093140e-01
8.966338038444519043e-01
3.848312050104141235e-02
-4.021561518311500549e-02
-3.388542309403419495e-02
-2.094172090291976929e-01
-1.713296175003051758e-01
-3.465854749083518982e-02
5.342353135347366333e-02
3.662748262286186218e-02
-4.441749304533004761e-02
1.835861802101135254e-01
-7.860916852951049805e-02
2.902510166168212891e-01
-3.490927070379257202e-02
-2.585387825965881348e-01
1.638958603143692017e-01
-4.911547899246215820e-02
1.451641228049993515e-02
1.218255013227462769e-01
-2.657757103443145752e-01
9.043967723846435547e-02
-2.551100850105285645e-01
-4.437328279018402100e-01
-3.561030924320220947e-01
1.428529173135757446e-01
5.076531767845153809e-01
3.505834639072418213e-01
1.957247965037822723e-02
-2.847963944077491760e-02
-2.646954953670501709e-01
-1.992666572332382202e-01
2.452543936669826508e-02
2.358773946762084961e-01
3.394068777561187744e-01
3.586988896131515503e-02
1.413928270339965820e-01
-2.490423060953617096e-02
2.135530561208724976e-01
-4.642719328403472900e-01
-8.312650769948959351e-02
-4.587809368968009949e-02
2.210475653409957886e-01
-1.777015030384063721e-01
-5.552059412002563477e-02
1.243471875786781311e-01
9.229015558958053589e-02
5.019827559590339661e-02
7.935921102762222290e-02
-5.803734809160232544e-02
9.375331923365592957e-03
1.238077953457832336e-01
-1.322044990956783295e-02
3.513796627521514893e-01
-6.458277255296707153e-02
-4.623821973800659180e-01
5.180919170379638672e-01
3.483652472496032715e-01
-2.975636422634124756e-01
-5.928838253021240234e-01
3.300609290599822998e-01
-3.791342377662658691e-01
3.780568540096282959e-01
8.305887691676616669e-03
2.258467376232147217e-01
-4.917410388588905334e-02
3.272909820079803467e-01
-6.758726388216018677e-02
8.204440027475357056e-02
-2.363951653242111206e-01
-8.921248838305473328e-03
9.600174427032470703e-02
2.275469452142715454e-01
-5.192659050226211548e-02
2.418289184570312500e-01
5.588701739907264709e-02
4.037011265754699707e-01
-1.543971300125122070e-01
7.266041636466979980e-02
-1.192292347550392151e-01
3.142612427473068237e-02
-2.702229321002960205e-01
2.061329036951065063e-01
-1.032462939620018005e-01
-1.986953914165496826e-01
3.165775164961814880e-02
-3.692643046379089355e-01
-1.086803600192070007e-01
-1.080056428909301758e-01
-3.907670080661773682e-02
-2.456644549965858459e-02
-4.815635271370410919e-03
-3.298187255859375000e-02
2.305492460727691650e-01
-4.667785484343767166e-03
-2.402894049882888794e-01
-1.773608773946762085e-01
-1.595416367053985596e-01
1.090354919433593750e-01
-1.518611982464790344e-02
-1.211490929126739502e-01
-1.927801072597503662e-01
8.859116584062576294e-03
-5.843698233366012573e-02
-4.722145572304725647e-02
-3.030308485031127930e-01
-2.076227813959121704e-01
4.057539999485015869e-02
5.683040618896484375e-01
-1.753016561269760132e-01
-2.525102198123931885e-01
6.601873040199279785e-02
-8.763840049505233765e-02
-3.586288308724761009e-03
-3.832523524761199951e-01
1.519010867923498154e-02
-5.897224545478820801e-01
-2.301446497440338135e-01
-9.356268495321273804e-02
-1.152360215783119202e-01
-6.306708604097366333e-02
5.033722147345542908e-02
9.264388680458068848e-02
1.063556298613548279e-01
4.545406252145767212e-02
-3.731520846486091614e-02
-1.884687542915344238e-01
-2.084786444902420044e-01
1.490983553230762482e-02
-2.078201323747634888e-01
5.886943265795707703e-02
3.083905875682830811e-01
-5.658523645251989365e-03
1.758482456207275391e-01
-1.668881475925445557e-01
3.145802393555641174e-02
1.076927334070205688e-01
1.970973908901214600e-01
-2.660679165273904800e-03
-3.936128914356231689e-01
2.331998646259307861e-01
3.498525321483612061e-01
1.754997521638870239e-01
2.149166911840438843e-02
-1.253622472286224365e-01
1.783208400011062622e-01
-6.802375912666320801e-01
-2.052072435617446899e-01
-6.174612045288085938e-02
-4.820599555969238281e-01
1.114680692553520203e-01
4.114512354135513306e-02
-3.130231797695159912e-01
-2.476464211940765381e-02
3.124817460775375366e-02
-1.774211600422859192e-02
-1.780683547258377075e-01
3.634238615632057190e-02
-1.255577616393566132e-02
3.442787379026412964e-02
2.087156474590301514e-01
-1.123953312635421753e-01
-6.797877699136734009e-02
3.032715618610382080e-01
4.509223103523254395e-01
4.140692055225372314e-01
5.905154943466186523e-01
2.859766483306884766e-01
-2.174161970615386963e-01
9.557938575744628906e-02
-3.611320629715919495e-03
6.286751031875610352e-01
8.170966058969497681e-02
-1.157766580581665039e-02
1.230945512652397156e-01
-1.458383817225694656e-02
7.699048146605491638e-03
-3.451086580753326416e-01
-8.590990304946899414e-02
7.202381640672683716e-02
-6.421067118644714355e-01
1.817120015621185303e-01
-2.080477476119995117e-01
2.936792969703674316e-01
1.006082892417907715e-01
-3.923624381422996521e-02
-2.784439325332641602e-01
2.502537965774536133e-01
7.709110528230667114e-02
-1.378094851970672607e-01
3.014523983001708984e-01
2.430083230137825012e-02
-1.306464076042175293e-01
3.833926469087600708e-02
-3.081535995006561279e-01
1.457901298999786377e-01
-2.988196015357971191e-01
5.016170144081115723e-01
-6.472475081682205200e-02
-1.853137910366058350e-01
9.145433455705642700e-02
-1.694594919681549072e-01
-3.811868727207183838e-01
3.248827755451202393e-01
2.823534980416297913e-02
-2.774180769920349121e-01
1.783639076165854931e-03
-4.027375206351280212e-02
1.558893620967864990e-01
-3.856961801648139954e-02
-1.847385913133621216e-01
-9.995685517787933350e-02
8.327633887529373169e-02
-1.675367653369903564e-01
-6.208413839340209961e-01
1.180354878306388855e-01
6.302873790264129639e-02
9.866529703140258789e-02
-1.669312119483947754e-01
2.066714465618133545e-01
3.354029655456542969e-01
-5.339578986167907715e-01
5.814245715737342834e-02
2.357628941535949707e-01
-2.757668495178222656e-01
-3.942613676190376282e-02
-1.168808341026306152e-02
3.448568880558013916e-01
-4.418269991874694824e-01
4.472579061985015869e-02
3.156393766403198242e-01
2.897539734840393066e-01
-4.478556811809539795e-01
1.332419633865356445e+00
-8.967123925685882568e-02
2.258549183607101440e-01
1.114848107099533081e-01
3.621377050876617432e-01
5.399147421121597290e-02
1.251706779003143311e-01
6.030005216598510742e-01
-8.970624804496765137e-01
-7.274018228054046631e-02
1.621505320072174072e-01
-4.261105060577392578e-01
1.475891172885894775e-01
-7.392692565917968750e-02
5.433380603790283203e-02
1.707381159067153931e-01
6.509068012237548828e-01
-1.916898339986801147e-01
1.973067075014114380e-01
2.368513792753219604e-01
-2.210883945226669312e-01
1.269668340682983398e-01
1.175366640090942383e-01
-3.159145116806030273e-01
-1.189155131578445435e-01
4.840530753135681152e-01
7.749043107032775879e-01
1.161122508347034454e-02
9.668619930744171143e-02
1.398306041955947876e-01
-3.819837868213653564e-01
1.920298188924789429e-01
-6.819368898868560791e-02
8.258273452520370483e-02
-2.731774449348449707e-01
5.210499465465545654e-02
3.301789110992103815e-04
-1.881240904331207275e-01
-5.370219945907592773e-01
-2.163548022508621216e-01
-1.797288060188293457e-01
-1.201205654069781303e-03
-8.095210418105125427e-03
1.527147293090820312e-01
1.256056874990463257e-01
2.062841057777404785e-01
-1.009739935398101807e-01
-3.708353638648986816e-01
3.934881985187530518e-01
1.292416155338287354e-01
-4.311678931117057800e-02
-7.843472808599472046e-02
-9.299205988645553589e-02
2.405792027711868286e-01
3.337742388248443604e-01
7.490144968032836914e-01
-3.683825433254241943e-01
-5.502117425203323364e-02
-6.253333389759063721e-02
5.887085571885108948e-02
-2.288016527891159058e-01
6.542314291000366211e-01
4.367813840508460999e-02
-2.509792745113372803e-01
-2.893213927745819092e-01
4.215274453163146973e-01
-4.111520349979400635e-01
-1.843965426087379456e-02
4.020858407020568848e-01
-8.850682377815246582e-01
-4.707280099391937256e-01
2.488490045070648193e-01
-2.098343670368194580e-01
4.832870960235595703e-01
6.820048391819000244e-02
2.982485294342041016e-01
2.847399413585662842e-01
-1.768594980239868164e-02
9.888370633125305176e-01
1.191761195659637451e-01
2.446908652782440186e-01
-1.137802302837371826e-01
-5.193459391593933105e-01
-1.063034683465957642e-02
6.451120972633361816e-01
-8.630384504795074463e-02
1.262398511171340942e-01
1.460828483104705811e-01
5.172281861305236816e-01
-5.983019992709159851e-02
-1.616333574056625366e-01
3.853097185492515564e-02
1.453868746757507324e-01
-3.891786336898803711e-01
5.604199171066284180e-01
1.411567032337188721e-01
2.540107369422912598e-01
2.289832085371017456e-01
-3.572563827037811279e-01
-6.093809381127357483e-03
-1.557735502719879150e-01
-8.940634876489639282e-02
5.949134230613708496e-01
-1.586188673973083496e-01
5.410842597484588623e-02
-2.745175063610076904e-01
4.507702589035034180e-01
2.780635654926300049e-01
-4.076594114303588867e-01
4.681886173784732819e-03
6.643337011337280273e-02
1.505689173936843872e-01
-2.096029371023178101e-01
-6.969920545816421509e-02
1.649433672428131104e-01
-2.088152766227722168e-01
9.461279958486557007e-02
9.661671519279479980e-02
3.702153861522674561e-01
-2.373076416552066803e-02
5.498688220977783203e-01
-5.389207601547241211e-01
9.912062436342239380e-02
2.592852115631103516e-01
-1.306453347206115723e-01
-7.856565713882446289e-01
1.020872369408607483e-01
-6.670226901769638062e-02
-5.209942460060119629e-01
-4.901802837848663330e-01
-1.080554127693176270e-01
-9.182637929916381836e-02
-8.476529717445373535e-01
7.947789132595062256e-02
-3.029689788818359375e-01
4.253619015216827393e-01
1.454261690378189087e-01
1.605780571699142456e-01
-1.033849343657493591e-01
1.667771637439727783e-01
-3.555279374122619629e-01
-3.607646375894546509e-02
1.637043952941894531e-01
9.341429173946380615e-02
-3.861173288896679878e-03
2.465147823095321655e-01
1.517821252346038818e-01
-5.390232205390930176e-01
-5.929827094078063965e-01
2.188986092805862427e-01
-2.737646698951721191e-01
-3.023393750190734863e-01
-4.728613197803497314e-01
2.877043485641479492e-01
1.721240878105163574e-01
9.637281298637390137e-02
3.796454966068267822e-01
-1.867475360631942749e-01
-5.097745656967163086e-01
3.658897057175636292e-02
-1.311709135770797729e-01
-2.263860851526260376e-01
4.609478265047073364e-02
-1.130527183413505554e-01
-6.889509558677673340e-01
2.580822110176086426e-01
-9.099209308624267578e-02
-1.054290175437927246e+00
-1.854084581136703491e-01
-1.092290505766868591e-01
-1.542227715253829956e-01
-9.352692961692810059e-02
1.243301555514335632e-01
-3.800763934850692749e-02
-5.667918547987937927e-02
9.954858422279357910e-01
5.582331120967864990e-02
-2.253550738096237183e-01
8.324914611876010895e-03
1.465368121862411499e-01
-3.397675929591059685e-03
5.811476111412048340e-01
1.270204633474349976e-01
-9.893842786550521851e-02
-1.832010746002197266e-01
5.385573953390121460e-02
-8.161386251449584961e-01
-4.020929038524627686e-01
-4.884846508502960205e-01
-1.156655550003051758e-01
8.113349229097366333e-02
2.258030176162719727e-01
-2.573633790016174316e-01
2.321619689464569092e-01
3.733436018228530884e-02
1.679933965206146240e-01
-1.894241422414779663e-01
-1.433209627866744995e-01
3.083549439907073975e-01
2.993896007537841797e-01
-2.769743092358112335e-02
2.512555122375488281e-01
9.281858801841735840e-03
9.999037533998489380e-02
7.437480092048645020e-01
1.959002465009689331e-01
1.569657325744628906e-01
-1.665810942649841309e-01
4.170401766896247864e-02
-5.221704244613647461e-01
-4.157853126525878906e-01
-9.795817732810974121e-02
1.506363004446029663e-01
-3.870170116424560547e-01
-2.623996436595916748e-01
-2.711389958858489990e-01
-2.341419756412506104e-01
4.960195422172546387e-01
-5.041605606675148010e-02
1.767363995313644409e-01
1.391057819128036499e-01
1.621675193309783936e-01
1.369408071041107178e-01
-2.104476690292358398e-01
2.618687748908996582e-01
2.192883193492889404e-01
-5.817985534667968750e-01
1.900681108236312866e-02
1.975267082452774048e-01
-1.753502339124679565e-01
-1.561292260885238647e-01
1.036169901490211487e-01
-1.888983547687530518e-01
-1.575622707605361938e-01
3.493281304836273193e-01
1.954833604395389557e-02
3.520361380651593208e-03
2.431935817003250122e-02
5.115835666656494141e-01
-9.584861248731613159e-02
-5.536960363388061523e-01
6.609152257442474365e-02
1.708569973707199097e-01
-2.396291121840476990e-03
5.450034141540527344e-02
3.059033155441284180e-01
5.127951130270957947e-02
-6.788345519453287125e-03
-5.880313515663146973e-01
2.304448634386062622e-01
2.797814905643463135e-01
-5.182635411620140076e-02
2.009470164775848389e-01
1.950559318065643311e-01
-1.790995895862579346e-01
-1.308769583702087402e-01
4.639749228954315186e-02
-2.489349842071533203e-01
-3.549976348876953125e-01
2.672502696514129639e-01
1.369064152240753174e-01
3.066509664058685303e-01
-1.506069898605346680e-01
-1.719845980405807495e-01
3.577348887920379639e-01
3.963556140661239624e-02
-2.741071879863739014e-01
-1.254259943962097168e-01
2.241867184638977051e-01
1.124108582735061646e-01
2.674645781517028809e-01
2.486589998006820679e-01
-5.456975847482681274e-02
-2.742184102535247803e-01
-3.419565260410308838e-01
4.553642496466636658e-02
-8.509942889213562012e-01
9.617377817630767822e-02
4.735043942928314209e-01
3.858336061239242554e-02
1.836949586868286133e-01
-2.692634463310241699e-01
8.092212677001953125e-02
2.259439080953598022e-01
7.984037697315216064e-02
9.992547333240509033e-02
8.707977831363677979e-02
4.043704867362976074e-01
-3.508676216006278992e-02
1.824885904788970947e-01
-1.447960585355758667e-01
2.334231585264205933e-01
3.090567886829376221e-01
-1.152291819453239441e-01
4.019092619419097900e-01
-1.487751960754394531e+00
8.856099098920822144e-02
2.699811756610870361e-01
1.465152055025100708e-01
-3.101805746555328369e-01
4.698334634304046631e-02
-1.420423388481140137e-01
3.507310897111892700e-02
1.368132233619689941e-01
-3.169507980346679688e-01
6.976299881935119629e-01
2.631104588508605957e-01
-5.175093412399291992e-01
-2.532688975334167480e-01
-2.707795798778533936e-01
-8.978088945150375366e-02
7.003761827945709229e-02
-1.307445950806140900e-02
3.433604836463928223e-01
-5.288648884743452072e-03
-6.614232063293457031e-02
3.441349789500236511e-02
-2.978237271308898926e-01
-9.105098843574523926e-01
-3.045819401741027832e-01
-1.804240047931671143e-01
-2.718377113342285156e-01
8.215968310832977295e-02
4.542130976915359497e-02
-9.963610768318176270e-02
-1.216286271810531616e-01
4.977292567491531372e-02
1.664204001426696777e-01
2.325784042477607727e-02
-2.688727676868438721e-01
7.235849499702453613e-01
2.361812144517898560e-01
-1.362045109272003174e-02
-5.560350790619850159e-02
-1.247355490922927856e-01
5.373846292495727539e-01
-1.899522095918655396e-01
-1.076780483126640320e-01
6.636228412389755249e-02
7.610984891653060913e-02
-3.354822993278503418e-01
-4.150983095169067383e-01
-1.437211632728576660e-01
2.638321220874786377e-01
5.456627532839775085e-02
-3.915760293602943420e-02
-3.924632072448730469e-01
1.707894504070281982e-01
-4.225106537342071533e-02
5.853582546114921570e-02
-2.766098678112030029e-01
-9.578656554222106934e-01
-2.651461958885192871e-01
-8.440241962671279907e-02
2.297286838293075562e-01
-3.675793111324310303e-01
-2.425454258918762207e-01
-2.235477417707443237e-02
1.173012331128120422e-01
-1.930241286754608154e-01
1.922532171010971069e-01
1.099967285990715027e-01
3.563259169459342957e-02
1.731939986348152161e-02
1.946442760527133942e-02
-1.052950769662857056e-01
3.422280251979827881e-01
3.761081025004386902e-02
-1.351529806852340698e-01
-1.040083356201648712e-02
1.713620149530470371e-03
3.064933121204376221e-01
1.386999785900115967e-01
2.820878922939300537e-01
2.840009331703186035e-01
1.154250353574752808e-01
-7.324875891208648682e-02
-3.916352093219757080e-01
-8.255804330110549927e-02
5.022080540657043457e-01
-2.977985143661499023e-01
3.573382496833801270e-01
-5.176879465579986572e-02
-2.817413508892059326e-01
4.809253290295600891e-02
7.372189164161682129e-01
1.781079918146133423e-01
-6.489101648330688477e-01
-7.926412820816040039e-01
-8.400647342205047607e-02
1.478624939918518066e-01
1.253767162561416626e-01
-1.774820536375045776e-01
3.700471222400665283e-01
-7.321085780858993530e-02
7.762885093688964844e-02
3.548302054405212402e-01
-4.896158725023269653e-02
1.514565348625183105e-01
2.584702670574188232e-01
3.716801851987838745e-02
1.325505822896957397e-01
1.924094930291175842e-02
-1.282494515180587769e-03
2.452009171247482300e-01
-1.877324469387531281e-02
-4.927096515893936157e-02
-6.341930031776428223e-01
5.276914685964584351e-02
1.275274455547332764e-01
4.313103109598159790e-02
-4.985908865928649902e-01
1.218874678015708923e-01
-7.835010290145874023e-01
8.710002154111862183e-02
3.005781173706054688e-01
-1.688150912523269653e-01
1.887909322977066040e-01
-3.724707365036010742e-01
3.906451165676116943e-03
1.415149867534637451e-01
-3.161629438400268555e-01
-6.950154900550842285e-02
-2.890135347843170166e-01
-2.629835307598114014e-01
3.621067106723785400e-02
-1.082316190004348755e-01
-2.447660416364669800e-01
-1.061571538448333740e-01
2.131027132272720337e-01
-1.132475659251213074e-01
8.313150703907012939e-02
5.108204856514930725e-02
9.021387249231338501e-02
-1.609637439250946045e-01
1.278378367424011230e-01
2.882403731346130371e-01
-1.539741009473800659e-01
-1.600187122821807861e-01
8.726677298545837402e-02
-1.785849481821060181e-01
-3.420376032590866089e-02
-9.206318855285644531e-02
-6.598047912120819092e-02
-1.957533210515975952e-01
7.150900363922119141e-02
2.960626184940338135e-01
-1.930517852306365967e-01
-2.866519093513488770e-01
-2.152378410100936890e-01
-1.432305276393890381e-01
2.729264497756958008e-01
-5.415913835167884827e-02
3.139067813754081726e-02
2.327146679162979126e-01
-9.514852426946163177e-03
-4.386596083641052246e-01
-1.692210435867309570e-01
1.310869026929140091e-02
2.563861012458801270e-01
-1.575663089752197266e-01
-1.966915428638458252e-01
-1.671050786972045898e-01
-1.301121115684509277e-01
-3.914289474487304688e-01
-1.595127880573272705e-01
3.995684683322906494e-01
-2.220824509859085083e-01
2.259188741445541382e-01
4.662957787513732910e-02
-1.107358410954475403e-01
-2.359068393707275391e-01
-1.689810864627361298e-02
1.287394016981124878e-01
2.714163661003112793e-01
-1.332250833511352539e-01
-1.702237278223037720e-01
9.735976159572601318e-02
-6.241778731346130371e-01
-1.451605707406997681e-01
2.004184126853942871e-01
3.481437861919403076e-01
1.278155576437711716e-02
2.225793600082397461e-01
2.055090665817260742e-02
-8.321447530761361122e-04
1.688018441200256348e-01
1.225354056805372238e-02
3.763982793316245079e-03
1.122860834002494812e-01
-6.860372424125671387e-02
-1.110155731439590454e-01
1.623019576072692871e-01
-4.384726583957672119e-01
-6.863051652908325195e-02
-4.557673633098602295e-02
-6.176991462707519531e-01
-1.109161302447319031e-01
-1.651097983121871948e-01
-7.570524811744689941e-01
8.245998620986938477e-02
-3.247185423970222473e-02
-2.231276594102382660e-02
-1.421242952346801758e-01
-1.947563514113426208e-02
-4.792335629463195801e-01
1.310567408800125122e-01
-1.752572208642959595e-01
3.058447539806365967e-01
6.283503770828247070e-02
-2.363255769014358521e-01
-4.099065810441970825e-02
5.581430718302726746e-02
5.590301752090454102e-01
1.692824214696884155e-01
-2.034189403057098389e-01
-1.135312616825103760e-01
-3.764187172055244446e-02
-1.052564457058906555e-01
1.786781400442123413e-01
4.995213449001312256e-02
3.103268146514892578e-01
2.085160613059997559e-01
-2.824763059616088867e-01
-6.778952479362487793e-01
6.413792818784713745e-02
-3.614381551742553711e-01
-2.229887098073959351e-01
-2.647999525070190430e-01
1.352296322584152222e-01
-4.274935275316238403e-02
-2.774479389190673828e-01
-2.529931068420410156e-01
-3.776761889457702637e-02
-6.033512949943542480e-01
-2.324300073087215424e-02
-8.903277665376663208e-02
-2.439598888158798218e-01
-6.678394973278045654e-02
-2.111234217882156372e-01
2.783257067203521729e-01
-1.443710625171661377e-01
-1.862108409404754639e-01
-3.812283650040626526e-02
-2.060400098562240601e-01
-3.697772920131683350e-01
-2.130645960569381714e-01
6.126577854156494141e-01
2.632677555084228516e-01
3.973514735698699951e-01
9.101471304893493652e-02
2.060515731573104858e-01
-9.150945395231246948e-02
3.403970003128051758e-01
-1.442574779503047466e-03
2.119168788194656372e-01
-3.901058575138449669e-03
1.189349591732025146e-01
2.031146883964538574e-01
-3.121420927345752716e-02
-2.952299714088439941e-01
1.710151284933090210e-01
1.166042238473892212e-01
4.416111707687377930e-01
-4.074122905731201172e-01
2.092294842004776001e-01
-4.309978708624839783e-02
2.129257023334503174e-01
1.125191450119018555e-01
2.825035154819488525e-01
7.136714179068803787e-03
3.762871399521827698e-02
-4.304662812501192093e-03
1.452167928218841553e-01
4.391427338123321533e-02
-4.304611384868621826e-01
-8.131076395511627197e-02
-2.505792379379272461e-01
2.037247084081172943e-02
-2.227681875228881836e-01
5.270841717720031738e-02
-2.366076260805130005e-01
-2.893706858158111572e-01
-6.867750287055969238e-01
-2.849731445312500000e-01
4.149007797241210938e-01
-5.013295635581016541e-02
-1.335791349411010742e-01
1.266439706087112427e-01
-7.912562042474746704e-02
-1.097977831959724426e-01
2.865767478942871094e-01
-3.516155481338500977e-01
-4.934733510017395020e-01
-1.836083084344863892e-01
3.219034373760223389e-01
-1.504875272512435913e-01
-2.453865408897399902e-01
1.469226088374853134e-02
3.115702271461486816e-01
-4.281061291694641113e-01
-7.148434519767761230e-01
-1.340974867343902588e-01
-6.590219587087631226e-02
1.194289475679397583e-01
-1.554858535528182983e-01
-4.624606668949127197e-01
1.786951273679733276e-01
4.408184811472892761e-02
9.632102400064468384e-02
9.078901261091232300e-02
5.380397662520408630e-02
-2.923001646995544434e-01
1.603470891714096069e-01
1.894376426935195923e-01
1.935140974819660187e-02
1.832608580589294434e-01
-2.284863777458667755e-02
3.132999837398529053e-01
-1.097780987620353699e-01
1.223141849040985107e-01
-6.612512469291687012e-02
-1.611865125596523285e-02
-1.157686021178960800e-02
1.637911498546600342e-01
3.780363202095031738e-01
-1.969347447156906128e-01
5.544510483741760254e-02
2.487086206674575806e-01
1.639947593212127686e-01
3.524953424930572510e-01
-3.237627213820815086e-03
-6.659945845603942871e-02
-3.847457170486450195e-01
-8.488792926073074341e-02
1.364987529814243317e-02
-7.913333363831043243e-03
1.947291195392608643e-01
-8.232981711626052856e-02
-1.990068852901458740e-01
-1.437868326902389526e-01
2.132821828126907349e-02
1.047956049442291260e-01
-3.046141564846038818e-01
-3.785934299230575562e-02
2.241348847746849060e-03
1.358901645289734006e-04
4.805872142314910889e-01
-2.360358089208602905e-01
-1.204428263008594513e-02
2.107845246791839600e-01
2.412280738353729248e-01
1.358007937669754028e-01
3.671715557575225830e-01
-1.661992818117141724e-02
-1.897673904895782471e-01
-1.851201057434082031e-02
6.962730735540390015e-02
-3.331783786416053772e-02
-3.018102422356605530e-02
-1.985358446836471558e-01
1.267980188131332397e-01
1.093495935201644897e-01
-2.932501137256622314e-01
-2.499260157346725464e-01
-2.582604587078094482e-01
1.607962846755981445e-01
-2.861575186252593994e-01
-1.915514469146728516e-01
-1.531048864126205444e-01
7.570943981409072876e-02
1.167167536914348602e-02
-1.911360956728458405e-02
-6.527404189109802246e-01
1.718529015779495239e-01
-5.865285918116569519e-02
-3.063903376460075378e-02
1.511956602334976196e-01
1.260514650493860245e-02
6.187823042273521423e-02
7.584393024444580078e-02
-4.856048226356506348e-01
2.372507303953170776e-01
-3.738262653350830078e-01
6.108586192131042480e-01
2.125965952873229980e-01
-1.503429114818572998e-01
-3.145356774330139160e-01
-3.596556559205055237e-02
-3.567439019680023193e-01
2.159009277820587158e-01
-4.981907829642295837e-02
-3.893779218196868896e-01
1.294025331735610962e-01
6.115078181028366089e-02
-7.802195847034454346e-02
-1.128691062331199646e-01
2.517338395118713379e-01
2.113146483898162842e-01
3.759635090827941895e-01
-1.282546855509281158e-02
-8.930839598178863525e-02
3.520889282226562500e-01
3.115243017673492432e-01
3.597911596298217773e-01
-7.141900062561035156e-01
-2.623452246189117432e-01
1.399529427289962769e-01
4.411309361457824707e-01
1.646064817905426025e-01
-2.626362442970275879e-01
2.602757513523101807e-01
5.402630567550659180e-02
-4.791277945041656494e-01
4.873936250805854797e-02
2.637473940849304199e-01
-1.850752979516983032e-01
-9.414359182119369507e-02
1.749180257320404053e-01
1.805513650178909302e-01
-2.156830206513404846e-02
-1.195696089416742325e-02
1.541814506053924561e-01
-4.207388162612915039e-01
1.005988270044326782e-01
-2.358276396989822388e-02
-5.377950668334960938e-01
1.656610891222953796e-02
3.249223232269287109e-01
9.650775231420993805e-03
-1.897921785712242126e-02
1.886202096939086914e-01
-5.045668408274650574e-02
-1.484316028654575348e-02
-1.039466932415962219e-01
1.426402479410171509e-01
2.512940764427185059e-01
6.149005517363548279e-02
8.922641724348068237e-02
2.222317159175872803e-01
1.398735195398330688e-01
8.350967615842819214e-02
-8.602969348430633545e-02
2.751003950834274292e-02
2.025936096906661987e-01
-1.648402661085128784e-01
-6.496980041265487671e-02
2.997073233127593994e-01
3.943256139755249023e-01
-9.936795383691787720e-02
-1.173595637083053589e-01
-1.012466102838516235e-01
6.208663433790206909e-02
-7.708110213279724121e-01
-7.548435777425765991e-02
1.071219891309738159e-01
-3.452224433422088623e-01
8.655667304992675781e-02
1.314333528280258179e-01
-9.687568992376327515e-02
2.378000915050506592e-01
3.152510225772857666e-01
7.667579688131809235e-03
2.999833784997463226e-02
1.743390858173370361e-01
-7.803663611412048340e-02
-1.426450069993734360e-02
3.113551139831542969e-01
1.937480568885803223e-01
-6.273910999298095703e-01
-9.232132136821746826e-02
1.713658869266510010e-01
-8.695242553949356079e-02
6.700701713562011719e-01
8.901608735322952271e-02
-1.991396844387054443e-01
2.055810689926147461e-01
2.646896839141845703e-01
5.327416658401489258e-01
-7.087870687246322632e-02
-5.378850549459457397e-02
6.325595825910568237e-02
-1.640900820493698120e-01
3.723868727684020996e-01
4.333880245685577393e-01
-5.881130322813987732e-02
2.756644487380981445e-01
4.291161596775054932e-01
1.297155022621154785e-01
-2.071009874343872070e-01
-7.876275479793548584e-02
1.213846877217292786e-01
-1.695180684328079224e-01
-2.662087678909301758e-01
1.891964972019195557e-01
-6.288335472345352173e-02
-2.289355359971523285e-02
8.593238145112991333e-02
1.820628494024276733e-01
-2.475827559828758240e-02
1.417083740234375000e-01
7.886214554309844971e-02
1.770991832017898560e-01
-7.839962095022201538e-02
4.524814784526824951e-01
-2.969912588596343994e-01
-1.318137347698211670e-01
7.240477204322814941e-02
-5.404810905456542969e-01
-1.769921369850635529e-02
2.255909740924835205e-01
-2.116096615791320801e-01
-1.545143127441406250e-01
-3.953159451484680176e-01
-7.080270051956176758e-01
2.539693713188171387e-01
4.247793927788734436e-02
2.575536370277404785e-01
-1.034906432032585144e-01
-6.336083263158798218e-02
-7.111611217260360718e-02
-5.271245166659355164e-02
6.725243926048278809e-01
3.412198424339294434e-01
6.977981925010681152e-01
-1.805531233549118042e-01
5.136929750442504883e-01
1.103589460253715515e-01
-4.367264509201049805e-01
-6.113682407885789871e-03
8.691567182540893555e-02
8.585211634635925293e-02
-1.921025216579437256e-01
-1.160084530711174011e-01
1.946527063846588135e-01
-1.135670915246009827e-01
-4.485238716006278992e-02
9.697752445936203003e-02
-2.552123665809631348e-01
-3.928106650710105896e-02
8.546993136405944824e-02
1.229552999138832092e-01
2.867615036666393280e-02
2.708732485771179199e-01
-5.262116715312004089e-02
-6.123293638229370117e-01
3.182817399501800537e-01
1.954142600297927856e-01
-2.503298036754131317e-02
-1.777686737477779388e-02
-7.888174057006835938e-02
-2.517762482166290283e-01
-7.178893089294433594e-01
-4.982196688652038574e-01
-8.103003725409507751e-03
-4.943442530930042267e-03
-1.304613202810287476e-01
-3.064101934432983398e-01
-4.287920147180557251e-02
-1.787202060222625732e-01
-5.583227425813674927e-02
5.107131972908973694e-02
-1.202505454421043396e-01
1.449488848447799683e-01
-1.022936552762985229e-01
3.679919242858886719e-01
-3.299078717827796936e-02
-3.513731062412261963e-01
2.823517918586730957e-01
3.705698181875050068e-04
-3.143712282180786133e-01
-1.722014248371124268e-01
-8.782324939966201782e-02
3.126558959484100342e-01
2.256894260644912720e-01
-2.430616319179534912e-01
-2.007820606231689453e-01
-1.336135417222976685e-01
-1.496606469154357910e-01
-3.821147680282592773e-01
-1.552752554416656494e-01
2.631840407848358154e-01
-8.408226072788238525e-02
3.033391200006008148e-02
-1.875141710042953491e-01
1.482355296611785889e-01
-5.793526768684387207e-01
-1.742733716964721680e-01
-1.538800895214080811e-01
2.827483117580413818e-01
-6.768297404050827026e-02
3.604266941547393799e-01
-1.488898787647485733e-02
-1.176185086369514465e-01
-3.729575276374816895e-01
3.972670435905456543e-01
-2.812884747982025146e-02
-2.224311083555221558e-01
-9.309326298534870148e-03
3.826407343149185181e-02
2.676386237144470215e-01
3.245488107204437256e-01
-2.879102230072021484e-01
2.302342802286148071e-01
-4.209170639514923096e-01
4.022818803787231445e-02
-7.774308323860168457e-01
1.352962702512741089e-01
-1.252756863832473755e-01
6.049336194992065430e-01
-3.819511830806732178e-02
3.435148894786834717e-01
-3.346316218376159668e-01
2.769565582275390625e-01
6.999304890632629395e-02
1.211892291903495789e-01
-3.762494400143623352e-02
-1.933625191450119019e-01
1.260365694761276245e-01
3.421631455421447754e-01
-1.671459823846817017e-01
1.472772210836410522e-01
2.646563574671745300e-02
1.950643509626388550e-01
-2.136086970567703247e-01
1.622783690690994263e-01
-1.267867684364318848e-01
-1.349606830626726151e-02
-1.219891384243965149e-01
1.430239994078874588e-02
-2.481307387351989746e-01
-1.915437579154968262e-01
-6.652536988258361816e-02
-6.879793405532836914e-01
-1.554571390151977539e-01
-1.156628131866455078e-01
-3.547286987304687500e-01
-1.313823163509368896e-01
1.947242580354213715e-02
2.445515692234039307e-01
2.167937606573104858e-01
7.461205124855041504e-02
-1.973253339529037476e-01
-1.922889053821563721e-01
-6.251234561204910278e-02
-1.858257353305816650e-01
4.666683077812194824e-01
-6.055647507309913635e-02
1.291125454008579254e-02
2.200980633497238159e-01
4.467175528407096863e-02
2.953436076641082764e-01
-1.323473304510116577e-01
2.291283607482910156e-01
-3.997649624943733215e-02
-3.679329156875610352e-01
2.489412575960159302e-01
-7.767414301633834839e-02
1.531862169504165649e-01
9.021088480949401855e-02
2.333770096302032471e-01
1.491420120000839233e-01
-9.546357393264770508e-02
2.034352570772171021e-01
-3.324258923530578613e-01
-2.687249779701232910e-01
4.239778220653533936e-01
-3.432631790637969971e-01
2.800353765487670898e-01
2.311848104000091553e-01
-9.277492761611938477e-02
1.691236793994903564e-01
-1.303514093160629272e-01
-2.394567430019378662e-01
3.732394799590110779e-02
8.151052892208099365e-02
-4.986757040023803711e-01
2.671637237071990967e-01
1.480469852685928345e-01
-2.032456099987030029e-01
1.039393767714500427e-01
-1.241604238748550415e-01
1.440265029668807983e-01
3.154711425304412842e-01
8.941122889518737793e-02
2.461667060852050781e-01
-2.958415746688842773e-01
-1.930401176214218140e-01
-4.365955591201782227e-01
-8.996593952178955078e-02
1.693777292966842651e-01
-8.105470240116119385e-02
2.241225354373455048e-02
3.484413921833038330e-01
6.579267978668212891e-02
1.539852917194366455e-01
9.088176488876342773e-02
-4.420024156570434570e-02
2.427161298692226410e-02
6.725134700536727905e-02
2.800894677639007568e-01
2.897503972053527832e-01
1.580992788076400757e-01
-6.543020606040954590e-01
2.127639651298522949e-01
1.836158335208892822e-01
-1.206135526299476624e-01
-3.793707787990570068e-01
-3.409107029438018799e-01
8.333365619182586670e-02
-2.385450452566146851e-01
-1.351467072963714600e-01
-1.855738162994384766e-01
-4.107037484645843506e-01
5.186784267425537109e-02
3.799250125885009766e-01
-3.267212212085723877e-02
-1.162571087479591370e-01
-1.293932348489761353e-01
1.168220192193984985e-01
2.979941070079803467e-01
-9.870266914367675781e-02
7.296800613403320312e-02
2.037303000688552856e-01
1.800333857536315918e-01
-3.722168505191802979e-01
-6.723796129226684570e-01
3.103057853877544403e-03
6.729113310575485229e-02
4.562465250492095947e-01
-2.951490227133035660e-03
4.722407087683677673e-02
-2.640686929225921631e-02
-1.311905235052108765e-01
7.478677481412887573e-02
-2.573304772377014160e-01
-3.573825582861900330e-02
1.066298708319664001e-01
-1.701437979936599731e-01
3.930761814117431641e-01
-3.149823099374771118e-02
2.587840333580970764e-02
2.737303972244262695e-01
2.279227375984191895e-01
-5.348732471466064453e-01
-1.980037689208984375e-01
5.208600685000419617e-02
-6.918658036738634109e-03
-3.702907562255859375e-01
1.804706454277038574e-01
-7.080434262752532959e-02
1.123456954956054688e-01
1.970993131399154663e-01
3.566401600837707520e-01
2.442463785409927368e-01
-2.727159857749938965e-01
-1.130904164165258408e-02
1.194447353482246399e-01
-1.143584027886390686e-01
2.463256567716598511e-02
5.047548413276672363e-01
1.482961028814315796e-01
-5.571724772453308105e-01
-2.910796105861663818e-01
-1.354103093035519123e-03
-3.329697549343109131e-01
1.044566333293914795e-01
-1.657545194029808044e-02
2.973559796810150146e-01
-2.653554379940032959e-01
-8.061170578002929688e-01
2.317273765802383423e-01
-1.923909336328506470e-01
-2.877100408077239990e-01
1.552062332630157471e-01
-4.258404076099395752e-01
-1.580398529767990112e-01
-5.669990554451942444e-03
-3.121457099914550781e-01
-5.234189797192811966e-03
2.979516386985778809e-01
-7.672148942947387695e-02
7.724076509475708008e-02
2.644630372524261475e-01
-4.250999391078948975e-01
-6.956239938735961914e-01
2.265728116035461426e-01
-1.420322507619857788e-01
5.589411854743957520e-01
7.713631540536880493e-02
-2.902396917343139648e-01
-2.502583861351013184e-01
-1.048702120780944824e+00
-2.060962319374084473e-01
1.331922709941864014e-01
-1.141747832298278809e-01
-2.231980115175247192e-01
-2.985717058181762695e-01
1.328193694353103638e-01
1.660279035568237305e-01
2.695878036320209503e-02
-1.895106434822082520e-01
-1.680369824171066284e-01
2.179942429065704346e-01
-1.512510776519775391e-01
-4.284616559743881226e-02
2.586350310593843460e-03
-1.864860951900482178e-01
-6.251502037048339844e-01
-2.777682542800903320e-01
5.187527835369110107e-02
6.357723474502563477e-02
-2.680391967296600342e-01
3.947230279445648193e-01
2.481284141540527344e-01
-1.124329268932342529e-01
2.683692872524261475e-01
1.601873338222503662e-01
4.870035499334335327e-02
1.098840460181236267e-01
7.860218733549118042e-02
-1.445542722940444946e-01
3.160980343818664551e-01
-8.077369630336761475e-02
5.082036927342414856e-02
6.648879498243331909e-02
-4.926093667745590210e-02
-2.331346869468688965e-01
-5.536685883998870850e-02
-1.279902309179306030e-01
-4.167575761675834656e-02
-1.266390532255172729e-01
-3.621236085891723633e-01
-5.596870779991149902e-01
2.119886726140975952e-01
4.719533026218414307e-01
-2.555672638118267059e-02
5.303769186139106750e-02
-3.287013620138168335e-02
1.656157076358795166e-01
4.163793027400970459e-01
-2.892789840698242188e-01
-3.306252062320709229e-01
-4.262386634945869446e-02
2.142135351896286011e-01
-4.641571640968322754e-01
1.204774007201194763e-01
7.331959158182144165e-02
-2.170996069908142090e-01
5.900599956512451172e-01
7.036218047142028809e-02
3.630910813808441162e-01
1.272036880254745483e-01
1.057454198598861694e-01
1.773388981819152832e-01
-4.079841673374176025e-01
-5.144739523530006409e-02
1.769617050886154175e-01
4.201470315456390381e-02
1.448373645544052124e-01
-1.394380480051040649e-01
2.314694970846176147e-01
7.825884968042373657e-02
3.004528284072875977e-01
-2.178547978401184082e-01
-3.064095675945281982e-01
3.462838530540466309e-01
-1.019292175769805908e-01
-3.671107590198516846e-01
4.973668977618217468e-02
-8.154322504997253418e-01
1.223664358258247375e-01
-9.286809712648391724e-02
-3.402746617794036865e-01
-3.002871386706829071e-02
-1.946574449539184570e-01
-2.544553875923156738e-01
8.606248348951339722e-02
-8.161163330078125000e-02
1.163805425167083740e-01
2.551815509796142578e-01
8.775764703750610352e-02
-8.001206517219543457e-01
-3.690083920955657959e-01
7.814855128526687622e-02
-3.020718097686767578e-01
-2.302216440439224243e-01
-7.092580199241638184e-02
3.667860925197601318e-01
8.210004121065139771e-02
1.634779274463653564e-01
1.419077962636947632e-01
7.798671722412109375e-02
1.201573237776756287e-01
1.761830449104309082e-01
-3.591855764389038086e-01
4.855027794837951660e-02
1.024217754602432251e-01
-2.049421072006225586e-01
-1.085945963859558105e-01
-7.250802125781774521e-03
4.492633938789367676e-01
6.221970543265342712e-02
2.974842190742492676e-01
-9.284386783838272095e-02
-4.558883309364318848e-01
9.652506560087203979e-02
-1.793508272385224700e-04
3.383378684520721436e-01
-3.389384597539901733e-02
-5.386776924133300781e-01
6.065537035465240479e-02
-3.479272425174713135e-01
-1.889200657606124878e-01
1.387454271316528320e-01
3.624496748670935631e-03
-1.341252028942108154e-01
1.382068991661071777e-01
2.070906013250350952e-01
-3.080002665519714355e-01
-4.364583641290664673e-02
2.525067925453186035e-01
9.252569824457168579e-02
1.507797092199325562e-01
-1.313249580562114716e-02
-7.515630125999450684e-02
2.117081880569458008e-01
-1.942155957221984863e-01
-3.132229447364807129e-01
2.624621242284774780e-02
-1.630062758922576904e-01
-2.564359903335571289e-01
-3.721170723438262939e-01
3.190166354179382324e-01
1.424224972724914551e-01
-8.161930739879608154e-02
2.470296621322631836e-01
2.367687523365020752e-01
-2.452489584684371948e-01
7.405012845993041992e-02
-3.481789305806159973e-02
-1.477240025997161865e-01
2.296639680862426758e-01
-1.738544553518295288e-01
-7.419199496507644653e-02
2.814877033233642578e-01
7.071371376514434814e-02
-5.309185013175010681e-02
1.779382973909378052e-01
-2.251838594675064087e-01
8.965251967310905457e-03
-2.387053668498992920e-01
-1.667350530624389648e-01
-1.064524292945861816e+00
-5.401436686515808105e-01
2.318489402532577515e-01
-4.024876747280359268e-03
-3.440042436122894287e-01
-7.455696463584899902e-01
-1.230988278985023499e-01
2.155736088752746582e-01
-1.467455923557281494e-01
1.507214922457933426e-02
2.711717411875724792e-02
2.095483243465423584e-01
5.671196058392524719e-02
-1.969401346286758780e-04
3.632639646530151367e-01
-6.368802487850189209e-02
2.188289761543273926e-01
-5.583516508340835571e-02
1.761702895164489746e-01
3.199873566627502441e-01
6.583426147699356079e-02
-1.112310867756605148e-02
-4.456576332449913025e-02
1.725881546735763550e-01
-1.327784359455108643e-01
1.295837312936782837e-01
4.842908680438995361e-02
1.763214543461799622e-02
-7.682640105485916138e-02
-2.248025536537170410e-01
2.068329006433486938e-01
-5.736681818962097168e-01
6.332147121429443359e-02
1.826567500829696655e-01
-1.018621772527694702e-01
8.655448257923126221e-02
-1.962500438094139099e-02
-6.243771314620971680e-01
-1.705507040023803711e-01
1.905204057693481445e-01
5.310875922441482544e-02
1.190514042973518372e-01
-1.494212895631790161e-01
-1.089457273483276367e-01
2.177935540676116943e-01
-3.288759663701057434e-02
8.727555721998214722e-02
1.527008116245269775e-01
7.149731367826461792e-02
-2.812010645866394043e-01
-4.017121791839599609e-01
-2.500639669597148895e-02
-4.129494130611419678e-01
3.734899461269378662e-01
-1.494746506214141846e-01
-4.027517884969711304e-02
-1.050827354192733765e-01
-5.105429887771606445e-02
-1.116118952631950378e-01
1.598216742277145386e-01
-8.853344246745109558e-03
1.793150156736373901e-01
8.127916604280471802e-02
-1.260855048894882202e-01
-1.801140308380126953e-01
-4.679660499095916748e-02
-1.738430187106132507e-02
6.355300545692443848e-02
-1.763328015804290771e-01
1.452834904193878174e-01
5.819489713758230209e-03
7.921100407838821411e-02
-3.450801372528076172e-01
-1.440168172121047974e-01
4.253201559185981750e-02
-3.834303095936775208e-02
-6.148982327431440353e-03
8.297587931156158447e-02
-2.222047895193099976e-01
-2.043719142675399780e-01
-3.603832721710205078e-01
-1.497770547866821289e-01
1.317099928855895996e-01
5.147751420736312866e-02
-3.785831481218338013e-02
1.447618156671524048e-01
2.406767196953296661e-02
3.822440505027770996e-01
1.761125586926937103e-02
-1.452111154794692993e-01
1.683102995157241821e-01
2.869025059044361115e-02
-4.568703472614288330e-02
-8.269498124718666077e-03
-1.777754127979278564e-01
3.839999139308929443e-01
6.460502278059720993e-03
-3.284211754798889160e-01
-5.604119300842285156e-01
4.126753509044647217e-01
-2.964105606079101562e-01
1.695022284984588623e-01
-3.543737828731536865e-01
-4.721163213253021240e-01
-1.635321527719497681e-01
4.495267570018768311e-02
-7.163864374160766602e-01
1.032035723328590393e-01
7.643197178840637207e-01
-4.621136188507080078e-02
9.438221901655197144e-02
2.578679099678993225e-02
3.833805397152900696e-02
-7.855942845344543457e-01
2.022622376680374146e-01
1.027781441807746887e-01
3.526748418807983398e-01
-4.693552851676940918e-02
3.666846454143524170e-01
-1.465134918689727783e-01
3.910255134105682373e-01
-2.017773501574993134e-02
6.474359333515167236e-02
-1.266788989305496216e-01
-8.696977049112319946e-02
3.457576036453247070e-01
3.968388587236404419e-02
5.310911685228347778e-02
2.185831069946289062e-01
-3.700322210788726807e-01
4.016219675540924072e-01
-1.891226023435592651e-01
-2.133466750383377075e-01
-1.029326558113098145e+00
2.085768580436706543e-01
-1.397970616817474365e-01
-2.664639055728912354e-01
-2.954239398241043091e-02
2.583824694156646729e-01
-2.948564887046813965e-01
-4.314578473567962646e-01
8.762826770544052124e-02
9.949729777872562408e-03
-3.452740013599395752e-01
1.263481676578521729e-01
2.380959317088127136e-02
1.162718608975410461e-01
-1.317215561866760254e-01
-3.829495608806610107e-02
1.572170555591583252e-01
5.028252676129341125e-02
3.317996487021446228e-02
2.013175487518310547e-01
-2.777304649353027344e-01
-8.077207952737808228e-03
-1.374259144067764282e-01
1.608674526214599609e-01
1.134866029024124146e-01
-9.680081158876419067e-02
-1.146092042326927185e-01
-8.003240823745727539e-01
-3.202571272850036621e-01
6.470379233360290527e-02
-6.825739145278930664e-02
-1.456356793642044067e-02
-3.241152316331863403e-02
-9.222026914358139038e-02
1.428648177534341812e-02
1.108893305063247681e-01
-1.514433622360229492e-01
2.487635314464569092e-01
4.658144898712635040e-03
-1.295990198850631714e-01
-1.444530487060546875e-01
1.843262463808059692e-01
-3.307481110095977783e-01
-1.526558771729469299e-03
1.793589591979980469e-01
-3.661841452121734619e-01
1.110118329524993896e-01
-5.444757267832756042e-02
1.659771054983139038e-01
9.455823898315429688e-02
1.300648152828216553e-01
2.802294492721557617e-01
7.845881581306457520e-02
-3.166357576847076416e-01
-2.252261936664581299e-01
-8.866509050130844116e-02
-1.359230875968933105e-01
-2.203305959701538086e-01
2.875775396823883057e-01
5.908346772193908691e-01
-5.060750246047973633e-02
5.657094120979309082e-01
-7.736618518829345703e-01
-1.909370720386505127e-01
1.981218606233596802e-01
3.179741501808166504e-01
7.085832357406616211e-01
3.229146301746368408e-01
-1.299396008253097534e-01
3.165324330329895020e-01
1.276909410953521729e-01
9.797143936157226562e-02
-2.371751219034194946e-01
1.201725844293832779e-02
-1.918332725763320923e-01
1.164419427514076233e-01
2.217754423618316650e-01
-5.251573324203491211e-01
-1.202685534954071045e-01
1.057699695229530334e-01
-3.870894014835357666e-02
1.111675240099430084e-02
-3.364643752574920654e-01
2.243331819772720337e-01
2.172540575265884399e-01
-2.260869741439819336e-02
3.353101015090942383e-02
-2.322902381420135498e-01
-1.596981883049011230e-01
3.876821696758270264e-01
2.424882501363754272e-01
8.777997642755508423e-02
-1.056160107254981995e-01
2.057994157075881958e-01
-1.940013468265533447e-01
-2.127989083528518677e-01
7.283151894807815552e-02
1.815610527992248535e-01
-4.952020347118377686e-01
-4.604417085647583008e-02
4.349791705608367920e-01
-4.085677266120910645e-01
5.842910706996917725e-02
-1.046537384390830994e-01
-2.089011482894420624e-03
-1.335330009460449219e-01
2.849666774272918701e-01
-1.590047329664230347e-01
4.361147806048393250e-02
-3.331099450588226318e-01
4.166717175394296646e-03
6.102747842669487000e-02
-3.288588821887969971e-01
-1.057387962937355042e-01
-2.823996245861053467e-01
3.874928057193756104e-01
3.250035941600799561e-01
-1.593605279922485352e-01
-3.661979734897613525e-01
5.994021296501159668e-01
1.160372495651245117e-01
-4.908686876296997070e-01
1.576111316680908203e-01
-6.959778070449829102e-01
-1.179041638970375061e-01
1.069839075207710266e-01
-3.882602229714393616e-02
-1.009992584586143494e-01
7.054872065782546997e-02
2.796370685100555420e-01
9.517257660627365112e-02
-4.067752882838249207e-02
-7.334599643945693970e-02
-1.663435548543930054e-01
-1.147832907736301422e-02
-4.663785696029663086e-01
-1.854290217161178589e-01
-5.368900299072265625e-01
2.295972257852554321e-01
5.948973447084426880e-02
2.079201042652130127e-01
3.740802640095353127e-03
1.841627061367034912e-01
3.968048468232154846e-02
1.021245494484901428e-01
2.079150229692459106e-01
-8.679240942001342773e-02
9.488244354724884033e-02
2.992933988571166992e-01
1.396466046571731567e-01
9.776961803436279297e-02
-1.543305367231369019e-01
-2.436647750437259674e-02
-4.663915187120437622e-02
-3.707119822502136230e-01
-1.638171672821044922e-01
2.224366515874862671e-01
2.062316238880157471e-02
-2.978172898292541504e-02
-1.993882507085800171e-01
-9.248004853725433350e-02
2.891767024993896484e-01
-6.871321201324462891e-01
1.718053668737411499e-01
2.920035719871520996e-01
-5.489359498023986816e-01
2.450106590986251831e-01
9.360100328922271729e-02
2.087571620941162109e-01
-7.853868007659912109e-01
-8.698884844779968262e-01
-9.571000188589096069e-02
-1.335193067789077759e-01
-4.303396940231323242e-01
2.925128638744354248e-01
2.943383455276489258e-01
-1.072777211666107178e-01
-1.028272509574890137e-01
2.376550436019897461e-01
-1.231732964515686035e-01
1.672700643539428711e-01
5.935272201895713806e-02
-3.022213876247406006e-01
-2.673113644123077393e-01
8.632227033376693726e-02
-2.397927492856979370e-01
-9.723874740302562714e-03
-4.963465471519157290e-05
-1.784407794475555420e-01
2.204557061195373535e-01
8.405595272779464722e-02
-6.818078160285949707e-01
1.927918195724487305e-02
2.389287948608398438e-01
-1.336080580949783325e-01
9.509079158306121826e-02
4.195512156002223492e-04
9.609223157167434692e-02
-9.415180236101150513e-02
2.342435121536254883e-01
-4.921636357903480530e-02
-4.221560955047607422e-01
1.814832091331481934e-01
-1.291705518960952759e-01
-8.658116683363914490e-03
1.789022982120513916e-01
-1.518771946430206299e-01
7.062485814094543457e-01
8.660078793764114380e-02
-6.853067874908447266e-02
3.069459646940231323e-02
-1.177543699741363525e-01
-9.516911208629608154e-02
-1.266123056411743164e-01
-6.571766734123229980e-02
-1.531415581703186035e-01
2.026951871812343597e-02
1.342497915029525757e-01
1.392320543527603149e-01
-1.948847025632858276e-01
1.568013243377208710e-02
-2.980712652206420898e-01
5.204820632934570312e-01
-3.860211372375488281e-01
-8.033136278390884399e-02
-1.850225180387496948e-01
-2.784355282783508301e-01
-7.912610173225402832e-01
8.620724827051162720e-02
3.618325293064117432e-01
8.309928327798843384e-02
2.298070788383483887e-01
-2.656805217266082764e-01
-1.871167421340942383e-01
9.024603664875030518e-02
1.338366568088531494e-01
3.381903469562530518e-02
3.493896871805191040e-02
3.532573580741882324e-01
5.450869724154472351e-02
-9.908495098352432251e-02
2.567386329174041748e-01
-6.729818135499954224e-02
1.043614670634269714e-01
-3.207167387008666992e-01
2.295322120189666748e-01
5.297150835394859314e-02
4.499508440494537354e-01
-2.149012386798858643e-01
1.938374042510986328e-01
1.553066372871398926e-01
-2.268328666687011719e-01
-3.182577192783355713e-01
2.468151897192001343e-01
-1.577303409576416016e-01
-7.557928562164306641e-02
-3.724905848503112793e-01
5.823257565498352051e-01
-6.263974905014038086e-01
7.066849619150161743e-02
1.967945247888565063e-01
-4.626971110701560974e-02
-7.635170817375183105e-01
1.471425145864486694e-01
-2.167449742555618286e-01
8.375429362058639526e-02
1.824192255735397339e-01
-6.256394088268280029e-02
-3.294205665588378906e-01
-4.275227338075637817e-02
-3.142738714814186096e-02
-2.182535529136657715e-01
-1.597595214843750000e-01
-2.033477872610092163e-01
2.859857678413391113e-01
-7.273916900157928467e-02
-5.928904414176940918e-01
-4.058134183287620544e-02
-3.540763854980468750e-01
1.102559566497802734e-01
-4.102626070380210876e-02
7.698494195938110352e-02
4.307208061218261719e-01
2.633403539657592773e-01
-2.445678971707820892e-02
2.179791182279586792e-01
1.280791475437581539e-03
3.602972030639648438e-01
2.626900374889373779e-01
2.570575177669525146e-01
1.543089002370834351e-02
-1.547309011220932007e-01
-8.844583481550216675e-02
-8.870019763708114624e-02
-8.501069992780685425e-02
2.534785270690917969e-01
-2.474226057529449463e-01
3.083558976650238037e-01
-3.191688954830169678e-01
-5.835586413741111755e-02
4.127384126186370850e-01
-1.365030705928802490e-01
6.672075986862182617e-01
-3.804013729095458984e-01
-8.230879902839660645e-01
-1.893654465675354004e-01
-3.277889788150787354e-01
1.424995809793472290e-01
2.284108400344848633e-01
-1.273027062416076660e-01
2.621487677097320557e-01
-1.579093337059020996e-01
1.632625162601470947e-01
-2.225118428468704224e-01
2.309087514877319336e-01
-3.430675864219665527e-01
1.912855356931686401e-01
8.556988835334777832e-02
-7.306462526321411133e-01
-4.026080667972564697e-01
-2.023795247077941895e-01
-1.279889643192291260e-01
-1.877942234277725220e-01
-2.461824566125869751e-01
-1.923163831233978271e-01
-3.914097547531127930e-01
-2.623043768107891083e-02
-9.646391868591308594e-02
2.576217055320739746e-01
-2.028053067624568939e-02
3.475002944469451904e-01
8.286818861961364746e-02
-9.554524719715118408e-02
-1.671874970197677612e-01
-1.822411268949508667e-01
3.465036749839782715e-01
2.925084233283996582e-01
3.120682202279567719e-02
5.110267549753189087e-02
1.044702827930450439e-01
5.558992549777030945e-02
1.040903106331825256e-01
2.795011997222900391e-01
2.245748937129974365e-01
-5.422594770789146423e-02
6.219857186079025269e-02
-3.153842091560363770e-01
-2.154994159936904907e-01
-2.007630169391632080e-01
3.868703544139862061e-02
-1.650830507278442383e-01
-4.383177161216735840e-01
-1.423696279525756836e-01
-3.123459406197071075e-02
-1.938706338405609131e-01
2.793739316985011101e-03
1.240919064730405807e-02
-3.881924450397491455e-01
-4.781553894281387329e-02
-1.033350378274917603e-01
8.499363064765930176e-02
2.488264441490173340e-01
1.361653357744216919e-01
3.230571448802947998e-01
-2.528630197048187256e-01
4.263032376766204834e-01
1.562301218509674072e-01
4.493616148829460144e-02
-3.293453752994537354e-01
-7.648693770170211792e-02
-1.262990874238312244e-03
1.585374027490615845e-01
1.622750163078308105e-01
1.161227002739906311e-01
-3.224625810980796814e-02
1.758721768856048584e-01
-2.089720368385314941e-01
3.058246336877346039e-02
1.055785939097404480e-01
-2.374489977955818176e-02
1.101305857300758362e-01
-6.426468491554260254e-02
5.381322503089904785e-01
-1.967050880193710327e-01
-5.618467926979064941e-01
-6.054852604866027832e-01
-5.890526250004768372e-02
1.795367151498794556e-01
9.973884373903274536e-02
-5.420880764722824097e-02
5.986941605806350708e-02
2.619498372077941895e-01
-6.448768377304077148e-01
1.959898136556148529e-02
1.715727448463439941e-01
2.045594751834869385e-01
1.541619449853897095e-01
-7.438169121742248535e-01
-1.332398056983947754e-01
3.065172731876373291e-01
-4.507552832365036011e-02
6.125674024224281311e-02
1.084520518779754639e-01
-4.464800655841827393e-02
2.285433262586593628e-01
-5.809682011604309082e-01
-4.134914577007293701e-01
5.263489857316017151e-02
4.121429920196533203e-01
-1.134009957313537598e-01
-3.458150029182434082e-01
-1.396378427743911743e-01
1.080454885959625244e-01
-4.034685790538787842e-01
4.790365099906921387e-01
-2.044142335653305054e-01
4.185974597930908203e-02
-2.087472975254058838e-01
5.873639881610870361e-02
-1.448537856340408325e-01
-1.552063822746276855e-01
-3.297450542449951172e-01
-2.147741466760635376e-01
-1.051537096500396729e-01
1.271257251501083374e-01
6.260932683944702148e-01
1.454491764307022095e-01
1.909403353929519653e-01
-1.408174633979797363e-01
8.799125254154205322e-02
-4.902863129973411560e-02
-8.235172629356384277e-01
-9.211394190788269043e-02
2.874311804771423340e-01
-4.900136217474937439e-02
2.006745636463165283e-01
7.186403125524520874e-02
8.960958570241928101e-02
3.628360927104949951e-01
8.780859112739562988e-01
-3.446701765060424805e-01
-3.533380925655364990e-01
-7.839633524417877197e-02
2.335610799491405487e-02
1.691925227642059326e-01
5.352859497070312500e-01
-2.390685379505157471e-01
5.737844854593276978e-03
1.099617034196853638e-01
-8.213336020708084106e-02
9.364982694387435913e-02
2.939806133508682251e-02
2.442879676818847656e-01
-1.001563966274261475e-01
1.341493725776672363e-01
2.341569215059280396e-01
8.537688851356506348e-02
1.157635375857353210e-01
3.748218715190887451e-01
-1.569257676601409912e-01
-5.298891663551330566e-02
-3.200016319751739502e-01
-3.468215465545654297e-01
2.393480986356735229e-01
-1.339192986488342285e-01
-3.495467901229858398e-01
1.478143930435180664e-01
1.217000856995582581e-01
1.800384372472763062e-01
2.948191463947296143e-01
1.162240877747535706e-01
3.431492447853088379e-01
8.679558336734771729e-02
6.424058675765991211e-01
1.308605968952178955e-01
-2.315388768911361694e-01
-1.797028928995132446e-01
-2.661992609500885010e-01
1.076156720519065857e-01
-3.300940990447998047e-02
-2.523042261600494385e-01
-3.323445096611976624e-02
-2.401279360055923462e-01
7.192114368081092834e-03
-7.412843406200408936e-02
3.152261376380920410e-01
-1.493754684925079346e-01
-1.793520748615264893e-01
-5.291181057691574097e-02
5.090529918670654297e-01
-1.402234882116317749e-01
-5.582150816917419434e-01
5.323910117149353027e-01
-3.111854381859302521e-02
-3.468386232852935791e-01
8.005866408348083496e-02
5.385031700134277344e-01
1.637295484542846680e-01
1.257568448781967163e-01
1.045534312725067139e-01
8.996043354272842407e-02
-1.123059075325727463e-02
-4.042926430702209473e-01
1.258156597614288330e-01
5.420204401016235352e-01
1.403937339782714844e-01
-3.731395350769162178e-03
1.315695643424987793e-01
1.226564869284629822e-01
5.375759303569793701e-02
-1.013923808932304382e-01
-6.095174551010131836e-01
7.957368493080139160e-01
1.461235284805297852e-01
6.812650710344314575e-02
-3.223629295825958252e-01
-6.251258403062820435e-02
-9.203182160854339600e-02
-2.657745480537414551e-01
-6.439036726951599121e-01
-5.885111689567565918e-01
1.100776940584182739e-01
2.504998743534088135e-01
2.296775206923484802e-02
-4.514465034008026123e-01
2.286817580461502075e-01
1.624871231615543365e-02
-8.277840614318847656e-01
1.538048833608627319e-01
-1.307835131883621216e-01
-1.100068539381027222e-01
-1.846987381577491760e-02
3.860306441783905029e-01
1.898962110280990601e-01
-8.664542436599731445e-02
1.149085164070129395e-01
2.900321185588836670e-01
-2.431870847940444946e-01
7.110668718814849854e-02
7.309246063232421875e-02
-3.580382168292999268e-01
-4.153002500534057617e-01
4.533704519271850586e-01
-1.552301272749900818e-02
2.454205304384231567e-01
-3.339020311832427979e-01
-8.566039800643920898e-02
-2.844937443733215332e-01
-9.907942265272140503e-02
5.767548456788063049e-03
1.642502397298812866e-01
-2.239732146263122559e-01
-9.553588926792144775e-03
2.514288127422332764e-01
-3.951547201722860336e-03
3.866876363754272461e-01
-1.551829576492309570e-01
-5.725578963756561279e-02
1.935499906539916992e-01
-9.498401731252670288e-02
1.096844449639320374e-01
2.482634782791137695e-01
-3.205690383911132812e-01
-1.520396769046783447e-01
-2.307579219341278076e-01
-1.331278085708618164e-01
3.972249105572700500e-02
-2.359729446470737457e-02
5.494266375899314880e-02
8.040502667427062988e-02
-4.037810564041137695e-01
-3.488223627209663391e-02
4.816978797316551208e-02
-1.310568302869796753e-01
1.566615998744964600e-01
-2.117271423339843750e-01
2.026856839656829834e-01
1.045354306697845459e-01
6.054769828915596008e-02
2.171881496906280518e-02
-1.927543580532073975e-01
3.998387604951858521e-02
3.109046816825866699e-01
-4.610161483287811279e-01
-1.786470562219619751e-01
4.606807604432106018e-03
-4.199101626873016357e-01
-2.842287123203277588e-01
4.297634214162826538e-02
-4.001853764057159424e-01
2.141823768615722656e-01
2.162472605705261230e-01
2.802694737911224365e-01
2.124691754579544067e-01
9.006544202566146851e-02
1.327591389417648315e-01
-2.903124094009399414e-01
2.813329100608825684e-01
6.909563392400741577e-02
