3.723227977752685547e-02
1.987208425998687744e-01
3.537582233548164368e-02
-1.064317971467971802e-01
6.734320521354675293e-02
8.782707154750823975e-02
4.474569112062454224e-02
-4.201449453830718994e-02
1.841266453266143799e-01
3.731437260285019875e-03
6.255967915058135986e-02
8.297493681311607361e-03
-2.669679000973701477e-02
5.358997359871864319e-02
5.352587252855300903e-02
5.574214830994606018e-02
3.218501433730125427e-02
8.121870458126068115e-02
2.400834672152996063e-02
-7.296266034245491028e-03
-2.322641760110855103e-02
-5.434296093881130219e-03
-5.042560771107673645e-02
3.977080807089805603e-02
6.637591868638992310e-02
1.510769315063953400e-02
-2.454357221722602844e-02
2.465171366930007935e-01
2.853202633559703827e-02
1.433619298040866852e-02
5.196385830640792847e-02
9.128797054290771484e-02
1.864471659064292908e-02
-1.466444227844476700e-02
-6.810988485813140869e-02
-5.028050392866134644e-02
4.047108814120292664e-02
7.634417712688446045e-02
4.591313377022743225e-02
-7.843723148107528687e-02
1.056194398552179337e-02
-8.378621190786361694e-03
-1.301523204892873764e-02
-8.062517642974853516e-02
-4.399381577968597412e-03
-4.748283326625823975e-02
-7.506164908409118652e-02
7.473146170377731323e-02
6.117990240454673767e-02
3.820177167654037476e-02
-1.276728231459856033e-02
-2.208040654659271240e-02
-1.504206843674182892e-02
-5.561536177992820740e-02
1.081119850277900696e-01
-2.923251874744892120e-02
6.429758667945861816e-02
7.214700430631637573e-02
1.132562309503555298e-01
-3.044849075376987457e-02
8.088775724172592163e-02
1.325442735105752945e-02
3.493013978004455566e-02
-1.441152691841125488e-01
-4.647412896156311035e-02
-4.529665037989616394e-02
-2.079468779265880585e-02
-6.089999154210090637e-02
8.459486067295074463e-02
1.573930084705352783e-01
-1.871334388852119446e-02
-1.601606458425521851e-01
7.017309218645095825e-02
8.219339698553085327e-02
3.535078465938568115e-02
1.307124495506286621e-01
7.649921625852584839e-02
-7.075782120227813721e-02
-6.146441772580146790e-02
1.797927469015121460e-01
-7.644440233707427979e-02
-4.400355368852615356e-02
-7.806638628244400024e-02
1.721009239554405212e-02
1.462080478668212891e-01
-3.112751059234142303e-02
9.614586085081100464e-02
7.401452958583831787e-02
2.247223258018493652e-01
-6.546017527580261230e-02
1.216393187642097473e-01
-4.175445437431335449e-02
-5.774256959557533264e-02
1.350253224372863770e-01
3.667532233521342278e-03
4.508001357316970825e-02
1.473079323768615723e-01
-5.644110962748527527e-02
8.480977267026901245e-03
-1.032884567975997925e-01
-4.496803507208824158e-02
1.402129679918289185e-01
1.019756942987442017e-01
1.188173443078994751e-01
-6.519494950771331787e-02
5.783984810113906860e-02
1.585008054971694946e-01
-6.664457172155380249e-02
3.030043654143810272e-02
1.035778522491455078e-01
8.899221569299697876e-02
-5.508703645318746567e-03
4.051967710256576538e-02
7.403201609849929810e-02
2.045262418687343597e-02
4.671598598361015320e-02
1.350360363721847534e-01
-2.309784851968288422e-02
-4.606930166482925415e-02
1.064627468585968018e-01
-6.474151462316513062e-02
-9.567832946777343750e-02
2.563353441655635834e-02
-6.919748336076736450e-02
3.173914505168795586e-03
-1.107977107167243958e-01
-1.174764782190322876e-01
-1.158136576414108276e-01
-1.936208270490169525e-02
5.456776544451713562e-02
-5.235720798373222351e-02
5.198187008500099182e-02
-8.805512636899948120e-02
-2.930211275815963745e-02
4.280522465705871582e-02
1.699207574129104614e-01
-6.202492117881774902e-02
3.581809997558593750e-02
2.588409185409545898e-01
-1.349017675966024399e-02
5.810247361660003662e-02
4.609872773289680481e-02
9.718866646289825439e-02
-8.414144068956375122e-02
8.185553550720214844e-02
-1.213043332099914551e-01
-1.105964183807373047e-03
1.006373614072799683e-01
6.142412498593330383e-02
9.572874754667282104e-02
-2.684328239411115646e-03
6.204429641366004944e-02
-7.776720821857452393e-02
-1.249383017420768738e-01
3.175459057092666626e-02
2.949930913746356964e-02
-4.501292854547500610e-02
3.757505118846893311e-02
7.400262355804443359e-02
4.401160404086112976e-02
