-4.305652901530265808e-02
-1.869248002767562866e-01
1.607592999935150146e-01
-1.144568026065826416e-01
-3.098709881305694580e-01
-2.214204818010330200e-01
-3.220115602016448975e-01
1.905919238924980164e-02
-2.957069501280784607e-02
-3.640554845333099365e-01
-4.149290267378091812e-03
1.958836466073989868e-01
1.072877347469329834e-01
-1.946672201156616211e-01
2.350692152976989746e-01
1.974743157625198364e-01
2.460890561342239380e-01
8.351691812276840210e-02
-2.894513309001922607e-01
-1.529592871665954590e-01
1.427465677261352539e-01
-1.521601527929306030e-01
-9.588408470153808594e-02
8.339340090751647949e-01
3.791801258921623230e-02
-3.899322109646163881e-06
3.017661720514297485e-02
5.034186318516731262e-02
3.322998583316802979e-01
1.672735959291458130e-01
-4.624056220054626465e-01
-1.270645558834075928e-01
-1.351282745599746704e-01
-1.870204508304595947e-01
-6.594441086053848267e-02
9.523879736661911011e-02
2.095970064401626587e-01
-8.447889983654022217e-02
-3.082068264484405518e-01
-1.327958852052688599e-01
2.732278704643249512e-01
-1.947838366031646729e-01
1.991405338048934937e-01
-3.450842499732971191e-01
-2.249629050493240356e-01
-1.652595847845077515e-01
3.685370683670043945e-01
-1.749286353588104248e-01
1.108003593981266022e-02
-2.113470882177352905e-01
-8.142917603254318237e-02
-2.047151178121566772e-01
-4.624951689038425684e-04
-2.784562408924102783e-01
-4.790078103542327881e-02
8.181197196245193481e-02
7.569994032382965088e-02
1.162626594305038452e-02
-1.653637140989303589e-01
-1.541465818881988525e-01
-1.375673264265060425e-01
3.279618173837661743e-02
-7.336142659187316895e-02
5.951798986643552780e-03
-3.565482422709465027e-02
-2.127945870161056519e-01
1.308132857084274292e-01
-1.233957894146442413e-02
1.245169118046760559e-01
3.826156854629516602e-01
1.429799348115921021e-01
-2.603652477264404297e-01
-1.665473729372024536e-01
-2.498392909765243530e-01
6.340174376964569092e-02
7.091928273439407349e-02
3.918334841728210449e-02
-2.581030130386352539e-01
-3.042153269052505493e-02
-1.270161420106887817e-01
-7.322859764099121094e-02
-4.956046177539974451e-05
-1.398084163665771484e-01
-3.106172569096088409e-02
1.572757661342620850e-01
3.118275403976440430e-01
-1.627353876829147339e-01
1.096973791718482971e-01
2.456775493919849396e-02
-8.095373958349227905e-02
4.506472870707511902e-02
7.924292981624603271e-02
-4.837534204125404358e-02
9.883143752813339233e-02
-3.997457027435302734e-02
2.479196339845657349e-02
-1.581471115350723267e-01
2.986028492450714111e-01
-7.203102856874465942e-02
-6.209660321474075317e-03
1.154264658689498901e-01
-7.531786803156137466e-03
-1.863738149404525757e-01
-1.739096790552139282e-01
-2.127614766359329224e-01
-3.598655164241790771e-01
5.877935886383056641e-02
-2.660894580185413361e-02
-2.506454288959503174e-02
3.314557075500488281e-01
-2.277186512947082520e-01
4.909109175205230713e-01
-1.764578074216842651e-01
9.530245512723922729e-02
2.338097393512725830e-01
5.139833092689514160e-01
4.067635163664817810e-03
-2.400390654802322388e-01
2.324072867631912231e-01
2.762588262557983398e-01
