3.604612052440643311e-01
-2.280460111796855927e-02
2.048060595989227295e-01
2.151559293270111084e-01
-7.841781526803970337e-02
1.512297242879867554e-01
1.099459603428840637e-01
-1.248668357729911804e-01
-2.696850709617137909e-02
3.090870380401611328e-01
8.479517698287963867e-02
-3.459264710545539856e-02
-6.330558657646179199e-02
1.910330355167388916e-01
-9.623979567550122738e-04
7.048367708921432495e-02
1.169146746397018433e-01
1.902099139988422394e-02
2.141970209777355194e-02
-1.202004924416542053e-01
2.373438179492950439e-01
2.033920139074325562e-01
1.483843028545379639e-01
2.512938380241394043e-01
2.164165377616882324e-01
5.853176489472389221e-02
-2.309179157018661499e-01
-3.076342493295669556e-02
2.308417260646820068e-01
2.243635207414627075e-01
8.881187438964843750e-02
1.680681109428405762e-01
2.341777831315994263e-01
3.092279434204101562e-01
1.208437904715538025e-01
-2.710613049566745758e-02
4.867302179336547852e-01
1.228821743279695511e-02
9.246885031461715698e-02
5.914701148867607117e-02
6.604525446891784668e-02
1.068774163722991943e-01
9.315997362136840820e-02
8.136719465255737305e-02
7.630494982004165649e-02
2.515370845794677734e-01
1.447050869464874268e-01
1.227139830589294434e-01
1.966826021671295166e-01
-1.554294079542160034e-01
1.712148040533065796e-01
1.176744028925895691e-01
1.999472677707672119e-01
8.008407056331634521e-02
2.181740552186965942e-01
1.527036428451538086e-01
1.952412277460098267e-01
4.750035703182220459e-02
1.284859627485275269e-01
1.038940250873565674e-01
-5.597095191478729248e-02
2.606617510318756104e-01
5.469053611159324646e-02
1.879235804080963135e-01
8.932697027921676636e-02
1.822330951690673828e-01
9.275158494710922241e-02
2.276498675346374512e-01
3.167815208435058594e-01
1.782132983207702637e-01
-1.093803066760301590e-02
6.169557571411132812e-02
1.612773351371288300e-02
8.291473239660263062e-02
1.832935214042663574e-01
-5.569251999258995056e-02
5.008579790592193604e-02
8.455210924148559570e-02
-2.957215718924999237e-02
3.722985684871673584e-01
3.293897509574890137e-01
5.681535229086875916e-02
-8.313328027725219727e-02
-2.924951314926147461e-01
