-4.025813937187194824e-01
-3.348950743675231934e-01
-4.774692058563232422e-01
-4.829962551593780518e-01
1.998184323310852051e-01
8.999197185039520264e-02
-2.126908600330352783e-01
1.579231917858123779e-01
2.739149034023284912e-01
3.824163377285003662e-01
3.756482005119323730e-01
-5.455429553985595703e-01
-9.718377143144607544e-02
1.942193508148193359e-01
1.321577131748199463e-01
1.392086595296859741e-01
-2.457653433084487915e-01
2.381008267402648926e-01
-3.731691837310791016e-01
-1.636433750391006470e-01
-3.356838822364807129e-01
2.550834119319915771e-01
-1.001542285084724426e-01
-3.597236871719360352e-01
4.084396734833717346e-02
3.469565212726593018e-01
4.226924479007720947e-01
1.497271060943603516e-01
5.363268256187438965e-01
2.964311651885509491e-02
-6.290932297706604004e-01
-6.794582605361938477e-01
1.419388800859451294e-01
2.204389125108718872e-01
-1.197897493839263916e-01
2.324565351009368896e-01
1.528686881065368652e-01
-1.484931409358978271e-01
2.440486550331115723e-01
-7.461334466934204102e-01
-1.031693890690803528e-01
-8.966683596372604370e-02
6.778292357921600342e-02
1.976297795772552490e-01
2.133425176143646240e-01
8.330330997705459595e-02
-1.881726235151290894e-01
-1.656315326690673828e-01
-5.716051459312438965e-01
4.700292646884918213e-02
3.226401805877685547e-01
-1.871344745159149170e-01
1.995171010494232178e-01
3.833411037921905518e-01
-4.475094377994537354e-01
3.149514198303222656e-01
3.063201010227203369e-01
-7.547885775566101074e-01
-3.196128606796264648e-01
-2.089941799640655518e-01
3.078093230724334717e-01
-5.397665500640869141e-02
4.023413956165313721e-01
2.545646429061889648e-01
-3.051311373710632324e-01
3.631561696529388428e-01
-6.856517195701599121e-01
7.936897128820419312e-02
8.595370054244995117e-01
-4.084970057010650635e-01
1.094621568918228149e-01
-1.358416676521301270e-02
-4.214048385620117188e-01
4.001130163669586182e-02
2.841062247753143311e-01
5.230113118886947632e-02
5.400907620787620544e-02
-7.979902625083923340e-01
4.894638359546661377e-01
-3.108354508876800537e-01
-8.656140416860580444e-02
4.229751825332641602e-01
3.532199859619140625e-01
-6.527683138847351074e-01
-5.668991208076477051e-01
3.033262193202972412e-01
2.090958356857299805e-01
-3.654187023639678955e-01
2.923000156879425049e-01
-1.060132011771202087e-01
-1.298393309116363525e-01
2.543548047542572021e-01
3.869799971580505371e-01
-2.199886292219161987e-01
7.869067788124084473e-01
1.121594384312629700e-02
3.527514040470123291e-01
-8.851366043090820312e-01
2.522559762001037598e-01
6.160480901598930359e-02
-4.900653958320617676e-01
3.294456303119659424e-01
6.095502153038978577e-02
3.130038380622863770e-01
-6.698586940765380859e-01
2.933109700679779053e-01
3.236875832080841064e-01
5.387784242630004883e-01
-5.309765338897705078e-01
4.344952702522277832e-01
2.317367047071456909e-01
1.229178309440612793e-01
-4.932414591312408447e-01
3.901073634624481201e-01
3.864318728446960449e-01
-8.474878221750259399e-02
3.315868377685546875e-01
2.921241819858551025e-01
6.934081912040710449e-01
-2.531373798847198486e-01
-8.100483417510986328e-01
-5.121717974543571472e-02
-5.910724401473999023e-01
2.832173109054565430e-01
2.650759518146514893e-01
2.628887891769409180e-01
2.832746803760528564e-01
-7.994642853736877441e-01
2.241116911172866821e-01
2.669797837734222412e-01
-9.290816783905029297e-01
-8.742690086364746094e-02
-1.393900513648986816e-01
-1.473302841186523438e-01
-3.521105349063873291e-01
1.530039459466934204e-01
-4.683415591716766357e-01
4.307186603546142578e-02
1.982987970113754272e-01
-4.079917371273040771e-01
-5.287594795227050781e-01
-2.402664572000503540e-01
6.589043736457824707e-01
5.338856577873229980e-01
2.331993579864501953e-01
-2.909668385982513428e-01
-3.374266624450683594e-01
-5.823311209678649902e-01
-2.825785577297210693e-01
-1.681511402130126953e-01
-1.561841815710067749e-01
-5.076026916503906250e-01
9.558362513780593872e-02
-6.490855216979980469e-01
-4.184077084064483643e-01
-5.479904636740684509e-02
-5.828042030334472656e-01
1.384585797786712646e-01
2.541966736316680908e-01
-4.599474668502807617e-01
3.736805021762847900e-01
-3.842958807945251465e-02
-1.260336190462112427e-01
-4.547692835330963135e-01
4.341192245483398438e-01
2.317430078983306885e-01
4.943776428699493408e-01
-1.077421084046363831e-01
-6.492807269096374512e-01
-1.794544793665409088e-02
9.783373773097991943e-02
-2.582653462886810303e-01
-1.024039462208747864e-01
2.621172368526458740e-01
6.252301931381225586e-01
-4.591767489910125732e-01
1.363571137189865112e-01
-1.290950626134872437e-01
6.444655358791351318e-02
4.275049269199371338e-01
-1.413555908948183060e-02
5.637808442115783691e-01
3.321252465248107910e-01
2.396787405014038086e-01
-4.506443440914154053e-01
2.961628735065460205e-01
1.728427410125732422e-01
4.164114594459533691e-02
-6.349356174468994141e-01
1.003203690052032471e-01
-4.748226702213287354e-01
9.482090175151824951e-02
-1.884430944919586182e-01
3.112321160733699799e-02
1.504067033529281616e-01
1.621489673852920532e-01
2.624640166759490967e-01
2.685104012489318848e-01
8.927068710327148438e-01
5.821549296379089355e-01
1.964686661958694458e-01
-4.659149050712585449e-02
1.177969500422477722e-01
9.077221155166625977e-02
4.894432798027992249e-02
-1.154027506709098816e-01
-2.147060632705688477e-01
4.677559435367584229e-01
2.958501875400543213e-01
-3.142586946487426758e-01
1.305961143225431442e-02
2.799053788185119629e-01
2.628612220287322998e-01
-6.130121350288391113e-01
2.322070151567459106e-01
4.650848731398582458e-02
-2.193947285413742065e-01
-1.521603167057037354e-01
-8.101236820220947266e-01
-3.658012151718139648e-01
-2.801640629768371582e-01
-6.171205639839172363e-01
-3.944914042949676514e-01
2.559791505336761475e-01
6.622428447008132935e-02
-2.560773491859436035e-01
3.139040172100067139e-01
-1.037838101387023926e+00
-4.341357052326202393e-01
7.159515470266342163e-02
1.758589148521423340e-01
-5.466383881866931915e-03
-1.433275192975997925e-01
-8.328880667686462402e-01
2.573626339435577393e-01
7.595565915107727051e-02
3.926953971385955811e-01
-2.355375438928604126e-01
-3.903521001338958740e-01
6.363764405250549316e-01
4.534229338169097900e-01
8.356878906488418579e-02
-6.279258131980895996e-01
1.741621196269989014e-01
-1.494984030723571777e-01
-9.728206396102905273e-01
-6.971951127052307129e-01
-6.547463536262512207e-01
-2.394502758979797363e-01
-3.880968987941741943e-01
6.301883459091186523e-01
6.709601283073425293e-01
-5.687472820281982422e-01
2.557780742645263672e-01
5.096587538719177246e-01
-7.966925948858261108e-02
-2.004329711198806763e-01
2.812726497650146484e-01
-3.883850872516632080e-01
1.767818480730056763e-01
-4.717033803462982178e-01
-1.424943357706069946e-01
-8.582854270935058594e-01
9.224162995815277100e-02
2.874510884284973145e-01
2.517529726028442383e-01
4.410150274634361267e-02
-1.019367337226867676e+00
-2.154447585344314575e-01
-5.173245072364807129e-01
9.427741914987564087e-02
3.598474264144897461e-01
5.894950404763221741e-02
-6.382328867912292480e-01
2.378156781196594238e-01
6.826273351907730103e-02
-7.047743797302246094e-01
3.003953695297241211e-01
4.133882224559783936e-01
-8.337301611900329590e-01
-3.094898164272308350e-01
2.623557150363922119e-01
1.813480257987976074e-01
6.609531044960021973e-01
3.108727335929870605e-01
-7.657726109027862549e-02
-2.537003755569458008e-01
-1.848186925053596497e-02
3.012453019618988037e-01
-3.850685805082321167e-02
3.315957188606262207e-01
3.832413852214813232e-01
2.510269284248352051e-01
2.162218242883682251e-01
2.928580343723297119e-01
2.936207056045532227e-01
1.786630302667617798e-01
2.061585187911987305e-01
4.489603936672210693e-01
-4.807315468788146973e-01
-4.899234771728515625e-01
2.482519000768661499e-01
-2.161605656147003174e-01
-1.322495490312576294e-01
1.269158273935317993e-01
-4.988596308976411819e-03
1.928418576717376709e-01
1.815404891967773438e-01
-1.773466467857360840e-01
1.847336590290069580e-01
-6.485736370086669922e-01
-1.796141713857650757e-01
1.017059981822967529e-01
1.585539132356643677e-01
-7.576001882553100586e-01
-4.108245372772216797e-01
1.503083109855651855e-01
2.597754001617431641e-01
-1.256568729877471924e-02
-2.601082436740398407e-02
2.195347994565963745e-01
-7.692797780036926270e-01
1.202717125415802002e-01
5.829926952719688416e-02
-7.223940491676330566e-01
3.661132454872131348e-01
-2.697926387190818787e-02
6.303385645151138306e-02
1.128745824098587036e-01
-3.993961960077285767e-02
1.375160813331604004e-01
-2.647046148777008057e-01
1.965775787830352783e-01
4.276130795478820801e-01
3.391376510262489319e-02
-1.917412318289279938e-02
-5.869813561439514160e-01
1.059094890952110291e-01
-1.360710263252258301e-01
4.470370113849639893e-01
5.194570422172546387e-01
2.593650817871093750e-01
-3.044151663780212402e-01
1.816715598106384277e-01
-3.515189588069915771e-01
2.744759321212768555e-01
1.547757536172866821e-01
1.009531244635581970e-01
-6.826687455177307129e-01
-2.914736568927764893e-01
1.871160864830017090e-01
1.054135635495185852e-01
5.200514197349548340e-01
-4.430490136146545410e-01
1.834759563207626343e-01
7.023500651121139526e-02
-2.973473072052001953e-01
9.769244492053985596e-02
-2.880514562129974365e-01
2.584030628204345703e-01
-9.827020019292831421e-02
9.065816998481750488e-01
-2.124423161149024963e-02
-1.368924602866172791e-02
-7.513789534568786621e-01
1.632339656352996826e-01
1.292468309402465820e-01
-7.808480411767959595e-02
1.656123548746109009e-01
2.335396260023117065e-01
-4.740872979164123535e-02
1.988999992609024048e-01
1.535265445709228516e-01
-4.886707663536071777e-01
-7.186090946197509766e-01
1.186521872878074646e-01
2.735618650913238525e-01
3.591115474700927734e-01
-4.415607154369354248e-01
2.416727095842361450e-01
-7.388711571693420410e-01
1.879872679710388184e-01
3.207218945026397705e-01
1.837377250194549561e-01
4.162881374359130859e-01
-1.379156261682510376e-01
-1.885137706995010376e-01
-1.051386967301368713e-01
2.254246473312377930e-01
-2.349641770124435425e-01
1.134880445897579193e-02
2.016090154647827148e-01
6.809949874877929688e-03
1.621244400739669800e-01
-1.523745507001876831e-01
4.081346690654754639e-01
1.944808363914489746e-01
7.594897598028182983e-02
1.360981762409210205e-01
9.834589064121246338e-02
-2.519011497497558594e-01
-1.031516313552856445e+00
3.086829185485839844e-01
3.518837094306945801e-01
-1.087768003344535828e-02
-4.299300257116556168e-03
-1.481055766344070435e-01
-3.758323192596435547e-01
3.507086932659149170e-01
3.218135833740234375e-01
-8.101727366447448730e-01
2.385927289724349976e-01
-4.884930551052093506e-01
-5.832287073135375977e-01
2.563183605670928955e-01
-5.293766781687736511e-02
2.036931365728378296e-01
4.936558753252029419e-02
-3.728530704975128174e-01
8.630270361900329590e-01
2.842240929603576660e-01
6.511839032173156738e-01
1.136877909302711487e-01
-1.163484305143356323e-01
2.603017985820770264e-01
-1.190450072288513184e+00
1.973625868558883667e-01
-1.525192111730575562e-01
2.846327126026153564e-01
-1.252677559852600098e+00
-6.950085759162902832e-01
-1.724408864974975586e-01
-1.293014883995056152e-01
5.356773138046264648e-01
-1.633535698056221008e-02
3.436227738857269287e-01
5.666800141334533691e-01
9.423422813415527344e-02
-3.759450316429138184e-01
-2.666297256946563721e-01
2.532514929771423340e-01
2.614465653896331787e-01
-7.090470194816589355e-02
1.560073792934417725e-01
6.996161341667175293e-01
4.885051771998405457e-02
1.374687161296606064e-02
-2.861977219581604004e-01
1.531677395105361938e-01
-5.758842825889587402e-01
-3.788481056690216064e-01
-1.078616604208946228e-01
1.161520481109619141e-01
-3.953950107097625732e-01
-6.179425120353698730e-01
2.986173331737518311e-01
-2.269305288791656494e-01
1.198157891631126404e-01
6.073908209800720215e-01
1.798604987561702728e-02
-6.238406896591186523e-01
-1.390471756458282471e-01
-1.171301081776618958e-01
-8.515590429306030273e-01
1.556926071643829346e-01
-3.648482495918869972e-03
-2.116939797997474670e-02
2.128567993640899658e-01
4.796144664287567139e-01
8.137892931699752808e-02
-1.855511516332626343e-01
3.591209352016448975e-01
-7.702041417360305786e-02
2.940159440040588379e-01
-3.631160408258438110e-02
-7.801296710968017578e-01
-5.466477870941162109e-01
-7.170727103948593140e-02
2.812001705169677734e-01
1.907801926136016846e-01
-2.107058614492416382e-01
4.121668636798858643e-02
-3.503594100475311279e-01
2.821722924709320068e-01
2.394385933876037598e-01
-1.602703332901000977e-01
1.982536017894744873e-01
-4.449537955224514008e-03
3.080977797508239746e-01
2.821463644504547119e-01
3.994745612144470215e-01
1.069603934884071350e-01
-5.788329988718032837e-02
4.552919864654541016e-01
1.229622736573219299e-01
-2.376753464341163635e-02
-4.428632557392120361e-01
1.561235487461090088e-01
3.102668225765228271e-01
4.186828434467315674e-01
-4.521233439445495605e-01
-4.018287956714630127e-01
-4.011183679103851318e-01
-1.114307120442390442e-01
-3.301132917404174805e-01
-4.859448671340942383e-01
-5.767931342124938965e-01
1.944481581449508667e-01
-2.145173102617263794e-01
8.113601207733154297e-01
-5.185975879430770874e-02
-3.481307327747344971e-01
-3.077362179756164551e-01
5.077098309993743896e-02
-2.384205311536788940e-01
1.538156419992446899e-01
1.900585442781448364e-01
9.404913336038589478e-02
-7.294876575469970703e-01
2.595298290252685547e-01
5.487080290913581848e-02
3.971042931079864502e-01
1.837362796068191528e-01
-4.327247142791748047e-01
-1.137129664421081543e+00
1.768641322851181030e-01
5.378977060317993164e-01
1.266823261976242065e-01
-5.345771908760070801e-01
7.125653624534606934e-01
-7.856723070144653320e-01
9.571358561515808105e-02
-1.808410435914993286e-01
1.292886286973953247e-01
-5.351649597287178040e-02
-9.959159791469573975e-02
-1.129915043711662292e-01
-1.276214234530925751e-02
1.719998121261596680e-01
-7.486534118652343750e-01
4.109856486320495605e-01
5.346602201461791992e-01
3.648977279663085938e-01
-3.545492589473724365e-01
-3.189505934715270996e-01
-2.683501839637756348e-01
2.806296348571777344e-01
8.981090784072875977e-02
-2.121773064136505127e-01
-2.672967873513698578e-02
1.182561144232749939e-01
2.913507819175720215e-01
4.172894656658172607e-01
-6.597346663475036621e-01
5.112810134887695312e-01
2.133099734783172607e-01
3.821241855621337891e-01
-1.243969518691301346e-02
1.427686363458633423e-01
8.092241734266281128e-02
2.715601623058319092e-01
-3.056010901927947998e-01
-1.105891987681388855e-01
2.034158855676651001e-01
-1.688116192817687988e-01
3.340397179126739502e-01
1.091907396912574768e-01
3.934411406517028809e-01
-7.890099287033081055e-01
3.046091496944427490e-01
2.552479505538940430e-01
9.234573692083358765e-02
2.889418601989746094e-01
3.824776113033294678e-01
-6.490121781826019287e-02
-3.462177217006683350e-01
-1.982390433549880981e-01
4.999242424964904785e-01
5.453781485557556152e-01
9.341908991336822510e-02
7.302587628364562988e-01
4.604392126202583313e-02
-4.920271635055541992e-01
-2.405531257390975952e-01
4.147513508796691895e-01
-2.351846098899841309e-01
-3.343850374221801758e-01
-6.334196925163269043e-01
4.666991233825683594e-01
-2.018160969018936157e-01
2.397869229316711426e-01
-1.049304194748401642e-02
-7.034617662429809570e-01
1.967685222625732422e-01
3.089682571589946747e-02
-2.486251592636108398e-01
-1.825203597545623779e-01
7.051001787185668945e-01
1.303538680076599121e-01
1.028412207961082458e-01
6.800070405006408691e-01
-1.789033561944961548e-01
-4.936986863613128662e-01
5.598232746124267578e-01
1.055458426475524902e+00
5.647394657135009766e-01
2.248492240905761719e-01
-4.053426086902618408e-01
2.396291196346282959e-01
-3.308828175067901611e-01
-9.009436964988708496e-01
7.067143917083740234e-01
2.765723466873168945e-01
1.392733156681060791e-01
-3.680974543094635010e-01
2.061508409678936005e-02
3.672676086425781250e-01
-1.678514480590820312e-01
2.851288616657257080e-01
1.552118360996246338e-01
9.682203829288482666e-02
-5.429165363311767578e-01
-5.937261581420898438e-01
9.445175528526306152e-02
-9.699267745018005371e-01
1.197583880275487900e-02
5.847867131233215332e-01
6.505422294139862061e-02
-7.629683613777160645e-02
1.771453619003295898e-01
-5.600318312644958496e-01
-7.900921702384948730e-01
-2.524875402450561523e-01
3.159101903438568115e-01
7.778908610343933105e-01
-6.378259062767028809e-01
5.204718112945556641e-01
-1.137880533933639526e-01
4.771060049533843994e-01
1.575300395488739014e-01
-1.595197170972824097e-01
2.771183550357818604e-01
-2.936228513717651367e-01
-5.167393945157527924e-03
5.483875051140785217e-02
1.987232863903045654e-01
6.575146317481994629e-02
6.683740019798278809e-01
1.705891825258731842e-02
-4.507863521575927734e-01
-6.241747736930847168e-02
1.947972923517227173e-01
2.628073394298553467e-01
-4.190587624907493591e-02
-5.409753918647766113e-01
-1.384394317865371704e-01
1.406753659248352051e-01
2.597384154796600342e-01
-3.703252971172332764e-01
8.336742222309112549e-02
-1.329159736633300781e-01
-2.197952754795551300e-02
2.531296610832214355e-01
-7.481583356857299805e-01
9.395330399274826050e-02
2.265967987477779388e-02
4.126967117190361023e-02
3.277051150798797607e-01
-4.180627465248107910e-01
-6.346896290779113770e-02
-1.173818260431289673e-01
1.253933310508728027e-01
3.891555964946746826e-01
-3.216101527214050293e-01
-4.715470671653747559e-01
3.857094049453735352e-01
-2.072586864233016968e-01
7.278668694198131561e-03
1.975141167640686035e-01
1.585733443498611450e-01
-3.083443343639373779e-01
-1.828153431415557861e-02
3.822780847549438477e-01
5.888684839010238647e-02
-1.290671378374099731e-01
-3.649199306964874268e-01
1.700383611023426056e-02
-4.491730332374572754e-01
-1.282908022403717041e-01
-4.472177624702453613e-01
4.379853978753089905e-02
2.533523142337799072e-01
1.369883120059967041e-01
2.797841727733612061e-01
-2.326053380966186523e-02
-8.194432258605957031e-01
-5.765610337257385254e-01
-3.680505454540252686e-01
-1.337909400463104248e-01
1.814895719289779663e-01
3.476954996585845947e-01
-8.375808596611022949e-01
9.835042059421539307e-03
2.587344646453857422e-01
-7.014215588569641113e-01
-2.387873083353042603e-01
4.170247018337249756e-01
8.564664050936698914e-03
-4.484795331954956055e-01
3.324831649661064148e-02
-1.653927713632583618e-01
6.366373039782047272e-03
-2.475136220455169678e-01
-8.659420907497406006e-02
2.083739191293716431e-01
5.602489709854125977e-01
2.904650568962097168e-02
-5.438360571861267090e-02
-6.079192161560058594e-01
3.374614119529724121e-01
-2.153760520741343498e-03
1.131604462862014771e-01
-7.112861275672912598e-01
1.528936177492141724e-01
-8.426766842603683472e-02
3.789139688014984131e-01
-2.718623541295528412e-02
2.428088188171386719e-01
-6.511448621749877930e-01
1.438153684139251709e-01
-6.801825761795043945e-01
4.182019233703613281e-01
2.795484364032745361e-01
-3.498271703720092773e-01
4.113627076148986816e-01
-9.508957862854003906e-01
3.716233372688293457e-01
-4.436848759651184082e-01
-9.753028303384780884e-02
-7.135084867477416992e-01
-5.303251147270202637e-01
4.691464304924011230e-01
2.887086570262908936e-01
1.696618199348449707e-01
1.517824679613113403e-01
-3.223764002323150635e-01
9.290888160467147827e-02
5.104386806488037109e-01
-1.814414933323860168e-02
4.856760799884796143e-01
-1.272665411233901978e-01
-1.182307958602905273e+00
-4.358239471912384033e-03
1.955941021442413330e-01
-1.328567564487457275e-01
-5.494995042681694031e-02
-1.432713307440280914e-02
1.638499498367309570e-01
4.138488322496414185e-02
-2.304535172879695892e-02
-4.468424320220947266e-01
2.892150282859802246e-01
9.400279074907302856e-02
2.151941508054733276e-01
2.577959299087524414e-01
3.271188586950302124e-02
1.992272436618804932e-01
2.054659426212310791e-01
3.941715657711029053e-01
3.771784603595733643e-01
-4.699931293725967407e-02
2.201275080442428589e-01
7.927113771438598633e-01
7.253296375274658203e-01
7.872714102268218994e-02
-5.452272295951843262e-01
3.991074562072753906e-01
-5.199697241187095642e-02
2.682651206851005554e-02
9.355496615171432495e-02
-6.952574253082275391e-01
-5.137692689895629883e-01
1.480460613965988159e-01
5.411671996116638184e-01
-1.446755528450012207e-01
-8.294230103492736816e-01
-3.257211744785308838e-01
-7.395704388618469238e-01
-2.196600437164306641e-01
-3.845696747303009033e-01
-6.702896952629089355e-01
1.578609943389892578e-01
-7.272190451622009277e-01
-1.350137405097484589e-02
1.845118999481201172e-01
-2.361308410763740540e-02
-6.069903448224067688e-02
1.874398142099380493e-01
-2.058397792279720306e-02
-1.081435799598693848e+00
6.022847257554531097e-03
-1.731462478637695312e-01
-1.087479591369628906e-01
3.531182929873466492e-02
4.076285362243652344e-01
3.429282605648040771e-01
5.981348156929016113e-01
-7.356783151626586914e-01
-5.941748619079589844e-03
-4.309215247631072998e-01
5.188494920730590820e-01
8.772944100201129913e-03
-1.765067726373672485e-01
4.059460163116455078e-01
3.903274536132812500e-01
6.088780611753463745e-02
-3.955753743648529053e-01
1.989926397800445557e-01
-9.979379922151565552e-02
3.943119347095489502e-01
1.483956873416900635e-01
9.640751406550407410e-03
2.607074379920959473e-01
1.676024347543716431e-01
-6.053453087806701660e-01
5.974491685628890991e-02
3.836088180541992188e-01
1.882969141006469727e-01
1.323031336069107056e-01
-1.014239311218261719e+00
-3.933217525482177734e-01
-7.979274392127990723e-01
6.899295002222061157e-02
3.134994208812713623e-01
1.456353366374969482e-01
-1.689579039812088013e-01
-3.049679100513458252e-01
1.514138132333755493e-01
-4.777949675917625427e-02
2.332222908735275269e-01
