-1.753752678632736206e-02
5.128090083599090576e-02
6.948797404766082764e-02
-7.455488294363021851e-02
9.761109948158264160e-03
4.672302305698394775e-02
4.261141270399093628e-02
-8.053281158208847046e-02
-7.409979403018951416e-02
3.399488329887390137e-02
-1.736676692962646484e-02
-4.412984475493431091e-02
-3.262291476130485535e-02
1.021478325128555298e-02
-2.544204145669937134e-02
3.160050511360168457e-02
4.864232242107391357e-02
-7.813233882188796997e-02
-6.072972714900970459e-02
-3.438765928149223328e-02
4.759356379508972168e-02
-3.498660027980804443e-02
2.395930141210556030e-02
5.473937094211578369e-02
-3.835272416472434998e-02
-1.226710528135299683e-02
7.982355356216430664e-02
-7.050599902868270874e-02
-3.036976978182792664e-02
-7.910560071468353271e-02
-4.750886186957359314e-02
-3.745665773749351501e-02
7.728473842144012451e-02
-3.162472695112228394e-02
5.998995900154113770e-02
-2.645462751388549805e-03
1.679433882236480713e-02
1.601501554250717163e-02
7.711951434612274170e-02
7.317008078098297119e-02
6.036002933979034424e-02
5.404257774353027344e-02
-3.322869166731834412e-02
3.102394938468933105e-02
3.635152429342269897e-02
4.126996546983718872e-02
-8.302383124828338623e-03
-3.451955318450927734e-02
6.643906235694885254e-04
7.521235942840576172e-02
2.990528196096420288e-02
1.325862109661102295e-02
-7.315178215503692627e-02
4.588204622268676758e-02
-7.841562479734420776e-02
-1.480410993099212646e-02
2.899893373250961304e-02
-7.882574945688247681e-02
4.351101815700531006e-03
5.686014890670776367e-02
-2.150853350758552551e-02
-1.969310641288757324e-02
-7.339134067296981812e-02
-1.998199522495269775e-02
7.842338085174560547e-02
-2.348396554589271545e-02
4.896752536296844482e-02
1.410406082868576050e-02
-2.913177013397216797e-04
2.705857157707214355e-02
2.868734300136566162e-03
-1.482946425676345825e-02
1.987591385841369629e-02
1.896075904369354248e-03
7.953119277954101562e-02
5.251346528530120850e-02
-6.912235915660858154e-02
-3.074792027473449707e-02
-8.084549754858016968e-02
3.865829110145568848e-02
6.805133819580078125e-02
-4.523496329784393311e-02
8.050806820392608643e-03
-3.962014615535736084e-02
1.773351430892944336e-02
6.901100277900695801e-04
-4.363001510500907898e-02
-1.097422093152999878e-02
3.685287386178970337e-02
8.590161800384521484e-03
4.656532406806945801e-02
-2.307340130209922791e-02
1.368808001279830933e-02
-1.385420560836791992e-02
6.412194669246673584e-02
6.411416828632354736e-02
1.851783692836761475e-02
4.328928887844085693e-03
-4.502891004085540771e-02
-6.099571287631988525e-02
6.919375061988830566e-02
7.749281823635101318e-03
-3.875911235809326172e-02
-7.805348932743072510e-02
-3.943009302020072937e-02
-1.176218688488006592e-02
1.910590380430221558e-02
5.032032728195190430e-03
6.516993045806884766e-03
-7.257223129272460938e-03
4.147000610828399658e-02
3.937880694866180420e-02
1.681596040725708008e-05
3.664821386337280273e-03
-3.516872227191925049e-02
5.053125321865081787e-02
-7.807929813861846924e-02
-3.383008018136024475e-02
-3.203068673610687256e-02
-2.840178459882736206e-02
2.106778323650360107e-02
-7.069304585456848145e-02
5.660611391067504883e-02
5.425950884819030762e-02
7.706826925277709961e-02
-5.267240852117538452e-02
-2.009288594126701355e-02
1.523320376873016357e-02
-3.886222839355468750e-02
6.075310707092285156e-02
-2.110300958156585693e-02
-2.694505453109741211e-02
1.453310251235961914e-02
-7.516185194253921509e-02
-3.175482153892517090e-03
7.315456867218017578e-02
-7.470595836639404297e-02
7.562153041362762451e-03
4.542000591754913330e-02
3.208704292774200439e-03
1.186843216419219971e-02
1.869232207536697388e-02
-5.230893567204475403e-02
-7.437944412231445312e-02
4.923389852046966553e-02
-6.353159248828887939e-02
7.801316678524017334e-03
7.748216390609741211e-02
-4.539658874273300171e-02
4.691183567047119141e-04
-4.341396316885948181e-02
-3.230588883161544800e-02
3.171672672033309937e-02
-6.129579246044158936e-02
-7.190646231174468994e-02
1.622536778450012207e-02
5.647169053554534912e-02
4.003622382879257202e-02
4.319012165069580078e-02
-1.282085478305816650e-02
-1.011297851800918579e-02
7.916799187660217285e-02
1.367820054292678833e-02
1.500356942415237427e-02
6.902240216732025146e-02
6.161963939666748047e-02
2.807755023241043091e-02
2.791278809309005737e-02
1.402087509632110596e-02
5.746737122535705566e-03
7.724817097187042236e-02
-4.546652361750602722e-02
1.538733392953872681e-02
2.764379233121871948e-02
-6.004311144351959229e-03
1.553159952163696289e-02
7.757298648357391357e-02
6.721667945384979248e-02
6.904880702495574951e-02
-7.425995916128158569e-02
-6.751116365194320679e-02
1.007854193449020386e-02
5.635581910610198975e-03
5.860653519630432129e-02
4.603365063667297363e-02
-5.443810671567916870e-02
-6.778936088085174561e-02
-6.692405045032501221e-02
7.740324735641479492e-02
-7.597111165523529053e-02
-2.548108249902725220e-02
2.677789330482482910e-02
4.209671914577484131e-02
2.937296032905578613e-02
-3.095358610153198242e-03
6.988117098808288574e-02
-4.012276977300643921e-02
2.853708714246749878e-02
-6.616879999637603760e-02
-4.058801755309104919e-02
7.024571299552917480e-02
-5.196118354797363281e-02
1.450766623020172119e-02
4.481051862239837646e-02
-7.497970759868621826e-02
6.434376537799835205e-02
-7.831867039203643799e-02
-7.499205321073532104e-02
3.406005352735519409e-02
1.715529710054397583e-02
7.495582103729248047e-03
5.468867719173431396e-02
3.253935277462005615e-02
-8.391022682189941406e-03
-5.221472680568695068e-02
-2.330431342124938965e-02
-3.703558072447776794e-02
3.584463894367218018e-02
1.603031903505325317e-02
6.143178045749664307e-02
-1.767442375421524048e-02
3.783464431762695312e-02
3.134371340274810791e-02
7.380545139312744141e-02
-9.004175662994384766e-04
2.504259347915649414e-03
-5.855238437652587891e-02
-7.950513064861297607e-02
3.296124935150146484e-02
4.349528253078460693e-02
7.250361144542694092e-02
7.165260612964630127e-02
3.334112465381622314e-02
6.927542388439178467e-03
5.737152695655822754e-02
-7.389967888593673706e-02
-2.985604852437973022e-02
2.059519290924072266e-03
1.072756946086883545e-03
-1.603090018033981323e-02
5.953636765480041504e-02
-4.160418361425399780e-02
-7.978726178407669067e-02
1.628284901380538940e-02
-4.957161843776702881e-03
-2.443304657936096191e-02
3.939405083656311035e-03
-7.546090334653854370e-02
-2.099138870835304260e-02
2.841477096080780029e-02
-2.454711496829986572e-02
1.644790172576904297e-02
8.498355746269226074e-04
7.445611059665679932e-02
-2.620739862322807312e-02
6.325687468051910400e-02
-5.607210099697113037e-02
6.924635171890258789e-02
5.300617218017578125e-02
-7.697217911481857300e-02
5.325593054294586182e-02
-2.151616290211677551e-02
3.405052423477172852e-02
-6.428784877061843872e-02
-1.887556165456771851e-02
-1.045488566160202026e-02
-2.312722429633140564e-02
-2.598059922456741333e-02
-5.074227601289749146e-02
1.882915198802947998e-02
2.931530028581619263e-02
4.357394576072692871e-02
-2.459055557847023010e-02
7.108633220195770264e-02
-2.928663790225982666e-02
3.341810405254364014e-02
-2.268024906516075134e-02
-5.406229943037033081e-02
-7.886469364166259766e-02
-6.687732040882110596e-02
-5.740433931350708008e-03
4.338489472866058350e-02
-6.345504522323608398e-02
1.277826726436614990e-03
4.077780246734619141e-02
6.739595532417297363e-02
2.546907961368560791e-02
-8.032372593879699707e-02
-1.343423128128051758e-02
7.461695373058319092e-02
6.071037054061889648e-02
7.469646632671356201e-02
3.020398318767547607e-03
-2.614416927099227905e-02
-7.441473752260208130e-02
5.755314230918884277e-02
-4.972886666655540466e-02
3.195717930793762207e-02
5.653014779090881348e-02
5.839340388774871826e-02
-6.147661805152893066e-02
5.086380243301391602e-02
8.111792802810668945e-02
-4.236242547631263733e-02
-4.615607485175132751e-02
7.896456122398376465e-02
3.298199176788330078e-02
-7.602511346340179443e-02
3.314025700092315674e-02
3.106828033924102783e-02
-1.914603263139724731e-02
1.080493628978729248e-02
-7.739293575286865234e-02
-6.476610898971557617e-03
3.895162791013717651e-02
-3.581758216023445129e-02
-5.584470927715301514e-03
-5.391820520162582397e-02
3.769312053918838501e-02
6.664438545703887939e-02
-2.129406481981277466e-02
3.662423044443130493e-02
2.452211081981658936e-02
-3.743107616901397705e-02
-1.360548287630081177e-02
-7.389216870069503784e-02
-3.084069862961769104e-02
7.803124189376831055e-02
3.790038079023361206e-02
-2.898725494742393494e-02
-3.138542175292968750e-03
-1.653314381837844849e-02
6.035971641540527344e-02
-3.983420506119728088e-02
-3.852805122733116150e-02
7.557033002376556396e-02
-4.474832490086555481e-02
-4.877068102359771729e-02
-4.974729195237159729e-02
7.293604314327239990e-02
5.349548161029815674e-02
-6.674370169639587402e-02
-3.012351691722869873e-03
1.065979152917861938e-02
1.688144356012344360e-02
-4.315594956278800964e-02
-1.567737013101577759e-02
4.942426085472106934e-02
6.643198430538177490e-02
4.922123253345489502e-02
-2.877458930015563965e-03
-7.035310566425323486e-02
-2.187550067901611328e-03
-2.419799566268920898e-02
6.731863319873809814e-02
5.704368650913238525e-02
2.110316604375839233e-02
-1.493135094642639160e-02
-1.391335576772689819e-02
-4.012062028050422668e-02
-4.387411847710609436e-02
-5.487150698900222778e-02
-4.616316035389900208e-02
-6.958121806383132935e-02
5.511626601219177246e-02
8.949987590312957764e-03
3.600355982780456543e-02
3.126837313175201416e-03
-7.761891186237335205e-02
-2.999287098646163940e-02
3.384030610322952271e-02
1.465050876140594482e-02
-2.079070359468460083e-02
3.060533851385116577e-02
4.487663507461547852e-03
-3.635429218411445618e-02
-1.219003647565841675e-02
-3.003488108515739441e-02
-3.103030845522880554e-02
-4.719401523470878601e-02
-1.625437289476394653e-02
6.906870007514953613e-02
-8.021751046180725098e-02
5.818361043930053711e-02
7.814508676528930664e-02
4.160634428262710571e-02
-5.898810178041458130e-02
-2.201181650161743164e-02
2.895467728376388550e-02
7.843734323978424072e-02
7.373389601707458496e-02
3.780643641948699951e-02
-5.894137918949127197e-02
1.250877976417541504e-02
3.144879639148712158e-02
-4.127886518836021423e-02
-7.016290724277496338e-02
3.280106186866760254e-02
-5.156721919775009155e-02
-3.718317672610282898e-02
5.955792963504791260e-02
-7.085590809583663940e-02
2.219079434871673584e-02
3.087374567985534668e-02
6.255741417407989502e-02
-4.305071383714675903e-02
1.257647573947906494e-02
-6.095443293452262878e-02
-4.545021057128906250e-02
-7.138292491436004639e-02
7.048152387142181396e-02
-7.390724122524261475e-02
-6.113395094871520996e-03
6.420643627643585205e-02
7.529340684413909912e-03
-1.176113635301589966e-02
-7.902400195598602295e-02
4.695017635822296143e-02
-8.660644292831420898e-03
-6.963962316513061523e-02
-8.015869557857513428e-02
7.470849156379699707e-02
2.640642225742340088e-03
-7.127216458320617676e-02
-2.077274397015571594e-02
-8.813366293907165527e-04
1.050790399312973022e-02
3.664237260818481445e-02
-3.302160277962684631e-02
-4.563605040311813354e-02
-8.114740252494812012e-03
6.826871633529663086e-02
-7.500247657299041748e-02
-5.863718315958976746e-02
3.763168305158615112e-02
3.867987543344497681e-02
2.650590240955352783e-02
5.641096830368041992e-02
6.389270722866058350e-02
-5.428200215101242065e-02
-8.108978718519210815e-02
-6.114164367318153381e-02
4.790517687797546387e-02
-8.159518241882324219e-02
1.611848175525665283e-02
-5.049576982855796814e-02
-3.596518933773040771e-02
-4.023765400052070618e-02
-6.626872718334197998e-02
-3.602787107229232788e-02
5.368816852569580078e-02
-4.380717128515243530e-02
4.100976139307022095e-02
-7.927156984806060791e-02
6.925672292709350586e-02
-4.876983538269996643e-02
-4.319372400641441345e-02
-7.396392524242401123e-02
-4.476416110992431641e-02
-2.245351672172546387e-02
-2.015257254242897034e-02
4.162132740020751953e-02
-5.916318297386169434e-02
3.871364891529083252e-02
1.770433038473129272e-02
1.530408859252929688e-03
2.020857483148574829e-02
-3.759357705712318420e-02
2.900533378124237061e-02
-2.888069674372673035e-02
-1.002415269613265991e-02
-1.202912628650665283e-02
-6.193845719099044800e-02
-5.959083884954452515e-02
-7.249755412340164185e-02
-6.939929723739624023e-02
-7.044900953769683838e-02
-1.898710429668426514e-02
-4.631692916154861450e-02
-1.355519890785217285e-02
-5.896898359060287476e-02
-4.220881313085556030e-02
-2.394621446728706360e-02
-5.311450362205505371e-02
3.449080139398574829e-02
-6.546746194362640381e-02
-2.057058364152908325e-02
-3.370646387338638306e-02
2.313467860221862793e-02
-8.157983422279357910e-02
-7.395889610052108765e-02
-2.278570085763931274e-02
-2.769530564546585083e-02
-2.469238638877868652e-02
2.731803804636001587e-02
5.866327881813049316e-02
-4.047513008117675781e-02
-2.873554825782775879e-03
-5.754975974559783936e-02
-3.359276801347732544e-02
6.711469590663909912e-02
2.665457874536514282e-02
3.671856969594955444e-02
6.228546798229217529e-02
-5.697572976350784302e-02
3.700684756040573120e-02
7.253526151180267334e-02
5.862322449684143066e-02
1.586879044771194458e-02
-5.189598724246025085e-02
-5.064818263053894043e-02
-5.983197689056396484e-02
1.388602703809738159e-02
5.441404879093170166e-02
-7.278997451066970825e-02
2.463143318891525269e-02
4.779970645904541016e-02
-7.434955239295959473e-02
-8.155861496925354004e-02
-6.281137466430664062e-04
-8.128883689641952515e-02
-2.097398415207862854e-02
-8.062124252319335938e-02
-3.266117721796035767e-02
7.494908571243286133e-02
1.838842034339904785e-02
3.648896515369415283e-02
2.205086499452590942e-02
-5.124971270561218262e-03
2.342636138200759888e-02
5.959498882293701172e-02
4.527628421783447266e-03
7.292982935905456543e-02
-5.438403040170669556e-02
5.910356342792510986e-02
1.630068570375442505e-02
-3.498423844575881958e-02
6.213246285915374756e-02
-4.469878971576690674e-03
1.695709675550460815e-02
1.553220301866531372e-02
3.713519126176834106e-02
1.434233039617538452e-02
-2.126858383417129517e-02
7.890297472476959229e-02
-2.559360116720199585e-02
-4.948325082659721375e-02
-6.110169738531112671e-02
-4.748119041323661804e-02
4.747614264488220215e-03
-6.496934592723846436e-02
4.029845446348190308e-02
-7.662276923656463623e-02
1.491187512874603271e-02
5.902034044265747070e-02
2.293176203966140747e-02
-2.658978477120399475e-02
7.222205400466918945e-02
-5.876578018069267273e-02
4.437740147113800049e-02
-1.637264341115951538e-02
4.658454656600952148e-02
-8.262850344181060791e-03
6.281870603561401367e-02
3.012757003307342529e-02
-8.836984634399414062e-03
7.209625840187072754e-02
-4.935954138636589050e-02
7.195825874805450439e-02
-7.335430383682250977e-02
1.910225301980972290e-02
6.939297914505004883e-02
6.561999022960662842e-02
2.398639172315597534e-02
4.873928427696228027e-02
3.708624839782714844e-02
-1.512125879526138306e-02
-4.419170320034027100e-03
6.395918130874633789e-02
5.302077531814575195e-02
3.868486732244491577e-02
-7.535254955291748047e-02
-7.512763142585754395e-02
-5.948408693075180054e-02
3.358870744705200195e-02
-7.537970691919326782e-02
-6.058228760957717896e-02
-4.782704636454582214e-02
1.158800721168518066e-02
7.291488349437713623e-02
1.810595393180847168e-03
2.947704493999481201e-02
-1.460061967372894287e-02
-1.921286061406135559e-02
-1.787202805280685425e-02
4.469768702983856201e-02
-1.229487359523773193e-03
7.572509348392486572e-02
4.514436423778533936e-02
2.034849673509597778e-02
-6.890509277582168579e-02
5.350960791110992432e-02
-6.825409829616546631e-03
4.859045147895812988e-03
-7.850090414285659790e-02
6.555084884166717529e-02
5.035120248794555664e-02
-3.288917243480682373e-02
7.904422283172607422e-02
-3.253832086920738220e-02
3.858140110969543457e-02
7.991541922092437744e-02
-4.846524447202682495e-02
-6.629659235477447510e-02
-5.992948636412620544e-02
-2.457217872142791748e-02
6.897543370723724365e-02
5.982035398483276367e-02
-6.777783483266830444e-02
5.650997161865234375e-02
4.626245796680450439e-02
-5.943211913108825684e-02
-7.412312924861907959e-02
7.920801639556884766e-02
4.021407663822174072e-02
2.866253256797790527e-02
-1.463419198989868164e-02
3.419997543096542358e-02
5.148553848266601562e-02
5.772568285465240479e-02
-7.337783277034759521e-02
4.493661224842071533e-02
-6.944800168275833130e-02
4.749190807342529297e-02
7.073432207107543945e-04
-3.117533400654792786e-02
5.273999273777008057e-02
2.552191168069839478e-02
-6.424412876367568970e-02
3.649920225143432617e-03
-7.871650159358978271e-02
7.618354260921478271e-02
-6.266191601753234863e-02
-4.600245505571365356e-02
-3.713735193014144897e-02
2.406342327594757080e-02
3.575712442398071289e-03
-1.851460337638854980e-02
-6.466624140739440918e-02
2.978768199682235718e-02
2.914022654294967651e-02
1.570916920900344849e-02
2.039592713117599487e-02
2.799130976200103760e-02
5.881369113922119141e-02
6.260456144809722900e-02
2.373289316892623901e-02
-7.006661593914031982e-02
6.396487355232238770e-03
6.651099026203155518e-02
-2.986981347203254700e-02
3.206460922956466675e-02
4.656986892223358154e-02
-4.174503684043884277e-02
6.039415299892425537e-02
4.016834497451782227e-02
3.807588666677474976e-02
1.544239372014999390e-02
-2.871834114193916321e-02
7.257606089115142822e-02
-6.145862489938735962e-02
3.178653120994567871e-02
2.440930902957916260e-02
-2.487253025174140930e-02
-7.529281079769134521e-03
-1.614696532487869263e-02
5.143840610980987549e-02
-4.103361070156097412e-02
4.305663704872131348e-02
3.115384280681610107e-02
-1.715269684791564941e-02
5.502037703990936279e-03
7.103380560874938965e-02
-4.733761399984359741e-02
-5.489969253540039062e-02
7.860870659351348877e-02
-3.740966320037841797e-03
-6.069072335958480835e-02
-7.643911242485046387e-02
-5.361806601285934448e-02
-5.763503164052963257e-02
1.294410228729248047e-02
3.845931589603424072e-02
2.685829252004623413e-02
6.322632730007171631e-02
1.664180308580398560e-02
-4.230203106999397278e-02
2.546774595975875854e-02
-8.897095918655395508e-03
5.494096875190734863e-02
7.268033921718597412e-02
-3.429360687732696533e-03
1.578244566917419434e-02
-4.625356569886207581e-02
7.913835346698760986e-02
-6.918923556804656982e-02
-2.056775987148284912e-02
-7.407554984092712402e-02
-1.900724321603775024e-02
-6.241649389266967773e-03
-6.217639148235321045e-02
-7.078301161527633667e-02
1.432400941848754883e-02
4.278170317411422729e-02
3.374444693326950073e-02
6.167499721050262451e-02
-8.556336164474487305e-03
-4.870470613241195679e-02
2.208293229341506958e-02
5.008755624294281006e-02
6.029075384140014648e-02
-1.938769221305847168e-02
-6.293091177940368652e-02
1.699312776327133179e-02
1.599814742803573608e-02
-2.128891646862030029e-02
-7.511501759290695190e-02
-5.014423653483390808e-02
8.148105442523956299e-02
-7.789969444274902344e-03
-2.944495156407356262e-02
6.296674907207489014e-02
-7.199908792972564697e-02
2.602308988571166992e-03
7.193008065223693848e-02
6.806498765945434570e-02
-9.176082909107208252e-03
-6.242275238037109375e-02
1.997777074575424194e-02
3.101945668458938599e-02
6.234708428382873535e-02
1.754657179117202759e-02
1.598147302865982056e-02
9.459599852561950684e-03
-7.978363335132598877e-02
7.239398360252380371e-02
-3.517246991395950317e-02
-4.984827339649200439e-02
-3.737959638237953186e-02
-7.193865627050399780e-02
-6.842359900474548340e-02
-2.832787856459617615e-02
-5.410004407167434692e-02
-4.713542759418487549e-03
5.660030245780944824e-02
-4.420265182852745056e-02
-4.658470675349235535e-02
5.718207359313964844e-02
3.348325192928314209e-02
3.811077773571014404e-02
-6.157720461487770081e-02
2.254099398851394653e-02
6.840445101261138916e-03
4.358322918415069580e-02
1.541636139154434204e-02
5.160433053970336914e-02
1.045713573694229126e-02
4.758705198764801025e-02
-3.661210834980010986e-02
3.892572969198226929e-02
2.241230756044387817e-02
6.236957013607025146e-02
-6.711582839488983154e-02
-4.666618257761001587e-02
-3.601863607764244080e-02
-5.626178532838821411e-02
-4.096657037734985352e-03
1.605223119258880615e-02
5.569916963577270508e-02
5.340099334716796875e-02
-9.457603096961975098e-03
1.725668460130691528e-02
1.236504316329956055e-02
9.484484791755676270e-03
6.212091445922851562e-02
6.935916841030120850e-02
-6.019670516252517700e-02
4.853342473506927490e-02
-2.181269973516464233e-02
5.233216285705566406e-02
-1.862691342830657959e-02
-8.098768442869186401e-02
-5.966921523213386536e-02
-7.567042112350463867e-02
7.363425195217132568e-02
-3.874331712722778320e-03
-7.190336287021636963e-02
4.946964979171752930e-02
3.876295685768127441e-02
-7.535988837480545044e-02
-4.462100565433502197e-03
6.481291353702545166e-02
3.676936030387878418e-03
-2.058826014399528503e-02
4.083432257175445557e-02
-4.876894876360893250e-02
-5.261705815792083740e-02
2.200073748826980591e-02
4.679918289184570312e-02
-3.708316758275032043e-02
-2.075577154755592346e-02
-2.429594472050666809e-02
-1.788537204265594482e-02
-7.262840867042541504e-02
5.014291405677795410e-02
-3.095793724060058594e-02
2.065747976303100586e-04
-4.563045129179954529e-02
-7.791002839803695679e-02
-1.033076643943786621e-02
-1.683568954467773438e-02
-7.194717228412628174e-02
3.586332499980926514e-02
-4.686924070119857788e-02
-2.105621993541717529e-02
1.608020812273025513e-02
-7.242634147405624390e-02
-6.053596735000610352e-04
1.761391013860702515e-02
-5.916263908147811890e-02
-1.660789549350738525e-02
-3.617715090513229370e-02
-4.103000089526176453e-02
5.015058815479278564e-02
4.131613671779632568e-02
5.883446335792541504e-02
-6.422489881515502930e-02
4.185019433498382568e-02
-5.122218281030654907e-02
2.235861867666244507e-02
1.912983506917953491e-02
-6.597058475017547607e-02
-1.442210376262664795e-02
3.959381580352783203e-02
2.152782678604125977e-02
3.374594449996948242e-02
5.782343447208404541e-02
-5.005269497632980347e-02
-2.681256085634231567e-02
-7.427952438592910767e-02
2.760814875364303589e-02
1.326867192983627319e-02
-3.371013328433036804e-02
7.412825524806976318e-02
-3.863431885838508606e-02
-5.039259791374206543e-03
-3.378977254033088684e-02
-4.301505908370018005e-02
-2.019812539219856262e-02
5.808058381080627441e-02
7.946550846099853516e-03
-6.978403776884078979e-02
6.115907430648803711e-02
-5.157135426998138428e-03
8.917458355426788330e-03
2.857092767953872681e-02
1.599505543708801270e-03
2.436496317386627197e-02
-5.588041990995407104e-02
-5.578842014074325562e-02
1.582480967044830322e-02
2.311348170042037964e-02
7.888126373291015625e-02
4.635563492774963379e-02
-6.927230954170227051e-02
-7.353365421295166016e-02
7.098037004470825195e-02
-4.789726436138153076e-02
-5.506234616041183472e-02
-5.067067593336105347e-02
-6.404006481170654297e-02
6.163530051708221436e-02
-2.685102075338363647e-02
5.595430731773376465e-03
-7.524548470973968506e-02
-6.062635779380798340e-02
-6.967904418706893921e-02
1.469908654689788818e-02
-5.617589876055717468e-02
7.133568823337554932e-02
-2.271249517798423767e-02
-5.970257148146629333e-02
-4.921521618962287903e-02
-4.192486405372619629e-03
2.290341258049011230e-02
-3.883838653564453125e-03
6.320358812808990479e-02
4.430139064788818359e-02
5.293652415275573730e-02
-3.580620139837265015e-02
6.667385995388031006e-02
4.630637168884277344e-02
-1.278801262378692627e-02
-6.580889225006103516e-03
-6.353718787431716919e-02
-6.119600683450698853e-02
-6.770119816064834595e-02
-1.805068552494049072e-02
-7.225081324577331543e-02
2.428015321493148804e-02
-6.315782666206359863e-02
-1.235350966453552246e-03
5.234682559967041016e-02
-5.712232738733291626e-02
4.478499293327331543e-02
-2.545120939612388611e-02
-7.495748996734619141e-02
4.909366369247436523e-02
4.089859127998352051e-02
5.053617060184478760e-03
3.967621922492980957e-02
2.119413018226623535e-02
-8.130401372909545898e-03
2.042293548583984375e-02
-3.693828359246253967e-02
-4.279393702745437622e-02
-6.452817469835281372e-02
-3.121675178408622742e-02
2.748446166515350342e-02
2.525433897972106934e-03
6.253208220005035400e-02
-1.280219107866287231e-02
5.091539025306701660e-02
1.203580200672149658e-02
-1.988976076245307922e-02
4.830139875411987305e-02
2.492998540401458740e-02
2.294082194566726685e-02
-5.300841480493545532e-02
1.333791762590408325e-02
-3.557348623871803284e-02
5.472049117088317871e-02
-2.165557444095611572e-02
3.337300568819046021e-02
-1.557858288288116455e-02
-4.595173150300979614e-02
1.053155958652496338e-02
-3.055503591895103455e-02
3.264784812927246094e-02
-1.461435854434967041e-02
-4.063069820404052734e-02
2.311611175537109375e-02
-6.599955260753631592e-03
-1.117728650569915771e-03
-7.623716443777084351e-02
-8.068823814392089844e-02
-1.737343519926071167e-02
-6.200030446052551270e-03
5.492274463176727295e-02
4.426915943622589111e-02
4.159680753946304321e-02
3.499820083379745483e-02
6.412479281425476074e-02
-2.223982289433479309e-02
-5.016723647713661194e-02
2.385698258876800537e-03
6.390333175659179688e-02
-7.571027427911758423e-02
7.712721824645996094e-03
-2.746131271123886108e-02
3.468419611454010010e-02
-1.774955540895462036e-02
-5.051986128091812134e-02
-4.247866943478584290e-02
3.388816118240356445e-02
4.008254408836364746e-02
-3.226045146584510803e-02
-5.032296106219291687e-02
-6.056430935859680176e-02
-5.018083378672599792e-02
-2.660769224166870117e-02
-3.087371587753295898e-02
-3.777968883514404297e-02
-4.771494865417480469e-02
-2.129512652754783630e-02
3.619714826345443726e-02
3.860659152269363403e-02
-3.375762328505516052e-02
3.931408375501632690e-02
-2.964013442397117615e-02
7.383920252323150635e-03
-3.875588998198509216e-02
5.984136462211608887e-02
-1.306913793087005615e-03
-2.868806198239326477e-02
8.131164312362670898e-02
-6.713993847370147705e-03
5.609765648841857910e-04
2.276507765054702759e-02
3.324008733034133911e-02
-5.645810812711715698e-02
2.304445207118988037e-02
-4.397506266832351685e-02
-2.871536463499069214e-02
3.815773129463195801e-02
-5.357652530074119568e-02
-1.316599547863006592e-02
-6.641662865877151489e-02
-3.130175173282623291e-02
-2.093776687979698181e-02
-6.279846280813217163e-02
-1.769448816776275635e-02
-4.555344581604003906e-03
-4.433388635516166687e-02
-1.944488659501075745e-02
-5.365382879972457886e-02
8.841380476951599121e-03
-2.624694630503654480e-02
5.237428843975067139e-02
4.962490499019622803e-02
-7.853802293539047241e-02
1.188234984874725342e-02
-1.888915151357650757e-02
-7.127808034420013428e-02
7.496501505374908447e-02
-1.180507242679595947e-02
3.382484614849090576e-02
2.186948806047439575e-02
-4.436083137989044189e-03
-6.787241250276565552e-02
-3.953842446208000183e-02
1.110012084245681763e-02
5.280619859695434570e-02
2.452771365642547607e-02
-2.013238519430160522e-02
-6.061807274818420410e-03
-6.046669930219650269e-02
6.146642565727233887e-02
-6.667782366275787354e-02
2.745984494686126709e-02
2.975225448608398438e-03
1.758126914501190186e-02
-1.805922389030456543e-02
3.316094726324081421e-02
-4.926730692386627197e-02
4.585923254489898682e-02
3.799057006835937500e-02
-4.824121296405792236e-02
-2.957474440336227417e-02
4.316017776727676392e-02
4.935859143733978271e-02
1.959303021430969238e-02
7.082402706146240234e-02
-1.838792860507965088e-02
-5.092955753207206726e-02
-2.181462943553924561e-02
-6.312318891286849976e-02
-6.019508838653564453e-02
5.542793869972229004e-02
5.378158390522003174e-02
-3.821383789181709290e-02
2.720542252063751221e-03
-1.912362873554229736e-02
3.901249170303344727e-02
1.839344203472137451e-02
8.344799280166625977e-03
-6.390896439552307129e-02
-6.174486130475997925e-02
-6.763598322868347168e-02
3.127890825271606445e-02
7.454030215740203857e-02
-6.914866715669631958e-02
-3.356274217367172241e-02
-2.736460044980049133e-02
-1.909273117780685425e-02
-4.969231784343719482e-02
-3.945917636156082153e-02
-7.580352574586868286e-02
-2.907435223460197449e-02
6.975501775741577148e-02
-7.907541841268539429e-02
3.923763334751129150e-02
6.466275453567504883e-02
4.783122241497039795e-02
3.281332552433013916e-02
2.893716096878051758e-03
1.155423372983932495e-02
4.817564785480499268e-02
4.606840014457702637e-02
3.732386976480484009e-02
4.156596958637237549e-02
-5.462023615837097168e-02
3.377230465412139893e-02
-4.314141720533370972e-02
3.133396059274673462e-02
-4.375202208757400513e-02
5.403822660446166992e-02
3.617444634437561035e-02
7.886353135108947754e-02
6.384597718715667725e-02
-5.089963972568511963e-02
-1.294374465942382812e-02
-1.918167620897293091e-02
1.051162183284759521e-02
3.125042468309402466e-02
4.646730422973632812e-02
1.989558339118957520e-02
7.417173683643341064e-02
-7.949729263782501221e-02
-1.259285956621170044e-02
3.725059330463409424e-03
-6.791673600673675537e-02
-2.811327576637268066e-02
2.833308279514312744e-02
-4.850639030337333679e-02
6.566816568374633789e-02
8.820384740829467773e-03
-1.182630658149719238e-04
3.526744991540908813e-02
3.100133687257766724e-02
-2.894866466522216797e-02
1.336546242237091064e-02
6.319652497768402100e-02
6.815832853317260742e-02
-6.907587498426437378e-02
-7.779869437217712402e-02
4.451194405555725098e-02
5.387033522129058838e-02
-3.492842614650726318e-02
2.093738317489624023e-02
3.807417303323745728e-02
-7.743360102176666260e-02
-3.244940564036369324e-02
-2.058159187436103821e-02
4.905945062637329102e-02
-2.261057496070861816e-03
7.640996575355529785e-02
5.053426325321197510e-02
-3.637656196951866150e-02
-3.734531626105308533e-02
2.247364819049835205e-02
-6.897684186697006226e-02
2.956494688987731934e-02
7.749342918395996094e-02
2.272449433803558350e-03
-4.158582538366317749e-02
3.989603370428085327e-02
-6.290542334318161011e-02
-7.679987698793411255e-02
6.728065013885498047e-02
-9.925581514835357666e-03
6.713789701461791992e-02
-4.634913802146911621e-02
2.403493225574493408e-02
3.602002561092376709e-02
7.777917385101318359e-02
7.927432656288146973e-02
6.156563758850097656e-04
5.168285965919494629e-02
3.280261158943176270e-02
7.309995591640472412e-02
-4.995388165116310120e-02
7.053111493587493896e-02
1.067790389060974121e-02
-1.909964531660079956e-02
-1.882003247737884521e-02
3.923267126083374023e-02
-1.737417280673980713e-02
-5.544693395495414734e-02
-6.241409108042716980e-02
7.193097472190856934e-02
-2.381461858749389648e-02
5.010128021240234375e-02
4.928761720657348633e-02
6.218339502811431885e-02
-3.615716099739074707e-02
-7.242484390735626221e-02
-4.734230414032936096e-02
-4.306961596012115479e-02
-6.552445888519287109e-02
1.372270286083221436e-03
-4.506637156009674072e-02
-1.548230648040771484e-03
-4.835569858551025391e-02
2.627831697463989258e-02
5.610428750514984131e-03
4.369665682315826416e-02
2.704826742410659790e-02
1.185641437768936157e-02
2.808243036270141602e-02
5.295796692371368408e-02
3.726842999458312988e-02
5.140009522438049316e-02
2.904990315437316895e-02
-4.136987030506134033e-02
2.545729279518127441e-02
6.269285082817077637e-02
-2.299239858984947205e-02
-6.079764664173126221e-02
-4.429906606674194336e-03
3.502339124679565430e-03
-6.560906767845153809e-04
2.056121826171875000e-03
1.218355447053909302e-02
-7.461830973625183105e-02
2.834498882293701172e-04
6.796097755432128906e-02
2.983919531106948853e-02
3.888360410928726196e-02
1.541872322559356689e-02
-6.280452013015747070e-03
-5.994156748056411743e-02
8.133165538311004639e-02
6.646752357482910156e-03
-5.479982867836952209e-02
-6.451285630464553833e-02
6.810246407985687256e-02
-6.671489030122756958e-02
-1.876860857009887695e-03
-7.615724951028823853e-02
-4.176354780793190002e-02
9.158141911029815674e-03
-3.723102807998657227e-02
-3.610703349113464355e-02
-4.277862608432769775e-02
-5.675452202558517456e-02
-4.164467379450798035e-02
-4.843231663107872009e-02
2.562547475099563599e-02
6.264950335025787354e-02
-3.835179656744003296e-02
-5.039147660136222839e-02
-1.826889812946319580e-02
-1.788327097892761230e-02
-7.882658392190933228e-02
-5.942856520414352417e-02
-4.495847970247268677e-02
7.894645631313323975e-02
-1.498159021139144897e-02
-5.492036789655685425e-02
-2.333961799740791321e-02
6.071060895919799805e-03
2.415466308593750000e-02
-6.273543089628219604e-02
5.004747211933135986e-02
-5.061267688870429993e-02
4.355412721633911133e-02
-6.343328952789306641e-02
-7.466962933540344238e-02
1.234431564807891846e-02
6.871174275875091553e-02
6.760650873184204102e-02
-6.044515222311019897e-02
-2.735508233308792114e-02
4.763755202293395996e-02
3.200466930866241455e-02
9.374096989631652832e-03
-7.492888718843460083e-02
7.300347089767456055e-02
-7.335585355758666992e-02
1.426094025373458862e-02
3.929726779460906982e-02
-8.136433362960815430e-02
5.620001256465911865e-02
-4.257325083017349243e-02
3.066639602184295654e-02
-8.023552596569061279e-02
-8.026314526796340942e-02
-3.320011496543884277e-02
5.275472998619079590e-03
4.671226441860198975e-02
-3.675474226474761963e-02
1.116503775119781494e-02
-1.002073287963867188e-03
1.204869151115417480e-02
2.095834165811538696e-02
6.768535077571868896e-02
-4.808941110968589783e-02
-3.271948918700218201e-02
-1.703955233097076416e-02
2.027203142642974854e-02
3.499829024076461792e-02
3.322515636682510376e-02
-4.854642227292060852e-02
3.246916830539703369e-02
-7.846461236476898193e-02
-7.699474692344665527e-03
2.882060408592224121e-02
-4.087647423148155212e-02
6.427137553691864014e-02
-5.965301766991615295e-02
-5.449260398745536804e-02
-5.452903732657432556e-02
-1.079320907592773438e-02
-6.348188221454620361e-02
6.477215886116027832e-02
7.411344349384307861e-02
-3.050757572054862976e-02
-7.368637621402740479e-02
6.896108388900756836e-04
-7.172822952270507812e-03
5.906817317008972168e-02
5.750127136707305908e-02
5.855116248130798340e-02
-7.218986749649047852e-03
-1.912023872137069702e-02
9.454585611820220947e-03
-6.063640117645263672e-02
4.441736638545989990e-02
-5.438992753624916077e-02
5.101601779460906982e-02
-6.991402804851531982e-02
3.789290785789489746e-02
2.490825951099395752e-02
-7.095398008823394775e-02
-1.488070935010910034e-02
-1.523266732692718506e-02
-8.035247772932052612e-02
6.742793321609497070e-02
3.482622653245925903e-02
-3.513601794838905334e-02
-7.622718811035156250e-02
-6.232708692550659180e-02
1.001629233360290527e-02
-7.669844478368759155e-02
-1.327521353960037231e-02
-2.507773041725158691e-02
7.784633338451385498e-02
7.681858539581298828e-02
2.237406373023986816e-02
6.321834027767181396e-02
-3.156537935137748718e-02
-7.999075204133987427e-02
-3.621279448270797729e-02
7.338453829288482666e-02
-5.154001712799072266e-02
7.062675058841705322e-02
-1.691105961799621582e-02
2.891846746206283569e-02
2.685791999101638794e-02
2.444729208946228027e-03
-5.960529297590255737e-02
2.799973636865615845e-02
4.373748600482940674e-02
7.931292057037353516e-03
3.242162615060806274e-02
4.160847514867782593e-02
2.634595334529876709e-02
6.371353566646575928e-02
4.485997557640075684e-02
-3.419703990221023560e-02
3.830120712518692017e-02
-2.475876733660697937e-02
1.738467812538146973e-02
5.381880700588226318e-02
-1.974746957421302795e-02
-4.439738765358924866e-02
-2.415485680103302002e-02
1.314811408519744873e-02
-6.963273882865905762e-02
-1.578710973262786865e-03
-2.160349115729331970e-02
3.424059599637985229e-02
3.861212730407714844e-02
-5.705947428941726685e-02
5.170199275016784668e-02
-7.469131052494049072e-02
-2.409158274531364441e-02
-1.018110662698745728e-02
3.901356458663940430e-02
-1.789553463459014893e-02
1.730598509311676025e-03
2.342983335256576538e-02
-7.387322932481765747e-02
-5.929707735776901245e-02
4.420995712280273438e-02
4.273500293493270874e-02
-1.271593570709228516e-02
-2.680681645870208740e-03
-7.262041419744491577e-02
4.549010097980499268e-02
6.625513732433319092e-02
7.704260945320129395e-02
1.844092458486557007e-02
-2.745912224054336548e-02
-7.628947496414184570e-04
-4.760576784610748291e-02
2.511956542730331421e-02
-1.791927963495254517e-02
1.352619379758834839e-02
-6.652448326349258423e-02
2.510427683591842651e-02
7.543157041072845459e-02
5.132257938385009766e-03
5.185568332672119141e-02
-8.080862462520599365e-02
1.505114883184432983e-02
4.374711215496063232e-02
2.697138488292694092e-02
1.720515638589859009e-02
3.346330672502517700e-02
2.818246185779571533e-02
-2.123232930898666382e-02
-3.761632367968559265e-02
6.266754865646362305e-02
-4.971027374267578125e-05
-1.934617757797241211e-04
-1.153821498155593872e-02
7.116039097309112549e-02
-1.091747730970382690e-02
-5.661971122026443481e-02
-3.238248825073242188e-02
6.615266203880310059e-02
7.802800834178924561e-02
7.181131839752197266e-02
-3.175367414951324463e-02
4.100009799003601074e-02
-7.418213039636611938e-02
7.874563336372375488e-03
2.676758170127868652e-02
-4.642939940094947815e-02
4.018194973468780518e-02
7.533596456050872803e-02
-7.897052168846130371e-02
2.588863670825958252e-02
-3.132164850831031799e-02
-3.735734522342681885e-02
1.440666615962982178e-03
-3.260304033756256104e-02
1.073089987039566040e-02
-6.316673755645751953e-02
4.429998993873596191e-02
-2.452551573514938354e-02
2.218076586723327637e-02
3.650107234716415405e-02
-7.992036640644073486e-03
-7.745325565338134766e-02
1.824462413787841797e-02
6.417796015739440918e-03
-2.335421741008758545e-02
4.120320081710815430e-04
-3.850249201059341431e-02
-5.546811223030090332e-02
6.794688105583190918e-02
7.955697178840637207e-02
-3.405945748090744019e-02
6.343112885951995850e-02
6.722867488861083984e-02
-4.716470837593078613e-02
-3.618638962507247925e-02
-2.111586555838584900e-02
2.234448492527008057e-02
5.504366755485534668e-02
1.630969345569610596e-02
-4.814364016056060791e-03
5.519860982894897461e-02
2.687910944223403931e-02
-4.400924965739250183e-02
-7.708259671926498413e-02
5.348397791385650635e-02
-6.600414961576461792e-02
-6.401929259300231934e-02
-7.152429223060607910e-02
9.647868573665618896e-03
1.033116132020950317e-02
5.690720677375793457e-02
7.312105596065521240e-02
1.082643866539001465e-02
1.234793663024902344e-02
8.549749851226806641e-03
-1.263016462326049805e-02
3.152190148830413818e-02
7.218971848487854004e-02
-6.124255061149597168e-02
2.450123429298400879e-04
5.464956164360046387e-02
1.482471823692321777e-03
1.583635807037353516e-03
-3.702196106314659119e-02
1.381718367338180542e-02
7.155482470989227295e-02
6.943409144878387451e-02
-3.342504426836967468e-02
-7.391554117202758789e-02
-1.330733299255371094e-03
-3.226412087678909302e-02
4.074642062187194824e-02
-1.994604989886283875e-02
5.700822174549102783e-02
-2.414425835013389587e-02
3.141534328460693359e-02
-5.164158344268798828e-02
9.378477931022644043e-03
6.804803013801574707e-02
4.967769980430603027e-02
-6.799010932445526123e-02
6.415964663028717041e-02
5.010238289833068848e-02
-7.322996854782104492e-03
6.442566215991973877e-02
6.593057513236999512e-02
-4.322391748428344727e-02
-7.076531648635864258e-03
2.974633872509002686e-02
-7.160104811191558838e-02
-3.351138904690742493e-02
4.994288086891174316e-02
-5.727041885256767273e-02
-2.122566103935241699e-02
-3.800727427005767822e-03
1.362073421478271484e-02
7.925263047218322754e-02
-5.787486210465431213e-02
-7.889617979526519775e-02
6.805908679962158203e-02
-5.564954504370689392e-02
3.088098764419555664e-02
3.037353605031967163e-02
-5.783492699265480042e-02
-2.667494118213653564e-03
6.781734526157379150e-02
6.738249957561492920e-02
-2.821994200348854065e-02
-3.713863715529441833e-02
-8.644036948680877686e-03
-2.078896015882492065e-02
8.011323213577270508e-02
-3.084055334329605103e-02
-4.789486527442932129e-03
-3.794185817241668701e-02
3.034751862287521362e-02
-5.805820971727371216e-02
1.364887505769729614e-02
-6.465211510658264160e-03
-3.501373901963233948e-02
8.113600313663482666e-02
4.481376707553863525e-02
3.886496275663375854e-02
-4.612229019403457642e-02
2.412211149930953979e-02
-7.000228017568588257e-02
3.834292292594909668e-04
1.357421278953552246e-04
-2.435105293989181519e-02
-3.787259384989738464e-02
2.869036793708801270e-02
7.694280147552490234e-02
6.827616691589355469e-02
5.755995213985443115e-02
5.543868243694305420e-02
-8.940920233726501465e-04
5.402381718158721924e-02
-4.877490550279617310e-02
6.701429188251495361e-02
8.065904676914215088e-02
-6.723608821630477905e-02
-5.169451609253883362e-02
-2.503185719251632690e-02
2.515532076358795166e-03
8.043020963668823242e-03
6.881909072399139404e-02
-2.320613339543342590e-02
6.829595565795898438e-02
-2.786730229854583740e-02
-3.912569209933280945e-02
3.209832310676574707e-02
1.659088581800460815e-02
6.957246363162994385e-02
7.545574009418487549e-02
-6.924317777156829834e-02
7.716430723667144775e-02
-1.953608915209770203e-02
-6.426250934600830078e-02
-1.703973114490509033e-02
-8.151044696569442749e-02
-5.449428781867027283e-02
-2.089027687907218933e-02
6.872573494911193848e-02
3.248602151870727539e-03
1.286685466766357422e-03
4.864577949047088623e-02
-3.192573785781860352e-03
7.121142745018005371e-02
-5.567923188209533691e-03
6.761856377124786377e-02
-1.226183027029037476e-02
3.688295930624008179e-02
1.772208511829376221e-02
6.253384053707122803e-03
-4.161234945058822632e-02
-4.115511476993560791e-02
4.709105193614959717e-02
-6.767909973859786987e-02
-3.722638264298439026e-02
6.685623526573181152e-02
1.559052616357803345e-02
-6.913617998361587524e-02
-6.189907714724540710e-02
-1.073134690523147583e-02
4.217951744794845581e-02
5.235776305198669434e-02
-7.520089298486709595e-02
7.910108566284179688e-02
4.072199761867523193e-02
3.547416627407073975e-02
-4.124821349978446960e-02
-5.041547119617462158e-02
-4.971809685230255127e-03
4.978048801422119141e-02
-2.260912582278251648e-02
-5.121457204222679138e-02
1.348007470369338989e-02
-1.581326127052307129e-02
-7.743996381759643555e-02
-4.501667246222496033e-02
-3.987178578972816467e-02
-8.015699684619903564e-03
-6.721436232328414917e-02
3.680097311735153198e-02
-5.485868453979492188e-02
-8.037279546260833740e-02
7.421918213367462158e-02
-5.525303632020950317e-02
-5.037144571542739868e-02
-6.147976219654083252e-02
-1.651901006698608398e-02
5.041034519672393799e-02
1.842781901359558105e-03
-7.586642354726791382e-02
7.476247847080230713e-02
3.558444976806640625e-02
-6.186424940824508667e-02
5.151398479938507080e-02
-3.673547878861427307e-02
-4.041048139333724976e-02
-7.242284715175628662e-02
6.198941171169281006e-02
-9.643957018852233887e-04
-4.933400079607963562e-02
-7.063550502061843872e-02
1.972448080778121948e-02
6.145395338535308838e-03
-6.147427111864089966e-02
3.793668001890182495e-02
-3.392000496387481689e-02
-1.486091315746307373e-02
-2.923346310853958130e-02
1.856878399848937988e-03
-5.679704248905181885e-02
-4.936359077692031860e-02
-5.939022451639175415e-02
7.601018249988555908e-02
-1.271536201238632202e-02
8.088465034961700439e-02
-3.668752312660217285e-02
-3.117617964744567871e-02
8.855447173118591309e-03
4.650802910327911377e-02
5.417695641517639160e-02
-1.249979436397552490e-02
-2.875709906220436096e-02
-4.210078343749046326e-02
-6.272400915622711182e-02
6.327357888221740723e-02
6.786662340164184570e-02
-4.807131737470626831e-02
3.247723728418350220e-02
6.520241498947143555e-03
-2.505358308553695679e-02
6.650294363498687744e-02
7.879394292831420898e-02
2.565582841634750366e-02
5.312721431255340576e-02
3.899266570806503296e-02
5.042597651481628418e-02
1.151575893163681030e-02
1.752862334251403809e-02
-7.928253710269927979e-02
-6.974652409553527832e-02
1.917577534914016724e-02
-2.653166651725769043e-02
-1.095563918352127075e-02
-5.179562419652938843e-02
-3.933475539088249207e-02
-5.939940363168716431e-02
-6.880885362625122070e-02
-4.981103539466857910e-02
-7.317323237657546997e-02
-7.852691411972045898e-02
2.378970384597778320e-05
-2.836860343813896179e-02
3.175898641347885132e-02
6.610818207263946533e-03
6.591640412807464600e-02
4.764139652252197266e-03
6.112892925739288330e-02
-3.628863021731376648e-02
2.781398594379425049e-02
-3.484062850475311279e-02
2.576041221618652344e-02
-5.284118652343750000e-02
2.344027161598205566e-03
-1.638746261596679688e-02
4.343968629837036133e-02
4.243068397045135498e-03
-1.277194917201995850e-02
-3.321213647723197937e-02
6.967881321907043457e-02
-3.025375679135322571e-02
-2.874553203582763672e-03
-7.410693913698196411e-02
6.995181739330291748e-02
-4.421889409422874451e-02
-2.722499519586563110e-02
6.105691194534301758e-03
5.817939341068267822e-02
-4.323207587003707886e-02
-1.400273293256759644e-02
-7.737869769334793091e-02
-6.499157845973968506e-02
6.244850158691406250e-02
2.470754832029342651e-02
6.725564599037170410e-03
5.573023855686187744e-02
-6.618686020374298096e-02
5.817094445228576660e-02
4.835496842861175537e-02
-1.068805903196334839e-02
6.854249536991119385e-02
-2.496765553951263428e-02
-4.696138203144073486e-03
-4.541678354144096375e-02
6.114977598190307617e-02
-6.734552979469299316e-02
-4.256594926118850708e-02
-1.183896511793136597e-02
-5.732443928718566895e-02
-6.158295646309852600e-02
9.170860052108764648e-03
-6.016269326210021973e-03
2.352873980998992920e-02
-7.048445194959640503e-02
6.633897125720977783e-02
-1.036313176155090332e-02
-4.375657811760902405e-02
-4.819082468748092651e-02
-2.752883359789848328e-02
2.228344976902008057e-02
-2.703440561890602112e-02
-3.367937728762626648e-02
7.355302572250366211e-02
-2.017886191606521606e-02
7.777500152587890625e-02
-6.026998162269592285e-04
-7.336367666721343994e-02
-1.340638101100921631e-02
-4.073165357112884521e-02
-4.594712704420089722e-02
6.599569320678710938e-02
1.494707167148590088e-02
-4.329945147037506104e-02
-7.276989519596099854e-02
-5.385430902242660522e-02
3.804819285869598389e-02
3.181599825620651245e-02
-3.751749172806739807e-02
1.246731728315353394e-02
7.216449081897735596e-02
6.966675817966461182e-02
2.824746817350387573e-02
-7.701062411069869995e-02
-6.141920387744903564e-02
6.933961808681488037e-02
-6.798189878463745117e-02
7.564504444599151611e-02
1.010527461767196655e-02
6.311090290546417236e-02
-5.013128370046615601e-02
1.423423737287521362e-02
8.138649165630340576e-03
-5.722380429506301880e-02
-5.622647330164909363e-02
-2.239283174276351929e-02
6.009188294410705566e-02
2.107933163642883301e-02
4.789610207080841064e-02
2.329820394515991211e-02
5.560570955276489258e-02
4.775485396385192871e-02
-4.970357939600944519e-02
3.330489248037338257e-02
-2.939979732036590576e-02
6.334894895553588867e-02
6.572614610195159912e-02
-8.011693507432937622e-02
-6.479431688785552979e-02
-2.687376737594604492e-02
7.345412671566009521e-02
6.194941699504852295e-02
-3.245374932885169983e-02
-3.156620636582374573e-02
-4.947915673255920410e-03
-2.243117988109588623e-02
4.576529562473297119e-02
1.858385652303695679e-02
5.305644869804382324e-02
7.685099542140960693e-02
6.474091112613677979e-02
-7.987494766712188721e-02
-4.187569767236709595e-02
-2.402332052588462830e-02
-5.406417697668075562e-02
-7.187275588512420654e-02
-4.378725960850715637e-02
6.515009701251983643e-02
-1.264369487762451172e-02
5.914199352264404297e-02
-6.897975504398345947e-02
-3.430910035967826843e-02
2.102629840373992920e-02
7.804481685161590576e-02
-1.066870987415313721e-03
-3.021162003278732300e-02
1.565384119749069214e-02
-4.938624054193496704e-02
3.042728453874588013e-02
-2.449616044759750366e-02
5.867443978786468506e-02
-3.555372729897499084e-02
-3.187336400151252747e-02
4.528515040874481201e-02
-7.728842645883560181e-02
-5.599160492420196533e-02
-5.015071108937263489e-02
8.044095337390899658e-02
5.518561601638793945e-02
5.863858759403228760e-02
2.687330543994903564e-02
-6.339542567729949951e-02
-6.184159964323043823e-02
1.512962579727172852e-02
-3.986047580838203430e-02
-6.268656998872756958e-02
-5.379344522953033447e-02
-1.650776714086532593e-02
3.224174678325653076e-02
7.234871387481689453e-02
-1.773849874734878540e-02
-5.700933188199996948e-02
2.486746758222579956e-02
5.525322258472442627e-02
-6.522303074598312378e-02
6.778830289840698242e-02
-3.062750026583671570e-02
3.924311697483062744e-02
-3.949157893657684326e-03
-4.938838258385658264e-02
-8.054494857788085938e-02
-3.051027655601501465e-03
2.971699833869934082e-02
4.968556761741638184e-02
-1.414490491151809692e-02
1.402292400598526001e-02
4.796440899372100830e-02
-5.478204786777496338e-02
1.285275816917419434e-02
1.259170472621917725e-02
1.312579214572906494e-02
-4.019454121589660645e-03
-1.612586528062820435e-02
-1.567832380533218384e-02
-1.018717885017395020e-04
-7.656216621398925781e-03
-4.099589586257934570e-02
-8.078322559595108032e-02
-4.118889570236206055e-03
-6.991682946681976318e-02
2.937138080596923828e-03
-6.958437711000442505e-02
2.190342545509338379e-02
4.300860315561294556e-02
-1.758840680122375488e-02
7.412670552730560303e-02
-5.755333974957466125e-02
-2.418142929673194885e-02
-5.906883999705314636e-02
-9.383589029312133789e-03
4.018645733594894409e-02
5.609603226184844971e-02
7.508243620395660400e-02
-3.159936144948005676e-02
4.155032336711883545e-03
9.599924087524414062e-04
-2.988906577229499817e-02
-5.370526760816574097e-02
-5.989846587181091309e-02
-4.986493661999702454e-02
6.808938086032867432e-02
6.351637840270996094e-02
6.660984456539154053e-02
-5.654416233301162720e-02
4.740440845489501953e-02
-7.537907361984252930e-02
2.919396758079528809e-02
1.252005994319915771e-02
-5.253210663795471191e-03
-3.359690681099891663e-02
-3.852684423327445984e-02
6.865988671779632568e-02
6.609292328357696533e-02
6.542004644870758057e-02
2.391292154788970947e-02
3.799140453338623047e-03
-2.604206651449203491e-02
6.691098213195800781e-03
-4.703387245535850525e-02
-5.777627229690551758e-04
-8.017621189355850220e-02
1.144902408123016357e-02
6.959043443202972412e-02
4.330909252166748047e-02
-3.672956302762031555e-02
7.689063251018524170e-02
3.410956263542175293e-02
-3.586336970329284668e-03
6.949074566364288330e-02
-1.069822907447814941e-02
-6.347946077585220337e-02
-5.879820138216018677e-02
6.129294633865356445e-04
2.833905071020126343e-02
8.249022066593170166e-03
6.532369554042816162e-02
-9.196318686008453369e-03
-7.582888007164001465e-03
4.230478405952453613e-02
-3.620162233710289001e-02
-7.866722345352172852e-02
-3.035771846771240234e-02
-4.432249814271926880e-02
-4.513117671012878418e-02
7.713033258914947510e-02
-4.489193111658096313e-02
2.609555423259735107e-02
-4.245849326252937317e-02
-6.773725897073745728e-02
3.190869837999343872e-02
3.950108587741851807e-02
-2.067515999078750610e-02
-5.992577970027923584e-02
-6.164383143186569214e-02
-4.457530379295349121e-02
-3.900655359029769897e-02
-8.018481731414794922e-02
-2.787959575653076172e-02
3.664627671241760254e-03
-3.978781402111053467e-02
2.944430708885192871e-02
4.219722002744674683e-02
-4.102550446987152100e-03
5.352360010147094727e-02
-6.635475158691406250e-02
-3.520664572715759277e-02
8.151316642761230469e-02
-5.250620096921920776e-02
7.808771729469299316e-02
3.885544836521148682e-03
-6.369633227586746216e-02
1.839067786931991577e-02
-1.273386180400848389e-02
-7.294472306966781616e-02
5.850851535797119141e-03
-6.766359508037567139e-02
-6.950516998767852783e-02
-6.679745763540267944e-02
-4.898430779576301575e-02
5.704185366630554199e-02
-7.206331193447113037e-02
-3.680010139942169189e-02
-5.491629242897033691e-03
-5.297210067510604858e-02
-3.567095845937728882e-02
1.279188692569732666e-02
-7.085345685482025146e-02
1.861706376075744629e-02
-3.319142386317253113e-02
1.488766819238662720e-02
6.339497864246368408e-03
6.938746571540832520e-02
-5.245114862918853760e-02
3.767543286085128784e-02
4.425777494907379150e-02
6.319181621074676514e-02
-1.314140111207962036e-02
-4.602992162108421326e-02
-3.062557429075241089e-02
-4.425811022520065308e-02
-5.829028785228729248e-03
4.376409947872161865e-02
-8.016668260097503662e-02
-2.605237439274787903e-02
6.234943866729736328e-04
5.782757699489593506e-02
-3.021236881613731384e-02
-3.600174561142921448e-02
3.565312922000885010e-02
5.872234702110290527e-02
-5.004764348268508911e-02
-3.739114105701446533e-02
7.771022617816925049e-02
-5.343718081712722778e-02
-1.544608175754547119e-02
-4.831014573574066162e-02
5.107979476451873779e-02
-5.377197265625000000e-02
-2.699116244912147522e-02
-1.524981856346130371e-02
7.955381274223327637e-02
-7.664784044027328491e-02
1.857984811067581177e-02
-5.828448385000228882e-02
-2.304878458380699158e-02
6.589867174625396729e-03
-7.293674349784851074e-02
-7.934127748012542725e-02
-1.199278235435485840e-02
-6.958327442407608032e-02
6.965309381484985352e-03
1.407358795404434204e-02
-7.225718349218368530e-02
-1.429046690464019775e-02
-2.572369575500488281e-02
2.106756716966629028e-02
-1.181848347187042236e-03
-3.114315494894981384e-02
-9.114481508731842041e-03
-7.391355931758880615e-03
6.821897625923156738e-02
-5.724502354860305786e-02
2.446352690458297729e-02
2.700967341661453247e-02
-2.581633999943733215e-02
-3.036748245358467102e-02
-3.979628160595893860e-02
-3.895257413387298584e-02
-5.897609144449234009e-02
1.688008010387420654e-02
1.971267163753509521e-03
2.396174520254135132e-02
2.460883557796478271e-02
7.980407774448394775e-02
1.323823630809783936e-02
1.700588315725326538e-02
-3.084212914109230042e-02
-1.794137060642242432e-03
-4.725027456879615784e-02
7.919682562351226807e-02
-2.684719488024711609e-02
6.911237537860870361e-02
7.926456630229949951e-02
7.754921913146972656e-02
1.117835938930511475e-02
4.325895756483078003e-02
2.755457907915115356e-02
7.633370161056518555e-02
3.934004157781600952e-02
1.722756028175354004e-02
-3.063177317380905151e-02
1.174890249967575073e-02
4.261797666549682617e-02
7.864437997341156006e-02
-5.555536597967147827e-02
3.939464688301086426e-03
8.530214428901672363e-03
4.088269919157028198e-02
-5.080856382846832275e-03
-1.651212573051452637e-03
-5.114170908927917480e-02
5.925448238849639893e-02
-5.638447403907775879e-02
-5.594901368021965027e-02
2.812729775905609131e-02
3.846271336078643799e-02
6.320312619209289551e-02
1.373679190874099731e-02
5.130085349082946777e-02
-5.596986413002014160e-02
4.452760517597198486e-02
6.481756269931793213e-02
5.550523102283477783e-02
-2.187506109476089478e-02
-6.906977295875549316e-02
3.860069811344146729e-02
-2.763138338923454285e-02
1.864115148782730103e-02
-3.786803781986236572e-02
4.139699786901473999e-02
-7.625119388103485107e-02
-2.965930849313735962e-02
-6.268759071826934814e-02
4.564684629440307617e-02
-2.239101007580757141e-02
7.697045803070068359e-04
-7.229308784008026123e-02
-7.184395194053649902e-02
-4.826796799898147583e-02
-2.504670992493629456e-02
6.566157937049865723e-02
6.365953385829925537e-02
-1.082659512758255005e-02
4.694069921970367432e-02
2.156741172075271606e-02
4.034198820590972900e-02
-2.562481537461280823e-02
6.960892677307128906e-02
4.172997176647186279e-02
2.773404121398925781e-03
2.139047533273696899e-02
5.488932132720947266e-03
5.164375901222229004e-02
-7.345637679100036621e-02
5.784499645233154297e-02
4.018180072307586670e-02
5.800969898700714111e-02
2.652496099472045898e-03
5.245761573314666748e-02
-7.037047296762466431e-02
5.164508521556854248e-02
-4.232993349432945251e-02
-7.039798051118850708e-02
-4.317089915275573730e-02
5.380022525787353516e-02
3.130139410495758057e-02
-6.272400915622711182e-02
-4.404046386480331421e-02
4.166541993618011475e-02
-5.112911015748977661e-02
-6.940143555402755737e-02
-6.691996753215789795e-02
2.868822962045669556e-02
-2.841189503669738770e-03
-1.638874411582946777e-02
-4.586286842823028564e-03
7.919836044311523438e-02
-3.570988774299621582e-03
5.005279183387756348e-02
7.854023575782775879e-02
4.986056685447692871e-02
6.053601205348968506e-02
-3.560407832264900208e-02
3.443004935979843140e-02
3.839872777462005615e-03
1.349323242902755737e-02
7.900819182395935059e-04
-1.532427221536636353e-02
4.972326755523681641e-02
4.513780772686004639e-02
2.646883577108383179e-02
-5.421221256256103516e-02
7.848873734474182129e-03
6.237007677555084229e-02
-2.242854237556457520e-02
-3.117138147354125977e-02
-3.003097698092460632e-02
4.887162148952484131e-02
4.710021615028381348e-02
-1.785032451152801514e-02
-3.986276313662528992e-02
5.590431392192840576e-02
-1.307594776153564453e-02
1.671725511550903320e-02
-2.419451996684074402e-02
-3.259368240833282471e-03
-5.834143608808517456e-02
-4.067495465278625488e-02
-3.376051411032676697e-02
2.472550421953201294e-02
-1.974325254559516907e-02
-7.074341177940368652e-02
-2.528756856918334961e-03
-6.450571864843368530e-02
6.254708766937255859e-02
-4.282129555940628052e-02
-2.049938216805458069e-02
5.279865860939025879e-02
7.343985140323638916e-02
6.993739306926727295e-02
-3.484805673360824585e-02
3.745331615209579468e-02
4.180327057838439941e-02
-3.115441650152206421e-02
-5.984885245561599731e-02
-6.517802178859710693e-02
-2.096588537096977234e-02
2.865204960107803345e-02
-6.122420355677604675e-02
1.204326003789901733e-02
7.484555244445800781e-02
-3.778047487139701843e-02
-1.956497877836227417e-02
2.234493196010589600e-02
3.624383360147476196e-02
-6.679460406303405762e-03
4.336050152778625488e-02
-6.772791594266891479e-02
-5.479039996862411499e-02
6.947249174118041992e-02
-2.516709268093109131e-03
-1.619438827037811279e-02
-7.407997548580169678e-02
5.554309487342834473e-02
-2.819083631038665771e-03
7.927006483078002930e-02
-8.162728697061538696e-02
-5.172827094793319702e-02
5.772486329078674316e-03
-4.230956360697746277e-02
-7.057008147239685059e-02
-8.356362581253051758e-03
-4.393753409385681152e-02
-7.263387739658355713e-02
-7.859848439693450928e-03
-2.721314132213592529e-02
-7.833749055862426758e-02
-5.648687109351158142e-02
-6.523642688989639282e-02
7.473309338092803955e-02
4.376304149627685547e-02
-7.849202305078506470e-02
9.121991693973541260e-03
3.418373316526412964e-02
-6.512003391981124878e-02
-1.729629933834075928e-02
1.662128418684005737e-02
3.429179638624191284e-02
5.577135086059570312e-02
-3.209041804075241089e-02
3.663225471973419189e-02
-7.180301845073699951e-02
6.321173906326293945e-02
4.942613840103149414e-02
-4.693087190389633179e-02
-1.652361452579498291e-02
6.445404887199401855e-02
4.677109420299530029e-02
-7.589124143123626709e-03
-3.455928713083267212e-02
-2.466227114200592041e-02
-3.565019741654396057e-02
-3.906389325857162476e-02
-4.730824753642082214e-02
-1.150845736265182495e-02
-7.323644310235977173e-02
8.135494589805603027e-02
-4.287257045507431030e-02
6.090259552001953125e-02
2.141559123992919922e-02
3.712569922208786011e-02
5.539639294147491455e-02
-1.570639759302139282e-02
5.831238627433776855e-02
-8.200049400329589844e-03
5.235861241817474365e-02
-6.605389714241027832e-02
7.484282553195953369e-02
-2.377844974398612976e-02
6.822316348552703857e-02
5.523324012756347656e-03
1.866579800844192505e-02
1.062273979187011719e-02
-2.418605238199234009e-02
4.002156853675842285e-02
6.642147898674011230e-03
-5.545098334550857544e-02
-6.451832503080368042e-02
-2.345960959792137146e-02
4.412783682346343994e-02
1.335822045803070068e-02
-3.440246358513832092e-02
-6.519558280706405640e-02
6.491914391517639160e-04
4.809245467185974121e-03
1.844724267721176147e-02
-6.007294729351997375e-02
-3.663919866085052490e-02
8.013297617435455322e-02
7.813075184822082520e-02
-1.848369836807250977e-03
7.534232735633850098e-02
-5.389351397752761841e-02
-1.004571467638015747e-02
5.408629775047302246e-02
-6.147229671478271484e-02
5.067692697048187256e-02
5.571395158767700195e-04
1.288563758134841919e-02
-1.830533146858215332e-04
4.201596230268478394e-02
-5.491830408573150635e-02
-3.626962006092071533e-02
-6.903460621833801270e-02
6.566439568996429443e-02
-8.146107196807861328e-03
1.888290047645568848e-03
4.329538345336914062e-02
-4.034590721130371094e-02
1.997081190347671509e-02
-3.229191154241561890e-02
-4.567563533782958984e-02
6.298170983791351318e-02
1.830638945102691650e-02
-4.544581845402717590e-02
-7.861249893903732300e-02
1.919735968112945557e-02
3.684908896684646606e-02
-4.067279398441314697e-02
3.544966876506805420e-02
5.539566278457641602e-02
-2.053735405206680298e-02
1.287794113159179688e-02
-6.991218775510787964e-02
-6.736312806606292725e-02
-3.537023440003395081e-02
-1.779007166624069214e-02
-7.057993859052658081e-02
4.919917881488800049e-02
5.211570858955383301e-02
3.387495130300521851e-02
-2.153437584638595581e-02
-2.723507955670356750e-02
-2.490874752402305603e-02
7.073214650154113770e-02
1.297830045223236084e-02
-5.605921149253845215e-02
1.308386027812957764e-02
-7.285733520984649658e-02
2.769219130277633667e-02
-1.035777479410171509e-02
6.269627809524536133e-02
3.720192611217498779e-02
2.960034459829330444e-02
-7.260587811470031738e-02
-3.919976204633712769e-02
-8.070793747901916504e-02
3.790333867073059082e-03
4.214175045490264893e-02
2.269700169563293457e-02
-3.940049186348915100e-02
3.541313111782073975e-02
4.360021650791168213e-02
-3.474938124418258667e-02
-3.137098625302314758e-02
6.396365165710449219e-02
-6.338832527399063110e-02
4.085180908441543579e-02
4.867355525493621826e-02
-6.097786873579025269e-02
-7.056934386491775513e-02
2.804110199213027954e-02
4.790045320987701416e-02
1.098006963729858398e-02
-4.768874496221542358e-02
-5.500406771898269653e-02
7.009655237197875977e-02
7.676486670970916748e-02
3.500019013881683350e-02
-4.690936207771301270e-02
6.975984573364257812e-02
5.031596124172210693e-02
-4.611122235655784607e-02
3.808828443288803101e-02
-7.071229815483093262e-02
3.112204372882843018e-03
6.089226901531219482e-02
-5.365015938878059387e-02
-3.628598153591156006e-02
-3.072866797447204590e-02
3.272127360105514526e-02
-3.141529113054275513e-02
-4.212814196944236755e-02
-7.478467375040054321e-02
-2.635476365685462952e-02
-7.821828126907348633e-02
-4.490554705262184143e-02
2.928555756807327271e-02
-7.487244904041290283e-03
-2.505636587738990784e-02
-6.112231314182281494e-02
4.489891231060028076e-02
3.460688889026641846e-02
4.953919351100921631e-02
-1.904891431331634521e-02
-5.702858418226242065e-02
2.022650837898254395e-02
7.739447057247161865e-02
1.840558648109436035e-02
-3.110981732606887817e-02
-8.194819092750549316e-04
-4.921157285571098328e-02
-3.828056156635284424e-03
