4.720878601074218750e-02
-1.725227385759353638e-01
-4.428990185260772705e-02
-1.838352978229522705e-01
-3.947064280509948730e-02
-1.423347890377044678e-01
-1.581716537475585938e-02
-4.929974675178527832e-03
3.706601262092590332e-02
1.853532344102859497e-01
-1.507990360260009766e-01
-3.809249401092529297e-02
-6.071776151657104492e-04
1.994934529066085815e-01
4.194562137126922607e-02
9.161233901977539062e-03
7.895676791667938232e-02
-9.979593753814697266e-02
-5.504293739795684814e-02
-1.516231894493103027e-02
8.581931889057159424e-02
2.339839935302734375e-03
-1.792825013399124146e-01
-1.003381237387657166e-01
-1.041940227150917053e-01
-3.068527579307556152e-02
-1.991358846426010132e-01
7.392071187496185303e-02
9.987257421016693115e-02
-1.004504933953285217e-01
-6.039226055145263672e-02
-1.218968853354454041e-01
-8.830773830413818359e-02
-9.896697849035263062e-02
-4.831548035144805908e-02
1.074339598417282104e-01
7.628189027309417725e-02
1.010533124208450317e-01
-1.526458263397216797e-01
1.479511111974716187e-01
1.356544047594070435e-01
-1.787328571081161499e-01
-1.318015456199645996e-01
-8.345978707075119019e-02
2.729554474353790283e-02
-1.848008185625076294e-01
-9.139740467071533203e-02
7.948766648769378662e-02
-1.622326821088790894e-01
6.877364218235015869e-02
-4.871055483818054199e-02
1.495148092508316040e-01
9.066797792911529541e-02
1.794429868459701538e-01
-2.447247505187988281e-02
-1.645691692829132080e-02
-1.856445372104644775e-01
-5.900657176971435547e-02
-1.844429820775985718e-01
-4.478535056114196777e-02
-1.472412049770355225e-01
7.113218307495117188e-04
1.230933815240859985e-01
1.728918701410293579e-01
2.721115946769714355e-02
1.368403434753417969e-03
-1.170372962951660156e-01
-8.858680725097656250e-03
-3.188259899616241455e-02
-3.942456841468811035e-02
-1.825668811798095703e-01
5.961640179157257080e-02
1.602708548307418823e-01
1.309701055288314819e-01
-4.861517250537872314e-02
1.007110625505447388e-01
-8.644576370716094971e-02
8.878888189792633057e-02
1.368332058191299438e-01
-1.010258421301841736e-01
7.337386906147003174e-02
-1.779588311910629272e-01
1.129649430513381958e-01
1.160206645727157593e-01
1.838470846414566040e-01
4.259483516216278076e-02
3.703024983406066895e-02
9.198679029941558838e-02
1.907299906015396118e-01
1.872172206640243530e-01
-1.402319669723510742e-01
1.930257529020309448e-01
1.168281584978103638e-01
3.366133570671081543e-02
1.851207464933395386e-01
-7.230231165885925293e-02
2.998515963554382324e-02
-1.384743750095367432e-01
-9.839463233947753906e-02
1.881058067083358765e-01
7.851570844650268555e-04
-7.926435768604278564e-02
1.532967537641525269e-01
-1.231617927551269531e-01
1.074536591768264771e-01
-9.905820339918136597e-02
-5.329580605030059814e-02
-1.806559115648269653e-01
1.131785064935684204e-01
8.128096163272857666e-02
9.060592949390411377e-02
3.176052868366241455e-02
-1.435094773769378662e-01
1.241889446973800659e-01
1.713485270738601685e-01
1.777781397104263306e-01
6.150309741497039795e-02
1.377646625041961670e-02
1.210076957941055298e-01
1.936098933219909668e-02
2.951169013977050781e-02
-3.098616003990173340e-02
1.002561599016189575e-01
6.564702093601226807e-02
-7.481920719146728516e-02
1.757806688547134399e-01
-7.366602122783660889e-02
1.794556826353073120e-01
-9.352431446313858032e-02
-1.384905874729156494e-01
-1.966726779937744141e-02
1.040618270635604858e-01
1.304029375314712524e-01
-8.106529712677001953e-04
-1.603011190891265869e-01
-9.178762882947921753e-02
-6.808122992515563965e-02
-1.628269404172897339e-01
5.707785487174987793e-03
3.271892666816711426e-03
1.015799194574356079e-01
6.873644888401031494e-02
1.418742686510086060e-01
6.647364795207977295e-02
-1.591271609067916870e-01
-6.375972926616668701e-02
-7.983868569135665894e-02
6.405045092105865479e-02
-1.093648672103881836e-01
1.377426534891128540e-01
