-4.661581665277481079e-02
5.855996161699295044e-02
-2.777625620365142822e-02
-6.098888069391250610e-02
5.795852839946746826e-02
-1.824352890253067017e-02
-2.750400453805923462e-02
-2.527208626270294189e-02
-2.328597754240036011e-02
4.064474999904632568e-02
5.084484070539474487e-02
-5.059218406677246094e-02
-8.087262511253356934e-03
1.823278516530990601e-02
-1.331632584333419800e-02
1.628570258617401123e-03
2.782389521598815918e-03
-8.299455046653747559e-03
-1.939240843057632446e-02
4.784891009330749512e-02
-5.627697706222534180e-02
3.509642183780670166e-02
-7.385678589344024658e-03
-2.891901880502700806e-02
-2.400445938110351562e-02
3.866820782423019409e-02
1.664315164089202881e-02
1.247346401214599609e-03
-5.976743996143341064e-02
-4.613141715526580811e-02
2.393820136785507202e-02
5.347426980733871460e-02
1.298051327466964722e-02
-8.304715156555175781e-04
2.264320850372314453e-02
-1.356763392686843872e-02
6.845839321613311768e-03
2.286252379417419434e-02
3.535033017396926880e-02
-5.071769654750823975e-02
-4.717970639467239380e-02
4.289651662111282349e-02
-5.205283313989639282e-02
1.350237429141998291e-02
5.708241462707519531e-02
5.568109452724456787e-03
-5.629874765872955322e-02
5.568981170654296875e-02
-3.880904614925384521e-02
-1.132349669933319092e-02
5.532912164926528931e-02
-5.449458956718444824e-02
6.164218485355377197e-02
1.892732828855514526e-02
9.480178356170654297e-03
-4.866228252649307251e-02
4.739157110452651978e-02
2.436280250549316406e-03
5.445640534162521362e-02
4.609981924295425415e-02
5.020766705274581909e-02
4.449231177568435669e-02
-2.795562893152236938e-02
-1.132874935865402222e-02
-2.935677766799926758e-04
-2.296223491430282593e-02
-4.640033841133117676e-02
-2.614357322454452515e-02
3.219768404960632324e-02
-1.702551543712615967e-02
-2.511823922395706177e-02
-6.101085245609283447e-02
4.551970213651657104e-02
-3.433663398027420044e-02
-3.568240255117416382e-02
5.136108398437500000e-02
4.964644461870193481e-02
-1.138247549533843994e-03
1.124327629804611206e-02
1.779964566230773926e-02
2.370322495698928833e-02
-1.813672482967376709e-03
-3.674924373626708984e-03
3.905723989009857178e-02
-5.412331223487854004e-02
1.067310571670532227e-02
4.931402206420898438e-02
9.217597544193267822e-03
-5.595380812883377075e-02
4.176974296569824219e-02
5.993724614381790161e-02
3.411029279232025146e-02
-5.582960695028305054e-02
3.396868705749511719e-03
-3.509670495986938477e-02
-4.636322706937789917e-02
2.144161611795425415e-02
2.517659217119216919e-02
3.846062719821929932e-02
-5.674020946025848389e-02
4.312783479690551758e-02
3.229768574237823486e-02
1.911116391420364380e-02
-4.668488353490829468e-02
-4.573442041873931885e-02
6.283983588218688965e-03
2.001513540744781494e-02
5.315285921096801758e-02
5.681818723678588867e-02
-2.439504861831665039e-02
2.673861384391784668e-02
-6.150036305189132690e-02
-2.245991677045822144e-02
1.685370504856109619e-02
2.260709553956985474e-02
-5.603864789009094238e-02
5.526228249073028564e-02
-2.325578033924102783e-02
-3.234311938285827637e-03
1.609446108341217041e-02
