4.133200645446777344e-02
3.134201467037200928e-02
1.275853812694549561e-02
4.957762360572814941e-02
-3.910012543201446533e-02
1.811301708221435547e-02
9.047761559486389160e-03
-5.209036171436309814e-03
8.977070450782775879e-03
7.284581661224365234e-03
-2.659790217876434326e-03
7.720234990119934082e-02
-3.714359924197196960e-02
5.539497733116149902e-02
2.848722040653228760e-02
-8.843682706356048584e-02
4.689855873584747314e-02
-7.290387153625488281e-02
-7.009916007518768311e-02
7.496702671051025391e-02
-8.723802864551544189e-03
-6.216092407703399658e-02
6.393702328205108643e-02
-4.817371815443038940e-02
8.933883905410766602e-02
-1.453633606433868408e-02
1.199663430452346802e-02
3.034641593694686890e-02
6.902199983596801758e-02
-4.700120538473129272e-02
2.305259555578231812e-02
-2.768269926309585571e-02
4.074341058731079102e-02
3.854994475841522217e-02
5.872757732868194580e-02
-2.303998172283172607e-02
8.406998217105865479e-02
8.013679087162017822e-02
-1.827329397201538086e-04
-9.013265371322631836e-02
-8.946348726749420166e-02
4.008844494819641113e-03
-2.396164834499359131e-02
2.266849577426910400e-02
8.537937700748443604e-02
-4.668271541595458984e-02
-2.296763658523559570e-02
4.127161204814910889e-02
-5.470271781086921692e-02
5.012318491935729980e-02
-6.460162997245788574e-02
8.074805140495300293e-03
4.869922995567321777e-02
-6.585882604122161865e-02
3.178159892559051514e-02
8.736531436443328857e-02
-1.648148149251937866e-02
8.225312829017639160e-02
-2.691907435655593872e-02
-5.882505327463150024e-02
9.071566164493560791e-02
7.718677818775177002e-02
-8.322715759277343750e-02
3.333988785743713379e-02
6.993034482002258301e-02
5.555473268032073975e-02
-6.479397416114807129e-02
2.490207552909851074e-04
-8.029139786958694458e-02
-4.213862121105194092e-03
7.985389232635498047e-02
6.810939311981201172e-02
5.345471203327178955e-02
-2.004010230302810669e-02
4.490038752555847168e-02
-1.792550086975097656e-03
2.438354492187500000e-02
1.714655011892318726e-02
-8.971415460109710693e-03
2.444718033075332642e-02
-4.633628949522972107e-02
8.939708769321441650e-02
-1.116124540567398071e-02
3.397125005722045898e-02
