-8.126653730869293213e-03
-6.984217464923858643e-02
2.550470083951950073e-02
-8.632866293191909790e-02
2.706193178892135620e-02
5.202719569206237793e-02
-2.223908901214599609e-03
-7.924138009548187256e-02
2.691823244094848633e-02
8.431860804557800293e-02
7.850214838981628418e-02
-8.106866478919982910e-02
1.151630282402038574e-02
-1.217886805534362793e-02
5.846598744392395020e-02
-2.742338180541992188e-02
2.053454518318176270e-02
6.302441656589508057e-02
-7.175473868846893311e-02
-5.916605889797210693e-02
-3.297027200460433960e-02
-8.719471842050552368e-02
7.729488611221313477e-02
6.825141608715057373e-03
1.743973046541213989e-02
6.383575499057769775e-02
5.783188343048095703e-02
-6.654860079288482666e-02
9.675860404968261719e-03
4.362218081951141357e-02
-7.655092328786849976e-02
2.090989798307418823e-02
6.949424743652343750e-02
-2.107834815979003906e-02
-5.691924318671226501e-02
-4.227938875555992126e-02
3.520496189594268799e-02
6.332755088806152344e-02
-6.695501506328582764e-02
-6.997734308242797852e-02
9.122695028781890869e-02
1.654196530580520630e-02
-8.770626783370971680e-02
-3.639590367674827576e-02
-1.710882037878036499e-02
-1.510093361139297485e-02
-6.456341594457626343e-02
-5.801528319716453552e-02
5.797313153743743896e-02
-2.818668633699417114e-02
-6.172433495521545410e-04
4.212166368961334229e-02
-5.023482814431190491e-02
7.379949092864990234e-04
-6.699882447719573975e-02
3.402361273765563965e-02
-7.281168550252914429e-02
8.112682402133941650e-02
7.043109834194183350e-02
1.639127731323242188e-02
-1.100917905569076538e-02
-2.566796541213989258e-02
4.769793152809143066e-02
5.749636888504028320e-02
2.661598473787307739e-02
-7.798057794570922852e-02
-5.251200869679450989e-02
-2.928326278924942017e-02
8.177341520786285400e-02
-8.884053677320480347e-02
-6.001765280961990356e-02
3.835718333721160889e-02
-3.808657079935073853e-02
4.299914836883544922e-02
9.125068783760070801e-02
-6.862699985504150391e-02
-1.216019690036773682e-02
3.226426243782043457e-02
-7.212242484092712402e-02
8.001933991909027100e-02
-4.362344741821289062e-03
8.382049202919006348e-02
-2.922528237104415894e-02
-3.954418748617172241e-02
-7.499338686466217041e-02
-1.422829180955886841e-02
7.683736085891723633e-02
-8.741553127765655518e-02
1.496314257383346558e-02
2.730399370193481445e-02
-8.436921238899230957e-02
-3.929935395717620850e-03
-3.317739441990852356e-02
8.457964658737182617e-02
2.394738048315048218e-02
-2.593803405761718750e-02
2.723785489797592163e-02
-5.790716782212257385e-02
-8.990066498517990112e-02
-8.585517108440399170e-02
-8.418045938014984131e-02
7.192952930927276611e-02
-6.621290743350982666e-02
-4.215943440794944763e-02
8.345513045787811279e-02
6.685532629489898682e-02
-4.429277405142784119e-02
-6.892329454421997070e-02
5.708895623683929443e-02
-8.836154639720916748e-02
-3.298667073249816895e-02
1.436983048915863037e-02
6.209170818328857422e-02
-3.039345890283584595e-02
6.180959939956665039e-02
4.750910401344299316e-02
3.040832281112670898e-02
5.077297985553741455e-02
-2.800239622592926025e-02
4.759471118450164795e-02
-6.754724681377410889e-02
-5.642816424369812012e-03
2.011311799287796021e-02
-6.390973925590515137e-03
1.933158189058303833e-02
-4.871955141425132751e-02
-3.586480394005775452e-02
7.149665057659149170e-02
2.691388875246047974e-02
-1.714378595352172852e-02
-6.805571168661117554e-02
-4.797374457120895386e-02
1.366619020700454712e-02
-6.766749918460845947e-02
-4.623403027653694153e-02
-1.795576512813568115e-02
-5.929708480834960938e-03
-8.417183905839920044e-02
6.898322701454162598e-02
2.722052484750747681e-02
-6.818129122257232666e-02
8.325386047363281250e-02
5.716916918754577637e-02
1.870961487293243408e-02
-7.074210047721862793e-02
-1.682669669389724731e-02
5.265443027019500732e-02
-3.283897787332534790e-02
-1.456851512193679810e-02
-7.822355628013610840e-02
5.798165500164031982e-02
-5.419266596436500549e-02
-7.325354963541030884e-02
-4.846271872520446777e-02
-1.193693280220031738e-02
8.611775934696197510e-02
1.724871248006820679e-02
-8.130326122045516968e-02
3.384360671043395996e-02
7.812228798866271973e-02
-2.983297780156135559e-02
8.838284015655517578e-02
-6.691297143697738647e-02
-3.706012293696403503e-02
-6.470168381929397583e-02
-2.491535991430282593e-02
5.832304060459136963e-02
-4.163482412695884705e-02
4.508167505264282227e-03
-4.092906415462493896e-02
-3.542710840702056885e-02
-3.445533290505409241e-02
2.613983303308486938e-02
7.200254499912261963e-02
-3.077243641018867493e-02
-5.468997731804847717e-02
-6.059830635786056519e-02
5.687712132930755615e-02
7.787993550300598145e-02
6.211717426776885986e-02
5.859394371509552002e-02
-2.090042084455490112e-02
5.276352167129516602e-04
-7.688307762145996094e-02
3.962261974811553955e-02
2.838426828384399414e-02
-4.664804413914680481e-02
3.298442810773849487e-02
-3.532905876636505127e-02
-7.692134380340576172e-02
-4.597581923007965088e-03
6.166948378086090088e-02
6.999483704566955566e-02
9.369164705276489258e-03
-6.305859237909317017e-02
-2.785801142454147339e-02
-1.286086440086364746e-02
-4.684763774275779724e-02
-8.567111939191818237e-02
-2.623781561851501465e-03
2.983766049146652222e-02
6.500594317913055420e-02
5.981442332267761230e-02
7.935924828052520752e-02
-8.811800181865692139e-02
7.476112246513366699e-02
5.279739201068878174e-02
6.623038649559020996e-02
-3.593787923455238342e-02
-1.778937876224517822e-02
7.265694439411163330e-02
-5.234332382678985596e-02
-1.322535425424575806e-02
7.993663847446441650e-02
-7.273737341165542603e-02
-3.142849355936050415e-02
8.999206125736236572e-02
-4.730057716369628906e-02
-2.371637523174285889e-02
2.576272934675216675e-02
-6.102138012647628784e-02
3.489379584789276123e-02
4.632663726806640625e-02
8.258426189422607422e-02
-6.696595251560211182e-02
-7.716248929500579834e-02
2.194351702928543091e-02
-2.684578299522399902e-02
6.605684757232666016e-05
5.940680205821990967e-02
8.345377445220947266e-02
7.280491292476654053e-02
8.689227700233459473e-02
-9.787805378437042236e-03
-8.413646370172500610e-02
1.874538511037826538e-02
6.846085190773010254e-02
-8.117900043725967407e-02
2.742349356412887573e-02
4.467883706092834473e-02
-2.167809009552001953e-02
-2.775141596794128418e-02
8.054853975772857666e-02
8.727368712425231934e-02
-4.636522382497787476e-02
8.243329823017120361e-03
3.153619915246963501e-02
6.083574891090393066e-02
6.217890977859497070e-02
7.421904802322387695e-02
-8.756861090660095215e-03
-6.219526007771492004e-02
-5.064672231674194336e-02
8.343012630939483643e-02
4.393751919269561768e-02
7.245509326457977295e-02
-2.555675804615020752e-02
2.122427523136138916e-02
4.434472322463989258e-02
5.056113004684448242e-02
-3.108812868595123291e-02
8.512744307518005371e-02
5.684398114681243896e-03
6.468784809112548828e-02
6.773622334003448486e-02
1.402261108160018921e-02
-7.200334221124649048e-02
-7.915694266557693481e-02
-2.524386346340179443e-02
-5.603494867682456970e-02
-9.419932961463928223e-03
-5.350315570831298828e-02
8.934071660041809082e-02
3.964346647262573242e-02
-6.042508408427238464e-02
7.764771580696105957e-02
4.756572842597961426e-02
8.620579540729522705e-02
6.980445981025695801e-02
-7.774072140455245972e-02
-1.073926687240600586e-03
-8.489020168781280518e-03
3.843471407890319824e-02
4.657806456089019775e-02
-3.213342651724815369e-02
-8.671628683805465698e-02
-1.118638366460800171e-02
3.485164046287536621e-02
-7.320265471935272217e-02
-6.075146794319152832e-02
-8.876929432153701782e-02
-3.869071230292320251e-02
1.169215142726898193e-02
-4.931797832250595093e-02
-1.158444583415985107e-02
4.532365500926971436e-02
-2.214132994413375854e-02
5.037532746791839600e-02
3.150892257690429688e-02
-1.319331675767898560e-02
2.901963889598846436e-03
-8.952144533395767212e-02
-2.704728394746780396e-02
1.198649406433105469e-04
-4.618598148226737976e-02
-5.566589906811714172e-02
-6.254139542579650879e-02
4.654824733734130859e-02
5.553737282752990723e-02
-4.430461302399635315e-02
-3.142736107110977173e-02
1.530745625495910645e-02
2.028825879096984863e-02
-5.920849740505218506e-03
3.697507083415985107e-02
6.107164919376373291e-02
-8.836497366428375244e-02
-7.085357606410980225e-02
2.328401058912277222e-02
-3.789564222097396851e-02
5.154187977313995361e-02
-6.184735149145126343e-02
-6.187764927744865417e-02
-6.036167591810226440e-02
3.578369319438934326e-02
-2.647733688354492188e-02
-4.863299429416656494e-03
4.489794373512268066e-04
-4.142195358872413635e-02
8.875739574432373047e-02
-6.674311310052871704e-02
4.316955804824829102e-02
5.803091824054718018e-02
4.821890592575073242e-02
-1.980007439851760864e-02
-5.030123144388198853e-02
-2.848627418279647827e-02
8.603183925151824951e-02
-4.201133921742439270e-02
-3.996529802680015564e-02
3.181482851505279541e-02
-1.478688418865203857e-02
1.341859251260757446e-02
3.309272974729537964e-02
1.817013323307037354e-02
-2.529525011777877808e-02
-8.459258824586868286e-02
-8.279493451118469238e-02
-5.455634370446205139e-02
-8.235454559326171875e-02
-6.480939686298370361e-02
6.188941001892089844e-02
6.126245856285095215e-02
7.749718427658081055e-02
-1.265936344861984253e-02
-8.768375217914581299e-02
-8.907882869243621826e-02
4.049238562583923340e-02
-8.518803864717483521e-02
-3.597544506192207336e-02
9.042610228061676025e-02
8.401294052600860596e-02
6.699347496032714844e-02
-1.855164766311645508e-03
3.672951459884643555e-02
4.052762687206268311e-02
1.819198578596115112e-02
4.360455274581909180e-02
-3.010661527514457703e-02
6.752544641494750977e-02
2.104131132364273071e-02
7.199005782604217529e-02
-3.801569342613220215e-02
-1.601524651050567627e-03
5.250526964664459229e-02
-9.096281230449676514e-02
3.660175204277038574e-02
5.305817723274230957e-02
-7.353828847408294678e-02
-5.581164360046386719e-02
1.375868916511535645e-02
7.484599947929382324e-02
3.201055526733398438e-02
-8.590438216924667358e-02
-1.348539441823959351e-02
-6.012541055679321289e-02
7.154694199562072754e-02
-5.725226178765296936e-02
1.375733315944671631e-02
-7.698619365692138672e-02
-7.224055379629135132e-02
-3.729443997144699097e-02
5.762590467929840088e-02
-5.609721690416336060e-02
7.918509840965270996e-02
4.567764699459075928e-02
-4.688165336847305298e-02
-7.884278148412704468e-02
-1.353037357330322266e-02
-1.667538285255432129e-02
1.349495351314544678e-02
2.434980869293212891e-02
2.221645414829254150e-02
2.817999571561813354e-02
3.316525369882583618e-02
-6.376574933528900146e-02
1.790631562471389771e-02
1.852232217788696289e-02
7.169198989868164062e-02
3.256490826606750488e-02
6.480868160724639893e-02
2.852890640497207642e-02
-7.862253487110137939e-02
6.497073173522949219e-02
9.014019370079040527e-02
-8.804693818092346191e-03
4.505574703216552734e-02
3.926125168800354004e-02
6.213560700416564941e-03
7.216569781303405762e-02
3.334551304578781128e-02
1.111283153295516968e-02
-5.720589309930801392e-02
-4.810960963368415833e-02
8.230888843536376953e-02
3.438825905323028564e-02
5.063670873641967773e-02
-8.405134081840515137e-02
-5.348255485296249390e-02
-2.668898552656173706e-02
-4.723021388053894043e-02
-1.563881337642669678e-02
3.975965082645416260e-03
1.888447999954223633e-02
-7.866179943084716797e-02
-1.136393845081329346e-02
2.643793821334838867e-03
-2.796889841556549072e-02
6.463502347469329834e-02
3.795331716537475586e-02
1.177423447370529175e-02
5.338069796562194824e-02
7.340504229068756104e-02
2.102361619472503662e-02
2.470518648624420166e-02
-1.243050396442413330e-02
-3.295034170150756836e-03
-2.631705254316329956e-02
-7.659564912319183350e-02
4.064835608005523682e-03
8.500714600086212158e-02
5.847446620464324951e-02
6.178833544254302979e-02
7.038593292236328125e-02
-3.722127899527549744e-02
8.032283186912536621e-02
-3.819420933723449707e-02
-4.726722836494445801e-04
7.244330644607543945e-02
-2.348365634679794312e-02
-3.414809703826904297e-03
-4.690885916352272034e-02
3.081925213336944580e-03
6.228290498256683350e-03
6.084088981151580811e-02
-1.346462965011596680e-02
3.807158768177032471e-02
-8.348052203655242920e-02
2.193509787321090698e-02
2.550619095563888550e-02
3.299862891435623169e-02
3.858403861522674561e-02
-4.701120778918266296e-02
-5.540120974183082581e-02
4.363936185836791992e-02
-4.381519556045532227e-02
-3.586023300886154175e-02
-6.817032396793365479e-02
-3.593047708272933960e-02
6.092134118080139160e-02
9.098069369792938232e-02
-2.708520740270614624e-02
-1.953806728124618530e-02
9.877473115921020508e-03
5.973733961582183838e-03
5.042286217212677002e-02
3.078418970108032227e-02
-7.703407108783721924e-02
-3.220374882221221924e-02
1.832712441682815552e-02
-5.237152054905891418e-02
3.306182473897933960e-02
-3.462575003504753113e-02
-8.677367120981216431e-02
-2.700372785329818726e-02
-5.604141205549240112e-02
5.636250972747802734e-02
8.243098855018615723e-03
-2.701725810766220093e-02
-7.182980328798294067e-02
3.285922855138778687e-02
-5.269953235983848572e-02
-3.993929922580718994e-02
2.342863380908966064e-02
2.967128902673721313e-02
1.366423070430755615e-02
-8.984901010990142822e-03
5.660811066627502441e-02
7.709363102912902832e-02
8.286090195178985596e-02
-1.156467199325561523e-02
-4.427640512585639954e-02
4.314720630645751953e-02
2.801728248596191406e-02
-2.859553694725036621e-02
6.585717201232910156e-03
-6.979023665189743042e-02
3.440845012664794922e-02
-2.641636133193969727e-02
4.534438252449035645e-03
4.191003739833831787e-02
7.507674396038055420e-02
8.863964676856994629e-02
-6.347928196191787720e-02
-3.918894380331039429e-02
-2.856805920600891113e-02
-7.994396984577178955e-02
8.369483053684234619e-02
7.629439234733581543e-02
-1.855368167161941528e-02
8.614782989025115967e-02
5.924250185489654541e-02
-1.519832760095596313e-02
-6.579655408859252930e-02
-5.272343009710311890e-02
-7.044332474470138550e-02
9.941846132278442383e-03
7.218551635742187500e-02
-7.401727139949798584e-03
-7.484357059001922607e-02
-3.725094348192214966e-02
4.454471170902252197e-03
8.772476017475128174e-02
3.437945246696472168e-02
6.099128723144531250e-02
7.035620510578155518e-02
-6.394772231578826904e-02
2.640970051288604736e-02
-1.785100251436233521e-02
4.170626401901245117e-03
-4.510844126343727112e-02
7.185859978199005127e-02
8.777934312820434570e-02
3.959740698337554932e-02
3.763891756534576416e-03
-5.547842755913734436e-02
5.110391974449157715e-02
4.900944232940673828e-02
2.109315991401672363e-02
2.651101350784301758e-02
-7.565182447433471680e-02
1.976296305656433105e-03
-5.259519442915916443e-02
-3.198035061359405518e-03
-4.542268067598342896e-02
-6.564728915691375732e-02
2.412996441125869751e-02
-8.077222853899002075e-02
-3.621339797973632812e-03
3.008137643337249756e-02
8.585382997989654541e-02
4.769712686538696289e-02
-1.466972380876541138e-02
-7.584777474403381348e-02
6.906430423259735107e-02
-3.512850776314735413e-02
-7.701729238033294678e-02
2.395017445087432861e-02
4.830397665500640869e-02
-9.034144133329391479e-02
4.801936447620391846e-02
7.531559467315673828e-02
4.685764014720916748e-02
6.161350011825561523e-02
-3.079930320382118225e-02
-4.274108260869979858e-02
3.507070243358612061e-02
7.696072757244110107e-02
3.292686492204666138e-02
-8.851091563701629639e-02
1.574196666479110718e-02
-6.831196695566177368e-02
-3.032152727246284485e-02
1.446340978145599365e-02
4.484400153160095215e-02
-8.271608501672744751e-02
2.738673239946365356e-02
-9.607076644897460938e-04
-5.793251097202301025e-03
5.282810330390930176e-02
3.470076620578765869e-02
-8.088020235300064087e-02
1.309091597795486450e-02
-8.552098274230957031e-02
-1.353073120117187500e-02
6.753732264041900635e-02
9.582482278347015381e-03
8.049161732196807861e-02
3.686366975307464600e-02
9.037338197231292725e-02
-6.299591064453125000e-02
-5.022291466593742371e-02
-9.234413504600524902e-03
3.902292251586914062e-02
-5.638280138373374939e-02
6.326034665107727051e-03
4.344320297241210938e-02
5.853310227394104004e-03
-6.269194930791854858e-02
-3.649687767028808594e-02
-3.479419648647308350e-02
-4.218475893139839172e-02
-1.669108867645263672e-03
-5.139908939599990845e-02
7.728998363018035889e-02
-6.432323157787322998e-02
2.275099605321884155e-02
-6.508984416723251343e-02
-3.172840923070907593e-02
-4.809426516294479370e-02
1.619458943605422974e-02
-6.856612116098403931e-02
-3.926735371351242065e-02
-2.498512715101242065e-02
-5.271188542246818542e-02
5.187422037124633789e-02
7.880264520645141602e-02
-7.095914334058761597e-02
2.118577808141708374e-02
-7.866385579109191895e-02
5.770161747932434082e-02
-2.247491478919982910e-02
2.572342008352279663e-02
-7.143765687942504883e-02
-7.124677300453186035e-03
-5.834586545825004578e-02
-1.176875829696655273e-02
-2.036834508180618286e-02
-3.962242975831031799e-02
-8.250613510608673096e-02
3.280729055404663086e-03
-2.332096546888351440e-02
-7.747102528810501099e-02
-1.012689620256423950e-02
-4.679416120052337646e-02
3.912970423698425293e-02
4.826323688030242920e-02
-3.592598438262939453e-02
8.456951379776000977e-02
7.051177322864532471e-02
-7.811263203620910645e-02
7.346291840076446533e-02
5.833745002746582031e-03
7.973223924636840820e-03
-5.201296135783195496e-02
3.310133516788482666e-02
-4.959398508071899414e-02
6.696753203868865967e-03
-5.157741904258728027e-02
-4.464787244796752930e-02
5.249430239200592041e-02
-7.694369554519653320e-02
-4.606446251273155212e-02
1.563832908868789673e-02
8.206841349601745605e-02
-9.096630662679672241e-02
-3.353062272071838379e-02
-2.972662448883056641e-03
-8.313807845115661621e-02
5.277037620544433594e-03
-1.514139026403427124e-02
3.511615097522735596e-02
-4.733059182763099670e-02
1.223403960466384888e-02
2.840965241193771362e-02
-2.584674954414367676e-02
5.304248631000518799e-02
-5.488031730055809021e-02
-1.694080978631973267e-02
6.917104125022888184e-02
3.870514035224914551e-02
3.250794112682342529e-02
8.104610443115234375e-02
-4.975786060094833374e-02
8.957332372665405273e-02
4.525837302207946777e-02
7.809726893901824951e-02
-3.964922204613685608e-02
1.729965209960937500e-02
-1.920244842767715454e-02
8.018182218074798584e-02
2.938614040613174438e-02
1.953020691871643066e-04
4.480066895484924316e-02
4.127067327499389648e-02
5.674582719802856445e-02
-2.965699136257171631e-02
3.355221450328826904e-02
4.489263892173767090e-02
6.949208676815032959e-02
2.777133136987686157e-02
-6.484271585941314697e-02
5.718882381916046143e-02
-6.455441564321517944e-02
8.324481546878814697e-02
-8.738845586776733398e-02
6.886531412601470947e-02
2.713742107152938843e-02
1.147086173295974731e-02
2.097352594137191772e-02
8.792054653167724609e-02
9.387522935867309570e-03
1.610123366117477417e-02
8.063253760337829590e-02
3.467009961605072021e-02
8.618178963661193848e-02
1.998879015445709229e-02
5.668522417545318604e-02
7.462537288665771484e-02
-9.009111672639846802e-02
-7.592067122459411621e-02
7.413060963153839111e-02
2.274414151906967163e-02
-3.295466303825378418e-03
4.442007839679718018e-02
2.796372026205062866e-02
2.259614318609237671e-02
-6.635616719722747803e-02
-1.162994652986526489e-02
3.874719142913818359e-02
-2.685669064521789551e-02
8.894219994544982910e-02
-6.137578934431076050e-02
2.252272516489028931e-02
-6.327895075082778931e-02
3.033071011304855347e-02
-5.815673992037773132e-02
4.055823385715484619e-02
-2.710935473442077637e-02
-1.802120357751846313e-02
5.673906207084655762e-02
-4.453254118561744690e-02
-3.528564795851707458e-02
-7.400986552238464355e-02
-5.429765954613685608e-02
8.479692041873931885e-02
-7.223583757877349854e-02
-2.553634345531463623e-02
-8.193209767341613770e-02
7.726678252220153809e-02
-4.704630374908447266e-02
-7.476709783077239990e-03
8.641856908798217773e-02
6.204299628734588623e-03
-7.509499043226242065e-02
6.018486618995666504e-02
-4.472023993730545044e-02
-7.551440596580505371e-02
6.757803261280059814e-03
6.259365379810333252e-02
4.324589669704437256e-02
-9.078216552734375000e-02
3.902107477188110352e-02
5.920261144638061523e-02
7.337270677089691162e-02
-7.532750070095062256e-02
2.318838238716125488e-02
2.827403694391250610e-02
-1.432161033153533936e-02
5.330000817775726318e-02
5.604353547096252441e-02
-7.765474915504455566e-02
4.132996499538421631e-02
2.587078511714935303e-02
7.852785289287567139e-02
-6.791104376316070557e-02
7.328832149505615234e-02
4.643873870372772217e-02
2.014129608869552612e-02
5.568020045757293701e-02
8.412835001945495605e-02
4.766830801963806152e-02
5.617021024227142334e-02
-6.991697102785110474e-02
2.515132725238800049e-02
1.519539207220077515e-02
7.639516890048980713e-02
-4.082723706960678101e-02
-3.233426809310913086e-02
-5.229062214493751526e-02
6.425240635871887207e-02
3.187949955463409424e-02
-8.885815739631652832e-02
4.505230486392974854e-02
8.539396524429321289e-02
5.518846213817596436e-02
7.655502855777740479e-02
-8.291466534137725830e-02
3.294645249843597412e-02
-1.383993029594421387e-02
-3.690496087074279785e-04
-8.126911520957946777e-02
4.205110669136047363e-02
7.693673670291900635e-02
-6.164519488811492920e-02
-3.648348152637481689e-02
-5.725506693124771118e-02
6.361956894397735596e-02
-5.024035647511482239e-02
-1.619277149438858032e-02
-2.685804665088653564e-02
8.033981919288635254e-02
1.269771158695220947e-02
-8.847772330045700073e-02
8.640280365943908691e-02
-3.692358359694480896e-02
5.691640079021453857e-02
1.064702868461608887e-02
5.485539138317108154e-02
-4.328925535082817078e-02
4.795910418033599854e-02
6.757006049156188965e-02
6.180875003337860107e-02
-7.411275804042816162e-02
-1.733779162168502808e-02
8.496925234794616699e-02
3.278983384370803833e-02
-6.645350158214569092e-02
5.475714802742004395e-02
7.588382065296173096e-02
2.481518685817718506e-02
-1.919753104448318481e-02
7.291908562183380127e-02
-6.013550609350204468e-02
1.655545830726623535e-02
2.855963259935379028e-02
-2.570335566997528076e-02
8.797709643840789795e-02
-8.979192376136779785e-02
-7.182505726814270020e-02
-7.511551678180694580e-02
-3.180706501007080078e-02
-9.642407298088073730e-03
-3.169295564293861389e-02
7.410691678524017334e-02
-2.664567530155181885e-02
3.983832895755767822e-02
-6.714153289794921875e-02
6.151659786701202393e-02
2.611394971609115601e-02
8.561255037784576416e-02
4.914364218711853027e-02
1.401761174201965332e-02
5.324168503284454346e-02
-5.797717347741127014e-02
3.438891470432281494e-02
7.090933620929718018e-02
-3.597892820835113525e-03
5.066972970962524414e-02
5.762685835361480713e-02
2.445895224809646606e-02
7.385939359664916992e-03
8.065946400165557861e-03
-1.501384377479553223e-02
-7.145097851753234863e-02
-5.712637305259704590e-02
-8.187508583068847656e-02
-4.677821695804595947e-02
5.333280563354492188e-02
-6.281746178865432739e-02
1.156105101108551025e-02
3.393253684043884277e-02
2.857141196727752686e-02
2.023006230592727661e-02
7.115936279296875000e-02
-2.142123878002166748e-03
-7.719213515520095825e-02
-5.850532278418540955e-02
-2.901332825422286987e-02
-4.666908085346221924e-02
7.672126591205596924e-02
6.500302255153656006e-02
7.148915529251098633e-02
5.966252088546752930e-02
-5.103214085102081299e-02
-2.624022215604782104e-02
-5.223469808697700500e-02
4.663237929344177246e-02
6.839092075824737549e-02
1.455444842576980591e-02
-3.667521849274635315e-02
-6.019207090139389038e-02
7.577849924564361572e-02
5.494065582752227783e-02
-7.370607554912567139e-02
-8.793959766626358032e-02
-2.314299345016479492e-03
5.932320654392242432e-02
6.663155555725097656e-02
-1.872379332780838013e-02
6.540869176387786865e-02
2.108870446681976318e-02
-2.129409462213516235e-02
-8.938864618539810181e-02
4.119107127189636230e-02
6.533136963844299316e-02
-1.960497349500656128e-02
-6.415013968944549561e-02
3.843487799167633057e-02
-5.845129489898681641e-03
-2.905089408159255981e-02
7.610310614109039307e-02
4.846757650375366211e-02
-5.472813919186592102e-02
-7.905958592891693115e-02
2.167322486639022827e-02
-1.438596844673156738e-02
5.939202010631561279e-02
-5.828846991062164307e-02
-2.897647023200988770e-02
-5.070304870605468750e-02
2.246445417404174805e-02
-7.115531712770462036e-02
-4.657547175884246826e-02
3.936530649662017822e-02
-7.510918378829956055e-02
-7.656186074018478394e-02
7.532502710819244385e-02
7.927440106868743896e-02
-1.707167923450469971e-02
5.986183881759643555e-02
-6.689077615737915039e-02
4.518601298332214355e-02
9.100246429443359375e-02
-7.276898622512817383e-02
9.676188230514526367e-03
5.602172017097473145e-02
-8.889029175043106079e-02
8.217288553714752197e-02
-8.771268278360366821e-02
7.086114585399627686e-02
-5.370501056313514709e-02
8.334052562713623047e-02
-1.473382860422134399e-02
-7.706273347139358521e-02
-5.955481901764869690e-02
6.843245029449462891e-02
1.344881951808929443e-03
-4.847805202007293701e-02
-8.359544724225997925e-02
-2.003958076238632202e-02
2.983167022466659546e-02
2.429241687059402466e-02
-4.408307000994682312e-02
2.955150604248046875e-02
-5.221630632877349854e-02
-7.804805785417556763e-02
-3.894571587443351746e-02
8.144457638263702393e-02
-7.116172462701797485e-02
-6.045071035623550415e-02
-4.769814014434814453e-02
8.926168084144592285e-03
-8.182318508625030518e-02
-8.343026787042617798e-02
8.219504356384277344e-02
6.354077160358428955e-02
-1.644906401634216309e-02
-3.031243011355400085e-02
3.616680204868316650e-02
-3.835929185152053833e-02
-8.403466641902923584e-02
-2.021280676126480103e-02
-5.926981195807456970e-02
6.330236792564392090e-02
5.921714007854461670e-03
-8.625683933496475220e-02
4.328094422817230225e-02
-3.426359593868255615e-02
4.816396534442901611e-02
-2.259378135204315186e-02
4.374766349792480469e-02
-1.269633322954177856e-02
7.983379065990447998e-02
1.272328943014144897e-02
-8.207906037569046021e-02
2.882286906242370605e-03
-6.466467678546905518e-02
-2.974690124392509460e-02
-4.628269374370574951e-02
-7.176253944635391235e-02
1.396501809358596802e-02
-1.001976430416107178e-02
7.368601858615875244e-03
-2.282615751028060913e-02
8.176800608634948730e-02
2.309405803680419922e-02
-6.253393739461898804e-02
8.217078447341918945e-02
2.837207913398742676e-02
-1.356506347656250000e-02
2.675682306289672852e-02
-1.219563186168670654e-03
-7.254654914140701294e-02
-4.991125687956809998e-02
3.208190947771072388e-02
7.129356265068054199e-02
9.089112281799316406e-02
7.537217438220977783e-02
-6.604641675949096680e-03
-7.662302255630493164e-02
-5.674507096409797668e-02
5.909134447574615479e-02
-4.348360002040863037e-03
6.079289317131042480e-02
6.828621029853820801e-02
-4.553150013089179993e-02
-3.523777797818183899e-02
-7.674166560173034668e-02
6.228496134281158447e-02
4.318028688430786133e-02
5.140824615955352783e-02
-5.693606659770011902e-02
7.293522357940673828e-03
-2.557646483182907104e-02
5.543954670429229736e-02
-8.969645202159881592e-02
8.789271116256713867e-02
-6.641671061515808105e-04
8.466668426990509033e-03
8.094501495361328125e-02
3.544211387634277344e-03
5.462403595447540283e-02
-1.603097468614578247e-02
1.229012757539749146e-02
-4.675294831395149231e-02
-1.973811537027359009e-02
-5.189510434865951538e-02
6.255190074443817139e-02
-8.406686782836914062e-02
-1.898276060819625854e-02
-1.449254900217056274e-02
3.267852216958999634e-02
3.489707410335540771e-02
-3.921836614608764648e-04
-1.284199208021163940e-02
8.902944624423980713e-02
1.669814437627792358e-02
1.442998647689819336e-03
-5.649004504084587097e-02
-8.674785494804382324e-04
4.992635548114776611e-02
-6.877484917640686035e-02
-1.116837561130523682e-02
-3.285114467144012451e-02
1.350472122430801392e-02
-8.577417582273483276e-02
7.992789149284362793e-02
-7.142553478479385376e-02
8.928172290325164795e-02
-5.201540887355804443e-02
-3.821661323308944702e-02
5.220718681812286377e-02
2.900998294353485107e-02
-4.039780050516128540e-02
1.344189047813415527e-03
-5.995820090174674988e-02
4.654128849506378174e-02
7.964915037155151367e-02
-2.894210442900657654e-02
-8.822904527187347412e-02
-1.813224703073501587e-02
-1.710598915815353394e-02
8.702765405178070068e-02
3.433302044868469238e-03
-5.320549011230468750e-03
-1.829823106527328491e-02
1.635943353176116943e-02
-6.338928639888763428e-02
-3.405100107192993164e-02
8.194279670715332031e-02
-5.459375679492950439e-02
3.344686329364776611e-02
3.087803721427917480e-03
3.929704427719116211e-03
5.883929133415222168e-02
-8.854302763938903809e-02
7.039418816566467285e-02
8.806690573692321777e-03
-6.097010150551795959e-02
6.417867541313171387e-02
4.402537643909454346e-02
4.671308398246765137e-02
2.941001951694488525e-02
3.900548815727233887e-02
6.592914462089538574e-02
5.174735188484191895e-02
-1.508850604295730591e-02
-2.339765429496765137e-03
-1.231443881988525391e-02
6.086254119873046875e-02
-6.259203702211380005e-02
1.422248035669326782e-02
-6.919267773628234863e-02
-8.480305224657058716e-02
-4.011609405279159546e-02
-1.177458465099334717e-02
-6.521122157573699951e-02
4.617738723754882812e-02
7.259145379066467285e-03
9.007869660854339600e-02
-4.717927426099777222e-02
-7.660917192697525024e-02
-9.018273651599884033e-02
3.171306848526000977e-02
-6.390638649463653564e-02
2.631798386573791504e-02
-3.755139186978340149e-02
-5.775747075676918030e-02
3.621351718902587891e-02
1.928965002298355103e-02
6.578600406646728516e-02
2.947171777486801147e-02
-7.687213271856307983e-02
-5.510036647319793701e-02
-2.199388295412063599e-02
9.039454162120819092e-03
-8.806622028350830078e-02
7.476606965065002441e-02
-1.233279705047607422e-03
2.682687342166900635e-02
5.216810107231140137e-02
-9.059341996908187866e-02
-7.983136922121047974e-02
4.302236437797546387e-02
-4.097014665603637695e-03
5.869454145431518555e-02
-2.695441991090774536e-02
-6.361623108386993408e-02
-6.794451177120208740e-02
7.917056977748870850e-02
5.697998404502868652e-02
-4.446193948388099670e-02
5.283580720424652100e-02
8.702258765697479248e-02
8.059673011302947998e-03
-6.291128695011138916e-03
7.042303681373596191e-02
5.853922665119171143e-02
-2.409119158983230591e-02
2.273740619421005249e-02
-7.244206964969635010e-02
8.083839714527130127e-02
-8.340846747159957886e-02
-6.281336396932601929e-02
-4.203036427497863770e-03
4.191245138645172119e-02
-8.248963952064514160e-02
7.173158228397369385e-03
9.048987925052642822e-02
-8.173253387212753296e-02
-6.380202621221542358e-02
-8.653058111667633057e-02
8.706210553646087646e-02
3.362962603569030762e-02
-2.566886693239212036e-02
-4.057716205716133118e-02
4.597444832324981689e-02
7.295833528041839600e-02
9.253248572349548340e-03
-5.150628089904785156e-02
1.976308226585388184e-02
-7.436019927263259888e-02
-1.611182838678359985e-02
-8.243457973003387451e-02
4.873697459697723389e-02
-3.336336091160774231e-02
6.114840507507324219e-02
4.231609404087066650e-02
6.103654205799102783e-02
7.382403314113616943e-02
-7.036803662776947021e-02
-6.004176661372184753e-02
8.705480396747589111e-02
-6.083029508590698242e-02
-4.715252295136451721e-02
-1.488092541694641113e-02
2.639181911945343018e-02
-4.922746866941452026e-02
-5.004022270441055298e-02
5.924814939498901367e-02
6.275206804275512695e-03
-5.729138106107711792e-02
-7.352846860885620117e-02
-8.259320259094238281e-02
8.926922082901000977e-02
7.884795963764190674e-02
5.824653804302215576e-02
7.574321329593658447e-02
-3.697406500577926636e-02
-5.940657854080200195e-02
-7.751633971929550171e-02
4.746571183204650879e-02
7.641419768333435059e-03
-6.862093508243560791e-02
5.926115810871124268e-02
-7.750879973173141479e-02
6.019668281078338623e-02
7.150241732597351074e-02
-1.729039102792739868e-02
6.196996569633483887e-02
-9.068772196769714355e-04
-4.689193889498710632e-02
6.481428444385528564e-02
7.362887263298034668e-02
-3.210864588618278503e-02
-6.274886429309844971e-02
1.306252181529998779e-02
2.083041518926620483e-02
2.732521295547485352e-02
7.028128206729888916e-02
5.175016820430755615e-02
5.836141109466552734e-02
6.072634458541870117e-02
-5.192104727029800415e-02
-7.403256744146347046e-02
2.233074605464935303e-02
2.077633142471313477e-02
-4.619342833757400513e-02
5.708213150501251221e-02
-8.632913231849670410e-02
-4.870860278606414795e-02
-8.859483152627944946e-02
8.081413805484771729e-02
-1.296103000640869141e-04
1.090099662542343140e-02
-1.795880496501922607e-03
-4.479652270674705505e-02
7.755060493946075439e-02
-4.533690586686134338e-02
-1.089909672737121582e-02
-8.126198500394821167e-02
2.392996847629547119e-02
6.292873620986938477e-02
-8.665303140878677368e-02
-1.192387938499450684e-02
-8.226219564676284790e-02
1.356763392686843872e-02
5.529707670211791992e-02
-8.980955928564071655e-02
-1.745457202196121216e-02
-4.127553477883338928e-02
7.786408066749572754e-03
-7.926225662231445312e-04
3.730803728103637695e-04
-4.899679869413375854e-02
-2.522319555282592773e-02
4.430653154850006104e-02
-8.049938827753067017e-02
4.928520321846008301e-02
5.077973008155822754e-02
4.626339673995971680e-02
-1.411126554012298584e-02
-3.154360875487327576e-02
-1.444073021411895752e-02
-7.491964846849441528e-02
-8.315403014421463013e-02
7.945711910724639893e-02
6.845277547836303711e-02
1.402214169502258301e-03
7.082271575927734375e-02
4.180365800857543945e-02
7.970412075519561768e-02
1.812772452831268311e-02
7.800169289112091064e-03
5.066433548927307129e-02
2.321404963731765747e-02
4.431396722793579102e-02
-8.054763078689575195e-03
-1.867953687906265259e-02
4.415623843669891357e-03
-2.040698379278182983e-02
-2.076347917318344116e-02
-1.740881055593490601e-02
-1.481480896472930908e-03
4.611232876777648926e-02
4.827147722244262695e-02
-1.821328699588775635e-02
-5.364152416586875916e-02
6.705498695373535156e-02
4.258379340171813965e-02
6.465506553649902344e-02
-1.963905990123748779e-02
-8.619359135627746582e-02
-1.091697067022323608e-02
8.997626602649688721e-03
-1.928873360157012939e-03
-4.469672217965126038e-02
5.262501537799835205e-02
-1.697100698947906494e-03
-5.121469497680664062e-03
-3.758944943547248840e-02
-2.645222842693328857e-02
3.058799356222152710e-02
5.602878332138061523e-02
-3.467589616775512695e-03
4.052229225635528564e-02
1.990661025047302246e-02
5.743250250816345215e-02
3.599902987480163574e-02
-8.548779040575027466e-02
-3.303554281592369080e-02
8.199785649776458740e-02
5.588229000568389893e-02
-2.679212391376495361e-02
1.703070849180221558e-02
-1.833088696002960205e-03
-2.764144539833068848e-02
9.105719625949859619e-02
-7.984226197004318237e-02
4.070450365543365479e-02
2.104922384023666382e-02
9.114295244216918945e-03
1.861110329627990723e-03
3.290134668350219727e-02
-7.900954782962799072e-02
-8.655332773923873901e-02
8.776213228702545166e-02
1.607032865285873413e-02
-7.720716297626495361e-03
-5.608670413494110107e-03
-8.092923462390899658e-02
-8.263438940048217773e-03
6.019030511379241943e-02
-6.220076605677604675e-02
-5.666130036115646362e-02
-5.636674910783767700e-02
-7.678964734077453613e-02
-5.144278332591056824e-02
-2.765008062124252319e-02
-8.129024505615234375e-02
-5.707611143589019775e-02
-5.739761516451835632e-02
-7.386119663715362549e-02
-2.968578413128852844e-02
-2.411594986915588379e-02
2.392011135816574097e-02
2.426400780677795410e-02
6.724719703197479248e-02
8.704011142253875732e-02
7.595132291316986084e-02
3.720359504222869873e-02
1.694827526807785034e-02
7.270225882530212402e-02
-3.263043984770774841e-02
-1.684370636940002441e-02
4.766650497913360596e-02
-4.951385781168937683e-02
7.527922093868255615e-02
2.551634609699249268e-02
-1.361881196498870850e-02
-5.563316494226455688e-02
-3.330108150839805603e-02
-1.190186291933059692e-02
7.429641485214233398e-02
1.358060538768768311e-02
5.734942853450775146e-02
1.462379097938537598e-02
-8.010324090719223022e-02
1.800639927387237549e-02
-1.265201717615127563e-02
-1.695244014263153076e-02
-7.681419700384140015e-02
1.654182374477386475e-02
-6.772015243768692017e-02
4.264189302921295166e-02
-9.991697967052459717e-03
-6.156131625175476074e-03
7.748994231224060059e-02
-2.515816688537597656e-02
1.200851798057556152e-02
2.061636000871658325e-02
-1.403254270553588867e-02
7.536897063255310059e-02
5.207864940166473389e-02
7.921488583087921143e-02
5.272178351879119873e-02
-2.698589861392974854e-02
-6.365783512592315674e-02
6.901727616786956787e-02
4.911367595195770264e-02
-8.957080543041229248e-02
5.863772332668304443e-02
2.008506655693054199e-02
1.393141597509384155e-02
3.767117857933044434e-02
2.905704081058502197e-03
-7.073722034692764282e-02
-8.546635508537292480e-04
-8.150413632392883301e-02
-7.277803122997283936e-02
-7.702183723449707031e-02
-4.962425678968429565e-02
2.568574994802474976e-02
-8.274347335100173950e-02
5.014953017234802246e-02
-5.611548945307731628e-02
-5.612969025969505310e-02
-2.091081440448760986e-02
-1.750640571117401123e-02
-5.147795379161834717e-02
1.924398541450500488e-02
-1.097052544355392456e-02
7.886800169944763184e-02
-4.179390892386436462e-02
2.362646162509918213e-03
8.857242763042449951e-02
8.139237761497497559e-02
-2.786993980407714844e-03
4.394292831420898438e-02
-4.399341344833374023e-02
5.877606570720672607e-02
-4.730581119656562805e-02
-3.484054282307624817e-02
9.044647216796875000e-02
2.694903314113616943e-02
-4.172718152403831482e-02
2.913815528154373169e-02
1.167789101600646973e-02
-1.069066673517227173e-02
-3.310716152191162109e-02
-8.669638633728027344e-02
2.230407297611236572e-02
5.921664834022521973e-02
5.803094804286956787e-02
6.673675775527954102e-02
5.690746009349822998e-02
-5.068254843354225159e-02
-9.007275104522705078e-02
-6.489717215299606323e-02
3.501988947391510010e-02
6.724224984645843506e-02
3.841631114482879639e-02
3.347797691822052002e-02
6.747901439666748047e-03
4.253070056438446045e-02
-6.332014501094818115e-02
6.335903704166412354e-02
-1.773583889007568359e-02
3.392358124256134033e-02
-9.069503843784332275e-02
-7.042017579078674316e-02
3.759431838989257812e-02
5.525921285152435303e-02
-5.694490298628807068e-02
-9.517177939414978027e-03
-6.847921758890151978e-02
6.234268844127655029e-02
-1.685322821140289307e-02
5.734635889530181885e-02
-4.330593720078468323e-02
-7.219460606575012207e-02
6.561511754989624023e-02
6.333357095718383789e-02
3.919404745101928711e-02
3.551389276981353760e-02
7.448217272758483887e-02
-5.113915726542472839e-02
-5.249157547950744629e-04
-5.856924504041671753e-02
-5.572117865085601807e-02
8.666808903217315674e-02
-2.819332480430603027e-02
-5.815629288554191589e-02
7.459963858127593994e-02
5.231596529483795166e-02
-7.271493971347808838e-02
8.995753526687622070e-02
-3.989716246724128723e-02
9.308613836765289307e-03
-6.828929483890533447e-02
7.727174460887908936e-02
2.859814465045928955e-02
-8.644793182611465454e-02
1.337940990924835205e-02
-7.907534390687942505e-02
-3.394220024347305298e-02
-8.992272615432739258e-02
3.706525266170501709e-02
6.449674069881439209e-02
3.215940296649932861e-02
1.036759465932846069e-02
1.150664687156677246e-02
-7.894277572631835938e-02
-1.442441344261169434e-02
-4.485561326146125793e-02
-7.795716077089309692e-02
5.791987478733062744e-02
-6.691971421241760254e-02
3.848490118980407715e-02
2.962375432252883911e-02
6.708027422428131104e-02
-5.030997097492218018e-02
1.304753869771957397e-02
9.286582469940185547e-03
1.988410204648971558e-02
-8.499678224325180054e-02
5.022013187408447266e-02
5.192874372005462646e-02
-5.948603153228759766e-02
5.180586874485015869e-02
7.594570517539978027e-03
6.077645719051361084e-02
-3.255498409271240234e-02
-3.820002824068069458e-02
8.831515908241271973e-02
7.170794904232025146e-02
-3.597373515367507935e-02
-8.479610085487365723e-02
1.579936593770980835e-02
-5.843135342001914978e-02
-5.792694166302680969e-02
8.357881009578704834e-02
-6.950136274099349976e-02
6.498393416404724121e-02
-6.412503123283386230e-02
-2.978529408574104309e-02
-8.030605316162109375e-02
6.884670257568359375e-02
-4.231035709381103516e-04
1.960690319538116455e-02
-7.453604042530059814e-02
-2.222686260938644409e-02
-1.073147356510162354e-02
2.102301269769668579e-02
-5.109741166234016418e-02
-6.225240230560302734e-02
-4.821272939443588257e-02
4.827301204204559326e-02
-7.702972739934921265e-02
-9.865887463092803955e-03
-9.087743610143661499e-02
6.804794073104858398e-03
4.362440109252929688e-02
7.218025624752044678e-02
-5.076155439019203186e-02
-6.703346222639083862e-02
7.780390977859497070e-02
7.772918045520782471e-02
-6.471803784370422363e-02
-9.066566824913024902e-02
-4.101086407899856567e-02
2.686750888824462891e-02
5.190451443195343018e-02
-4.118895530700683594e-02
-7.516265660524368286e-02
-2.239959686994552612e-02
1.622192561626434326e-02
7.107645273208618164e-02
5.582962930202484131e-02
6.004303693771362305e-02
-4.310759529471397400e-02
8.898356556892395020e-02
-5.719872936606407166e-02
-3.892883658409118652e-03
1.897107064723968506e-02
-1.545795053243637085e-02
7.923185825347900391e-03
-2.863552421331405640e-02
8.217145502567291260e-02
4.606343805789947510e-02
5.942419171333312988e-02
-6.137639284133911133e-02
7.485678791999816895e-02
7.141068577766418457e-02
6.995350122451782227e-03
-1.264718919992446899e-02
-2.260225266218185425e-02
3.799423575401306152e-03
-4.827496409416198730e-02
-9.036936610937118530e-02
-1.681636273860931396e-02
-5.684750527143478394e-02
9.075076878070831299e-02
-8.557034283876419067e-02
7.140600681304931641e-02
4.011137783527374268e-02
2.932784706354141235e-02
-3.996657207608222961e-02
2.719536423683166504e-02
3.879757225513458252e-02
-2.393145114183425903e-02
4.713073372840881348e-02
3.494201600551605225e-02
7.596296072006225586e-02
3.457847237586975098e-02
2.561666816473007202e-02
1.223380118608474731e-02
-6.137620657682418823e-02
6.830237805843353271e-02
6.058026850223541260e-02
6.704546511173248291e-02
7.254748046398162842e-02
3.618095815181732178e-02
3.406971693038940430e-02
3.034923225641250610e-02
-7.667565345764160156e-02
8.058077096939086914e-02
8.436933159828186035e-03
9.134471416473388672e-03
-6.036631017923355103e-02
7.663156092166900635e-02
6.451243162155151367e-02
-1.475366950035095215e-02
5.456067621707916260e-02
8.617904782295227051e-02
6.862333416938781738e-02
-9.088738262653350830e-02
1.442082226276397705e-03
3.059963881969451904e-02
6.826765835285186768e-03
-7.299020886421203613e-02
6.054487824440002441e-02
1.479563862085342407e-02
-5.392972007393836975e-02
5.636806786060333252e-02
8.628743886947631836e-02
-7.775500416755676270e-03
-1.981405168771743774e-02
1.207800209522247314e-02
7.035166025161743164e-03
1.606418937444686890e-02
1.269094645977020264e-02
-4.383166879415512085e-02
1.631139963865280151e-02
3.344511240720748901e-02
4.809515178203582764e-02
-4.624038934707641602e-03
-5.647569149732589722e-02
5.669540166854858398e-02
3.945221006870269775e-02
-1.966531574726104736e-02
2.519756555557250977e-02
-4.419993609189987183e-02
6.744399666786193848e-02
6.684325635433197021e-02
1.271521300077438354e-02
-5.317828804254531860e-02
5.717255175113677979e-02
3.221119940280914307e-02
-6.982453167438507080e-03
-8.155443519353866577e-02
-4.589136689901351929e-02
-8.185908198356628418e-02
-8.404621481895446777e-02
-6.160885840654373169e-02
1.544862985610961914e-02
-5.756491795182228088e-02
2.956724911928176880e-02
3.414681553840637207e-02
-5.671001970767974854e-03
-5.258555337786674500e-02
-8.579843491315841675e-02
-6.424009799957275391e-03
-5.494738370180130005e-02
7.479012012481689453e-02
-4.806715622544288635e-02
6.700199842453002930e-02
-8.145502954721450806e-02
-5.110673606395721436e-03
4.603888094425201416e-02
4.829852283000946045e-02
4.980058968067169189e-02
9.095624089241027832e-02
-1.350127160549163818e-02
-8.047653734683990479e-02
1.423654705286026001e-02
6.406925618648529053e-02
-2.456389367580413818e-03
-4.673734307289123535e-02
3.778661787509918213e-02
-7.326635718345642090e-02
-2.356304228305816650e-02
-6.080728024244308472e-02
-7.833562791347503662e-02
-6.982521712779998779e-02
-5.262940749526023865e-02
6.589642167091369629e-02
4.720045626163482666e-02
9.484216570854187012e-03
-7.698930054903030396e-02
-5.064904689788818359e-05
-1.798073947429656982e-02
-3.787044808268547058e-02
-6.270258873701095581e-02
-1.713812351226806641e-02
-6.035897508263587952e-02
1.784287393093109131e-03
-7.482172548770904541e-02
-3.056205809116363525e-02
3.611730039119720459e-02
2.226183563470840454e-02
8.320508897304534912e-02
6.243252754211425781e-02
-7.955992221832275391e-02
1.461574435234069824e-02
2.471444010734558105e-02
2.299132943153381348e-02
-2.369350939989089966e-02
-2.449512481689453125e-03
7.142379879951477051e-02
-3.535700589418411255e-02
4.167699813842773438e-02
-2.722484618425369263e-02
-1.074770092964172363e-02
9.593501687049865723e-03
8.313804864883422852e-04
2.954650670289993286e-02
-8.386379480361938477e-02
-2.346368879079818726e-02
1.378114521503448486e-02
2.790494263172149658e-02
-2.862749248743057251e-02
-4.230673611164093018e-02
8.959972858428955078e-02
4.975472390651702881e-02
5.414621531963348389e-02
-9.038958698511123657e-02
-8.973777294158935547e-03
2.779145538806915283e-02
-1.396014541387557983e-02
6.178151071071624756e-02
-2.161908894777297974e-02
-1.540755480527877808e-02
-3.329593688249588013e-02
-2.684830129146575928e-02
-1.278594136238098145e-03
-1.222349703311920166e-03
-5.051629990339279175e-02
-8.001029491424560547e-02
-8.707184344530105591e-02
-6.767726689577102661e-02
6.548179686069488525e-02
-3.432121872901916504e-02
1.975481212139129639e-02
2.278953790664672852e-02
-8.954270929098129272e-02
-7.484737038612365723e-02
4.067304730415344238e-02
-8.654391020536422729e-02
-1.718503981828689575e-02
-3.735989332199096680e-03
-6.775605678558349609e-02
4.735340178012847900e-02
9.048460423946380615e-02
-8.588042110204696655e-02
-4.545792564749717712e-02
-8.211199194192886353e-02
4.459330439567565918e-02
-3.483361005783081055e-02
-6.525436043739318848e-02
-1.714473962783813477e-02
7.670605182647705078e-02
-7.672677934169769287e-02
8.652298152446746826e-02
-1.988323032855987549e-02
-8.019198477268218994e-02
-6.558299064636230469e-02
4.484908282756805420e-02
-5.815733969211578369e-02
5.178616940975189209e-02
-3.487843647599220276e-02
5.596294999122619629e-03
-1.999689638614654541e-02
-3.838905319571495056e-02
4.791112244129180908e-02
9.111084043979644775e-03
-8.729501813650131226e-02
2.329837530851364136e-02
-8.793126046657562256e-02
4.013779759407043457e-02
-2.216991037130355835e-02
-3.870406374335289001e-02
1.271931827068328857e-02
8.534757792949676514e-02
7.468433678150177002e-02
-7.107493281364440918e-02
2.544233947992324829e-02
3.855620324611663818e-02
-9.082411974668502808e-02
-5.884323641657829285e-02
-1.875372976064682007e-02
2.200992405414581299e-02
5.252309143543243408e-03
-8.877029269933700562e-02
-2.482690662145614624e-02
-3.923080861568450928e-03
-8.203804492950439453e-02
-1.823201030492782593e-02
8.277423679828643799e-02
4.875838756561279297e-02
-1.365985721349716187e-02
-6.489272415637969971e-02
-3.563080355525016785e-02
6.828494369983673096e-02
-8.106078207492828369e-02
4.350723326206207275e-02
-7.158906757831573486e-02
-8.816009014844894409e-02
7.686269283294677734e-02
5.163252353668212891e-03
-1.399906724691390991e-02
-4.454453289508819580e-02
-5.761965736746788025e-02
-5.408209189772605896e-02
-8.631467819213867188e-03
2.309104055166244507e-02
7.276758551597595215e-02
-2.409987151622772217e-03
-1.243889331817626953e-02
-5.199446156620979309e-02
-2.702021598815917969e-02
6.069076061248779297e-02
-9.050551801919937134e-02
6.381282210350036621e-02
1.958698034286499023e-03
3.676672279834747314e-02
3.517138957977294922e-02
6.880594789981842041e-02
3.353276848793029785e-02
8.315420150756835938e-02
-5.666076764464378357e-02
2.735483646392822266e-02
7.602246105670928955e-02
-5.926243215799331665e-02
-7.842053472995758057e-02
6.145916879177093506e-03
7.306851446628570557e-02
-2.997934818267822266e-03
-6.519230455160140991e-02
-6.549394130706787109e-02
-4.045467451214790344e-02
-5.829278007149696350e-02
-8.091155439615249634e-02
6.214870512485504150e-02
3.647816181182861328e-02
-5.842799320816993713e-02
-5.786003544926643372e-02
-5.636911094188690186e-02
-5.509608238935470581e-02
-3.274541348218917847e-02
5.366332828998565674e-03
8.839033544063568115e-03
7.963979244232177734e-02
6.891317665576934814e-03
-4.779033362865447998e-02
5.388690531253814697e-02
1.823097467422485352e-03
-6.067188084125518799e-02
8.768895268440246582e-02
1.820299029350280762e-02
-3.314401954412460327e-02
6.042133271694183350e-02
4.466891288757324219e-02
-5.512498319149017334e-02
4.416744410991668701e-02
7.324817776679992676e-02
-8.188535273075103760e-02
-6.809875369071960449e-02
4.951886832714080811e-02
-6.006299704313278198e-02
8.709205687046051025e-02
1.833827048540115356e-02
-3.504844754934310913e-02
-5.939825624227523804e-02
8.807463943958282471e-02
4.597133398056030273e-02
6.395530700683593750e-02
-1.404489576816558838e-02
-9.016038477420806885e-02
8.500319719314575195e-02
1.610825955867767334e-02
3.774081170558929443e-02
-2.291919291019439697e-02
-1.041967421770095825e-02
-6.114606559276580811e-02
-8.334961533546447754e-02
-8.494549244642257690e-02
5.750334262847900391e-02
8.972714841365814209e-02
6.508518755435943604e-02
1.761719584465026855e-03
-5.321900919079780579e-02
-1.398926973342895508e-02
2.090615779161453247e-02
5.137257277965545654e-02
8.104628324508666992e-02
-4.707561805844306946e-02
8.647987246513366699e-02
6.629939377307891846e-02
2.500078082084655762e-02
3.741450607776641846e-02
-7.557186484336853027e-02
-7.364081591367721558e-02
-2.911422774195671082e-02
-4.669639468193054199e-02
-2.722670137882232666e-02
-5.704222247004508972e-02
2.586828917264938354e-02
-2.299348264932632446e-02
-2.081590890884399414e-02
-7.153560966253280640e-02
2.973273396492004395e-03
-8.069591969251632690e-02
-8.301514387130737305e-02
6.766930222511291504e-02
-2.995325997471809387e-02
-8.807107806205749512e-04
-4.906906560063362122e-02
8.578971028327941895e-02
-6.923655420541763306e-02
-8.600110560655593872e-02
-9.126947075128555298e-02
-6.062041968107223511e-02
8.940808475017547607e-02
-3.982315212488174438e-02
-6.715516746044158936e-02
-4.934012889862060547e-03
-6.857666373252868652e-02
-7.267248630523681641e-02
-4.851936921477317810e-02
1.120794564485549927e-02
-2.216671407222747803e-02
7.796093821525573730e-02
5.752541124820709229e-02
-5.540781468152999878e-02
5.540843307971954346e-02
6.872916221618652344e-02
-6.277899444103240967e-02
-8.470125496387481689e-03
-8.752591907978057861e-02
2.600488811731338501e-02
-2.342381328344345093e-02
4.759891331195831299e-02
4.425688087940216064e-02
1.449592411518096924e-02
-2.791839838027954102e-02
5.600579082965850830e-02
-2.406326681375503540e-02
-5.276478454470634460e-02
-6.826548278331756592e-02
3.987389802932739258e-02
-8.097198605537414551e-02
-6.279993057250976562e-02
-7.723478227853775024e-02
2.744227647781372070e-03
-5.415780097246170044e-02
-1.451405137777328491e-02
-8.763975650072097778e-02
-1.051330566406250000e-02
4.607596993446350098e-02
6.370386481285095215e-02
8.958013355731964111e-02
3.962372243404388428e-02
1.311983913183212280e-02
8.487769961357116699e-02
1.154804974794387817e-02
-4.703635722398757935e-02
-5.195292085409164429e-02
-5.046202987432479858e-02
-3.049625456333160400e-02
-1.812304556369781494e-02
4.788872599601745605e-02
-7.834603637456893921e-02
2.468590438365936279e-02
-1.076763868331909180e-02
-3.601282462477684021e-02
-3.131297975778579712e-02
2.135301381349563599e-02
1.611270010471343994e-02
-1.483134925365447998e-03
-8.244265615940093994e-02
-6.436930596828460693e-02
-7.485117763280868530e-02
-8.851361274719238281e-02
-4.730650782585144043e-02
6.049779057502746582e-02
-3.594979643821716309e-03
-8.965792506933212280e-02
1.673772931098937988e-04
-5.098382383584976196e-02
2.292625606060028076e-03
-6.617645174264907837e-02
7.668408751487731934e-02
-4.087285697460174561e-02
3.978212177753448486e-02
-7.425638288259506226e-02
-6.705667078495025635e-02
1.847466826438903809e-02
-8.078995347023010254e-02
-3.761825338006019592e-02
-2.001628279685974121e-02
6.909270584583282471e-02
1.356372237205505371e-02
-3.665611892938613892e-02
-3.645792976021766663e-02
5.101452767848968506e-02
6.656938791275024414e-02
6.592044234275817871e-02
6.120504438877105713e-02
6.081980466842651367e-02
6.271320581436157227e-02
1.925624907016754150e-02
3.661543130874633789e-03
-1.495109498500823975e-02
5.658005177974700928e-02
-4.778589308261871338e-02
-6.126703321933746338e-02
-4.006205126643180847e-02
-4.558093845844268799e-02
6.485791504383087158e-02
-7.740181684494018555e-02
-8.493540436029434204e-02
6.935559213161468506e-02
6.236368417739868164e-02
-1.840845495462417603e-02
-3.160849958658218384e-02
5.766332149505615234e-02
-1.727796345949172974e-02
-4.666730761528015137e-03
-3.290215134620666504e-02
-7.511650025844573975e-02
5.166208744049072266e-02
4.367180168628692627e-02
-7.373519241809844971e-02
-1.088428497314453125e-02
-8.913350105285644531e-02
9.903810918331146240e-03
-5.037412047386169434e-03
8.329607546329498291e-03
5.959872901439666748e-02
-4.085737094283103943e-02
7.632113993167877197e-03
7.915487885475158691e-02
-6.237563490867614746e-02
-1.782111078500747681e-02
-6.416356563568115234e-02
1.206122338771820068e-02
-8.933855593204498291e-02
-7.504336535930633545e-03
1.278661191463470459e-02
-6.012935936450958252e-02
-8.786804974079132080e-03
-7.128566503524780273e-02
1.351100206375122070e-02
-8.786959946155548096e-02
-2.462257444858551025e-02
-1.648366451263427734e-04
-5.105137825012207031e-05
-1.647316664457321167e-02
2.939127385616302490e-03
3.234209120273590088e-02
-2.720870077610015869e-03
8.255609869956970215e-02
-4.017506539821624756e-02
5.644820630550384521e-02
-1.735462993383407593e-02
-1.611156761646270752e-02
-3.882246464490890503e-02
5.116635560989379883e-02
-2.723845094442367554e-02
4.753905534744262695e-02
5.306172370910644531e-02
-4.634851962327957153e-02
3.499862551689147949e-02
-1.727900654077529907e-02
-7.683707028627395630e-02
-1.177172362804412842e-02
-3.292717784643173218e-02
-4.928400367498397827e-02
4.229053854942321777e-02
8.958637714385986328e-02
-5.963426828384399414e-02
-2.825037389993667603e-02
-9.059090167284011841e-02
4.768572747707366943e-02
-6.234593689441680908e-02
6.833270192146301270e-03
-5.851263552904129028e-02
8.663202822208404541e-02
3.976881504058837891e-03
-1.508600264787673950e-02
8.791986107826232910e-02
-5.688413977622985840e-03
3.730554878711700439e-02
2.693425118923187256e-02
-2.844318747520446777e-03
6.449578702449798584e-02
-7.897764444351196289e-02
8.261308073997497559e-03
-4.879063367843627930e-02
1.664720475673675537e-02
7.437600195407867432e-02
2.616143226623535156e-02
6.460279226303100586e-03
4.353873431682586670e-02
8.198450505733489990e-02
-8.140330016613006592e-02
-7.651104778051376343e-02
7.696908712387084961e-02
-5.692058056592941284e-02
-6.362386047840118408e-03
2.325048297643661499e-02
-3.979678452014923096e-02
7.939338684082031250e-05
-8.247619867324829102e-02
2.468261867761611938e-02
-3.709333762526512146e-02
-4.873501509428024292e-02
-2.040393650531768799e-02
2.573525160551071167e-02
7.597693800926208496e-02
-7.631352543830871582e-02
6.703607738018035889e-02
-7.455937564373016357e-02
-2.392306178808212280e-02
2.003993839025497437e-02
4.246626794338226318e-02
-3.592312335968017578e-03
8.873091638088226318e-02
2.430941909551620483e-02
-4.813640192151069641e-02
-6.788024306297302246e-02
-1.576169580221176147e-02
3.259860724210739136e-02
3.685286641120910645e-02
1.607578992843627930e-02
-6.071421504020690918e-02
-1.847970485687255859e-02
-8.024982362985610962e-02
4.704402387142181396e-02
-5.044163763523101807e-02
-7.585753500461578369e-02
-2.724418789148330688e-02
-1.528434455394744873e-02
-4.614679515361785889e-02
6.855402886867523193e-02
5.354890227317810059e-02
-8.384340256452560425e-02
-7.279904931783676147e-02
-3.590362146496772766e-02
-2.879874035716056824e-02
3.386366367340087891e-02
1.529915630817413330e-02
3.556124866008758545e-02
-6.662999093532562256e-02
1.330393552780151367e-02
5.867603421211242676e-02
8.285216987133026123e-03
1.943979412317276001e-02
-2.044293284416198730e-02
5.872070789337158203e-03
-4.359786584973335266e-02
-7.885185629129409790e-02
6.041373312473297119e-02
5.989053845405578613e-02
-1.605145633220672607e-03
-8.068139851093292236e-02
-3.715291619300842285e-02
-5.884110927581787109e-03
5.763880908489227295e-03
2.826701849699020386e-02
8.918757736682891846e-02
6.773057579994201660e-02
7.372127473354339600e-02
-6.730490922927856445e-02
-6.986891478300094604e-02
1.881003379821777344e-03
-5.640901625156402588e-02
8.015057444572448730e-02
2.019944041967391968e-02
7.127217948436737061e-02
-4.903323948383331299e-03
-5.682326108217239380e-02
-8.248849213123321533e-02
-3.699232637882232666e-02
2.713413536548614502e-02
-4.954070225358009338e-02
-8.610628545284271240e-03
1.222500950098037720e-02
8.424042165279388428e-02
7.715688645839691162e-02
1.922111213207244873e-02
-2.454550564289093018e-02
1.083426922559738159e-02
-1.952008903026580811e-02
2.929428219795227051e-02
-4.787229001522064209e-02
-3.355681896209716797e-03
2.738157659769058228e-02
1.903720200061798096e-02
-8.678144216537475586e-02
1.983118057250976562e-02
8.827158808708190918e-02
-5.909494310617446899e-02
-1.708053797483444214e-02
4.094018042087554932e-02
7.624723017215728760e-02
8.745339512825012207e-02
5.207040905952453613e-02
-8.923773467540740967e-02
-8.810421079397201538e-02
4.581737518310546875e-02
-3.866918385028839111e-03
3.534559905529022217e-02
-9.921126067638397217e-03
-2.320222556591033936e-03
-3.979475051164627075e-02
-7.433347404003143311e-02
2.860619872808456421e-02
2.522768825292587280e-02
3.527380526065826416e-02
-3.066500648856163025e-02
1.538858562707901001e-02
-4.326993599534034729e-02
-4.066139087080955505e-02
-6.317852437496185303e-02
-5.043809860944747925e-02
-7.443150877952575684e-02
1.736335456371307373e-02
-2.852119505405426025e-03
-1.586137712001800537e-02
-8.963301032781600952e-02
-3.325684741139411926e-02
5.650712549686431885e-02
3.195595741271972656e-02
-2.206183224916458130e-02
2.635523676872253418e-02
6.796608865261077881e-02
-1.790867745876312256e-02
-2.200916409492492676e-02
2.373561263084411621e-03
-1.568874716758728027e-02
1.556254923343658447e-03
-1.624639332294464111e-02
6.072340905666351318e-02
7.463796436786651611e-02
-5.588552355766296387e-02
4.356521368026733398e-02
2.818804979324340820e-02
4.940035939216613770e-02
-7.322210073471069336e-02
6.691813468933105469e-02
-3.637601062655448914e-02
2.271898835897445679e-02
-8.074221760034561157e-02
-4.674933478236198425e-02
5.833908915519714355e-03
-2.072322368621826172e-02
2.371832728385925293e-03
5.127023160457611084e-02
-2.203698456287384033e-02
-2.446636557579040527e-03
-5.619896575808525085e-02
6.474232673645019531e-02
7.834734022617340088e-02
-7.624645531177520752e-02
-3.949161246418952942e-02
-2.229214459657669067e-02
-6.064195930957794189e-02
8.414366841316223145e-02
-5.475075542926788330e-02
3.545205295085906982e-02
4.506832361221313477e-02
3.641384840011596680e-02
-7.736476510763168335e-02
-5.613265931606292725e-02
-4.740235954523086548e-02
-6.487314403057098389e-02
4.612956941127777100e-02
1.437626034021377563e-02
8.709158003330230713e-02
-4.762402176856994629e-02
7.908143103122711182e-03
5.679865181446075439e-02
-4.933792352676391602e-02
-2.662042528390884399e-02
-2.408400177955627441e-03
-1.494202762842178345e-02
1.239582151174545288e-02
-3.470419719815254211e-02
9.127233922481536865e-02
-8.081920444965362549e-03
-8.686754852533340454e-02
-4.738813638687133789e-02
-4.320326074957847595e-02
-3.279421851038932800e-02
-8.568336814641952515e-02
-3.802861273288726807e-02
-7.787930965423583984e-02
7.643727958202362061e-02
4.642710089683532715e-02
2.009296417236328125e-02
2.126948535442352295e-02
-4.878392815589904785e-02
7.296420633792877197e-02
5.231323838233947754e-02
-7.660374045372009277e-02
9.118203818798065186e-02
-2.717303484678268433e-02
7.496759295463562012e-02
6.331120431423187256e-02
6.005947291851043701e-02
-7.945353537797927856e-02
-6.486292183399200439e-02
-5.432158708572387695e-03
-3.856712207198143005e-02
-1.160641014575958252e-02
-3.023058176040649414e-03
1.900658011436462402e-02
5.661110579967498779e-02
3.680332005023956299e-02
-7.919970154762268066e-02
2.553463727235794067e-02
-7.192303985357284546e-02
-3.784770518541336060e-02
2.263537794351577759e-02
-8.173380792140960693e-02
-7.355561107397079468e-02
5.458694696426391602e-02
7.699044048786163330e-02
1.400864869356155396e-02
-1.808835566043853760e-02
7.694730162620544434e-02
-2.609805762767791748e-02
-2.963903546333312988e-02
5.911085009574890137e-02
-6.903842091560363770e-03
8.764231204986572266e-02
4.913955926895141602e-03
-1.364421099424362183e-02
6.076954305171966553e-03
5.590839684009552002e-02
-2.975733578205108643e-02
4.722523689270019531e-02
-9.075360000133514404e-02
8.878546953201293945e-02
-4.685932397842407227e-02
4.565496742725372314e-02
3.030568361282348633e-02
-5.202187225222587585e-02
-8.004195243120193481e-02
1.984662562608718872e-02
2.815676480531692505e-02
3.914166986942291260e-02
-4.794212058186531067e-02
3.236816823482513428e-02
-2.811060845851898193e-02
-1.638314872980117798e-02
3.937189280986785889e-02
-4.167377948760986328e-02
-5.631548166275024414e-02
-7.739178091287612915e-02
-1.783368736505508423e-02
-4.978754743933677673e-02
5.168123543262481689e-02
-6.396700441837310791e-02
-1.817797869443893433e-02
8.221158385276794434e-02
4.457437992095947266e-02
7.496249675750732422e-02
-1.786277443170547485e-02
7.646949589252471924e-02
3.612299263477325439e-02
7.059119641780853271e-02
3.698399662971496582e-02
-7.769887894392013550e-02
2.405013889074325562e-02
6.541448831558227539e-02
-6.929636746644973755e-02
-2.574076503515243530e-02
-2.703559398651123047e-02
4.813715815544128418e-02
-1.123125106096267700e-02
-2.937309443950653076e-02
6.366084516048431396e-02
-7.588496804237365723e-02
-2.593352645635604858e-02
-2.495732903480529785e-02
-6.921648979187011719e-03
3.518591821193695068e-02
-8.783021569252014160e-02
-6.330855190753936768e-03
4.465088248252868652e-02
3.189088404178619385e-02
-1.825069636106491089e-02
6.279809772968292236e-02
-8.801165968179702759e-02
6.225289404392242432e-02
-2.237571775913238525e-02
2.442957460880279541e-02
-4.712831228971481323e-02
5.856990814208984375e-03
6.864973902702331543e-02
-4.848819226026535034e-02
2.653839439153671265e-02
-2.598806470632553101e-02
2.281248569488525391e-03
2.301333099603652954e-02
-6.206009164452552795e-02
4.304416477680206299e-02
4.210495948791503906e-02
6.432616710662841797e-02
2.005370706319808960e-02
-6.469629704952239990e-03
-3.732182085514068604e-03
-1.796744018793106079e-02
-8.157205581665039062e-02
-1.770453900098800659e-02
-5.894559621810913086e-02
-1.240073889493942261e-02
-8.206935226917266846e-02
2.653581649065017700e-02
1.747229695320129395e-02
9.069530665874481201e-02
-5.332421883940696716e-02
-3.489596769213676453e-02
1.114262640476226807e-02
-5.053726956248283386e-02
-5.277244374155998230e-02
4.579506814479827881e-02
-8.574300259351730347e-02
-1.108296215534210205e-03
5.200967192649841309e-02
-6.266357004642486572e-02
3.237530589103698730e-03
3.695793449878692627e-02
-8.014404028654098511e-02
1.051095873117446899e-02
-5.558356270194053650e-02
8.118665218353271484e-02
-3.132293745875358582e-02
-2.569553256034851074e-02
1.916415244340896606e-02
-4.431037977337837219e-02
7.449105381965637207e-02
-5.838063359260559082e-02
8.154566586017608643e-02
3.357176482677459717e-02
5.885297060012817383e-02
-7.888725399971008301e-02
2.878949046134948730e-03
8.541288971900939941e-02
3.327187150716781616e-02
5.057851970195770264e-02
-7.079704105854034424e-02
3.939650952816009521e-03
-5.359091982245445251e-02
-9.546808898448944092e-03
-5.241104215383529663e-02
-2.359629422426223755e-02
2.444496005773544312e-02
7.855455577373504639e-02
6.796959042549133301e-02
-1.750659197568893433e-02
4.199379682540893555e-02
5.536779761314392090e-02
-2.666196972131729126e-02
-4.455946385860443115e-02
-5.169425159692764282e-02
2.376448363065719604e-02
-4.531610757112503052e-02
-5.279994383454322815e-02
-7.379068434238433838e-02
8.086934685707092285e-04
5.090637505054473877e-02
-6.913566589355468750e-02
8.769907057285308838e-02
3.469111025333404541e-02
5.402468144893646240e-02
-5.158448219299316406e-02
-5.124694481492042542e-02
-4.170714691281318665e-02
1.704114675521850586e-02
6.942582130432128906e-02
-6.592449545860290527e-02
4.706642031669616699e-02
2.789803594350814819e-02
-7.230833172798156738e-03
-9.448975324630737305e-04
-5.053031444549560547e-02
5.114513635635375977e-02
-2.645730972290039062e-02
4.454846680164337158e-02
-8.830808103084564209e-03
-7.831023633480072021e-02
-7.669015228748321533e-02
-7.933612167835235596e-02
-8.809728175401687622e-02
-4.155091941356658936e-03
-6.125673651695251465e-03
-7.658785581588745117e-02
-5.199446156620979309e-02
6.469163298606872559e-02
2.515951544046401978e-02
-3.463312610983848572e-02
7.262855768203735352e-03
-7.806094735860824585e-02
2.223995327949523926e-02
2.771695703268051147e-02
3.641623258590698242e-02
-4.873243346810340881e-02
2.852117270231246948e-02
-4.904647544026374817e-02
-5.148850008845329285e-02
7.471874356269836426e-03
-7.595931738615036011e-02
7.610578835010528564e-02
-7.474633306264877319e-02
-5.041156709194183350e-02
2.254130691289901733e-02
2.237921208143234253e-02
4.765436053276062012e-03
7.668562233448028564e-02
6.815032660961151123e-02
-2.757955342531204224e-02
-7.675192505121231079e-02
-5.554967373609542847e-02
-2.521897107362747192e-02
-1.322954148054122925e-02
7.637523114681243896e-02
-4.076115787029266357e-03
-6.401740759611129761e-02
6.464760005474090576e-02
1.235731691122055054e-02
-4.481372982263565063e-02
8.336858451366424561e-02
8.642274141311645508e-02
-8.279271423816680908e-03
6.476329267024993896e-02
-1.160687953233718872e-02
8.047057688236236572e-02
-3.806605935096740723e-02
1.717018336057662964e-02
1.905304938554763794e-02
-6.850942224264144897e-02
4.704216122627258301e-02
-1.715313643217086792e-02
-8.866101503372192383e-02
9.650483727455139160e-03
8.022063970565795898e-02
-2.839337289333343506e-02
2.224139124155044556e-02
4.814623296260833740e-02
-4.260228946805000305e-02
7.089522480964660645e-02
4.845514893531799316e-02
-4.769449308514595032e-02
1.634515821933746338e-03
-3.123482316732406616e-02
1.320480555295944214e-02
4.055616259574890137e-02
-8.043619245290756226e-02
4.836963117122650146e-02
2.270823717117309570e-02
-8.640523254871368408e-02
-3.654517233371734619e-03
-2.651011943817138672e-02
-3.951000422239303589e-02
8.759036660194396973e-02
8.392514288425445557e-02
2.074055373668670654e-03
8.376377820968627930e-02
3.992550075054168701e-03
-2.971843257546424866e-02
4.946552217006683350e-02
5.470828711986541748e-02
5.457736551761627197e-02
-8.771923184394836426e-02
-4.501255974173545837e-02
7.802292704582214355e-03
-2.285119891166687012e-02
-4.614852741360664368e-02
-4.048163816332817078e-02
-7.736437022686004639e-03
3.549121320247650146e-02
-6.624347716569900513e-02
3.137341886758804321e-02
-1.259095966815948486e-02
6.794735789299011230e-02
8.603544533252716064e-02
-1.127722114324569702e-02
-4.725123941898345947e-02
-7.635577023029327393e-02
-6.142192333936691284e-02
2.839861810207366943e-02
4.799704253673553467e-02
-6.604154407978057861e-02
3.792060911655426025e-02
-7.553485035896301270e-02
-6.854804605245590210e-02
-2.661114186048507690e-02
2.948860824108123779e-02
-5.674884840846061707e-02
-5.110695585608482361e-02
8.903232216835021973e-02
-2.930007874965667725e-03
-7.327161729335784912e-02
6.584393978118896484e-02
7.151664793491363525e-02
-7.306217402219772339e-02
5.043622851371765137e-02
4.298630356788635254e-02
8.009158074855804443e-02
-3.700518980622291565e-02
-7.617732137441635132e-02
-2.942753955721855164e-02
-2.362881600856781006e-02
2.028015255928039551e-02
4.787473380565643311e-02
-6.454285979270935059e-02
1.033059507608413696e-02
3.671734035015106201e-02
1.308300346136093140e-02
-6.437647342681884766e-02
3.298141807317733765e-02
5.947256088256835938e-02
-7.805906236171722412e-02
1.998084783554077148e-02
6.564213335514068604e-02
5.603849887847900391e-03
-7.935909181833267212e-02
-6.638585031032562256e-02
8.579456806182861328e-02
-2.823475748300552368e-02
-1.473483443260192871e-02
-4.525709524750709534e-02
-1.999457925558090210e-02
-7.652516663074493408e-02
5.545933544635772705e-02
-1.003786921501159668e-02
2.185554802417755127e-02
-1.901756972074508667e-02
-6.093417853116989136e-02
-6.490968167781829834e-03
-8.767668902873992920e-02
-5.389004945755004883e-05
-7.842702418565750122e-02
-4.995353519916534424e-03
1.034798473119735718e-02
-1.937806606292724609e-02
1.807381957769393921e-02
3.781022131443023682e-02
7.323727011680603027e-02
-6.479807198047637939e-03
-9.087249636650085449e-04
8.997067809104919434e-03
-2.204310148954391479e-02
-1.010217517614364624e-02
2.265480905771255493e-02
-5.185073614120483398e-02
3.205429017543792725e-02
-8.836844563484191895e-02
-5.334682017564773560e-02
-3.307826817035675049e-02
-4.098594561219215393e-02
5.493108928203582764e-02
-7.512198388576507568e-02
-9.520493447780609131e-03
1.530268788337707520e-02
5.876988172531127930e-02
8.653496205806732178e-02
3.301411867141723633e-03
2.007815986871719360e-02
4.503904283046722412e-02
6.234106421470642090e-02
6.322605907917022705e-02
-3.357491269707679749e-02
5.692292749881744385e-02
3.978230059146881104e-02
5.483525991439819336e-02
-6.795996427536010742e-02
-4.819462075829505920e-02
-9.207107126712799072e-03
-2.081881463527679443e-02
1.486504077911376953e-02
2.799934148788452148e-02
-2.339380234479904175e-02
-8.192922919988632202e-02
-5.602924525737762451e-02
-3.277430310845375061e-02
7.347065210342407227e-02
1.371945440769195557e-02
-7.761198282241821289e-02
-2.613303065299987793e-02
6.578272581100463867e-02
3.893271088600158691e-03
-8.664164692163467407e-02
3.701908886432647705e-02
6.951531767845153809e-02
1.529643684625625610e-02
4.309286177158355713e-02
4.282346367835998535e-02
6.014631688594818115e-02
5.543573200702667236e-02
-2.677679061889648438e-03
1.640437543392181396e-02
-2.522021532058715820e-02
8.860446512699127197e-02
7.521913945674896240e-02
8.124206960201263428e-02
-3.316281363368034363e-02
7.416981458663940430e-02
6.251542270183563232e-02
5.315802991390228271e-02
-9.107999503612518311e-03
-5.345395579934120178e-02
-1.702831685543060303e-02
-9.096316993236541748e-03
1.851484179496765137e-03
5.239859223365783691e-02
-5.693406239151954651e-02
-4.827977716922760010e-02
-6.451524049043655396e-02
-7.715154439210891724e-02
4.172989726066589355e-02
-3.249087557196617126e-02
-3.661860898137092590e-02
-5.523853003978729248e-02
5.806306004524230957e-02
5.950044095516204834e-02
-7.880023121833801270e-02
-1.798577606678009033e-03
2.312056720256805420e-02
-6.870903074741363525e-02
3.797695040702819824e-02
3.382200002670288086e-02
7.317797839641571045e-02
-4.454390332102775574e-02
-5.406739190220832825e-02
5.263230204582214355e-02
-3.229230642318725586e-04
1.809870451688766479e-02
-6.725440919399261475e-02
4.345268011093139648e-02
4.142017662525177002e-02
-4.663156718015670776e-02
3.045247495174407959e-02
-3.760213777422904968e-02
-3.825470432639122009e-02
-3.810588642954826355e-02
2.373401075601577759e-02
-7.114919275045394897e-02
-6.222680211067199707e-03
-2.004975080490112305e-02
-3.259824216365814209e-02
1.114581525325775146e-02
1.853014528751373291e-02
4.748959839344024658e-02
1.385715603828430176e-02
-6.944230943918228149e-02
-4.885474964976310730e-02
-2.957388386130332947e-02
1.917207986116409302e-02
7.056012749671936035e-02
1.797627657651901245e-02
4.409214854240417480e-02
6.221351027488708496e-02
5.152273178100585938e-02
-6.457076221704483032e-02
3.383739292621612549e-02
-1.093116402626037598e-02
-8.146288245916366577e-02
-4.179598763585090637e-02
-7.861927151679992676e-04
-5.647093430161476135e-02
-7.178306579589843750e-02
3.856946527957916260e-02
4.575236141681671143e-02
8.113795518875122070e-02
-8.768128603696823120e-02
1.344119012355804443e-02
-1.944241672754287720e-02
7.673934102058410645e-03
1.921360194683074951e-02
-3.148429840803146362e-02
2.028515189886093140e-02
2.321124076843261719e-02
-2.146407961845397949e-02
-7.783177495002746582e-02
7.826916873455047607e-03
-7.280813902616500854e-02
9.059271216392517090e-02
-7.617259025573730469e-02
-6.305120885372161865e-03
2.027773857116699219e-02
-5.196420848369598389e-02
-5.700470134615898132e-02
-7.836772501468658447e-02
-8.564791083335876465e-02
1.919118314981460571e-02
6.161898374557495117e-02
3.361861407756805420e-02
3.276316076517105103e-02
7.177215814590454102e-02
4.731772840023040771e-02
-8.959262073040008545e-02
-7.823772728443145752e-02
9.032110869884490967e-02
1.538991928100585938e-04
1.781053096055984497e-02
-7.137977331876754761e-02
8.947378396987915039e-02
4.133273661136627197e-02
-8.203022181987762451e-03
1.383884251117706299e-02
-3.328247368335723877e-02
7.681100070476531982e-02
8.990217745304107666e-02
-7.484326511621475220e-02
-4.597473517060279846e-02
4.293313622474670410e-02
5.536440014839172363e-02
2.800527960062026978e-02
1.502554118633270264e-02
7.532386481761932373e-02
-5.714595317840576172e-04
-2.274357527494430542e-02
-7.334457337856292725e-02
4.632778465747833252e-03
1.273838430643081665e-02
-4.572566226124763489e-02
8.796565234661102295e-02
9.071418642997741699e-02
6.750689446926116943e-02
-8.924737572669982910e-03
5.874633789062500000e-02
-8.763203024864196777e-02
-7.462226599454879761e-02
4.823996126651763916e-02
-8.758679032325744629e-02
5.659143626689910889e-02
-1.530984789133071899e-02
-2.686916291713714600e-02
-7.078528404235839844e-02
1.580311357975006104e-02
1.607591658830642700e-02
-8.423577249050140381e-02
-3.723505511879920959e-02
-7.757581025362014771e-02
7.532291114330291748e-02
6.972485780715942383e-02
-7.566191256046295166e-02
-1.749005913734436035e-02
6.969320774078369141e-02
-1.742151379585266113e-02
9.621120989322662354e-03
-3.536539524793624878e-02
1.756541430950164795e-03
-5.403424426913261414e-02
5.412982404232025146e-02
-4.438259452581405640e-02
8.486656844615936279e-02
5.129192769527435303e-02
-4.735310748219490051e-02
-3.305106237530708313e-02
-7.328013330698013306e-02
1.718439906835556030e-02
5.621531605720520020e-02
-2.273179590702056885e-02
-4.309615865349769592e-02
7.782900333404541016e-02
4.908475279808044434e-02
8.007173240184783936e-02
3.317192196846008301e-02
-2.160355448722839355e-03
-6.053590029478073120e-02
-8.873893320560455322e-02
6.485824286937713623e-02
2.227248251438140869e-02
7.435634732246398926e-02
7.702004909515380859e-02
7.942292094230651855e-02
-9.058223664760589600e-02
-2.133339643478393555e-03
-8.419927209615707397e-02
-1.547820866107940674e-02
-7.009240239858627319e-02
3.670598566532135010e-02
-2.708166837692260742e-02
-4.568651318550109863e-03
7.613457739353179932e-02
-8.645723760128021240e-02
1.678327471017837524e-02
-3.866945952177047729e-02
-9.021409600973129272e-02
-7.460361719131469727e-02
-3.387160599231719971e-03
-7.180174440145492554e-02
3.722533583641052246e-03
-8.843716979026794434e-02
9.037856757640838623e-02
5.264413356781005859e-02
2.459299564361572266e-02
3.828054666519165039e-02
2.005980163812637329e-02
-7.076966762542724609e-02
1.281699538230895996e-02
-7.904230803251266479e-02
5.231788754463195801e-02
-2.014920115470886230e-03
4.608798027038574219e-02
-1.406371593475341797e-03
-4.129479452967643738e-02
-1.202400773763656616e-02
-3.124849125742912292e-02
-9.636357426643371582e-03
-7.509906589984893799e-02
-9.859696030616760254e-03
4.723767936229705811e-02
-5.700431019067764282e-02
-5.237413197755813599e-02
-5.039036273956298828e-03
-7.693406194448471069e-02
9.535253047943115234e-05
-1.333970576524734497e-02
8.553801476955413818e-02
-8.892980962991714478e-02
-5.680467188358306885e-02
8.447659015655517578e-02
-6.653408706188201904e-02
-8.742590993642807007e-02
-1.353728026151657104e-02
4.919615387916564941e-02
-9.044289588928222656e-02
1.738267391920089722e-02
5.824793875217437744e-02
-7.232108712196350098e-02
-6.922560930252075195e-02
6.295453011989593506e-02
-7.434074580669403076e-02
7.723543047904968262e-02
-1.030565798282623291e-02
-8.416241407394409180e-02
3.235349059104919434e-02
-6.795202195644378662e-02
9.100012481212615967e-02
-7.798987627029418945e-02
8.247274160385131836e-02
4.480300843715667725e-02
8.674058318138122559e-02
9.085616469383239746e-02
-6.341039389371871948e-02
4.119120538234710693e-02
-3.017874062061309814e-02
8.045464754104614258e-02
5.900771915912628174e-02
5.364589393138885498e-02
-6.698323041200637817e-02
4.917231202125549316e-02
1.952412724494934082e-02
-6.566364318132400513e-02
8.761793375015258789e-02
1.779347658157348633e-03
-6.371666491031646729e-02
-4.196142032742500305e-02
1.841322332620620728e-02
4.644680023193359375e-02
-1.132526248693466187e-02
-5.163567140698432922e-02
1.777248829603195190e-02
5.808156728744506836e-02
3.879941999912261963e-02
-1.618358492851257324e-02
-9.359680116176605225e-03
-7.889688014984130859e-02
6.916518509387969971e-02
-3.586631640791893005e-02
1.449564844369888306e-02
-2.369648963212966919e-02
-8.591070771217346191e-03
7.019554078578948975e-02
-1.873210072517395020e-03
-7.036273181438446045e-02
-7.568989694118499756e-02
5.631765723228454590e-02
3.006495535373687744e-03
-3.967646136879920959e-02
-3.184047713875770569e-02
2.140808850526809692e-02
-1.143343746662139893e-02
1.184303313493728638e-02
4.072175920009613037e-02
6.367646157741546631e-02
-7.753648608922958374e-02
-1.840531826019287109e-03
1.331691443920135498e-02
-4.269275441765785217e-02
-1.598066836595535278e-02
1.465833932161331177e-02
5.952711403369903564e-02
3.684712946414947510e-02
-2.344030141830444336e-02
3.920453786849975586e-02
-4.034283757209777832e-02
1.424737274646759033e-03
7.034987211227416992e-04
5.020545423030853271e-02
1.063793152570724487e-02
-3.172962740063667297e-02
8.314546942710876465e-02
-5.312626063823699951e-02
-4.124972224235534668e-02
-7.060914486646652222e-02
4.009772837162017822e-02
-3.041610494256019592e-02
-7.438044250011444092e-02
-7.645479589700698853e-02
2.482085675001144409e-02
-3.844895213842391968e-02
-6.243604049086570740e-02
2.461955696344375610e-02
-8.504363149404525757e-02
8.095839619636535645e-02
-1.302304863929748535e-02
-1.330380141735076904e-02
2.429290115833282471e-02
-5.931114405393600464e-02
7.476674020290374756e-02
4.686686396598815918e-02
-8.642306178808212280e-02
-2.765435725450515747e-02
-5.115757137537002563e-02
-6.754291802644729614e-02
5.692179501056671143e-02
3.039288520812988281e-02
-4.062815755605697632e-02
3.927336633205413818e-02
-1.153331995010375977e-02
5.082741379737854004e-02
-6.932124495506286621e-03
-3.753495961427688599e-02
7.440234720706939697e-02
-6.546917557716369629e-02
-4.006329178810119629e-02
-8.981245756149291992e-02
8.453863859176635742e-02
-3.746367990970611572e-02
9.006574749946594238e-02
-3.780717030167579651e-02
-5.167971178889274597e-02
2.272611856460571289e-02
2.004702389240264893e-02
-6.684705615043640137e-02
-1.370301097631454468e-02
-2.820553630590438843e-02
2.726716548204421997e-02
-7.122430950403213501e-02
-1.713565737009048462e-02
4.300375282764434814e-02
-7.831569761037826538e-02
3.779551386833190918e-02
2.793701738119125366e-02
-4.914382845163345337e-02
8.508624136447906494e-02
1.393693685531616211e-02
7.918560504913330078e-02
-7.225279510021209717e-02
-4.469169676303863525e-02
3.928641974925994873e-02
-3.879493102431297302e-02
-5.702343955636024475e-02
6.985023617744445801e-02
-4.573873430490493774e-02
4.453161358833312988e-02
-8.676462620496749878e-02
-4.081918671727180481e-02
-7.183752954006195068e-03
-9.117167443037033081e-02
-4.190790280699729919e-02
-7.642255723476409912e-02
-6.222027540206909180e-02
8.805094659328460693e-02
3.068853169679641724e-02
7.308161258697509766e-02
4.820317029953002930e-02
4.733549058437347412e-02
-8.126014471054077148e-02
-8.772409707307815552e-02
2.822563797235488892e-02
4.963265359401702881e-02
-3.506018966436386108e-02
-3.944390639662742615e-02
-2.812252938747406006e-02
-6.158138811588287354e-02
-3.311010822653770447e-02
-1.126892864704132080e-03
1.785183697938919067e-02
8.138540387153625488e-02
4.557834565639495850e-02
1.047829538583755493e-02
5.598345398902893066e-02
-3.399848192930221558e-02
-6.819511204957962036e-02
-7.900819182395935059e-04
3.343724459409713745e-02
1.698927581310272217e-02
6.129710376262664795e-02
-7.023347169160842896e-02
-9.060628712177276611e-03
1.886064559221267700e-02
7.405175268650054932e-02
-5.725787580013275146e-02
7.930722832679748535e-02
6.910979747772216797e-02
7.910597324371337891e-02
2.413136512041091919e-02
1.503088325262069702e-02
-7.429815828800201416e-03
7.322631776332855225e-02
-1.441890746355056763e-02
7.879044115543365479e-02
-7.110866904258728027e-02
-7.142572104930877686e-02
-9.074190258979797363e-02
8.353242278099060059e-02
-1.658905297517776489e-02
-9.237006306648254395e-04
-7.059250026941299438e-02
-8.879330009222030640e-02
-6.410086154937744141e-02
-2.456833422183990479e-02
8.778072893619537354e-03
3.701016306877136230e-03
-8.072886615991592407e-02
-3.581263497471809387e-02
-6.289299577474594116e-02
7.092456519603729248e-02
-6.017901375889778137e-02
5.089408159255981445e-02
1.646153628826141357e-03
-2.378020435571670532e-02
-3.905715048313140869e-02
3.048974275588989258e-02
4.328611493110656738e-02
1.399412006139755249e-02
-3.996011614799499512e-02
-3.721304982900619507e-02
4.054108262062072754e-02
3.824178874492645264e-02
-6.088069081306457520e-02
-6.358849257230758667e-02
-2.779564261436462402e-02
1.947939395904541016e-03
3.713309764862060547e-03
5.071610212326049805e-02
-4.792690277099609375e-03
3.064201027154922485e-02
-3.911519795656204224e-02
1.206171512603759766e-02
-7.938192039728164673e-02
-7.658911496400833130e-02
4.973544180393218994e-02
-2.617917954921722412e-02
-4.699642956256866455e-02
-6.969830393791198730e-02
7.842403650283813477e-02
9.120991826057434082e-02
-3.213582187891006470e-02
-1.662593334913253784e-02
-1.399650424718856812e-02
3.251451998949050903e-02
-8.162573724985122681e-02
7.229690253734588623e-02
-7.291207462549209595e-02
-7.232898473739624023e-02
4.204966127872467041e-02
-2.748882025480270386e-02
-1.809705793857574463e-02
-7.994285970926284790e-02
7.942622900009155273e-02
4.185436666011810303e-02
9.589150547981262207e-03
9.022630751132965088e-03
-6.882056593894958496e-02
-2.001985907554626465e-03
5.236811935901641846e-02
-3.232655301690101624e-02
8.160865306854248047e-02
-5.777925625443458557e-02
5.776913464069366455e-02
-7.907050102949142456e-02
3.809836506843566895e-02
1.849325001239776611e-02
-2.237817645072937012e-02
5.506253242492675781e-02
-6.157112866640090942e-02
-7.886427640914916992e-02
-8.801151812076568604e-02
5.029247701168060303e-02
-7.079541683197021484e-04
8.738543093204498291e-02
5.711622536182403564e-02
-3.187517821788787842e-02
-5.931945517659187317e-02
4.992094635963439941e-02
-4.113771021366119385e-03
-6.524076312780380249e-02
-5.908571556210517883e-02
3.089318424463272095e-02
-7.925138622522354126e-02
-8.924223482608795166e-03
-5.710724368691444397e-02
4.433017969131469727e-02
-5.351937189698219299e-02
4.088999330997467041e-02
8.437329530715942383e-02
1.560300588607788086e-03
-6.596390902996063232e-02
7.966664433479309082e-02
8.219510316848754883e-03
2.018008381128311157e-02
-7.755557447671890259e-02
-8.166772127151489258e-02
-5.816563218832015991e-02
-1.238430291414260864e-02
-5.006361752748489380e-02
4.450125992298126221e-02
-3.941946476697921753e-02
-2.432487905025482178e-02
-2.934838086366653442e-02
-8.262807130813598633e-02
1.728972047567367554e-02
4.455912113189697266e-02
4.253354668617248535e-02
-1.824536174535751343e-02
4.038198292255401611e-02
1.480598002672195435e-02
3.755478560924530029e-02
1.408895850181579590e-02
4.533973336219787598e-02
1.403632014989852905e-02
-5.419124290347099304e-02
-5.159859731793403625e-02
-8.020344376564025879e-02
7.663349807262420654e-02
9.085369110107421875e-02
-2.852863073348999023e-02
3.705628216266632080e-03
7.701629400253295898e-02
-5.182242020964622498e-02
-1.695498079061508179e-02
4.394674301147460938e-02
-2.392967790365219116e-02
7.479807734489440918e-02
6.282977759838104248e-02
-8.272322267293930054e-02
-4.676858708262443542e-02
9.056232869625091553e-02
-5.733216926455497742e-02
7.097063958644866943e-02
5.778083205223083496e-02
8.333730697631835938e-02
-5.221763253211975098e-02
-6.651997566223144531e-03
1.217659562826156616e-02
1.272635906934738159e-02
-1.573532819747924805e-03
-2.844418585300445557e-02
6.102450191974639893e-03
-9.125217795372009277e-02
-6.689099222421646118e-02
8.974137902259826660e-02
1.498296111822128296e-02
1.913028210401535034e-02
6.785705685615539551e-03
-4.395380243659019470e-02
8.286502957344055176e-02
-6.773120164871215820e-02
-4.791947454214096069e-02
6.618979573249816895e-02
-3.826486691832542419e-02
9.064115583896636963e-02
-5.680706724524497986e-02
-6.956024467945098877e-02
-8.730717003345489502e-02
-1.338472217321395874e-02
-7.016645371913909912e-02
-2.626338601112365723e-02
-5.012857541441917419e-02
5.280868709087371826e-02
-1.530164480209350586e-02
-2.324450761079788208e-02
2.252148836851119995e-02
-3.764390945434570312e-03
5.543115735054016113e-02
-3.580839186906814575e-02
4.503956437110900879e-02
-6.053153425455093384e-02
1.885914802551269531e-02
4.801888763904571533e-02
4.729129374027252197e-03
3.795951604843139648e-02
-5.613053962588310242e-02
-8.208344876766204834e-02
-6.715270876884460449e-02
4.371625185012817383e-02
2.453578263521194458e-02
-7.718615233898162842e-02
-4.673403501510620117e-02
-4.998902231454849243e-02
8.836205303668975830e-02
-6.318774819374084473e-02
8.317159116268157959e-02
-5.787625908851623535e-03
-2.798694372177124023e-02
2.348573505878448486e-02
-5.184372887015342712e-02
-7.536562532186508179e-02
5.105192959308624268e-02
2.392213046550750732e-02
-4.255976155400276184e-02
-3.727357834577560425e-02
-5.332965031266212463e-02
8.098660409450531006e-02
7.913683354854583740e-02
8.900824189186096191e-02
8.486057817935943604e-02
-5.708084255456924438e-02
2.326108515262603760e-03
4.751577973365783691e-02
-9.054245054721832275e-02
-3.011524304747581482e-02
-1.881594210863113403e-02
-7.075220346450805664e-02
-3.397031873464584351e-02
-5.690678209066390991e-02
7.283331453800201416e-02
9.186416864395141602e-03
1.423136144876480103e-02
-8.205349743366241455e-02
-2.209933102130889893e-02
-3.721299767494201660e-02
-3.383517265319824219e-03
-7.180500030517578125e-02
-1.303403079509735107e-02
2.794455736875534058e-02
5.043248832225799561e-02
-2.508729696273803711e-02
2.394647896289825439e-02
8.352190256118774414e-02
3.840781748294830322e-02
-4.683159664273262024e-02
-1.963339000940322876e-02
1.355228573083877563e-02
6.677530705928802490e-02
7.649284601211547852e-02
6.595303118228912354e-02
1.253489404916763306e-02
-8.546636998653411865e-02
-5.671629682183265686e-02
2.174293994903564453e-02
4.279556870460510254e-02
8.241970837116241455e-02
6.194895505905151367e-02
2.574877440929412842e-02
2.999489754438400269e-02
3.565958142280578613e-02
-3.793640807271003723e-02
-8.653154224157333374e-02
-7.629029452800750732e-02
-7.212521880865097046e-02
-2.160414308309555054e-02
8.000716567039489746e-02
-5.416796356439590454e-02
-7.814273238182067871e-03
5.972449481487274170e-02
2.214112877845764160e-02
4.828719794750213623e-02
1.891762763261795044e-02
-1.609146595001220703e-03
-6.942524015903472900e-02
-4.126968979835510254e-02
6.384085118770599365e-02
-6.128528341650962830e-02
-5.202470347285270691e-02
-6.864265352487564087e-02
4.313945770263671875e-03
-1.888646185398101807e-02
1.344433426856994629e-02
-5.150911211967468262e-02
5.471956729888916016e-02
-8.759446442127227783e-02
-6.777863204479217529e-02
1.795116066932678223e-02
-5.809946730732917786e-02
-5.848718062043190002e-02
-3.735757991671562195e-02
-2.641511708498001099e-02
5.277097225189208984e-02
-6.375498324632644653e-02
3.519217669963836670e-02
-4.058404266834259033e-02
5.966737866401672363e-02
5.924524366855621338e-02
-8.054607361555099487e-02
-3.641957044601440430e-02
-1.989696919918060303e-02
8.668637275695800781e-02
8.619740605354309082e-02
-3.991804644465446472e-02
-1.208430528640747070e-02
-3.016444295644760132e-02
6.906290352344512939e-02
-2.316562086343765259e-02
-4.179100319743156433e-02
-4.293411970138549805e-03
1.515095680952072144e-02
-2.477934956550598145e-02
8.396025002002716064e-02
-3.669885173439979553e-02
4.069405794143676758e-02
2.710285037755966187e-02
5.932524800300598145e-03
7.344032824039459229e-02
5.439016222953796387e-02
7.313221693038940430e-02
4.800023138523101807e-02
-6.787142902612686157e-02
-2.966853603720664978e-02
-5.672700703144073486e-03
-9.046852588653564453e-03
6.660164892673492432e-02
6.188230216503143311e-02
1.342111080884933472e-02
8.195194602012634277e-02
3.881661593914031982e-02
-4.507862031459808350e-03
-3.812132030725479126e-02
5.591310560703277588e-02
-3.868467360734939575e-02
3.202389925718307495e-02
5.285102128982543945e-02
-2.884861454367637634e-02
3.983342647552490234e-02
6.662331521511077881e-02
-6.668195128440856934e-04
-1.706834137439727783e-02
8.322256803512573242e-02
-7.641895115375518799e-02
-3.376439586281776428e-02
5.683071911334991455e-02
-5.455091595649719238e-04
-8.580572158098220825e-02
-8.869326114654541016e-02
8.577935397624969482e-02
6.548717617988586426e-03
6.650008261203765869e-02
-5.247324705123901367e-03
8.574034273624420166e-02
2.937778830528259277e-02
7.961240410804748535e-02
-8.115438371896743774e-02
8.605924248695373535e-02
-3.297251462936401367e-02
1.256182044744491577e-02
-5.436197295784950256e-02
6.863404810428619385e-02
7.335671782493591309e-02
-6.021678447723388672e-02
-2.163547277450561523e-02
-6.340748816728591919e-02
-7.964164018630981445e-03
-7.166659086942672729e-02
-2.546086162328720093e-02
8.865517377853393555e-02
6.827186048030853271e-02
4.313166439533233643e-02
7.050526142120361328e-02
8.020399510860443115e-02
8.877775073051452637e-02
3.792047500610351562e-03
7.525926828384399414e-02
-3.538090363144874573e-02
-7.227646559476852417e-02
7.195331156253814697e-02
7.512114942073822021e-02
7.270358502864837646e-03
5.311322212219238281e-02
7.462090253829956055e-02
5.911056697368621826e-02
5.929499864578247070e-02
-7.125411927700042725e-02
-3.812914341688156128e-02
-4.269073903560638428e-02
-7.647690922021865845e-02
-1.092925667762756348e-03
5.121275782585144043e-02
2.440014481544494629e-02
7.894858717918395996e-02
4.155150055885314941e-02
2.519857883453369141e-02
2.996912598609924316e-02
2.237688750028610229e-02
-4.342216998338699341e-02
8.948291838169097900e-02
-3.773520514369010925e-02
6.046094000339508057e-02
-2.559535950422286987e-02
-2.155315130949020386e-02
4.449941217899322510e-03
-1.906670629978179932e-03
-7.826759666204452515e-02
6.267488002777099609e-02
-8.961144834756851196e-02
-1.514252275228500366e-02
2.218747884035110474e-02
7.234859466552734375e-02
-2.880834788084030151e-02
-2.869173139333724976e-02
8.752335608005523682e-02
-2.944814041256904602e-02
-6.514824926853179932e-02
9.191989898681640625e-03
-6.318268179893493652e-02
-1.073431223630905151e-02
-6.186974048614501953e-02
7.789564132690429688e-02
8.549331128597259521e-02
-7.784166932106018066e-02
-5.029794573783874512e-02
1.296570152044296265e-02
-3.387592732906341553e-03
-2.539053559303283691e-03
-2.414015680551528931e-02
5.770759284496307373e-02
-1.236291229724884033e-02
5.779258906841278076e-03
-8.971899747848510742e-02
-4.180357232689857483e-02
-2.757026255130767822e-02
2.920241653919219971e-02
-7.161444425582885742e-02
6.918011605739593506e-02
-8.262790739536285400e-02
-7.968663424253463745e-02
-1.190760731697082520e-02
1.687251031398773193e-02
1.747170090675354004e-02
7.814277708530426025e-02
-5.227950960397720337e-02
3.122138231992721558e-02
5.522526800632476807e-03
-5.442713573575019836e-02
-8.454379439353942871e-02
5.215354263782501221e-02
-5.352795496582984924e-02
-5.227394774556159973e-02
-1.867322623729705811e-02
8.706681430339813232e-02
-2.859342098236083984e-02
-5.534158647060394287e-02
-2.770467102527618408e-02
5.963079631328582764e-03
-1.375702768564224243e-02
-1.101563125848770142e-02
4.804496467113494873e-02
-1.757731288671493530e-02
-2.771173417568206787e-02
8.587069809436798096e-03
-1.421815156936645508e-02
-5.685754865407943726e-02
-3.713405877351760864e-02
5.931568145751953125e-02
-4.140282422304153442e-02
-6.676939129829406738e-02
7.779128849506378174e-02
-4.410073161125183105e-03
-8.611766248941421509e-02
8.641447126865386963e-02
7.628445327281951904e-02
2.442367374897003174e-02
-8.607635647058486938e-02
1.632884144783020020e-03
-2.530674636363983154e-02
-6.855799257755279541e-02
7.548701763153076172e-02
-4.148017615079879761e-02
3.177316486835479736e-02
-2.234622836112976074e-02
3.260864317417144775e-02
-2.380038052797317505e-02
4.176151752471923828e-02
-5.651209130883216858e-02
3.677187860012054443e-02
-8.118371665477752686e-02
-3.277643769979476929e-02
-2.513439953327178955e-02
-8.779664337635040283e-02
2.848662436008453369e-03
-3.441219404339790344e-02
2.797890454530715942e-02
2.945907413959503174e-03
5.799005925655364990e-02
-7.137389481067657471e-02
-2.619482576847076416e-03
-6.474985927343368530e-02
-5.104627832770347595e-02
2.131412923336029053e-02
-4.551595076918601990e-02
-4.289881885051727295e-02
-8.746140450239181519e-02
-7.451926916837692261e-02
8.416184782981872559e-02
-5.108896642923355103e-02
4.789419472217559814e-02
-2.523769438266754150e-02
6.184741854667663574e-02
-8.577112108469009399e-02
3.171443939208984375e-02
-8.109836280345916748e-02
-8.758508414030075073e-02
5.242000520229339600e-02
6.409344077110290527e-02
7.213233411312103271e-02
-1.000242680311203003e-02
-3.382443264126777649e-02
-7.950188964605331421e-02
2.970788627862930298e-02
-4.263847321271896362e-02
8.985130488872528076e-02
-8.281838893890380859e-02
7.572783529758453369e-02
-6.641013920307159424e-02
3.979732096195220947e-02
-2.331735193729400635e-02
-2.785312384366989136e-02
8.829897642135620117e-02
8.646367490291595459e-02
5.861157178878784180e-02
1.353330910205841064e-03
1.972106844186782837e-02
-3.132478520274162292e-02
-1.325951516628265381e-02
3.931671380996704102e-05
-4.805208742618560791e-02
-4.523476585745811462e-02
-3.470323979854583740e-02
3.942757844924926758e-02
-9.036772698163986206e-02
-1.563871651887893677e-02
-6.882126629352569580e-02
5.125339329242706299e-02
-4.285664111375808716e-02
-8.210417628288269043e-02
-7.229034602642059326e-02
4.383738338947296143e-02
-8.098153024911880493e-02
6.307244300842285156e-02
7.135267555713653564e-02
-5.660022795200347900e-02
5.852308869361877441e-02
5.024664103984832764e-02
2.936940640211105347e-02
-1.190465688705444336e-02
-4.513258114457130432e-02
-4.596152529120445251e-02
-5.620464682579040527e-03
-6.240280717611312866e-02
-4.012907668948173523e-02
1.044742763042449951e-03
5.662800371646881104e-02
3.313310444355010986e-02
-2.127971500158309937e-02
3.212869167327880859e-03
4.914140701293945312e-02
-3.965904936194419861e-02
-1.235868036746978760e-02
2.015113830566406250e-03
-3.444516658782958984e-02
6.012232601642608643e-02
3.983661532402038574e-02
3.855225443840026855e-02
-3.996952995657920837e-02
-5.986624583601951599e-02
-5.140490084886550903e-02
-2.866132557392120361e-02
-2.949976548552513123e-02
-7.385319471359252930e-02
7.278116047382354736e-02
7.152286171913146973e-02
8.823983371257781982e-02
-4.758992791175842285e-02
4.603122174739837646e-02
-1.361609995365142822e-02
8.513621985912322998e-02
8.710484206676483154e-02
5.515359342098236084e-02
-5.054805427789688110e-02
-8.979116380214691162e-02
-4.535427317023277283e-02
-9.070651978254318237e-02
-8.298975229263305664e-02
-4.105531796813011169e-02
8.307740092277526855e-02
2.461471408605575562e-02
-8.777685463428497314e-03
-6.755538284778594971e-03
-5.668324977159500122e-02
-5.454090982675552368e-02
6.789261102676391602e-02
2.693036198616027832e-02
7.450473308563232422e-02
6.992827355861663818e-02
4.861880838871002197e-02
1.370962709188461304e-02
-5.185390263795852661e-02
-9.378865361213684082e-03
-8.769669383764266968e-02
-6.941099464893341064e-02
4.998466372489929199e-02
4.524746537208557129e-02
-6.593805551528930664e-02
2.992539107799530029e-02
7.354892790317535400e-02
5.578415095806121826e-02
3.177434206008911133e-03
8.230386674404144287e-02
6.689780950546264648e-02
4.859629273414611816e-02
-7.293137907981872559e-02
-7.049493491649627686e-02
2.019657939672470093e-02
-5.895363911986351013e-02
-6.510099768638610840e-02
2.620369195938110352e-04
3.980717062950134277e-02
-5.908210203051567078e-02
-7.525548338890075684e-03
-8.701095730066299438e-02
-1.282031089067459106e-02
-1.380414515733718872e-02
-5.770083889365196228e-02
-2.202183008193969727e-03
1.840904355049133301e-02
-8.034077286720275879e-02
-6.213015317916870117e-02
4.216501116752624512e-02
-5.868153646588325500e-02
-4.400422796607017517e-02
-5.730842426419258118e-02
-3.329186514019966125e-02
6.600621342658996582e-02
-9.037410467863082886e-02
1.519518345594406128e-02
8.535289764404296875e-02
5.297672748565673828e-02
4.360935091972351074e-02
6.668420135974884033e-02
2.138190716505050659e-02
-4.123524576425552368e-02
-2.728869765996932983e-02
6.114266812801361084e-02
2.203574776649475098e-02
-7.349099218845367432e-02
4.911093413829803467e-02
2.216562628746032715e-02
2.404620498418807983e-02
7.905775308609008789e-02
7.138714194297790527e-03
-6.410246342420578003e-02
3.923086822032928467e-02
-6.253857165575027466e-02
-2.447529137134552002e-02
4.511061310768127441e-02
-8.725576847791671753e-02
4.372224211692810059e-02
1.305140554904937744e-03
7.368065416812896729e-03
-6.016437709331512451e-02
5.584703385829925537e-02
4.126973450183868408e-02
-2.640372514724731445e-02
-6.744916737079620361e-02
4.568594694137573242e-02
-1.690433174371719360e-02
-1.874645799398422241e-02
4.303693771362304688e-02
2.551966905593872070e-02
8.793117105960845947e-02
-4.838755354285240173e-02
8.255250751972198486e-02
-6.065309047698974609e-02
-8.787644654512405396e-02
-5.106583237648010254e-03
-4.528276622295379639e-02
-8.147647231817245483e-02
-7.576806098222732544e-02
-8.220825344324111938e-02
-3.374151885509490967e-02
9.870849549770355225e-03
3.846698999404907227e-02
-7.299055159091949463e-02
2.076909691095352173e-02
1.449086517095565796e-02
-6.767792999744415283e-02
8.318394422531127930e-02
8.733224868774414062e-02
7.867835462093353271e-02
-1.002003252506256104e-02
4.316051304340362549e-02
8.584961295127868652e-02
-6.357894092798233032e-02
1.901231706142425537e-02
-7.632472366094589233e-02
-5.120905488729476929e-02
5.070416629314422607e-02
8.563701808452606201e-02
-7.650004327297210693e-02
-3.639818727970123291e-02
3.872747719287872314e-02
-7.286252826452255249e-02
-5.030502006411552429e-02
-5.085383355617523193e-02
2.131290733814239502e-03
-7.942452281713485718e-02
7.079051434993743896e-02
-8.343225717544555664e-02
1.336177438497543335e-02
2.365054190158843994e-02
6.658454239368438721e-02
5.691622197628021240e-02
-5.173113197088241577e-02
-4.852648824453353882e-02
-7.762975990772247314e-03
2.215802669525146484e-05
-3.024715930223464966e-02
1.147396862506866455e-03
4.464900493621826172e-02
-4.822295904159545898e-02
3.567138314247131348e-02
-6.235588341951370239e-02
-4.831229150295257568e-02
5.635942518711090088e-02
7.545369863510131836e-02
-8.752514421939849854e-02
-8.816011250019073486e-03
-9.224951267242431641e-03
2.473801374435424805e-03
2.237413823604583740e-02
-2.150558680295944214e-02
5.095930397510528564e-02
-5.205882713198661804e-02
7.876215875148773193e-02
-1.255326718091964722e-02
-5.843715369701385498e-02
6.456571817398071289e-02
-5.535669997334480286e-02
-1.078671962022781372e-02
4.420441389083862305e-02
7.448078691959381104e-02
-7.669824361801147461e-02
-7.866539061069488525e-03
-6.434642523527145386e-02
-2.413168549537658691e-03
-7.436985522508621216e-02
2.417425066232681274e-02
8.816722035408020020e-02
4.966978728771209717e-02
1.562611013650894165e-02
2.749272435903549194e-02
-1.518917828798294067e-02
-2.912649139761924744e-02
-5.047976598143577576e-02
8.197128772735595703e-02
3.729701042175292969e-02
8.768557012081146240e-02
-9.075865149497985840e-03
-1.091077923774719238e-03
2.888637781143188477e-02
3.019560128450393677e-02
5.139149725437164307e-03
3.857360780239105225e-02
-1.977458596229553223e-02
3.075128793716430664e-02
-5.772720649838447571e-02
4.561480879783630371e-02
5.905851721763610840e-02
-4.156343638896942139e-02
5.274477601051330566e-02
-4.429645091295242310e-02
8.511336147785186768e-02
4.065699875354766846e-02
-7.404617965221405029e-02
5.818209052085876465e-02
-9.023006260395050049e-02
-1.240586489439010620e-02
-3.941025957465171814e-02
-2.805823087692260742e-02
4.793135821819305420e-02
5.615556240081787109e-02
3.358088433742523193e-02
5.425249040126800537e-02
8.375245332717895508e-02
6.317952275276184082e-02
-3.968482837080955505e-02
-5.792915821075439453e-02
2.719207108020782471e-02
-6.694396585226058960e-02
