1.487159878015518188e-01
-1.537812650203704834e-01
8.228708803653717041e-02
-4.634149372577667236e-02
9.286476671695709229e-02
-1.952372342348098755e-01
-1.917891502380371094e-01
5.091635882854461670e-02
2.242290973663330078e-02
1.969149261713027954e-01
6.263376772403717041e-02
1.391406506299972534e-01
-1.187828779220581055e-01
1.697147935628890991e-01
1.160529404878616333e-01
1.402799785137176514e-02
5.244733393192291260e-02
-1.010063886642456055e-01
-1.219580173492431641e-01
-7.635829597711563110e-02
-2.572961151599884033e-02
-4.603834450244903564e-02
-1.963873654603958130e-01
-8.272476494312286377e-02
2.335962653160095215e-02
-1.499693691730499268e-01
1.652562171220779419e-01
-1.062030121684074402e-01
1.384648233652114868e-01
1.984608918428421021e-01
3.476002812385559082e-02
-4.164583981037139893e-02
2.037295699119567871e-02
-1.223737746477127075e-01
-1.448124200105667114e-01
-1.484487056732177734e-01
-6.776472926139831543e-02
-8.243513107299804688e-02
-3.719921410083770752e-02
-3.601384162902832031e-02
1.873560398817062378e-01
-1.755186915397644043e-02
1.877480596303939819e-01
1.444402337074279785e-02
-5.339697003364562988e-03
-3.324656188488006592e-02
8.293901383876800537e-02
-8.283896744251251221e-02
1.734179407358169556e-01
-1.282267272472381592e-02
1.139246374368667603e-01
4.029706120491027832e-03
1.281905621290206909e-01
-1.332968175411224365e-01
-1.299142837524414062e-01
1.456375569105148315e-01
8.070234954357147217e-02
1.570170074701309204e-01
-8.034133911132812500e-02
-9.550973773002624512e-03
8.857931196689605713e-02
-9.823331981897354126e-02
1.153205782175064087e-01
1.483115553855895996e-02
3.270769119262695312e-02
-1.636359244585037231e-01
-1.505830883979797363e-02
-1.692079752683639526e-01
-1.957962512969970703e-01
-5.293378233909606934e-02
1.649069339036941528e-01
-9.218919277191162109e-02
-1.332958936691284180e-01
1.595805138349533081e-01
-1.186525598168373108e-01
-1.694636642932891846e-01
-1.126456260681152344e-02
-9.663780033588409424e-02
-1.336857378482818604e-01
3.387542068958282471e-02
-8.456366509199142456e-02
2.848836779594421387e-02
1.198642104864120483e-01
-1.285688877105712891e-01
-1.588834822177886963e-01
1.062589734792709351e-01
6.836773455142974854e-02
1.711149364709854126e-01
-9.059820324182510376e-02
-1.552603691816329956e-01
1.908655613660812378e-01
2.130654454231262207e-02
1.247600466012954712e-01
4.525177180767059326e-02
-1.098575368523597717e-01
-3.583982586860656738e-02
-9.071033447980880737e-02
1.641104370355606079e-01
-1.596997976303100586e-01
7.593010365962982178e-02
-1.449728757143020630e-01
1.521240323781967163e-01
9.795953333377838135e-02
-9.233293682336807251e-02
1.738943904638290405e-01
-1.088023185729980469e-02
-7.342751324176788330e-02
1.360142678022384644e-01
1.022617667913436890e-01
-1.933599561452865601e-01
2.893844246864318848e-02
-5.505116283893585205e-02
1.666619926691055298e-01
-4.325477778911590576e-02
9.343047440052032471e-02
-1.810511350631713867e-01
-1.452113837003707886e-01
-1.693222820758819580e-01
4.217521846294403076e-02
9.472921490669250488e-03
-7.427963614463806152e-02
-1.127427369356155396e-01
1.299212723970413208e-01
-1.006920561194419861e-01
7.834316790103912354e-02
7.018472254276275635e-02
5.180586874485015869e-02
2.395018935203552246e-02
1.111836582422256470e-01
1.948388665914535522e-01
2.009522914886474609e-02
1.857920438051223755e-01
1.839396506547927856e-01
1.118216961622238159e-01
8.225649595260620117e-03
1.898721307516098022e-01
1.837163716554641724e-01
3.219838440418243408e-02
1.547819525003433228e-01
-2.669732272624969482e-02
-1.690161526203155518e-01
1.185330003499984741e-01
-7.921107113361358643e-02
-1.796993315219879150e-01
4.293701052665710449e-02
-3.157651424407958984e-02
8.078588545322418213e-02
4.724593460559844971e-02
-4.763567447662353516e-02
1.097115874290466309e-02
