2.989840693771839142e-02
-4.760318621993064880e-02
7.261895388364791870e-02
-3.847496211528778076e-02
-7.245264202356338501e-02
7.077693939208984375e-02
-9.383927285671234131e-02
-6.463612616062164307e-02
-7.478296756744384766e-02
3.426392376422882080e-02
-1.119135990738868713e-01
-4.372512549161911011e-02
-1.308662146329879761e-01
-3.843749314546585083e-02
-4.484598711133003235e-02
1.457712054252624512e-01
1.262740790843963623e-01
-7.071107625961303711e-02
-1.374967955052852631e-02
1.208997145295143127e-02
1.992239654064178467e-01
1.078560724854469299e-01
8.618864417076110840e-02
9.853537380695343018e-02
-5.790001247078180313e-03
4.507699608802795410e-01
1.729022264480590820e-01
3.004785068333148956e-02
6.220088899135589600e-02
1.911650002002716064e-01
1.932421028614044189e-01
-4.198434948921203613e-02
-2.424934133887290955e-02
5.003752931952476501e-02
6.620298326015472412e-02
-1.020729821175336838e-02
-8.507654815912246704e-02
-1.245011687278747559e-01
4.275058954954147339e-02
-9.668028354644775391e-02
1.110820919275283813e-01
-8.132000453770160675e-03
-4.234217107295989990e-02
1.203695833683013916e-01
3.451558947563171387e-02
1.572878807783126831e-01
6.818492710590362549e-02
-4.344779998064041138e-03
2.800790034234523773e-02
-4.742233082652091980e-02
2.978146970272064209e-01
2.577019929885864258e-01
-2.948816120624542236e-02
7.931946218013763428e-02
-1.848413944244384766e-01
4.070997834205627441e-01
-2.091686725616455078e-01
-9.816417098045349121e-02
2.619182169437408447e-01
1.511282175779342651e-01
3.054346144199371338e-01
4.983227327466011047e-02
-8.508923649787902832e-02
2.504254877567291260e-02
1.580584347248077393e-01
-6.505201011896133423e-02
-1.089985743165016174e-01
-6.012556329369544983e-02
-1.813259907066822052e-02
3.012576401233673096e-01
-2.085827738046646118e-01
-1.563820987939834595e-01
-8.274430036544799805e-02
5.342566967010498047e-02
2.515589594841003418e-01
-2.457458674907684326e-01
-5.169331431388854980e-01
2.141681872308254242e-02
4.105465412139892578e-01
-2.194517105817794800e-01
3.041998110711574554e-02
-2.647284269332885742e-01
-2.134964168071746826e-01
1.303319782018661499e-01
-5.746805295348167419e-02
4.350909590721130371e-02
-1.209840103983879089e-01
-3.654488027095794678e-01
3.875340893864631653e-02
1.270965784788131714e-01
1.963247209787368774e-01
-8.582204580307006836e-02
-2.543602883815765381e-01
-2.850708784535527229e-03
9.167581051588058472e-02
1.874320060014724731e-01
-1.227809339761734009e-01
-1.100505217909812927e-01
-5.522527545690536499e-02
-9.391473978757858276e-02
9.153907001018524170e-02
-2.820134162902832031e-01
6.079792603850364685e-02
1.659081429243087769e-01
1.595877110958099365e-02
1.090067103505134583e-01
7.802264392375946045e-02
-1.335341632366180420e-01
-9.758667647838592529e-02
-2.089128829538822174e-02
2.414088845252990723e-01
1.098371371626853943e-01
-3.519236668944358826e-02
2.649325318634510040e-02
7.413189858198165894e-02
9.017230570316314697e-02
1.029729619622230530e-01
-4.200907796621322632e-02
7.169557362794876099e-02
-1.207563746720552444e-02
-1.615724712610244751e-02
7.189626246690750122e-02
7.700686156749725342e-02
-2.346715331077575684e-02
-1.986205577850341797e-02
-1.470916569232940674e-01
2.574400603771209717e-01
1.636795848608016968e-01
-1.669747978448867798e-01
-1.014462262392044067e-01
-3.200435638427734375e-01
1.432327646762132645e-02
1.940837055444717407e-01
1.648529022932052612e-01
8.440711349248886108e-02
-3.079823553562164307e-01
-2.468402385711669922e-01
-1.813354529440402985e-02
2.329581379890441895e-01
1.008522287011146545e-01
-2.280034571886062622e-01
-1.526068747043609619e-01
1.624221950769424438e-01
3.544123470783233643e-01
1.927903741598129272e-01
-9.559637904167175293e-01
-6.966062784194946289e-01
-6.930496096611022949e-01
-7.543718218803405762e-01
-4.308916926383972168e-01
2.393224984407424927e-01
4.500235021114349365e-01
2.431968897581100464e-01
2.242384403944015503e-01
2.975255548954010010e-01
1.405938565731048584e-01
1.946108937263488770e-01
2.564503848552703857e-01
8.524440228939056396e-02
1.337636262178421021e-01
-1.758141070604324341e-01
1.468633711338043213e-01
-9.256410598754882812e-02
-7.129610329866409302e-02
9.336342662572860718e-02
-1.449199467897415161e-01
-1.539855599403381348e-01
-2.428602874279022217e-01
-2.076208889484405518e-01
-6.875681132078170776e-02
-1.653228104114532471e-01
-4.043763279914855957e-01
-2.372128367424011230e-01
-3.529650866985321045e-01
-1.560570448637008667e-01
1.497282087802886963e-01
7.688203454017639160e-02
-2.153513208031654358e-02
-3.742421045899391174e-02
-2.710267901420593262e-01
-7.445844262838363647e-02
1.787737905979156494e-01
8.283167332410812378e-02
7.728029787540435791e-02
1.312168315052986145e-02
1.999858319759368896e-01
4.601396620273590088e-02
1.398183964192867279e-02
-1.093749031424522400e-01
-7.002416998147964478e-02
3.861663043498992920e-01
8.576478064060211182e-02
-1.407847702503204346e-01
-1.380997598171234131e-01
9.914477914571762085e-02
1.695321798324584961e-01
1.038423925638198853e-01
-6.242117844521999359e-03
-1.044681444764137268e-01
-1.774481311440467834e-02
2.275155186653137207e-01
2.699207961559295654e-01
2.046067118644714355e-01
-1.285625696182250977e-01
-5.518206208944320679e-02
3.735028803348541260e-01
3.550970926880836487e-02
1.972838640213012695e-01
2.193542867898941040e-01
2.280300855636596680e-01
3.921810537576675415e-02
-9.160618297755718231e-03
-1.012375950813293457e+00
-1.279564499855041504e-01
1.592787355184555054e-01
2.671602368354797363e-01
-8.711102604866027832e-02
-3.611465096473693848e-01
-3.022945672273635864e-02
1.219716072082519531e-01
3.541842103004455566e-01
9.327669441699981689e-02
2.260453850030899048e-01
1.924330741167068481e-01
1.594193428754806519e-01
2.851567417383193970e-02
2.592756152153015137e-01
3.479289636015892029e-02
-7.562707364559173584e-02
-1.168280616402626038e-01
-3.884919732809066772e-02
8.565635420382022858e-03
-1.748105585575103760e-01
-1.835842430591583252e-01
2.461041137576103210e-02
-1.541478633880615234e-01
-1.303975433111190796e-01
-2.326861023902893066e-01
-1.333663519471883774e-02
4.454856365919113159e-02
-1.353777050971984863e-01
-1.843975782394409180e-01
2.571969628334045410e-01
5.897320061922073364e-02
1.009674146771430969e-01
-2.228210270404815674e-01
-5.448301434516906738e-01
-1.640922427177429199e-01
3.317614318802952766e-03
1.855826228857040405e-01
1.153238862752914429e-01
2.116516232490539551e-01
6.079582870006561279e-02
4.997107014060020447e-02
-2.713202033191919327e-03
-1.674819290637969971e-01
-1.415454745292663574e-01
7.583596557378768921e-02
-3.214064752683043480e-03
-7.677178829908370972e-02
-1.521501969546079636e-02
-2.137972116470336914e-01
-1.149753630161285400e-01
-3.354084864258766174e-02
-1.222112867981195450e-02
-8.033164776861667633e-03
-5.272867158055305481e-02
1.974946819245815277e-02
5.940286815166473389e-02
-2.889424748718738556e-02
-1.942303478717803955e-01
-2.121277004480361938e-01
2.287005819380283356e-02
9.153739362955093384e-02
4.653414338827133179e-02
1.947132349014282227e-01
-2.671552002429962158e-01
-8.444223403930664062e-01
-9.355859160423278809e-01
-3.396803140640258789e-02
-2.442103922367095947e-01
-6.019539833068847656e-01
-5.609546303749084473e-01
2.567806243896484375e-01
6.821247190237045288e-02
-2.300664931535720825e-01
-4.503638446331024170e-01
-5.343339443206787109e-01
1.041416302323341370e-01
-1.977476477622985840e-01
-2.854562997817993164e-01
-2.515753805637359619e-01
-6.003046035766601562e-01
-2.422096729278564453e-01
-7.504790276288986206e-02
1.323185563087463379e-01
3.254487738013267517e-02
-8.097018301486968994e-02
-3.116213530302047729e-02
2.261693328619003296e-01
-9.237587451934814453e-02
-7.221277803182601929e-02
-6.461528688669204712e-02
2.270983904600143433e-02
-6.324958056211471558e-02
4.393778741359710693e-02
5.079415440559387207e-02
-3.922067955136299133e-02
3.172896336764097214e-03
-6.764796376228332520e-02
-5.547929182648658752e-02
3.433619439601898193e-02
4.184598103165626526e-02
1.503849681466817856e-02
1.806907802820205688e-01
-1.888081431388854980e-02
1.230183541774749756e-01
3.486826643347740173e-02
1.546199433505535126e-02
3.673902153968811035e-02
6.530082225799560547e-02
8.235326409339904785e-02
1.146774590015411377e-01
2.843979746103286743e-03
3.484192071482539177e-03
8.806811273097991943e-02
2.114344984292984009e-01
1.076480075716972351e-01
-2.386369369924068451e-02
-5.144505202770233154e-02
1.570501327514648438e-01
2.454022318124771118e-02
2.231595478951931000e-02
2.911970764398574829e-02
4.644440859556198120e-02
1.125379279255867004e-01
6.250109523534774780e-02
3.909841924905776978e-02
3.267306461930274963e-02
-3.311512619256973267e-02
1.697055995464324951e-02
1.944999694824218750e-01
1.952659934759140015e-01
5.593968555331230164e-02
-5.527394637465476990e-02
3.693177103996276855e-01
2.530324757099151611e-01
1.733109652996063232e-01
7.605294138193130493e-02
-2.289155721664428711e-01
4.874144867062568665e-02
1.925685405731201172e-01
2.314759492874145508e-01
1.792760342359542847e-01
-2.217654734849929810e-01
-8.369809389114379883e-02
2.855506539344787598e-01
6.702081114053726196e-02
-1.466539204120635986e-01
-5.237557291984558105e-01
3.112194240093231201e-01
1.798124462366104126e-01
2.243469953536987305e-01
7.463424652814865112e-02
-1.068069860339164734e-01
-1.418211311101913452e-01
-7.044743001461029053e-02
7.827929407358169556e-02
-3.511388087645173073e-03
-1.460611820220947266e-01
-6.992064416408538818e-02
-2.548617720603942871e-01
-1.006147190928459167e-01
6.474630534648895264e-02
-3.620278835296630859e-02
-1.654537916183471680e-01
-1.626811474561691284e-01
-1.911276392638683319e-02
1.692475229501724243e-01
8.903958648443222046e-02
-4.704353958368301392e-02
9.775915741920471191e-02
9.714216925203800201e-03
-1.318814158439636230e-01
-6.123929470777511597e-02
-4.259518906474113464e-02
-5.641073733568191528e-02
2.105702273547649384e-02
-1.156219765543937683e-01
-8.048237115144729614e-02
-1.503939367830753326e-02
2.849075756967067719e-02
8.583687245845794678e-02
6.314847152680158615e-03
8.360470086336135864e-02
5.507020279765129089e-02
1.482625752687454224e-01
3.142928704619407654e-02
1.230672225356101990e-01
7.093872874975204468e-03
-3.117233216762542725e-01
-4.403184354305267334e-01
-1.890984177589416504e-01
-4.515809565782546997e-02
6.897093355655670166e-02
-1.749469935894012451e-01
-5.103641152381896973e-01
-4.289470911026000977e-01
-1.525392830371856689e-01
7.218006998300552368e-02
-4.148731380701065063e-02
-1.706766039133071899e-01
-2.766757607460021973e-01
-9.040910005569458008e-02
3.163459151983261108e-02
2.675944939255714417e-02
3.154596313834190369e-02
6.306808907538652420e-03
-1.835581846535205841e-02
-5.376812070608139038e-02
-6.831153761595487595e-03
1.644867062568664551e-01
1.191001310944557190e-01
1.825078018009662628e-02
7.123117148876190186e-02
-3.942913413047790527e-01
2.994596958160400391e-02
1.505624502897262573e-01
8.264570683240890503e-02
-1.440986990928649902e-01
6.322287768125534058e-02
2.980746626853942871e-01
2.595345377922058105e-01
2.542946934700012207e-01
7.470876723527908325e-02
-1.732504218816757202e-01
1.467433944344520569e-02
-9.751300513744354248e-02
-2.497049421072006226e-01
-1.875495314598083496e-01
-1.723310202360153198e-01
1.964368484914302826e-02
2.142120152711868286e-02
-3.494532406330108643e-01
-7.167074084281921387e-01
-1.561212837696075439e-01
-2.222190946340560913e-01
-6.941425800323486328e-01
-1.129633069038391113e+00
-1.273050069808959961e+00
-1.340022981166839600e-01
1.938692294061183929e-02
-1.061876937747001648e-01
5.904727801680564880e-02
-3.770729526877403259e-02
-1.958759874105453491e-02
2.602401003241539001e-02
5.946706980466842651e-02
4.680663347244262695e-02
-6.014988943934440613e-02
7.660397887229919434e-02
7.411768287420272827e-02
-8.591220527887344360e-02
-7.874396978877484798e-04
-9.354320913553237915e-02
1.700705140829086304e-01
1.236767545342445374e-01
-6.194835156202316284e-02
-1.837088912725448608e-01
-9.249410778284072876e-02
1.608985662460327148e-01
1.787846684455871582e-01
1.152325347065925598e-01
-3.692043125629425049e-01
-3.543034791946411133e-01
5.073631554841995239e-02
-2.224983721971511841e-01
-2.124676667153835297e-02
6.023903936147689819e-02
-1.351698935031890869e-01
4.771758243441581726e-02
1.618427224457263947e-02
-1.124842613935470581e-01
-2.077400311827659607e-02
-5.979957059025764465e-04
-1.156478300690650940e-01
3.649495169520378113e-02
-2.289341539144515991e-01
-1.566137969493865967e-01
-1.420791447162628174e-01
6.532397121191024780e-02
-8.687769994139671326e-03
-1.074208319187164307e-01
-1.084697991609573364e-01
-1.872339099645614624e-01
-2.133639007806777954e-01
-2.595897018909454346e-01
-2.094052135944366455e-01
5.628686025738716125e-02
9.839715808629989624e-02
-6.097621098160743713e-02
1.118104085326194763e-01
-2.588451206684112549e-01
9.405861049890518188e-02
1.774680614471435547e-01
-6.465270370244979858e-02
1.648539155721664429e-01
-2.854441702365875244e-01
-3.166757524013519287e-01
-1.288011521100997925e-01
2.546314001083374023e-01
4.313448667526245117e-01
1.088043861091136932e-02
-2.891479730606079102e-01
-1.834689974784851074e-01
1.992991417646408081e-01
3.913348615169525146e-01
-5.342509225010871887e-02
-2.119188904762268066e-01
1.836883425712585449e-01
2.299357652664184570e-01
3.502866029739379883e-01
-1.442412137985229492e-01
-3.326911330223083496e-01
1.510693281888961792e-01
2.073148041963577271e-01
-1.099453419446945190e-01
1.130381897091865540e-01
3.062405623495578766e-02
-1.951393298804759979e-02
-1.291883140802383423e-01
2.621288038790225983e-02
1.277900487184524536e-01
4.341146722435951233e-02
9.592858701944351196e-02
-1.167790219187736511e-01
-9.486390650272369385e-02
4.058966040611267090e-02
7.952719181776046753e-02
-1.115882694721221924e-01
6.482836604118347168e-02
-3.105097450315952301e-03
1.308965384960174561e-01
4.035535752773284912e-01
9.070542454719543457e-02
-7.669622544199228287e-03
7.884617894887924194e-02
2.678097486495971680e-01
6.016125679016113281e-01
4.047439396381378174e-01
-1.850800663232803345e-01
-3.035703599452972412e-01
-1.209952235221862793e-01
1.076671108603477478e-02
1.366865914314985275e-02
-7.928223162889480591e-02
3.430745378136634827e-02
-4.331834241747856140e-02
2.465065941214561462e-02
6.784157454967498779e-02
1.899257302284240723e-02
5.139947310090065002e-02
6.975704431533813477e-02
-1.233677417039871216e-01
-5.028915405273437500e-02
-1.323112398386001587e-01
4.110886156558990479e-02
6.890269368886947632e-02
-3.760015964508056641e-02
-2.760801929980516434e-03
-2.373742908239364624e-01
3.542299196124076843e-02
3.676281273365020752e-01
2.597164735198020935e-02
1.746512204408645630e-01
-3.208385109901428223e-01
-1.669718325138092041e-01
-4.924523457884788513e-02
-3.847976624965667725e-01
2.218158245086669922e-01
3.585623949766159058e-02
3.002853691577911377e-01
1.044788304716348648e-02
-7.418875694274902344e-01
2.388721704483032227e-01
8.845578879117965698e-02
3.838594257831573486e-01
8.704597502946853638e-02
-5.273762941360473633e-01
1.996656507253646851e-01
1.395961493253707886e-01
2.935158610343933105e-01
1.538220643997192383e-01
-2.375631332397460938e-01
-1.968266069889068604e-02
7.681155204772949219e-02
2.699733376502990723e-01
4.367953240871429443e-01
-1.862266361713409424e-01
-1.116295084357261658e-01
1.699664890766143799e-01
7.985574007034301758e-02
-5.775279551744461060e-02
-1.575424075126647949e-01
-2.854165732860565186e-01
6.907218694686889648e-02
2.073706984519958496e-01
1.800331622362136841e-01
4.255029931664466858e-02
1.191787198185920715e-01
-2.173888534307479858e-01
-1.903004245832562447e-03
1.443356834352016449e-02
-1.507306993007659912e-01
-1.667660325765609741e-01
-7.774647325277328491e-02
-8.466332219541072845e-03
1.908437907695770264e-02
-8.700163662433624268e-02
-4.056086391210556030e-02
1.077125817537307739e-01
-1.665249913930892944e-01
-2.231466174125671387e-01
-7.422813028097152710e-02
1.143072098493576050e-01
-3.161774277687072754e-01
-1.052424982190132141e-01
1.903394162654876709e-01
1.282780021429061890e-01
2.430325001478195190e-01
-1.976453661918640137e-01
3.081125952303409576e-02
3.794630616903305054e-02
-5.212709307670593262e-03
2.141158133745193481e-01
-2.326918765902519226e-02
1.094092205166816711e-01
5.227651074528694153e-02
1.298603266477584839e-01
2.321129739284515381e-01
4.574687778949737549e-02
4.796498641371726990e-02
-2.308942079544067383e-01
4.060778021812438965e-02
1.926100626587867737e-02
1.085320021957159042e-02
-3.827292099595069885e-02
8.531405776739120483e-02
-3.646868467330932617e-02
7.580585312098264694e-03
-8.930076658725738525e-02
1.202219650149345398e-01
1.966149210929870605e-01
4.663483202457427979e-01
1.813707798719406128e-01
2.182890176773071289e-01
2.376035451889038086e-01
2.454710155725479126e-01
4.815381169319152832e-01
2.759301662445068359e-01
3.185436874628067017e-02
4.257494211196899414e-02
-8.830931782722473145e-02
-4.102573730051517487e-03
2.960876189172267914e-02
-1.804298907518386841e-01
-1.353443413972854614e-01
-4.699373543262481689e-01
-1.000690579414367676e+00
-4.287846088409423828e-01
2.771338224411010742e-01
1.895327419042587280e-01
-1.250420063734054565e-01
-4.550108909606933594e-01
-8.447721600532531738e-02
4.005217552185058594e-01
-1.661741137504577637e-01
-1.728038042783737183e-01
-2.620236203074455261e-02
-5.948647484183311462e-02
1.511423476040363312e-02
-1.011714264750480652e-01
-2.831038273870944977e-02
-9.626526385545730591e-03
-4.123431071639060974e-02
1.262420555576682091e-03
2.723304741084575653e-02
-4.664694890379905701e-02
5.582545697689056396e-02
1.204610019922256470e-01
9.035632759332656860e-02
6.350114196538925171e-02
3.250186890363693237e-02
1.692209243774414062e-01
-6.120879668742418289e-03
-2.049473114311695099e-02
1.868839934468269348e-02
7.173582166433334351e-02
1.141212731599807739e-01
-2.129015028476715088e-01
-4.179117456078529358e-02
8.755892515182495117e-02
2.412878125905990601e-01
2.740474641323089600e-01
4.184627532958984375e-02
3.634529560804367065e-02
4.085070639848709106e-02
-1.924197748303413391e-02
-2.433308213949203491e-02
-3.319909796118736267e-02
-1.376107931137084961e-01
-8.560892194509506226e-02
-1.385245621204376221e-01
-3.042239136993885040e-02
-2.593464218080043793e-02
-9.183187782764434814e-02
-8.203270286321640015e-02
-9.055203944444656372e-02
-5.923601612448692322e-02
6.319151818752288818e-02
1.433776766061782837e-01
-7.556235790252685547e-02
-2.445376813411712646e-01
-3.012676835060119629e-01
-2.274806499481201172e-01
5.227835103869438171e-02
-5.165275335311889648e-01
4.967751447111368179e-03
5.934615135192871094e-01
5.197139382362365723e-01
-8.754505217075347900e-02
1.385019868612289429e-01
1.057588830590248108e-01
4.237268567085266113e-01
2.030642330646514893e-02
2.750475108623504639e-01
3.079892694950103760e-01
-8.481401600874960423e-04
-2.250058948993682861e-01
6.266488134860992432e-02
4.060876667499542236e-01
2.815280556678771973e-01
3.400892019271850586e-01
1.323492527008056641e-01
-3.086804645135998726e-03
-2.783370018005371094e-01
-7.929634302854537964e-02
2.650624513626098633e-02
-3.716045916080474854e-01
-9.495986700057983398e-01
5.353780463337898254e-03
2.658562920987606049e-02
-7.962919026613235474e-02
-2.297163605690002441e-01
-4.829573631286621094e-01
5.589953064918518066e-02
2.773038446903228760e-01
1.934850513935089111e-01
-5.328791961073875427e-02
-2.408499568700790405e-01
-2.091757580637931824e-02
1.320868283510208130e-01
-8.528225868940353394e-02
-1.463723331689834595e-01
-2.462184876203536987e-01
6.281674653291702271e-02
7.199843227863311768e-02
1.037028953433036804e-01
-5.736510828137397766e-02
-1.575948596000671387e-01
-7.484222203493118286e-02
1.045655310153961182e-01
1.023098602890968323e-01
-1.350630521774291992e-01
-1.103885620832443237e-01
6.382696330547332764e-02
3.726641461253166199e-02
2.350347787141799927e-01
1.647305488586425781e-01
-5.074997544288635254e-01
-1.069971621036529541e-01
7.329817116260528564e-02
7.466255128383636475e-02
2.738224864006042480e-01
-4.493148326873779297e-01
-2.034451067447662354e-01
1.428445577621459961e-01
1.386935170739889145e-02
1.402021348476409912e-01
-4.678934812545776367e-02
-1.258613169193267822e-01
-4.301195219159126282e-02
-6.381323933601379395e-02
1.334613263607025146e-01
1.599168628454208374e-01
-2.746231388300657272e-03
6.239333003759384155e-02
6.804576516151428223e-02
-1.780405789613723755e-01
6.900082528591156006e-02
-1.036469101905822754e+00
9.641121141612529755e-03
-2.010274529457092285e-01
3.781307935714721680e-01
2.185928523540496826e-01
-6.135331988334655762e-01
-5.478127300739288330e-02
-6.158137321472167969e-02
4.196506738662719727e-02
3.400692939758300781e-01
-3.773650825023651123e-01
-5.603925585746765137e-01
-3.218484520912170410e-01
-5.001715850085020065e-03
3.669137656688690186e-01
-3.781127333641052246e-01
-3.031838834285736084e-01
-3.928297758102416992e-01
-2.207454144954681396e-01
3.611130714416503906e-01
9.593015164136886597e-02
-2.699108719825744629e-01
-2.568684220314025879e-01
-2.009145766496658325e-01
2.645437419414520264e-01
-1.696367561817169189e-01
-5.644558668136596680e-01
-3.741814196109771729e-01
-2.679570317268371582e-01
9.346024692058563232e-02
-2.852663211524486542e-02
3.535154834389686584e-02
1.580038517713546753e-01
-1.390133500099182129e-01
-2.252349443733692169e-02
3.322787582874298096e-02
1.041173934936523438e-01
1.346178203821182251e-01
-1.531504839658737183e-01
-1.558113694190979004e-01
1.523309946060180664e-01
1.001521572470664978e-01
8.680893480777740479e-02
-2.283659428358078003e-01
-6.792547106742858887e-01
-1.535420306026935577e-03
-2.423194646835327148e-01
-4.977382123470306396e-01
-3.911010026931762695e-01
-6.188817024230957031e-01
-1.869435049593448639e-02
-3.265652358531951904e-01
-1.776604950428009033e-01
3.609412014484405518e-01
9.301415830850601196e-02
-2.023501396179199219e-01
-2.200441360473632812e-01
-1.330740284174680710e-02
7.470010221004486084e-02
1.151061952114105225e-01
-1.089879721403121948e-01
-4.371609911322593689e-02
4.598120599985122681e-02
-1.472874134778976440e-01
2.835660241544246674e-02
-5.650193616747856140e-02
3.250072151422500610e-02
-5.018152296543121338e-02
-6.151134893298149109e-02
6.196563690900802612e-02
2.095570117235183716e-01
-1.713104397058486938e-01
1.195305809378623962e-01
1.169915348291397095e-01
8.678177744150161743e-02
-3.325754106044769287e-01
-1.399590969085693359e-01
-4.348231479525566101e-03
2.973817884922027588e-01
1.411243826150894165e-01
-3.283070623874664307e-01
-1.615244597196578979e-01
2.509480416774749756e-01
2.091301828622817993e-01
1.250535994768142700e-01
-1.213119179010391235e-01
-2.647689580917358398e-01
1.311648730188608170e-02
1.595753580331802368e-01
1.988699138164520264e-01
5.638699606060981750e-02
-3.473381698131561279e-01
-3.214915096759796143e-01
-3.955775126814842224e-02
4.097117781639099121e-01
-1.585660427808761597e-01
-4.907571524381637573e-02
-4.674375429749488831e-02
8.988250046968460083e-02
2.406653761863708496e-01
-4.964901879429817200e-02
5.460511520504951477e-02
-9.132783859968185425e-02
1.010405272245407104e-01
3.886361839249730110e-03
-1.306283622980117798e-01
9.430830925703048706e-02
1.316622346639633179e-01
-2.299555763602256775e-02
-1.027896925806999207e-01
-3.112320601940155029e-02
2.494545653462409973e-02
-6.672272831201553345e-02
2.939642593264579773e-02
-2.058573216199874878e-01
1.398066151887178421e-02
-1.563065126538276672e-02
-2.089574933052062988e-02
-9.326747804880142212e-02
-1.815670635551214218e-03
-1.442077457904815674e-01
-6.328856199979782104e-02
2.499258145689964294e-02
-5.677155032753944397e-02
2.370984554290771484e-01
-1.238244101405143738e-01
-1.292932033538818359e-01
-1.881136149168014526e-01
7.979273796081542969e-02
-9.518703073263168335e-02
1.415527984499931335e-02
-1.613347977399826050e-02
-3.640295565128326416e-01
-7.221958041191101074e-02
2.377604842185974121e-01
6.864351034164428711e-02
-1.133247371762990952e-02
-1.183234974741935730e-01
-5.646041780710220337e-02
3.890921771526336670e-01
1.508621498942375183e-02
9.914086759090423584e-02
-1.981872599571943283e-03
-1.597380936145782471e-01
2.938529849052429199e-01
-3.445609763730317354e-04
-9.031463414430618286e-02
1.018817201256752014e-01
-3.730957508087158203e-01
4.116768538951873779e-01
2.231990844011306763e-01
-1.104746758937835693e-02
-7.905311584472656250e-01
-5.650536715984344482e-02
8.900396227836608887e-01
-4.116410613059997559e-01
-3.497456014156341553e-01
-5.182825922966003418e-01
-8.944714069366455078e-01
4.470785260200500488e-01
-2.023940533399581909e-01
6.956798490136861801e-03
1.361234337091445923e-01
-7.124081850051879883e-01
-2.008743733167648315e-01
2.031751126050949097e-01
1.778359413146972656e-01
3.777136206626892090e-01
3.508071228861808777e-02
-3.595062345266342163e-02
-3.007081151008605957e-01
4.400820136070251465e-01
6.636620759963989258e-01
6.398484110832214355e-01
-2.453359514474868774e-01
3.610930591821670532e-02
5.881425738334655762e-02
7.974701374769210815e-02
1.381952781230211258e-02
-9.892908483743667603e-02
1.916600912809371948e-01
2.206683903932571411e-01
1.378381848335266113e-01
-4.707527533173561096e-02
-7.671543955802917480e-02
-1.102165132761001587e-02
-1.883280649781227112e-02
-1.080053597688674927e-01
-1.744061112403869629e-01
-2.499235719442367554e-01
-1.776382029056549072e-01
-9.192468225955963135e-02
-5.443169735372066498e-03
-1.333334147930145264e-01
-2.614816427230834961e-01
1.534355133771896362e-01
2.830708958208560944e-02
-1.118051037192344666e-01
-3.141428530216217041e-02
7.364922016859054565e-02
5.904781445860862732e-02
9.679772704839706421e-02
-1.816543191671371460e-01
-1.138544902205467224e-01
-1.564899645745754242e-02
-4.765972029417753220e-03
3.417432680726051331e-02
1.200345605611801147e-01
-1.832993626594543457e-01
1.813099086284637451e-01
4.774150252342224121e-02
3.631343692541122437e-02
-2.839330956339836121e-02
-3.581175580620765686e-02
1.358756870031356812e-01
9.312899410724639893e-02
9.227626025676727295e-03
-6.047041341662406921e-02
-5.093589797616004944e-02
-4.015638679265975952e-02
1.349191963672637939e-01
1.341945976018905640e-01
1.695165932178497314e-01
1.052971580065786839e-03
-3.417314887046813965e-01
-2.126193940639495850e-01
1.508286148309707642e-01
-3.507896065711975098e-01
-3.285045325756072998e-01
1.467579454183578491e-01
1.290758103132247925e-01
6.019064188003540039e-01
2.527129836380481720e-02
-4.843495190143585205e-01
5.214878916740417480e-01
1.157024949789047241e-01
2.877426445484161377e-01
-1.984304040670394897e-01
-6.552406549453735352e-01
2.001197487115859985e-01
-2.287617623805999756e-01
-3.572423160076141357e-01
2.458082512021064758e-02
6.461310386657714844e-02
-5.083562731742858887e-01
-3.550375401973724365e-01
-1.741801947355270386e-02
5.652536749839782715e-01
6.617056727409362793e-01
-5.268123745918273926e-01
1.923230737447738647e-01
7.583584636449813843e-02
1.164481602609157562e-02
-5.525504350662231445e-01
-1.417164355516433716e-01
1.415823772549629211e-02
5.439775437116622925e-02
-3.041009418666362762e-02
-2.423662543296813965e-01
-4.957545176148414612e-02
1.051132455468177795e-01
8.952686190605163574e-02
-1.202873289585113525e-01
-2.013827860355377197e-02
-1.203588247299194336e-01
-1.493443176150321960e-02
-4.943139851093292236e-03
2.827473729848861694e-02
1.615125834941864014e-01
-1.330085545778274536e-01
2.189394235610961914e-01
1.495605260133743286e-01
1.240363493561744690e-01
1.458843499422073364e-01
-2.486472427845001221e-01
9.447702020406723022e-02
-6.789662688970565796e-02
-7.040900737047195435e-02
-5.881104618310928345e-02
1.167213469743728638e-01
7.052882015705108643e-02
-8.391072601079940796e-02
-1.026296615600585938e-01
-1.808211207389831543e-01
-1.575101017951965332e-01
-1.470626145601272583e-01
-9.030429273843765259e-02
1.297660544514656067e-02
-2.386996150016784668e-02
1.260876804590225220e-01
-5.611006915569305420e-02
-1.519847810268402100e-01
4.067560657858848572e-03
9.036901593208312988e-02
6.977007538080215454e-02
9.335862472653388977e-03
1.164920777082443237e-01
1.115936487913131714e-01
6.246490776538848877e-02
1.468159705400466919e-01
-2.611815929412841797e-01
2.447644919157028198e-01
2.963936924934387207e-01
-4.300704300403594971e-01
-1.965374648571014404e-01
8.449946343898773193e-02
2.993210591375827789e-02
-2.430870980024337769e-01
1.844070255756378174e-01
-2.452148795127868652e-01
-9.238402545452117920e-02
-2.656600475311279297e-01
-2.056222856044769287e-01
-1.149361953139305115e-01
-5.824911594390869141e-01
-1.393181234598159790e-01
-4.117874205112457275e-01
-1.971647739410400391e-01
-3.166775405406951904e-01
-4.942859113216400146e-01
3.135039210319519043e-01
-1.349836587905883789e-01
-3.802267014980316162e-01
-5.224614143371582031e-01
-4.504380524158477783e-01
3.093458414077758789e-01
4.174711704254150391e-01
7.877302169799804688e-02
-1.862508058547973633e-01
4.827462434768676758e-01
-6.464079767465591431e-02
-1.999425888061523438e-02
-2.763184607028961182e-01
7.510505616664886475e-02
7.316496968269348145e-02
5.641232803463935852e-02
4.063426330685615540e-02
-1.156458258628845215e-01
1.212138235569000244e-01
-3.248958662152290344e-02
-6.158281862735748291e-02
-1.497159153223037720e-01
-1.135447919368743896e-01
1.260214298963546753e-01
-1.455448567867279053e-01
-6.538397073745727539e-02
-2.704358696937561035e-01
-2.289797663688659668e-01
1.491102576255798340e-01
8.183848112821578979e-02
1.762502789497375488e-01
2.434245347976684570e-01
7.812650501728057861e-02
-2.299946248531341553e-01
-4.579321295022964478e-02
6.868781149387359619e-02
5.043246783316135406e-03
-4.392067342996597290e-02
-6.643874105066061020e-03
8.661194890737533569e-02
5.380251631140708923e-02
-3.888047114014625549e-02
-9.660992026329040527e-02
9.303932636976242065e-02
7.895098999142646790e-03
1.174233779311180115e-01
2.041775546967983246e-02
-6.806517392396926880e-02
-1.268413290381431580e-02
-5.714400205761194229e-03
-1.354457885026931763e-01
-6.249353662133216858e-02
-1.968010663986206055e-01
2.363335788249969482e-01
1.774462163448333740e-01
3.469951450824737549e-01
-1.554663479328155518e-01
2.511557005345821381e-02
4.895540177822113037e-01
3.135209679603576660e-01
7.031641155481338501e-02
-2.303240895271301270e-01
1.833086758852005005e-01
1.799841970205307007e-01
-2.411176860332489014e-01
-3.510872125625610352e-01
-7.501580566167831421e-02
-9.900567680597305298e-02
1.643855571746826172e-01
3.528019785881042480e-02
-5.450349450111389160e-01
1.737078279256820679e-01
-3.453433215618133545e-01
-5.272767543792724609e-01
-4.843957722187042236e-01
-5.983199477195739746e-01
1.413473486900329590e-02
-2.492561787366867065e-01
-4.195417761802673340e-01
-1.070515990257263184e+00
-3.306907713413238525e-01
6.483195722103118896e-02
1.261374503374099731e-01
-1.388818025588989258e-01
-3.984634298831224442e-03
-1.272572949528694153e-02
2.666027247905731201e-01
6.287480890750885010e-02
-2.687712609767913818e-01
4.100134968757629395e-02
1.067587174475193024e-02
2.004679441452026367e-01
-3.775169700384140015e-02
-1.702994704246520996e-01
8.616068400442600250e-03
-3.655098006129264832e-02
-6.075132638216018677e-02
-4.694485664367675781e-02
1.808988861739635468e-02
6.263513118028640747e-02
-6.841722875833511353e-02
-1.667748391628265381e-01
2.055260352790355682e-02
1.435599029064178467e-01
4.828726127743721008e-02
-1.685234755277633667e-01
-2.337082847952842712e-02
-1.734239459037780762e-01
-1.484450995922088623e-01
2.380143254995346069e-01
1.472031772136688232e-01
-1.394528448581695557e-01
-9.680098295211791992e-02
-3.542732819914817810e-02
1.003486737608909607e-01
-2.575158700346946716e-02
-8.948317728936672211e-03
-1.980914175510406494e-02
1.717626350000500679e-03
1.221415475010871887e-01
4.157897457480430603e-02
1.409081667661666870e-01
2.096734195947647095e-02
1.320294220931828022e-03
1.583557277917861938e-01
-5.055549368262290955e-02
4.417466372251510620e-02
4.491364583373069763e-02
3.901616483926773071e-02
-1.742723584175109863e-02
2.876697480678558350e-01
3.555374220013618469e-02
-2.367850951850414276e-02
2.215912193059921265e-01
-6.295149214565753937e-03
1.805461049079895020e-01
-4.786320403218269348e-02
-1.625365614891052246e-01
5.605728551745414734e-02
-8.564126491546630859e-02
1.974502652883529663e-01
1.857286840677261353e-01
1.525170952081680298e-01
1.317622810602188110e-01
8.898127824068069458e-03
1.355739384889602661e-01
7.558239623904228210e-03
-4.678253456950187683e-02
-9.898895397782325745e-03
-1.009033694863319397e-01
1.736697927117347717e-02
-1.876848787069320679e-01
-1.173447147011756897e-01
-4.551156163215637207e-01
-4.659344851970672607e-01
-3.049401640892028809e-01
2.261536866426467896e-01
2.756151854991912842e-01
-3.622860014438629150e-01
-2.151405364274978638e-01
-4.163964837789535522e-02
3.090824186801910400e-01
6.084608659148216248e-02
-7.971453666687011719e-02
-2.075736969709396362e-01
5.133111029863357544e-02
1.020327880978584290e-01
4.369370266795158386e-02
-3.509735688567161560e-02
-1.787887811660766602e-01
2.685649991035461426e-01
4.045349359512329102e-02
4.081829264760017395e-02
2.840329892933368683e-02
4.133393988013267517e-02
2.323196679353713989e-01
-1.144064683467149734e-02
-3.109019249677658081e-02
-2.059655934572219849e-01
1.245628483593463898e-02
2.301087602972984314e-02
2.106491476297378540e-01
6.673278659582138062e-02
-3.568512797355651855e-01
-2.237059772014617920e-01
-3.808538615703582764e-02
2.417863346636295319e-03
-1.548703014850616455e-02
-3.650574386119842529e-02
2.400628291070461273e-03
-1.503512114286422729e-01
-7.613573223352432251e-02
-7.684235274791717529e-02
3.484646603465080261e-02
-2.794605493545532227e-02
-6.006089039146900177e-03
6.863359361886978149e-02
-2.700818702578544617e-02
6.473936140537261963e-02
8.583135902881622314e-02
1.423207968473434448e-01
7.013447582721710205e-03
-1.117286458611488342e-02
-9.755165316164493561e-03
1.502409726381301880e-01
1.976487338542938232e-01
4.330562949180603027e-01
-3.619111329317092896e-02
-1.101155579090118408e-01
-8.531824499368667603e-02
4.140326380729675293e-01
3.370127975940704346e-01
-1.345996707677841187e-01
-1.637618094682693481e-01
-2.114163339138031006e-01
1.985701620578765869e-01
3.168113827705383301e-01
-2.382928133010864258e-01
-1.749807000160217285e-01
-4.714838694781064987e-03
3.066124916076660156e-01
1.817162632942199707e-01
-7.589703053236007690e-02
-1.385712325572967529e-01
8.602039515972137451e-02
1.953783780336380005e-01
6.518922746181488037e-02
1.112290993332862854e-01
3.423230350017547607e-02
-5.976732354611158371e-03
-2.613047957420349121e-01
6.874477863311767578e-02
1.445542126893997192e-01
2.340451031923294067e-01
-1.168648079037666321e-01
4.590075928717851639e-03
2.018347010016441345e-02
-1.461302489042282104e-01
-1.463348791003227234e-02
-1.744907796382904053e-01
5.924884602427482605e-02
6.656283047050237656e-03
-3.935025632381439209e-02
3.266427293419837952e-02
-5.435400828719139099e-02
1.510311663150787354e-01
6.055833399295806885e-02
-7.103583216667175293e-02
4.238778352737426758e-02
-1.254381388425827026e-01
3.015381693840026855e-01
2.501095831394195557e-01
-2.380577325820922852e-01
-5.397956073284149170e-02
5.765629932284355164e-02
-9.225784987211227417e-02
4.258612170815467834e-02
-7.926831394433975220e-02
4.154990985989570618e-02
-1.167927980422973633e-01
-6.822723895311355591e-02
1.038639843463897705e-01
-9.886596351861953735e-02
-1.285198628902435303e-01
3.416382893919944763e-02
6.282643228769302368e-02
1.241723597049713135e-01
9.164189547300338745e-02
-8.423860371112823486e-02
-1.516566574573516846e-01
-2.606766298413276672e-02
-4.035661404486745596e-04
-1.077277809381484985e-01
6.899420171976089478e-02
9.344949573278427124e-02
1.865364313125610352e-01
-1.928266882896423340e-01
-2.272065132856369019e-01
8.082677423954010010e-02
1.519283503293991089e-01
1.365511119365692139e-01
7.385903596878051758e-02
-1.193170174956321716e-01
-2.221588194370269775e-01
-2.280763350427150726e-02
-1.384001672267913818e-01
1.656087785959243774e-01
-4.224045872688293457e-01
-8.779713511466979980e-02
-3.210775852203369141e-01
1.037444081157445908e-02
3.066023290157318115e-01
-7.942508906126022339e-02
1.854198276996612549e-01
-2.893550992012023926e-01
-2.221919000148773193e-01
6.294935941696166992e-02
-2.045749127864837646e-01
2.985467016696929932e-01
-1.351912468671798706e-01
-3.810004889965057373e-01
8.100020289421081543e-01
-1.672773063182830811e-01
1.400157511234283447e-01
9.680882096290588379e-02
1.531148403882980347e-01
-1.607833802700042725e-01
-2.557937204837799072e-01
-3.929840624332427979e-01
-1.257318556308746338e-01
7.001121342182159424e-02
1.175365671515464783e-01
-5.903450399637222290e-02
-1.082761213183403015e-01
-4.823473840951919556e-02
-5.054571479558944702e-02
7.924860715866088867e-02
-5.411522462964057922e-03
-2.025572396814823151e-02
5.042327567934989929e-02
-9.085182100534439087e-02
-3.647021949291229248e-02
1.738405600190162659e-02
6.303831934928894043e-02
9.594201110303401947e-03
1.095503568649291992e-02
-2.678388953208923340e-01
3.337714374065399170e-01
2.093424946069717407e-01
-1.754277497529983521e-01
-1.466158777475357056e-01
-3.123043477535247803e-01
-7.432436943054199219e-02
-1.839983277022838593e-02
6.237905472517013550e-02
6.141837686300277710e-02
2.143955975770950317e-02
-1.077273394912481308e-02
-1.037232577800750732e-01
-1.374966651201248169e-01
-5.865326523780822754e-02
6.267601996660232544e-02
6.244755163788795471e-02
-1.882582344114780426e-02
-5.639300681650638580e-03
-1.185758709907531738e-01
1.323076784610748291e-01
3.137265145778656006e-02
7.851724512875080109e-03
-3.493982926011085510e-02
3.629852831363677979e-01
4.993039667606353760e-01
-1.533602625131607056e-01
-6.642204243689775467e-03
-2.217955887317657471e-01
-7.073446512222290039e-01
-9.325778484344482422e-01
4.518142435699701309e-03
-5.400581359863281250e-01
-2.820070683956146240e-01
-7.878252863883972168e-01
-1.637003719806671143e-01
3.736433684825897217e-01
-2.333105206489562988e-01
-1.621666401624679565e-01
-8.152706027030944824e-01
-8.509558439254760742e-02
2.486231476068496704e-01
-3.657194375991821289e-01
-8.655270189046859741e-02
-7.791967391967773438e-01
2.444162070751190186e-01
2.384070754051208496e-01
-3.364774286746978760e-01
6.712921708822250366e-02
-6.881591081619262695e-01
4.336015880107879639e-01
1.566143631935119629e-01
-3.116938658058643341e-02
2.455340027809143066e-01
1.888945847749710083e-01
1.610814221203327179e-02
-9.062898159027099609e-02
-2.007004916667938232e-01
-8.151524513959884644e-02
-9.791295230388641357e-02
5.868134554475545883e-03
-2.372016757726669312e-02
-1.618911325931549072e-01
-2.367129921913146973e-01
-1.283839195966720581e-01
6.954689323902130127e-02
-4.419466853141784668e-02
1.579272300004959106e-01
5.718927830457687378e-02
-1.828562766313552856e-01
-2.107096761465072632e-01
-1.112393215298652649e-01
-1.209938153624534607e-02
-1.698025874793529510e-02
-2.980065345764160156e-01
-2.670911252498626709e-01
-1.364068388938903809e-01
3.023156523704528809e-02
-6.469952315092086792e-02
1.047091037034988403e-01
-2.301924489438533783e-02
-1.969733648002147675e-02
1.550751626491546631e-01
2.650525569915771484e-01
1.001664400100708008e-01
-1.415648031979799271e-02
-1.551975011825561523e-01
-5.091781169176101685e-02
1.261135376989841461e-02
5.671980232000350952e-02
-7.344090938568115234e-02
-1.067164912819862366e-01
-1.273443549871444702e-02
2.570871114730834961e-01
1.210828870534896851e-01
-9.783516079187393188e-02
-1.714141070842742920e-01
-1.277382969856262207e-01
6.604244560003280640e-02
4.826373979449272156e-02
-1.604447215795516968e-01
-4.111173748970031738e-02
-1.814887523651123047e-01
-1.485191732645034790e-01
2.216747552156448364e-01
-5.241072177886962891e-01
-4.266302585601806641e-01
-1.254790574312210083e-01
2.407240420579910278e-01
4.240988492965698242e-01
-5.488310754299163818e-02
3.420839458703994751e-02
6.528811156749725342e-02
-2.276232838630676270e-01
3.651309013366699219e-02
1.093936190009117126e-01
1.506246477365493774e-01
2.976504340767860413e-02
-1.585695743560791016e-01
-7.701342925429344177e-03
1.195693612098693848e-01
-7.804989069700241089e-02
-1.105514243245124817e-01
-2.215766012668609619e-01
-1.282390058040618896e-01
1.285383403301239014e-01
-1.142528466880321503e-02
-1.692336201667785645e-01
-2.860475331544876099e-03
1.874793320894241333e-01
1.881635747849941254e-03
1.866344735026359558e-02
-8.272671699523925781e-02
-4.755527973175048828e-01
-6.036109104752540588e-02
-9.011433273553848267e-02
-9.920471161603927612e-02
-3.250054717063903809e-01
-3.029294312000274658e-01
3.895841538906097412e-02
-1.517653185874223709e-02
6.755256908945739269e-04
-1.307365484535694122e-02
3.001969680190086365e-02
5.831143632531166077e-02
1.055738627910614014e-01
1.212270334362983704e-01
1.342755705118179321e-01
1.721189916133880615e-01
2.763707935810089111e-01
8.933013677597045898e-02
2.522763311862945557e-01
-1.017822623252868652e-01
-2.524880170822143555e-01
7.506782561540603638e-02
7.560697197914123535e-02
-7.164574414491653442e-02
-6.738171577453613281e-01
-1.079719901084899902e+00
-2.514104358851909637e-02
1.382113341242074966e-02
-2.485663145780563354e-01
-5.812183618545532227e-01
-4.899267554283142090e-01
4.795319586992263794e-02
1.336835622787475586e-01
-1.688029915094375610e-01
-8.733077347278594971e-02
-7.356103509664535522e-02
-3.833024576306343079e-02
1.259880885481834412e-02
-1.038622707128524780e-01
7.704272121191024780e-02
3.541189804673194885e-02
2.659217715263366699e-01
2.956841289997100830e-01
8.583094924688339233e-02
1.730609834194183350e-01
2.530532702803611755e-02
3.523311764001846313e-02
-2.842038869857788086e-01
-7.303266972303390503e-02
4.425744712352752686e-01
6.653175354003906250e-01
-3.863793984055519104e-02
-1.142765507102012634e-01
-1.233813539147377014e-01
1.586075723171234131e-01
4.188248217105865479e-01
-1.628841906785964966e-01
-2.684629261493682861e-01
-1.929271221160888672e-01
-5.706549063324928284e-02
3.111520782113075256e-02
-2.106171548366546631e-01
-3.122149407863616943e-01
-5.138452649116516113e-01
-2.793558239936828613e-01
-1.123206987977027893e-01
-1.225823685526847839e-01
-1.767365038394927979e-01
-3.757437765598297119e-01
-9.836710244417190552e-02
2.433170229196548462e-01
-1.888407468795776367e-01
1.304763741791248322e-02
2.181068062782287598e-01
2.953384220600128174e-01
1.157861500978469849e-01
-1.717288941144943237e-01
-2.124728113412857056e-01
-4.223187267780303955e-02
1.058107316493988037e-01
1.429253965616226196e-01
-9.420760720968246460e-02
-9.218432754278182983e-02
9.238742291927337646e-02
6.761626154184341431e-02
-1.581315100193023682e-01
9.868547320365905762e-02
4.396985843777656555e-02
2.470895834267139435e-02
9.154528379440307617e-02
1.166197285056114197e-01
6.007825955748558044e-03
3.889819979667663574e-02
5.382528156042098999e-02
-4.088426474481821060e-03
-1.172594353556632996e-01
2.951773703098297119e-01
3.786636143922805786e-02
-2.014396637678146362e-01
-4.197123944759368896e-01
-1.125527918338775635e-01
3.564359247684478760e-02
-2.832615748047828674e-02
-7.744220644235610962e-02
-3.230425715446472168e-01
-1.929187178611755371e-01
2.048195749521255493e-01
1.591480150818824768e-02
-1.679332107305526733e-01
-2.126731574535369873e-01
1.154108345508575439e-01
-3.189485520124435425e-02
-2.791093662381172180e-02
-8.012686856091022491e-03
-9.688417613506317139e-02
-6.796200573444366455e-02
-2.173365466296672821e-02
2.280130051076412201e-02
6.085560470819473267e-02
-3.459013998508453369e-02
5.565966293215751648e-02
-3.231288790702819824e-01
-8.161188960075378418e-01
1.733530312776565552e-01
2.113111317157745361e-01
3.312776982784271240e-01
-2.226043790578842163e-01
4.741315543651580811e-02
2.418799698352813721e-01
-1.329590231180191040e-01
1.762000173330307007e-01
-3.023464679718017578e-01
6.357421725988388062e-02
-1.366785913705825806e-01
1.336296498775482178e-01
1.945288032293319702e-01
2.491691112518310547e-01
4.648500084877014160e-01
4.229407608509063721e-01
3.575095534324645996e-01
2.111946642398834229e-01
-2.098414748907089233e-01
7.440436631441116333e-02
-2.217829041182994843e-02
-8.312651515007019043e-02
-2.081113308668136597e-01
3.865451365709304810e-02
-4.180392622947692871e-02
5.555108189582824707e-01
7.217090129852294922e-01
1.842525750398635864e-01
-1.539282314479351044e-02
-1.824013441801071167e-01
-1.752115786075592041e-01
-2.542407512664794922e-01
-2.134442478418350220e-01
4.718848317861557007e-02
3.395523130893707275e-02
7.781236618757247925e-02
6.070054322481155396e-02
-1.386990249156951904e-01
-2.314331568777561188e-02
8.493805304169654846e-03
-3.896366059780120850e-02
-2.176079154014587402e-02
-1.597417145967483521e-01
3.305580466985702515e-02
4.475973919034004211e-02
-5.868860334157943726e-02
1.185085102915763855e-01
1.017874386161565781e-02
-3.527503013610839844e-01
-2.848548293113708496e-01
1.279146224260330200e-01
2.932224273681640625e-01
6.093243137001991272e-02
5.374670028686523438e-02
-4.103446379303932190e-02
-1.335814595222473145e-01
7.564519997686147690e-03
3.720174729824066162e-02
6.060888618230819702e-02
-3.640464693307876587e-02
-5.078886449337005615e-02
-3.423380898311734200e-03
-1.852431707084178925e-02
4.358272626996040344e-02
3.078491892665624619e-03
-2.195256017148494720e-02
8.933727629482746124e-03
-8.058297447860240936e-03
-2.537106722593307495e-02
-6.136339902877807617e-02
-4.433074221014976501e-02
2.730226144194602966e-02
-2.082830518484115601e-01
1.344292908906936646e-01
3.119376897811889648e-01
-1.705856621265411377e-01
-6.762996912002563477e-01
-2.079845666885375977e-01
-1.046409830451011658e-02
1.786572858691215515e-02
-4.548787176609039307e-01
-9.555118158459663391e-03
4.048220515251159668e-01
-1.244763359427452087e-01
1.996815651655197144e-01
-2.679184675216674805e-01
1.562275737524032593e-01
1.209556832909584045e-01
-4.787043929100036621e-01
-5.288151502609252930e-01
-3.903327882289886475e-01
-2.034154385328292847e-01
-9.514359384775161743e-02
-1.640602052211761475e-01
-1.454781591892242432e-01
3.625677824020385742e-01
3.429212272167205811e-01
5.050725936889648438e-01
-1.077670529484748840e-01
2.450458556413650513e-01
2.022485136985778809e-01
4.599606245756149292e-02
-2.405277937650680542e-01
-1.306860744953155518e-01
-1.127531081438064575e-01
8.118912577629089355e-02
1.094244047999382019e-01
-1.427003145217895508e-01
-3.517508134245872498e-02
7.238415628671646118e-02
-1.045320834964513779e-02
5.139818880707025528e-03
-6.091231107711791992e-02
3.867403790354728699e-02
-3.763836994767189026e-02
-6.903972476720809937e-02
-4.396399855613708496e-02
5.101605504751205444e-02
-2.221445888280868530e-01
-8.392713963985443115e-03
-6.822425872087478638e-02
1.810530126094818115e-01
3.043878674507141113e-01
-8.554802276194095612e-03
-6.980840116739273071e-02
-1.271024718880653381e-02
3.780623897910118103e-03
1.829243600368499756e-01
-1.445567011833190918e-01
-1.848131716251373291e-01
5.133227445185184479e-03
5.259827896952629089e-02
-6.123472005128860474e-02
-7.397774606943130493e-02
-1.660127192735671997e-01
1.594605296850204468e-02
1.518884897232055664e-01
-1.467713154852390289e-03
8.174671232700347900e-02
-2.782714962959289551e-01
-3.527003824710845947e-01
-2.609664388000965118e-02
1.266705244779586792e-01
-2.536324560642242432e-01
-3.260269165039062500e-01
-8.257728815078735352e-01
-8.851397037506103516e-01
-8.230162858963012695e-01
-7.617268562316894531e-01
-3.944897279143333435e-02
5.136799439787864685e-02
-4.719367027282714844e-01
-3.873111307621002197e-01
-5.323373675346374512e-01
-9.038432687520980835e-02
4.121090471744537354e-02
-1.789682172238826752e-02
-1.903423368930816650e-01
-8.268008381128311157e-02
-3.014375828206539154e-02
-1.110037323087453842e-02
3.236460387706756592e-01
-8.154207840561866760e-03
-7.584704756736755371e-01
-3.064996004104614258e-01
1.302052885293960571e-01
5.719879269599914551e-01
6.585204601287841797e-01
-1.251107215881347656e+00
-6.049481034278869629e-01
2.457488775253295898e-01
7.346691489219665527e-01
1.197239041328430176e+00
-8.175040781497955322e-02
1.388019323348999023e-01
1.351902931928634644e-01
1.394384503364562988e-01
1.630596518516540527e-01
-6.785107403993606567e-02
-8.745469152927398682e-02
-1.901042759418487549e-01
-1.872729063034057617e-01
-4.698232933878898621e-02
-6.302502751350402832e-02
-1.641809381544589996e-02
-4.016976803541183472e-02
-5.273968353867530823e-02
1.096078753471374512e-01
-1.108072102069854736e-01
4.900482296943664551e-02
5.335319787263870239e-03
-1.048646420240402222e-01
1.275538057088851929e-01
1.655633002519607544e-02
1.392647325992584229e-01
1.699905991554260254e-01
-7.640467584133148193e-02
1.286712475121021271e-03
-1.521252542734146118e-01
-4.378957301378250122e-02
-4.591548070311546326e-02
-4.999196529388427734e-02
5.894875619560480118e-03
2.731290645897388458e-02
6.406798958778381348e-02
-1.308104768395423889e-02
1.189595274627208710e-02
8.660607971251010895e-03
-2.074692584574222565e-02
5.761226639151573181e-02
-8.641486614942550659e-02
-9.530953317880630493e-02
5.683465674519538879e-02
-1.154443155974149704e-02
4.293094854801893234e-03
1.539786718785762787e-02
-1.570308804512023926e-01
-8.565951138734817505e-02
-1.032835841178894043e-01
7.641612738370895386e-02
1.326429247856140137e-01
-1.151373162865638733e-01
-1.118064224720001221e-01
5.506978034973144531e-01
5.372574925422668457e-01
-3.604764342308044434e-01
-1.092178821563720703e+00
1.545478105545043945e-01
-1.598631590604782104e-01
-1.240710541605949402e-01
4.179001748561859131e-01
-3.543033897876739502e-01
-1.024288654327392578e+00
2.382500469684600830e-01
5.510751530528068542e-02
-4.072314202785491943e-01
-3.417414426803588867e-01
-3.966996967792510986e-01
2.056012600660324097e-01
-2.119805663824081421e-01
-5.825304985046386719e-01
1.119990274310112000e-02
4.009096622467041016e-01
-3.799432888627052307e-02
-1.956329494714736938e-01
-6.807060837745666504e-01
1.713042855262756348e-01
6.016136407852172852e-01
-1.554430276155471802e-01
-1.742605417966842651e-01
-3.551493585109710693e-01
3.400477871764451265e-04
2.627573907375335693e-01
7.837732881307601929e-02
-7.076687365770339966e-02
-2.091886699199676514e-01
-8.921787887811660767e-02
3.255642578005790710e-02
-3.342749550938606262e-02
-1.136813908815383911e-01
-1.512796133756637573e-01
-4.239074885845184326e-02
7.153782993555068970e-02
-3.090478852391242981e-02
7.739511877298355103e-02
7.727207615971565247e-03
1.046312078833580017e-01
1.613220870494842529e-01
1.135143116116523743e-01
2.132355272769927979e-01
4.577754065394401550e-02
8.667468279600143433e-02
2.473069727420806885e-01
2.850352041423320770e-02
-2.376585640013217926e-02
7.232280075550079346e-02
4.485444724559783936e-02
-4.240987077355384827e-02
9.134807437658309937e-02
-7.415231317281723022e-02
7.613775320351123810e-03
-3.400951996445655823e-02
-3.800594434142112732e-02
-4.769584164023399353e-02
-7.546609640121459961e-02
-9.619534760713577271e-02
-1.552450004965066910e-02
9.800262050703167915e-04
2.296916954219341278e-02
-1.331761330366134644e-01
-1.197942048311233521e-01
-3.663833811879158020e-02
1.218755170702934265e-01
1.903987377882003784e-01
9.310328960418701172e-02
-1.225453391671180725e-01
-1.703805029392242432e-01
1.293469816446304321e-01
-2.824208438396453857e-01
2.518303319811820984e-02
-2.323261648416519165e-02
-3.166690170764923096e-01
-4.141176640987396240e-01
-3.556399643421173096e-01
4.927111044526100159e-02
-2.536567449569702148e-01
-6.350466609001159668e-01
-2.456151992082595825e-01
-5.412178039550781250e-01
-5.656519532203674316e-01
-5.298538804054260254e-01
-4.704467952251434326e-02
9.465999901294708252e-02
-2.373695522546768188e-01
-2.659078454598784447e-03
1.027572453022003174e-01
1.689169704914093018e-01
1.238626763224601746e-01
-2.300920486450195312e-01
-3.301945328712463379e-02
2.253272980451583862e-01
-2.405477873980998993e-02
-9.989717043936252594e-03
-8.417796343564987183e-02
3.328772783279418945e-01
1.358800381422042847e-01
2.380296289920806885e-01
5.891598016023635864e-02
-1.007886528968811035e-01
1.187518313527107239e-01
6.684872508049011230e-02
-3.724380582571029663e-02
1.828236709116026759e-04
-4.559698328375816345e-02
9.907016903162002563e-02
-1.063798442482948303e-01
-1.620492339134216309e-01
-2.341077476739883423e-02
5.840414017438888550e-02
2.666644752025604248e-02
-1.323997378349304199e-01
-9.235683828592300415e-02
7.333452254533767700e-02
8.330812305212020874e-02
-9.602592326700687408e-03
-3.379015922546386719e-01
-5.237335711717605591e-02
1.725558191537857056e-01
3.671827912330627441e-01
4.168054163455963135e-01
2.178693860769271851e-01
-1.157366391271352768e-02
4.848315939307212830e-02
-1.121267527341842651e-01
-3.492154181003570557e-02
-8.076342940330505371e-02
-7.527197152376174927e-02
2.304352633655071259e-02
-1.427046805620193481e-01
-5.897440910339355469e-01
-9.107216000556945801e-01
-2.994766235351562500e-01
2.188140526413917542e-02
-1.257907152175903320e-01
-1.064296126365661621e+00
-1.403359889984130859e+00
-3.888982534408569336e-01
3.186334157362580299e-03
-2.291415184736251831e-01
-5.266472101211547852e-01
-9.651311635971069336e-01
-5.995153188705444336e-01
-1.363541632890701294e-01
3.190388157963752747e-02
-8.479150384664535522e-02
5.470117088407278061e-03
1.512784790247678757e-02
-7.570607960224151611e-02
1.805054843425750732e-01
9.478264302015304565e-02
8.796893805265426636e-02
3.938117250800132751e-02
7.717783004045486450e-02
8.457925170660018921e-02
2.201931774616241455e-01
1.140151172876358032e-01
8.758779615163803101e-02
1.193655580282211304e-01
-8.062349259853363037e-02
2.187335640192031860e-01
2.731408178806304932e-01
1.130797155201435089e-02
-3.433499038219451904e-01
-3.632358312606811523e-01
-4.973241686820983887e-01
-1.329035997390747070e+00
-9.462859630584716797e-01
-2.923873364925384521e-01
-4.097914397716522217e-01
2.797956168651580811e-01
-7.536892592906951904e-02
-9.713024646043777466e-02
-6.053816527128219604e-02
-3.641034960746765137e-01
2.576629519462585449e-01
1.994778811931610107e-01
-1.162431910634040833e-01
-3.352521359920501709e-02
-3.478154912590980530e-02
8.262515068054199219e-02
8.550823479890823364e-02
-4.297858849167823792e-02
-9.709916263818740845e-02
1.472940593957901001e-01
2.572795450687408447e-01
1.341662257909774780e-01
1.355575746856629848e-03
-5.290913395583629608e-03
-1.102300956845283508e-01
2.941973879933357239e-02
4.111550748348236084e-02
-1.202510893344879150e-01
3.291536867618560791e-02
9.555036574602127075e-02
-1.899712830781936646e-01
2.638870291411876678e-02
-3.894893079996109009e-02
-1.534237712621688843e-01
6.621634960174560547e-02
-7.878737896680831909e-02
-8.487611263990402222e-02
4.635668545961380005e-02
8.722013980150222778e-02
1.709119826555252075e-01
1.969692260026931763e-01
-5.391344428062438965e-02
-2.678651176393032074e-02
9.518295526504516602e-02
2.210090905427932739e-01
2.799302637577056885e-01
4.022827744483947754e-02
-5.293941497802734375e-02
8.044044673442840576e-02
4.780344963073730469e-01
3.065150082111358643e-01
4.043063893914222717e-02
3.421071544289588928e-02
-2.933741547167301178e-02
5.715217590332031250e-01
-8.405860066413879395e-01
-4.136514067649841309e-01
1.707444936037063599e-01
3.316062688827514648e-01
2.526874653995037079e-02
-1.059171676635742188e+00
-8.406963944435119629e-01
-3.536844551563262939e-01
-7.788262516260147095e-02
1.752455160021781921e-02
-8.482678532600402832e-01
-5.192794799804687500e-01
-2.071793675422668457e-01
3.169899433851242065e-02
2.768422365188598633e-01
-3.880323767662048340e-01
-7.706062495708465576e-02
-5.510260164737701416e-02
1.438540816307067871e-01
2.455994933843612671e-01
-1.618125885725021362e-01
-3.901156783103942871e-02
-1.555843278765678406e-02
2.336763143539428711e-01
-1.829605847597122192e-01
2.552435100078582764e-01
4.529055655002593994e-01
4.103081300854682922e-02
1.499326676130294800e-01
-2.528780698776245117e-01
1.986933052539825439e-01
2.203866541385650635e-01
2.351863496005535126e-02
2.021605148911476135e-02
-3.346072733402252197e-01
-1.753360033035278320e-02
1.442626267671585083e-01
1.623972803354263306e-01
-3.595616295933723450e-02
-6.662650108337402344e-01
-2.769461572170257568e-01
-7.356521487236022949e-02
5.412375554442405701e-02
-5.179769545793533325e-02
-7.231992483139038086e-01
-4.241958558559417725e-01
-1.911021769046783447e-01
-1.098890304565429688e-01
-1.490978151559829712e-01
3.583509847521781921e-02
3.306129872798919678e-01
2.381232827901840210e-01
2.062150686979293823e-01
4.432932287454605103e-02
1.585960537195205688e-01
2.234698235988616943e-01
-4.958697780966758728e-02
-2.452402375638484955e-03
-2.043058164417743683e-02
-3.490658104419708252e-02
1.281681656837463379e-01
-2.088880911469459534e-02
9.383515571244060993e-04
-4.478264227509498596e-02
-4.896572530269622803e-01
-2.017821073532104492e-01
-3.106952644884586334e-02
-2.010918222367763519e-02
-3.810077905654907227e-02
-1.063873052597045898e+00
-3.266041874885559082e-01
-1.131206229329109192e-01
-1.728341579437255859e-01
1.151190400123596191e-01
1.150730764493346214e-03
-8.442438207566738129e-03
-4.854568243026733398e-01
1.099771186709403992e-01
2.843514084815979004e-01
1.326090693473815918e-01
6.498058885335922241e-02
-1.657537817955017090e-01
-1.587769575417041779e-02
2.912041842937469482e-01
-2.628407813608646393e-02
5.029250681400299072e-02
1.291923224925994873e-01
-6.957937777042388916e-02
2.063385769724845886e-02
3.394535928964614868e-02
1.559904403984546661e-02
2.025161385536193848e-01
-2.142709344625473022e-01
-1.156234815716743469e-01
-6.929777562618255615e-02
-1.779919862747192383e-02
2.318167686462402344e-01
-1.875976175069808960e-01
1.103956401348114014e-01
1.612937152385711670e-01
-2.137245237827301025e-02
-6.389488279819488525e-02
-1.646775454282760620e-01
-1.748677492141723633e-01
4.008268564939498901e-02
5.190748721361160278e-02
5.534392967820167542e-02
-1.098814606666564941e-02
-2.081422135233879089e-02
-2.444089651107788086e-01
-2.249309867620468140e-01
-1.383576095104217529e-01
-1.460147500038146973e-01
-2.440190166234970093e-01
-2.004290930926799774e-02
-1.060128808021545410e-01
2.322743460536003113e-02
1.118364259600639343e-01
9.962189942598342896e-02
3.463019803166389465e-02
-8.741796761751174927e-02
-3.673990443348884583e-02
9.746845811605453491e-02
1.139451283961534500e-03
1.813235878944396973e-02
-7.388665527105331421e-02
-1.346047315746545792e-02
-4.494516178965568542e-02
2.232184112071990967e-01
1.740535795688629150e-01
1.987629830837249756e-01
1.176151707768440247e-01
-1.107986941933631897e-01
-7.804392278194427490e-02
6.915381550788879395e-02
8.615491911768913269e-03
-4.714966565370559692e-02
-2.419288083910942078e-02
6.494943052530288696e-02
1.532114297151565552e-01
1.164396107196807861e-01
-1.003115698695182800e-01
-1.806086450815200806e-01
1.694235056638717651e-01
3.092947900295257568e-01
2.808193862438201904e-01
-1.739022284746170044e-01
-3.098640739917755127e-01
1.018602680414915085e-02
2.907791733741760254e-01
8.054696917533874512e-01
4.274747371673583984e-01
3.735242486000061035e-01
5.900605916976928711e-01
6.825024485588073730e-01
5.002877712249755859e-01
3.865284323692321777e-01
3.703728914260864258e-01
6.215790510177612305e-01
3.766216039657592773e-01
3.967015147209167480e-01
2.630707621574401855e-01
7.574300467967987061e-02
1.644626408815383911e-01
-1.833481490612030029e-01
3.635632693767547607e-01
3.159398138523101807e-01
2.855437695980072021e-01
4.932074844837188721e-01
-3.821782469749450684e-01
1.446620970964431763e-01
1.795958280563354492e-01
1.931251287460327148e-01
4.273054897785186768e-01
-4.586198180913925171e-02
1.516602784395217896e-01
8.389715105295181274e-02
-2.273581773042678833e-01
-2.700134217739105225e-01
1.181274130940437317e-01
2.102760821580886841e-01
1.238329932093620300e-01
3.538116067647933960e-02
-2.586069144308567047e-02
2.151589989662170410e-01
2.740734443068504333e-02
-9.968585334718227386e-03
2.717415802180767059e-03
-2.211342453956604004e-01
8.433607965707778931e-02
-3.619026020169258118e-02
1.101526916027069092e-01
1.377183943986892700e-01
-1.250097751617431641e-01
-2.002491243183612823e-02
-1.914601176977157593e-01
3.753963392227888107e-03
-2.809459343552589417e-02
-2.014751583337783813e-01
-3.393571972846984863e-01
-3.697986006736755371e-01
-1.667654514312744141e-01
-1.256752610206604004e-01
-1.571449488401412964e-01
-1.397373676300048828e-01
-1.244000047445297241e-01
-1.405981834977865219e-02
-9.865980595350265503e-02
-1.573926359415054321e-01
-1.339222043752670288e-01
3.135483339428901672e-02
-9.169945120811462402e-02
-1.309256702661514282e-01
-1.438613086938858032e-01
2.024777792394161224e-02
-1.198331359773874283e-02
-7.966688275337219238e-02
-3.042909875512123108e-02
-3.923704475164413452e-02
9.078846871852874756e-02
1.146617606282234192e-01
-6.622502952814102173e-02
-8.653593808412551880e-02
-1.227684617042541504e-01
4.338034614920616150e-02
-9.628477692604064941e-02
-5.033171176910400391e-01
-5.913568660616874695e-02
-2.362310588359832764e-01
1.921084374189376831e-01
2.535957843065261841e-02
-8.928405493497848511e-02
-1.028730124235153198e-01
-2.145352810621261597e-01
7.575347274541854858e-02
4.515624418854713440e-02
4.757225140929222107e-02
-6.413340568542480469e-02
-5.328068882226943970e-02
6.377017498016357422e-02
2.817457616329193115e-01
3.312026560306549072e-01
3.048725128173828125e-01
1.488242596387863159e-01
-2.582141458988189697e-01
2.442682087421417236e-01
5.401217341423034668e-01
2.990220487117767334e-01
6.343866139650344849e-02
