-3.532495498657226562e-01
-6.233767606317996979e-03
-1.555802524089813232e-01
2.814291715621948242e-01
1.519436389207839966e-01
-1.130945309996604919e-01
-8.592560887336730957e-02
2.214902043342590332e-01
4.811507761478424072e-01
-1.147939115762710571e-01
4.372437596321105957e-01
2.093069553375244141e-01
2.856969237327575684e-01
-1.073275730013847351e-01
-1.337431669235229492e-01
1.746862530708312988e-01
3.127635419368743896e-01
-9.164790064096450806e-02
-2.409373521804809570e-01
1.746470332145690918e-01
-9.772798418998718262e-02
-2.098000496625900269e-01
-1.372393518686294556e-01
5.341170355677604675e-02
-3.497027754783630371e-01
-1.275934427976608276e-01
-1.149086281657218933e-01
-3.474097251892089844e-01
-6.949803829193115234e-01
-2.386066615581512451e-01
1.593741029500961304e-01
-7.401827722787857056e-02
3.907196521759033203e-01
4.444215074181556702e-02
-1.018702536821365356e-01
3.485902771353721619e-02
1.179352179169654846e-01
1.824918836355209351e-01
1.949218064546585083e-01
-3.913829568773508072e-03
9.922582656145095825e-02
-7.989634573459625244e-02
-7.229395955801010132e-02
2.627091407775878906e-01
9.255335479974746704e-02
-6.600938737392425537e-02
5.983695387840270996e-02
-7.630043476819992065e-02
2.899723052978515625e-01
6.816212832927703857e-02
-9.181131422519683838e-02
-1.011323630809783936e-01
-2.257504500448703766e-02
1.616881936788558960e-01
9.815073013305664062e-02
-2.786369435489177704e-02
-3.749988228082656860e-02
-1.855642162263393402e-02
1.225819736719131470e-01
4.198906198143959045e-02
2.100298739969730377e-02
-1.101044416427612305e-01
-3.483420237898826599e-02
6.418433040380477905e-02
1.627059578895568848e-01
3.004478663206100464e-02
1.170952096581459045e-01
5.146413296461105347e-02
3.876227885484695435e-02
-4.615613818168640137e-01
1.049400418996810913e-01
6.809853017330169678e-02
5.801371484994888306e-02
-5.861410498619079590e-01
-8.175645470619201660e-01
-1.072896644473075867e-01
-1.794820278882980347e-01
-6.462199240922927856e-02
2.190494388341903687e-01
6.256766617298126221e-02
-1.512020081281661987e-01
-1.600086688995361328e-01
6.989265233278274536e-02
7.231175899505615234e-02
2.629582285881042480e-01
-1.106838062405586243e-01
-1.843022257089614868e-01
-3.517409786581993103e-02
2.522998750209808350e-01
1.722231134772300720e-02
-4.243397712707519531e-02
-2.583681046962738037e-01
7.770500332117080688e-02
3.724504113197326660e-01
-1.241698861122131348e-01
-1.097794398665428162e-01
-1.098255068063735962e-01
1.282510310411453247e-01
1.398011744022369385e-01
-6.643935292959213257e-02
-1.363137550652027130e-02
5.248794704675674438e-02
2.232391238212585449e-01
-4.486618638038635254e-01
2.181038558483123779e-01
1.869955845177173615e-02
1.060782372951507568e-01
2.787306606769561768e-01
-5.571030974388122559e-01
2.119520455598831177e-01
4.339520633220672607e-02
-1.143610291182994843e-02
3.557195663452148438e-01
-5.947438478469848633e-01
1.612457931041717529e-01
-5.691904202103614807e-02
1.641881912946701050e-01
2.331155389547348022e-01
-3.950991034507751465e-01
6.042074412107467651e-02
2.025868184864521027e-02
7.786285132169723511e-02
2.213701903820037842e-01
-3.641900122165679932e-01
4.657576978206634521e-02
-1.489922404289245605e-02
-1.443033814430236816e-01
-5.292912125587463379e-01
-3.333151042461395264e-01
-7.528866082429885864e-02
2.378653585910797119e-01
-2.340615838766098022e-01
-7.299863100051879883e-01
-4.030692279338836670e-01
4.145326092839241028e-02
-4.154548794031143188e-02
7.682738825678825378e-03
-1.640507131814956665e-01
-5.592280533164739609e-03
-3.308892622590065002e-02
3.443258628249168396e-02
-4.459011182188987732e-02
9.273938834667205811e-03
-2.579827606678009033e-02
2.404507249593734741e-02
1.831276156008243561e-02
2.135034650564193726e-02
-1.011789683252573013e-02
3.742687031626701355e-02
1.470934413373470306e-02
