-9.511016309261322021e-03
-3.778505139052867889e-03
2.420131303369998932e-02
-6.158506497740745544e-02
2.691726088523864746e-01
1.295228116214275360e-02
-6.622175127267837524e-02
-3.854957967996597290e-02
2.251529544591903687e-01
2.429126948118209839e-02
3.231761455535888672e-01
5.189326778054237366e-02
-2.058498710393905640e-01
3.880728408694267273e-02
7.345043122768402100e-02
4.418529570102691650e-02
3.356347605586051941e-02
4.531655460596084595e-02
-2.428058087825775146e-01
5.721338558942079544e-03
3.394684195518493652e-02
-8.415307849645614624e-02
2.788207232952117920e-01
-1.827254593372344971e-01
6.308250874280929565e-02
1.917578727006912231e-01
1.476309611462056637e-03
1.016531810164451599e-01
-1.877289265394210815e-01
2.573429942131042480e-01
1.740430295467376709e-01
1.015481650829315186e-01
-2.177523635327816010e-02
1.707055233418941498e-02
-1.940777152776718140e-01
5.360114946961402893e-02
-1.047385782003402710e-01
6.998870521783828735e-02
-2.501063644886016846e-01
3.117038905620574951e-01
7.804367691278457642e-02
2.527595460414886475e-01
5.399381369352340698e-02
2.599625289440155029e-02
2.807678580284118652e-01
5.410939082503318787e-02
-1.913275271654129028e-01
-2.651561200618743896e-01
-1.422608792781829834e-01
-2.568744821473956108e-03
-9.026779234409332275e-02
2.459423989057540894e-01
3.750311732292175293e-01
-3.767874240875244141e-01
-6.189738586544990540e-02
7.446038722991943359e-02
-1.766379773616790771e-01
-8.085537701845169067e-02
-1.755439490079879761e-01
-2.149564325809478760e-01
1.426366418600082397e-01
3.177637606859207153e-02
1.885049045085906982e-02
2.376342564821243286e-01
-2.662988603115081787e-01
-3.668206334114074707e-01
4.405850544571876526e-02
-2.810240387916564941e-01
1.179998926818370819e-02
-1.096315681934356689e-02
-1.097863540053367615e-01
-5.467953532934188843e-02
-2.953400015830993652e-01
-6.699325889348983765e-02
8.953766524791717529e-02
-2.424040883779525757e-01
-1.793146282434463501e-01
-2.305931746959686279e-01
-6.940763443708419800e-02
5.811103433370590210e-02
-1.251070052385330200e-01
2.638335227966308594e-01
-1.017010807991027832e-01
-7.436968386173248291e-02
1.524729132652282715e-01
1.762571632862091064e-01
1.991701424121856689e-01
-2.165763229131698608e-01
-3.149436712265014648e-01
-6.622201204299926758e-02
4.622467234730720520e-02
-8.367366343736648560e-02
-1.003924310207366943e-01
-1.687713861465454102e-01
1.119500696659088135e-01
-2.107800692319869995e-01
1.309823840856552124e-01
1.678140163421630859e-01
2.193676233291625977e-01
4.284021444618701935e-03
1.870310753583908081e-01
-1.861671507358551025e-01
-1.776304841041564941e-01
-1.257745623588562012e-01
-1.553293019533157349e-01
-1.786829531192779541e-02
1.220946386456489563e-01
-2.102100700139999390e-01
1.179764196276664734e-01
2.640100894495844841e-03
-5.797027051448822021e-02
3.016447722911834717e-01
-1.329926848411560059e-01
-2.713729441165924072e-01
-6.420760601758956909e-02
-1.872751414775848389e-01
-1.840302534401416779e-02
1.029354333877563477e-02
-1.369053684175014496e-02
-1.304276585578918457e-01
