1.135081350803375244e-01
3.059474378824234009e-02
2.666273619979619980e-03
1.592788994312286377e-01
1.089344769716262817e-01
1.334702521562576294e-01
2.719876468181610107e-01
-1.454954445362091064e-01
-4.625458642840385437e-02
1.677105128765106201e-01
2.053087055683135986e-01
1.561488509178161621e-01
-5.879788100719451904e-02
6.836620718240737915e-02
-8.964912034571170807e-03
1.099208444356918335e-01
-9.449343383312225342e-02
-1.811376772820949554e-03
9.245335310697555542e-02
-2.132350504398345947e-01
9.983819723129272461e-02
1.623865365982055664e-01
1.603163778781890869e-01
1.217294633388519287e-01
9.008841961622238159e-02
7.546140998601913452e-02
1.338576078414916992e-01
1.274913456290960312e-02
1.560048758983612061e-01
3.550069034099578857e-02
3.013692237436771393e-02
-1.811150461435317993e-01
1.171228066086769104e-01
9.561087191104888916e-02
1.209844276309013367e-01
1.029989570379257202e-01
1.004832908511161804e-01
-1.220640540122985840e-02
1.046766340732574463e-01
1.343495994806289673e-01
5.694342777132987976e-02
-1.118021979928016663e-01
9.410831332206726074e-02
1.127993017435073853e-01
-1.992476405575871468e-03
4.988613538444042206e-03
-1.617673337459564209e-01
5.143421143293380737e-02
7.087048888206481934e-02
5.179379880428314209e-02
-6.915114820003509521e-02
1.862239539623260498e-01
5.526081845164299011e-02
7.717492431402206421e-02
4.882398247718811035e-01
-1.669406741857528687e-01
-1.031268090009689331e-01
2.141979485750198364e-01
-1.341677606105804443e-01
1.284521371126174927e-01
2.482096850872039795e-01
2.082495838403701782e-01
1.625923961400985718e-01
1.517308801412582397e-01
2.605106234550476074e-01
1.677303761243820190e-01
2.817475795745849609e-01
-8.309467695653438568e-03
1.517648994922637939e-01
1.076414138078689575e-01
-2.888561785221099854e-02
3.463830426335334778e-02
-1.171148717403411865e-01
1.986025124788284302e-01
-1.333345323801040649e-01
-1.675420105457305908e-01
1.426011770963668823e-01
-1.055596768856048584e-01
1.282888799905776978e-01
2.977500259876251221e-01
1.798326373100280762e-01
-1.146591827273368835e-01
2.941563725471496582e-01
2.146947532892227173e-01
