-3.203908205032348633e-01
-4.985111653804779053e-01
-2.615752397105097771e-03
-3.227486014366149902e-01
-4.952512979507446289e-01
-1.084898710250854492e+00
-5.434747338294982910e-01
8.876973390579223633e-02
9.197127074003219604e-02
-9.352069497108459473e-01
-2.872704267501831055e-01
-2.044543921947479248e-01
-5.829174518585205078e-01
2.915869057178497314e-01
3.839089870452880859e-01
7.631101608276367188e-01
-1.483797002583742142e-02
4.787597432732582092e-02
2.623949646949768066e-01
1.081941500306129456e-01
5.383777618408203125e-01
1.050678268074989319e-01
3.689690232276916504e-01
2.079190909862518311e-01
-1.990801095962524414e-01
-3.137445151805877686e-01
-2.874299325048923492e-02
2.421217262744903564e-01
-5.013366341590881348e-01
2.490122169256210327e-01
-3.139897584915161133e-01
-2.168370038270950317e-01
-1.063783466815948486e-01
-1.305545121431350708e-01
-4.806594550609588623e-02
-8.828736543655395508e-01
2.559859454631805420e-01
3.324254453182220459e-01
1.496313791722059250e-02
-8.541266620159149170e-02
6.794644594192504883e-01
-4.018778800964355469e-01
-5.353266596794128418e-01
3.251825571060180664e-01
1.844867318868637085e-01
2.761338055133819580e-01
1.742605678737163544e-02
-4.938638806343078613e-01
-8.019892126321792603e-02
-1.999087184667587280e-01
-2.324064970016479492e-01
-4.701830074191093445e-02
6.672755628824234009e-02
-2.220452576875686646e-01
-2.615994513034820557e-01
1.147841960191726685e-01
1.436687111854553223e-01
2.367940694093704224e-01
3.059535659849643707e-02
7.194193452596664429e-02
1.156935095787048340e-01
2.101766318082809448e-02
1.061790585517883301e-01
-2.313091605901718140e-01
-5.585500597953796387e-02
1.038823351263999939e-01
-7.842112332582473755e-02
4.991613328456878662e-01
-3.992235064506530762e-01
-6.998567581176757812e-01
7.109930515289306641e-01
2.559233307838439941e-01
3.141106367111206055e-01
2.140263617038726807e-01
9.355553388595581055e-01
4.088760316371917725e-01
3.352419435977935791e-01
9.476545453071594238e-02
-4.667021036148071289e-01
1.028456911444664001e-01
-1.363261044025421143e-02
3.977141529321670532e-02
6.085909903049468994e-02
1.978392004966735840e-01
-4.961061850190162659e-02
1.934930086135864258e-01
4.995145499706268311e-01
-3.707039952278137207e-01
3.230261504650115967e-01
-1.895513981580734253e-01
-8.031375706195831299e-02
1.484921574592590332e-01
2.792248725891113281e-01
3.860610723495483398e-02
2.097872793674468994e-01
5.307984352111816406e-01
4.500771760940551758e-01
-6.522952914237976074e-01
-3.439699411392211914e-01
-3.112816214561462402e-01
1.997129917144775391e-01
3.710615932941436768e-01
-1.548245668411254883e+00
4.329029321670532227e-01
4.164442718029022217e-01
3.783719539642333984e-01
-4.571857154369354248e-01
4.298049956560134888e-02
-6.185448765754699707e-01
2.774801254272460938e-01
-2.329223901033401489e-01
1.845515519380569458e-01
-1.202256828546524048e-01
-5.162431597709655762e-01
1.004049703478813171e-01
-3.698734045028686523e-01
-5.451285094022750854e-02
-5.417097210884094238e-01
3.174336254596710205e-01
3.985005319118499756e-01
1.295560896396636963e-01
1.327878981828689575e-01
2.975916266441345215e-01
2.052074968814849854e-01
-3.056770265102386475e-01
1.047958154231309891e-02
2.870932817459106445e-01
-3.963714540004730225e-01
4.829118847846984863e-01
-1.005807742476463318e-01
3.741175234317779541e-01
4.314907193183898926e-01
5.817110836505889893e-02
3.608773052692413330e-01
-5.743837952613830566e-01
1.292562186717987061e-01
4.187971726059913635e-02
4.473244026303291321e-02
-8.297193646430969238e-01
-9.248712658882141113e-01
2.949507534503936768e-01
-6.835941672325134277e-01
2.315349131822586060e-01
6.108514070510864258e-01
2.506807744503021240e-01
4.616848751902580261e-02
-1.052233427762985229e-01
-7.144764661788940430e-01
6.690810900181531906e-03
2.422761023044586182e-01
-5.925517082214355469e-01
-1.360875666141510010e-01
-3.565970361232757568e-01
-7.155497372150421143e-02
3.888152539730072021e-01
-6.971820592880249023e-01
3.497196435928344727e-01
-3.756507635116577148e-01
2.512670159339904785e-01
1.111857891082763672e+00
1.989083141088485718e-01
-5.800793692469596863e-02
-1.654576659202575684e-01
-5.581644773483276367e-01
9.973263740539550781e-02
4.279157519340515137e-01
1.492173522710800171e-01
-1.467571258544921875e-01
-2.197121828794479370e-01
1.945446431636810303e-01
-6.847262382507324219e-01
1.758145093917846680e-01
1.502934694290161133e-01
1.695425361394882202e-01
-6.108340993523597717e-02
-7.014912962913513184e-01
6.749299168586730957e-01
-5.885578989982604980e-01
-5.131183564662933350e-02
3.858401775360107422e-01
2.318165153264999390e-01
-4.673724174499511719e-01
2.682718336582183838e-01
2.677852213382720947e-01
3.427577018737792969e-01
2.243883013725280762e-01
1.064733937382698059e-01
1.162376925349235535e-01
-5.474717020988464355e-01
4.664613008499145508e-01
3.712961375713348389e-01
-1.456924676895141602e-01
8.974851667881011963e-02
-2.458491027355194092e-01
3.334932625293731689e-01
-5.311914086341857910e-01
1.213110685348510742e-01
9.675873070955276489e-02
-4.447959363460540771e-01
-1.179769784212112427e-01
4.203068912029266357e-01
-8.821594119071960449e-01
-4.205501377582550049e-01
-1.742044538259506226e-01
1.679500043392181396e-01
3.584072589874267578e-01
-9.965711832046508789e-01
-7.252593040466308594e-01
2.329822629690170288e-01
1.966938525438308716e-01
-3.278526663780212402e-02
7.382063567638397217e-02
-9.084691405296325684e-01
-1.462460607290267944e-01
3.312748670578002930e-02
2.295286506414413452e-01
1.512294411659240723e-01
1.546011567115783691e-01
2.296059019863605499e-02
1.264863610267639160e-01
-3.142429888248443604e-01
-3.628510236740112305e-01
-7.173107266426086426e-01
2.726311683654785156e-01
1.867842627689242363e-03
-4.400878548622131348e-01
-2.171487957239151001e-01
-2.838325798511505127e-01
-4.028296098113059998e-02
-3.159697651863098145e-01
6.721296161413192749e-02
-1.390905082225799561e-01
-4.165120124816894531e-01
-6.171875000000000000e-01
-7.122315466403961182e-02
4.519858658313751221e-01
1.249475851655006409e-01
3.216224014759063721e-01
-4.095655083656311035e-01
3.095069825649261475e-01
1.812737286090850830e-01
-8.005816340446472168e-01
3.238062560558319092e-01
1.077729701995849609e+00
-1.014307022094726562e+00
2.430201619863510132e-01
6.665198802947998047e-01
-6.500433385372161865e-02
-1.130737513303756714e-01
7.788432389497756958e-02
-3.353471755981445312e-01
2.877794206142425537e-01
2.703083455562591553e-01
2.036063969135284424e-01
-4.629106819629669189e-02
9.217533469200134277e-01
-3.821198046207427979e-01
-2.824017107486724854e-01
-4.351197481155395508e-01
1.422543525695800781e-01
6.697920709848403931e-02
-2.522838115692138672e-01
-1.173356771469116211e-01
-4.199540019035339355e-01
3.015959560871124268e-01
1.104992702603340149e-01
3.252691626548767090e-01
-3.772289752960205078e-01
8.848214149475097656e-02
1.195947155356407166e-01
-5.906054377555847168e-02
1.974909901618957520e-01
-2.890198528766632080e-01
2.452888637781143188e-01
4.321011602878570557e-01
-2.430685982108116150e-02
1.044445708394050598e-01
-5.883376300334930420e-02
-6.358205080032348633e-01
1.914851367473602295e-01
-2.199296802282333374e-01
1.713551133871078491e-01
1.409456431865692139e-01
-2.833482064306735992e-02
1.420750916004180908e-01
-3.943503201007843018e-01
1.791288554668426514e-01
2.658270895481109619e-01
-6.593077182769775391e-01
2.396857738494873047e-01
-4.346220195293426514e-01
8.989811688661575317e-02
-2.936007976531982422e-01
3.129584193229675293e-01
9.021914750337600708e-02
2.891102433204650879e-01
-4.180209934711456299e-01
4.671198129653930664e-01
1.967018991708755493e-01
6.133216433227062225e-03
-4.418170750141143799e-01
4.816938638687133789e-01
2.726345956325531006e-01
-4.441280066967010498e-01
-9.967008233070373535e-02
-2.366626560688018799e-01
-7.844075560569763184e-01
1.664403825998306274e-01
2.138944715261459351e-01
1.772195845842361450e-01
8.462947607040405273e-02
-7.351563572883605957e-01
2.806714177131652832e-01
2.472473978996276855e-01
3.927754461765289307e-01
-3.441029489040374756e-01
2.326077371835708618e-01
-4.084694385528564453e-01
3.149183690547943115e-01
-8.568221330642700195e-01
2.126390784978866577e-01
-3.666262030601501465e-01
-4.318791329860687256e-01
-2.670661807060241699e-01
3.412391841411590576e-01
-5.378179550170898438e-01
-3.385189175605773926e-01
1.147108793258666992e+00
-3.793932795524597168e-01
2.024680189788341522e-02
-4.455210566520690918e-01
3.864644765853881836e-01
-6.586937904357910156e-01
-1.506678014993667603e-01
1.653093546628952026e-01
-8.229943513870239258e-01
3.192389309406280518e-01
-8.057046215981245041e-04
1.885313987731933594e-01
-2.618043720722198486e-01
-3.223955631256103516e-02
2.196798324584960938e-01
4.163543507456779480e-02
-5.172705650329589844e-01
-7.914657890796661377e-02
3.703323304653167725e-01
1.163573637604713440e-01
-3.129040449857711792e-02
3.859497308731079102e-01
-8.067170381546020508e-01
8.291425555944442749e-02
1.758956164121627808e-02
2.717325985431671143e-01
2.438622564077377319e-01
2.324303984642028809e-01
1.747148782014846802e-01
-3.958915174007415771e-01
-4.924517869949340820e-01
-4.185891449451446533e-01
-5.299457311630249023e-01
1.331760883331298828e-01
2.449849992990493774e-01
4.462943077087402344e-01
2.205829136073589325e-02
-3.200669288635253906e-01
-2.656777016818523407e-02
1.720628440380096436e-01
3.764697611331939697e-01
-1.844736188650131226e-01
-2.834330797195434570e-01
2.558238506317138672e-01
-5.919359922409057617e-01
7.588598877191543579e-03
-7.732902169227600098e-01
1.303159892559051514e-01
-9.102441072463989258e-01
-3.304266333580017090e-01
1.920774430036544800e-01
4.062271118164062500e-01
-4.845262169837951660e-01
3.416703939437866211e-01
3.223529756069183350e-01
1.302871704101562500e-01
1.643146574497222900e-01
2.507726550102233887e-01
1.180995479226112366e-01
3.515777587890625000e-01
2.077462077140808105e-01
3.287259936332702637e-01
-4.529934227466583252e-01
-3.001138567924499512e-01
3.145678341388702393e-01
1.757050156593322754e-01
-1.843128800392150879e-01
2.336046546697616577e-01
-3.874627947807312012e-01
-6.148125529289245605e-01
4.016055166721343994e-01
-1.484771370887756348e-01
1.492789834737777710e-01
-2.258781939744949341e-01
4.509961605072021484e-01
2.506817281246185303e-01
-1.821988523006439209e-01
1.737835854291915894e-01
-1.261736452579498291e-01
4.170383512973785400e-01
2.285951972007751465e-01
-9.692069292068481445e-01
-1.026630043983459473e+00
-2.636459171772003174e-01
1.188673019409179688e+00
-1.033488631248474121e+00
1.502583473920822144e-01
-3.716084957122802734e-01
-6.659541279077529907e-03
2.821164429187774658e-01
-1.604776829481124878e-01
4.965167641639709473e-01
4.453492909669876099e-02
7.199046760797500610e-02
2.249823808670043945e-01
6.684071570634841919e-02
-1.061087697744369507e-01
1.916768252849578857e-01
2.756371498107910156e-01
2.668552398681640625e-01
-3.650286793708801270e-01
-5.026967525482177734e-01
7.163283228874206543e-01
-7.003026008605957031e-01
2.260960489511489868e-01
9.969330392777919769e-03
-1.694621294736862183e-01
-4.258974790573120117e-01
5.509027745574712753e-03
-2.106666266918182373e-01
-8.851180970668792725e-02
-6.631452441215515137e-01
-7.551844120025634766e-01
2.725852727890014648e-01
-1.166897490620613098e-01
1.524285525083541870e-01
2.478012293577194214e-01
-6.324279904365539551e-01
-2.816379368305206299e-01
7.532396167516708374e-02
-6.773696541786193848e-01
2.200586944818496704e-01
7.716684341430664062e-01
2.810264825820922852e-01
1.139362454414367676e-01
9.941340982913970947e-02
2.096483856439590454e-01
1.259965151548385620e-01
9.590017795562744141e-02
-3.682660460472106934e-01
-5.459981560707092285e-01
-5.587100386619567871e-01
1.745160669088363647e-01
1.702568382024765015e-01
-6.461305022239685059e-01
-1.076897680759429932e-01
-2.342091649770736694e-01
4.850141704082489014e-02
6.007247790694236755e-02
-9.964865446090698242e-01
7.933063507080078125e-01
-1.049982830882072449e-01
-4.372190535068511963e-01
1.690665781497955322e-01
3.013702034950256348e-01
2.761008739471435547e-01
1.404812484979629517e-01
2.815132141113281250e-01
1.518187046051025391e+00
-1.701791584491729736e-01
4.257255792617797852e-01
2.216480439528822899e-03
1.490299105644226074e-01
-1.793503314256668091e-01
-1.696358174085617065e-01
6.365044713020324707e-01
1.975870579481124878e-01
1.656178385019302368e-01
6.182402968406677246e-01
-2.460907697677612305e-01
2.228327654302120209e-02
-2.181351631879806519e-01
1.610495895147323608e-01
-4.154992997646331787e-01
-3.119099140167236328e-01
1.523493528366088867e-01
1.426812261343002319e-01
-1.071060895919799805e+00
-6.409622728824615479e-02
3.188988268375396729e-01
6.131208501756191254e-03
1.854538172483444214e-02
-3.161379992961883545e-01
1.159211322665214539e-01
3.247444927692413330e-01
-4.959306418895721436e-01
-6.551693081855773926e-01
3.078890964388847351e-02
-3.017403781414031982e-01
-6.022044420242309570e-01
-6.018338203430175781e-01
8.857847005128860474e-02
-1.580481766723096371e-03
3.452122211456298828e-01
6.900388281792402267e-03
-7.611632943153381348e-01
4.110553860664367676e-01
4.680186212062835693e-01
1.294011771678924561e-01
-7.461455464363098145e-01
1.735206693410873413e-01
4.439325630664825439e-02
-5.899107456207275391e-01
-4.581171572208404541e-01
1.064948365092277527e-01
1.608598083257675171e-01
-6.131107918918132782e-03
-5.271794199943542480e-01
2.688736096024513245e-02
3.763702511787414551e-02
-6.790582537651062012e-01
1.379774659872055054e-01
5.514688417315483093e-02
-4.321783035993576050e-02
2.421694844961166382e-01
3.791615962982177734e-01
-2.076979912817478180e-02
-5.353657901287078857e-02
-4.737600684165954590e-01
2.257393449544906616e-01
-7.429390549659729004e-01
-2.178010158240795135e-02
2.149804681539535522e-01
-2.960016205906867981e-02
-3.509008288383483887e-01
2.960531227290630341e-02
6.437608599662780762e-01
1.086506024003028870e-01
-5.383562445640563965e-01
2.718673348426818848e-01
3.828727900981903076e-01
7.737746089696884155e-02
-2.180859446525573730e-01
3.764824941754341125e-02
-3.178603649139404297e-01
1.387162059545516968e-01
-9.736905992031097412e-02
-4.863269627094268799e-01
3.048639595508575439e-01
1.603007912635803223e-01
7.254117727279663086e-01
-3.076822310686111450e-02
4.087033495306968689e-02
-5.084706470370292664e-02
-5.298207700252532959e-02
-3.399718701839447021e-01
5.454947352409362793e-01
3.671190142631530762e-01
3.642657697200775146e-01
-2.020487189292907715e-01
-4.910152778029441833e-02
6.223099231719970703e-01
-4.728575050830841064e-01
4.252939224243164062e-01
2.021598964929580688e-01
1.223134770989418030e-01
2.409342825412750244e-01
1.170213818550109863e-01
2.322137951850891113e-01
-3.890257775783538818e-01
4.486617147922515869e-01
9.683529734611511230e-01
1.844907402992248535e+00
3.139661848545074463e-01
-6.222023963928222656e-01
-1.904406100511550903e-01
3.945223093032836914e-01
2.556137442588806152e-01
-7.413639426231384277e-01
4.023718535900115967e-01
1.842121481895446777e-01
8.155425637960433960e-02
4.089776054024696350e-02
2.020265311002731323e-01
2.974011003971099854e-01
-2.022965550422668457e-01
4.849827885627746582e-01
3.541299998760223389e-01
5.410850048065185547e-01
1.178988590836524963e-01
5.960129499435424805e-01
-7.811702042818069458e-02
-1.248555704951286316e-01
1.452878713607788086e-01
7.152517884969711304e-02
-7.215238809585571289e-01
8.062005043029785156e-02
-7.489611208438873291e-02
1.078213304281234741e-01
-9.066750407218933105e-01
-5.248144268989562988e-01
2.648996412754058838e-01
-7.410635352134704590e-01
2.582079358398914337e-02
2.688271701335906982e-01
3.040792606770992279e-02
2.593640387058258057e-01
7.856418937444686890e-02
-2.047451399266719818e-02
1.131015494465827942e-01
-9.597603678703308105e-01
2.391619533300399780e-01
9.869493544101715088e-02
-7.061880826950073242e-01
1.979502439498901367e-01
-2.673123478889465332e-01
3.445485979318618774e-02
1.304017156362533569e-01
-1.276899427175521851e-01
3.325165510177612305e-01
3.781737983226776123e-01
4.300537705421447754e-01
2.529807686805725098e-01
2.930073738098144531e-01
3.732148408889770508e-01
6.627243757247924805e-01
1.706207096576690674e-01
-6.975237131118774414e-01
-8.817782402038574219e-01
-2.036594003438949585e-01
-9.986583888530731201e-02
3.990311548113822937e-02
2.054675519466400146e-01
-2.978911101818084717e-01
6.075895577669143677e-02
3.187190294265747070e-01
1.017422318458557129e+00
-1.351778030395507812e+00
2.028999477624893188e-01
-1.168284565210342407e-01
1.786315888166427612e-01
-2.807855606079101562e-02
-7.786799222230911255e-02
1.394824236631393433e-01
3.200847506523132324e-01
-3.770974874496459961e-01
-3.850903511047363281e-01
8.846420794725418091e-02
5.010044574737548828e-01
4.877076447010040283e-01
1.809489578008651733e-01
-5.394737124443054199e-01
-6.136426925659179688e-01
6.050295829772949219e-01
1.890313923358917236e-01
3.069354593753814697e-01
1.714410036802291870e-01
2.842314541339874268e-01
1.060439646244049072e-01
1.730777323246002197e-01
-3.995238244533538818e-01
4.193160831928253174e-01
-4.166733101010322571e-02
-6.492261290550231934e-01
-3.332354724407196045e-01
5.775732398033142090e-01
-2.030088752508163452e-01
6.270997226238250732e-02
-5.909847021102905273e-01
-2.151571214199066162e-01
2.699651420116424561e-01
1.994400098919868469e-02
5.288767814636230469e-01
-1.027405448257923126e-02
1.317683905363082886e-01
1.241777017712593079e-01
-1.721241772174835205e-01
-1.881180256605148315e-01
3.169289827346801758e-01
8.641108125448226929e-02
4.479083418846130371e-01
2.858132421970367432e-01
-1.152805328369140625e+00
-1.650706231594085693e-01
2.552919685840606689e-01
-5.840465053915977478e-02
7.073443382978439331e-02
3.232141137123107910e-01
2.835814952850341797e-01
1.713505685329437256e-01
8.173698931932449341e-02
-1.588243693113327026e-01
-3.147470951080322266e-01
1.393459588289260864e-01
1.293852031230926514e-01
-2.083712965250015259e-01
1.753470450639724731e-01
-8.851554989814758301e-02
7.214151620864868164e-01
-3.533618748188018799e-01
1.301230192184448242e-01
3.705593198537826538e-02
-1.241746768355369568e-01
6.868499517440795898e-02
2.647482752799987793e-01
-5.106084346771240234e-01
-3.636018335819244385e-01
-3.289664387702941895e-01
-6.511099338531494141e-01
3.215004801750183105e-01
-5.427846908569335938e-01
5.517076849937438965e-01
4.202919900417327881e-01
1.480424255132675171e-01
4.071693867444992065e-02
-1.300532184541225433e-02
-8.284085392951965332e-01
-2.898562848567962646e-01
2.431256622076034546e-01
2.159326523542404175e-01
-1.090956568717956543e+00
2.533469498157501221e-01
-1.545717954635620117e+00
3.292387723922729492e-01
1.576332300901412964e-01
-5.112305283546447754e-01
-1.738844364881515503e-01
-8.871226310729980469e-01
-8.555834293365478516e-01
-3.372392654418945312e-01
3.942027390003204346e-01
-5.898181349039077759e-02
-7.854312658309936523e-01
8.776257932186126709e-02
-2.034968882799148560e-01
-1.780915707349777222e-01
1.698584705591201782e-01
-9.228177368640899658e-02
4.508469700813293457e-01
-9.422910958528518677e-02
-7.639143466949462891e-01
-2.272543907165527344e-01
3.231948614120483398e-02
2.782710194587707520e-01
3.150342106819152832e-01
-8.036280423402786255e-02
7.736467570066452026e-02
-1.963948011398315430e-01
1.166996080428361893e-02
6.820096820592880249e-02
2.297198027372360229e-01
1.910074651241302490e-01
1.087895035743713379e-01
3.069168627262115479e-01
5.251570940017700195e-01
-2.241373658180236816e-01
5.570320039987564087e-02
2.285294048488140106e-02
6.950799226760864258e-01
-1.742932945489883423e-01
-7.112860083580017090e-01
-6.391321420669555664e-01
1.975184082984924316e-01
1.037461534142494202e-01
-1.180546432733535767e-01
3.179504536092281342e-03
-2.301757335662841797e-01
-6.434044241905212402e-01
-1.455580353736877441e+00
1.084527969360351562e-01
5.363272130489349365e-02
-9.673803448677062988e-01
-3.646445572376251221e-01
2.185143828392028809e-01
-1.248129382729530334e-01
-8.674214780330657959e-02
3.199419081211090088e-01
1.371842995285987854e-02
-1.497045159339904785e-01
3.300859332084655762e-01
1.681719571352005005e-01
-2.685665339231491089e-02
1.145633831620216370e-01
2.969965934753417969e-01
1.847405731678009033e-01
2.965814173221588135e-01
2.976704239845275879e-01
3.956542313098907471e-01
2.462734654545783997e-02
-4.615259170532226562e-01
1.104381084442138672e-01
2.995999157428741455e-01
6.314685344696044922e-01
5.401052236557006836e-01
-4.740896522998809814e-01
-1.199558019638061523e+00
-8.039746880531311035e-01
1.547323167324066162e-01
7.183222472667694092e-02
7.191522419452667236e-02
3.301481157541275024e-02
2.034259438514709473e-01
6.132726743817329407e-02
1.907342374324798584e-01
6.953109502792358398e-01
3.665214180946350098e-01
4.751185774803161621e-01
-4.210138916969299316e-01
-2.769030630588531494e-01
-1.745191216468811035e-02
-7.557517886161804199e-01
-1.146916151046752930e+00
4.479102790355682373e-01
2.085939496755599976e-01
1.556487828493118286e-01
-1.293350905179977417e-01
-9.340230375528335571e-02
1.243120208382606506e-01
-2.583302184939384460e-02
1.072209030389785767e-01
-7.684527039527893066e-01
-1.935745216906070709e-02
1.671212911605834961e-01
2.771626710891723633e-01
-5.265491008758544922e-01
-6.845714896917343140e-02
8.631692826747894287e-02
-3.154002502560615540e-02
-2.520267069339752197e-01
-2.483458444476127625e-02
2.220082730054855347e-01
-1.270178109407424927e-01
4.291103780269622803e-01
