-4.182502627372741699e-02
-7.364062219858169556e-02
-2.569790482521057129e-01
-7.043775916099548340e-02
4.498879909515380859e-01
-9.848648682236671448e-03
-1.239205896854400635e-01
-1.366134136915206909e-01
-4.618746936321258545e-01
4.945871606469154358e-02
1.243369206786155701e-01
5.280846357345581055e-02
5.646003410220146179e-02
-3.517841398715972900e-01
-1.733593642711639404e-01
-3.295769542455673218e-02
1.727455109357833862e-01
2.539137899875640869e-01
-4.042465090751647949e-01
-1.565853506326675415e-01
1.365995705127716064e-01
2.596378326416015625e-01
1.713293492794036865e-01
-5.430925637483596802e-03
-8.064695447683334351e-02
1.227156911045312881e-02
1.483127474784851074e-01
2.441191077232360840e-01
1.026445478200912476e-01
-6.001654267311096191e-01
3.687005639076232910e-01
3.729077801108360291e-02
6.513492017984390259e-02
4.325164854526519775e-01
5.755110979080200195e-01
-1.127282753586769104e-01
2.683525085449218750e-01
-7.431621104478836060e-02
-2.058169543743133545e-01
-1.325181126594543457e-01
-5.252851918339729309e-02
-5.975141003727912903e-02
-2.013035416603088379e-01
-9.666175395250320435e-02
2.458245754241943359e-01
-2.669268250465393066e-01
-2.896700501441955566e-01
-1.207880377769470215e-01
-1.269738525152206421e-01
-1.284496039152145386e-01
-6.127956137061119080e-02
-6.690982729196548462e-02
-3.743606805801391602e-02
5.902484804391860962e-02
-4.793620482087135315e-02
7.420460134744644165e-02
3.425247967243194580e-03
1.248172391206026077e-02
6.237504258751869202e-02
-6.796473264694213867e-02
5.790063366293907166e-02
1.784932985901832581e-02
3.164532594382762909e-03
1.012994647026062012e-01
-1.934782117605209351e-01
1.792326718568801880e-01
1.404791772365570068e-01
1.207068040966987610e-01
-3.347113132476806641e-01
-8.063418269157409668e-01
-5.681831017136573792e-02
2.745144441723823547e-02
-1.222944110631942749e-01
-3.267455399036407471e-01
-8.792158961296081543e-01
4.528605341911315918e-01
-5.859507620334625244e-02
6.641533970832824707e-02
2.048204988241195679e-01
-4.251486063003540039e-01
4.052851796150207520e-01
-2.072353214025497437e-01
-2.482642605900764465e-02
2.605182826519012451e-01
-1.243114173412322998e-01
1.755196601152420044e-01
-3.765136748552322388e-02
-2.495292276144027710e-01
-5.620170757174491882e-02
3.165717422962188721e-01
8.536969125270843506e-02
1.754696853458881378e-02
-2.895038723945617676e-01
-2.845024317502975464e-02
1.242476925253868103e-01
9.719938784837722778e-02
8.444100618362426758e-02
-4.213972687721252441e-01
1.509092864580452442e-03
1.090375036001205444e-01
1.006937678903341293e-02
2.328065223991870880e-02
-3.254900574684143066e-01
2.994043529033660889e-01
3.804224357008934021e-02
4.958158358931541443e-03
1.589021645486354828e-02
-4.463569223880767822e-01
4.504997730255126953e-01
1.388392783701419830e-02
7.938496023416519165e-02
-2.143851816654205322e-01
-3.956066966056823730e-01
4.238274991512298584e-01
9.173887223005294800e-02
8.348878473043441772e-03
-1.934899538755416870e-01
-4.643799960613250732e-01
5.838401317596435547e-01
2.888425439596176147e-02
-7.628521323204040527e-02
-2.401321828365325928e-01
-3.703120052814483643e-01
5.945935249328613281e-01
7.400536537170410156e-02
1.192384883761405945e-01
-6.595605373149737716e-05
2.105074934661388397e-02
-3.285483717918395996e-01
-9.116769433021545410e-01
3.207974135875701904e-01
1.755571961402893066e-01
-4.042939841747283936e-02
-3.355636000633239746e-01
-2.197566777467727661e-01
-6.477765738964080811e-02
8.479056879878044128e-03
-2.413040101528167725e-01
-3.151006996631622314e-01
2.815960645675659180e-01
-2.121270895004272461e-01
2.011779136955738068e-02
-8.987492322921752930e-02
1.288412064313888550e-01
1.065829992294311523e-01
-5.828646942973136902e-02
-1.763860434293746948e-01
4.791375249624252319e-03
-4.862096533179283142e-02
2.987656593322753906e-01
