-2.041220068931579590e-01
-1.035652831196784973e-01
8.957605808973312378e-03
-5.266401171684265137e-02
3.355634957551956177e-02
1.485508382320404053e-01
2.257380485534667969e-01
2.860521674156188965e-01
4.643631726503372192e-02
-1.554882526397705078e-01
3.304624930024147034e-02
-1.469232141971588135e-02
-1.769085526466369629e-01
-6.682223081588745117e-02
2.588974833488464355e-01
-4.734718427062034607e-02
3.508441150188446045e-02
-2.442773133516311646e-01
7.779617607593536377e-02
2.143628448247909546e-01
1.404092162847518921e-01
-6.540019065141677856e-02
2.061460912227630615e-01
-2.257366031408309937e-01
-1.986966878175735474e-01
8.792111277580261230e-02
-2.298275232315063477e-01
1.207039877772331238e-01
-3.286234661936759949e-02
7.192026078701019287e-02
-6.848630309104919434e-02
2.406523525714874268e-01
-5.900179967284202576e-03
-1.192348599433898926e-01
1.853040605783462524e-02
-1.758963167667388916e-01
-1.187909096479415894e-01
1.577478796243667603e-01
-1.682221144437789917e-01
-3.879855573177337646e-02
1.512414067983627319e-01
1.206706613302230835e-01
6.055843830108642578e-02
-1.163482666015625000e-01
-1.346139609813690186e-01
9.197118133306503296e-02
-3.349609300494194031e-02
2.059026509523391724e-01
4.529003053903579712e-02
6.983667612075805664e-03
-1.628415435552597046e-01
2.003282122313976288e-02
1.774135529994964600e-01
-4.146712273359298706e-02
-1.566829979419708252e-01
1.106272935867309570e-01
1.223974153399467468e-01
-1.202582661062479019e-02
-3.291772305965423584e-01
2.858793437480926514e-01
1.175786629319190979e-01
2.339080721139907837e-02
2.823648788034915924e-02
3.684656322002410889e-02
8.131464570760726929e-02
-1.701277047395706177e-01
-8.165021240711212158e-02
-1.147114410996437073e-01
-1.876931339502334595e-01
-9.620471298694610596e-02
1.090539991855621338e-02
9.961261600255966187e-02
1.580402627587318420e-02
-1.366109848022460938e-01
1.222200840711593628e-01
9.888245910406112671e-02
-5.308328941464424133e-02
-1.403088569641113281e-01
-4.540694877505302429e-02
-2.496007271111011505e-02
3.979326412081718445e-02
-1.766877025365829468e-01
5.163014680147171021e-02
-2.780942320823669434e-01
1.601369827985763550e-01
-1.657031476497650146e-01
5.903094261884689331e-02
-1.142204646021127701e-02
9.431270509958267212e-02
4.582315683364868164e-02
-1.963328570127487183e-02
-1.137049272656440735e-01
-1.286122389137744904e-02
6.361494213342666626e-02
2.513418197631835938e-01
2.857495248317718506e-01
-1.151163652539253235e-01
1.287442892789840698e-01
-8.758749067783355713e-02
-7.819026708602905273e-03
5.096570774912834167e-02
-8.305904455482959747e-03
1.682559400796890259e-01
1.754631698131561279e-01
-3.623997271060943604e-01
1.226108148694038391e-01
-8.815114945173263550e-02
2.589026093482971191e-01
-2.255750894546508789e-01
-1.972626149654388428e-01
-4.202846437692642212e-02
7.037426531314849854e-02
-2.311311960220336914e-01
4.607443511486053467e-02
7.241144031286239624e-02
6.278544664382934570e-03
5.492431670427322388e-02
-1.775354444980621338e-01
1.796100884675979614e-01
-3.299921378493309021e-02
