6.609007716178894043e-02
-1.121425330638885498e-01
-1.848237365484237671e-01
-1.242311969399452209e-01
8.539799600839614868e-02
2.222996652126312256e-01
2.523738332092761993e-02
-1.146421134471893311e-01
2.396834939718246460e-01
1.893590092658996582e-01
7.106098532676696777e-02
1.195672377943992615e-01
5.800237506628036499e-02
-3.843124583363533020e-02
1.911622136831283569e-01
-1.100104972720146179e-01
-9.234012663364410400e-02
7.081808894872665405e-02
1.286163274198770523e-02
2.222973406314849854e-01
-6.933730840682983398e-02
-3.508620336651802063e-02
-3.966094460338354111e-03
8.187204599380493164e-02
-1.022830829024314880e-01
2.752419188618659973e-02
1.365485042333602905e-02
4.142760485410690308e-02
-2.439475655555725098e-01
-3.792303800582885742e-01
3.257534801959991455e-01
2.261080741882324219e-01
-1.865601986646652222e-01
-2.714017629623413086e-01
1.127592325210571289e-01
1.935192942619323730e-01
-1.747355796396732330e-02
-2.622611820697784424e-01
4.597468674182891846e-02
1.173402890563011169e-01
8.782097138464450836e-03
2.703833766281604767e-02
2.957957983016967773e-01
1.802252233028411865e-01
-2.616982161998748779e-02
2.846161127090454102e-01
4.539035260677337646e-01
3.565039485692977905e-02
2.640143632888793945e-01
7.808993011713027954e-02
-1.498498171567916870e-01
3.118296265602111816e-01
9.972234070301055908e-02
1.515790238045156002e-03
-5.706396326422691345e-02
-1.549317240715026855e-01
-8.255258202552795410e-02
-7.340964861214160919e-03
-2.755378484725952148e-01
-8.270845562219619751e-02
8.240950293838977814e-03
1.343260556459426880e-01
1.437308937311172485e-01
-2.622186243534088135e-01
1.796002835035324097e-01
-4.477078095078468323e-02
-1.381337046623229980e-01
-9.172880649566650391e-02
-1.005685999989509583e-01
6.768000870943069458e-02
-3.755963221192359924e-02
2.112686168402433395e-03
4.054537415504455566e-02
4.003923833370208740e-01
2.371218949556350708e-01
6.917344778776168823e-02
1.004691570997238159e-01
3.329605981707572937e-02
1.422811299562454224e-01
3.747842460870742798e-02
-4.384405910968780518e-02
-6.928619742393493652e-02
1.093519106507301331e-01
1.266232281923294067e-01
-6.381729990243911743e-02
-1.308107674121856689e-01
-1.787216961383819580e-02
8.728159964084625244e-02
-3.694251179695129395e-02
3.157068742439150810e-03
-5.651133880019187927e-02
-1.992009878158569336e-01
9.933057427406311035e-02
2.021631598472595215e-02
1.201331689953804016e-01
-1.413697600364685059e-01
2.024592757225036621e-01
1.275325715541839600e-01
-8.173566311597824097e-02
8.275628089904785156e-02
-2.420020252466201782e-01
-1.474006921052932739e-01
1.778860092163085938e-01
1.216311939060688019e-03
-5.739353131502866745e-03
7.595377415418624878e-02
1.429893728345632553e-02
7.003713399171829224e-02
-4.174361750483512878e-02
2.352336943149566650e-01
9.194905310869216919e-02
-7.743452489376068115e-02
8.463934063911437988e-02
-3.079417720437049866e-02
-3.934557139873504639e-01
-2.114761024713516235e-01
2.388362586498260498e-01
-1.522649079561233521e-01
-1.294976323843002319e-01
-1.440379172563552856e-01
1.408009231090545654e-01
-1.410058792680501938e-02
-2.037584595382213593e-02
-2.242783270776271820e-02
-1.951933652162551880e-01
-1.131376028060913086e-01
-5.588423460721969604e-03
-9.822719544172286987e-02
1.318041682243347168e-01
1.205124184489250183e-01
1.224884316325187683e-01
-3.531732782721519470e-02
1.042772158980369568e-01
-5.170289054512977600e-02
9.372283518314361572e-02
8.635587245225906372e-02
1.455944627523422241e-01
1.203630235977470875e-03
-2.424811720848083496e-01
-1.390825957059860229e-01
4.229575991630554199e-01
2.032062262296676636e-01
-7.214531898498535156e-01
-4.589343369007110596e-01
1.106354370713233948e-01
1.199315339326858521e-01
2.255821824073791504e-01
-1.979493647813796997e-01
3.053270094096660614e-02
1.530406996607780457e-02
-3.602404296398162842e-01
-3.130650520324707031e-01
-1.812963932752609253e-01
3.555396571755409241e-02
-1.566780209541320801e-01
-1.509638577699661255e-01
-7.794689387083053589e-02
-1.857479959726333618e-01
-3.429163396358489990e-01
-1.285370290279388428e-01
1.884558498859405518e-01
-2.176673114299774170e-01
-2.530397176742553711e-01
-2.750378251075744629e-01
-8.060665428638458252e-02
-1.167752873152494431e-02
3.725671907886862755e-03
-9.894699603319168091e-02
2.452522516250610352e-02
2.534192753955721855e-03
9.393958002328872681e-02
-5.069058015942573547e-02
-7.938294857740402222e-02
3.291461765766143799e-01
1.956910341978073120e-01
-8.102733641862869263e-02
-1.230927035212516785e-01
2.370021343231201172e-01
-1.201028190553188324e-02
4.251151531934738159e-02
-1.423703730106353760e-01
-2.612316310405731201e-01
-7.591867446899414062e-02
2.816516160964965820e-02
-2.055262327194213867e-01
-1.562916189432144165e-01
3.136527538299560547e-02
-3.463102504611015320e-03
-1.540475189685821533e-01
-2.634797394275665283e-01
-4.103001207113265991e-02
9.583900868892669678e-02
1.690982133150100708e-01
-2.041066288948059082e-01
7.142149657011032104e-02
-3.591648936271667480e-01
5.133366584777832031e-02
-1.339096873998641968e-01
-1.069691330194473267e-01
-3.008236922323703766e-02
9.956950088962912560e-04
-3.856974467635154724e-02
1.918937563896179199e-01
9.537228941917419434e-02
-9.557289630174636841e-02
-8.344363421201705933e-02
2.800057828426361084e-01
2.140413373708724976e-01
2.279124557971954346e-01
-7.218825072050094604e-02
-1.925715506076812744e-01
1.058045029640197754e-01
-2.832654304802417755e-02
7.342214882373809814e-02
-3.070192635059356689e-01
-9.472363628447055817e-03
-2.143913693726062775e-02
-6.716638803482055664e-02
-9.924887865781784058e-02
-1.845929212868213654e-02
-2.947203218936920166e-01
-3.524098172783851624e-02
3.460648357868194580e-01
1.361873447895050049e-01
1.941732615232467651e-01
1.393674612045288086e-01
2.885644137859344482e-01
3.736249804496765137e-01
-2.188605070114135742e-01
-1.674478203058242798e-01
9.561726450920104980e-02
-5.653672665357589722e-02
-2.325187921524047852e-01
1.848575621843338013e-01
1.703590750694274902e-01
-1.726956218481063843e-01
-1.710141301155090332e-01
2.539452612400054932e-01
1.243167817592620850e-01
-2.472363114356994629e-01
-1.003846973180770874e-01
-3.044097125530242920e-01
1.700980365276336670e-01
2.388395071029663086e-01
-3.803272917866706848e-02
-1.214682832360267639e-01
-7.840540638426318765e-05
1.380417197942733765e-01
-1.090893521904945374e-01
-5.937209352850914001e-04
1.403032094240188599e-01
2.020435631275177002e-01
-2.761236429214477539e-01
-4.085445031523704529e-02
3.653173148632049561e-01
8.925030380487442017e-02
1.026429906487464905e-01
-1.550278216600418091e-01
7.703266292810440063e-02
3.702346235513687134e-02
1.243532076478004456e-01
6.093936413526535034e-02
5.177810788154602051e-02
1.500630527734756470e-01
1.099540293216705322e-01
8.544053882360458374e-02
1.453268080949783325e-01
1.376050710678100586e-01
8.020772784948348999e-02
2.257077395915985107e-01
1.460695117712020874e-01
7.546795904636383057e-02
2.063247710466384888e-01
1.143750995397567749e-01
2.352927625179290771e-01
-3.716437518596649170e-01
7.066284120082855225e-02
4.627453163266181946e-02
7.095722830854356289e-04
8.898383378982543945e-02
-1.255060662515461445e-03
-4.085535183548927307e-02
-2.867099270224571228e-02
2.369790673255920410e-01
2.614770270884037018e-02
-1.003329828381538391e-01
-2.764768302440643311e-01
6.602247059345245361e-02
-4.019827768206596375e-02
-2.844813764095306396e-01
-5.820657014846801758e-01
-6.767918169498443604e-02
7.267926633358001709e-02
-3.213658034801483154e-01
-6.754792332649230957e-01
1.176707223057746887e-01
9.326613694429397583e-02
-1.731756627559661865e-01
-4.659393727779388428e-01
5.052953027188777924e-03
-1.581919938325881958e-01
2.624520799145102501e-03
-2.899678349494934082e-01
-3.578188270330429077e-02
8.631678670644760132e-02
2.503331899642944336e-01
2.714405357837677002e-01
9.247605502605438232e-02
2.360787093639373779e-01
2.768728435039520264e-01
1.299545764923095703e-01
1.144664213061332703e-01
4.656637012958526611e-01
2.012326866388320923e-01
9.566558897495269775e-02
6.299115251749753952e-03
1.810683310031890869e-02
8.625054359436035156e-02
-1.607556454837322235e-02
1.647469699382781982e-01
4.801895618438720703e-01
6.319628655910491943e-02
-2.114746533334255219e-02
-1.066350713372230530e-01
2.888337075710296631e-01
-7.525573670864105225e-02
-2.521745264530181885e-01
-3.467572331428527832e-01
8.067309111356735229e-02
-1.590412557125091553e-01
-2.991334199905395508e-01
-3.409855067729949951e-01
-1.656471192836761475e-01
6.848486606031656265e-03
6.095798686146736145e-03
-1.076012384146451950e-02
-1.402361392974853516e-01
-1.037403568625450134e-01
-3.538344800472259521e-01
-1.903996765613555908e-01
-1.240470856428146362e-01
-1.556416302919387817e-01
-1.573076546192169189e-01
-2.696775794029235840e-01
-2.773670256137847900e-01
1.619592122733592987e-02
-4.434178397059440613e-02
-3.438232839107513428e-01
-2.168025523424148560e-01
-3.216299461200833321e-03
-2.316823452711105347e-01
-2.835329622030258179e-02
-1.139425188302993774e-01
-5.923161283135414124e-02
-3.743317723274230957e-02
-1.424040794372558594e-01
1.431327611207962036e-01
1.978813856840133667e-01
1.613101735711097717e-02
-1.515872403979301453e-02
9.544130414724349976e-02
1.579636186361312866e-01
6.462803483009338379e-02
4.586699232459068298e-02
7.369616627693176270e-02
-4.075077921152114868e-02
-1.307718176394701004e-02
5.675566941499710083e-02
8.550243824720382690e-02
5.150915384292602539e-01
2.725091278553009033e-01
1.965954899787902832e-01
7.225769013166427612e-02
3.515416681766510010e-01
2.254809290170669556e-01
2.774522304534912109e-01
1.692247539758682251e-01
9.254469722509384155e-02
1.852753013372421265e-01
1.942011862993240356e-01
3.974962532520294189e-01
1.124471947550773621e-01
-2.409841492772102356e-02
5.172556638717651367e-02
8.969860523939132690e-02
3.109793551266193390e-02
-1.060520410537719727e-01
-3.007242977619171143e-01
-1.086976081132888794e-01
-7.628665864467620850e-02
3.050136379897594452e-02
-1.905893683433532715e-01
-1.912037730216979980e-01
3.688942268490791321e-02
2.223231196403503418e-01
-6.689918041229248047e-02
-3.146425485610961914e-01
1.162659227848052979e-01
2.347776591777801514e-01
-6.964035332202911377e-02
1.872731894254684448e-01
-1.412349194288253784e-01
2.797001898288726807e-01
1.398248374462127686e-01
1.077284589409828186e-01
-5.750066041946411133e-02
4.322462156414985657e-02
1.089159399271011353e-01
2.897707819938659668e-01
-2.719155699014663696e-02
-8.985904604196548462e-02
1.151621788740158081e-01
2.201770395040512085e-01
-1.491742730140686035e-01
1.278809756040573120e-01
1.287328153848648071e-01
-4.376767873764038086e-01
-2.817774713039398193e-01
-5.519489198923110962e-02
8.556752651929855347e-02
-2.446640133857727051e-01
-1.560756862163543701e-01
-2.025431841611862183e-01
-6.396526098251342773e-02
-2.829642593860626221e-02
-3.072497807443141937e-02
-2.463735342025756836e-01
-1.951460987329483032e-01
-5.065709352493286133e-02
-4.434195905923843384e-02
-2.007222026586532593e-01
-4.711556062102317810e-02
-1.552690863609313965e-01
1.895054727792739868e-01
4.059476777911186218e-02
1.961191147565841675e-01
-8.255596458911895752e-02
2.245287299156188965e-01
7.730699330568313599e-02
1.897757351398468018e-01
-1.882244795560836792e-01
9.313866496086120605e-02
1.504496335983276367e-01
1.703402549028396606e-01
-4.132290557026863098e-02
1.730261445045471191e-01
1.306859403848648071e-01
6.925678998231887817e-02
1.135883405804634094e-01
1.581314951181411743e-01
1.693631112575531006e-01
5.174265801906585693e-02
1.614951491355895996e-01
3.076431713998317719e-02
9.224855154752731323e-02
-7.131431251764297485e-02
1.740224808454513550e-01
-1.396215707063674927e-02
2.283679641550406814e-04
-4.339919686317443848e-01
5.032858252525329590e-02
5.782828852534294128e-02
1.616642065346240997e-02
-3.176256716251373291e-01
6.984118372201919556e-02
1.854522079229354858e-01
-6.693592667579650879e-02
-1.393484771251678467e-01
3.963001668453216553e-01
1.372600197792053223e-01
6.764058023691177368e-02
-6.815634667873382568e-02
6.324036717414855957e-01
1.798574477434158325e-01
7.413690537214279175e-02
3.876054883003234863e-01
2.218115702271461487e-02
-3.672388792037963867e-01
-2.667710185050964355e-01
1.433289647102355957e-01
1.687165945768356323e-01
-6.184721738100051880e-02
-1.607390195131301880e-01
1.210064142942428589e-01
-1.595800183713436127e-02
-4.609602987766265869e-01
5.433174222707748413e-02
7.274471223354339600e-02
-5.869482085108757019e-02
-8.377544283866882324e-01
-2.150745540857315063e-01
-3.290774673223495483e-02
-4.298261702060699463e-01
-7.015293836593627930e-01
-2.970089316368103027e-01
-5.065825209021568298e-02
1.554533257149159908e-03
-6.384111940860748291e-02
-2.804034650325775146e-01
-1.007935777306556702e-01
1.014864444732666016e-01
-1.433074176311492920e-01
-4.168888032436370850e-01
4.245633259415626526e-02
1.256380677223205566e-01
-2.839306555688381195e-02
-4.036070406436920166e-02
4.918457940220832825e-02
1.694894433021545410e-01
7.920055836439132690e-02
-7.527896016836166382e-02
3.902527391910552979e-01
-1.900427639484405518e-01
-1.212100684642791748e-01
5.994605831801891327e-03
-1.708367615938186646e-01
-5.116482730954885483e-03
-1.492035388946533203e-01
1.821032315492630005e-01
1.186759695410728455e-01
8.623989671468734741e-02
-1.496518254280090332e-01
1.425330936908721924e-01
1.767592728137969971e-01
2.733915448188781738e-01
-1.696553528308868408e-01
2.790097333490848541e-02
1.159461513161659241e-01
2.594041451811790466e-02
-1.016669794917106628e-01
-1.062804162502288818e-01
-6.396722793579101562e-01
7.787037640810012817e-02
9.434325248003005981e-02
6.696271151304244995e-02
-3.648464381694793701e-01
-2.527063898742198944e-02
-7.207213342189788818e-02
4.506311938166618347e-02
-5.738632008433341980e-02
1.077634915709495544e-01
-2.815667353570461273e-02
-4.810608625411987305e-01
-4.476916491985321045e-01
8.299329131841659546e-02
1.453461796045303345e-01
7.297416683286428452e-03
5.090398192405700684e-01
1.189061701297760010e-01
-1.189460419118404388e-02
-4.934190213680267334e-02
-2.492519617080688477e-01
2.457220703363418579e-01
1.965953558683395386e-01
7.953482121229171753e-02
-4.249350428581237793e-01
1.611076295375823975e-01
4.694776609539985657e-02
2.741953358054161072e-02
-1.027413606643676758e-01
-2.521495223045349121e-01
-5.938982591032981873e-02
-7.807169109582901001e-02
-1.453570872545242310e-01
-3.482702672481536865e-01
-1.212982386350631714e-01
6.276435405015945435e-02
7.006447762250900269e-02
2.515627443790435791e-02
1.325485408306121826e-01
2.342986315488815308e-01
4.220390319824218750e-02
-9.453942626714706421e-02
8.410988748073577881e-02
2.042401731014251709e-01
1.266527473926544189e-01
-2.415619343519210815e-01
-2.613051235675811768e-01
5.516899004578590393e-02
-8.405228704214096069e-02
1.193764433264732361e-02
-2.514303028583526611e-01
3.699349611997604370e-02
6.821732223033905029e-02
7.655570656061172485e-02
-3.630424439907073975e-01
1.999757736921310425e-01
2.598843872547149658e-01
-4.541058242321014404e-01
-5.611922740936279297e-01
4.749309271574020386e-02
4.909251630306243896e-02
5.532177537679672241e-02
1.540530025959014893e-01
1.149629950523376465e-01
-5.769885703921318054e-02
-6.003449857234954834e-02
8.388996124267578125e-02
1.175246313214302063e-01
-2.882751524448394775e-01
-1.636550575494766235e-01
3.183201327919960022e-02
-6.355050206184387207e-02
-1.858817189931869507e-01
-2.531993985176086426e-01
1.268604695796966553e-01
1.289265900850296021e-01
1.353400498628616333e-01
-3.587505817413330078e-01
-6.377149373292922974e-02
-2.496495693922042847e-01
-3.527765870094299316e-01
-1.654860973358154297e-01
-1.401763111352920532e-01
-1.617886126041412354e-01
-2.045671939849853516e-01
-4.628146812319755554e-02
-4.002916812896728516e-02
-2.512457035481929779e-02
-8.833305910229682922e-04
-1.069024484604597092e-02
-1.010753661394119263e-01
4.414232075214385986e-02
-2.476223111152648926e-01
3.335044384002685547e-01
-4.311687946319580078e-01
-2.057506740093231201e-01
-1.593503057956695557e-01
2.200407236814498901e-01
1.626290008425712585e-02
-6.666066497564315796e-02
-9.479014575481414795e-02
1.864988356828689575e-02
6.987825036048889160e-02
-7.871243357658386230e-02
-2.435839623212814331e-01
1.647139042615890503e-01
2.864568531513214111e-01
2.004231065511703491e-01
-6.777840852737426758e-02
-7.403887808322906494e-02
1.330477297306060791e-01
6.207788363099098206e-02
8.962034434080123901e-02
-1.474178284406661987e-01
2.004534155130386353e-01
3.878692165017127991e-02
-2.062550187110900879e-02
-8.058628439903259277e-02
2.061969190835952759e-01
1.318252235651016235e-01
1.038105189800262451e-01
-3.351345956325531006e-01
-2.206254601478576660e-01
2.196475714445114136e-01
6.645973026752471924e-02
-8.172865211963653564e-02
1.087632998824119568e-01
-1.083160415291786194e-01
1.140518039464950562e-01
7.512869685888290405e-02
2.096388638019561768e-01
2.240826040506362915e-01
2.491473406553268433e-01
1.166901811957359314e-01
5.729625001549720764e-02
-1.060269474983215332e-01
5.391290411353111267e-02
-3.962660133838653564e-01
1.169743835926055908e-01
-1.907904893159866333e-01
3.982572350651025772e-03
-5.112118124961853027e-01
1.042832210659980774e-01
3.607310354709625244e-01
1.508213281631469727e-01
-3.707292675971984863e-01
4.199640080332756042e-02
4.168688878417015076e-02
-2.628688514232635498e-01
-2.832731306552886963e-01
-1.075215637683868408e-01
-1.020346283912658691e-01
-4.005069434642791748e-01
-5.232691168785095215e-01
-2.369717806577682495e-01
2.039519101381301880e-01
1.915658265352249146e-01
3.304535746574401855e-01
4.834995418787002563e-02
7.163540273904800415e-02
-1.046943143010139465e-01
2.477222084999084473e-01
2.786118090152740479e-01
-6.650053709745407104e-02
1.481423527002334595e-02
1.317670494318008423e-01
1.490920335054397583e-01
-4.785544425249099731e-02
-9.498000144958496094e-03
1.987959593534469604e-01
5.499189719557762146e-02
-1.794392168521881104e-01
-1.059338152408599854e-01
-1.298409700393676758e-01
-6.412307173013687134e-02
2.739892899990081787e-02
-1.455890536308288574e-01
-1.824391335248947144e-01
-5.988894775509834290e-02
2.930881641805171967e-02
1.070906445384025574e-01
2.580326497554779053e-01
1.624106317758560181e-01
9.703645110130310059e-02
1.091231033205986023e-01
3.218991458415985107e-01
2.103530913591384888e-01
-1.769986152648925781e-01
-9.956635534763336182e-02
-2.299067825078964233e-01
-3.658585250377655029e-02
9.135884046554565430e-02
4.561055451631546021e-02
-3.188568353652954102e-01
-7.407288067042827606e-03
2.617020905017852783e-01
9.942673146724700928e-03
-2.608660459518432617e-01
1.648411452770233154e-01
8.537758141756057739e-02
4.043823853135108948e-02
-4.143908023834228516e-01
-3.327514529228210449e-01
-2.970924675464630127e-01
-5.167435854673385620e-02
1.045604944229125977e-01
1.814048141241073608e-01
1.153581738471984863e-01
1.944944113492965698e-01
7.278309017419815063e-02
1.039708182215690613e-01
-1.197900273837149143e-03
-2.779211401939392090e-01
-2.792447805404663086e-01
-1.129779778420925140e-02
2.213235758244991302e-02
-3.161471784114837646e-01
-2.495908737182617188e-01
-2.086250931024551392e-01
-3.026929497718811035e-02
6.047601252794265747e-02
9.899181127548217773e-02
2.336474061012268066e-01
-3.334651514887809753e-02
-5.641835331916809082e-01
-2.524766325950622559e-01
1.216777786612510681e-01
3.033690154552459717e-02
-5.432685613632202148e-01
-5.395635589957237244e-02
1.638476103544235229e-01
4.910590127110481262e-02
-4.041387438774108887e-01
2.548597455024719238e-01
8.738794177770614624e-02
-2.881605923175811768e-01
-4.839752614498138428e-01
1.415270119905471802e-01
8.765783160924911499e-02
-1.595968306064605713e-01
-1.646165549755096436e-01
4.806295037269592285e-02
-1.621018499135971069e-01
-4.134374260902404785e-01
3.590946644544601440e-02
3.084964454174041748e-01
6.627789139747619629e-02
-3.582074940204620361e-01
-2.053451538085937500e-01
-1.895018666982650757e-01
-1.838861107826232910e-01
-3.525077700614929199e-01
-2.908843457698822021e-01
-4.120509326457977295e-02
-3.138312324881553650e-02
-1.984126567840576172e-01
-1.801878362894058228e-01
-5.479674786329269409e-02
-3.506338456645607948e-03
-2.362549677491188049e-02
-1.640298515558242798e-01
-2.365563623607158661e-02
1.457138657569885254e-01
1.065920591354370117e-01
-1.507217884063720703e-01
2.557827532291412354e-01
4.386511072516441345e-02
9.927093982696533203e-02
-2.585077881813049316e-01
-1.412860900163650513e-01
1.743408739566802979e-01
4.344745278358459473e-01
2.983142733573913574e-01
2.776028402149677277e-02
8.658314472995698452e-04
-4.453543573617935181e-02
-9.184100478887557983e-02
-6.837755907326936722e-03
-1.532654650509357452e-02
1.689199805259704590e-01
6.346960435621440411e-04
-1.091342940926551819e-01
-2.773180305957794189e-01
1.489450782537460327e-01
-3.417437523603439331e-02
-2.961391583085060120e-02
2.772012948989868164e-01
-1.304571181535720825e-01
-5.233752727508544922e-02
-3.149286285042762756e-02
5.585099011659622192e-02
-2.106003910303115845e-01
-2.528866827487945557e-01
-1.373161375522613525e-01
5.778561905026435852e-02
-4.356332868337631226e-02
-3.337014913558959961e-01
-7.230506837368011475e-02
-1.219660937786102295e-01
2.894932329654693604e-01
-1.637638062238693237e-01
1.838746666908264160e-01
1.021834537386894226e-01
5.707751959562301636e-02
-2.613789215683937073e-02
-2.806669473648071289e-01
6.041789054870605469e-02
3.996474146842956543e-01
5.534814298152923584e-02
-3.457085192203521729e-01
-3.436691164970397949e-01
2.765059173107147217e-01
1.386517435312271118e-01
-6.328367590904235840e-01
-5.209761261940002441e-01
3.017525374889373779e-01
2.637897431850433350e-01
-5.277842655777931213e-02
-1.148258075118064880e-01
5.606849491596221924e-02
2.435060450807213783e-03
-1.251310706138610840e-01
-1.637301407754421234e-02
7.886170595884323120e-02
-1.156226694583892822e-01
-1.473994404077529907e-01
-2.192886546254158020e-02
9.020604193210601807e-02
7.159131020307540894e-02
-1.555734574794769287e-01
4.633530974388122559e-02
-1.886584907770156860e-01
-1.088008657097816467e-01
2.327791601419448853e-01
2.944963574409484863e-01
-4.200710952281951904e-01
-1.244764849543571472e-01
2.594497613608837128e-02
2.636133134365081787e-01
1.869691163301467896e-01
2.622793912887573242e-01
-2.792336344718933105e-01
-3.067080080509185791e-01
7.517249882221221924e-02
3.196969926357269287e-01
-8.975880146026611328e-01
-1.462505459785461426e-01
2.151689678430557251e-01
2.530398368835449219e-01
-4.795846045017242432e-01
-6.711663603782653809e-01
-6.700615882873535156e-01
-6.235814839601516724e-02
-3.300741910934448242e-01
-3.333838582038879395e-01
-2.319167368113994598e-02
-1.945928633213043213e-01
9.162113070487976074e-02
1.329548060894012451e-01
-2.589306831359863281e-01
-2.192643135786056519e-01
2.192801684141159058e-01
2.572340667247772217e-01
1.064681783318519592e-01
-2.579939067363739014e-01
2.482130527496337891e-01
-3.497964888811111450e-02
1.275135576725006104e-02
-7.498214393854141235e-02
2.766332030296325684e-01
-3.453953564167022705e-02
-1.505386978387832642e-01
-7.314804196357727051e-02
2.549161612987518311e-01
1.229314804077148438e-01
2.110937982797622681e-02
3.285903111100196838e-02
-1.086708605289459229e-01
2.441370189189910889e-01
1.878646314144134521e-01
-7.003320008516311646e-02
3.129571378231048584e-01
-1.466162055730819702e-01
-9.796675294637680054e-03
2.014058977365493774e-01
-4.163125529885292053e-02
-1.190005317330360413e-01
-2.124495804309844971e-01
-5.597341433167457581e-02
1.783904433250427246e-01
5.399287492036819458e-02
3.754002228379249573e-02
-2.907437682151794434e-01
-7.828048616647720337e-02
2.390501499176025391e-01
1.973375827074050903e-01
7.860810309648513794e-02
-3.938860595226287842e-01
1.325559318065643311e-01
1.333222538232803345e-01
1.489073187112808228e-01
-2.889448106288909912e-01
-8.082049898803234100e-04
-4.908161703497171402e-03
-1.350355893373489380e-01
-4.245915412902832031e-01
-2.955952286720275879e-02
-3.708749637007713318e-02
-1.210181340575218201e-01
-6.253740787506103516e-01
-7.112323492765426636e-02
2.087250538170337677e-02
1.677591800689697266e-01
1.080740243196487427e-01
2.660619318485260010e-01
2.629221603274345398e-02
-4.813961312174797058e-02
-2.177274785935878754e-02
-5.707885324954986572e-02
-1.524818837642669678e-01
2.374992072582244873e-01
4.110697656869888306e-02
1.083628088235855103e-01
-2.742890417575836182e-01
-1.300435364246368408e-01
1.357498168945312500e-01
-2.891721390187740326e-02
2.092992216348648071e-01
-2.124467678368091583e-02
2.799159288406372070e-01
1.391353756189346313e-01
1.764300912618637085e-01
1.108456030488014221e-02
1.896185874938964844e-01
5.747726559638977051e-02
-9.811948239803314209e-02
-2.283356040716171265e-01
1.056691408157348633e-01
-3.750528395175933838e-02
-8.664472959935665131e-03
-1.931003779172897339e-01
2.265001833438873291e-01
-6.051339209079742432e-02
1.816487014293670654e-01
-7.785176485776901245e-02
3.943288624286651611e-01
2.906545698642730713e-01
4.216955006122589111e-01
3.211441934108734131e-01
1.243698447942733765e-01
-6.134495511651039124e-02
8.108312636613845825e-02
3.314467146992683411e-02
-1.000488176941871643e-01
3.294849768280982971e-02
9.323359280824661255e-02
-2.355870902538299561e-01
-1.039877068251371384e-02
-4.130004942417144775e-01
1.288927197456359863e-01
-4.184596836566925049e-01
7.088539749383926392e-02
1.211107373237609863e-01
-7.311600446701049805e-02
1.749712675809860229e-01
-2.309958338737487793e-01
-7.607065141201019287e-02
-1.848462820053100586e-01
-1.080940142273902893e-01
1.693698205053806305e-02
1.196969226002693176e-01
6.326038390398025513e-02
2.499903738498687744e-02
-4.235304594039916992e-01
-4.305935464799404144e-03
8.450869470834732056e-02
-9.540085494518280029e-02
-1.515343319624662399e-02
-8.705084770917892456e-02
1.089307963848114014e-01
-5.366609245538711548e-02
1.601008139550685883e-02
-1.421332061290740967e-01
1.854789406061172485e-01
-4.298837110400199890e-02
-8.053493499755859375e-02
-1.111858934164047241e-01
1.115130558609962463e-01
-5.199149996042251587e-02
-8.068504184484481812e-02
-1.819896399974822998e-01
2.963056787848472595e-03
1.321307197213172913e-02
-1.003317758440971375e-01
1.846029539592564106e-03
8.666162379086017609e-03
6.397234648466110229e-02
-2.050664126873016357e-01
-3.309926390647888184e-02
8.805886656045913696e-02
-1.746870130300521851e-01
-7.300082594156265259e-02
-3.299947082996368408e-01
2.995841437950730324e-03
-1.414906680583953857e-01
3.814961761236190796e-02
-1.281180679798126221e-01
-1.153937876224517822e-01
-4.654140397906303406e-02
-5.110772699117660522e-02
7.232370227575302124e-02
-1.211828514933586121e-01
-4.629484415054321289e-01
-5.685663968324661255e-02
-3.877123817801475525e-02
2.488259226083755493e-02
-1.493559479713439941e-01
-1.290950626134872437e-01
-2.290032058954238892e-02
1.313547044992446899e-01
6.158003956079483032e-02
-1.924656182527542114e-01
2.437979131937026978e-01
5.188529938459396362e-02
-2.275793114677071571e-03
-1.436357796192169189e-01
-5.446496605873107910e-02
2.261764258146286011e-01
2.104095816612243652e-01
7.821207493543624878e-02
-1.994668971747159958e-03
1.872139275074005127e-01
3.024094104766845703e-01
1.798344850540161133e-01
-3.123544622212648392e-03
4.867032170295715332e-02
1.157703101634979248e-01
-4.452785011380910873e-03
3.165163099765777588e-02
-1.153265591710805893e-03
4.908366594463586807e-03
-1.216032281517982483e-01
-9.293938428163528442e-02
-7.918613404035568237e-02
8.569654077291488647e-02
3.732744157314300537e-01
-1.235368996858596802e-01
-8.798577636480331421e-02
4.962848499417304993e-02
4.247467219829559326e-01
7.208035886287689209e-02
9.341832250356674194e-02
1.789021193981170654e-01
-3.329698443412780762e-01
9.035619348287582397e-02
-1.692715585231781006e-01
-9.267248958349227905e-02
-2.143529206514358521e-01
-8.396889269351959229e-02
-8.707919716835021973e-02
-1.377050280570983887e-01
-8.373194187879562378e-02
-5.387829989194869995e-02
-1.569083780050277710e-01
-2.123750448226928711e-01
-8.611457049846649170e-02
-5.553622543811798096e-02
-6.880011409521102905e-02
-1.789211630821228027e-01
2.351980209350585938e-01
2.178149074316024780e-01
2.051109969615936279e-01
-1.554318219423294067e-01
-1.306714303791522980e-02
-6.171397864818572998e-02
5.361029133200645447e-02
5.314141139388084412e-02
-1.060685962438583374e-01
-6.476644426584243774e-02
-1.958733797073364258e-01
9.144143760204315186e-02
-2.111939340829849243e-01
-1.287240386009216309e-01
-1.281340718269348145e-01
1.351499855518341064e-01
-2.728601396083831787e-01
-3.420006930828094482e-01
-2.643675208091735840e-01
1.030153036117553711e-02
2.138431370258331299e-02
-2.107146978378295898e-01
-1.835347265005111694e-01
-3.017788529396057129e-01
2.171038240194320679e-01
-1.143837869167327881e-01
7.554800808429718018e-02
2.136007323861122131e-02
1.141003817319869995e-01
-7.949186861515045166e-02
1.205094903707504272e-02
9.769899398088455200e-02
2.157445251941680908e-01
-2.358031570911407471e-01
-3.618176281452178955e-01
2.583086788654327393e-01
-4.550855755805969238e-01
-3.173835575580596924e-02
-2.183092534542083740e-01
2.531491592526435852e-02
-6.380368471145629883e-01
4.905503988265991211e-02
-4.708803072571754456e-02
1.863883137702941895e-01
-8.963382989168167114e-02
-3.117091581225395203e-02
-2.038941234350204468e-01
2.149627506732940674e-01
2.716460525989532471e-01
1.783370599150657654e-02
-6.748008728027343750e-02
-9.074238687753677368e-02
-4.263239502906799316e-01
-3.013640344142913818e-01
-5.704562067985534668e-01
-4.550172388553619385e-01
-7.361428439617156982e-02
-1.015513315796852112e-01
-1.230415776371955872e-01
6.781908869743347168e-02
-8.220028132200241089e-02
-6.932742428034543991e-03
9.502886235713958740e-02
6.597939878702163696e-02
3.393207117915153503e-02
7.659696042537689209e-02
2.828959375619888306e-02
4.824580624699592590e-02
4.282671585679054260e-02
-2.052693068981170654e-01
1.739510744810104370e-01
2.302650064229965210e-01
3.688632547855377197e-01
4.749044403433799744e-02
4.185635223984718323e-02
3.249348104000091553e-01
1.668945699930191040e-01
2.388992756605148315e-01
-1.093786768615245819e-02
6.910267472267150879e-02
2.716191709041595459e-01
3.798054158687591553e-01
1.799675971269607544e-01
1.450768113136291504e-01
6.165233999490737915e-02
-2.266010940074920654e-01
-2.255436033010482788e-01
2.422536909580230713e-01
-7.071367502212524414e-01
-2.211222797632217407e-01
-4.092041403055191040e-02
-3.601791337132453918e-02
-4.699223935604095459e-01
-5.777547135949134827e-02
8.099889010190963745e-02
6.946188211441040039e-02
5.458878353238105774e-02
-5.540606006979942322e-02
-1.456085890531539917e-01
7.280310243368148804e-02
-4.056890904903411865e-01
9.174596518278121948e-02
-1.798722892999649048e-01
-3.385856747627258301e-01
-1.446668356657028198e-01
-4.726208746433258057e-02
1.258366508409380913e-03
-2.385025657713413239e-02
1.876442581415176392e-01
-8.130625635385513306e-02
1.036849152296781540e-02
4.542197287082672119e-01
2.162596583366394043e-01
-4.304298758506774902e-02
-2.400209605693817139e-01
3.701054304838180542e-02
1.278235316276550293e-01
-6.718120072036981583e-03
-2.917260825634002686e-01
-2.935461401939392090e-01
3.313427790999412537e-02
-6.352638453245162964e-02
-4.854738339781761169e-02
5.753865465521812439e-02
2.119749337434768677e-01
1.533388048410415649e-01
-1.756393462419509888e-01
-5.456160008907318115e-02
1.705469191074371338e-01
1.337202787399291992e-01
-1.683026552200317383e-02
-2.014921009540557861e-01
6.549758464097976685e-02
1.809054166078567505e-01
1.531088948249816895e-01
1.613614857196807861e-01
5.021693110466003418e-01
2.940987348556518555e-01
1.778733879327774048e-01
1.042873561382293701e-01
1.735106408596038818e-01
1.899450868368148804e-01
3.643000125885009766e-01
2.656663954257965088e-01
-3.078720867633819580e-01
-9.015886485576629639e-02
2.111315261572599411e-03
-2.692815363407135010e-01
1.228181198239326477e-01
-7.692046463489532471e-02
-2.218323796987533569e-01
3.917533457279205322e-01
1.205889508128166199e-01
-1.521948277950286865e-01
-1.975438594818115234e-01
4.009906649589538574e-01
3.622388839721679688e-01
6.009154021739959717e-02
7.146934047341346741e-03
9.831921011209487915e-02
3.361411094665527344e-01
2.080179601907730103e-01
6.876409053802490234e-02
1.013010069727897644e-01
3.020673990249633789e-01
9.225612878799438477e-02
7.922790944576263428e-02
-2.116602063179016113e-01
1.087813153862953186e-01
1.251931209117174149e-02
-7.968371361494064331e-02
-1.364659368991851807e-01
1.611554175615310669e-01
7.687199860811233521e-02
-1.652488857507705688e-01
-2.022587805986404419e-01
3.771260008215904236e-02
2.697694301605224609e-02
8.907975628972053528e-03
2.257545664906501770e-02
7.135076075792312622e-02
-4.335533678531646729e-01
2.021246552467346191e-01
9.797901660203933716e-02
1.463255435228347778e-01
-9.154098480939865112e-02
2.718590497970581055e-01
2.678808569908142090e-01
5.659875646233558655e-02
-5.851303040981292725e-02
-5.660428851842880249e-02
2.056066393852233887e-01
5.856217816472053528e-02
-2.531408965587615967e-01
5.848749540746212006e-03
2.166523188352584839e-01
-4.914683103561401367e-02
-1.512873172760009766e-01
-1.395425647497177124e-01
-4.898276925086975098e-02
-1.598648726940155029e-01
-2.281926870346069336e-01
-1.035118699073791504e-01
-1.102245077490806580e-01
-1.372013092041015625e-01
-3.513866662979125977e-01
-3.566000461578369141e-01
1.394177973270416260e-02
-1.372099816799163818e-01
-2.246786803007125854e-01
-8.803875744342803955e-02
4.598165675997734070e-02
2.174187749624252319e-01
1.162157356739044189e-01
2.966173291206359863e-01
3.538140356540679932e-01
1.991432718932628632e-02
-1.103061623871326447e-02
2.590591907501220703e-01
1.447091400623321533e-01
-6.332499440759420395e-03
-2.573159635066986084e-01
-1.423187851905822754e-01
-4.135114699602127075e-02
-9.259990602731704712e-02
-3.427985906600952148e-01
-2.011321038007736206e-01
3.551194444298744202e-02
-1.344233900308609009e-01
-1.570585519075393677e-01
-2.643636465072631836e-01
-1.537151187658309937e-01
5.140083655714988708e-02
1.973542943596839905e-02
-2.337290495634078979e-01
1.828038133680820465e-02
2.035972476005554199e-01
1.309653520584106445e-01
-1.703456044197082520e-01
4.937634244561195374e-02
3.468990325927734375e-01
1.897665709257125854e-01
-1.676484644412994385e-01
-5.686575546860694885e-02
-4.440198093652725220e-02
3.309789672493934631e-02
-1.488512605428695679e-01
2.000155001878738403e-01
-8.646628260612487793e-02
1.246058866381645203e-01
3.217396512627601624e-02
1.267359256744384766e-01
-1.555164158344268799e-01
7.969411462545394897e-02
7.108274847269058228e-02
7.626002281904220581e-02
-1.474102288484573364e-01
2.679297626018524170e-01
3.274456560611724854e-01
2.276507169008255005e-01
7.371488958597183228e-03
4.820270091295242310e-02
-2.719314768910408020e-02
-2.209447920322418213e-01
-4.967255145311355591e-02
1.262171380221843719e-02
-2.291660569608211517e-02
-2.527835071086883545e-01
-2.195351719856262207e-01
-9.726873785257339478e-02
-1.766763031482696533e-01
4.958691447973251343e-02
-1.927751898765563965e-01
-1.119124963879585266e-01
-4.390072077512741089e-02
1.110888645052909851e-01
2.753764390945434570e-02
-8.262845687568187714e-03
2.007359415292739868e-01
7.805168628692626953e-02
-4.607300087809562683e-02
2.185243926942348480e-02
1.132616102695465088e-01
2.024922221899032593e-01
1.541926562786102295e-01
6.969244033098220825e-02
7.912165671586990356e-02
-2.202707827091217041e-01
-3.773642703890800476e-02
1.116328239440917969e-01
-2.532397806644439697e-01
-4.855617880821228027e-01
-1.095433533191680908e-01
8.412005379796028137e-03
7.490536570549011230e-02
1.311114579439163208e-01
9.779135882854461670e-02
8.270487934350967407e-02
2.082968652248382568e-01
1.884945183992385864e-01
2.907429337501525879e-01
2.768626213073730469e-01
2.345512062311172485e-01
6.305053830146789551e-02
4.854014888405799866e-02
2.042462527751922607e-01
9.559306502342224121e-02
-1.069727316498756409e-01
1.094119064509868622e-02
1.553529351949691772e-01
-3.301233425736427307e-02
-1.712173596024513245e-02
2.861846424639225006e-02
4.294324293732643127e-02
-7.068620994687080383e-03
4.323166236281394958e-02
3.511235862970352173e-02
-3.328362852334976196e-02
2.495460808277130127e-01
6.310225278139114380e-02
6.935073435306549072e-02
7.510895282030105591e-02
3.050490617752075195e-01
4.546870291233062744e-02
-2.171156927943229675e-03
-6.872595846652984619e-02
-5.400886386632919312e-02
-5.491944402456283569e-02
3.765739500522613525e-02
-2.587855458259582520e-01
-2.613871991634368896e-01
-3.079380095005035400e-01
-2.149027585983276367e-02
-1.931574046611785889e-01
-9.876859188079833984e-02
-1.295903325080871582e-01
6.757280975580215454e-02
-2.716040909290313721e-01
3.548013418912887573e-02
-2.332145720720291138e-02
3.949885815382003784e-02
1.246567517518997192e-01
2.098046094179153442e-01
1.113705262541770935e-01
-1.066583767533302307e-01
5.984670296311378479e-02
2.027073055505752563e-01
3.077634237706661224e-02
-7.357592880725860596e-02
1.428672671318054199e-01
2.698954343795776367e-01
1.140029951930046082e-01
2.828688919544219971e-02
2.544172704219818115e-01
5.407740920782089233e-02
-2.213763445615768433e-02
2.563891559839248657e-02
2.360426783561706543e-01
9.657701849937438965e-02
-7.401219755411148071e-02
-4.702674970030784607e-02
4.268942773342132568e-02
1.225980836898088455e-02
2.096976190805435181e-01
3.487968444824218750e-02
6.443420797586441040e-02
-1.693314015865325928e-01
8.398874104022979736e-02
8.829686790704727173e-02
3.949542939662933350e-01
-7.197497040033340454e-02
1.006246060132980347e-01
-4.079267382621765137e-02
-9.190414845943450928e-02
-4.811038821935653687e-02
2.742326855659484863e-01
-8.596344292163848877e-02
-6.644620001316070557e-02
2.171154022216796875e-01
3.353062272071838379e-01
-1.126886531710624695e-01
-1.502173990011215210e-01
2.648618519306182861e-01
3.183308839797973633e-01
-1.279123723506927490e-01
-1.202146336436271667e-01
2.950474321842193604e-01
4.179061949253082275e-01
3.831366598606109619e-01
1.269622892141342163e-01
-2.867002785205841064e-01
-1.711051017045974731e-01
3.078906238079071045e-02
1.109336689114570618e-01
-2.058083117008209229e-01
-9.565777331590652466e-02
-8.558547496795654297e-02
-9.607590734958648682e-02
-4.340114071965217590e-02
-9.217548370361328125e-02
-1.303389966487884521e-01
-5.691574141383171082e-02
-2.764593362808227539e-01
-1.599487513303756714e-01
2.564842347055673599e-03
1.159815713763237000e-01
2.367493510246276855e-02
-5.000276863574981689e-02
-7.235316932201385498e-02
2.037216275930404663e-01
-1.819956153631210327e-01
-1.447722017765045166e-01
7.631923258304595947e-02
6.288923788815736771e-03
-1.942024081945419312e-01
-1.063467115163803101e-01
8.432797342538833618e-02
-7.610012590885162354e-02
-3.885213434696197510e-01
-2.543075978755950928e-01
2.165687270462512970e-02
2.702992856502532959e-01
1.257417052984237671e-01
6.057067960500717163e-02
-4.681013152003288269e-02
1.374513953924179077e-01
2.094342559576034546e-01
-6.968299299478530884e-02
-3.741891309618949890e-02
3.906331583857536316e-02
3.614591434597969055e-02
-1.441949754953384399e-01
-1.467922776937484741e-01
-5.933826416730880737e-02
-6.935267150402069092e-02
-2.974419295787811279e-01
2.422909736633300781e-01
-4.375813528895378113e-02
-3.010284900665283203e-01
9.567760676145553589e-02
3.533529043197631836e-01
4.744736105203628540e-02
1.123371347784996033e-01
-3.105195425450801849e-02
3.685490489006042480e-01
1.552195399999618530e-01
-8.310135453939437866e-02
-1.498932838439941406e-01
-4.217343404889106750e-03
-4.861374571919441223e-02
-7.871098816394805908e-03
-1.053703576326370239e-02
1.978145539760589600e-01
1.482053101062774658e-01
1.494614332914352417e-01
-1.289939787238836288e-02
1.831213533878326416e-01
8.242236077785491943e-02
-9.244589507579803467e-02
-2.787291407585144043e-01
1.967034786939620972e-01
7.037808746099472046e-02
9.369782358407974243e-02
-1.873365938663482666e-01
-1.897858232259750366e-01
-2.294555306434631348e-01
1.831511855125427246e-01
-5.127527713775634766e-01
-3.184634149074554443e-01
-5.459870100021362305e-01
-1.726574003696441650e-01
-1.104852035641670227e-01
-3.138858973979949951e-01
-3.425256311893463135e-01
-1.047706045210361481e-02
-1.317307054996490479e-01
-2.292958647012710571e-01
-2.035534381866455078e-01
1.336404979228973389e-01
7.328499108552932739e-02
-1.284940987825393677e-01
-1.128428336232900620e-02
2.551169991493225098e-01
3.149935007095336914e-01
3.718873858451843262e-01
3.202337622642517090e-01
1.709996014833450317e-01
-6.159443035721778870e-02
2.484682798385620117e-01
3.407431840896606445e-01
-1.278426349163055420e-01
-3.712380826473236084e-01
3.044244050979614258e-01
3.062804043292999268e-01
-1.411911845207214355e-01
-2.387988418340682983e-01
3.133485093712806702e-02
-2.903869152069091797e-01
-3.711989223957061768e-01
-2.368043810129165649e-01
2.593804597854614258e-01
2.933863103389739990e-01
1.807533353567123413e-01
-2.768371701240539551e-01
1.688431799411773682e-01
3.556567132472991943e-01
1.367804557085037231e-01
-1.150981113314628601e-01
1.917573809623718262e-01
3.624338507652282715e-01
2.103711068630218506e-01
-9.621514938771724701e-03
4.315650761127471924e-01
2.666620314121246338e-01
2.391220480203628540e-01
-2.428839914500713348e-02
-1.601021140813827515e-01
-1.523057371377944946e-02
-1.513055711984634399e-01
3.232533037662506104e-01
6.079160422086715698e-02
1.100819930434226990e-02
-3.432720899581909180e-02
2.446570694446563721e-01
1.556594371795654297e-01
2.639708109200000763e-02
-1.901054009795188904e-02
2.217274904251098633e-01
2.261946201324462891e-01
-1.082154083997011185e-02
-6.188920885324478149e-02
1.450177133083343506e-01
-3.023742511868476868e-02
-2.486545443534851074e-01
-5.718235671520233154e-02
2.011747509241104126e-01
-7.335097342729568481e-02
2.597105316817760468e-02
8.143536746501922607e-02
1.552692055702209473e-01
8.698053658008575439e-02
8.379393070936203003e-02
1.137231364846229553e-01
7.190252095460891724e-02
2.095350772142410278e-01
2.581821680068969727e-01
3.607611358165740967e-02
-1.874086074531078339e-02
-1.017006859183311462e-01
-1.812104135751724243e-01
-5.380108021199703217e-03
1.154862791299819946e-01
1.960541307926177979e-01
-6.924619525671005249e-02
1.564615070819854736e-01
1.070305798202753067e-02
1.703516989946365356e-01
1.769793629646301270e-01
8.294036984443664551e-02
-1.679068505764007568e-01
3.634934425354003906e-01
1.568091660737991333e-01
-1.343137472867965698e-01
-5.117837786674499512e-01
1.748497039079666138e-01
9.602154791355133057e-02
-8.945833891630172729e-03
-2.735875546932220459e-01
4.102705046534538269e-02
-5.210193246603012085e-02
-1.328509300947189331e-01
-9.507662802934646606e-02
-1.345037966966629028e-01
-1.153433695435523987e-01
-1.124946177005767822e-01
-1.213513314723968506e-01
-2.246362268924713135e-01
-5.761980637907981873e-02
-9.118877351284027100e-02
-1.580603420734405518e-01
-3.322261273860931396e-01
-2.887129969894886017e-02
-1.184889227151870728e-01
8.214110136032104492e-02
2.952435798943042755e-02
-1.506736129522323608e-01
-1.085125580430030823e-01
-6.652194261550903320e-02
-3.864829894155263901e-03
-1.274374574422836304e-01
-1.901775747537612915e-01
-3.626740872859954834e-01
-1.892208904027938843e-01
-2.271722070872783661e-02
4.707178846001625061e-02
-6.296442449092864990e-02
-6.625139713287353516e-01
-4.985313490033149719e-02
-1.135287713259458542e-02
-2.050428278744220734e-02
-3.514449000358581543e-01
-4.347978532314300537e-02
5.609406530857086182e-02
1.744608730077743530e-01
-9.877377189695835114e-03
8.819567412137985229e-02
1.472548991441726685e-01
1.165710613131523132e-01
5.429946631193161011e-02
-5.102660879492759705e-02
7.136280089616775513e-02
-5.510919261723756790e-03
2.279559522867202759e-02
-2.625474929809570312e-01
1.655717939138412476e-01
-2.430181503295898438e-01
-3.206084296107292175e-02
-2.303247898817062378e-01
4.340328648686408997e-02
-1.336706615984439850e-02
-5.539775639772415161e-02
1.799416355788707733e-02
6.526981294155120850e-02
2.522751986980438232e-01
4.774266481399536133e-02
-1.916392892599105835e-01
9.930826723575592041e-02
5.516164302825927734e-01
1.605582982301712036e-01
1.572607308626174927e-01
3.573044389486312866e-02
-4.453306198120117188e-01
-1.200072020292282104e-01
-1.000868380069732666e-01
-1.860122382640838623e-02
-3.348248898983001709e-01
-9.355452656745910645e-02
-6.602653861045837402e-02
6.586499512195587158e-02
-1.894453465938568115e-01
-3.522623181343078613e-01
-9.340740740299224854e-02
1.649534702301025391e-01
-4.359870553016662598e-01
1.042440608143806458e-01
-3.504625558853149414e-01
-3.801755607128143311e-01
-2.088068574666976929e-01
-6.141852736473083496e-01
-5.351199507713317871e-01
-3.979963362216949463e-01
-2.541954219341278076e-01
-5.157664418220520020e-01
-5.810341835021972656e-01
-6.053828448057174683e-02
-3.948430716991424561e-02
-7.272121906280517578e-01
-5.537162423133850098e-01
1.175987645983695984e-01
1.284680664539337158e-01
-1.832707785069942474e-02
-1.956272870302200317e-02
1.527591515332460403e-02
-1.627115756273269653e-01
-2.868126630783081055e-01
-2.463874071836471558e-01
2.576408721506595612e-02
-2.629102766513824463e-01
-2.378029674291610718e-01
4.738960415124893188e-02
8.517028391361236572e-02
-2.865410745143890381e-01
-5.720027163624763489e-02
-1.269236505031585693e-01
2.483624964952468872e-02
-1.476445794105529785e-01
-9.636167436838150024e-02
-1.452043056488037109e-01
1.758845746517181396e-01
1.930947899818420410e-01
-7.872829586267471313e-02
-7.041814178228378296e-02
2.002016305923461914e-01
2.152199894189834595e-01
2.012251410633325577e-03
5.524320155382156372e-02
1.354176849126815796e-01
1.676568835973739624e-01
8.294353634119033813e-02
6.929184496402740479e-02
1.018525194376707077e-02
-1.273409426212310791e-01
-2.735975980758666992e-01
3.388039767742156982e-01
1.424821168184280396e-01
1.154376268386840820e-01
-2.732866704463958740e-01
-8.465963602066040039e-02
3.726089745759963989e-02
1.281007379293441772e-01
-2.799027599394321442e-02
-2.519300282001495361e-01
-7.808308303356170654e-02
7.353824377059936523e-02
2.623667567968368530e-02
-2.333451509475708008e-01
1.101205423474311829e-01
1.652480065822601318e-01
-1.835861057043075562e-02
5.521470680832862854e-02
1.289155781269073486e-01
4.414873570203781128e-02
-1.984769292175769806e-02
8.066131919622421265e-02
2.012575417757034302e-02
-1.274488866329193115e-01
6.926269829273223877e-02
4.040128737688064575e-02
2.585581736639142036e-03
-9.953303635120391846e-02
-1.017607823014259338e-01
-2.086613774299621582e-01
7.714194059371948242e-02
1.784043312072753906e-01
3.175687417387962341e-02
1.043568551540374756e-01
-1.201585009694099426e-01
5.676078796386718750e-01
3.205983340740203857e-02
-2.015040721744298935e-03
-1.785197667777538300e-02
3.615241646766662598e-01
2.707665413618087769e-02
-1.040149293839931488e-02
-4.595778137445449829e-02
2.235593460500240326e-02
7.450906932353973389e-02
-2.961713634431362152e-02
-4.585072398185729980e-02
1.799045354127883911e-01
3.620555698871612549e-01
-9.297062456607818604e-02
-2.053931653499603271e-01
-1.792499572038650513e-01
1.969410292804241180e-02
2.577638439834117889e-02
-8.074972778558731079e-02
-1.145546883344650269e-01
-7.954342663288116455e-02
-1.297418773174285889e-01
-1.044910326600074768e-01
-7.751290500164031982e-02
2.985985716804862022e-03
-1.742519140243530273e-01
2.439134754240512848e-02
-2.148226797580718994e-01
-1.061490401625633240e-01
2.084127664566040039e-01
-4.349770024418830872e-02
-7.538622245192527771e-03
-2.207668572664260864e-01
-3.009388446807861328e-01
-9.131167083978652954e-03
-6.591019034385681152e-02
-3.605026304721832275e-01
-4.627035558223724365e-01
3.852612525224685669e-02
1.058318242430686951e-01
-3.350982367992401123e-01
-5.367886424064636230e-01
7.335556298494338989e-02
1.729067265987396240e-01
2.677441239356994629e-01
6.929628551006317139e-02
1.465988159179687500e-01
2.459093630313873291e-01
-3.213919699192047119e-02
9.457392245531082153e-02
-7.397571112960577011e-03
-1.341693997383117676e-01
4.742496088147163391e-02
8.175221830606460571e-02
-1.272570788860321045e-01
-1.032851710915565491e-01
1.261496543884277344e-01
1.066556274890899658e-01
2.683372702449560165e-03
-1.645925194025039673e-01
-2.225083410739898682e-01
-1.044137924909591675e-01
6.839318573474884033e-02
8.810281753540039062e-02
-2.583356201648712158e-01
-2.925457358360290527e-01
-9.671950712800025940e-03
-5.684128776192665100e-02
-2.382872253656387329e-01
-1.380606442689895630e-01
1.187066063284873962e-01
-3.942753374576568604e-01
-6.576381623744964600e-02
3.158522248268127441e-01
1.995165050029754639e-01
-2.224487662315368652e-01
2.983867190778255463e-02
2.629411816596984863e-01
-2.100148499011993408e-01
-1.848772615194320679e-01
1.698203384876251221e-01
-2.878760993480682373e-01
-3.471000194549560547e-01
-2.367007136344909668e-01
2.699171006679534912e-01
-2.187366038560867310e-01
-3.292692005634307861e-01
-1.813050806522369385e-01
-1.699180006980895996e-01
-4.682832062244415283e-01
6.849943101406097412e-02
-2.259772419929504395e-01
-2.999046631157398224e-02
-1.151154097169637680e-02
2.208614721894264221e-02
5.991242453455924988e-02
2.488624863326549530e-02
-1.388006657361984253e-02
8.421444892883300781e-02
9.116693586111068726e-02
-6.197725981473922729e-02
-6.279358058236539364e-04
-4.398740082979202271e-02
4.323279857635498047e-02
2.287124693393707275e-01
1.695878058671951294e-01
-3.517301008105278015e-02
1.871025860309600830e-01
3.814566880464553833e-02
-2.634508349001407623e-02
-2.558904588222503662e-01
-1.411412805318832397e-01
3.889942467212677002e-01
2.236864715814590454e-01
-3.406603634357452393e-01
-1.004508361220359802e-01
2.398680299520492554e-01
2.619999051094055176e-01
-5.536516383290290833e-02
1.374133024364709854e-02
4.913480207324028015e-02
-7.002305239439010620e-02
-1.545680463314056396e-01
-4.044894012622535229e-04
-8.754509687423706055e-02
5.855834856629371643e-02
-1.646510213613510132e-01
1.738182008266448975e-01
-3.974093794822692871e-01
-1.239528134465217590e-01
-7.383643835783004761e-02
1.336729247123003006e-02
-2.566393017768859863e-01
-1.106765791773796082e-01
-1.240696525201201439e-03
6.973065435886383057e-02
-1.043454036116600037e-01
1.674357205629348755e-01
2.045359015464782715e-01
-1.532793324440717697e-02
-1.323398202657699585e-01
-4.463149607181549072e-02
1.903451979160308838e-01
-2.253485471010208130e-01
-6.907883286476135254e-02
-2.325143069028854370e-01
-2.187263518571853638e-01
-1.750711202621459961e-01
1.813189536333084106e-01
6.311576068401336670e-02
-1.784785240888595581e-01
-1.845142692327499390e-01
1.945504099130630493e-01
6.936641037464141846e-02
-1.649817973375320435e-01
-2.584119141101837158e-01
2.184746712446212769e-01
4.247108846902847290e-02
-3.000333011150360107e-01
1.001336518675088882e-02
1.191735640168190002e-01
4.078034684062004089e-02
-2.410077303647994995e-02
8.500313758850097656e-02
6.641762703657150269e-02
-1.582071483135223389e-01
-9.105557948350906372e-02
-1.640436351299285889e-01
9.348973631858825684e-03
5.370460823178291321e-02
7.140775024890899658e-02
1.883401423692703247e-01
3.549621403217315674e-01
-7.919426262378692627e-02
-3.119768500328063965e-01
-4.123197793960571289e-01
8.730051666498184204e-02
-1.371706575155258179e-01
2.647980814799666405e-03
-1.601360589265823364e-01
-1.345987319946289062e-01
-1.811407804489135742e-01
-2.371669933199882507e-02
3.246304020285606384e-02
-7.512677460908889771e-02
-1.813584119081497192e-01
-1.286194026470184326e-01
-2.058442384004592896e-01
-6.487504839897155762e-01
-3.038902878761291504e-01
-2.737386226654052734e-01
-3.610362410545349121e-01
-2.784864306449890137e-01
-4.170063138008117676e-02
-5.609485507011413574e-01
-3.100017607212066650e-01
2.592524513602256775e-02
3.746373951435089111e-01
-1.326339244842529297e-01
-5.671551823616027832e-01
-1.535745263099670410e-01
1.786661744117736816e-01
-2.501964867115020752e-01
-9.138330221176147461e-01
2.920413017272949219e-01
2.920388057827949524e-02
1.227947175502777100e-01
-1.988227479159832001e-02
-2.146654017269611359e-02
1.347144246101379395e-01
4.107274487614631653e-02
-3.612272813916206360e-02
-5.368592962622642517e-02
1.337331086397171021e-01
4.545297473669052124e-02
4.522804543375968933e-02
-2.632544338703155518e-01
7.750578969717025757e-02
1.642619371414184570e-01
2.129193395376205444e-01
-3.452531527727842331e-03
-2.357247285544872284e-02
-9.584039449691772461e-03
-9.750046581029891968e-02
5.548878014087677002e-02
5.640134587883949280e-02
1.173921898007392883e-01
3.755940496921539307e-01
1.525075137615203857e-01
1.064616367220878601e-01
1.462170183658599854e-01
2.804363965988159180e-01
-4.004506766796112061e-02
2.332054525613784790e-01
2.780792713165283203e-01
5.039044618606567383e-01
2.398187667131423950e-01
1.385757774114608765e-01
-4.217961803078651428e-02
5.360456556081771851e-02
1.133290827274322510e-01
9.393276274204254150e-02
-1.701595494523644447e-03
-1.722521483898162842e-01
-2.360247448086738586e-02
-1.785375624895095825e-01
-1.330204010009765625e-01
-2.112150639295578003e-01
-1.579619348049163818e-01
-3.857325017452239990e-02
3.094303011894226074e-01
-1.997884921729564667e-02
9.146599471569061279e-02
4.926806688308715820e-02
9.284778684377670288e-02
-1.853336989879608154e-01
6.358906626701354980e-02
1.539290547370910645e-01
1.519218236207962036e-01
-2.149477750062942505e-01
1.042230799794197083e-01
1.022999137639999390e-01
1.202441975474357605e-01
-2.580497562885284424e-01
-5.551267042756080627e-02
3.397180140018463135e-02
3.245995193719863892e-02
-6.084621697664260864e-02
4.352964758872985840e-01
3.124467432498931885e-01
2.911938726902008057e-01
3.071811497211456299e-01
1.043730974197387695e-01
2.308530956506729126e-01
7.663755118846893311e-02
1.024241372942924500e-01
-7.675109058618545532e-02
6.516635417938232422e-02
-2.150535732507705688e-01
-1.315091550350189209e-01
-2.462053745985031128e-01
-1.590397208929061890e-02
-1.900161034427583218e-03
1.757997274398803711e-02
2.399313896894454956e-01
-8.680498600006103516e-02
-1.442522555589675903e-01
2.296786159276962280e-01
4.517169296741485596e-01
-1.098781749606132507e-01
-1.158590987324714661e-01
6.498021632432937622e-02
3.823949396610260010e-01
7.907757908105850220e-02
-9.970113635063171387e-02
-1.852197647094726562e-01
-3.359512388706207275e-01
-5.602328777313232422e-01
-3.353133499622344971e-01
1.077336743474006653e-01
1.455827504396438599e-01
-2.555115334689617157e-02
-5.083519220352172852e-02
-1.143928468227386475e-01
1.105772182345390320e-01
3.624670952558517456e-02
8.920603245496749878e-02
-4.388090595602989197e-02
7.219232618808746338e-02
1.364270038902759552e-02
-5.065488629043102264e-03
-2.807239592075347900e-01
-2.242818325757980347e-01
-8.102820068597793579e-02
7.112793624401092529e-02
-8.620402961969375610e-02
1.290615648031234741e-01
5.299298092722892761e-03
-6.542418897151947021e-02
-3.949985653162002563e-02
2.216496467590332031e-01
8.714092895388603210e-03
1.712633855640888214e-02
4.072337597608566284e-02
1.577289551496505737e-01
-7.995644211769104004e-02
1.813751272857189178e-02
1.844688355922698975e-01
-3.639201223850250244e-01
-1.437746435403823853e-01
7.678642123937606812e-02
7.904788851737976074e-02
2.175887227058410645e-01
1.733196824789047241e-01
-2.189962752163410187e-02
-2.570885419845581055e-01
4.030627012252807617e-01
2.251462936401367188e-01
1.224369481205940247e-01
7.396641373634338379e-02
5.684223771095275879e-01
8.877226710319519043e-02
4.090868309140205383e-02
1.684568375349044800e-01
6.101756691932678223e-01
1.816354691982269287e-01
-2.885901629924774170e-01
1.925583630800247192e-01
-5.623300373554229736e-02
-4.149956628680229187e-03
-2.550705568864941597e-03
2.218584269285202026e-01
-1.845366358757019043e-01
-1.906241625547409058e-01
-3.572227060794830322e-01
-2.928780019283294678e-01
-3.448332250118255615e-01
-1.724624931812286377e-01
-4.519452452659606934e-01
-4.734621644020080566e-01
-3.627237379550933838e-01
-1.701561361551284790e-01
-4.830104708671569824e-01
-2.538771927356719971e-01
2.354715764522552490e-01
-3.704977408051490784e-02
-9.694059193134307861e-02
-5.040846467018127441e-01
5.182133316993713379e-01
-3.022296167910099030e-02
-3.083224892616271973e-01
-8.622819930315017700e-02
2.437352240085601807e-01
-1.300473064184188843e-01
-1.323944777250289917e-01
6.622729450464248657e-02
2.154732942581176758e-01
-1.139520034193992615e-01
-3.748429715633392334e-01
3.529876470565795898e-02
-5.193601250648498535e-01
-2.283959686756134033e-01
-3.140813484787940979e-02
-1.319828033447265625e-01
-1.671119183301925659e-01
-2.537514865398406982e-01
-4.858685284852981567e-02
7.402788382023572922e-03
3.040578030049800873e-02
-1.269868016242980957e-01
6.736034154891967773e-02
4.005023092031478882e-02
7.595106214284896851e-02
-2.914586961269378662e-01
-1.241402104496955872e-01
-1.463959366083145142e-01
7.831127196550369263e-02
-2.466424256563186646e-01
1.540131419897079468e-01
2.958928048610687256e-01
-7.640676945447921753e-02
-1.866744011640548706e-01
1.756957024335861206e-01
2.240428626537322998e-01
-2.399999350309371948e-01
-1.787144392728805542e-01
2.460587620735168457e-01
-1.821257919073104858e-02
-2.660876214504241943e-01
6.763499695807695389e-03
3.250888884067535400e-01
1.818226277828216553e-01
-3.133867308497428894e-02
3.770964965224266052e-02
-1.889687627553939819e-01
-1.392170041799545288e-01
1.885575614869594574e-02
8.111276477575302124e-02
-1.352180093526840210e-01
-8.271827548742294312e-02
-1.784130185842514038e-01
-3.282422572374343872e-02
-1.741280108690261841e-01
-2.230791747570037842e-01
-8.067930340766906738e-01
-2.976691424846649170e-01
-4.189608693122863770e-01
-2.542933523654937744e-01
-2.019147425889968872e-01
-2.305565923452377319e-01
-9.787653386592864990e-02
-1.303505301475524902e-01
-2.907054424285888672e-01
-2.968344092369079590e-01
-1.068331226706504822e-01
-2.133015543222427368e-01
1.328973472118377686e-01
-1.554665621370077133e-02
-3.153637945652008057e-01
-2.964585721492767334e-01
2.165531739592552185e-02
8.078693412244319916e-03
-8.626166731119155884e-02
-1.124581620097160339e-01
3.922272026538848877e-01
3.683004677295684814e-01
3.421282023191452026e-02
5.244400352239608765e-02
1.118984445929527283e-01
8.994053304195404053e-02
6.721884757280349731e-02
1.177346780896186829e-01
6.195208057761192322e-02
-2.085805498063564301e-02
1.738789491355419159e-02
9.215471148490905762e-02
1.753453314304351807e-01
9.746955335140228271e-02
6.357698142528533936e-02
-7.064440846443176270e-02
-2.282547503709793091e-01
-1.329672336578369141e-01
-3.683538436889648438e-01
-2.049283832311630249e-01
-2.083646357059478760e-01
-9.895827621221542358e-02
-1.114731281995773315e-01
-2.741397172212600708e-02
-1.210879683494567871e-01
-7.752928882837295532e-03
5.668996274471282959e-02
-3.511654585599899292e-02
-1.964949667453765869e-01
2.194732241332530975e-02
2.274807170033454895e-02
-1.217907294631004333e-02
-1.326171457767486572e-01
-7.279791682958602905e-02
3.741193562746047974e-02
-1.243411526083946228e-01
4.910751804709434509e-02
1.118132546544075012e-01
1.352809667587280273e-01
1.483098715543746948e-01
5.534844845533370972e-02
-2.728135697543621063e-02
2.132052332162857056e-01
1.526481509208679199e-01
5.177408829331398010e-02
1.949488073587417603e-01
3.234005570411682129e-01
-2.101064287126064301e-02
7.971142232418060303e-02
-1.872403621673583984e-01
1.347699016332626343e-02
2.019341886043548584e-01
5.140943452715873718e-02
-5.591842904686927795e-02
-2.904048934578895569e-02
1.140924245119094849e-01
-5.688611418008804321e-02
-8.885101228952407837e-02
1.143514085561037064e-02
2.086004912853240967e-01
-1.325688213109970093e-01
-3.365138769149780273e-01
-5.109761953353881836e-01
-3.464850038290023804e-02
-9.623783081769943237e-02
-9.237139672040939331e-02
-3.677237033843994141e-01
-5.327411890029907227e-01
2.295208722352981567e-01
-6.857552379369735718e-02
-2.528485059738159180e-01
-6.162748932838439941e-01
2.785071730613708496e-01
7.255782186985015869e-02
-1.218308955430984497e-01
-3.089908063411712646e-01
1.281414926052093506e-01
-5.131801962852478027e-02
2.071897033601999283e-03
1.027339100837707520e-01
4.573749899864196777e-01
1.268701106309890747e-01
1.610695272684097290e-01
-9.655301272869110107e-02
1.801933944225311279e-01
1.561077684164047241e-01
3.166535794734954834e-01
1.619052886962890625e-01
-2.049300670623779297e-01
-6.219410151243209839e-02
1.273535341024398804e-01
-1.182557046413421631e-01
-2.806916832923889160e-01
-4.597937166690826416e-01
1.178121939301490784e-01
-1.862744539976119995e-01
-1.274234503507614136e-01
-4.177261516451835632e-02
-2.919686771929264069e-02
-2.324805259704589844e-01
1.368855684995651245e-01
8.921196311712265015e-02
1.463070362806320190e-01
5.063707381486892700e-02
1.223644427955150604e-02
8.503525517880916595e-03
-3.862953558564186096e-02
-6.596270203590393066e-02
2.427403628826141357e-01
1.498202681541442871e-01
-3.528838977217674255e-02
-2.582827508449554443e-01
-9.880540519952774048e-02
-3.845079243183135986e-02
-4.111617207527160645e-01
-6.620871424674987793e-01
-2.948825247585773468e-02
1.036651134490966797e-01
-1.980097144842147827e-01
-2.935816347599029541e-01
1.266598701477050781e-01
1.011902838945388794e-01
-9.912410378456115723e-02
-2.890093252062797546e-03
1.728011369705200195e-01
1.047056838870048523e-01
-2.024655193090438843e-01
-2.274890989065170288e-02
1.367153227329254150e-01
-4.749555140733718872e-02
-3.687086701393127441e-02
1.123183369636535645e-01
-4.445869475603103638e-02
-7.851293683052062988e-02
1.341125555336475372e-02
1.554484069347381592e-01
-5.372395366430282593e-02
-1.027853563427925110e-01
-9.394808113574981689e-02
1.073797270655632019e-01
-1.763252764940261841e-01
4.019273445010185242e-03
-2.489220537245273590e-02
-4.734222311526536942e-03
-5.779600143432617188e-02
8.479091525077819824e-02
1.204555034637451172e-01
-5.360965728759765625e-01
1.363696306943893433e-01
8.714031428098678589e-02
-3.613070398569107056e-02
-2.033729851245880127e-01
5.849365890026092529e-02
-1.265765279531478882e-01
1.087051704525947571e-01
1.432091593742370605e-01
-8.839973062276840210e-02
-3.416730761528015137e-01
1.287935525178909302e-01
-9.588187932968139648e-02
3.605267107486724854e-01
-1.519890874624252319e-01
8.327938616275787354e-02
-1.671798974275588989e-01
2.224544733762741089e-01
2.057995088398456573e-02
2.157912999391555786e-01
2.288142032921314240e-02
-2.173336446285247803e-01
-8.839026838541030884e-02
1.541490405797958374e-01
9.863884001970291138e-02
-2.506356537342071533e-01
2.479590475559234619e-02
4.417789727449417114e-02
-8.369881659746170044e-02
-1.908708959817886353e-01
-7.615015655755996704e-02
2.233606278896331787e-01
9.817527234554290771e-02
-4.505891203880310059e-01
1.195157691836357117e-01
3.247080743312835693e-01
-1.078307442367076874e-02
-7.340254783630371094e-01
-2.225369215011596680e-01
-5.712578073143959045e-03
-1.085136532783508301e-01
-6.511565446853637695e-01
-3.604535758495330811e-01
1.890706568956375122e-01
-2.679585218429565430e-01
-5.912111401557922363e-01
-4.835808649659156799e-03
-1.564498841762542725e-01
-3.972819074988365173e-02
-1.025484874844551086e-01
-3.475313633680343628e-02
-1.770238950848579407e-02
4.074443131685256958e-02
6.302159279584884644e-02
1.186506915837526321e-02
8.543274551630020142e-02
3.633201867341995239e-02
-1.028496921062469482e-01
5.242320522665977478e-02
5.481844767928123474e-02
-5.255744606256484985e-02
3.655188977718353271e-01
-3.791379034519195557e-01
-5.830261707305908203e-01
7.313122600317001343e-02
2.315179258584976196e-01
-1.196686923503875732e-01
-1.547684818506240845e-01
-3.618422523140907288e-02
1.037275418639183044e-01
-1.259496212005615234e-01
2.053604573011398315e-01
4.122642055153846741e-02
7.453714311122894287e-02
-4.010290279984474182e-02
-5.275497213006019592e-02
-4.097227752208709717e-02
7.694353163242340088e-02
-2.457761615514755249e-01
-2.352361567318439484e-02
3.209775686264038086e-02
2.430474013090133667e-01
-3.163971006870269775e-02
1.173212006688117981e-01
1.191898211836814880e-01
1.485760211944580078e-01
2.206495031714439392e-02
1.207741256803274155e-02
3.368197754025459290e-02
-2.214435720816254616e-03
9.363014250993728638e-02
2.988336794078350067e-02
-2.467767447233200073e-01
-2.080162055790424347e-02
7.335616648197174072e-02
3.403644561767578125e-01
-5.774420499801635742e-02
-3.254413604736328125e-01
-6.964378803968429565e-02
9.133695065975189209e-02
-1.195674166083335876e-01
-3.584046959877014160e-01
-4.394612014293670654e-01
1.289413124322891235e-02
1.137106642127037048e-01
-9.861037135124206543e-02
-2.306816577911376953e-01
-1.853941977024078369e-01
-1.291440278291702271e-01
1.302801631391048431e-02
9.402583539485931396e-02
2.375386059284210205e-01
-1.301492005586624146e-01
-1.740047782659530640e-01
-2.829990386962890625e-01
1.332040727138519287e-01
-1.851037889719009399e-02
1.503937989473342896e-01
1.279890537261962891e-01
2.403785437345504761e-01
-7.760244607925415039e-02
4.300023242831230164e-02
-2.082223631441593170e-02
2.481798529624938965e-01
7.299830764532089233e-02
5.912329535931348801e-03
8.067148178815841675e-02
-1.162380818277597427e-02
-3.687242269515991211e-01
-5.856581032276153564e-02
-1.416542828083038330e-01
1.309108138084411621e-01
-4.148238599300384521e-01
2.081139981746673584e-01
7.811219245195388794e-02
2.288277894258499146e-01
1.750767081975936890e-01
-3.395638614892959595e-02
-2.429300546646118164e-02
-1.072326973080635071e-01
1.463443785905838013e-01
1.041608154773712158e-01
-6.323758861981332302e-04
5.751774087548255920e-02
3.085386939346790314e-02
8.526685833930969238e-02
7.045958936214447021e-02
-1.091858930885791779e-02
-3.249656409025192261e-02
3.083857893943786621e-02
4.206878319382667542e-02
3.663542494177818298e-02
3.212261945009231567e-02
1.969881914556026459e-02
5.665921792387962341e-02
1.258340850472450256e-02
5.853711068630218506e-02
-1.650556549429893494e-02
-1.402408480644226074e-01
-9.217809140682220459e-02
-1.694699749350547791e-02
-3.251643478870391846e-02
-9.207395464181900024e-02
-1.136716604232788086e-01
-4.319494590163230896e-02
-3.625222668051719666e-02
-1.400659531354904175e-01
-1.105204522609710693e-01
2.844910323619842529e-02
1.281444262713193893e-02
-2.751635573804378510e-02
-6.152406334877014160e-02
-6.246990710496902466e-02
-1.620480865240097046e-01
-1.650756597518920898e-01
-6.195718050003051758e-02
6.137632206082344055e-02
-9.561887383460998535e-02
-1.213603243231773376e-01
-1.020821481943130493e-01
1.417191140353679657e-02
2.482625097036361694e-02
-1.403033286333084106e-01
-1.237940490245819092e-01
2.867727912962436676e-02
5.018322542309761047e-02
3.344264626502990723e-02
1.542889140546321869e-02
-6.359956413507461548e-02
-6.644359230995178223e-02
2.073358371853828430e-02
3.769200667738914490e-02
3.355122730135917664e-02
6.055145710706710815e-02
5.229083448648452759e-02
-2.534488961100578308e-02
-5.479762330651283264e-02
9.480828791856765747e-02
4.628256335854530334e-02
-2.458208985626697540e-02
-6.984900683164596558e-02
9.821874648332595825e-02
1.086068823933601379e-01
2.096389979124069214e-02
-1.373617164790630341e-02
6.222547590732574463e-02
3.623618558049201965e-02
-1.407211995683610439e-03
-9.140568971633911133e-02
4.364154487848281860e-02
5.352532491087913513e-02
-6.478963419795036316e-03
6.000944413244724274e-03
-9.733171015977859497e-02
-4.539332538843154907e-02
-3.602784499526023865e-02
-6.850489880889654160e-03
-5.170508101582527161e-02
-3.219520673155784607e-02
-4.050039499998092651e-02
7.049659639596939087e-02
-2.080468982458114624e-01
-9.067248553037643433e-02
1.669598370790481567e-02
-1.274019712582230568e-03
-1.072060465812683105e-01
-6.679534912109375000e-02
-4.622331634163856506e-02
-5.316460505127906799e-02
-9.401071816682815552e-02
1.021090894937515259e-02
-1.821650937199592590e-02
-3.593095019459724426e-02
1.598743721842765808e-02
-6.878420244902372360e-03
-2.330439863726496696e-03
-2.904045581817626953e-02
7.451178878545761108e-02
7.324084639549255371e-02
-4.930550977587699890e-02
-2.265548333525657654e-02
1.041583865880966187e-01
3.752687200903892517e-02
-2.049122750759124756e-02
-2.597489021718502045e-02
-8.251951076090335846e-03
3.447886928915977478e-02
-4.733158648014068604e-02
-1.829031109809875488e-02
-9.354209899902343750e-02
7.380821555852890015e-02
-3.055767156183719635e-02
-8.759035915136337280e-02
9.954515844583511353e-03
-1.145312562584877014e-02
9.497868828475475311e-03
2.010920271277427673e-02
7.721338421106338501e-02
8.156548440456390381e-02
-3.206091700121760368e-03
1.619834639132022858e-02
4.122851043939590454e-02
-8.752778917551040649e-02
-5.757813900709152222e-02
-1.764082722365856171e-02
-3.271839022636413574e-02
3.741778805851936340e-02
-1.152055151760578156e-02
-1.231006812304258347e-02
-2.856873348355293274e-02
6.998157501220703125e-02
3.251690417528152466e-02
-8.523802459239959717e-02
9.850326180458068848e-02
-4.687588661909103394e-02
-2.551325596868991852e-02
-4.201699420809745789e-02
1.181931048631668091e-01
-6.347572803497314453e-02
-2.734942361712455750e-02
-5.805815383791923523e-02
8.021568506956100464e-02
6.429738365113735199e-03
-1.612793281674385071e-02
-1.274762442335486412e-03
-1.520331669598817825e-02
-8.155938121490180492e-05
-6.063275784254074097e-02
-7.647441327571868896e-02
4.215858876705169678e-02
5.996507592499256134e-03
-3.287962451577186584e-02
2.881674841046333313e-02
8.777637965977191925e-03
1.504163071513175964e-02
-1.042852476239204407e-01
-2.989693731069564819e-02
1.342709809541702271e-01
-2.186689339578151703e-02
-5.716864764690399170e-02
6.510554999113082886e-02
3.010974451899528503e-02
7.371848076581954956e-02
6.449200958013534546e-02
-5.816059559583663940e-02
-2.125689946115016937e-02
4.415136575698852539e-02
-5.755336582660675049e-02
-2.563889324665069580e-02
8.473139256238937378e-02
4.586046934127807617e-02
5.274775251746177673e-02
1.410426106303930283e-02
2.930974774062633514e-02
4.229083284735679626e-02
3.371764719486236572e-02
1.220603659749031067e-01
-5.293820425868034363e-02
-2.561007440090179443e-02
5.425730720162391663e-02
1.832367852330207825e-02
-3.584941849112510681e-02
4.743651300668716431e-02
7.575762271881103516e-02
6.596013158559799194e-02
-3.169974684715270996e-02
2.023586444556713104e-02
7.113618403673171997e-02
6.475668866187334061e-03
-4.060468077659606934e-02
4.780218377709388733e-02
-1.347465999424457550e-02
-6.197722628712654114e-02
1.605629920959472656e-02
-5.952854827046394348e-02
5.797434598207473755e-02
6.557278335094451904e-02
2.043849416077136993e-02
8.316549472510814667e-03
2.812126092612743378e-02
-2.634928794577717781e-03
-1.294800918549299240e-02
1.855809241533279419e-03
-2.283971197903156281e-02
-2.821616455912590027e-02
2.976219169795513153e-02
-3.253390640020370483e-02
-4.332225769758224487e-02
3.660058230161666870e-02
3.404431743547320366e-03
-3.282754123210906982e-02
-5.198134854435920715e-02
-8.288035541772842407e-02
2.614254504442214966e-02
4.205446317791938782e-02
-3.153673559427261353e-02
-1.457450091838836670e-01
1.209501102566719055e-01
4.320288822054862976e-02
1.868932391516864300e-03
-1.935433223843574524e-02
3.384365141391754150e-02
2.901590615510940552e-02
-6.794815883040428162e-03
-5.952336266636848450e-02
-2.991452440619468689e-02
9.058191440999507904e-03
-5.451814457774162292e-02
4.407280683517456055e-02
-1.073607876896858215e-01
-1.190350111573934555e-02
4.914535209536552429e-02
-1.299156248569488525e-02
-3.781548887491226196e-02
-5.585655570030212402e-02
-3.882220014929771423e-02
3.108857013285160065e-02
4.590127617120742798e-02
-7.989650964736938477e-02
-4.904747009277343750e-02
-5.867436155676841736e-02
-1.221430450677871704e-01
-1.015727669000625610e-01
-5.643487721681594849e-02
-6.036429107189178467e-02
-1.216017901897430420e-01
-1.090425625443458557e-01
-4.969334229826927185e-02
-2.044379711151123047e-02
3.096353076398372650e-02
-4.381541162729263306e-02
-7.149221003055572510e-02
1.681265048682689667e-02
1.229787617921829224e-02
7.165597379207611084e-02
1.756477728486061096e-02
3.103546239435672760e-02
-5.863432958722114563e-02
5.230145528912544250e-02
9.902549907565116882e-03
-1.039541512727737427e-01
-1.969211846590042114e-01
6.723844259977340698e-02
7.055521011352539062e-02
1.739453375339508057e-01
-1.462676972150802612e-01
1.033845990896224976e-01
2.045205086469650269e-01
6.681864708662033081e-02
2.513980865478515625e-01
4.247163832187652588e-01
2.426077425479888916e-01
2.944501936435699463e-01
-7.010998670011758804e-04
1.700823605060577393e-01
8.207261562347412109e-02
-2.197239995002746582e-01
-1.306693255901336670e-02
5.986399203538894653e-02
2.342245727777481079e-01
2.073065638542175293e-01
-2.210637032985687256e-01
3.332704678177833557e-02
3.359157964587211609e-02
-1.063658595085144043e-01
-1.152717694640159607e-02
1.805054396390914917e-01
1.754207462072372437e-01
-1.575648188591003418e-01
2.291672080755233765e-01
-3.071297332644462585e-02
-1.325644701719284058e-01
-5.271159112453460693e-02
1.733803898096084595e-01
5.666557699441909790e-02
9.137677960097789764e-03
-2.383687049150466919e-01
1.289493292570114136e-01
-6.300138682126998901e-02
4.562700167298316956e-03
-9.638395905494689941e-02
3.484435752034187317e-02
1.772250048816204071e-02
4.133066907525062561e-02
-2.063883692026138306e-01
-1.605493128299713135e-01
1.202586144208908081e-01
2.760260105133056641e-01
1.657151281833648682e-01
7.335133850574493408e-02
-1.860161125659942627e-01
-1.464692354202270508e-01
2.346013933420181274e-01
-1.277461946010589600e-01
-1.751141399145126343e-01
7.191392034292221069e-02
4.520170092582702637e-01
-3.872857615351676941e-02
3.541680797934532166e-02
1.211078744381666183e-02
2.789999842643737793e-01
-2.504652738571166992e-01
-1.159195974469184875e-01
-1.036913394927978516e-01
-8.224561810493469238e-02
-1.338601410388946533e-01
-2.111301571130752563e-02
-2.149944938719272614e-02
-8.945151418447494507e-02
-3.289635181427001953e-01
-3.041598796844482422e-01
-6.626143306493759155e-02
7.552109658718109131e-02
3.030437789857387543e-02
-1.427583210170269012e-02
-2.386889755725860596e-01
7.971272617578506470e-02
5.881276354193687439e-02
-1.044141724705696106e-01
1.691122055053710938e-01
1.180710867047309875e-01
-2.527159079909324646e-02
9.803527966141700745e-03
8.370143175125122070e-02
-1.730500906705856323e-02
-1.443596333265304565e-01
-2.503528445959091187e-02
-4.169685766100883484e-03
-1.679923832416534424e-01
-2.349099665880203247e-01
-1.106015890836715698e-01
5.641590803861618042e-03
-1.718539297580718994e-01
-1.501598805189132690e-01
-8.104296773672103882e-02
-1.470599919557571411e-01
-1.395907104015350342e-01
1.786092370748519897e-01
2.252546548843383789e-01
1.089143976569175720e-01
9.312699735164642334e-02
-1.712435856461524963e-02
-3.758016973733901978e-03
-4.879450798034667969e-02
-3.513020649552345276e-02
-1.979507803916931152e-01
-2.714542746543884277e-01
-1.678693853318691254e-02
2.093391865491867065e-01
-1.543575525283813477e-01
1.974015124142169952e-02
1.821359246969223022e-01
5.849104374647140503e-02
-9.069196134805679321e-02
6.370677798986434937e-02
3.096863627433776855e-02
-5.534773319959640503e-02
2.733774185180664062e-01
3.201096132397651672e-02
1.003336161375045776e-01
1.814514398574829102e-01
4.861246645450592041e-01
2.369732558727264404e-01
2.871901988983154297e-01
1.242055073380470276e-01
-3.417189419269561768e-01
-2.145929038524627686e-01
-3.794810548424720764e-02
-3.192722797393798828e-01
-5.872144363820552826e-03
-2.580343782901763916e-01
-2.310897856950759888e-01
-4.020785987377166748e-01
-8.369546383619308472e-02
-1.090188995003700256e-01
-1.637785322964191437e-02
2.661057747900485992e-02
-6.089429184794425964e-02
-1.924741715192794800e-01
1.478552469052374363e-03
-5.259878933429718018e-02
6.498765945434570312e-01
1.787190586328506470e-01
-8.886949717998504639e-02
-9.790806472301483154e-02
5.639960169792175293e-01
-1.746712066233158112e-02
-6.636776030063629150e-02
1.380700021982192993e-01
5.426733493804931641e-01
1.077262088656425476e-01
1.857870221138000488e-01
4.453164041042327881e-01
3.009019792079925537e-01
2.030281126499176025e-01
1.617110222578048706e-01
2.089533060789108276e-01
-3.760507404804229736e-01
-2.916863262653350830e-01
-4.127897918224334717e-01
3.547218814492225647e-02
-5.559213161468505859e-01
-3.626451790332794189e-01
-2.133230268955230713e-01
1.373806446790695190e-01
-9.560160338878631592e-02
-3.277234733104705811e-02
-5.587146803736686707e-02
-1.382534801959991455e-01
4.449348747730255127e-01
1.364027243107557297e-02
-3.274397552013397217e-02
7.518713176250457764e-02
-2.627317011356353760e-01
-3.688832744956016541e-02
4.592602327466011047e-02
3.543305397033691406e-02
-1.268759667873382568e-01
3.197374939918518066e-01
3.545015454292297363e-01
-1.997293233871459961e-01
6.317821796983480453e-03
1.582147479057312012e-01
3.279921114444732666e-01
-2.055855393409729004e-01
4.420018941164016724e-02
-1.906662061810493469e-02
-9.043276309967041016e-03
-3.504026234149932861e-01
-2.763692140579223633e-01
-1.066106855869293213e-01
-1.033055558800697327e-01
-4.518446326255798340e-01
-3.676134049892425537e-01
-8.815982192754745483e-02
-1.263327747583389282e-01
-2.649621367454528809e-01
-4.443698376417160034e-02
-2.412648871541023254e-02
-9.307066351175308228e-02
1.908529736101627350e-02
-4.116965532302856445e-01
-4.709845781326293945e-01
-8.467644453048706055e-01
-2.196490168571472168e-01
-6.328448653221130371e-03
1.356349140405654907e-01
3.837046623229980469e-01
-1.149155478924512863e-02
3.297930210828781128e-02
1.071940883994102478e-01
-2.426803708076477051e-01
-2.261760830879211426e-01
-3.509115874767303467e-01
1.413840204477310181e-01
3.974765539169311523e-02
2.709003984928131104e-01
-2.695525884628295898e-01
-1.741258651018142700e-01
-2.132524400949478149e-01
1.857115477323532104e-01
3.760069906711578369e-01
1.116375178098678589e-01
1.311320625245571136e-02
3.152345772832632065e-03
4.426631703972816467e-02
3.208163008093833923e-02
-2.445842772722244263e-01
-3.416331708431243896e-01
6.466528773307800293e-02
1.381671577692031860e-01
7.238883525133132935e-02
-1.229866035282611847e-02
1.744482070207595825e-01
9.880713373422622681e-02
1.602824330329895020e-01
1.582056432962417603e-01
-3.042989373207092285e-01
-4.639731049537658691e-01
-2.562173604965209961e-01
-2.362076193094253540e-01
-3.175595700740814209e-01
-3.923637568950653076e-01
1.564631611108779907e-02
2.082598581910133362e-02
-1.595430970191955566e-01
-1.118342056870460510e-01
-1.160923019051551819e-01
-1.960940212011337280e-01
-2.338142246007919312e-01
-2.429794333875179291e-02
-1.268700361251831055e-01
-2.070788145065307617e-01
7.678107172250747681e-02
1.616839468479156494e-01
-6.841268390417098999e-02
-1.903783679008483887e-01
-1.181588973850011826e-02
-1.593981869518756866e-02
-1.820160299539566040e-01
-2.231979370117187500e-01
-6.777272373437881470e-02
1.159199774265289307e-01
-3.725946694612503052e-02
-6.321690231561660767e-02
-3.375662267208099365e-01
-3.096122061833739281e-03
3.644486889243125916e-02
8.496686071157455444e-02
-3.454358503222465515e-02
-4.595777019858360291e-02
-1.684632003307342529e-01
2.399619435891509056e-03
-1.380726844072341919e-01
3.608316928148269653e-02
-2.470597997307777405e-02
1.040279958397150040e-02
-3.722762688994407654e-02
5.524305999279022217e-02
5.305722355842590332e-02
1.939653903245925903e-01
7.597378641366958618e-02
2.935180068016052246e-01
3.036317974328994751e-02
-1.762967854738235474e-01
-2.612866461277008057e-01
-1.517180353403091431e-01
1.086961999535560608e-01
2.417671829462051392e-01
-1.215685810893774033e-02
7.269570976495742798e-02
1.303378641605377197e-01
4.126157984137535095e-02
-3.275335207581520081e-02
2.772884070873260498e-02
3.107845783233642578e-02
7.178880274295806885e-02
6.902656704187393188e-02
1.715152859687805176e-01
1.557871252298355103e-01
9.479631483554840088e-02
-4.028126597404479980e-01
-9.833769500255584717e-02
-1.191330254077911377e-01
-2.295990884304046631e-01
-4.169361591339111328e-01
-1.348007917404174805e-01
1.429291367530822754e-01
2.528826519846916199e-02
-1.611157059669494629e-01
1.954490542411804199e-01
2.987476289272308350e-01
1.841145157814025879e-01
1.331868916749954224e-01
2.983701825141906738e-01
2.011529505252838135e-01
-7.706358097493648529e-03
-7.373861037194728851e-03
-8.387686312198638916e-02
-1.278323084115982056e-01
-9.123923629522323608e-02
-3.204789385199546814e-02
4.626018553972244263e-02
7.170896232128143311e-02
1.606923788785934448e-01
-3.848987165838479996e-03
1.212078407406806946e-01
3.803690671920776367e-01
1.453244239091873169e-01
6.705059856176376343e-02
-8.955694735050201416e-03
4.576895833015441895e-01
-3.262106776237487793e-01
1.645648479461669922e-01
-6.623342633247375488e-02
6.563629023730754852e-03
1.778204590082168579e-01
4.713568091392517090e-02
-1.198208630084991455e-01
-2.392039895057678223e-01
-9.188850969076156616e-02
-2.246028557419776917e-02
-1.358736753463745117e-01
-2.705108225345611572e-01
-1.347458064556121826e-01
1.554257981479167938e-02
-1.523030176758766174e-02
-1.353509426116943359e-01
-2.636151909828186035e-01
1.554210186004638672e-01
5.213947221636772156e-02
8.723631501197814941e-02
-2.572571337223052979e-01
-1.711112856864929199e-01
-3.532086685299873352e-02
-7.499147951602935791e-02
-1.484441012144088745e-01
-1.120335161685943604e-01
9.894205629825592041e-02
7.534575462341308594e-02
-2.032549120485782623e-02
-1.220938861370086670e-01
3.273721085861325264e-03
2.195950746536254883e-01
1.443606466054916382e-01
8.109679073095321655e-02
-3.614044189453125000e-02
-1.718392968177795410e-01
2.215331047773361206e-01
-9.358387440443038940e-02
-1.966766864061355591e-01
-2.175763100385665894e-01
1.082045361399650574e-01
-4.112848043441772461e-01
-1.293320655822753906e-01
-1.514562219381332397e-01
-4.413185641169548035e-02
-1.608007401227951050e-01
-1.311332881450653076e-01
-2.960863411426544189e-01
-2.028091251850128174e-01
4.529292881488800049e-02
1.645926684141159058e-01
-8.877903223037719727e-02
6.290624290704727173e-02
1.601569354534149170e-01
9.066216647624969482e-02
1.415837854146957397e-01
1.136367246508598328e-01
1.564061045646667480e-01
-1.163368150591850281e-01
5.998580250889062881e-03
-6.790155079215764999e-03
-4.187286645174026489e-02
-2.522111833095550537e-01
-1.547926962375640869e-01
-7.406688481569290161e-02
3.300612866878509521e-01
2.154072672128677368e-01
-8.256024681031703949e-03
2.078774869441986084e-01
1.699584722518920898e-02
4.226657375693321228e-02
1.556377261877059937e-01
1.225902885198593140e-01
5.026938393712043762e-02
2.274667322635650635e-01
2.093573212623596191e-01
1.697917133569717407e-01
2.227677106857299805e-01
1.918751895427703857e-01
-7.559168338775634766e-02
4.680353775620460510e-02
5.467207431793212891e-01
1.214659288525581360e-01
2.157696336507797241e-01
1.009549796581268311e-01
4.046286940574645996e-01
2.678604610264301300e-02
-8.129410445690155029e-02
1.524852514266967773e-01
2.735191583633422852e-01
5.731127038598060608e-02
-1.747281402349472046e-01
8.130355179309844971e-02
2.141802161931991577e-01
1.764752417802810669e-01
-1.358728557825088501e-01
-2.517285570502281189e-02
9.700942784547805786e-03
1.802496612071990967e-01
-1.341997683048248291e-01
2.601409554481506348e-01
-4.242955520749092102e-02
2.312032133340835571e-01
1.676144450902938843e-01
2.078629285097122192e-01
-2.849319204688072205e-02
3.672331571578979492e-02
1.855090111494064331e-01
1.374945044517517090e-01
-1.367823481559753418e-01
-5.741061642765998840e-02
1.786457374691963196e-02
2.460136823356151581e-02
-3.164744973182678223e-01
-1.630327701568603516e-01
-4.083366319537162781e-02
-5.670883134007453918e-02
-4.400772452354431152e-01
-2.044972181320190430e-01
2.408654391765594482e-01
2.966787815093994141e-01
-1.874892562627792358e-01
-1.095597371459007263e-01
2.904833257198333740e-01
2.543073892593383789e-01
7.273697853088378906e-02
-5.513786152005195618e-02
-3.322487324476242065e-02
4.746946506202220917e-03
1.759156137704849243e-01
1.673583239316940308e-01
-5.278810393065214157e-03
3.912319540977478027e-01
-7.427068799734115601e-02
1.050813719630241394e-01
2.294376194477081299e-01
2.582255005836486816e-01
3.154349699616432190e-02
3.161473274230957031e-01
2.671416997909545898e-01
2.864551730453968048e-02
2.577575445175170898e-01
2.813715338706970215e-01
2.040735781192779541e-01
5.858753249049186707e-02
-1.898742318153381348e-01
-1.512797772884368896e-01
-1.066248118877410889e-01
1.933413594961166382e-01
-6.536109000444412231e-02
-3.840419054031372070e-01
-1.988411843776702881e-01
5.605758726596832275e-02
-6.046598032116889954e-02
-6.039378792047500610e-02
-2.571611106395721436e-01
6.470591574907302856e-02
1.135710626840591431e-01
3.764790296554565430e-02
-2.079724567010998726e-03
2.770839631557464600e-01
1.443905234336853027e-01
1.798446178436279297e-01
1.010625585913658142e-01
2.315763086080551147e-01
8.625630289316177368e-02
-3.827899321913719177e-02
-8.124987781047821045e-02
5.744170863181352615e-03
1.839745342731475830e-01
-3.783643245697021484e-02
-7.631305605173110962e-02
7.317119743674993515e-03
1.612180173397064209e-01
-3.552483394742012024e-02
-1.110860705375671387e-01
-1.774688810110092163e-01
9.337105602025985718e-02
3.214670717716217041e-02
-2.936783060431480408e-02
-7.254856824874877930e-02
1.368113458156585693e-01
1.166241839528083801e-01
5.515800416469573975e-02
-1.824274659156799316e-01
5.492794513702392578e-02
1.004683524370193481e-01
3.747513145208358765e-02
-4.384874105453491211e-01
1.351256817579269409e-01
2.830088734626770020e-01
1.024468988180160522e-01
-5.496127605438232422e-01
-1.092624813318252563e-01
1.005580350756645203e-01
-1.086431890726089478e-01
-7.365482300519943237e-02
6.315095722675323486e-02
1.077045872807502747e-01
-5.080294795334339142e-03
-2.175234407186508179e-01
-9.238476306200027466e-02
-1.617007702589035034e-01
3.776739910244941711e-02
-3.600864857435226440e-02
-7.946076244115829468e-02
-2.549138665199279785e-01
2.500510811805725098e-01
4.561505019664764404e-01
-3.246747255325317383e-01
-2.558937668800354004e-01
-3.725953400135040283e-01
2.103941738605499268e-01
-1.338168531656265259e-01
-2.422024011611938477e-01
-7.096184045076370239e-02
5.549720525741577148e-01
-4.468159284442663193e-03
-8.739729970693588257e-02
3.337965905666351318e-02
2.181270271539688110e-01
-1.382710486650466919e-01
-1.004544645547866821e-01
-5.295185744762420654e-02
-1.345484256744384766e-01
-2.245828360319137573e-01
3.393141031265258789e-01
1.857041865587234497e-01
-2.923204600811004639e-01
1.514902412891387939e-01
3.715247213840484619e-01
1.025213599205017090e-01
-1.759590953588485718e-01
3.397500813007354736e-01
5.052472651004791260e-02
3.401797264814376831e-02
6.053222343325614929e-02
4.825004041194915771e-01
6.990295648574829102e-02
4.570720791816711426e-01
5.628730058670043945e-01
-1.464945822954177856e-01
-4.293381795287132263e-02
-1.275898329913616180e-02
2.724377624690532684e-02
4.107766970992088318e-02
1.308307498693466187e-01
8.955970406532287598e-02
-1.277082562446594238e-01
1.527720838785171509e-01
9.650537371635437012e-02
3.052975423634052277e-02
-2.371076494455337524e-01
-6.031157076358795166e-02
2.957582473754882812e-02
-9.696098417043685913e-02
-4.862820357084274292e-02
-3.513984978199005127e-01
-3.418823182582855225e-01
-1.333328634500503540e-01
4.426464140415191650e-01
4.544463008642196655e-02
-1.172945424914360046e-01
-1.583588682115077972e-02
2.523165941238403320e-01
1.531700976192951202e-02
-6.633416563272476196e-02
-1.892835833132266998e-02
7.874940335750579834e-02
-1.513318531215190887e-02
-5.272922292351722717e-02
-9.489740431308746338e-02
2.349669486284255981e-02
-6.425265669822692871e-01
-8.431687951087951660e-02
-1.520738303661346436e-01
-7.102379202842712402e-02
-1.792418360710144043e-01
-5.306934937834739685e-02
3.209610236808657646e-03
4.109844565391540527e-02
1.130144298076629639e-01
1.767217367887496948e-01
3.253361210227012634e-02
5.933989584445953369e-02
1.915988028049468994e-01
1.649844497442245483e-01
-1.784715102985501289e-03
2.852001227438449860e-02
1.837162524461746216e-01
3.196337819099426270e-02
2.007542848587036133e-01
2.610733807086944580e-01
-2.418978661298751831e-01
4.336987063288688660e-02
1.763625890016555786e-01
2.046310007572174072e-01
-6.444778442382812500e-01
-7.208588719367980957e-02
-9.182992577552795410e-02
-1.168516799807548523e-01
-1.203028019517660141e-02
-9.776962921023368835e-03
1.874170452356338501e-01
2.901945114135742188e-01
-1.292485296726226807e-01
1.078640222549438477e-01
4.298088327050209045e-02
-9.336659312248229980e-02
3.034213185310363770e-01
-1.511961817741394043e-01
-1.107131615281105042e-01
-3.310793936252593994e-01
-3.959006816148757935e-02
-1.872546374797821045e-01
6.599760800600051880e-02
-2.074696123600006104e-01
8.228643983602523804e-02
-1.105655431747436523e-01
6.681008636951446533e-02
-1.676213294267654419e-01
-4.364129900932312012e-01
-1.360061764717102051e-01
-1.271646022796630859e-01
-1.503225415945053101e-01
-3.375441730022430420e-01
-1.657580882310867310e-01
-1.255276333540678024e-02
3.229783475399017334e-01
-1.927339583635330200e-01
-1.837954670190811157e-01
-3.581385016441345215e-01
4.728379547595977783e-01
4.398355185985565186e-01
1.280828379094600677e-02
1.951734721660614014e-01
7.314302325248718262e-01
-5.963890999555587769e-02
-6.748677492141723633e-01
-2.863753214478492737e-02
7.353125140070915222e-03
-5.745513439178466797e-01
-5.067371129989624023e-01
-2.311272621154785156e-01
-4.842067882418632507e-02
-5.542649626731872559e-01
-8.410185575485229492e-02
-1.261735707521438599e-01
-1.568935066461563110e-01
-4.257315695285797119e-01
-6.245697848498821259e-03
-1.124672070145606995e-01
-6.753652542829513550e-02
-7.484860420227050781e-01
-4.175911545753479004e-01
-1.795815825462341309e-01
-3.438467085361480713e-01
-3.078349828720092773e-01
-2.853512391448020935e-02
-6.829927209764719009e-03
-2.471023984253406525e-02
-1.037680357694625854e-01
-8.918180316686630249e-02
8.959260582923889160e-02
1.606472879648208618e-01
-1.389506757259368896e-01
-2.736053466796875000e-01
1.579947322607040405e-01
3.711489140987396240e-01
2.626317441463470459e-01
9.793122112751007080e-02
4.124056920409202576e-02
-1.040327325463294983e-01
-9.522677958011627197e-02
3.847236931324005127e-02
-1.331353187561035156e-01
-1.354967057704925537e-01
-3.662824258208274841e-02
-1.507978886365890503e-01
-1.205653250217437744e-01
1.383672803640365601e-01
8.934110403060913086e-02
-3.324026763439178467e-01
-6.369183957576751709e-02
2.206915915012359619e-01
-1.421330869197845459e-01
1.372854877263307571e-02
9.642498940229415894e-02
1.222447380423545837e-01
4.480617120862007141e-02
2.600993812084197998e-01
1.108127534389495850e-01
1.638170480728149414e-01
-7.493307441473007202e-02
7.554087042808532715e-02
3.181138932704925537e-01
2.721367180347442627e-01
-4.753704071044921875e-01
-1.658293306827545166e-01
3.461247384548187256e-01
1.715910732746124268e-01
1.303079128265380859e-01
2.226960286498069763e-02
2.461129128932952881e-01
-1.788376457989215851e-02
6.758788973093032837e-02
1.313546299934387207e-01
7.592230290174484253e-02
2.236744761466979980e-01
-4.271399974822998047e-02
-1.070365216583013535e-02
2.220750972628593445e-02
5.017168074846267700e-02
-1.091637928038835526e-02
-1.605352573096752167e-02
6.621898710727691650e-02
6.037245038896799088e-03
-1.135171949863433838e-02
-1.205671653151512146e-01
-4.466479122638702393e-01
1.751097664237022400e-02
-2.980153560638427734e-01
-2.331773042678833008e-01
-1.573052257299423218e-01
6.236470118165016174e-02
-1.049285829067230225e-01
-1.840666085481643677e-01
-2.113975137472152710e-01
-1.474654227495193481e-01
1.959834396839141846e-01
-2.363152801990509033e-02
-1.752190738916397095e-01
-1.065296009182929993e-01
-1.896824985742568970e-01
8.213877677917480469e-02
9.547369182109832764e-02
2.025871127843856812e-01
-1.448335796594619751e-01
-3.672639653086662292e-02
8.456458337604999542e-03
1.480374932289123535e-01
-2.275592386722564697e-01
-2.421918362379074097e-01
-6.807864904403686523e-01
-2.368435859680175781e-01
-4.141232669353485107e-01
-3.704710602760314941e-01
-3.740266263484954834e-01
-3.010001480579376221e-01
1.504349056631326675e-02
-4.369041323661804199e-02
2.587554156780242920e-01
4.023242890834808350e-01
2.075594365596771240e-01
9.114055335521697998e-02
1.207489371299743652e-01
6.836166977882385254e-02
2.197668403387069702e-01
1.125139892101287842e-01
-7.199064642190933228e-02
-1.667587459087371826e-01
3.295581936836242676e-01
3.284017443656921387e-01
7.169827818870544434e-03
-3.122366964817047119e-01
2.615391612052917480e-01
2.808968424797058105e-01
1.645794361829757690e-01
-1.063673272728919983e-01
1.636750996112823486e-01
3.502410054206848145e-01
4.098287522792816162e-01
1.393614411354064941e-01
1.427459418773651123e-01
1.584789454936981201e-01
2.301487326622009277e-01
2.528659403324127197e-01
-8.061403781175613403e-02
-1.003089398145675659e-01
-1.528332382440567017e-01
1.198032572865486145e-01
-3.194320201873779297e-02
-2.318776249885559082e-01
-2.023969143629074097e-01
2.937640249729156494e-01
-9.444774687290191650e-02
-1.393635123968124390e-01
-5.938451737165451050e-02
-8.963447809219360352e-02
-1.404220014810562134e-01
-3.491623103618621826e-01
-1.970761567354202271e-01
-2.740873098373413086e-01
-1.896588653326034546e-01
-7.320492714643478394e-02
1.855504065752029419e-01
-4.512899741530418396e-02
1.709126681089401245e-01
2.938740141689777374e-02
1.469983160495758057e-01
-1.645081862807273865e-02
-2.835887670516967773e-01
2.003386914730072021e-01
2.428315766155719757e-02
-8.367420732975006104e-02
-9.310808032751083374e-02
-4.338053613901138306e-02
-4.351539537310600281e-02
-1.800579875707626343e-01
-4.911857843399047852e-01
5.414768308401107788e-02
1.132214218378067017e-01
8.879812061786651611e-02
1.829386800527572632e-01
1.256312429904937744e-01
1.969203725457191467e-02
9.225647151470184326e-02
9.135904163122177124e-02
1.609875708818435669e-01
9.908644109964370728e-02
1.703878045082092285e-01
1.108693107962608337e-01
1.392437070608139038e-01
1.320270597934722900e-01
2.007880657911300659e-01
1.412942409515380859e-01
8.766166865825653076e-02
2.034043371677398682e-01
1.972986310720443726e-01
2.680750489234924316e-01
5.240338388830423355e-03
-3.200857341289520264e-02
5.457634851336479187e-02
-9.528562426567077637e-02
-1.757084280252456665e-01
-1.423838138580322266e-01
5.971964448690414429e-02
-1.216973364353179932e-01
-1.792560666799545288e-01
-1.452973335981369019e-01
-1.347085237503051758e-01
-5.983576923608779907e-02
-6.016666442155838013e-02
1.009529754519462585e-01
4.037408158183097839e-02
-5.285532027482986450e-02
-2.878646254539489746e-01
-6.965535134077072144e-02
1.104302033782005310e-01
8.752956986427307129e-02
-1.436007469892501831e-01
-6.874847412109375000e-02
8.252116851508617401e-03
-1.703946590423583984e-01
-2.262788414955139160e-01
-3.523149490356445312e-01
-2.581330239772796631e-01
2.229708731174468994e-01
4.791181907057762146e-02
-1.092602759599685669e-01
-2.770424187183380127e-01
-1.947712451219558716e-01
-4.000661969184875488e-01
-2.374624609947204590e-01
5.556362122297286987e-02
-9.483697265386581421e-02
-4.175498187541961670e-01
-1.795636266469955444e-01
1.796607524156570435e-01
-5.076189339160919189e-02
-1.064946278929710388e-01
-1.518301814794540405e-01
-2.104669064283370972e-02
-1.533128768205642700e-01
1.216003522276878357e-01
2.070280462503433228e-01
9.259147197008132935e-02
1.900867819786071777e-01
-3.931425809860229492e-01
-1.001356169581413269e-01
3.443225845694541931e-02
-3.536414820700883865e-03
6.778974086046218872e-03
-1.273844689130783081e-01
-2.629019021987915039e-01
-2.022698372602462769e-01
7.973618060350418091e-02
-1.428370922803878784e-01
-1.248320117592811584e-01
7.973781973123550415e-02
3.262569904327392578e-01
2.684399783611297607e-01
-2.727977000176906586e-02
2.855506241321563721e-01
1.424111872911453247e-01
2.044778615236282349e-01
-8.457934856414794922e-02
2.956954836845397949e-01
9.050947427749633789e-02
3.265495970845222473e-02
3.969646617770195007e-02
9.303579479455947876e-02
-9.379852563142776489e-02
6.707776337862014771e-02
8.922665566205978394e-02
7.915668189525604248e-02
-1.831962913274765015e-02
2.670831046998500824e-02
8.993464708328247070e-02
-1.034263148903846741e-01
-6.180152893066406250e-01
-4.831465184688568115e-01
-8.975634723901748657e-02
-9.122574329376220703e-02
-4.056204855442047119e-01
-2.733026444911956787e-01
2.312595397233963013e-02
8.405131846666336060e-02
-4.086519777774810791e-02
-2.930387556552886963e-01
-4.559231176972389221e-02
1.747613698244094849e-01
2.115813456475734711e-02
8.253720588982105255e-03
2.771381735801696777e-01
-1.443933099508285522e-01
-4.930725693702697754e-02
-1.608261652290821075e-02
-2.382978983223438263e-02
9.025988727807998657e-02
9.255491197109222412e-02
3.158255666494369507e-02
-1.163275763392448425e-01
-1.745602786540985107e-01
3.785698860883712769e-02
-2.891027741134166718e-02
-1.532866340130567551e-02
-1.800869256258010864e-01
5.967427045106887817e-02
-1.615459024906158447e-01
-2.077416479587554932e-01
-5.937088131904602051e-01
-2.249805033206939697e-01
-1.002524606883525848e-02
-1.241245493292808533e-01
-1.503546237945556641e-01
-3.988609015941619873e-01
-2.189022600650787354e-01
-7.361751049757003784e-02
-8.961854875087738037e-02
-3.703328371047973633e-01
-4.586158394813537598e-01
-8.690918236970901489e-02
-2.672515623271465302e-02
-9.896524995565414429e-02
4.682407900691032410e-02
1.285746991634368896e-01
-1.871795058250427246e-01
-1.901520192623138428e-01
-6.255646795034408569e-02
-2.959533333778381348e-01
-4.358889535069465637e-02
-1.992573961615562439e-02
9.945867955684661865e-02
-1.968464851379394531e-01
-3.418569639325141907e-02
-1.311872601509094238e-01
9.964185208082199097e-02
1.767874956130981445e-01
-2.670119404792785645e-01
-1.867335140705108643e-01
-1.536903902888298035e-02
7.245030999183654785e-02
1.237607076764106750e-01
1.532330811023712158e-01
1.934956759214401245e-01
-5.240955203771591187e-02
3.246572017669677734e-01
1.281305253505706787e-01
1.103465333580970764e-01
6.999545544385910034e-02
1.242099553346633911e-01
3.988547623157501221e-02
-5.901806056499481201e-02
4.221909120678901672e-02
-1.935753971338272095e-02
-1.349785327911376953e-01
-1.405847668647766113e-01
-5.393894389271736145e-02
9.063736349344253540e-02
4.844307005405426025e-01
3.770865201950073242e-01
3.153731822967529297e-01
1.376955956220626831e-01
1.875985711812973022e-01
2.060751765966415405e-01
1.623509079217910767e-01
-5.335593968629837036e-02
4.480081498622894287e-01
1.994719505310058594e-01
-2.309879660606384277e-01
-3.166476786136627197e-01
1.870602220296859741e-01
1.506281271576881409e-02
-2.342294007539749146e-01
6.763774901628494263e-02
9.625374525785446167e-02
5.709513276815414429e-02
1.287546008825302124e-01
3.526490926742553711e-02
1.280784606933593750e-01
7.428520172834396362e-02
1.396048665046691895e-01
-1.162704154849052429e-01
-1.465825140476226807e-01
-1.222217921167612076e-02
5.522272735834121704e-02
-5.291064083576202393e-02
-4.252172261476516724e-02
9.834782779216766357e-02
2.064078599214553833e-01
-1.596184670925140381e-01
-3.681464791297912598e-01
-2.878901958465576172e-01
-2.534933984279632568e-01
5.432372912764549255e-03
-2.640159726142883301e-01
-1.032222807407379150e-01
1.031076163053512573e-01
-4.801761358976364136e-02
-2.331696748733520508e-01
-7.889334112405776978e-03
1.446833908557891846e-01
-2.140315994620323181e-02
-4.464488103985786438e-02
1.844915598630905151e-01
3.816000521183013916e-01
-3.101068139076232910e-01
7.130062580108642578e-02
-4.849268123507499695e-03
2.468695938587188721e-01
-2.526884526014328003e-02
-1.543799880892038345e-02
-4.494846239686012268e-02
8.603936992585659027e-03
-5.091311037540435791e-02
-1.429082006216049194e-01
-2.959717065095901489e-02
-7.738605886697769165e-02
-1.164908185601234436e-01
-1.288813352584838867e-01
5.004248395562171936e-02
-6.882330030202865601e-02
8.802069723606109619e-02
-2.153863757848739624e-01
1.109175309538841248e-01
1.406717449426651001e-01
2.408198118209838867e-01
1.722481846809387207e-01
8.648944646120071411e-02
-3.093008510768413544e-02
4.059092402458190918e-01
1.612567454576492310e-01
1.057514268904924393e-02
-1.079583019018173218e-01
1.279310435056686401e-01
-7.077786326408386230e-02
-2.444447576999664307e-01
