-1.714170724153518677e-02
1.168486699461936951e-01
5.113379284739494324e-02
4.890209808945655823e-02
-8.869941532611846924e-02
8.757121860980987549e-02
2.120318450033664703e-02
8.990027010440826416e-02
2.716305851936340332e-01
-1.211316138505935669e-02
3.865614533424377441e-02
1.297238618135452271e-01
1.588808447122573853e-01
-1.395995318889617920e-01
-1.067478582262992859e-02
-1.050101667642593384e-01
9.438634663820266724e-02
2.340709567070007324e-01
1.890882551670074463e-01
-1.121555194258689880e-01
1.492019891738891602e-01
-2.645973861217498779e-02
1.161879748106002808e-01
4.241338372230529785e-02
-7.029814273118972778e-02
4.661420360207557678e-03
-1.306212246417999268e-01
1.561313420534133911e-01
-6.157362088561058044e-02
-1.474374812096357346e-02
-3.464118242263793945e-01
-3.576287627220153809e-02
1.197633743286132812e-01
1.502962708473205566e-01
1.599796563386917114e-01
-4.617761373519897461e-01
-2.005721479654312134e-01
-5.963100586086511612e-03
1.221864968538284302e-01
-8.470250293612480164e-03
-4.127880334854125977e-01
-1.685153692960739136e-01
4.757553339004516602e-03
-5.079864710569381714e-02
6.086692214012145996e-03
-1.786023974418640137e-01
-4.669719561934471130e-02
-3.529562056064605713e-02
1.035823207348585129e-02
5.526752769947052002e-02
-1.156877800822257996e-01
1.888117194175720215e-01
1.949995905160903931e-01
-6.050397157669067383e-01
-5.355949997901916504e-01
1.722370833158493042e-01
-2.108125388622283936e-01
1.365466713905334473e-01
-6.170604750514030457e-02
-3.670451343059539795e-01
7.197210565209388733e-03
-6.998623162508010864e-02
-2.565459581092000008e-03
3.823094367980957031e-01
4.108871221542358398e-01
-3.399283438920974731e-02
-3.677319362759590149e-02
-5.912667885422706604e-02
6.268578022718429565e-02
-4.130720719695091248e-02
6.448545306921005249e-02
-2.544339187443256378e-02
-2.571567595005035400e-01
1.335167139768600464e-01
1.522850543260574341e-01
-1.133045181632041931e-01
-3.507342636585235596e-01
2.869810760021209717e-01
2.133309543132781982e-01
-1.006516292691230774e-01
-4.621281623840332031e-01
2.002234607934951782e-01
2.110513448715209961e-01
2.574865818023681641e-01
-1.112802028656005859e-01
-1.183634717017412186e-02
3.391768038272857666e-01
3.677631616592407227e-01
-1.379197277128696442e-02
-3.433191180229187012e-01
1.954184323549270630e-01
6.130450591444969177e-02
1.299118101596832275e-01
-1.886370778083801270e-02
-4.056278467178344727e-01
1.983469128608703613e-01
1.143052428960800171e-01
8.338139951229095459e-02
-2.041878402233123779e-01
-3.353826403617858887e-01
2.691244520246982574e-02
-2.123054862022399902e-01
-4.588409066200256348e-01
1.880983412265777588e-01
3.836342692375183105e-01
-8.482891321182250977e-02
-1.547375321388244629e-01
-4.161098897457122803e-01
4.544778168201446533e-01
9.478145837783813477e-02
4.107555374503135681e-03
-5.192054435610771179e-03
-3.174327909946441650e-01
4.360593855381011963e-01
-2.872508578002452850e-02
-5.835369229316711426e-02
8.858488872647285461e-03
-3.914660513401031494e-01
1.928007006645202637e-01
2.022638022899627686e-01
2.348986081779003143e-02
-6.203471869230270386e-02
-4.765706360340118408e-01
3.362261354923248291e-01
1.838208884000778198e-01
1.700282841920852661e-01
1.332469731569290161e-01
2.912970185279846191e-01
2.171745598316192627e-01
2.247738838195800781e-01
-2.580142579972743988e-02
-2.972149476408958435e-02
2.413723319768905640e-01
1.878967881202697754e-01
5.464884638786315918e-02
-4.224763438105583191e-02
2.238756045699119568e-02
-1.908103972673416138e-01
-2.374028563499450684e-01
-3.095397055149078369e-01
2.266451530158519745e-02
-1.368850916624069214e-01
-1.228281632065773010e-01
-4.146332740783691406e-01
-2.251799404621124268e-01
-1.038605272769927979e-01
-2.199603617191314697e-01
-4.155836701393127441e-01
-2.740798294544219971e-01
-4.967861250042915344e-02
-1.883105337619781494e-01
-2.089062184095382690e-01
-3.807634115219116211e-01
-3.275891840457916260e-01
1.027998849749565125e-01
-5.256720259785652161e-02
-2.371624857187271118e-01
-4.240823388099670410e-01
-1.789381913840770721e-02
1.641663163900375366e-02
7.138762623071670532e-02
1.580467969179153442e-01
1.819572150707244873e-01
-8.782627433538436890e-02
-5.664968118071556091e-02
1.297790408134460449e-01
2.481546401977539062e-01
1.444797664880752563e-01
4.313746094703674316e-02
1.554160267114639282e-01
1.699693948030471802e-01
5.181872099637985229e-02
4.600127637386322021e-01
5.442460626363754272e-02
1.993854297325015068e-03
-2.630105800926685333e-02
-3.577040135860443115e-01
2.721962630748748779e-01
2.656453251838684082e-01
-8.461699634790420532e-02
-2.466150000691413879e-02
-5.618909001350402832e-01
3.491820991039276123e-01
1.923273950815200806e-01
1.081568822264671326e-01
-1.178799942135810852e-01
-3.684605360031127930e-01
1.555771529674530029e-01
2.494707852602005005e-01
8.586990088224411011e-02
-2.542668282985687256e-01
-3.305974900722503662e-01
2.749440371990203857e-01
2.829528450965881348e-01
-1.313365157693624496e-02
-2.473088949918746948e-01
-2.564984560012817383e-01
1.076673343777656555e-01
3.779495954513549805e-01
-4.021910205483436584e-02
