-9.142542630434036255e-02
3.144285082817077637e-02
-2.037086933851242065e-01
-1.786320507526397705e-01
2.396927624940872192e-01
-3.030480444431304932e-01
-3.932353556156158447e-01
-1.074126586318016052e-01
-8.164792321622371674e-03
1.948484927415847778e-01
1.623743176460266113e-01
2.091332226991653442e-01
-5.310047864913940430e-01
3.158869594335556030e-02
-1.366228163242340088e-01
1.353902816772460938e-01
8.734856545925140381e-02
-4.219234585762023926e-01
1.276364317163825035e-03
-1.820927858352661133e-01
-1.972422003746032715e-01
-3.800984323024749756e-01
1.314579248428344727e-01
-4.119107425212860107e-01
-2.760755419731140137e-01
-1.556998193264007568e-01
-2.875319421291351318e-01
2.293610572814941406e-01
-9.039986133575439453e-02
-4.918978810310363770e-01
1.762304157018661499e-01
1.171628907322883606e-01
1.576497107744216919e-01
-2.417305707931518555e-01
-2.374185919761657715e-01
1.659091114997863770e-01
1.054100766777992249e-01
2.281500399112701416e-01
-3.859167993068695068e-01
1.169131919741630554e-01
-5.378613471984863281e-01
-3.234273493289947510e-01
-3.079865686595439911e-02
1.105455160140991211e-01
2.198047339916229248e-01
-3.226924538612365723e-01
-2.267535626888275146e-01
1.995105147361755371e-01
-3.068424463272094727e-01
2.893402613699436188e-02
1.726136654615402222e-01
1.531360596418380737e-01
-2.399514913558959961e-01
-2.936578094959259033e-01
7.645253837108612061e-02
-2.130460143089294434e-01
2.615524828433990479e-01
-1.752997338771820068e-01
-3.487595617771148682e-01
-2.996796369552612305e-01
2.565576732158660889e-01
2.119998633861541748e-01
9.736645966768264771e-03
-3.480272367596626282e-02
1.218116581439971924e-01
-1.826601624488830566e-01
1.374451965093612671e-01
-2.179767340421676636e-01
9.299986809492111206e-02
-1.220665872097015381e-01
1.259446889162063599e-01
-3.240414857864379883e-01
1.418110281229019165e-01
1.205022558569908142e-01
-3.393388986587524414e-01
-4.206127778161317110e-04
-1.437721550464630127e-01
1.877615153789520264e-01
-2.394666895270347595e-02
-3.671379387378692627e-01
1.254457533359527588e-01
2.644675374031066895e-01
-3.603290319442749023e-01
1.947051733732223511e-01
-3.355801999568939209e-01
-2.390791177749633789e-01
2.198531180620193481e-01
1.481005549430847168e-01
2.198175787925720215e-01
1.006531529128551483e-02
-2.698965966701507568e-01
1.614322364330291748e-01
2.190335541963577271e-01
-2.379375100135803223e-01
9.146604686975479126e-02
1.660597473382949829e-01
-3.233364820480346680e-01
-2.533773779869079590e-01
3.079271018505096436e-01
3.294586837291717529e-01
2.000036537647247314e-01
-5.096828341484069824e-01
4.334115982055664062e-01
-3.986961543560028076e-01
6.317164003849029541e-02
-3.162839710712432861e-01
-1.501167751848697662e-02
-3.941487073898315430e-01
1.413980126380920410e-01
-1.796549884602427483e-03
-3.771192729473114014e-01
2.357615679502487183e-01
-4.476622641086578369e-01
2.442687153816223145e-01
3.449166938662528992e-02
-5.325726270675659180e-01
-2.482202947139739990e-01
-3.468277454376220703e-01
-3.445664942264556885e-01
-3.007136285305023193e-01
-1.960854679346084595e-01
1.904547512531280518e-01
2.616761028766632080e-01
-3.100129067897796631e-01
-2.188577204942703247e-01
-5.891727209091186523e-01
-2.966924011707305908e-01
-4.828257262706756592e-01
1.683223992586135864e-01
-2.975659072399139404e-01
2.265066355466842651e-01
-3.573785126209259033e-01
-4.756832718849182129e-01
3.376101553440093994e-01
1.656763404607772827e-01
-4.168064296245574951e-01
1.880286931991577148e-01
2.617030143737792969e-01
-2.961316704750061035e-01
-3.597669303417205811e-01
2.979819178581237793e-01
2.446125298738479614e-01
-4.934197366237640381e-01
-4.057617485523223877e-01
3.765826523303985596e-01
-4.536027312278747559e-01
-3.109164834022521973e-01
-3.007579445838928223e-01
3.437620103359222412e-01
-2.150479257106781006e-01
4.763451591134071350e-02
-1.428508572280406952e-02
2.860566079616546631e-01
-3.847163319587707520e-01
2.853524684906005859e-01
-3.662240207195281982e-01
1.736069470643997192e-01
3.105717897415161133e-01
-2.901936769485473633e-01
2.416213750839233398e-01
2.141416221857070923e-01
3.936346173286437988e-01
-2.388170957565307617e-01
4.745577871799468994e-01
-2.976385056972503662e-01
-4.399066567420959473e-01
-3.061353266239166260e-01
4.913997650146484375e-01
-3.191047161817550659e-02
1.988404691219329834e-01
-6.400436758995056152e-01
-2.541305124759674072e-01
-3.053546845912933350e-01
-4.488206207752227783e-01
-2.097814381122589111e-01
-2.789431810379028320e-01
-3.672840595245361328e-01
-3.178221583366394043e-01
3.922159969806671143e-01
-3.986044824123382568e-01
2.060333043336868286e-01
-3.213292062282562256e-01
2.374867349863052368e-01
1.050302758812904358e-01
2.310373485088348389e-01
1.195422559976577759e-01
1.823884844779968262e-01
1.106619983911514282e-01
9.031100571155548096e-02
1.659953147172927856e-01
-4.493849277496337891e-01
-2.357760220766067505e-01
-2.369577884674072266e-01
1.539423912763595581e-01
-4.734502732753753662e-01
-3.684945106506347656e-01
-2.371945828199386597e-01
2.582728564739227295e-01
-3.776833415031433105e-02
-6.463442444801330566e-01
-6.071302294731140137e-02
-4.310674965381622314e-01
1.771768182516098022e-01
7.897245883941650391e-02
2.138613611459732056e-01
2.810300700366497040e-02
7.219830155372619629e-02
-2.293905764818191528e-01
2.173734009265899658e-01
-2.448809146881103516e-01
-2.445585578680038452e-01
-1.519134640693664551e-01
-1.042201071977615356e-01
1.122329682111740112e-01
1.101635247468948364e-01
-1.552702039480209351e-01
2.064364105463027954e-01
-2.275848388671875000e-01
3.009473681449890137e-01
7.475237362086772919e-03
-4.961978793144226074e-01
-2.818543314933776855e-01
-2.795161604881286621e-01
3.354429081082344055e-02
-2.606523334980010986e-01
-2.548031806945800781e-01
-4.728925824165344238e-01
-4.728290140628814697e-01
1.941836997866630554e-02
-3.598303496837615967e-01
8.325640857219696045e-02
1.779895424842834473e-01
1.915667653083801270e-01
-2.394035607576370239e-01
7.161254435777664185e-02
-1.537081301212310791e-01
2.205698043107986450e-01
9.236530959606170654e-02
1.672674119472503662e-01
1.645851433277130127e-01
2.986535243690013885e-02
-7.527375221252441406e-02
3.338778018951416016e-01
2.966584265232086182e-01
-1.128451079130172729e-01
-3.230408430099487305e-01
-4.443024694919586182e-01
8.120150305330753326e-03
-4.244929850101470947e-01
3.540009856224060059e-01
-2.927809059619903564e-01
1.965011954307556152e-01
-4.124787077307701111e-02
2.206186354160308838e-01
-7.427516579627990723e-02
3.047031164169311523e-01
-3.681255877017974854e-01
-3.788994252681732178e-01
1.711033731698989868e-01
-4.596270024776458740e-01
-3.278501331806182861e-01
-1.484963297843933105e-01
-3.562522232532501221e-01
3.775447257794439793e-04
-3.730500862002372742e-02
-2.090730220079421997e-01
2.749419510364532471e-01
-4.146351814270019531e-01
1.869939416646957397e-01
-5.081838741898536682e-02
2.050419300794601440e-01
-7.083240151405334473e-01
2.789138853549957275e-01
-2.843197584152221680e-01
-5.235942602157592773e-01
7.611673325300216675e-02
-3.468349948525428772e-02
2.008392661809921265e-01
-7.053045183420181274e-02
2.105863392353057861e-01
1.290458589792251587e-01
2.734327875077724457e-02
2.118408493697643280e-02
1.396964788436889648e-01
-3.272528946399688721e-01
-1.224929243326187134e-01
-2.590301036834716797e-01
1.112929135560989380e-01
-8.023935556411743164e-02
-3.897978663444519043e-01
-2.817001044750213623e-01
-2.571593225002288818e-01
1.492697447538375854e-01
-1.718842834234237671e-01
-3.066233694553375244e-01
-1.985352337360382080e-01
5.038287490606307983e-02
1.106020882725715637e-01
-1.392160309478640556e-03
-1.083531975746154785e-01
-3.233715891838073730e-02
1.449240650981664658e-02
3.177641034126281738e-01
1.317866593599319458e-01
1.014804467558860779e-01
1.260347664356231689e-01
1.047752127051353455e-01
-5.300692841410636902e-02
2.415546476840972900e-01
1.211538538336753845e-01
1.424235552549362183e-01
-1.954996287822723389e-01
-2.474599182605743408e-01
2.250437587499618530e-01
-4.445775449275970459e-01
2.132659107446670532e-01
-1.754158437252044678e-01
-2.810750305652618408e-01
1.128953844308853149e-01
3.880488127470016479e-02
1.380592286586761475e-01
-1.811425536870956421e-01
1.503890007734298706e-01
8.915913105010986328e-02
-2.095576841384172440e-03
-8.646705746650695801e-02
2.088855206966400146e-01
-3.054926395416259766e-01
9.724392555654048920e-03
2.022932916879653931e-01
2.304628342390060425e-01
8.060788363218307495e-02
-2.999466955661773682e-01
1.682259440422058105e-01
2.019271254539489746e-01
-1.611602306365966797e-01
-1.896954923868179321e-01
-6.246905326843261719e-01
-2.595960199832916260e-01
-3.798057734966278076e-01
-1.778630167245864868e-01
3.049935996532440186e-01
2.525884807109832764e-01
-2.917516827583312988e-01
-1.258517354726791382e-01
1.491473466157913208e-01
3.474415838718414307e-02
-5.414504930377006531e-02
1.547351181507110596e-01
-5.058914422988891602e-01
-3.407565653324127197e-01
-3.536438941955566406e-02
4.319367557764053345e-02
-5.994822084903717041e-02
-2.427059262990951538e-01
-2.313483059406280518e-01
-2.548491060733795166e-01
-7.085087150335311890e-02
-2.193428575992584229e-01
-4.183857440948486328e-01
8.725126832723617554e-02
4.118913784623146057e-02
2.254903875291347504e-02
-2.373582720756530762e-01
-1.564583331346511841e-01
-2.633962333202362061e-01
-2.664751410484313965e-01
-3.160378336906433105e-01
1.756995767354965210e-01
-3.406895995140075684e-01
-1.515651047229766846e-01
-3.651565313339233398e-01
1.642325073480606079e-01
-3.806987702846527100e-01
2.342783845961093903e-02
9.515396505594253540e-02
-2.611730694770812988e-01
2.259133458137512207e-01
1.869634538888931274e-01
1.033869534730911255e-01
2.422154694795608521e-01
3.561607003211975098e-01
1.195527464151382446e-01
-2.687824666500091553e-01
1.550374329090118408e-01
-2.199663966894149780e-02
-4.392919540405273438e-01
1.170447766780853271e-01
-2.083981037139892578e-01
-4.350704699754714966e-02
-3.647377789020538330e-01
-2.464907318353652954e-01
5.429762229323387146e-02
-2.599774003028869629e-01
9.458844363689422607e-02
-5.550266504287719727e-01
2.462945580482482910e-01
4.149875789880752563e-02
-3.328157067298889160e-01
-1.552368104457855225e-01
-1.940541416406631470e-01
-1.189075037837028503e-02
1.988587528467178345e-01
2.893170118331909180e-01
3.138725161552429199e-01
2.879301905632019043e-01
1.337794810533523560e-01
2.268022447824478149e-01
1.844920963048934937e-01
4.597436264157295227e-02
8.501612395048141479e-02
-2.992148101329803467e-01
-3.178490996360778809e-01
3.133052885532379150e-01
-1.066695675253868103e-01
1.180371865630149841e-01
1.549147665500640869e-01
-3.777531683444976807e-01
-5.964437127113342285e-01
-4.542802572250366211e-01
9.850604087114334106e-02
-5.319397449493408203e-01
4.746991395950317383e-02
-1.475314795970916748e-01
1.214705705642700195e-01
2.769037708640098572e-02
8.007336407899856567e-02
2.228139638900756836e-01
1.244955658912658691e-01
1.358658671379089355e-01
5.438827723264694214e-02
1.665582060813903809e-01
-2.781643271446228027e-01
7.906191796064376831e-02
-2.081044912338256836e-01
-4.126878678798675537e-01
2.139467447996139526e-01
-1.989727169275283813e-01
-1.954928636550903320e-01
2.819278836250305176e-01
-5.111194252967834473e-01
-1.880403310060501099e-01
-1.431845724582672119e-01
1.082365512847900391e-01
-3.723414242267608643e-02
-2.991346418857574463e-01
-2.999408356845378876e-02
-2.495785951614379883e-01
-2.358791530132293701e-01
7.728946954011917114e-02
1.565552800893783569e-01
-2.068624943494796753e-01
-1.150120645761489868e-01
2.481420934200286865e-01
1.675290912389755249e-01
-2.608649134635925293e-01
-2.131125628948211670e-01
9.799597412347793579e-02
3.013631403446197510e-01
-4.353545010089874268e-01
1.229037120938301086e-01
-3.866359591484069824e-01
1.590964794158935547e-01
-4.163998961448669434e-01
-1.562587171792984009e-01
-3.319886624813079834e-01
-4.553991258144378662e-01
-1.807364225387573242e-01
-2.192819714546203613e-01
-3.230753540992736816e-01
-5.113801956176757812e-01
1.337711662054061890e-01
1.446171849966049194e-01
1.761527955532073975e-01
2.283891588449478149e-01
1.964497864246368408e-01
-2.431976497173309326e-01
-7.477376610040664673e-02
-3.054387569427490234e-01
-3.282630071043968201e-02
-1.528948992490768433e-01
-3.492797166109085083e-02
6.017629057168960571e-02
2.218751907348632812e-01
-4.224410951137542725e-01
1.100192740559577942e-01
1.913359016180038452e-01
2.127462476491928101e-01
-4.012349545955657959e-01
-2.745598852634429932e-01
1.561764627695083618e-01
1.290538311004638672e-01
1.974994391202926636e-01
-7.143055796623229980e-01
-7.913094013929367065e-02
-2.226631194353103638e-01
1.207655295729637146e-01
-3.190140426158905029e-01
-2.785072922706604004e-01
2.442615181207656860e-01
-5.743154883384704590e-01
-2.343313992023468018e-01
-5.746068358421325684e-01
-2.627748847007751465e-01
-3.582600951194763184e-01
2.837634384632110596e-01
2.941709160804748535e-01
-1.689106523990631104e-01
1.898378431797027588e-01
1.545034348964691162e-01
-5.484948307275772095e-02
1.919554024934768677e-01
-3.854258358478546143e-01
1.821195036172866821e-01
1.390679925680160522e-01
2.074031978845596313e-01
-2.418086528778076172e-01
-4.110133945941925049e-01
-5.072183609008789062e-01
1.289552003145217896e-01
2.299318760633468628e-01
3.951177746057510376e-02
-6.626386046409606934e-01
-4.833699762821197510e-01
-4.948666393756866455e-01
-4.625020325183868408e-01
2.076529562473297119e-01
-6.079489588737487793e-01
2.940858900547027588e-01
1.455722749233245850e-01
-3.542000651359558105e-01
1.342793107032775879e-01
-3.350193500518798828e-01
-8.079834282398223877e-02
-2.957400679588317871e-01
-1.808122247457504272e-01
1.502717733383178711e-01
1.088373884558677673e-01
2.196562886238098145e-01
3.278340101242065430e-01
-3.725463151931762695e-01
-3.649465441703796387e-01
1.659224182367324829e-01
3.029954433441162109e-01
-3.997389972209930420e-01
9.747593849897384644e-02
-6.016554832458496094e-01
-2.783263921737670898e-01
2.963269352912902832e-01
2.285841405391693115e-01
9.081528522074222565e-03
2.256208360195159912e-01
2.650468349456787109e-01
1.465736031532287598e-01
3.642929494380950928e-01
1.243740841746330261e-01
-4.884937703609466553e-01
-2.229368835687637329e-01
-4.983640909194946289e-01
2.087858170270919800e-01
-2.807517647743225098e-01
1.594543755054473877e-01
1.007655858993530273e-01
1.833438873291015625e-01
1.900113970041275024e-01
1.810791045427322388e-01
9.225425869226455688e-02
-5.016459226608276367e-01
-4.231098890304565430e-01
-5.418681502342224121e-01
-4.156537652015686035e-01
-4.220039546489715576e-01
-2.824415266513824463e-01
-9.247011691331863403e-02
1.951079219579696655e-01
-6.548742055892944336e-01
2.659899890422821045e-01
1.516254395246505737e-01
-2.218104898929595947e-01
-1.806746721267700195e-01
-1.568597406148910522e-01
2.019284963607788086e-01
-3.058551549911499023e-01
-1.838898509740829468e-01
2.501473128795623779e-01
1.373922228813171387e-01
8.588296175003051758e-02
-7.537675648927688599e-02
1.534499526023864746e-01
2.032074779272079468e-01
-3.357250094413757324e-01
8.872902393341064453e-02
-2.948569059371948242e-01
-3.588565811514854431e-02
1.908715069293975830e-01
5.222434177994728088e-02
5.419993028044700623e-02
-1.726038008928298950e-01
5.219161137938499451e-02
-2.781200706958770752e-01
1.379751414060592651e-01
-2.431932538747787476e-01
-9.020914882421493530e-02
-1.728372275829315186e-01
-4.694608747959136963e-01
-1.255958676338195801e-01
-1.408272981643676758e-01
2.411831542849540710e-02
1.726346164941787720e-01
7.013535499572753906e-02
-2.013019770383834839e-01
-8.469018340110778809e-02
-1.640510112047195435e-01
1.844903230667114258e-01
5.588145926594734192e-02
1.168872639536857605e-01
-3.321287930011749268e-01
6.819804757833480835e-02
2.318347990512847900e-01
1.018368825316429138e-01
-9.572209790349006653e-03
-2.731593325734138489e-03
9.084232151508331299e-02
5.251403525471687317e-02
-3.072811067104339600e-01
-3.737357258796691895e-01
9.011623915284872055e-04
-1.593383550643920898e-01
-2.381980717182159424e-01
-2.138667106628417969e-01
1.064333021640777588e-01
1.087551712989807129e-01
4.829902201890945435e-03
-3.209524452686309814e-01
-2.530061602592468262e-01
5.906124040484428406e-02
-2.169883400201797485e-01
-1.095305904746055603e-01
2.949732244014739990e-01
-3.537196516990661621e-01
2.645803391933441162e-01
-4.881910681724548340e-01
1.574214994907379150e-01
-3.572314083576202393e-01
-6.044240593910217285e-01
2.095431089401245117e-01
-3.595798313617706299e-01
-3.279350996017456055e-01
2.303199023008346558e-01
-2.020802944898605347e-01
5.719491094350814819e-02
1.758005023002624512e-01
1.900837272405624390e-01
1.045898273587226868e-01
2.115991413593292236e-01
-4.792935252189636230e-01
-1.717216521501541138e-01
-1.475538611412048340e-01
-1.280859708786010742e-01
2.796117663383483887e-01
-4.122640192508697510e-01
4.206866770982742310e-02
8.550399541854858398e-02
8.405914902687072754e-02
1.941581517457962036e-01
-3.426152765750885010e-01
2.648975253105163574e-01
1.756290644407272339e-01
1.302224546670913696e-01
-2.453833371400833130e-01
2.159303277730941772e-01
2.093859612941741943e-01
2.816033959388732910e-01
-4.168860018253326416e-01
5.249774083495140076e-02
-1.846140623092651367e-01
-6.906965970993041992e-01
2.504411637783050537e-01
1.987457275390625000e-01
-1.418744493275880814e-02
-5.080358386039733887e-01
1.733254641294479370e-01
-4.343075454235076904e-01
1.781233027577400208e-02
-4.026960730552673340e-01
-4.881061911582946777e-01
1.123963892459869385e-01
2.471672594547271729e-01
1.386979818344116211e-01
2.930712103843688965e-01
-2.646869719028472900e-01
8.448962867259979248e-02
-6.735903620719909668e-01
1.832721084356307983e-01
-5.767952799797058105e-01
2.286211848258972168e-01
-1.340016573667526245e-01
-2.538138926029205322e-01
-1.682859063148498535e-01
1.690679639577865601e-01
7.033046334981918335e-02
1.448082029819488525e-01
2.918860018253326416e-01
-5.768500566482543945e-01
-5.304626822471618652e-01
2.416568398475646973e-01
1.403765976428985596e-01
6.678448617458343506e-02
2.015253603458404541e-01
1.764991134405136108e-01
-2.671394646167755127e-01
7.923777401447296143e-02
1.589800268411636353e-01
-1.517269667237997055e-02
-4.715231359004974365e-01
2.488126792013645172e-02
-4.657979607582092285e-01
-3.316610455513000488e-01
-6.072410941123962402e-01
-4.221165776252746582e-01
1.405669003725051880e-01
4.506610706448554993e-02
1.831810772418975830e-01
1.600826531648635864e-02
1.672113686800003052e-01
2.517290413379669189e-01
-4.952040910720825195e-01
2.874882519245147705e-01
9.367865324020385742e-02
4.649923741817474365e-02
6.621965765953063965e-02
-3.872790038585662842e-01
2.158891111612319946e-01
7.393355667591094971e-02
1.036316528916358948e-02
-1.587581634521484375e-01
-4.684637784957885742e-01
7.848709076642990112e-02
-5.784520506858825684e-01
2.010108381509780884e-01
1.522485613822937012e-01
1.427521854639053345e-01
1.133261062204837799e-02
2.297545373439788818e-01
-4.613016545772552490e-01
-2.553543746471405029e-01
-1.987943947315216064e-01
2.724401652812957764e-02
5.515341460704803467e-02
1.307994276285171509e-01
-2.053053379058837891e-01
9.900933504104614258e-02
-8.580454438924789429e-02
5.512772873044013977e-02
7.670699059963226318e-02
2.004482150077819824e-01
2.299496829509735107e-01
6.936837732791900635e-02
6.086954846978187561e-02
-5.378082990646362305e-01
-4.762653410434722900e-01
-4.610935598611831665e-02
-3.634710609912872314e-01
-4.813579618930816650e-01
-4.509923458099365234e-01
2.383110672235488892e-01
1.736326217651367188e-01
-5.253923535346984863e-01
2.421804368495941162e-01
1.704093366861343384e-01
3.806281089782714844e-01
-4.157209694385528564e-01
3.410260677337646484e-01
-4.479486942291259766e-01
-1.446454524993896484e-01
4.051069319248199463e-01
-3.549069166183471680e-01
-3.338835239410400391e-01
-3.141148090362548828e-01
2.201121300458908081e-01
-5.552014112472534180e-01
1.523211747407913208e-01
2.642721533775329590e-01
-2.432628870010375977e-01
-2.959734499454498291e-01
-2.295349985361099243e-01
-3.699865341186523438e-01
1.156599968671798706e-01
-4.067105352878570557e-01
-5.070553421974182129e-01
2.231197804212570190e-01
3.047631978988647461e-01
-5.207201242446899414e-01
-3.838908858597278595e-03
1.671108752489089966e-01
3.209556341171264648e-01
3.215236067771911621e-01
-5.611315965652465820e-01
2.899212837219238281e-01
1.521245688199996948e-01
-2.714314162731170654e-01
3.389541506767272949e-01
-4.121955931186676025e-01
-3.167079985141754150e-01
-4.241948127746582031e-01
-2.958054244518280029e-01
1.848796904087066650e-01
1.467377245426177979e-01
-5.308526158332824707e-01
-3.683437705039978027e-01
6.458785384893417358e-02
1.527059823274612427e-01
8.224410563707351685e-02
3.544038236141204834e-01
7.034303247928619385e-02
-4.067104458808898926e-01
-4.993685185909271240e-01
1.948492228984832764e-01
2.090861499309539795e-01
2.248076349496841431e-01
9.643567726016044617e-03
-8.781276643276214600e-02
-1.769675910472869873e-01
-6.666206568479537964e-02
-2.487926930189132690e-01
-3.449361920356750488e-01
3.513846695423126221e-01
1.770574450492858887e-01
-2.981238663196563721e-01
-1.692123413085937500e-01
4.092543944716453552e-02
2.306240797042846680e-01
-1.075167283415794373e-01
1.686051189899444580e-01
1.608463823795318604e-01
2.708851695060729980e-01
-5.190083384513854980e-01
-3.905417025089263916e-01
3.419719636440277100e-01
-3.061439990997314453e-01
-1.664488464593887329e-01
-2.618714570999145508e-01
-4.517956376075744629e-01
2.393193691968917847e-01
2.416442334651947021e-01
-5.033724308013916016e-01
-9.552027285099029541e-02
3.535340428352355957e-01
-3.876262903213500977e-01
6.512114405632019043e-02
3.081848919391632080e-01
-5.830888152122497559e-01
-2.622171342372894287e-01
-5.174332261085510254e-01
-3.541077375411987305e-01
-4.282582998275756836e-01
-2.756408154964447021e-01
3.332343101501464844e-01
-3.861151933670043945e-01
-3.237375617027282715e-01
-2.147636711597442627e-01
-1.082252040505409241e-01
-2.209508717060089111e-01
1.641066968441009521e-01
-2.565883696079254150e-01
1.354433745145797729e-01
1.411002427339553833e-01
2.844650447368621826e-01
-3.710327446460723877e-01
-2.770350277423858643e-01
-2.896985113620758057e-01
2.284786701202392578e-01
-4.331624805927276611e-01
1.973722130060195923e-01
-4.333636164665222168e-01
1.655134707689285278e-01
2.806863188743591309e-01
-4.885374605655670166e-01
9.193818271160125732e-02
-2.980736792087554932e-01
-2.352915108203887939e-01
2.609833478927612305e-01
2.721882164478302002e-01
-2.343062460422515869e-01
-4.527916014194488525e-01
2.377771437168121338e-01
-2.612561285495758057e-01
2.361972182989120483e-01
3.506115078926086426e-01
1.383778154850006104e-01
-3.178779184818267822e-01
-3.344922959804534912e-01
1.636420786380767822e-01
1.595485210418701172e-01
-3.952730000019073486e-01
-4.191541671752929688e-01
-3.716744482517242432e-01
-1.292025148868560791e-01
2.235641628503799438e-01
1.408761143684387207e-01
2.579281330108642578e-01
-2.432410791516304016e-02
2.396005690097808838e-01
-2.986732125282287598e-01
2.066310048103332520e-01
2.806388437747955322e-01
-4.586152434349060059e-01
2.422795295715332031e-01
-5.649969577789306641e-01
-3.492897748947143555e-01
-2.260318547487258911e-01
-4.595336318016052246e-01
-2.558505237102508545e-01
1.683625876903533936e-01
-7.321345061063766479e-02
1.717073321342468262e-01
8.460219204425811768e-02
2.563873827457427979e-01
-4.210247397422790527e-01
-2.840930819511413574e-01
-2.959786951541900635e-01
1.580261439085006714e-01
-2.158017307519912720e-01
-3.009943664073944092e-01
-2.112979888916015625e-01
3.080029785633087158e-01
-4.405933916568756104e-01
-4.333420395851135254e-01
-2.957704365253448486e-01
1.683882623910903931e-01
-4.018585383892059326e-01
1.661456376314163208e-01
2.324549406766891479e-01
-2.261522263288497925e-01
-2.162315547466278076e-01
-1.316823065280914307e-01
-2.658766508102416992e-01
2.120326310396194458e-01
-2.542540431022644043e-01
1.308970898389816284e-01
-2.828306257724761963e-01
2.364348024129867554e-01
2.810880541801452637e-01
2.198539376258850098e-01
2.160993069410324097e-01
1.852682977914810181e-01
2.209779173135757446e-01
-1.747172176837921143e-01
-1.180041208863258362e-01
2.583523094654083252e-01
-4.414885938167572021e-01
-5.208186507225036621e-01
-5.133739113807678223e-01
-4.501135945320129395e-01
-2.842910587787628174e-01
-4.266344606876373291e-01
-5.244787931442260742e-01
-2.234674990177154541e-01
-1.053596585988998413e-01
-5.449973940849304199e-01
