-1.841267943382263184e-02
-1.214035078883171082e-01
1.684142798185348511e-01
-6.152836978435516357e-02
-1.407648772001266479e-01
-1.656724512577056885e-01
3.637734055519104004e-02
-1.736254990100860596e-01
9.903909265995025635e-02
5.012653768062591553e-02
1.756796687841415405e-01
-1.464858502149581909e-01
7.638126611709594727e-03
1.341319084167480469e-02
1.501062512397766113e-02
8.233185112476348877e-02
-2.898475527763366699e-02
-8.955385535955429077e-02
1.358257681131362915e-01
-1.374909579753875732e-01
-1.571179628372192383e-01
9.045623242855072021e-02
-7.037504017353057861e-02
1.556972414255142212e-01
-1.472770273685455322e-01
1.349810510873794556e-01
2.501682937145233154e-02
-3.446725010871887207e-02
1.448209136724472046e-01
-8.827810734510421753e-02
3.336878120899200439e-02
-6.850013136863708496e-02
7.091952860355377197e-02
8.182860910892486572e-02
1.682790666818618774e-01
-1.065003424882888794e-01
5.026052892208099365e-02
-1.503829658031463623e-02
1.462084203958511353e-01
-1.322190314531326294e-01
-6.863136589527130127e-02
1.465349346399307251e-01
7.802511751651763916e-02
-5.394783616065979004e-02
6.259585916996002197e-02
7.363139092922210693e-02
-6.041583418846130371e-02
-1.613640785217285156e-01
-1.543439626693725586e-01
1.205110400915145874e-01
-2.019508183002471924e-02
1.044941991567611694e-01
-1.519947350025177002e-01
1.765039414167404175e-01
6.289495527744293213e-02
-1.206283271312713623e-02
-8.444207161664962769e-02
-3.440165519714355469e-02
-1.399862021207809448e-01
-1.694707125425338745e-01
-7.473389804363250732e-02
1.202246993780136108e-01
-1.760623902082443237e-01
1.497098356485366821e-01
1.010679751634597778e-01
-1.437890529632568359e-01
1.646649688482284546e-01
5.580343306064605713e-02
-3.189647197723388672e-02
2.148990333080291748e-02
4.706597328186035156e-02
1.286078244447708130e-01
1.996748596429824829e-01
5.466325581073760986e-02
-1.381914317607879639e-02
1.991112530231475830e-02
5.154044926166534424e-02
-7.049278914928436279e-02
-7.434570789337158203e-02
-1.943625956773757935e-01
1.913188546895980835e-01
-8.586173504590988159e-02
-1.601438224315643311e-02
-1.710658520460128784e-01
-2.224676311016082764e-02
1.613861769437789917e-01
-1.690461486577987671e-01
8.617110550403594971e-02
1.876653581857681274e-01
-1.897143572568893433e-01
1.721815764904022217e-02
6.565849483013153076e-02
2.692060172557830811e-02
5.745485424995422363e-03
1.856759041547775269e-01
1.819051057100296021e-01
1.109652221202850342e-02
8.737991750240325928e-02
-5.817668139934539795e-02
-7.877228409051895142e-02
-6.154689192771911621e-02
1.347523480653762817e-01
1.742888838052749634e-01
1.352101713418960571e-01
1.190860569477081299e-02
6.415505707263946533e-02
-8.743780106306076050e-02
-3.173355758190155029e-02
-1.564296782016754150e-01
7.910804450511932373e-02
-1.222386360168457031e-01
1.937427073717117310e-01
2.286526560783386230e-02
1.016448289155960083e-01
-3.712217509746551514e-02
4.859380424022674561e-02
-1.810685396194458008e-01
-1.629692316055297852e-01
-1.004710942506790161e-01
1.939083784818649292e-01
1.027809530496597290e-01
1.096924990415573120e-01
1.941348463296890259e-01
9.623433649539947510e-02
8.365936577320098877e-02
-6.855957210063934326e-02
-6.992363929748535156e-02
1.431535929441452026e-01
1.705933660268783569e-01
-1.355793476104736328e-01
8.075727522373199463e-02
-4.276475310325622559e-02
1.945861726999282837e-01
-2.348224818706512451e-02
-3.483679890632629395e-02
-1.670472323894500732e-02
-2.840070426464080811e-02
1.773030608892440796e-01
-7.604312896728515625e-02
8.162774145603179932e-02
2.185431122779846191e-02
1.619664877653121948e-01
1.231484562158584595e-01
-1.299660950899124146e-01
-2.828936278820037842e-02
-7.171034812927246094e-03
-5.698342621326446533e-02
1.453313678503036499e-01
1.947122663259506226e-01
-1.656586825847625732e-01
-7.913913577795028687e-02
1.907646507024765015e-01
2.898426353931427002e-02
-5.741098523139953613e-02
1.419783383607864380e-01
-2.353867888450622559e-02
-7.342112064361572266e-02
-1.776320189237594604e-01
1.345801502466201782e-01
-4.823100566864013672e-02
-1.284032464027404785e-01
-1.393457353115081787e-01
-1.421610414981842041e-01
6.109066307544708252e-02
6.670044362545013428e-02
3.627786040306091309e-02
-1.251332759857177734e-01
-1.816703379154205322e-01
-1.145386695861816406e-01
-1.316231787204742432e-01
4.168327152729034424e-02
7.361032068729400635e-02
-7.501401752233505249e-02
-1.827197521924972534e-01
1.295385807752609253e-01
8.510579168796539307e-02
-7.947161048650741577e-02
-7.397799193859100342e-02
-5.174994468688964844e-03
-8.655788749456405640e-02
1.065833717584609985e-01
3.531846404075622559e-02
-1.192095503211021423e-01
-1.662596464157104492e-01
-7.768516987562179565e-02
-1.596595048904418945e-01
-3.794507682323455811e-02
-4.141172766685485840e-02
-8.539324253797531128e-02
2.647359669208526611e-02
-8.893988281488418579e-02
1.136512905359268188e-01
1.161081939935684204e-01
-5.275492370128631592e-02
-8.326055854558944702e-02
-1.859234124422073364e-01
-4.780367016792297363e-03
-1.596221178770065308e-01
1.743461936712265015e-01
1.004405468702316284e-01
