-4.410268366336822510e-02
2.253132313489913940e-02
6.368353217840194702e-02
-6.838445365428924561e-02
5.528258532285690308e-02
-2.356941998004913330e-02
5.439891666173934937e-02
7.134606689214706421e-02
6.847616285085678101e-02
7.496220618486404419e-02
-6.140226870775222778e-02
3.243342041969299316e-02
7.807617634534835815e-02
-4.938104748725891113e-02
9.345546364784240723e-03
3.940428048372268677e-02
7.946061342954635620e-02
-4.211078211665153503e-02
-5.774543806910514832e-02
1.092898100614547729e-02
3.946208208799362183e-02
-1.867305487394332886e-02
7.863310724496841431e-02
-3.171317279338836670e-02
-1.873481273651123047e-02
4.116714745759963989e-02
7.797982543706893921e-02
-4.449591040611267090e-03
-4.512942209839820862e-02
8.299017697572708130e-02
-1.797918975353240967e-02
-7.621552795171737671e-02
-7.221753895282745361e-02
-8.203579485416412354e-02
-6.433822214603424072e-03
-6.889029592275619507e-02
7.209784537553787231e-02
4.589191824197769165e-02
-4.699714854359626770e-02
-3.115069121122360229e-02
-1.639427989721298218e-02
-7.483638823032379150e-03
3.903286904096603394e-02
9.354352951049804688e-04
-5.935351923108100891e-02
2.303536981344223022e-02
-5.166422948241233826e-02
-3.624252974987030029e-03
7.639417797327041626e-02
5.916901677846908569e-02
6.596515327692031860e-02
-7.389992475509643555e-02
5.167042464017868042e-02
-3.055848926305770874e-02
-1.396674662828445435e-02
3.546250611543655396e-02
-1.938281208276748657e-02
-8.809161931276321411e-02
-2.200966328382492065e-02
2.560118585824966431e-02
-8.353205770254135132e-02
-2.896720170974731445e-02
4.251450300216674805e-03
4.774054139852523804e-02
1.534171402454376221e-02
1.502541452646255493e-02
-1.035965979099273682e-03
6.010691076517105103e-02
-7.028494775295257568e-02
2.082794159650802612e-02
6.048742681741714478e-02
2.364667505025863647e-02
4.550040513277053833e-02
1.145683228969573975e-02
-6.627497822046279907e-02
2.004869282245635986e-03
2.986223995685577393e-02
-8.241736888885498047e-02
5.028008669614791870e-02
2.643200755119323730e-02
6.510055810213088989e-02
3.594607114791870117e-04
-4.202052205801010132e-02
6.633026152849197388e-02
4.333076626062393188e-02
-2.282738685607910156e-03
8.064868301153182983e-02
-1.189034432172775269e-02
7.027602940797805786e-02
4.921800643205642700e-02
1.304627209901809692e-02
8.085443824529647827e-02
1.613193005323410034e-02
-7.410673052072525024e-02
2.188716083765029907e-02
7.623806595802307129e-03
-2.075451612472534180e-02
-6.960852444171905518e-02
-7.510291039943695068e-02
8.306572586297988892e-02
4.664490371942520142e-02
-7.116148620843887329e-02
2.901817113161087036e-02
-2.120739966630935669e-02
-1.643517613410949707e-02
6.530433893203735352e-04
4.984975606203079224e-02
-5.170492082834243774e-02
7.020282000303268433e-02
-5.477427691221237183e-02
5.920053273439407349e-02
-6.420169025659561157e-02
-3.222146630287170410e-02
5.381607264280319214e-02
-6.608495116233825684e-02
1.666487753391265869e-02
6.950693577527999878e-02
6.832868605852127075e-02
1.530572772026062012e-03
-4.762310534715652466e-02
-1.093119382858276367e-02
-8.584968000650405884e-02
8.143683522939682007e-02
6.535444408655166626e-02
-1.571848988533020020e-03
-4.612861946225166321e-02
-3.565083816647529602e-02
-6.707963347434997559e-02
-5.000695586204528809e-03
-6.202664971351623535e-02
-4.356501623988151550e-02
-7.970031350851058960e-02
-1.647955179214477539e-02
-7.227727770805358887e-02
1.358715444803237915e-02
-7.897346466779708862e-02
5.944540351629257202e-02
5.857539921998977661e-02
8.573376387357711792e-02
3.938347846269607544e-02
1.532994210720062256e-03
6.310413032770156860e-02
-3.754071891307830811e-03
-4.154967889189720154e-02
4.224718362092971802e-02
-5.709274113178253174e-02
-4.190124571323394775e-02
4.438108950853347778e-02
5.005837231874465942e-02
5.937475711107254028e-02
-5.365116521716117859e-02
2.138182520866394043e-02
5.516617745161056519e-02
7.843793183565139771e-02
7.134982198476791382e-02
-7.599157840013504028e-02
1.650027930736541748e-02
6.501149386167526245e-02
6.911728531122207642e-02
-6.793485581874847412e-02
5.763765424489974976e-02
-1.563061028718948364e-02
-5.696208775043487549e-02
1.562038064002990723e-02
-9.823344647884368896e-03
8.464162796735763550e-02
1.132494211196899414e-02
-7.480059564113616943e-02
6.653907150030136108e-02
-7.031197845935821533e-02
6.978363543748855591e-02
-5.185045301914215088e-02
2.744278311729431152e-02
2.614514529705047607e-02
-6.096985936164855957e-02
-5.835912749171257019e-02
5.097492784261703491e-02
7.260557264089584351e-02
3.277742117643356323e-02
-1.920714229345321655e-02
-8.242182433605194092e-03
-3.831326961517333984e-03
5.721054226160049438e-02
-6.937991082668304443e-02
5.051951855421066284e-02
6.563662737607955933e-02
-2.534107863903045654e-02
1.485577225685119629e-02
4.696290940046310425e-02
-5.796752125024795532e-02
-1.546286791563034058e-02
-8.522173017263412476e-02
5.354887992143630981e-02
-1.640064269304275513e-02
4.734020680189132690e-02
1.121187210083007812e-02
-1.376628875732421875e-03
6.756577640771865845e-02
8.473198860883712769e-02
-7.584910839796066284e-02
-5.132069811224937439e-02
-1.123166084289550781e-02
-1.118421554565429688e-02
7.510264962911605835e-02
-4.445626214146614075e-02
1.906514912843704224e-02
4.449263215065002441e-03
-2.673456817865371704e-02
-5.400281026959419250e-02
3.884791582822799683e-02
-3.895577415823936462e-02
-7.417233288288116455e-02
7.041006535291671753e-02
-2.526202052831649780e-02
3.502468019723892212e-02
6.013422459363937378e-02
2.641214430332183838e-02
-4.272771626710891724e-02
-3.695204854011535645e-02
-3.233867511153221130e-02
-6.452798843383789062e-03
3.691218048334121704e-02
2.661541849374771118e-02
-3.125001117587089539e-02
2.357551455497741699e-02
6.837206333875656128e-02
-4.680527746677398682e-02
7.753508538007736206e-02
-7.983106374740600586e-02
3.876354545354843140e-02
2.328068763017654419e-02
1.893799006938934326e-02
-8.654766529798507690e-02
7.861472666263580322e-03
-8.204407989978790283e-03
-2.147439122200012207e-02
1.375168561935424805e-03
1.881067454814910889e-02
-8.281948417425155640e-02
-5.676340684294700623e-02
2.803713828325271606e-02
-4.560441896319389343e-02
-7.950702309608459473e-02
-6.531608849763870239e-02
-8.379978686571121216e-02
-6.083054468035697937e-02
6.695473939180374146e-02
-1.557128876447677612e-02
-7.123190164566040039e-02
1.881670206785202026e-02
5.833534151315689087e-02
-7.833176851272583008e-02
-6.072030216455459595e-02
-1.994170993566513062e-02
-8.830170333385467529e-02
-6.374709308147430420e-02
3.395800292491912842e-02
2.277185767889022827e-02
7.003124803304672241e-02
-2.939971163868904114e-02
6.223479658365249634e-02
-1.646652072668075562e-02
-6.514075398445129395e-02
-1.134178042411804199e-02
3.926813602447509766e-03
4.461725801229476929e-02
1.923652738332748413e-02
6.517144292593002319e-02
1.178846508264541626e-02
-7.549817860126495361e-02
-6.408870220184326172e-03
3.608275204896926880e-02
-5.717589706182479858e-02
-6.056368350982666016e-03
-3.889673575758934021e-02
-3.148400038480758667e-02
7.669126242399215698e-02
8.940398693084716797e-04
-7.520685344934463501e-02
-6.111472845077514648e-03
3.391107916831970215e-02
-5.830373615026473999e-02
-1.674097031354904175e-02
7.476873695850372314e-03
-1.656585186719894409e-02
7.801548391580581665e-02
1.907898485660552979e-02
1.909412443637847900e-02
1.483791321516036987e-02
-1.428832858800888062e-02
4.504423588514328003e-02
-6.470624357461929321e-02
-2.397710084915161133e-02
-3.986915946006774902e-02
2.576534450054168701e-02
5.215823650360107422e-03
5.744282156229019165e-02
3.040550649166107178e-02
-2.944483235478401184e-02
5.097705870866775513e-02
6.327504664659500122e-02
-8.051469922065734863e-03
1.749552786350250244e-02
-4.975714534521102905e-02
4.396899789571762085e-02
5.376575142145156860e-02
-3.018553927540779114e-02
2.411673963069915771e-02
-4.340479522943496704e-02
-7.559433579444885254e-04
8.172098547220230103e-02
4.504261165857315063e-02
5.639300495386123657e-02
-5.718119814991950989e-02
-8.160147070884704590e-02
-4.063632711768150330e-02
-2.425603568553924561e-03
-7.465858012437820435e-02
3.559030592441558838e-02
6.033804267644882202e-02
2.613291144371032715e-02
8.071599155664443970e-02
-5.945680290460586548e-02
2.748213708400726318e-03
-2.806233987212181091e-02
5.000600963830947876e-02
-5.471431091427803040e-02
-7.464468479156494141e-03
-8.722713589668273926e-02
-1.067040860652923584e-02
-7.218813151121139526e-02
4.342754930257797241e-02
-1.279255747795104980e-02
8.523537963628768921e-02
-5.349775403738021851e-02
1.693718135356903076e-02
-8.588047325611114502e-02
-2.580013126134872437e-02
5.020777136087417603e-02
3.819900006055831909e-02
-7.151270657777786255e-02
-5.068111047148704529e-02
-6.051573902368545532e-02
-1.819563657045364380e-02
-2.023432403802871704e-02
-5.648126453161239624e-02
3.380905091762542725e-02
-5.533605813980102539e-03
-4.297834262251853943e-02
8.011681586503982544e-02
4.979208856821060181e-02
8.223638683557510376e-02
3.971453756093978882e-02
1.475902646780014038e-02
3.804200142621994019e-02
3.476759791374206543e-02
8.241791278123855591e-02
4.203907400369644165e-02
2.514882385730743408e-02
3.404993563890457153e-02
5.610608309507369995e-02
6.332757323980331421e-02
-9.037241339683532715e-03
-8.389063179492950439e-03
-5.951711535453796387e-02
-1.503960788249969482e-02
6.540812551975250244e-03
7.484275847673416138e-02
7.117509841918945312e-03
2.625741064548492432e-02
3.547641634941101074e-02
2.131447196006774902e-02
8.457983285188674927e-02
-3.731939941644668579e-02
5.135781317949295044e-02
2.088908106088638306e-02
5.442935973405838013e-02
-3.880566731095314026e-02
-8.124549686908721924e-02
3.105044364929199219e-03
-3.782061114907264709e-02
2.424949407577514648e-02
1.935427635908126831e-02
5.303703248500823975e-03
5.381739884614944458e-02
-8.596672862768173218e-02
-4.727640375494956970e-02
3.740981966257095337e-02
-4.342781752347946167e-02
5.485739558935165405e-02
4.356985539197921753e-02
-4.373317211866378784e-02
-4.718345031142234802e-02
-3.478549048304557800e-02
-1.382295787334442139e-02
-2.814222127199172974e-02
-1.034583151340484619e-02
-2.092108130455017090e-02
-5.078345537185668945e-03
-4.815995693206787109e-03
5.725554376840591431e-02
3.308790922164916992e-02
-6.671646237373352051e-02
1.424312591552734375e-02
5.115527659654617310e-02
4.590930789709091187e-02
-6.193871051073074341e-02
-5.415571853518486023e-02
2.754595875740051270e-02
-4.583042860031127930e-02
3.078857809305191040e-02
-5.187745764851570129e-02
4.846607893705368042e-02
-4.739720746874809265e-02
2.372317761182785034e-02
-1.228003948926925659e-02
6.291703134775161743e-02
7.700143009424209595e-02
4.972050338983535767e-02
-1.080989837646484375e-02
4.323095828294754028e-02
-2.728312835097312927e-02
8.121926337480545044e-02
7.577847689390182495e-02
-8.455707132816314697e-02
3.392073512077331543e-02
-4.056655243039131165e-02
-2.594252303242683411e-02
4.421665519475936890e-02
-4.373975470662117004e-02
-5.823356285691261292e-02
1.075565814971923828e-04
-2.162893116474151611e-02
7.922477275133132935e-02
3.197721391916275024e-02
-2.363903075456619263e-02
-6.188686192035675049e-02
-7.899630069732666016e-02
-7.426895946264266968e-02
7.670449465513229370e-02
-5.963363870978355408e-02
-7.250422239303588867e-02
-5.058167502284049988e-02
-2.972202003002166748e-02
-5.402084812521934509e-02
-8.056706935167312622e-02
8.257292956113815308e-02
-1.415141671895980835e-02
1.729515939950942993e-02
-4.744268208742141724e-02
6.953420490026473999e-02
8.636151999235153198e-02
-6.164756417274475098e-02
6.762733310461044312e-02
3.224015235900878906e-04
8.751667290925979614e-02
6.290785223245620728e-02
7.866122573614120483e-02
-5.235125124454498291e-02
6.119032949209213257e-02
-5.868822336196899414e-05
-6.906959414482116699e-02
1.228432357311248779e-02
8.077589422464370728e-02
-2.409070730209350586e-02
-6.109651178121566772e-02
-7.212460041046142578e-03
5.540006607770919800e-02
7.703124731779098511e-02
-2.776659652590751648e-02
-1.003855466842651367e-02
5.068688839673995972e-02
-5.837738886475563049e-02
4.553342610597610474e-02
6.778367608785629272e-02
-7.940688729286193848e-02
4.186206310987472534e-02
1.480945199728012085e-02
8.371228724718093872e-02
-4.175486043095588684e-02
-8.017048984766006470e-02
-6.234677881002426147e-02
7.080376893281936646e-02
5.499503761529922485e-02
3.310978412628173828e-02
-3.097141161561012268e-02
4.786342382431030273e-03
-6.651731580495834351e-02
7.016832381486892700e-02
-1.016826182603836060e-02
7.416450232267379761e-02
-6.741707772016525269e-02
4.606560617685317993e-02
3.890597075223922729e-02
-5.684197694063186646e-02
-3.155933693051338196e-02
6.638141721487045288e-02
2.616010606288909912e-02
5.004654079675674438e-02
5.804137140512466431e-02
5.951929837465286255e-02
1.537889242172241211e-03
-7.854874432086944580e-02
3.894200176000595093e-02
-1.643522828817367554e-02
-5.394948273897171021e-02
5.989187210798263550e-02
4.010625928640365601e-02
-1.377384364604949951e-02
-3.357462584972381592e-03
-3.552313521504402161e-02
-6.321574002504348755e-02
1.874656975269317627e-02
1.919163763523101807e-02
8.734474331140518188e-02
6.986220926046371460e-02
2.770138531923294067e-02
-7.598498463630676270e-02
4.758075624704360962e-02
-8.066570758819580078e-02
3.509951382875442505e-02
-3.561924025416374207e-02
-1.520744711160659790e-02
-7.990382611751556396e-02
-8.131305873394012451e-02
-6.944541633129119873e-02
7.466710358858108521e-02
-8.415731787681579590e-02
8.116471022367477417e-02
5.598545074462890625e-03
5.652222782373428345e-02
-2.877993136644363403e-02
2.981435507535934448e-02
5.045249313116073608e-02
8.363347500562667847e-02
7.129535824060440063e-02
-7.870982587337493896e-02
-5.022582784295082092e-02
-2.484264969825744629e-02
7.848422974348068237e-02
4.980986565351486206e-02
-6.755933165550231934e-02
3.278422355651855469e-02
-6.410107016563415527e-04
-2.817335724830627441e-02
5.076114088296890259e-02
-1.818576455116271973e-02
-1.426258683204650879e-02
6.736584752798080444e-02
5.808072537183761597e-02
2.394060045480728149e-02
-2.167471498250961304e-02
2.836944162845611572e-02
7.621934264898300171e-02
-1.945412158966064453e-02
4.424702376127243042e-02
-6.561890244483947754e-02
8.649081736803054810e-02
-8.023519814014434814e-02
2.500665932893753052e-02
7.883342355489730835e-02
-5.196117237210273743e-02
-5.878975242376327515e-02
-6.753087043762207031e-03
-5.340669304132461548e-02
8.833280950784683228e-02
8.025746792554855347e-02
9.138524532318115234e-03
-7.309217751026153564e-02
-4.859717935323715210e-02
-4.553708806633949280e-02
1.361288130283355713e-02
5.129421502351760864e-02
-4.424717277288436890e-02
1.912643015384674072e-02
4.901200532913208008e-03
-1.108341664075851440e-02
4.200585931539535522e-02
-5.030322074890136719e-02
-1.392839848995208740e-02
-4.306213930249214172e-02
-6.878492236137390137e-02
-3.501062840223312378e-02
-5.670899525284767151e-02
1.648271828889846802e-02
5.736795812845230103e-02
2.929183840751647949e-02
-3.906088694930076599e-02
3.249158710241317749e-02
7.720701396465301514e-03
-1.110874116420745850e-02
-1.319526880979537964e-02
6.712428480386734009e-02
-7.935887575149536133e-02
7.983335107564926147e-02
5.616033822298049927e-02
1.045395433902740479e-02
1.434690505266189575e-02
-5.577111244201660156e-02
-3.320132568478584290e-02
1.657595485448837280e-02
6.959777325391769409e-02
2.674892544746398926e-03
-8.166241645812988281e-02
8.180325478315353394e-02
8.469215780496597290e-02
6.213404238224029541e-03
5.145130306482315063e-02
3.851009160280227661e-02
1.085757464170455933e-02
-8.503843843936920166e-02
7.158555090427398682e-03
-1.199446618556976318e-02
-2.209950238466262817e-02
5.071953684091567993e-02
5.664529651403427124e-02
-2.919806167483329773e-02
-8.635746687650680542e-02
8.209449797868728638e-02
-6.739655137062072754e-02
7.065726071596145630e-02
7.903810590505599976e-02
-3.855520859360694885e-02
-4.481548070907592773e-02
4.090181738138198853e-02
-7.518957555294036865e-02
8.371282368898391724e-02
-7.580581307411193848e-02
-4.865457490086555481e-02
8.482845872640609741e-02
7.311265915632247925e-02
5.711488425731658936e-03
-5.994469299912452698e-02
-5.011788010597229004e-02
-1.528511196374893188e-02
-7.383823394775390625e-02
-2.908754348754882812e-02
6.943596154451370239e-02
3.555691242218017578e-02
5.515392869710922241e-02
-2.315249294042587280e-02
-3.510564938187599182e-02
-2.016348391771316528e-02
-6.797641515731811523e-02
-5.402243882417678833e-02
6.594406813383102417e-02
8.778031915426254272e-02
-7.157079875469207764e-02
-2.773205563426017761e-02
8.002916723489761353e-02
-1.412359625101089478e-02
4.045244306325912476e-02
3.336113691329956055e-02
-7.269611954689025879e-02
5.714575201272964478e-02
3.896049410104751587e-02
2.775526046752929688e-02
6.973967701196670532e-02
-8.675347268581390381e-02
-8.110371977090835571e-02
7.831881195306777954e-02
-6.916709244251251221e-03
6.711693853139877319e-02
-4.128128290176391602e-03
3.263493627309799194e-02
3.381135314702987671e-02
-4.256850481033325195e-02
-6.855839490890502930e-02
-2.470837533473968506e-02
-6.742041558027267456e-02
3.150284290313720703e-02
8.557870239019393921e-02
-8.590064197778701782e-02
1.318284869194030762e-02
1.616680622100830078e-02
-6.531551480293273926e-03
-7.765397429466247559e-02
-5.637447535991668701e-02
-2.535899728536605835e-02
8.068520575761795044e-02
-4.114828258752822876e-02
-4.857650771737098694e-02
2.780292928218841553e-02
5.520940572023391724e-02
3.534930944442749023e-02
-3.263209015130996704e-02
2.388902008533477783e-03
-4.853612929582595825e-02
1.140844821929931641e-02
6.461185961961746216e-02
6.621613353490829468e-02
-3.460070863366127014e-02
-2.668624743819236755e-02
1.043938100337982178e-03
6.827310472726821899e-02
-1.023963838815689087e-02
2.321592718362808228e-02
-2.981689199805259705e-02
8.830659836530685425e-02
-4.100404679775238037e-02
4.523482173681259155e-02
-5.320693925023078918e-02
-8.684658259153366089e-02
6.455462425947189331e-02
-8.776766061782836914e-02
-1.792664825916290283e-02
-4.916064441204071045e-03
-7.567961513996124268e-02
-8.490087091922760010e-02
-8.825045078992843628e-02
3.458607196807861328e-02
-4.510616883635520935e-02
2.383643388748168945e-02
-2.076917886734008789e-02
6.363566964864730835e-02
-5.097082629799842834e-02
1.827195286750793457e-03
8.200686424970626831e-02
6.782888621091842651e-02
-6.084612011909484863e-02
3.638379275798797607e-03
-3.557121381163597107e-02
3.952617198228836060e-02
1.010791957378387451e-02
6.712409108877182007e-02
1.684433221817016602e-02
7.572240382432937622e-02
-2.715041860938072205e-02
1.771399378776550293e-02
6.976015120744705200e-02
8.778776973485946655e-02
6.929542869329452515e-02
7.118668407201766968e-02
3.698768466711044312e-02
2.683214843273162842e-03
-8.978098630905151367e-04
5.850456655025482178e-03
-3.018105030059814453e-02
-8.215088397264480591e-02
8.551662415266036987e-02
-3.613741323351860046e-02
-6.749428063631057739e-02
-5.028045177459716797e-02
3.719523549079895020e-03
7.404198497533798218e-02
5.733229964971542358e-02
7.921426743268966675e-02
-8.668632805347442627e-02
3.873505443334579468e-02
-4.848890379071235657e-02
-4.860534518957138062e-02
1.744963228702545166e-03
6.247205287218093872e-02
-8.108565956354141235e-02
8.056194335222244263e-02
5.271420627832412720e-02
2.110720425844192505e-02
-1.327427476644515991e-02
-2.124600112438201904e-03
1.949933171272277832e-02
-7.775811851024627686e-02
1.159204542636871338e-02
-5.165848508477210999e-02
-6.397206336259841919e-02
5.082634836435317993e-02
-3.753017634153366089e-02
-4.666348174214363098e-02
2.318870276212692261e-02
7.453904300928115845e-02
3.996717184782028198e-02
-4.802798852324485779e-02
5.653054267168045044e-02
-7.953006029129028320e-02
-3.709789738059043884e-02
-2.048222720623016357e-02
-1.518894731998443604e-02
2.304392307996749878e-02
-3.648101538419723511e-02
3.666616231203079224e-02
-4.094261676073074341e-02
1.450592279434204102e-02
-6.880152225494384766e-02
-7.500199973583221436e-02
-8.389256149530410767e-02
-7.092183083295822144e-02
5.128299444913864136e-02
7.996457070112228394e-02
-4.466195032000541687e-02
-6.348694860935211182e-02
-1.389235258102416992e-04
4.332661628723144531e-04
-6.735476106405258179e-02
-4.676606878638267517e-02
-4.490971937775611877e-02
-3.482319042086601257e-02
-1.984459161758422852e-02
-7.135690003633499146e-02
6.622041016817092896e-02
8.181483298540115356e-02
-3.177590668201446533e-03
1.210211962461471558e-02
-9.993016719818115234e-04
-3.079304471611976624e-02
5.402163416147232056e-02
-6.181640177965164185e-02
-5.367404222488403320e-02
3.160673379898071289e-02
-6.036783754825592041e-02
-7.669824361801147461e-02
4.245343059301376343e-02
2.933356165885925293e-02
-6.661905348300933838e-02
6.481214612722396851e-02
4.983925074338912964e-02
-2.350284904241561890e-02
-7.833901792764663696e-02
-8.225053548812866211e-03
6.657638400793075562e-02
1.729645580053329468e-02
4.402986913919448853e-02
-5.297020077705383301e-02
6.838444620370864868e-02
-2.737789601087570190e-02
-4.737389832735061646e-02
-2.926456928253173828e-02
8.392614871263504028e-02
8.440483361482620239e-02
2.086452394723892212e-02
-8.005670458078384399e-02
-4.826585203409194946e-02
2.059391140937805176e-02
-6.487894058227539062e-02
3.266394138336181641e-02
3.729454427957534790e-02
-1.781135797500610352e-03
5.946076661348342896e-02
-2.510682493448257446e-02
2.543300390243530273e-03
-6.863822788000106812e-02
-5.352646112442016602e-04
-3.673685714602470398e-02
6.916109472513198853e-02
-3.961727023124694824e-03
-1.155816018581390381e-02
8.704841881990432739e-02
-3.974302485585212708e-02
-5.642227828502655029e-03
2.684206515550613403e-02
-1.507514715194702148e-02
6.473369151353836060e-02
3.771346062421798706e-02
-2.629920095205307007e-02
-1.430847495794296265e-02
8.030883222818374634e-02
6.492725759744644165e-02
4.303448647260665894e-02
-5.523234978318214417e-02
1.093261688947677612e-02
-1.244789361953735352e-02
5.920719355344772339e-02
4.845062643289566040e-02
2.612958103418350220e-02
8.184278756380081177e-02
-3.380959108471870422e-02
6.618643552064895630e-02
-6.774596869945526123e-03
-5.949143320322036743e-02
2.288080751895904541e-03
4.623206704854965210e-02
1.483032852411270142e-02
-8.660332113504409790e-02
-7.446800172328948975e-02
-5.849676951766014099e-02
-4.876188933849334717e-02
6.979084759950637817e-02
8.798567205667495728e-02
3.355182707309722900e-02
-7.495726644992828369e-02
2.003663033246994019e-02
-5.629529058933258057e-02
8.741746097803115845e-02
-8.079277724027633667e-02
-9.144939482212066650e-03
-8.668357878923416138e-02
2.113693207502365112e-02
-1.226998865604400635e-02
-8.209239691495895386e-02
5.726923793554306030e-02
6.769543141126632690e-02
-5.125397071242332458e-02
-7.464861869812011719e-02
2.211987972259521484e-02
-1.688802242279052734e-02
2.383275330066680908e-02
-7.799503207206726074e-02
1.004195958375930786e-02
3.477947413921356201e-02
4.035679250955581665e-02
1.656761765480041504e-02
-5.104831606149673462e-02
-8.300953358411788940e-02
-3.140489012002944946e-02
3.076219558715820312e-02
2.168225497007369995e-02
-5.511594936251640320e-02
-4.209847375750541687e-02
3.560882806777954102e-02
2.852074801921844482e-02
1.348279416561126709e-02
-2.164126932621002197e-02
-1.152597367763519287e-02
1.567328721284866333e-02
-5.529583245515823364e-02
-4.825994372367858887e-03
3.703857213258743286e-02
1.816198974847793579e-02
2.330251783132553101e-02
6.679348647594451904e-03
5.711569637060165405e-02
-5.835634469985961914e-02
-8.141981065273284912e-02
8.123856037855148315e-02
-6.106872856616973877e-02
8.299087733030319214e-02
5.519493669271469116e-02
-7.484511286020278931e-02
-8.226487040519714355e-02
-4.142133146524429321e-02
5.807837098836898804e-02
-3.250814974308013916e-02
-4.200115799903869629e-02
1.282457262277603149e-02
-7.863240689039230347e-02
4.383037239313125610e-02
-4.645682498812675476e-02
2.855169028043746948e-02
-6.138849630951881409e-02
6.205113977193832397e-02
4.789448529481887817e-02
3.041070699691772461e-02
5.988844484090805054e-02
5.545844882726669312e-02
6.378211081027984619e-03
7.481760531663894653e-02
5.697294324636459351e-02
-5.876416712999343872e-02
-8.740522712469100952e-02
2.968413382768630981e-02
7.099873572587966919e-02
3.952907770872116089e-02
-1.962376385927200317e-02
1.207906752824783325e-02
6.368660181760787964e-02
-6.052356958389282227e-02
4.330972582101821899e-02
-8.798093348741531372e-02
-5.102947354316711426e-03
-7.539808750152587891e-03
5.963995307683944702e-02
5.276719480752944946e-02
3.788065165281295776e-02
-6.210503727197647095e-02
3.678705543279647827e-02
4.550770670175552368e-02
4.740820080041885376e-02
-1.917199045419692993e-02
-2.582491934299468994e-02
-3.578887879848480225e-02
-4.863497614860534668e-02
-5.532121658325195312e-02
5.408752709627151489e-02
3.366666287183761597e-02
-7.787825912237167358e-02
-2.323548495769500732e-02
4.560656100511550903e-02
-1.871038973331451416e-02
-2.159279584884643555e-02
8.112240582704544067e-02
-7.052483409643173218e-02
4.045815020799636841e-02
-1.824513822793960571e-02
1.961547881364822388e-02
4.098609089851379395e-03
-7.687383890151977539e-02
-8.350776135921478271e-02
6.762141734361648560e-02
-4.497255012392997742e-02
-7.848441600799560547e-03
-8.656587451696395874e-02
-6.312589347362518311e-02
7.588268071413040161e-02
5.056061595678329468e-02
-8.067405968904495239e-02
8.049696683883666992e-03
-4.614167287945747375e-02
7.404612749814987183e-02
-5.751359835267066956e-02
-2.539816498756408691e-02
-2.595871686935424805e-02
-5.399102717638015747e-02
2.187557518482208252e-02
2.491411566734313965e-02
2.911936491727828979e-02
2.753537893295288086e-02
2.377897500991821289e-02
4.941190034151077271e-02
5.309347063302993774e-02
-6.903315335512161255e-02
6.467401236295700073e-02
8.333990722894668579e-02
-6.690894067287445068e-02
-5.333601310849189758e-02
1.484195142984390259e-02
-3.595289587974548340e-02
-5.451599881052970886e-02
2.169051766395568848e-02
-4.132280498743057251e-02
6.037101149559020996e-03
-8.326940238475799561e-03
-8.654260635375976562e-02
-9.965024888515472412e-03
-6.828042864799499512e-02
-8.822140097618103027e-02
2.438113093376159668e-03
-5.631872639060020447e-02
-5.628034472465515137e-03
-3.050450980663299561e-02
-6.493729352951049805e-02
1.492775976657867432e-03
-7.266029715538024902e-03
-6.919533759355545044e-02
8.379998058080673218e-02
-1.432243734598159790e-02
2.270666509866714478e-02
-5.353493615984916687e-02
-5.039115995168685913e-02
7.553780823945999146e-02
-6.881314516067504883e-02
-6.447286903858184814e-02
-1.721031963825225830e-03
-8.649981766939163208e-02
3.348771482706069946e-02
9.492501616477966309e-03
7.744092494249343872e-02
-6.622891128063201904e-02
-2.950011566281318665e-02
1.914339512586593628e-02
-5.990992113947868347e-02
4.737966507673263550e-02
5.080852657556533813e-02
-4.418078064918518066e-02
3.079279512166976929e-02
2.266180515289306641e-02
4.603181034326553345e-02
5.952883511781692505e-02
-3.344573080539703369e-03
-7.198259234428405762e-03
-1.518347859382629395e-02
-1.035044342279434204e-02
-7.498653233051300049e-02
5.236916989088058472e-02
3.890799731016159058e-02
8.722067624330520630e-02
4.483019560575485229e-02
8.444327861070632935e-02
-2.257443964481353760e-02
2.870970219373703003e-02
3.665702790021896362e-02
-4.580028355121612549e-02
2.053886651992797852e-03
-1.645952463150024414e-02
-7.862373441457748413e-02
-4.641199111938476562e-02
3.044155240058898926e-02
-6.973782181739807129e-02
-2.784189209342002869e-02
-1.051642000675201416e-02
3.291020542383193970e-02
8.255439251661300659e-02
5.720666795969009399e-02
5.417381972074508667e-02
-5.996602028608322144e-02
8.381795138120651245e-02
2.041427791118621826e-02
-8.563177287578582764e-02
-3.449515253305435181e-02
8.622779697179794312e-02
-8.836209774017333984e-02
5.050373822450637817e-02
5.112092941999435425e-02
-5.897024646401405334e-02
4.744183272123336792e-02
-4.897072911262512207e-03
6.687761098146438599e-02
-4.850551486015319824e-04
4.307821393013000488e-03
7.839923352003097534e-02
-4.738525673747062683e-02
-8.073166012763977051e-03
1.283527165651321411e-02
2.509052306413650513e-02
-1.763381063938140869e-02
-6.005409359931945801e-02
-8.282510191202163696e-02
-7.081611454486846924e-02
-3.859842941164970398e-02
6.700367480516433716e-02
-7.854584604501724243e-02
6.885243207216262817e-02
5.710180848836898804e-02
5.589798092842102051e-04
6.263431161642074585e-02
5.366817861795425415e-02
-7.334624975919723511e-02
1.188948750495910645e-02
-4.072527587413787842e-02
1.212582737207412720e-02
-2.362243086099624634e-02
-5.625026673078536987e-02
9.129300713539123535e-03
1.878955960273742676e-02
8.460973948240280151e-02
-5.391082167625427246e-02
4.254437237977981567e-02
-4.639684036374092102e-02
-2.542803436517715454e-02
1.992364972829818726e-02
-7.764902710914611816e-02
6.128018349409103394e-02
1.735356450080871582e-02
-5.754793807864189148e-02
8.680728822946548462e-02
-8.646790683269500732e-02
-1.098362356424331665e-02
-1.081071794033050537e-02
-2.931981161236763000e-02
1.580898463726043701e-02
-1.493430137634277344e-02
2.892372012138366699e-02
-2.516856044530868530e-02
-2.713337540626525879e-03
-2.769015729427337646e-03
-5.585809051990509033e-02
8.740022033452987671e-02
1.313807070255279541e-02
6.149398535490036011e-02
-7.967801392078399658e-02
-3.801588714122772217e-02
-1.756551861763000488e-02
-5.904807150363922119e-02
-5.373362824320793152e-02
7.784502953290939331e-02
1.111975312232971191e-02
7.095067948102951050e-02
5.035846680402755737e-02
-3.451022878289222717e-02
-5.367008224129676819e-02
5.905016511678695679e-02
5.891274660825729370e-02
5.165342241525650024e-02
5.841938406229019165e-02
-4.350360855460166931e-02
-4.257125779986381531e-02
3.435221314430236816e-02
2.420902252197265625e-02
4.695715755224227905e-02
-1.913284510374069214e-02
-2.269781380891799927e-02
-6.890606135129928589e-02
-5.556685850024223328e-02
5.337683111429214478e-02
-5.794010311365127563e-02
4.966332763433456421e-02
-3.023751080036163330e-03
-1.351593434810638428e-02
9.000092744827270508e-03
4.040601104497909546e-02
-6.599257886409759521e-02
7.634960860013961792e-02
-8.707208186388015747e-02
2.627012133598327637e-02
-2.406305819749832153e-02
8.639087527990341187e-02
6.989901512861251831e-02
-8.091927319765090942e-02
5.614951252937316895e-03
2.648321539163589478e-02
-3.092664107680320740e-02
1.968483626842498779e-02
5.502834171056747437e-02
2.315215021371841431e-02
3.023220598697662354e-02
8.341700583696365356e-02
9.379833936691284180e-03
-8.674347400665283203e-02
5.636913329362869263e-02
-7.236274331808090210e-02
1.442031562328338623e-02
-8.758970350027084351e-02
-8.491091430187225342e-02
4.225715249776840210e-02
7.881195098161697388e-02
-7.178696990013122559e-02
8.097235113382339478e-02
-5.514014139771461487e-02
7.359125465154647827e-02
-1.793818175792694092e-02
-5.194239690899848938e-02
-5.176130309700965881e-02
-1.620408147573471069e-02
-8.579012006521224976e-02
8.707705885171890259e-02
3.824410587549209595e-02
3.092177212238311768e-03
4.432874172925949097e-02
-4.625238478183746338e-03
-8.629016578197479248e-03
-7.036472111940383911e-02
1.459978520870208740e-02
-1.590109616518020630e-02
-8.096232265233993530e-02
-1.432389020919799805e-03
7.522427290678024292e-02
8.020686358213424683e-02
-4.634139686822891235e-02
-8.004062622785568237e-02
7.019045203924179077e-02
-3.282066807150840759e-02
2.232358604669570923e-02
-3.983028233051300049e-03
7.408157736063003540e-02
-3.822809830307960510e-02
-2.716046199202537537e-02
-6.477744877338409424e-02
4.085759073495864868e-02
8.665075153112411499e-02
8.424151688814163208e-02
-2.792321518063545227e-02
3.732495009899139404e-03
6.473861634731292725e-03
1.374392211437225342e-02
1.746033132076263428e-02
-1.407486945390701294e-02
-6.690532714128494263e-02
-4.116544872522354126e-02
-5.471501499414443970e-02
4.155267030000686646e-02
-5.082269385457038879e-02
-8.857451379299163818e-03
1.944015920162200928e-02
5.670450627803802490e-03
6.763043254613876343e-02
-1.418612897396087646e-03
-7.101747393608093262e-02
2.212734520435333252e-02
5.027563124895095825e-02
4.387529939413070679e-02
3.104226291179656982e-02
6.436339765787124634e-02
-7.779832184314727783e-02
5.255670100450515747e-02
3.183587640523910522e-02
-5.819317698478698730e-02
-2.676410228013992310e-02
8.499778807163238525e-03
5.021943897008895874e-02
1.007571816444396973e-03
3.879502415657043457e-03
-3.934635967016220093e-02
-2.067676931619644165e-02
7.654219120740890503e-02
-4.124933108687400818e-02
3.503678739070892334e-02
3.805527836084365845e-02
6.071192771196365356e-02
3.958331793546676636e-02
2.483997493982315063e-02
7.487850636243820190e-02
4.824883490800857544e-02
-8.287194371223449707e-02
