5.071470513939857483e-02
7.945096492767333984e-02
6.712967157363891602e-02
-4.034552723169326782e-02
3.094002231955528259e-02
2.326596528291702271e-02
-2.731334883719682693e-03
4.194872453808784485e-02
-6.335987895727157593e-02
-1.425497699528932571e-02
6.775235291570425034e-03
-3.838689997792243958e-02
1.966178044676780701e-02
1.723841764032840729e-02
5.420200154185295105e-02
-5.239490792155265808e-02
-5.518454685807228088e-02
7.862908393144607544e-02
-2.729132585227489471e-02
-5.035486817359924316e-02
-1.862915605306625366e-02
-2.007072232663631439e-02
-2.935704588890075684e-02
6.784631311893463135e-02
3.390604630112648010e-02
-6.098095327615737915e-02
5.225504189729690552e-02
6.094043329358100891e-02
3.231506049633026123e-02
-6.251527369022369385e-02
-7.257352769374847412e-02
7.789804041385650635e-02
1.811699010431766510e-02
7.765945792198181152e-02
-6.467217206954956055e-02
-7.219814509153366089e-02
-7.314117252826690674e-02
5.294614657759666443e-02
-1.677373610436916351e-02
5.990495160222053528e-02
-1.657146029174327850e-02
-2.030567156907636672e-05
-2.428354695439338684e-02
-4.751217737793922424e-02
3.598361834883689880e-02
2.221901901066303253e-03
-1.926085352897644043e-02
-4.999797418713569641e-02
-5.953489243984222412e-02
8.427958190441131592e-02
6.972263753414154053e-02
5.302166566252708435e-02
-8.092350326478481293e-03
4.339230060577392578e-02
-1.225639879703521729e-02
4.017423093318939209e-02
7.583606988191604614e-02
-4.778679832816123962e-02
-1.474266219884157181e-02
6.725240498781204224e-02
-2.235357463359832764e-02
2.339455857872962952e-02
6.561484932899475098e-02
-4.681356251239776611e-03
3.636652231216430664e-02
-1.014865376055240631e-02
3.974026441574096680e-02
8.385578170418739319e-03
-1.285192742943763733e-02
8.174120634794235229e-02
-5.594327300786972046e-02
-4.312024265527725220e-02
-4.274982213973999023e-02
-7.181534916162490845e-02
-6.095224618911743164e-02
4.745609685778617859e-02
6.497282069176435471e-03
4.357354342937469482e-02
6.707815080881118774e-02
2.884430997073650360e-02
3.205645084381103516e-02
8.725472725927829742e-03
-4.385575279593467712e-02
5.724580213427543640e-02
-6.234338879585266113e-02
5.716994870454072952e-03
5.200261250138282776e-02
-6.504592020064592361e-03
1.112570054829120636e-02
-4.284535348415374756e-02
6.148730590939521790e-02
5.613609217107295990e-03
-2.774687670171260834e-02
-5.821723118424415588e-02
-5.879110097885131836e-02
-7.476472854614257812e-02
