-1.430327538400888443e-03
3.407223895192146301e-02
-1.144470572471618652e-01
-1.100364793092012405e-02
6.425668299198150635e-02
-1.022164337337017059e-02
1.355488318949937820e-02
-1.224471256136894226e-02
9.364785999059677124e-02
-9.036164730787277222e-02
-8.389704674482345581e-02
-5.060678813606500626e-03
9.779315441846847534e-02
-6.356941163539886475e-02
1.152759939432144165e-01
4.246684908866882324e-02
-6.014474853873252869e-02
-5.771157145500183105e-02
-9.030490368604660034e-02
-5.974387004971504211e-02
9.019592404365539551e-02
-1.231752485036849976e-01
-9.897462278604507446e-02
-3.808304667472839355e-02
8.143575489521026611e-02
8.783113211393356323e-02
-1.127022206783294678e-01
1.067284718155860901e-01
4.600218683481216431e-02
-1.751318946480751038e-02
-1.236775051802396774e-02
-9.988040477037429810e-02
-6.728976219892501831e-02
6.687287241220474243e-02
7.665565609931945801e-02
1.105406135320663452e-01
-7.025348395109176636e-02
-7.077828794717788696e-02
-9.933237731456756592e-02
2.738504111766815186e-02
-8.192832022905349731e-02
6.838490813970565796e-02
-9.678064286708831787e-02
-1.010355912148952484e-02
7.363937795162200928e-02
7.413273304700851440e-02
8.419644832611083984e-02
-4.811203479766845703e-02
9.119585156440734863e-02
4.279775917530059814e-02
-1.307612471282482147e-02
8.781726658344268799e-02
-8.563505113124847412e-02
-1.169610023498535156e-01
-2.773005887866020203e-02
-2.628559432923793793e-02
9.240850806236267090e-03
-3.916378319263458252e-02
5.499999225139617920e-02
9.159934706985950470e-03
-7.641212642192840576e-02
9.421776980161666870e-02
6.872551888227462769e-02
-7.596080750226974487e-02
4.951626434922218323e-02
-8.487299829721450806e-02
-6.864187121391296387e-02
8.657391369342803955e-02
-1.350787561386823654e-02
4.926886409521102905e-02
-9.876021742820739746e-02
-7.253799587488174438e-02
-7.091241423040628433e-03
6.570773571729660034e-02
-8.081556856632232666e-02
5.001981928944587708e-02
-5.213850736618041992e-02
-1.116453781723976135e-01
-6.848627328872680664e-02
-4.376682266592979431e-02
-1.120751649141311646e-01
2.507168613374233246e-02
-1.047894135117530823e-01
8.991639316082000732e-02
9.017906337976455688e-02
2.270678989589214325e-02
-1.074886098504066467e-01
-1.178876683115959167e-01
-4.731474816799163818e-02
-1.216648817062377930e-01
-1.765081472694873810e-02
-3.115510381758213043e-02
2.516829408705234528e-02
-1.115430961363017559e-03
-9.210787713527679443e-02
-1.543100737035274506e-02
-7.153934985399246216e-02
-1.186771616339683533e-01
1.419756375253200531e-02
7.168285548686981201e-03
9.278778731822967529e-02
4.208929464221000671e-02
1.792863197624683380e-02
-9.391258656978607178e-02
1.032095924019813538e-01
3.367633791640400887e-03
-8.550105243921279907e-02
-9.527735412120819092e-02
3.736925125122070312e-02
7.758157327771186829e-03
-5.485032685101032257e-03
5.496176704764366150e-02
1.021055877208709717e-02
-9.262935817241668701e-02
7.015363872051239014e-02
6.052169203758239746e-02
3.130720183253288269e-02
3.965158015489578247e-02
1.709163188934326172e-02
-7.898122072219848633e-02
-5.336579307913780212e-02
5.690908432006835938e-02
8.774432539939880371e-02
-5.440546572208404541e-02
-7.692500948905944824e-02
1.009995043277740479e-01
-1.067201942205429077e-01
5.525413155555725098e-02
-9.660135209560394287e-02
-9.753935039043426514e-02
-6.363582611083984375e-02
4.874803125858306885e-02
-6.982419639825820923e-02
-6.556373089551925659e-02
-3.803485631942749023e-02
4.809219762682914734e-02
-6.113553792238235474e-02
-6.519772112369537354e-02
6.220712512731552124e-02
6.087300926446914673e-02
1.197346858680248260e-02
2.864457294344902039e-02
7.260079681873321533e-02
1.572584034875035286e-03
1.158859804272651672e-01
-3.448923304677009583e-02
-9.948698431253433228e-02
1.259041251614689827e-03
-1.773435994982719421e-02
1.002079993486404419e-01
5.539549887180328369e-02
-2.240757644176483154e-02
1.065452694892883301e-01
1.175147294998168945e-01
-6.514483690261840820e-02
-1.161985322833061218e-01
-4.075487144291400909e-03
-7.391057163476943970e-02
8.534559607505798340e-02
-1.041700020432472229e-01
-8.054532855749130249e-02
7.596018910408020020e-02
9.483996778726577759e-02
-5.496747419238090515e-02
-8.195262402296066284e-02
7.104249298572540283e-02
-6.074750423431396484e-02
6.215343251824378967e-02
8.536942303180694580e-03
-9.616523236036300659e-02
-1.186674088239669800e-01
1.166883949190378189e-02
-1.034470647573471069e-02
-1.141358725726604462e-02
-1.391437544953078032e-04
-2.415857464075088501e-02
-9.635345637798309326e-02
3.340615332126617432e-02
9.519445896148681641e-02
5.755097046494483948e-02
2.970315702259540558e-02
8.698080480098724365e-02
3.307328373193740845e-02
8.216691762208938599e-02
1.845099404454231262e-02
7.868569344282150269e-02
9.156349301338195801e-02
7.924723625183105469e-02
-2.533829212188720703e-02
-1.865390315651893616e-02
-4.998802766203880310e-02
1.517782569862902164e-03
-2.045727893710136414e-02
-6.806837767362594604e-02
-1.373807806521654129e-02
3.229986503720283508e-02
-8.356787264347076416e-02
8.004934526979923248e-03
-1.201788634061813354e-01
-1.534465700387954712e-02
-1.113075017929077148e-01
-8.615355193614959717e-02
-1.744181476533412933e-02
1.048628389835357666e-01
7.555046677589416504e-02
-1.815333962440490723e-02
9.644212573766708374e-02
-3.291871771216392517e-02
-5.183772742748260498e-02
9.727894328534603119e-03
-1.041995584964752197e-01
-3.777080401778221130e-02
4.243048280477523804e-02
5.767440423369407654e-02
1.119899898767471313e-01
9.640892595052719116e-02
1.602261699736118317e-02
-7.187436521053314209e-02
-1.175839453935623169e-01
8.149232715368270874e-03
-7.461008429527282715e-02
-1.593142934143543243e-02
-1.701202616095542908e-02
-9.377640485763549805e-02
1.195941027253866196e-02
-4.726598039269447327e-02
8.372499793767929077e-02
9.041153639554977417e-02
-5.000102892518043518e-02
5.560770630836486816e-02
9.465793520212173462e-02
9.459885209798812866e-02
-2.588355354964733124e-02
8.881354331970214844e-02
-3.932776302099227905e-02
5.418292805552482605e-02
-1.001778095960617065e-01
9.202353656291961670e-02
1.879940181970596313e-02
5.946551635861396790e-02
1.117156445980072021e-02
6.317672133445739746e-02
-4.650838673114776611e-02
5.580630525946617126e-02
1.087145283818244934e-01
7.123003900051116943e-02
-1.119694709777832031e-01
-1.489683985710144043e-02
-3.210941702127456665e-02
-4.625084996223449707e-02
2.257249131798744202e-02
6.701440364122390747e-02
-4.084356129169464111e-02
1.028803810477256775e-01
-9.630439803004264832e-03
4.519509896636009216e-02
3.622076706960797310e-03
7.598229497671127319e-02
7.176300138235092163e-02
-2.483620541170239449e-03
-1.132905855774879456e-01
8.345663547515869141e-02
9.432853013277053833e-02
-4.728022590279579163e-02
-2.864817343652248383e-02
7.280471175909042358e-02
-7.457575201988220215e-02
4.120652005076408386e-02
-1.192793697118759155e-01
-3.703005611896514893e-02
-6.224893406033515930e-02
-1.159248128533363342e-01
-3.999869897961616516e-02
6.293598562479019165e-02
7.431353628635406494e-02
4.616998508572578430e-02
7.485797978006303310e-04
1.638424769043922424e-02
1.193489953875541687e-01
7.702536880970001221e-02
-9.222827851772308350e-02
-7.717140018939971924e-02
-8.440016955137252808e-02
-1.145904958248138428e-01
2.206124830991029739e-03
3.758642449975013733e-02
6.187754124402999878e-02
3.873612359166145325e-02
5.507760494947433472e-02
5.789743363857269287e-02
-6.100796535611152649e-02
1.103742867708206177e-01
-9.276394546031951904e-02
-8.304462768137454987e-03
4.257612396031618118e-03
-2.767474763095378876e-02
-4.743293300271034241e-02
-1.312790345400571823e-02
-5.496411770582199097e-02
-4.744249954819679260e-02
9.342055767774581909e-02
5.843105539679527283e-02
-4.823033139109611511e-02
1.034217253327369690e-01
-8.449457585811614990e-02
-6.016551982611417770e-03
7.181914150714874268e-02
1.066909059882164001e-01
6.962779443711042404e-03
3.663144633173942566e-02
-3.578340262174606323e-02
-3.702915832400321960e-02
-7.311136275529861450e-02
1.658211089670658112e-02
6.992401182651519775e-02
9.243544936180114746e-02
-6.836186349391937256e-02
-1.187886595726013184e-01
8.447395265102386475e-02
1.164298951625823975e-01
1.115368008613586426e-01
-8.594951778650283813e-02
7.002636790275573730e-02
-2.768338471651077271e-02
7.156284153461456299e-02
5.017295852303504944e-02
-6.944528222084045410e-02
-1.380872633308172226e-02
7.273472379893064499e-03
8.338011056184768677e-02
-9.592832624912261963e-02
1.116517931222915649e-01
-4.134842380881309509e-02
-7.913965731859207153e-03
1.077210754156112671e-01
2.079340815544128418e-02
-4.153190553188323975e-02
-2.480640821158885956e-02
-3.156455606222152710e-02
-6.402402371168136597e-02
8.578756824135780334e-03
-6.963696796447038651e-03
-7.193499058485031128e-02
1.615902781486511230e-02
-4.470680281519889832e-02
9.184709936380386353e-02
-9.612943977117538452e-02
-2.586136758327484131e-02
7.617988437414169312e-02
-5.510991811752319336e-02
-4.031995311379432678e-03
-2.346930652856826782e-02
-3.356024250388145447e-02
-7.449597120285034180e-02
7.292700558900833130e-02
-4.808996990323066711e-02
5.776685848832130432e-02
8.130150847136974335e-03
-1.711142621934413910e-02
-1.297020763158798218e-01
5.508590489625930786e-02
-9.519445896148681641e-02
5.498612672090530396e-02
-9.895110130310058594e-02
-5.328504368662834167e-02
1.748356781899929047e-02
-6.312040239572525024e-02
3.996315225958824158e-02
-3.378320857882499695e-02
9.853741526603698730e-02
4.048628732562065125e-02
3.353124856948852539e-02
4.352506995201110840e-02
-1.541881076991558075e-02
-2.726730704307556152e-02
1.715222001075744629e-02
-6.225042417645454407e-02
5.507638305425643921e-02
4.262012243270874023e-02
-1.646085642278194427e-02
-6.168954446911811829e-02
7.604415714740753174e-02
-7.467085961252450943e-04
3.300664201378822327e-02
1.094330847263336182e-01
-2.162916027009487152e-02
8.255321532487869263e-02
4.590491205453872681e-02
-7.786603271961212158e-02
3.614394739270210266e-02
-2.524098195135593414e-02
3.255335241556167603e-02
4.767464473843574524e-03
-4.447695240378379822e-02
1.112413778901100159e-02
-8.642841130495071411e-02
-8.410264551639556885e-02
1.010911464691162109e-01
7.994417101144790649e-03
1.971740461885929108e-02
-9.520568698644638062e-02
-9.627907723188400269e-02
-1.198349148035049438e-02
-1.086242422461509705e-01
7.213094085454940796e-02
4.467648267745971680e-02
3.707145154476165771e-02
-6.158468499779701233e-02
-2.103969920426607132e-03
-5.934266000986099243e-02
1.646574772894382477e-02
3.802669420838356018e-02
-9.403185546398162842e-02
-6.919524818658828735e-02
2.342823892831802368e-02
7.954242080450057983e-02
7.125984877347946167e-02
9.104652702808380127e-02
-8.552549779415130615e-02
1.115380451083183289e-01
-8.456798642873764038e-02
1.744987256824970245e-02
9.662001579999923706e-02
-9.090032428503036499e-03
-9.675722569227218628e-02
9.921411424875259399e-02
-2.123427577316761017e-02
2.840056829154491425e-02
2.183153666555881500e-02
9.658079594373703003e-02
-5.014324560761451721e-03
1.127735748887062073e-01
-1.230881884694099426e-01
8.069323003292083740e-02
2.154351584613323212e-02
-2.864466980099678040e-02
7.766554504632949829e-02
6.153961177915334702e-03
-4.670457274187356234e-04
2.657360956072807312e-02
-8.044759929180145264e-02
5.457270145416259766e-02
7.726842910051345825e-02
-6.595580838620662689e-03
5.011710524559020996e-02
8.158231154084205627e-03
3.212527185678482056e-02
3.831002861261367798e-02
-8.600594103336334229e-02
-4.491361230611801147e-02
-1.088351309299468994e-01
8.012690395116806030e-02
-7.043151557445526123e-02
8.437416702508926392e-02
-8.941233903169631958e-02
-7.568895351141691208e-03
8.434756100177764893e-02
-2.537894295528531075e-03
-5.946879088878631592e-02
1.026776954531669617e-01
4.893426969647407532e-02
7.313188910484313965e-02
2.773616276681423187e-02
7.177451997995376587e-02
-6.732965121045708656e-04
-9.087923169136047363e-02
-1.020147502422332764e-01
5.892828106880187988e-03
6.106399744749069214e-02
-6.823856383562088013e-02
2.904028818011283875e-02
-9.384052455425262451e-02
1.091801896691322327e-01
-1.048962995409965515e-01
-9.903359413146972656e-02
5.716254934668540955e-02
-1.067433431744575500e-01
-7.670243084430694580e-02
-6.498132646083831787e-02
9.310889989137649536e-02
-5.293043330311775208e-02
9.221434593200683594e-02
-6.127740070223808289e-02
-9.514030814170837402e-02
7.069253176450729370e-02
4.683762788772583008e-02
8.605359494686126709e-02
-1.126053184270858765e-01
8.597207069396972656e-02
5.058693885803222656e-02
2.087886258959770203e-02
1.027636379003524780e-01
2.699180133640766144e-02
-5.259153991937637329e-02
8.251155912876129150e-02
2.114016376435756683e-02
2.937990799546241760e-02
-1.304942648857831955e-02
-9.021591395139694214e-02
-7.320214062929153442e-02
7.216142490506172180e-03
1.088727265596389771e-01
1.050859466195106506e-01
-6.525195389986038208e-02
8.752741664648056030e-02
7.348458468914031982e-02
8.206728100776672363e-02
-6.434923410415649414e-02
-3.767622169107198715e-03
-1.103769242763519287e-02
-9.602413326501846313e-02
-9.169247001409530640e-02
-2.201367728412151337e-02
9.733641147613525391e-02
3.741210699081420898e-02
8.990290574729442596e-03
-1.817687787115573883e-02
-1.047370657324790955e-01
3.270332515239715576e-02
-9.025020897388458252e-02
7.564040273427963257e-02
-4.255845770239830017e-02
1.259755995124578476e-02
-7.859738916158676147e-02
9.036621451377868652e-02
-1.193259283900260925e-01
-1.026324033737182617e-01
-2.573018893599510193e-02
-3.896753489971160889e-02
4.675770923495292664e-02
-4.733273759484291077e-02
-1.047786846756935120e-01
-2.201479114592075348e-02
-7.599837332963943481e-02
1.112664639949798584e-01
-4.847370460629463196e-02
-8.477151393890380859e-02
-2.863496355712413788e-02
-7.642816752195358276e-02
-8.726042695343494415e-03
3.156934678554534912e-02
-9.317629784345626831e-02
-5.283025279641151428e-02
3.213083837181329727e-03
7.879547774791717529e-02
3.319539874792098999e-02
-6.151769310235977173e-02
-9.368540346622467041e-02
9.551995247602462769e-02
-1.093151494860649109e-01
-8.841916918754577637e-02
2.035092934966087341e-02
-3.341763839125633240e-02
9.763085842132568359e-02
1.881051063537597656e-02
-2.872724458575248718e-02
4.973532259464263916e-02
-2.824064530432224274e-02
6.271999329328536987e-02
1.008990928530693054e-01
8.651809394359588623e-02
1.145677417516708374e-01
-5.163132399320602417e-02
5.508393794298171997e-02
-4.184201359748840332e-02
1.186191141605377197e-01
-2.949124015867710114e-02
-2.956824004650115967e-02
-4.040905460715293884e-02
6.407529115676879883e-02
-5.223088711500167847e-02
1.126616522669792175e-01
-3.030349034816026688e-03
-1.068220362067222595e-01
6.492268294095993042e-02
9.399826824665069580e-02
-9.148341417312622070e-02
-1.126142740249633789e-01
1.048878058791160583e-01
6.683317571878433228e-02
-6.447057425975799561e-02
9.346251189708709717e-02
-2.276732958853244781e-02
-5.945533141493797302e-02
7.079339027404785156e-02
-6.243214383721351624e-02
1.579243689775466919e-02
1.005742922425270081e-01
-9.538285434246063232e-02
-8.375043421983718872e-02
-9.323173016309738159e-02
1.001929417252540588e-01
-7.954100519418716431e-02
-8.896170556545257568e-02
-5.406325682997703552e-02
4.881413280963897705e-02
1.110608503222465515e-02
-1.251180320978164673e-01
7.987514883279800415e-02
5.840364471077919006e-02
1.201084926724433899e-01
6.019426137208938599e-02
-1.054982542991638184e-01
6.014488264918327332e-02
3.741136286407709122e-03
-4.424253478646278381e-02
1.075116097927093506e-01
4.049212485551834106e-02
1.059601753950119019e-01
2.713813818991184235e-02
-1.392380613833665848e-02
-3.706641867756843567e-02
1.537842117249965668e-02
6.756809353828430176e-02
1.674747280776500702e-02
8.178211748600006104e-03
7.557139545679092407e-02
7.921094447374343872e-02
7.540456205606460571e-02
-1.146019715815782547e-02
5.380873009562492371e-02
-1.782825589179992676e-02
-7.911488413810729980e-02
7.422758638858795166e-02
3.551483526825904846e-02
2.676204778254032135e-02
5.618268158286809921e-03
1.163499802350997925e-01
6.834156066179275513e-02
-2.195463282987475395e-03
1.508538424968719482e-02
-1.040603965520858765e-01
9.288928471505641937e-03
1.614797115325927734e-02
1.147672161459922791e-02
1.105020716786384583e-01
-9.395749121904373169e-02
4.907461814582347870e-03
-8.651091158390045166e-02
-2.677510119974613190e-02
-9.167388081550598145e-02
-1.010818779468536377e-02
-6.284154206514358521e-02
9.885200858116149902e-02
-3.063908591866493225e-02
8.125629276037216187e-03
4.112436901777982712e-03
-4.517341777682304382e-02
-1.368652377277612686e-02
9.229771792888641357e-02
1.962419599294662476e-02
1.556632574647665024e-03
-1.063415408134460449e-01
-8.706209063529968262e-02
-3.629145398736000061e-02
3.603417426347732544e-02
-4.245261102914810181e-02
3.036692924797534943e-02
-8.853068947792053223e-02
-9.327999502420425415e-02
-7.859692722558975220e-02
6.061545014381408691e-02
6.563271582126617432e-02
7.042919844388961792e-02
-8.835040777921676636e-02
-4.393011331558227539e-02
6.907069683074951172e-02
1.580453291535377502e-02
-6.142479926347732544e-02
1.458817813545465469e-02
7.175505906343460083e-02
6.033036485314369202e-02
8.101355284452438354e-03
-3.537264838814735413e-02
-2.335806190967559814e-02
-7.358726114034652710e-02
-8.646738529205322266e-02
-6.783954799175262451e-02
7.325690984725952148e-02
-8.933613449335098267e-02
-5.749314278364181519e-02
6.173231452703475952e-02
6.810417026281356812e-02
3.312918171286582947e-02
-2.022273093461990356e-02
3.727982565760612488e-02
3.425445035099983215e-02
-3.962954878807067871e-02
-3.085479699075222015e-02
1.266014203429222107e-02
5.579155310988426208e-02
8.727916330099105835e-02
-5.677679553627967834e-02
1.021968722343444824e-01
8.242771774530410767e-02
-5.420148372650146484e-03
-1.143421381711959839e-01
5.034238100051879883e-02
-8.376181870698928833e-02
-1.070363074541091919e-01
8.727372437715530396e-02
1.056056022644042969e-01
4.867146536707878113e-02
8.006854355335235596e-02
2.126320824027061462e-02
1.360490173101425171e-02
1.074841320514678955e-01
8.383765071630477905e-02
8.715323358774185181e-02
-6.851286441087722778e-02
-8.251196891069412231e-02
6.868390738964080811e-02
8.523514866828918457e-02
1.006080023944377899e-02
9.994181990623474121e-02
5.209954455494880676e-02
-1.179097443819046021e-01
-1.562239881604909897e-02
-1.017611697316169739e-01
-6.155917793512344360e-02
-6.308958679437637329e-02
-1.108709946274757385e-01
-5.159730464220046997e-02
-1.127383857965469360e-01
-3.955947235226631165e-02
-6.134365499019622803e-02
-1.293800212442874908e-02
-4.138838872313499451e-02
1.105339601635932922e-01
-5.113132297992706299e-02
4.858878627419471741e-02
-4.011155664920806885e-02
1.095307916402816772e-01
-4.604972898960113525e-02
-2.935408242046833038e-02
1.121884062886238098e-01
7.082297652959823608e-02
-5.110355466604232788e-02
-4.812446981668472290e-02
-1.073159351944923401e-01
-5.833960697054862976e-02
-1.160583272576332092e-01
1.454435940831899643e-02
2.629780769348144531e-02
7.387765496969223022e-02
-1.167961210012435913e-01
9.038742631673812866e-02
1.174825578927993774e-01
9.247044473886489868e-02
6.127893924713134766e-02
-6.462176889181137085e-02
5.529938638210296631e-02
-5.850901827216148376e-02
-1.607983745634555817e-02
3.096975199878215790e-02
-8.837653696537017822e-02
-4.549612849950790405e-02
7.677266001701354980e-02
-4.901685751974582672e-03
1.062773317098617554e-01
-1.003393158316612244e-01
6.063819304108619690e-02
-3.369397670030593872e-02
9.726084768772125244e-02
1.941564492881298065e-02
-4.727854207158088684e-02
-4.735234007239341736e-02
-6.344658881425857544e-02
-6.643386185169219971e-02
-1.022113338112831116e-01
4.184317588806152344e-02
4.481690376996994019e-02
-5.901557207107543945e-02
-8.701168000698089600e-02
5.110984668135643005e-02
-4.016810283064842224e-02
-7.476598769426345825e-02
9.144912660121917725e-02
-1.203734576702117920e-01
-5.344799160957336426e-02
-7.825095206499099731e-03
-1.037358939647674561e-01
-9.021807461977005005e-02
5.304237455129623413e-02
-1.950797438621520996e-02
-1.179602816700935364e-01
-2.468086220324039459e-02
-6.444881111383438110e-02
-3.506758809089660645e-02
1.145660877227783203e-01
5.800336226820945740e-02
1.178817451000213623e-02
-1.000106334686279297e-01
8.056711405515670776e-02
-2.086150459945201874e-02
-9.455171972513198853e-02
-8.018697798252105713e-02
8.111608028411865234e-02
1.131170913577079773e-01
-1.093735545873641968e-02
8.999696373939514160e-02
-2.354950644075870514e-02
1.057884469628334045e-01
-5.461978912353515625e-02
-1.037407014518976212e-02
1.026233062148094177e-01
1.060574203729629517e-01
-5.693385750055313110e-02
5.905107036232948303e-02
-3.824478760361671448e-02
-7.339871674776077271e-02
3.712645173072814941e-02
7.564801722764968872e-02
-7.635229825973510742e-02
-3.489832207560539246e-02
9.816561639308929443e-02
-1.074226573109626770e-01
-5.213284119963645935e-02
-1.639912137761712074e-03
1.135586723685264587e-01
-1.119471713900566101e-01
-8.260294049978256226e-02
-1.032931134104728699e-01
7.402437925338745117e-02
-8.341577649116516113e-02
1.014650166034698486e-01
4.539763554930686951e-02
-9.012218564748764038e-02
-3.710128366947174072e-02
-5.529199913144111633e-02
5.193625390529632568e-02
9.421598166227340698e-02
-1.157341822981834412e-01
6.770677119493484497e-02
-6.396855227649211884e-03
-4.667561501264572144e-02
5.252597108483314514e-02
-7.110551744699478149e-02
-2.165623754262924194e-02
-6.983083672821521759e-03
1.139810383319854736e-01
1.007323414087295532e-01
-8.132673799991607666e-02
-3.469901531934738159e-02
9.085544943809509277e-02
-5.810215696692466736e-02
-2.486840076744556427e-02
-1.204585731029510498e-01
8.261113613843917847e-02
-1.049882099032402039e-01
-5.449339747428894043e-02
-1.007496714591979980e-01
-9.023405611515045166e-02
3.842415986582636833e-03
-9.402336180210113525e-02
-7.980085909366607666e-02
1.086057499051094055e-01
-1.062600240111351013e-01
-4.516751691699028015e-02
1.154040843248367310e-01
-5.174210295081138611e-02
-1.038953661918640137e-01
1.191418021917343140e-01
6.732815504074096680e-02
4.112885519862174988e-02
1.827407814562320709e-02
-1.098670661449432373e-01
1.418170053511857986e-02
-8.619876950979232788e-02
-1.207149028778076172e-01
2.330589480698108673e-02
-8.582426607608795166e-02
-7.769341021776199341e-02
1.064269393682479858e-01
3.076624870300292969e-02
-1.162511855363845825e-01
8.231605589389801025e-02
-1.245442554354667664e-01
-7.587981224060058594e-02
-1.209755912423133850e-01
1.016362383961677551e-01
8.370245993137359619e-02
-8.768978714942932129e-02
-8.486930280923843384e-02
-9.544094651937484741e-02
9.768212586641311646e-02
-5.445200204849243164e-02
-4.229360073804855347e-02
-1.652976125478744507e-02
-6.831972301006317139e-02
-4.064170643687248230e-02
-9.086818993091583252e-02
-1.862278953194618225e-02
6.424723565578460693e-02
-6.436372548341751099e-02
9.195719659328460693e-02
-9.765733033418655396e-02
-1.099384669214487076e-02
-1.049828156828880310e-01
-3.508903086185455322e-02
8.505942299962043762e-03
1.011828798800706863e-02
6.729981303215026855e-02
4.733645170927047729e-02
-1.068257167935371399e-01
-3.276760503649711609e-02
-1.938042347319424152e-03
-9.393353015184402466e-02
-9.152506291866302490e-02
7.155942171812057495e-02
-9.785710135474801064e-04
9.108148515224456787e-02
7.381668686866760254e-02
-1.835492812097072601e-02
3.563375398516654968e-02
-6.469684094190597534e-02
8.769614994525909424e-02
9.101155400276184082e-02
5.605905875563621521e-02
1.020738556981086731e-01
-8.491373807191848755e-02
7.002794742584228516e-02
-7.094656676054000854e-02
5.579498410224914551e-02
-6.919075548648834229e-02
-5.007609724998474121e-02
-4.087715223431587219e-02
-7.273168116807937622e-02
-5.153345689177513123e-02
-5.203848704695701599e-02
1.195036992430686951e-01
-5.885407794266939163e-03
1.008198857307434082e-01
-2.912905439734458923e-02
6.106726080179214478e-02
-1.046890672296285629e-02
-1.213810872286558151e-02
-7.846879214048385620e-02
-2.140523865818977356e-03
-5.710145831108093262e-02
5.329157412052154541e-02
1.991918310523033142e-02
-5.917286500334739685e-02
9.828995168209075928e-02
1.442796178162097931e-02
-9.469073265790939331e-02
-6.956584751605987549e-02
8.033511787652969360e-02
-1.050206422805786133e-01
-6.804402917623519897e-02
-3.949761390686035156e-02
-1.870178245007991791e-02
9.905934333801269531e-02
4.285402223467826843e-02
1.055207028985023499e-01
3.959915414452552795e-02
9.893469512462615967e-02
-6.563303619623184204e-02
-3.678090125322341919e-02
1.140971034765243530e-01
