3.134698420763015747e-02
-5.799747630953788757e-02
-2.845158576965332031e-01
2.254140228033065796e-01
3.177643716335296631e-01
-8.321924507617950439e-02
-5.034591555595397949e-01
1.703283339738845825e-01
5.637923479080200195e-01
2.200302034616470337e-01
1.327991783618927002e-01
4.442749544978141785e-02
1.250379234552383423e-01
5.610600113868713379e-01
1.125739589333534241e-01
8.972696214914321899e-02
-9.519420564174652100e-02
-7.501471787691116333e-02
5.327368378639221191e-01
8.807233721017837524e-02
1.261418312788009644e-01
2.739937603473663330e-02
-2.494950294494628906e-01
3.986675739288330078e-01
4.521549344062805176e-01
-1.331804841756820679e-01
-2.189863175153732300e-01
-8.375397324562072754e-02
-3.056881427764892578e-01
2.700661122798919678e-01
4.595592617988586426e-02
-6.470161676406860352e-02
6.488560885190963745e-02
-1.456557363271713257e-01
1.551888734102249146e-01
-9.459049254655838013e-02
4.006009176373481750e-02
2.479413151741027832e-01
-1.162221059203147888e-01
-2.402397841215133667e-01
-6.167792528867721558e-02
-1.269944906234741211e-01
-1.977026909589767456e-01
-1.910456568002700806e-01
-4.774126708507537842e-01
-1.065761893987655640e-01
1.880717650055885315e-02
-3.445183485746383667e-02
-1.363080888986587524e-01
-2.939558625221252441e-01
-2.646609209477901459e-02
6.188542768359184265e-02
-1.092671528458595276e-01
1.948121488094329834e-01
-9.931380152702331543e-01
-2.298876643180847168e-03
1.372522413730621338e-01
1.404413431882858276e-01
1.314906626939773560e-01
-4.698892533779144287e-01
3.772373124957084656e-02
1.430646926164627075e-01
1.533636897802352905e-01
-1.643245667219161987e-01
-1.355406194925308228e-01
1.032471731305122375e-01
1.081060394644737244e-01
7.476821541786193848e-02
-1.677909940481185913e-01
4.543401300907135010e-02
2.819267511367797852e-01
1.148529872298240662e-01
-3.614437207579612732e-02
-4.879103228449821472e-02
3.609275817871093750e-01
-5.510705709457397461e-01
-1.231868043541908264e-01
4.615629613399505615e-01
2.407564669847488403e-01
-3.356440365314483643e-01
-1.709218025207519531e-01
1.599619090557098389e-01
1.811411082744598389e-01
3.808643221855163574e-01
3.006009161472320557e-01
8.039636909961700439e-02
6.684288382530212402e-03
-1.649618893861770630e-01
2.204615175724029541e-01
2.300981581211090088e-01
-5.258095860481262207e-01
-1.132159978151321411e-01
-1.681840568780899048e-01
-2.476625517010688782e-02
4.767237603664398193e-01
2.695028111338615417e-02
-1.506119072437286377e-01
-5.916371345520019531e-01
-2.099769711494445801e-01
3.565662503242492676e-01
-1.051385626196861267e-01
-1.112451702356338501e-01
-1.963198632001876831e-01
-7.659675478935241699e-01
-6.725258827209472656e-01
-2.478988021612167358e-01
1.230265758931636810e-02
8.174325525760650635e-02
-1.555604189634323120e-01
-5.486795902252197266e-01
-5.306267365813255310e-02
-1.595454365015029907e-01
1.055894512683153152e-02
5.193847417831420898e-02
-3.136108219623565674e-01
-1.041198819875717163e-01
5.053431540727615356e-02
-8.326404541730880737e-02
1.231811344623565674e-01
-2.327598035335540771e-01
-1.526559442281723022e-01
3.266970068216323853e-02
1.174670271575450897e-02
2.948282063007354736e-01
4.564836621284484863e-02
2.744240164756774902e-01
-5.948100611567497253e-02
2.665308117866516113e-02
-2.194200009107589722e-01
-6.560267806053161621e-01
2.201161719858646393e-02
-1.217118650674819946e-01
5.445569753646850586e-02
-4.700727388262748718e-02
9.643197804689407349e-02
-5.520948767662048340e-02
2.168823406100273132e-02
-2.519567869603633881e-02
2.512421309947967529e-01
6.645075976848602295e-02
7.855603098869323730e-02
-2.089305967092514038e-02
-2.203239202499389648e-01
8.513376116752624512e-02
-1.822772249579429626e-02
-6.864158809185028076e-02
-2.254365533590316772e-01
-1.297207176685333252e-01
1.889123320579528809e-01
1.876738667488098145e-02
-2.474878430366516113e-01
6.037743017077445984e-02
-3.481364548206329346e-01
-3.001883029937744141e-01
-1.201810762286186218e-01
-1.873374283313751221e-01
1.286123245954513550e-01
3.490938572213053703e-03
-6.140205264091491699e-01
-1.906516253948211670e-01
-1.228926852345466614e-01
1.932054609060287476e-01
-8.822330087423324585e-02
-3.460572361946105957e-01
-1.261785160750150681e-03
2.465666970238089561e-03
3.611512184143066406e-01
-6.213083863258361816e-02
-9.937743842601776123e-02
-5.588225275278091431e-02
5.159866064786911011e-03
3.958670496940612793e-01
-1.455802321434020996e-01
-5.001958832144737244e-02
-3.941754996776580811e-02
8.111607283353805542e-02
1.577831655740737915e-01
-3.221300840377807617e-01
2.399622946977615356e-01
3.713194131851196289e-01
-2.666638977825641632e-02
3.299272954463958740e-01
-1.064114421606063843e-01
-4.527711272239685059e-01
-6.840766221284866333e-02
-1.618052273988723755e-01
1.080178618431091309e-01
1.686098426580429077e-02
-3.466718792915344238e-01
-6.856652349233627319e-02
-7.236125320196151733e-02
1.455463618040084839e-01
8.695370703935623169e-02
-1.584123373031616211e-01
-1.975321769714355469e-01
-1.862199157476425171e-01
1.400963068008422852e-01
-1.237009535543620586e-03
-1.077626794576644897e-01
2.819357626140117645e-02
8.563409000635147095e-02
-1.893585771322250366e-01
-1.039921417832374573e-01
2.651356458663940430e-01
2.901125252246856689e-01
-9.656044840812683105e-02
-2.461148947477340698e-01
-2.512252330780029297e-02
1.328126341104507446e-01
9.701767563819885254e-02
-1.050632074475288391e-01
-3.709918558597564697e-01
1.022654771804809570e-01
2.745933234691619873e-01
-1.382953375577926636e-01
-7.234945893287658691e-02
-2.788527607917785645e-01
5.439186841249465942e-02
1.786278635263442993e-01
-5.143101513385772705e-02
9.692977368831634521e-02
1.282057017087936401e-01
2.209280729293823242e-01
1.048169136047363281e-01
-6.030325219035148621e-02
-5.137566104531288147e-02
-1.891422420740127563e-01
1.316417902708053589e-01
4.012560844421386719e-01
2.723446190357208252e-01
-1.233864650130271912e-01
-2.186266034841537476e-01
-1.317620724439620972e-01
3.626871854066848755e-02
9.290318936109542847e-02
1.641115695238113403e-01
-9.440230205655097961e-03
-1.926345229148864746e-01
1.288611739873886108e-01
1.951588876545429230e-02
1.972397863864898682e-01
-3.089351952075958252e-01
-5.886547565460205078e-01
-2.667036466300487518e-02
2.185826301574707031e-01
1.846844851970672607e-01
-1.483872383832931519e-01
-5.450060963630676270e-01
-5.049937367439270020e-01
5.747943371534347534e-02
-1.415999699383974075e-02
-5.613552406430244446e-02
-1.824694275856018066e-01
-1.990865468978881836e-01
-6.674297899007797241e-02
9.575371630489826202e-03
9.449883550405502319e-02
-3.907430171966552734e-02
-1.624903380870819092e-01
-1.094116866588592529e-01
2.773883938789367676e-02
5.661360919475555420e-02
5.587557330727577209e-02
-2.103115245699882507e-02
-1.546289771795272827e-01
-1.335731446743011475e-01
1.015193387866020203e-01
3.333780169486999512e-02
3.142006322741508484e-02
1.586947739124298096e-01
4.561002366244792938e-03
1.449585109949111938e-01
-7.039499282836914062e-02
6.924830377101898193e-02
2.444274276494979858e-01
5.252612829208374023e-01
1.997757330536842346e-02
2.505629509687423706e-02
-4.548471570014953613e-01
-2.667734324932098389e-01
8.014576882123947144e-02
4.943406581878662109e-02
2.308750748634338379e-01
-4.118938446044921875e-01
-4.568846821784973145e-01
-6.532930582761764526e-02
-1.504390686750411987e-01
-2.487340755760669708e-02
-1.815387010574340820e-01
-1.119823008775711060e-01
-3.417395427823066711e-02
2.296576946973800659e-01
-7.776018232107162476e-02
-1.159177497029304504e-01
8.163501322269439697e-02
1.684040874242782593e-01
6.713395714759826660e-01
-5.129762738943099976e-02
-4.079831838607788086e-01
6.501115113496780396e-02
5.620760098099708557e-02
9.821724891662597656e-02
-2.413536161184310913e-01
1.884548366069793701e-01
3.318012356758117676e-01
-2.996488707140088081e-03
1.504418402910232544e-01
8.281423151493072510e-02
-4.666628241539001465e-01
-1.200045794248580933e-01
2.130677178502082825e-02
1.738577187061309814e-01
9.028647094964981079e-02
-7.322638481855392456e-02
-1.951056718826293945e-01
-1.192021518945693970e-01
-7.706847786903381348e-02
2.005540132522583008e-01
-3.612702488899230957e-01
5.139812231063842773e-01
-2.792100608348846436e-01
-1.437503844499588013e-01
2.228797972202301025e-01
9.733542054891586304e-02
1.875505328178405762e+00
1.632426232099533081e-01
-2.109186053276062012e-01
-2.087339758872985840e-01
-1.737759113311767578e-01
4.035956785082817078e-02
-3.286454975605010986e-01
1.444853544235229492e-01
-1.895540580153465271e-02
1.092919334769248962e-01
1.066986620426177979e-01
-6.745957583189010620e-02
1.095443516969680786e-01
-1.098153181374073029e-02
7.746803015470504761e-02
1.185384541749954224e-01
8.181317150592803955e-02
1.239704638719558716e-01
-7.525347918272018433e-02
5.202329158782958984e-02
1.633380651473999023e-01
-1.784529350697994232e-02
-1.074823737144470215e-01
-2.119378447532653809e-01
-1.803154051303863525e-01
4.256984293460845947e-01
-2.929566428065299988e-02
6.075339019298553467e-02
-2.167392522096633911e-03
-5.642179027199745178e-02
7.453058660030364990e-02
7.242302596569061279e-02
-8.136623352766036987e-02
-1.934746652841567993e-02
1.136260107159614563e-01
-1.851160824298858643e-01
1.097359806299209595e-01
1.511158496141433716e-01
8.651424944400787354e-02
3.839917480945587158e-02
-2.335097640752792358e-01
1.338906139135360718e-01
2.235199958086013794e-01
1.082623600959777832e-01
2.507691085338592529e-02
-3.898689746856689453e-01
2.300382554531097412e-01
-2.522304654121398926e-02
-5.911932140588760376e-02
-3.820087909698486328e-01
-6.026718020439147949e-01
1.124375127255916595e-02
2.533726394176483154e-01
3.263001739978790283e-01
4.714254438877105713e-01
-2.051116526126861572e-01
-1.524147540330886841e-01
-1.223416775465011597e-01
-9.540902823209762573e-02
5.799925420433282852e-03
-2.934655845165252686e-01
-1.141691505908966064e-01
-4.806392788887023926e-01
-5.640490055084228516e-01
-1.863093227148056030e-01
2.700510807335376740e-02
-3.609201014041900635e-01
-7.081490755081176758e-01
-4.623339325189590454e-02
-2.460461407899856567e-01
-5.411844253540039062e-01
6.310249119997024536e-02
-1.433958560228347778e-01
-4.018938168883323669e-02
1.064957156777381897e-01
-4.176064133644104004e-01
-9.523083269596099854e-02
2.957722172141075134e-03
3.229609131813049316e-02
1.448150910437107086e-02
-7.292881608009338379e-02
-5.193068832159042358e-02
-1.270975824445486069e-02
4.936733841896057129e-02
-4.915081337094306946e-02
1.227125898003578186e-01
2.330456674098968506e-02
-8.406325429677963257e-02
2.556031802669167519e-03
-2.187626808881759644e-02
-8.813346922397613525e-02
-1.739342957735061646e-01
-1.226360797882080078e-01
2.902446500957012177e-02
-2.344514280557632446e-01
6.480265408754348755e-02
8.955322951078414917e-02
8.730433881282806396e-02
3.371784463524818420e-02
-6.044762581586837769e-02
3.334934711456298828e-01
-2.509530447423458099e-02
-2.498356997966766357e-01
-4.188752174377441406e-02
-1.013912782073020935e-01
1.298327650874853134e-02
-3.732264339923858643e-01
-1.179960146546363831e-01
1.088435500860214233e-01
-1.785225868225097656e-01
7.221969962120056152e-02
-2.115211188793182373e-01
9.742455556988716125e-03
-6.052498519420623779e-02
-9.704079478979110718e-02
-4.344528913497924805e-02
-4.883817955851554871e-02
-8.666714280843734741e-02
-2.399096339941024780e-01
1.823936700820922852e-01
-4.061563871800899506e-03
2.023523440584540367e-03
-2.017207443714141846e-02
1.491469740867614746e-01
2.694102823734283447e-01
2.933681309223175049e-01
1.558013260364532471e-01
3.787637650966644287e-01
9.998577088117599487e-02
-3.935284018516540527e-01
9.010293334722518921e-02
4.730690419673919678e-01
2.017896771430969238e-01
-3.211747854948043823e-03
-1.151991635560989380e-01
8.457750082015991211e-03
4.490852355957031250e-02
2.547271549701690674e-02
9.311157464981079102e-02
3.585420548915863037e-02
-1.208216995000839233e-01
-2.744530141353607178e-01
-5.050500854849815369e-02
9.901922941207885742e-02
-7.281202077865600586e-02
4.815044626593589783e-02
-2.080764919519424438e-01
2.341054826974868774e-01
-2.469067834317684174e-02
-3.560878634452819824e-01
-2.360376566648483276e-01
-2.235989272594451904e-01
2.022261768579483032e-01
7.606057915836572647e-03
9.858661890029907227e-02
-1.494322121143341064e-01
2.031666338443756104e-01
2.180637866258621216e-01
8.224625140428543091e-02
7.784660160541534424e-02
-3.611364960670471191e-02
1.977261900901794434e-01
1.732828840613365173e-02
-6.696370244026184082e-02
-2.172394394874572754e-01
-2.076319754123687744e-01
-4.025580734014511108e-02
-3.910165280103683472e-02
8.490267395973205566e-02
-1.079083303920924664e-03
-1.480587758123874664e-02
-1.181154921650886536e-01
-8.069549500942230225e-02
-1.423582285642623901e-01
2.086079865694046021e-02
-1.243065893650054932e-01
1.737765818834304810e-01
4.657005369663238525e-01
2.521933056414127350e-02
1.501950025558471680e-01
-1.939326077699661255e-01
7.063983380794525146e-02
1.252654790878295898e-01
-4.186735674738883972e-02
1.759829819202423096e-01
-4.127044081687927246e-01
-3.772102892398834229e-01
-2.411501258611679077e-01
-3.607318177819252014e-02
-5.507821217179298401e-02
-1.203132700175046921e-02
-3.189370036125183105e-01
-2.233503162860870361e-01
7.760788314044475555e-03
-9.555623680353164673e-02
-3.162340447306632996e-02
-3.012389838695526123e-01
-1.123056113719940186e-01
2.818391621112823486e-01
-4.767855256795883179e-02
5.336006358265876770e-02
-2.707687020301818848e-01
-2.818847596645355225e-01
-3.229639232158660889e-01
-1.569285541772842407e-01
-4.150120075792074203e-04
9.714580327272415161e-02
-3.648587763309478760e-01
-7.411222457885742188e-01
-2.435275912284851074e-01
1.375062763690948486e-01
-2.162377685308456421e-01
-1.094085946679115295e-01
4.054554104804992676e-01
5.754723027348518372e-02
1.252982914447784424e-01
1.011298820376396179e-01
-1.634124666452407837e-02
-5.036856532096862793e-01
-2.716206610202789307e-01
1.546182036399841309e-01
3.305566012859344482e-01
2.086053490638732910e-01
-8.765913844108581543e-01
-5.976619720458984375e-01
1.350808590650558472e-01
-1.036084294319152832e-01
-8.571071177721023560e-02
1.308982968330383301e-01
1.114424020051956177e-01
4.863483831286430359e-02
4.559459537267684937e-02
1.105961110442876816e-02
1.237460672855377197e-01
-2.490730723366141319e-03
1.471057883463799953e-03
-5.136669054627418518e-02
-4.562187939882278442e-02
1.942758560180664062e-01
7.238651812076568604e-02
-1.081934943795204163e-02
-2.235764116048812866e-01
-7.927247136831283569e-02
8.078023046255111694e-02
3.365386277437210083e-02
4.599272087216377258e-02
-2.326942235231399536e-01
-2.366435527801513672e-02
8.358755148947238922e-03
-2.006859928369522095e-01
-1.576118543744087219e-02
1.844455599784851074e-01
5.563192963600158691e-01
6.272701174020767212e-02
-8.955458551645278931e-02
-3.735948354005813599e-03
5.560415238142013550e-02
2.184371352195739746e-01
2.835884690284729004e-01
3.148466050624847412e-01
1.237611100077629089e-01
-1.701603643596172333e-02
-4.719035625457763672e-01
-2.305322289466857910e-01
-1.069064904004335403e-02
1.130951941013336182e-01
-4.522010982036590576e-01
-7.875757813453674316e-01
-2.717365622520446777e-01
-7.881950587034225464e-02
4.603632539510726929e-02
-3.204550445079803467e-01
-3.110570907592773438e-01
-9.187320619821548462e-02
3.689453005790710449e-02
1.350461393594741821e-01
4.878860414028167725e-01
2.528099715709686279e-01
4.645017907023429871e-03
2.869201302528381348e-01
2.327237278223037720e-01
-3.844224810600280762e-01
2.805741429328918457e-01
-1.310422420501708984e-01
7.757929712533950806e-02
-1.252793148159980774e-02
8.444178104400634766e-02
2.166244089603424072e-01
-1.617051213979721069e-01
1.448253989219665527e-01
-6.061349809169769287e-02
1.344265192747116089e-01
3.855489194393157959e-02
5.525788292288780212e-02
1.248606443405151367e-01
1.975060403347015381e-01
-5.848089233040809631e-02
2.323308587074279785e-01
8.540244773030281067e-03
-2.549800872802734375e-01
2.860484421253204346e-01
-1.724418848752975464e-01
-3.386228680610656738e-01
1.431108713150024414e-01
1.802007257938385010e-01
1.139209195971488953e-01
-8.659204095602035522e-02
2.061758339405059814e-01
-3.507504984736442566e-02
-1.945721358060836792e-01
4.415575042366981506e-02
-1.955640763044357300e-01
1.461162716150283813e-01
-1.403498500585556030e-01
-3.173861503601074219e-01
-1.033500730991363525e-01
-1.925557702779769897e-01
1.180561408400535583e-01
-7.383111119270324707e-02
-1.153876706957817078e-01
-6.869179010391235352e-02
-3.601827919483184814e-01
-4.065015166997909546e-02
-3.737592101097106934e-01
2.387573756277561188e-02
1.271609365940093994e-01
1.427475064992904663e-01
8.250419050455093384e-02
-1.565279960632324219e-01
1.488430052995681763e-01
3.873271942138671875e-01
-3.487624824047088623e-01
-4.326024055480957031e-01
-1.625139713287353516e-01
-1.957055330276489258e-01
-3.097202479839324951e-01
-8.534242212772369385e-02
-1.793173849582672119e-01
2.506264448165893555e-01
-5.971905216574668884e-02
-4.110885411500930786e-02
2.624858617782592773e-01
5.910429358482360840e-02
1.712692230939865112e-01
6.202658638358116150e-02
1.531215161085128784e-01
-1.607429608702659607e-02
-1.143980845808982849e-01
-4.488758742809295654e-03
-7.537345588207244873e-02
-1.145878061652183533e-01
-2.003593742847442627e-01
-3.276610970497131348e-01
2.845538854598999023e-01
2.794812023639678955e-01
1.904098689556121826e-01
-1.580734550952911377e-01
-2.369580119848251343e-01
2.250820696353912354e-01
-3.990497887134552002e-01
-3.059241771697998047e-01
9.647637605667114258e-02
-1.626206561923027039e-02
4.142785966396331787e-01
8.687411993741989136e-02
-1.311119496822357178e-01
1.887661814689636230e-01
-2.273846864700317383e-01
6.198396086692810059e-01
2.674958705902099609e-01
-1.348938699811697006e-02
-4.296000897884368896e-01
-2.925367653369903564e-01
4.370137453079223633e-01
2.476428449153900146e-01
8.304081112146377563e-02
-2.993741035461425781e-01
1.569994837045669556e-01
-1.356125473976135254e-01
-1.215020194649696350e-01
2.221977524459362030e-02
-3.939679637551307678e-02
3.129125833511352539e-01
-2.899862080812454224e-02
1.661881431937217712e-02
-4.556581750512123108e-02
-2.802156843245029449e-02
2.375450283288955688e-01
-2.413714230060577393e-01
1.219323091208934784e-02
-3.003651462495326996e-02
-2.090191096067428589e-01
1.792060434818267822e-01
-1.934988647699356079e-01
-1.363460272550582886e-01
-1.933209002017974854e-01
-2.075370848178863525e-01
7.934732735157012939e-02
-1.247774362564086914e-01
-2.340008318424224854e-02
-5.065111815929412842e-02
-1.721411496400833130e-01
2.157958298921585083e-01
3.489183634519577026e-02
7.452575489878654480e-03
1.633877009153366089e-01
-1.301966011524200439e-01
1.399683207273483276e-01
2.972259521484375000e-01
1.471721082925796509e-01
-1.261802315711975098e-01
-2.830906212329864502e-01
2.062884569168090820e-01
1.500098556280136108e-01
-2.436933666467666626e-02
1.002952605485916138e-01
-9.649105370044708252e-02
1.419179886579513550e-01
1.022358685731887817e-01
-1.029981300234794617e-01
1.150717288255691528e-01
1.361823827028274536e-01
6.551153957843780518e-02
-3.027907013893127441e-02
-3.987793624401092529e-02
-8.182778209447860718e-02
2.007378935813903809e-01
-5.442932620644569397e-02
-4.278939068317413330e-01
1.916875541210174561e-01
1.815666854381561279e-01
-2.268185913562774658e-01
-5.577936023473739624e-02
-3.714532256126403809e-01
3.973704576492309570e-02
-4.984095692634582520e-02
-1.447003930807113647e-01
2.361625730991363525e-01
-8.318793773651123047e-02
-3.239270150661468506e-01
-2.309971898794174194e-01
-2.149606645107269287e-01
1.548917293548583984e-01
-3.134201467037200928e-01
2.388216927647590637e-02
1.218461841344833374e-01
1.004706025123596191e-01
5.538499727845191956e-02
-2.410948723554611206e-01
-1.509880125522613525e-01
1.990829594433307648e-02
7.316174358129501343e-02
-4.819555580615997314e-02
4.980738162994384766e-01
5.822179913520812988e-01
3.700446337461471558e-02
3.360919654369354248e-02
1.937348544597625732e-01
1.445958018302917480e-01
-4.617859125137329102e-01
-2.698271870613098145e-01
2.875497192144393921e-02
-4.394886270165443420e-02
-5.778595805168151855e-02
-5.135243535041809082e-01
8.081921190023422241e-02
1.256539970636367798e-01
-2.101100981235504150e-01
-1.423289030790328979e-01
-3.382596969604492188e-01
-3.767962753772735596e-02
8.741882443428039551e-02
-1.161307618021965027e-01
1.505760997533798218e-01
-2.214925587177276611e-01
-1.727790012955665588e-02
-7.466951757669448853e-02
2.291278988122940063e-01
4.881160855293273926e-01
2.019493281841278076e-01
1.077816709876060486e-01
-8.168930560350418091e-02
3.671539947390556335e-02
2.478703558444976807e-01
2.333710938692092896e-01
-1.620352268218994141e-01
4.244913756847381592e-01
8.013264089822769165e-02
2.752672433853149414e-01
1.051143854856491089e-01
-1.734256595373153687e-01
2.679047882556915283e-01
6.957655400037765503e-02
6.380673497915267944e-02
-1.448212563991546631e-01
-1.219770312309265137e-01
6.453317999839782715e-01
2.297092080116271973e-01
2.398428134620189667e-02
-2.228558808565139771e-01
-8.570110797882080078e-02
-7.976476103067398071e-03
3.749347627162933350e-01
1.704364567995071411e-01
3.570209071040153503e-02
-2.141984850168228149e-01
-4.778714105486869812e-02
1.954088360071182251e-01
-1.931817084550857544e-01
-6.668857932090759277e-01
-2.351690083742141724e-01
1.639679670333862305e-01
4.365947842597961426e-01
-9.187681972980499268e-02
-4.554974138736724854e-01
-2.552975118160247803e-01
3.247510641813278198e-02
1.189802661538124084e-01
-2.031510770320892334e-01
-2.112927287817001343e-01
1.178206503391265869e-01
-2.742228806018829346e-01
-6.838107109069824219e-02
-2.673278152942657471e-01
-2.940855324268341064e-01
1.882960796356201172e-01
2.029048800468444824e-01
-5.034234374761581421e-02
6.599638611078262329e-02
-7.023721188306808472e-02
-4.676013719290494919e-03
-1.772555895149707794e-02
6.826931238174438477e-02
-7.514218334108591080e-03
2.057116478681564331e-02
1.399516165256500244e-01
2.583634294569492340e-02
-1.139769144356250763e-02
-7.973691076040267944e-02
-8.311255276203155518e-02
8.415280282497406006e-02
-4.170209541916847229e-02
-1.803728379309177399e-02
-6.362021714448928833e-02
1.022670716047286987e-01
1.695166975259780884e-01
-5.431905388832092285e-02
-7.155957818031311035e-02
-1.701545119285583496e-01
-1.015570759773254395e-01
-1.323631126433610916e-02
-4.134057462215423584e-02
1.500121802091598511e-01
4.982542246580123901e-02
7.553950697183609009e-02
-3.765500783920288086e-01
-2.183703035116195679e-01
-2.623376846313476562e-01
-3.259716629981994629e-01
-3.995478153228759766e-01
-5.915936827659606934e-02
-1.282486170530319214e-01
-3.620014190673828125e-01
-2.773126065731048584e-01
-6.656679511070251465e-01
-1.461275201290845871e-02
-3.545089438557624817e-02
-2.867348492145538330e-01
-4.673990309238433838e-01
-8.709099888801574707e-01
-1.367031037807464600e-01
5.742149055004119873e-02
-1.399823129177093506e-01
-3.172797560691833496e-01
-3.589597344398498535e-01
1.534916013479232788e-01
3.950633108615875244e-01
2.375599592924118042e-01
-2.007999569177627563e-01
3.346893563866615295e-02
-2.026665508747100830e-01
-2.110342234373092651e-01
-3.481307625770568848e-01
-4.318561851978302002e-01
-1.317851841449737549e-01
1.770910322666168213e-01
-3.051332831382751465e-01
-3.325935304164886475e-01
2.429725788533687592e-02
-5.642184987664222717e-02
1.210346817970275879e-04
1.430739760398864746e-01
6.229173019528388977e-02
3.189084231853485107e-01
1.568866819143295288e-01
8.101784624159336090e-03
-8.045808076858520508e-01
3.107529282569885254e-01
5.425004363059997559e-01
2.225819528102874756e-01
6.844037026166915894e-02
4.715813398361206055e-01
6.356075406074523926e-02
-9.632465988397598267e-02
-3.705116978380829096e-04
-1.136447489261627197e-01
7.910165935754776001e-02
1.187237352132797241e-01
-5.406226590275764465e-02
-6.701296567916870117e-02
-1.513539105653762817e-01
-7.844894379377365112e-02
-4.751585796475410461e-02
-1.618478149175643921e-01
8.209393918514251709e-02
-9.742771089076995850e-02
-7.750045508146286011e-02
-7.612147182226181030e-02
-1.245692595839500427e-01
1.716954559087753296e-01
5.280207470059394836e-02
-2.061408758163452148e-01
-1.302193254232406616e-01
2.635753750801086426e-01
2.211660891771316528e-01
-1.406350582838058472e-01
1.514236330986022949e-01
-1.363239288330078125e-01
-8.547414094209671021e-02
3.012652136385440826e-02
9.904695302248001099e-02
2.312424033880233765e-01
-2.560706809163093567e-02
-2.866453230381011963e-01
-1.365107297897338867e-01
3.169196248054504395e-01
2.961432933807373047e-01
2.538876831531524658e-01
-5.154653191566467285e-01
-2.103149443864822388e-01
-4.454100131988525391e-02
-2.021222114562988281e-01
-1.970184147357940674e-01
4.904998093843460083e-02
1.832158267498016357e-01
-1.583464741706848145e-01
-6.972086429595947266e-01
2.463213950395584106e-01
4.965731203556060791e-01
4.116031825542449951e-01
1.964128166437149048e-01
-5.944099426269531250e-01
-8.523926138877868652e-02
5.384205579757690430e-01
2.103744596242904663e-01
1.536372900009155273e-01
-4.316417276859283447e-01
-4.575758576393127441e-01
-2.507542073726654053e-01
1.151744499802589417e-01
3.666851520538330078e-01
-9.187287837266921997e-02
9.836442768573760986e-02
-1.703876815736293793e-02
-4.554605484008789062e-01
-2.169735878705978394e-01
2.793306708335876465e-01
2.239041626453399658e-01
1.321187764406204224e-01
-5.690834522247314453e-01
-6.940707098692655563e-03
5.594858527183532715e-01
6.651730835437774658e-02
-3.328104317188262939e-01
-1.258220970630645752e-01
-1.402462273836135864e-01
2.930156290531158447e-01
2.352219223976135254e-01
9.828586131334304810e-02
-2.819206416606903076e-01
8.123103529214859009e-03
2.264750450849533081e-01
5.619618669152259827e-02
-6.475431472063064575e-02
-8.772750943899154663e-02
9.842107445001602173e-02
2.722367048263549805e-01
7.506620883941650391e-02
-2.463155984878540039e-01
-8.918429911136627197e-02
1.381492614746093750e-01
-1.629773825407028198e-01
-8.679729700088500977e-02
-1.037627533078193665e-01
6.798578798770904541e-02
1.287856847047805786e-01
-5.853724479675292969e-01
-2.357330769300460815e-01
-2.960534207522869110e-02
8.564432710409164429e-02
-5.227726325392723083e-02
5.992754548788070679e-02
4.118597805500030518e-01
1.669005602598190308e-01
-3.261155486106872559e-01
1.281095743179321289e-01
-1.531345248222351074e-01
1.338661611080169678e-01
7.908252626657485962e-02
-2.341851294040679932e-01
8.105970919132232666e-03
-2.396565526723861694e-01
1.424003392457962036e-01
-1.758588105440139771e-01
-2.050908952951431274e-01
-1.000245213508605957e-01
-2.674309611320495605e-01
1.291316002607345581e-02
-1.844829171895980835e-01
-8.348432183265686035e-02
-1.424945741891860962e-01
-4.438717961311340332e-01
-8.734120726585388184e-01
6.391374021768569946e-02
2.223922759294509888e-01
9.390748292207717896e-02
7.245328426361083984e-01
-3.094877898693084717e-01
7.147970050573348999e-02
-2.586135268211364746e-02
4.065895974636077881e-01
-1.955259144306182861e-01
-2.196791768074035645e-01
-2.057099789381027222e-01
1.763788461685180664e-01
2.935792505741119385e-01
5.346552282571792603e-02
-9.012795984745025635e-02
-2.061772942543029785e-01
1.687700301408767700e-02
-3.033502995967864990e-01
-5.462163314223289490e-02
-8.141350746154785156e-02
-6.802060455083847046e-02
-1.561746597290039062e-01
5.385232344269752502e-02
-3.211415931582450867e-02
1.158234477043151855e-01
1.118039414286613464e-01
-4.624197259545326233e-02
1.033520996570587158e-01
2.878213487565517426e-02
-1.972179114818572998e-01
-2.828896343708038330e-01
-1.513597816228866577e-01
1.902402751147747040e-02
2.497514635324478149e-01
-1.638346165418624878e-01
-1.999530047178268433e-01
-2.944434806704521179e-02
-2.278867512941360474e-01
2.671422660350799561e-01
-2.084819078445434570e-01
-7.972677052021026611e-02
-2.823103070259094238e-01
-1.099388077855110168e-01
-1.371354013681411743e-01
6.197421997785568237e-02
-9.416484832763671875e-02
-9.736781567335128784e-02
-2.501014769077301025e-01
-1.502201408147811890e-01
4.212585464119911194e-02
-4.836789518594741821e-02
3.398472070693969727e-02
-1.138313207775354385e-02
3.920998573303222656e-01
4.049915820360183716e-02
-2.743115425109863281e-01
3.425992727279663086e-01
4.859103858470916748e-01
9.486942738294601440e-02
-1.042221412062644958e-01
-1.833939254283905029e-01
7.683879137039184570e-02
1.730699688196182251e-01
5.951700732111930847e-03
-1.121527776122093201e-01
1.249710395932197571e-01
1.189294159412384033e-01
2.663662731647491455e-01
-2.371134012937545776e-01
-2.451197504997253418e-01
1.984198540449142456e-01
-2.062446624040603638e-02
-1.019635722041130066e-01
-2.420725375413894653e-01
6.946602463722229004e-02
1.583313196897506714e-01
8.370012044906616211e-02
4.877075925469398499e-02
-2.903301119804382324e-01
1.679008454084396362e-01
-1.432115444913506508e-03
3.645925223827362061e-01
-1.780583113431930542e-01
4.187848418951034546e-02
2.322880625724792480e-01
5.507279038429260254e-01
-9.243233501911163330e-02
-1.009886804968118668e-02
-3.763949498534202576e-03
2.820682227611541748e-01
3.142333328723907471e-01
4.020823836326599121e-01
-4.193343967199325562e-02
-5.245693325996398926e-01
-6.161664724349975586e-01
-4.258745610713958740e-01
-2.331590205430984497e-01
-5.740363597869873047e-01
4.777719266712665558e-03
-7.811989635229110718e-02
-2.127374410629272461e-01
-3.475255668163299561e-01
-7.917989790439605713e-02
5.273491144180297852e-02
-1.295301765203475952e-01
-3.054671287536621094e-01
-1.874008029699325562e-01
-2.125182747840881348e-01
1.209209039807319641e-01
-7.671788334846496582e-02
7.929576560854911804e-03
3.523024916648864746e-02
-1.112498939037322998e-01
1.100818440318107605e-01
-5.720471963286399841e-02
4.359140060842037201e-03
7.789146155118942261e-02
2.405699715018272400e-02
3.211071714758872986e-02
5.915571749210357666e-02
-1.624025255441665649e-01
2.206576056778430939e-02
2.532268874347209930e-02
-2.212780267000198364e-01
4.332140833139419556e-02
-4.334286600351333618e-02
1.334356218576431274e-01
1.538117974996566772e-01
1.805066764354705811e-01
1.390592455863952637e-01
3.008676320314407349e-02
1.051776483654975891e-01
-3.071444481611251831e-02
3.917473852634429932e-01
2.346128374338150024e-01
-3.277539610862731934e-01
-1.346606295555830002e-02
-8.419644087553024292e-02
3.195216655731201172e-01
1.171210184693336487e-01
-1.875750571489334106e-01
-1.487172693014144897e-01
5.445538833737373352e-02
2.531099021434783936e-01
-1.164835020899772644e-01
-6.448330730199813843e-02
1.941829733550548553e-02
-1.428315639495849609e-01
1.969428658485412598e-01
-1.213897913694381714e-01
-4.372293129563331604e-02
-1.599196642637252808e-01
5.413338914513587952e-02
1.942496597766876221e-01
-1.833859384059906006e-01
2.109867781400680542e-01
2.670794911682605743e-02
-3.945405483245849609e-01
9.546677768230438232e-02
4.740525409579277039e-02
1.882638931274414062e-01
2.993677556514739990e-01
2.756217420101165771e-01
-2.372457683086395264e-01
1.489346027374267578e-01
1.550641208887100220e-01
-2.790106832981109619e-01
9.223206341266632080e-02
-2.855059504508972168e-01
6.026047468185424805e-02
5.189988613128662109e-01
1.100446507334709167e-01
3.743703067302703857e-01
-8.344735950231552124e-02
-5.711694359779357910e-01
2.053798586130142212e-01
2.034420520067214966e-01
3.507055044174194336e-01
-2.126637101173400879e-02
-6.645435933023691177e-03
-6.838863482698798180e-04
1.501909792423248291e-01
-3.814582526683807373e-01
-2.008427120745182037e-02
1.406032498925924301e-02
9.911558032035827637e-02
-7.238431274890899658e-02
-6.996729969978332520e-02
3.920276463031768799e-02
5.299519374966621399e-02
6.461400538682937622e-02
9.933320432901382446e-02
3.171015977859497070e-01
-8.939979970455169678e-02
-1.078152507543563843e-01
-8.883817493915557861e-02
3.798935189843177795e-02
3.932512998580932617e-01
-1.677455902099609375e-01
-5.538320541381835938e-01
2.369163781404495239e-01
2.766954302787780762e-01
2.831241190433502197e-01
1.365608125925064087e-01
-2.750946581363677979e-01
1.345885246992111206e-01
1.669860780239105225e-01
-7.566185295581817627e-02
2.053639143705368042e-01
-2.964251935482025146e-01
-4.717501625418663025e-02
3.417262136936187744e-01
-6.707898527383804321e-02
9.314294159412384033e-02
4.594536498188972473e-02
-3.717506527900695801e-01
5.755028128623962402e-02
-3.152371942996978760e-01
9.807077795267105103e-02
-1.165942922234535217e-01
-4.328521490097045898e-01
-1.992962807416915894e-01
-1.543672084808349609e-01
2.035897374153137207e-01
-2.691972255706787109e-01
-3.493415713310241699e-01
-1.580875925719738007e-02
1.262373626232147217e-01
-2.392729967832565308e-01
-7.260835915803909302e-02
2.304439097642898560e-01
4.567962288856506348e-01
5.419620275497436523e-01
9.326487034559249878e-02
-8.610714972019195557e-02
-1.288008987903594971e-01
4.074256718158721924e-01
1.460305005311965942e-01
2.067442536354064941e-01
2.956470102071762085e-02
-6.025034785270690918e-01
9.002652019262313843e-02
-3.874669373035430908e-01
-1.059396043419837952e-01
4.516774117946624756e-01
-1.866222321987152100e-01
-2.527210712432861328e-01
-1.891292333602905273e-01
-9.318073838949203491e-02
5.050159096717834473e-01
1.776491850614547729e-01
-7.859052717685699463e-02
-2.320067137479782104e-01
-2.233301997184753418e-01
-7.488785684108734131e-02
2.077907472848892212e-01
-2.879586219787597656e-01
-9.448884427547454834e-02
-9.513429552316665649e-02
-7.399713248014450073e-02
1.490361839532852173e-01
4.415668174624443054e-02
-1.209145709872245789e-01
2.844554604962468147e-03
-3.680985867977142334e-01
-2.489936500787734985e-01
-1.185920163989067078e-01
-1.024774685502052307e-01
5.974081158638000488e-02
-2.760394215583801270e-01
-2.448705136775970459e-01
-2.536894679069519043e-01
5.955988541245460510e-02
5.314447358250617981e-02
1.186197530478239059e-02
-1.854842007160186768e-01
-1.118037775158882141e-01
-4.272820800542831421e-02
-8.432365208864212036e-02
-5.965928360819816589e-02
4.312176704406738281e-01
1.836761236190795898e-01
-1.986629813909530640e-01
-7.202593982219696045e-02
-1.173603832721710205e-01
3.373540937900543213e-02
-2.998111769556999207e-02
-5.946372821927070618e-02
-2.305676043033599854e-01
-6.308123469352722168e-02
-2.163713276386260986e-01
-1.129410117864608765e-01
-1.966568827629089355e-01
4.791084676980972290e-02
-2.566889859735965729e-02
-2.713726460933685303e-01
-1.332391202449798584e-01
1.298400312662124634e-01
3.884194418787956238e-02
3.056304156780242920e-01
-2.649354934692382812e-01
-7.221818715333938599e-02
6.718622893095016479e-02
3.203160762786865234e-01
1.015912964940071106e-01
-8.583112061023712158e-02
-8.865053206682205200e-02
5.333436727523803711e-01
-2.162840813398361206e-01
1.219497993588447571e-01
1.867899894714355469e-01
-7.134193181991577148e-02
-4.751393198966979980e-01
2.775041572749614716e-02
-1.956461519002914429e-01
1.839335192926228046e-03
1.947404891252517700e-01
-7.879573851823806763e-02
1.303652375936508179e-01
-1.695272773504257202e-01
1.079792156815528870e-01
-1.897092312574386597e-01
1.588685065507888794e-01
1.184768453240394592e-01
9.289800375699996948e-02
1.585411839187145233e-02
-2.502505481243133545e-01
9.490058571100234985e-02
-4.900411888957023621e-02
-1.029792129993438721e-01
-8.359956741333007812e-02
-2.497297376394271851e-01
1.831426918506622314e-01
-5.118429660797119141e-02
2.503173984587192535e-02
2.244206964969635010e-01
5.820304527878761292e-02
-4.883946105837821960e-02
8.251505345106124878e-02
-7.467135041952133179e-02
1.126827374100685120e-01
-1.591685265302658081e-01
-1.687971316277980804e-02
1.248908862471580505e-01
-3.250766173005104065e-02
-9.663360565900802612e-02
-1.958471387624740601e-01
-2.674682140350341797e-01
4.069269169121980667e-03
5.141259171068668365e-03
-2.473356574773788452e-02
-7.260251045227050781e-02
6.840579211711883545e-02
2.615371346473693848e-01
1.219574362039566040e-01
-2.703156173229217529e-01
4.080392122268676758e-01
5.636360645294189453e-01
-4.120483621954917908e-02
-4.522633552551269531e-02
3.890950605273246765e-02
1.505674570798873901e-01
1.053715795278549194e-01
-5.376468598842620850e-02
-1.203359290957450867e-01
1.434160172939300537e-01
5.347976833581924438e-02
9.545628726482391357e-02
-2.146115005016326904e-01
-2.990670315921306610e-02
-1.924683898687362671e-01
1.785426437854766846e-01
1.656864732503890991e-01
-1.385524123907089233e-02
-1.876746565103530884e-01
-1.677008122205734253e-01
2.643916010856628418e-02
4.491626471281051636e-02
-2.728374302387237549e-01
-2.018319964408874512e-01
4.058550000190734863e-01
1.230803608894348145e+00
9.240285307168960571e-02
3.092723488807678223e-01
2.143830955028533936e-01
-2.216400206089019775e-01
-2.255199551582336426e-01
-2.307922989130020142e-01
9.646969288587570190e-02
-3.141332417726516724e-02
-3.094384372234344482e-01
-2.121522128582000732e-01
-1.432645916938781738e-01
1.124098673462867737e-01
1.574227809906005859e-01
-5.245073884725570679e-02
5.437743663787841797e-02
1.355562359094619751e-01
-1.318541020154953003e-01
3.415510430932044983e-02
-3.967742323875427246e-01
-1.699969358742237091e-02
-3.630137443542480469e-01
-1.064096093177795410e-01
7.605927530676126480e-03
1.296236459165811539e-02
-1.266310811042785645e-01
6.997180730104446411e-02
-1.426904927939176559e-02
-7.789659500122070312e-02
-6.523473560810089111e-02
2.601239457726478577e-02
-2.807590067386627197e-01
8.608569949865341187e-02
-7.599270343780517578e-02
-7.256083190441131592e-02
-4.230822250247001648e-02
-1.833055764436721802e-01
5.419271811842918396e-02
-5.984385684132575989e-02
1.612031832337379456e-02
-7.151243090629577637e-02
2.951852232217788696e-02
-2.159014195203781128e-01
6.455142796039581299e-02
-3.192439675331115723e-02
-1.228548139333724976e-01
2.621403336524963379e-01
3.965157866477966309e-01
2.858097255229949951e-01
8.518636971712112427e-02
-1.133303344249725342e-01
-2.175614088773727417e-01
5.103795975446701050e-02
1.114630773663520813e-01
2.104323506355285645e-01
3.126420676708221436e-01
6.306404620409011841e-02
-4.864870011806488037e-02
-6.425019353628158569e-02
9.431408345699310303e-02
7.189305126667022705e-02
4.136545211076736450e-02
-1.124648493714630604e-03
-8.792833983898162842e-02
-2.658214792609214783e-02
1.006497256457805634e-02
-7.987600564956665039e-02
-6.728584319353103638e-02
-4.676507040858268738e-02
1.326708346605300903e-01
-1.321806311607360840e-01
5.255825817584991455e-03
3.731440305709838867e-01
1.104136407375335693e-01
1.103559136390686035e-01
7.242467999458312988e-02
-1.609574258327484131e-01
-2.532931268215179443e-01
1.810715198516845703e-01
-6.069182977080345154e-02
2.511206865310668945e-01
1.770668625831604004e-01
9.426628798246383667e-02
1.861629188060760498e-01
-1.140320226550102234e-01
-1.497993469238281250e-01
-7.222506403923034668e-02
1.634618341922760010e-01
3.354837000370025635e-01
7.053117454051971436e-02
-5.742265284061431885e-02
-2.271087318658828735e-01
-1.770835369825363159e-01
-1.945551782846450806e-01
-2.780067026615142822e-01
-5.326989889144897461e-01
-3.084202855825424194e-02
2.059692889451980591e-01
1.479256059974431992e-02
-1.167154014110565186e-01
-4.505729973316192627e-01
9.244655072689056396e-02
-1.603243649005889893e-01
3.799912706017494202e-02
-6.238713115453720093e-02
-3.910113573074340820e-01
-1.246347576379776001e-01
6.776018440723419189e-02
-1.845058202743530273e-01
-1.028551980853080750e-01
2.280302718281745911e-02
1.402433589100837708e-02
-7.617163471877574921e-03
4.854034259915351868e-02
1.865948736667633057e-01
2.312967777252197266e-01
3.848559558391571045e-01
5.959369614720344543e-02
2.191666215658187866e-01
2.096737027168273926e-01
2.210844606161117554e-01
2.266648113727569580e-01
6.260053068399429321e-02
-5.010841786861419678e-02
4.925730451941490173e-02
3.905509412288665771e-01
4.585598409175872803e-01
-1.096875369548797607e-01
-4.885763302445411682e-02
-1.045703366398811340e-01
-3.736734986305236816e-01
-1.027341559529304504e-01
2.817537486553192139e-01
-6.364046782255172729e-02
2.321966737508773804e-01
-1.163005456328392029e-01
-1.556927859783172607e-01
2.691416144371032715e-01
1.332016587257385254e-01
-8.880024775862693787e-03
-9.171519428491592407e-03
1.887617409229278564e-01
2.705747187137603760e-01
-4.058492556214332581e-02
-3.397541046142578125e-01
9.560362994670867920e-02
-1.059541553258895874e-01
-8.317254185676574707e-01
1.467393040657043457e-01
3.332087397575378418e-01
6.272466778755187988e-01
8.947462588548660278e-02
-3.986016809940338135e-01
-6.258471012115478516e-01
-5.520912408828735352e-01
-3.711138665676116943e-01
1.688057482242584229e-01
-4.529333710670471191e-01
-3.552948534488677979e-01
-1.040516793727874756e-01
-5.745911002159118652e-01
9.420718252658843994e-02
-1.370414942502975464e-01
-5.372017621994018555e-01
-2.715116441249847412e-01
-6.741220355033874512e-01
6.626240164041519165e-02
2.124346494674682617e-01
6.157689914107322693e-02
-6.395329535007476807e-02
-1.751962304115295410e-01
-6.763031333684921265e-02
-7.449129968881607056e-02
-5.176894366741180420e-02
-6.360659748315811157e-02
-3.028691709041595459e-01
-9.924334287643432617e-02
-7.130990922451019287e-02
2.898970060050487518e-02
-5.110976845026016235e-02
1.052365377545356750e-01
8.258727937936782837e-02
1.321911066770553589e-01
1.343516111373901367e-01
1.035048812627792358e-01
9.640099108219146729e-02
1.080490425229072571e-01
4.112804308533668518e-02
1.019548028707504272e-01
3.676994889974594116e-02
8.201605081558227539e-02
9.588460624217987061e-02
5.278727784752845764e-02
-3.184337019920349121e-01
-4.099356532096862793e-01
-5.782688856124877930e-01
-2.781055867671966553e-01
-1.641305685043334961e-01
2.482155710458755493e-01
7.589285075664520264e-02
-1.483416855335235596e-01
-4.326047375798225403e-02
-2.752690613269805908e-01
-1.362390518188476562e-01
-1.246486157178878784e-01
2.014931477606296539e-02
2.517470717430114746e-01
-3.677015751600265503e-02
1.153245493769645691e-01
9.922072291374206543e-02
-6.292370706796646118e-02
3.864830732345581055e-02
-5.851553007960319519e-02
1.577145606279373169e-01
1.651444435119628906e-01
-3.287680819630622864e-02
-1.454027295112609863e-01
2.349208742380142212e-01
-8.638989925384521484e-02
-1.332651227712631226e-01
-4.888420701026916504e-01
-3.596683144569396973e-01
-1.404864788055419922e+00
-1.063394397497177124e-01
6.966897100210189819e-02
2.769724428653717041e-01
-4.496127068996429443e-01
-2.982869148254394531e-01
3.079674839973449707e-01
8.994202315807342529e-02
1.441550403833389282e-01
4.052833914756774902e-01
-3.686646223068237305e-01
2.499725520610809326e-01
-6.894497573375701904e-02
-1.329459846019744873e-01
1.808390915393829346e-01
-1.953997910022735596e-01
6.775434315204620361e-02
-1.088091880083084106e-01
-8.097115159034729004e-02
-2.528265863656997681e-02
-5.192085518501698971e-04
-4.416699986904859543e-03
1.702415496110916138e-01
5.193629264831542969e-01
1.087255403399467468e-01
-3.283033967018127441e-01
-5.342993140220642090e-01
-9.105505794286727905e-02
-1.444898247718811035e-01
-9.720400720834732056e-02
-4.178255796432495117e-01
-1.687469184398651123e-01
1.994839757680892944e-01
1.186535283923149109e-01
2.092601805925369263e-01
-1.604468524456024170e-01
-1.087486464530229568e-02
-8.422084152698516846e-02
-2.500087022781372070e-02
7.078003883361816406e-02
1.463627368211746216e-01
1.116117313504219055e-01
-3.370108082890510559e-02
-1.135376468300819397e-01
-1.231748014688491821e-01
1.270822137594223022e-01
-7.984916120767593384e-02
8.675576746463775635e-02
1.629399210214614868e-01
-3.165008425712585449e-01
-1.848601549863815308e-01
-3.127725422382354736e-01
-2.312270738184452057e-02
-9.186524152755737305e-02
-3.437856957316398621e-02
6.364948302507400513e-02
3.440260291099548340e-01
1.088396757841110229e-01
5.082212761044502258e-02
4.618680179119110107e-01
4.072367250919342041e-01
3.243564367294311523e-01
-1.541192922741174698e-02
-2.408836185932159424e-01
4.886003956198692322e-02
1.116210371255874634e-01
1.632685512304306030e-01
4.921935498714447021e-02
5.036955699324607849e-02
2.887071669101715088e-01
1.975864768028259277e-01
1.432123780250549316e-01
-3.995557129383087158e-02
3.032283484935760498e-01
4.704556167125701904e-01
3.569940105080604553e-02
4.522177577018737793e-02
-2.475541383028030396e-01
-7.022956013679504395e-01
-2.374105900526046753e-01
5.184230580925941467e-02
8.246618509292602539e-02
4.629691839218139648e-01
1.887877881526947021e-01
2.790022492408752441e-01
-3.834101930260658264e-02
-1.829051226377487183e-01
1.783479303121566772e-01
-7.402539998292922974e-02
1.806872636079788208e-01
3.082911856472492218e-02
1.994949392974376678e-02
3.462907671928405762e-01
-1.739600449800491333e-01
2.324092984199523926e-01
7.120546698570251465e-02
1.856559514999389648e-01
1.980790346860885620e-01
-7.150949835777282715e-01
2.355383783578872681e-01
-1.230272650718688965e-01
-1.336863040924072266e-01
5.127862095832824707e-02
-2.098450995981693268e-02
-1.195076256990432739e-01
8.837869018316268921e-02
1.784145459532737732e-02
-6.747769564390182495e-02
-1.856603026390075684e-01
-4.005286842584609985e-02
2.542638480663299561e-01
1.451891958713531494e-01
-8.426684886217117310e-02
-6.251402944326400757e-02
-1.849376969039440155e-02
4.642440006136894226e-03
-1.441035717725753784e-01
-1.425605118274688721e-01
1.836805045604705811e-02
4.736917465925216675e-02
-2.924464084208011627e-02
-2.034667730331420898e-01
3.739190101623535156e-02
2.876580655574798584e-01
1.362629681825637817e-01
-1.109338164329528809e+00
-9.171195030212402344e-01
-5.202190876007080078e-01
1.981056481599807739e-01
2.230802178382873535e-01
-3.712320327758789062e-01
-2.869221270084381104e-01
-3.088418394327163696e-02
1.072907913476228714e-02
7.270446419715881348e-02
-1.972026079893112183e-01
3.394992277026176453e-02
2.487767934799194336e-01
-2.554961442947387695e-01
-2.204146236181259155e-01
-2.409977316856384277e-01
1.475788503885269165e-01
-1.246273331344127655e-02
-2.038191631436347961e-02
-2.388746589422225952e-01
-4.257546663284301758e-01
-1.225510835647583008e-01
1.256575286388397217e-01
2.031676173210144043e-01
-4.340042546391487122e-02
