-7.825408130884170532e-02
1.295155882835388184e-01
9.332728572189807892e-03
-8.941631019115447998e-02
2.457575798034667969e-01
-8.458195626735687256e-02
-2.735939919948577881e-01
-1.404538154602050781e-01
-7.689683884382247925e-02
-1.677427142858505249e-01
-7.751006633043289185e-02
5.290333926677703857e-02
1.623551100492477417e-01
-2.151805013418197632e-01
5.943550169467926025e-02
1.237482950091362000e-01
-2.988909482955932617e-01
2.979407310485839844e-01
-3.224159032106399536e-02
2.470858767628669739e-02
1.113732084631919861e-01
-1.374750584363937378e-01
-2.381526827812194824e-01
3.097889721393585205e-01
-7.595235854387283325e-02
1.097819879651069641e-01
-5.105907469987869263e-02
-6.095540151000022888e-02
1.224775016307830811e-01
3.861859142780303955e-01
-2.432540431618690491e-02
-1.774535924196243286e-01
-4.300703108310699463e-01
-1.540573034435510635e-02
5.906510949134826660e-01
6.047318875789642334e-02
-4.037993773818016052e-02
5.987865477800369263e-02
-9.792991727590560913e-02
4.788645356893539429e-02
3.912824392318725586e-02
2.799438834190368652e-01
2.769431769847869873e-01
-1.986281275749206543e-01
3.369474411010742188e-02
1.124164760112762451e-01
2.365349084138870239e-01
1.727748513221740723e-01
1.074897423386573792e-01
5.738675221800804138e-02
1.599394977092742920e-01
7.345257699489593506e-02
-1.534707695245742798e-01
6.259469687938690186e-02
1.251139640808105469e-01
3.965142369270324707e-01
2.118936479091644287e-01
-1.925973594188690186e-01
1.172689646482467651e-01
3.790598213672637939e-01
-1.051917672157287598e-02
2.562298774719238281e-01
1.419974397867918015e-02
5.949360132217407227e-02
-1.545660477131605148e-02
-1.717677861452102661e-01
1.048262044787406921e-01
-2.101965993642807007e-01
-1.136451661586761475e-01
3.397737741470336914e-01
6.263455003499984741e-02
-1.697035729885101318e-01
1.016203835606575012e-01
3.733366727828979492e-01
1.564387679100036621e-01
-4.038715735077857971e-02
-2.148127555847167969e-02
9.203167259693145752e-02
-3.131471872329711914e-01
-3.558478504419326782e-02
4.402685761451721191e-01
6.485810503363609314e-03
4.891106486320495605e-02
1.604774743318557739e-01
-1.534399539232254028e-01
-1.606054902076721191e-01
-1.014916971325874329e-02
8.854126185178756714e-02
-8.895123749971389771e-02
-2.645005583763122559e-01
-6.672765314579010010e-02
4.140466824173927307e-02
4.348738864064216614e-02
-7.047915458679199219e-02
-1.406805589795112610e-02
-1.538589447736740112e-01
