-7.050581276416778564e-02
-3.431097790598869324e-02
5.101289972662925720e-02
7.640139013528823853e-02
4.175316542387008667e-03
5.694891512393951416e-02
2.238007076084613800e-02
1.342689096927642822e-01
4.376474395394325256e-02
1.664144545793533325e-01
1.460350453853607178e-01
6.463100761175155640e-02
1.455710977315902710e-01
1.081965565681457520e-01
8.930692821741104126e-02
1.999715268611907959e-01
1.335919946432113647e-01
2.451793523505330086e-03
4.266417399048805237e-02
-7.454600930213928223e-02
-4.540278017520904541e-02
4.537257179617881775e-02
1.135769784450531006e-01
5.481422320008277893e-02
3.502139076590538025e-02
-8.795822411775588989e-02
4.657122492790222168e-02
-2.575658634305000305e-02
3.952989727258682251e-02
-2.931288629770278931e-02
1.020403429865837097e-01
-3.581823408603668213e-02
2.737457491457462311e-02
2.359204925596714020e-02
1.828149259090423584e-01
1.741032749414443970e-01
-6.135691702365875244e-02
2.143054753541946411e-01
1.771332174539566040e-01
2.697246670722961426e-01
5.376281961798667908e-02
-1.626905612647533417e-02
6.105170026421546936e-02
1.597157120704650879e-01
4.201036412268877029e-03
-4.199084639549255371e-02
-6.831904407590627670e-03
2.021602839231491089e-01
-2.942213788628578186e-02
7.480741292238235474e-02
2.113305032253265381e-01
1.178994923830032349e-01
-3.104338236153125763e-02
-1.155127957463264465e-01
1.792808473110198975e-01
7.910861074924468994e-02
1.689961180090904236e-02
-4.316949844360351562e-02
1.047223340719938278e-02
-4.822546616196632385e-02
1.242906227707862854e-01
8.286526054143905640e-02
1.495712250471115112e-01
5.983107537031173706e-02
