-4.818889796733856201e-01
1.324921101331710815e-01
-9.130896651186048985e-04
-4.089489579200744629e-01
-4.267213121056556702e-02
-2.919417023658752441e-01
-3.220765292644500732e-01
-4.528334736824035645e-01
3.322398290038108826e-02
1.244831159710884094e-01
2.306043207645416260e-01
-3.269813060760498047e-01
-4.310814142227172852e-01
-3.151063621044158936e-01
3.642604649066925049e-01
1.365441232919692993e-01
-5.284538865089416504e-01
-5.053101181983947754e-01
2.432596236467361450e-01
2.318970561027526855e-01
-4.888838529586791992e-01
3.256200551986694336e-01
-9.756530076265335083e-02
-5.072724223136901855e-01
-8.452244102954864502e-02
-4.187267422676086426e-01
-5.775803327560424805e-01
-7.474557161331176758e-01
4.501120001077651978e-02
2.525199353694915771e-01
1.865961402654647827e-01
2.657825350761413574e-01
-2.467584460973739624e-01
-6.093950867652893066e-01
4.043081104755401611e-01
-5.403272509574890137e-01
3.410235941410064697e-01
3.408419489860534668e-01
-3.621634542942047119e-01
2.585261762142181396e-01
4.049718081951141357e-01
-1.555818170309066772e-01
-4.101085364818572998e-01
2.046514004468917847e-01
-1.594922989606857300e-01
-9.666581153869628906e-01
-6.116383671760559082e-01
1.976024061441421509e-01
1.482389271259307861e-01
-3.035762906074523926e-01
3.904049694538116455e-01
-2.286616861820220947e-01
5.489425361156463623e-02
-1.208239123225212097e-01
1.261348128318786621e-01
1.090687364339828491e-01
5.690219998359680176e-02
-8.195708692073822021e-02
-1.459701359272003174e-01
-3.367677330970764160e-01
-2.651824355125427246e-01
1.983757168054580688e-01
1.794911473989486694e-01
-1.735398620367050171e-01
-6.050426885485649109e-02
-8.892093300819396973e-01
5.321165919303894043e-01
-6.421398371458053589e-02
-5.193456411361694336e-01
3.975500464439392090e-01
4.748390018939971924e-01
-5.224120616912841797e-01
-3.288321495056152344e-01
-4.944479465484619141e-01
-1.557659059762954712e-01
-1.013223052024841309e+00
-1.945924758911132812e-01
-2.467474341392517090e-01
1.495935916900634766e-01
1.246164143085479736e-01
-7.048179507255554199e-01
-4.431262314319610596e-01
1.024476587772369385e-01
1.863207817077636719e-01
4.653678536415100098e-01
-5.686058402061462402e-01
-2.176848053932189941e-01
3.290865421295166016e-01
-6.617742031812667847e-02
3.096607029438018799e-01
-1.430205106735229492e+00
7.844006419181823730e-01
3.046349585056304932e-01
1.043024659156799316e-01
-6.324002742767333984e-01
2.938994439318776131e-03
3.806021809577941895e-01
-7.717367410659790039e-01
-9.445637464523315430e-01
2.174244672060012817e-01
9.949111938476562500e-02
-1.509300768375396729e-01
4.232775568962097168e-01
1.850677281618118286e-01
1.201057508587837219e-01
3.574837148189544678e-01
2.190999239683151245e-01
-4.130143523216247559e-01
-5.005931854248046875e-01
-1.870543062686920166e-01
2.031568288803100586e-01
2.183301560580730438e-02
-8.613362312316894531e-01
-9.347054362297058105e-01
-1.942827850580215454e-01
1.284587979316711426e-01
2.898345589637756348e-01
-8.251449465751647949e-01
-5.187751650810241699e-01
-1.610271632671356201e-01
2.778133749961853027e-01
-2.890963852405548096e-01
-8.422974944114685059e-01
2.471921443939208984e-01
4.908937215805053711e-01
2.973679304122924805e-01
-5.469178557395935059e-01
-8.202192187309265137e-01
2.916201949119567871e-01
1.483822464942932129e-01
8.911766111850738525e-02
-4.148436784744262695e-01
-1.744256466627120972e-01
2.409986257553100586e-01
-4.959123730659484863e-01
-5.173019766807556152e-01
-2.927002906799316406e-01
1.630858480930328369e-01
6.600014399737119675e-03
1.887467652559280396e-01
3.923776745796203613e-01
9.334034286439418793e-03
-3.309638202190399170e-01
4.509992003440856934e-01
2.177679389715194702e-01
-6.317621469497680664e-01
-2.645944058895111084e-01
-2.118577808141708374e-01
-3.736590743064880371e-01
2.953910827636718750e-01
-3.674377501010894775e-01
-8.545123040676116943e-02
-1.409270614385604858e-01
-3.730289340019226074e-01
-1.035595655441284180e+00
-1.580328196287155151e-01
-2.812229990959167480e-01
1.022827811539173126e-02
2.205286324024200439e-01
-8.567643761634826660e-01
-2.978014349937438965e-01
-6.557027995586395264e-02
8.384188264608383179e-02
-1.474283933639526367e-01
2.886180281639099121e-01
1.034641787409782410e-01
-6.089150533080101013e-02
-2.407581359148025513e-02
-4.766605198383331299e-01
1.394124776124954224e-01
-2.490641325712203979e-01
2.543544173240661621e-01
-8.623266965150833130e-02
3.337940573692321777e-01
-6.667078733444213867e-01
-5.110746026039123535e-01
1.465062797069549561e-01
3.087607920169830322e-01
3.452603518962860107e-01
6.624360103160142899e-03
-3.644968569278717041e-01
1.446053534746170044e-01
1.767396032810211182e-01
2.475259304046630859e-01
-3.588416278362274170e-01
1.737605314701795578e-03
-8.630759716033935547e-01
-2.670703455805778503e-02
-6.020218133926391602e-01
1.209686324000358582e-01
-3.161198496818542480e-01
-3.302243053913116455e-01
-3.535124957561492920e-01
-8.199908584356307983e-02
-4.406493008136749268e-01
4.794247150421142578e-01
2.193789929151535034e-02
1.284459512680768967e-02
-4.729616045951843262e-01
-8.054335713386535645e-01
2.026924639940261841e-01
-3.282607197761535645e-01
-2.526676952838897705e-01
1.520072072744369507e-01
-3.214358091354370117e-01
3.347297012805938721e-01
-2.759974915534257889e-03
-3.649093443527817726e-03
-2.161180675029754639e-01
1.441217213869094849e-01
-1.599511653184890747e-01
6.182467192411422729e-02
1.087170541286468506e-01
1.105605736374855042e-01
-4.171890318393707275e-01
5.988273397088050842e-02
9.396109730005264282e-02
3.715946078300476074e-01
-8.523680567741394043e-01
-6.605606675148010254e-01
-3.367846906185150146e-01
-2.432937547564506531e-02
-3.856937587261199951e-01
-8.226188421249389648e-01
-3.919752836227416992e-01
-3.095201849937438965e-01
1.132168844342231750e-01
2.310955524444580078e-01
-1.227660700678825378e-01
-2.928137481212615967e-01
-2.269073277711868286e-01
-1.117175742983818054e-01
2.043511867523193359e-01
2.715981602668762207e-01
3.594051599502563477e-01
1.261201351881027222e-01
6.874412298202514648e-02
-9.682583808898925781e-01
-5.055235028266906738e-01
3.906093239784240723e-01
-1.907199621200561523e-02
-2.526240646839141846e-01
-2.036509215831756592e-01
-2.018036991357803345e-01
1.401047855615615845e-01
-1.815794855356216431e-01
2.259537577629089355e-01
7.442564517259597778e-02
3.786262273788452148e-01
-9.418030977249145508e-01
-4.233684241771697998e-01
2.828895747661590576e-01
-7.319843024015426636e-02
1.534216552972793579e-01
2.452245503664016724e-01
-4.734178781509399414e-01
1.393209546804428101e-01
3.015407025814056396e-01
-6.538882255554199219e-01
-8.160576224327087402e-02
2.723192572593688965e-01
2.372281253337860107e-01
-2.936798334121704102e-01
-7.194956541061401367e-01
-1.618458479642868042e-01
2.679985389113426208e-02
2.670747041702270508e-01
-1.535083055496215820e-01
-4.489498436450958252e-01
9.142034500837326050e-02
-8.209097385406494141e-01
-3.728659451007843018e-01
2.807426452636718750e-01
-3.113860487937927246e-01
-7.142886519432067871e-01
2.375164180994033813e-01
-8.984519541263580322e-02
3.638928011059761047e-02
-4.078573584556579590e-01
1.893631219863891602e-01
-1.800868809223175049e-01
-1.063188612461090088e-01
-1.063610672950744629e+00
-5.237702727317810059e-01
-5.274529457092285156e-01
3.175871074199676514e-01
2.515442371368408203e-01
-8.608590960502624512e-01
2.744876146316528320e-01
2.911062240600585938e-01
-3.960377275943756104e-01
2.478312999010086060e-01
1.130964308977127075e-01
1.011378318071365356e-01
-1.800245344638824463e-01
-2.623544633388519287e-01
-1.884738355875015259e-01
-1.296478956937789917e-01
2.187226712703704834e-01
8.214653283357620239e-02
3.029533624649047852e-01
8.337404578924179077e-02
-4.874625205993652344e-01
-2.363656014204025269e-01
1.252099871635437012e-01
9.009297937154769897e-02
-4.110026061534881592e-01
1.416330933570861816e-01
2.881068587303161621e-01
2.496502548456192017e-01
-1.688648909330368042e-01
1.089083589613437653e-02
-2.138950675725936890e-01
3.601134195923805237e-02
-8.100603818893432617e-01
6.342125684022903442e-02
-2.540360093116760254e-01
-2.904677093029022217e-01
-4.462446868419647217e-01
1.582850515842437744e-01
-5.686741471290588379e-01
1.815698891878128052e-01
4.426121413707733154e-01
3.138695359230041504e-01
2.177997082471847534e-01
-7.253472805023193359e-01
3.410260975360870361e-01
5.141060948371887207e-01
1.155211552977561951e-01
-1.348679419606924057e-02
-6.706606149673461914e-01
-1.691384464502334595e-01
2.139535993337631226e-01
-1.071381568908691406e+00
2.319495975971221924e-01
-3.120270967483520508e-01
3.445160090923309326e-01
2.822644710540771484e-01
3.293122947216033936e-01
-5.481924414634704590e-01
2.884985804557800293e-01
-9.696316719055175781e-01
-2.631701529026031494e-01
1.468226909637451172e-01
2.124172896146774292e-01
-4.154231250286102295e-01
4.990481138229370117e-01
2.530358135700225830e-01
-4.174488484859466553e-01
-1.544384360313415527e+00
9.599157422780990601e-02
2.531488239765167236e-01
-3.020308166742324829e-02
-2.182070761919021606e-01
-7.225151062011718750e-01
-4.266400933265686035e-01
-4.050845801830291748e-01
-1.183275461196899414e+00
3.779433369636535645e-01
-6.378807425498962402e-01
-7.569600343704223633e-01
2.067418843507766724e-01
-3.573201894760131836e-01
-1.133538007736206055e+00
-5.432845950126647949e-01
5.502188205718994141e-02
2.207555770874023438e-01
-2.777339220046997070e-01
3.134772777557373047e-01
5.112893134355545044e-02
2.980198264122009277e-01
-1.917145848274230957e-01
-9.349654316902160645e-01
3.665396571159362793e-01
-5.559756755828857422e-01
-1.310575127601623535e+00
-2.542885392904281616e-02
1.211737245321273804e-01
4.986476302146911621e-01
-3.292507827281951904e-01
-2.432767152786254883e-01
-4.440207183361053467e-01
-1.789962500333786011e-01
1.663903295993804932e-01
1.597323119640350342e-01
1.917230784893035889e-01
-3.181295096874237061e-01
-3.246938586235046387e-01
1.929322630167007446e-01
-2.611810807138681412e-03
-5.326725244522094727e-01
-4.403807222843170166e-01
7.595025002956390381e-02
1.449325531721115112e-01
1.746877878904342651e-01
1.538417339324951172e-01
-2.104796022176742554e-01
3.430736660957336426e-01
3.157010534778237343e-03
1.902360320091247559e-01
-1.583252288401126862e-02
-4.657399356365203857e-01
-2.904475852847099304e-02
-1.371153593063354492e-01
-3.059363663196563721e-01
-6.403377652168273926e-02
-4.610929787158966064e-01
-4.062854647636413574e-01
-6.692647933959960938e-01
-3.305835425853729248e-01
-5.541202425956726074e-01
-3.146376907825469971e-01
-6.145283207297325134e-02
6.825103610754013062e-02
1.741067469120025635e-01
-1.240445524454116821e-01
6.563595682382583618e-02
7.915767282247543335e-02
7.257225364446640015e-02
-3.022810220718383789e-01
-9.697208553552627563e-02
3.779540061950683594e-01
1.249464079737663269e-01
3.481332063674926758e-01
3.493392169475555420e-01
-4.080005586147308350e-01
-1.223425045609474182e-01
1.935173422098159790e-01
2.600483298301696777e-01
1.921603977680206299e-01
-5.199141502380371094e-01
3.122354671359062195e-02
2.382235229015350342e-01
-6.426801681518554688e-01
-2.429105788469314575e-01
3.778932392597198486e-01
2.126156687736511230e-01
-2.581379115581512451e-01
1.673490554094314575e-01
2.448759414255619049e-02
1.787090003490447998e-01
1.912990808486938477e-01
-6.107860803604125977e-01
-3.699258565902709961e-01
-3.703192174434661865e-01
-2.442090362310409546e-01
3.077920973300933838e-01
-5.078570842742919922e-01
-8.504045009613037109e-01
-4.115104079246520996e-01
1.873562783002853394e-01
2.576327025890350342e-01
-4.658417105674743652e-01
7.571420073509216309e-02
6.495875865221023560e-02
-1.071955636143684387e-01
-4.005051255226135254e-01
9.587153047323226929e-02
9.468931704759597778e-02
3.012826740741729736e-01
2.879636287689208984e-01
-1.085212349891662598e+00
-2.097159326076507568e-01
-7.419265508651733398e-01
1.786749623715877533e-02
2.944750189781188965e-01
3.349614739418029785e-01
-5.971261858940124512e-02
-3.142155110836029053e-01
-7.620506882667541504e-01
2.923832833766937256e-01
9.882632642984390259e-02
1.968762427568435669e-01
-1.348846256732940674e-01
4.361665844917297363e-01
1.465966403484344482e-01
1.814568489789962769e-01
-1.664209127426147461e+00
1.819264702498912811e-02
1.976225823163986206e-01
-2.261694222688674927e-01
3.151106536388397217e-01
-4.695077240467071533e-01
2.181747555732727051e-01
-3.908050060272216797e-01
-1.247524499893188477e+00
1.989858001470565796e-01
-1.069541454315185547e+00
-1.156142473220825195e+00
-3.720676004886627197e-01
2.429057657718658447e-01
-1.126736640930175781e+00
-2.157498598098754883e-01
2.863321304321289062e-01
2.892904877662658691e-01
3.341863751411437988e-01
-8.477159142494201660e-01
2.893148064613342285e-01
-2.739585638046264648e-01
1.578895151615142822e-01
-2.292068958282470703e+00
1.026451066136360168e-01
-6.978795528411865234e-01
-1.208327651023864746e+00
-8.918040990829467773e-01
-4.859584569931030273e-01
1.528017222881317139e-01
-2.613434568047523499e-02
3.919248282909393311e-01
-1.381041258573532104e-01
7.299790531396865845e-02
3.626538813114166260e-01
3.409182727336883545e-01
2.112958580255508423e-01
-4.552882909774780273e-01
-6.268898248672485352e-01
8.651016652584075928e-02
-3.973818719387054443e-01
3.579448163509368896e-01
3.775855898857116699e-01
-1.275877654552459717e-01
-4.913270939141511917e-03
5.661787837743759155e-02
-4.459849596023559570e-01
1.830739229917526245e-01
1.845473647117614746e-01
-6.000378727912902832e-01
-6.056597232818603516e-01
-5.189766883850097656e-01
2.620183825492858887e-01
-7.679809331893920898e-01
-5.275797247886657715e-01
4.502024352550506592e-01
-3.526239991188049316e-01
3.556163311004638672e-01
-9.253820776939392090e-02
-4.902748763561248779e-01
2.681520283222198486e-01
-1.236607432365417480e+00
-6.109338402748107910e-01
2.967936694622039795e-01
-8.940510749816894531e-01
-4.057176038622856140e-02
4.362756013870239258e-01
-1.738979667425155640e-01
-7.594378590583801270e-01
2.173551470041275024e-01
-2.697468698024749756e-01
-2.098333537578582764e-01
-6.078146100044250488e-01
-5.151965618133544922e-01
-3.704639375209808350e-01
-1.484721302986145020e-01
-5.683121830224990845e-02
5.658543482422828674e-02
2.539279758930206299e-01
1.243660077452659607e-01
-3.267599269747734070e-02
5.597744584083557129e-01
-2.819985449314117432e-01
-4.343818426132202148e-01
3.338050544261932373e-01
2.590149044990539551e-01
2.036929875612258911e-01
-7.017700076103210449e-01
-7.795838117599487305e-01
3.146229386329650879e-01
3.826330304145812988e-01
-2.333224862813949585e-01
1.456039398908615112e-01
3.800462484359741211e-01
-1.356793791055679321e-01
3.912486433982849121e-01
-3.925804197788238525e-01
3.766631186008453369e-01
2.932164669036865234e-01
-6.112458929419517517e-02
-6.259775757789611816e-01
-3.459197580814361572e-01
3.264732658863067627e-01
1.892342567443847656e-01
1.481934338808059692e-01
-1.626102179288864136e-01
3.524712026119232178e-01
-5.592295527458190918e-01
-3.660842478275299072e-01
-2.705618143081665039e-01
3.781635761260986328e-01
1.803905665874481201e-01
-5.545865893363952637e-01
1.035794466733932495e-01
-1.024309918284416199e-01
-2.172625213861465454e-01
2.777400612831115723e-01
1.276933997869491577e-01
2.972722947597503662e-01
-3.472088277339935303e-01
-9.802675843238830566e-01
4.159196019172668457e-01
-4.579090178012847900e-01
1.212284415960311890e-01
1.806216388940811157e-01
4.132432043552398682e-01
3.735953271389007568e-01
-1.836797297000885010e-01
-1.038729906082153320e+00
-5.025179386138916016e-01
2.519592046737670898e-01
2.097488194704055786e-01
3.150857686996459961e-01
-3.630217313766479492e-01
1.968091428279876709e-01
2.599302530288696289e-01
-9.340989589691162109e-01
-2.536152601242065430e-01
-3.159930109977722168e-01
-1.323257207870483398e+00
-6.554010510444641113e-01
-3.955893218517303467e-01
-9.374862313270568848e-01
3.269941508769989014e-01
-8.219168186187744141e-01
2.983591854572296143e-01
-4.443191289901733398e-01
1.825159341096878052e-01
2.761918902397155762e-01
-3.457729220390319824e-01
-1.258466094732284546e-01
-1.287731528282165527e+00
4.255621135234832764e-01
-6.541369557380676270e-01
-1.157193064689636230e+00
-8.594969511032104492e-01
-7.231546193361282349e-02
3.415533006191253662e-01
3.160716593265533447e-01
-3.150620460510253906e-01
3.893224000930786133e-01
4.022749364376068115e-01
-2.265219986438751221e-01
